solver_type L2R_L2LOSS_SVC_DUAL
nr_class 11
label 1 2 3 4 5 6 7 8 9 10 11
nr_feature 7146
bias -1
w
-0.1162720029888758 0.3053982780658228 -0.1573689182401576 -0.03027996704029719 -5.421010862427522e-20 -0.05349482754188296 0 -0.0606847986161135 2.168404344971009e-18 0 0 
-0.112229451210977 0.1340595540171235 -0.06228339139930229 0.1196287244287469 -1.301042606982605e-18 -0.009106762389573884 -0.002332959646362231 -0.02936107915901678 3.469446951953614e-18 2.168404344971009e-19 -0.00734757080542818 
-0.2096626928812853 -0.2722074025793259 0.09486822149953705 -0.3503844184406085 -0.413508085023464 -0.3870540707215787 -0.3335159978040119 -0.4014735312772102 -0.521411204909627 -0.4660372806843491 -0.3788242167876498 
0.6002509654991078 -0.3670535594212684 -0.4336000897883578 -0.0274139262715667 -0.007103454802950349 0 -0.007964159822841516 -0.04871456053015855 -0.02270220751376246 -8.673617379884035e-19 0 
0.2798956886351817 -0.1796792697899061 -0.1243053370201657 -0.07221209333421613 0 0 0 0 0 0 0 
0.1271420763799249 0 0 -0.07388291357987678 0 0 0 0 0 0 0 
-0.06013457445336347 -0.1105505917402906 0.2396280637128924 -0.03708521740412149 8.673617379884035e-19 -0.007674970287783447 -0.002332959646362238 0 0 0 -2.168404344971009e-19 
0.5036817338185947 -0.3545433510016275 -0.3410337407547682 -0.01222765379273437 -0.007103454802950349 0 0 -0.04871456053015855 -0.02270220751376246 0 0 
0.2720428640936662 -0.1796792697899061 -0.1243053370201657 -0.07221209333421613 0 0 0 0 0 0 0 
-0.05453955655846086 0.01217690181154581 -0.01571941837601018 0.01072098594896637 -0.01534977951543088 -0.1777793995346838 -0.07675768973035786 -0.1966019878734712 -0.03882346638333239 -0.03144111332256594 -0.0402430837404544 
0.03020410440811465 -0.3027700829104046 -0.6110275335442714 -0.3503844184406085 -0.413508085023464 -0.3870540707215787 -0.3335159978040119 -0.4014735312772102 -0.521411204909627 -0.4660372806843491 -0.3788242167876498 
0.007878363957445783 -0.05945269609141569 -0.02878594874527883 -0.07560194325734966 -0.1726915804936422 -0.1772621327294082 -0.3154067285551426 -0.2371492705358873 -0.02989103369287218 -0.3116441218253619 -0.2481545426825214 
-0.02958356349085358 0.2471637381175082 -0.2289710019098682 -0.08316458167184904 2.38524477946811e-18 -0.007516489542907531 -0.003174751324348512 -0.004652446511739897 -0.08004940689453278 3.469446951953614e-18 -0.001844831353008012 
-0.2960980447054016 0.4510305628058086 -0.2818342255505443 -0.2318825843990418 -0.002263820767925062 -0.001543859980941989 -0.01882851776569045 -0.1545010100259135 -0.05866990329406661 0.08716947400340966 -0.01178896743960325 
0.08335746185928523 0.1331929140860262 -0.1626688628996634 -0.1155257553114014 -0.006050577530452588 0.1888472695103028 0 -0.1659138425430562 -0.04128252097569524 -2.168404344971009e-19 -0.004326013352905537 
0.2246973783017835 0.08214410290756381 -0.1925511321203967 -0.09038065311053921 -0.01619746250229861 -0.007187748837250195 0 0 -0.06580879291757602 0 0 
-0.01753969890385235 0.03698520830971395 0 0 0 0 0 0 0 3.469446951953614e-18 0 
-0.8174489271527324 1.069125887062201 -0.5238404994050552 -0.4123614317819924 -0.002263820767925062 -0.001543859980941989 -0.01430277862979383 -0.09796674763750825 -0.05866990329406661 0.09130345936623166 -0.01178896743960325 
-0.2575625467275928 0.5439976465076325 -0.2482601820141757 0.02176540283836976 0 -0.03543927907169098 0 -0.01017560684485013 -0.02809972298381254 -2.168404344971009e-19 0 
-0.1897959998751539 0.136772813684858 0 0 0 -0.001418143490363744 0 0 0 0 0 
0.2160791866833597 -0.132886052488538 0.01129922556737099 -0.01374030654311685 0 0 0 4.336808689942018e-19 1.084202172485504e-19 0 0 
-0.05217223500753308 -0.1084857830869487 0.3821431731131623 -0.2504585245688283 -0.01905792268071881 -0.007357160533659776 0 -0.229238038390193 -0.0230442024707816 -0.0007113054339342214 -0.0036714563355 
0.1375613550368766 -0.02295207085479558 -0.1105479753535983 -0.007203453691596162 0 0 0 0 0 0 0 
0.2126648640244003 -0.0428568533824226 -0.1120044940051428 -0.08604251507055985 0 -0.003441417625576269 -0.03191228071940794 -0.03621559685007447 -0.06020925574336843 0.1903828047043352 0 
0.03958441327211485 -0.02295207085479558 0 0 0 0 0 0 0 0 0 
0.2556990511330376 0.1592148132201534 -0.303626200225167 -0.007397053091524277 -0.0007108279387056753 0 0 -0.03367502637578288 0 -0.000711305433934221 0 
0.1375613550368766 -0.02295207085479558 -0.1105479753535983 -0.007203453691596162 0 0 0 0 0 0 0 
0.0438843982678973 -0.02295207085479558 -0.06473868851094583 0 0 0 0 0 0 0 0 
-0.07319936628585244 0.05033694929429417 -0.05274042010330739 0.0255413897130101 -0.1237179556326129 -0.01720558074888086 -0.1443245351818206 -0.08419592917000571 0.04133788089659307 0.08257803168614972 -0.06911317909669973 
0.2280474188627934 -0.1293458619354473 -0.102120471838186 0.02834952210702493 -0.0907957044618737 -0.01070749747835645 -0.06080733977294177 -0.1431190990002068 0.004396315086611669 -0.08933396518923178 -0.05267252673259264 
0.0778599906277708 -0.1158799242221608 -2.168404344971009e-19 -0.01594547347501013 0 0 0 0 0 -0.01909084521196079 -0.001629667610734466 
-0.2146651173330966 0.2466823249454936 0.002945082618812769 -0.02917795160534094 1.734723475976807e-18 -0.00904398680161545 0 -0.05005779994746432 0.03705570879263177 -0.02462944520478616 -1.734723475976807e-18 
0.2720428640936663 -0.1796792697899061 0 -0.01594547347501013 0 0 0 0 0 0 0 
-0.6281162468324276 0.7878366935090366 -0.2011375788579766 -0.006002307566480606 0 0 0 -1.734723475976807e-18 -0.01584201146961513 0 0 
-0.1987041530798041 -0.319201604978414 0.588058655594873 -0.08192356082247036 -0.02447696417637929 -0.002534837173295449 0 0 2.168404344971009e-19 0 0 
0.01202364959722144 -0.1900333247621666 0.1312355299151389 -0.0394760606076849 0 -0.005208576245082819 0 4.336808689942018e-19 -0.04372907050581905 -0.007979203927988149 0 
0 0 -0.1243053370201657 0 0 0 0 0 0 0 0 
-4.336808689942018e-18 -0.07089126784488657 0.0542731848709746 -0.01382766459298864 0 -0.005208576245082819 0 4.336808689942018e-19 0 -0.007979203927988149 0 
-0.2543782110401314 0.01766529222157752 0.3702058489548745 -0.08610012766499398 -0.02447696417637929 -0.006086261510382929 0 0 -0.01767630142261861 -4.336808689942018e-19 0 
-0.2808384850727628 0.4363647782299472 -0.08732352534001203 -0.214258391746927 0 0 0 0 0 0 0 
0.05244680170141704 0.08477343389937377 -0.02693280511406216 -0.1541229065209985 -0.02723142822175262 -0.01544041444846531 -0.002391602727686297 -0.09284701404398117 -0.02434811751659342 -0.02744646778009909 -0.01154632868127084 
0.01055226011342923 -0.2443165358112739 -0.07617257632109005 0.416436237852146 0 -0.003557781071711071 -0.00187697174034396 0 -0.004814035073969805 0 0 
0.2143238872203148 -0.07717635778931488 -0.05897545146248584 -0.03978395794681994 0 0 0 0 0 0 0 
0.2143238872203148 -0.07717635778931488 -0.05897545146248584 -0.03978395794681994 0 0 0 0 0 0 0 
0.740945790573068 -0.3116827958239029 -0.2718812389038592 -0.1062922721536524 0 0 -0.0005146309873423373 0 -4.472333961502706e-19 0 -0.008964982299322582 
0.2143238872203148 -0.07717635778931488 -0.05897545146248584 -0.03978395794681994 0 0 0 0 0 0 0 
0.3641980482547282 -0.1057614083849669 -0.2567401127573745 -0.04656800107945926 -0.127488153895674 -0.05917294470203405 -0.03094446778502341 -0.07937049611831903 -0.1221967975377489 -0.002356051382855154 -0.01466588336081185 
-0.002188506485771465 0.0004071535438756827 0.0254698685941751 -0.1038982744940927 0 -0.0004347810500680046 0 0 0.07947084839869223 0 0 
0.1173079379900718 0.05003184163531258 0.05512932965568158 -0.2019263853918772 -0.02905180630623814 -0.01901629855405667 0 0.2056928000656068 -0.03008587435620757 0 -2.168404344971009e-19 
0.0284338559996895 -0.1696935513675344 0 0.2078149627697946 0 0 0 0 0 -2.168404344971009e-19 0 
0.4155246301559775 -0.6496905470200622 -0.4918781116294102 0.2100302507077511 -0.01790047080060706 -1.409462824231156e-18 -0.0309444677850234 -0.05230280003664059 -0.1119680059105871 -0.00235605138285517 -0.01431165109505939 
0.2330424059727012 -0.2229969162229563 0.01526200896487258 -0.05521471797810458 0 0 0 0 -0.05524514583652147 0 0 
0.002144179359357453 0 0 -0.04201765351245233 0 0 0 0 0 0 0 
0.0918920380020066 0.07443239657254209 -0.04728471606407251 -0.1905170573782236 0 0 0 0 0 0 -0.002708313779895157 
-0.2321914634716489 0.3916827386702729 -0.0228808095844613 -0.01508902646060529 -0.01089085998983141 -0.01142514120814008 0 -0.008952294013759915 -0.08990360222624878 0 -0.1253881959949418 
-0.0571794981385075 -0.2017356325094211 0.1956552536791657 0.2318451965916147 -0.0143705400034831 -0.01243783001142647 0 0 -0.02236837140660802 0 0 
0.1310203818218707 -0.08732539861350769 -0.112589386919641 8.673617379884035e-19 -0.005445042662979847 -0.005778141170962384 -0.04738675530549433 0.148613059073988 -0.02052990597840812 -0.01286734675106052 0 
-0.005599125159295806 0.120400816769885 -0.08832039018332256 0 0 0 0 0 0 0 0 
-0.5454816146688006 0.6898075554394298 -0.3066939455308467 -0.04410463816988727 -0.01089085998983141 -0.005009448833983344 0 -0.0007104013041360623 -0.02014080648350499 0 0 
0.127333114171972 0.1715908323424513 -0.07348293808694298 -0.09405264035152294 0 0 0 0 0 0 0 
-0.005599125159295806 0.120400816769885 -0.05226854589591896 0 0 0 0 0 0 0 0 
-0.05968260652515373 0.008368280048994437 0.04054119090331693 0.01430828612827935 -0.0248482742096563 -0.04367370497458524 -0.06792590782620604 0.01743608555384729 0.08309516672988358 -0.01606260502083146 -0.0536659926910393 
-0.1052804078570505 0.1690900515782409 -0.08911628011626352 0.01676660974513314 -0.02847776960898691 -0.0203396124963727 -0.01019959927159954 -0.04462504054918724 -0.04583240508917145 -0.08021589547131761 -0.03802780209155762 
-0.01777957097641228 -0.02661942936065261 0.1151075143738377 -0.2059369234014671 -0.06069264610969909 -0.03820795546910258 -0.0728979732438136 -0.05123945272440036 0.03406458609584859 0.2034876529427208 -0.01773385516214013 
-0.09737568731951284 0.1899539721990417 0.05419958532405723 -0.05795492476107228 -0.008795408209296335 -0.03403739377554672 -0.01270864997195956 -0.08151294071012963 -0.04770417756311958 -0.05264120159467475 0.07555196004772567 
-0.09265300906369786 0.1449528254474715 0.1075216591745834 -0.147542096122892 -0.007655504798098453 -0.006145451402675605 -0.04127414218001971 -0.0734909868978542 -0.03245507357533469 0.07092150095508491 -0.04113726962152944 
-0.1314186095178257 0.3501850110824846 -0.1814786530218836 -0.1314981601518579 -3.649128405450853e-05 -0.002169268001688183 -4.336808689942018e-19 -0.03018957456160296 5.421010862427522e-19 0 -0.008057573056904254 
-0.1955539587365914 0.439650224322059 -0.3517686379092999 -0.2830024455570354 6.505213034913027e-19 -0.005908364557701712 -0.0009158932735159449 0.1654519446191136 -2.602085213965211e-18 -0.08110844441956272 -0.001651070271787092 
0 0 0 0 0 0 0 0 0 0 0 
-0.2578467437687179 0.06987778820875196 0.2036931797610847 3.469446951953614e-18 0 0 0 0 0 0 0 
-0.1471670684526042 0.513126325411656 -0.2247013880181015 -0.1314001950605527 2.168404344971009e-19 -8.131516293641283e-20 -4.336808689942018e-19 -0.03018957456160297 5.421010862427522e-19 0 -4.336808689942018e-19 
-0.259642117113104 0.2942263953264331 -0.1996681324853585 6.938893903907228e-18 4.336808689942018e-19 0 -4.336808689942018e-19 -0.03018957456160297 -4.336808689942018e-19 0 0 
-0.06213131431223201 0.232927367233641 -0.06396608462881023 0.03691324816836141 -0.0003821579164705523 -0.01373232480087768 -6.938893903907228e-18 -0.1082307224911717 -0.05342848886742044 0 -0.002726716414812454 
0 0 0 0 0 0 0 0 0 0 0 
-0.579320502777294 0.01879060010081986 0.4535360361657538 -0.02653581168178801 -0.000670071413154823 0 0 0 8.673617379884035e-19 0.1142720580913564 -0.04113726962152944 
-0.04024720878915589 0.08157649845201147 0.02888304263295253 -0.07292546287899494 0 0 0 0 0 0 0 
-0.1441680010412253 0.2152734580149691 -0.1279655784336549 -0.01978132646921803 0 -0.006110694468664487 -0.0058743442280575 -0.01411872260394778 0.03977519842865959 -8.673617379884035e-19 -0.003158692019641868 
0.2077217443643971 0.1505078108195898 -0.1570720681467523 -0.16501219902288 0 0 0 0 -0.03533121337438117 0 0 
-0.01941300565793844 0.08545232254794599 -0.005247173803128786 0 0 0 0 0 0 0 0 
0.04805540158289124 -0.2786634814399319 0.237999081618858 0.09059903089534471 0 -0.006110694468664488 0 -0.01411872260394778 0.07192544080461633 0 -1.084202172485504e-19 
0.2215511763189726 0.2107512542955353 -0.3506524141269811 -0.2414146536485542 0 -0.003580763169472444 0 -0.008665973445112822 0.0746931541990806 -0.02041885825206327 0 
-0.3363940669445228 0.5855486605383678 -0.1108160713877429 -0.06456257786966119 0 0 0 0 -0.03533121337438117 0 0 
-0.3528627658344399 0.01021848341789152 0.06925970662960866 0.291503365637887 -0.02502845463533258 -0.03334182699386762 -0.003013326061739229 -0.04450692477530847 -0.07735167342792422 -0.01851494204368778 -0.03104051784259282 
-0.1224151143188115 0.191253431893018 0.02533228761378488 -0.05663941596775783 -0.02525958756143881 -0.01301033043486123 -0.01199320053347199 -0.01533915446116084 0.001096733753185223 1.301042606982605e-18 -0.003158692019641866 
0.108402856367137 -0.1246004724416581 0.06646729531377651 -0.04669412983366226 -0.03345404569031081 -0.09401093615319851 -0.1372895610206656 0.01133579937448694 -0.02474119262526087 0.1165820343990827 -0.1728113340224685 
-0.2156013985360187 0.04780376636095096 0.2803285230267076 0.06625986636465356 -0.01857062314673558 -0.01046424440238093 -0.004565789361914848 -0.1576909499353661 -0.04738601731359543 -0.0426716722055052 -0.03421405970905719 
-0.4667895798377516 0.7582423220225818 -0.2263195647230996 -0.06198080032124617 0 -0.007073821756014969 8.673617379884035e-19 -0.01979830324587269 1.517883041479706e-18 -1.734723475976807e-18 0 
0.171734664720188 -0.1226508741106585 -0.0301316388499464 -0.1782788866431098 -0.001665011955730958 -0.007073821756014966 1.215492279309921e-19 -0.04925505417641822 -0.04569952735907211 -0.002982670544138804 6.505213034913027e-19 
-0.07680090627307015 0.1545023360214521 0.004536179356023664 -0.04527971475927278 0 -0.003759042480653597 0 -0.005219633678141278 -3.035766082959412e-18 0 0 
0 0.08485889737819818 -0.1066081782658969 -4.336808689942018e-19 0 0 0 0 0 0 0 
-0.5933397087112843 0.9139157288911233 -0.2263195647230996 -0.06198080032124617 0 -0.007073821756014969 0 -0.01979830324587269 -3.686287386450715e-18 -1.734723475976807e-18 0 
0.6150901163769664 -0.5403367475552077 -0.1755136742309672 -0.06198080032124614 -0.001665011955730958 -0.007073821756014969 0 -0.01979830324587269 -0.02391090367780117 -8.673617379884035e-19 0 
-0.201252432088516 0.3404435886709468 -0.1243508732465734 -0.04527971475927278 0 -0.003759042480653597 0 -0.005219633678141278 3.252606517456513e-19 0 0 
-0.2901405414238699 0.06493195844394714 0.2083741919938146 -0.02621369296024111 0 -0.005218452443414501 0 -0.01979830324587269 -3.686287386450715e-18 -1.734723475976807e-18 0 
0.050681014547404 0.02728535841091091 -0.2417685503130916 0.1761442246294523 -0.04053074823293315 -0.004734825154962885 1.084202172485504e-19 -0.2620033985000156 -0.02236837140660801 4.336808689942018e-19 -0.01277069112181844 
-0.1710790487998283 0.03394347616504191 0.1309484908593026 0.01630288147034971 0 -0.0004347810500680046 -0.005337017718789775 0 -0.001426284338501834 0 0 
-0.1182426910291156 0.1371979292397894 0 -0.01670108556197339 0 -0.001855369312600469 0 0 0 0 0 
-0.1567436478750347 0.1734300445539312 -0.05642029541126527 -0.003886556442974912 0 0 0 0 0 0 0 
-0.09051635032549338 0.2550172588515935 -0.02203969784270484 -0.05203847966538738 -0.01624858550146326 -0.007814847349825977 -0.0005275522484660831 -0.02141819600077897 -0.0328549803839838 -0.03426035435705599 -0.004644590762839153 
0.2244391522806617 0.2132215423727238 -0.6834256440852797 -0.09504727906287117 -0.01495888094546433 -0.03719236240655523 -0.0356550936301254 -0.1625825074884211 -0.04948113680994007 0.08941487602393168 -0.06239341964276794 
-0.04372799292281085 -0.2004499384608697 0.00217044876222563 0.02213845991155473 -0.02616020822945005 -0.00617484771695783 3.361026734705064e-18 -0.00675183787897206 -0.01584201146961513 -0.02043776146891253 0.1297929606713504 
-0.06781450592526483 0 0 0 0 0 0 0 0 0 0 
-0.06781450592526483 -3.469446951953614e-18 0 2.602085213965211e-18 0 0 0 0 0 0 0 
-0.5954253625094676 0.8331077231752952 -0.3203706457891894 -0.04927408333998043 -0.01424805300675865 -0.03719236240655523 -0.002156086565576908 -0.1344616074521905 -0.04180809793910936 -0.05475599826667994 -0.02125615002123851 
-0.2534158606552389 0.6763453466775595 -0.2958598519414293 -0.1379242628819515 0 0 0 -0.002966602351018428 -0.01584201146961514 -0.005358907035113263 -0.03123902662624583 
-0.06781450592526483 0 0 0 0 0 0 0 0 0 0 
-0.2198825427527591 0.4528145277364639 -0.1387898563373151 -0.01042448076692397 0 -0.002974662672909395 0 0 0 0 0 
-0.01516364513872199 0.02370921400006817 -0.0005548077396313485 -0.0002229944212840718 0 -0.001718418438476167 0 0 0 0 0 
-0.03135595127550656 0.04874945682528739 -0.001172129003751014 -0.0005482025134509076 0 -0.002974662672909395 0 0 0 0 0 
-0.1128272817664459 0.2459690578914982 -0.1097724277932524 -0.00994034474238501 0 -0.002974662672909395 0 0 0 0 0 
-0.2325362681647853 0.3333541939034955 -0.03689150677315434 -0.03191352556942451 0 -0.002974662672909394 0 -0.01292889656496714 1.734723475976807e-18 0 -0.002726716414812454 
-0.01516364513872199 0.02370921400006817 -0.0005548077396313485 -0.0002229944212840718 0 -0.001718418438476167 0 0 0 0 0 
-0.2246340519934646 0.1868814852992355 0.08458763603468027 -0.01876372508823633 -0.06078871243271446 -0.02952626189044815 -0.06331691898880251 0.09754954112114718 -0.1234644857661363 -0.06561384138125556 -0.01347242959379586 
0.2191289972044645 0.04520251457508457 -0.5201983292151663 0.02293944615143955 -0.05584390028990344 -0.01077481581386276 -0.1403403372652195 -0.0796473953137472 -0.05267311054792054 -0.01198566265483806 -0.001599943987730985 
-0.02170521539054312 0.103818026291103 -0.05297009383710238 -0.03340682239768886 5.963111948670274e-19 -0.005183719886450673 7.589415207398531e-19 -0.03860714265370496 -0.0002849649626582745 4.336808689942018e-19 -0.007347570805428179 
-0.1328053589784498 0.5570329658199793 -0.2445201386917717 -0.1782753989779578 -0.01202150070520328 -0.004828709597627943 0 -0.05569617152006705 0 0 4.336808689942018e-19 
-0.2748246197303177 0.2583094847757285 0 -0.1008793907285358 0 -0.002293872424332494 0 0 0 0 0 
-0.2986940299650627 0.06330272498995537 0.1422374078378281 0.03984456054266586 0 -0.003689488168329726 -1.084202172485504e-19 -0.004652446511739897 0 0 0 
0.04147119368821619 0.1293907484241748 -0.1032901213381492 -0.07126647879329376 0 -0.002293872424332494 0 0 0 0 0 
-0.2748246197303177 0.2583094847757285 0 0 0 -0.002293872424332494 0 0 0 0 0 
-0.196679319912937 0.2466286657194433 -0.2345149021857537 -0.006724447472893771 -0.001486376864313368 0 0 0 0 -0.003705894905380279 0 
-0.03417225419976357 0 0 0 0 0 0 0 0 0 0 
0.1985618638474544 -0.08005622296045178 -0.1990008456848603 -0.007203495338100576 0 0 0 0 0 0 0 
-0.03417225419976357 3.469446951953614e-18 -0.008060234960622794 0 -0.001486376864313368 0 0 0 0 0 0 
-0.03417225419976357 0 0 0 0 0 0 0 0 0 0 
-0.03417225419976357 0 0 0 0 0 0 0 0 0 0 
-0.04203410831230918 0.1903876381746723 -0.1026286394762855 -2.602085213965211e-18 0 0 0 0 0 0 0 
-0.04001148655509208 0.158383719107124 -0.09356690830724698 -4.336808689942018e-18 0 0 0 0 0 -0.03288772049737516 0 
-0.3230448255294853 0.03462129256729271 0.2195648109375591 5.204170427930421e-18 0 0 0 -0.02545777064060754 -0.00776671726857416 -0.005957689172852286 0 
0 0 0 0 0 0 0 0 0 0 0 
0 0.04137216730658887 -0.08548472082560746 8.673617379884035e-19 0 0 0 0 0 0 0 
0 0.04137216730658887 -0.08548472082560746 8.673617379884035e-19 0 0 0 0 0 0 0 
0.2430901188127748 -0.1277364557515359 0.08815630151216421 -0.1476944005972754 1.301042606982605e-18 -0.007003265601900995 -0.001907054925018096 -0.003785235527953634 -0.004747225326910144 2.168404344971009e-19 -0.009697049644502775 
0 0 -0.05411172565833238 0 0 0 0 0 0 0 0 
0 0 3.469446951953614e-18 0 0 0 0 0 0 0 0 
0 0 0 0 0 0 0 0 0 0 0 
-0.2624642544185014 0.1861866933659247 0.3479958725538909 -0.1710535823985206 -0.01127028952934426 -0.005132796442639994 -0.006721971289589034 -0.04714566055615365 -0.02147199580671916 -0.0261110523782101 -0.001285207229897606 
-0.2484459682961969 0.2707548286460528 0.1104216035460928 -0.1161623632576871 -0.008197947689787117 -0.02191160954601418 0 -0.02065714907369354 -0.03383825453270804 0 0 
0.1931613792879415 -0.03615095899594267 -0.06642687285304638 -0.09327540966110685 -8.673617379884035e-19 -0.005881785386287225 -0.003696636874688324 -0.02065714907369354 -0.03948022603273486 0 4.336808689942018e-19 
-0.08058867377082245 0.1563206538894046 -0.1283162794440404 0.03964645963543742 0 -0.00263390273756052 0 -0.04384000811798724 0.1047060964459162 0 0 
-0.1509301522435886 0.1210546045079137 0 0 0 0 0 0 0 0 0 
-0.2647978937389414 0.4420353421674182 -0.1533766145955198 0 -0.008197947689787117 -0.02191160954601418 0 -0.02065714907369354 -0.03383825453270802 0 0 
0.03592689457904699 0.2284248455221577 -0.0647108424859871 -0.1609709644291897 0 0 0 -0.02065714907369354 -0.03383825453270802 0 0 
-0.2174092053888287 0.2589389323846908 -0.08646258925237869 0 0 0 0 -0.02065714907369354 -0.03383825453270802 0 0 
-0.2322841667466835 0.406266562901585 -0.1585218320764613 0.02564525762664906 -0.009768954119817957 -0.004469996030386482 0 -0.00921307278328899 -0.01167605789749679 0 0 
-0.05477978431275663 0.2995446840266852 -0.1339955621121833 -0.1077831141367923 0 -0.005593026025158258 0 -0.009213072783288994 -2.168404344971009e-19 -0.02011888283246249 4.336808689942018e-19 
-0.1183421280858571 0.1246334164876098 0 -0.03191974554263817 0 0 0 0 0 0 0 
-0.1894596362021066 0.2834209781716125 -0.05456847481478895 -0.04466526113671334 0 -0.001659306238061991 0 -0.00921307278328899 0 0 0 
-0.1894596362021066 0.2834209781716125 -0.05456847481478895 -0.04466526113671334 0 -0.001659306238061991 0 -0.00921307278328899 0 0 0 
-0.1183421280858571 0.1246334164876098 0 -0.03191974554263817 0 0 0 0 0 0 0 
-0.06704829736071323 0.05072469284774034 0 0 0 0 0 0 0 0 0 
-0.3302510482874271 0.03931078341045333 0.3620139307765124 -0.1597510446372553 -0.02905180630623814 0 0 -1.734723475976807e-18 0.1961378391888128 0 0 
-0.1099960492754397 0.04990561225188612 0.2616530234290811 -0.1037182190202219 -0.02145544314869642 -0.007094987393840109 0 4.336808689942018e-19 -0.149255241720769 0 -0.007052729767717991 
-0.01838267046779216 -0.1510143212845702 0.1118044561750782 0.1729508050923475 0 0 0 0 0 0 -0.005022219857876197 
-0.0380536916087916 0.1663396599084924 -0.03503263248530242 0 -0.02905180630623814 0 0 0 -0.01036133784923315 0 0 
-0.006619545192353336 -0.006526104267623676 -0.1015006281744086 0.2385914179513101 -0.02905180630623814 0 0 -0.01205743181970061 -0.03008587435620757 0 0 
-0.400861367642087 -0.2779121545898117 0.6507775752643072 -0.1830574731928316 0 -0.007094987393840109 0 0 0 0 -0.004326013352905537 
0 -0.1954992170411686 0.08590196063017654 0 0 0 0 0 0 0 0 
-0.1838284879335411 0.1337443118255945 0.04383630875512511 0.04071564819336759 -0.01466609039186242 -0.01140951421230033 -0.01982634388008855 0.0498220046119911 -0.08380454465433432 -0.2527138953488662 0.05847218591573787 
-0.1263871831653944 -0.2170974787068051 0.1221361643772633 0.2803311021929328 0 0 0 -8.673617379884035e-19 -0.02888417984294926 0 0 
-0.2735805605798463 0.01347866470139842 -0.1646857525957218 0.342060891449499 0 -0.00163413186041672 -0.004229301778103614 -0.01488440088036985 -0.03319464795965573 -0.02478943590843945 -0.05629491786798679 
-0.04379728062379269 -0.02376587178274694 -0.06435785046936728 0.0614970057520601 0 0 0 -0.01357843272392914 0 0 0 
0 -0.02376587178274694 -0.06435785046936728 0.06149700575206008 0 0 0 0 0 0 0 
0 -0.02376587178274694 -0.06435785046936728 0.06149700575206008 0 0 0 0 0 0 0 
-0.3565632765784975 -0.09574569629322352 -0.06435785046936726 0.5220010761246731 0 -0.001438805886677645 -0.001012994648449998 -0.00724689875435749 0 0 0 
0 -0.02376587178274694 -0.06435785046936728 0.06149700575206008 0 0 0 0 0 0 0 
0 -0.02376587178274694 -0.06435785046936728 0.06149700575206008 0 0 0 0 0 0 0 
-0.1266172254897941 0.09744288820860686 -0.01619263218927835 0.06383175411693215 -0.003936010510662634 -0.008316296764008772 -0.004229301778103612 -0.003811412685913165 0.02320704157620052 -0.03677509856327748 -0.05629491786798679 
0.07779339659488727 -0.4644057438215686 0.08035196653594623 0.1623810315795024 -1.084202172485504e-18 -0.01193637763411644 -0.002947107343537923 -0.04960275838318783 -0.007076121538580127 -0.01058262710110259 -0.02970495898025894 
0.3876083891369195 -0.265897049435056 -0.08352975202038969 -0.1257152890274958 0 0 0 0 0 0 0 
-0.07397990087759143 0 0 0.01580975322936914 0 0 0 0 0 0 0 
0.2237902110640345 0 0 -0.1257152890274958 0 0 0 0 0 0 0 
0.007648941622173304 0.05944003058767679 -0.1114995393426366 0.1242551944717857 -0.009032753100392872 -0.003363863417564933 0 -0.01292889656496714 0.1512608632726452 0 -0.00436328311785881 
-0.3933234189097865 0.3265676441952243 0.1114137877535162 -0.1603567143555996 -0.06081312768713513 0 4.336808689942018e-19 -0.02344157141061223 -0.001136232393513649 -0.009506769265312827 0 
0.3017381676979249 0.07714536313829287 -0.2089021923070472 -0.1672013449072244 0 -0.004198731037595572 0 -1.734723475976807e-18 -0.01918557555283263 0 -0.008305948843453898 
0 0.005580669700083072 0 0 0 0 0 0 0 0 0 
-0.5270245977477644 0.5268038167597738 -0.01729036713916235 -0.1603567143555996 -0.01205799198925779 0 4.336808689942018e-19 8.673617379884035e-19 -0.0005065336649103455 -0.009506769265312827 0 
0 0.005580669700083072 0 0 0 0 0 0 0 0 0 
0.2042837611201361 -0.01253253484229006 -0.3341924816232525 0.05039814768459181 -0.02204479702314389 -0.01083489145322088 -0.0309444677850234 -0.06561134211305283 -0.03790108591913641 -0.001953998252515757 -0.003158692019641863 
-0.05129383072514386 0.07390872363986938 0 -0.03191974554263817 0 0 0 0 0 0 0 
-0.4796931864881935 -0.5118283670916552 0.8042609596682986 -0.06908034982910903 -2.168404344971009e-19 -0.005124760947703109 1.734723475976807e-18 -0.008021261862187691 -0.05184071454913267 0 -0.008305948843453898 
-0.09799459940747633 -0.08752105977927749 0.2664470866785224 -0.0135996017414174 0 0 0 -0.005452749158834947 -0.0002849649626582727 0 0 
0 0 0 0 0 0 0 0 0 0 0 
0 0 0 0 0 0 0 0 0 0 0 
-0.4796931864881935 -0.5118283670916552 0.8042609596682986 -0.06908034982910903 -2.168404344971009e-19 -0.005124760947703109 1.734723475976807e-18 -0.008021261862187691 -0.05184071454913267 0 -0.008305948843453898 
-0.09799459940747633 -0.08752105977927749 0.2664470866785225 -0.0135996017414174 0 0 0 -0.005452749158834947 -0.0002849649626582727 0 0 
0 0 0 0 0 0 0 0 0 0 0 
-0.1119668315638072 0.105866591308676 -0.009192705616285617 0.06518452773556506 -0.04036593127979445 -0.01643174323744674 -0.0375284086493121 -0.08539581015194493 -0.03876577390060549 -0.07876833250180466 -1.517883041479706e-18 
0.6199859988494612 -0.4654043990951386 -0.2156707162627706 -0.1463467899112377 -0.004739390354406868 0 -0.007266913108827815 0 -0.01125362003874565 -0.00827017742046522 -0.001651070271787093 
0.1280224533895433 0.1173967203342774 -0.2776184163784059 -0.07163897965946679 0 -0.007889239882892805 -0.01430277862979382 0.09320053917562214 -0.02200891092126777 -0.1042099977961641 -0.001651070271787091 
0.2924251155888505 -0.3806891437917456 0 0 0 0 0 0 0 0 -0.001651070271787092 
0.7065897693582626 -0.4654043990951385 -0.3503166214928224 -0.1463467899112377 -0.004739390354406868 0 -0.007266913108827815 0 -0.01125362003874565 -0.00827017742046522 -0.001651070271787093 
-0.3701325069613807 0.5099906011469832 -0.1571254049826376 -0.1616488067887543 0 -0.001478477259076235 -0.01430277862979382 -0.05529081119766803 7.806255641895632e-18 -0.08110844441956272 -0.001651070271787092 
0.02131587616781005 0.214204449701208 -0.1571254049826374 -0.1616488067887543 0 -0.001478477259076235 0 -0.05529081119766803 3.469446951953614e-18 -0.08110844441956272 -0.001651070271787092 
-0.3400848689026909 0.2280115687376949 -0.1505260095849308 0.003404339258785418 0 0.1852372229793029 -0.001752781199865292 0.3392362103128744 -0.006498702024573757 -0.01734726916026001 -0.0006879510438474286 
-0.08115417648875002 0.09930105100138453 0.02253860548532318 -0.08697370787924398 -0.0235461324326702 -0.02987929334283186 0 0.1934312753116117 -0.096087214969406 -0.051676110973816 2.168404344971009e-19 
-0.1572402475397398 0.3628481801629074 -0.02706830576359286 -0.09255425868773565 0 0 0 -0.01292889656496714 0 0 0 
0.01131569729359026 0.1061883326366501 0.07152740072729939 -0.01637516831847881 0 0 0 -0.01292889656496714 -0.06270589081115926 0 0 
0.128387793274827 0.1292463601592048 -0.07318540013695557 -0.09255425868773565 0 0 0 -0.01292889656496714 0 0 0 
0.4797842032724374 -0.07070736772414667 -0.2283591425650902 -0.1357843384343722 0 -0.001897977145155385 0 0 -0.07186425449671641 8.131516293641283e-20 0 
0.260765986363402 -0.0533127851368752 -0.1073356264315312 -0.05117474688387811 0 0 0 0 0 0 0 
0.1149383552230571 0 -0.03373526344661103 -0.07502216748090652 0 -0.001800236676984313 0 0 0 0 0 
0.2374586561145941 -0.07070736772414667 -0.08358918213586092 -0.07502216748090652 0 -0.001800236676984313 0 0 -0.01069412188620873 8.131516293641283e-20 0 
0.260765986363402 -0.0533127851368752 -0.1073356264315312 -0.05117474688387811 0 0 0 0 0 0 0 
0.6823839567025832 -0.3947216809038718 -0.2768599646864526 -0.169518207486887 -8.673617379884035e-19 -8.074310701008415e-05 -0.002535392798660832 4.336808689942018e-19 -0.05405762667124495 -0.02340946163229056 -0.005188070143537517 
0.06876746943318236 -0.06020356616894501 -0.01874249644200222 0.1268188815072939 0 0 -0.008171022929241555 0 0 0 -0.005188070143537519 
0.09968861455004779 -0.0125740267461999 -0.07659256145859462 0 0 0 0 0 0 0 -0.005188070143537519 
0.09968861455004779 -0.0125740267461999 -0.07659256145859462 0 0 0 0 0 0 0 -0.005188070143537519 
0.09968861455004779 -0.0125740267461999 -0.07659256145859462 0 0 0 0 0 0 0 -0.005188070143537519 
-0.02801191958495108 -0.06020356616894504 0.148985092713407 -0.01232470615382905 0 0 -0.008171022929241555 0 0 0 -0.005188070143537519 
0.09968861455004779 -0.0125740267461999 -0.07659256145859462 0 0 0 0 0 0 0 -0.005188070143537519 
0.09968861455004779 -0.0125740267461999 -0.07659256145859462 0 0 0 0 0 0 0 -0.005188070143537519 
0.2541869091998417 -0.08594665671059121 -0.08093952239469773 -0.006547676229594369 0 -0.0006692403717129302 -0.002509050700360025 -0.03235118081169459 -0.007855723723889816 -0.02611852423022331 -0.02481490297518237 
-0.1794633544518404 -0.03318420818642526 0.1347220949711278 -0.02162367433284349 -0.003936010510662632 -0.006727651161366604 0 0.2979350161441012 0.04563261664653813 -0.01198566265483805 -2.168404344971009e-19 
0.05000849329458654 0.06861079384781489 -0.06632485720659445 -0.01976844870166085 0 0 0 0 0 0 0 
-0.09636864050662837 0.0686107938478149 -0.1172269725133446 0.1705917555758884 0 0 0 0 -0.004246378285780067 0 0 
0 0.06861079384781489 -0.07438509216721728 -0.01009358407293343 0 0 0 0 0 0 0 
0 0.06861079384781489 -0.06632485720659445 -0.01009358407293343 0 0 0 0 0 0 0 
0 0.06861079384781489 -0.06632485720659445 -0.01009358407293343 0 0 0 0 0 0 0 
-0.1870872404822677 0.1215304079028954 0.006294325469478458 0.1330100439195557 -0.01112414850681229 -0.02290122307740265 -0.00481478400187141 -0.06187734523237201 0.02584838563993413 -0.05561124684456985 -0.008399453073598276 
0 -0.2264558448454164 0.2163973339388863 -0.0002236268240808102 0 0 0 -0.0121645312567799 0 0 0 
-0.07309265403758761 -0.08787666556122189 0.2113009371233124 -0.03227457116415114 0 0 0 -0.0121645312567799 0 -0.01009255852856558 0 
0 -0.2264558448454164 0.2163973339388863 -0.0002236268240808102 0 0 0 -0.0121645312567799 0 0 0 
-0.2911874573558014 0.3008102494762383 0.142084766295398 -0.05403737207665095 0 -1.734723475976807e-18 0 -0.0121645312567799 1.734723475976807e-18 0 0 
0 -0.2264558448454164 0.2163973339388863 -0.0002236268240808102 0 0 0 -0.0121645312567799 0 0 0 
0 -0.2264558448454164 0.2163973339388863 -0.0002236268240808102 0 0 0 -0.0121645312567799 0 0 0 
0.1154982978433769 0.04430969519036087 -0.0457466069838296 -0.05244984299182229 0 0 0 0 -0.01164412192737044 0 -0.001143042103819878 
-0.4661765440085464 -0.5361425105190506 0.7993099484613908 -0.2450793695560299 -0.02616020822945005 0 -8.673617379884035e-19 -0.03873365924994933 -0.04060906864562298 -0.04231818109423478 -0.04216370405903615 
-0.0319927052769376 0.1774431061271177 -0.08175781777654574 0 0 0 0 0 0 -0.01296598200116344 -0.001143042103819877 
0 0 0 0 0 0 0 0 0 0 -0.001143042103819878 
0.1528018321334305 -0.3877623495400842 0.2645389720146289 -0.02168259183700288 -0.02616020822945005 -0.00617484771695783 -1.084202172485504e-19 4.336808689942018e-19 0 8.673617379884035e-19 -0.02660269215547379 
-0.4661765440085464 -0.5361425105190506 0.7993099484613908 -0.2450793695560299 -0.02616020822945005 0 -8.673617379884035e-19 -0.03873365924994933 -0.04060906864562298 -0.04231818109423478 -0.04216370405903615 
0 0 0.01811985921691082 0 0 0 0 0 0 0 -0.001143042103819878 
0 0 -0.04589252758126675 0 0 0 0 0 0 0 0 
0 0 -0.04589252758126675 0 0 0 0 0 0 0 0 
-0.04237014078991688 -0.2595786146134425 0.1962471844157279 0.09005884463962262 0 -0.006746387781905476 0 -0.03841662310930102 0.06480913742356435 -0.006748569758218683 -0.004656848533478675 
0.09998227401123716 0.06654774731920018 0.002212329235807505 -0.09242653300850226 0 0 -0.02808626907313998 -0.0132226300522768 -0.02178862368127095 0 0 
-0.2861008096236944 0.6513729299542551 -0.2132350053085756 -0.1148528354257476 0 0 0 0 -0.02178862368127095 0 0 
-0.4835288304236851 0.83363455712889 -0.3005873470127938 -0.1148528354257476 0 0 0 -0.006015179519933285 -0.02178862368127095 0 0 
-0.09947121413114908 0.3363686724638493 -0.2644814898490945 -0.04130536516679415 0 -0.001627229811834157 0 -0.01975447752442559 0.06731441304561502 -0.00586845614639312 -0.004656848533478677 
-0.09947121413114908 0.07954610209083429 0 0 0 0 0 0 -0.02178862368127095 0 0 
-0.384117039429288 -0.3567954783589457 0.7086053388865734 -0.06733252228917663 0 0 0 -2.168404344971009e-19 -0.01151607533070242 0 0 
-1.084202172485504e-19 -0.06305336778000345 0.1370154983581559 -0.07264690325447358 0 0 0 0 0 0 0 
-0.1617455867689548 -0.03944221741418811 0.141802229992107 0 0 0 0 0 -0.01151607533070242 0 0 
-0.09589561899672165 -0.08578249846968151 0.1812018961168613 -0.04820909242085633 0 0 0 0 -0.01151607533070242 0 0 
-1.084202172485504e-19 -0.06305336778000345 0.1370154983581559 -0.07264690325447358 0 0 0 0 0 0 0 
0 0 0 0 0 0 0 0 0 0 0 
-0.2659982578404358 -0.08280565941435349 -0.05873328958435128 0.3619067690249701 0 -0.02953576435205327 -0.002765775848315292 -0.06003244847889525 -2.168404344971009e-18 -0.04811908651056687 8.673617379884035e-19 
-0.1972087879768986 -0.1224450996916916 -0.2694845087573802 0.3604644394982393 0 0 -2.168404344971009e-19 0 -1.301042606982605e-18 0 0 
0.001900175963617509 -0.2545877036819709 -0.09300091159068938 0.1679751490044653 0 5.421010862427522e-20 0 0 4.336808689942018e-19 0 0 
-0.3175448339038893 0 0 0.1349744885758473 0 0 0 0 0 0 0 
-0.6363260694287394 -0.1841592962439745 -0.1712728678664028 0.5675748728072674 0 0 0 0 0 0 0 
-0.2842799593059028 -0.2194484981645263 -0.003545278710993464 0.3043568640006286 0 0 0 0 0 0 0 
0.2214214853171261 -0.2011714858899698 0.06805101391741485 -0.05465880063376068 -0.003436588869616672 -0.01080892365867959 -0.009626744608489005 -0.01222964333875853 1.734723475976807e-18 -1.843143693225358e-18 -0.02323431274843227 
0.1454501042003119 0 -0.1102831560723524 0 0 0 0 0 0 0 -0.01904635414759613 
0.1584010270037492 -0.1752704291695457 0.01025764788975726 -0.05589722042947361 -0.002871990860104813 -0.0004674562256155111 0 -0.0009166718727103157 0 -0.02120737284641322 -0.04087330363596042 
0.1454501042003119 0 -0.1102831560723524 0 0 0 0 0 0 0 -0.01904635414759613 
0.2804577885542969 -0.0560228117766447 -0.151224195031343 -0.003532737034156404 0 0 0 0 0 0 -0.01904635414759613 
0.1454501042003119 0 -0.1102831560723524 0 0 0 0 0 0 0 -0.01904635414759613 
0.1454501042003119 0 -0.1102831560723524 0 0 0 0 0 0 0 -0.01904635414759613 
0.4521708590991366 -0.3182516182174426 -0.1297091578723773 -0.2245006668055285 -0.007203762975215162 -0.01205606682244658 -0.0309444677850234 0 -0.02679208651363178 -0.01670284773903651 -0.004780693522799467 
0.1264986550990637 -0.06447569171467467 -0.01568898261929959 -0.116498550009302 0 0 0 0 0 0 0 
-0.3487647601657246 0 0 0.237312554944529 0 0 0 0 -0.01918557555283263 0 0 
0.4521708590991367 -0.3182516182174425 -0.1297091578723773 -0.2245006668055285 -0.007203762975215162 -0.0106118261620364 -0.0309444677850234 0 -0.02280893278003625 -0.01670284773903651 -0.004780693522799467 
0 0 0 -0.08813459212843934 0 0 0 0 0 0 0 
0.210556928684116 -0.1872063402426883 -0.2005402380429759 0.124772465854377 -0.02831965105081968 -0.0105121468424564 -0.00216019239663764 -0.007741869183872953 -0.009402303911549986 -0.08637099728898517 -0.001647863305695663 
-0.02366735183761924 0.1918863037764724 -0.06171245227826604 -0.2058964087822494 1.517883041479706e-18 -0.006415692374156737 -0.03191228071940794 -0.05634821432652018 6.938893903907228e-18 -0.01649515137131024 -0.02500240696192363 
0 0 0 0 0 0 0 0 0 0 0 
0.3534775930205239 -0.1577737871209103 -0.1226962703787881 -0.0519099007002622 0 0 0 0 0 0 0 
0.6070276182584412 -0.524235420654908 0.0001307903957219348 -0.1683983840178007 4.336808689942018e-19 0 -0.03191228071940794 -0.02790374980572885 0 0 0 
0 0 0 0 0 0 0 0 0 0 0 
-0.4451599169801855 0.6072337074159453 -0.1830833029615453 -0.1089589235166755 -0.002647171608428338 -0.01015640398021513 0 -1.301042606982605e-18 -0.04294474219392144 0 0 
-0.01065843648841178 0.1635246237592185 -0.02302374177769538 -0.01891798069787247 0 0 0 0 0 0 0 
0 0 0 0 0 0 0 0 0 0 0 
0.1644692922463339 -0.06621878257792863 0 -0.03552290950056724 0 -0.003780138514972232 0 0 0 0 0 
0 0 0 0 0 0 0 0 0 0 0 
-0.117674967157953 0.2992619448806362 -0.1689382304273053 -0.02874536605986172 -0.003436588869616672 -0.01133503618290607 -0.01496376232727878 -0.01306730456595408 2.602085213965211e-18 -0.01765800525924559 -0.00884480713431483 
0.02854887583511973 -0.0616327348136395 0.1118307384177223 0.02093300092732187 1.301042606982605e-18 -0.007295644075464141 0 -2.38524477946811e-18 -0.04554637195231504 8.673617379884035e-19 -4.336808689942018e-19 
0.5230655044326421 -0.6347182072493838 0.1754367745795093 -0.340328573013654 -0.004701601483663228 0 0 -9.486769009248164e-20 -0.01786045343300762 8.673617379884035e-19 0 
0.2692943542106842 -0.1049663132858167 -0.157882215490936 -0.2396884330413744 -0.006889045900887842 -0.003711382633651531 0 -0.01205743181970061 0.1074513256004286 0 -0.002796842479511717 
0.3483119768668926 0 -0.4222550469898591 0 0 0 0 0 0 0 0 
-0.1457704719247234 0.06094994561600226 0.1638904706231366 -0.1450518505061056 0 -0.001494231718120944 0 8.673617379884035e-19 0 0 0 
0.05394494987734801 -0.1583778354175513 0.2214302303111624 -0.04814451878880526 0 0 0 0 0 0 0 
0.08318757201963883 0 -0.1011926223903171 0 0 0 0 0 0 0 0 
0.1088951686768071 -0.3020119087682526 0.3752303007610834 -0.130902912566752 -0.004726448285612604 0 0 0 -0.01095009892056515 0 0 
0.1293704104681337 -0.1043623073095805 0.07266814416154656 -0.141393749635279 0 0 0 0 -0.02640706824092053 0 0 
0.3834533646403055 -0.0127271217498534 -0.08113474932842775 -0.1843829110829086 0 0 0 0 0 0 0 
0.1601613885193951 -0.0127271217498534 0.003333696063490217 -0.1843829110829086 0 0 0 0 0 0 0 
-0.3511933704546131 -0.05064297179972455 -0.3202460339117403 0.7082764759938798 0 0 0 0 -0.1181336716227541 0 0 
0.3834533646403055 -0.0127271217498534 -0.08113474932842775 -0.1843829110829086 0 0 0 0 0 0 0 
0.1758662884846016 -0.08922838560789015 -0.1147783973137422 0.1293089638261585 0 0 0 0 0 0 0 
-0.3037538295292712 0.3362241903981269 0.01955614168919143 -0.03675806806701626 0 0 0 0 0 0 0 
-0.043371310934434 0.09698096384724066 -0.02214863005518488 0 0 0 0 0 0 0 0 
-0.2219905548873016 0.2565081150304023 -0.02214863005518485 -0.04353873939265739 0 0 0 0 0 0 0 
-0.06049755933974477 0.4355468258860097 -0.3415316588531778 -0.09125494212659681 0 0 0 0 0 0 0 
-0.09014646583971694 0.2548018232038662 -0.02834807387752618 -0.08981134934827158 0 0 0 0 0 0 0 
-0.468205704483755 0.2386618512325222 0.005096090748479077 0.1654543663383014 -0.02455274860323556 -0.00627456361964851 -0.009474030395122587 -0.1192414908519795 -0.03895573400093044 -4.336808689942018e-19 -0.02924190718551764 
0.1287443229511957 -0.2063425656183458 0.1836121014034089 -0.1510707365430093 -0.04289510295947552 -0.007857490162928376 -0.003013758692113718 -0.0267078634327372 -0.03154764802001327 0 -3.794707603699266e-19 
0.2990918493727624 -0.09350842348816871 -0.1140901235673043 -0.1519867927909178 -0.04289510295947552 -0.006482143764656208 -0.00301375869211372 -0.0492139994445879 -0.03353506602363317 0 -3.794707603699266e-19 
0.09945550800807189 -6.938893903907228e-18 0 0 0 -2.590695898550761e-05 0 0 0 0 0 
0.0577395854599308 -0.2144959856181193 -0.07581143535641255 0.1046173524265208 -2.032879073410321e-20 -0.004697777591116129 -3.201784540621255e-19 -0.01521221882076357 1.734723475976807e-18 0 -1.13841228110978e-18 
0.2564760898612961 -0.2063425656183458 -0.07206538371010487 -0.1510707365430093 -0.04289510295947552 -0.007857490162928376 -0.003013758692113718 -0.0267078634327372 -0.03154764802001327 0 -3.794707603699266e-19 
0.5770317836173197 -0.2063425656183459 -0.3711980556113693 -0.1375044445200621 -0.04289510295947552 -0.006482143764656208 -0.003013758692113718 -0.0267078634327372 -0.03154764802001327 0 -3.794707603699266e-19 
-0.1215473750246334 0.2875926371039815 -0.3366867610894283 0.0008070254546568511 2.710505431213761e-19 0 -0.009748048374415862 0 -0.01167605789749679 -0.004382217230946204 -0.005262602700543633 
-0.1579485628910922 0.3122121054034138 0.02134087073917793 -0.05565980242314066 1.301042606982605e-18 -0.006619303364804287 0 -0.03694093225166841 -0.02460941664095881 -0.02366372890171488 -1.734723475976807e-18 
0.2406283976969128 0.03753859786700125 -0.201818834675837 -0.03334668702433508 -0.05637588995546913 -0.007083651330350596 -0.00586192922531821 -0.03165371824751331 -0.07987709617534738 -0.03541300910928082 -0.02112893423609021 
0 1.474514954580286e-17 0 -0.05878302574235747 0 0 0 0 -0.01167605789749679 0 0 
-0.13183247184302 0.3026036935266659 -0.1156014945306965 -0.1645723290377341 0 0 0 0 -0.01167605789749679 0 0 
-0.4157645469944631 0.5934612860195656 -0.18610217135707 -0.02426709025156101 0 -0.006619303364804287 0 -0.03694093225166841 -0.02460941664095881 -0.002498474699509699 0 
-0.04646291682279054 0.1317683310016659 -0.0477793109015787 0 0 0 0 0 0 0 0 
-0.2202642329500161 -0.1613322192667128 0.5322013116724862 -0.08972333018094682 0 -0.005208576245082819 -8.673617379884035e-19 -0.01542466289140429 -8.673617379884035e-19 -0.004479922409199485 0 
-0.03043263573768996 -0.3039457218348621 -0.03149616303770249 0.1055368738113992 0 -0.008556594407302658 2.168404344971009e-19 1.734723475976807e-18 -0.01714151657951037 -4.336808689942018e-19 0 
-0.467850994125951 -0.06619911152270183 -0.1310848856298636 0.4753038687071344 0 -4.024271579887093e-06 -0.02571007414588214 -0.02068562920039254 0 0 -4.336808689942018e-19 
0 0 0.04131548459208802 -0.08142110813255324 0 0 0 0 0 0 0 
-0.4485769338977305 -0.1355896749221785 0.005981391399828282 0.5146989642545796 0 -0.003828898525966819 2.168404344971009e-19 1.734723475976807e-18 -0.01537101807356567 0 0 
-0.467850994125951 -0.1722112037621098 -0.218278189424114 0.7129232046219722 0 -4.024271579887093e-06 -0.02571007414588214 -0.02068562920039254 0 0 0 
0 0 -0.09256634903358969 0.04268519564202213 0 0 0 0 0 0 0 
0.6667442427078245 -0.6381462917433456 -0.27680648424889 -0.3460764628154726 -0.02102961498867553 -0.007094987393840109 0 -0.007519840681036293 -0.04122646155832185 0 0.145633779812176 
-0.07050563090508102 -0.02046412255847334 0.2004342379278549 -0.05103532901106945 0.2279804379748437 -0.01338247436520469 0 -0.003059029070706208 -0.04119787465519525 0 -0.01049106970092089 
0 0 0 0 0 0 0 0 0 0 0 
0.2619599231010787 -0.1357277012295584 -0.1424701668271796 -0.1354110974345071 -0.01036564193727704 -0.001278038137381239 0 0 -0.05030426189612407 0 0 
0.5835660406986607 -0.2672534383194544 -0.301770898946766 -0.2121644707272659 0 -0.001444240660410179 0 0 0.147707420290339 0 0 
0.08762103040439194 -0.00600534964054103 -0.02551402110819606 -1.734723475976807e-18 0 0 0 0 -0.05607508479194816 0 0 
0.4158465468498478 -0.2354913482427234 -0.1490837828170271 -0.01468932252729396 0 0 0 0 -0.004747225326910139 0 0 
0.07342723095445226 0.01129621282724182 0.07568833585775765 -0.04165564556732744 0 -0.00263390273756052 0 -0.02782731358452202 -0.006714129922092939 -2.168404344971009e-19 0 
0 0 -0.03630540779193037 0 0 0 0 0 0 0 0 
0.04988940014802327 0 -0.06386432941747031 8.673617379884035e-19 0 0 0 0 0 0 0 
0 0 -0.03630540779193037 0 0 0 0 0 0 0 0 
-0.1381521440876367 -0.02464791273979508 0.2622655224084298 -0.1034497156473077 -0.002246043030536766 -0.004563375375022455 0 -8.673617379884035e-19 -0.003649538530007462 -0.03203070660559992 -1.084202172485504e-19 
-0.167478095725673 -0.006528207256672817 0.248259043105036 -0.03834028050174006 0 0 0 0 0 0 0 
-0.05590936404562765 0.36726660202238 -0.2434487017685991 -0.06800576666281935 0 -0.004450035363116106 0 0 0 0 0 
-0.04938455784000638 0.2094410864885643 -0.1227705500085242 -0.02216402909688449 0 0 0 0 0 0 0 
-0.07105557435657101 -0.1130696592213253 0.1575045728859152 -0.08468497946094466 0 0 0 -0.03079791323264946 0 0 0 
0.2646279739228307 -0.2337031653846567 0.05971717042576592 -0.1293155869053048 0 0 0 0 -4.336808689942018e-19 0 0 
0 0 -0.05054520115637433 0 0 0 0 0 0 0 0 
0.9156037339001156 -0.6381462917433456 -0.5147641861093278 -0.281594588266953 -0.02102961498867553 -0.007094987393840109 0 -0.007519840681036297 -0.04122646155832185 0 0.145633779812176 
-0.02469684914499403 -0.2337031653846567 0.243736496704503 0 0 0 0 0 0 0 0 
0 0 -0.05054520115637433 0 0 0 0 0 0 0 0 
-0.03337710411269594 -0.06345128424544007 -0.1345299147048274 -0.03295231741795821 0 0.2509303229282783 0 0 0 0 0 
0.6930097217388373 -0.5378578834628847 -0.1819925493743083 -0.2088680448859733 -0.02116775730605506 -0.03506541854184007 0 -0.02816886251161415 0 0 0 
0.004199655217710347 0 3.469446951953614e-18 0 0 0 0 0 0 0 0 
0.3675501958410058 -0.4847458200513584 0.04940300160466164 0.2120962310710016 0 -0.001962992802008555 0 -0.01017560684485013 -0.008189446317198671 0 -0.001847748283327436 
0 0 4.336808689942018e-18 0 0 -0.03506541854184007 0 0 0 0 0 
0.7469548036204832 -0.5620189168404079 -0.1819925493743083 -0.2088680448859733 -0.02116775730605506 -0.03506541854184007 0 -0.02816886251161415 0 0 0 
0 0 0 0 0 0 0 0 0 0 0 
0 0 0 0 0 0 0 0 0 0 0 
0.07450236227451922 0 -0.03634618357338013 -0.07444616482942765 0 0 0 0 0 0 0 
0 0 0 -0.01419537863335307 0 0 0 0 0 0 0 
-0.2274851050691227 -0.1599928891586032 0.147328769228127 0.3546568850800133 0 0 0 -0.008241892709623843 0 0 0 
0.1456331316306892 -0.05905207945589369 0 -0.08318574104264369 0 0 0 0 0 0 0 
-0.03288156046645237 0.01993252613252965 -0.07878222400788565 -0.02762741913828125 -0.007103454802950346 0 0 0.1149372447546838 0 0 8.131516293641283e-19 
-0.1543791649345655 0.1785307814560197 -0.06899214428550325 -0.1011273381061029 1.192622389734055e-18 -0.02389549146881362 0.1601605143032998 -0.02313765492072627 -0.05281981203774863 -0.003241185767163968 -0.004514181612109897 
0 0 0 0 0 0 0 0 0 0 0 
0.129871609580722 0.1125750286800827 -0.1964052044178569 -0.1119125193575754 -0.03564637466013783 -0.005476268868413063 -0.005347298237975885 -0.01961801972595175 0.03369215215508119 -0.03453289549745525 -0.01634824071329074 
0 0 0 0 0 0 0 0 0 0 0 
0.2189473907156173 0 -0.07812079262027541 -0.08815624541913253 0 0 0 0 0 0 0 
0.2189473907156173 0 -0.07812079262027542 -0.08815624541913253 0 0 0 0 0 0 0 
0 0 0 0 0 0 0 0 0 0 0 
0.1206001568546333 -0.02249618510435176 -0.03040110722599564 -0.0822110392439849 0 -0.001543859980941987 0 0 0 0 0 
0 0 0 0 0 0 0 0 0 0 0 
0 0 0 0 0 0 0 0 0 0 0 
0.2996776556212318 -0.07647686953445061 -0.08894419789058555 -0.141583864227289 0 -0.005885082501418356 0 -0.001220431857213052 -0.008665095469099944 1.301042606982605e-18 -0.01634824071329074 
0 0 0 0 0 0 0 0 0 0 0 
0.2274050974227691 -0.07647686953445061 -0.07425835857697487 0 0 0 0 0 0 0 -0.01634824071329074 
0.4929211264253767 -0.2007962269697325 -0.2429340528908748 -0.1631895911113385 0 0 0 0 0 0 0 
0 0 0 0 0 0 0 0 0 0 0 
0.4490307817803512 -0.2273061828285924 -0.06858430542699752 -0.1716732105516886 0 -0.003580763169472445 0 -0.001972061004432717 -0.006383508308978204 0 0 
0.1519293880245723 -0.02652125458782483 -0.09748032777629867 -0.1435891807823783 0 0 0 -0.001972061004432717 0 0 0 
0.1519293880245723 0 1.734723475976807e-18 -0.1435891807823783 0 0 0 0 0 0 0 
0.1796753800859322 -0.3121847180469534 0 0 0 0 0 -0.02816886251161415 0 0 0 
0.1796753800859322 -0.3121847180469534 0 0 0 0 0 -0.02816886251161415 0 0 0 
0.0383140185488941 -0.006397563427400624 -3.469446951953614e-18 0 0 0 0 0 0 4.336808689942018e-19 0 
0 0 0 0 0 0 0 0 0 0 0 
0.1783586923018859 0.06532758769158173 -0.1882231706487193 -0.09736240728134785 -0.02831965105081968 -0.04037869801625583 -0.005181357762383985 -0.07302841233759222 -0.04716024451097622 -0.051676110973816 -0.02131730634077799 
0 0 0 0 0 -0.03485033165193972 0 0 0 0 0 
0.01093216058148951 -0.2190356586842289 0.2278131307600205 -0.0101123993739845 0 -0.03485033165193972 -0.001520937381556341 -0.05132241579082034 3.686287386450715e-18 0 -1.084202172485504e-19 
0 0 0 0 0 -0.03485033165193972 0 0 0 0 0 
0.003320760262746633 0.1221855780398574 -0.1259129532296327 -0.03644111651757043 -0.02787026750911423 -0.0006895399776050118 -0.001391525061164853 -0.103556583307761 -0.03146352056442067 -0.01871136135323297 -0.008427073756230152 
0.02324710068006022 0.3342423741020235 -0.2169328982635226 -0.5399826516595676 0.08921844379992369 -0.03166224530908408 -0.003464755451450386 0.264759882601505 -0.01382906688166828 -0.01047859448109551 -0.1071866180917125 
0.004917269987906208 3.469446951953614e-18 0 0 -0.02787026750911423 0 -0.001391525061164855 0 -0.02567409681800659 0 0 
-0.1220889417500699 -0.2030634778056425 -0.04214047762758535 3.469446951953614e-18 0.145407494993817 8.673617379884035e-19 -0.001391525061164853 -0.03145908651239497 0.2827478082840239 0 0 
-0.1736639020760744 0.3095419891689248 -0.01839986894645164 -0.07360428514806894 -0.007203762975215162 0 0 -0.03018957456160296 6.884683795282953e-18 0 -0.002085617204308486 
-0.3637809493055653 0.6348042996083986 -0.2240031366737558 -0.1242500860842764 -0.0008885675054668513 0 0 0 -0.04482468671298549 0 0 
-0.007263321790829968 0.03937898530239665 -0.03442328255010798 0 0 0 0 0 0 0 0 
-0.04500858400033372 0.3398581564310181 -0.2388438241132792 -0.04785976001712389 -0.00189043538871637 0 0 0 -0.0294471347490199 0 0 
-0.3637809493055653 0.6348042996083986 -0.2240031366737558 -0.1242500860842764 -0.0008885675054668513 0 0 0 -0.04482468671298549 0 0 
-0.2275154561646194 0.436962121066573 -0.07108749544026294 -0.1056051280974198 0 -0.001691522474388155 0 0 0 0 0 
-0.1916599398691451 0.1975879358934933 0.1803503828340443 -0.0931746854803564 -0.03620872025417471 0 -1.301042606982605e-18 3.469446951953614e-18 -0.224431501093008 0.09801075791389316 -0.009080653659708093 
0 0 0 0 0 0 0 0 0 0 0 
0 0 0 0 0 0 0 0 0 0 0 
-0.08013841182961344 -0.143685715173722 0.2697037630848764 -0.01119546916150311 -0.002686666081537531 -0.002777021537243118 -0.008334988628885182 -0.007536609110481354 0 -8.673617379884035e-19 -0.01388751978907018 
0 0 0 0 0 0 0 0 0 0 0 
0 0 0 0 0 0 0 0 0 0 0 
0 0 0 0 0 0 0 0 0 0 0 
-0.05871440712840547 -0.04227321972390256 0.1751898442472505 -0.05668553166508158 -4.336808689942018e-19 -0.0003029270365476244 -2.168404344971009e-19 -0.06105269006239981 8.673617379884035e-19 -0.004382217230946204 -1.084202172485504e-19 
-0.4145313242577924 -1.010924683970011 -0.3230986912275105 1.273082691864425 -0.01138708368338535 -0.00773503719727797 -0.01513841982316054 0.1527259863807586 -0.06580845959687308 -0.002346781583173631 -0.01050626282507004 
-0.2540197626910341 0.01198828004334282 0.111942050021667 0.2082683757202364 -0.0382827272285477 -0.0500085680113898 -0.003581525324052457 -0.1139150207985396 0.02301830366584121 -0.02989881619925515 -0.001285207229897607 
0.1113144765837868 0.1466496565332993 -0.1759640902578398 -0.1367740033062782 5.421010862427522e-20 0 0 -0.02603837031596089 -0.02416713993022706 0 2.168404344971009e-19 
0 0 -0.004100029237527702 0 0 0 0 -0.02603837031596089 0 0 0 
-0.5214588578722836 -0.1435858460551065 -0.2109733112852885 0.4641740571252526 -0.006005077426574227 -0.007735037197277967 -0.01298233325758363 0.1801617779028173 -0.06580845959687308 -0.002346781583173631 -0.007347570805428174 
-0.07805217427127716 0.2493847489144297 -0.01813232830046856 0.04329983955038846 0 0 0 -0.02603837031596089 -0.01123983803194963 0 0 
0 0 -0.004100029237527702 0 0 0 0 -0.02603837031596089 0 0 0 
-0.07436137340939115 0.2534122558198779 -0.129832476182615 0 0 0 0 0 0 0 0 
-0.008262976946288402 0.1065074871671451 -0.06216805479420941 0 0 0 0 0 0 0 0 
0 0 0 0 -0.0003821579164705523 0 0 0 0 0 0 
-0.07436137340939115 0.2534122558198779 -0.129832476182615 0 0 0 0 0 0 0 0 
0 0 0 0 0 0 0 0 0 0 0 
-0.1532627883353806 0.2617504965599908 -0.1097189529522401 0.05092486387880699 -4.54009659728305e-19 -0.006307626764852177 0 -0.04362697990307116 0 0 -0.002537657792998228 
-0.1542858457649693 -0.4428685510709159 0.6604945051946897 -0.3194928233373071 0 -0.001395615743997233 -1.301042606982605e-18 -0.01824784800266424 0 0 -0.005922474629054189 
0 0 0 0 0 0 0 0 0 0 0 
-0.2711412052053654 -0.3708063749610195 0.4812498691706388 -0.02499290075758666 -0.01857062314673558 -0.008472862775036926 -0.00204184497429836 -0.007572108296034149 -0.04738601731359543 -0.01640895412851516 -0.02895145700851354 
-0.1542858457649693 -0.4428685510709159 0.6604945051946897 -0.3194928233373071 0 -0.001395615743997233 -1.301042606982605e-18 -0.01824784800266424 0 0 -0.005922474629054189 
-0.3506984465184446 0.5885194227311117 -0.07646394034090513 -0.2617315034831467 0 -0.008653058515666206 0 -0.008931173658175341 -0.007289553822577667 0 0 
-0.4815806895652157 0.7499717488045582 -0.3670837223493646 -0.2604225241273812 0 -0.05123966299449115 0 -0.05139028265047671 -0.006124167231233661 -0.006605962842627144 -0.0003542322657524645 
-0.2405396938246727 0.3250437255496937 -0.04528835213423117 -0.01613016192710938 0 0 0 0 0 0 0 
0 0 0 0 0 0 0 0 0 0 0 
-0.6003947212140178 0.7919652062230178 -0.2724349802251287 -0.3447326484918344 0 -0.05123966299449115 0 -0.05139028265047672 -0.05384484989846978 -0.006605962842627141 0 
-0.244832370548217 0.2568083842829955 -0.04825518075075558 0.1892715938561481 -0.01422004907931938 1.084202172485504e-19 -0.002073230390285539 -0.03344321987765745 0 0 -0.07981755658461974 
6.505213034913027e-19 0 0 0 0 0 0 0 0 0 0 
-0.3088687875256387 -0.3243559302823183 0.01058850867009568 0.4064259998331455 0 -0.00388834022509777 0 0 2.168404344971009e-19 0 0 
-0.4031301339049012 0.7995002327136476 -0.3296657871769774 -0.2262964594962023 -0.009234460680825018 0 0 -0.05359407389847708 -0.06804208851875271 0 0 
-0.1183013102195138 0.1422324978997681 -0.03272097607097831 -0.08397370398797072 -0.003688749069528833 0 0 -0.01011068174070737 -0.02242790425249347 0 0 
0 0.1252811586246489 0 0 0 0 0 0 0 0 0 
-0.4031301339049014 0.7995002327136476 -0.3296657871769774 -0.2262964594962023 -0.009234460680825018 0 0 -0.05359407389847708 -0.06804208851875271 0 0 
-0.1261541347610291 0.1829916060435804 -0.06480887481741968 -0.09449641528431607 -0.003688749069528833 0 0 0 -0.02242790425249347 0 0 
-0.2397088455809863 -0.01503112056716979 0.1778469407925856 0.1616342732669554 -0.003436588869616671 -0.008165036449441681 -0.009626744608489007 -0.04005695692328054 -0.01914559697624011 -0.04219705657694913 -0.004187958600836152 
0 0 -0.03972142307904816 0 0 0 0 0 0 -0.03426035435705599 0 
0 0.05588079790619003 -0.02596248127655491 -0.03344450706651916 -0.003436588869616672 -0.008165036449441681 -0.009626744608489007 -0.04005695692328054 -8.673617379884035e-19 -0.04219705657694913 -0.004187958600836152 
0 0 -0.03972142307904816 0 0 0 0 0 0 -0.03426035435705599 0 
-0.224868227897954 0.2075479316755341 -0.02604186686007099 0.04509682786159757 -0.0347344382063916 -0.008834276821154613 -0.01213579530884904 -0.04528796691346305 0.098992448486156 -0.1098659593166734 -0.05246691179105333 
-0.2193421382759259 0.2417379133826794 -0.09932197132288241 -0.008419408105419765 0.2294737584210156 0 0 -0.0001043670578605934 -0.02179081498591377 0 0 
-0.06922260196388888 0.110684441461104 -0.02541534648764678 -0.1853759943407106 0.1560317087149837 -0.007451231223579571 -0.0007818385866247141 2.602085213965211e-18 -0.02001137851589554 0 -0.0005199910354800409 
-0.1107076535054559 -0.3143983101274951 -0.03106906420441435 0 0.4137474990255181 0 0 0 -0.009020341938059078 0 0 
-0.04662279186300764 0.0002927060913511109 -0.1520036573198932 0 0.2918291841951677 -0.0001837310546663289 0 0 -0.01938167978729224 0 0 
-0.1107076535054559 -0.3143983101274951 -0.03106906420441435 0 0.4137474990255181 0 0 0 -0.009020341938059078 0 0 
0.1945691871485512 -0.1411071688725214 -0.05467458618669928 0.03722160597855703 0 -0.05917294470203407 0 -0.04645256959363192 0.04644314767107124 -0.006480766945995565 0 
0.1096919693196994 0.06855952044945522 -0.03992098851756987 -0.03295231741795821 -8.622021587768625e-05 -0.05917294470203407 0 0 4.336808689942018e-19 0 0 
0.1925110213090211 -0.003137864521551699 0 -0.03295231741795821 0 -0.05917294470203407 0 0 0 0 0 
-0.1136029666806689 -0.06345128424544007 0 -0.03295231741795821 0 0.2859957414701184 0 0 0 0 0 
0.3004180173899672 -0.114832771768323 -0.02580082658149632 -0.07333189903424248 0 -0.05917294470203407 0 0 -0.04567256436939456 -0.004133985362821932 0 
0.1925110213090211 -0.003137864521551699 0 -0.03295231741795821 0 -0.05917294470203407 0 0 0 0 0 
-0.07365294107377378 0.1420701061334628 -0.02280045283944424 0 0 0 0 0 0 -0.004133985362821932 0 
0.1680541143763353 -0.08806562222650711 -0.02280045283944424 0 0 0 0 0 0 -0.004133985362821932 0 
0.1680541143763353 -0.08806562222650711 -0.02280045283944424 0 0 0 0 0 0 -0.004133985362821932 0 
0.1680541143763353 -0.08806562222650711 -0.02280045283944424 0 0 0 0 0 0 -0.004133985362821932 0 
0.1680541143763353 -0.08806562222650711 -0.02280045283944424 0 0 0 0 0 0 -0.004133985362821932 0 
0.02588179808552975 -0.03517463502691594 -0.03158680031041938 -0.07130157659018027 0 0 0 0.2105204404791983 0 -0.008583661686656762 0 
0.02095078095715089 -0.03222291218546987 -0.03500640512158131 -0.06295115640801648 0 0.1636244346742515 -0.05657647645784399 0 -4.336808689942018e-19 2.168404344971009e-19 0 
-0.30611398798969 -0.06031341972388838 0 0 0 0.3451686861721525 0 0 0 0 0 
0.1593836047593869 -0.2773427638614361 -0.03500640512158133 -0.04787774488940649 0 0.187519926143065 0 0 0 0 0 
-0.30611398798969 -0.06031341972388838 0 0 0 0.3451686861721525 0 0 0 0 0 
-0.1294618635026145 0.3001937268462418 -0.114362128744912 -0.08832813591752861 -0.02324291278539579 -0.00352411961019157 -0.0007818385866247158 0 0 0 0 
-0.07280447644011606 0.2025690490521394 -0.0820179856124169 -0.01562821189628711 8.673617379884035e-19 -0.001268112537116037 0 0 0 0 0 
-0.08189410270720171 -0.003805979380787732 0.02465764743970559 0.1242940333062228 -0.02461806858391149 -0.001198544066299644 0 -0.001878621949630068 -0.02888417984294926 0 0 
-0.1294618635026145 0.3001937268462418 -0.114362128744912 -0.08832813591752861 -0.02324291278539579 -0.00352411961019157 -0.0007818385866247158 0 0 0 0 
-0.3765897801485365 0.489263863590613 -0.04607331799183112 -0.1069871228054874 -0.03301186690521377 -0.007267500168913239 -0.0007818385866247167 0 0 0 -1.084202172485504e-19 
-0.07280447644011606 0.2025690490521394 -0.0820179856124169 -0.01562821189628711 8.673617379884035e-19 -0.001268112537116037 0 0 0 0 0 
-0.00104205576071086 0 0 0 0 -0.001198544066299644 0 0 0 0 0 
0.2296359412219958 0.02426942579722529 -0.2054346322291864 -0.09007950979370874 -1.517883041479706e-18 0 -0.05862022767988647 0 0.1065300349299513 0 -0.01727475540941923 
0.1075044748919467 -0.0719251818690448 -0.02616752898121504 -0.008079525374946543 0 0 0 0 0 0 0 
0.1075044748919467 -0.0719251818690448 -0.02616752898121504 -0.008079525374946543 0 0 0 0 0 0 0 
0.1740749551659161 -0.07578576459105379 -0.09842995957892162 -0.008079525374946543 0 0 0 0 0 0 -0.008964982299322582 
0.1075044748919467 -0.0719251818690448 -0.02616752898121504 -0.008079525374946543 0 0 0 0 0 0 0 
0.1075044748919467 -0.0719251818690448 -0.02616752898121504 -0.008079525374946543 0 0 0 0 0 0 0 
0.1075044748919467 -0.0719251818690448 -0.02616752898121504 -0.008079525374946543 0 0 0 0 0 0 0 
0.1075044748919467 -0.0719251818690448 -0.02616752898121504 -0.008079525374946543 0 0 0 0 0 0 0 
-0.003443674935951157 0.2116468325366018 0.06133529290114428 -0.07334133564480289 -0.002238808814223506 -0.003903067807874288 -0.002041844974298357 -0.03962150349060953 -8.023096076392733e-18 -0.003438917697203747 -0.0117618247788343 
0.1280544627459878 -0.0719251818690448 -0.02616752898121505 -0.01151758619776829 0 0 0 0 -0.02270220751376246 0 0 
0.06422806553136913 0.03153268459082863 -0.04544815551471022 -0.02815246693510384 0 0 2.168404344971009e-19 0 -0.0002436451549991632 0 -0.008964982299322582 
0.06657048027396952 -0.003860582722009004 -0.07226243059770658 0 0 0 0 0 0 0 -0.008964982299322582 
0.2547544780249784 -0.1076387528814308 -0.1175507827319378 0 0 0 0 0 0 0 -0.008964982299322582 
-0.112538114073241 -0.003860582722008992 0.1682471020804296 -0.02899201113832838 0 0 0 0 0 0 -0.008964982299322582 
-0.1117607071880596 0.05057689304098526 0.1102447500752747 0.05992771412113965 -0.02033745985799785 -0.01430342728012302 -0.00327481957746202 -0.04540712322057491 -0.08107870043850735 -0.03213663210272529 -0.03327807714125709 
0.2564996930034972 -0.1071834381681285 -0.2219931378823694 0 0 -0.002118367520073794 0 0 0 0 0 
0.2217348639763921 0 -0.2219931378823694 0 0 -0.002118367520073794 0 0 0 0 0 
0.1223203388691055 0.01462263426581004 -0.1551673310356375 -0.05031218266896358 0 -0.003913558543550395 0 0 -0.004747225326910141 0 0 
-0.06870670323232525 0.01706383362717222 -0.002973663242449 0.02594187680903792 0 -0.002566824154981861 0 0 -0.01095009892056515 0 -0.0036714563355 
0.2217348639763921 0 -0.2219931378823694 0 0 -0.002118367520073794 0 0 0 0 0 
0.3054406749257321 -0.1302751828249906 -0.1548698815269289 -0.03264539585115619 0 0 0 0 -0.006290434865349624 0 -0.01727475540941923 
0.06446749883211643 -0.02736813579685418 -0.03571402523879217 -0.0163226979255781 0 0 0 0 0 0 0 
0.06446749883211642 -0.02736813579685418 0 -0.0163226979255781 0 0 0 0 0 0 0 
0.2409731760936158 -0.1029070470281365 -0.1191558562881368 -0.0163226979255781 0 0 0 0 -0.006290434865349627 0 -0.01727475540941923 
0.06446749883211642 -0.02736813579685418 0 -0.0163226979255781 0 0 0 0 0 0 0 
-0.06496896104799707 0.03814403534395057 0.1592263456844104 -0.08524146273070218 0 0 0 -0.01244495695732699 -0.04554637195231504 0 0 
0.2521278338329023 -0.06933263158916673 -0.05182733748747713 -0.06876121839809327 0 0 0 0 -0.04554637195231504 0 0 
0.3589999193614294 -0.1945988825055984 -0.1792671032479715 -0.1295872407928409 -1.517883041479706e-18 0 -0.05862022767988647 0 0.134629757913764 0 -0.01727475540941923 
0.2709693402789032 -0.02627176053693631 -0.009044384490277158 -0.1474114084943356 0 -0.001603762337025078 0 0 -0.04554637195231504 1.734723475976807e-18 0 
0.008184128411438934 -0.05459272655747985 -0.0949874939851047 0.2533066943767589 0 0 0 0 -0.04554637195231503 0 0 
0.04452166474164933 -0.2214873105157222 -0.05905398102039071 0.2905343852132376 2.168404344971009e-19 0 -0.05219813871000615 0 -0.007928193802047873 0 0 
0.3295421386698065 -0.1607329660767002 -0.2068515524163269 -0.06736713073619713 0 -0.005778141170962384 0.2073869701849293 -0.06524707641871011 -0.0472428183386443 -0.03259246416161741 -0.003325979864419541 
0.2237929877680849 -0.1789416868361311 -0.07707018850430609 -0.08746695824625349 0 0 -0.05219813871000614 -0.0396148590141599 -0.007928193802047873 0 -1.626303258728257e-19 
0 0 0 -0.03404306989537195 0 0 -0.05219813871000614 0 -0.007928193802047873 0 0 
0.3295421386698065 -0.1607329660767002 -0.2068515524163269 -0.06736713073619713 0 -0.005778141170962384 0.2073869701849293 -0.06524707641871011 -0.0472428183386443 -0.03259246416161741 -0.003325979864419541 
0 0 0 -0.03404306989537195 0 0 -0.05219813871000614 0 -0.007928193802047873 0 0 
0.03602822289730191 0.03056859010447444 -0.06412566951358757 -0.0382612779928288 -0.0009949405425761374 -0.02389549146881362 0.1202960446856837 0 -1.301042606982605e-18 -0.003705894905380279 0 
-0.05356835117210969 -0.247876708584726 0.01522834447948456 -0.05188189997793852 -4.336808689942018e-19 0 0.2951071536946567 0.1595253128061832 -1.734723475976807e-18 0 0 
-0.295006576498098 0.06593634776798994 0 -0.009942843763618365 0 -0.02389549146881362 0.2201829566329568 0 0 0 0 
-0.08157423500997756 -0.06538087876867069 -0.07120953388942693 0 0 0 0.2057467742011171 0 0 0 0 
-0.5882466135197481 -0.01155264272227341 0 0 0 0 0.4170997703560204 0 0 0 0 
0.01235892333184213 0.106169164466933 0.01281793554746298 0.05096885442617514 -0.02147399480643344 0 -0.03911805561444279 -0.04871456053015855 -0.02236837140660802 -0.01400439771602854 0 
0.2600649592554214 0.003715523533447396 -0.04388795129147496 0 -0.0143705400034831 0 0 0 -0.02236837140660802 0 0 
0.356125198265326 -0.08399219256092787 -0.06185312253321026 -0.08863342204900748 -0.0143705400034831 0 0 0 -0.02236837140660801 0 -0.006988097385794768 
0.5461936469975005 -0.3384111722486607 -0.04388795129147496 0 -0.0143705400034831 0 0 0 -0.02236837140660802 0 0 
-0.1543756211121581 0.3066429883448944 -0.3619621904248898 0.07375437436846166 -0.001508274696681863 0 -0.01298233325758363 -0.103556583307761 -0.01555844043820247 -0.003697550508446112 0 
-0.2139729527703897 0.3300681482216075 -0.05698454456187056 0.00338401741026197 -0.005104466551671896 0 0 -0.09692243431436565 8.673617379884035e-19 0 0 
1.040834085586084e-17 -1.734723475976807e-18 0 -0.0880606673302505 0 0 0 0 -0.004632112377801526 -0.003697550508446112 0 
-0.2139729527703897 0.3300681482216075 -0.05698454456187056 0.00338401741026197 -0.005104466551671896 0 0 -0.09692243431436565 8.673617379884035e-19 0 0 
0 0 0 0 0 0 0 0 0 0 0 
-0.1369046816308404 0.2669917373741038 -0.122426445663872 -0.09349848969377411 -0.01241061737726732 -0.01198479496361999 -0.05465366841432216 0.09442705888992932 0.1563451149838548 -0.004845256282683335 -0.00601415785376427 
-0.02519663896120023 0.003477204315150442 0 0 0 0 0 0 -0.03383825453270801 0 0 
0 0 0 0 -0.001124926631742543 0 0 -0.09547614858909612 0 0 0 
-0.08864505100801789 -0.1820441798736256 -0.02287463080291497 0.166002013286369 0 0 0 0 0.1125806151369524 0 0 
0 0 0 2.168404344971009e-18 0 0 0 0 0 0 0 
0.1645457421182392 0.1101536733213544 -0.3409142705897138 0.02759785357032968 -0.01492979265664099 -0.004938363094545694 -0.003901974514472707 -0.07539067646847145 -0.04863323733468356 -0.01067105374483788 -0.000630220570482986 
0.02270991003763815 -0.1035666046689461 0.1953140655035304 0.03869050589598191 0 -0.003333753824409608 0 2.168404344971009e-19 0.02474698993912789 -0.07034631749462812 0 
0.08737334855601363 0.02518217868345238 -0.08654905288808684 -0.03622404721736032 0 0 0 0 0 -0.02496238031985996 0 
-0.3325860631972268 0.2310617357694194 0 0 0 0 0 0 0 0 0 
0.3287218948106921 -0.09491361483099067 -0.07702191053858223 -0.08316482987357182 0 -0.003009636709832409 0 0 0.07453133748844817 -0.07034631749462812 0 
0.08737334855601364 -0.105866463276243 -0.08654905288808684 -0.03622404721736032 0 0 0 0 0 0 0 
0.2806786415433704 -0.03014394241484808 -0.2474269395890865 -0.1196126260930199 0 0 -0.007266913108827815 0 -0.005655753506822856 0 -0.009697049644502772 
-0.06968197785535762 0.001967352721139921 0.5410277424211506 -0.3359209668914334 0 0 0 -0.0077168001265686 -4.336808689942018e-19 0 0 
0.02068141290926486 -0.03014394241484808 -0.05745787194035031 -1.734723475976807e-18 0 0 -0.007266913108827815 0 -1.378200679601984e-05 0 0 
0 3.469446951953614e-18 0 0 0 0 0 0 0 0 0 
0.04681153171785922 0.2118626873759297 -0.3681557148240873 -0.1471190325024697 -0.01241061737726732 -0.00324684062015754 -0.007266913108827815 0.1571449887251959 -0.07400865439369048 -0.002346781583173633 -0.001650874735905464 
0 -0.03014394241484807 0 0 0 0 -0.007266913108827815 0 0 0 0 
0 0 0 0 0 -0.001409447223694017 0 -0.02639447680799835 0 0 0 
0.1487426856783191 0.113054807198024 -0.2700900654514095 0.2027438879408343 -0.03326150507548476 0 0 0 -0.09278243035775442 0 -0.004514181612109897 
0.2846038554242036 -0.03247016547525568 -0.0346749517890689 -0.02246167180480797 -0.003233749356799641 0 0 0 0 0 0 
-0.3164550428743546 0.242750469476276 -0.1703856063808559 0.2887349228295664 -0.001582075203176339 -0.001282191026054719 -0.001645561409295303 -0.04032448408050865 -0.01537101807356568 -0.001857372885385909 1.084202172485504e-19 
-0.3773209584182802 0.297928699645828 -0.3664806219976353 0.2899563184732303 0 -0.02601691940315888 -0.05657647645784399 -0.02250613601185071 -0.003011809286961028 -0.01006173824924741 0 
-0.06955665953147207 -0.07647427587602265 -0.02223347118417386 0.2138127694458118 0 0 -0.001645561409295303 0 0 0 0 
-0.2486303480783972 -0.2431392948012084 -0.08749723590975896 0.4269105150444868 8.673617379884035e-19 -0.001046381569787587 -0.001645561409295303 -0.002348627766570139 0 0 0 
-0.2648533650298279 -0.7280196694354685 -0.1934498137319473 0.9288740467823171 0 -0.002121427934345255 0 0 -0.002505275622050671 0 0 
0 0 0 0 0 0 0 0 0 0 0 
-0.03907617765605698 -0.1124628260181339 -0.02375437745403752 0.1928915334227575 0 0 0 0 0 0 0 
0 0 0 0 0 0 0 0 0 0 0 
0 0 0 0 0 0 0 0 0 0 0 
0.03642086963814382 0.073007156279465 -0.004299503570906495 0.0006740066361691577 0 2.168404344971009e-19 0 -0.004652446511739897 0 0 -1.084202172485504e-19 
0 0 0 0 0 0 0 0 0 0 0 
0.005188609310068214 0.1732731171341074 -0.1319515410330376 -0.0659463222999371 -0.01082782365402844 -0.002121427934345254 -0.001878092994154888 -0.02007916526935168 0.06047683995883835 -0.007936702219893127 0 
0.02069341735730283 -0.2408265487396814 0.2615782205527002 0.073541149030336 1.734723475976807e-18 -0.002121427934345255 0 -0.01411451354341987 2.168404344971009e-18 0 -0.02669739459637173 
0 -0.01135975821623459 -0.03667114958008592 0.1362725896331748 0 -0.002121427934345255 0 0 0 0 0 
-0.315484323288966 -0.1316291198870208 0.2868340253944237 0.1720883854098429 1.734723475976807e-18 -0.002121427934345255 0 0 -8.673617379884035e-19 0 -0.02039850592073934 
0 -0.01135975821623459 -0.03667114958008592 0.1362725896331748 0 -0.002121427934345255 0 0 0 0 0 
-0.1015725437533802 0.01210068187088594 0.128973618470825 -0.06895265473201126 0 0 0 -0.1091727782780016 0.09684678764623138 0 0 
-0.2204703079678321 -0.05680979216243644 0.2960179869194972 -0.008439335162064302 0 0 0 0 -0.001987418003619922 0 0 
-0.2204703079678321 -0.05680979216243644 0.2960179869194972 -0.008439335162064302 0 0 0 0 -0.001987418003619922 0 0 
-0.2204703079678321 -0.05680979216243644 0.2960179869194971 -0.0084393351620643 0 0 0 0 -0.002001200010415942 0 0 
-0.2204703079678321 -0.05680979216243644 0.2960179869194972 -0.008439335162064302 0 0 0 0 -0.001987418003619922 0 0 
0.1737119594820665 -0.08694540263481761 -0.08238009310698001 0 0 0 0 0 0 0 0 
-0.09588729180083651 0.1562236082887128 -0.04081879068825888 -0.07959719780648594 0 1.626303258728257e-19 0 0 0 0 0 
0.1737119594820665 -0.08694540263481761 -0.08238009310698001 0 0 0 0 0 0 0 0 
0.1316563459767086 -0.08694540263481761 -0.04081879068825888 0 0 0 0 0 0 0 0 
0.1153622176152441 -0.1012498165574688 -0.01985885949181459 -0.01356629202294718 0 -0.003642488371513525 0 0 0 0 0 
0.04374206407381151 -0.1148585551134867 -0.02905534481904982 0.02432261318824762 0 -0.002267141973241352 0 -0.02579160080622349 -0.03345695652944799 0 -0.001792151168728934 
0.1957661877234662 -0.153093765473836 0 0 0 -0.002267141973241352 0 0 0 0 0 
0.1957661877234662 -0.153093765473836 0 0 0 -0.002267141973241352 0 0 0 0 0 
0.1957661877234662 -0.153093765473836 0 0 0 -0.002267141973241352 0 0 0 0 0 
-0.03515312492469611 0.2059110392845764 -0.1554994726841251 0.01789396153342342 -0.001508274696681864 -0.005796400868099838 -2.168404344971009e-19 -0.02971230007216415 8.673617379884035e-19 0 0 
0.4006481125626817 -0.2105607295194831 -0.1314261217479417 -0.1507001543297447 0 0 0 0 0 0 0 
0 0 0 0 0 0 0 0 0 0 0 
0.6026918062375938 -0.4575965950363843 -0.05397736094281145 -0.1210805053566191 -0.02831965105081969 -0.005487994810811076 -0.002215724993327353 -0.0001043670578605917 -0.02639807456815933 4.336808689942018e-19 -0.010658653170389 
0 0 1.734723475976807e-18 0 0 0 0 0 0 0 0 
0 0 0 0 0 0 0 0 0 0 0 
0.1294200516703793 0 -0.0734713509251388 -0.08194042360443556 0 0 0 0 0 0 0 
0.1294200516703793 0 -0.0734713509251388 -0.08194042360443556 0 0 0 0 0 0 0 
0.1294200516703793 0 -0.0734713509251388 -0.08194042360443556 0 0 0 0 0 0 0 
0.227396993435141 6.938893903907228e-18 -0.184019326278737 -0.08914387729603171 0 0 0 0 -4.336808689942018e-19 0 0 
0.1294200516703793 0 -0.0734713509251388 -0.08194042360443556 0 0 0 0 0 0 0 
0.1294200516703793 0 -0.0734713509251388 -0.08194042360443556 0 0 0 0 0 0 0 
0.4720040430955865 -0.3328200060489904 -0.1971546095234984 -0.1718696033351489 4.336808689942018e-19 -0.005273763897786314 -0.04445507333323258 -0.00724689875435749 -0.001303983548692837 -0.009198548982306603 -0.01745307483923354 
0.5547558095103964 -0.3328200060489903 -0.2456352748548555 -0.171869603335149 4.336808689942018e-19 -0.005273763897786314 -0.04445507333323258 -0.00724689875435749 -0.001303983548692837 -0.009198548982306603 -0.01548293630225025 
0 0 0 0 0 0 0 0 0 0 0 
-0.01819346040047711 -0.0758047348409893 0.074835292771957 -0.003605753293964545 0 0 0 0 0 0 0 
-0.03274485032950796 -0.2253592807914676 0.07966846989699862 0.3160963634683567 0 0 0 0 0 0 -0.00013756911746217 
-0.01819346040047711 -0.0758047348409893 0.074835292771957 -0.003605753293964545 0 0 0 0 0 0 0 
-0.01819346040047711 -0.0758047348409893 0.074835292771957 -0.003605753293964545 0 0 0 0 0 0 0 
-0.07898135823842065 0.03432151105733537 0 0 0 0 0 -0.01315142330112853 0 0 0 
-0.07898135823842065 0.03432151105733537 0 0 0 0 0 -0.01315142330112853 0 0 0 
0.2835697357471327 -0.2402704586468511 -0.03074119757458399 0 0 0 0 0 0 0 0 
-0.07898135823842065 0.03432151105733537 0 0 0 0 0 0 0 0 0 
-1.387778780781446e-17 -0.187330389700606 -0.1368571548195772 -0.09109671775975389 0 0 0 0 0 0.1436685892613801 -0.009080653659708095 
0 0.1310486419596953 0 0 0 0 0 0 0 -0.02496238031985996 0 
0.1674717627804337 -0.09676346164471902 0.1323608999353281 -0.109188765025106 -5.374743661898264e-05 0 0 -0.01363555617293649 -0.007171993091001637 -0.004689773311792394 0 
-0.1896893354015091 0.205831336645483 -0.01408992939280403 -0.1362129776578881 0 0 -0.01198172381230944 0 8.673617379884035e-19 0 0 
-0.1101544087951843 0.304628177764846 -0.2151413672499166 0 0 0 0 0 0 0 0 
-0.1506720261609352 0.1585450874300975 0.05995064474156487 6.938893903907228e-18 0 0 -0.004230863315097772 0 0 0 0 
-0.1340238190299294 0.3091299916123997 -0.1808883567982502 -0.04172264295088867 0 0 0 0 0 0 0 
0 -0.01138761750264093 -0.05224328065767369 0.1216525276372951 0 0 0 0 0 0 0 
0 -0.01138761750264093 -0.05224328065767369 0.1216525276372951 0 0 0 0 0 0 0 
0.1541445704810246 -0.1911246390377261 0.1062498901511453 -0.062356491817706 -0.01857062314673557 -0.003491708886448746 -0.000750875189845528 -0.01858795705545359 -0.005579565009547641 -0.01818189662853026 0 
0 0.036313320953784 0 0 0 0 0 0 0 0 0 
0 0.1200627469127654 -0.08360134740218982 0 0 0 0 0 0 0 0 
0 0.036313320953784 0 0 0 0 0 0 0 0 0 
-0.2819186804409774 -0.0604729672475152 0.09256688603343212 0.2836462953670131 -0.01624858550146326 -0.003143225834037102 -0.02808626907313998 -0.01322263005227679 -0.02918444960489584 -0.02169629727905032 -7.589415207398531e-19 
0.1612649450621896 0.3345178304830966 -0.1482073613265095 -0.2542699328401888 -0.01624858550146325 0 -0.02808626907313998 -0.0132226300522768 0 -0.02169629727905032 0 
-0.3446574316215031 -0.03014050766069837 0.4994967704733165 -0.01382426458906312 0 0 0 0 -0.02639807456815933 0 0 
-0.01585342400787009 -0.04858744586059795 0.1800442583526709 -0.07229369312020142 0 0 0 0 0 0 0 
0 0 0.03105545318434564 -0.1042594378575701 0 0 0 0 0 0 0 
-0.2412771535176924 0.2493023724338701 -0.1281535961384749 0.09787410415586754 0 0 0 0 -0.01362701221337609 0 0 
0.03299613773987285 0.3422709920458387 -0.3849034462000426 -0.04987085960746982 -0.01007573685309733 -0.006974432699499159 -0.007385346065450622 -0.04398476166581546 -0.03884553836679647 -0.04749597676901061 -0.0008107406968129577 
0.03115603070269355 -0.1606312553391392 0.2485282464085629 -0.06217536671732125 -0.006889045900887842 0 0 0 -0.04128824265193816 0 0 
-0.04083207927060838 0 -0.03609568523309142 -0.07334278964719304 0 0 0 0 0 0 0 
0.4490606634326393 -0.2251920727466068 -0.09585941509827586 -0.06153416877020398 0 -0.0002924855577200173 0 0 -0.03760283333756485 0 0 
0.1626587514690283 -0.09384289674921854 -0.06504522335297919 -0.02289344165911826 0 0 0 0 0 0 0 
0.2752967003755068 -0.3228274699747818 0.1575839689907117 -0.1201581843105443 -0.02461806858391148 0 -0.01933859412457384 -0.05101416925084627 -0.06235370407479868 -0.002202583968523598 -0.01727475540941923 
6.938893903907228e-18 -0.05197371251121619 -0.004734577831103249 0 0 -4.675557645985641e-05 0 0 0 0 0 
0.3997123367541627 -0.2097647687511691 -0.1364547548885407 -0.04142106607202948 0 0 0 -0.02844446452079136 0 -0.001857372885385909 4.336808689942018e-19 
0.9319594387239956 -0.4511895947350462 -0.4213082384061043 -0.2524719647198889 -1.084202172485504e-19 0 -0.01933859412457384 -0.03600416534641945 -0.06182563918398049 -0.001857372885385909 4.336808689942018e-19 
0 0 -0.004734577831103249 0 0 0 0 0 0 0 0 
0 0 -0.004734577831103249 0 0 0 0 0 0 0 0 
0 0.009135284283948905 -0.073388414465694 0.02862809678636397 0 -0.001147876138622593 0 0 0 -0.0502545178118278 0 
0 0 0 -0.008164273051507425 0 0 0 0 0 0 0 
0 0 0 -0.008164273051507425 0 0 0 0 0 0 0 
-8.673617379884035e-19 0.009135284283948907 0 -0.008164273051507425 0 0 0 0 0 -0.0502545178118278 0 
0 0 0 -0.008164273051507425 0 0 0 0 0 0 0 
0.05670263819696752 0.03056946459295869 -0.06502692061174353 -0.1180330083321935 -1.355252715606881e-20 0 -0.007750860497211667 -0.007559841790781986 0 0.1551374532262733 2.710505431213761e-20 
-0.0001757010391048169 0.106298507143509 -0.1008751705365447 0 0 0 -0.007750860497211667 0 0 0 0 
0.03802796831749911 0 -3.469446951953614e-18 0 0 0 -0.007750860497211667 0 0 0 0 
-0.5083849827858056 0.7098499652040514 -0.3531289978664561 -0.1617449772169487 -0.0005213551176554293 0 0 2.168404344971009e-19 -0.005789423746414106 -0.01346958537776784 0 
-0.1753515451247376 0.01983985301207808 -0.2634831967084622 0 -0.0007567362197119682 0 0 0 -0.01349760744490152 0 0 
-0.1761308173773021 0.13932469582523 0 0.01458512691524339 0 0 0 0 0 0 0 
0 0 0 0 0 0 0 0 0 0 0 
0.2308663373253514 0.01065461547829954 -0.1619786450113631 -0.1750842388575656 -0.02230763303938244 0 -0.1403403372652195 0 -0.01783655176950261 0 2.710505431213761e-19 
-8.673617379884035e-18 -3.469446951953614e-18 0 0 0 0 0 0 -0.04122646155832185 0 -0.00436328311785881 
0.1265415436939067 -0.1181508160219664 0 -0.003107068053267799 -0.007519271087984699 0 0 0 0 0 0 
0 0 0 0 0 0 0 0 0 0 0 
0 -0.05242899135614872 0 0 0 0 0 0 0 0 0 
0 -0.05242899135614872 0 0 0 0 0 0 0 0 0 
0 -0.05242899135614872 -0.1294967770432877 0.08578559503135932 0 0 0 0 -0.01537101807356567 0 0 
-0.1159731165390242 -0.01415929951984098 0.08761435093436962 0.1291242436980894 -0.004739390354406865 -0.00263390273756052 0 0 -0.004726711918473021 -0.0003890558172276529 -0.007051527477359377 
-0.04783727825791244 -0.029906300191679 0 0.1783103865819676 0 0 0 0 0 0 0 
0.177081011028345 -0.1202769593232411 -0.08656232132453287 0.0810265204013865 0 0 0 0 0 0 0 
-0.04783727825791244 -0.029906300191679 0 0.1783103865819676 0 0 0 0 0 0 0 
-0.04868191638319071 0.0275450099930503 -0.2699592194577285 0.1919373450613324 0 -0.004477488684025263 -0.0003833790374114718 0.1487107592228259 -0.0009312780504352868 0 0 
-0.0923121297384325 -0.2163932710002893 0.2762314436067378 -0.1563404031672606 -0.002371642626146993 0 0 0.3431039853186171 -0.00121624301309356 8.131516293641283e-19 -1.084202172485504e-19 
-0.1234647770626249 0.4905034757345703 -0.3144310104161082 -0.1055644421607867 0 -0.002534837173295449 0 -0.04362697990307116 0 0 0 
0 0.0755750307006017 -0.05566564168475831 -0.02533091707301839 0 0 0 -0.04362697990307116 0 0 0 
-0.01348862713094112 0.39239285245988 -0.2117633393896659 -0.06623410956182314 0 0 0 -0.07175348588004288 -0.0009312780504352864 0 0 
-0.2380835321068353 0.2880874603168171 0.2478088469754558 -0.0674053835186005 0 0 0 -0.08488486783483962 -0.0009312780504352864 8.131516293641283e-19 0 
0 0.0755750307006017 -0.05566564168475831 -0.02533091707301839 0 0 0 -0.04362697990307116 0 0 0 
0 0.04683019603167695 -0.0219828262133639 0 0 0 0 0 0 -0.0005164840018510746 0 
0 0 0 -0.001785143441644829 0 0 0 0 0 -0.0005164840018510751 0 
0 0 0 0 0 0 0 0 0 -0.0005164840018510746 0 
0 0 0 0 0 0 0 0 0 -0.0005164840018510746 0 
0 0 0 0 0 0 0 0 0 -0.0005164840018510746 0 
-0.1984200509024062 0.00460639244440913 0.1026186920917988 0.06769098467743843 -0.003875208228166452 -0.001745494362996751 -0.06018206506927234 -0.08670673673585685 -0.05025919276830828 0.1126487557406717 0.07618202120583574 
-0.01189561108163455 0.1601336342194326 -0.1051837604264948 -0.02357548887381768 0 -0.0004347810500680046 0 0 -0.001426284338501833 0 0 
-0.1324681504266133 0.3949628657173666 -0.2199379230205712 -0.03236085859040992 0 -0.0004347810500680046 0 0 -0.001426284338501833 0 0 
-0.1324681504266133 0.3949628657173666 -0.2199379230205712 -0.03236085859040992 0 -0.0004347810500680046 0 0 -0.001426284338501833 0 0 
-0.01189561108163455 0.1601336342194326 -0.1051837604264948 -0.02357548887381768 0 -0.0004347810500680046 0 0 -0.001426284338501833 0 0 
0 0.1038313010398052 -0.1051837604264948 0 0 0 0 0 0 0 0 
-0.3451790111894501 0.4163425487433875 -0.00445969970132218 -8.673617379884035e-19 -0.009527926785645641 -0.01243783001142646 0 -0.1344616074521905 1.734723475976807e-18 -0.0002836021892491389 -8.673617379884035e-19 
0 0 0 0 0 0 0 0 0 0 0 
-0.09504288130820418 0.1383305959586441 0 0 0 0 0 0 0 0 0 
-0.4664496328302887 0.7872541263405912 -0.1967825389602609 -0.2655178936681457 -0.0005213551176554293 0 0 0 -0.005789423746414106 0 0 
-0.09504288130820419 -0.19444222569847 0 0.2080674785611908 0 0 0 0 0 0 0 
0 0 0 0 0 0 0 0 0 0 0 
-0.04112655647008199 -0.007140237823461699 -0.2042296605403032 0.2204656798768141 0 0 -0.009748048374415862 0 0 -0.004382217230946204 -0.005262602700543633 
-1.734723475976807e-18 0 0 0 0 0 0 0 0 0 0 
-0.3313800321637458 0.205579823337797 0.09236402801167234 0.129598827236235 -0.0286859554818155 0 0 0 -0.02434811751659344 -0.02841197698716123 0 
-0.3064912222117153 0.4172641893348666 0 0 -0.02717768078513364 0 0 0 -0.02434811751659344 0 0 
-0.3064912222117153 0.4172641893348666 0 0 -0.02717768078513364 0 0 0 -0.02434811751659344 0 0 
0 0.009236791705137894 -0.09035261067474526 0 0 0 0 0 0 0 0 
-0.2930891246120056 0.4655584583693519 -0.06004634392534013 -0.1533210934138428 -0.01227584290332594 0 0 -0.04917315527396127 -0.01576382325239903 0 -0.003158692019641867 
0.1563555499317237 -0.2481676140763476 0 0 0 0 0 -0.005199808950088177 0 0 0 
0.04245793846943791 -0.06641887498587959 -0.2006613821133824 0.2330569529970743 -0.002689937975024411 0 -0.02808626907313998 -0.0132226300522768 0 8.673617379884035e-19 0 
0 0 0 0 0 0 0 0 0 0 0 
0 0.02670442700087329 0 0 0 0 0 0 0 0 0 
0 0.01376512998609419 0 0 0 0 0 0 0 0 0 
0 0 0 0 0 0 0 0 0 0 0 
0.05725060545721147 -0.001313737565029865 0 0 0 0 0 0 0 0 0 
0.007685723033044128 -0.1489044290540412 -0.03124319322090583 0.2593763828286468 0 0 0 0 0 0 -0.001599943987730984 
0.05725060545721147 -0.001313737565029865 0 0 0 0 0 0 0 0 0 
0.05725060545721147 -0.001313737565029865 0 0 0 0 0 0 0 0 0 
0 0 0 0.2051557000682752 0 -0.0008952738196322941 0 -0.2474899945137841 0 0 0 
-0.08983040160956113 0.1544866608969699 -0.0766665809695162 -0.2283179530268946 -0.003750159135592349 -0.0008952738196322941 -0.006576938852053423 0.0507724535491533 0 0 0 
0 0 0 0.2051557000682752 0 -0.0008952738196322941 0 -0.2474899945137841 0 0 0 
-0.1919351711769482 0.1878906119128324 -0.06351124619653602 -0.2283179530268945 -0.003750159135592349 -0.0008952738196322941 -0.006576938852053423 0.185234061001344 0 0 0 
-0.06891982581728043 -0.02863925977982765 0.06810415408256225 -0.012625231864018 0 0 0 0 0 0 0 
-0.2683146411839598 0 0 -0.09448864553714199 0 0 0 0 0 0 0 
0 0 0 -0.09692499586518498 0 0 0 0 0 0 0 
0 0 0 0 -0.01478836195139773 0 0 0 -0.005873551202006686 0 0 
0.05708427805325611 -0.07586959897986184 -0.03544273060773316 0.1770966807931322 0 -0.0319212502355719 0 0 -0.01414501959336013 0 0 
0.6809644980737661 -0.3172500824479418 -0.3224363659561422 -0.1977147430819669 0 0 0 1.301042606982605e-18 -0.01451882334040282 0 0 
-0.1361272274122216 -0.04836235738727729 0.05902355702148769 0.1192644435352054 0 0 0 0 0 0 0 
-0.1361272274122216 -0.04836235738727734 0.05902355702148769 0.1249982662760558 0 0 0 0 0 0 0 
0.6809644980737661 -0.3172500824479418 -0.3224363659561422 -0.1977147430819669 0 0 0 1.301042606982605e-18 -0.01451882334040282 0 0 
0.1152971774306358 0 0 -0.1263366111311882 0 0 0 0 0 0 0 
-0.1607268394609651 -0.1740764722086826 -0.1282451410998382 0.4692766180928553 0 0 0 0 0 0 0 
-0.0133604922293809 -0.2012880141631601 -0.01745082829420875 0.2711554558365552 0 -0.004197650020318121 0 0 0 0 0 
0.1657849935532284 0.01571731510600383 -0.3093914592569852 0.1415847204522727 0 -0.02698931445613768 0 0 -0.005893244169304986 0 0 
-0.2809133874877032 -0.1740764722086826 -0.01745082829420875 0.4692766180928553 0 0 0 0 0 0 0 
0 -0.05312770809068929 0 -0.6261961489782081 -0.002625232503849806 0 0 0.7239682030553865 0 0 0 
0.001754346481001729 -0.09310988470803538 0.1668364552276234 -0.4738832552399223 -0.02831965105081969 -0.002235818902234402 -0.001520937381556341 0.3145800364013773 0 0 -2.168404344971009e-19 
0 0 0 -0.4738832552399224 0 0 0 0.4100147766094697 0 0 0 
0 0 0 -0.4738832552399224 0 0 0 0.4100147766094697 0 0 0 
0 0 0 -0.03556005362707597 0 0 0 0 0 0 0 
-0.04252318265266193 0.1069899828097051 0.04902870323484546 0.06189073906191363 0 0 0 0 -0.00515476058172741 4.336808689942018e-19 0 
0 0 0 0 0 0 0 0 0 4.336808689942018e-19 0 
0.1233388272714185 -0.001457516109222987 -0.04810197315375693 -0.05276387371425091 0 0 0 0 0 4.336808689942018e-19 0 
0 0 0 0 0 0 0 0 0 4.336808689942018e-19 0 
-0.3412242744365877 0.03151152515722125 0.4694438956320546 -0.2437328678237036 -0.00387761538389501 -0.002915300428258881 0 0 -0.001453289687678691 0 0 
-0.1871646389928165 0 0.07562949291537593 0 0 0 0 0 0 0 0 
-0.5572730582229967 -0.4072713216276786 0.7816784449080382 -0.1361254528447066 -0.00387761538389501 -0.001278038137381239 0 0 -0.00145328968767869 0 0 
-0.208393286883965 0 0.07562949291537593 0 0 0 0 0 0 0 0 
-1.387778780781446e-17 0 0 -0.03470395131061683 0 0 0 0 0 0 0 
0 0 0 0 0 0 0 0 0 0 0 
-0.1160517176412446 -0.07399541641677856 0.2245827146519055 -0.1025735861785999 -0.00387761538389501 -0.003549767656705165 0 -0.02464592324651894 -0.06181684948480027 0 -0.0004377538986128239 
-0.3047891802577847 0.1370473607241804 0.1939518969872756 -0.029171875047868 -0.01141274364916682 -0.003011985759183737 -0.003216307129653615 0.003667441843369279 0.04396712659377662 -0.01479091573382129 0 
-0.1357491120078896 0.4599653621554625 -0.1933997159852074 -0.05876566883018862 0 0 0 -0.02728323880903511 0 0 0 
-0.002863355891382551 0.1146429084378481 -0.07881521527015305 0 0 0 0 0 0 0 0 
-0.03301453106367747 0.1054799568469833 -0.03707172724113951 0.2200441467308816 -0.01141274364916682 -0.001302312973746731 0 -0.1181929109301659 -0.009841348327923206 0 0 
-0.03685236625828311 0.525565636249312 -0.3250741198991475 -0.170191467065479 0 0 0 -0.007747271025124037 -0.01513851125495794 -0.051676110973816 0 
-0.04762704745142483 0.2159698782552795 -0.1342746996256898 -0.006012303461371967 0 0 0 0 0 0 0 
-0.002783786824769608 -0.07735359352768378 -0.2331478492594463 0.2231893903807416 -0.004701601483663228 0 -2.168404344971009e-19 -0.01417699931270135 -0.04423782736755509 8.673617379884035e-19 0 
-0.1322924000204013 0.1222235620591211 -0.3562229968171821 0.3018658352421365 0 0 0 0 0 0 0 
-0.1105215267968731 0.1222235620591211 0 -0.1058116301312504 0 0 0 0 0 0 0 
-0.3817163766263137 0.6307412583147272 -0.1179890456314149 -0.1944685848327363 -5.421010862427522e-20 -0.01922441529765761 0 -0.0606847986161135 4.336808689942018e-19 0 0 
-0.08798906285189614 0.3457619262643603 -0.05937864597735142 -0.2133385997633762 -0.004701601483663228 0 0 -0.01417699931270135 0 0 0 
-0.1105215267968731 0.122223562059121 0 -0.1058116301312504 0 0 0 0 0 0 0 
-0.1497460552755951 -0.2867546960164289 0.4951873780151772 -0.206018476144211 0 -0.00781862458321534 0 -0.0008386249340780922 -0.02241119219523445 -0.019917847014654 0 
-1.517883041479706e-18 0 0.05036184510310095 -0.02050754320604308 0 0 0 0 0 0 -0.004105111750900101 
0 0 0 0 0 0 0 0 0 0 0 
-0.2342747403529878 -0.4711911521934182 0.5473204245017365 -0.1182301472130521 0 -0.006030931556641184 0 -0.000838624934078093 -0.02241119219523445 -0.01546817069081917 0 
0 0 0 0 0 0 0 0 0 0 0 
-0.05678939565339327 -0.009118465191205962 0.1209763437276556 -0.03642955625816612 0 -0.003009044690690859 0 0 0 0 0 
-0.2351337473527648 -0.1278967465586473 0.5806558051060737 -0.1449650521081685 0 -0.003682721496263959 0 0 0 -0.004689773311792393 0 
-0.120512224440329 0 0.1747014363538439 -0.03642955625816612 0 -0.0017951910234766 0 0 0 0 0 
-0.2461723886524269 -0.1278967465586472 0.4296038560180769 -0.06469933928783358 0 -0.003682721496263959 0 0 0 -0.004689773311792393 0 
-0.120512224440329 0 0.1747014363538439 -0.03642955625816612 0 -0.0017951910234766 0 0 0 0 0 
-0.1049452000009605 0.1990127274569501 0.03759752468438932 -0.05859739951374798 0 0 0 0 0 -0.004689773311792393 0 
-0.08084734353379881 -0.08030961987086241 -0.001926050992774847 0.1472161207309545 0 -0.0020564534809807 0 0 0 -0.004689773311792394 0 
-0.030761932877229 -0.02148704112128472 0.07563169502927561 -0.01438715661887008 0 0 0 0 0 -0.004689773311792394 0 
-0.030761932877229 -0.02148704112128472 0.07563169502927561 -0.01438715661887008 0 0 0 0 0 -0.004689773311792394 0 
-0.030761932877229 -0.02148704112128472 0.07563169502927561 -0.01438715661887008 0 0 0 0 0 -0.004689773311792394 0 
0.0841473061596426 -0.07246579519209691 0.05278172616952034 0 0 0 0 0 0 0 0 
0.1811061787632213 -0.1311476601141262 0.109770713169053 -0.04820303884455317 -0.0007567362197119682 0 0 0 0.03839335718334878 0 0 
-0.1191424559964408 0 0.08680695109266359 0 0 0 0 0 0 0 0 
-0.1409028499330165 0.5294825688401013 -0.2741312379418158 -0.02293025610297096 0 -0.001787693026574159 0 0 0 0 0 
-0.1191424559964408 0 0.08680695109266359 0 0 0 0 0 0 0 0 
0 0 0 0 0 0 0 0 0 0 0 
-0.1508455515337176 0.1065050672559866 0.1824078287359426 -0.2059860613737619 0 0 0 -0.05653426238840531 -0.005424209611774956 0 0 
0.03175165638105234 0 -0.2330214387923492 0 0 -0.007094987393840109 0 0 0 0 -0.005976888088811002 
0 0 0 0 0 0 0 0 0 0 0 
0 0 0 0 0 0 0 0 0 0 0 
0 0 0 0 0 0 0 0 0 0 0 
0 0 0 0 0 -9.774046817107246e-05 0 0 0 0 0 
0 0 0 0 0 -9.774046817107246e-05 0 0 0 0 0 
0 0 0 0 0 -9.774046817107246e-05 0 0 0 0 0 
0.1609113478774634 -0.1512791399275862 0 -0.001053090722055301 0 0 0 0 0 0 0 
0.4885233790054232 -0.3991371317980022 -0.002065922892996701 -0.001053090722055296 0 0 0 0 0 0 0 
0.1400015435097457 -0.1512791399275862 0 -0.001053090722055301 0 0 0 0 0 0 0 
-0.1930313983701247 -0.1636197182324392 -0.1350018378720501 0.4421718504201361 0 -0.0020564534809807 0 0 0 0 0 
-0.04692514037626598 -0.02026697952089867 -0.006008493719775566 0 0 0 0 0 0 -0.01131985053067161 0 
0 -0.05958160303880014 0.09930523043227764 0 0 0 0 0 0 0 0 
-0.2815371924934869 0.6008805634303864 -0.2834715587869098 -0.1349356586499417 -0.003492818259653419 -0.0009290978109550413 -0.009090651357711114 -3.469446951953614e-18 -0.0167942113325717 0 0 
0 -0.05958160303880014 0.09930523043227764 0 0 0 0 0 0 0 0 
-0.09323254082553092 0.1085256758934416 0.02212818133883969 -0.09506595853493173 -0.006582918593443913 -0.006635191565319279 -0.007385346065450619 -0.04167597489561806 -0.002367268770682455 -0.05881582729968223 -0.0008107406968129577 
0 0 0 0 0 0 0 0 0 0 0 
0 0 0 0 0 0 0 0 0 0 0 
0 0 0 0 0 0 0 0 0 0 0 
0.0461384976250642 0 -0.05113337114043789 0 0 0 0 0 0 0 0 
0 0.1226762925231292 0 0 0 0 0 0 0 0 0 
0 0 0 0 0 0 0 0 0 0 0 
-0.115674648945748 0.240554306258445 0.04303513506657151 -0.05539797416221347 -0.01422004907931938 -0.01901629855405667 -0.002073230390285539 -0.03426067400423034 -0.04529882584849493 -0.01019499229184636 0 
-0.03668163957212663 0.1181255764995739 -0.03581345385211702 0 0 -0.01901629855405667 0 0 0 0 0 
-0.03668163957212664 0.08833761005108022 0 0 0 -0.01901629855405667 0 0 0 0 0 
0.2160262231716918 -0.2620479046631333 0 3.469446951953614e-18 0 0 0 0 0 0 0 
-0.3320767708413683 0.5404214368807888 -0.1121694317590764 -0.009942843763618363 0 -0.02389549146881362 -0.05657647645784399 0 0 -0.003241185767163968 0 
-0.1676680265409609 0 0 0 0 0 0 0 0 0 0 
-0.07118726836073383 0.2403684522605129 -0.2434123057331129 0.1243820505353778 -0.004739390354406865 -0.006145451402675605 -0.002156086565576907 -0.01808124211184736 -0.006607093388690845 -4.336808689942018e-19 0 
0 0 0 0 0 0 0 0 -0.004632112377801526 0 0 
-0.01936289881093861 0.1136054303098895 -0.03069230709119093 -0.2065166392330697 0 -0.03012367564097515 0 -0.005199808950088177 -0.04860132567745863 -0.00235605138285517 0 
-0.07716568280891234 0.104631346646058 0.02191369006098509 -0.07202072732220936 0 -0.007554007995896845 0 -0.03167631628456223 -0.007289553822577668 0.2463035274071981 0 
-0.1358389194964097 0.1319718592578669 0 0 0 0 0 0 0 0 0 
-0.1957489961937388 0.3556672895340761 -0.08380408024357586 -0.003780518375753794 0 -0.008653058515666202 0 -0.008931173658175341 -0.007289553822577667 0 0 
-0.06464862969817783 0.1267193934843711 -0.02175275714761521 0 0 -0.002345431750814025 0 0 -0.007289553822577668 0 0 
0.06906384806931612 0.02028020153470024 -0.02175275714761521 -0.018145262207767 0 -0.002345431750814025 0 0 -0.007289553822577667 0 0 
0.3316091512752012 -0.2547292186831374 -0.1298973712730124 -0.3506703758528901 -0.005046183956803388 -0.006689779650796158 -0.01842328789162784 0.205205912750807 0.133606829758263 -0.00586161669999708 -0.01727000146166134 
-0.0172460991234137 -0.007749046091375162 0.0160282646605376 0 0 0 0 0 0 0 0 
-0.02638364743873055 0 0 0 0 0 0 -0.000838624934078093 -0.007766717268574161 0 0 
-0.04862592510277515 0.03796351978044363 0.006907729452303489 -0.001404856983022185 -0.002686666081537531 -0.002777021537243117 -0.008334988628885182 -0.01509630993610947 0 0 -0.02062061347892238 
0 -3.469446951953614e-18 0 8.673617379884035e-19 0 0 0 0 -0.007341514981266579 0 0 
0.1564063581313515 -0.2319683142967349 0.1489759168363744 -0.03886577883786933 0 0 -0.0058743442280575 0 0 -0.003705894905380279 0 
0 0 0 0 0 0 0 0 0 0 0 
-6.505213034913027e-19 0.1011667656755099 4.336808689942018e-19 0 0 0 0 0 0 0 -0.0067330936898522 
0 0 0 0 0 0 0 0 0 0 0 
0 0.1011667656755099 0 0 0 0 0 0 0 0 -0.0067330936898522 
0 0.1011667656755099 0 0 0 0 0 0 0 0 -0.0067330936898522 
0 0.09482717477386592 -0.08600417084307516 0 0 0 0 0 0 0 0 
0 0.09482717477386592 -0.08600417084307516 0 0 0 0 0 0 0 0 
0 0.09482717477386592 -0.08600417084307516 0 0 0 0 0 0 0 0 
0 0.09482717477386592 -0.08600417084307516 0 0 0 0 0 0 0 0 
1.561251128379126e-17 0.3318189850173893 -0.3101549293835812 -0.09411563553636206 -0.01089085998983141 -0.005009448833983344 0 -0.0007104013041360658 0 0 0 
-0.0990119844971647 0.06446172013726445 -0.06940592643890786 -0.03376977711525164 -0.003936010510662632 -0.005054935091757894 0 0.1589369179476749 -0.01076907288931812 8.673617379884035e-19 0 
0 0.02525165416803717 0 0 -0.003936010510662632 -0.005009448833983344 0 -0.0007104013041360658 0 0 0 
0.02800436770923076 -0.0670924900291418 -0.01177774202502507 0.1167657844010609 0 0 0 -0.006294845506638329 0.05786340023680614 0 0 
-0.00386181133263617 0.1240264320421448 -0.04928803595398854 -0.11801817362134 0 0 0 0 0 0 0 
-0.01122594525768029 0.07400648673713253 -3.469446951953614e-18 -0.11801817362134 0 0 0 0 0 0 0 
-0.0767057447060554 0.1310832302499081 0.07343006393291138 -0.01004065901526072 0 0 0 0 0 0 0 
0 0 0 0 0 0 0 0 0 0 0 
0.06458305432664772 -0.03204374371460245 0.1381296418291194 -0.04709733678209846 0 0 0 0 0 0 0 
0 0 0 0 0 0 0 0 0 0 0 
0 0 0 0 0 0 0 0 0 0 0 
-0.3572428043167913 0.18853998015757 -0.1037224855465938 0.1634515116055591 0 0 0 0 3.469446951953614e-18 0 -0.004200837092553797 
0 0.2284064970647413 -0.04250417404266565 -0.1123683648418038 0 0 0 0 0 0 0 
-0.09198995155192707 0.2505083768111122 -0.1344857563686905 -0.1123683648418038 2.168404344971009e-19 0 0 -0.006075714382154505 -0.007171993091001637 0 0 
-0.03907617765605697 0.1159436710466073 -0.1537265226049778 0.1040065926585919 0 0 0 0 0 0 0 
0 0.2284064970647413 -0.04250417404266565 -0.1123683648418038 0 0 0 0 0 0 0 
0.3629934046523366 -0.6523010519733008 0 0 0 0 0 0 0 0 0 
0.1537889855727349 -0.1694805863238807 -0.001999897178545024 -0.004150214811330736 0 0 0 0 0 0 -0.04557063941032203 
0.05327452835551885 -0.02808062750126579 -0.08140638087390729 0.1081166825555429 0 -2.234487809642041e-05 0 0 0 0 0 
0 0 0 -0.004150214811330729 0 0 0 0 0 0 0 
0.1418585480143177 -0.1632746778340121 0 -0.05389667813618561 0 0 0 0 -0.05405762667124495 0 0 
0.1639452355831981 -0.05321917559796542 -0.1742958816650981 0.06238099602127641 0 -0.002184609744601895 0 0 -0.05872141681623062 -0.001953998252515757 0 
0.4031319011366795 -0.2188729763236595 -0.1184830792379047 -0.1156215293507015 0 -4.037155350504208e-05 -0.001267696399330416 4.336808689942018e-19 0 -0.02306425054915287 0 
0 0 0 -0.05389667813618561 0 0 0 0 0 0 0 
-0.09440763161033215 -0.1209225745652858 0.09372500821168546 0.1634236404790102 0 0 0 -0.03167631628456223 0.1613599152748196 0 0 
