solver_type L2R_L2LOSS_SVC_DUAL
nr_class 2
label 1 2
nr_feature 161
bias -1
w
0.09119820915175744 
0.08044105094526961 
0.1150602427477172 
0.295262213936569 
0.04134018597346072 
0.08044105094526961 
0.08044105094526961 
0.295262213936569 
0.04134018597346072 
0.1150602427477172 
0.002178709757375341 
0.02218733943950566 
0.01075715820648783 
0.01075715820648783 
0.01075715820648783 
0.01075715820648783 
-0.1126302533695243 
-0.1126302533695243 
-0.1126302533695243 
-0.1126302533695243 
-0.1126302533695243 
-0.1126302533695243 
-0.1126302533695243 
-0.1126302533695243 
-0.0715291474928943 
0.01633438553485224 
-0.07411687300078774 
-0.03661347672228589 
-0.1126302533695243 
0.086008311035697 
0.01143018123301783 
0.01143018123301783 
0.086008311035697 
0.01143018123301783 
-0.1632203604295047 
-0.2839376259397631 
-0.08424041722741973 
-0.1632203604295047 
-0.2839376259397631 
-0.08424041722741973 
-0.05009448327844665 
-0.1395475495630189 
-0.1395475495630189 
-0.1395475495630189 
-0.1395475495630189 
-0.1395475495630189 
-0.1395475495630189 
-0.1395475495630189 
-0.1395475495630189 
0.06425110858171952 
0.1388292383843988 
0.1446921595269892 
0.09827303221214678 
0.06425110858171952 
0.06425110858171952 
0.1446921595269892 
0.06425110858171952 
0.006199398728272344 
0 
0.08044105094526963 
0.08044105094526961 
0.02841730057931375 
0.05586559046933217 
0.02841730057931375 
0.02841730057931375 
0.05586559046933217 
0.02841730057931375 
0.1366431683537861 
0.1366431683537861 
0.1366431683537861 
0.1366431683537861 
0.1366431683537861 
0.1366431683537861 
0 
0 
-0.1207172655102586 
-0.09563450427880697 
-0.04771009088893029 
-0.1207172655102586 
-0.09563450427880697 
-0.04771009088893029 
-0.1040627044335365 
-0.0310555298122082 
-0.1040627044335365 
-0.0310555298122082 
0.03334763223100885 
0.03334763223100885 
0.03334763223100885 
0.03334763223100885 
0.03334763223100885 
0.03334763223100885 
0.009673730004688481 
0.009673730004688481 
0.009673730004688481 
0.009673730004688481 
0.03402192363042729 
0.009673730004688481 
0.02374442351318998 
0 
0.0243481936257388 
0.0243481936257388 
0.0243481936257388 
0.0243481936257388 
0.0259006569819398 
0.0259006569819398 
0.0259006569819398 
0.0259006569819398 
0.0259006569819398 
0.0259006569819398 
0 
0 
0 
-0.0730071746213283 
-0.0730071746213283 
0.02782966627381336 
0 
0 
0.1045219520441415 
0 
0 
0.02994382224146232 
0.006199398728272344 
0.006199398728272344 
0.006199398728272344 
-0.02757445148703003 
-0.02757445148703003 
0 
0 
0 
0.03851338036873659 
0.03851338036873659 
0.03851338036873659 
0.03851338036873659 
0.02765220230034314 
0.02765220230034314 
0.02765220230034314 
0.02765220230034314 
0.02765220230034314 
0.02765220230034314 
0.02765220230034314 
0.02744828989001842 
0.02744828989001842 
0.02782966627381336 
0.02782966627381336 
0.02782966627381336 
0.02782966627381336 
0.02782966627381336 
0.02782966627381336 
0.0246214842852943 
0.0246214842852943 
0.02374442351318998 
0.02374442351318998 
0.02374442351318998 
0.07457812980267915 
0.07457812980267915 
0.07457812980267915 
0.07457812980267915 
-0.008526803156924249 
-0.008526803156924249 
-0.01182315874592233 
-0.01182315874592233 
