solver_type L2R_L2LOSS_SVC_DUAL
nr_class 4
label 1 2 3 4
nr_feature 559
bias -1
w
0.1240707359903762 -0.1126177820250873 -0.01184065432693468 -0.005097227028418221 
0.1240707359903762 -0.1126177820250873 -0.01184065432693468 -0.005097227028418221 
-0.233605082751473 0.2179066024912642 -0.2635364552261281 -0.2930375279488107 
0.387293191835309 -0.3784558931974897 -0.02244977726421842 -0.005097227028418221 
0.2292639648320074 -0.2359898335731332 0 0 
0.1240707359903762 -0.1126177820250873 -0.01184065432693468 -0.005097227028418221 
0.1240707359903762 -0.1126177820250873 -0.01184065432693468 -0.005097227028418221 
0.387293191835309 -0.3784558931974897 -0.02244977726421842 -0.005097227028418221 
0.005754796800967807 -0.04165116142041603 0 0 
-0.08193491206876816 0.05959743014770532 -0.04548910743769907 -0.08578365228327531 
-0.03011376203567711 0.05020209411302198 -0.2960491924414133 -0.2930375279488105 
-0.233605082751473 0.2179066024912642 -0.2635364552261281 -0.2930375279488107 
0.1037297180745192 -0.1147002243331288 0.01160280305226773 -0.1518975667510921 
-0.09765245549101348 0.09260766205036854 -0.04416701151376166 -0.01909192406323514 
-0.07687393434420105 0.07988543803935887 -0.01914351049974504 -0.01314906611290111 
-0.07434362916457157 0.06204850931912913 0 0 
0.01670701870014777 -0.01967273474480013 0 0 
-0.07687393434420105 0.07988543803935887 -0.01914351049974504 -0.01314906611290111 
-0.07687393434420105 0.07988543803935887 -0.01914351049974504 -0.01314906611290111 
-0.027713565442048 0.02879109163424566 0 0 
-0.027713565442048 0.02879109163424566 0 0 
-0.01550114996875244 0.01019116093152614 0 0 
-0.2514357134080883 0.2543352334698541 -0.01989772567805428 -0.004785807103954937 
-0.2034746976092208 0.2023238077676737 -0.04112704795315803 -0.03045413548692494 
-0.1125340804795906 0.1114183223266792 0 0 
0 0 0 0 
-0.02647702153678877 0.02675353192432508 -0.01130702480152023 -0.00478580710395493 
-0.1613340299220084 0.1599977293246549 -0.04112704795315802 -0.0296102195316117 
0 0 0 0 
-0.07216361689746277 0.0646835414059776 0 0 
-0.04115680165095971 0.05893451917139263 -0.01011072259925633 -0.04728350568891469 
-0.0411568016509597 0.0365426121090462 0 0 
-0.05574613355125936 0.05646930431995208 0 0 
-0.0411568016509597 0.0365426121090462 0 0 
-0.04115680165095971 0.0365426121090462 -0.004972477629538819 -0.01382808270737354 
-0.0411568016509597 0.0365426121090462 0 0 
-0.0411568016509597 0.0365426121090462 0 0 
0 0 -0.004972477629538819 -0.01382808270737354 
-0.1371891958560362 0.1471754299959019 -0.03578934248923017 -0.03456286278193624 
-0.2249586918712995 0.2275817015455289 -0.01218887812051574 -0.01382808270737354 
0 0 -0.004972477629538819 -0.01382808270737354 
-0.08910782472143937 0.1121360025492808 -0.0210889262021527 -0.02533063121463645 
0 0 -0.004972477629538819 -0.01382808270737354 
-0.02638717072626364 -0.02519158213264762 -0.06959873882146135 0.06093561414152478 
-0.009708734210535565 -0.1327818216220336 -0.02476849956998367 0.1596657391094217 
0.1183159391894084 -0.07096662060467129 -0.01184065432693468 -0.005097227028418221 
0.1818322956883943 -0.1785929480708831 -0.006997106126249432 0 
0.128715398273467 -0.08437717098583992 -0.009952348855249836 -0.03906589019536861 
0.1818322956883943 -0.1785929480708831 -0.006997106126249432 0 
0.1818322956883943 -0.1785929480708831 -0.006997106126249432 0 
0.1818322956883943 -0.1785929480708831 -0.006997106126249432 0 
0.1818322956883943 -0.1785929480708831 -0.006997106126249432 0 
0.1818322956883943 -0.1785929480708831 -0.006997106126249432 0 
0.1818322956883943 -0.1785929480708831 -0.006997106126249432 0 
-0.1531025316549575 0.1492851528486743 -0.04439595079241239 -0.02255101289655335 
-0.1300134047556574 0.139100961714175 -0.02342871218442433 -0.01473585553858692 
0 0 -0.001374300385557112 0 
0 0 -0.001374300385557112 0 
-0.08386676317151776 0.08038800554161522 -0.02216115880868689 -0.01044548048680547 
-0.1300134047556574 0.139100961714175 -0.02342871218442433 -0.01473585553858692 
0 0 -0.001374300385557112 0 
-0.05344040563276402 0.05589070842972386 -0.01673382687004537 0 
-0.05759786585031542 0.04723801623214792 -0.01257305664091094 -0.003034496886711563 
-0.1246185653909355 0.1990836269565937 -0.01468563078899209 -0.05637895424598552 
0 0 0 0 
-0.05759786585031542 0.04723801623214792 -0.01257305664091094 -0.003034496886711563 
0 0 0 0 
-0.04280869419936666 0.04457885627116968 -0.01471680574468256 -0.002617196453162993 
0 0 -0.003748814141305071 0 
-0.04220446117068925 0.04103052689293168 -0.009519731153111298 -0.002647227396909066 
0 0 -0.003748814141305071 0 
0 0 -0.003748814141305071 0 
0 0 -0.003748814141305071 0 
0 0 0 0 
0 0 0 0 
-0.04214066768721219 0.04232607844301862 -1.301042606982605e-18 -0.0008439159553132374 
1.084202172485504e-18 6.505213034913027e-19 0 -0.0008439159553132374 
0 0 0 0 
-0.04723216064105494 0.05013854041419707 -0.009813384611779101 0 
-0.03236972189895086 0.03402836917184771 -0.005548065210972825 0 
-0.03236972189895086 0.03402836917184771 -0.005548065210972827 0 
-0.03236972189895086 0.03402836917184771 -0.005548065210972827 0 
-0.03236972189895086 0.03402836917184771 -0.005548065210972827 0 
-0.03236972189895086 0.03402836917184771 -0.005548065210972827 0 
-0.03236972189895086 0.03402836917184771 -0.005548065210972827 0 
-0.03236972189895086 0.03402836917184771 -0.005548065210972825 0 
0.04026662152207872 -0.04616348418506071 -0.01681017201870523 -0.009113474123776867 
-0.07059936265177169 0.08733176651051812 -0.01726499676127395 -0.02138741522237466 
0.1100454457425704 -0.1088882536595543 0 0 
0.06570699457610606 -0.0680698058009041 0 0 
0.4929794377608084 -0.4937722716650846 -0.02561891518201456 -0.01672768815128609 
0.2732243420698079 -0.2732210043804868 0 0 
0 0 0 0 
0.06570699457610606 -0.0680698058009041 0 0 
0.4929794377608084 -0.4937722716650846 -0.02561891518201456 -0.01672768815128609 
0.1631788963272373 -0.1643327507209326 0 0 
0.2776092763082968 -0.280789917444145 -0.03770480258537531 -0.01672768815128609 
0.07749092031305195 -0.08178508062679443 0 0 
0.05059114846955173 -0.004684244510462796 -0.009162162578181159 -0.06256648236153209 
0.07749092031305195 -0.08178508062679443 0 0 
0.07749092031305195 -0.08178508062679443 0 0 
0.07749092031305195 -0.08178508062679443 0 0 
-0.08942656818028688 0.1499149543106355 -0.02806349122818474 -0.08750219727361212 
-0.1351249822021224 0.03074135001147356 -0.03090442833642446 0.1525630289089634 
0 0.02239190706234644 -0.005138244969717515 -0.03345542298154114 
-0.03821543002257377 0.1221680620328253 -0.0154904345872738 -0.08750219727361212 
-0.1291805409926283 -0.002074181986825234 -0.02167327571840368 0.1583674500222786 
0 0.02239190706234644 -0.005138244969717515 -0.03345542298154114 
0 0.02239190706234644 -0.005138244969717515 -0.03345542298154114 
0.2544735828816214 -0.2485542427143855 -0.01448505951473526 -0.00475844622080702 
0.1631834905173753 -0.1620838819786432 -0.003727574349577526 -0.004758446220807019 
0.1631834905173752 -0.1620838819786432 -0.003727574349577526 -0.004758446220807019 
0.1219869680134252 -0.07297713308012323 -0.009395389135853534 -0.05314532280500699 
0.1631834905173752 -0.1620838819786432 -0.003727574349577526 -0.004758446220807019 
0.1631834905173753 -0.1620838819786432 -0.003727574349577526 -0.004758446220807019 
0.1631834905173752 -0.1620838819786432 -0.003727574349577526 -0.004758446220807019 
0.1631834905173752 -0.1620838819786432 -0.003727574349577526 -0.004758446220807019 
0.1631834905173752 -0.1620838819786432 -0.003727574349577526 -0.004758446220807019 
-0.03792299550072841 0.04062841485516906 -0.02271119890539458 -0.01355707197784325 
0.04056520120932063 -0.04025837622439764 -0.006242319866791914 -0.007614214027509213 
0.05984028534756154 -0.06224452304088167 -0.005076087675201433 -0.007614214027509213 
0.05984028534756154 -0.06224452304088167 -0.005076087675201433 -0.007614214027509213 
0.08387720660573028 -0.0834129978118265 -0.01633819448293383 -0.01672768815128609 
-0.006678697980702487 0.008189625151219355 -0.01985666066335805 -0.008781130798245215 
-0.01458933190029966 0.01992669221090589 0 0 
0 0 0 0 
-0.03212560621644446 0.0556540002482222 -0.008242897229424536 -0.004112673282833653 
-0.03212560621644446 0.0556540002482222 -0.008242897229424536 -0.004112673282833653 
-0.03212560621644446 0.0556540002482222 -0.008242897229424536 -0.004112673282833653 
-0.03212560621644446 0.0556540002482222 -0.008242897229424536 -0.004112673282833653 
0.01184744772754121 -0.01072633525981914 -0.005381740629797311 -0.004605036000809822 
0.01184744772754121 -0.01072633525981914 -0.005381740629797311 -0.004605036000809822 
0.01184744772754121 -0.01072633525981914 -0.005381740629797311 -0.004605036000809822 
0.01184744772754121 -0.01072633525981914 -0.005381740629797311 -0.004605036000809822 
0.01184744772754121 -0.01072633525981914 -0.005381740629797311 -0.004605036000809822 
0.02403692125816873 -0.02136369048245529 -0.0112621068077324 -0.009113474123776867 
0.02403692125816873 -0.02136369048245529 -0.0112621068077324 -0.009113474123776867 
-0.04401069864491586 0.04877572214148708 0 0 
-0.04401069864491586 0.04877572214148708 0 0 
-0.04401069864491586 0.04877572214148708 0 0 
-0.04401069864491586 0.04877572214148708 0 0 
-0.04401069864491586 0.04877572214148708 0 0 
-0.04401069864491586 0.04877572214148708 0 0 
-0.04401069864491586 0.04877572214148708 0 0 
-0.03307036241298765 0.09062542144706912 -0.03251273721528557 0 
-0.08778609018590811 -0.1009479419582432 0.1937030278625189 0 
-0.03307036241298765 0.09062542144706912 -0.03251273721528557 0 
-0.03307036241298766 0.09062542144706912 -0.03251273721528557 -0.0008439159553132352 
-0.03307036241298765 0.09062542144706912 -0.03251273721528557 0 
-0.08778609018590811 -0.1009479419582432 0.1937030278625189 0 
-0.03307036241298765 0.09062542144706912 -0.03251273721528557 0 
-0.03307036241298765 0.09062542144706912 -0.03251273721528557 0 
0 0.002304668562454734 0 0 
0 0.002304668562454734 0 0 
-0.1256829672176903 0.1367278783318391 -0.02543122902885882 -0.04838687658419998 
-0.08139378917252799 0.07878885826841953 -0.0246510522667457 -0.01559387298774052 
-0.01473543521905752 0.01129116521036777 -0.007593559333996377 0 
-0.01473543521905752 0.01129116521036777 -0.007593559333996377 0 
-0.01473543521905752 0.01129116521036777 -0.007593559333996377 0 
-0.01473543521905752 0.01129116521036777 -0.007593559333996377 0 
-0.01271378381880605 0.01015176158373853 0 0 
-0.01271378381880605 0.01015176158373853 0 0 
-0.02152541647690357 0.01659807774311449 -0.01036248323764235 -0.003304484276590558 
-0.01271378381880605 0.01015176158373853 0 0 
-0.01271378381880605 0.01015176158373853 0 0 
-0.02152541647690357 0.01659807774311449 -0.01036248323764235 -0.003304484276590558 
-0.01271378381880605 0.01015176158373853 0 0 
-0.03793645065402805 0.08204469707247944 0 0 
0.06981273014541409 -0.03588936488507552 0 1.734723475976807e-18 
-0.03793645065402805 0.08204469707247944 0 0 
-0.03793645065402805 0.08204469707247944 0 0 
-0.1094142579354264 0.1518794853678533 0 0 
-0.03793645065402805 0.08204469707247944 0 0 
-0.02843154693370422 0.02600223651593501 0 0 
-0.01550114996875244 0.01019116093152614 0 0 
-0.01550114996875244 0.01019116093152614 0 0 
-0.01550114996875244 0.01019116093152614 0 0 
-0.01550114996875244 0.01019116093152614 0 0 
-0.01777495541753253 0.01136430073373228 -0.007545695702397862 0 
-0.1684818499893742 0.1780835492456517 -0.03610610459231769 -0.003902612403325556 
-0.01777495541753253 0.01136430073373228 -0.007545695702397862 0 
-0.07309589492148244 0.05866191597028453 -0.0130399487431949 8.673617379884035e-19 
-0.1684818499893742 0.1780835492456517 -0.03610610459231769 -0.003902612403325556 
-0.03767235926962501 0.07809384906304659 -0.005837007475511202 -0.01901828298281931 
-0.178740166063124 -0.06885582552370287 -0.02362222756896878 0.1937472023254166 
-0.04675438687462155 0.08073255525577773 -0.01252876606423414 -0.04875565211325638 
-0.03767235926962501 0.07809384906304659 -0.005837007475511202 -0.01901828298281931 
-0.08442674614424656 0.1783263961890664 -0.01499917005369236 -0.07863202813128581 
0 0.009828445033534887 -0.003366603486052985 -0.01473585553858692 
-0.008811632658097524 0.006446316159375961 -0.01036248323764235 -0.003304484276590558 
-0.008811632658097524 0.006446316159375961 -0.01036248323764235 -0.003304484276590558 
-0.008811632658097524 0.006446316159375961 -0.01036248323764235 -0.003304484276590558 
-0.008811632658097524 0.006446316159375961 -0.01036248323764235 -0.003304484276590558 
-0.05542654627716435 0.07879387021584212 -0.02748816693736534 -0.03934391333719311 
-0.05811805649301012 0.05588794489391804 -0.01926197657973883 0 
-0.06231405750980572 0.0605231878427706 -0.02766612290572962 -0.009115846389321605 
-0.05811805649301012 0.05588794489391804 -0.01926197657973883 0 
-0.06231405750980572 0.0605231878427706 -0.02766612290572962 -0.009115846389321605 
-0.09501131809283979 0.3911350776227304 -0.02354385300760956 -0.267214445124023 
0 0 0 0 
-0.03388548470966963 0.03325741768488347 0 0 
0 0 0 0 
-0.07813539976778289 0.1015214105584698 -0.02133428555122238 -0.02559394857379707 
-0.06799805241448705 0.06230760827202542 -0.01315735315100304 0 
-0.03699123716798396 0.03647134753754878 -0.009607639162169375 0 
-0.03699123716798396 0.03647134753754878 -0.009607639162169375 0 
-0.03699123716798396 0.03647134753754878 -0.009607639162169375 0 
-0.06799805241448705 0.06230760827202542 -0.01315735315100304 0 
-0.03699123716798396 0.03647134753754878 -0.009607639162169375 0 
-0.03699123716798396 0.03647134753754878 -0.009607639162169375 0 
-0.03699123716798396 0.03647134753754878 -0.009607639162169375 0 
0.1185477901938617 -0.1236594057671526 0 0 
-0.03100681524650307 0.02583626073447663 0 0 
-0.03100681524650307 0.02583626073447663 0 0 
0 0 0 0 
0 0 -0.003549713988833665 0 
-0.07133382375064903 0.1026503202936727 -0.01278086660685446 -0.005804421113315191 
0 0 -0.003549713988833665 0 
0 0 -0.003549713988833665 0 
0.0629352080698988 -0.06205602585348487 -0.02058774550060095 -0.004785807103954929 
0.1401472623707294 -0.1348528563940819 -0.009280720699080718 0 
0.06979617015171974 -0.0658856690651229 -0.01122747209024618 0 
0.08941222960668756 -0.08880955777780994 -0.009280720699080718 0 
0.08941222960668756 -0.08880955777780994 -0.009280720699080718 0 
0.08941222960668756 -0.08880955777780994 -0.009280720699080718 0 
-0.08286383936975705 0.08304599655033498 -0.0317579092198268 -0.02179160766832873 
-0.07791174199898951 0.08093970019195518 -0.02255845804642947 -0.01255937610102896 
-0.04752704724801421 0.04800656910371397 -0.01705749293274932 -0.01255937610102896 
-0.04752704724801421 0.04800656910371397 -0.01705749293274932 -0.01255937610102896 
-0.04752704724801421 0.04800656910371397 -0.01705749293274932 -0.01255937610102896 
-0.04752704724801421 0.04800656910371397 -0.01705749293274932 -0.01255937610102896 
-0.04752704724801421 0.04800656910371397 -0.01705749293274932 -0.01255937610102896 
-0.04062804206436059 -0.2349372088849671 -0.008390686157716289 0.2262247746742594 
-0.04062804206436059 0.1955675388113652 -0.008390686157716289 -0.1336072225620115 
-0.04062804206436059 0.1955675388113652 -0.008390686157716289 -0.1336072225620115 
-0.04062804206436059 -0.2349372088849671 -0.008390686157716289 0.2262247746742594 
-0.04062804206436059 -0.2349372088849671 -0.008390686157716289 0.2262247746742594 
0.05073503276404182 -0.04604329861627195 0 0 
0.05073503276404182 -0.04604329861627195 0 0 
0.05073503276404182 -0.04604329861627195 0 0 
-0.06928571573615541 0.07133238819549471 -0.02227501640489772 -0.007403003557117925 
-0.05431937773887589 0.05655443082169515 -0.01130702480152024 -0.00478580710395493 
-0.02647702153678876 0.02675353192432508 -0.01130702480152024 -0.00478580710395493 
-0.02647702153678876 0.02675353192432508 -0.01130702480152024 -0.00478580710395493 
-0.02647702153678876 0.02675353192432508 -0.01130702480152024 -0.00478580710395493 
0.07568608978931023 -0.07516477688605371 -0.01060912293728374 0 
0.07568608978931023 -0.07516477688605371 -0.01060912293728374 0 
0.07568608978931023 -0.07516477688605371 -0.01060912293728374 0 
0.07568608978931023 -0.07516477688605371 -0.01060912293728374 0 
0.07568608978931023 -0.07516477688605371 -0.01060912293728374 0 
-0.1250807396074264 0.13057522675247 -0.03352414357510163 -0.005804421113315191 
-0.03846655914485914 0.02774689227781016 -0.01257305664091094 0 
-0.1250807396074264 0.13057522675247 -0.03352414357510163 -0.005804421113315191 
-0.0707455113827806 0.1241510394334322 -0.01670701399391913 -0.0614618085364196 
-0.001369952242398757 0 0 0 
-0.001369952242398757 0 0 0 
-0.1092395734403552 0.1254367131214713 -0.01783766969486244 -0.04838687658419998 
-0.0707455113827806 0.1241510394334322 -0.01670701399391913 -0.0614618085364196 
-0.001369952242398757 0 0 0 
-0.05471572777292048 -0.1915733634053123 0.2262157650778045 0 
-0.05471572777292048 -0.1915733634053123 0.2262157650778045 0 
-0.05471572777292048 -0.1915733634053123 0.2262157650778045 0 
-0.05471572777292048 -0.1915733634053123 0.2262157650778045 0 
-0.05471572777292048 -0.1915733634053123 0.2262157650778045 0 
-0.05471572777292048 -0.1915733634053123 0.2262157650778045 0 
-0.0372815537622628 0.02854421737173737 0 0 
-0.08487763012213072 0.07860589566953262 -0.02295950814541823 0 
-0.01924340047872415 0.01383950482757386 0 0 
0 0 0 0 
-0.0787892053818873 0.07860589566953262 -0.02295950814541823 0 
-0.02602899751162803 0.02264525102677084 0 0 
-0.01274457901285393 0 0 0 
-0.01274457901285393 0 0 0 
-0.04808137113459674 0.03503942744662104 -0.01470041628707747 -0.009232231567299774 
-0.01274457901285393 0 0 0 
-0.01274457901285393 0 0 0 
-0.009316867050489154 0.01198874326242669 -0.006256373873482423 0 
-0.009316867050489154 0.01198874326242669 -0.006256373873482423 0 
-0.009316867050489154 0.01198874326242669 -0.006256373873482423 0 
-0.009316867050489154 0.01198874326242669 -0.006256373873482423 0 
-0.009316867050489154 0.01198874326242669 -0.006256373873482423 0 
-0.009316867050489154 0.01198874326242669 -0.006256373873482423 0 
-0.004851420221292466 0.02729010492113516 0 -0.04045030660867496 
-0.05160580709591399 0.09819421514337798 -0.009162162578181159 -0.06256648236153209 
-0.004851420221292466 0.02729010492113516 0 -0.02854668578686264 
-0.02156097214190483 0.0257443737404904 -0.007433074255411059 0 
-0.07814548632110951 0.07961828371779073 -0.02628245073155649 -0.01184942802046277 
-0.02156097214190483 0.0257443737404904 -0.007433074255411059 0 
-0.06816052919627197 0.06388963719396348 -0.007433074255411059 0 
0 0 -0.0006140428411015185 0 
-0.0846917242775035 0.08161742342930908 0 0 
-0.0846917242775035 0.08161742342930908 0 0 
-0.0846917242775035 0.08161742342930908 0 0 
-0.0846917242775035 0.08161742342930908 0 0 
-0.0846917242775035 0.08161742342930908 0 0 
-0.02780729368077619 0.03108899753891627 -0.0005243730361474552 -0.005559690556928879 
-0.02780729368077619 0.03108899753891627 -0.0005243730361474552 -0.005559690556928879 
-0.02780729368077619 0.03108899753891627 -0.0005243730361474552 -0.005559690556928879 
-0.02780729368077619 0.03108899753891627 -0.0005243730361474552 -0.005559690556928879 
-0.02780729368077619 0.03108899753891627 -0.0005243730361474552 -0.005559690556928879 
-0.02780729368077619 0.03108899753891627 -0.0005243730361474552 -0.005559690556928879 
-0.01913130670545627 0.01949112395433779 0 -0.003034496886711563 
-0.01913130670545627 0.01949112395433779 0 -0.003034496886711563 
-0.01913130670545627 0.01949112395433779 0 -0.003034496886711563 
-0.01913130670545627 0.01949112395433779 0 -0.003034496886711563 
-0.04675438687462155 0.07090411022224286 -0.009162162578181159 -0.03401979657466945 
-0.04675438687462155 0.07090411022224286 -0.009162162578181159 -0.03401979657466945 
-0.04675438687462155 0.07090411022224286 -0.009162162578181159 -0.03401979657466945 
-0.004196001016795597 0.004635242948852542 -0.008404146325990793 -0.009115846389321605 
-0.004196001016795597 0.004635242948852542 -0.008404146325990793 -0.009115846389321605 
-0.004196001016795597 0.004635242948852542 -0.008404146325990793 -0.009115846389321605 
-0.004196001016795597 0.004635242948852542 -0.008404146325990793 -0.009115846389321605 
-0.04724389919002312 0.048448001375617 -0.01006462680773247 -0.001166916770736008 
-0.07022232294325262 0.06928388050535074 -0.02418186347314903 -0.01431598288363712 
-0.04724389919002312 0.048448001375617 -0.01006462680773247 -0.001166916770736008 
-0.04724389919002312 0.048448001375617 -0.01006462680773247 -0.001166916770736008 
-0.04724389919002312 0.048448001375617 -0.01006462680773247 -0.001166916770736008 
-0.04724389919002312 0.048448001375617 -0.01006462680773247 -0.001166916770736008 
-0.04724389919002312 0.048448001375617 -0.01006462680773247 -0.001166916770736008 
-0.04724389919002312 0.048448001375617 -0.01006462680773247 -0.001166916770736008 
-0.01961605945496782 0.02292388871268704 -0.00194675139116546 0 
-0.01961605945496782 0.02292388871268704 -0.00194675139116546 0 
-0.01961605945496782 0.02292388871268704 -0.00194675139116546 0 
-0.01961605945496782 0.02292388871268704 -0.00194675139116546 0 
-0.06421170996511763 0.1443177464651627 -0.01030807609713893 -0.06410903593332867 
-0.04220446117068926 0.04103052689293166 -0.005770917011806228 -0.002647227396909067 
-0.06018122658489929 0.05410859990291882 -0.005770917011806228 -0.0145508482187214 
-0.04220446117068926 0.04103052689293166 -0.005770917011806228 -0.002647227396909067 
-0.04220446117068926 0.04103052689293166 -0.005770917011806228 -0.002647227396909067 
-0.04220446117068926 0.04103052689293166 -0.005770917011806228 -0.002647227396909067 
-0.04220446117068926 0.04103052689293166 -0.005770917011806228 -0.002647227396909067 
0 0 0 -0.0008439159553132352 
0 0 0 -0.0008439159553132352 
0 0 0 -0.0008439159553132352 
0 0 0 -0.0002019115879355594 
0 0 0 -0.0002019115879355594 
0 0 0 -0.0002019115879355594 
0 0 0 -0.0002019115879355594 
0 1.734723475976807e-18 0 -0.01210553240974789 
0.04055505960020425 -0.04042706211947036 -0.01075748516515772 0 
0.04055505960020425 -0.04042706211947036 -0.01075748516515772 0 
-0.2249586918712995 0.2275817015455289 -0.00721640049097692 0 
-0.2249586918712995 0.2275817015455289 -0.00721640049097692 0 
-0.006088424740243428 0 0 0 
-0.006088424740243428 0 0 0 
0 0 0 0 
-0.02939154493174348 0.007785746851214016 -0.01216985490858643 0 
-0.04518690778241911 0.02079218572854934 -0.01767082002226657 0 
-0.02939154493174348 0.007785746851214016 -0.01216985490858643 0 
-0.02939154493174348 0.007785746851214016 -0.01216985490858643 0 
-0.03258997160177134 0.03498417516276389 -0.01487819109893876 -0.01314906611290111 
-0.009611547848541879 0.01414829603303017 -0.0007609544335222099 0 
-0.03258997160177134 0.03498417516276389 -0.01487819109893876 -0.01314906611290111 
-0.009611547848541879 0.01414829603303017 -0.0007609544335222099 0 
-0.02534879974912329 0.02271518723980872 -0.006225681275372862 0 
-0.0372815537622628 0.02854421737173735 0 0 
0 0 0 0 
0 0.02932843690377691 0 -0.02559394857379707 
0 0.02932843690377691 0 -0.02559394857379707 
0 0.02932843690377691 0 -0.02559394857379707 
-0.01579536285067565 0.04233487578111224 -0.005500965113680149 -0.02559394857379707 
0 0.02932843690377691 0 -0.02559394857379707 
-0.04661491361906683 0.04301911715268927 -0.01712568369972298 -0.01044548048680547 
-0.04661491361906683 0.04301911715268927 -0.01712568369972298 -0.01044548048680547 
-0.04661491361906683 0.04301911715268927 -0.01712568369972298 -0.01044548048680547 
-0.04661491361906683 0.04301911715268927 -0.01712568369972298 -0.01044548048680547 
-0.02200724879442837 0.1032872195722311 -0.004537159085332701 -0.0614618085364196 
-0.02200724879442837 0.1032872195722311 -0.004537159085332701 -0.0614618085364196 
-0.05344040563276403 0.05589070842972386 -0.01673382687004537 0 
-0.05344040563276403 0.05589070842972386 -0.01673382687004537 0 
-0.05344040563276403 0.05589070842972386 -0.01673382687004537 0 
-0.05344040563276403 0.05589070842972386 -0.01673382687004537 0 
0.01218947353062753 -0.01044213951112571 -0.005880366177935094 -0.004508438122967045 
0.01218947353062753 -0.01044213951112571 -0.005880366177935094 -0.004508438122967045 
0.01218947353062753 -0.01044213951112571 -0.005880366177935094 -0.004508438122967045 
0.01218947353062753 -0.01044213951112571 -0.005880366177935094 -0.004508438122967045 
0.01218947353062753 -0.01044213951112571 -0.005880366177935094 -0.004508438122967045 
-0.02784235620208714 0.02980089889737008 0 0 
-0.02784235620208714 0.02980089889737008 0 0 
-0.02784235620208714 0.02980089889737008 0 0 
-0.02784235620208714 0.02980089889737008 0 0 
0.3984018709898937 -0.3985389454136068 -0.0299371743002345 0 
0.3984018709898937 -0.3985389454136068 -0.0299371743002345 0 
0.1100454457425704 -0.1088882536595543 0 0 
0.1100454457425704 -0.1088882536595543 0 0 
0.1100454457425704 -0.1088882536595543 0 0 
-0.02602899751162803 0.02264525102677084 0 0 
-0.02602899751162803 0.02264525102677084 0 0 
-0.02602899751162803 0.02264525102677084 0 0 
0.04006907788100519 -0.04310386093733979 0 0 
0.04006907788100519 -0.04310386093733979 0 0 
0.04006907788100519 -0.04310386093733979 0 0 
0.04006907788100519 -0.04310386093733979 0 0 
0.04006907788100519 -0.04310386093733979 0 0 
0.04736101857802398 -0.04219132878484198 -0.002109292388131747 -0.02138741522237466 
0 0 0 -0.01190362082181233 
0 0 0 -0.01190362082181233 
-0.02156097214190483 0.0257443737404904 -0.00681903141430954 0 
-0.02156097214190483 0.0257443737404904 -0.00681903141430954 0 
-0.03102141152159808 0.08941231406083595 -0.001645682045797175 -0.05250054140396071 
-0.03102141152159809 0.1209305870319712 -0.001645682045797175 -0.05250054140396071 
-0.03102141152159808 0.08941231406083595 -0.001645682045797175 -0.05250054140396071 
-0.03767235926962501 0.0682654040295117 -0.002470403989458217 -0.00428242744423239 
-0.03767235926962501 0.0682654040295117 -0.002470403989458217 -0.00428242744423239 
-0.03767235926962501 0.0682654040295117 -0.002470403989458217 -0.00428242744423239 
-0.03767235926962501 0.0682654040295117 -0.002470403989458217 -0.00428242744423239 
-0.04280869419936666 0.04457885627116968 -0.01096799160337749 -0.002617196453162993 
-0.04280869419936666 0.04457885627116968 -0.01096799160337749 -0.002617196453162993 
-0.04280869419936666 0.04457885627116968 -0.01096799160337749 -0.002617196453162993 
-0.04280869419936666 0.04457885627116968 -0.01096799160337749 -0.002617196453162993 
-0.04280869419936666 0.04457885627116968 -0.01096799160337749 -0.002617196453162993 
-0.01486243874210409 0.01611017124234934 -0.004265319400806275 0 
-0.01486243874210409 0.01611017124234934 -0.004265319400806275 0 
-0.01486243874210409 0.01611017124234934 -0.004265319400806275 0 
-0.03388548470966963 0.03325741768488347 0 0 
-0.03388548470966963 0.03325741768488347 0 0 
-0.03388548470966963 0.03325741768488347 0 0 
-0.05311689741492727 0.09421577708504318 -0.002955242729000404 -0.03906589019536861 
-0.05311689741492727 0.09421577708504318 -0.002955242729000404 -0.03906589019536861 
-0.05311689741492727 0.09421577708504318 -0.002955242729000404 -0.03906589019536861 
-0.05311689741492727 0.09421577708504318 -0.002955242729000404 -0.03906589019536861 
-0.05311689741492727 0.09421577708504318 -0.002955242729000404 -0.03906589019536861 
-0.05311689741492727 0.09421577708504318 -0.002955242729000404 -0.03906589019536861 
-0.05606053394069023 0.06212572975947003 -0.01179337484199731 -0.003902612403325557 
0 0 -0.002494942531816315 0 
0 0 -0.002494942531816315 0 
0 0 -0.002494942531816315 0 
0 -0.4305047476963323 0 0.359831997236271 
-0.05532093950394992 0.04729761523655228 -0.005494253040797043 0 
-0.05532093950394992 0.04729761523655228 -0.005494253040797043 0 
0 0.03151827297113525 0 0 
-0.003842806954246166 0.007480855737123863 -0.003645998291394931 0 
-0.003842806954246166 0.007480855737123863 -0.003645998291394931 0 
-0.003842806954246166 0.007480855737123863 -0.003645998291394931 0 
-0.003842806954246166 0.007480855737123863 -0.003645998291394931 0 
-0.003842806954246166 0.007480855737123863 -0.003645998291394931 0 
0.2491470847261404 -0.2508228899874168 0 0 
0.1834400901500344 -0.1827530841865126 0 0 
0.1834400901500344 -0.1827530841865126 0 0 
0.1834400901500344 -0.1827530841865126 0 0 
0.1834400901500344 -0.1827530841865126 0 0 
0.1834400901500344 -0.1827530841865126 0 0 
0 0 0 0 
-0.0302937157941601 0.02369247130475273 -0.01204236154763275 -0.00594285795033403 
-0.0302937157941601 0.02369247130475273 -0.01204236154763275 -0.00594285795033403 
-0.0302937157941601 0.02369247130475273 -0.01204236154763275 -0.00594285795033403 
-0.0302937157941601 0.02369247130475273 -0.01204236154763275 -0.00594285795033403 
-0.04119652250395011 0.08910674889851992 -0.00566781478627601 -0.04838687658419998 
-0.04119652250395011 0.08910674889851992 -0.00566781478627601 -0.04838687658419998 
-0.04119652250395011 0.08910674889851992 -0.00566781478627601 -0.04838687658419998 
-0.04119652250395011 0.08910674889851992 -0.00566781478627601 -0.04838687658419998 
0 0 0 0 
0 0 0 0 
0 0 0 0 
-0.06538938254115498 0.06983478829537385 0 0 
-0.07133382375064903 0.1026503202936727 -0.009231152618020792 -0.005804421113315191 
-0.06538938254115498 0.06983478829537385 0 0 
-0.03652830413814125 0.04870557385853133 0 0 
-0.03652830413814125 0.04870557385853133 0 0 
-0.03652830413814125 0.04870557385853133 0 0 
-0.03652830413814125 0.04870557385853133 0 0 
0 0 0 0 
-0.005944441209494069 0.0328155319982988 -0.009231152618020792 -0.005804421113315191 
-0.0372815537622628 0.02854421737173737 0 0 
-0.0372815537622628 0.02854421737173737 0 0 
-0.0372815537622628 0.02854421737173737 0 0 
-0.0372815537622628 0.02854421737173737 0 0 
0.1935443883308775 -0.2023732809909266 0 0 
0.1935443883308775 -0.2023732809909266 0 0 
0.1935443883308775 -0.2023732809909266 0 0 
0.1935443883308775 -0.2023732809909266 0 0 
0.1935443883308775 -0.2023732809909266 0 0 
0.1935443883308775 -0.2023732809909266 0 0 
0.1935443883308775 -0.2023732809909266 0 0 
0.006785597032903874 -0.008805746199196987 0 0 
0.006785597032903874 -0.008805746199196987 0 0 
0.006785597032903874 -0.008805746199196987 0 0 
0.06570699457610606 -0.0680698058009041 0 0 
0.06570699457610606 -0.0680698058009041 0 0 
0.06570699457610606 -0.0680698058009041 0 0 
-0.04659955705436713 0.0381452634534731 0 0 
0.007567387080113723 -0.01587844925749187 0 0 
-0.04659955705436713 0.0381452634534731 0 0 
-0.04659955705436713 0.0381452634534731 0 0 
0 0 0 0 
0 0 0 0 
0 0 0 0 
0.04927542673580126 -0.03711994778310091 0 0 
0.04927542673580126 -0.03711994778310091 0 0 
0.04927542673580126 -0.03711994778310091 0 0 
0.04927542673580126 -0.03711994778310091 0 0 
0 -0.0001952157115104482 0 0 
0 -0.0001952157115104482 0 0 
0 -0.0001952157115104482 0 0 
0 -0.0001952157115104482 0 0 
-0.01579536285067564 0.01300643887733533 -0.005500965113680149 0 
-0.01579536285067564 0.01300643887733533 -0.005500965113680149 0 
-0.01579536285067564 0.01300643887733533 -0.005500965113680149 0 
-0.03533679212174282 0.03503942744662103 -0.01470041628707747 -0.009232231567299774 
-0.03533679212174282 0.03503942744662103 -0.01470041628707747 -0.009232231567299774 
-0.03533679212174282 0.03503942744662103 -0.01470041628707747 -0.009232231567299774 
-0.03533679212174282 0.03503942744662103 -0.01470041628707747 -0.009232231567299774 
0.008530344281855649 -0.01572430193711335 0 0 
0.008530344281855649 -0.01572430193711335 0 0 
0 0 0 0 
-0.01797676541421003 0.01307807300998716 0 0 
-0.01797676541421003 0.01307807300998716 0 0 
-0.01797676541421003 0.01307807300998716 0 0 
-0.02297842375322946 0.02083587912973371 -0.01411723666541655 -0.01314906611290111 
0.1328881195183899 -0.1305301817486074 -0.0263960896260537 0 
0.1328881195183899 -0.1305301817486074 -0.0263960896260537 0 
0.1328881195183899 -0.1305301817486074 -0.0263960896260537 0 
0.1328881195183899 -0.1305301817486074 -0.0263960896260537 0 
0.04442058414219577 -0.04846382637904578 0 0 
0.04442058414219577 -0.04846382637904578 0 0 
0.04442058414219577 -0.04846382637904578 0 0 
0 0 0 0 
0 0 0 0 
0 0 0 0 
0 0 0 0 
0.05416694413448085 -0.05402371271096497 0 0 
0.05416694413448085 -0.05402371271096497 0 0 
-0.001707958558277644 0 0 0 
-0.001707958558277644 0 0 0 
-0.001238403584836857 0.01683204980112162 -0.002109292388131747 -0.02138741522237466 
-0.001238403584836857 0.01683204980112162 -0.002109292388131747 -0.02138741522237466 
-0.001238403584836857 0.01683204980112162 -0.002109292388131747 -0.02138741522237466 
-0.001238403584836857 0.01683204980112162 -0.002109292388131747 -0.02138741522237466 
-0.001238403584836857 0.01683204980112162 -0.002109292388131747 -0.02138741522237466 
-0.05606053394069023 0.06212572975947003 -0.009298432310181 -0.003902612403325557 
-0.05606053394069023 0.06212572975947003 -0.009298432310181 -0.003902612403325557 
-0.05606053394069023 0.06212572975947003 -0.009298432310181 -0.003902612403325557 
-0.007666809223875185 0 -0.006762480692176988 0 
-0.02912972027054428 0.02239938623211274 -0.006762480692176988 0 
-0.007666809223875185 0 -0.006762480692176988 0 
-0.007666809223875185 0 -0.006762480692176988 0 
-0.007666809223875185 0 -0.006762480692176988 0 
-0.005437037304644095 0.01567266053927207 0 -0.005084356455951658 
-0.005437037304644095 0.01567266053927207 0 -0.005084356455951658 
-0.005437037304644095 0.01567266053927207 0 -0.005084356455951658 
-0.005437037304644095 0.01567266053927207 0 -0.005084356455951658 
-0.005437037304644095 0.01567266053927207 0 -0.005084356455951658 
-0.005437037304644095 0.01567266053927207 0 -0.005084356455951658 
-0.01431740025003691 0.01460443073799777 0 0 
-0.01431740025003691 0.01460443073799777 0 0 
-0.01431740025003691 0.01460443073799777 0 0 
-0.01431740025003691 0.01460443073799777 0 0 
-0.01431740025003691 0.01460443073799777 0 0 
-0.0192750841382409 0.02198614681648402 -0.001166232191590479 0 
-0.0192750841382409 0.02198614681648402 -0.001166232191590479 0 
-0.0192750841382409 0.02198614681648402 -0.001166232191590479 0 
-0.01458933190029966 0.0199266922109059 0 0 
-0.01458933190029966 0.0199266922109059 0 0 
-0.01458933190029966 0.0199266922109059 0 0 
-0.0214629110466691 0.02239938623211274 0 0 
-0.0214629110466691 0.02239938623211274 0 0 
-0.0214629110466691 0.02239938623211274 0 0 
-0.0214629110466691 0.02239938623211274 0 0 
-0.0214629110466691 0.02239938623211274 0 0 
