solver_type L2R_L2LOSS_SVC_DUAL
nr_class 2
label 1 2
nr_feature 71
bias -1
w
0.03819845089802554 
0.03819845089802554 
0.02184032357720779 
0.03819845089802554 
0.0780828724244071 
0.03819845089802554 
0.03819845089802554 
0.03819845089802554 
0.03819845089802554 
0.2385421923435437 
0.1082435503147166 
0.02184032357720779 
0.0451113474838976 
0.0451113474838976 
0.0451113474838976 
0.0451113474838976 
0.0451113474838976 
0.0451113474838976 
0.0451113474838976 
0.0451113474838976 
0.08419536456214112 
0.07004509941669104 
0.07004509941669104 
0.07004509941669104 
0.07004509941669104 
0.07004509941669104 
0.07004509941669104 
0.07004509941669104 
0.04261179628497781 
0.04261179628497781 
0.09350764885803134 
0.04261179628497781 
0.04261179628497781 
0.04261179628497781 
0.04261179628497781 
0.04261179628497781 
0.04261179628497781 
-0.07084550386482909 
0.05089585257305353 
0.05089585257305353 
0.05089585257305353 
0.05089585257305353 
0.05089585257305353 
0.05089585257305353 
0.05089585257305353 
-0.1514493444560124 
-0.1514493444560124 
-0.1514493444560124 
-0.1514493444560124 
-0.1514493444560124 
-0.1514493444560124 
-0.1514493444560124 
-0.1514493444560124 
-0.1134573001498069 
-0.1134573001498069 
-0.1134573001498069 
-0.1134573001498069 
-0.1134573001498069 
-0.1134573001498069 
-0.1134573001498069 
-0.1134573001498069 
-0.1134573001498069 
-0.1134573001498069 
-0.1134573001498069 
0.03988442152638156 
0.03988442152638156 
0.03988442152638156 
0.03988442152638156 
0.03988442152638156 
0.03988442152638156 
0.03988442152638156 
