solver_type L2R_L2LOSS_SVC_DUAL
nr_class 10
label 1 2 3 4 5 6 7 8 9 10
nr_feature 2081
bias -1
w
0.278922817560192 -0.1464273949158849 -0.06722481094165718 -0.08847956417495834 0 -0.001357214801188877 -0.001133252326113035 -0.0009769693802089419 0 -0.00176848493336052 
-0.01011799871383287 -0.2300157194870411 0.1341733790717808 0.101123341557151 -0.001485349617688752 -0.003758413367938963 -0.01242066611683161 -0.007714154929112645 -0.03313989662804274 -0.0133380628139833 
-0.2207195653855333 0.1119765206973452 -0.3101596217980703 -0.2729944395232173 -0.317391512407365 -0.271099134728392 -0.3180311072870017 -0.2659076417102089 -0.3448954661855168 -0.3255241807949063 
0.1612340598392363 -0.06920064859492474 -0.03640468355528068 -0.01384926466829441 -9.969450376964062e-05 -0.002462771172089543 0 -4.336808689942018e-19 0 -0.001806356541032486 
0.8949598246556983 -0.8683458791752908 0.02684618415632616 -0.2152906506569049 -0.01025386671638981 -0.08200021242615885 -0.06559084894328394 -0.04129584206938818 -0.03380817367589756 -0.04004330125155999 
0.278922817560192 -0.1464273949158848 -0.06722481094165718 -0.08847956417495834 0 -0.001357214801188877 -0.001133252326113035 -0.0009769693802089419 0 -0.00176848493336052 
0.04021111096191116 0.03013266773499348 -0.03536724278782633 -0.08333374066969104 2.168404344971009e-19 -0.002401198566750086 -0.01128741379071858 -0.001881150280567293 -0.0163438529756551 -0.001151139511026064 
0.1612340598392363 -0.06920064859492474 -0.03640468355528068 -0.01384926466829441 -9.969450376964062e-05 -0.002462771172089543 0 -4.336808689942018e-19 0 -0.001806356541032486 
0.1612340598392363 -0.06920064859492474 -0.03640468355528068 -0.01384926466829441 -9.969450376964062e-05 -0.002462771172089543 0 -4.336808689942018e-19 0 -0.001806356541032486 
-0.2523183991553241 -0.006216089312376627 -0.3101596217980703 -0.2724440122822273 -0.317391512407365 -0.2710991347283919 -0.3180311072870017 -0.2659076417102089 -0.3448954661855168 -0.3255241807949063 
0.07227198597478388 -0.06816739280802421 -0.1604354861248701 0.01605751140924507 -0.1774863418565293 -0.1362724493066545 -0.1264974958233069 -0.09159139036201268 -0.1313413762535715 -0.1366484798820583 
0.02035814828809412 0.007741813890368583 -0.1650843553802418 -0.183965253252905 -0.1778858809395476 -0.2721959024657957 -0.1495756225108079 -0.3417475072376681 -0.1543193972080419 -0.1530675288981405 
0.168029058870818 -0.01869923795399828 -0.08726546297317639 -0.02719977797590871 -0.009067595508696772 -0.0399487710339281 -0.003680889866003728 -0.01433516782268848 0 -5.421010862427522e-20 
0 0 0 -0.01384926466829441 0 0 0 0 0 0 
0.304051427125017 -0.1581380764842785 -0.1871662734743791 -0.03592199708709295 0 0 -0.005148151228114785 0 -0.0254619998700952 -0.006470723946730561 
-0.402655789788244 0.5713938460716922 -0.2236253716727036 -0.1309371188627012 -0.0609780924072482 -0.02780661483283526 -0.07234203521166771 -0.04682768612128121 -0.06329227994884995 -0.06876438527000958 
0.1138855888301589 0.1513680434835086 -0.3120109873303035 -0.06129344804951885 -3.566758390888294e-05 -0.0399487710339281 -0.03881280373516797 -0.01473142079994349 -0.00281072944743503 -0.00654805255022786 
-0.1709335813477132 0.1141840894725509 0 0.03007807455228687 -0.001483849215040559 -0.00483591586506235 -0.03142355302724479 -0.001508768682385091 -0.03188324330166803 -0.006782470696115208 
-0.04148331771118466 0 0 0 0 0 0 0 0 0 
-0.1934933353976965 0.195034019299346 -0.04588730962404788 -0.0786329468141968 -0.02955805169524844 -0.01995617600810096 -0.05894900157030872 -0.02721617651365401 -0.03818175365478553 -0.05634630742150413 
-0.05270020512585408 0.07427739108355073 0 -0.02245362340064356 0 0 -0.0279236528150302 0 0 -0.002316466244542244 
-0.1709335813477132 0.151517783207796 0 -0.02245362340064356 0 0 -0.0279236528150302 0 0 -0.002316466244542244 
0.04546402738320595 0 0 -0.005854900848938991 0 0 -0.009637097803978307 0 0 0 
0.4184585855957431 -0.3565669977724424 0.01708641085765238 -0.1585999841754663 -0.002343289704042112 -0.00109676773740324 -0.01766756081363809 -0.07583986552745926 -0.0163868495334986 -0.005579012299692312 
0.06327986460653338 0 -0.06595658968893038 0 0 0 -0.009817517620130669 0 0 0 
0.01398190624408454 0 0 0 0 0 -0.004818548901989153 0 0 0 
0.01398190624408454 0 0 0 0 0 -0.004818548901989153 0 0 0 
0.8932221441412711 -0.6185667952844227 -0.1890145688261846 -0.1585999841754663 -0.001038908193561248 -0.00109676773740324 -0.01455604632078433 -0.07583986552745926 -0.01504643204601549 -0.005579012299692312 
0.06327986460653338 0 -0.06595658968893038 0 0 0 -0.009817517620130669 0 0 0 
-0.07449356105014893 -0.2290206913310394 0.2190642347861083 0.05644712831394873 -0.008820936446602284 -0.0325686923566328 0.09008235764101957 -0.01825335191098396 -0.003457454906033407 -0.03477943860797518 
-0.1129954285569298 0.09683733844352739 -0.02118308306649262 0.05572695843468224 -0.002247383327094436 -0.01817419340796825 -0.0089758990481042 -0.005268939204644234 -0.02401330116400217 -0.006131160657812227 
0.09912022237795774 -0.009593843544902829 -0.09385745832815101 -0.08754360858198987 -0.0360797863309685 -0.0698678446718264 -0.03805245902112964 -0.02148764723259856 -0.07447109656156194 -0.03027212500056616 
-0.04309792916613954 -0.0636071146781384 0.04485642978159708 0.09627361003276003 -0.02556876992807582 -0.02682393460900545 -0.02372186224295884 -0.01171942070692259 -0.01683311594259428 -0.02257142901196711 
-0.09727528856087296 0.02677459742809466 0.07287710377200211 -0.01392488857767886 0 0 0 0 0 0 
-0.06621876585272751 -0.06317565363507496 0.2147000249160111 0.009404483946243918 -0.02217597566397574 -0.02507699130130217 -0.003694283555707768 -0.02133937997830202 -0.01741153950112643 -0.02482031697819917 
0.060742612366094 -0.1511654726186528 0.07507912580627202 -0.1386442912647951 -0.04343975963649956 -0.006124927276520278 -0.01869737260796165 -0.0425496512241309 -0.008984586666973228 -0.0005796478705205272 
0.03409493561327853 0 -0.133659446483256 0 0 0 0 0 0 0 
0.1781462078762811 -0.02720746363824711 -0.1532439774349391 -0.04074873988965688 -0.008255657415751787 -0.02133242998510189 -0.0005827690628540105 -0.0004954429861782062 -0.003351887904290809 0 
0.4076313009126976 -0.2736575380328869 -0.1316798454944885 -0.09696657530676012 -0.01010705602039298 -0.05446065559515763 -0.05777957835182367 -0.03050022346710314 -0.03380817367589754 -0.03176622076379697 
-0.0957912018162745 -0.09337011153899365 0.04986264058061304 0 -4.336808689942018e-19 0 -1.734723475976807e-18 -0.008161148080687269 0 -8.673617379884035e-19 
0.04542166710401498 0.02617531027858376 -0.001549876562953589 -0.09513726274481683 -0.05732887972897372 -0.1360187863647417 -0.1092201384770825 0.006669913368234933 -0.1090717637483191 -0.1454555245091091 
0.2169779700487077 -0.06546721222778414 -0.05261907250181287 -0.02501815316547208 0 0 -0.0003837187146376389 0 -0.0003112338815300296 0 
-0.1588102584351583 0.1823193773743826 0 -0.02501815316547208 0 0 -0.0003837187146376389 0 -0.0003112338815300296 0 
-0.2013718146000284 -0.01423811987854865 0.2311711574862974 0.01876945376663669 -0.009280324629514346 -0.01356566928443396 -0.02901084419986389 -0.00769898373555673 -0.00255068772195296 -0.01579493358535105 
-0.1588102584351583 0.1983916080113426 0 -0.03994692928806783 0 0 -0.002193547285981272 0 -0.0003112338815300296 0 
-0.1588102584351583 0.1823193773743826 0 -0.02501815316547208 0 0 -0.0003837187146376389 0 -0.0003112338815300296 0 
-0.1588102584351583 0.1823193773743826 0 -0.02501815316547208 0 0 -0.0003837187146376389 0 -0.0003112338815300296 0 
-0.1608463315289403 0.2661932970570526 -0.08033514474616354 -0.03254560878739748 0 -0.003704252421699452 -0.02157637884354427 -0.001772240210451816 -0.0004184675701292605 -0.01084635875093732 
-0.1588102584351583 0.1823193773743826 0 -0.02501815316547208 0 0 -0.0003837187146376389 0 -0.0003112338815300296 0 
0.4002627630731277 -0.2549868128810155 -0.1787388308301415 -0.09946613256452802 -0.02796943634072961 -0.06130276052592008 -0.0381841760009634 -0.04565536587762654 -0.01553198714193456 -0.049370367855515 
-0.1163044694531551 -0.2966433037771008 0.06728790453652349 0.34478119718071 -0.0004431568695026394 -0.02205946377024407 -0.0254672112256062 -0.0003271639116518314 -0.001546850750690553 -0.001872445686761687 
-0.3134520384109406 0.2726430426258816 0.1592505224434972 -0.07089476967809981 0 0 0 -0.00256358288358432 0 0 
0.3001320905097953 -0.560978951392775 0.2985874528925507 -0.08272906733758274 -0.01593013197050936 -0.003544895611774478 -0.006041883692117047 -0.02221847388165436 -0.01050272112386556 -0.007610606710139915 
-0.1095033707787278 -0.07444499089805667 0.2687342046651102 -0.0667915630056747 -1.084202172485504e-19 -0.02484324676548032 -0.008340545499756069 -0.002672354700561761 -0.0007989033638135507 -0.002993198964478102 
-0.260231465224689 -0.01666397760614563 0.3331228034608265 -0.06679156300567468 0 0 0 0 0 0 
-0.260231465224689 -0.01666397760614563 0.3331228034608265 -0.06679156300567468 0 0 0 0 0 0 
0.4865510684805547 -0.3468799219180547 -0.01119229254320348 -0.08272906733758274 -0.01593013197050936 -0.003544895611774478 -0.006041883692117049 -0.02221847388165436 -0.01050272112386556 -0.007610606710139915 
-0.260231465224689 -0.01666397760614563 0.3331228034608265 -0.06679156300567468 0 0 0 0 0 0 
0.2289089819176727 1.734723475976807e-18 -0.322807859144922 0 0 0 0 0 0 0 
0.1097512217398846 -0.1682029893491805 0.106504174668259 -0.01278151750332921 0 0 0 0 0 -0.008193788131368162 
0 0 -0.09086289962894036 0 0 0 0 0 0 0 
0 0 0 0 0 0 0 0 0 0 
0.1097512217398846 -0.04723273892015518 -0.001292565368933809 -0.01278151750332921 0 0 0 0 0 -0.008193788131368162 
0 0 -0.09086289962894036 0 0 0 0 0 0 0 
0.1332521738518727 -0.05748497871003776 -0.1861006065643914 -0.06718522306913241 0.002977788828809673 -0.06289143820840769 -0.0834349709289998 -0.07793514083429359 0.05388825119537172 -0.07621951131114041 
-0.03658398983819344 0.03926259583525142 -0.0003791219645485159 2.168404344971009e-18 0 -0.007961023476643028 0 0 0 0 
0.09862651433867164 -0.01623250509519244 0 -0.05801498384576133 0 -0.007961023476643028 0 4.336808689942018e-19 0 0 
-0.3135313822666244 0.3800204424453921 -0.09004288521779405 -0.1055111882664366 -0.006144122768781022 0.06921603009607785 -0.04867890440753345 -0.02384659603773611 -0.03630086411759929 -0.02241697153848088 
0.07801370960271053 -0.04548849310620035 -0.1463220722280123 -6.938893903907228e-18 -0.009682985318988485 -0.007961023476643028 0 -0.002985439115054831 -0.002434568775716434 0 
-0.04022562871366926 0.03926259583525141 0 0 0 -0.007961023476643028 0 0 0 0 
-0.07782677957387857 0.09341522635414257 0 -0.0109001755258266 0 -0.007961023476643028 0 4.336808689942018e-19 0 0 
-0.3135313822666244 0.3800204424453921 -0.09004288521779405 -0.1055111882664366 -0.006144122768781022 0.06921603009607785 -0.04867890440753345 -0.02384659603773611 -0.03630086411759929 -0.02241697153848088 
-0.04022562871366926 0.03926259583525141 0 0 0 -0.007961023476643028 0 0 0 0 
0 0.03753215591869267 -0.01912317916981152 -0.01754280425804446 0 -0.01398527574206928 0 0 0 0 
8.673617379884035e-19 0.03596529277719859 0 -0.04660409718365421 0 -0.01398527574206928 0 0 0 0 
-0.1827946317113711 0.1530617448983813 -0.04462388660442518 0.05076523527544241 -0.009876296446204018 -0.01505192691579623 -0.03010996382306599 -0.004654392092041557 -0.009960426358978576 -0.009891994705620839 
0 0 0 0 0 -0.01398527574206928 0 0 0 0 
0 0.0359652927771986 0 -0.04660409718365421 0 -0.01398527574206928 0 0 0 0 
0 0 0 0 0 -0.01398527574206928 0 0 0 0 
-0.02536165783003468 0.02752778063304435 0.09176652042862242 -0.01861951561976142 -0.04682026420283932 -0.02901753577438306 -0.01293712242562253 -0.01292813114110797 -0.01822472609393998 -0.0106685911179384 
-0.07312541558011021 0.1970334413261658 0 -0.03886967761942583 0 0 0 0 0 0 
0.1118136651038933 -0.2972702600127809 0.06708252321151634 0.01034704271339569 -0.002690665213490853 0.1090355410611259 -0.03835358583507375 -0.01613587393182861 -0.009208403053736602 -0.01707647425696363 
-0.2316884564666099 0.335479346682464 -0.004468297312934368 -0.05137863249437974 -0.001312461696617117 0 -0.0009054705326666575 0 -0.007040898398155716 0 
-0.07312541558011021 0.1970334413261658 0 -0.03886967761942583 0 0 0 0 0 0 
-0.4663165935167399 0.1039805464248925 0.2538482995692873 0.2319959356050311 -0.0004431568695026394 -0.02205946377024407 -0.0254672112256062 -0.0003271639116518282 -0.001546850750690553 -0.001872445686761687 
-0.2316884564666099 0.335479346682464 -0.004468297312934368 -0.05137863249437974 -0.001312461696617117 0 -0.0009054705326666575 0 -0.007040898398155716 0 
-0.07312541558011021 0.1970334413261658 0 -0.03886967761942583 0 0 0 0 0 0 
-0.04901980832098336 0.03474510611214374 -0.02960007885443311 -0.04580388811781829 0.1710772921709072 0 -0.0006180455864103528 0 0 0 
-0.1002973014156933 0.1472309916138086 0.04213884929640475 0.05969734653137308 -0.02666131611220368 0 0 0 0 0 
0.03253462008137855 -0.005350784657444031 -0.08488668568497831 0.03484009124864553 -0.003871436397325407 0 -0.009542257525040659 0 -0.01488643308401287 -0.0002680573568237193 
0.01623053172270384 -0.001492372533403493 0 0 0 0 0 0 0 0 
0.1350453946903971 -0.08396763088450346 -0.07442823996915275 0.08927417034320373 0 0 0 0 0 0 
0.01623053172270384 -0.001492372533403493 0 0 0 0 0 0 0 0 
-0.01534811108684519 -0.01307152172291231 0 0.07063387081071415 0 0 -0.01101781795485441 -0.00041906244245526 -0.01647843807056735 0 
-0.3222454494355649 -0.4374952415104483 -0.02968565027285011 0.660808420308743 -0.002701861795752598 -0.008842442122339341 -0.01864221726492514 -0.01123436222828753 0.09732178422189325 -0.01412652692920782 
-0.01534811108684519 -0.02411917613178173 0 0.07063387081071415 0 0 0 -0.00041906244245526 -0.01647843807056735 0 
0.0647365824745228 -0.06895918845580062 0 0.02531167006874913 -0.000472456777840834 -3.368872597039294e-05 -0.0007040200734669759 -0.01548858854480062 -0.01647843807056735 -0.02714797810417179 
-0.01534811108684519 -0.02411917613178173 0 0.07063387081071415 0 0 0 -0.00041906244245526 -0.01647843807056735 0 
-0.3248519872978255 -0.4374952415104483 -0.02968565027285011 0.7260804200829543 -0.002701861795752598 -0.008842442122339341 -0.01864221726492514 -0.01123436222828753 0.09732178422189325 -0.01412652692920782 
-0.01534811108684519 -0.02411917613178173 0 0.07063387081071415 0 0 0 -0.00041906244245526 -0.01647843807056735 0 
-0.01534811108684519 -0.02411917613178173 0 0.07063387081071415 0 0 0 -0.00041906244245526 -0.01647843807056735 0 
0.1016443935402134 -0.006585607125869829 -0.05192897688398238 -0.0691063964314737 -0.009067595508696773 -0.005920947065825633 -0.0129768367138578 -0.005670835021373296 -0.002931123515637251 -0.007941773798891834 
0.3623422926326449 -0.285173780817515 -0.05971887144603069 -0.06155217860348238 -0.001519805115043595 -0.005227416588066595 -0.01569777199911893 -0.006612832474708655 -0.001977533724373494 -0.006409104600446615 
0.3278117792667713 -0.2065574852939133 -0.05971887144603068 -0.05114747792405989 -0.001066929545800264 -0.002156462748584591 -0.01113871964197397 -0.004340742607029806 -0.01012991783597364 -0.02947254516446864 
0.1672355535925364 -0.1372438907109693 -0.02621805709202524 0 0 -0.002156462748584591 -0.008340545499756071 -0.002672354700561758 -0.0007989033638135507 -0.002993198964478102 
-0.04715189044535636 0.1200676075677751 -0.02621805709202524 -0.03776745166242324 0 -0.002156462748584591 -0.008340545499756073 -0.002672354700561758 -0.0007989033638135507 -0.002993198964478102 
0.3288374829620798 -0.2414153695125184 -0.05971887144603068 -0.0476949761432692 -0.001066929545800264 -0.002156462748584591 -0.01113871964197396 -0.004340742607029806 -0.0007989033638135505 -0.002993198964478102 
0.1672355535925364 -0.1372438907109693 -0.02621805709202524 0 0 -0.002156462748584591 -0.008340545499756071 -0.002672354700561758 -0.0007989033638135507 -0.002993198964478102 
-0.02233187698243027 0.04784419749366083 0 0 -0.01606984034788119 0 0 0 0 0 
-0.2285529694960599 0.2274369255695248 -0.006305997560852921 -0.02955252408901943 -0.02692300016397432 -0.02361747285474016 -0.01713749257560648 -0.01259928214255251 -0.01354576581614114 -0.01479068826921305 
-0.04869290124894656 0.1736176640926965 -0.04275514698122631 -0.05367553995495999 -0.01606984034788119 -0.0170942305985772 -0.0192139990914213 -0.0160478887052391 -0.008518823311916281 -0.004569487836969473 
-0.02233187698243027 0.04784419749366083 0 0 -0.01606984034788119 0 0 0 0 0 
-0.149321300346424 0.03623747864554722 -0.001928808152809033 -0.04580388811781829 0.1710772921709072 0 -0.0006180455864103528 0 0 0 
-0.1274511206489612 0.1621051387614476 -0.006305997560852921 -0.02365472217598078 -0.02692300016397432 -0.02361747285474016 -0.01713749257560648 -0.01259928214255251 -0.01259168514394934 -0.01479068826921305 
-0.02233187698243027 0.04784419749366083 0 0 -0.01606984034788119 0 0 0 0 0 
-0.08352785364349012 0.2012336660211553 -0.178594333357538 -0.07312199083194811 -0.05814215440799336 -0.07529843163204926 -0.05484420812807314 -0.03250717356209789 -0.03767187024180943 -0.0485301538980281 
-0.04970494627181653 0.2324895580344013 -0.1562644332659847 -0.02726890184396229 -0.002829818616523964 -0.02698266009158366 -0.005196323804068056 -0.01123584865652587 0 0 
-0.3609556744945257 0.4068973178833012 -2.602085213965211e-18 -0.08082231100895179 -0.01280450668548029 0 -0.001627464439830373 -0.006132956911709235 -0.0145762131665674 -0.01620065480896161 
-0.0238211303053462 0.05548785062953208 0 0 0 -0.02698266009158366 0 0 0 0 
-0.2241530559634978 0.1598456897722645 -1.734723475976807e-18 -0.005165433522231262 0 -0.02698266009158366 -0.005196323804068056 -0.002635989668482512 0 0 
-0.3609556744945257 0.4068973178833012 -2.602085213965211e-18 -0.08082231100895179 -0.01280450668548029 0 -0.001627464439830373 -0.006132956911709235 -0.0145762131665674 -0.01620065480896161 
-0.4456056823235315 0.5758294696703783 -0.0842592920073203 -0.08813723500355951 -0.04253292948634176 -0.008231835887189867 -0.005493327086035333 -0.01635644316645532 -0.0257899425540873 -1.626303258728257e-19 
-0.2105657886897747 0.1864388613421645 0 0 0 0 0 0 0 0 
-0.2105657886897747 0.1864388613421645 0 0 0 0 0 0 0 0 
0.2325960437414789 -0.1147698008361576 -0.0863504821208626 -0.04678825298805418 -0.000859216557374433 -0.008379355308591749 -0.01386668684225625 -0.0055662536689243 -0.002151006315263262 -0.00578827548851884 
-0.06793527022984498 0.1393834491949414 8.673617379884035e-19 0 0 0 0 0 0 -0.02685881669143764 
0 0 0 0 0 0 0 0 0 0 
0 0 0 0 0 0 0 0 0 0 
0.1305627322946265 -0.1268652831007574 0 0 0 0 0 0 0 0 
0.03535627109274544 0.07489550168976167 -0.09547303965725391 -0.1158770592358185 -0.05776932773424551 -0.01969578971415815 -0.05582696730874739 -0.01514374856279111 -0.05543436392885825 -0.02210461518591749 
0.03453485587199689 -0.0049927272844682 -0.04567804992715589 0 0 0 0 0 0 0 
0.6590358977094144 -0.5057571763002325 -0.1418571621152581 -0.07067677726952046 -0.001859955610920185 -0.02527143795787481 -0.0392224370433565 -0.02496326861281329 -0.008996133046114036 -0.02714797810417179 
0.09661626524646443 -0.1268652831007574 0 0 0 0 0 0 0 0 
0.1805144372454774 -0.1839055439362398 -0.08468823340066912 -0.00482619874913471 -0.01791031054195109 -0.01969578971415815 -0.01461869791749914 -0.008505594311241342 -0.022262409826908 -0.01978814894137525 
0.03453485587199689 -0.0049927272844682 -0.04567804992715589 0 0 0 0 0 0 0 
0.09661626524646443 -0.1268652831007574 0 0 0 0 0 0 0 0 
0.04851159246235744 -0.179022290252302 0.2529791737813161 -0.1734684947571953 -0.003498026910626397 -0.03177626702207385 -0.0498739641732629 -0.02707293121420593 -0.001875736798607412 -0.01101832797768859 
0.01260152939499488 0 -0.08758815932199102 0 0 0 0 0 0 0 
0.3644302152397954 0.02438765175004869 -0.3426461527822757 0 0 0 0 0 0 -0.006470723946730561 
-0.1244520139747982 -0.1460272351295904 0.3467383777504552 -0.1081964949829843 -4.711619222720575e-05 -0.02126703843568514 8.673617379884035e-19 -0.01025629415676391 1.788933584601082e-18 -0.006470723946730561 
-0.1362832846895813 -0.05157373503526721 0.03651797240840889 -0.03476079395457971 -4.711619222720575e-05 -0.02126703843568514 8.673617379884035e-19 -0.01025629415676391 1.788933584601082e-18 -0.006470723946730561 
0.09700955140234335 -0.01994125936366535 -0.039264315197621 0 0 0 -0.001998886043304401 0 -0.0003573853606403367 0 
0.06356680362512278 -0.00240082579741548 -0.039264315197621 -0.01446500731505269 -0.001038908193561248 0 -0.004738528700653657 0 -0.0004054775267660733 -0.005579012299692315 
-0.3852680236410939 0.09174158479389538 0.2964490396429291 0.04268520431813938 -0.003816841993768135 -0.0009201433605137657 -0.02038049424183792 2.168404344971009e-19 -0.0100711730516805 -0.006865126618751584 
0.06356680362512276 0 -0.039264315197621 0 0 0 0 0 0 0 
0.06356680362512278 -0.00240082579741548 -0.039264315197621 -0.01446500731505269 -0.001038908193561248 0 -0.004738528700653657 0 -0.0004054775267660733 -0.005579012299692315 
0.1463584427312823 -0.02108970696401567 -0.06899187460336725 0 5.421010862427522e-20 0 0 0 0 -2.710505431213761e-20 
0.003643126255658328 0.02021252783502486 0.0005993859501057276 -0.01488576424045012 -0.003469144862066254 0 0 0 0 0 
0.008336490695045664 0 -0.01710055780304802 0 0 0 0 0 0 0 
-0.4079503548066048 0.4923236597361337 -0.1466150672468878 -0.1616098754809543 -0.01272358968651363 -0.006124927276520276 -0.03709751472680733 -0.0125919758186182 -0.006040762573974349 -0.02819812239342992 
0.008336490695045658 -3.469446951953614e-18 -0.01710055780304802 0 0 0 0 0 0 0 
0.008336490695045658 -3.469446951953614e-18 -0.01710055780304802 0 0 0 0 0 0 0 
-0.306848505959506 0.3234255487726577 -0.06999216176370271 -0.1191033060630226 -0.01272358968651363 -0.006124927276520276 -0.03294016458069228 -0.01171399561870707 -0.005746301588328232 -0.02206696173561768 
-0.2803049877528686 0.2462187690178708 -0.01710055780304803 -0.1191033060630225 2.710505431213761e-20 0 0 0 -0.001190624273650387 0 
0.007905523029233745 0.05589228278873791 -0.0335544169199963 0.006562901791509669 -0.03034222057107629 -0.0496687496709608 -0.0342745946591465 -0.04533047732406854 -0.01771288172911719 -0.02656934337421202 
-0.090462508677042 0.08997999524440123 -0.02653796121650035 -0.07479700858116461 -0.0126237045066206 -0.02548408013710752 -0.0283367319236388 -0.001514357914507894 1.734723475976807e-18 0.1358991814301775 
0.1086885545318519 -0.1132663681405948 0.0759899318276321 -0.05061490018423642 -0.01170433512290058 -0.02548408013710753 -0.01020730721491245 -0.01022312273974605 -0.002999039617418376 -0.03534507503077126 
-0.03922376520206651 0.0356161684834334 -0.04263157155610553 0.02767768107384638 -0.008413646881412525 -0.03869259405756403 -0.0369382441969912 -0.009233390625874079 -0.02411713347538457 -0.03437812013390411 
-0.02801619171454435 0.05665094587731306 0 0 0 -0.02548408013710753 0 0 0 -0.02241697153848088 
0.09678934652704171 0.04130225715998279 -0.1356640826829576 0 -0.01170433512290058 -0.02548408013710753 -0.001864128651111999 -0.002517052175079501 -0.002999039617418376 -0.02241697153848088 
-0.02801619171454435 0.05665094587731306 0 -0.02176696829919089 0 -0.03368328190046917 0 0 0 -0.02241697153848088 
-0.2026371995297459 0.08050260103938464 0.1804233168774229 -0.04047182335574416 -0.002247383327094436 0 0 -0.001181026826894832 0 0 
-0.07576554582839552 0.03067864802493793 0.1379003359878266 -0.08082231100895182 -8.131516293641283e-20 0 -0.00386459877207359 -0.005366582473038815 -0.007617518418362479 -0.01620065480896161 
-0.1402222281392563 -0.1433442513356889 0.2589888211327306 0 0 0 0 0 0 0 
-0.1262395550381673 -0.1188534755289161 0.2822625753018101 -0.02014573847025864 0 0 0 0 0 0 
-0.1402222281392563 -0.07424522032615302 0.1823659156495455 0 0 0 0 0 0 0 
-0.1402222281392563 -0.1433442513356889 0.2589888211327306 0 0 0 0 0 0 0 
-0.02485173136333531 0.1089681517046689 -0.02094175659595772 -0.0007047341504916103 -3.699797361019996e-05 0 0 -0.001508930465318123 0 0 
-0.5536281944270289 -0.1573664260744453 0.6930070532462642 -0.0621822616005278 -0.0002504889447499083 0 -0.01411090669833765 0 -5.003609653046487e-05 -0.003265022677259579 
0.07380710886790677 -0.2543269583820998 0.2934592706268949 -0.0189036070079959 0 0 -0.01128741379071858 0 0 0 
-0.2316774144209981 -0.1905610274779161 0.3462633466142476 -0.009686074058040669 0 0 0 0 0 0 
0 0 0 0 0 0 0 0 0 0 
-0.5536281944270289 -0.1573664260744453 0.6930070532462642 -0.0621822616005278 -0.0002504889447499083 0 -0.01411090669833765 0 -5.003609653046487e-05 -0.003265022677259579 
0.07380710886790674 -0.2543269583820997 0.3076655620487423 -0.0189036070079959 0 0 -0.01128741379071858 0 0 0 
-0.2316774144209981 -0.1905610274779161 0.4371262462431878 -0.009686074058040669 0 0 0 0 0 0 
-0.1270990455523106 0.1965600360532169 -0.02074271739506225 -0.1309325291619189 -0.001816497983681404 -0.03047058573273519 -0.03411577956102758 -0.006062779732395618 -0.002825898187230049 -0.01507424776617632 
-0.03205547335272525 0.01432697373467521 3.469446951953614e-18 0 -0.01358244846706205 -0.009177709342335538 -0.03042097021743324 1.897353801849633e-19 -0.01530829016207323 0 
-0.01204677131341636 0 0 0 0 0 0 0 0 0 
0 0 0 0 0 0 0 0 0 0 
-0.03205547335272524 0.01186429087066314 0 4.336808689942018e-19 0 0 -0.03042097021743324 0 0 0 
-0.03205547335272524 0.01186429087066314 0 4.336808689942018e-19 0 0 -0.03042097021743324 0 0 0 
-0.01204677131341636 0 0 0 0 0 0 0 0 0 
0 0 0 0 0 0 0 0 0 0 
-0.1414858993273296 0.147291502553877 0 -0.01349524090145868 -0.007252066515030441 -0.0004372309031478606 -0.003435944289045481 0 -0.01203182189250025 -0.004161719833290423 
-0.2420495995529867 0.402064410919431 -0.1009720451179879 -0.1203610367025623 -0.06546596353166077 -0.05938342066950351 -0.04633987442816284 -0.04195062187579505 -0.04622508414398181 -0.03994993238917269 
-0.06261536219358868 -0.008557849372656023 3.469446951953614e-18 0.07608235515427053 -4.336808689942018e-19 0 0 0 0 -0.001159384580475399 
-6.938893903907228e-18 0 3.469446951953614e-18 -0.006899293165458169 0 0 0 0 0 -0.001159384580475399 
0 0 0 -0.006899293165458169 0 0 0 0 0 -0.001159384580475399 
0 0 0 -0.006899293165458169 0 0 0 0 0 -0.001159384580475399 
-0.1011018488470987 0.1688981109634762 -0.07662290548318505 -0.04250656941793182 4.336808689942018e-19 0 -0.004157350146115055 -0.0008779801999111235 -0.0002944609856461178 -0.006131160657812228 
0 0 0 -0.006899293165458169 0 0 0 0 0 -0.001159384580475399 
0 0 0 -0.006899293165458169 0 0 0 0 0 -0.001159384580475399 
-0.005477602041538293 0.1123956046101528 -0.1316298166882319 -0.06022917382257875 -0.02290336855550865 -0.01735405643214128 -0.02643026262309835 -0.01461054296410651 -0.05058567645229613 -0.02814668595688893 
0 0 0 0 0 0 0 0 0 0 
0 0 0 0 0 0 0 0 0 0 
0.07326525412642529 -0.1495774461407589 0.1738120076351718 -0.05106300939189534 -0.003391070515029731 -0.009863501771703895 -0.01259475776056108 -0.01786559052639325 -0.003419354108988495 -0.00892646652442885 
5.637851296924623e-18 0.0430567868192796 0 0 0 0 0 -0.008599858988043357 0 0 
0 -0.07791346360974577 0.1077967400371928 0 0 0 0 -0.008599858988043357 0 0 
0 0 0 0 0 0 0 0 0 0 
0.009583901942926069 0.1125697893173418 -0.05392225211892258 8.673617379884035e-19 0 0 0 0 0 -0.0004729427148031098 
0.01084703515082637 0 0 0 0 0 -0.006120207382066529 0 0 0 
0.01084703515082637 0 0 0 0 0 0 0 0 0 
0.01084703515082637 0 0 0 0 0 0 0 0 0 
-0.1380214214381753 0.198705396523157 -0.01500263541386329 -0.02062828298704463 -0.01791031054195109 -0.01833857491296927 -0.01348544559138611 -0.002259570543677727 -0.022262409826908 -0.01869786080423768 
0.0141345557241664 0.04234156942738334 -0.001292565368933813 -0.004826098855126167 0 0 0 0 0 0 
0.1057836907777491 -0.05978675408359043 -0.001292565368933813 0 0 0 0 0 0 0 
0.1057836907777491 -0.05978675408359043 -0.001292565368933813 0 0 0 0 0 0 0 
0.1057836907777491 -0.05978675408359043 -0.001292565368933813 0 0 0 0 0 0 0 
0 -0.02801746457507091 -0.006464316730297364 0.06056094093348373 -0.0007191878182282638 -0.004006526257276992 -0.007638421589086724 -0.002161183062577038 -0.03301426410463418 -0.004925666011086836 
-0.03996816541292123 -0.0169538798752429 0.04052832422787017 0.01589313569556274 -0.0007191878182282638 -0.007751087573477273 -0.007638421589086726 -0.004298190841128572 -0.03301426410463418 -0.004925666011086837 
0.01305705244358833 -0.02801746457507091 -0.006464316730297364 0.03627321228638108 -0.0007191878182282638 -0.004006526257276992 -0.007638421589086722 -0.003555048734086194 -0.03301426410463418 -0.004925666011086837 
0 -0.02801746457507091 -0.006464316730297364 0.06056094093348373 -0.0007191878182282638 -0.004006526257276992 -0.007638421589086724 -0.002161183062577038 -0.03301426410463418 -0.004925666011086836 
0 -0.02801746457507091 -0.006464316730297364 0.06056094093348373 -0.0007191878182282638 -0.004006526257276992 -0.007638421589086724 -0.002161183062577038 -0.03301426410463418 -0.004925666011086836 
0 -0.02801746457507091 -0.006464316730297364 0.06056094093348373 -0.0007191878182282638 -0.004006526257276992 -0.007638421589086724 -0.002161183062577038 -0.03301426410463418 -0.004925666011086836 
-0.122722398288027 0.1226985790686474 0 -0.01003767766094216 -0.002238949391518547 0 0 0 -0.007162125386934946 0 
-0.122722398288027 0.1226985790686474 0 -0.01003767766094216 -0.002238949391518547 0 0 0 -0.007162125386934946 0 
-0.09136060187415868 0.162530723499902 -0.0848866856849783 -0.01003767766094216 -0.003871436397325407 0 -0.009542257525040659 0 -0.008502542874418059 -0.0002680573568237193 
0 0 0 0 0 0 0 0 0 0 
0 0 0 0 0 0 0 0 0 0 
0 0 0 0 0 0 0 0 0 0 
0 0 0 0 0 0 0 0 0 0 
0 0 0 0 0 0 0 0 0 0 
9.75781955236954e-18 -6.071532165918825e-18 0 -1.734723475976807e-18 0 0 0 0 -0.01504643204601549 0 
0.4454920285058232 -0.3157256530071978 -0.06650943287680702 -0.1200595356769972 -0.01280641491317636 -0.04313322549485141 -0.01854569855125997 -0.02140111158419402 -0.0005966308218669583 -0.0043514774255461 
0 0 0 0 0 0 0 0 0 0 
0.002606537862260658 0 0 -0.06527199977421107 0 0 0 0 0 0 
0.08280842999428166 0.03377414951712958 -0.07830325105701935 -0.06527199977421105 -0.001276222485043938 8.673617379884035e-19 -0.02411079629004167 -0.0003577708256026629 -0.001875736798607414 -0.004547604030958023 
0.3958239679509364 -0.3223002917515262 -0.0414767365477792 -0.1065642947755386 -0.01065887252716002 -0.04313322549485141 -0.01854569855125997 -0.01982955171123375 -0.0005966308218669583 -0.0043514774255461 
0 0 0 0 0 0 0 0 0 0 
-0.09645146466272045 0.05296094742215973 -0.1281870224750724 0.07258952687319789 0.113369893729582 -0.007567796150733009 -0.009202362342665703 -0.01942605249588831 -0.008227263484508128 -0.06964410100357793 
-0.002589272200022944 -0.0368900266970589 0.06578929966027547 -0.06259644981722351 -0.01513545862536252 0 0 -0.002037899879094576 0 -0.001048402799540727 
-0.00608047141004351 0.08408022373196647 -0.0402303309971777 -0.06259644981722351 -0.01513545862536252 0 0 -0.002037899879094576 0 0 
0.03805379400364101 -1.734723475976807e-18 -0.0402303309971777 0 -0.01010705602039297 0 0 0 0 0 
0.03805379400364101 0 -0.0402303309971777 0 -0.002174688233355252 0 0 0 0 0 
0 0 0 0 0 0 0 0 0 0 
-0.2391791536208933 0.3094016658588167 -0.03124391471246576 -0.03247824156380062 -0.003399861585258024 -0.004344374065174888 -0.03211003251746392 -0.004817852512632344 -0.008143116338480701 -0.007556672978239391 
0.1398365601750122 -0.1652359925727552 -0.05444560323815581 0 0 0 -0.008292252710352711 0 0 -0.008230567513611738 
0 0 0 0 0 0 0 0 0 0 
-0.07430646067199301 0.09065777912725534 -4.336808689942018e-19 -0.003469880553659761 -0.02764316287469663 2.168404344971009e-19 -0.005493327086035333 -0.01093742303734786 -0.01904659622947471 -1.626303258728257e-19 
-0.2391791536208932 0.3476932984108648 -0.03124391471246576 -0.101463753888646 -0.003399861585258024 -0.004344374065174888 -0.03211003251746392 -0.004817852512632344 -0.00233451436264596 -0.007556672978239391 
-0.04930071071285531 0 0 0 0 0 0 0 0 0 
-0.04166780695534464 0.1096884828731805 -0.0976794603255243 -0.0268466158705906 -0.0005898771907319754 -0.03420384043898943 -0.009522845127205732 -0.002192645854093754 -0.006806233563497856 -0.01010641120377775 
-0.03189881890587758 0.01318424928618213 0.0164354405393972 -0.03092458291361254 -0.02490731194820455 -0.02112700962491675 0 -0.004697155355817679 -0.02192086721687991 0 
-0.1552183901394047 0.2109541275357996 -3.469446951953614e-18 -0.0233941140897999 0 -0.03420384043898943 0 0 0 0 
-0.1176172392791954 0.144152206147547 0 0 0 0 0 0 0 0 
0.09820279235148112 -0.1531502326658249 0 0 0 0 -0.004146126355176356 0 0 -0.004115283756805869 
-0.1176172392791954 0.1466148890115591 0 0 -0.01358244846706205 -0.009177709342335538 0 0 -0.01530829016207323 0 
-0.1176172392791954 0.144152206147547 0 0 0 0 0 0 0 0 
-0.07023194037793326 -0.07727869982034716 -0.07731665422920643 0.2490886854242121 0 0 0 0 0 0 
-0.2320235649732686 -0.4230074951683402 -0.004225125327166279 0.6134126112315199 -0.01116497999877861 0 0 -0.002487008622612951 -0.01368238345785014 0 
-0.01769835525924485 0.009263359776289865 -0.03879887907204101 0.05602048149604926 -0.01510650283911514 -0.006096932545493468 0 -0.006179891383444118 -0.01836842914573178 -0.02734266465328402 
-0.07023194037793326 -0.07727869982034716 -0.07731665422920643 0.2490886854242121 0 0 0 0 0 0 
-0.07023194037793326 -0.07727869982034716 -0.07731665422920643 0.2490886854242121 0 0 0 0 0 0 
-0.04408485125026713 -0.05207326921282985 0 0.09660461417704352 0 0 0 0 -0.009075417609605174 0 
-0.04408485125026713 -0.05207326921282985 0 0.09660461417704352 0 0 0 0 0 0 
0 0 0 0 0 0 0 0 0 0 
-0.1742693327922911 0.2572606484883376 -0.003863321653003723 -0.08855319907126272 -0.0004049134109589428 -0.001066651173726958 -0.003694809343594334 -0.004940693323571952 0 -0.005711079348827776 
0 0 0 0 0 0 0 0 0 0 
-0.1296825508499855 0.1269313569503824 -0.04144254645485858 0.000780415058892046 -0.003531040379727055 -0.00415167205422036 -0.006163072987953277 -0.007208529536255811 -0.01758783141638888 -0.02602184816660603 
-0.1046368219283952 0.3344355786922994 -0.02653796121650036 -0.0734779284038956 -0.0126237045066206 0 -0.007144071794732166 -0.001467321767492766 0 -0.06964410100357796 
-0.1235324143949666 0.05757121032539125 -0.02653796121650036 -0.07347792840389562 -0.0126237045066206 0 -0.007144071794732166 -0.001467321767492766 0 0.1976121454620878 
-0.04611611145483264 0.1479891275173852 -0.04144254645485858 -0.05664403706240109 -0.003531040379727055 -0.00415167205422036 -0.006163072987953277 -0.007208529536255811 0 -0.02602184816660603 
-0.03428660470129559 0.08541793315016129 0 -0.03373319638131277 -0.003531040379727056 0 0 0 0 -0.01883354520024314 
-0.0703502172270996 0.2490176455421381 -0.02653796121650036 -0.03974473202258284 -0.00779918513702374 0 -0.007144071794732165 -0.001467321767492766 0 -0.02932324193823763 
-0.0703502172270996 0.2490176455421381 -0.02653796121650036 -0.03974473202258284 -0.00779918513702374 0 -0.007144071794732165 -0.001467321767492766 0 -0.02932324193823763 
0.03193771711410198 0.06351411492159383 -0.04021693284558157 -0.009352251998015884 0 -0.02133242998510189 -0.01954465446938358 -0.0004954429861782062 0 0 
0.02083206537883655 -0.03385776048457242 -0.01650610729102679 -0.093283290691204 -0.02015189479587144 0.06373612497422317 -0.03208192031623842 -0.01433568344884777 -0.02214843564696237 -0.03825602803903875 
-0.1755948327613583 0.2428008710317891 -0.008568580319666081 -0.00386862297419634 0 -0.02133242998510189 0 -0.0004954429861782062 0 0 
-0.03341462776063234 0.09642430567195752 -0.01958453095168303 -0.00386862297419634 0 -0.02133242998510189 0 -0.0004954429861782062 0 0 
-0.3560810842256986 0.2831095031147229 -0.01650610729102679 -0.04698003756239152 0 0.1629612151598323 -0.006728355381165764 -0.002067016357859065 -0.003704608873540279 -0.01707336388181847 
-0.1755948327613583 0.2428008710317891 -0.008568580319666081 -0.00386862297419634 0 -0.02133242998510189 0 -0.0004954429861782062 0 0 
0.03118538328886133 0.04694615335593489 -0.01748545538788135 -0.0891304025586586 -0.02666131611220367 -0.004344374065174886 -0.003417200885180905 -0.007754125878659987 -0.001315536918770593 -0.012018371050454 
-0.04596727992762126 0.08490589305495912 -0.005308392446512444 -0.03484125280275017 0 -0.00275174680147622 -0.004520495275503293 -0.003153739269362392 -0.001123795692896247 -0.001904659028368565 
-0.1181919740344483 0.1738127561974701 0 -0.01972232990498544 0 0 0 -0.00367353680482659 0 0 
-0.06940321182203672 0.09440676042452464 0 -0.03651763621348693 -0.02666131611220367 0 0 -0.001363044692249864 0 0 
-0.03932963771784431 0.09440676042452462 -0.01748545538788134 -0.03651763621348693 -0.02666131611220367 0 0 -0.001363044692249864 0 0 
-0.1306526453641892 0.1542253766088805 0 -0.01972232990498544 0 0 0 -0.001363044692249864 0 0 
-0.1306526453641892 0.1542253766088805 0 -0.01972232990498544 0 0 0 -0.001363044692249864 0 0 
-0.06173958969536302 0.0523420971369042 0 0 0 0 0 -0.002310492112576725 0 0 
-0.06173958969536302 0.0523420971369042 0 0 0 0 0 -0.002310492112576725 0 0 
-0.06173958969536302 0.0523420971369042 0 0 0 0 0 -0.002310492112576725 0 0 
-0.06173958969536302 0.0523420971369042 0 0 0 0 0 -0.002310492112576725 0 0 
-0.09592588739483082 0.1393834491949414 0 0 0 0 0 0 0 -0.02685881669143764 
0.02776399333968006 0.1619841643864837 -0.1202373201832872 -0.05654470066787482 -0.001508549722340386 -0.004953007811777879 -0.014612899959379 -0.002057202002094075 -0.002682842117373877 -0.03214641324210306 
-0.09699689348438535 0.1364333715240536 -0.0427780732768886 -0.008346073478298148 -1.734723475976807e-18 0 0 0 -0.003704608873540279 0.1807867069405545 
-0.09592588739483082 0.1393834491949414 0 0 0 0 0 0 0 -0.02685881669143764 
-0.09592588739483082 0.1393834491949414 0 0 0 0 0 0 0 -0.02685881669143764 
-0.1148214798614022 -0.1374809191719668 0 0 0 0 0 0 0 0.2403974297742281 
-0.09592588739483082 0.1393834491949414 0 0 0 0 0 0 0 -0.02685881669143764 
-0.09577807075098244 0.1487803501746735 0 -0.01679530630850147 -0.02666131611220368 0 0 0 0 0 
-0.09577807075098244 0.1487803501746735 0 -0.01679530630850147 -0.02666131611220368 0 0 0 0 0 
-0.1293081037157777 0.1502508651125837 -0.02534086160439179 0 0 0 -0.00386459877207359 0 0 0 
-0.07983821891939361 0.141268376040177 -0.02534086160439178 -0.09677856842465848 -0.002561929928285173 -0.01557327102512684 -0.009449208694081951 -0.01235068886850352 -0.004346711641046288 -0.01718419797156281 
-0.1404086564232539 0.1516958244282767 -0.02534086160439179 -0.005165433522231262 0 0 -0.00386459877207359 -0.002336486129464384 0 0 
-0.1293081037157777 0.1502508651125837 -0.02534086160439179 0 0 0 -0.00386459877207359 0 0 0 
0.08551350291855583 -0.008618355322408205 -0.02534086160439179 0 0 0 -0.00386459877207359 0 0 0 
-0.01696264128712489 0.09897868491242363 -0.02534086160439178 -0.08126649784118396 -0.001384349349632343 0 -0.00386459877207359 -0.003386132262120972 -0.003439197663692121 0 
-0.1404086564232539 0.1516958244282767 -0.02534086160439179 -0.005165433522231262 0 0 -0.00386459877207359 -0.002336486129464384 0 0 
-0.01176359315642101 0.03407617045175464 0.01230268255081457 0.01590921900239385 -0.001103927519410464 -0.04314725623062961 -0.01200796958555217 -0.005315940576095175 -0.006693037597551951 -0.01707336388181847 
0.02154437050923478 0 -0.02988175008937781 0 0 0 0 0 0 0 
0 0 0 -0.01160702039154878 0 -0.0007301516811315073 0 0 0 0 
0 0 0 0 0 0 0 0 0 0 
-0.05260667781657945 0.1770024957941018 -0.001312600526367719 -0.0006046965151011654 0 -0.04416210251264584 -0.0172979035970753 -0.01693031908263697 0 -0.004569487836969473 
-0.06026407971061494 -0.10979527502444 0.1754257166996871 -0.08644022619050595 -0.001431783359567714 -0.03955066555820209 -0.01663677241917405 -0.07672229590485714 -0.002622574980296465 -0.003600103941492008 
-0.0442837585973223 0.1128664540846421 0 -0.009713605013716424 0 -0.03863052219768832 -0.004246977493607261 -0.0008824303773978712 0 0 
-0.03114318717125707 0.1128664540846421 0 0 0 -0.03863052219768832 -0.004246977493607263 -0.0008824303773978712 0 0 
0.4647742383747939 -0.02784793946926634 -0.5026467536670001 -0.004312305393096925 0 -0.03863052219768832 -0.0103671848756738 -0.0008824303773978712 0 4.336808689942018e-19 
-0.03114318717125707 0.1128664540846421 0 0 0 -0.03863052219768832 -0.004246977493607263 -0.0008824303773978712 0 0 
-0.2230936157972369 -0.2399417007729517 0.1980580586207781 -0.07364625000672805 -0.01372547943818529 0.07268473588954524 0.0694279526032822 0.1011268349410767 -0.01580938039597237 -0.01705155278070677 
-0.1386339006078942 0.2164460294147971 -0.03210019124035814 -0.02176696829919089 0 -0.01744404172683675 0 0 0 0 
0 0 0 -0.02176696829919089 0 -0.008199201763361632 0 0 0 0 
0.1918968616040756 0 -0.1562644332659847 0 0 0 0 0 0 0 
-0.0277832954190482 0.07033171508957381 -0.02280184481518377 -0.0230662686563148 -0.008413646881412525 -0.005009312157094876 -0.01282744790694952 -0.009233390625874079 -0.006529302058995703 -0.01196114859542323 
-0.0555665908380964 0.1406634301791476 -0.04560368963036755 -0.0461325373126296 -0.04452492318553912 -0.04305316853158493 -0.03026410060376139 -0.02042958590367141 -0.01739847994980365 -0.02687278468301899 
-0.0277832954190482 0.07033171508957381 -0.02280184481518377 -0.0230662686563148 -0.008413646881412525 -0.005009312157094876 -0.01282744790694952 -0.009233390625874079 -0.006529302058995703 -0.01196114859542323 
-0.0277832954190482 0.07033171508957381 -0.02280184481518377 -0.0230662686563148 -0.008413646881412525 -0.005009312157094876 -0.01282744790694952 -0.009233390625874079 -0.006529302058995703 -0.01196114859542323 
-0.0277832954190482 0.07033171508957382 -0.02280184481518377 -0.0230662686563148 -0.02226246159276956 -0.0150576271417288 -0.0151320503018807 -0.0102147929518357 -0.008699239974901827 -0.01343639234150949 
-0.0277832954190482 0.07033171508957381 -0.02280184481518377 -0.0230662686563148 -0.008413646881412525 -0.005009312157094876 -0.01282744790694952 -0.009233390625874079 -0.006529302058995703 -0.01196114859542323 
-0.2353112434329847 0.07033171508957381 0.1786641825524647 -0.0230662686563148 -0.008413646881412525 -0.005009312157094876 -0.01282744790694952 -0.009233390625874079 -0.006529302058995703 -0.01196114859542323 
-0.0440063495293054 0.08214692942752697 0 -0.01391047537266555 -0.0003887086751164441 -0.003811726465773971 -0.007291519303172236 -0.0007479357522334891 -0.0008428676024357661 0 
-0.2530879464137134 0.2904747871327326 -0.05967913701598496 -0.05167792703508881 -0.0003887086751164441 -0.003811726465773972 -0.00760477105198099 -0.009464418140040171 -0.0008428676024357661 -0.01557679477380679 
-0.05308655114798436 0.1259769361839961 -0.04760470261744895 -0.04732079588234286 -0.001710837009730004 -0.003811726465773971 -0.01165640294631295 -0.0007479357522334895 -0.01387318097795737 1.084202172485504e-19 
-0.1877400906494467 0.08214692942752695 0.1472080351587161 -0.01391047537266555 -0.0004358248673436496 -0.003811726465773971 -0.007291519303172236 -0.0007479357522334891 -0.0008428676024357661 0 
-0.0440063495293054 0.08214692942752697 0 -0.01391047537266555 -0.0003887086751164441 -0.003811726465773971 -0.007291519303172236 -0.0007479357522334891 -0.0008428676024357661 0 
-0.03870050237582054 0.09616013531543068 -0.05967913701598496 -0.01391047537266556 -0.0003887086751164441 -0.003811726465773971 -0.007604771051980991 -0.009464418140040171 -0.0008428676024357661 -0.01557679477380679 
-0.0440063495293054 0.08214692942752697 0 -0.01391047537266555 -0.0003887086751164441 -0.003811726465773971 -0.007291519303172236 -0.0007479357522334891 -0.0008428676024357661 0 
-0.0440063495293054 0.08214692942752697 0 -0.01391047537266555 -0.0003887086751164441 -0.003811726465773971 -0.007291519303172236 -0.0007479357522334891 -0.0008428676024357661 0 
0.1153820119746317 -0.01684999450038465 -0.1030361490314012 -0.09818974680935864 -0.009687443654894755 -0.01560340104246562 -0.02016159668727661 -0.01321687327467656 -0.003834473444730606 -0.03398485564173252 
0.1052155898162249 -0.04449716341897559 -0.03575356837968408 -0.007337594544643184 0 0 0 0 0 0 
0.1052155898162249 -0.0444971634189756 -0.03575356837968408 -0.007337594544643184 0 0 0 0 0 0 
0.7528808127129207 -0.4553902001117142 -0.1652310046416411 -0.1150940327938971 -0.002247508343988212 -0.05472069247531343 -0.01102706139580661 -0.004995701027726849 -0.001663774143267823 -0.01520402857020193 
0.1052155898162249 -0.0444971634189756 -0.03575356837968408 -0.007337594544643184 0 0 0 0 0 0 
0 0 0 -0.01127026705555879 -0.02765658458204791 -0.00173715883029323 -0.00205829054793354 -0.007743115395465103 0 0 
0 0 0 -0.01127026705555879 -0.02765658458204791 -0.00173715883029323 -0.00205829054793354 -0.007743115395465103 0 0 
0 0 0 -0.01127026705555879 -0.02765658458204791 -0.00173715883029323 -0.00205829054793354 -0.007743115395465103 0 0 
0 0 0 -0.01127026705555879 -0.02765658458204791 -0.00173715883029323 -0.00205829054793354 -0.007743115395465103 0 0 
-0.2091624543905476 0.2819354958205619 -0.1180589250326707 -0.05230417204850442 -0.03142004071199979 -0.007850438824734286 -0.01339303364135901 -0.0196115096076272 -0.02511052629406438 -0.01241807784850542 
0 0 0 -0.01127026705555879 -0.02765658458204791 -0.00173715883029323 -0.00205829054793354 -0.007743115395465103 0 0 
-0.04092009656275129 0.07553068369440369 -1.788933584601082e-18 -0.02202555096966739 0 0 0 0 0 0 
0.02596667062642647 -0.04548916491118649 -5.421010862427522e-20 0 0 0 0 0 0 0 
0.2396678289793446 -0.1626909935672845 -0.02571091979195713 -0.04592363624228465 -0.000859216557374433 -0.00833409240260622 -0.01361371143412504 -0.006427726211184304 -0.00428322646708696 -0.01073685032293257 
0.4752170086032064 -0.3792844508587419 -0.05945148054549177 -0.06405592331191347 -0.009067595508696773 -0.003764484317241042 -0.008977044489931182 -0.003871618329173467 -0.002471690074838681 -0.004948574834413731 
0.0834100844636621 -0.02848250972580894 -0.02571091979195712 -0.01798843146143614 0 -0.003764484317241042 -0.00463629121410173 -0.00299848032081154 -0.0021322201518237 -0.004948574834413731 
0.0834100844636621 -0.02848250972580894 -0.02571091979195712 -0.01798843146143614 0 -0.003764484317241042 -0.00463629121410173 -0.00299848032081154 -0.0021322201518237 -0.004948574834413731 
0.4752170086032064 -0.3792844508587419 -0.05945148054549177 -0.06405592331191347 -0.009067595508696773 -0.003764484317241042 -0.008977044489931182 -0.003871618329173467 -0.002471690074838681 -0.004948574834413731 
0.0834100844636621 -0.02848250972580894 -0.02571091979195712 -0.01798843146143614 0 -0.003764484317241042 -0.00463629121410173 -0.00299848032081154 -0.0021322201518237 -0.004948574834413731 
0.0684797323066951 -0.02157011472969678 -0.14129041771528 -0.04349995842546864 -0.0002837464019772977 -0.04311886770231874 0.1514498247835346 -0.01377936481878197 -0.001018977443875369 -0.007244467336267341 
0.343087554156161 -0.1521364473065534 -0.1294606841944456 -0.00921753294995523 -0.001276222485043938 0 -0.01128741379071858 -0.0003577708256026625 -0.001875736798607413 -0.004527036030549061 
0.3054845232889047 -0.0637659309041838 -0.1294606841944456 -0.00921753294995523 0 0 -0.01128741379071858 0 0 0 
0.3054845232889047 -0.0637659309041838 -0.1294606841944456 -0.00921753294995523 0 0 -0.01128741379071858 0 0 0 
-0.2182124509234548 0.4204420046103549 -0.1025697679393032 -0.07602170735218755 -0.007118193148188692 -0.003704252421699452 -0.01328461657621805 -0.008228683881493009 -0.001061314360791037 -0.0275566728027077 
0 0 -0.01123893724057545 0 -0.002089790543219138 0 0 -0.004418543791946617 0 -0.02482031697819917 
0 0 -0.01123893724057545 0 -0.002089790543219138 0 0 -0.004418543791946617 0 -0.02482031697819917 
-0.1239656326131831 0.1576120434315542 -0.01144981693655483 0 -0.002089790543219138 0 2.168404344971009e-19 -0.004418543791946617 0 -0.0275566728027077 
0 0 -0.01123893724057545 0 -0.002089790543219138 0 0 -0.004418543791946617 0 -0.02482031697819917 
-0.01889559246657139 -0.2768643683669081 -0.01123893724057545 0 -0.002089790543219138 0 0 -0.004418543791946617 0 0.2424359294874666 
0.06538619952190769 -0.09817070496783599 0 -0.0133505133076143 -0.009067595508696773 0 0 0 0 0 
0.05204749649014505 -0.08556201399909878 0 -0.0133505133076143 -0.009067595508696773 0 0 0 0 0 
0.06538619952190769 -0.09817070496783599 0 -0.0133505133076143 -0.009067595508696773 0 0 0 0 0 
0 0 -6.505213034913027e-19 0 0 0 0 0 0 0 
0.2372785164831654 -0.1178130652198047 -0.115736483689205 -0.03923863802548914 -0.001069927765335381 -0.0159765010839053 -0.005709573397985873 -0.01524741944679429 -0.0007562601659136556 -0.01104315640871606 
0.4512960511132491 -0.2857788891580235 -0.2437723325998788 -0.038048070984094 0 -0.009408813528797286 -0.02506401823568608 -0.01302071973054634 0 4.336808689942018e-19 
0 0 -6.505213034913027e-19 0 0 0 0 0 0 0 
-1.040834085586084e-17 -0.01807466364397249 1.084202172485504e-18 -0.03607574531443872 -0.001069927765335381 -0.0159765010839053 -0.005709573397985873 0 -0.0007562601659136556 -0.003432549698576134 
0.1221190567266126 -0.03202485678397668 -0.1028091408704507 -0.002075878558873125 0 0 -0.00436488364314072 -4.336808689942018e-19 0 0 
-0.1738074731177196 0.06523064753731581 0.133356847828852 -0.01474464491448536 0 -0.007221180347405765 0 0 0 0 
0.01313773657844519 -0.01840960713156322 0.0218192746182787 0 -0.01593013197050936 0 -0.001677000048976329 -0.001702000047505381 -0.01050272112386556 0 
-0.2111977245467797 0 0.1888833106608676 0 0 0 0 0 0 0 
0.01313773657844519 -0.01840960713156322 0.0218192746182787 0 -0.01593013197050936 0 -0.001677000048976329 -0.001702000047505381 -0.01050272112386556 0 
0.0809851318731255 0.1042003636923657 -0.04171544711737918 -0.06969542879988973 0 -0.001487844610962405 -0.00872272590852753 -8.673617379884035e-19 -0.0009898023825004826 -0.007402520278321113 
-0.08775435700950139 0.0438300633109131 0.1138745439799647 -0.07554968873048569 -0.01306796310997624 -0.005192097032661856 -0.008722725908527532 -0.005310110058991987 -0.0078403823957123 -0.007402520278321113 
-0.1266097907676293 0.04920660328490377 -0.04858818367770459 0.03188378265726025 -0.001957806395529587 -3.368872597039337e-05 -0.004929730037232893 0.0936442161603165 -0.01046364937100148 0.1452730562102605 
-0.1085966980209047 0.1411148547035834 -0.004372025850909966 0 0 0 -0.0005827690628540105 0 0 -0.002010042672469569 
-0.1044983246225399 0.204403161907555 -0.009615255877021034 -0.0680222331085603 0 -0.001487844610962404 -0.00872272590852753 0 -0.0009898023825004826 -0.007402520278321113 
-0.08775435700950136 0.06190472695488561 0.1138745439799647 -0.07554968873048572 -0.01306796310997624 -0.005192097032661856 -0.008722725908527532 -0.005310110058991987 -0.0078403823957123 -0.007402520278321113 
-0.1636996478021223 0.2211037927748135 -0.004372025850909964 -0.0124939385639733 0 0 -0.0003132517488087554 -0.008716482387806684 0 -0.01758683744627636 
-0.02930233921715322 0.08724092243931944 -0.004372025850909964 0 0 0 0 0 0 -0.002010042672469569 
-0.08024760544286333 0.1720264960157541 -0.02301514732528979 -0.007359249406101215 0 0 0 0 0 0 
-0.1635105931448619 0.1931132742505267 -0.006234339783409548 -0.007133118141556992 -0.0100601192475101 0 -0.001991797975501585 -0.004198888488638494 -0.008392610870936453 0 
-0.08291718030847776 0.09117107202188435 0 0 0 0 0 0 0 0 
-0.08291718030847776 0.09117107202188435 0 0 0 0 0 0 0 0 
-0.1635105931448619 0.1931132742505267 -0.006234339783409548 -0.007133118141556992 -0.0100601192475101 0 -0.001991797975501585 -0.004198888488638494 -0.008392610870936453 0 
-0.08291718030847776 0.09117107202188435 0 0 0 0 0 0 0 0 
0.04764404685185472 -0.04235646565890782 -3.469446951953614e-18 -0.001198337906678514 0 0 -0.002956815709451695 0 0 0 
0.02509195301302028 0 0 0 0 0 -0.002956815709451695 0 0 0 
0.02509195301302028 0 0 0 0 0 -0.002956815709451695 0 0 0 
-0.09151132831040826 0.04233575615033371 -3.469446951953614e-18 -0.01931080460715563 -3.56675839088825e-05 0 -0.002956815709451694 -0.0007643155832209999 -0.000950161388622638 -0.004180915356793064 
0.02509195301302028 0 0 0 0 0 -0.002956815709451695 0 0 0 
0.07738235886216581 0 -0.0005789616429828162 0 0 -0.02523774923190442 -0.02456757758413718 -0.009893742510467929 0 0 
0.07738235886216581 0 -0.0005789616429828162 0 0 -0.02523774923190442 -0.02456757758413718 -0.009893742510467929 0 0 
0.05136292100063181 -0.321670908832565 -0.03420564552629579 -0.04147241414871222 0 0.2080313985062368 0.168442024544079 -0.0388407492889703 0 -0.003186650490308701 
0.07738235886216581 0 -0.0005789616429828162 0 0 -0.02523774923190442 -0.02456757758413718 -0.009893742510467929 0 0 
0.07738235886216581 0 -0.0005789616429828162 0 0 -0.02523774923190442 -0.02456757758413718 -0.009893742510467929 0 0 
0.4229517043707279 -0.3301476666408072 -0.07054710349399104 -0.07067677726952043 -0.001859955610920185 -0.02527143795787481 -0.0392224370433565 -0.02496326861281329 -0.008996133046114036 -0.02714797810417179 
0.07738235886216581 0 -0.0005789616429828162 0 0 -0.02523774923190442 -0.02456757758413718 -0.009893742510467929 0 0 
0.428680413852382 -0.3644932095632101 -0.04335701201541626 -0.04126356379828423 -0.00929873497977831 -0.01179167457669165 -0.01255682563529561 -0.003752455134636394 -0.002991605842294839 -0.006391975888007231 
0.09261870120398856 -0.06676920463984139 -0.02063240189389857 -3.469446951953614e-18 0 0 0 0 5.421010862427522e-20 8.673617379884035e-19 
0.02475310349174168 -0.03612633009391425 0 -0.02062828298704463 0 0 0 0 0 0 
0 0.09442433095178344 -0.05967913701598494 0 0 0 0 0 0 0 
0 0.09442433095178344 -0.05967913701598494 0 0 0 0 0 0 0 
0 0.09442433095178344 -0.05967913701598494 0 0 0 0 0 0 0 
-0.2395042338666768 0.07366508857478403 0.2073368878457146 0 0 -0.02126703843568514 -0.005112592180754192 -0.01025629415676391 -0.0006752248015306767 0 
-0.01696154925813819 0.04871829769767849 -0.006305997560852919 -0.01457764717599733 0 0 0 -0.003209932177838277 0 0 
0.227886415018916 -0.01514730403826281 -0.1409631917294281 0 0 0 -0.004998968718141515 0 0 0 
-0.2395042338666768 0.07366508857478403 0.2073368878457146 0 0 -0.02126703843568514 -0.005112592180754192 -0.01025629415676391 -0.0006752248015306767 0 
0.03166011361200931 0 0 0 0 0 0 0 0 0 
-0.1274602416551009 0.08389106184516011 -0.01182973352083441 -0.03769610003850456 -0.001387498833079351 -0.04311886770231874 0.1785480275985985 -0.01314487754166457 -0.008996133046114033 -0.01634947548578827 
0.0178356972990955 -0.001343478508003034 0 0 0 0 -0.007811270591460284 0 0 0 
0.1579800600982143 -0.06815536149379459 -0.04810627802449525 -0.01474464491448535 0 0 -0.007811270591460284 0 0 0 
0.1146191450894372 -0.05473770583172878 0 0 0 0 -0.007811270591460284 0 0 0 
0.0178356972990955 -0.001343478508003031 0 0 0 0 -0.007811270591460284 0 0 0 
0.1146191450894372 -0.05473770583172878 0 0 0 0 -0.007811270591460284 0 0 0 
0.1146191450894372 -0.05473770583172878 0 0 0 0 -0.007811270591460284 0 0 0 
-0.1127177822600827 -0.2567765089042919 -0.005022660495736528 0.1271476125940926 0.2479343475257371 -0.004768336525540917 -0.008375035536418666 -0.003440392528296497 -0.001761439890847652 -0.005532594496594543 
-0.0665226262048674 -0.1940478251494051 0 -0.04580388811781829 0.3068014196817972 0 0 0 0 0 
-0.0665226262048674 -0.1940478251494051 0 -0.04580388811781829 0.3068014196817972 0 0 0 0 0 
-0.1127177822600827 -0.2567765089042919 -0.005022660495736528 0.1271476125940926 0.2479343475257371 -0.004768336525540917 -0.008375035536418666 -0.003440392528296497 -0.001761439890847652 -0.005532594496594543 
-0.0665226262048674 -0.1940478251494051 0 -0.04580388811781829 0.3068014196817972 0 0 0 0 0 
0.0339464670481621 0 0 0 0 0 0 0 0 0 
-0.1375172867067803 -0.09025983270715823 0.2998262056306461 -0.0004147493695694966 0 0 -0.005148151228114784 0 0 0 
0.0339464670481621 0 0 0 0 0 0 0 0 0 
0.0339464670481621 0 0 0 0 0 0 0 0 0 
0.0339464670481621 0 -0.01337971231333164 0 0 0 0 0 0 0 
0 0 0 0 0 0 0 0 0 0 
0 0 0 0 0 0 0 0 0 0 
0 0 0 0 0 0 0 0 0 0 
0.00962957171339663 -0.1172967007901817 -8.673617379884035e-19 0 0 0 0 0 0 0 
-0.1263682191308156 0.157975070526422 0 -0.01288832725033727 0 0 -0.01101781795485441 0 0 0 
0.04390411621978805 -0.05680088375168808 -0.0168192208488936 0 0 0 0 0 0 0 
0.04390411621978804 -0.05680088375168806 0 0 0 0 0 0 0 0 
0.04390411621978805 -0.05680088375168808 0 0 0 0 0 0 0 0 
0.04390411621978805 -0.05680088375168808 -0.0168192208488936 0 0 0 0 0 0 0 
0.04390411621978805 -0.05680088375168808 0 0 0 0 0 0 0 0 
-0.007852295693563539 0 0 0 0 0 0 0 0 0 
-0.0684498429898194 0.08881239261304681 -0.04323385708736849 -1.734723475976807e-18 -0.0005898771907319754 0 -0.005376718772029382 -0.002192645854093754 -0.0006752248015306768 -0.005991127446971885 
0 0 0 0 0 0 0 0 0 0 
0 0 0 0 0 0 0 0 0 0 
0 0 0 0 0 0 0 0 0 0 
0.1280971196989788 -0.06041306749655243 -0.03350081435400544 -0.0476949761432692 -0.001066929545800265 0 -0.002798174142217892 -0.00166838790646805 0 0 
0.2549053212404547 -0.1762498163034208 -0.03350081435400544 -0.04769497614326921 -0.001066929545800265 0 -0.002798174142217892 -0.00166838790646805 -0.003200005710192911 -0.02647934619999054 
0.1280971196989788 -0.06041306749655243 -0.03350081435400544 -0.0476949761432692 -0.001066929545800265 0 -0.002798174142217892 -0.00166838790646805 0 0 
0.1403641649545032 -0.04104676773032463 -0.2762728944221485 0.02201994676151799 -0.0004049134109589428 -0.001066651173726958 -0.003694809343594334 -0.002630201210995228 -0.007166714225463612 -0.005711079348827776 
0.1051228901817512 -0.1582094955459322 0 -0.003680763760231425 0 -0.01687297003609944 0 0 0 0 
0 -0.09120892427348859 0 0 0 0 0 0 0 0 
0 -0.09120892427348859 0 0 0 0 0 0 0 0 
0 0 0 0 0 0 0 0 0 0 
-0.005675498563314802 0.005228336288442229 -1.040834085586084e-17 -0.2206405477555585 0 -0.02468948855009281 0 -0.01186839421216209 0.1877650545148403 5.421010862427522e-19 
0.07796174011091174 -0.09518689689229881 0 -0.06257246007853695 -0.001038908193561248 -0.001096767737403242 -0.004738528700653657 0 0 -0.005579012299692316 
0 0 0 0 0 0 0 0 0 0 
0.01668764547281262 0.02744656631430632 -3.469446951953614e-18 -0.003452501780790704 0 -0.0123447442750464 0 -0.01186839421216209 -0.0697630537729533 0 
0.07796174011091174 -0.09518689689229881 0 -0.06257246007853695 -0.001038908193561248 -0.001096767737403242 -0.004738528700653657 0 0 -0.005579012299692316 
-0.3203852978323685 0.3159127350798397 0 0 -0.001304381510480862 0 0 0 -0.001340417487483112 0 
0.2504079818393342 -0.311733240191016 -0.1098299473977669 0.1092724928602674 -0.002951584915064529 -0.02283634349591694 -0.008722725908527528 -0.007426020482261467 -0.0009898023825004828 -0.005392477605851544 
0.02475310349174168 -0.03612633009391425 0 -0.02062828298704463 0 0 0 0 0 0 
-0.01948712205909018 0.01002186826526953 -0.007546092876792128 -0.02062828298704463 0 0 0 0 0 0 
0.01996103209642705 -0.01496240081859549 -8.673617379884035e-19 0 0 0 -1.301042606982605e-18 0 0 0 
0 0 0 0 0 0 0 0 0 0 
0 0 0 0 0 0 0 0 0 0 
0.0794431850535814 -0.02757109178733271 0 0 0 0 0 0 0 0 
0.0794431850535814 -0.02757109178733271 0 0 0 0 0 0 0 0 
0.0794431850535814 -0.02757109178733271 0 0 0 0 0 0 0 0 
0.02804655693868681 -0.01806035349120361 -0.07366464021300267 -0.01075305453063438 -0.01132486348114251 -0.003544895611774478 0 -0.01999161094962711 -0.0006147988950284465 -0.009580894252641537 
-0.2498113939566556 0.06881712696486235 0 0 0 0 0 0 0 0 
-0.01383764797217912 -0.07436698654222643 0.08253041024868431 0 -9.969450376964062e-05 0 0 0 0 -0.0006552170300064224 
0.0630948257814964 -0.07436698654222643 -0.009459210934538208 0 -9.969450376964062e-05 0 0 0 0 -0.0006552170300064224 
0.05712416220177947 0.004281316657155206 -0.01687939574205851 0 -9.969450376964062e-05 -0.007221180347405765 0 0 0 -0.0006552170300064224 
-0.06141747829882638 0.07730779891164483 -0.009916109246145527 -0.02065524364647661 -0.0002837464019772977 -0.01044130661066836 -0.03211003251746392 -0.002925973571366852 -0.00233451436264596 -0.007556672978239391 
0 0 0 0 0 0 0 0 0 0 
-0.06141747829882638 0.07730779891164483 -0.009916109246145527 -0.02065524364647661 -0.0002837464019772977 -0.01044130661066836 -0.03211003251746392 -0.002925973571366852 -0.00233451436264596 -0.007556672978239391 
0 0 0 0 0 0 0 0 0 0 
0.06360411998104039 0.02235945327642491 -0.08635048212086262 -0.009963028565813608 -0.01085315981609313 -0.02361747285474016 -0.01713749257560648 -0.00968885350373236 -0.01259168514394934 -0.01479068826921305 
-0.1097146819193641 -0.03992234213581279 0.2624766252637743 -0.01046521787686276 -0.001293478989869805 0 -0.0019988860433044 0 -0.0003573853606403367 -0.02422366968960568 
0.08132016700824672 0 -0.08635048212086262 -0.0007791438188220865 0 0 0 0 0 0 
-0.0788912723364868 -0.05243929701535703 0.131152962216911 -0.0007791438188220865 0 0 0 0 0 0 
0.1306036736047635 -0.1051542706753215 -0.08635048212086262 -0.0007791438188220865 0 -0.003809747223226572 -4.336808689942018e-19 0 0 0 
0.1306036736047635 -0.1051542706753215 -0.08635048212086262 -0.0007791438188220865 0 -0.003809747223226572 -4.336808689942018e-19 0 0 0 
0.06054187771810676 -0.1531149410274699 0.1443172678792492 -0.03554141861239062 0 0 0 0 0 0 
0.1873563080079403 -0.03756693196565253 -0.1533040103185787 0 0 0 0 0 0 0 
0.1776744798866102 -0.03188697744096276 -0.1533040103185787 0 0 0 0 0 0 0 
0.1873563080079403 -0.03756693196565253 -0.1533040103185787 0 0 0 0 0 0 0 
-0.08743329390431871 -0.02400185754201691 0.08971585616878563 0 0 0 0 0 0 0 
-0.0727781454404148 -0.02843743947334013 0.127787588168988 0 0 0 0 0 0 0 
-0.0727781454404148 -0.02843743947334013 0.127787588168988 0 0 0 0 0 0 0 
-0.0009199428962696383 0.01634219589264088 0 -0.0002359290406127934 0 0 0 0 0 0 
-0.1835894767472291 0.3166016900429784 -0.01496627768431243 -0.01532239494867173 0 0 0 0 0 0 
-0.2962596291546114 0.3266186387953777 0 -0.01027360670155495 -0.002158981552367068 0 0 0 -0.005063345210725935 0 
-0.0009199428962696383 0.01634219589264088 0 -0.0002359290406127934 0 0 0 0 0 0 
-0.0009199428962696383 0.01634219589264088 0 -0.0002359290406127934 0 0 0 0 0 0 
-0.2962596291546114 0.3266186387953777 0 -0.01027360670155495 -0.002158981552367068 0 0 0 -0.005063345210725935 0 
0 0 0 0 0 0 0 0 0 0 
0.02009322759035987 -0.03805017174428793 0 0 0 -8.673617379884035e-19 0 0 0 0 
0.2761522835436373 -0.2085989663590294 -0.1010624686080141 0 0 0 0 0 -0.0014985189130987 0 
0.1570275042931349 -0.2085989663590294 0 0 0 0 0 0 0 0 
-0.2673123099362649 0.105466491136266 0.1914558681981716 8.673617379884035e-19 -0.01143011069664382 -0.006124927276520277 -0.0056307088561128 -0.01171399561870707 -0.004555677314677846 -0.001052590585323636 
-0.1502557489750602 -0.09028035140202784 0.2587200521856499 0 0 0 -0.003111514492853757 0 0 0 
-0.1502557489750602 -0.09028035140202784 0.2587200521856499 0 0 0 -0.003111514492853757 0 0 0 
-0.1502557489750602 -0.09028035140202784 0.2587200521856499 0 0 0 -0.003111514492853757 0 0 0 
0.05398218756157989 -0.1860473440582447 0.1445336255800627 0 -0.002147542386016334 0 -0.003111514492853757 -0.00157155987296027 0 0 
-0.1502557489750602 -0.09028035140202784 0.2587200521856499 0 0 0 -0.003111514492853757 0 0 0 
-0.09121888038867601 0.1184007303596006 0 -0.0007047341504916125 0 0 0 0 0 0 
-0.1382238856926764 0.2346275156270913 -0.04256719358090923 -0.003386929194239404 0 0 0 0 0 -0.002061669931669974 
-0.01522565891567831 0.0105607263423921 0 0 0 0 0 0 0 0 
0.01963031601513943 -0.09674479102785011 0 0.1029976877211476 0 0 0 0 -0.002648958800996692 0 
0.09176781189483056 -0.08653712625047495 0 0.1029976877211476 0 0 0 0 -0.002648958800996692 0 
-0.003925558838359472 -0.06412232707655884 0 0.1029976877211476 0 0 0 0 -0.002648958800996692 0 
-0.003925558838359472 -0.06412232707655884 0 0.1029976877211476 0 0 0 0 -0.002648958800996692 0 
-0.003925558838359472 -0.06412232707655884 0 0.1029976877211476 0 0 0 0 -0.002648958800996692 0 
0.1059303706502734 0.04274795617250043 -0.1615540773246577 -0.02229637149273579 -0.001312461696617117 0 -0.0009054705326666575 -0.001630524620615046 -0.01037459592358912 0 
0.175711124680458 -0.1159323349950113 -0.1615540773246577 0.05760611910070913 -0.001483849215040559 -0.00483591586506235 -0.003499900212214587 -0.004140895845455011 -0.038995804054082 -0.004466004451572965 
0.1661558754599846 0 -0.1615540773246577 0 0 0 0 0 0 0 
0.1661558754599846 0 -0.1615540773246577 0 0 0 0 0 0 0 
0 0 -0.004265164262608775 0 0 0 0 0 0 0 
0 0 0 0 0 0 0 0 0 0 
0 0 0 0 0 0 0 0 0 0 
0 0 0 0 0 0 0 0 0 0 
-0.09994255075177198 0.02653706757140624 0.09575102883869732 0 0 0 0 0 -0.02494469061744212 0 
0 0.02460463407420616 0 0 0 0 0 0 0 0 
0 0.02460463407420616 0 0 0 0 0 0 0 0 
0 0 0 0 0 0 0 0 0 0 
0 0 0 0 0 0 0 0 0 0 
0 0.002470566885236293 -0.0125833839791546 0 0 0 0 0 0 0 
-0.03168953033598552 0.04084892781654925 0 -0.006348984073539531 0 -0.008210614899255097 0 0 0 0 
-0.03168953033598552 0.04084892781654925 0 -0.006348984073539531 0 -0.000799636669855772 0 0 0 0 
0.1431189209241015 -0.03433522814058584 -0.1271946372452068 -0.03621891048988514 -0.003545911224838928 -0.008536753542819337 -0.01176051330105964 -0.003829442212545889 -0.00166601973877534 -0.002013219395978488 
-0.03168953033598552 0.04084892781654925 0 -0.006348984073539531 0 -0.000799636669855772 0 0 0 0 
-0.03168953033598552 0.04084892781654925 0 -0.006348984073539531 0 -0.000799636669855772 0 0 0 0 
-0.03168953033598552 0.04084892781654925 0 -0.006348984073539531 0 -0.000799636669855772 0 0 0 0 
0 0 0 0 0 0 0 0 -0.009075417609605174 0 
0.1069338238703675 -0.03938525772760693 -0.00938409655134278 -0.0227332219381928 0 0 0 0 -0.009075417609605174 -0.002549616684618562 
0 0 0 0 0 0 0 0 -0.009075417609605174 0 
0 0 0 0 0 0 0 0 -0.009075417609605174 0 
0.3439271876759908 -0.2784355866548657 -0.04685949249904329 -0.02234247079442022 -0.001352988847816612 -0.004032864451264113 -0.008343312415878733 -0.002414972827696737 -0.003434522848783524 -0.00621452863972246 
0.2052223079616362 -0.1247332834444187 -0.04685949249904328 -0.02234247079442022 -7.676636277267345e-05 -0.004032864451264114 -0.008343312415878733 -0.002057202002094074 -0.001558786050176111 -0.001687492609173401 
-0.07074419549781021 -0.1531345655003201 0.226684302610545 -0.04187149083613988 -0.003391070515029731 -0.009863501771703894 -0.01259475776056108 -0.002057202002094074 -0.003419354108988503 -0.001738163558065957 
0.3439271876759908 -0.2784355866548657 -0.04685949249904329 -0.02234247079442022 -0.001352988847816612 -0.004032864451264113 -0.008343312415878733 -0.002414972827696737 -0.003434522848783524 -0.00621452863972246 
0.2052223079616362 -0.1247332834444187 -0.04685949249904328 -0.02234247079442022 -7.676636277267345e-05 -0.004032864451264114 -0.008343312415878733 -0.002057202002094074 -0.001558786050176111 -0.001687492609173401 
0.02596667062642647 -0.04548916491118649 0 0 0 0 0 0 0 0 
0.02629128055869004 0.09981300271997981 -0.07117010586060483 -0.03335344995941796 0 -0.00415167205422036 -0.01105233961018622 0 1.13841228110978e-18 2.168404344971009e-19 
0.08279163910615964 -0.02108970696401567 -0.02972755940574626 0 0 0 0 0 0 0 
0.08279163910615964 -0.02108970696401567 -0.02972755940574626 0 0 0 0 0 0 0 
0.08279163910615964 -0.02108970696401567 -0.02972755940574626 0 0 0 0 0 0 0 
0.09729350723832858 -0.01840960713156321 -0.07979857306941254 0 -0.01593013197050936 0 -0.001677000048976328 -0.001333937441539395 -0.01050272112386556 0 
0 0 0 0 0 0 0 0 0 0 
0 0 0 0 0 0 0 0 0 0 
0 0 0 0 0 0 0 0 0 0 
0.6975884054994903 -0.5207840241144026 -0.05321097714393089 -0.1165379553514964 -0.03891815934208209 -0.01833857491296927 -0.01348544559138611 -0.009942165014550241 -0.03589200985701169 -0.01869786080423768 
0.01104400388964028 -0.07415424001640451 0 0 0 0 0 0 0 0 
0.4809446516103968 -0.4610124266527535 -0.01343876476576719 -0.04310225432309182 -0.03891815934208209 -0.01833857491296927 -0.01348544559138611 -0.009942165014550241 -0.03589200985701169 -0.01869786080423768 
-0.1812049867885383 0.274727725898497 -0.007546940309777267 -0.05212419377320109 -0.001222320367622111 -0.02218739850783195 -0.03946608058293971 -0.01764026410748646 -0.009010264970355937 -0.004569487836969473 
-0.01333870303176264 0.01260869096873721 0 0 0 0 0 0 0 0 
-0.05948215295715435 0.01260869096873721 0 0 0 0 0 0 0 0 
-0.04614344992539171 0 0 0 0 0 0 0 0 0 
-0.04106198309254955 0.0808554239938699 -0.01912471805732714 -0.007359249406101215 0 0 0 0 0 0 
-0.1755906706235109 0.2943121261867822 -0.03759816715015338 -0.06314687705821345 -0.005028402604969556 0 0 -0.002037899879094576 0 0 
-0.1314564052098265 0.1342195775487756 0 0 0 0 0 0 0 0 
-0.1314564052098265 0.1342195775487756 0 0 0 0 0 0 0 0 
-0.09969156813299088 -0.1836695612419632 0 0.3345452861503297 -0.001485349617688752 0 0 -0.003241442452547942 -0.008654732928473751 -0.01156957788062278 
0 -0.0382916325520483 0 0.06898551232484537 0 0 0 0 -0.005808601975834745 0 
0 -0.0382916325520483 0 0.06898551232484537 0 0 0 0 -0.005808601975834745 0 
0 -0.0382916325520483 0 0.06898551232484537 0 0 0 0 -0.005808601975834745 0 
-0.02007603197613086 -0.1521958854849464 -0.04610806867505161 -0.02434620499975528 0 0.2103882785652972 -0.001859313213660933 -0.000306089175733782 0 4.336808689942018e-19 
0 0 -0.01420629142184742 0 0 -0.02134849888495453 0 0 0 0 
0 0 0 0 0 -0.02134849888495453 0 0 0 0 
0.3348003450846739 -0.260275887076477 0 -0.09330232530705893 0 -0.02134849888495453 0 -0.001049646132656589 0 0 
0 0 -0.01420629142184742 0 0 -0.02134849888495453 0 0 0 0 
0.08660495213096282 -0.06574048002231474 -0.01420629142184741 -0.02793520478084851 -0.000859216557374433 -0.004569608085365179 -0.008977420220023314 -0.003429245890372765 -0.002151006315263262 -0.00578827548851884 
0 0 -0.01420629142184742 0 0 0 0 0 0 0 
0 0 -0.01420629142184742 0 0 0 0 0 0 0 
0.05143991581277023 -0.04880527526021437 0 0 0 0 0 0 0 0 
0.05143991581277023 0.02029375574932148 -0.07662290548318505 0 0 0 0 0 0 0 
0.05143991581277024 -0.04952882006279254 0 0 0 0 0 0 0 0 
0.05143991581277023 -0.04880527526021437 0 0 0 0 0 0 0 0 
0.05143991581277023 -0.04880527526021437 0 0 0 0 0 0 0 0 
0.05143991581277024 -0.04952882006279254 0 0 0 0 0 0 0 0 
0.05143991581277024 -0.04952882006279254 0 0 0 0 0 0 0 0 
0 0 0 0 0 0 0 0 0 0 
0 0 0 0 0 0 0 0 0 0 
0 0 0 0 0 0 0 0 0 0 
0.03475947801497876 0.00894931155959431 -0.05999194905310231 0 0 0 0 0 0 0 
0.3016881648861844 -0.1341814397317803 -0.06279207744898858 -0.09567547789054109 1.409462824231156e-18 0 0 0 0 0 
0.03475947801497876 0.00894931155959431 -0.05999194905310231 0 0 0 0 0 0 0 
0.03475947801497876 0.00894931155959431 -0.05999194905310231 0 0 0 0 0 0 0 
0 0 0 0 0 0 0 0 -0.01504643204601549 0 
-0.02236314403612741 -0.02221823002586407 0 -0.2171880459747678 0 0 0 0 0.2581975223430865 0 
0 0 0 0 0 0 0 0 -0.01504643204601549 0 
0 0 0 0 0 0 0 0 -0.01504643204601549 0 
0.1206734382715385 -0.06883785148849823 -0.0797985730694125 -0.01562865491575962 -0.01593013197050936 0 -0.001677000048976328 -0.004518443925678069 -0.0171920831399707 0 
0.2168556672069787 -0.2027873135866117 0 -0.03071512082381855 0 0 0 0 -0.006689362016105135 0 
0.4051486454243416 -0.3329172099978829 -4.336808689942018e-19 -0.03478172011273831 -0.01760300375315439 0 0 0 -0.006689362016105135 0 
0.04282147793487225 -0.05042824435693502 0 -0.01562865491575962 0 0 0 0 -0.006689362016105135 0 
0.04282147793487225 -0.05042824435693502 0 -0.01562865491575962 0 0 0 0 -0.006689362016105135 0 
0.4051486454243417 -0.3329172099978829 0 -0.03478172011273831 -0.01760300375315439 0 0 0 -0.006689362016105135 0 
0.04282147793487225 -0.05042824435693502 0 -0.01562865491575962 0 0 0 0 -0.006689362016105135 0 
0.03052410372374242 0 0 0 0 0 0 0 0 0 
0.05079914502953657 -0.01549431187117217 -0.02503269632902779 0 -0.002147542386016334 0 0 -0.00157155987296027 0 0 
0.03052410372374242 0 0 0 0 0 0 0 0 0 
0.03052410372374242 0 0 0 0 0 0 0 0 0 
0.003411755192429658 0.00144495931569296 0 0.02823183456481191 -0.0004988247624837758 -0.04313322549485141 -0.007503895463623823 -0.005235114191476135 -0.03334508468630454 -0.004734856466548015 
-0.03530264936644081 -0.3239303173019619 -0.02737752850278391 0.1750563278397151 -4.336808689942018e-19 0.2290809232201862 -0.04075103704792247 -0.01256822481961963 0 1.084202172485504e-19 
0.04280700846731294 0 0 -0.02066401201428287 0 -0.04313322549485141 0 0 0 0 
0.04280700846731294 0 0 -0.02066401201428287 0 -0.04313322549485141 0 0 0 0 
0.04280700846731294 0 0 -0.02066401201428287 0 -0.04313322549485141 0 0 0 0 
-0.08931680417056129 0.1273525429496574 -0.0125833839791546 -0.01349524090145868 -0.0004670700528930417 0 -0.005263095309416705 -0.002192645854093754 0 -0.005991127446971885 
0 0.002470566885236293 -0.0125833839791546 0 0 0 0 0 0 0 
0 0.0230944142819877 -0.06547498793980927 0 -0.01143011069664382 -0.006124927276520277 -0.002519194363259043 -0.01171399561870707 -0.004555677314677846 -0.0005796478705205259 
0 0.0230944142819877 -0.06547498793980927 0 -0.01143011069664382 -0.006124927276520277 -0.002519194363259043 -0.01171399561870707 -0.004555677314677846 -0.0005796478705205259 
-0.08931680417056129 0.1273525429496574 -0.0125833839791546 -0.01349524090145868 -0.0004670700528930417 0 -0.005263095309416705 -0.002192645854093754 0 -0.005991127446971885 
0 0.002470566885236293 -0.0125833839791546 0 0 0 0 0 0 0 
-0.1343973085849691 0.1212135794661327 0 0 0 0 -0.0003132517488087554 -0.008716482387806684 0 -0.01557679477380679 
-0.1343973085849691 0.1212135794661327 0 0 0 0 -0.0003132517488087554 -0.008716482387806684 0 -0.01557679477380679 
-0.1343973085849691 0.1212135794661327 0 0 0 0 -0.0003132517488087554 -0.008716482387806684 0 -0.01557679477380679 
-0.1324586447204106 0.1754629925917721 0 -0.01508646590805894 0 0 0 0 0 0 
-0.1324586447204106 0.1754629925917721 0 -0.01508646590805894 0 0 0 0 0 0 
-0.1826695338509595 0.3002594941503376 -0.01496627768431243 -0.01508646590805894 0 0 0 0 0 0 
-0.1384293083001275 0.2541112957911538 -0.007420184807520314 -0.01508646590805894 0 0 0 0 0 0 
0.09111790104852957 0 -0.07366464021300267 -0.006271081642314985 0 -0.003544895611774478 0 0 0 0 
0.09111790104852957 0 -0.07366464021300267 -0.006271081642314985 0 -0.003544895611774478 0 0 0 0 
0.09111790104852957 0 -0.07366464021300267 -0.006271081642314985 0 -0.003544895611774478 0 0 0 0 
0.09111790104852957 0 -0.07366464021300267 -0.006271081642314985 0 -0.003544895611774478 0 0 0 0 
0.09871818232894224 -0.0260014641328286 -0.06151391128086404 0 0 0 0 0 0 0 
0.09871818232894224 -0.0260014641328286 -0.06151391128086404 0 0 0 0 0 0 0 
0.09871818232894224 -0.0260014641328286 -0.06151391128086404 0 0 0 0 0 0 0 
0.1924042277435808 -0.1334306397253769 -0.07054690483336458 -0.03092458291361254 -0.01132486348114251 -0.01194930028258122 -2.168404344971009e-19 -0.004697155355817678 -0.006612577054806675 0 
0.09871818232894224 -0.0260014641328286 -0.06151391128086404 0 0 0 0 0 0 0 
0.1179630150988053 -0.08687748045606597 -1.734723475976807e-18 -0.001319080177268999 0 0 0 -4.703614701512967e-05 0 -0.001970287542501624 
0.1179630150988053 -0.08687748045606597 -1.734723475976807e-18 -0.001319080177268999 0 0 0 -4.703614701512967e-05 0 -0.001970287542501624 
0.1179630150988053 -0.08687748045606597 -1.734723475976807e-18 -0.001319080177268999 0 0 0 -4.703614701512967e-05 0 -0.001970287542501624 
0.1179630150988053 -0.08687748045606597 0 -0.001319080177268999 0 0 0 -4.703614701512967e-05 0 -0.001970287542501624 
-0.2163992680729245 0.3735284718649338 -0.01123577425515928 -0.03577254075396991 0 0 0 0 0 0 
0.1464568732869564 -0.02537745620759414 -0.01123577425515928 0 0 0 0 0 0 0 
0.03007357410419241 0 -0.01748545538788134 -0.005897801913038641 0 0 0 0 -0.0009540806721918067 0 
0.03007357410419241 0 -0.01748545538788134 0 0 0 0 0 0 0 
0.03454559878654868 0 -0.05180338039324528 0 0 0 0 0 0 0 
0.0536595428379148 -0.1177559469393581 0.08209540118195537 0 0 0 0 0 0 0 
-0.003284364697885832 -0.1030793667430547 0.08808825916257164 0 0 0 0 0 0 0 
0 0 0 0 -0.01132486348114251 0 0 -0.004697155355817678 -0.0006147988950284465 0 
-0.1294502636365285 0.151517783207796 0 -0.02245362340064356 0 0 -0.0279236528150302 0 0 -0.002316466244542244 
-0.05312765473455248 0.08161443650927834 0 -0.02651871883127092 -0.001387498833079351 0 -0.04187449220078254 0 -0.008996133046114034 -0.002316466244542244 
0 0 0 0 0 0 0 0 0 0 
0 0 0 0 0 0 0 0 0 0 
0.08008469356136799 -0.04484001232401885 0 -0.04532220074196502 -0.000472456777840834 -3.368872597039294e-05 -0.0007040200734669759 -0.01506952610234536 0 -0.02714797810417179 
0.08008469356136799 -0.03943480750598453 0 -0.04532220074196502 -0.000472456777840834 -3.368872597039294e-05 -0.0007040200734669761 -0.01506952610234536 0 -0.02714797810417179 
0.08008469356136799 -0.04484001232401885 0 -0.04532220074196502 -0.000472456777840834 -3.368872597039294e-05 -0.0007040200734669759 -0.01506952610234536 0 -0.02714797810417179 
0.08008469356136799 -0.04484001232401885 0 -0.04532220074196502 -0.000472456777840834 -3.368872597039294e-05 -0.0007040200734669759 -0.01506952610234536 0 -0.02714797810417179 
8.673617379884035e-19 -0.005405204818034338 0 0 0 0 0 0 0 0 
0 -0.005405204818034334 0 0 0 0 0 0 0 0 
0.00131876367768482 0 0 0 0 0 0 0 0 0 
0.00131876367768482 0 0 0 0 0 0 0 0 0 
0.00131876367768482 0 0 0 0 0 0 0 0 0 
0.00131876367768482 0 0 0 0 0 0 0 0 0 
0.00131876367768482 0 0 0 0 0 0 0 0 0 
0.03119146460937612 0.03079440878957583 -0.04633981451041757 -0.03791827478541861 0 -0.04314725623062961 -0.004869042167504831 -0.001265484195947076 0 0 
0.03045943432930069 -0.06684072196979413 0 -0.01915306519697871 0 0 0 0 0 0 
0.03045943432930069 -0.06684072196979413 0 -0.01915306519697871 0 0 0 0 0 0 
0 0 0 0 0 0 0 0 0 0 
0.07610699544365659 0 -0.003890429267962597 0 0 0 0 0 0 0 
0.1536717923824431 -0.1172967007901818 -0.1587744928463115 0 0 0 0 0 0 0 
0 0 0 0 0 0 0 0 0 0 
0.1440422206690464 0 -0.1587744928463115 0 0 0 0 0 0 0 
0.1571069210285534 -0.1452557481514027 0 0.07294201409881611 -0.009567666697406562 -0.01005070851924648 -0.01323284473079071 -0.03887999582179017 -0.01489491013321507 -0.0038327861937371 
-0.06261536219358868 -0.008557849372656023 0 0.08298164831972871 0 0 0 0 0 0 
-0.06261536219358868 -0.008557849372656023 0 0.08298164831972871 0 0 0 0 0 0 
0.007046583535169718 0 -0.01820671518813079 0 0 0 0 0 0 0 
0.007046583535169718 0 -0.01820671518813079 0 0 0 0 0 0 0 
0.007046583535169718 0 -0.01820671518813079 0 0 0 0 0 0 0 
0.007046583535169718 0 -0.01820671518813079 0 0 0 0 0 0 0 
0.06802225927061231 -0.06753052932485369 0 -0.01244998708772142 0 0 0 0 0 0 
0.1582125010378138 -0.126113930772644 -0.0002108796959793728 -0.01244998708772142 0 0 0 0 0 -0.002736355824508528 
0.06802225927061231 -0.06753052932485369 0 -0.01244998708772142 0 0 0 0 0 0 
0.02656420313510929 -0.003886348465330834 -0.0002108796959793737 -0.01244998708772142 0 0 0 0 0 -0.002736355824508528 
-0.03680739351481124 0.04994141972587306 -0.0251875834505111 0 0 0 0 0 0 0 
0.06802225927061231 -0.06753052932485369 0 0 0 0 0 0 0 0 
-0.02539140834363971 0.08225220785410306 -0.03577733952507652 -0.02419225224520251 -0.001217019573451923 -1.084202172485504e-19 -0.008195504795621276 -0.003928006451858104 -0.02070352557680618 -0.006640714528257756 
0 0 0 0 0 0 0 0 0 0 
-0.1034785184535875 0.168813304774463 -0.01337971231333164 0 0 0 0 0 0 0 
0 0 -0.01337971231333164 0 0 0 0 0 0 0 
0 0 -0.01337971231333164 0 0 0 0 0 0 0 
0 0 -0.01337971231333164 0 0 0 0 0 0 0 
0 0 0 -0.01385720246021317 -0.0004528755692433306 -0.003070953839482004 -0.004559052357144967 -0.00227208986767885 -0.001178630360559942 -0.003415905635968513 
0.3422873491271993 -0.3026264934271857 -0.01061678489302489 -0.05795225071595579 -0.004364437443139335 -0.01164540128191645 -0.01949017790141653 -0.008125568889582758 -0.00460485210691238 -0.01360387878484573 
0 0 0 -0.01385720246021317 -0.0004528755692433306 -0.003070953839482004 -0.004559052357144967 -0.00227208986767885 -0.001178630360559942 -0.003415905635968513 
0.1393063976425289 -0.1018858122054624 -0.005308392446512445 -0.0289761253579779 -0.0004528755692433306 -0.005822700640958226 -0.00907954763264826 -0.004062784444791379 -0.002302426053456189 -0.005320564664337077 
0.2029809514846704 -0.2007406812217235 -0.005308392446512445 -0.02897612535797789 -0.003911561873896002 -0.005822700640958226 -0.01041063026876827 -0.004062784444791379 -0.002302426053456189 -0.008283314120508655 
0 0 0 -0.01385720246021317 -0.0004528755692433306 -0.003070953839482004 -0.004559052357144967 -0.00227208986767885 -0.001178630360559942 -0.003415905635968513 
0.09729350723832861 -0.01840960713156322 -0.0797985730694125 0 -0.01593013197050936 0 -0.001677000048976328 -0.001333937441539395 -0.01050272112386556 0 
0.09729350723832861 -0.01840960713156322 -0.0797985730694125 0 -0.01593013197050936 0 -0.001677000048976328 -0.001333937441539395 -0.01050272112386556 0 
-0.004931941015818966 0.1216665683182502 -0.04822245517475601 0 0 0 0 0 0 0 
-0.004931941015818966 0.1216665683182502 -0.04822245517475601 0 0 0 0 0 0 0 
-0.004931941015818966 0.1216665683182502 -0.04822245517475601 0 0 0 0 0 0 0 
0 0 0 0 0 0 0 0 0 0 
0.06953486239404365 -0.1801845508141285 -6.938893903907228e-18 0.1187726735038553 -0.04564042072388289 0 0 -0.005554795463760658 -0.00822726348450813 0 
0 0 0 0 0 0 0 0 0 0 
0 0 0 0 0 0 0 0 0 0 
0 0 0 0 0 0 0 0 0 0 
0 0 0 0 0 0 0 0 0 0 
0 0 0 0 0 0 0 0 0 0 
0.01843189297824308 -0.08475108894145178 0 0 0 0 0 0 0 0 
-0.3515238187409663 0.0775013980585743 0.3285915888376105 -0.04524916891517857 -0.001217019573451923 -0.00415167205422036 -0.01435857778357456 -0.003928006451858104 0 -0.006640714528257755 
-0.006173880808691149 0.05137622433423369 -0.004468297312934368 0 0 0 0 0 0 0 
-0.006173880808691149 0.05722151298162604 -0.004468297312934368 0 0 0 0 0 0 0 
-0.04339479590586789 0.1946521695795882 -0.08168818329286943 -0.04524916891517856 -0.001217019573451923 -0.00415167205422036 -0.01435857778357456 -0.003928006451858104 0 -0.006640714528257755 
-0.006173880808691149 0.05722151298162604 -0.004468297312934368 0 0 0 0 0 0 0 
0 0 0 0 0 0 0 0 0 0 
0 0 0 0 0 0 0 0 0 0 
0.03309376475062365 0 -0.01343876476576719 0 -0.009682985318988485 0 0 -0.002985439115054831 -0.002434568775716434 0 
0.03309376475062365 0 -0.01343876476576719 0 -0.009682985318988485 0 0 -0.002985439115054831 -0.002434568775716434 0 
-0.04618981136514778 0.05726927968236219 0 -0.003178007663979435 -0.01746023648934759 0 -0.003501529110533747 -0.006738534548709364 -0.01160806603073007 5.421010862427522e-20 
-0.04618981136514778 0.05726927968236219 0 -0.003178007663979435 -0.01746023648934759 0 -0.003501529110533747 -0.006738534548709364 -0.01160806603073007 5.421010862427522e-20 
-0.01106039150622333 0.06686277604510051 0 0 0 -0.0399487710339281 -0.003680889866003728 -0.0139671052167225 0 0 
-0.01106039150622333 0.06686277604510051 0 0 0 -0.0399487710339281 -0.003680889866003728 -0.0139671052167225 0 0 
-0.01106039150622333 0.06686277604510051 0 0 0 -0.0399487710339281 -0.003680889866003728 -0.0139671052167225 0 0 
-0.01106039150622333 0.06686277604510051 0 0 0 -0.0399487710339281 -0.003680889866003728 -0.0139671052167225 0 0 
0.4545650464736581 -0.3689172859115644 0 -0.06176123475874611 -0.03985901719229441 0 0 -0.004327662138973037 -0.00822726348450813 0 
0.2433920648860298 -0.2148090681146688 0 -0.01652871381180331 0 0 0 0 0 0 
0.4545650464736581 -0.3689172859115644 0 -0.06176123475874611 -0.03985901719229441 0 0 -0.004327662138973037 -0.00822726348450813 0 
-0.0923903121104306 -0.1254573675097734 -0.01004532099147306 0.3387160473012321 -0.11773414431212 -0.009536673051081834 -0.01675007107283733 -0.006880785056592994 -0.003522879781695305 -0.01106518899318909 
0 0 0 -0.007186954122589718 0 0 0 0 0 0 
0.141976444000938 0.02611001894425009 -0.1324250070836557 -0.007186954122589718 0 0 0 0 0 0 
0 0 0 -0.007186954122589718 0 0 0 0 0 0 
0 0 0 -0.007186954122589718 0 0 0 0 0 0 
0.1843295815870512 0 -0.1324250070836557 -0.007186954122589718 0 0 0 0 0 0 
-0.100602980084204 -0.01470936857778504 0.1840389057562794 -0.01488576424045012 0 0 0 0 -0.01017475483259273 0 
-0.1593782084920869 0.01868945878340256 0.1840389057562794 -0.01488576424045012 0 0 0 0 0 0 
-0.1593782084920869 0.01868945878340256 0.1840389057562794 -0.01488576424045012 0 0 0 0 0 0 
-0.04618981136514778 0.05726927968236219 0 -0.003178007663979435 -0.01291138721961909 0 -0.001874064670703374 -0.005972160110038947 -0.01133495671224936 0 
-0.04618981136514778 0.05726927968236219 0 -0.003178007663979435 -0.01291138721961909 0 -0.001874064670703374 -0.005972160110038947 -0.01133495671224936 0 
0.0433609150087771 -0.0134176556620658 -0.04810627802449525 -0.01474464491448535 0 0 0 0 0 0 
0.0433609150087771 -0.0134176556620658 -0.04810627802449525 -0.01474464491448535 0 0 0 0 0 0 
0.01430545124259185 0 -0.04810627802449526 -0.01474464491448535 0 0 0 0 0 0 
0.1371636133418683 -0.07892388833837931 -0.04633981451041756 -0.0155120705834745 -0.00117758057865283 -0.01557327102512684 -0.005271358173199603 -0.0002480742185758642 -0.0009075139773541674 -0.001607403197756023 
0.101807427229546 -0.07892388833837931 0 -0.0155120705834745 -0.00117758057865283 -0.01557327102512684 -0.005271358173199603 -0.0002480742185758642 -0.0009075139773541674 -0.001607403197756021 
0.101807427229546 -0.07892388833837931 0 -0.0155120705834745 -0.00117758057865283 -0.01557327102512684 -0.005271358173199603 -0.0002480742185758642 -0.0009075139773541674 -0.001607403197756021 
0.101807427229546 -0.07892388833837931 0 -0.0155120705834745 -0.00117758057865283 -0.01557327102512684 -0.005271358173199603 -0.0002480742185758642 -0.0009075139773541674 -0.001607403197756021 
0.101807427229546 -0.07892388833837931 0 -0.0155120705834745 -0.00117758057865283 -0.01557327102512684 -0.005271358173199603 -0.0002480742185758642 -0.0009075139773541674 -0.001607403197756021 
0 0 0 0 -0.003505011298380807 0 0 0 0 0 
0 0 0 0 -0.003505011298380807 0 0 0 0 0 
0.224076035915016 -0.09536247821694392 -0.129477436261957 -0.003552779431435189 0 0 0 -0.00256358288358432 0 0 
-0.05221737062534984 -0.06815036187337541 0.1585408982315098 -0.003967528801004684 0 2.710505431213761e-20 -0.005148151228114784 -0.00256358288358432 0 0 
0.224076035915016 -0.09536247821694394 -0.129477436261957 -0.003552779431435189 0 0 0 -0.00256358288358432 0 0 
0.05261228216007373 -0.1856223109241022 0.1837284816820209 -0.003967528801004684 0 2.710505431213761e-20 -0.005148151228114784 -0.00256358288358432 0 0 
0.224076035915016 -0.09536247821694394 -0.129477436261957 -0.003552779431435189 0 0 0 -0.00256358288358432 0 0 
-0.1415078935714965 0.1992181568977301 -0.02916178122345709 -0.0526127663451717 0 0 -0.003417200885180905 -0.004099594892160672 0 -0.0003257267868050872 
0 0.0225403446638758 -0.02916178122345709 0 0 0 0 0 0 0 
0 0.0225403446638758 -0.02916178122345709 0 0 0 0 0 0 0 
0 0 0 0 0 0 0 0 0 0 
0 0 0 0 0 -0.002462771172089543 0 0 0 0 
0 0 0 0 0 0 0 0 0 0 
0 0 0 0 0 0 0 0 0 0 
0.009539056234618901 0 -0.02696907751435845 0 0 0 0 0 0 0 
0.009539056234618901 0 -0.02696907751435845 0 0 0 0 0 0 0 
0.009539056234618901 0 -0.02696907751435845 0 0 0 0 0 0 0 
0.009539056234618901 0 -0.02696907751435845 0 0 0 0 0 0 0 
-0.02980285014081996 0.07246287234038824 -0.00502343047873425 -0.04087536142861302 -0.02034888438935789 -0.01705092996976146 -0.02308994629286682 -0.01526570549258023 -0.01783079673473465 -0.02275599410409735 
0 0 0 -0.01414215003665389 0 0 0 -0.001314404921989803 0 0 
0 0 0 -0.01414215003665389 0 0 0 -0.001314404921989803 0 0 
0 0 0 0 0 0 0 0 0 0 
-0.006658589662130714 0.01863062162923116 0 -0.002707025043399593 -0.003116115183280726 0 0 0 0 0 
0.004343664057847073 0 -0.01077146549314942 0 0 0 0 0 0 0 
0.004343664057847073 0 -0.01077146549314942 0 0 0 0 0 0 0 
0 0 0 -0.0002918728896803277 -0.0100601192475101 0 -0.001991797975501585 -0.004198888488638494 -0.007438530198744645 0 
0 0 0 -0.0002918728896803277 -0.0100601192475101 0 -0.001991797975501585 -0.004198888488638494 -0.007438530198744645 0 
0 0 0 -0.0002918728896803277 -0.0100601192475101 0 -0.001991797975501585 -0.004198888488638494 -0.007438530198744645 0 
0 0 0 -0.0002918728896803277 -0.0100601192475101 0 -0.001991797975501585 -0.004198888488638494 -0.007438530198744645 0 
-0.006658589662130714 0.01863062162923116 0 -0.002707025043399593 -0.003116115183280726 0 0 0 0 0 
-0.1003889041424067 0.1051369891067282 0 -0.0250033965361354 -0.004428576879897844 -8.673617379884035e-19 -0.0009054705326666567 -0.001630524620615046 -0.01037459592358912 0 
-0.006658589662130714 0.01863062162923116 0 -0.002707025043399593 -0.003116115183280726 0 0 0 0 0 
-0.06226430194959745 0.04646078668017764 0 -0.01521597991835349 -0.004428576879897844 0 -0.0009054705326666567 0 -0.01037459592358912 0 
-0.006658589662130714 0.01863062162923116 0 -0.002707025043399593 -0.003116115183280726 0 0 0 0 0 
-0.1047500731674292 -0.09025983270715823 0.1803226104817327 -0.0004147493695694966 0 0 -0.005148151228114784 0 0 0 
0.06671368058751306 0 -0.1328833074622451 0 0 0 0 0 0 0 
0.06671368058751306 0 -0.1328833074622451 0 0 0 0 0 0 0 
0.4002696593744252 -0.2494022895241622 -0.0848866856849783 -0.01720126098810619 -0.0003281054953259966 0 -0.009542257525040657 0 0 -0.0002680573568237193 
0 0 0 0 0 0 0 0 0 0 
0.3116377277139073 -0.1586968323847932 -0.0848866856849783 0 -0.0003281054953259966 0 -0.009542257525040657 0 0 -0.0002680573568237193 
0 0 0 0 0 0 0 0 0 0 
0 0 0 0 0 0 0 0 0 0 
0 0 0 0 0 0 0 0 0 0 
0 0 0 0 0 0 0 0 0 0 
0 0 -0.009032993552500569 0 0 0 0 0 0 0 
0 0 0 0 0 0 0 0 0 0 
-0.04332750164523473 0.08713440836982558 -0.006234339783409548 -0.009543474294450615 -0.01085315981609313 -0.02361747285474016 -0.01713749257560648 -0.009389349964714232 -0.01259168514394934 -0.01479068826921305 
-0.002055579764529507 0.03215249114210944 -0.006234339783409548 -0.00046639929446716 0 0 0 0 0 0 
-0.04332750164523473 0.08713440836982558 -0.006234339783409548 -0.009543474294450615 -0.01085315981609313 -0.02361747285474016 -0.01713749257560648 -0.009389349964714232 -0.01259168514394934 -0.01479068826921305 
-0.002055579764529507 0.03215249114210944 -0.006234339783409548 -0.00046639929446716 0 0 0 0 0 0 
0.142180205000726 -0.1463765653598315 -0.01101595063201693 0 0 0 0 0 0 0 
0 0 0 0 0 0 0 0 0 0 
0 0 0 0 0 0 0 0 0 0 
0.1004857092655565 -0.07493621926871916 3.469446951953614e-18 -0.00856909696121781 -0.009298734979778312 -0.01179167457669165 -0.008216072359466153 -0.002879317126274468 -0.002652135919279857 -0.006391975888007233 
0.1004857092655565 -0.07493621926871916 3.469446951953614e-18 -0.00856909696121781 -0.009298734979778312 -0.01179167457669165 -0.008216072359466153 -0.002879317126274468 -0.002652135919279857 -0.006391975888007233 
0.1004857092655565 -0.07493621926871916 3.469446951953614e-18 -0.00856909696121781 -0.009298734979778312 -0.01179167457669165 -0.008216072359466153 -0.002879317126274468 -0.002652135919279857 -0.006391975888007233 
0.1004857092655565 -0.07493621926871916 3.469446951953614e-18 -0.00856909696121781 -0.009298734979778312 -0.01179167457669165 -0.008216072359466153 -0.002879317126274468 -0.002652135919279857 -0.006391975888007233 
0.2690090505347886 -0.2630154514541627 -0.02063240189389857 -0.00856909696121781 -0.009298734979778312 -0.01179167457669165 -0.008216072359466153 -0.002879317126274468 -0.002652135919279857 -0.006391975888007234 
0.1004857092655565 -0.07493621926871916 0 -0.00856909696121781 -0.009298734979778312 -0.01179167457669165 -0.008216072359466153 -0.002879317126274468 -0.002652135919279857 -0.006391975888007233 
-0.001681728825799957 -0.04373687607338671 0 0 -0.007252066515030441 -0.0004372309031478606 -0.003435944289045481 0 -0.01203182189250025 -0.004161719833290423 
0.01843189297824306 -0.05428211169217946 0 0 0 0 0 0 0 0 
0.01843189297824306 -0.05428211169217946 0 0 0 0 0 0 0 0 
0.01843189297824306 -0.05428211169217946 0 0 0 0 0 0 0 0 
0.03891871863838103 -0.0007626628767523416 -3.469446951953614e-18 -0.02316880796189407 -0.0002837464019772977 -0.004344374065174888 -0.03211003251746392 -0.003423986841123187 -0.002334514362645961 -0.007556672978239391 
0.03436835962001593 -0.04667124761857882 0 0 0 0 0 0 0 0 
0.03436835962001593 -0.04667124761857882 0 0 0 0 0 0 0 0 
0.03436835962001593 -0.04667124761857882 0 0 0 0 0 0 0 0 
0.2572548093901465 -0.3001347297329479 0.1733643259686289 -0.08171128164224746 -0.000578594440075905 -0.01050922858638872 -0.05366777745128188 -0.01645886623183937 -0.001910604155342856 -0.003583750982975854 
0.425939250008206 -0.07282745824990622 -0.3120109873303034 -0.01952902004171966 0 0 -0.004251445344682354 0 -0.001860568058812391 -5.067094889255684e-05 
0.4349741879985572 -0.2573517828218224 -0.06398101856037537 -0.08171128164224746 -0.000578594440075905 -0.01050922858638872 -0.05366777745128188 -0.01645886623183937 -0.001910604155342856 -0.003583750982975854 
-0.06120626509447185 0.05016215654316396 0 0.022019946761518 -0.0004049134109589428 -0.001066651173726958 -0.003694809343594334 -0.002630201210995228 -0.007166714225463612 -0.005711079348827776 
-0.06120626509447185 0.05016215654316396 0 0.022019946761518 -0.0004049134109589428 -0.001066651173726958 -0.003694809343594334 -0.002630201210995228 -0.007166714225463612 -0.005711079348827776 
-0.06120626509447185 0.1145091151818315 0 -0.0746283104935839 -0.0004049134109589428 -0.001066651173726958 -0.003694809343594334 -0.002630201210995228 0 -0.005711079348827776 
-0.06120626509447185 0.1145091151818315 0 -0.0746283104935839 -0.0004049134109589428 -0.001066651173726958 -0.003694809343594334 -0.002630201210995228 0 -0.005711079348827776 
0.04147804375957285 -0.07773280905745422 0 0 0 0 0 0 0 0 
0.04147804375957285 -0.07773280905745422 0 0 0 0 0 0 0 0 
0.04147804375957285 -0.07773280905745422 0 0 0 0 0 0 0 0 
-0.08229007726624486 0.1936097474313198 -0.05217735783463761 -0.01876520958843991 0 -0.04314725623062961 -0.009209795443334286 -0.002138622204309002 -0.004044078796555258 -0.01707336388181846 
0.04147804375957285 -0.07773280905745422 0 0 0 0 0 0 0 0 
0.03449102719664032 0 0 0 0 0 0 0 0 0 
0.03449102719664032 0 0 0 0 0 0 0 0 0 
0.03449102719664032 0 0 0 0 0 0 0 0 0 
0.03449102719664032 0 0 0 0 0 0 0 0 0 
-0.03073217553637958 0.09425825111340415 -0.01545516543594238 -0.01778166559391771 -0.001322128334613559 0 0 0 -0.006340951359416468 0 
0.05114149010966243 0 -0.01545516543594238 0 0 0 0 0 0 0 
0.05114149010966243 0 -0.01545516543594238 0 0 0 0 0 0 0 
-0.1717164199746013 0.238491797656317 -0.0251875834505111 -0.02202555096966739 0 0 0 0 0 0 
-0.1048296527854236 0.1174719490507268 -0.0251875834505111 0 0 0 0 0 0 0 
-0.1048296527854236 0.1174719490507268 -0.0251875834505111 0 0 0 0 0 0 0 
0 0.0430567868192796 0 0 0 0 0 -0.008599858988043357 0 0 
0 0 0 0 0 0 0 0 0 0 
0 0 0 0 0 0 0 0 0 0 
-0.02583475896974079 -0.06434695863866757 0 0.1509474167535689 0 0 0 0 -0.01450089459245386 0 
-0.02583475896974079 -0.06434695863866757 0 0.1509474167535689 0 0 0 0 -0.01450089459245386 0 
0 -0.06434695863866757 0 0.0966482572551019 0 0 0 0 -0.007166714225463612 0 
-0.0651415345720795 0.2056689186359945 -0.1070873981463435 -0.06216145669378999 -0.001252687157360805 -0.04314725623062961 -0.01306454696312611 -0.005957806231026178 -0.000950161388622638 -0.01082162988505082 
-0.1166032813234286 0.0745258065811899 0 -0.01920399486014756 -3.56675839088825e-05 0 0 -0.0007643155832210001 -0.000950161388622638 -0.004180915356793064 
0.02286464676879288 0.02578158002252156 -0.07131005862126703 -0.01920399486014756 -3.56675839088825e-05 0 0 -0.0007643155832210001 -0.000950161388622638 -0.004180915356793064 
-0.1166032813234286 0.0745258065811899 0 -0.01920399486014756 -3.56675839088825e-05 0 0 -0.0007643155832210001 -0.000950161388622638 -0.004180915356793064 
0 -0.2039858201009283 -0.002085785963844825 -0.03029503294147856 0 0.2868133881337673 -0.04075103704792247 -0.008997060443615737 0 0 
0 -0.2039858201009283 -0.002085785963844825 -0.03029503294147856 0 0.2868133881337673 -0.04075103704792247 -0.008997060443615737 0 0 
0 -0.2039858201009283 -0.002085785963844825 -0.03029503294147856 0 0.2868133881337673 -0.04075103704792247 -0.008997060443615737 0 0 
0 -0.2039858201009283 -0.002085785963844825 -0.03029503294147856 0 0.2868133881337673 -0.04075103704792247 -0.008997060443615737 0 0 
-0.06752270752945187 -0.1521958854849464 -0.007937526971360707 -0.02434620499975528 0 0.2544235614671475 -0.001859313213660933 -0.000306089175733782 0 0 
-0.06752270752945187 -0.1521958854849464 -0.007937526971360707 -0.02434620499975528 0 0.2544235614671475 -0.001859313213660933 -0.000306089175733782 0 0 
-0.06752270752945187 -0.1521958854849464 -0.007937526971360707 -0.02434620499975528 0 0.2544235614671475 -0.001859313213660933 -0.000306089175733782 0 0 
-0.06752270752945187 -0.1521958854849464 -0.007937526971360707 -0.02434620499975528 0 0.2544235614671475 -0.001859313213660933 -0.000306089175733782 0 0 
-0.06752270752945187 -0.1521958854849464 -0.007937526971360707 -0.02434620499975528 0 0.2544235614671475 -0.001859313213660933 -0.000306089175733782 0 0 
-0.01110055270747618 0.00144495931569296 0 -0.005165433522231266 0 0 0 -0.002336486129464384 0 0 
0.08487845130039798 -0.07902873016155296 0 0 0 0 0 0 0 0 
0.08487845130039798 -0.07902873016155296 0 0 0 0 0 0 0 0 
0 0 0 0 0 0 0 0 0 0 
0 0 0 0 0 0 0 0 0 0 
0.07697249159483918 -0.0198616484107929 -0.05010997034421127 0 0 0 0 0 0 0 
0 0 -0.04373141042848966 0 0 0 -0.008343178563800456 0 0 0 
0 0 -0.04373141042848966 0 0 0 -0.008343178563800456 0 0 0 
0 0 -0.04373141042848966 0 0 0 -0.008343178563800456 0 0 0 
0 0 -0.04373141042848966 0 0 0 -0.008343178563800456 0 0 0 
0.09002168491252813 -0.01467658019630345 -0.04972426840910592 -0.02089234166198544 0 0 -0.008343178563800456 -0.007706070564666545 0 -0.01292810349229039 
-0.09767895248615424 -0.01059664333110945 -0.01182973352083441 -0.04018745794074938 -0.001222320367622111 -0.04311886770231874 0.2125762471482759 -0.01314487754166457 -0.009010264970355937 -0.003186650490308701 
-0.06424500969657791 -0.1176850887316367 -0.01182973352083441 -0.01117738120723365 0 -0.04311886770231874 0.250009219582602 -0.01314487754166457 0 -0.003186650490308701 
-0.06424500969657791 -0.1176850887316367 -0.01182973352083441 -0.01117738120723365 0 -0.04311886770231874 0.250009219582602 -0.01314487754166457 0 -0.003186650490308701 
-0.06424500969657791 -0.1176850887316367 -0.01182973352083441 -0.01117738120723365 0 -0.04311886770231874 0.250009219582602 -0.01314487754166457 0 -0.003186650490308701 
-0.06424500969657791 -0.1176850887316367 -0.01182973352083441 -0.01117738120723365 0 -0.04311886770231874 0.250009219582602 -0.01314487754166457 0 -0.003186650490308701 
-0.01511486041874942 0.06064704124701727 -0.001928808152809034 0 -0.0370512890409231 0 -0.0006180455864103528 0 0 0 
-0.01511486041874942 0.05850754291794538 -0.001928808152809036 0 -0.0370512890409231 0 -0.0006180455864103528 0 0 0 
