solver_type L2R_L2LOSS_SVC_DUAL
nr_class 4
label 1 2 3 4
nr_feature 99
bias -1
w
0.1158282601005706 -0.08112329950051178 -0.03153543640653144 -0.04709306613623492 
0.1637195805282252 -0.01159684747425779 -0.1097749341552944 -0.1776872369967382 
-0.06656070849760182 -0.09057192421124155 -0.1639903765550005 -0.08326470924042076 
0.1158282601005706 -0.08112329950051178 -0.03153543640653144 -0.04709306613623492 
0.1158282601005706 -0.08112329950051178 -0.03153543640653144 -0.04709306613623492 
0.1158282601005706 -0.08112329950051178 -0.03153543640653144 -0.04709306613623492 
0.3389179130382152 -0.2463467173294132 -0.05952600893242735 -0.1001468496025382 
0.1158282601005706 -0.08112329950051178 -0.03153543640653144 -0.04709306613623492 
0.1158282601005706 -0.08112329950051178 -0.03153543640653144 -0.04709306613623492 
-0.06656070849760182 -0.09057192421124155 -0.1639903765550005 -0.08326470924042076 
-0.03515097774458308 -0.0431944828208155 -0.129705758469306 -0.1320625257245038 
-0.09109769103352996 0.008241724366548474 -0.1663951494603867 -0.1221366774095235 
-0.1751983325099901 0.2347498698551554 -0.05024892522286709 -0.07754038739420008 
-0.08723802800594994 0.1179959772303073 -0.02418642621433761 -0.04085316430237215 
-0.08723802800594994 0.1179959772303073 -0.02418642621433761 -0.04085316430237215 
-0.1751983325099901 0.2347498698551554 -0.05024892522286709 -0.07754038739420008 
-0.1751983325099901 0.2347498698551554 -0.05024892522286709 -0.07754038739420008 
-0.08723802800594994 0.1179959772303073 -0.02418642621433761 -0.04085316430237215 
-0.08723802800594994 0.1179959772303073 -0.02418642621433761 -0.04085316430237215 
0.2184363706105406 -0.2463042106197156 -0.06596000275296778 0.02729449453300961 
0.03428495163235869 0.1359890145661408 -0.1159751660846581 -0.1679778228284858 
0.03889394136724231 -0.01114109466022226 -0.01725991504625421 -0.05427199821793382 
0.2381590668683167 -0.2219842232517576 0 -0.03382402594637774 
0.2935744418220809 -0.2172257743923036 -0.04947915250097984 -0.07674436090821908 
0.03428495163235869 0.1359890145661408 -0.1159751660846581 -0.1679778228284858 
0.03889394136724231 -0.01114109466022226 -0.01725991504625421 -0.05427199821793382 
0.2381590668683167 -0.2219842232517576 0 -0.03382402594637774 
0.1644174050544256 -0.133738812458598 -0.03457888559104103 -0.02234878424060766 
0.1644174050544256 -0.133738812458598 -0.03457888559104103 -0.02234878424060766 
0.1644174050544256 -0.133738812458598 -0.03457888559104103 -0.02234878424060766 
0.1644174050544256 -0.133738812458598 -0.03457888559104103 -0.02234878424060766 
0.1644174050544256 -0.133738812458598 -0.03457888559104103 -0.02234878424060766 
0.1644174050544256 -0.133738812458598 -0.03457888559104103 -0.02234878424060766 
0.1377026861715576 -0.1858810113399074 0.06252270823499527 -0.1103381360396656 
-0.1642601876732642 -0.1138012954815268 0.2931614926540322 -0.09013803367443325 
-0.0821300938366321 -0.05690064774076342 0.1465807463270161 -0.04506901683721663 
-0.0821300938366321 -0.05690064774076342 0.1465807463270161 -0.04506901683721663 
-0.0821300938366321 -0.05690064774076342 0.1465807463270161 -0.04506901683721663 
-0.0821300938366321 -0.05690064774076342 0.1465807463270161 -0.04506901683721663 
-0.0821300938366321 -0.05690064774076342 0.1465807463270161 -0.04506901683721663 
-0.0821300938366321 -0.05690064774076342 0.1465807463270161 -0.04506901683721663 
-0.08796030450404006 0.1167538926248482 -0.02606249900852947 -0.03668722309182793 
-0.08796030450404006 0.1167538926248482 -0.02606249900852947 -0.03668722309182793 
-0.08796030450404006 0.1167538926248482 -0.02606249900852947 -0.03668722309182793 
-0.08796030450404006 0.1167538926248482 -0.02606249900852947 -0.03668722309182793 
0.2321864538575362 -0.2110789407553352 -0.01743776488444519 -0.01752590527174556 
-0.2863013086219848 0.3294906322720776 -0.03698970463965549 -0.02453178578056422 
0.2321864538575362 -0.2110789407553352 -0.01743776488444519 -0.01752590527174556 
0.2321864538575362 -0.2110789407553352 -0.01743776488444519 -0.01752590527174556 
-0.176771078903772 0.2158373896147891 -0.03204138761653464 -0.02539442969009578 
0.341716683575749 -0.3247321834126236 -0.01248944786132435 -0.01838854918127712 
-0.176771078903772 0.2158373896147891 -0.03204138761653464 -0.02539442969009578 
0.341716683575749 -0.3247321834126236 -0.01248944786132435 -0.01838854918127712 
-0.518487762479521 0.5405695730274127 -0.01955193975521029 -0.007005880508818662 
-0.07588734485699451 -0.08160756594452331 -0.03405555430438144 0.1546326954967081 
-0.1072970756100133 -0.1289850073349493 -0.06834017239007593 0.2034305119807913 
-0.07588734485699451 -0.08160756594452331 -0.03405555430438144 0.1546326954967081 
-0.07588734485699451 -0.08160756594452331 -0.03405555430438144 0.1546326954967081 
-0.1072970756100133 -0.1289850073349493 -0.06834017239007593 0.2034305119807913 
-0.07588734485699451 -0.08160756594452331 -0.03405555430438144 0.1546326954967081 
-0.1824351468215536 -0.1580634435623611 -0.08482102264206386 0.30746936742202 
-0.03140973075301879 -0.04737744139042602 -0.0342846180856945 0.04879781648408324 
-0.1065478019645591 -0.07645587761783788 -0.05076546833768245 0.1528366719253119 
-0.03140973075301879 -0.04737744139042602 -0.0342846180856945 0.04879781648408324 
-0.03140973075301879 -0.04737744139042602 -0.0342846180856945 0.04879781648408324 
-0.1065478019645591 -0.07645587761783788 -0.05076546833768245 0.1528366719253119 
-0.03140973075301879 -0.04737744139042602 -0.0342846180856945 0.04879781648408324 
-0.03140973075301879 -0.04737744139042602 -0.0342846180856945 0.04879781648408324 
0.2230896529376445 -0.1652234178289014 -0.0279905725258959 -0.05305378346630327 
0.1382222203517324 -0.1190542377146602 -0.02558579962050955 -0.03325996110307219 
-0.176080259770575 0.222916535010351 -0.05750292761314684 -0.0830664929768597 
0.2230896529376445 -0.1652234178289014 -0.0279905725258959 -0.05305378346630327 
0.1382222203517324 -0.1190542377146602 -0.02558579962050955 -0.03325996110307219 
0.1382222203517324 -0.1190542377146602 -0.02558579962050955 -0.03325996110307219 
0.08486743258591214 -0.04616918011424122 -0.002404772905386343 -0.01979382236323108 
0.08486743258591214 -0.04616918011424122 -0.002404772905386343 -0.01979382236323108 
0.08486743258591214 -0.04616918011424122 -0.002404772905386343 -0.01979382236323108 
0.08486743258591214 -0.04616918011424122 -0.002404772905386343 -0.01979382236323108 
-0.07513807121154031 -0.02907843622741184 -0.01648085025198794 0.1040388554412287 
-0.07513807121154031 -0.02907843622741184 -0.01648085025198794 0.1040388554412287 
-0.07513807121154031 -0.02907843622741184 -0.01648085025198794 0.1040388554412287 
-0.07513807121154031 -0.02907843622741184 -0.01648085025198794 0.1040388554412287 
-0.07513807121154031 -0.02907843622741184 -0.01648085025198794 0.1040388554412287 
-0.07513807121154031 -0.02907843622741184 -0.01648085025198794 0.1040388554412287 
-0.07513807121154031 -0.02907843622741184 -0.01648085025198794 0.1040388554412287 
-0.1992651255010744 0.2108431285915353 -0.01725991504625422 -0.02044797227155609 
-0.1992651255010744 0.2108431285915353 -0.01725991504625422 -0.02044797227155609 
-0.1992651255010744 0.2108431285915353 -0.01725991504625422 -0.02044797227155609 
-0.115037354621233 0.1311276441334759 -0.01465721294638306 -0.02935855960223138 
-0.115037354621233 0.1311276441334759 -0.01465721294638306 -0.02935855960223138 
-0.115037354621233 0.1311276441334759 -0.01465721294638306 -0.02935855960223138 
-0.115037354621233 0.1311276441334759 -0.01465721294638306 -0.02935855960223138 
-0.115037354621233 0.1311276441334759 -0.01465721294638306 -0.02935855960223138 
-0.1094044151218403 0.1449828286920312 0 -0.0190781458058716 
-0.1094044151218403 0.1449828286920312 0 -0.0190781458058716 
-0.1094044151218403 0.1449828286920312 0 -0.0190781458058716 
-0.1094044151218403 0.1449828286920312 0 -0.0190781458058716 
-0.1094044151218403 0.1449828286920312 0 -0.0190781458058716 
-0.1094044151218403 0.1449828286920312 0 -0.0190781458058716 
