solver_type L2R_L2LOSS_SVC_DUAL
nr_class 1
label 1
nr_feature 44
bias -1
w
0.03519631319404542 
0.0672932369337596 
0.1457559908265251 
0.03519631319404542 
0.0672932369337596 
0.03519631319404542 
0.0672932369337596 
0.03519631319404542 
0.03519631319404542 
0.08565107426467475 
0.1457559908265251 
0.2242187447192908 
0.02824595725710864 
0.02824595725710864 
0.02824595725710864 
0.02824595725710864 
0.02824595725710864 
0.02824595725710864 
0.02824595725710864 
0.02824595725710864 
0.02824595725710864 
0.03209692373971419 
0.03209692373971419 
0.03209692373971419 
0.03209692373971419 
0.03209692373971419 
0.03209692373971419 
0.03185895930474184 
0.03185895930474184 
0.03185895930474184 
0.03185895930474184 
0.03185895930474184 
0.03185895930474184 
0.03185895930474184 
0.03185895930474184 
0.01835783733091512 
0.01835783733091512 
0.01835783733091512 
0.01835783733091512 
0.01835783733091512 
0.01835783733091512 
0.01835783733091512 
0.01835783733091512 
0.01835783733091512 
