solver_type L2R_L2LOSS_SVC_DUAL
nr_class 2
label 1 2
nr_feature 2161
bias -1
w
0.0003159876837087898 
0.01094639538171547 
0.3485572369158199 
0.06024687389653448 
0.004936939202166049 
0 
0.01060207237712855 
0.052259667818928 
0 
0.3485572369158199 
0.04186665477036891 
0.1301883847467706 
0.06053842096590655 
0 
0.01070533446047533 
0.02343994229029882 
0 
0 
0 
0.08705756611732995 
-0.01743012790803361 
0.0222679247776331 
0.05071395230116985 
0 
0 
0.02134477419859656 
0.05071395230116985 
0 
0.0100883819408928 
0 
0 
0 
0 
0 
0 
0 
-0.03617953757068395 
0.007987206077606494 
0 
0.02581181472660056 
0 
0 
0.02581181472660056 
0 
0 
0.05315816974248493 
0 
0 
0 
0 
0 
0 
0 
0 
0.05509143781044509 
0.05808896758531265 
0.01313752180391025 
0.01060207237712855 
0.003204975175629109 
0 
0 
0 
0 
0 
0.009042440288508272 
0.006607664951602135 
0.04137769020236451 
0.0274326519024878 
0.006607664951602135 
0.006607664951602135 
0.04137769020236451 
0.0274326519024878 
-0.1125077163816989 
-0.1374396357490207 
0.08612237256251205 
0.06779139740001169 
0 
0.005530265224306017 
0.01342820802450777 
0 
0.001827680963785302 
0 
0 
0 
0.03911988195912633 
0 
0 
0 
0.04571552711227513 
0 
0.003829353702594374 
0.01461233440124845 
0 
0 
0 
0 
0 
0 
0 
0 
0 
0 
0 
0 
0 
0 
0.01916962556178563 
0.0002628006014447369 
0.02724354586474408 
0.0103843415153886 
0.0002628006014447369 
0.0002628006014447369 
0.01185831500148258 
0.0002628006014447369 
0.01086787780820108 
0 
0 
0 
0 
0.003981598222502714 
0 
0 
0.003981598222502715 
0 
0.01366255969347394 
0 
0 
0 
2.602085213965211e-18 
0 
0.0124004831432184 
0 
0 
0 
0 
0 
0 
0.02652138216677289 
0.02376377298493155 
0 
0.01563666430026125 
0 
0.0796473539343843 
0 
0.002657808102405554 
0.005288333553931272 
0.003870990430259126 
0 
0.002657808102405554 
0.004316967236418046 
0 
0.03137851273180181 
0.02024783877704599 
0.005599164613229463 
0 
0 
0.02024783877704599 
0.002434775336906137 
0 
0.0002075812228570117 
0.04409899334989504 
0.006418377759457595 
0 
0.0371136305071945 
0.006418377759457597 
0 
0.00502898906809021 
0 
0 
0 
0 
0 
0.020020920321123 
0 
0.03128561086677913 
0.05119470752601199 
0.008026573098860238 
0.007818991876003226 
0.007818991876003226 
0.03664014923368134 
0.008026573098860238 
0.007818991876003226 
0.01083449382456039 
0.05602262069946984 
0 
0 
0 
0 
0 
0.00103679562377932 
0.02095068631722641 
0.004180325398660674 
0 
0.004180325398660674 
0 
0 
0 
0 
0 
0 
0.01159551440003785 
0.0152736667982982 
0.003678152398260352 
0.01159551440003785 
0.0152736667982982 
0.01778219932338486 
0.003678152398260352 
0.0002111871895315568 
0.0002111871895315568 
0.0002111871895315568 
0.0002111871895315568 
0.0002111871895315568 
0.003743888347159691 
0 
0 
0.002657808102405554 
0 
0 
0.1365940677168307 
0.09347702146377837 
0.002657808102405554 
0.002657808102405554 
0.002657808102405554 
0.002657808102405554 
0 
0 
0 
0 
0 
0 
0.006316696037756948 
0.006316696037756948 
0.006316696037756948 
0.01961903583032924 
0 
0 
0.01961903583032924 
0 
0 
0.005064477537998581 
0.005064477537998583 
0 
0.05060520114138357 
0.005064477537998584 
0.005064477537998584 
0.04292705638499803 
0.02057563778569837 
0 
0 
0.01047534315861321 
0 
0 
0 
0 
0 
0.002105962431890979 
0 
0 
0 
0 
0.0002466820029843927 
0.0009231505790365506 
0 
0 
0.0009231505790365496 
0 
0.0002075812228570117 
0 
0 
0 
0 
0 
0 
0 
0.009042430465451064 
0.008078297565403384 
0.008324979568387781 
0.008078297565403387 
0 
0 
6.505213034913027e-19 
0 
0.005064477537998584 
0.001036795623779317 
0.003079569225233247 
0 
0 
0 
0 
0 
0.0003600480327151204 
0 
0 
0 
0.003957671564995063 
0.009107574469132998 
0.0007174508970632838 
0.0007174508970632838 
0.001004162581482318 
0.0007174508970632838 
0.0007174508970632858 
0.006316696037756948 
0.006316696037756948 
0.006316696037756948 
0.006316696037756948 
0.006316696037756948 
0.006316696037756948 
0.006316696037756948 
0.006316696037756948 
0.0008320592702905387 
0.0008320592702905378 
0.0008320592702905378 
0.0008320592702905378 
0.0008320592702905378 
0.0008320592702905378 
0 
0 
0.0005934861159501887 
0.0005934861159501887 
0.0005934861159501887 
0.0005934861159501887 
0 
0.00146591242679679 
0 
0 
0 
0 
0 
0.02346661899077591 
0 
0 
-1.734723475976807e-18 
0 
0 
0 
0.03642322233711699 
0 
0.009651987796961619 
0.002482999855722067 
0 
0.0146165584648421 
0 
0 
0 
0.001941886586454577 
0 
0.001215854374415561 
0.02490925437601216 
0.003107726646925802 
0 
0 
0.003107726646925802 
0 
0.01945129020991409 
0.003006629626898473 
0.02666045221183304 
0.003006629626898473 
0.003006629626898473 
0.01878307822105709 
0.01563666430026125 
0 
0 
0 
0 
8.673617379884035e-19 
0 
0 
0 
0 
0 
0 
0 
0.004656864069241728 
0 
0.004656864069241728 
0 
0 
0 
0 
0 
0 
0 
0 
1.084202172485504e-19 
0 
0 
0.02059030964575084 
0 
0 
0 
0.01732144744394386 
0 
0.005495595433462589 
0.01029631545357019 
0 
0 
0.005495595433462588 
0 
0 
0.001536295730758306 
0.005495595433462588 
0 
0.01426820727919246 
0 
-2.168404344971009e-19 
0 
0 
0 
0.02047004381988715 
0 
0 
0 
0 
0.00169332534250511 
0 
0 
0 
0 
0.01421799972986311 
0.0131060789508585 
0.0131060789508585 
0.0131060789508585 
0.0131060789508585 
0.0131060789508585 
0 
0 
0.02428668041258353 
0.003702584260520711 
0.02173774829824597 
0 
0.003702584260520711 
0 
0 
0 
0 
0 
0 
0 
0 
0 
0 
0 
0.004823933442136049 
0.007364064503527367 
0 
0 
0 
0 
0 
0 
0 
0 
0 
0.02059030964575084 
0 
0 
-3.306816626080789e-18 
0 
0.0100883819408928 
0 
0 
0 
0 
0 
0.02856687071607216 
0 
0 
0.01816770218138343 
0 
0.1365940677168307 
0 
0 
0 
0.002896344161413096 
0.002896344161413096 
0 
0 
0.001111920779004608 
0.001036795623779317 
0.001036795623779317 
0.001036795623779317 
0.001036795623779317 
0.001036795623779317 
0 
0.004788900055817444 
0 
0.02581181472660056 
0 
0 
0 
1.734723475976807e-18 
0.004823933442136049 
0.004823933442136047 
1.734723475976807e-18 
0 
0.003829353702594372 
0.03060058824274975 
0.003829353702594372 
0.003829353702594372 
0.003829353702594372 
0 
0 
0.003079569225233248 
0 
0 
0 
0 
0 
0.007548988657238257 
0.007548988657238252 
0.007548988657238252 
0.007548988657238252 
0 
0 
0 
0 
0 
0.01333058187115442 
0 
0 
0 
0.02991015280912218 
0.01902543494261055 
0 
0 
0 
0 
0.004126432163319147 
0.003078618304323934 
0.00146591242679679 
0.00146591242679679 
0.004126432163319147 
0.000265202997858343 
0 
0 
0 
0 
0 
0 
0 
0.004439194103265642 
0 
0 
0 
0.01394503829987669 
0 
0.01394503829987669 
0 
0 
0 
0 
0 
0 
0 
0 
0.002105962431890979 
0 
0 
0.001536295730758306 
0 
0 
0 
0 
0 
0.001987859303892528 
0.003899494902190965 
0 
0 
0 
0 
0.01185819650786562 
0 
0.01185819650786562 
0.1157302881128038 
0.0206492326964513 
-0.2134048046192896 
0.0206492326964513 
0.0206492326964513 
0.05114774703992338 
0.01605995861743448 
0.01605995861743448 
0.01605995861743448 
0.01605995861743448 
0.01605995861743448 
0.01634667030185352 
0 
0 
0 
0 
0 
0 
0.0121116395831332 
0.01170274785398487 
0.003124744639212984 
0.003124744639212984 
0.003124744639212984 
0.003124744639212984 
0 
0 
0 
0 
0 
0 
0 
0 
0 
0.002434775336906137 
0.002434775336906137 
0.002434775336906137 
0.002434775336906137 
0.002434775336906137 
0.004192512100281249 
0.004192512100281249 
0.004192512100281249 
0.004192512100281249 
0.004192512100281249 
0.004192512100281249 
0.004192512100281249 
0 
0 
0 
0.01088471786651163 
0.01287686420607197 
0 
0 
0 
0 
0.01158042172141077 
0.02118908648796833 
0.01158042172141077 
0.01158042172141077 
0.01158042172141077 
0.01158042172141077 
0 
0 
0.001488040772504316 
0 
0 
0 
0 
0.001488040772504316 
0 
0.001488040772504316 
0 
0 
0 
0 
0 
0 
0 
0 
0.03371652187542627 
0.0008200614218076256 
0.0008200614218076254 
0.0008200614218076254 
0.0008200614218076254 
0.0008200614218076254 
0 
0 
0.002105962431890979 
0 
2.602085213965211e-18 
0 
2.602085213965211e-18 
0.01424910645271645 
0.02346661899077591 
0.01424910645271645 
0.007377379675611665 
0.007377379675611665 
0.007377379675611665 
0.007994332195194194 
0.008103411887650682 
0.007377379675611665 
0.01968868086593266 
0.0006169525195825255 
0.01968868086593266 
0.0006169525195825255 
0 
0 
0 
0 
0 
0 
0 
0 
0 
0 
0.01287686420607196 
0.01287686420607196 
0 
0.01287686420607196 
0.01287686420607196 
0.01102378791157178 
0.01102378791157178 
0.01102378791157178 
0.01102378791157178 
0.01102378791157178 
0 
0 
0 
0.003240220667931777 
0 
0 
0 
0.009472493639784958 
0.00314641392079584 
0 
-4.336808689942018e-19 
0 
0 
0.003006629626898473 
0 
0 
0 
0 
0 
0 
0 
0 
0 
0 
0 
0 
0 
0 
0 
0.02581181472660056 
0.01106100307049395 
0 
0 
0.01106100307049395 
0 
0 
0.003079569225233248 
0.003079569225233248 
0.003079569225233248 
0.003079569225233248 
0 
0 
0 
0.007364064503527367 
0 
0 
0.007057601703065688 
0 
0.004936939202166052 
0 
0 
0 
0 
0 
0.01060207237712855 
0 
0 
0 
0 
0 
0 
0 
0 
0 
0 
0 
3.252606517456513e-19 
0.02047004381988715 
3.252606517456513e-19 
0.0004491234987641523 
0.02047004381988715 
0 
0 
0 
0 
0 
0 
0 
0 
0 
0 
0 
0 
0 
0.007859415305177265 
0 
0 
0 
0 
0.007741319965921017 
0.007741319965921017 
0.007741319965921017 
0.007741319965921017 
0.01614243618677291 
0.00857800321477188 
0 
0 
0 
0 
0 
0 
0.003702584260520711 
0.003702584260520711 
0.003702584260520711 
0.003702584260520711 
0.003702584260520711 
0 
0 
0 
0 
0 
0.009472493639784958 
0 
0 
0 
0 
0 
0 
0 
0.000766650447601337 
0 
0 
0 
0 
0 
0 
0 
0.01287686420607197 
0.01287686420607197 
0.01287686420607197 
0 
0.007566613369766605 
0 
0 
0 
0 
0 
0 
0 
0 
0 
0 
0 
0 
0 
0 
0 
0 
-2.168404344971009e-18 
-0.1412776434706852 
-0.08953992037663967 
0.1922335990457703 
-0.1412776434706852 
-0.09660380455515398 
0.1922335990457703 
0.09508105541635251 
-0.529793210648045 
-0.529793210648045 
0 
0 
0 
0 
0 
0.001215854374415561 
0 
0 
0 
0 
0 
0 
0 
0 
0 
0 
0 
0 
0 
0.0002075812228570117 
0.0002075812228570117 
0.0002075812228570117 
0.0002075812228570117 
0 
1.084202172485504e-19 
0 
0.004936939202166052 
0.004936939202166052 
0 
0 
0 
0 
0 
0 
0 
0 
0 
0 
0 
0 
0.03049851434347208 
0 
0.1365940677168307 
0 
0 
0 
0 
0 
0 
0 
0.001987859303892528 
0.001987859303892528 
0.001987859303892528 
0.001987859303892528 
0.001987859303892528 
0.001987859303892528 
0.001987859303892528 
0 
0.01775874832204428 
0.00314641392079584 
0.007859415305177269 
0.00314641392079584 
0 
0 
0.01366255969347394 
0 
-2.168404344971009e-19 
0 
0 
0 
0 
0 
0 
0.003310651112531794 
0.003310651112531795 
0.003310651112531795 
0.003310651112531795 
0 
0 
0 
0.00663408953759995 
0.009117089393322016 
0.00663408953759995 
0.00663408953759995 
0 
0 
0 
0 
0 
0 
0 
0 
0 
0 
0 
0.0100883819408928 
0 
0 
0 
0 
0 
0 
0.01399092811695147 
0 
0.01209705882803046 
0.000766650447601337 
0.000766650447601337 
0 
0 
0 
0 
0 
0.007168987941239555 
0 
0 
0 
0 
0 
0 
0 
0.01047534315861321 
0 
0 
0 
0 
0 
0 
0 
0 
0 
0 
0 
0 
0 
0 
0 
0 
0 
0 
0 
0 
0 
0.004113069333094964 
0 
0 
0.0002257286403928525 
0.0002257286403928525 
0.0002257286403928525 
0.0002257286403928525 
0.0002257286403928525 
0 
0 
0 
0 
0 
2.168404344971009e-19 
0 
0 
0 
0 
0 
0 
0 
0 
0 
0 
0 
0 
0 
0 
0 
0 
0 
0 
0 
0.02962225576039357 
0 
0.003107726646925802 
0.003107726646925802 
0.003107726646925802 
0 
0 
0 
0 
0 
0 
0 
0 
0 
0 
0 
0 
0 
0 
0.01360345423267555 
0 
0 
0 
0.02024783877704599 
0 
0 
0 
0 
0 
0 
0 
0 
0 
0 
0 
0.01576255300802432 
0 
0 
0 
0.001817514708147631 
0 
0.007454075024488715 
0 
0 
0 
0 
0.0100883819408928 
0.0100883819408928 
0.0100883819408928 
0.0100883819408928 
0.01366255969347394 
0.01366255969347394 
0.01366255969347394 
0.01366255969347394 
0.005064477537998584 
0 
0 
0 
0 
0.01360345423267555 
0 
0 
0.01060207237712855 
0.01060207237712855 
0.01060207237712855 
0.01060207237712855 
0 
0 
0 
0 
0 
0 
0 
0 
0 
0 
0 
0 
0 
0 
0.0113575924106788 
0.0113575924106788 
0.0113575924106788 
0.0113575924106788 
0.0113575924106788 
0 
0 
0 
0 
0 
0.02024783877704599 
0 
0 
0.02024783877704599 
0 
0 
0 
0 
0 
0 
0.02490925437601216 
0 
0 
0 
0 
0 
0.01088471786651163 
0 
0 
0 
0 
0 
0 
0 
0 
0 
0 
0.02173774829824598 
0 
0 
0 
0 
0 
0 
0 
0 
0 
0 
0 
0 
0 
0 
0 
0 
0.003240220667931777 
0 
0 
0 
0 
0 
0 
0 
0 
0 
0 
0 
0 
0 
0 
0.02024783877704599 
0 
0 
0 
0.05968790041475883 
0 
0 
0 
0 
0 
0.007454075024488715 
0 
0 
0 
0 
0 
0 
0 
0 
0 
0 
0 
0 
0 
0 
0 
0 
0 
0 
0 
0.003678152398260352 
0 
0 
0.02173774829824598 
0.02173774829824598 
0.02173774829824598 
0 
0.0127499507510068 
0 
0 
0.0009713663175132245 
0 
0 
0 
0 
0 
0 
0 
0 
0 
0 
0 
0 
0 
0 
0 
0 
0 
0 
0 
0.01223243737769859 
0.01133040838042912 
0.01133040838042912 
0 
0 
0 
0 
0.007554732698182761 
0.007554732698182761 
0.007554732698182761 
0.007554732698182761 
0.007554732698182761 
0 
0 
0 
0 
0 
0 
0 
0 
-0.2921751081485543 
-0.3179869228751548 
-0.3179869228751548 
-0.3179869228751548 
-0.3179869228751548 
0.001488040772504316 
0 
0.001488040772504316 
0 
0 
0 
0 
0.00857800321477188 
0.00857800321477188 
0.00857800321477188 
0 
0 
0.02024783877704599 
0.02024783877704599 
0.01328929733733173 
0.004656864069241728 
0.01182585201048128 
0.004656864069241728 
0 
0 
0 
0 
0 
0 
-1.572093150103981e-18 
0 
0 
0 
0 
0 
0 
0 
0 
0 
-4.336808689942018e-19 
0.004936939202166052 
0 
0.004936939202166052 
0 
0 
0 
0 
0.02677123454015538 
0 
0 
0 
0 
0 
0 
0 
0 
0 
0 
0 
0 
0.003164389276323324 
0 
0 
0 
0 
0.01047534315861321 
0.01047534315861321 
0.01047534315861321 
0.0002867116844190342 
0.0002867116844190342 
0.0002867116844190342 
0.0002867116844190342 
0.0007260322120390159 
0.0007260322120390159 
0.001086080244754135 
0.0007260322120390159 
0 
0 
0 
0 
0 
0 
0 
0 
0 
0 
0 
3.252606517456513e-19 
3.252606517456513e-19 
0.09715254362941779 
0.09715254362941779 
0 
0 
0 
0 
0 
0 
0 
0 
0 
0 
0 
0 
0 
0 
0 
0.00281341530646559 
0.00281341530646559 
0.00281341530646559 
0.00281341530646559 
0.00281341530646559 
0 
0 
0 
0 
0.009472493639784958 
0.009472493639784958 
0 
0 
0 
0 
0 
0 
0 
0 
0 
0 
0 
0.01455455829233065 
0 
0.02490925437601216 
0.02490925437601216 
0.02490925437601216 
0.02490925437601216 
0 
0 
0 
0 
0 
0 
0 
0 
0 
0.001286722927618893 
0 
0 
0 
0 
0 
3.252606517456513e-19 
0 
0 
0 
0 
0.01563666430026125 
0 
0 
0 
0 
0 
0 
0 
0 
0 
0 
0 
0 
0.001817514708147631 
0.001817514708147631 
0.001817514708147631 
0.007987206077606494 
0.0009231505790365496 
0.0009231505790365496 
0.0009231505790365496 
0.0009231505790365496 
0 
0 
0 
0 
0 
0 
0 
0 
0 
0 
0 
0 
0 
0.02677123454015538 
0.02677123454015538 
0.02677123454015538 
0 
0 
0 
0 
0 
0 
0 
0 
0 
0 
0 
0 
0 
0 
0 
0 
0 
0 
0 
0 
0 
0.001488040772504316 
0 
0 
0 
0 
0 
0 
0 
0.03049851434347208 
0 
0 
0 
0 
0 
0 
0 
0 
0 
0 
0 
0 
0 
0 
0 
0.02581181472660056 
0 
0 
0 
0.002127384323842219 
0 
0 
0 
0 
0 
0 
0 
0 
0 
0 
0.007364064503527367 
0 
0.004142249665201245 
0.0009020289972694678 
0.0009020289972694678 
0.0009020289972694678 
0 
0 
0 
0.001111920779004607 
0.001111920779004608 
0.001111920779004608 
0 
0 
0 
0 
0 
0 
0 
0.01333058187115442 
0 
0 
0 
0 
0 
0 
0 
0 
0 
0 
0 
0 
0 
0 
0 
0 
0 
0 
0 
0 
0 
0 
0 
0 
0 
0 
0 
0 
0 
0 
0 
0.001200709428938447 
0.02059030964575084 
0.02059030964575084 
0.02059030964575084 
0 
0 
0 
0 
0 
0 
0 
0.02767983688122557 
0.007454075024488715 
0.007454075024488715 
0.007454075024488715 
0.007454075024488715 
0.007454075024488715 
0 
0 
0 
0 
0 
0 
0 
0 
0 
0.0005090116667009173 
0.0005090116667009173 
0 
0 
0 
0 
0 
0 
0 
0 
0 
0 
0 
0 
0 
0.0003600480327151204 
0.0003600480327151204 
0.0003600480327151204 
0.001827680963785302 
0.001827680963785302 
0.001827680963785302 
0 
0.002841206350340064 
0.002841206350340064 
0.002841206350340064 
0.002841206350340064 
0.002841206350340064 
0 
0 
0 
0 
0 
0 
0 
0 
0 
0 
0 
0 
0 
0 
0 
0 
0 
0 
0.0141040469251245 
0.03915374222399741 
0.0141040469251245 
0.0141040469251245 
0 
0 
0 
0 
0 
0 
0 
0 
0 
0 
0 
0 
0 
0 
0.004713001384381424 
0.004713001384381423 
0.004713001384381423 
0 
0 
0 
0 
0.002151508069821439 
0.002151508069821439 
0.002151508069821439 
0 
0 
0 
0 
0 
0 
0 
0 
0 
0 
0 
0 
0 
0 
0 
0 
0 
0 
0 
0 
0 
0 
0 
0 
0 
0 
0 
0 
0.003550316788816711 
0.003550316788816711 
0.003550316788816711 
0.003550316788816711 
0.003550316788816711 
0.003550316788816711 
0.003240220667931777 
0.003240220667931777 
0.003240220667931777 
0.003240220667931777 
0 
0 
0 
0 
0 
0 
0 
0 
0 
0 
0 
0 
0 
0 
0 
0 
0 
0 
0 
0 
0.001215854374415561 
0.001215854374415561 
0.001215854374415561 
0 
0 
0 
0 
0 
0 
0 
0 
0 
0 
0 
0.0102743916922509 
0.0102743916922509 
0.0102743916922509 
0.01890682496034089 
0 
0 
0.01159551440003785 
0.01159551440003785 
0 
0 
0.001536295730758306 
0.001536295730758306 
0.001536295730758306 
0.001536295730758306 
0.001536295730758306 
0 
0 
0 
0 
0 
0 
0 
0 
0 
0 
0 
0 
0.03049851434347208 
0.03049851434347208 
0 
0 
0 
0 
0 
0 
0 
0 
0 
0 
0 
0 
0 
0 
0 
0.008632433268089997 
0.008632433268089997 
0.008632433268089997 
0 
0 
0 
0 
0 
0 
0 
0 
0 
0 
0 
0 
0 
0 
0 
0 
0 
0 
0 
0 
0 
0.007168987941239555 
0.007168987941239555 
0.005495595433462588 
0.00417194753623492 
0 
0 
0.00337408449714193 
0.00337408449714193 
0.00417194753623492 
0.00417194753623492 
0.00417194753623492 
0.00417194753623492 
0 
0 
0 
0 
0 
0 
0 
0 
0 
0 
0 
0 
0 
0 
0 
0 
0 
0 
0 
0 
0 
0 
0 
0 
0 
0 
0 
0 
0 
0 
0 
0 
0 
0 
0 
0 
0 
0 
0 
0.01360345423267555 
0.01360345423267555 
0.01360345423267555 
0 
0 
0 
0 
0 
0 
0 
0 
0 
0 
0 
0 
0 
0 
0 
0 
0.02504969529887292 
0.004823933442136049 
0 
0 
0 
0 
0 
0 
0 
0 
0 
0 
0.020020920321123 
0.020020920321123 
0.020020920321123 
0 
0 
0 
0 
0 
0 
0.0001331358150553625 
0 
0.0001331358150553625 
0 
0 
0 
0 
0 
0 
0 
0 
0 
0.0003159876837087906 
0.0003159876837087906 
0 
0 
0 
0.0001331358150553625 
0 
0 
0 
0 
0 
0 
0 
0 
0 
0 
0 
0 
0 
0 
0 
0 
0 
0 
0 
0 
0 
0 
0 
0 
0.02022576185673687 
0 
0 
0 
0 
0 
0 
0 
0 
0 
0.007057601703065688 
0.007057601703065688 
0.007057601703065688 
0 
0 
0 
0 
0.002105962431890979 
0.002105962431890979 
0 
0 
0 
0 
0 
0 
0 
0 
0 
0 
0.05968790041475883 
0.05968790041475883 
0.05968790041475883 
0.03378912104901953 
0.03378912104901953 
0.03378912104901953 
0.03378912104901953 
0.03378912104901953 
0.0009266748949037722 
0.0009266748949037722 
0.0009266748949037722 
0.0009266748949037722 
0 
0 
0 
0 
0 
0 
0 
0 
0 
0.003164389276323325 
0.003164389276323325 
0.003164389276323325 
0 
0 
0 
0 
0 
0 
0 
0 
0 
0 
0 
0 
0 
0 
0 
0 
0 
0 
0 
0 
0 
0 
0 
0 
0 
0 
0 
0 
0.003870990430259126 
0 
0 
0 
0 
0 
0 
0.002482999855722067 
0 
0 
0 
0.007364064503527367 
0.007364064503527367 
0.007364064503527367 
0.007364064503527367 
0.007364064503527367 
0.007364064503527367 
0 
0 
0 
0 
0 
0 
0 
0 
0 
0 
0 
0 
0 
0 
0 
0 
0 
0 
0 
0 
0 
0 
0 
0 
0 
0 
0 
0 
0 
0 
0 
0 
0 
0 
0 
0 
0 
0 
0 
0 
0 
0 
0 
0 
0 
0 
0 
0 
0 
0 
0.0002466820029843927 
0.0002466820029843927 
0 
0 
0 
0 
0 
0 
0.01394503829987669 
0 
0 
0 
0 
0 
0 
0 
0 
0 
0 
0 
0 
0 
0 
0 
0 
0 
0 
0 
0 
0 
0 
0 
0 
0 
0 
0 
0 
0 
0 
0.01426820727919246 
0.01426820727919246 
0.01426820727919246 
0.01426820727919246 
0.01426820727919246 
0.01426820727919246 
0 
0 
0 
0 
0 
0 
0 
0 
0 
0 
0 
0 
0 
0 
0 
0 
0 
0 
0 
0 
0 
0 
0 
0.02022576185673687 
0.02022576185673687 
0.02022576185673687 
0 
0 
0 
0 
0.003899494902190965 
0.003899494902190965 
0 
0.004713001384381423 
0 
