solver_type L2R_L2LOSS_SVC_DUAL
nr_class 1
label 1
nr_feature 206
bias -1
w
0.0107776283638647 
0.02814561470692744 
0.1909193784406376 
0.0107776283638647 
0.01781519776962219 
0.0107776283638647 
0.02814561470692744 
0.0107776283638647 
0.0107776283638647 
0.1791985922373181 
0.1909193784406376 
0.0920234251683858 
0.01262198327652853 
0.2044845195566208 
0.01172078620331942 
0.01356514111598326 
0.01172078620331942 
0.02205120314062467 
0.01172078620331942 
0.01172078620331942 
0.01172078620331942 
0.01172078620331942 
0 
0.06601039560523715 
0.002378703622137538 
0 
0 
0.06601039560523715 
0.002378703622137538 
0 
0 
0 
0 
0 
0 
0.01735119473355726 
0.01735119473355726 
0.01735119473355726 
0.01735119473355726 
0.01735119473355726 
0.01735119473355726 
0.01735119473355726 
0.01735119473355726 
0 
0 
0 
0 
0 
0 
0.01260292657862542 
0.01200935873904588 
0.02872788910651027 
0.01200935873904588 
0.01200935873904588 
0.01200935873904588 
0.0005935678395795373 
0.0005935678395795371 
0.0005935678395795373 
0.0005935678395795371 
0.0005935678395795371 
0.0001119426108103 
0.0001119426108103 
0.03573063451086679 
0.01258995276002306 
0.0001119426108103 
0.0001119426108103 
0.03573063451086679 
0.01258995276002306 
0.01258995276002306 
0.0001119426108103 
0.0357306345108668 
0.02273471996633934 
0 
0 
0.02273471996633934 
0 
0 
0.02314068175084373 
0.02314068175084373 
0.02314068175084373 
0.02314068175084373 
0.02314068175084373 
-8.673617379884035e-19 
-8.673617379884035e-19 
-8.673617379884035e-19 
-8.673617379884035e-19 
0.01033041693730525 
0.01033041693730525 
0.01033041693730525 
0.01033041693730525 
0.01033041693730525 
0.01033041693730525 
0.009970297386681886 
0.009970297386681886 
0.009970297386681886 
0.009970297386681886 
0.009970297386681886 
0.009970297386681886 
0.009970297386681886 
0.03043385889530779 
0.009293517982426145 
0.009293517982426145 
0.009293517982426145 
0.009293517982426145 
0.01008167356694294 
0.01247801014921276 
0.01247801014921276 
0.01247801014921276 
0.01247801014921276 
0.01247801014921276 
0.01247801014921276 
0.01247801014921276 
0.007037569405757491 
0.007037569405757491 
0.007037569405757491 
0.007037569405757491 
0.007037569405757491 
0 
0 
0 
0 
0 
0 
0 
0 
0 
0 
0 
0 
0 
0 
0 
0 
0 
0 
0 
0 
0 
0 
0 
0 
0 
0 
0 
0.01671853036746438 
0.01671853036746438 
0.01671853036746438 
0.01671853036746438 
0.01671853036746438 
0 
0 
0 
0 
0.001605217683988568 
0 
0 
0 
0 
0 
0 
0.001605217683988568 
0.001605217683988568 
0.001605217683988568 
0.001605217683988568 
0.001605217683988568 
0 
0.00159054803762074 
0.00159054803762074 
0.00159054803762074 
0.00159054803762074 
0.000788155584516798 
0.000788155584516798 
0.000788155584516798 
0.000788155584516798 
0.001844354912663836 
0.001844354912663836 
0.001844354912663836 
0.001844354912663836 
0.001844354912663836 
0 
0 
0.01344120198391319 
0.01344120198391319 
0.01344120198391319 
0.01344120198391319 
0.01342599210286841 
0.01342599210286841 
0.01342599210286841 
0.01342599210286841 
0.01342599210286841 
0.01342599210286841 
0.01342599210286841 
0.01342599210286841 
0.01669040566519727 
0.01669040566519727 
0.01669040566519727 
0.01669040566519727 
0.01669040566519727 
0.01669040566519727 
0.01669040566519727 
0.01669040566519727 
0 
0 
0 
0 
0 
