solver_type L2R_L2LOSS_SVC_DUAL
nr_class 1
label 1
nr_feature 80
bias -1
w
0.01160203210538057 
0.09376845066928892 
0.159729932112045 
0.01390847401308102 
0.01390847401308102 
0.01160203210538057 
0.09376845066928892 
0.01390847401308102 
0.01390847401308102 
0.1121477436389917 
0.0253957981202323 
0.159729932112045 
0.09376845066928892 
0.1845440979555701 
0.002306441907700447 
0.002306441907700447 
0.01559306639425145 
0.01559306639425145 
0.01559306639425145 
0.01559306639425145 
0.01559306639425145 
0.01559306639425145 
0.05648959143848117 
0.06469376343253103 
0.004105323484122926 
0.004105323484122926 
0.004105323484122926 
0.004105323484122926 
0.004105323484122926 
0.004105323484122926 
0.007696115909851343 
0.003848057954925672 
0.003848057954925672 
0.003848057954925672 
0.003848057954925672 
0.02403574063975322 
0.02403574063975322 
0.02403574063975322 
0.02403574063975322 
0.02403574063975322 
0.02403574063975322 
0.04910069703827955 
0.04910069703827955 
0.04910069703827955 
0.04910069703827955 
0.04910069703827955 
0.04910069703827955 
0.01148732410715129 
0.01148732410715129 
0.01148732410715129 
0.01148732410715129 
0.01148732410715129 
0.01148732410715129 
0.01686078440447651 
0.01686078440447651 
0.01686078440447651 
0.01686078440447651 
0.01686078440447651 
0.01686078440447651 
0.01686078440447651 
0.01686078440447651 
0.01169250831287091 
0.01169250831287091 
0.01169250831287091 
0.01169250831287091 
0.01169250831287091 
0.01169250831287091 
0.02079046407600335 
0.009097955763132437 
0.009097955763132437 
0.009097955763132437 
0.009097955763132437 
0.009097955763132437 
0.009097955763132437 
0.009097955763132437 
0.009097955763132437 
0 
0 
0 
0 
