solver_type L2R_L2LOSS_SVC_DUAL
nr_class 2
label 1 2
nr_feature 234
bias -1
w
0.03199022769828371 
0.2678385288519121 
0.123371891162562 
0 
0.002717542499277831 
0.02606913125291766 
0.2023085006271158 
0 
0 
0.09570066075556877 
0.123371891162562 
0.1685922121278375 
0.01042384649017532 
0.02956129834949742 
0.01042384649017532 
0.01042384649017532 
0.02023765465072434 
0.01042384649017532 
0.01042384649017532 
0.01042384649017532 
-0.08619205582869388 
0.026558996011922 
0.026558996011922 
0.05827458186065625 
0.026558996011922 
0.026558996011922 
-0.108583997978655 
0.0501646361866575 
-0.07635199723009886 
0.001356397865748548 
0 
0 
0.001356397865748548 
0 
-0.1444666376893501 
-0.1444666376893501 
-0.1444666376893501 
-0.1444666376893501 
-0.1444666376893501 
-0.1444666376893501 
-0.1444666376893501 
-0.05913428916197672 
0.01239942193757161 
0.001356397865748544 
0.01239942193757161 
0.001356397865748548 
0.007919519144459564 
0 
0 
0.02606913125291766 
0.02606913125291766 
0.02606913125291766 
0.02606913125291766 
0 
0 
0 
0 
0.06553002822479637 
0 
0.03171558584873425 
0.03171558584873425 
0.03171558584873425 
0.03171558584873425 
0.002564737187810796 
0.002564737187810795 
0.005447356213239753 
0.002564737187810795 
0.002564737187810795 
0.002564737187810795 
0 
0.009323643698773084 
0 
0 
0 
0 
0.0205558863453184 
0.02241909831284847 
0.0304877716224654 
0.02249119096673962 
0.02241909831284847 
0.02241909831284847 
0.02241909831284847 
0 
0 
0 
0 
0 
0.007919519144459566 
0.007919519144459566 
0.007919519144459566 
0.007919519144459564 
0.007919519144459566 
0.0279992785838093 
0 
0 
0.008360900030596377 
0.008360900030596377 
0.008360900030596377 
0.008360900030596377 
0.008360900030596377 
0.008360900030596377 
0.04059290077915253 
0.008360900030596377 
0.008360900030596377 
0.02541234862677121 
0.02541234862677121 
0.02541234862677121 
0.02541234862677121 
0.02541234862677121 
0.02541234862677121 
0 
0 
0 
0 
0 
0 
0 
0 
0 
0 
0 
0 
0.008068673309616926 
0.008068673309616926 
0.008068673309616926 
0.008068673309616926 
0.008068673309616926 
0.008068673309616926 
0.01104302407182306 
0.01104302407182306 
0.01104302407182306 
0.01104302407182306 
0.03223200074855617 
0.03223200074855618 
0.03223200074855618 
0.03223200074855618 
0.03223200074855618 
0.03223200074855618 
0.009337681254580343 
0 
0 
0 
0 
0 
0.002883708027295932 
8.673617379884035e-19 
0 
0.005921096445366055 
0.005921096445366055 
0.005921096445366055 
0.005921096445366055 
0.005921096445366055 
0.005921096445366055 
0.002717542499277831 
0 
0.002717542499277831 
0 
0 
0 
0 
0 
0 
0 
0.009813808160549014 
0.009813808160549014 
0.009813808160549014 
0.009813808160549014 
0 
0 
0 
0 
0.009323643698773084 
0.009323643698773084 
0.009323643698773084 
0.009323643698773084 
7.209265389115406e-05 
7.209265389115406e-05 
7.209265389115406e-05 
7.209265389115406e-05 
7.209265389115406e-05 
0.002717542499277831 
0.002717542499277831 
0.002717542499277831 
0.002717542499277831 
0.002883708027295932 
0.002883708027295932 
0.002883708027295932 
0.002883708027295932 
0.002883708027295932 
0.002883708027295932 
0 
0 
0 
0 
0 
0 
0 
0 
0.01074207818476938 
0.01074207818476938 
0.01074207818476938 
0.01074207818476938 
0.01074207818476938 
0.01074207818476938 
0 
0 
0 
0 
0.009337681254580343 
0.009337681254580343 
0.009337681254580343 
0.009337681254580343 
0.009337681254580343 
0.002882619025428958 
0.002882619025428958 
0.002882619025428958 
0.002882619025428958 
0.002882619025428958 
0 
0 
0 
0 
0 
0 
0 
0 
0 
0 
0 
0 
0 
0 
0 
0 
