solver_type L2R_L2LOSS_SVC_DUAL
nr_class 3
label 1 2 3
nr_feature 101
bias -1
w
0.1456947678846137 -0.1393034378230948 -0.04182965076789305 
0.1456947678846137 -0.1393034378230948 -0.04182965076789305 
-0.02193227361335328 -0.02990038645401464 -0.1684403822122989 
0.1456947678846137 -0.1393034378230948 -0.04182965076789305 
0.1456947678846137 -0.1393034378230948 -0.04182965076789305 
0.1456947678846137 -0.1393034378230948 -0.04182965076789305 
0.1456947678846137 -0.1393034378230948 -0.04182965076789305 
0.1456947678846137 -0.1393034378230948 -0.04182965076789305 
0.1456947678846137 -0.1393034378230948 -0.04182965076789305 
-0.0887209206147335 0.1181740021413561 -0.08817947100891996 
-0.02193227361335328 -0.02990038645401464 -0.1684403822122989 
-0.1324888318119175 0.1292579739716526 -0.2290259296463148 
-0.07145385264726185 0.09290500955549777 -0.02239674803508368 
-0.07145385264726185 0.09290500955549777 -0.02239674803508368 
0.0940745415861839 -0.06613527423869395 -0.05016201878188201 
-0.07145385264726185 0.09290500955549777 -0.02239674803508368 
-0.07145385264726185 0.09290500955549777 -0.02239674803508368 
-0.07145385264726185 0.09290500955549777 -0.02239674803508368 
-0.07145385264726185 0.09290500955549777 -0.02239674803508368 
-0.07145385264726185 0.09290500955549777 -0.02239674803508368 
-0.252279981479553 0.1706325275371847 -0.01352826363862447 
0.1655283942334458 -0.1590402837941917 -0.02776527074679833 
0.06860936592467393 -0.04812560125998047 -0.0519553258976308 
0.1655283942334458 -0.1590402837941917 -0.02776527074679833 
0.1655283942334458 -0.1590402837941917 -0.02776527074679833 
0.06860936592467393 -0.04812560125998047 -0.0519553258976308 
0.1655283942334458 -0.1590402837941917 -0.02776527074679833 
0.1655283942334458 -0.1590402837941917 -0.02776527074679833 
0.06860936592467393 -0.04812560125998047 -0.0519553258976308 
0.09857755978676774 -0.07625149749093547 -0.04040449200522573 
0.09857755978676774 -0.07625149749093547 -0.04040449200522573 
-0.246699101491761 0.2678278898628091 -0.06584745228876894 
-0.1571850570624505 0.1644951520073449 -0.01285223116763787 
0.02784812889537564 -0.01653543543308675 -0.02554957814050482 
-0.06174846833087563 0.06500733534996682 -0.001780571630396394 
-0.06174846833087563 0.06500733534996682 -0.001780571630396394 
-0.06174846833087563 0.06500733534996682 -0.001780571630396394 
0.02784812889537564 -0.01653543543308675 -0.02554957814050482 
-0.06174846833087563 0.06500733534996682 -0.001780571630396394 
-0.09543658873157475 0.09948781665737803 -0.01107165953724148 
-0.09543658873157475 0.09948781665737803 -0.01107165953724148 
-0.09543658873157475 0.09948781665737803 -0.01107165953724148 
-0.09543658873157475 0.09948781665737803 -0.01107165953724148 
-0.09543658873157475 0.09948781665737803 -0.01107165953724148 
0.185033185957826 -0.1810305874404316 -0.01269734697286694 
0.185033185957826 -0.1810305874404316 -0.01269734697286694 
0.185033185957826 -0.1810305874404316 -0.01269734697286694 
0.185033185957826 -0.1810305874404316 -0.01269734697286694 
0.185033185957826 -0.1810305874404316 -0.01269734697286694 
0.185033185957826 -0.1810305874404316 -0.01269734697286694 
8.255279694074219e-05 0.02178996707241067 -0.0767642276312395 
-0.05586767258235622 -0.1181003964413143 0.1490902659706309 
-0.05586767258235622 -0.1181003964413143 0.1490902659706309 
-0.05586767258235622 -0.1181003964413143 0.1490902659706309 
-0.05586767258235622 -0.1181003964413143 0.1490902659706309 
-0.05586767258235622 -0.1181003964413143 0.1490902659706309 
-0.05586767258235622 -0.1181003964413143 0.1490902659706309 
-0.05586767258235622 -0.1181003964413143 0.1490902659706309 
-0.05586767258235622 -0.1181003964413143 0.1490902659706309 
-0.05586767258235622 -0.1181003964413143 0.1490902659706309 
-0.05586767258235622 -0.1181003964413143 0.1490902659706309 
-0.1374179611431474 0.1600883134012503 -0.08200647085226455 
-0.08803160485211346 0.09190587197863102 -0.03987682550754008 
-0.08803160485211346 0.09190587197863102 -0.03987682550754008 
-0.1374179611431474 0.1600883134012503 -0.08200647085226455 
-0.08803160485211346 0.09190587197863102 -0.03987682550754008 
0.06760578450142683 -0.04361762475654268 -0.08115365323112544 
-0.07723063143689686 0.09298228795710603 -0.033497589073389 
-0.07723063143689686 0.09298228795710603 -0.033497589073389 
-0.07723063143689686 0.09298228795710603 -0.033497589073389 
-0.07723063143689686 0.09298228795710603 -0.033497589073389 
-0.07723063143689686 0.09298228795710603 -0.033497589073389 
-0.07723063143689686 0.09298228795710603 -0.033497589073389 
-0.07723063143689686 0.09298228795710603 -0.033497589073389 
-0.09691902830877183 0.1109146825342112 -0.02419005515083248 
-0.09691902830877183 0.1109146825342112 -0.02419005515083248 
-0.09691902830877183 0.1109146825342112 -0.02419005515083248 
-0.09691902830877183 0.1109146825342112 -0.02419005515083248 
-0.09691902830877183 0.1109146825342112 -0.02419005515083248 
-0.0493863562910339 0.06818244142261931 -0.04212964534472448 
-0.0493863562910339 0.06818244142261931 -0.04212964534472448 
-0.0493863562910339 0.06818244142261931 -0.04212964534472448 
-0.0493863562910339 0.06818244142261931 -0.04212964534472448 
-0.0493863562910339 0.06818244142261931 -0.04212964534472448 
-0.0493863562910339 0.06818244142261931 -0.04212964534472448 
-0.06695083444667803 0.08278878630325624 -0.0126392212584274 
-0.06695083444667803 0.08278878630325624 -0.0126392212584274 
-0.06695083444667803 0.08278878630325624 -0.0126392212584274 
-0.06695083444667803 0.08278878630325624 -0.0126392212584274 
-0.06695083444667803 0.08278878630325624 -0.0126392212584274 
-0.06695083444667803 0.08278878630325624 -0.0126392212584274 
-0.06695083444667803 0.08278878630325624 -0.0126392212584274 
-0.06695083444667803 0.08278878630325624 -0.0126392212584274 
-0.06695083444667803 0.08278878630325624 -0.0126392212584274 
0.1448364159383237 -0.1365999127136487 -0.04765606415773642 
0.1448364159383237 -0.1365999127136487 -0.04765606415773642 
0.1448364159383237 -0.1365999127136487 -0.04765606415773642 
0.1448364159383237 -0.1365999127136487 -0.04765606415773642 
0.1448364159383237 -0.1365999127136487 -0.04765606415773642 
0.1448364159383237 -0.1365999127136487 -0.04765606415773642 
0.1448364159383237 -0.1365999127136487 -0.04765606415773642 
