solver_type L2R_L2LOSS_SVC_DUAL
nr_class 3
label 1 2 3
nr_feature 897
bias -1
w
0.1222624221480619 -0.1240163380864866 -0.0009435380096439713 
0.1222624221480619 -0.1240163380864866 -0.0009435380096439713 
-0.331498098304203 0.06567740634786243 -0.04377738497327287 
0.351200555281832 -0.2020481432436351 -0.1375532046649473 
0.1222624221480619 -0.1240163380864866 -0.0009435380096439713 
0.1222624221480619 -0.1240163380864866 -0.0009435380096439713 
0.1222624221480619 -0.1240163380864866 -0.0009435380096439713 
0.351200555281832 -0.2020481432436351 -0.1375532046649473 
0.1222624221480619 -0.1240163380864866 -0.0009435380096439713 
0.005835889803706762 -0.02433192061379534 -0.08349587381832846 
-0.3195370938248844 0.305624267850921 -0.3335486941871779 
-0.02034371521050018 -0.08267736915755557 0.05759884752282284 
0.1724090547141049 -0.1761786150031196 -0.02031222948832198 
0.05276406304570983 0.003946398160445845 -0.07936719303755443 
-0.01636819466230089 0.06578400405127757 -0.06294923698479173 
-0.03369821897736763 0.05467585043094193 -0.1585875331390297 
-0.04673628919001338 0.08855263190680676 -0.0378779116522583 
-0.02249530035684123 0.04770312882981593 -0.05295370547606178 
-0.04965373141734689 0.1015304311634744 -0.0640985472868556 
-0.07245755944414653 0.1126705376912793 -0.06576328348072569 
-0.02249530035684123 0.04026560936160571 -0.01995178511607448 
-0.02249530035684123 0.04770312882981593 -0.05295370547606178 
-0.04965373141734689 0.1015304311634744 -0.0640985472868556 
-0.02249530035684123 0.04026560936160571 -0.01995178511607448 
-0.001641723964189421 0.007057470632514642 -0.003007179932642958 
-0.1743022950545935 0.2842770164885984 -0.132227369083068 
-0.001641723964189421 0.007057470632514642 -0.003007179932642958 
-0.001641723964189421 0.007057470632514642 -0.003007179932642958 
-0.001641723964189421 0.007057470632514642 -0.003007179932642958 
-0.1374472728445358 0.224419349060978 -0.09821244586564959 
-0.001641723964189421 0.007057470632514642 -0.003007179932642958 
-0.001641723964189421 0.007057470632514642 -0.003007179932642958 
-0.07550531974759454 0.0778465267281955 -0.02490575473646992 
-0.07961064826642832 0.07463501497000949 -0.02947907139508467 
-0.09503390795296508 0.1755937876420009 -0.1435348770482058 
-0.2029236814099485 0.312974306518747 -0.1879349643365253 
-0.0184791109318027 0.02004117071801156 -0.0140604566334587 
0 0 0 
-0.03250784201782203 0.02974235087373388 -0.03092432616094036 
-0.1827770944762468 0.2812849245147321 -0.1724362764308775 
-0.0184791109318027 0.02004117071801156 -0.0140604566334587 
0 0 0 
0.09282943968507795 -0.1880045986550359 0.09297968937988256 
-0.01156258659058775 0.03994766751625865 -0.01521379964876165 
-0.01156258659058775 0.03994766751625865 -0.01521379964876165 
-0.01156258659058775 0.03994766751625865 -0.01521379964876165 
-0.01156258659058775 0.03994766751625865 -0.01521379964876165 
-0.01156258659058775 0.03994766751625865 -0.01521379964876165 
-0.02942055854419888 0.03205611318562401 -0.001820699437246241 
-0.04775869744617176 0.07899959154893986 -0.04555215489025397 
-0.140109449021533 0.2576109688142604 -0.1549960935687838 
-0.02942055854419888 0.03205611318562401 -0.001820699437246241 
-0.02942055854419888 0.03205611318562401 -0.001820699437246241 
-0.02942055854419888 0.03205611318562401 -0.001820699437246241 
-0.140109449021533 0.2576109688142604 -0.1549960935687838 
-0.02942055854419888 0.03205611318562401 -0.001820699437246241 
0 0 -0.0141529147073944 
-0.08379785006613968 0.1451142865690817 -0.06165361057199537 
0 0 -0.0141529147073944 
0 0 -0.0141529147073944 
-0.03541001481743103 0.06647073772801802 -0.02400684983940108 
0 0 -0.0141529147073944 
0.003010682629754801 -0.1990281413866268 0.1461530213045845 
0.131253381019093 -0.1190973198463835 -0.002041954414586307 
-0.01147204823398504 0.01885723191149576 -0.001064896196949452 
-0.04890364699869354 -0.02624161998818465 0.06849347350227702 
-0.0265228836314838 0.05687092078130127 -0.01846314667995797 
0 0 0 
0 0 0 
0 0 -0.00921430341335017 
-0.02014658693370178 0.03168938200401492 -0.005021993252545937 
0 0 -0.00921430341335017 
0 0 -0.000249736250338269 
-0.09715201879012243 0.05374132256984543 0.003643972793546011 
0 0 0 
-0.04048912371878376 0.1140342972470235 -0.06971672983607177 
0 0 0 
-8.673617379884035e-19 0 0 
0 0 0 
-0.0238872087257574 0.04042256919641953 -0.02844057293142247 
-0.05653728734015692 0.0746476525879903 -0.03130812549660549 
-0.03948401123089541 0.05115170331492977 -0.03937801225290132 
-0.0238872087257574 0.04042256919641953 -0.02844057293142247 
-0.05544383010299715 0.07464765258799033 -0.03130812549660549 
0 0 0 
-0.03406695554065244 0.0779446719687347 -0.05587030749195708 
-0.03038450585115567 0.06113791780358808 -0.03401492321741853 
-0.1099710157632619 0.2657724257960766 -0.1838622375828031 
-0.02842417670722426 0.06904925997300106 -0.04505140631962559 
-0.1041458875712598 0.195907731239876 -0.1502853278446716 
0 0 0 
-0.07162209684903829 0.1268091016270111 -0.07739637626347196 
-0.02842417670722426 0.06904925997300106 -0.04505140631962559 
0 0 0 
0 0 0 
0 0 0 
0 0 0 
0 0 0 
-0.03403395583964477 0.05721300958723767 -0.02576861522450771 
-0.03512741307680455 0.05721300958723767 -0.0257686152245077 
0.1503416911228549 -0.07501465266099965 -0.08506553965973689 
-0.03403395583964477 0.05721300958723767 -0.02576861522450771 
-0.03403395583964477 0.05721300958723767 -0.02576861522450771 
-0.03403395583964476 0.05721300958723767 -0.02576861522450771 
-0.03403395583964477 0.05721300958723767 -0.02576861522450771 
-0.03403395583964477 0.05721300958723767 -0.02576861522450771 
-0.05525509947350721 0.08921001207858661 -0.04829342445412196 
-0.02856111021361156 -0.06521392098405879 0.0972456142917198 
-0.04363215222943689 -0.08385173011740953 0.109487414740057 
0 0.02619505279890936 -0.01972063419641048 
0 0.02619505279890936 -0.01972063419641048 
0 0.02619505279890936 -0.01972063419641048 
-0.02458710821048547 0.01282272140779062 0 
-0.02673857526693844 0.05157778658726351 -0.04277852856319565 
-0.02458710821048547 0.01282272140779062 0 
-0.02458710821048547 0.0448511832561771 -0.05065474077915787 
-0.02673857526693844 0.05157778658726351 -0.04277852856319565 
0 0.0003805433944016012 -0.004965530886235392 
-9.75781955236954e-19 0 0 
0 0.0003805433944016012 -0.004965530886235392 
-0.02014658693370178 0.03168938200401492 -0.01549868790564799 
0 0 0 
-0.01633352292349112 0.0437538465215033 -0.01450193464363274 
-0.02844050165067678 0.0476701942191509 -0.01595094972983557 
0 0.0274984330849206 -0.01343703844668328 
-0.02844050165067678 0.04506837574423782 -0.006736646316485392 
-0.03488249152733541 0.07298321517955481 -0.03837218253165059 
0 0 0 
0 6.505213034913027e-18 -0.006146946798609134 
0 0 0 
-0.01470728312231103 0.0004921755486819339 -0.00252940723579869 
0 0 0 
-0.00696951316675426 0.02140236198378019 -0.002867552565183002 
-0.00696951316675426 0.02140236198378019 -0.002867552565183002 
-0.00696951316675426 0.02140236198378019 -0.002867552565183002 
-0.00696951316675426 0.02140236198378019 -0.002867552565183002 
-0.00696951316675426 0.02140236198378019 -0.002867552565183002 
-0.02096869745312211 -0.1744803562261333 0.2175675227358883 
-0.009101766133069251 -0.0529812449650966 0.0672042131050828 
-0.1074294907744562 -0.4107194137742358 0.48098163856302 
-0.009101766133069251 -0.0529812449650966 0.0672042131050828 
-0.009101766133069251 -0.0529812449650966 0.0672042131050828 
-0.009101766133069251 -0.0529812449650966 0.0672042131050828 
-0.1074294907744562 -0.4107194137742358 0.48098163856302 
-0.009101766133069251 -0.0529812449650966 0.0672042131050828 
-0.1901424943319884 -0.1588235777431791 0.3247933500828235 
-0.05559315670875525 -0.2399468615030582 0.3197573306507899 
-0.04363215222943689 -0.1100467829163189 0.1292080489364674 
0.001088552073733359 -0.1939134653733655 0.1684155675920345 
-0.1901424943319884 -0.1588235777431791 0.3247933500828235 
-0.04363215222943689 0 0.02998602143688525 
-0.01625118680336721 0.04600191245343804 -0.02907337645988284 
-0.01750184887095196 0.07446126073862155 -0.06892000127207262 
-0.03177971879909783 -0.1212856526498291 0.1679366731424602 
0 0.00881218074193405 -0.01752950615062339 
0 0.00881218074193405 -0.01752950615062339 
0 0.00881218074193405 -0.01752950615062339 
0.09967225494114573 -0.0264987498113887 -0.08384228789507879 
-0.1357901249937296 0.2112821563425576 -0.09047213160876696 
-0.04889388014615002 0.09002955857456631 -0.05440802204832915 
-0.04889388014615002 0.09002955857456631 -0.05440802204832915 
-0.04889388014615002 0.09002955857456631 -0.05440802204832915 
-0.1357901249937296 0.1792536944941712 -0.06294163513218803 
-0.04889388014615002 0.09002955857456631 -0.05440802204832915 
-0.04889388014615002 0.09002955857456631 -0.05440802204832915 
-0.04889388014615002 0.09002955857456631 -0.05440802204832915 
0 0.004106299471275366 -0.020934702601585 
0 0.004106299471275366 -0.020934702601585 
0 0.004106299471275366 -0.020934702601585 
-0.01079344904461211 0.01591438670450915 -0.020934702601585 
0 0.004106299471275366 -0.020934702601585 
0 0 -0.000249736250338269 
0 0 -0.000249736250338269 
-0.08689624484757953 0.08922413591960487 -0.008533613083858891 
0 0 0 
0 0 0 
-0.006180346846401829 0.006554467386679089 -1.301042606982605e-18 
0 0 0 
0 0 0 
-0.0352275814413518 0.07069047879590566 -0.04420755187603892 
0 0 0 
-0.0352275814413518 0.07069047879590566 -0.04420755187603892 
0 0 0 
0 0 0 
-0.006888602114222305 0.02240582143429719 -0.02643908861572204 
-0.006888602114222302 0.006041566225709939 0 
0 0 0 
-0.006888602114222305 0.02240582143429719 -0.01202884092354085 
-0.006888602114222302 0.006041566225709939 0 
-0.092895167032541 -0.08493915602706154 0.1684610866673792 
-0.1027072273858962 0.2043728030934844 -0.1609799947566664 
-0.01989083116648452 0.04945254399002978 -0.03629977448253058 
-0.01989083116648452 0.04945254399002978 -0.03629977448253058 
-0.03866592055367143 0.0651161136324666 -0.06377656739506529 
-0.01989083116648452 0.04945254399002978 -0.03629977448253058 
-0.06524342218990298 -0.03250457377302101 0.1162861598442295 
-0.02856111021361156 -0.1020721978167501 0.1319534195169637 
-0.02856111021361156 -0.1020721978167501 0.1319534195169637 
-0.02856111021361156 -0.1020721978167501 0.1319534195169637 
-0.07201141574119048 0.1144129305979104 -0.01352083165961316 
-0.006888602114222307 0.011860244575316 0 
0 0 0 
0 0 0 
-0.01171144371513715 0.02778665814042555 -0.02100795824003349 
-0.01171144371513715 0.02214703773583373 -0.010947590545731 
-0.02034253678508197 0.05031645339462219 -0.01846314667995797 
-0.05199974450812345 0.07110204215931867 -0.01289981399597824 
-0.01931456536352294 0.02578539953024276 -0.02710034888279974 
0 0 -0.001355943686718788 
-0.04048912371878377 0.1140342972470235 -0.06971672983607174 
0 0 -0.001355943686718788 
0 0 0 
0 0 0 
0 0 0 
0 0 0 
-0.008236766763408988 0.004084563745678349 -0.005038026566930574 
0 0 0 
0 0 0 
0 0.007437519468210219 -0.03300192035998727 
-0.04692087622306388 0.06785509602155509 -0.04495319474548069 
0 0 0 
0 0 0 
0.1435132653160127 -0.1154207582070628 -0.04949136832463331 
0.2894437071416114 -0.2261731620528633 -0.06329173485532603 
0.1435132653160127 -0.1154207582070628 -0.04949136832463331 
0.1100308928065147 -0.1139225552073138 -0.04949136832463331 
0.1435132653160127 -0.1154207582070628 -0.04949136832463331 
0.3270434261997318 -0.2766433335102736 -0.06329173485532603 
0.1435132653160127 -0.1154207582070628 -0.04949136832463331 
0.1435132653160127 -0.1154207582070628 -0.04949136832463331 
-0.05081369092193377 0.07814494029677467 -0.02331801094625653 
-0.02421499296943675 0.0720587291523524 -0.04641293040978488 
-0.0003277842436793422 0.03163615995593283 -0.0179723574783624 
-0.0003277842436793422 0.03163615995593283 -0.0179723574783624 
-0.0003277842436793422 0.03163615995593283 -0.0179723574783624 
0 3.469446951953614e-18 -0.008224398773886933 
-0.07894534042747581 0.1820971569444156 -0.142359478491515 
0 0.002312137821028701 0 
0 0 0 
-0.07894534042747581 0.1820971569444156 -0.142359478491515 
-0.03685502221005768 0.05985766742762036 -0.03401492321741853 
0 0.002312137821028701 0 
-0.01877508938718692 0.001006027451067057 0 
-0.01877508938718692 0.001006027451067057 0 
-0.01877508938718692 0.001006027451067057 0 
0.1489159141670495 -0.1297704896736405 -0.02372725006978101 
-0.01833813890197285 0.004001560836353627 0 
-0.01833813890197285 0.004001560836353627 0 
-0.01833813890197285 0.004001560836353627 0 
-0.03770708672804856 0 0.02396333961752208 
-0.06777099723361402 -0.2492702026671369 0.3132096624764971 
-0.03770708672804856 0 0.02396333961752208 
-0.03770708672804856 0 0.02396333961752208 
0 0 0 
0 0 0 
0 0 0 
-0.04861775964796802 0.1178808635427014 -0.08811281061552348 
0 0 0 
-0.001105440257971986 0.003792531624266183 -0.01620657158017709 
0 0 0 
0 0 0 
-0.01173488387624891 0.01937234638615552 -0.01015848884247788 
-0.04748344158100516 0.0532846568339702 -0.01015848884247788 
-0.01173488387624891 0.01937234638615552 -0.01015848884247788 
-0.04017538552692568 0.09961491381915977 -0.06926958465372363 
-0.01173488387624891 0.01937234638615552 -0.01015848884247788 
0 0 -0.01441024769218119 
0 0 -0.01441024769218119 
0 0 -0.01441024769218119 
0 0 -0.01441024769218119 
0 0 -0.01441024769218119 
0 0 0 
0 0 0 
0 0 0 
0 0 0 
-0.01625118680336721 0.037189731711504 -0.01669064097331716 
0 0 -0.009370487216721521 
0 0 -0.005146770664057701 
0 0 -0.009370487216721521 
-0.01750184887095196 0.01129898167236229 0 
0 0 0 
0 0 0 
0 0 0 
0 0 0 
0 0 0 
0 0 0 
0 0 0 
0 0 0 
0 0 0 
0 0 0 
0 0 0 
0 0 0 
-0.02768378165922687 0.07255836192129007 -0.07843228896635382 
-0.03371944237412781 0.051773259927864 -0.0174101103416451 
0 0 -0.01620657158017709 
-0.001812716492570973 0.003629835615306957 -0.01620657158017709 
0 0 -0.01620657158017709 
0 0 -0.01620657158017709 
0 0 0 
-1.084202172485504e-19 0 0 
0.2630007218649663 -0.2756231963424002 0.03488702211219718 
0.2289381331337703 -0.07803180515714861 -0.1366096666553034 
0.08242779103121881 -0.1268085999840087 0.0589756344910527 
0.2289381331337703 -0.07803180515714861 -0.1366096666553034 
-1.734723475976807e-18 0.0108565822425735 -0.02574440519608094 
0 0 0 
0 0 0 
0 0 0 
0 0 0 
-0.042940425360491 0.1226516666832225 -0.09543305225479604 
0 0.007773164033176922 -0.01094759054573099 
0 0 0 
-0.0238872087257574 0.04042256919641954 -0.02844057293142247 
-0.0238872087257574 0.04042256919641954 -0.02844057293142247 
-0.0238872087257574 0.04042256919641954 -0.02844057293142247 
0 0.01208331376537244 -0.00888307432960648 
-0.03663149847520961 0.004894160757962505 0.007321212908077109 
0 0.01208331376537244 -0.00888307432960648 
0 0.01208331376537244 -0.00888307432960648 
0 0.01208331376537244 -0.00888307432960648 
0 0 0 
0 0 0 
-0.02279965236688378 0.01525023592592011 -0.00120353876146801 
0 0 0 
0 0 0 
0 0 0 
-0.03162412018533242 0.06840336749331996 -0.04581149836465121 
-0.04192073177254286 0.09762411803308491 -0.07581966032935934 
-0.03162412018533242 0.06840336749331996 -0.04581149836465121 
-0.03162412018533242 0.06840336749331996 -0.04581149836465121 
-0.03162412018533242 0.06840336749331996 -0.04581149836465121 
-0.03162412018533242 0.06840336749331996 -0.04581149836465121 
-0.03002101683782932 0.07298321517955482 -0.03222523573304147 
-0.03002101683782932 0.07298321517955482 -0.03222523573304147 
-0.03002101683782932 0.07298321517955482 -0.03222523573304147 
-0.03002101683782932 0.07298321517955482 -0.03222523573304147 
-0.03002101683782932 0.07298321517955482 -0.03222523573304147 
-0.03002101683782932 0.07298321517955482 -0.03222523573304147 
-0.03002101683782932 0.07298321517955482 -0.03222523573304147 
-0.004402652408734794 0.003728391309335368 0 
-0.004402652408734794 0.003728391309335368 0 
0 0 0 
-0.03716200765713494 0.07002799392826971 -0.04518005345519561 
-0.03716200765713494 0.07002799392826971 -0.04518005345519561 
-0.03716200765713494 0.07002799392826971 -0.04518005345519561 
-0.03716200765713494 0.07002799392826971 -0.04518005345519561 
-0.03716200765713494 0.07002799392826971 -0.04518005345519561 
-0.03716200765713494 0.07002799392826971 -0.04518005345519561 
-0.03716200765713494 0.07002799392826971 -0.04518005345519561 
-0.03716200765713494 0.07002799392826971 -0.04518005345519561 
-0.03834891891422364 0.09602140664210329 -0.06273440586632348 
-0.03834891891422364 0.09602140664210329 -0.06273440586632348 
-0.03834891891422364 0.09602140664210329 -0.06273440586632348 
-0.001093457237159784 0 0 
-0.001093457237159784 0 0 
0 0 0 
0 0 0 
0 0 0 
0 0 0 
0 0 0 
0 0 0 
-0.05352349771459319 -0.04642341358416727 0.0795271414880383 
0 0.05435009832432519 -0.05139049512144925 
0 0.05435009832432519 -0.05139049512144925 
0 0.05435009832432519 -0.05139049512144925 
0 0.05435009832432519 -0.05139049512144925 
0.125074465490616 -0.09866381899281013 -0.01380036653069273 
0.1835301608837192 -0.1612225753032108 -0.01380036653069274 
0.1835301608837192 -0.1612225753032108 -0.01380036653069274 
0.1835301608837192 -0.1612225753032108 -0.01380036653069274 
0.1835301608837192 -0.1612225753032108 -0.01380036653069274 
0 0 0 
0 0 0 
0 0 0 
-0.116081919059606 0.1897700055113815 -0.06890411290306545 
-0.08524920776471913 0.1614309945801514 -0.09232932608453545 
-0.01380551753001348 0.02571987345171059 -0.01844330965131633 
-0.01380551753001348 0.02571987345171059 -0.01844330965131633 
-0.08524920776471913 0.1614309945801514 -0.09232932608453545 
-0.01380551753001348 0.02571987345171059 -0.01844330965131633 
0 0 0 
0 0 0 
0 0 0 
0 0 0 
-0.0127804299405762 0.02953751261376387 -0.01202884092354085 
-0.02270713768834694 0.02864644586258601 0 
-0.0127804299405762 0.01317325740517662 0 
-0.02270713768834694 0.02864644586258601 0 
-0.02270713768834694 0.02864644586258601 0 
0.1990520417655502 -0.1630370887267969 -0.02408861237885552 
0.1392167216340049 -0.1200863143280117 -0.02408861237885552 
0.1990520417655502 -0.1630370887267969 -0.02408861237885552 
0.1990520417655502 -0.1630370887267969 -0.02408861237885552 
0.1392167216340049 -0.1200863143280117 -0.02408861237885552 
0.1990520417655502 -0.1630370887267969 -0.02408861237885552 
0 0.04294191752696224 -0.04373145545300772 
0 0.04294191752696224 -0.04373145545300772 
0 0 0 
0 0 0 
0 0 0 
0 0 0 
0 0 0 
0 0 0 
0 -0.1100467829163189 0.09922202749958216 
0 -0.1100467829163189 0.09922202749958216 
0 -0.1100467829163189 0.09922202749958216 
0 0 0 
0 0 0 
-0.02844050165067678 0.04506837574423782 -0.006736646316485392 
-0.007207423257121408 0.0164787326429919 -0.03094353690301396 
-0.028219517666142 0.08562180526977983 -0.0741409017549535 
-0.007207423257121408 0.0164787326429919 -0.03094353690301396 
-0.007207423257121408 0.0164787326429919 -0.03094353690301396 
-0.007207423257121408 0.0164787326429919 -0.03094353690301396 
-0.028219517666142 0.08562180526977983 -0.0741409017549535 
-0.007207423257121408 0.0164787326429919 -0.03094353690301396 
-0.007207423257121408 0.0164787326429919 -0.03094353690301396 
-0.02101209440902059 0.06914307262678791 -0.04319736485193953 
-0.04692087622306388 0.06785509602155509 -0.04495319474548069 
-0.07740731230432144 0.112301482804226 -0.05685205850231818 
0 0 0 
-0.01627610781469674 0.0274505247932167 -0.009926883539088271 
0 0 0 
-0.01627610781469674 0.0274505247932167 -0.009926883539088271 
0 0 0 
0 0 0 
0 0 0 
0 0 0 
0 0 0 
0 0 0 
-0.006180346846401832 0.003952648911766011 0 
0 0 0 
-0.006180346846401832 0.003952648911766011 0 
-0.01404859706076778 0.03888377982032779 -0.02323592979988296 
0 0 0 
0 0 0 
0 0 0 
0 0 0 
0.3159098293987682 -0.2375786195439258 -0.07770806868851102 
0.08628815529811067 -0.0103999318664416 -0.08526462355473304 
0.1731844001456902 -0.09962406778604647 -0.07673101047087415 
0.1731844001456902 -0.09962406778604647 -0.07673101047087415 
0.3159098293987682 -0.2375786195439258 -0.07770806868851102 
0.08628815529811067 -0.0103999318664416 -0.08526462355473304 
0.1731844001456902 -0.09962406778604647 -0.07673101047087415 
-0.03725546167706387 0.09602140664210328 -0.06273440586632348 
-0.03725546167706387 0.09602140664210328 -0.06273440586632348 
0 0 0 
0 0 0 
0 0 0 
0 0 0 
0.1174957763331479 -0.07992651667387352 -0.04988415835972383 
-0.02279965236688378 0.01525023592592011 -0.001203538761468011 
-0.03134481524508763 0.01525023592592011 -0.001203538761468011 
-0.03190672588155685 0.04814342431255704 -0.00120353876146801 
-0.008545162878203847 0 0 
-0.008545162878203847 0 0 
-0.008545162878203847 0 0 
0 0 0 
0 0 0 
-0.00537634173210345 0.03993534466359885 -0.01445966982246012 
0 0 0 
0.3271010762155776 -0.2701822140061165 -0.06027398265286604 
0.1843756469624997 -0.1322276622482373 -0.05929692443522918 
0.1843756469624997 -0.1322276622482373 -0.05929692443522918 
0.1843756469624997 -0.1322276622482373 -0.05929692443522918 
0.1843756469624997 -0.1322276622482373 -0.05929692443522918 
0.1843756469624997 -0.1322276622482373 -0.05929692443522918 
0.1843756469624997 -0.1322276622482373 -0.05929692443522918 
0 0 0 
0 0 0 
0 0 0 
0 0 0 
0 0 0 
0 0 0 
0 0 0 
0.1855229035545269 -0.1526610628781503 -0.04189643425512806 
0.1855229035545269 -0.1526610628781503 -0.04189643425512806 
0.1855229035545269 -0.1526610628781503 -0.04189643425512806 
0.1855229035545269 -0.1526610628781503 -0.04189643425512806 
0.1855229035545269 -0.1526610628781503 -0.04189643425512806 
0.1855229035545269 -0.1526610628781503 -0.04189643425512806 
0.1855229035545269 -0.1526610628781503 -0.04189643425512806 
-0.04692087622306387 0.06785509602155509 -0.03267755229670125 
-0.04692087622306387 0.06785509602155509 -0.03267755229670125 
-0.04692087622306387 0.06785509602155509 -0.03267755229670125 
-0.04692087622306387 0.06785509602155509 -0.03267755229670125 
0 0.0003805433944016017 -0.003736917228937309 
0 0 -0.001300793578500607 
0 0.0003805433944016017 -0.003736917228937309 
0 0 -0.001300793578500607 
-0.01186693132005286 -0.1378633664696239 0.1623921505543463 
-0.01186693132005286 -0.1378633664696239 0.1623921505543463 
-0.01186693132005286 -0.1378633664696239 0.1623921505543463 
-0.03006391050556544 -0.2492702026671369 0.2892463228589749 
-0.01186693132005286 -0.1378633664696239 0.1623921505543463 
-0.03145193455541849 -0.161733993347696 0.2034385367714462 
-0.03145193455541849 -0.161733993347696 0.2034385367714462 
-0.04861387848890308 -0.08634573998675397 0.13020024083353 
-0.03145193455541849 -0.161733993347696 0.2034385367714462 
-0.03145193455541849 -0.161733993347696 0.2034385367714462 
-0.03145193455541849 -0.161733993347696 0.2034385367714462 
-0.03145193455541849 -0.161733993347696 0.2034385367714462 
-0.03251140330557263 -0.1699165845352804 0.197239245764006 
-0.03251140330557263 -0.1699165845352804 0.197239245764006 
-0.03251140330557263 -0.1699165845352804 0.197239245764006 
-0.03251140330557263 -0.1699165845352804 0.197239245764006 
-0.03251140330557263 -0.1699165845352804 0.197239245764006 
-0.03251140330557263 -0.1699165845352804 0.197239245764006 
-0.03251140330557263 -0.1699165845352804 0.197239245764006 
-0.03112530466841319 0.0125971352913362 -0.002712067455029304 
-0.009218722341255944 -0.09788702644309379 0.09485048710456756 
-0.009218722341255944 -0.09788702644309379 0.09485048710456756 
-0.009218722341255944 -0.09788702644309379 0.09485048710456756 
-0.009218722341255944 -0.09788702644309379 0.09485048710456756 
-0.009218722341255944 -0.09788702644309379 0.09485048710456756 
-0.008236766763408992 0.004084563745678349 0 
-0.008236766763408992 0.004084563745678349 0 
-0.008236766763408992 0.004084563745678349 0 
-0.008236766763408992 0.004084563745678349 0 
-0.008236766763408992 0.004084563745678349 0 
0 0 -0.00252940723579869 
0 0 -0.00252940723579869 
0 0 -0.00252940723579869 
-0.004402652408734794 0.003728391309335368 0 
-0.004402652408734794 0.003728391309335368 0 
-0.004402652408734794 0.003728391309335368 0 
-0.004402652408734794 0.003728391309335368 0 
-0.03768830380546513 0.07277765128233642 -0.04505140631962559 
-0.01017974681489503 0.02685887873853322 -0.01244256353170116 
-0.01017974681489503 0.02685887873853322 -0.01244256353170116 
-0.01017974681489503 0.02685887873853322 -0.01244256353170115 
-0.01017974681489503 0.02685887873853322 -0.01244256353170116 
-0.01017974681489503 0.02685887873853322 -0.01244256353170116 
-0.01017974681489503 0.02685887873853322 -0.01244256353170116 
-0.01759680481798645 0.01101053412718604 0 
0 0 0 
0 0 0 
-0.01096347841110044 0.003084485531328098 0 
-0.01096347841110044 0.003084485531328098 0 
-0.01096347841110044 0.003084485531328098 0 
-0.01096347841110044 0.003084485531328098 0 
-0.01096347841110044 0.003084485531328098 0 
0 0 -0.03092432616094034 
0 0 -0.03092432616094034 
0 0 0 
-0.00537634173210345 0.01243691157867823 -0.001022631375776829 
-0.00537634173210345 0.01243691157867823 -0.001022631375776828 
-0.00537634173210345 0.01243691157867823 -0.001022631375776829 
-0.00537634173210345 0.01243691157867823 -0.001022631375776828 
0 0 0 
0 0 -0.005038026566930575 
0 0 -0.005038026566930575 
-0.1465103421025515 -0.04133927535864994 0.1575453542194382 
0 0 -0.005038026566930575 
0 0 -0.005038026566930575 
0 0.007437519468210219 -0.03803994692691786 
0 0 0 
-0.03048643608125755 0.03880676637807913 -0.006062212615198822 
0 0 0 
0 0 -0.009214303413350172 
-0.03386758680647561 -0.1089460502712315 0.1673110980720823 
0 0.02051664949739671 -0.02489765658222561 
0 0.02051664949739671 -0.02489765658222561 
0 0 0 
0 0 0 
0 0 0 
0 0 0 
-0.01147204823398504 0.01625541343658269 -0.001064896196949451 
-0.02059307163674931 0.07147970265746924 -0.05901202913873362 
0 0 0 
-0.01147204823398504 0.01625541343658269 -0.001064896196949451 
0 0 0 
-0.01637390835248578 0.02386048361416254 0 
-0.01637390835248578 0.02386048361416254 0 
0 0 0 
-0.01637390835248578 0.02386048361416254 0 
-0.01637390835248578 0.02386048361416254 0 
-0.01931456536352294 0.01492881728766925 0 
0 0 0 
0 0 0 
0 0 0 
0 0 -0.008224398773886931 
0 0 0 
0 0 0 
0 0 0 
0 0 0 
0 0 0 
0 0 0 
0 0 0 
-0.02320435747538976 -0.1579165632023352 0.1565156429582225 
-0.01819697918551257 -0.111406836197513 0.1268541723046285 
-0.01819697918551257 -0.111406836197513 0.1268541723046285 
-0.02320435747538976 -0.186999356698243 0.1888699579069633 
-0.01819697918551257 -0.111406836197513 0.1268541723046285 
0 0 0 
0 0 0 
0 0 0 
0 0 0 
-0.06689663687403902 0.1481935536425217 -0.1083897218073211 
-0.06689663687403902 0.1481935536425217 -0.1083897218073211 
-0.04384772389148101 0.09042508589131747 -0.05414202306570323 
-0.01542354718425676 0.02137582591831643 -0.009090616746077635 
-0.01542354718425676 0.02137582591831643 -0.009090616746077635 
-0.01542354718425676 0.02137582591831643 -0.009090616746077635 
-0.01542354718425676 0.02137582591831643 -0.009090616746077635 
-0.03793859391896672 0.05614328313551081 0 
-0.02357098797210081 0.03495031295208191 0 
-0.02357098797210081 0.03495031295208191 0 
-0.03759971905812016 0.0504701714574103 0 
-0.02357098797210081 0.03495031295208191 0 
0 0 0 
0 0 0 
0.1283578233062121 -0.1167615815744504 -0.0009770582176368554 
0.142725429253078 -0.1379545517578793 -0.0009770582176368541 
0.142725429253078 -0.1379545517578793 -0.0009770582176368541 
0.142725429253078 -0.1379545517578793 -0.0009770582176368541 
0 0 0 
0 0 0 
-0.03668231197629143 0.05748431027835663 -0.006784185343127765 
-0.03668231197629143 0.05748431027835663 -0.006784185343127765 
-0.03668231197629143 0.05748431027835663 -0.006784185343127765 
-0.0171619439334846 0.07538825336094204 -0.0732382959379162 
-0.0171619439334846 0.07538825336094204 -0.0732382959379162 
-0.0171619439334846 0.07538825336094204 -0.0732382959379162 
-0.0171619439334846 0.07538825336094204 -0.0732382959379162 
-0.0171619439334846 0.07538825336094204 -0.0732382959379162 
-0.01436760594686589 0.02119297018342889 0 
-0.01436760594686589 0.02119297018342889 0 
-0.01436760594686589 0.02119297018342889 0 
-0.01436760594686589 0.02119297018342889 0 
0 0 0 
0 0 0 
0 0 0 
0 -0.1402709683780623 0.1598320549020232 
0 -0.1402709683780623 0.1598320549020232 
-0.01196100447931838 -0.2399468615030582 0.2897713092139048 
-0.01196100447931838 -0.2399468615030582 0.2897713092139048 
-0.01196100447931838 -0.2399468615030582 0.2897713092139048 
-0.01196100447931838 -0.0996758931249959 0.1299392543118816 
-0.01196100447931838 -0.0996758931249959 0.1299392543118816 
0 0 -3.469446951953614e-18 
0 0 0 
-0.0318963089732995 0.0599540560406203 -0.0299389208140902 
-0.0318963089732995 0.0599540560406203 -0.0299389208140902 
-0.0318963089732995 0.0599540560406203 -0.0299389208140902 
-0.03785334048714455 0.07121300135947878 -0.0299389208140902 
-0.0318963089732995 0.0599540560406203 -0.0299389208140902 
0 0 0 
0 0 0 
0 0 0 
0 0 0 
0 0 0 
0 0 -0.004223716552663819 
-0.02101209440902059 0.06914307262678791 -0.04319736485193953 
-0.02101209440902059 0.06914307262678791 -0.04319736485193953 
-0.02059307163674931 0.07147970265746922 -0.05901202913873362 
-0.02059307163674931 0.07147970265746922 -0.05901202913873362 
-0.02059307163674931 0.07147970265746922 -0.05901202913873362 
-0.01470728312231103 0.0004921755486819335 0 
-0.01470728312231103 0.0004921755486819335 0 
-0.02214773908774667 0.05705335405790975 -0.03401492321741852 
-0.02214773908774667 0.05705335405790975 -0.03401492321741852 
-0.02214773908774667 0.05705335405790975 -0.03401492321741852 
-0.02214773908774667 0.05705335405790975 -0.03401492321741852 
-0.02214773908774667 0.05705335405790975 -0.03401492321741852 
0 0.0274984330849206 -0.01343703844668328 
0 0.0274984330849206 -0.01343703844668328 
0 0.005639620404591827 -0.00583665114163867 
0 0.005639620404591827 -0.00583665114163867 
0 0.005639620404591827 -0.00583665114163867 
0 0.0003805433944016017 -0.002436123650436701 
0 0.0003805433944016017 -0.002436123650436701 
0 0.01636425520858725 -0.01202884092354085 
0 0.01636425520858725 -0.01202884092354085 
-0.001105440257971985 0.003792531624266183 0 
0 0 0 
-0.009926707747770732 0.01547318845740938 0 
-0.009926707747770732 0.01547318845740938 0 
0 0 0 
-0.04077366254153572 0.09825655658643906 -0.06248868196093956 
0 0 0 
-0.04077366254153572 0.09825655658643906 -0.06248868196093956 
0 0 0 
-0.01569004676512712 0.02157577770045816 -0.006813767958932456 
-0.01569004676512712 0.02157577770045816 -0.006813767958932456 
-0.01569004676512712 0.02157577770045816 -0.006813767958932456 
-0.01569004676512712 0.02157577770045816 -0.006813767958932456 
-0.01569004676512712 0.02157577770045816 -0.006813767958932456 
-0.01569004676512712 0.02157577770045816 -0.006813767958932456 
-0.01029661158721043 0.02922075053976493 -0.03000816196470815 
-0.01029661158721043 0.02922075053976493 -0.03000816196470815 
-0.01029661158721043 0.02922075053976493 -0.03000816196470815 
-0.01029661158721043 0.02922075053976493 -0.03000816196470815 
-0.01029661158721043 0.02922075053976493 -0.03000816196470815 
-0.01029661158721043 0.02922075053976493 -0.03000816196470815 
-0.01029661158721043 0.02922075053976493 -0.03000816196470815 
-0.01029661158721043 0.02922075053976493 -0.03000816196470815 
0 0 0 
0 0 0 
-0.01627610781469674 0.0274505247932167 -0.009926883539088271 
-0.01627610781469674 0.0274505247932167 -0.009926883539088271 
-0.01627610781469674 0.0274505247932167 -0.009926883539088271 
-0.001576636741715517 0 -0.008020586019090467 
-0.001576636741715517 0 -0.008020586019090467 
0 0 0 
0 0 0 
0 0 0 
0 0 0 
0 0 0 
0 0 0 
-0.001105440257971985 0.003792531624266183 0 
-0.001105440257971985 0.003792531624266183 0 
-0.001105440257971985 0.003792531624266183 0 
-0.001105440257971985 0.003792531624266183 0 
0 0 0 
0 0 0 
0 0 0 
-0.1465103421025515 -0.04877679482686017 0.1955853011463561 
-0.01402873108601934 0.01551985850532839 0 
-0.01402873108601934 0.01551985850532839 0 
-0.03145581571448341 0.04249261018175937 -0.01487451467760729 
-0.03145581571448341 0.04249261018175937 -0.01487451467760729 
-0.03145581571448341 0.04249261018175937 -0.01487451467760729 
-0.03145581571448341 0.04249261018175937 -0.01487451467760729 
-0.02014658693370178 0.03168938200401492 -0.004772257002207665 
0 0.002601818474913071 0 
0 0 0 
0 0 0 
-0.02424098883317216 0.04828702254520105 -0.01792612653618384 
-0.02424098883317216 0.04828702254520105 -0.01792612653618384 
-0.02424098883317216 0.04828702254520105 -0.01792612653618384 
-0.02424098883317216 0.04828702254520105 -0.01792612653618384 
-0.02424098883317216 0.04828702254520105 -0.01792612653618384 
-0.02424098883317216 0.04828702254520105 -0.01792612653618384 
0 0 0 
0 0 0 
0 0.01066322403378193 -0.01498717102883344 
0 0.01066322403378193 -0.01498717102883344 
0 0.01066322403378193 -0.01498717102883344 
0 0.01066322403378193 -0.01498717102883344 
0 0.01066322403378193 -0.01498717102883344 
0 0.007437519468210219 -0.03300192035998727 
0 0 0 
0 0 0 
0 0 0 
0 0.005818678349606068 0 
0 0.005818678349606068 0 
0 0 0 
0 0 0 
0 0 0 
0 0 0 
-0.009107073514673054 0.03289318838663693 0 
-0.009107073514673054 0.03289318838663693 0 
-0.009107073514673054 0.03289318838663693 0 
0 0 0 
0 0 0 
0 0 0 
0 0 0 
-0.005957031513845038 0.01125894531885847 0 
-0.005957031513845038 0.01125894531885847 0 
-0.005957031513845038 0.01125894531885847 0 
0 0 0 
0 0 0 
0 0 0 
0 0 0 
0 0 0 
-0.08689624484757953 0.08922413591960487 -0.008533613083858891 
-0.08689624484757953 0.08922413591960487 -0.008533613083858891 
-0.08689624484757953 0.08922413591960487 -0.008533613083858891 
-0.01625118680336721 0.037189731711504 -0.01154387030925945 
-0.01625118680336721 0.037189731711504 -0.01154387030925945 
-0.01625118680336721 0.037189731711504 -0.01154387030925945 
-0.01625118680336721 0.037189731711504 -0.01154387030925945 
-0.01625118680336721 0.037189731711504 -0.01154387030925945 
-0.01625118680336721 0.037189731711504 -0.01154387030925945 
-0.0107934490446121 0.01180808723323379 0 
-0.0107934490446121 0.01180808723323379 0 
-0.0107934490446121 0.01180808723323379 0 
-0.0107934490446121 0.01180808723323379 0 
-0.02014658693370178 0.03168938200401492 -0.004772257002207665 
0 -4.336808689942018e-19 -0.004846153220108528 
0 0 0 
0 0 0 
0 0 0 
0 0 0 
0 0 0 
0 0 0 
0 0 0 
0 0 0 
0 0 0 
0 0 0 
-0.01783342706859376 -0.08218642404856534 0.1009943936165489 
-0.01783342706859376 -0.08218642404856534 0.1009943936165489 
-0.01783342706859376 -0.08218642404856534 0.1009943936165489 
-0.01783342706859376 -0.08218642404856534 0.1009943936165489 
-0.01783342706859376 -0.08218642404856534 0.1009943936165489 
-0.005531096868735322 0.01042122479089079 0 
-0.005531096868735322 0.01042122479089079 0 
-0.005531096868735322 0.01042122479089079 0 
-0.005531096868735322 0.01042122479089079 0 
-0.02414684641553645 0.004161473496953337 0 
-0.02414684641553645 0.004161473496953337 0 
-0.02414684641553645 0.004161473496953337 0 
0 0 0 
0 0 0 
-0.02014658693370178 0.03168938200401492 -0.004772257002207665 
-0.03328565139673036 0.06904925997300103 -0.04505140631962559 
-0.02842417670722426 0.06904925997300104 -0.04505140631962559 
-0.02842417670722426 0.06904925997300104 -0.04505140631962559 
-0.02842417670722426 0.06904925997300104 -0.04505140631962559 
-0.02842417670722426 0.06904925997300104 -0.04505140631962559 
0 0 0 
0 0 0 
0 0 0 
-0.001313510690407918 0.03900445907696076 -0.03855052542086324 
-0.001313510690407918 0.03900445907696076 -0.03855052542086324 
-0.001313510690407918 0.03900445907696076 -0.03855052542086324 
-0.001313510690407918 0.03900445907696076 -0.03855052542086324 
-0.01759680481798645 0.01101053412718604 0 
-0.01759680481798645 0.01101053412718604 0 
-0.01759680481798645 0.01101053412718604 0 
-0.01759680481798645 0.01101053412718604 0 
-0.0184791109318027 0.01422249236840549 0 
0 0 0 
0 0 0 
0 0 0 
-0.002151467056452964 0.03875506517947289 -0.04277852856319565 
0 0 0 
0 0 0 
0 0 0 
0 0 0 
0 0 0 
-0.03268209699461298 0.07063172208496975 -0.03925275216105661 
-0.03268209699461298 0.07063172208496975 -0.03925275216105661 
0 0.02908279349590777 -0.03235431494874071 
0 0.02908279349590777 -0.03235431494874071 
0 0.02908279349590777 -0.03235431494874071 
0 0.02908279349590777 -0.03235431494874071 
0 0.02908279349590777 -0.03235431494874071 
-0.004861474689506091 0 0 
-0.004861474689506091 0 0 
-0.004861474689506091 0 0 
0 0 -0.004846153220108528 
-0.03574855770475624 0.03391231044781468 0 
-0.03574855770475624 0.03391231044781468 0 
-0.03574855770475624 0.03391231044781468 0 
0 0.0108565822425735 -0.01752000642219402 
0 0.002312137821028699 0 
0 0.002312137821028699 0 
-0.042940425360491 0.1148785026500456 -0.08448546170906503 
-0.042940425360491 0.1148785026500456 -0.08448546170906503 
-0.042940425360491 0.1148785026500456 -0.08448546170906503 
-0.042940425360491 0.1148785026500456 -0.08448546170906503 
-0.042940425360491 0.1148785026500456 -0.08448546170906503 
-0.042940425360491 0.1148785026500456 -0.08448546170906503 
0 0 0 
0 0 0 
0 0 0 
0 0 0 
0 0 0 
0 0 0 
0 0 0 
0 0 0 
0 0 0 
0 0 0 
0 0 0 
-0.02034253678508197 0.05031645339462219 -0.01846314667995797 
-0.01147204823398504 0.01625541343658269 -0.001064896196949451 
0 0 -0.02312424430257896 
0 0 -0.02312424430257896 
0 0 -0.02312424430257896 
0 0.03202846184838648 -0.02753049647657889 
0 0.03202846184838648 -0.02753049647657889 
0 0.03202846184838648 -0.02753049647657889 
-0.008091565546922745 0.02762483450146931 -0.02323592979988295 
-0.008091565546922745 0.02762483450146931 -0.02323592979988295 
-0.008091565546922745 0.02762483450146931 -0.02323592979988295 
-0.008091565546922745 0.02762483450146931 -0.02323592979988295 
0 0 0 
0 0.007773164033176922 -0.010947590545731 
0 0.007773164033176922 -0.010947590545731 
-0.005007378289877194 -0.0755925205007299 0.0620157856023348 
-0.005007378289877194 -0.0755925205007299 0.0620157856023348 
-0.005007378289877194 -0.0755925205007299 0.0620157856023348 
0 0 0 
0 0 0 
-0.01488504465626982 0.009517443158710021 0 
-0.01488504465626982 0.009517443158710021 0 
-0.01488504465626982 0.009517443158710021 0 
-0.05048590667825444 0.04650878034084186 -0.005345653467894123 
-0.05048590667825444 0.04650878034084186 -0.005345653467894123 
-0.05048590667825444 0.04650878034084186 -0.005345653467894123 
-0.05048590667825444 0.04650878034084186 -0.005345653467894123 
0 0.01465754219136975 -0.02747679291253471 
0 0.01465754219136975 -0.02747679291253471 
0 0.01465754219136975 -0.02747679291253471 
