solver_type L2R_L2LOSS_SVC_DUAL
nr_class 4
label 1 2 3 4
nr_feature 401
bias -1
w
0.02543919089287988 -0.04039323405173163 -0.01695060363206946 0 
0.02543919089287988 -0.04039323405173163 -0.01695060363206946 0 
0.2813769046351344 -0.2756130218482186 -0.2889041903741071 -0.2707049948766108 
0.03812829864743082 -0.05377545430348077 -0.0362065726571498 -0.01279674553897466 
-0.21043481573753 0.2508338721543107 -0.02829521569384999 -0.07180674434904288 
0.02543919089287988 -0.04039323405173163 -0.01695060363206946 0 
0.02543919089287988 -0.04039323405173163 -0.01695060363206946 0 
0.03812829864743082 -0.05377545430348077 -0.0362065726571498 -0.01279674553897466 
0.02543919089287988 -0.04039323405173163 -0.01695060363206946 0 
0.02543919089287988 -0.04039323405173163 -0.01695060363206946 0 
0.0842638231357674 -0.04227987741364964 -0.03476512766897812 -0.04782476774412783 
0.2813769046351344 -0.2756130218482186 -0.2889041903741071 -0.2707049948766108 
0.06604130392590662 -0.05922359515674874 -0.03808176764454903 -0.04951917003174069 
0.1167867262900146 -0.08252799626416221 0.01500181863645378 -0.1368809063675806 
0.1358898425087227 -0.1445917816851229 -0.1480540594182053 -0.2967523419208423 
0.001181975536281269 -0.004964285508545506 -0.002884270424718525 0 
0.05214925634028573 -0.09612698038567907 -0.06300108270560009 -0.008990568971718684 
0.004986977639366265 0 0 -0.01005291155802305 
0.02646631605475562 0 0 -0.006442991495772458 
0 0 0 0 
0.05214925634028573 -0.09612698038567907 -0.06300108270560009 -0.008990568971718684 
0.004986977639366265 0 0 -0.01005291155802305 
0 0 0 0 
0.1422305960325256 -0.1048897326538436 -0.09212238717218978 -0.1202931883764991 
0.004986977639366265 0 0 -0.01005291155802305 
-0.1194639817796893 -0.0563307271248172 0.001908735480001999 0.09817156594580932 
0.0474098128281969 -0.02210511098762549 -0.03599809784071493 -0.02686060350642349 
0.02038272971912622 -0.01462234180161707 -0.009795930365820802 -0.01680769194840044 
0.00259472965613257 -0.01462234180161707 -0.008823013184268012 -2.168404344971009e-19 
0.1211663421552113 -0.0389712246098168 -0.01403903925437643 -0.07582079520705129 
0.02038272971912622 -0.01462234180161707 -0.009795930365820802 -0.01680769194840044 
0.02038272971912622 -0.01462234180161707 -0.009795930365820802 -0.01680769194840044 
0.00259472965613257 -0.01462234180161707 -0.008823013184268012 -2.168404344971009e-19 
0 -0.006265053816756109 -0.00165397136258054 0 
0.1112165138291898 -0.1071480831579515 -0.0985446667269496 -0.04962242277106923 
0.06388867596854383 -0.05392973912720309 -0.06938892838727001 -0.04482937709509321 
0.0516049331206549 -0.04340680335019391 -0.03833371860724771 -0.0452178044397452 
-0.0532592208476903 -0.04960894669799519 -0.02951717370553063 0.08589774279063937 
0.0516049331206549 -0.04340680335019391 -0.03833371860724771 -0.0452178044397452 
0.01778800006299365 0 -0.0009729171815527918 -0.01680769194840044 
0.03637736945708871 0 0 -0.007061070883080263 
0.0840202223972672 -0.03567675026229421 -0.05363584233987823 -0.08152549621102435 
0.04251529624078708 -0.01364930705163018 -0.05669423334678378 -0.009471647205951736 
0 0 -0.01030684558248634 0 
0 0 0 0 
0.05025488845371488 -0.006105937849490171 -0.03212439731552792 -0.0472076326172587 
0.04251529624078708 -0.01364930705163018 -0.05669423334678378 -0.009471647205951736 
0 0 -0.01030684558248634 0 
0.0840202223972672 -0.03567675026229421 -0.05363584233987823 -0.08152549621102435 
-0.01726403864408483 -0.01975524490112036 0.07156319530506242 -0.06842585968741058 
0.01587449471739084 0 -0.0006143764934645763 -0.009327715196619922 
0.04251529624078708 -0.01364930705163018 -0.04638738776429745 -0.009471647205951736 
0.01587449471739084 0 -0.0006143764934645763 -0.009327715196619922 
0.04387303406806219 -0.002215164807935452 -0.02625550466023091 -0.02211530335760736 
0.04251529624078708 -0.01364930705163018 -0.04638738776429745 -0.009471647205951736 
0.0376425858534441 -0.02156786553340447 -0.03408232411693213 -0.0001439320093318154 
0.03932990927794716 -0.02674984659853552 -0.04033533785700777 -0.01294067754830647 
0.02664080152339623 -0.01364930705163018 -0.02991769311476487 -0.0001439320093318154 
0.02664080152339623 -0.01364930705163018 -0.02991769311476487 -0.0001439320093318154 
0 -0.01062314480253568 -0.005030839675888747 0 
0.09032136556970144 -0.0184998682590416 -0.03748332220060491 -0.06218789044756129 
0 0 0 0 
0.03654602672278591 -0.0184998682590416 -0.0230762940119294 -0.005253426548483544 
0 0 -0.005671929279117284 0 
0 0 -0.005671929279117284 0 
0 0 -0.005671929279117284 0 
0 0 -0.01030684558248634 0 
0 0 -0.01030684558248634 0 
0.04223483733103336 0 -0.001082578334097128 -0.04782476774412782 
-0.2502831563979394 -0.006105937849490171 -0.02815788921807622 0.2715648232544196 
0.04223483733103336 0 -0.001082578334097128 -0.04782476774412782 
0.04223483733103336 0 -0.001082578334097128 -0.04782476774412782 
0.04223483733103336 0 -0.001082578334097128 -0.04782476774412782 
0.1546088719571936 -0.006105937849490171 -0.02815788921807622 -0.1001202502461934 
0.04223483733103336 0 -0.001082578334097128 -0.04782476774412782 
-0.1615700926956231 -0.02211457122189615 -0.05266233321984706 0.2114682858446599 
0.03291564160364208 -0.008207216302481404 -0.001527157617652642 -0.03197759067323648 
0.02789840539236588 -0.0107433650254733 -0.007319043919669571 -0.02180119230698339 
0.02789840539236588 -0.008207216302481404 -0.001527157617652642 -0.02180119230698339 
0.02789840539236588 -0.008207216302481404 -0.001527157617652642 -0.02180119230698339 
0.02789840539236588 -0.008207216302481404 -0.001527157617652642 -0.02180119230698339 
0.02789840539236588 -0.008207216302481404 -0.001527157617652642 -0.02180119230698339 
0.02993102826568065 0 0 0 
0.1123740346261602 -0.006105937849490171 -0.03337772107125093 -0.05229548250206559 
0.02993102826568065 0 0 0 
0.1123740346261602 -0.006105937849490171 -0.02707531088397909 -0.05229548250206559 
0.01327880840153004 -0.01457810024138563 -0.02382166484999017 0 
0.01327880840153004 -0.01457810024138563 -0.02382166484999017 0 
0 0 -0.0003407750796313067 -8.673617379884035e-19 
0.01327880840153004 -0.01457810024138563 -0.02382166484999017 0 
0.01327880840153004 -0.01457810024138563 -0.02382166484999017 0 
0.1439197251688016 -0.02520124504392132 -0.05141896689990948 -0.1265796896292002 
0.03799606626695642 -0.01457810024138563 -0.02960769499063765 -0.002483743060199768 
0.01327880840153004 -0.01457810024138563 -0.02382166484999017 0 
0.01829604461280624 -0.01457810024138564 -0.02382166484999017 -0.01017639836625309 
0.01327880840153004 -0.01457810024138563 -0.02382166484999017 0 
0.01327880840153004 -0.01457810024138563 -0.02382166484999017 0 
0.01658979491185414 -0.001886643361918002 -0.006425100120325191 0 
0.04074279940806963 -0.03030771356869029 -0.0301794410966006 -0.006880223196066318 
0.04497046535508383 -0.009688060431842577 -0.01534559983212956 -0.01814653587584236 
0.01658979491185414 -0.001886643361918002 -0.006425100120325191 0 
0.01658979491185414 -0.001886643361918002 -0.006425100120325191 0 
0.01658979491185414 -0.001886643361918002 -0.006425100120325191 0 
0.01658979491185414 -0.001886643361918002 -0.006425100120325191 0 
0.01658979491185414 -0.001886643361918002 -0.006425100120325191 0 
0.005969143194274864 0 0 0 
0.005969143194274864 0 0 0 
0.005969143194274864 0 0 0 
0.005969143194274864 0 0 0 
0.005969143194274864 0 0 0 
0.005969143194274864 0 0 0 
0.005969143194274864 0 0 0 
0.05826110857959647 -0.007801417069924575 -0.0394996573609117 -0.0248052658552356 
0.02453408455379373 -0.03709857265670358 -0.007628805007653842 -0.007488667800481145 
0.02183459076377539 -0.03709857265670358 -0.003560051868866605 0 
0.02183459076377539 -0.03709857265670358 -0.007628805007653842 0 
0.153811065874268 -0.08449235454676332 -0.003560051868866605 -0.07180674434904287 
0.02183459076377539 -0.03709857265670358 -0.003560051868866605 0 
0.1896435049993201 -0.08288535536336739 -0.0748033467053188 -0.1540092309905094 
0 0 0 0 
0.1191004152513893 -0.00608125452246513 -0.000914431506920474 -0.1174699934742503 
0 0 0 0 
0.01341790414641197 -0.01130805537372483 -0.02307797523956425 -0.004568447033406201 
0.02980435197678249 -0.04099600919837856 -0.02930938759769545 -0.004568447033406206 
0.01880256764673462 -0.03307745071660429 -0.0281911945763487 -0.004568447033406202 
0.01341790414641198 -0.01130805537372482 -0.01289458636261355 -0.004568447033406201 
0.01341790414641198 -0.01130805537372482 -0.01289458636261355 -0.004568447033406201 
0.02980435197678249 -0.04099600919837856 -0.02930938759769545 -0.004568447033406206 
0.01880256764673462 -0.03307745071660428 -0.02514475659552819 -0.004568447033406202 
0.01341790414641198 -0.01130805537372482 -0.01289458636261355 -0.004568447033406201 
0.02471725786542638 0 -0.005786030140647483 -0.002483743060199768 
0.05690537577219103 -0.001257190142462961 -0.009007700240764992 -0.007571592945006669 
0.02471725786542638 0 -0.005786030140647483 -0.002483743060199768 
0.02471725786542638 0 -0.005786030140647483 -0.002483743060199768 
0.02471725786542638 0 -0.005786030140647483 -0.002483743060199768 
0.05690537577219102 0 -0.009007700240764992 -0.007571592945006669 
0.02471725786542638 0 -0.005786030140647483 -0.002483743060199768 
0.02471725786542638 0 -0.005786030140647483 -0.002483743060199768 
0 0 0 0 
0.02702708310907068 -0.007482769186008424 -0.02620216747489413 -0.01005291155802305 
0 0 0 0 
0 0 -0.008270756531666338 0 
0.0283806704432297 -0.007801417069924575 -0.0171912562434707 -0.01814653587584235 
0 0 -0.008270756531666338 0 
0 0 -0.008270756531666338 0 
0.0283806704432297 -0.007801417069924575 -0.0171912562434707 -0.01814653587584235 
0 0 -0.008270756531666338 0 
0.0283806704432297 -0.007801417069924575 -0.008920499711804367 -0.01814653587584236 
0.0283806704432297 -0.007801417069924575 -0.008920499711804367 -0.01814653587584236 
0.0283806704432297 -0.007801417069924575 -0.008920499711804367 -0.01814653587584236 
0.0283806704432297 -0.007801417069924575 -0.008920499711804367 -0.01814653587584236 
0 -0.00485850833528685 -0.005308319709491536 0 
0 -0.00485850833528685 -0.005308319709491536 0 
0 -0.00485850833528685 -0.005308319709491536 0 
0 -0.00485850833528685 -0.005308319709491536 0 
0 -0.00485850833528685 -0.005308319709491536 0 
0.06937832890647691 -0.0525493526462792 -0.05577124548200277 -0.04623454329016464 
0.001178865326209547 0 0 -0.003864823128544199 
0.02453162341490195 -0.01787934636560166 8.673617379884035e-19 -0.02287895705864562 
0.04808403299155456 -0.04345952991373373 -0.03994737188461609 -0.03036762485912676 
0.001178865326209547 0 0 -0.003864823128544199 
0.01951510046477577 -0.009934008642690713 -0.03622580726011757 0 
-0.1545094585186438 -0.01741677782869913 0.1320954540612185 0 
0.01951510046477577 -0.009934008642690713 -0.03622580726011757 0 
0.01951510046477577 -0.009934008642690713 -0.03622580726011757 0 
0.01951510046477577 -0.009934008642690713 -0.03622580726011757 0 
0 -0.01062314480253568 -0.005030839675888747 0 
0 -0.01062314480253568 -0.005030839675888747 0 
0 -0.002254468018148101 0 0 
0 -0.002254468018148101 0 0 
0 -0.001257190142462959 0 0 
0 -0.001257190142462959 0 0 
0 -0.001257190142462959 0 0 
0 -0.001257190142462959 0 0 
0 -0.001257190142462959 0 0 
0.0239112949420919 0 -0.02461752254146682 -0.006658729979393246 
0 0 -0.006643185266903144 0 
0.0239112949420919 0 -0.02461752254146682 -0.006658729979393246 
0 0 -0.0003407750796313067 0 
0 0 -0.0101833888769507 0 
0 0 -0.0101833888769507 0 
0 0 -0.0101833888769507 0 
0.01218375986632914 -0.01288284399031979 -0.007048901426885785 0 
0.01100178433004788 -0.007918558481774288 -0.004164631002167261 0 
0.01100178433004788 -0.007918558481774288 -0.004164631002167261 0 
0.01100178433004788 -0.007918558481774288 -0.004164631002167261 0 
0.01100178433004788 -0.007918558481774288 -0.004164631002167261 0 
0.03591072677652876 -0.01115115968090418 -0.01630763226263518 -0.02041799885560122 
-0.1444388560330144 -0.02951443552445807 -0.002288751863746938 0.1577526067133158 
0.03637736945708871 0 0 -0.007061070883080263 
0.01358616728665754 0 0 -0.0001354820888132743 
0.04734445998616735 -0.0504503281130599 -0.05161273216033008 -0.02716273996285426 
0.02232455948987123 -0.01115115968090418 -0.01630763226263518 -0.02028251676678795 
0.02232455948987124 -0.01115115968090418 -0.01630763226263518 -0.02028251676678796 
0.02232455948987123 -0.01115115968090418 -0.01630763226263518 -0.02028251676678795 
0.02232455948987123 -0.01115115968090418 -0.01630763226263518 -0.02028251676678795 
0.0008668960000806239 -0.01087809822538344 -0.008504320940598964 0 
0.0007683332339416024 -0.009919338291512772 -0.008298140739927956 0 
0.0008668960000806239 -0.01087809822538344 -0.008504320940598964 0 
0.0008668960000806239 -0.01087809822538344 -0.008504320940598964 0 
0.0007683332339416024 -0.009919338291512772 -0.008298140739927956 0 
0.006614998457105248 -0.0184998682590416 -0.01276944842944305 -0.005253426548483544 
0.006614998457105248 -0.0184998682590416 -0.01276944842944305 -0.005253426548483544 
0.006614998457105248 -0.0184998682590416 -0.01276944842944305 -0.005253426548483544 
0.006614998457105248 -0.0184998682590416 -0.01276944842944305 -0.005253426548483544 
0.006614998457105248 -0.0184998682590416 -0.01276944842944305 -0.005253426548483544 
0.006614998457105248 -0.0184998682590416 -0.01276944842944305 -0.005253426548483544 
0.006614998457105248 -0.0184998682590416 -0.01276944842944305 -0.005253426548483544 
0.006614998457105248 -0.0184998682590416 -0.01276944842944305 -0.005253426548483544 
0.0239112949420919 0 -0.02427674746183551 -0.006658729979393246 
0.0239112949420919 0 -0.02427674746183551 -0.006658729979393246 
0.0239112949420919 0 -0.02427674746183551 -0.006658729979393246 
0.0239112949420919 0 -0.02427674746183551 -0.006658729979393246 
0 0 0 0 
0 0 0 0 
0 0 0 0 
0.02279120217043118 0 0 -0.006925588794266985 
0.02279120217043118 0 0 -0.006925588794266985 
0.01692516501620487 -0.02176939534287946 -0.01990269080837574 -0.009109696154949928 
0.01154050151588223 0 -0.007652520575461102 -0.009109696154949932 
0.01154050151588223 0 -0.007652520575461102 -0.009109696154949932 
0.01154050151588223 0 -0.007652520575461102 -0.009109696154949932 
0.01154050151588223 0 -0.007652520575461102 -0.009109696154949932 
0.002699493790018351 0 0 -0.007488667800481143 
0.002699493790018351 0 0 -0.007488667800481143 
0.002699493790018351 0 0 -0.007488667800481143 
0.05025488845371487 -0.006105937849490171 -0.02385364078386157 -0.0472076326172587 
0.05025488845371487 -0.006105937849490171 -0.02385364078386157 -0.0472076326172587 
0 0 0 0 
0 0 0 0 
0 0 0 0 
0 0 0 0 
0 0 0 0 
0.02129429591492224 -0.009089822732545468 -0.01582387359738668 -0.01586691843103787 
0.02538154032350168 -0.01130498754048092 -0.02091623236147343 -0.02199577661263206 
0.02129429591492224 -0.009089822732545468 -0.01582387359738668 -0.01586691843103787 
0.02129429591492224 -0.009089822732545468 -0.01582387359738668 -0.01586691843103787 
0.02129429591492224 -0.009089822732545468 -0.01582387359738668 -0.01586691843103787 
-0.2857916131037437 0 0 0.2542150800263628 
0.1191004152513894 0 0 -0.1174699934742503 
-0.2857916131037437 0 0 0.2542150800263628 
0.1191004152513894 0 0 -0.1174699934742503 
0.02204010546970443 -0.007482769186008424 -0.02620216747489413 0 
0.02204010546970443 -0.007482769186008424 -0.02620216747489413 0 
0.02204010546970443 -0.007482769186008424 -0.02620216747489413 0 
0.02204010546970443 -0.007482769186008424 -0.02620216747489413 0 
0.02204010546970443 -0.007482769186008424 -0.02620216747489413 0 
0 0 -0.0006182052987306207 0 
0 0 -0.0006182052987306207 0 
0 0 -0.0006182052987306207 0 
0 0 -0.0006182052987306207 0 
0 0 0 -0.016309927591983 
0 0 0 -0.016309927591983 
0 0 0 -0.016309927591983 
0.001181975536281269 -0.004964285508545506 -0.002884270424718525 0 
0 0 0 0 
0.001181975536281269 -0.004964285508545506 -0.002884270424718525 0 
0 0 0 0 
0 0 0 0 
0 0 0 0 
0 0 0 0 
0 0 0 0 
0.004986977639366265 0 0 -0.01005291155802305 
0.004986977639366265 0 0 -0.01005291155802305 
0.1206725927177516 -0.02951443552445807 0 -0.07180674434904287 
0 -0.0025361487229919 -0.005791886302016929 0 
0 -0.0025361487229919 -0.005791886302016929 0 
0 -0.0025361487229919 -0.005791886302016929 0 
0 -0.0025361487229919 -0.005791886302016929 0 
0 -0.0025361487229919 -0.005791886302016929 0 
0.03589367866554228 -0.01230932155046861 -0.01596606609273494 0 
0.03589367866554228 -0.01230932155046861 -0.01596606609273494 0 
0.03589367866554228 -0.01230932155046861 -0.01596606609273494 0 
0.03589367866554228 -0.01230932155046861 -0.01596606609273494 0 
0.03589367866554228 -0.01230932155046861 -0.01596606609273494 0 
0.03589367866554228 -0.01230932155046861 -0.01596606609273494 0 
0.03589367866554228 -0.01230932155046861 -0.01596606609273494 0 
1.734723475976807e-18 0 -0.006302410187271837 0 
0.005384663500322646 -0.02176939534287946 -0.01225017023291464 0 
0 0 0 0 
0 0 0 0 
0 0 0 0 
0 0 0 0 
0 0 0 0 
0 0 0 0 
0 0 0 0 
0 -0.009259659012317113 -0.003419371217084955 0 
0 -0.009259659012317113 -0.003419371217084955 0 
0.01204887569595142 -0.009259659012317113 -0.003419371217084955 -0.01901413393010142 
0.01204887569595142 -0.009259659012317113 -0.003419371217084955 -0.01901413393010142 
0.003932544977991051 -0.01348661373552223 -0.007471235229101046 -1.355252715606881e-20 
0.001337815321858487 -0.004921439234039287 -0.0003021934074135744 0 
0.001337815321858487 -0.004921439234039287 -0.0003021934074135744 0 
0.00133781532185848 -0.005129325750661278 -0.0003021934074135748 0 
0.001337815321858487 -0.004921439234039287 -0.0003021934074135744 0 
0.001337815321858487 -0.004921439234039287 -0.0003021934074135744 0 
-8.673617379884035e-19 0 0 -0.01617132771792331 
0 0 0 0 
0 0 0 0 
0 -0.008368676784387583 -0.005030839675888747 0 
0 -0.008368676784387583 -0.005030839675888747 0 
0 -0.008368676784387583 -0.005030839675888747 0 
9.856276613902323e-05 -0.0009587599338706621 -0.0002061802006710077 0 
9.856276613902323e-05 -0.0009587599338706621 -0.0002061802006710077 0 
9.856276613902323e-05 -0.0009587599338706621 -0.0002061802006710077 0 
9.856276613902323e-05 -0.0009587599338706621 -0.0002061802006710077 0 
9.856276613902323e-05 -0.0009587599338706621 -0.0002061802006710077 0 
0.001181975536281269 -0.004964285508545506 -0.002884270424718525 0 
0.001181975536281269 -0.004964285508545506 -0.002884270424718525 0 
0.001181975536281269 -0.004964285508545506 -0.002884270424718525 0 
0.001181975536281269 -0.004964285508545506 -0.002884270424718525 0 
0.004087244408579447 -0.008296419330400581 -0.001023605625299515 -0.006128858181594189 
0 -0.00608125452246513 0 0 
0.004087244408579447 -0.008296419330400581 -0.001023605625299515 -0.006128858181594189 
0 -0.00608125452246513 0 0 
-0.1538187608198263 0.119766891991013 -0.03320063034442565 0 
0.01268910775455093 -0.01084607152875724 -0.01041764474224289 -0.01279674553897466 
0.01268910775455093 -0.01084607152875724 -0.01041764474224289 -0.01279674553897466 
0.01268910775455093 -0.01084607152875724 -0.01041764474224289 -0.01279674553897466 
0.01268910775455093 -0.01084607152875724 -0.01041764474224289 -0.01279674553897466 
0.01268910775455093 -0.01084607152875724 -0.01041764474224289 -0.01279674553897466 
0.01130388239274099 -0.01787934636560166 0 0 
0.03218811790676464 0 -0.003221670100117508 -0.005087849884806902 
0 0 0 0 
0 0 0 0 
0 0 0 0 
0.005384663500322646 -0.02176939534287946 -0.01225017023291464 0 
0 0 0 0 
0 0 0 0 
-0.1948425362523389 0.1878597303764028 -0.003892280096456961 0 
-0.1948425362523389 0.1878597303764028 -0.003892280096456961 0 
-0.1948425362523389 0.1878597303764028 -0.003892280096456961 0 
-0.1948425362523389 0.1878597303764028 -0.003892280096456961 0 
-0.1948425362523389 0.1878597303764028 -0.003892280096456961 0 
-0.1948425362523389 0.1878597303764028 -0.003892280096456961 0 
0 0 -0.004068753138787237 0 
0 0 -0.004068753138787237 0 
0 0 -0.004068753138787237 0 
0.07404996224454077 -0.06201158386292467 -0.02930835024796868 -0.06010137410740557 
0.04102377543251251 -0.06201158386292467 -0.02930835024796868 0 
0.04102377543251251 -0.06201158386292467 -0.02930835024796868 0 
0.04604101164378871 -0.06201158386292468 -0.03235478822878921 -0.01017639836625308 
0.04102377543251251 -0.06201158386292467 -0.02930835024796868 0 
0 0 0 0 
0 0 0 0 
0 -0.0002078865166219883 0 0 
0 -0.0002078865166219883 0 0 
0 0 -0.0002962262081898537 0 
0 0 -0.0002962262081898537 0 
0 0 -0.0002962262081898537 0 
0 0 -0.0002962262081898537 0 
0.02049717286048075 0 0 -0.006442991495772458 
0.02049717286048075 0 0 -0.006442991495772458 
0.02049717286048075 0 0 -0.006442991495772458 
0.02049717286048075 0 0 -0.006442991495772458 
0.09324802137582955 0 -0.004577503727493876 -0.1222360519508408 
0.03011091728190064 0 -0.002288751863746938 -0.03106733892171762 
0.03011091728190064 0 -0.002288751863746938 -0.03106733892171762 
0.005017236211276198 0 0 -0.01017639836625308 
0.005017236211276198 0 0 -0.01017639836625308 
0.02415300449621549 -0.02842107020677229 -0.02375434097627541 -0.006880223196066318 
0.02415300449621549 -0.02842107020677229 -0.02375434097627541 -0.006880223196066318 
0.02415300449621549 -0.02842107020677229 -0.02375434097627541 -0.006880223196066318 
0.02415300449621549 -0.02842107020677229 -0.02375434097627541 -0.006880223196066318 
0.000493749437459663 -0.003191735268602619 -0.01238506789179589 -0.004014050858008407 
0.000493749437459663 -0.003191735268602619 -0.01238506789179589 -0.004014050858008407 
0.000493749437459663 -0.003191735268602619 -0.01238506789179589 -0.004014050858008407 
0.000493749437459663 -0.003191735268602619 -0.01238506789179589 -0.004014050858008407 
0.000493749437459663 -0.003191735268602619 -0.01238506789179589 -0.004014050858008407 
0.01130388239274099 -0.01787934636560166 0 0 
0 0 0 0 
0.004087244408579447 -0.002215164807935452 -0.001023605625299514 -0.006128858181594189 
0.004087244408579447 -0.002215164807935452 -0.001023605625299514 -0.006128858181594189 
0.004087244408579447 -0.002215164807935452 -0.001023605625299514 -0.006128858181594189 
0.03953786638573734 0 0 -0.009943383440744413 
0.01976893319286867 0 0 -0.004971691720372207 
0.01976893319286867 0 0 -0.004971691720372207 
0 0 0 -0.01617132771792332 
0 0 0 -0.01617132771792332 
0.03302618681202826 0 0 -0.06010137410740557 
0.03302618681202826 0 0 -0.06010137410740557 
0.00259472965613257 -0.00835728798486096 -0.007169041821687472 0 
0 0 -0.003046437980820515 0 
0 0 -0.003046437980820515 0 
0.03218811790676464 0 -0.003221670100117508 -0.005087849884806901 
0 0 -0.006302410187271837 0 
0 0 -0.006302410187271837 0 
0 0 -0.006302410187271837 0 
0 0 -0.006302410187271837 0 
0 0 -0.006302410187271837 0 
-0.196064664453124 0 0.1945234287962302 0 
-0.196064664453124 0 0.1945234287962302 0 
-0.196064664453124 0 0.1945234287962302 0 
-0.196064664453124 0 0.1945234287962302 0 
-0.196064664453124 0 0.1945234287962302 0 
-0.196064664453124 0 0.1945234287962302 0 
-0.196064664453124 0 0.1945234287962302 0 
-0.196064664453124 0 0.1945234287962302 0 
-0.404892028355133 0 0 0.3716850735006131 
0 0 0 0 
0 0 0 0 
