solver_type L2R_L2LOSS_SVC_DUAL
nr_class 2
label 1 2
nr_feature 59
bias -1
w
0.1127815992986137 
0.1127815992986137 
-0.01979893801058926 
0.1127815992986137 
0.1127815992986137 
0.1127815992986137 
0.1127815992986137 
0.1127815992986137 
0.1127815992986137 
-0.01979893801058926 
0.0678599141567022 
0.02079995130057301 
-0.04289325931211286 
-0.2421793420858795 
-0.05179099100409282 
-0.05179099100409282 
-0.04289325931211286 
-0.2421793420858795 
-0.05179099100409282 
-0.05179099100409282 
-0.04692956206706507 
-0.06300439571063204 
-0.04692956206706507 
-0.008897731691979958 
-0.008897731691979958 
-0.1992860827737667 
-0.01121340470653922 
-0.08424962292700577 
-0.01121340470653922 
-0.01121340470653922 
-0.08424962292700577 
-0.01121340470653922 
-0.05984613058753829 
-0.106138728154781 
-0.05984613058753829 
-0.106138728154781 
0.1095988047766766 
0.1095988047766766 
0.1095988047766766 
0.1095988047766766 
0.1095988047766766 
0.1095988047766766 
0.1095988047766766 
0.1095988047766766 
-0.04123630740341446 
-0.02061815370170723 
-0.02061815370170723 
-0.04629259756724269 
-0.04629259756724269 
-0.004036302754952198 
-0.004036302754952198 
-0.004036302754952198 
-0.004036302754952198 
-0.004036302754952198 
-0.004036302754952198 
-0.04838176176380713 
-0.04838176176380713 
-0.04838176176380713 
-0.04838176176380713 
