solver_type L2R_L2LOSS_SVC_DUAL
nr_class 4
label 1 2 3 4
nr_feature 201
bias -1
w
0.1360054416072259 -0.0255321946048358 -0.0930842731807849 -0.05767020717421538 
0.1360054416072259 -0.0255321946048358 -0.0930842731807849 -0.05767020717421538 
-0.0424108573934949 -0.2352036618056709 -0.08844245241823791 -0.09056535581617382 
0.1360054416072259 -0.0255321946048358 -0.0930842731807849 -0.05767020717421538 
0.1360054416072259 -0.0255321946048358 -0.0930842731807849 -0.05767020717421538 
0.1360054416072259 -0.0255321946048358 -0.0930842731807849 -0.05767020717421538 
0.1360054416072259 -0.0255321946048358 -0.0930842731807849 -0.05767020717421538 
0.1360054416072259 -0.0255321946048358 -0.0930842731807849 -0.05767020717421538 
0.1360054416072259 -0.0255321946048358 -0.0930842731807849 -0.05767020717421538 
-0.1846002154256564 -0.09242448718757329 -0.07382784222529151 0.1330348916782794 
0.1360054416072259 -0.0255321946048358 -0.06485022441555101 -0.06985852964522797 
0.04987483909924061 -0.0559608697915402 0.04092677935758156 -0.1231790080068816 
-0.0424108573934949 -0.2352036618056709 -0.08844245241823791 -0.09056535581617382 
-0.07204470181381227 -0.1404273466423737 0.06585251415640833 -0.2763618465780406 
-0.05970017419392216 0.1898213500974888 -0.07337452177529009 -0.04777435008842319 
-0.05970017419392216 0.1898213500974888 -0.07337452177529009 -0.04777435008842319 
-0.05970017419392216 0.1898213500974888 -0.07337452177529009 -0.04777435008842319 
-0.05970017419392216 0.1898213500974888 -0.07337452177529009 -0.04777435008842319 
-0.05970017419392216 0.1898213500974888 -0.07337452177529009 -0.04777435008842319 
-0.05970017419392216 0.1898213500974888 -0.07337452177529009 -0.04777435008842319 
-0.05970017419392216 0.1898213500974888 -0.07337452177529009 -0.04777435008842319 
-0.05970017419392216 0.1898213500974888 -0.07337452177529009 -0.04777435008842319 
-0.05970017419392216 0.1898213500974888 -0.07337452177529009 -0.04777435008842319 
-0.008777485221479317 0.02404708305964582 -0.1901382335199652 0.047311399500703 
-0.08475086053025034 -0.03042867518670441 0.1340110525383665 -0.06550880083266618 
-0.08475086053025034 -0.03042867518670441 0.1340110525383665 -0.06550880083266618 
-0.08475086053025034 -0.03042867518670441 0.1340110525383665 -0.06550880083266618 
-0.08475086053025034 -0.03042867518670441 0.1340110525383665 -0.06550880083266618 
-0.08475086053025034 -0.03042867518670441 0.1340110525383665 -0.06550880083266618 
-0.08475086053025034 -0.03042867518670441 0.1340110525383665 -0.06550880083266618 
-0.08475086053025034 -0.03042867518670441 0.1340110525383665 -0.06550880083266618 
-0.08475086053025034 -0.03042867518670441 0.1340110525383665 -0.06550880083266618 
0.100821006093212 0 -0.03021098730431247 -0.05264276637222665 
0.324477150400222 -0.1114835351253975 -0.2665720196156543 -0.08155089134758742 
0.100821006093212 0 -0.03021098730431247 -0.05264276637222665 
0.1927950822499533 -0.01643454221922579 -0.1862270772810404 0.04540181894478771 
0.100821006093212 0 -0.03021098730431247 -0.05264276637222665 
0.324477150400222 -0.1114835351253975 -0.2665720196156543 -0.08155089134758742 
0.100821006093212 0 -0.03021098730431247 -0.05264276637222665 
0.100821006093212 0 -0.03021098730431247 -0.05264276637222665 
-0.01998125228989429 -0.03369181518953057 0.09250265073996392 -0.07017962478739248 
0.1541308811932191 -0.05208516828297534 -0.04076254192538598 -0.1077866945500923 
0.05585222742552583 -0.01566027219769647 -0.04270331356009047 -0.02467442661714675 
0.05585222742552583 -0.01566027219769647 -0.04270331356009047 -0.02467442661714675 
-0.004468564940986731 -0.01566027219769647 0.03721860335523997 -0.02467442661714675 
0.05585222742552583 -0.01566027219769647 -0.04270331356009047 -0.02467442661714675 
0.1854907401918072 -0.03738483092248451 -0.1021091881809927 -0.1420058300921134 
-0.1621688376577143 -0.04804376068131849 0.2128089725753485 -0.04698276372879355 
-0.2071616289084809 -0.06057894972313191 0.3334014318360162 -0.1001834390722296 
-0.03946099879749276 -0.001664758172510277 0.01574765648085784 0 
-0.01329439215372755 -0.001664758172510277 0.003583664998425083 0 
-0.1609912577742702 -0.04795502210423874 0.181257693866389 -0.02486507992998034 
-0.2071616289084809 -0.06057894972313191 0.3334014318360162 -0.1001834390722296 
-0.03946099879749276 -0.001664758172510277 0.01574765648085784 0 
-0.01329439215372755 -0.001664758172510277 0.003583664998425083 0 
-0.02370447661757831 -0.001664758172510277 0.01069843046193534 0 
-0.08115858161163146 -0.00409940003834963 0.03333051376488032 -3.469446951953614e-18 
0.1678376805313923 -0.04920305404169591 -0.09905823004005734 -0.1207411677354555 
-0.03090840925796569 -0.01262514705709354 0.04369316885263245 -0.01481849097920324 
0.02941238310854687 -0.01262514705709354 -0.03622874806269798 -0.01481849097920324 
0.08667471713542718 -0.0332470646902937 -0.07697863593557039 -0.06013381148629626 
0.02941238310854687 -0.01262514705709354 -0.03622874806269798 -0.01481849097920324 
0.02941238310854687 -0.01262514705709354 -0.03622874806269798 -0.01481849097920324 
0.1188866141698176 0 -0.05471083050509367 -0.03773532237575609 
0.1188866141698176 0 -0.05471083050509367 -0.03773532237575609 
0.1188866141698176 0 -0.05471083050509367 -0.03773532237575609 
0.1188866141698176 0 -0.05471083050509367 -0.03773532237575609 
0.1188866141698176 0 -0.05471083050509367 -0.03773532237575609 
0.1188866141698176 0 -0.05471083050509367 -0.03773532237575609 
-0.01169113153144132 -0.0006399143261117806 0.003396056069769497 0 
-0.04169758281413874 -0.002434641865839353 0.01758285728402246 0 
-0.01169113153144132 -0.0006399143261117806 0.003396056069769497 0 
-0.01169113153144132 -0.0006399143261117806 0.003396056069769497 0 
-0.04169758281413874 -0.002434641865839353 0.01758285728402246 0 
-0.004443110410097329 -0.01999602974386893 0.03977121442094442 -0.01096502451533 
-0.004443110410097329 -0.01999602974386893 0.03977121442094442 -0.01096502451533 
-0.004443110410097329 -0.01999602974386893 0.03977121442094442 -0.01096502451533 
-0.004443110410097329 -0.01999602974386893 0.03977121442094442 -0.01096502451533 
-0.02254581158160965 -0.006165776826632038 0.0613115062341506 -0.02695290478175029 
-0.02254581158160965 -0.006165776826632038 0.0613115062341506 -0.02695290478175029 
-0.04499279125076681 -0.01253518904181343 0.1205924592606676 -0.05320067534343606 
-0.02254581158160965 -0.006165776826632038 0.0613115062341506 -0.02695290478175029 
-0.02254581158160965 -0.006165776826632038 0.0613115062341506 -0.02695290478175029 
-0.02254581158160965 -0.006165776826632038 0.0613115062341506 -0.02695290478175029 
-0.04765083720790905 -0.06060486081602718 -0.1794030686835107 0.2066376076392982 
0.1813847112693661 -0.005000011629344875 -0.05650764032308455 -0.1025129124957634 
0.1813847112693661 -0.005000011629344875 -0.05650764032308455 -0.1025129124957634 
0.1813847112693661 -0.005000011629344875 -0.05650764032308455 -0.1025129124957634 
0.06686693703072852 -0.03280243622268603 -0.1179553545032977 0.05206234757176738 
0.1813847112693661 -0.005000011629344875 -0.05650764032308455 -0.1025129124957634 
0.1813847112693661 -0.005000011629344875 -0.05650764032308455 -0.1025129124957634 
-0.01591999994608683 -0.001475153227627565 0.00539149070679531 0 
-0.01591999994608683 -0.001475153227627565 0.00539149070679531 0 
-0.01591999994608683 -0.001475153227627565 0.00539149070679531 0 
-0.06404291755564018 -0.0302807185612128 -0.08266184646894226 0.1266502502710853 
-0.06404291755564018 -0.0302807185612128 -0.08266184646894226 0.1266502502710853 
-0.1250505849425585 -0.06139758933480413 -0.1364659783985884 0.2468522834217955 
-0.06404291755564018 -0.0302807185612128 -0.08266184646894226 0.1266502502710853 
-0.06404291755564018 -0.0302807185612128 -0.08266184646894226 0.1266502502710853 
-0.06404291755564018 -0.0302807185612128 -0.08266184646894226 0.1266502502710853 
-0.1250505849425585 -0.06139758933480413 -0.1364659783985884 0.2468522834217955 
-0.06404291755564018 -0.0302807185612128 -0.08266184646894226 0.1266502502710853 
-0.08783221114035514 -0.03691066203860593 0.1738808413152099 -0.1087323300042013 
-0.08783221114035514 -0.03691066203860593 0.1738808413152099 -0.1087323300042013 
-0.08783221114035514 -0.03691066203860593 0.1738808413152099 -0.1087323300042013 
-0.08783221114035514 -0.03691066203860593 0.1738808413152099 -0.1087323300042013 
-0.08783221114035514 -0.03691066203860593 0.1738808413152099 -0.1087323300042013 
-0.08783221114035514 -0.03691066203860593 0.1738808413152099 -0.1087323300042013 
-0.09607988285701474 -0.06430118197988903 0.05229279755707951 0.03121781155941719 
-0.005772205717655739 -0.009211690685903683 0 -0.0009707921418949541 
-0.005772205717655739 -0.009211690685903683 0 -0.0009707921418949541 
-0.005772205717655739 -0.009211690685903683 0 -0.0009707921418949541 
-0.005772205717655739 -0.009211690685903683 0 -0.0009707921418949541 
-0.01408645133661058 -0.0003195743121000078 0.008795310507457658 0 
-0.01408645133661058 -0.0003195743121000078 0.008795310507457658 0 
-0.01408645133661058 -0.0003195743121000078 0.008795310507457658 0 
-0.001110188006108819 -0.007018066860464347 0 -0.0007409408017427916 
-0.001110188006108819 -0.007018066860464347 0 -0.0007409408017427916 
-0.001110188006108819 -0.007018066860464347 0 -0.0007409408017427916 
-0.001110188006108819 -0.007018066860464347 0 -0.0007409408017427916 
-0.01041008446385076 0 0.007114765463510252 0 
-0.01041008446385076 0 0.007114765463510252 0 
-0.1145177742386376 -0.02780242459334115 -0.06144771418021311 0.1545752600675308 
-0.1145177742386376 -0.02780242459334115 -0.06144771418021311 0.1545752600675308 
-0.1145177742386376 -0.02780242459334115 -0.06144771418021311 0.1545752600675308 
-0.1145177742386376 -0.02780242459334115 -0.06144771418021311 0.1545752600675308 
-0.1145177742386376 -0.02780242459334115 -0.06144771418021311 0.1545752600675308 
-0.006806637684529269 -0.007629834775652135 0 0 
-0.006806637684529269 -0.007629834775652135 0 0 
-0.006806637684529269 -0.007629834775652135 0 0 
-0.006806637684529269 -0.007629834775652135 0 0 
0.05726233402688031 -0.02062191763320017 -0.04074988787287238 -0.04531532050709304 
0.05726233402688031 -0.02062191763320017 -0.04074988787287238 -0.04531532050709304 
0.05726233402688031 -0.02062191763320017 -0.04074988787287238 -0.04531532050709304 
0.05726233402688031 -0.02062191763320017 -0.04074988787287238 -0.04531532050709304 
0.08116296339596511 -0.0159559893514022 -0.02207959410448699 -0.06060735624915925 
0.08116296339596511 -0.0159559893514022 -0.02207959410448699 -0.06060735624915925 
0.08116296339596511 -0.0159559893514022 -0.02207959410448699 -0.06060735624915925 
0.08116296339596511 -0.0159559893514022 -0.02207959410448699 -0.06060735624915925 
0.08116296339596511 -0.0159559893514022 -0.02207959410448699 -0.06060735624915925 
0.07949070784951348 -0.02996082627446646 -0.02587671169395371 -0.06550789568288308 
0.07949070784951348 -0.02996082627446646 -0.02587671169395371 -0.06550789568288308 
0.07949070784951348 -0.02996082627446646 -0.02587671169395371 -0.06550789568288308 
0.07949070784951348 -0.02996082627446646 -0.02587671169395371 -0.06550789568288308 
0.07949070784951348 -0.02996082627446646 -0.02587671169395371 -0.06550789568288308 
0.07949070784951348 -0.02996082627446646 -0.02587671169395371 -0.06550789568288308 
-0.07445373773768516 -0.01803154299183411 0.1352059643000544 -0.04550519817024576 
-0.07445373773768516 -0.01803154299183411 0.1352059643000544 -0.04550519817024576 
-0.07445373773768516 -0.01803154299183411 0.1352059643000544 -0.04550519817024576 
-0.07445373773768516 -0.01803154299183411 0.1352059643000544 -0.04550519817024576 
-0.07445373773768516 -0.01803154299183411 0.1352059643000544 -0.04550519817024576 
-0.07583347971542011 -0.01803154299183411 0.1352059643000544 -0.04550519817024576 
-0.07445373773768516 -0.01803154299183411 0.1352059643000544 -0.04550519817024576 
0 0 0.02823404876523388 -0.0121883224710126 
0 0 0.02823404876523388 -0.0121883224710126 
0 0 0.02823404876523388 -0.0121883224710126 
0 0 0.02823404876523388 -0.0121883224710126 
-0.0894106351126247 -0.01143453058988092 -0.09950844965364343 0.2005574978127778 
-0.0894106351126247 -0.01143453058988092 -0.09950844965364343 0.2005574978127778 
-0.0894106351126247 -0.01143453058988092 -0.09950844965364343 0.2005574978127778 
-0.0894106351126247 -0.01143453058988092 -0.09950844965364343 0.2005574978127778 
-0.0894106351126247 -0.01143453058988092 -0.09950844965364343 0.2005574978127778 
-0.0894106351126247 -0.01143453058988092 -0.09950844965364343 0.2005574978127778 
-0.0894106351126247 -0.01143453058988092 -0.09950844965364343 0.2005574978127778 
0.1585994461342058 -0.03642489608527887 -0.07798114528062594 -0.08311226793294557 
0.1585994461342058 -0.03642489608527887 -0.07798114528062594 -0.08311226793294557 
0.1585994461342058 -0.03642489608527887 -0.07798114528062594 -0.08311226793294557 
0.1585994461342058 -0.03642489608527887 -0.07798114528062594 -0.08311226793294557 
0.1585994461342058 -0.03642489608527887 -0.07798114528062594 -0.08311226793294557 
0.1585994461342058 -0.03642489608527887 -0.07798114528062594 -0.08311226793294557 
0.1585994461342058 -0.03642489608527887 -0.07798114528062594 -0.08311226793294557 
-0.02244697966915716 -0.006369412215181394 0.05928095302651697 -0.02624777056168577 
-0.02244697966915716 -0.006369412215181394 0.05928095302651697 -0.02624777056168577 
-0.02244697966915716 -0.006369412215181394 0.05928095302651697 -0.02624777056168577 
-0.02244697966915716 -0.006369412215181394 0.05928095302651697 -0.02624777056168577 
-0.02244697966915716 -0.006369412215181394 0.05928095302651697 -0.02624777056168577 
-0.06032079236651255 0 0.07992191691533043 0 
-0.1984110856692392 -0.01665938261153873 -0.01401194651214658 0.2197506874358807 
-0.1984110856692392 -0.01665938261153873 -0.01401194651214658 0.2197506874358807 
-0.1984110856692392 -0.01665938261153873 -0.01401194651214658 0.2197506874358807 
-0.1984110856692392 -0.01665938261153873 -0.01401194651214658 0.2197506874358807 
-0.1984110856692392 -0.01665938261153873 -0.01401194651214658 0.2197506874358807 
-0.1984110856692392 -0.01665938261153873 -0.01401194651214658 0.2197506874358807 
-0.06100766738691835 -0.03111687077359132 -0.05380413192964616 0.1202020331507102 
-0.06100766738691835 -0.03111687077359132 -0.05380413192964616 0.1202020331507102 
-0.06100766738691835 -0.03111687077359132 -0.05380413192964616 0.1202020331507102 
-0.06100766738691835 -0.03111687077359132 -0.05380413192964616 0.1202020331507102 
-0.06100766738691835 -0.03111687077359132 -0.05380413192964616 0.1202020331507102 
-0.06100766738691835 -0.03111687077359132 -0.05380413192964616 0.1202020331507102 
-0.00137974197773496 0 0 0 
-0.00137974197773496 0 0 0 
-0.001177579883444061 -8.873857707974433e-05 0.03155127870895943 -0.02211768379881321 
-0.001177579883444061 -8.873857707974433e-05 0.03155127870895943 -0.02211768379881321 
-0.001177579883444061 -8.873857707974433e-05 0.03155127870895943 -0.02211768379881321 
-0.001177579883444061 -8.873857707974433e-05 0.03155127870895943 -0.02211768379881321 
-0.001177579883444061 -8.873857707974433e-05 0.03155127870895943 -0.02211768379881321 
-0.001177579883444061 -8.873857707974433e-05 0.03155127870895943 -0.02211768379881321 
-0.001177579883444061 -8.873857707974433e-05 0.03155127870895943 -0.02211768379881321 
-0.01575652217991445 0 0.005049226018922507 0 
-0.01575652217991445 0 0.005049226018922507 0 
-0.01575652217991445 0 0.005049226018922507 0 
