solver_type L2R_L2LOSS_SVC_DUAL
nr_class 4
label 1 2 3 4
nr_feature 2004
bias -1
w
-0.08344480616119859 -0.001349038400856167 0.1050748602078487 -0.01325074454329579 
0.06026971624813703 -0.07036782830128233 -0.01133864598430378 0 
-0.1388463464782796 0.00996892951170625 -0.1315510657958245 -0.1566534461222933 
0.6694762207395299 -0.4293585688339223 -0.3219566512870098 -0.08776552015715997 
-0.01613296405999187 -0.1298917397579638 0.1002894459488591 0.0180255871475471 
0.004045177577166963 0 -0.02362251385822532 0 
0.06026971624813703 -0.07036782830128233 -0.01133864598430378 0 
0.6694762207395299 -0.4293585688339221 -0.3219566512870098 -0.08776552015715997 
0.03076513480083584 8.673617379884035e-19 -0.03090624614404468 0 
-0.0255235514737037 -0.007646279594135715 0.008447453262817466 -0.2724201917672928 
-0.05975690159210061 -0.1256344043168824 -0.1719048018936761 -0.361436532371674 
-0.114992646538956 0.06786978712944317 -0.01217344017911957 0.07083229793990495 
-0.0651119639239322 0.1797813091815937 -0.06262812919588566 -0.0829591214037993 
-0.2342927468000493 0.3670985621813189 -0.1725318567693744 -0.1195472506864601 
0.1065779281152566 0.009592500617492811 -0.06698024025359406 -0.03419254045835467 
-0.06874308290264407 0.06447681936215155 0 -0.0195085159361359 
-0.118486966789424 0.1558563461445921 -0.06262812919588566 -0.06052142410837281 
-0.2342927468000493 0.3670985621813189 -0.1725318567693744 -0.1195472506864601 
-0.06874308290264407 0.06447681936215155 0 -0.0195085159361359 
-0.06874308290264407 0.06447681936215155 0 -0.0195085159361359 
0.1475608792250752 -0.1391612372850321 -0.04470865951530573 0.01757557292551502 
0.02324134001628918 -0.07940061812899202 -0.1216504120708998 0.09188547716135612 
0.005955905260107149 0.01617879855495344 0.03137604558493673 -0.1384042014243595 
-0.2292238342045726 0.1504025528260743 0.006105959395680705 0.04145096509960401 
0.1248656868323401 -0.1203007799517436 -0.1454324851232479 0.03888702799101727 
-0.08426342536490269 -0.01964046065148368 0.0827617368488522 -0.04846957914470163 
-0.02548816206292963 0 0.01956760015974088 0 
0 0 0 0 
0.7347301894017982 -0.530634965097138 -0.3562884082554005 -0.1013444261617102 
-0.003892241929684258 0.06722984107055209 -0.07257081834375079 -6.505213034913027e-19 
0 0 0 0 
0 0 0 0 
0.7347301894017982 -0.530634965097138 -0.3562884082554005 -0.1013444261617102 
0.003855382046584338 -0.008483998950625956 1.734723475976807e-18 0 
0.1953126997021949 -0.2348509420779551 0.08147818449596006 -0.0340754977317739 
0 0 0 0 
-6.938893903907228e-18 -8.673617379884035e-19 0 0 
0.0004874995869270166 0 0 0 
0 0 0 0 
0 0 0 0 
0 0 0 0 
-0.02289205644015421 0.09810291251761151 -0.05510678425511088 -0.03538854478117544 
0.05804349259630081 -0.09504836137928545 0.08776011387983297 -0.07764847093210704 
-0.06128873119556021 0.08527311697337527 -0.02559113717071112 -0.03203367532863451 
-0.3907452179339868 0.4724369286742956 -0.2562583962050177 0.1254391241231035 
0 0.01395886138365464 0 -0.02364127661318287 
0 0.01395886138365464 -0.05634598562174278 -0.02364127661318287 
0 0.04207520994945121 0 -0.02765115746430465 
-0.3907452179339867 0.525605266091614 -0.2562583962050177 0.1254391241231035 
0 0.01395886138365464 0 -0.02364127661318287 
0 0.01395886138365464 0 -0.02364127661318287 
-0.00265025494676133 0.1469945104255482 -0.1594167969401188 -0.05635790628746651 
0.03512304101150844 -0.04165149423349206 0 0 
0.08599768911626025 0 -0.07096966139507865 0 
0.02266804433201439 -0.04165149423349206 0 0 
0.02266804433201439 -0.04165149423349206 0 0 
0 0 0 0 
-0.08553832482671865 0.0238512880022339 0.09214504042725069 -0.07714399879132236 
-0.234604087494105 0.4020747522282822 -0.1464522871473144 -0.05256324134463831 
-0.0282988461374093 0.07471846553694828 -0.05333892771582009 -0.03094783182871664 
-0.01569039619576101 0.02347948779653488 0 0 
-0.0282988461374093 0.07471846553694828 -0.05333892771582009 -0.03094783182871664 
-0.2431765023847193 0.3416996287638496 -0.07599029811615053 -0.04682404710596706 
-0.0282988461374093 0.07471846553694828 -0.05333892771582009 -0.03094783182871664 
-0.01569039619576101 0.02347948779653488 0 0 
-0.01347991798365358 0.281878127952135 -0.2303565884992963 -0.09495521143420088 
-0.04831553310969555 0.0395689462412487 0 0 
-0.04831553310969555 0.0395689462412487 0 0 
-0.04831553310969555 0.1117335027340342 -0.002037205944888141 -0.02640886636227996 
-0.04831553310969555 0.0395689462412487 0 0 
-0.04831553310969555 0.0395689462412487 0 0 
0.4462901640593553 -0.2401397840787126 -0.1544060596239673 -0.1589476169079338 
-0.08406222966615763 0.1151180955910429 -0.005893149534723764 -0.01530965475743332 
-0.09189844423882843 0.1151180955910429 0 -0.01530965475743332 
-0.03081363035141159 0.08811009445272816 -0.01241228156825394 -0.01969217262176316 
-0.09189844423882843 0.1151180955910429 0 -0.01530965475743332 
-0.09189844423882843 0.1151180955910429 0 -0.01530965475743332 
-0.1318516225313851 0.164413560113266 0 -0.01530965475743332 
-0.1117979476808975 0.1358051723946085 0 -0.01530965475743332 
-0.09189844423882843 0.1151180955910429 0 -0.01530965475743332 
0.062327327856406 0.1710403532455697 -0.2885537600443168 -0.1028746552807232 
0.01055637230409093 0 0 0 
0.07913891696570546 -0.02354331035859473 -0.01362540598587783 -0.1652277569735034 
0.01055637230409093 0 0 0 
-0.1184428076172968 0.2220918373620083 -0.1498521109481326 0 
0.05811277605805508 -0.119789276431062 -0.006446754215405219 4.336808689942018e-18 
0.09807592023661729 -0.05274371420791189 -0.0352992547052156 -0.01150004756341074 
0.05670225575927509 -0.04362800798281141 -0.01065231201648275 -0.1065595867041318 
0.0170013230594203 -0.291607502482488 0.04323396363290972 0.2404270119029813 
0 0 0 0 
-0.01398048208211695 -0.03663702068504386 0.06815967598612106 0 
0.02263740617759683 0 0 -0.01773323540566156 
0.1217137487680922 0.001039925017730586 -0.07582571166705018 -0.04074599940991015 
0 0 0 0 
0.08200874157313676 -0.05297930896478218 -0.01803238782175983 0 
0.1488677305844891 -0.01306238263204302 -0.1516442945144539 -0.02366104701732151 
0 0 0 0 
0 0 0 0 
0 0 0 0 
0 0 0 0 
0 0 0 0 
0 0 0 0 
0.01299317346679519 0 -0.02180411526689168 -0.0001552083057505471 
0.3873708781300053 -0.2856074464026405 -0.1883042759920348 -0.03197381533248864 
0.01299317346679518 0 -0.02180411526689167 0 
0.01299317346679519 0 -0.02180411526689168 -0.0001552083057505471 
0.3873708781300053 -0.2856074464026405 -0.1883042759920348 -0.03197381533248864 
-0.1094170561155823 0.1125048538871316 -0.03308905817763099 -0.03538854478117544 
-0.1094170561155823 0.1125048538871316 -0.03308905817763099 -0.03538854478117544 
-0.1094170561155823 0.1125048538871316 -0.03308905817763099 -0.03538854478117544 
-0.0776474915660923 0.09810291251761151 -0.03308905817763099 -0.03538854478117544 
-0.1094170561155823 0.1125048538871316 -0.03308905817763099 -0.03538854478117544 
-0.1094170561155823 0.1125048538871316 -0.03308905817763099 -0.03538854478117544 
-0.1094170561155823 0.1125048538871316 -0.03308905817763099 -0.03538854478117544 
-0.1094170561155823 0.1125048538871316 -0.03308905817763099 -0.03538854478117544 
-0.1094170561155822 0.1125048538871316 -0.03308905817763099 -0.03538854478117544 
-0.1456626944005131 0.1965642583278527 -0.04148233592333445 -0.03538854478117544 
0 0 -4.336808689942018e-19 0 
0 0 0 0 
0.01353539429575581 -0.01995069391330217 -0.01585943705314769 0 
0 0 0 0 
0 0 0 0 
0.1299817428725505 -0.07871099497659928 -0.05014048508931136 0 
-0.03769412853983938 0.1309921931029416 -0.01473094937832086 -0.01587621527725043 
0.1324105913180402 -0.1002452185869266 -0.03097225590148341 -0.0005920257711987456 
0 0 0 0 
0.03739949039367888 -1.734723475976807e-18 0 0 
0 0 0 0 
0.289003169085557 -0.1375030324755609 -0.09673575294107352 -0.03302400040464488 
0 0 0 0 
0 0 0 0 
0 0 0 0 
-0.09191549472420037 0.165454154204455 -0.07756635488052881 -0.01694667263016089 
0 0 0 0 
0 0 0 0 
0 0 0 0 
0 0 0 0 
0 0 0 0 
0 0 0 0 
0.17123976446693 -0.09427847920874492 -0.05122868109524552 -0.02912464507385486 
0 0 0 0 
0 0 0 0 
0.02989550131835645 -0.01995069391330217 -0.03481746360135169 -4.336808689942018e-19 
0 0 0 0 
-0.09797260657189627 -0.02456325710421921 0.06428302398359186 0 
-0.2516974253176107 0.09620685227820672 0.2124330581315632 -0.1070118068552759 
-0.005354852889467864 -0.03124412566730888 0.07606843987563616 -0.009593108139342287 
-0.09797260657189627 -0.02456325710421921 0.06428302398359186 0 
-0.2516974253176107 -0.416196238716011 0.7427337892131636 -0.1070118068552759 
-0.1021151876072518 -0.02456325710421921 0.130814531319346 0 
0.06741320322291483 -0.1447006643410139 0.03711764249404294 -0.006878259681764669 
0.04839823442164713 -0.008058287102389282 -0.03329218533180948 -0.005325498460263508 
0 -0.05316833741731921 0 0 
0 0 0 0 
0 -0.05316833741731922 0 0 
0.03173636366689107 0 -0.01912780585620147 0 
0 0 0 0 
0 0 0 0 
0 0 0 0 
0.08516629438444456 -0.04069309996216601 -0.03067890935209684 0 
0 0 0 0 
0 0 0 0 
0.04344403781098988 -0.007257414654183092 -0.0665583975289178 0 
0.1200011313043222 0 -0.1022235538764131 -0.02540157981558641 
-0.07159295596252517 0.1173561996697791 -0.162191708648203 0.1243169546407587 
0 0 0 0 
0 0 0 0 
0 0 0 0 
-0.1540650117091794 -0.07392829224033927 -0.08026629430793127 0.2016908968469343 
0 0.08933690951584383 -0.02248694441021452 -0.05068553926597742 
-0.1232251183338561 0.04654195062525485 0.01419977544202956 0.1346984684901871 
0 0.08933690951584383 -0.02248694441021452 -0.05068553926597742 
0 0.08933690951584383 -0.02248694441021452 -0.05068553926597742 
0 0.08933690951584383 -0.02248694441021452 -0.05068553926597742 
-0.01654392188198302 0.06964859553652457 -0.005025524660689323 -0.003328686295072039 
0.05146091937680621 -0.04306310067276176 3.469446951953614e-18 0 
0.01245499667949405 0 0 0 
0.01245499667949405 0 1.734723475976807e-18 0 
0.05146091937680621 -0.04306310067276177 3.469446951953614e-18 0 
0.01399166568123636 0 -0.006002235810321123 0 
-0.03856338086043026 -0.08885104223786926 0.1320938818122783 0 
0.01399166568123636 0 -0.006002235810321123 0 
0.01399166568123636 0 -0.006002235810321123 0 
0.01399166568123636 0 -0.006002235810321123 0 
-0.01678933068788879 0.08807025020306575 -0.07922824142246714 -0.01827835974740183 
0.005990837338069802 -0.02734625161218903 0 0 
0.01030514318882404 -0.02734625161218904 -0.00241798930779547 0 
0.005990837338069802 -0.02734625161218904 0 0 
0.005990837338069802 -0.02734625161218903 0 0 
0.005990837338069802 -0.02734625161218904 0 0 
0.009334351990888119 0 0 0 
0 0 0 0 
-0.02899891856147707 0.07276846124022116 -0.005025524660689324 -0.02027535892523293 
0 0 0 0 
0 0 0 0 
0 0 0 0 
0.06081645185825282 0.002696780174962923 -0.03477197403871677 -0.02530108982572179 
0.3952870217313808 -0.2753484516422554 -0.2069553487904993 -0.04874099731246498 
0.07455856358820734 0.0006492428182527472 -0.03500468511634658 -0.05686197669479811 
0.03789645816372496 1.040834085586084e-17 -0.0279902296816024 -0.01815065193647352 
0.06081645185825282 1.301042606982605e-18 -0.03477197403871677 -0.01815065193647352 
0.3952870217313808 -0.2753484516422554 -0.2069553487904993 -0.04874099731246498 
0.05356277402860327 -0.05188615851605467 -0.0025569272948974 0 
0.007904323438690521 -0.3445707307796648 -0.09315004230558066 0.3573578095783551 
0 0 0 -0.01815065193647352 
0.04047911588210906 0.01525718893231987 4.336808689942018e-19 -0.1026659969712484 
-0.07460638162207503 0.2120776562959503 -0.09622389338773449 -1.734723475976807e-18 
0 0 0 0 
0.0545034010380146 0 0 0 
0.1314198814528547 -0.03428109125067975 -0.07798207546195987 -0.01448777053919042 
0 0.02348517599438339 0 -0.02640886636227996 
0.0721538814956915 -0.00461364596593791 -0.04480996002667425 -0.01448777053919042 
0.1133289847557367 -0.03167727825798927 -0.07798207546195984 -0.01448777053919042 
0 0 0 0 
0.0721538814956915 -0.00461364596593791 -0.04480996002667424 0 
0.01349778729874227 0 -0.008480438615977892 0 
0 0 0 0 
0 0 0 0 
0.01349778729874227 0 -0.008480438615977892 0 
0 0 0 0 
-0.07563690647310087 0.01973403236107921 0.09610518671077015 -0.01134431056495801 
9.974659986866641e-18 -0.01103307127258502 0.02486159390480109 0 
0 0 0 0 
0 0 0 0 
0 0 0 0 
0 0 0 0 
-0.09124305838347885 0.1496104057999326 -0.07284735909844448 -0.02397997296698424 
0.007596288409497049 0 0 0 
0.007596288409497049 0 0 0 
0.007596288409497049 0 0 0 
-0.1500751241643915 0.1342221784090497 -0.1534920266566086 0.1265148350893147 
0 -0.0004871745118115168 0 0 
0 -0.0004871745118115168 0 0 
-0.02669927662834931 -0.214747305718606 0.103709045384802 0.1503925294851072 
0.03966100776122422 -0.02232636147438754 0 0 
0 0 0 0 
0 -0.0114214356971263 0 0 
0 0 -0.01316215307227487 0 
0 0 0 0 
0.02690654240401524 -0.3445397469206643 0.06157874123210154 0.2284965896122272 
0 0 0 0 
0 0 0 0 
0.1753210110179007 -0.05488431874465875 -0.06698024025359404 -0.03337834574226406 
0 0 0 0 
-0.02248480553267895 0.04375717919394657 -0.01718132941148789 0 
0.04015688119085681 -0.03193516915700628 0 0 
0.04015688119085681 -0.03193516915700628 0 0 
0.03444630300082858 -0.03193516915700628 0 0 
0.02971886954833776 -0.04564525486269516 0.01369478621682727 0 
-0.2320300201691536 -0.2656730304954571 0.261525893247766 0.2179849486388434 
-0.1116528898395135 -0.1509684750475751 0.3109828486316352 -0.05238335654458024 
0 -0.04564525486269515 0.01369478621682726 0 
0 -0.04564525486269515 0.01369478621682726 0 
-0.1712291655686291 -0.2019309442143618 0.4844535538709148 -0.05238335654458024 
-0.1116528898395135 -0.1509684750475751 0.3109828486316352 -0.05238335654458024 
-0.07819102414162926 0.0524425228295666 -0.0141418500446884 -0.008340287312109899 
-0.07819102414162926 0.0524425228295666 -0.0141418500446884 -0.008340287312109899 
0.0163748784041474 -0.0004474638337309995 -0.01414185004468841 -0.0083402873121099 
-0.07819102414162926 0.0524425228295666 -0.0141418500446884 -0.008340287312109899 
-0.07819102414162926 0.0524425228295666 -0.0141418500446884 -0.008340287312109899 
-0.07819102414162926 0.0524425228295666 -0.0141418500446884 -0.008340287312109899 
-0.02213540234177595 0.1398223275337848 -0.06404475291544998 -0.04723211492478324 
0 0 0 0 
0 0 0 0 
0 0 0 0 
0 0 0 0 
0 0 0 0 
0 -0.01660459284344849 0 0 
0 0 0 0 
0 0 0 0 
0 -0.01660459284344849 0 0 
1.734723475976807e-18 -0.02475014689832982 0 0 
0.01135462026334416 0 -0.01282844990047955 0 
0 0 0 0 
0 0 0 0 
0.01135462026334416 0 -0.01282844990047955 0 
0 0 0 0 
0 0 0 0 
0 0 0 0 
-0.1129509246375269 0.1830020899660158 -0.07576362522115843 -0.01080336024417223 
0.007925162395164357 -0.05336485350759659 0 0 
-0.06948181411030438 0.09514159561181219 -0.06123572382100075 0 
0.007925162395164357 -0.03269030045262893 0 0 
0.007925162395164357 -0.05336485350759659 0 0 
0.01191816208361382 -0.0510725793482342 0 0 
0 0 0 0 
0 0 0 0 
0 -0.008483998950625956 0 0 
0 -0.008483998950625956 0 0 
0 -0.008483998950625956 0 0 
-0.08382182980086059 0.1411879616937367 -0.06231031758995191 0 
0.01940891323323673 -0.05453271012883533 0.09075944276575527 -8.673617379884035e-19 
0 0 0 0 
-8.673617379884035e-19 0 0 0 
0.03180557832866335 -0.01789568944379148 0 0 
0 0 0 0 
0 0 0 0 
-0.08889027535772566 0.1248767736876235 -0.03043265340492238 0 
0 0 0 0 
0 0 0 0 
0.00571057819002822 0 0 0 
0.02541098322013789 -0.01297938612015263 -0.02328864991507844 0 
0.1658869732311336 -0.1142903895868135 -0.02328864991507843 0 
0.3419885630869732 -0.2131418600445276 -0.1469812846190017 -0.001327205823500297 
0.02541098322013789 -0.01297938612015263 -0.02328864991507844 0 
0.02541098322013789 -0.01297938612015263 -0.02328864991507844 0 
0.3419885630869732 -0.2131418600445276 -0.1469812846190017 -0.001327205823500297 
0.02541098322013789 -0.01297938612015263 -0.02328864991507844 0 
-0.02356677667783398 0.07436639615954861 -0.06123572382100072 0 
0 0 0 0 
0 0 0 0 
0 0 0 0 
0 0 0 0 
0 0 0 0 
0.02319402097428673 0 -0.02171761330127653 0 
0.01642811187087262 -0.0142041111323989 -0.004030808090399522 -0.001327205823500299 
0 0 0 0 
0 0 0 0 
0 0 0 0 
0 0.05560932742794743 0 -0.04234129631482197 
0.01641278776995771 1.734723475976807e-18 -0.03925776950715655 4.336808689942018e-19 
0 0 0 0 
0 0 0 0 
0.05335279636547536 -0.01167689762104077 -0.02189574425330675 0 
0.06370565626952135 -0.06724264550913728 0 0 
0.001310890477707369 0.09321742031623834 -0.06809209503007765 -0.1415667099561819 
0 0 0 0 
0.06370565626952135 -0.06724264550913728 0 0 
0 0 0 0 
0.03778235458828408 -0.1358080105818919 0.09207956230247673 -1.301042606982605e-18 
0.07086812923112577 -0.04522636006792301 0 0 
0.1460468318954338 -0.1595067075072892 5.204170427930421e-18 -0.03011655412457973 
0.07086812923112577 -0.04522636006792301 0 0 
0 0 0 0 
0 0 0 0 
0 0 0 -0.01309621246802465 
0.007836214572670799 0 -0.005893149534723764 0 
0 0 0 0 
0 0 0 0 
0 0 0 0 
0.007645823414818398 0 -8.673617379884035e-19 0 
0 0 0 0 
0 0 0 0 
0 0 0 0 
0 0 0 0 
0 0 0 0 
-3.469446951953614e-18 0.01443386157187062 0 -0.02301303855347607 
0 0 0 0 
0 0 0 0 
0 0 0 0 
0.01944420415794787 0.01237834007732751 -0.02258156819344621 -0.028037074377472 
0 0 0 0 
0 0 0 0 
-0.03532088549555037 0.05844905549184477 0.0310411508016251 -0.04023879174693953 
-0.04657795566198344 0.1175777721700138 -0.01649183332975364 -0.02924595184649941 
-0.1453564054043137 0.002226535692626385 0.1486185121293577 -0.04732566322837932 
-0.1957201018824435 -0.03232764406501921 0.2788445418626473 -0.04732566322837932 
-0.1957201018824435 -0.03232764406501921 0.2788445418626473 -0.04732566322837932 
-0.1957201018824435 -0.1401282316043478 0.2687236592001563 -0.04732566322837932 
-0.1957201018824435 -0.03232764406501921 0.2788445418626473 -0.04732566322837932 
0.4275321008268356 -0.3582334800740621 -0.009911632559687788 -0.07299875044234884 
-0.02953854381427614 0 0.01956760015974088 0 
0.02852893534223682 -0.002603812992690487 3.035766082959412e-18 0 
0.01580442160436267 0.03921000396670142 -0.06485930799289424 -0.006878259681764669 
0 0 0 0 
0 0 0 0 
0 0 0 0 
0 0 0 0 
0 -4.336808689942018e-19 0 -0.0001552083057505471 
0 0 0 0 
0 0 0 0 
0 0 0 0 
0.00486805468092023 0.006649611197404651 -0.02382206477382014 0 
0.004868054680920229 0 -0.01065991170154527 0 
0.004868054680920229 0 -0.01065991170154527 0 
0.004868054680920229 0 -0.01065991170154527 0 
0 0 0 0 
0 0 0 0 
0 0 0 0 
0 0 0 0 
-3.469446951953614e-18 0 8.673617379884035e-19 0 
1.734723475976807e-18 0 0 0 
0.05879716910212462 0.0334357095628594 -0.09543177928704187 -0.005197970648970737 
-0.02688108472313724 0.06488388265328145 -0.06628061587432275 -0.005197970648970732 
0.01810507222524205 0.02134511369679849 -0.03329218533180948 -0.005325498460263508 
0 0 0 0 
-0.003726411668642144 -0.09076585762958034 0.0652014574984123 0 
0 0 0 0 
0.09807592023661726 -0.07017985095917346 -0.03529925470521562 -0.01150004756341074 
0 0 0 0 
0 0 0 0 
0 0 0 0 
0 0 0 0 
0 0 0 0 
0 0 0 0 
0 0 0 0 
0 0 0 0 
-0.05189548955709319 0.09193381261854504 -0.03329821923896408 0 
0 0 0 0 
0 0 0 0 
0 0 0 0 
0 0 0 0 
0 0 0 0 
0 -0.01838227889560527 0 0 
0 -0.01838227889560527 0 0 
0 -0.01838227889560527 0 0 
0 0 0 0 
0 0 0 0 
0.02129145230155805 -0.01703634552631859 0 0 
-0.1614670756902302 0.2941350211501959 -0.1134052227992224 0 
0.02129145230155805 -0.01703634552631858 3.469446951953614e-18 -0.002099649811858062 
0.02129145230155805 -0.01703634552631859 0 0 
0.02457381550336703 -0.01703634552631859 0 0 
0.02129145230155805 -0.01703634552631859 0 0 
0 0 0 0 
0 0 0 0 
0 0 0 0 
0 0 0 0 
0 0 0 0 
0 0 0 0 
0 -0.05316833741731921 0 0 
0.03029316219640506 -0.04108029842022854 -0.002593752271075167 0 
0.09697911491412692 -0.05388912735340236 -0.04094929849565691 -0.01831943490767875 
0 0 0 0 
0.03029316219640506 -0.04108029842022854 -0.002593752271075167 0 
0 0 0 0 
0 0 0 0 
0 -0.009925444328699238 0.02494838921480115 0 
0.001738063581391068 0 0 3.469446951953614e-18 
0 0 0 0 
0 -0.009925444328699238 0.02494838921480115 0 
0 0 0 0 
0 0 -6.678720627788371e-05 0 
0 0 0 0 
0 0 0 0 
0 0 0 0 
-4.336808689942018e-19 0 0 0 
-0.0341949432837787 0.0862620559146496 -0.008393277745703446 0 
-0.05439509967699283 -0.08163260087809154 -0.04840939292246599 0.1346466609230845 
0 0 0 0 
0 0 0 0 
0 0 0 0 
0 -0.2314605733582887 0 0.1989722304148609 
0 0 0 -0.002481933032314823 
0 0 0 -0.002481933032314823 
0 0 0 -0.002481933032314823 
0 0 0 -0.002481933032314823 
-0.006060926451924627 0.03283259112293235 -0.01068551549843563 -0.01699222908417845 
0 0 0 0 
0.03173636366689107 0 -0.01912780585620147 0 
-0.1562686259726957 -0.03389275147302111 0.1789174395801162 0 
0.004520184939968682 0 0 0 
0 0 0 0 
0 0 0 0 
0 0 0 0 
0 0 -0.002593752271075167 0 
0 0 -0.002593752271075167 0 
0 0 0 0 
0 0 0 0 
0 0 0 0 
0 0 0 0 
0 0 0 0 
0 0 0 0 
-0.02226446399938714 -0.1247968464753077 -0.06998062424552738 0.2160946142356076 
0 0 0 0 
0.03676692718624307 0 0 -0.01913033326189398 
0 0 0 0 
0 -0.02475014689832983 0 0 
0 -0.02475014689832983 0 0 
0 -0.02475014689832983 0 0 
0 0 0 0 
-6.938893903907228e-18 0.06644868638343726 -0.02828883805997955 -0.05250505211445981 
0 0 0 0 
-1.734723475976807e-18 -0.01340822848220675 0 0 
0.00303110192655104 -0.0243489095615653 0.07105235820546874 0 
-0.02854580391827656 -0.02434890956156531 0.07105235820546874 0 
0.001594164238013949 0.03112987771070939 -4.336808689942018e-19 -0.02261461021135037 
0 0 0 0 
0 -8.673617379884035e-19 0 0 
0 0 0 0 
0 0 0 0 
0.004270425487480927 -0.03095005991726686 0 0 
0.01388649895516525 -0.03095005991726686 1.409462824231156e-18 -0.01827835974740183 
0.01536892316506293 0 0 0 
0.01536892316506293 0 0 0 
0.01536892316506293 0 0 0 
0.01641278776995771 1.734723475976807e-18 -0.03925776950715655 4.336808689942018e-19 
0.01102595221567398 -0.06635149217754294 -3.565011979512914e-05 -0.01202582535160727 
0 0 0 0 
0.008886425113366096 0 -3.565011979512914e-05 -0.01202582535160727 
-0.1019351029878784 -0.06374021928319765 0.2002812962556813 -0.009922058248223745 
0 0 0 0 
0 0 0 0 
0 0 0 0 
0 0 0 0 
0 0 0 0 
0 0 0 0 
0 0 0 0 
0 0 0 0 
0 0 0 0 
-0.07386773243647711 -0.07352417230919724 0.1934376235789009 -0.01952592014885559 
0 0 0 0 
0 0 0 -0.01913033326189398 
0 0 0 0 
0 0 0 0 
0 0 0 -0.01913033326189398 
0 0 0 0 
0.04482067605402624 0 -0.03599863095363882 -0.04512649460937968 
0 0 0 0 
0 0 0 0 
0 0 0 0 
0 0 0 0 
0 0 0 0 
-0.1022616389461944 -0.07352417230919726 0.1998843777943062 -0.01952592014885559 
-0.1663541440318621 0.2006047041737543 -0.03769392650334534 0 
0 0 0 0 
0 0 0 0 
0 0 0 0 
0.03029316219640506 -0.02940340079918777 0 0 
0.03029316219640506 -0.02940340079918777 0 0 
-0.01875963546261724 -0.05096246916678662 0.0514055708815238 0 
0 0 0 0 
0 0 0 0 
0 0 0 0 
-0.01875963546261724 -0.05096246916678662 0.0514055708815238 0 
0 0 0 0 
0 0 0 0 
0 0 0 -0.006902658124023791 
0 0.04663257167392533 -0.01414441902998978 -0.02625252605722991 
0 0.02861627718120604 -0.008809855011092101 -0.01665941791788762 
0 0 0 -0.006902658124023791 
0 0 0 0 
-0.1176493131577341 0.226208096706502 -0.09755337201481257 0 
0 0 0 0 
0 0 0 0 
-0.02514689404447759 0.002405136116532813 -0.0557584130544682 0.05391740040115991 
-0.03860140181156461 0.04470658566632149 0.02841657872521633 -0.06251003162481392 
-0.008252547664129726 -0.5828491789983099 0.03478378493900422 0.4192687003322276 
0.06808365334180314 0 0.08432046969000159 -0.1070118068552759 
0 0 0.04261839693807976 -0.05116572105985592 
0 0 0 -0.0001552083057505471 
0 0 0 -0.0001552083057505471 
0.03911280673769554 -0.01142143569712628 -0.0918699273453729 -0.01809957759885122 
-0.05655583398731456 -0.05096246916678663 0.121222783899393 0 
-0.03850009456311253 -0.05096246916678663 0.08622303448287548 0 
0.01176427914105719 -0.0114214356971263 -0.06928835915192666 4.336808689942018e-19 
0.03869390116836508 -0.1017193732945021 0.06514160470231262 6.938893903907228e-18 
-0.06408388718124658 0.1481776201291533 -0.06123572382100074 0 
-1.517883041479706e-18 0 0 0 
0.06474787793955641 -0.04385007340437612 -0.006956049830551056 -0.0013272058235003 
-1.517883041479706e-18 0 0 0 
0 0 0 0 
0 0 0 0 
0 0 0 0 
0.001719614417137815 -0.04192909550035562 0 0 
0.04047911588210907 -0.02771975077420462 0 0 
0 0 0 0 
0 0 0 0 
0 0 0 0 
0 0 0 0 
0 0 0 0 
-0.03289941464371759 0.3947159186572434 0 -0.3484591937544392 
-0.03289941464371759 0.3947159186572434 0 -0.3484591937544392 
0 -0.0750231029196903 0 0 
-0.01496404722583073 0.05011875583395899 -0.004841587220072914 -0.008143933437371222 
0 0 0 0 
0 0 0 0 
0 0 0 0 
0 0 0 0 
0.01699729291516384 -0.01342323431384841 0 0 
0 0 0 0 
0 0 0 0 
0 0 0 0 
-0.05356854210696076 0 0.06363315578876627 0 
0.02182075869172173 0 -0.02159563147710341 0 
0 0 0 0 
0 0 0 0 
0 0 0 0 
0 0 0 0 
0 0 0 0 
-0.09220983386726531 0.1407553605099551 -0.01473094937832086 -0.01587621527725043 
-0.09220983386726531 0.1407553605099551 -0.01473094937832086 -0.01587621527725043 
-0.1251092485109829 0.0276452030885791 -0.1078809916839015 0.161945098155814 
-0.09220983386726531 0.1407553605099551 -0.01473094937832086 -0.01587621527725043 
0.1404759900109957 -0.1013110034666609 0 0 
0.1404759900109957 -0.1013110034666609 -3.469446951953614e-18 0 
0.1404759900109957 -0.1013110034666609 0 0 
0.1404759900109957 -0.1013110034666609 0 0 
0 0 0 0 
0 0 0 0 
0 0 0 0 
0 0 0 0 
-0.05878772632792157 0.08816903081617997 -0.02339413387732472 0 
-0.05939511301026031 0.09838456404242922 -0.02339413387732472 0 
-0.05939511301026031 0.09838456404242922 -0.02339413387732472 0 
-0.05939511301026031 0.09838456404242922 -0.02339413387732472 0 
-0.05939511301026031 0.09838456404242922 -0.02339413387732472 0 
-0.0518954895570932 0.09066738662316193 -0.03329821923896408 -0.02555514134515719 
0 -0.02067455305496764 0 0 
0.008373020676525775 0 0 0 
0.008373020676525775 0 0 -0.01913033326189398 
0.008373020676525775 0 0 0 
0 0 0 0 
0 0 0 0 
0 0 0 0 
0.02064806236123502 -0.06578235135022104 0.03903886673662092 4.336808689942018e-19 
0.03942010001737473 0 0 0 
0.03942010001737473 0 0 0 
0.02064806236123503 -0.06578235135022104 0.05046575145672992 4.336808689942018e-19 
0.03942010001737473 0 0 0 
0.01941771242253967 -0.02744292955243621 0 0 
0.01941771242253967 -0.02744292955243621 0 0 
0.01941771242253967 -0.02744292955243621 0 0 
0.01941771242253967 -0.02744292955243621 0 0 
0 0 0 0 
0 0 0 0 
0.0008306949258031493 0.1183483633886484 -0.04952148860877595 -0.04285757583144824 
0.113124208201751 -0.03071821932861005 0 -0.01887760286446398 
0.0008306949258031493 0.1297697990857747 -0.04952148860877595 -0.04285757583144824 
0 0 0 0 
0 0 -6.678720627788718e-05 0 
0 0 0 0 
0 0 0 0 
0 0 -6.678720627788718e-05 0 
0.001043864604894773 0 -0.01971956914790594 0 
0 0 0 0 
0.05356277402860327 -0.05188615851605467 0 0 
0 1.734723475976807e-18 0 0 
4.336808689942018e-19 -0.01052853856825259 0 0 
0 0 0 0 
0 0 0 0 
0 0 0 0 
0 0 0 0 
0.06253610019622448 -0.03188959987719991 -0.02671042443667845 0 
0 0 0 0 
0 0 0 0 
0 0 0 0 
0 0 0 0 
0 0 0 0 
0 0 0 0 
0.01974045910049531 0 -0.03481746360135169 0 
0.0135353942957558 -0.01995069391330217 0 0 
0.01758577604710233 -0.01995069391330217 0 0 
0 0 0 0 
0 0 0 0 
-0.01626394982993417 -0.07352417230919724 0.1289147163992275 -0.01952592014885559 
0.08599768911626027 0 -0.07096966139507865 0 
-0.01626394982993417 -0.07352417230919724 0.1289147163992275 -0.01952592014885559 
0.08599768911626027 0 -0.07096966139507865 0 
0 0 0 0 
0 0 0 0 
0 0 0 0 
0 0 0 0 
0 0 0 0 
0 0 0 0 
0 0 0 0 
0 0 0 0 
0 0 0 0 
0 0 0 0 
0 0 -0.0158594370531477 0 
0 0 0 0 
0 0 0 0 
0 0 0 0 
0 0 0 0 
0 0.003013529144912835 0 -0.01860472936022858 
0 0.003013529144912835 0 -0.01860472936022858 
0 0.003013529144912835 0 -0.01860472936022858 
0 0.003013529144912835 0 -0.01860472936022858 
0 0 0 0 
0 0 0 0 
0.002157152925377115 -0.01701130465835499 0.02373939456090341 0 
0 -0.009925444328699238 0.02494838921480115 0 
0.02319402097428673 0 -0.02171761330127653 0 
0.02319402097428673 0 -0.02171761330127653 0 
0.02319402097428673 0 -0.02171761330127653 0 
0.05309229651886324 0.04035061117758999 -0.07668687009832489 -0.03085823264874891 
0.1653858097948111 -0.1201374072367947 -0.0271653814895489 -0.006878259681764669 
0.1653858097948111 -0.1201374072367947 -0.0271653814895489 -0.006878259681764669 
0.1653858097948111 -0.1201374072367947 -0.0271653814895489 -0.006878259681764669 
0.1653858097948111 -0.1201374072367947 -0.0271653814895489 -0.006878259681764669 
0.1653858097948111 -0.1201374072367947 -0.0271653814895489 -0.006878259681764669 
0 0 0 0 
0.01029349405757178 0 0 0 
0.01029349405757178 0 0 0 
0.01029349405757178 0 0 0 
0.0007233711067923341 0 0 0 
0.003446083915890002 0 0 0 
0.0007233711067923341 0 0 0 
0.0007233711067923341 0 0 0 
0.0007233711067923341 0 0 0 
0.1182898685865454 -0.03222081385589205 -0.07761806237611125 -0.01417303965055879 
0.02879810508279509 -0.03222081385589205 -0.005268495776226081 0 
0.0772980861238073 -0.06526019268975271 -0.02330773316667022 0 
0.1182898685865454 -0.03222081385589205 -0.07761806237611125 -0.01417303965055879 
0.02879810508279509 -0.03222081385589205 -0.005268495776226081 0 
-0.1004705725245224 0.1498528466918092 -0.06878021729387121 -0.03559525811615133 
0.02286817124583707 -0.06063014154874399 0 0 
0.02286817124583707 -0.06063014154874399 0 0 
0 0 0 0 
0 0 0 0 
0 0 0 0 
0.008909293212677024 0 0 0 
0.03557527827933382 -0.010732005334046 -0.03573279692047567 -0.02301303855347607 
0.008909293212677024 0 0 0 
0.03557527827933382 -0.02516586690591662 -0.03573279692047567 0 
0.008909293212677024 0 0 0 
0.008909293212677024 0 0 0 
0 0.00664961119740464 0 0 
0 0.00664961119740464 0 0 
0 0.00664961119740464 0 0 
0.139447115333151 -0.13578240520211 -0.01241228156825394 0 
0.04389129080338193 0 -0.0183085925363211 -0.02540157981558641 
-0.07583395913336954 -0.05161735332377745 0.213531081627333 -0.02957450603126699 
0.04389129080338193 0 -0.0183085925363211 -0.02540157981558641 
0 0 0 0 
0 0 0 0 
0 0 0 0 
-0.05036521204720799 0.07551039564840523 -0.02985801778706441 0 
0 0 0 0 
0 0 0 0 
0 0 0 0 
0.06787241903861506 -0.2580939700800002 -0.007148109101472858 0.1754242558274017 
0 -0.3445707307796648 -0.09315004230558066 0.3937632474194305 
0 -0.2314605733582887 0 0.2159419339863661 
0 -0.2314605733582887 0 0.2159419339863661 
0 0 0 0 
0 0 0 0 
0 0 0 0 
0 0 0 0 
0 0 0 0 
0 0 0 0 
0.004413217498218111 0 -0.0008834064633592689 0 
0.01326964487573083 0 -0.0008834064633592689 0 
0.004413217498218111 0 -0.0008834064633592689 0 
0.004413217498218111 0 -0.0008834064633592689 0 
0.01326964487573083 0 -0.0008834064633592689 0 
0.0545034010380146 0 0 0 
0 0 0 0 
0 0 0 0 
0 0 0 0 
0 0 0 0 
0 0 0 0 
0 0 0 0 
0 0 0 0 
0 0 0 0 
0 0 0 0 
0.005048312549282597 0 0 -0.008411322648521971 
0.005048312549282597 0 0 -0.008411322648521971 
0.005048312549282597 0 0 -0.008411322648521971 
0.3066595417681618 -0.2093619850339774 -0.1157894431523437 -0.01243022014837663 
0.0732865864395206 -0.07036782830128233 0 0 
0.3066595417681618 -0.2093619850339774 -0.1157894431523437 -0.01243022014837663 
0.0004874995869270244 0 -0.006446754215405215 0 
0.0004874995869270235 0 0 0 
0.0004874995869270235 0 0 0 
-0.1457842380507648 -0.2279750197055285 0.3780473698006022 0 
-0.08349064010292709 -0.1411733814556748 0.2207345100827265 0 
-0.07363523453923787 -0.03778204485823171 0.1026421004662834 0 
-0.08349064010292709 -0.1411733814556748 0.2207345100827265 0 
-0.08349064010292709 -0.1411733814556748 0.2207345100827265 0 
-0.03681761726961894 -0.01889102242911585 0.05132105023314171 0 
-0.03681761726961894 -0.01889102242911585 0.05132105023314171 0 
0.008856427377512716 0 0 0 
0.008856427377512716 0 0 0 
-0.05228828803487735 0.06274010212708694 0.03353555032134814 0 
0.005814105066424435 0 0 0 
0.005743702523730135 0 0 0 
0.005743702523730135 0 0 0 
0.005743702523730135 0 0 0 
-0.04506684914923679 0.05522113874072648 -0.01068551549843563 -0.01699222908417845 
-0.006060926451924627 0.03283259112293235 -0.01068551549843563 -0.01699222908417845 
0 0 0 0 
0 0 0 0 
0 0 0 0 
0 0 0 0 
0 0 0 0 
-0.1019351029878784 -0.06374021928319765 0.2002812962556813 -0.009922058248223745 
-0.1019351029878784 -0.06374021928319765 0.2002812962556813 -0.009922058248223745 
-0.1019351029878784 -0.06374021928319765 0.2002812962556813 -0.009922058248223745 
-0.1019351029878784 -0.06374021928319765 0.2002812962556813 -0.009922058248223745 
-0.1019351029878784 -0.06374021928319765 0.2002812962556813 -0.009922058248223745 
0.007275362890258437 0 0 0 
0 0 0 0 
0 0 0 0 
0 0 0 0 
0 -0.01318582880336202 0 0 
0 0 0 0 
0 0 0 0 
0 0 0 0 
0 0 0 0 
0 0 0 0 
0 0 0 0 
0 0 0 0 
0 0 0 0 
-0.0381437353560162 0.0970391093648441 -0.03636198875428212 0 
-0.05514102827118005 0.1248466282559412 -0.06434480432706094 0 
-0.05514102827118004 0.1104623436786925 -0.03636198875428212 0 
-0.05514102827118004 0.1104623436786925 -0.03636198875428212 0 
-0.05514102827118004 0.1104623436786925 -0.03636198875428213 0 
-0.02005367485048764 0.03634306109850156 -0.03529389742219412 -3.469446951953614e-18 
-6.505213034913027e-19 0.01438428457724875 -0.03529389742219412 -3.469446951953614e-18 
0 0.01438428457724875 -0.02798281557277882 0 
0 0 0 -0.01134431056495801 
-0.1014396142997289 0.152099269693218 -0.01420181821286343 -0.01134431056495802 
0.06283821248816428 -0.1073926840268965 -0.007527480047097919 -0.01134431056495801 
0 0 0 0 
0 0 0 0 
0 0 0 0 
0 0 0 0 
0 0 0 0 
0 0 0 0 
0 0 0 0 
0 0 0 0 
0 0 0 0 
0 0 0 0 
0 0 0 0 
0 0 -0.007311081849415292 0 
0 0 -0.007311081849415292 0 
0 0.01801629449271932 -0.005334564018897674 -0.009593108139342287 
0 0.01801629449271932 -0.005334564018897674 -0.009593108139342287 
0.01158593665067882 0.0570466005782131 -0.01556440763795327 -0.0609601606574053 
-0.01789293279649304 0.06413246090786885 0 -0.02424498869654759 
-0.01789293279649304 0.06413246090786885 0 -0.02424498869654759 
-0.01789293279649304 0.06413246090786885 0 -0.02424498869654759 
-0.01789293279649304 0.06413246090786885 0 -0.02424498869654759 
-0.09975052300098693 0.1720974559077719 -0.07025527303111352 0 
-0.09975052300098693 0.1720974559077719 -0.07025527303111352 0 
-0.09975052300098693 0.1720974559077719 -0.07025527303111352 0 
-0.09975052300098693 0.1720974559077719 -0.07025527303111352 0 
-0.09975052300098693 0.1720974559077719 -0.07025527303111352 0 
-8.673617379884035e-19 0 -0.01012088266249073 0 
0 0 0 0 
0 0 0 0 
0 0.02910241721879823 0 -0.02421907637130716 
0 0.08471174464674566 0 -0.06656037268612913 
0 0.02910241721879823 0 -0.02421907637130716 
0 0.02910241721879823 0 -0.02421907637130717 
0 0.02910241721879823 0 -0.02421907637130717 
-0.06128873119556021 0.08884316188661923 -0.03928592338753839 0 
0 0 0 0 
0 0 0 0 
0 0 0 0 
-0.09443501651267508 0.1313149255980936 -0.01708723440270436 -0.02006113762391705 
0 -0.007085860329655752 0 0 
0 -0.007085860329655752 0 0 
0.02266804433201439 -0.0487373545631478 0 0 
0.001719614417137815 -0.0419290955003556 0 0 
0 0 0 0 
0.1042600146405483 1.387778780781446e-17 -0.08441127684132979 -0.02598600299532053 
0.003855382046584338 0 0 0 
0.003855382046584338 0 0 0 
0.003855382046584338 0 0 0 
0.003855382046584338 0 0 0 
-0.05472494355594134 0.1479060956944881 -0.02723326442303416 -0.01056483454929685 
-0.03198052589247001 -0.0430060697660077 0.07539808628990159 0 
-0.03198052589247001 -0.0430060697660077 0.07539808628990159 0 
0 0 0 0 
0 0 0 0 
0 0 0 0 
0 0 0 0 
0 0 0 0 
0 0 0 0 
0.007715325836021142 0 0 0 
0 0 0 0 
0 0 0 0 
0 0 0 0 
0.04849998104101222 -0.03303937883386065 -0.01803923739044414 0 
0.04849998104101222 -0.03303937883386065 -0.01803923739044414 0 
0.04849998104101222 -0.03303937883386065 -0.01803923739044414 0 
0.04849998104101222 -0.03303937883386065 -0.01803923739044414 0 
0.003125638474849715 0 0 0 
-0.06260942028666153 0.09204421793659028 -0.03940163646687628 -0.01080336024417223 
0.003125638474849715 0 0 0 
0.003125638474849715 0 0 0 
0.01943834766734251 0 -8.673617379884035e-19 0 
0.01943834766734251 0 -8.673617379884035e-19 0 
0.143773637960961 -0.05617464558794272 -0.07059397582945204 0 
0 0 0 0 
0.0315769058448276 0 0 0 
-0.1006049476706384 0.2455319358809345 -0.07291465890503787 0 
-0.1006049476706384 0.2455319358809345 -0.07291465890503787 0 
-0.1006049476706384 0.2455319358809345 -0.07291465890503787 0 
0 0 0 0 
0 0 0 0 
0 0 0 0 
0 0 0 0 
0.000419912685170057 -0.006986259925925852 0 0 
0.000419912685170057 -0.006986259925925852 0 0 
0.000419912685170057 -0.006986259925925852 0 0 
0.04344403781098988 -0.007257414654183092 -0.0665583975289178 0 
0.04344403781098988 -0.007257414654183092 -0.0665583975289178 0 
-0.02907703557683071 0.08522749622480309 -0.006674338165765511 0 
-0.02907703557683071 0.08522749622480308 -0.01420181821286343 0 
-0.02907703557683071 0.08522749622480309 -0.006674338165765511 0 
0.03739949039367888 0 0 0 
-0.008186421910382777 -0.06729453481523587 0.06718316474952261 0 
-0.008186421910382777 -0.06729453481523587 0.06718316474952261 0 
-0.008186421910382777 -0.06729453481523587 0.06718316474952261 0 
-0.008186421910382777 -0.06729453481523587 0.06718316474952261 0 
-0.008186421910382777 -0.06729453481523587 0.06718316474952261 0 
-0.008186421910382777 -0.06729453481523587 0.06718316474952261 0 
0 0 0 0 
-0.217639787857959 0.2314679312919886 -0.1498970884772768 0.1544335087653385 
0 0 0 0 
0.02221721301437478 0 0 0 
0.02221721301437478 0 0 0 
0.02221721301437478 0 0 0 
0.02221721301437478 0 0 0 
0 0 -3.56501197951287e-05 -0.01202582535160727 
0 0 -3.56501197951287e-05 -0.01202582535160727 
0.0313214213399244 0 -0.0003001127762033374 0 
0.0313214213399244 0 -0.0003001127762033374 0 
0 0 0 0 
0.01731608901267161 -0.009024994463716733 0 0 
0 0 0 0 
0 0 0 0 
0 0 0 0 
0 0 0 0 
0 0 0 0 
0 0 0 0 
0 0 0 0 
0 0 0 -0.03798547236743743 
0 0 0 -0.03798547236743743 
0 0 0 -0.03798547236743743 
0 0 0 -0.03798547236743743 
0 0 0 -0.03798547236743743 
0 0.01940812705958453 0 -0.02555514134515719 
0 0.01940812705958453 0 -0.02555514134515719 
0 0.01940812705958453 0 -0.02555514134515719 
0 0.01940812705958453 0 -0.02555514134515719 
0 0 0 0 
0 0 0 0 
0 0 0 0 
0.01944420415794786 0 -0.02258156819344621 0 
0.01944420415794786 0 -0.02258156819344621 0 
-0.008252547664129736 0 0.08531543030650511 -0.05584608579542003 
0 0 0 0 
0 0 0 0 
0 0 0 0 
0 0 0 0 
0 0 -0.05634598562174278 0 
0 0 0 0 
0.06518342887295631 -0.02469716305580899 -0.04941152742481218 0 
0 0 0 0 
0 0 0 0 
0.01711621493374704 -0.009763167407013494 0 0 
-0.05609543909369135 -0.2259152088928077 -0.07172231476998568 0.3160613563454374 
-0.05609543909369135 -0.2259152088928077 -0.07172231476998568 0.3160613563454374 
-0.155729771965386 0.09150322847454131 -0.1131039853633849 0.1744946463892555 
-0.05609543909369135 -0.2259152088928077 -0.07172231476998568 0.3160613563454374 
0 0 0 0 
0 0 0 0 
0 0 0 0 
0 0 0 0 
0 0 4.336808689942018e-19 0 
0 0 0 0 
0 0 0 0 
-0.01989950344206902 0.02068707680356552 0 0 
0.02158515722934427 -0.01925536886028578 0 0 
0.02158515722934427 -0.01925536886028578 0 0 
0 -0.0114214356971263 0 0 
0.001738063581391068 0 0 0 
0.001738063581391068 -0.05166521254519257 0.03688719812267547 -1.734723475976807e-18 
0.001738063581391068 0 0 0 
-0.1035792637022646 0.1247318050904059 -0.06937359069336316 0 
0.09456590254577665 -0.04440598771267164 -0.06098031294765967 0 
-0.06596450783326863 0.1006639972841697 -0.00839327774570345 0 
-0.06596450783326863 0.1006639972841697 -0.00839327774570345 0 
-0.06596450783326863 0.1006639972841697 -0.00839327774570345 0 
-0.06596450783326863 0.1006639972841697 -0.00839327774570345 0 
-0.06596450783326863 0.1006639972841697 -0.00839327774570345 0 
0 0 0 0 
0 0 0 0 
-0.02827956027168931 0.2735751568362795 -0.1063659655011803 -0.1489003951488039 
0 0 0 -0.004382517864329835 
0 0 0 -0.004382517864329835 
0 0 0 0 
0 0 0 0 
0 0 0 0 
0.0269421645375681 8.673617379884035e-19 -0.03499974941651756 0 
0.008886425113366094 0 0 0 
0.008886425113366094 0 0 0 
0.02839390650971731 0 0 0 
0.02839390650971731 0 0 0 
-0.06191001589257301 0.1399647028174473 -0.03679310311389194 -0.02006113762391704 
0 0 0 0 
0 0 0 0 
-0.02167633930812907 0.04682722638289415 -8.673617379884035e-19 -0.01809957759885122 
0.007904323438690521 0 0 -0.01809957759885122 
0.007904323438690521 0 0 -0.01809957759885122 
0.007904323438690521 0 0 -0.01809957759885122 
0 0 0 0 
0 0 0 0 
0 0 0 0 
0 0 0 0 
0 0 0 0 
0 0 0 0 
0 0 0 0 
0 0 0 0 
0 0 0 0 
0 0 0 0 
0 0 0 0 
0 0 0 0 
0 0 0 0 
0.0250529260814432 -0.09508521068340418 0 0 
0.001043864604894773 0 -0.01971956914790594 0 
-0.01318627120077268 -0.1112687273175345 0.1530598752501366 -1.301042606982605e-18 
0 0 0 0 
0 0 0 0 
0 0 0 0 
0.003020441741800997 -0.01167689762104077 0 0 
0 0 0 0 
0 0 0 0 
0 0 0 0 
0 0 0 0 
0 0 0 0 
-0.1253287636526874 -0.1398456907459407 0.256464170234431 -1.734723475976807e-18 
-0.09264256580218355 -0.07298295114107797 0.1684957101329153 0 
-0.01653272530124323 -0.07298295114107797 0.08458074879282329 0 
-0.09264256580218355 -0.07298295114107797 0.1684957101329153 0 
-0.09264256580218355 -0.07298295114107797 0.1684957101329153 0 
0.05013875194770957 -0.01791559925454221 -0.02716081944700209 -0.0005920257711987422 
0.05013875194770957 -0.01791559925454221 -0.02716081944700209 -0.0005920257711987422 
0.05013875194770957 -0.01791559925454221 -0.02716081944700209 -0.0005920257711987422 
0.003992999688449462 0 0 0 
0.003992999688449462 0 0 0 
0.003992999688449462 0 0 0 
0 0 0 0 
0 0 0 0 
0 0 0 0 
0 0 0 0 
0 0 0 0 
0.0320095573612169 -0.01440194136952005 0 0 
0 0 0 0 
0 0 0 0 
0.0002399928117269701 0 0 0 
0 0 0 0 
0 0 0 0 
0 0 0 0 
0 0 0 0 
0 0 0 0 
0 0 0 0 
-0.1570780288173385 0.1707976834568344 0.05843829641481838 -0.005197970648970727 
0 0 0 0 
0 0 0 0 
0.00456249372052555 -0.006986259925925852 -0.06653150733575416 0 
0 0 0 0 
0.0822718393703306 -0.08232961933238445 -0.01523832117459033 0 
8.673617379884035e-19 -1.734723475976807e-18 0 0 
0 0 0 0 
0.1010379921799735 -0.07630346566053775 -0.01241228156825394 0 
0.1010379921799735 -0.07630346566053775 -0.01241228156825394 0 
0.1010379921799735 -0.07630346566053775 -0.01241228156825394 0 
0.1010379921799735 -0.07630346566053775 -0.01241228156825394 0 
0.1010379921799735 -0.07630346566053775 -0.01241228156825394 0 
0.1010379921799735 -0.07630346566053775 -0.01241228156825394 0 
0.1010379921799735 -0.07630346566053775 -0.01241228156825394 0 
0 0 0 0 
0 0 0 0 
0 0 0 0 
0 0 0 0 
0 0 0 0 
-0.09963433287169457 0.317418437367349 -0.0413816705933992 -0.1415667099561819 
-0.09963433287169457 0.317418437367349 -0.0413816705933992 -0.1415667099561819 
-0.0900194633465992 0.1580434593535625 -0.05733249716916038 0 
-0.0900194633465992 0.1580434593535625 -0.05733249716916038 0 
-0.0900194633465992 0.1580434593535625 -0.05733249716916038 0 
-0.0900194633465992 0.1580434593535625 -0.05733249716916038 0 
-0.09001946334659917 0.1580434593535625 -0.05733249716916038 0 
-0.0900194633465992 0.1580434593535625 -0.05733249716916038 0 
-0.09460085354775388 0.1248767736876235 -0.03043265340492238 0 
-0.09460085354775388 0.1248767736876235 -0.03043265340492238 0 
-0.09460085354775388 0.1248767736876235 -0.03043265340492238 0 
-0.09460085354775388 0.1248767736876235 -0.03043265340492238 0 
-0.09460085354775388 0.1248767736876235 -0.03043265340492238 0 
0 0 0 0 
0.08576535183510813 -0.09076585762958034 -0.007148109101472858 -0.01627268946241685 
0 0 0 0 
0 0 0 0 
0.0315769058448276 0 0 0 
0.0315769058448276 0 0 0 
0.0315769058448276 0 0 0 
0.03739949039367888 0 0 0 
0.03739949039367888 0 0 0 
0 0 0 0 
0 0 0 0 
0 0 0 0 
0 0 0 0 
0.02818221468323148 0 -0.05217196018663854 0 
-0.1568973356026241 -0.07830345039717691 0.2003050000624838 0 
0.02818221468323148 0 -0.05217196018663854 0 
0.02818221468323148 0 -0.05217196018663854 0 
-0.1603883867780388 -0.07830345039717691 0.2173454378745241 0 
0.02818221468323148 0 -0.05217196018663854 0 
0.01699729291516384 -0.01342323431384841 0 0 
0.01699729291516384 -0.01342323431384841 0 0 
0.01699729291516384 -0.01342323431384841 -1.734723475976807e-18 0 
-0.04811355264409255 0.07348196547503941 -0.03361209951052756 0 
-0.04811355264409255 0.07348196547503941 -0.03361209951052756 0 
-0.04811355264409255 0.07348196547503941 -0.03361209951052756 0 
-0.1291097826600897 0.2120776562959503 -0.09622389338773449 0 
-0.04811355264409255 0.07348196547503941 -0.03361209951052756 0 
-0.003726411668642144 -0.09076585762958034 0.0652014574984123 0 
-0.05962708405323403 -0.09076585762958034 0.224919873866441 0 
-0.05036521204720799 0.07551039564840523 -0.02985801778706441 0 
-0.05036521204720799 0.07551039564840523 -0.02985801778706441 0 
-0.05036521204720799 0.07551039564840523 -0.02985801778706441 0 
-0.05036521204720799 0.07551039564840523 -0.02985801778706441 0 
-0.1842852778549606 0.3508794203447253 -0.09613863366138717 -0.005197970648970732 
-0.05036521204720799 0.07551039564840523 -0.02985801778706441 0 
0 0 0 0 
-0.08271464408748797 0.08357994939212816 -0.007920421022009615 0 
0 0 0 0 
0 0 0 0 
0 0 0 0 
0 0 0 0 
0 0 0 0 
0 0 0 0 
0 0 0 0 
0 0 0 0 
0.018055739424202 0 -0.03499974941651756 0 
0.0266659850666568 -0.02516586690591662 -0.03573279692047567 0 
0.001719614417137815 -0.04192909550035562 0 0 
0 0.01231150210709894 -0.03108629079052589 -0.03559525811615133 
0 -0.02226394501550888 0 0 
0 -0.02226394501550888 0 0 
0 -0.02226394501550888 0 0 
0 -0.02226394501550888 0 0 
0 -0.01743613675126147 0 0 
0 -0.007340920491577401 0 0 
-0.08118935986008896 0.1572026145928702 -0.06123572382100074 0 
0.0002106163338292281 0 0 0 
0.0002106163338292281 0 0 0 
0.1437405961807742 -0.1165693184307958 0 0 
0 0 0 0 
0 0 0 0 
0.00405038175134651 0 0 0 
-0.06114471541239007 -0.4426332018848737 0.5074902957812062 0 
-0.06114471541239006 0.06976988910934395 0.03353555032134814 0 
-0.06114471541239008 -0.4426332018848737 0.5638362814029489 0 
-0.06114471541239006 0.06976988910934395 0.03353555032134814 0 
-0.06114471541239006 0.06976988910934395 0.03353555032134814 0 
0 0.5124030909942177 -0.5303007310816008 0 
0.08567825382526184 -0.03144817309042208 -0.02915116341271912 0 
0.08567825382526184 -0.03144817309042208 -0.02915116341271912 0 
0.08567825382526184 -0.03144817309042208 -0.02915116341271912 0 
0 0 0 0 
0 0 0 0 
0.08949176350375027 0 -0.07234956659988516 -0.01417303965055879 
0 0 0 0 
0.02971886954833776 0 0 0 
0.02971886954833776 0 0 0 
0.02971886954833776 0 0 0 
-0.01234585017774075 0.02054272412774664 0 -0.006105979821807506 
0 0 0 0 
0 0 0 0 
0 0 0 0 
0 0 0 -0.01448777053919042 
0 0 0 0 
0 0 0 0 
0 0 0 0 
0 0 0 0 
0 0 0 0 
0 0 0 0 
0 0 0 0 
0 0 0 0 
0 0 0 0 
0 0 0 0 
0 0 0 0 
0.002670769126097768 0 0 0 
0.002670769126097768 0 0 0 
0 0 0 0 
0.02208503461081823 0.02177410346446534 -0.0260142368982464 -0.01828148484938723 
0 0 0 0 
0 0 0 0 
0 0 0 0 
0 0 0 0 
-0.05903139118563024 -0.254970481797444 0 0.3417845342016333 
-0.05903139118563024 -0.254970481797444 0 0.3417845342016333 
-0.05903139118563024 -0.254970481797444 0 0.3417845342016333 
-0.05903139118563024 -0.254970481797444 0 0.3417845342016333 
0 0.1301736353221363 -0.06998062424552737 -0.1065595867041318 
0 0.1301736353221363 -0.06998062424552737 -0.1065595867041318 
-0.174228650974766 -0.05161735332377745 0.2318396741636541 -0.004172926215680573 
-0.174228650974766 -0.05161735332377745 0.2318396741636541 -0.004172926215680573 
0.001092360043134594 -0.1065016720684362 0.1648594339100601 -0.01885695073789934 
-0.174228650974766 -0.05161735332377745 0.2318396741636541 -0.004172926215680573 
-0.174228650974766 -0.05161735332377745 0.2318396741636541 -0.004172926215680573 
-0.174228650974766 -0.05161735332377745 0.2318396741636541 -0.004172926215680573 
0.003491051175414737 0 -0.01704043781204032 0 
0 0 0 0 
0 0 0 0 
0 0 0 0 
0 0 0 0 
0 0 0 0 
0 0 0 0 
0.09456590254577665 -0.04440598771267164 0 0 
0 0 0 0 
0 0 0 0 
0 0 0 0 
0 0 0 0 
0.01809089669711802 -0.002603812992690486 0 0 
0.01809089669711802 -0.002603812992690486 0 0 
0.01809089669711802 -0.002603812992690486 0 0 
0.01809089669711802 -0.002603812992690486 0 0 
0.008631907454246491 0 -0.01282844990047956 0 
0 0 -0.0158594370531477 0 
0 0 -0.0158594370531477 0 
0 0 0 0 
0 0 0 0 
0 0 0 0 
-0.03761475586899601 0.02406780780623626 0 0 
-0.03761475586899601 0.02406780780623626 0 0 
-0.03761475586899601 0.02406780780623626 0 0 
-0.03761475586899601 0.02406780780623626 0 0 
0.1299817428725505 -0.08923953354485192 -0.05014048508931136 0 
0.1299817428725505 -0.07871099497659928 -0.05014048508931136 0 
0.1299817428725505 -0.07871099497659928 -0.05014048508931136 0 
0.1299817428725505 -0.07871099497659928 -0.05014048508931136 0 
0.1299817428725505 -0.07871099497659928 -0.05014048508931136 0 
0.1299817428725505 -0.07871099497659928 -0.05014048508931136 0 
0.1299817428725505 -0.07871099497659928 -0.05014048508931136 0 
0 0 0 0 
0 0 0 0 
0.01731608901267161 -0.009024994463716733 0 0 
0.03176956454948993 -0.01440194136952005 0 0 
-0.06191001589257301 0.1399647028174473 -0.03679310311389194 -0.02006113762391704 
-0.06191001589257301 0.1399647028174473 -0.03679310311389194 -0.02006113762391704 
-0.06191001589257301 0.1399647028174473 -0.03679310311389194 -0.02006113762391704 
-0.06191001589257301 0.1399647028174473 -0.03679310311389194 -0.02006113762391704 
0 0 0 0 
0 0.01443386157187062 0 -0.02301303855347607 
0 0.01443386157187062 0 -0.02301303855347607 
0 0.01443386157187062 0 -0.02301303855347607 
0.04117510326004518 -0.02706363229205136 -0.03317211543528559 0 
0.00928118665696046 0 0 0 
0.00928118665696046 0 0 0 
0.01677275584141362 -0.04125729297025816 0 0 
0.03942876951915139 -0.04125729297025815 0 0 
-0.02827956027168931 0.1088260743915354 -0.005299050465127001 -0.002363032464190997 
-0.02827956027168931 0.1088260743915354 -0.005299050465127001 -0.002363032464190997 
-0.02827956027168931 0.1088260743915354 -0.005299050465127001 -0.002363032464190997 
-0.02827956027168931 0.1088260743915354 -0.005299050465127001 -0.002363032464190997 
-0.01970749882043686 0.04975252893429166 -0.02332587048966853 0 
-0.01970749882043686 0.04975252893429166 -0.02332587048966853 0 
-0.08099623001599709 0.1385956908209109 -0.06261179387720692 0 
-0.01970749882043686 0.04975252893429166 -0.02332587048966853 0 
0 0 0 0 
0 0 0 0 
0 0 0 0 
0 0 0 0 
0 0 0 0 
0 0 0 0 
0 0 0 0 
0 0 0 0 
0 0 0 -0.01827835974740183 
0 0 0 0 
0 0 0 0 
-8.673617379884035e-19 0 0 0 
0.06283821248816428 -0.1073926840268965 0 0 
0 0 0 0 
0 0 0 0 
0 0 0 0 
0 -0.01098843963282372 0 0 
-0.02005367485048764 0.02195877652125281 0 0 
-0.02005367485048764 0.02195877652125281 0 0 
-0.02005367485048764 0.02195877652125281 0 0 
-0.1250108808502707 0.1954540951925622 -0.052861328802355 0 
-0.05189548955709319 0.09193381261854504 -0.03329821923896408 0 
-0.05189548955709319 0.09193381261854504 -0.03329821923896408 0 
-0.1250108808502707 0.1954540951925622 -0.052861328802355 0 
-0.05189548955709319 0.09193381261854504 -0.03329821923896408 0 
-0.05189548955709319 0.09193381261854504 -0.03329821923896408 0 
0 0 -0.01953820035925058 0 
0 0 -0.01953820035925058 0 
0.007836214572670799 0 -0.005893149534723764 0 
-0.07904015988980415 0.03977244458817687 0.04666878165164533 -0.01080336024417223 
-0.01330510112829288 -0.0654576021517754 0.08607041811852162 0 
-0.01330510112829288 -0.0654576021517754 0.08607041811852162 0 
-0.01330510112829288 -0.0654576021517754 0.08607041811852162 0 
0 0 0 0 
0 0 0 0 
0.02291999369452784 0 -0.006781744357114376 0 
0 -0.01052853856825259 0 0 
0 -0.01052853856825259 0 0 
0 -0.02960613676502056 0 0 
0 -0.02960613676502056 0 0 
-0.01496404722583073 0.0003357198863150271 0 -0.007128042537993119 
-0.01496404722583073 0.05011875583395899 -0.004841587220072914 -0.008143933437371222 
-0.01496404722583073 0.0003357198863150271 0 -0.007128042537993119 
-0.01496404722583073 0.0003357198863150271 0 -0.007128042537993119 
0 0 0 0 
0 0 0 0 
0 0 0 -0.0186943212200453 
0 0 0 -0.0186943212200453 
0 0 0 -0.0186943212200453 
0.01998716370167342 0 0 -0.0186943212200453 
0.01049174537446302 0 0 0 
0.005971560434494335 0 0 0 
0.005971560434494335 0 0 0 
-0.001387395812545252 -0.0138186871087758 0.007944955441161618 0 
-0.001387395812545252 -0.0138186871087758 0.007944955441161618 0 
0 0.02811634856579657 0 -0.004009880851121801 
0 0.02811634856579657 0 -0.004009880851121801 
0 0.02811634856579657 0 -0.004009880851121801 
-0.07311539129317747 0.103520282574017 -0.01956310956339093 0 
-0.0195526172645742 0.05163412405796236 -0.01956310956339094 0 
-0.07311539129317747 0.103520282574017 -0.01956310956339093 0 
-0.07311539129317747 0.103520282574017 -0.01956310956339093 0 
-0.07311539129317747 0.103520282574017 -0.01956310956339093 0 
-0.07311539129317747 0.103520282574017 -0.01956310956339093 0 
0.0545034010380146 0 0 0 
0 0 0 0 
0 0 0 0 
0 0 0 0 
-0.03531665878995446 -0.03663702068504386 0.09754118712286966 0 
-0.03531665878995446 -0.03663702068504386 0.09754118712286966 0 
-0.03289941464371759 -0.01670116495367564 0.03459666214267809 1.084202172485504e-19 
0 -0.008350582476837821 0.01729833107133905 0 
0 -0.008350582476837821 0.01729833107133905 0 
0.002157152925377116 0 -0.001208994653897735 0 
0.002157152925377116 0 -0.001208994653897735 0 
0.002157152925377116 0 -0.001208994653897735 0 
0 0 0 0 
0 0 0 0 
0.2362373465443618 -0.1329540744374092 -0.151542279243491 -0.01150004756341074 
0.09807592023661726 -0.05274371420791189 -0.0352992547052156 -0.01150004756341074 
0.2362373465443618 -0.1329540744374092 -0.151542279243491 -0.01150004756341074 
0.002722712809097666 0 0 0 
0.0104380386451188 0 0 0 
0 0 0 0 
0 0 0 0 
0 0 0 0 
0 0.0031198657036966 0 -0.01694667263016089 
0 0 0 0 
0 0 0 0 
0 0 0 0 
0 0 0 0 
0 0 0 0 
-0.07878314961123914 -0.07742090979166319 0.1836280454066223 0 
-0.07878314961123914 -0.07742090979166319 0.1836280454066223 0 
-0.07878314961123914 -0.1852214973309918 0.1836280454066223 0 
-0.07878314961123914 -0.07742090979166319 0.1836280454066223 0 
-0.07878314961123914 -0.07742090979166319 0.1836280454066223 0 
-0.07878314961123914 -0.07742090979166319 0.1836280454066223 0 
-0.07878314961123914 -0.07742090979166319 0.1836280454066223 0 
-0.05356854210696076 0 0.06363315578876627 0 
0.03840912315317746 -0.0661285507389769 0 0 
0.03840912315317746 -0.0661285507389769 0 0 
0.03840912315317746 -0.0661285507389769 0 0 
0 0 0 0 
0 0 0 0 
0 0 0 0 
0 0 0 0 
0 0 0 0 
0 0 0 0 
0 0 0 0 
0 0 0 0 
0 0 0 0 
0 0 0 0 
0 0 0 0 
0 -0.01009521625968407 0 0 
0 0 0 0 
0 0 0 0 
0 0 0 0 
0 0 0 0 
0 0 0 0 
0 0 0 0 
0 0 0 0 
0 0 0 0 
0 0 0 0 
0 0 0 0 
0 0 0 0 
0 0 0 0 
0.03176956454948993 -0.01440194136952005 0 0 
0 0 0 0 
0 0.0234851759943834 0 -0.02640886636227996 
0 0 0 0 
0 0 0 0 
0 0 0 0 
0 0 0 0 
0 0 0 0 
0 0 0 0 
0 0 0 0 
0 0 0 0 
0 0 0 0 
0 0 0 0 
-0.03289941464371759 0 0 0 
-0.1122935132759479 0.1604880184143847 -0.04952148860877596 -0.02397997296698424 
-0.1122935132759479 0.1604880184143847 -0.04952148860877596 -0.02397997296698424 
-0.1122935132759479 0.1604880184143847 -0.04952148860877596 -0.02397997296698424 
-0.1122935132759479 0.1604880184143847 -0.04952148860877596 -0.02397997296698424 
0 0 0 0 
0 0 0 0 
0 0 0 0 
4.336808689942018e-19 0 0 0 
0.002396912403705424 -0.09508521068340418 0 0 
0.06218189457420165 -0.06724264550913726 0 0 
0 0 0 0 
0 0 0 0 
0 0 0 0 
0 0 0 0 
0 0 0 0 
0 0 0 0 
0 0 0 0 
0 0 0 0 
0 0 0 0 
0 0 0 0 
-0.06128873119556021 0.08884316188661923 -0.03928592338753839 0 
-0.06128873119556021 0.08884316188661923 -0.03928592338753839 0 
0 0 0 0 
0 0 0 0 
0 0 0 0 
0 0 0 0 
0.02263740617759683 0 0 -0.01773323540566156 
0 0 0 0 
0 0 0 0 
-0.1885706014612703 -0.07830345039717691 0.2580905133410537 0 
-0.1885706014612703 -0.07830345039717691 0.2695173980611626 0 
-0.1885706014612703 -0.07830345039717691 0.2695173980611626 0 
-0.1885706014612703 -0.07830345039717691 0.2695173980611626 0 
0.0392784235307111 0 -0.04029189225641633 0 
0.0761098405009403 0 -0.08391496134009199 0 
0.0392784235307111 0 -0.04029189225641633 0 
0.004520184939968682 0 0 0 
0.004520184939968682 0 0 0 
0.004520184939968682 0 0 0 
0.004520184939968682 0 0 0 
0 0 0 0 
0 -0.01103307127258502 0.02486159390480109 0 
0 -0.01103307127258502 0.02486159390480109 0 
0 -0.01103307127258502 0.02486159390480109 0 
0 0 0 0 
0 0 0 0 
0 0 0 0 
0 0 0 0 
0 0 0 0 
0.01731608901267161 -0.009024994463716733 0 0 
0.01731608901267161 -0.009024994463716733 0 0 
0 0 0 0 
0 0 0 0 
0 0 0 0 
0 0 0 0 
0 0 0 0 
0 0 0 0 
0 0 0 0 
0 0 0 0 
0 0 -0.03481746360135169 0 
0 0 0 0 
0 0 0 0 
0 0 0 0 
0 0 0 0 
0 0 0 0 
0 -0.007029786982257025 0 0 
0 -0.007029786982257025 0 0 
0 -0.007029786982257025 0 0 
0 0 0 0 
0 0 0 0 
0.02676206934836133 0 -0.01045391896079131 0 
0 0 0 0 
0 0 0 0 
0 0 0 0 
0 0 0 0 
-0.05255504654166664 -0.08885104223786926 0.1380961176225994 0 
-0.2088236725143625 -0.1227437937108904 0.3170135572027154 0 
-0.05255504654166664 -0.08885104223786926 0.1380961176225994 0 
-0.05255504654166664 -0.08885104223786926 0.1380961176225994 0 
-0.2088236725143625 -0.1227437937108904 0.3170135572027154 0 
-0.05255504654166664 -0.08885104223786926 0.1380961176225994 0 
0 0 0 0 
-0.08139997619391817 0.1572026145928702 -0.06123572382100074 0 
-0.08139997619391817 0.1572026145928702 -0.06123572382100074 0 
-0.08139997619391817 0.1572026145928702 -0.06123572382100074 0 
-0.08139997619391817 0.1572026145928702 -0.06123572382100074 0 
0 0 0 0 
-0.1022616389461944 -0.07352417230919724 0.1998843777943062 -0.01952592014885559 
-0.05603414281906389 -0.03686438205346981 0.1007393441201248 -0.009984444362407622 
-0.1022616389461944 -0.07352417230919724 0.1998843777943062 -0.01952592014885559 
-0.1022616389461944 -0.07352417230919724 0.1998843777943062 -0.01952592014885559 
-0.05603414281906389 -0.03686438205346981 0.1007393441201248 -0.009984444362407622 
0.08200874157313676 -0.05297930896478218 -0.01803238782175983 0 
0.02981658830665367 -0.007363778007681974 -0.006481284325864439 0 
0.08200874157313676 -0.05297930896478218 -0.01803238782175983 0 
0.02981658830665367 -0.007363778007681974 -0.006481284325864439 0 
0.1880203447744835 -0.1315604987391827 -0.04156974319107282 -0.01274864147941194 
0 0 0 0 
0 0 0 0 
0 0 0 0 
0.009184086796404376 0 0 0 
0.009184086796404376 0 0 0 
0 0 0 0 
0 0 0 0 
0 0 0 0 
0 0 0 0 
0 0 0 0 
0 0 0 0 
0 0 0 0 
0.00673279352199547 0 -0.00728373228581935 0 
0 0 0 0 
0 0 0 0 
0 0 0 0 
0 0 -0.001088398337800823 -0.005739194238671236 
0 0 -0.001088398337800823 -0.005739194238671236 
0 0 -0.001088398337800823 -0.005739194238671236 
-0.02899891856147707 0.07276846124022118 -0.005025524660689324 -0.02027535892523293 
-0.02899891856147707 0.06964859553652457 -0.005025524660689324 -0.003328686295072039 
-0.02899891856147707 0.06964859553652457 -0.005025524660689324 -0.003328686295072039 
0 0 0 0 
0 0 0 0 
0 0 0 0 
0 0 0 0 
0.006732793521995472 0 -0.00728373228581935 0 
0.000310955622012254 0 -0.02543330238670501 0 
-0.1074254201601543 0.1588110214717493 -0.02723326442303416 -0.01056483454929685 
-0.1074254201601543 0.1588110214717493 -0.02723326442303416 -0.01056483454929685 
-0.1074254201601543 0.1588110214717493 -0.02723326442303416 -0.01056483454929685 
-0.1074254201601543 0.1588110214717493 -0.02723326442303416 -0.01056483454929685 
-0.1074254201601543 0.1588110214717493 -0.02723326442303416 -0.01056483454929685 
-0.1074254201601543 0.1588110214717493 -0.02723326442303416 -0.01056483454929685 
-0.1663541440318621 0.2006047041737543 -0.03769392650334534 0 
-0.1663541440318621 0.2006047041737543 -0.03769392650334534 0 
-0.1663541440318621 0.2006047041737543 -0.03769392650334534 0 
-0.1663541440318621 0.2006047041737543 -0.03769392650334534 0 
-0.1663541440318621 0.2006047041737543 -0.03769392650334534 0 
0 0 -0.01142688472010902 0 
0 0 -0.01142688472010902 0 
0 0 0 0 
0 0 0 0 
0 0 0 0 
0 0 0 0 
0 0 0 0 
0 0 0 0 
0 0 0 0 
0 0 0 0 
0 0 0 0 
0.08949176350375027 0 -0.07234956659988516 -0.01417303965055879 
0.08949176350375027 0 -0.07234956659988516 -0.01417303965055879 
0.04605367235247457 0 -0.03309766755579868 0 
0 0 0 0 
0 0 0 0 
0 -0.008065812641542673 0 0 
0 0 0 0 
0 0 0 0 
0 0 0 0 
0 0 0 0 
0 0 0 0 
0 0 0 0 
0 0 0 0 
0 0 0 0 
0.1880203447744835 -0.1315604987391827 -0.04156974319107283 -0.01274864147941194 
0.1880203447744835 -0.1315604987391827 -0.04156974319107283 -0.01274864147941194 
0.1880203447744835 -0.1315604987391827 -0.04156974319107283 -0.01274864147941194 
0.1880203447744835 -0.1315604987391827 -0.04156974319107283 -0.01274864147941194 
0.0002399928117269693 0 0 0 
0.0002399928117269693 0 0 0 
0.0002399928117269693 0 0 0 
0.0002399928117269693 0 0 0 
0 0 0 0 
0 0 0 0 
0 0 0 0 
0.02071645079272755 -0.02469716305580899 0 0 
0.02071645079272755 -0.02469716305580899 0 0 
0 0 -0.05634598562174278 0 
0 0 -0.05634598562174278 0 
0 0 -0.05634598562174278 0 
0 0 0 0 
0 0 0 0 
0 0 0 0 
0 0 0 0 
0 0 0 0 
0 0 0 0 
-0.1087960383514441 -0.0668627396048628 0.192317644757293 0 
-0.1087960383514441 -0.0668627396048628 0.192317644757293 0 
-0.1087960383514441 -0.0668627396048628 0.192317644757293 0 
-0.1087960383514441 -0.0668627396048628 0.192317644757293 0 
-0.06075286541443957 -0.1517014423249769 -0.08721141078228593 0.2737379571867723 
0.0006073866823387396 0 0 0 
0.0006073866823387396 -0.01021553322624927 0 0 
0 0 0 0 
0.01349778729874227 0 -0.008480438615977892 0 
0.01349778729874227 0 -0.008480438615977892 0 
0.01349778729874227 0 -0.008480438615977892 0 
0 0 0 0 
0 0 0 0 
0 0 0 0 
0 0 0 0 
0 0 0 0 
0.1437405961807743 -0.1165693184307958 0 0 
0.1437405961807743 -0.1165693184307958 0 0 
0.1437405961807743 -0.1165693184307958 0 0 
0.1437405961807743 -0.1165693184307958 0 0 
0.1437405961807743 -0.1165693184307958 0 0 
0.1437405961807743 -0.1165693184307958 0 0 
0 0 0 0 
0 0 0 0 
0 0 0 0 
0 0 0 0 
0 0 0 0 
0 0 0 0 
-0.03819952529265799 -0.0891349809426031 0.09434120491039984 0 
0 0 0 0 
0 0 0 0 
0 0 0 0 
0 0 0 0 
0 0 0 0 
0 0 0 0 
0 0 0 -0.0054337328616187 
0 0 0 -0.0054337328616187 
0 0 0 0 
0 0 0 0 
0 0 0 0 
0 0 0 0 
0 0 0 0 
0 0 0 0 
0 0 0 0 
0 0 0 0 
0 0 0 0 
0 0 0 0 
0 0 0 0 
0 0 0 0 
0 0.0031198657036966 0 -0.01694667263016089 
0 0 0 0 
0 -0.01318582880336202 0 0 
0 -0.01318582880336202 0 0 
0 -0.01318582880336202 0 0 
-0.05693110853350753 0.09909371038056414 -0.01718132941148789 0 
-0.05693110853350753 0.09909371038056414 -0.01718132941148789 0 
-0.05693110853350753 0.09909371038056414 -0.01718132941148789 0 
-0.01260844994164829 0.05123897774041341 -0.05333892771582009 0 
0 0 0 0 
0 0 0 0 
0 0 0 0 
0 0 0 0 
0 0 0 0 
0 0 0 0 
0.08567825382526184 -0.03144817309042208 -0.02915116341271912 0 
0.08567825382526184 -0.03144817309042208 -0.02915116341271912 0 
0.08567825382526184 -0.03144817309042208 -0.02915116341271912 0 
0.08567825382526184 -0.03144817309042208 -0.02915116341271912 0 
0 0 0 0 
0 0 0 0 
-0.1339200658077526 0.27536902469632 -0.06628061587432275 -0.005197970648970732 
-0.06285049751476172 0.1605238367581654 -0.08963295099280295 0 
-0.06285049751476172 0.1605238367581654 -0.08963295099280295 0 
-0.06285049751476172 0.1605238367581654 -0.08963295099280295 0 
-0.06285049751476172 0.1605238367581654 -0.08963295099280295 0 
-0.06285049751476172 0.1605238367581654 -0.08963295099280295 0 
-0.08271464408748798 0.08357994939212816 -0.007920421022009615 0 
-0.08271464408748798 0.08357994939212816 -0.007920421022009615 0 
-0.08271464408748798 0.08357994939212816 -0.007920421022009615 0 
-0.08271464408748798 0.08357994939212816 -0.007920421022009615 0 
0.02676206934836133 0 -0.01045391896079131 0 
0.02676206934836133 0 -0.01045391896079131 0 
0.02676206934836133 0 -0.01045391896079131 0 
0.02676206934836133 0 -0.01045391896079131 0 
0 -0.01660459284344849 0 0 
0 -0.01660459284344849 0 0 
0 -0.01660459284344849 0 0 
0 -0.01660459284344849 0 0 
0.09698632304769926 -0.0531467279374459 -0.08307090910298975 0 
0 0 0 0 
-0.07236257872289818 0.06687177346841493 0 0 
-0.07236257872289818 0.06687177346841493 0 0 
-0.07236257872289818 0.06687177346841493 0 0 
0 0 0 0 
-0.05957627572911556 -0.05096246916678663 0.1734707052392794 0 
-0.05957627572911556 -0.05096246916678663 0.1734707052392794 0 
0 0 0 0 
0 0 0 0 
0 0 0 0 
0 0 0 0 
0 0 0 0 
0 0 0 0 
0.03966100776122423 -0.01090492577726124 0 0 
0.03966100776122423 -0.01090492577726124 0 0 
0.03966100776122423 -0.01090492577726124 0 0 
0.03966100776122423 -0.01090492577726124 0 0 
0 0 0 0 
0.05356277402860327 -0.05188615851605467 0 0 
0 0 0 -0.002099649811858061 
0 0 0 -0.002099649811858061 
0 -0.01167689762104077 0 0 
0 0 0 0 
0 0 0 0 
0 0 0 0 
0 0 0 0 
0 0 0 0 
0 0 0 0 
0 0 0 0 
0 0 0 0 
0 0 0 0 
0 0 0 0 
0 0 0 0 
-0.04622749612713055 -0.03665979025572743 0.09914503367418129 -0.009541475786447968 
-0.04622749612713055 -0.03665979025572743 0.09914503367418129 -0.009541475786447968 
0 0 0 0 
0 0 0 0 
0 0 0 0 
0 0 0 0 
0 0 0 0 
0 0 0 0 
-0.07703250585458968 -0.08163260087809154 -0.04840939292246599 0.152379896328746 
-0.07703250585458968 -0.08163260087809154 -0.04840939292246599 0.152379896328746 
-0.07703250585458968 -0.08163260087809154 -0.04840939292246599 0.152379896328746 
-0.07703250585458968 -0.08163260087809154 -0.04840939292246599 0.152379896328746 
-0.07703250585458968 -0.08163260087809154 -0.04840939292246599 0.152379896328746 
-0.0613602520967783 -0.1517014423249769 -0.08721141078228593 0.2737379571867723 
-0.0613602520967783 -0.1517014423249769 -0.08721141078228593 0.2737379571867723 
-0.0613602520967783 -0.1087245026184524 -0.08721141078228593 0.171071960215524 
-0.0613602520967783 -0.1517014423249769 -0.08721141078228593 0.2737379571867723 
0 0 0 0 
0 0 0 0 
0 0 0 0 
0 0 0 0 
0 0 0 0 
0 0 0 0 
0 0 0 0 
0.05681858067190264 0 -0.04362306908367568 0 
0.03683141697022922 0 -0.04362306908367568 0 
0 0 0 0 
0 0 0 0 
0 0 0 0 
0 0 0 0 
0.04446697808022876 0 -0.04941152742481218 0 
0 0 0 0 
0 0 0 0 
0 0.03457544712260781 -0.03108629079052588 -0.03559525811615133 
0 0.03457544712260781 -0.03108629079052588 -0.03559525811615133 
0 0 0 0 
0 0 0 0 
0 0 0 0 
0 0 0 0 
0 0 0 0 
0 0 0 0 
0 -0.1078005875393286 0 0 
0 -0.1078005875393286 0 0 
0 0 0 0 
0 0 0 0 
0 0 0 0 
-0.03819952529265799 -0.06051870376139705 0.08553134989930773 -0.004323026932245143 
0 0.02861627718120604 -0.008809855011092101 -0.004323026932245143 
0 0.05560932742794743 0 -0.04234129631482197 
0 0.05560932742794743 0 -0.04234129631482197 
0 0.05560932742794743 0 -0.04234129631482197 
0 0.05560932742794743 0 -0.04234129631482197 
0.1753210110179006 -0.05488431874465875 -0.06698024025359404 -0.01468402452221876 
0.1753210110179006 -0.05488431874465875 -0.06698024025359404 -0.01468402452221876 
0.1753210110179006 -0.05488431874465875 -0.06698024025359404 -0.01468402452221876 
0.1753210110179006 -0.05488431874465875 -0.06698024025359404 -0.01468402452221876 
0.01998716370167342 0 0 0 
0.01998716370167342 0 0 0 
0.01998716370167342 0 0 0 
0 0 0 0 
0 0 0 0 
0.02263740617759683 0 0 -0.01773323540566156 
0.02263740617759683 0 0 -0.01773323540566156 
0.02263740617759683 0 0 -0.01773323540566156 
0 0 0 0 
0 0 0 0 
0 0 0 0 
-0.03819952529265799 -0.0891349809426031 0.09434120491039984 0 
0.1058579237141869 -0.1840054903657925 0.07796563753630111 -0.01099283990044009 
-0.03819952529265799 -0.0891349809426031 0.09434120491039984 0 
0 0 0 0 
0 0 0 0 
0 0 0 0 
-0.1091427594435867 0.1517699903463035 -0.03806392766295547 -0.0001275278112927761 
-0.1091427594435867 0.1517699903463035 -0.03806392766295547 -0.0001275278112927761 
-0.07970316930375142 0.133874300902512 -0.03806392766295547 -0.0001275278112927761 
-0.1091427594435867 0.1517699903463035 -0.03806392766295547 -0.0001275278112927761 
-0.1091427594435867 0.1517699903463035 -0.03806392766295547 -0.0001275278112927761 
-0.1091427594435867 0.1517699903463035 -0.03806392766295547 -0.0001275278112927761 
0 0 0 0 
0.003282363201808974 0 0 0 
0 0.04978303594764397 -0.004841587220072914 -0.001015890899378094 
0 0.04978303594764397 -0.004841587220072914 -0.001015890899378094 
0 0 0 0 
0 0 0 0 
0 0 0 0 
0 0 0 0 
0 0 0 0 
0 0 0 0 
0 0 0 0 
0 0 0 0 
0 0 0 0 
0.04605367235247457 0 -0.03309766755579868 0 
0.04605367235247457 0 -0.03309766755579868 0 
0 0 0 0 
0 0 0 0 
0 0 0 0 
0 0 0 0 
0 0 0 0 
0 0 0 0 
0 0 0 0 
0 0 0 0 
0 0 0 0 
0 0 0 0 
0 0 0 0 
0 0 0 0 
0 0 0 0 
0 0 0 0 
0.0721538814956915 -0.00461364596593791 -0.04480996002667424 0 
0.0721538814956915 -0.00461364596593791 -0.04480996002667424 0 
0.0721538814956915 -0.00461364596593791 -0.04480996002667424 0 
0.007715325836021142 0 0 0 
0.1440574490068449 -0.09487050942318935 -0.01637556737409873 -0.01099283990044009 
0.1440574490068449 -0.09487050942318935 -0.01637556737409873 -0.01099283990044009 
0.1440574490068449 -0.09487050942318935 -0.01637556737409873 -0.01099283990044009 
0.1440574490068449 -0.09487050942318935 -0.01637556737409873 -0.01099283990044009 
0.1440574490068449 -0.09487050942318935 -0.01637556737409873 -0.01099283990044009 
0 0 0 0 
0 0 0 0 
0 0 0 0 
0 0 0 0 
0 0 0 0 
0 0 0 0 
0 0 0 0 
0 0 0 0 
0 0 0 0 
0 0 0 0 
0 0 0 0 
0 0 0 0 
0 0 0 0 
0 0 0 0 
0 0 0 0 
0.001523761695319649 0 0 0 
0.001523761695319649 0 0 0 
0 0 0 0 
-0.04657795566198344 0.06025046069674254 0 0 
-0.04657795566198344 0.06025046069674254 0 0 
-0.04657795566198344 0.06025046069674254 0 0 
-5.204170427930421e-18 -2.168404344971009e-19 0 0 
0 0 0 0 
0 0 0 0 
0 0 0 0 
0.0822718393703306 -0.08232961933238445 -0.003811436454481323 0 
0.0822718393703306 -0.08232961933238445 -0.003811436454481323 0 
0 0 0 0 
0 0 0 0 
0 0 0 0 
0 0 0 0 
0 0 0 0 
0 0 0 0 
-0.1562686259726957 -0.03389275147302111 0.1789174395801162 0 
0 0 0 0 
0 0 -0.006446754215405215 0 
0 0 -0.006446754215405215 0 
0 0 -0.006446754215405215 0 
-0.01234585017774075 0.02054272412774664 0 -0.006105979821807506 
-0.01234585017774075 0.02054272412774664 0 -0.006105979821807506 
-0.01234585017774075 0.02054272412774664 0 -0.006105979821807506 
-0.01234585017774075 0.02054272412774664 0 -0.006105979821807506 
0.06253610019622448 -0.03188959987719991 -0.02671042443667845 0 
0.06253610019622448 -0.03188959987719991 -0.02671042443667845 0 
0.02229894946877503 0 0 0 
0.02229894946877503 0 0 0 
0.02229894946877503 0 0 0 
0 0 0 0 
0 0 0 0 
0 0 0 0 
0 0 0 0 
0 0 0 0 
0 0 0 0 
0 0 0 0 
0 0 -0.01316215307227487 0 
0 0.04867938049840206 -0.002037205944888141 0 
0 0.04867938049840206 -0.002037205944888141 0 
0 0.05732731147327122 -0.01649183332975364 -0.02924595184649942 
0 0.05732731147327122 -0.01649183332975364 -0.02924595184649942 
0.02791582844451563 -0.01789568944379148 0 0 
0.02791582844451563 -0.01789568944379148 0 0 
0.00961607346768433 0 0 -0.02598600299532053 
0.00961607346768433 0 0 -0.02598600299532053 
0.00961607346768433 0 0 -0.02598600299532053 
0.02947886944717186 0 -0.01556440763795327 -0.0367151719608577 
0.02947886944717186 0 -0.01556440763795327 -0.0367151719608577 
7.040254269429618e-05 0 0 0 
7.040254269429618e-05 0 0 0 
0 0 0 0 
0 0 0 0 
0 0 0 0 
0 0 0 0 
0 -0.05166521254519257 0.03688719812267547 0 
0 -0.05166521254519257 0.03688719812267547 0 
0 0.002696780174962922 0 -0.007150437889248271 
0 0.002696780174962922 0 -0.007150437889248271 
0 0.002696780174962922 0 -0.007150437889248271 
0 0.002696780174962922 0 -0.007150437889248271 
0 0.002696780174962922 0 -0.007150437889248271 
0 0 0 0 
0 0 0 0 
0 0 -0.02043422331568555 0 
-0.1562686259726957 -0.03389275147302111 0.1789174395801162 0 
-0.1562686259726957 -0.03389275147302111 0.1789174395801162 0 
0.01642811187087262 -0.01420411113239891 -0.004030808090399523 -0.001327205823500299 
0.01642811187087262 -0.01420411113239891 -0.004030808090399523 -0.001327205823500299 
0.01642811187087262 -0.01420411113239891 -0.004030808090399523 -0.001327205823500299 
0 0 0 0 
0 0 0 0 
0 0 0 0 
-0.06573505876151124 0.1052300467399523 -0.03940163646687628 -0.01080336024417223 
-0.06573505876151124 0.1052300467399523 -0.03940163646687628 -0.01080336024417223 
-0.06573505876151124 0.1052300467399523 -0.03940163646687628 -0.01080336024417223 
-0.06573505876151124 0.1052300467399523 -0.03940163646687628 -0.01080336024417223 
-0.06573505876151124 0.1052300467399523 -0.03940163646687628 -0.01080336024417223 
0 0 0 0 
0 0 -0.01012088266249073 0 
0 0 -0.01012088266249073 0 
0 0 -0.01012088266249073 0 
0 0 0 -0.03094783182871665 
0 0 0 0 
0 0 0 0 
0 0 0 0 
0 0 0 0 
0 0 0 0 
0.007835028276786575 -0.009763167407013494 0 0 
0.007835028276786575 -0.009763167407013494 0 0 
0.007835028276786575 -0.009763167407013494 0 0 
0.007835028276786575 -0.009763167407013494 0 0 
0 0 0 0 
0 0 0 0 
0 0 0 0 
0 0 0 0 
0 0 0 0 
0 0 0 0 
0 0 0.03903943594721521 -0.05238335654458023 
0 0 0.03903943594721521 -0.05238335654458023 
0 0 0.03903943594721521 -0.05238335654458023 
0 0.04539497588507973 -0.0122946201709263 0 
0 0.04539497588507973 -0.0122946201709263 0 
0 0.04539497588507973 -0.0122946201709263 0 
0.03176956454948993 -0.01440194136952005 0 0 
0 0 0 0 
0.02182075869172173 0 -0.02159563147710341 0 
0 0 0 0 
0 0 0 0 
0 0 0 0 
0 0 0 0 
0 -0.01021553322624927 0 0 
0 0 -6.678720627788371e-05 0 
0 0 0 0 
0 0 0 0 
0 0 -0.002326126107977084 0 
0 0 -0.002326126107977084 0 
0 0 -0.002326126107977084 0 
0 0 -0.002326126107977084 0 
0 0 -0.002326126107977084 0 
0 0 0 0 
0 0 0 0 
0 0 0 0 
0 0 0 0 
0 0 0 0 
0 0 0 0 
0 0 0 0 
0 0 0 0 
0.1230571871682334 -0.0314774825321337 -0.07059397582945204 0 
0.1230571871682334 -0.0314774825321337 -0.07059397582945204 0 
0.1230571871682334 -0.0314774825321337 -0.07059397582945204 0 
0.1230571871682334 -0.0314774825321337 -0.07059397582945204 0 
0.1230571871682334 -0.0314774825321337 -0.07059397582945204 0 
0.1230571871682334 -0.0314774825321337 -0.07059397582945204 0 
0.1230571871682334 -0.0314774825321337 -0.07059397582945204 0 
0 0 0 0 
0 0 0 0 
0.06793137503842769 -0.02522526795002934 -0.05289582678486587 0 
0.06793137503842769 -0.02522526795002934 -0.05289582678486587 0 
0.06793137503842769 -0.02522526795002934 -0.05289582678486587 0 
0.06793137503842769 -0.02522526795002934 -0.05289582678486587 0 
0 -0.01340822848220675 0 0 
0 -0.01340822848220675 0 0 
0 -0.01340822848220675 0 0 
0.03173636366689107 0 -0.01912780585620147 0 
0.03173636366689107 0 -0.01912780585620147 0 
0.03173636366689107 0 -0.01912780585620147 0 
0 0 -0.02043422331568555 0 
0 0 -0.02043422331568555 0 
0 0 0 0 
0 0 0 0 
0 0 0 0 
0 0 0 0 
0 0 0 0 
0 0 0 0 
0 0 0 0 
0 0 0 0 
0 0 0 0 
0 0.02348517599438339 0 -0.02640886636227996 
0 0.02348517599438339 0 -0.02640886636227996 
0.05219215326648308 -0.04561553095710022 -0.01155110349589538 0 
0.05219215326648308 -0.04561553095710022 -0.01155110349589538 0 
0 0 0 0 
0 0.0031198657036966 0 -0.01694667263016089 
0 0.0031198657036966 0 -0.01694667263016089 
0 0 0 0 
0 0 0 0 
0 0 0 0 
0 0.04297693970652449 0 -0.1026659969712484 
0 0.04297693970652449 0 -0.1026659969712484 
0 0.04297693970652449 0 -0.1026659969712484 
0.04804010593099001 -0.02270014597335532 0 -0.01183819437717789 
0.04804010593099001 -0.02270014597335532 0 -0.01183819437717789 
0.003020441741800997 0 0 0 
-0.004677034737543102 0.02177410346446534 -0.01556031793745509 -0.01828148484938723 
-0.004677034737543102 0.02177410346446534 -0.01556031793745509 -0.01828148484938723 
-0.004677034737543102 0.02177410346446534 -0.01556031793745509 -0.01828148484938723 
