solver_type L2R_L2LOSS_SVC_DUAL
nr_class 1
label 1
nr_feature 509
bias -1
w
0.02016405318592569 
0.057837280521678 
0.2303350645913105 
0.005220796102189722 
0.006893186671283572 
0.01781632929940146 
0.04834776971018197 
0.002015375131188562 
0.0002265107234706765 
0.2303350645913105 
0.1434098017412976 
0.2303350645913104 
0.01100473783127194 
0 
0 
0 
0 
0 
0 
0 
0.07758318143862489 
0.03228226806201827 
0.0133750850478452 
0.08412316032298392 
0.02363337758840346 
0 
0 
0 
0 
0 
0 
0 
0.006172944332953508 
0.02059970427968592 
0 
0.004691104269341772 
0.02059970427968592 
0 
0.0256909872798044 
0 
0.01867065712226464 
0.002347723886524231 
0.0256909872798044 
0 
0 
0 
0 
0 
0 
0 
0.001294188916920987 
0.001294188916920987 
0.001294188916920987 
0.001294188916920987 
0.01242117412698488 
0.01242117412698488 
0.02191068493848088 
0.02519184385115063 
0.01242117412698488 
0.01242117412698488 
0.02191068493848088 
0.01242117412698488 
0.02672850639035479 
0.008309862368558185 
0.01052916652489978 
0.008309862368558185 
0.01052916652489978 
0.008309862368558185 
0.008309862368558185 
0.001751932200657947 
0.001751932200657947 
0.001751932200657947 
0.001751932200657947 
0.001751932200657947 
0.001751932200657947 
0.02900901280757572 
0.004493644818563449 
0.004493644818563449 
0.004493644818563449 
0.004493644818563449 
0.004493644818563449 
0.004493644818563449 
0 
0 
0.0121196986632388 
0.0121196986632388 
0.01211969866323879 
0.01609995173787876 
0.0121196986632388 
0.0121196986632388 
0.0121196986632388 
0.0121196986632388 
0.01211969866323881 
0.0133750850478452 
0 
0 
0.005021892002996273 
0.005021892002996273 
0 
0 
0.005725691657519683 
0 
0 
0.005725691657519683 
0 
0.01063697249065499 
0.005543215033375584 
0 
0 
0 
0 
0.02443025318704261 
0.004770142738264353 
0.002981278330546467 
0.002981278330546467 
0.002981278330546467 
0.04053521410771561 
0.01066579820884028 
0.04053521410771561 
0.005543215033375584 
0 
0 
0 
0.0134835404299624 
0 
0 
0 
0 
0 
0.0009147503064643944 
0.009940313376216326 
0.0009147503064643944 
0.0009147503064643944 
0.0009147503064643944 
0.001255386384606404 
0.001255386384606404 
0.01395031816710356 
0.001255386384606404 
0.001255386384606404 
0.004460807355607562 
0.004460807355607562 
0.001255386384606404 
0 
0 
0.02158680717340528 
0 
0 
0 
0 
0 
0.01851079441293877 
0.01063697249065499 
0.01063697249065499 
0.009025563069751932 
0.01063697249065499 
0.01063697249065499 
0 
0 
0 
0.001481840063611736 
0.001481840063611736 
0.001481840063611736 
0 
0 
0 
0 
0 
0 
0.04025916610479702 
0.008492427475327231 
0 
0 
0 
0 
0 
0.005267167030457011 
0.005267167030457011 
0.005267167030457011 
0.005267167030457011 
0.005267167030457011 
0.005267167030457011 
0.005267167030457011 
0.005267167030457011 
0.0003389396224316627 
0 
0.0003389396224316627 
0 
0 
0 
0 
0.003980253074639954 
0 
0.009025563069751932 
0.009025563069751932 
0.00467115982624181 
0.00467115982624181 
0.00467115982624181 
0.00467115982624181 
0 
0 
0 
0 
0 
0 
0 
0 
0.001788864407717886 
0 
0 
0 
0 
0 
0 
0.003205420971001159 
0 
0.009834924360469352 
0.002916150051140643 
0 
0 
0 
0 
0 
0.005021892002996273 
0.009834924360469352 
0.009834924360469352 
0.009834924360469352 
0.009834924360469352 
0.009834924360469352 
0.009834924360469352 
0.009834924360469352 
0.01063697249065499 
0 
0 
0 
0 
0 
0 
0 
0 
0 
0 
0.02228570817171485 
0 
0 
0.01278510275541909 
0 
0 
0 
0 
0 
0 
0 
0 
0 
0 
0.008492427475327229 
0 
0.01884777207902797 
0.01884777207902797 
0.01884777207902797 
0.01884777207902797 
0.01884777207902797 
0.01884777207902797 
0 
0 
0.01278510275541909 
0 
0 
0 
0.01278510275541909 
0 
0 
0.02158680717340528 
0 
0 
0.002916150051140643 
0 
0.01278510275541909 
0.01851079441293877 
0.01278510275541909 
0.01851079441293877 
0.01278510275541909 
0 
0 
0 
0 
0 
0 
0 
0 
0 
0 
0.02228570817171485 
0.003980253074639954 
0.003980253074639954 
0.003980253074639954 
0.003980253074639954 
0.005725691657519683 
0.005725691657519683 
0.005725691657519683 
0.005725691657519683 
0 
0 
0 
0 
0.006526982037637401 
0 
0 
0 
0 
0 
0 
0 
0 
0 
0 
0 
0 
0 
0 
0 
0 
0 
0 
0.01270629090262518 
0.01270629090262518 
0.01270629090262518 
0.01270629090262518 
0.001644783944816623 
0.001644783944816623 
0.001644783944816623 
0 
0 
0 
0 
0 
0 
0 
0 
0 
0 
0 
0 
0 
0 
0 
0 
0 
0 
0 
0 
0 
0.009828450433927665 
0.009489510811495998 
0.009828450433927665 
0.009489510811495998 
0 
0 
0 
0 
0 
0 
0 
0 
0 
0 
0 
0 
0 
0 
0.004691104269341772 
0.004691104269341772 
0.004691104269341772 
0.004691104269341772 
0.0003389396224316636 
0 
0 
0 
0 
0 
0.0003389396224316636 
0.0003389396224316636 
0 
0 
0 
0 
0 
0 
0.01867065712226464 
0.01867065712226464 
0.01867065712226464 
0.01867065712226464 
0.01867065712226464 
0.01379328069638762 
0.01379328069638762 
0 
0 
0 
0 
0 
0 
0 
0 
0 
0 
0 
0 
0 
0 
0 
0 
0 
0 
0 
0 
0 
0 
0 
0 
0 
0.002219304156341593 
0.002219304156341593 
0.002219304156341593 
0.002219304156341593 
0 
0 
0 
0 
0 
0 
0 
0 
0 
0 
0 
0.005122583175464692 
0.005122583175464692 
0.005122583175464692 
0.005122583175464692 
0.005122583175464692 
0.005122583175464692 
0 
0 
0 
0 
0 
0 
0 
0 
0 
0 
0 
0 
0 
0.002916150051140643 
0.002916150051140643 
0 
0 
0 
0 
0 
0 
0 
0 
0 
0 
0 
0 
0 
0 
0 
0 
0 
0 
0 
0 
0 
0 
0 
0 
0 
0 
0 
0 
0 
0 
0 
0 
0 
0 
0 
0 
0 
0 
0 
0.0001387846631388496 
0.0001387846631388496 
0.0001387846631388496 
0.0001387846631388496 
0 
0 
0 
0.006526982037637402 
0.006526982037637402 
0.006526982037637402 
0.006526982037637402 
0.006526982037637402 
0.006526982037637402 
0.006526982037637402 
