solver_type L2R_L2LOSS_SVC_DUAL
nr_class 1
label 1
nr_feature 381
bias -1
w
0.01797900200905772 
0.04016805517273858 
0.2137865067713983 
0.01276740276200224 
0.01276740276200224 
0.01276740276200224 
0.02056498094026955 
0.01276740276200224 
0.01276740276200224 
0.01276740276200224 
0.2137865067713983 
0.174923263558666 
0.2351806597236528 
0 
0 
0.0005718965268511869 
0 
0 
0 
0.0005718965268511869 
0 
0.004259373875824474 
0.004259373875824474 
0.004259373875824474 
0.004259373875824475 
0.004259373875824474 
0.004259373875824474 
0.004259373875824474 
0.004259373875824474 
0.09407511657576514 
0.03233710185327779 
0 
0 
0.03865810047933431 
0 
0 
0 
0 
0.01216238352854195 
0.005895175672018557 
0.01650381338899407 
0.005895175672018557 
0.005895175672018557 
0.005895175672018557 
0.005895175672018557 
0.005895175672018557 
0.0005391990509989329 
0.0005391990509989329 
0.003519183940055348 
0.0005391990509989329 
0.0005391990509989329 
0.0005391990509989329 
0.003519183940055348 
0.0005391990509989329 
0.001196858337226201 
0.001196858337226201 
0.00803771969970353 
0.001196858337226201 
0.001196858337226201 
0.01180549605420172 
0.001196858337226201 
0.01060863771697551 
0.01060863771697551 
0.01060863771697551 
0.01060863771697551 
0.01060863771697551 
0 
0 
0.01744820843109991 
0 
0 
0.01313978237101251 
0 
0.009503943038152909 
0.009503943038152909 
0.009503943038152909 
0.009503943038152909 
0.009503943038152909 
0.009503943038152909 
0.009503943038152909 
0.009503943038152909 
0.009503943038152909 
0.009503943038152909 
0.005921076695275142 
0.005921076695275142 
0.005921076695275142 
0.005921076695275142 
0.005921076695275142 
0.005921076695275142 
0.005921076695275142 
0.005921076695275142 
0.01644550558562306 
0 
0 
0 
0 
0 
0 
0 
0.007797578178267306 
0.007797578178267306 
0.007797578178267306 
0.007797578178267306 
0.007797578178267306 
0 
0 
0 
0 
0 
0 
0 
0.01077911433625142 
0.0005718965268511869 
0.0005718965268511869 
0.0005718965268511869 
0.0005718965268511869 
0.0005718965268511869 
0.0005718965268511869 
0.01613237777173366 
0.01613237777173366 
0.01880450717928145 
0.01613237777173366 
0.01613237777173366 
0.01613237777173366 
0.01613237777173366 
0.006773653134378543 
0 
0 
0 
0 
0 
0 
0 
0 
0 
0 
0 
0 
0 
0 
0 
0 
0 
0.02793674322394254 
0.03091672811299895 
0 
0.00637105734678943 
0 
0 
0.00637105734678943 
0 
0 
0 
0 
0 
0 
0.006773653134378543 
0 
0 
0.00521159924705548 
0.00521159924705548 
0.0157156756948258 
0.00521159924705548 
0.00521159924705548 
0.00521159924705548 
0.00521159924705548 
0 
0 
0.01284986751963163 
0 
0 
0 
0 
0 
0 
0 
0 
0 
0 
0.002979984889056415 
0.01912896072118483 
0 
0.01912896072118483 
0 
0.002979984889056415 
0.002979984889056415 
0.002979984889056415 
0.002979984889056415 
0.002979984889056415 
0.002979984889056415 
0.002979984889056415 
0.002979984889056415 
0 
0.01046765296346473 
0.008994058568604009 
0 
0.01046765296346473 
0 
0 
0 
0 
0 
0 
0 
0 
0 
0 
0 
0 
0.01319450367554534 
0.00703527677216801 
0.002726850712080613 
0.002726850712080613 
0.002726850712080613 
0.008994058568604009 
0.002726850712080613 
0.01746909026047781 
0.01746909026047781 
0.01746909026047781 
0.01746909026047781 
0.01746909026047781 
0.01746909026047781 
0.01746909026047781 
0.01746909026047781 
0.01244727173204252 
0 
0 
0 
0 
0 
0 
0 
0 
0 
0 
0.01912896072118483 
0.01912896072118483 
0.01912896072118483 
0.01912896072118483 
0.01912896072118483 
0.01912896072118483 
0 
0 
0 
0 
0 
0.006840861362477326 
0 
0 
0.01046765296346473 
0.01046765296346473 
0.01046765296346473 
0.007994461755843342 
0.007994461755843342 
0.007994461755843342 
0.007994461755843342 
0.007994461755843342 
0.007994461755843342 
0.007994461755843342 
0.007994461755843342 
0 
0 
0 
0 
0 
0 
0 
0 
0 
0 
0.02252572270760063 
0 
0.01321191870926676 
0.00637105734678943 
0.00637105734678943 
0.00637105734678943 
0.00637105734678943 
0 
0 
0 
0.006840861362477326 
0.006840861362477326 
0.006840861362477326 
0.006840861362477326 
0.006840861362477326 
0 
0.006980555467635183 
0 
0 
0 
0 
0.01202164625983031 
0.01202164625983031 
0.02252572270760063 
0.01202164625983031 
0.01202164625983031 
0.02252572270760063 
0.01108207919446594 
0.004308426060087397 
0.006980555467635183 
0.004308426060087397 
0.004308426060087397 
0.006267207856523397 
0.006267207856523397 
0.006267207856523397 
0.006267207856523397 
0.006267207856523397 
0 
0 
0 
0 
0 
0 
0 
0 
0 
0 
0 
0 
0 
0 
0 
0 
0.01050407644777033 
0.01050407644777033 
0.01050407644777033 
0.01077911433625142 
0.01077911433625142 
0.01077911433625142 
0.01077911433625142 
0.01077911433625142 
0.01077911433625142 
0.01077911433625142 
0.01077911433625142 
0 
0 
0 
0 
0 
0 
0.006773653134378544 
0.006773653134378544 
0.006773653134378544 
0.006773653134378544 
0.006076214385253088 
0.006076214385253088 
0.006076214385253088 
0.006076214385253088 
0.006076214385253088 
0.006076214385253088 
0 
0 
0 
0 
0 
0 
0 
0 
0 
0 
0 
0 
0 
0 
0 
0 
0 
0 
0 
0 
0 
0 
0 
0.002672129407547787 
0 
0 
0 
0 
0 
0 
0 
