solver_type L2R_L2LOSS_SVC_DUAL
nr_class 7
label 1 2 3 4 5 6 7
nr_feature 631
bias -1
w
0.03683511743325821 -0.01219876857353021 -0.02613879620031 -0.005222429865299861 0 0 0 
0.5411585927846999 -0.2154356782524016 -0.1640019688693635 -0.1540901128824603 -0.1334678139669266 -0.102724541327943 -0.1140683789708469 
-0.01246052232055358 -0.2906032003228439 -0.2954915941386794 -0.02720315935212466 -0.2151526480021227 -0.396413021270538 -0.2814479392059614 
0.03683511743325821 -0.01219876857353021 -0.02613879620031 -0.005222429865299861 0 0 0 
-0.03312122444517163 -0.02910942140464613 0.1766844398769401 -0.02337678872074505 0 -0.04979567496340055 -0.06114649549844042 
0.03683511743325821 -0.01219876857353021 -0.02613879620031 -0.005222429865299861 0 0 0 
0.5411585927846999 -0.2154356782524016 -0.1640019688693635 -0.1540901128824603 -0.1334678139669266 -0.102724541327943 -0.1140683789708469 
0.03683511743325821 -0.01219876857353021 -0.02613879620031 -0.005222429865299861 0 0 0 
0.03683511743325821 -0.01219876857353021 -0.02613879620031 -0.005222429865299861 0 0 0 
-0.08749924660097685 0.02065134689156184 -0.05696696737957459 -0.2120010811193405 -0.4074396938645448 -0.01833281973031021 -0.08667276387415837 
-0.06305696656371665 -0.2225849211808828 -0.2954915941386795 -0.1871626634496713 -0.215152648002123 -0.3875448682029666 -0.2814479392059615 
-0.02634573129831216 0.223656391990022 0 0 -0.132871465192841 -0.1167453862699374 0 
-0.2503051479985269 0.06149181984000307 -0.1308159788673199 -0.05891671802237634 0.2198153924620836 0.03055511519307824 -0.08937340939462085 
-0.08312751151921233 0.06113773365937665 0.1538196273527252 -0.2786842208047943 -0.1328714651928411 0.3511320511170595 -0.07881959654133176 
-0.06426989406105174 0.08627727865653 -0.1414209535014499 0.03800562196884818 0.1883718916441417 -0.07857070933648211 -0.02493936496001901 
-0.02634573129831216 0.223656391990022 0 0 -0.132871465192841 -0.1167453862699374 0 
-0.2185739044615198 0.247955989660228 -0.1308159788673199 -0.2020572843199064 0.4338072330882604 -0.2482532969281164 -0.08151616525547287 
0 0.223656391990022 0 0 -0.132871465192841 -0.1167453862699374 0 
0 0.1470001187121505 -0.001805374888545125 -0.05894534575804797 -0.1328714651928411 0.06110971191330646 0 
-0.1189410241128581 0.09780188524951842 -0.05658970043033569 -0.2672646401239006 -0.08898818682561041 -0.009126616908697953 -0.05072971208035108 
0.0666499243686845 -0.05102783603611469 -0.1196807355491349 -0.1469407441518212 0.03817970469561995 0.1337152958056098 -0.06402737043418977 
-0.1533767858721947 0.03565116510942769 -0.01948670642285045 -0.2490829655291852 0.1909928489380324 -0.008818059513760145 -0.1368992966439605 
-0.1401258275058477 -0.08137081007822076 0.3257477390588763 -0.07697090373565002 -0.00672718290622413 -0.1026670553490939 0.02400458536858311 
-0.121577556742745 -0.3806402878732804 0.2991027840639364 -0.09441346978593955 0.01397088842180061 -0.110297942534861 -0.02227139170265901 
-0.05424760021490427 -0.07837126064816573 0.2291103197822193 -0.07600575612597284 -0.003782879823636624 -0.02463184330074625 0.03323493039058371 
-0.02975347171589538 0 0.05735600736764188 -0.04148326946911243 -0.003782879823636622 0 -0.05021856038523256 
-0.03004717188825734 3.469446951953614e-18 0.1786459356533713 -0.04148326946911243 -0.003782879823636624 -0.05703323467858196 -0.1243372354870085 
-0.03004717188825734 3.469446951953614e-18 0.1786459356533713 -0.04148326946911243 -0.003782879823636624 -0.05703323467858196 -0.1243372354870085 
-0.05424760021490427 -0.07837126064816573 0.2291103197822193 -0.07600575612597284 -0.003782879823636624 -0.02463184330074625 0.03323493039058371 
-0.02975347171589538 0 0.05735600736764188 -0.04148326946911243 -0.003782879823636622 0 -0.05021856038523256 
-0.2142387911082795 -0.06283808631052568 0.1153541740727428 0.2024866726155259 -0.05141573798735201 -0.0418747263583905 0.0005583281851078408 
-0.1068452949555032 -0.1783544029714348 -0.05154365358047956 0.1397591983287741 0.2842083112267202 -0.1665146166604294 -0.01018971037534212 
0.3925202880187676 -0.1695332287072516 -0.06411663093079413 0.04457863389860843 -0.02774700995442007 -0.1765365463792131 -0.1137746529720561 
-0.19521177814315 -0.05679626210997155 -0.02529868157637392 0.1276041487512691 -0.0833962653918045 0.3269111968169309 -0.1537377899460744 
-0.09874946039477762 0 0 0.2471294716004797 -0.02774700995442007 -0.1579906147198166 0 
-0.09874946039477762 0 0 0.2471294716004797 -0.02774700995442007 -0.1579906147198166 0 
-0.09874946039477762 0 0 0.2471294716004797 -0.02774700995442007 -0.1579906147198166 0 
-0.19521177814315 -0.295618909320994 -0.02529868157637392 0.2015438675545002 -0.0833962653918045 0.364916137169004 -0.04423078701254789 
-0.09874946039477762 0 0 0.2471294716004797 -0.02774700995442007 -0.1579906147198166 0 
-0.1673772254691911 -0.2332848694200355 -0.231566176422066 0.07126565712175097 -0.0381734797004191 0.1710979814378584 -0.006175691770679245 
-0.08294064711239235 -0.2529583781325568 -0.06107282388922339 -0.1921182177614268 0.4435156528058807 0.1283232356695931 -0.01201524996436553 
-0.07700237020828429 0.0003914986625039377 -0.05518899439122519 0.05277365860283084 0.08202087033021416 -0.02477252658193533 -0.02425871393657657 
-0.123588673367523 -0.09325277155538819 0.2078033878972904 0.09105899926529543 0.1143397979913703 -0.09412549744859255 -0.08608613800156452 
-0.04720152313533454 -0.08322933491508366 -0.05022016006820704 -0.0101830271101132 0.2022207208663808 -0.02477252658193533 -0.004013217040515487 
-0.04720152313533454 -0.08322933491508366 -0.05022016006820704 -0.0101830271101132 0.2022207208663808 -0.02477252658193533 -0.004013217040515487 
-0.04720152313533454 -0.08322933491508366 -0.05022016006820704 -0.0101830271101132 0.2022207208663808 -0.02477252658193533 -0.004013217040515487 
-0.04720152313533454 -0.08322933491508366 -0.05022016006820704 -0.0101830271101132 0.2022207208663808 -0.02477252658193533 -0.004013217040515487 
-0.2730365991519197 -0.05173024786716008 -0.1562890942246044 0.1682172837682511 0.2635421019633685 -0.09636226463302655 -0.08764602120816864 
-0.001522300545710475 -0.07483100480582021 -0.0002784149054443308 -0.06511768449034633 0.1858104415939155 0 0 
-0.001522300545710475 -0.07483100480582021 -0.0002784149054443308 -0.06511768449034633 0.1858104415939155 0 0 
-0.001522300545710475 -0.07483100480582021 -0.0002784149054443308 -0.06511768449034633 0.1858104415939155 0 0 
-0.2046471179322223 0.07845841916598494 -0.05963784561861498 0.3303238447605713 -0.007410759983255088 -0.2220213744494924 -0.07168482928243916 
-0.001522300545710475 -0.07483100480582021 -0.0002784149054443308 -0.06511768449034633 0.1858104415939155 0 0 
-0.001522300545710475 -0.07483100480582021 -0.0002784149054443308 -0.06511768449034633 0.1858104415939155 0 0 
0.07525750722779635 0.1476732347371793 -0.1171273595024078 -0.03835260929079369 -0.04815750683014196 -0.0490034197874521 -0.01901724589965593 
0.1768475579375556 -0.07982640379023404 -0.07918175831910161 -0.03835260929079369 0 -0.01724288305764425 -0.01262922098920833 
0.1768475579375556 -0.07982640379023404 -0.07918175831910161 -0.03835260929079369 0 -0.01724288305764425 -0.01262922098920833 
0.1768475579375556 -0.07982640379023404 -0.07918175831910161 -0.03835260929079369 0 -0.01724288305764425 -0.01262922098920833 
0.1768475579375556 -0.07982640379023404 -0.07918175831910161 -0.03835260929079369 0 -0.01724288305764425 -0.01262922098920833 
0.1768475579375556 -0.07982640379023404 -0.07918175831910161 -0.03835260929079369 0 -0.01724288305764425 -0.01262922098920833 
0.1768475579375556 -0.07982640379023404 -0.07918175831910161 -0.03835260929079369 0 -0.01724288305764425 -0.01262922098920833 
0.1768475579375556 -0.07982640379023404 -0.07918175831910161 -0.03835260929079369 0 -0.01724288305764425 -0.01262922098920833 
0.09720095941034754 -0.1723512553274775 0.101897732834415 -0.03835260929079369 5.204170427930421e-18 -0.03566951704724463 -0.01966714292376725 
0.02739800053154342 0.1378897627643972 0.1606178269427938 -0.1631766923897303 -0.2939628265210311 0.06743314782952267 -0.07662002633297449 
0.01663162274684916 0.1712540050748255 -0.02714544096338814 -0.04639207388686589 -0.2272999927413742 0.1459298860744362 -0.006974180943408155 
-0.03248301851310085 0.02830475887763092 3.903127820947816e-18 -0.2906800533578145 -0.05843772098215176 0.2840571172984222 -0.008918662507273096 
-0.02799007807557899 0.01162133571491966 -0.08025109129239084 -0.09930090715762666 0.1120257957900423 -0.07703673846687541 -0.007959159001879528 
0 0.3405552504739487 0 0 -0.2272999927413742 -0.07703673846687541 0 
0 0.3405552504739487 0 0 -0.2272999927413742 -0.07703673846687541 0 
-0.1175199434101379 -0.05455278242979124 0.2413622539078881 -0.04197752027671246 -0.0606239490205123 -0.009156969818799848 0.01359501921635584 
-0.1420140719091467 -0.0783712606481657 -0.1165459607067021 -0.03452248665686041 8.673617379884035e-19 -0.01821829206128025 0.3912423526289601 
0 -0.03779509345702842 0.2618598139298076 -0.01463039666041794 0 -0.009156969818799848 -0.1933785728201412 
0 -0.03779509345702842 0.2618598139298076 -0.01463039666041794 0 -0.009156969818799848 -0.1933785728201412 
-0.0244941284990089 -0.07837126064816573 0.08493688392884177 -0.03452248665686041 8.673617379884035e-19 -0.01821829206128026 0.09532800605315478 
0 -0.03779509345702842 0.2618598139298076 -0.01463039666041794 0 -0.009156969818799848 -0.1933785728201412 
-0.003105187065156668 -0.1819933454780808 0 0 0.1919979594044154 0 0 
-0.003105187065156668 -0.1819933454780808 0 0 0.1919979594044154 0 0 
-0.003105187065156668 -0.1819933454780808 0 0 0.1919979594044154 0 0 
-0.003105187065156668 -0.1819933454780808 0 0 0.1919979594044154 0 0 
-0.002514045866172241 0.2990959206113816 0 0 -0.3130917339486921 -0.01252569885948915 0 
-0.002514045866172241 0.2990959206113816 0 0 -0.3130917339486921 -0.01252569885948915 0 
-0.004864855083720197 -0.04333734986567278 -0.001657953655760279 0 0.05859049787956995 -0.03305627521985217 0 
-0.002514045866172241 0.2990959206113816 0 0 -0.3130917339486921 -0.01252569885948915 0 
-0.002514045866172241 0.2990959206113816 0 0 -0.3130917339486921 -0.01252569885948915 0 
0.05426271609481739 -0.03333092181732764 0 0 0 0 0 
0.05426271609481739 -0.03333092181732764 0 0 0 0 0 
0.05426271609481739 -0.03333092181732764 0 0 0 0 0 
0.05426271609481739 -0.03333092181732764 0 0 0 0 0 
0.05426271609481739 -0.03333092181732764 0 0 0 0 0 
0.05426271609481739 -0.03333092181732764 0 0 0 0 0 
0.01135183634692565 -0.03114576146219983 1.301042606982605e-18 0.2247711576744867 -0.00870457196068438 -0.1896277180007458 -0.01707768438125368 
-0.2192178166617466 -0.1465014689055057 -0.05701778499194354 0.4455680821804687 -0.193466769759192 0.1340599672455636 -0.07975980003768672 
-0.02281235025884089 -0.004918008344751958 0 0.2646306754049807 -0.00870457196068438 -0.1896277180007458 -0.008109811283291708 
-0.02281235025884089 -0.004918008344751958 0 0.2646306754049807 -0.00870457196068438 -0.1896277180007458 -0.008109811283291708 
-0.2192178166617466 -0.1465014689055057 -0.05701778499194354 0.5623855883414361 -0.03143369606862484 -0.1091792540457677 -0.07975980003768672 
-0.04666697194314946 0.2279761700488915 -0.009710682968002335 0.05044235462046675 -0.1788308135044305 -0.07664276290106385 -0.000845873975061969 
-0.04666697194314946 0.1794029457321164 -0.00319993625875779 0.12128052171104 -0.1311979553407151 -0.07664276290106385 -0.000845873975061969 
-0.02634573129831216 0.3558929796074896 -0.006510746709244536 -0.1511553888592677 -0.1788308135044305 0 0 
-0.04666697194314946 0.1794029457321164 -0.00319993625875779 0.12128052171104 -0.1311979553407151 -0.07664276290106385 -0.000845873975061969 
-0.0792940983555698 0.355933497726117 -0.01619586368519094 -0.1406084229711849 -0.03508871036116162 -0.05558082600399552 -0.03219806646693527 
-0.0792940983555698 0.355933497726117 -0.01619586368519094 -0.1406084229711849 -0.03508871036116162 -0.05558082600399552 -0.03219806646693527 
-0.07929409835556982 0.04231938394618462 -0.01619586368519094 0.1201965832771494 -0.08230715420686532 -0.05558082600399552 -0.03219806646693527 
-0.0792940983555698 0.355933497726117 -0.01619586368519094 -0.1406084229711849 -0.03508871036116162 -0.05558082600399552 -0.03219806646693527 
-0.0792940983555698 0.355933497726117 -0.01619586368519094 -0.1406084229711849 -0.03508871036116162 -0.05558082600399552 -0.03219806646693527 
-0.07929409835556982 0.04231938394618462 -0.01619586368519094 0.1201965832771494 -0.08230715420686532 -0.05558082600399552 -0.03219806646693527 
-0.04910416391266635 -0.05156068854598007 -0.009182452698771206 -0.1068484488925458 0.1541761534013167 0.09829545584120086 -0.02120101732623102 
-0.0197521955650392 0 -0.0002661574389594723 -0.1068484488925458 -0.004750912755264797 0.1553826396611514 -0.01319898440238099 
-0.0197521955650392 0 -0.0002661574389594723 -0.1068484488925458 -0.004750912755264797 0.1553826396611514 -0.01319898440238099 
-0.0197521955650392 0 -0.0002661574389594723 -0.1068484488925458 -0.004750912755264797 0.1553826396611514 -0.01319898440238099 
-0.0197521955650392 0 -0.0002661574389594723 -0.1068484488925458 -0.004750912755264797 0.1553826396611514 -0.01319898440238099 
-0.0197521955650392 0 -0.0002661574389594723 -0.1068484488925458 -0.004750912755264797 0.1553826396611514 -0.01319898440238099 
0 0.048573224316775 -0.006510746709244536 -0.07083816709057329 -0.04763285816371538 0 0 
0 0.048573224316775 -0.006510746709244536 -0.07083816709057329 -0.04763285816371538 0 0 
0 0.048573224316775 -0.006510746709244536 -0.07083816709057329 -0.04763285816371538 0 0 
0 0.048573224316775 -0.006510746709244536 -0.07083816709057329 -0.04763285816371538 0 0 
-0.007283219873964452 0.2129691901312839 -0.04080565393304628 0.01838400175201453 -0.04763285816371537 -0.1356880655647959 -0.1095070029335265 
-0.06008364081876025 0.1378467291488412 -0.06481272389020475 0.1492014916465467 -0.04763285816371537 -0.1499847926118599 -0.1184305585401991 
0.1260964871526062 -0.090160050879259 -0.0929220916820656 0.08954878149205399 -0.02051581703151133 -0.1589808984711568 -0.06177801087245066 
-0.1161552585701263 -0.09245923549909099 0.1776829965715662 0.03525619956524145 0 -0.06912156299423357 -0.09296593451117596 
-0.09504957054569958 0 -0.03525272664396197 0.09224756965799792 0 -0.06581133017632976 -0.01091960029249597 
-0.09504957054569958 0 -0.03525272664396197 0.09224756965799792 0 -0.06581133017632976 -0.01091960029249597 
0.1160632806914317 -0.2336368222452818 -0.02648769633566937 -0.03191821007170644 0.1924144322957586 -0.02666805614665936 -0.02089066787197166 
0.1496952916162108 -0.04342945771041411 -0.02648769633566937 0 -0.05305691298701907 -0.01814405420604655 -0.01437815369807181 
0.1496952916162108 -0.04342945771041411 -0.02648769633566937 0 -0.05305691298701907 -0.01814405420604655 -0.01437815369807181 
0.1496952916162108 -0.04342945771041411 -0.02648769633566937 0 -0.05305691298701907 -0.01814405420604655 -0.01437815369807181 
0.1496952916162108 -0.04342945771041411 -0.02648769633566937 0 -0.05305691298701907 -0.01814405420604655 -0.01437815369807181 
0.1496952916162108 -0.04342945771041411 -0.02648769633566937 0 -0.05305691298701907 -0.01814405420604655 -0.01437815369807181 
0.1496952916162108 -0.04342945771041411 -0.02648769633566937 0 -0.05305691298701907 -0.01814405420604655 -0.01437815369807181 
0.1496952916162108 -0.04342945771041411 -0.02648769633566937 0 -0.05305691298701907 -0.01814405420604655 -0.01437815369807181 
0.1964073139112696 -0.07991905557841003 -0.05335904910849573 -0.04983337333108962 -0.05980311382989956 -0.01814405420604655 -0.03604921353170479 
-0.1457811167862471 0.3358828180172065 -0.1058642485095367 -0.1043668718257714 -0.1963404843279808 -0.04060625275833539 0.08780111982594332 
-0.1447076990532477 0.02423999247887064 0.08570849477301451 0.04151554605965543 0 -0.2517669212814343 0.07538151392816303 
-0.05789388037514842 -0.1256288153026423 -0.07407258225286718 -0.02920296092425007 0 0 0.244029456437048 
-0.05789388037514842 -0.1256288153026423 -0.07407258225286718 -0.02920296092425007 0 0 0.244029456437048 
-0.05789388037514842 -0.1256288153026423 -0.07407258225286718 -0.02920296092425007 0 0 0.244029456437048 
-0.1073776252029387 -0.2715569892040594 0.1321125397468628 -0.08044610102663086 0 -0.00865970449506626 0.1870765730278407 
-0.05789388037514842 -0.1256288153026423 -0.07407258225286718 -0.02920296092425007 0 0 0.244029456437048 
-0.05789388037514842 -0.1256288153026423 -0.07407258225286718 -0.02920296092425007 0 0 0.244029456437048 
0.1478530571839664 -0.06990667774397601 -0.03332426085224112 -0.03636388159170644 -0.009240490218415933 -0.02135017867073497 -0.03279895940898703 
0.1674080971097983 -0.08173691264032146 -0.04915200347269574 -0.03636388159170646 -0.00924049021841593 -0.02621047255829204 -0.04956661850744771 
0.1478530571839664 -0.06990667774397601 -0.03332426085224112 -0.03636388159170644 -0.009240490218415933 -0.02135017867073497 -0.03279895940898703 
0.1478530571839664 -0.06990667774397601 -0.03332426085224112 -0.03636388159170644 -0.009240490218415933 -0.02135017867073497 -0.03279895940898703 
0.1478530571839664 -0.06990667774397601 -0.03332426085224112 -0.03636388159170644 -0.009240490218415933 -0.02135017867073497 -0.03279895940898703 
0.1478530571839664 -0.06990667774397601 -0.03332426085224112 -0.03636388159170644 -0.009240490218415933 -0.02135017867073497 -0.03279895940898703 
0.1478530571839664 -0.06990667774397601 -0.03332426085224112 -0.03636388159170644 -0.009240490218415933 -0.02135017867073497 -0.03279895940898703 
0.1478530571839664 -0.06990667774397601 -0.03332426085224112 -0.03636388159170644 -0.009240490218415933 -0.02135017867073497 -0.03279895940898703 
-0.02032124064483729 -0.3429272418822464 -0.00319993625875779 0.2015977434797344 0.1771639196375261 -0.07664276290106385 -0.000845873975061969 
0.06704735827994614 -0.02095208543021287 -0.0482248771565915 -0.07567026657484517 0.09942856642882929 -0.0713885274427354 -0.04614332408109881 
0 -0.2150104323236482 0 0 0.1771639196375261 0 0 
0 -0.2150104323236482 0 0 0.1771639196375261 0 0 
0.1644035345578832 -0.07153442143163036 -0.02742229209975265 -0.05426395301677518 0 -0.004187798085033921 -0.01847874482643336 
0.08795099104838151 -0.03627255679339322 -0.02742229209975265 -0.05426395301677518 0 0 -0.01847874482643336 
0.08795099104838151 -0.03627255679339322 -0.02742229209975265 -0.05426395301677518 0 0 -0.01847874482643336 
0.08795099104838151 -0.03627255679339322 -0.02742229209975265 -0.05426395301677518 0 0 -0.01847874482643336 
0.08795099104838151 -0.03627255679339322 -0.02742229209975265 -0.05426395301677518 0 0 -0.01847874482643336 
0.2125483053241467 -0.09211957793676076 -0.04770592278110594 -0.05426395301677518 0 -0.01854593165939654 -0.02744132336563578 
0.08795099104838151 -0.03627255679339322 -0.02742229209975265 -0.05426395301677518 0 0 -0.01847874482643336 
0.06321496456006384 -0.04196921980119547 -0.04793156164648989 0.1104857413313899 -0.02349468898043077 -0.09578503371256848 -0.02908059474894067 
0.1994643813711106 -0.08790880443592519 -0.03902378570016868 -0.07866025447265086 -0.02349468898043076 -0.03548015481850222 -0.04584825384740138 
0.1994643813711106 -0.08790880443592519 -0.03902378570016868 -0.07866025447265086 -0.02349468898043076 -0.03548015481850222 -0.04584825384740138 
0.1458874274550768 -0.07781971020957251 -0.03449300598305103 -0.01548680524587985 -3.469446951953614e-18 -0.00904809197259099 -0.02431561811703391 
0.1034567979357771 -0.04081670490134263 -0.01581828884732151 -0.07119974469165352 -0.02349468898043077 -0.02643206284591123 -0.02908059474894067 
0.1994643813711106 -0.08790880443592519 -0.03902378570016868 -0.07866025447265086 -0.02349468898043076 -0.03548015481850222 -0.04584825384740138 
0.1994643813711106 -0.08790880443592519 -0.03902378570016868 -0.07866025447265086 -0.02349468898043076 -0.03548015481850222 -0.04584825384740138 
0.1458874274550768 -0.07781971020957251 -0.03449300598305103 -0.01548680524587985 -3.469446951953614e-18 -0.00904809197259099 -0.02431561811703391 
-0.06738666032761439 0.02540768131426046 0.1042750846408953 -0.03197232910070546 0.1171474390355365 -0.00779679825065416 -0.02555175016038895 
-0.1569369665285423 -0.2897809751113534 0.3512968565321941 -0.07887461311194643 0.2396541285463714 -0.05808663689830808 0.04051084970696849 
-0.009629975234335812 -0.1195496914897227 0.1988047759549111 0.1125183858764048 -0.1675866599913595 -0.04515782961437109 -0.1001038758693985 
-0.0210946437934134 -0.07925738896579433 0.1574766918771352 -0.03197232910070547 0 0 -0.02555175016038895 
-0.06738666032761439 0.2230723515681909 0.1059330382966556 -0.03197232910070546 -0.1265045968009129 8.673617379884035e-19 -0.02555175016038895 
-0.1569369665285423 -0.1678129650292829 0.3891486214964124 -0.07887461311194641 -3.469446951953614e-18 -0.05808663689830806 0.04051084970696849 
-0.0210946437934134 -0.07925738896579433 0.1574766918771352 -0.03197232910070547 0 0 -0.02555175016038895 
0.05702690818718388 -0.02757376157133463 -0.2014828446355438 -0.1242870723855937 0 -1.788933584601082e-18 0.209581016969385 
-0.1175199434101379 0 -0.2014828446355438 0 0 0 0.2959143465758054 
0.05702690818718388 -0.02757376157133463 -0.2014828446355438 -0.1242870723855937 0 -1.788933584601082e-18 0.209581016969385 
-0.1874762852885677 -0.03366834180387873 0.1823256760553306 -0.04550148247173973 -0.0606239490205123 -0.04979567496340054 0.1808903483353106 
-0.1175199434101379 0 -0.2014828446355438 0 0 0 0.2959143465758054 
-0.01992757294456482 0.1713997765407913 0.09102098155847579 0.1210105260453129 -0.1278870140096675 -0.1124368293823657 -0.05646633189147419 
-0.0005594268152615907 -0.07828682568124352 0 0.2012175854835877 0 -0.07183057662403027 0 
-0.0005594268152615907 -0.07828682568124352 0 0.2012175854835877 0 -0.07183057662403027 0 
-0.0005594268152615907 -0.07828682568124352 0 0.2012175854835877 0 -0.07183057662403027 0 
-0.02754300995464952 0.06978675989814759 0 0.1433018986216241 -0.008969366841012813 -0.08454663597759068 0 
-0.02754300995464952 -0.0522789342151832 0 0.1831598291125907 -0.008969366841012813 -0.07430164190951782 0 
-0.2515601777130191 -0.08775436520677124 -0.1299785599066806 0.2332222745452916 0.03569390624676846 0.236192352883713 -0.0772394155582668 
-0.02754300995464952 -0.0522789342151832 0 0.1831598291125907 -0.008969366841012813 -0.07430164190951782 0 
-0.02754300995464952 -0.0522789342151832 0 0.1831598291125907 -0.008969366841012813 -0.07430164190951782 0 
-0.1283760826607316 -0.3957162996622064 -0.1265566121240776 0.6556208148459464 -0.1229133758794399 0.09439691327032536 -0.04709273785946577 
-0.02754300995464952 -0.0522789342151832 0 0.1831598291125907 -0.008969366841012813 -0.07430164190951782 0 
0 0 0 0 0 -0.05061968343911596 0 
0 -0.1976646702539305 -0.001657953655760281 0 0.2436520358364494 -0.00779679825065416 0 
0 -0.1976646702539305 -0.001657953655760281 0 0.2436520358364494 -0.00779679825065416 0 
0 -0.1976646702539305 -0.001657953655760281 0 0.2436520358364494 -0.00779679825065416 0 
-0.01468764056629151 -0.03988545670267591 0 -0.1784104435804949 -0.04383626721006842 0.2499123981710396 -0.000883063195739778 
-0.08781824902632673 0.04933467754152013 -0.001919884868517033 -0.1821363075888094 -0.04383626721006842 0.1894561335914363 -0.01799673234957148 
-0.01468764056629151 -0.03988545670267591 0 -0.1784104435804949 -0.04383626721006842 0.2499123981710396 -0.000883063195739778 
-0.01468764056629151 -0.03988545670267591 0 -0.1784104435804949 -0.04383626721006842 0.2499123981710396 -0.000883063195739778 
-0.01468764056629151 -0.03988545670267591 0 -0.1784104435804949 -0.04383626721006842 0.2499123981710396 -0.000883063195739778 
0 -0.2904767789705525 0 0 0.1929885726992753 0 0 
0 -0.2904767789705525 0 0 0.1929885726992753 0 0 
-0.01714240733056296 -0.2753757628713441 -0.03785176496421817 0.2356065498804781 0.1712006582280582 0 -0.0412186363074154 
0 -0.1219680100820708 -0.03785176496421817 0 0.2396541285463714 0 0 
-0.01847259844995942 -0.1744064553253882 -0.03785176496421817 -0.07602583427558136 0.289054622691054 -0.0406062527583354 -0.02092614791950353 
0 -0.1219680100820708 -0.03785176496421817 0 0.2396541285463714 0 0 
-0.002350809217547955 -0.1447686002231239 0 0 0.1280301959918126 -0.01273377810970887 0 
-0.002350809217547955 -0.1447686002231239 0 0 0.1280301959918126 -0.01273377810970887 0 
-0.002350809217547955 -0.1447686002231239 0 0 0.1280301959918126 -0.01273377810970887 0 
-0.002350809217547955 -0.1447686002231239 0 0 0.1280301959918126 -0.01273377810970887 0 
-0.02935196834762716 -0.05156068854598008 -0.008916295259811736 0 0.1589270661565815 -0.05708718381995056 -0.008002032923850037 
-0.02935196834762716 -0.05156068854598008 -0.008916295259811736 0 0.1589270661565815 -0.05708718381995056 -0.008002032923850037 
-0.02935196834762716 -0.05156068854598008 -0.008916295259811736 0 0.1589270661565815 -0.05708718381995056 -0.008002032923850037 
-0.02935196834762716 -0.05156068854598008 -0.008916295259811736 0 0.1589270661565815 -0.05708718381995056 -0.008002032923850037 
-0.02935196834762716 -0.05156068854598008 -0.008916295259811736 0 0.1589270661565815 -0.05708718381995056 -0.008002032923850037 
-0.03480114417537712 -0.02385009486287742 0 -0.3860678739428255 -0.00812249972554132 0.4611369604515038 -0.04133828873551543 
-0.01740057208768856 -0.003915850087062675 0 -0.430369688893584 0 0.4508785125759476 -0.02066914436775772 
-0.01740057208768856 -0.01993424477581475 0 0.04430181495075855 -0.00812249972554132 0.01025844787555613 -0.02066914436775772 
0.05921725695715908 0.1252646711993735 -0.005828399501940272 -0.07721158161535761 -0.01531714091455503 0.1374944609350305 -0.0153948689168774 
-0.03776244145424686 0.2225822667185399 0.008271001229769745 -0.09381417225495568 8.673617379884035e-19 0 -0.01987836219019833 
-0.03776244145424686 0.2225822667185399 -0.005828399501940266 -0.09381417225495568 0 0 -0.005027740718155919 
-0.03776244145424686 0.2225822667185399 -0.005828399501940266 -0.09381417225495568 0 0 -0.005027740718155919 
-0.03776244145424686 0.2225822667185399 -0.005828399501940266 -0.09381417225495568 0 0 -0.005027740718155919 
-0.03776244145424686 0.2225822667185399 -0.005828399501940266 -0.09381417225495568 0 0 -0.005027740718155919 
-0.02488489101042232 0.2715370690187103 0 -0.01898368538893237 -0.2410162136462564 0 -0.002950213907308005 
0.1411220937536539 0.17787261102762 -0.04979042945772076 -0.0523612182290527 -0.2410162136462564 -0.03649812511930482 -0.0205494562071103 
-0.02488489101042232 0.2715370690187103 0 -0.01898368538893237 -0.2410162136462564 0 -0.002950213907308005 
-0.02488489101042232 0.2715370690187103 0 -0.01898368538893237 -0.2410162136462564 0 -0.002950213907308005 
-0.01704360297071568 -0.1305603184287968 0 -0.03630298780535037 0 0.2262768573592154 -0.006974180943408155 
-0.01704360297071568 -0.1305603184287968 0 -0.03630298780535037 0 0.2262768573592154 -0.006974180943408155 
-0.06667107280221266 -0.1795293859271925 -0.003421947782603035 -0.05708722855393011 0 0.393631393204902 -0.006974180943408155 
-0.01704360297071568 -0.1305603184287968 0 -0.03630298780535037 0 0.2262768573592154 -0.006974180943408155 
-0.01704360297071568 -0.1305603184287968 0 -0.03630298780535037 0 0.2262768573592154 -0.006974180943408155 
-0.05809609761348028 -0.0167576889727628 0.1592202262656427 0.1276588203652552 -0.06313894548709936 -0.06517703227055863 -0.05387750274205427 
-0.05809609761348027 0 -0.0217650583479816 0.1550059439815497 -0.002514996466587071 -0.06517703227055863 0 
-0.05809609761348027 0 -0.0217650583479816 0.1550059439815497 -0.002514996466587071 -0.06517703227055863 0 
-0.09646071303818353 0.1088429002404838 -0.0332324014310148 0.1392662273430142 -0.08114224415742016 -0.09302144884054514 -0.06080052794975684 
-0.04354945373661352 0.193815573515161 -0.003745576887096857 -0.07658872832408235 -0.0608643940443466 -0.006647363963324974 -0.0595888657975947 
-0.1221588135638668 0.2464354702351782 -0.03248754139330683 -0.137224244682794 0.1452970787506688 -0.08299153593935561 -0.09110061303426631 
-0.1295802462617194 0.2532487710077698 -0.01093796661372899 -0.1620113275035512 -0.0608643940443466 -0.08077856936752262 0.1740412956590136 
-0.04354945373661352 0.193815573515161 -0.003745576887096857 -0.07658872832408235 -0.0608643940443466 -0.006647363963324974 -0.0595888657975947 
-0.04354945373661352 0.193815573515161 -0.003745576887096857 -0.07658872832408235 -0.0608643940443466 -0.006647363963324974 -0.0595888657975947 
-0.1221588135638668 0.2464354702351782 -0.03248754139330683 -0.137224244682794 0.1452970787506688 -0.08299153593935561 -0.09110061303426631 
-0.04354945373661352 0.193815573515161 -0.003745576887096857 -0.07658872832408235 -0.0608643940443466 -0.006647363963324974 -0.0595888657975947 
-0.04083707533256071 1.83899920446251e-05 -0.001994406756854507 -0.008846522306470766 0 0 -0.01745156646512863 
-0.06063699386646738 0.1953384145405132 -0.02907944394939612 -0.01768397249440692 -0.05049928882578733 -0.04802012578410795 -0.02485577881547905 
-0.206241633147672 0.5022821005957647 -0.115971642903179 -0.1156560087037274 -0.09498980402043782 -0.09272927966000519 -0.08395702450189618 
-0.04083707533256071 1.83899920446251e-05 -0.001994406756854507 -0.008846522306470766 0 0 -0.01745156646512863 
-0.04083707533256071 1.83899920446251e-05 -0.001994406756854507 -0.008846522306470766 0 0 -0.01745156646512863 
-0.06063699386646738 0.1953384145405132 -0.02907944394939612 -0.01768397249440692 -0.05049928882578733 -0.04802012578410795 -0.02485577881547905 
-0.206241633147672 0.5022821005957647 -0.115971642903179 -0.1156560087037274 -0.09498980402043782 -0.09272927966000519 -0.08395702450189618 
-0.04083707533256071 1.83899920446251e-05 -0.001994406756854507 -0.008846522306470766 0 0 -0.01745156646512863 
0 -0.03288940867687583 0 0.06835302131540863 -0.0547906009138037 -0.04381097009101376 -0.002863586662290519 
0 -0.03288940867687583 0 0.06835302131540863 -0.0547906009138037 -0.04381097009101376 -0.002863586662290519 
0 -0.03288940867687583 0 0.06835302131540863 -0.0547906009138037 -0.04381097009101376 -0.002863586662290519 
0 -0.03288940867687583 0 0.06835302131540863 -0.0547906009138037 -0.04381097009101376 -0.002863586662290519 
-0.02441674602398949 0.1640054667316347 0 0 -0.04874983332838743 0 -0.006028562849045214 
-0.02441674602398949 0.1640054667316347 0 0 -0.04874983332838743 0 -0.006028562849045214 
-0.02441674602398949 0.1640054667316347 0 0 -0.04874983332838743 0 -0.006028562849045214 
-0.02441674602398949 0.1640054667316347 0 0 -0.04874983332838743 0 -0.006028562849045214 
-0.02441674602398949 0.1640054667316347 0 0 -0.04874983332838743 0 -0.006028562849045214 
-0.02441674602398949 0.1640054667316347 0 0 -0.04874983332838743 0 -0.006028562849045214 
-0.03259193284229241 0.1520901786581957 -0.03194715390335055 -0.03314589709432662 -0.05049928882578732 0.09192879951218882 -0.02507731339324175 
0.09148077558383923 -0.1064442716485452 -0.05759507921791108 -0.09303962140042168 -0.007570967743601522 0.04094000123044826 0.1568681505545855 
-0.01279201430838574 -0.04322984589027279 -0.00486211671080895 -0.02430844690639047 0 0.1399489252962967 -0.01767310104289132 
-0.01279201430838574 -0.04322984589027279 -0.00486211671080895 -0.02430844690639047 0 0.1399489252962967 -0.01767310104289132 
-0.01279201430838574 -0.04322984589027279 -0.00486211671080895 -0.02430844690639047 0 0.1399489252962967 -0.01767310104289132 
-0.07024198071048485 0.02382419593904771 -0.004551648015028643 -0.02078424074857975 -0.05610347049197158 0.1453265148333576 -0.002620883521162164 
-0.049627469831497 -0.04896906749839573 -0.003421947782603035 -0.02078424074857975 0 0.1673545358456866 0 
-0.049627469831497 -0.04896906749839573 -0.003421947782603035 -0.02078424074857975 0 0.1673545358456866 0 
-0.049627469831497 -0.04896906749839573 -0.003421947782603035 -0.02078424074857975 0 0.1673545358456866 0 
-0.049627469831497 -0.04896906749839573 -0.003421947782603035 -0.02078424074857975 0 0.1673545358456866 0 
-0.049627469831497 -0.04896906749839573 -0.003421947782603035 -0.02078424074857975 0 0.1673545358456866 0 
0 0 0 0 0 0 -0.007464333987457287 
0.07523925401309277 -0.0531378561339507 0 -0.01603829816006435 -0.03455802307852615 -4.336808689942018e-19 -0.01304052814574139 
0.07523925401309277 -0.0531378561339507 0 -0.01603829816006435 -0.03455802307852615 -4.336808689942018e-19 -0.01304052814574139 
0 0 0 0 0 0 -0.007464333987457287 
0.07523925401309277 -0.0531378561339507 0 -0.01603829816006435 -0.03455802307852615 -4.336808689942018e-19 -0.01304052814574139 
0.07523925401309277 -0.0531378561339507 0 -0.01603829816006435 -0.03455802307852615 -4.336808689942018e-19 -0.01304052814574139 
-0.07964659852720804 -0.1044084470819157 0.1322305870926168 -3.469446951953614e-18 0 -0.02398555279374201 -0.007037921934558912 
0.1745468515973218 -0.03945735711600697 -0.04884890406089985 -0.1242870723855937 0 -0.005558918804141615 -0.08633332960642036 
0 -0.01188359554467233 -0.04884890406089985 0 0 -0.005558918804141617 0 
0 -0.01188359554467233 -0.04884890406089985 0 0 -0.005558918804141617 0 
0 -0.01188359554467233 -0.04884890406089985 0 0 -0.005558918804141617 0 
0 -0.01188359554467233 -0.04884890406089985 0 0 -0.005558918804141617 0 
0 -0.01188359554467233 -0.04884890406089985 0 0 -0.005558918804141617 0 
-0.02908075919168998 -0.009246623185646497 -0.03179166625666951 0.5007318835862589 -0.05534094357124501 -0.4406200647003914 -0.07000369629728551 
0 -0.01601839468875207 0 0.4746715038443425 -0.00812249972554132 -0.4406200647003915 0 
0 -0.01601839468875207 0 0.4746715038443425 -0.00812249972554132 -0.4406200647003915 0 
0 0 0 -0.01603829816006435 0 0 0 
0.01955503992583191 -0.01183023489634545 -0.01582774262045462 0 0 -0.004860293887557069 -0.0167676590984607 
-0.1587361707439107 -0.01857710310190236 0.0916084964674512 -0.06535732174147255 -0.04815750683014196 0.1123854058723756 -0.06334090831965489 
-0.04948374482779027 -0.1459281739014169 0.20618512199973 -0.05124314010238076 0 -0.00865970449506626 -0.05695288340920729 
-0.04948374482779027 -0.1459281739014169 0.20618512199973 -0.05124314010238076 0 -0.00865970449506626 -0.05695288340920729 
-0.04948374482779028 0.1459170601620609 0.1304375033968229 -0.05124314010238076 -0.1415573611630689 -0.00865970449506626 -0.05695288340920729 
-0.04948374482779027 -0.1459281739014169 0.20618512199973 -0.05124314010238076 0 -0.00865970449506626 -0.05695288340920729 
-0.1022841657725861 0.007737686674986304 0.1776745793530878 0.07957434979215144 -0.1524054653579622 -0.02295643154213026 -0.06587643901587992 
-0.09944651706111471 0.1027951730112251 0.153994453960975 -0.00883745018793616 -0.05049928882578732 -0.06644675977370837 -0.01444213428490934 
-0.07964659852720804 -0.09252485153724341 0.1810794911535166 0 0 -0.0184266339896004 -0.007037921934558911 
-0.07964659852720804 -0.09252485153724341 0.1810794911535166 0 0 -0.0184266339896004 -0.007037921934558911 
-0.07964659852720804 -0.09252485153724341 0.1810794911535166 0 0 -0.0184266339896004 -0.007037921934558911 
-0.07964659852720804 -0.09252485153724341 0.1810794911535166 0 0 -0.0184266339896004 -0.007037921934558911 
-0.07964659852720804 -0.09252485153724341 0.1810794911535166 0 0 -0.0184266339896004 -0.007037921934558911 
-0.07964659852720804 -0.09252485153724341 0.1810794911535166 0 0 -0.0184266339896004 -0.007037921934558911 
0.06948828022011337 -0.1201186662662336 -0.03931898986132625 0.1048243155340178 -0.02602929882829066 0 -0.08633332960642036 
-0.1050585713772084 -0.09254490469489897 -0.03931898986132625 0.2291113879196114 -0.02602929882829066 0 0 
-0.1050585713772084 -0.09254490469489897 -0.03931898986132625 0.2291113879196114 -0.02602929882829066 0 0 
0.06948828022011337 -0.1201186662662336 -0.03931898986132625 0.1048243155340178 -0.02602929882829066 0 -0.08633332960642036 
-0.1050585713772084 -0.09254490469489897 -0.03931898986132625 0.2291113879196114 -0.02602929882829066 0 0 
-0.003195376660400172 0.04333461951070859 -0.06091017527157897 0.06824753369561556 -0.02602929882829066 -0.009795838716067108 -0.09628903713270656 
-0.05280042094479582 -0.0751224609824427 -0.02400706995715845 0.1308174898945322 0 -0.01429672704706399 -0.008923555606672583 
-0.09909015940353005 0.04262300601108836 -0.03861944867433721 0.2509715738547419 -0.09461154337463168 -0.1936105540963274 -0.05286126724495416 
-0.05280042094479582 0.04694323313088809 -0.02400706995715845 0.09095955940356561 0 -0.02454172111513684 -0.008923555606672583 
-0.05280042094479582 -0.0751224609824427 -0.02400706995715845 0.1308174898945322 0 -0.01429672704706399 -0.008923555606672583 
-0.05280042094479582 -0.0751224609824427 -0.02400706995715845 0.1308174898945322 0 -0.01429672704706399 -0.008923555606672583 
-0.06104973560341482 -0.09971136458255084 -0.03861944867433721 0.07556994818238988 -0.0001045880648134748 0.09442319937595471 -0.05061491840906472 
-0.05280042094479582 -0.0751224609824427 -0.02400706995715845 0.1308174898945322 0 -0.01429672704706399 -0.008923555606672583 
-0.05280042094479582 -0.0751224609824427 -0.02400706995715845 0.1308174898945322 0 -0.01429672704706399 -0.008923555606672583 
0.1750675638197092 -0.04032016168010284 -0.02687135277282636 -0.1251271314689243 -0.01800082056492426 -0.02799253602426844 -0.0508584105799547 
0.04671202229505883 -0.03648959786799587 -0.02687135277282636 -0.04983337333108962 -0.006746200842880491 0 -0.02167105983363296 
0.04671202229505883 -0.03648959786799587 -0.02687135277282636 -0.04983337333108962 -0.006746200842880491 0 -0.02167105983363296 
0.1750675638197092 -0.04032016168010284 -0.02687135277282636 -0.1251271314689243 -0.01800082056492426 -0.02799253602426844 -0.0508584105799547 
0.2792421553117861 -0.090160050879259 -0.035904306690122 -0.1416664339874293 -0.01800082056492426 -0.02799253602426844 -0.0508584105799547 
0.04671202229505883 -0.03648959786799587 -0.02687135277282636 -0.04983337333108962 -0.006746200842880491 0 -0.02167105983363296 
0.04671202229505883 -0.03648959786799587 -0.02687135277282636 -0.04983337333108962 -0.006746200842880491 0 -0.02167105983363296 
0.004544050452961615 0.03381958129700366 -0.01416575556987387 9.540979117872439e-18 -0.01162935967396811 -0.01819171840507085 -0.01233028655514101 
-0.0002937001723619658 0 0.02037309906828384 0 0 0 -0.01233028655514102 
-0.1015900507097592 0.2274996385274133 -0.03794560118330619 0 -0.04815750683014196 -0.03176053672980786 -0.006388024910447589 
-0.1015900507097592 0.2274996385274133 -0.03794560118330619 0 -0.04815750683014196 -0.03176053672980786 -0.006388024910447589 
-0.1015900507097592 0.2274996385274133 -0.03794560118330619 0 -0.04815750683014196 -0.03176053672980786 -0.006388024910447589 
-0.1015900507097592 0.2274996385274133 -0.03794560118330619 0 -0.04815750683014196 -0.03176053672980786 -0.006388024910447589 
-0.1015900507097592 0.2274996385274133 -0.03794560118330619 0 -0.04815750683014196 -0.03176053672980786 -0.006388024910447589 
0.05357695391603388 -0.01008909422635271 -0.004530779717117652 -0.06317344922677108 -0.02349468898043077 -0.02643206284591124 -0.02153263573036747 
0.05357695391603388 -0.01008909422635271 -0.004530779717117652 -0.06317344922677108 -0.02349468898043077 -0.02643206284591124 -0.02153263573036747 
0.1745468515973218 -0.02757376157133463 0 -0.1242870723855937 0 0 -0.08633332960642036 
0.1745468515973218 -0.02757376157133463 0 -0.1242870723855937 0 0 -0.08633332960642036 
0.1283555415246503 -0.003830563812106968 0 -0.07529375813783475 -0.01125461972204376 -0.02799253602426844 -0.02918735074632173 
0.1283555415246503 -0.003830563812106968 0 -0.07529375813783475 -0.01125461972204376 -0.02799253602426844 -0.02918735074632173 
0.1283555415246503 -0.003830563812106968 0 -0.07529375813783475 -0.01125461972204376 -0.02799253602426844 -0.02918735074632173 
0.1283555415246503 -0.003830563812106968 0 -0.07529375813783475 -0.01125461972204376 -0.02799253602426844 -0.02918735074632173 
0.07645254350950167 -0.03526186463823712 0 0 0 -0.004187798085033921 0 
-0.07313060846003522 0.08922013424419604 -0.001919884868517033 -0.003725864008314502 0 -0.06045626457960331 -0.0171136691538317 
-0.07313060846003522 0.08922013424419604 -0.001919884868517033 -0.003725864008314502 0 -0.06045626457960331 -0.0171136691538317 
-0.07313060846003522 0.08922013424419604 -0.001919884868517033 -0.003725864008314502 0 -0.06045626457960331 -0.0171136691538317 
-0.07313060846003522 0.08922013424419604 -0.001919884868517033 -0.003725864008314502 0 -0.06045626457960331 -0.0171136691538317 
-0.07313060846003522 0.08922013424419604 -0.001919884868517033 -0.003725864008314502 0 -0.06045626457960331 -0.0171136691538317 
-0.04882893353849805 -0.02639343097480553 -0.1503307952878671 0 0 -0.007466953459192119 0.2613440138976828 
-0.04882893353849805 -0.02639343097480553 -0.1503307952878671 0 0 -0.007466953459192119 0.2613440138976828 
-0.04882893353849805 -0.02639343097480553 -0.1503307952878671 0 0 -0.007466953459192119 0.2613440138976828 
-0.04882893353849805 -0.02639343097480553 -0.1503307952878671 0 0 -0.007466953459192119 0.2613440138976828 
-0.04882893353849805 -0.02639343097480553 -0.1503307952878671 0 0 -0.007466953459192119 0.2613440138976828 
-0.04882893353849805 -0.02639343097480553 -0.1503307952878671 0 0 -0.007466953459192119 0.2613440138976828 
-0.01505067306306176 0.08714415619810548 -0.04832515572609375 -0.02112400693063471 -0.02725697385449814 0 -0.002643668058605842 
-0.09447462523539618 0.01723729180709753 -0.0511117832721877 -0.07292207310141011 0.173300317274333 -0.05035206720425172 -0.02937208646608919 
-0.01505067306306176 0.08714415619810548 -0.04832515572609375 -0.02112400693063471 -0.02725697385449814 0 -0.002643668058605842 
-0.03566518394204957 0.1599374196355489 -0.04945485595851935 -0.02112400693063471 -0.08336044434646971 -0.02202802101232902 -0.005264551579768005 
-0.01505067306306176 0.08714415619810548 -0.04832515572609375 -0.02112400693063471 -0.02725697385449814 0 -0.002643668058605842 
0 0.2388226472110224 0 -0.07393971880323097 0 -0.03800494035207294 -0.1095070029335265 
-0.1113089767977275 -0.0563255601753318 -0.01173681197233828 -0.08542259917946887 0.07459481438578847 -0.07413120540419763 0.1745040471858371 
0 0.2388226472110224 0 -0.07393971880323097 0 -0.03800494035207294 -0.1095070029335265 
-0.08603079252510594 0.05943319749260875 -0.007192389726632134 -0.08542259917946889 0 -0.07413120540419763 0.2336301614566083 
0 0.2388226472110224 0 -0.07393971880323097 0 -0.03800494035207294 -0.1095070029335265 
0 0.2388226472110224 0 -0.07393971880323097 0 -0.03800494035207294 -0.1095070029335265 
-0.046292016534201 0.3023297405339853 -0.05154365358047957 0 -0.1265045968009129 0 0 
-0.046292016534201 0.3023297405339853 -0.05154365358047957 0 -0.1265045968009129 0 0 
-0.008095834560725615 0.1121223759991176 -0.05154365358047956 -0.1073702732717056 0.1189667484818648 -0.008524001940612801 -0.01018971037534212 
-0.046292016534201 0.3023297405339853 -0.05154365358047957 0 -0.1265045968009129 0 0 
-0.07268365688051355 0.1634532857769422 -0.02159118541025271 -0.03657678183840223 0 -0.009795838716067108 -0.00995570752628621 
-0.07268365688051355 0.1634532857769422 -0.02159118541025271 -0.03657678183840223 0 -0.009795838716067108 -0.00995570752628621 
-0.0809221709387291 0.1084250173594132 -0.02159118541025271 0.1098760659172502 0 -0.09231759371315207 -0.0375177384888757 
-0.07268365688051355 0.1634532857769422 -0.02159118541025271 -0.03657678183840223 0 -0.009795838716067108 -0.00995570752628621 
-0.07268365688051355 0.1634532857769422 -0.02159118541025271 -0.03657678183840223 0 -0.009795838716067108 -0.00995570752628621 
-0.07268365688051355 0.1634532857769422 -0.02159118541025271 -0.03657678183840223 0 -0.009795838716067108 -0.00995570752628621 
-0.07268365688051355 0.1634532857769422 -0.02159118541025271 -0.03657678183840223 0 -0.009795838716067108 -0.00995570752628621 
-0.07268365688051355 0.1634532857769422 -0.02159118541025271 -0.03657678183840223 0 -0.009795838716067108 -0.00995570752628621 
-0.01847259844995942 0.2945335008260844 0 -0.07602583427558135 -0.1278870140096675 -0.04060625275833541 -0.02092614791950352 
-0.01847259844995942 0.2945335008260844 0 -0.07602583427558135 -0.1278870140096675 -0.04060625275833541 -0.02092614791950352 
-0.01847259844995942 0.2945335008260844 0 -0.07602583427558135 -0.1278870140096675 -0.04060625275833541 -0.02092614791950352 
0.09317570204562547 -0.03874092697032651 -0.02714544096338815 -0.01008908608151551 0 -0.02297305467179731 0 
0.09317570204562547 -0.03874092697032651 -0.02714544096338815 -0.01008908608151551 0 -0.02297305467179731 0 
0.03367522571756484 -0.03874092697032651 -0.02714544096338815 -0.01008908608151551 0 -0.003310232817903832 0 
0.03367522571756484 -0.03874092697032651 -0.02714544096338815 -0.01008908608151551 0 -0.003310232817903832 0 
0.1041745914920769 -0.0498398891991562 -0.009032953917295647 -0.01653930251850498 0 0 0 
0.1041745914920769 -0.0498398891991562 -0.009032953917295647 -0.01653930251850498 0 0 0 
0.1041745914920769 -0.0498398891991562 -0.009032953917295647 -0.01653930251850498 0 0 0 
0.1041745914920769 -0.0498398891991562 -0.009032953917295647 -0.01653930251850498 0 0 0 
0.1041745914920769 -0.0498398891991562 -0.009032953917295647 -0.01653930251850498 0 0 0 
-0.008249314658618992 -0.02458890360010809 -0.01461237871717878 -0.0552475417121423 -0.0001045880648134739 0.1087199264230187 -0.04169136280239213 
-0.008249314658618992 -0.02458890360010809 -0.01461237871717878 -0.0552475417121423 -0.0001045880648134739 0.1087199264230187 -0.04169136280239213 
0 0 0 -0.4119538153048466 -0.0001045880648134739 0.3518271432093867 0 
-0.00967066825425998 -0.01685570428101336 0 -0.1433569134579487 -0.01531714091455504 0.1988944305566566 -0.0008088512239813885 
-0.00967066825425998 -0.01685570428101336 0 -0.1433569134579487 -0.01531714091455504 0.1988944305566566 -0.0008088512239813885 
-0.00967066825425998 -0.01685570428101336 0 -0.1433569134579487 -0.01531714091455504 0.1988944305566566 -0.0008088512239813885 
-0.00967066825425998 -0.01685570428101336 0 -0.1433569134579487 -0.01531714091455504 0.1988944305566566 -0.0008088512239813885 
-0.02031921405101385 -0.05258076808435985 -0.01836503253806036 -0.07358094299655589 0 0.1173212881759752 0 
-0.02031921405101385 -0.05258076808435985 -0.01836503253806036 -0.07358094299655589 0 0.1173212881759752 0 
-0.02031921405101385 -0.05258076808435985 -0.01836503253806036 -0.07358094299655589 0 0.1173212881759752 0 
-0.02031921405101385 -0.05258076808435985 -0.01836503253806036 -0.07358094299655589 0 0.1173212881759752 0 
-0.02031921405101385 -0.05258076808435985 -0.01836503253806036 -0.07358094299655589 0 0.1173212881759752 0 
-0.02031921405101385 -0.05258076808435985 -0.01836503253806036 -0.07358094299655589 0 0.1173212881759752 0 
-0.02031921405101386 0.2392644659791179 -0.09411265114096745 -0.07358094299655589 -0.1415573611630689 0.1173212881759752 0 
-0.02527818427262158 0.278213034181154 -0.004544422245706148 0 -0.1914700097580639 0 -0.05411716917619976 
-0.02527818427262158 0.278213034181154 -0.004544422245706148 0 -0.1914700097580639 0 -0.05411716917619976 
-0.02527818427262158 0.278213034181154 -0.004544422245706148 0 -0.1914700097580639 0 -0.05411716917619976 
-0.02527818427262158 -0.1157587576679405 -0.004544422245706148 -5.204170427930421e-18 0.07459481438578847 0 -0.05912611427077129 
-0.02527818427262158 0.278213034181154 -0.004544422245706148 0 -0.1914700097580639 0 -0.05411716917619976 
-0.01979991853390665 0.1953200245484685 -0.02708503719254161 -0.00883745018793616 -0.05049928882578732 -0.04802012578410795 -0.007404212350350423 
-0.01979991853390665 0.1953200245484685 -0.02708503719254161 -0.00883745018793616 -0.05049928882578732 -0.04802012578410795 -0.007404212350350423 
0.03416418660576654 -0.02622775311744788 0 -0.03985951773049397 0 0 -0.008967873097961971 
0.03416418660576654 -0.02622775311744788 0 -0.03985951773049397 0 0 -0.008967873097961971 
0.03416418660576654 -0.02622775311744788 0 -0.03985951773049397 0 0 -0.008967873097961971 
0.03416418660576654 -0.02622775311744788 0 -0.03985951773049397 0 0 -0.008967873097961971 
0.03416418660576654 -0.02622775311744788 0 -0.03985951773049397 0 0 -0.008967873097961971 
-0.000895547679343805 -0.04484689860404952 0.09102098155847578 -0.004181225162693468 0 0 -0.03554018397197067 
-0.000895547679343805 -0.04484689860404952 0.09102098155847578 -0.004181225162693468 0 0 -0.03554018397197067 
-0.03283432296162136 -0.05329073516396813 0.19847004248671 -0.004181225162693468 0 0 -0.08653110395917853 
0 0 -0.00737775423239254 -0.007460509780997384 0 0 0 
0.05950047632806066 0 0 0 0 -0.01966282185389347 0 
0.05950047632806066 0 0 0 0 -0.01966282185389347 0 
0.05950047632806066 0 0 0 0 -0.01966282185389347 0 
0.05950047632806066 0 0 0 0 -0.01966282185389347 0 
0 -0.0565101784168338 0 -0.2013034787670105 0.3383299965539293 -0.05070317585968773 0 
0.08018702382215957 -0.05651017841683379 -0.006354606611072846 -0.2013034787670105 0.2394202056655289 -0.05070317585968771 -0.07882450455096116 
0 -0.0565101784168338 0 -0.2013034787670105 0.3383299965539293 -0.05070317585968773 0 
0.08018702382215957 -0.05651017841683379 -0.006354606611072846 -0.2013034787670105 0.2394202056655289 -0.05070317585968771 -0.07882450455096116 
0 -0.0565101784168338 0 -0.2013034787670105 0.3383299965539293 -0.05070317585968773 0 
0 -0.0167576889727628 0.1809852846136243 -0.02734712361629453 -0.0606239490205123 0 -0.05387750274205427 
0 -0.0167576889727628 0.1809852846136243 -0.02734712361629453 -0.0606239490205123 0 -0.05387750274205427 
0 -0.0167576889727628 0.1809852846136243 -0.02734712361629453 -0.0606239490205123 0 -0.05387750274205427 
-0.005843768702946381 -0.1793894497184136 -0.01354699633770498 -0.01148288037623792 -0.09890979088840035 -0.03612626505212468 0.2643126598391737 
-0.08603079252510595 -0.1793894497184136 -0.007192389726632134 -0.01148288037623792 0 -0.03612626505212469 0.3431371643901349 
-0.08603079252510595 -0.1793894497184136 -0.007192389726632134 -0.01148288037623792 0 -0.03612626505212469 0.3431371643901349 
-0.1647118880146459 -0.1342909125676699 -0.0687623528543744 0.025464113707618 0.06316042147913709 0.2475976416032987 -0.07772787262334753 
-0.03363201092477908 -0.1902073645348676 0 -0.03191821007170644 0.2454713452827777 -0.008524001940612801 -0.006512514173899845 
-0.03363201092477908 -0.1902073645348676 0 -0.03191821007170644 0.2454713452827777 -0.008524001940612801 -0.006512514173899845 
0.09594590043407997 0 -0.06186882764476547 -0.007428717845087405 -0.09890979088840035 -0.003469032892878506 -0.07882450455096117 
0.08018702382215957 0 -0.006354606611072846 0 -0.09890979088840035 0 -0.07882450455096116 
0.03378776909813922 -0.08924744583907838 -4.336808689942018e-19 0.1804430914143078 0 -0.1605265249734913 -0.003677196201442273 
-0.03804042380011525 -0.08924744583907838 0 0.255895154614307 0 -0.1605265249734913 0 
-0.1310798770898667 0.05591645196719772 -0.0687623528543744 0.05738232377932448 -0.1823109238036406 0.2561216435439116 -0.07121535844944767 
-0.03804042380011525 -0.08924744583907838 0 0.255895154614307 0 -0.1605265249734913 0 
-0.03804042380011525 -0.08924744583907838 0 0.255895154614307 0 -0.1605265249734913 0 
-0.02908075919168998 0.320385885283038 -0.03179166625666951 -0.2347446265064181 0 0 -0.07000369629728551 
-0.02908075919168998 0.320385885283038 -0.03179166625666951 -0.2347446265064181 0 0 -0.07000369629728551 
-0.02908075919168998 0.320385885283038 -0.03179166625666951 -0.2347446265064181 0 0 -0.07000369629728551 
-0.01460144376216207 0.06974863731468521 -0.02806364068113038 -0.04210168496734085 0 0 -0.02004738121626755 
-0.01460144376216207 0.06974863731468521 -0.02806364068113038 -0.04210168496734085 0 0 -0.02004738121626755 
-0.01460144376216207 0.06974863731468521 -0.02806364068113038 -0.04210168496734085 0 0 -0.02004738121626755 
-0.01460144376216207 0.06974863731468521 -0.02806364068113038 -0.04210168496734085 0 0 -0.02004738121626755 
-0.01460144376216207 0.06974863731468521 -0.02806364068113038 -0.04210168496734085 0 0 -0.02004738121626755 
-0.01460144376216207 0.06974863731468521 -0.02806364068113038 -0.04210168496734085 0 0 -0.02004738121626755 
-0.05880944129334659 -0.1427001278284514 -0.001656927313668354 -0.05179806617077538 0.2566607616208027 -0.0283240461919227 -0.02410753488632118 
-0.05880944129334659 -0.1427001278284514 -0.001656927313668354 -0.05179806617077538 0.2566607616208027 -0.0283240461919227 -0.02410753488632118 
-0.05880944129334659 -0.1427001278284514 -0.001656927313668354 -0.05179806617077538 0.2566607616208027 -0.0283240461919227 -0.02410753488632118 
-0.05880944129334659 -0.1427001278284514 -0.001656927313668354 -0.05179806617077538 0.2566607616208027 -0.0283240461919227 -0.02410753488632118 
-0.05880944129334659 -0.1427001278284514 -0.001656927313668354 -0.05179806617077538 0.2566607616208027 -0.0283240461919227 -0.02410753488632118 
0.1245973142757652 -0.0558470211433675 -0.02028363068135329 0 0 -0.01854593165939654 -0.008962578539202407 
0.1245973142757652 -0.0558470211433675 -0.02028363068135329 0 0 -0.01854593165939654 -0.008962578539202407 
0.08099842045183163 -0.05584702114336751 -0.02028363068135329 -0.1080037324084197 0 0.1301530189025526 -0.02232128010647801 
0.1245973142757652 -0.0558470211433675 -0.02028363068135329 0 0 -0.01854593165939654 -0.008962578539202407 
0.1245973142757652 -0.0558470211433675 -0.02028363068135329 0 0 -0.01854593165939654 -0.008962578539202407 
0.1245973142757652 -0.0558470211433675 -0.02028363068135329 0 0 -0.01854593165939654 -0.008962578539202407 
0.07182819289825447 0 0 -0.07545206319999914 0 0 -0.003677196201442274 
0.07182819289825447 0 0 -0.07545206319999914 0 0 -0.003677196201442274 
0.07182819289825447 0 0 -0.07545206319999914 0 0 -0.003677196201442274 
0 -0.3136141137799324 0 0.2608050062483343 -0.04721844384570368 0 0 
-0.02319147143888628 0 0 0 0 0 -0.02407985608690023 
-0.02319147143888628 0.1220656941133308 0 -0.03985793049096659 0 -0.01024499406807285 -0.02407985608690023 
-0.02319147143888628 0 0 0 0 0 -0.02407985608690023 
-0.02319147143888628 0 0 0 0 0 -0.02407985608690023 
-0.02319147143888628 0.1220656941133308 0 -0.03985793049096659 0 -0.01024499406807285 -0.02407985608690023 
0.181517122548194 -0.03513435084401986 -0.001364723425897075 -0.03742476539018712 -0.004626664661014002 -0.05337510339533652 -0.06033167321729341 
0.181517122548194 -0.03513435084401986 -0.001364723425897075 -0.03742476539018712 -0.004626664661014002 -0.05337510339533652 -0.06033167321729341 
0.181517122548194 -0.03513435084401986 -0.001364723425897075 -0.03742476539018712 -0.004626664661014002 -0.05337510339533652 -0.06033167321729341 
0.181517122548194 -0.03513435084401986 -0.001364723425897075 -0.03742476539018712 -0.004626664661014002 -0.05337510339533652 -0.06033167321729341 
0.181517122548194 -0.03513435084401986 -0.001364723425897075 -0.03742476539018712 -0.004626664661014002 -0.05337510339533652 -0.06033167321729341 
0.181517122548194 -0.03513435084401986 -0.001364723425897075 -0.03742476539018712 -0.004626664661014002 -0.05337510339533652 -0.06033167321729341 
0.181517122548194 -0.03513435084401986 -0.001364723425897075 -0.03742476539018712 -0.004626664661014002 -0.05337510339533652 -0.06033167321729341 
0.1660069847640762 -0.09366445799109023 -0.04979042945772076 -0.03337753284012034 0 -0.03649812511930482 -0.0175992422998023 
0.1660069847640762 -0.09366445799109023 -0.04979042945772076 -0.03337753284012034 0 -0.03649812511930482 -0.0175992422998023 
0.1660069847640762 -0.09366445799109023 -0.04979042945772076 -0.03337753284012034 0 -0.03649812511930482 -0.0175992422998023 
0.1660069847640762 -0.09366445799109023 -0.04979042945772076 -0.03337753284012034 0 -0.03649812511930482 -0.0175992422998023 
0.1660069847640762 -0.09366445799109023 -0.04979042945772076 -0.03337753284012034 0 -0.03649812511930482 -0.0175992422998023 
0.1660069847640762 -0.09366445799109023 -0.04979042945772076 -0.03337753284012034 0 -0.03649812511930482 -0.0175992422998023 
-0.07270121627462584 0.05242041537124388 0.1145213279822828 -0.04272105884854752 -0.01162935967396811 -2.168404344971009e-18 -0.0465061502467093 
-0.0538853660626477 -0.008871409924714937 0.1490601826204405 -0.04272105884854752 0 0 -0.0465061502467093 
-0.0538853660626477 -0.008871409924714937 0.1490601826204405 -0.04272105884854752 0 0 -0.0465061502467093 
-0.0538853660626477 -0.008871409924714937 0.1490601826204405 -0.04272105884854752 0 0 -0.0465061502467093 
-0.0538853660626477 -0.008871409924714937 0.1490601826204405 -0.04272105884854752 0 0 -0.0465061502467093 
0.1016072117458143 -0.183528165209024 -0.03325326790430872 -0.006326775123831041 0.1448320521960329 -0.03253024455035305 -0.02440765779510892 
0.1776535105283325 -0.06092742641735759 -0.03325326790430872 -0.006326775123831041 -0.05395757983647401 -0.01963934951951432 -0.01750889774066039 
0.1776535105283325 -0.06092742641735759 -0.03325326790430872 -0.006326775123831041 -0.05395757983647401 -0.01963934951951432 -0.01750889774066039 
0.1776535105283325 -0.06092742641735759 -0.03325326790430872 -0.006326775123831041 -0.05395757983647401 -0.01963934951951432 -0.01750889774066039 
0.1776535105283325 -0.06092742641735759 -0.03325326790430872 -0.006326775123831041 -0.05395757983647401 -0.01963934951951432 -0.01750889774066039 
0.1776535105283325 -0.06092742641735759 -0.03325326790430872 -0.006326775123831041 -0.05395757983647401 -0.01963934951951432 -0.01750889774066039 
0.1776535105283325 -0.06092742641735759 -0.03325326790430872 -0.006326775123831041 -0.05395757983647401 -0.01963934951951432 -0.01750889774066039 
0.1776535105283325 -0.06092742641735759 -0.03325326790430872 -0.006326775123831041 -0.05395757983647401 -0.01963934951951432 -0.01750889774066039 
-0.0003791553323967434 -0.0257218863313852 -0.04233611712517081 -0.1772760692849106 0 0.2504887723099727 0 
-0.0003791553323967434 -0.0257218863313852 -0.04233611712517081 -0.1772760692849106 0 0.2504887723099727 0 
-0.007662375206361189 -0.1001485677278987 -0.07663102434897255 -0.01411418163909181 0 0.1528056470972498 0 
-0.0003791553323967434 -0.0257218863313852 -0.04233611712517081 -0.1772760692849106 0 0.2504887723099727 0 
-0.05291125930157004 -0.1921063006544149 -0.02948682454391795 0.4792385800435808 -0.06294910500483838 -0.2138813133760111 -0.001211662152162151 
0 0.2315818164327176 0 -0.08049352894195499 -0.0945069553098182 -0.1275072284987909 -0.002246348835889421 
0 -0.1071336273797377 0 0.2633836243764843 -0.04267125489176483 -0.1275072284987909 0 
0 0.1220656941133308 0 -0.03985793049096659 0 -0.01024499406807285 0 
0 0.1220656941133308 0 -0.03985793049096659 0 -0.01024499406807285 0 
-0.01104743479649141 -0.09024931420208467 0.07933356643194878 -0.06280565383469376 0 0.2533694808638258 -0.0118745152773385 
0 0 0.08681742848573572 0 0 -0.006413551239466008 -0.0118745152773385 
0.05605392242250293 -0.01244361209619112 0 0 0 -0.0525318165540547 -0.009558276974740092 
0.05605392242250293 -0.01244361209619112 0 0 0 -0.0525318165540547 -0.009558276974740092 
0.05605392242250293 -0.01244361209619112 0 0 0 -0.0525318165540547 -0.009558276974740092 
0.05605392242250293 -0.01244361209619112 0 0 0 -0.0525318165540547 -0.009558276974740092 
0.05605392242250293 -0.01244361209619112 0 0 0 -0.0525318165540547 -0.009558276974740092 
-0.03193877528227754 -0.008443836559918604 0.1074490609282342 0 0 0 -0.05099091998720785 
-0.03193877528227754 -0.008443836559918604 0.1074490609282342 0 0 0 -0.05099091998720785 
-0.03193877528227754 -0.008443836559918604 0.1074490609282342 0 0 0 -0.05099091998720785 
-0.03193877528227754 -0.008443836559918604 0.1074490609282342 0 0 0 -0.05099091998720785 
-0.04024183337571327 -0.001152514899852869 -0.03211327279916836 0.1816854860230433 0 -0.06935297086665726 0 
-0.04024183337571327 -0.001152514899852869 -0.03211327279916836 0.1816854860230433 0 -0.06935297086665726 0 
-0.04024183337571327 -0.001152514899852869 -0.03211327279916836 0.1816854860230433 0 -0.06935297086665726 0 
-0.04024183337571327 -0.001152514899852869 -0.03211327279916836 0.1816854860230433 0 -0.06935297086665726 0 
-0.008249314658618992 -0.0245889036001081 -0.01461237871717878 0.3567062735927043 0 -0.243107216786368 -0.04169136280239213 
-0.02032124064483729 -0.1279168095585982 -0.00319993625875779 0.2015977434797343 0 -0.07664276290106385 -0.000845873975061969 
-0.02032124064483729 -0.1279168095585982 -0.00319993625875779 0.2015977434797343 0 -0.07664276290106385 -0.000845873975061969 
-0.01706128528256011 -0.004352516374918555 0 0.1332006549512516 -0.02021412764135341 -0.08508935455296589 -0.01249921313155186 
-0.01706128528256011 -0.004352516374918555 0 0.1332006549512516 -0.02021412764135341 -0.08508935455296589 -0.01249921313155186 
-0.01706128528256011 -0.004352516374918555 0 0.1332006549512516 -0.02021412764135341 -0.08508935455296589 -0.01249921313155186 
-0.01706128528256011 -0.004352516374918555 0 0.1332006549512516 -0.02021412764135341 -0.08508935455296589 -0.01249921313155186 
-0.008238514058215549 -0.055028268417529 0 0.1464528477556524 0 -0.08252175499708496 -0.02756203096258947 
-0.008238514058215549 -0.055028268417529 0 0.1464528477556524 0 -0.08252175499708496 -0.02756203096258947 
-0.008238514058215549 -0.055028268417529 0 0.1464528477556524 0 -0.08252175499708496 -0.02756203096258947 
-0.01104743479649141 -0.09024931420208467 -0.007483862053786951 -0.06280565383469376 0 0.2597830321032918 0 
-0.01104743479649141 -0.09024931420208467 -0.007483862053786951 -0.06280565383469376 0 0.2597830321032918 0 
-0.01104743479649141 -0.09024931420208467 -0.007483862053786951 -0.06280565383469376 0 0.2597830321032918 0 
-0.01104743479649141 -0.09024931420208467 -0.007483862053786951 -0.06280565383469376 0 0.2597830321032918 0 
-0.07723956175239426 -0.09133733422762939 0.1685283288534484 0.1450075287903735 0 -0.1474788001761236 -0.06114649549844043 
-0.06995634187842983 -0.01691065283111591 0.2028232360772501 -0.01815435885544521 0 -0.04979567496340055 -0.06114649549844043 
-0.06995634187842983 -0.01691065283111591 0.2028232360772501 -0.01815435885544521 0 -0.04979567496340055 -0.06114649549844043 
-0.06995634187842983 -0.01691065283111591 0.2028232360772501 -0.01815435885544521 0 -0.04979567496340055 -0.06114649549844043 
0.01575887661192038 0 -0.05551422103369263 -0.007428717845087407 0 -0.003469032892878508 0 
0.01575887661192038 0 -0.05551422103369263 -0.007428717845087407 0 -0.003469032892878508 0 
0 -0.3469719460694018 0 0 0.1772875081543498 0 0 
-0.01336055015154381 -0.1295009262483199 -0.009243207026886011 -0.08577994186193767 0.1457122457648486 0 -0.005091964957198325 
0 -0.3939717918490945 0 0 0.2660648241438524 0 -0.005008945094571525 
-0.0760462987825182 -0.1226007387916663 0 0 0.1987896320325069 -0.01289089503083874 -0.006898760054448531 
-0.0760462987825182 -0.1226007387916663 0 0 0.1987896320325069 -0.01289089503083874 -0.006898760054448531 
-0.0760462987825182 -0.1226007387916663 0 0 0.1987896320325069 -0.01289089503083874 -0.006898760054448531 
-0.0760462987825182 -0.1226007387916663 0 0 0.1987896320325069 -0.01289089503083874 -0.006898760054448531 
-0.0760462987825182 -0.1226007387916663 0 0 0.1987896320325069 -0.01289089503083874 -0.006898760054448531 
-0.07724433265596907 -0.02808007491425259 -0.05136823908120505 -0.03130640910384411 -0.002944303082587515 -0.04563382067051196 0.2348729248147702 
-0.07724433265596907 -0.02808007491425259 -0.05136823908120505 -0.03130640910384411 -0.002944303082587515 -0.04563382067051196 0.2348729248147702 
-0.07724433265596907 -0.02808007491425259 -0.05136823908120505 -0.03130640910384411 -0.002944303082587515 -0.04563382067051196 0.2348729248147702 
-0.07724433265596907 -0.02808007491425259 -0.05136823908120505 -0.03130640910384411 -0.002944303082587515 -0.04563382067051196 0.2348729248147702 
-0.07724433265596907 -0.02808007491425259 -0.05136823908120505 -0.03130640910384411 -0.002944303082587515 -0.04563382067051196 0.2348729248147702 
-0.07724433265596907 -0.02808007491425259 -0.05136823908120505 -0.03130640910384411 -0.002944303082587515 -0.04563382067051196 0.2348729248147702 
-0.007283219873964448 -0.0744266813965135 -0.03429490722380176 0.1631618876458188 0 -0.097683125212723 0 
-0.007283219873964448 -0.0744266813965135 -0.03429490722380176 0.1631618876458188 0 -0.097683125212723 0 
-0.007283219873964448 -0.0744266813965135 -0.03429490722380176 0.1631618876458188 0 -0.097683125212723 0 
0.1686374089897054 -0.03344129163397794 -0.01027927597328531 -0.07567026657484516 -0.02957784637855484 -0.03962799071292752 -0.03975529917065122 
0.1686374089897054 -0.03344129163397794 -0.01027927597328531 -0.07567026657484516 -0.02957784637855484 -0.03962799071292752 -0.03975529917065122 
0.1686374089897054 -0.03344129163397794 -0.01027927597328531 -0.07567026657484516 -0.02957784637855484 -0.03962799071292752 -0.03975529917065122 
0.1686374089897054 -0.03344129163397794 -0.01027927597328531 -0.07567026657484516 -0.02957784637855484 -0.03962799071292752 -0.03975529917065122 
0.1686374089897054 -0.03344129163397794 -0.01027927597328531 -0.07567026657484516 -0.02957784637855484 -0.03962799071292752 -0.03975529917065122 
0.1686374089897054 -0.03344129163397794 -0.01027927597328531 -0.07567026657484516 -0.02957784637855484 -0.03962799071292752 -0.03975529917065122 
0.1686374089897054 -0.03344129163397794 -0.01027927597328531 -0.07567026657484516 -0.02957784637855484 -0.03962799071292752 -0.03975529917065122 
0.02365360083730171 -0.02747224399895515 0 0 0 -0.01819171840507086 0 
0.02365360083730171 -0.02747224399895515 0 0 0 -0.01819171840507086 0 
0.02365360083730171 -0.02747224399895515 0 0 0 -0.01819171840507086 0 
0.02365360083730171 -0.02747224399895515 0 0 0 -0.01819171840507086 0 
0.02365360083730171 -0.02747224399895515 0 0 0 -0.01819171840507086 0 
-0.01714240733056296 -0.1534077527892735 0 0.2356065498804781 -0.06845347031831325 0 -0.0412186363074154 
-0.01714240733056296 -0.1534077527892735 0 0.2356065498804781 -0.06845347031831325 0 -0.0412186363074154 
-0.01714240733056296 -0.1534077527892735 0 0.2356065498804781 -0.06845347031831325 0 -0.0412186363074154 
-0.01714240733056296 -0.1534077527892735 0 0.2356065498804781 -0.06845347031831325 0 -0.0412186363074154 
-0.01336055015154381 0.2644708656007745 -0.009243207026886011 -0.08577994186193767 -0.1203525783790038 0 -8.301986262680026e-05 
-0.01336055015154381 0.2644708656007745 -0.009243207026886011 -0.08577994186193767 -0.1203525783790038 0 -8.301986262680026e-05 
-0.01336055015154381 0.2644708656007745 -0.009243207026886011 -0.08577994186193767 -0.1203525783790038 0 -8.301986262680026e-05 
-0.01336055015154381 0.2644708656007745 -0.009243207026886011 -0.08577994186193767 -0.1203525783790038 0 -8.301986262680026e-05 
-0.01336055015154381 0.2644708656007745 -0.009243207026886011 -0.08577994186193767 -0.1203525783790038 0 -8.301986262680026e-05 
-0.02980084707294974 0.08362083357758759 -0.004968834323018142 0.06295668571294405 -0.1201998505361666 0 -0.02024549689606108 
-0.02980084707294975 -0.3431982497510496 -0.004968834323018142 0.3793124779009612 -0.02138314978436214 0 -0.02024549689606108 
-0.02980084707294974 0.08362083357758759 -0.004968834323018142 0.06295668571294405 -0.1201998505361666 0 -0.02024549689606108 
-0.02980084707294974 0.08362083357758759 -0.004968834323018142 0.06295668571294405 -0.1201998505361666 0 -0.02024549689606108 
-0.02980084707294975 -0.3431982497510496 -0.004968834323018142 0.3793124779009612 -0.02138314978436214 0 -0.02024549689606108 
0 0.4268190833286372 0 -0.3163557921880171 -0.09881670075180447 0 0 
0 0.4268190833286372 0 -0.3163557921880171 -0.09881670075180447 0 0 
0 0.2918452340634778 -0.0757476186029071 0 -0.1415573611630689 0 0 
0 0.2918452340634778 -0.0757476186029071 0 -0.1415573611630689 0 0 
0 -0.07665627327787151 -0.001805374888545125 -0.05894534575804797 0 0.1778550981832439 0 
0 -0.07665627327787151 -0.001805374888545125 -0.05894534575804797 0 0.1778550981832439 0 
0 -0.07665627327787151 -0.001805374888545125 -0.05894534575804797 0 0.1778550981832439 0 
-0.0244941284990089 -0.04057616719113727 -0.1769229300009658 -0.01989208999644248 0 -0.009061322242480404 0.288706578873296 
-0.0244941284990089 -0.04057616719113727 -0.1769229300009658 -0.01989208999644248 0 -0.009061322242480404 0.288706578873296 
-0.0244941284990089 -0.04057616719113727 -0.1769229300009658 -0.01989208999644248 0 -0.009061322242480404 0.288706578873296 
-0.0244941284990089 -0.04057616719113727 -0.1769229300009658 -0.01989208999644248 0 -0.009061322242480404 0.288706578873296 
0 0 0 0 0 0 -0.005576194158284095 
0 0 0 0 0 0 -0.005576194158284095 
0 0.3387154438124553 0 -0.3438771533184393 -0.05183570041805337 0 -0.002246348835889421 
0 0.3387154438124553 0 -0.3438771533184393 -0.05183570041805337 0 -0.002246348835889421 
0 0.3387154438124553 0 -0.3438771533184393 -0.05183570041805337 0 -0.002246348835889421 
-0.02061451087898782 0.07279326343744344 -0.001129700232425608 0 -0.05610347049197159 -0.02202802101232902 -0.002620883521162164 
-0.02061451087898782 0.07279326343744344 -0.001129700232425608 0 -0.05610347049197159 -0.02202802101232902 -0.002620883521162164 
-0.02061451087898782 0.07279326343744344 -0.001129700232425608 0 -0.05610347049197159 -0.02202802101232902 -0.002620883521162164 
-0.04359889382393355 0 0 -0.1080037324084196 0 0.1486989505619492 -0.01335870156727561 
-0.04359889382393355 0 0 -0.1080037324084196 0 0.1486989505619492 -0.01335870156727561 
-0.04359889382393355 0 0 -0.1080037324084196 0 0.1486989505619492 -0.01335870156727561 
-0.04359889382393355 0 0 -0.1080037324084196 0 0.1486989505619492 -0.01335870156727561 
-0.04359889382393355 0 0 -0.1080037324084196 0 0.1486989505619492 -0.01335870156727561 
-0.05291125930157004 -0.0849726732746772 -0.02948682454391795 0.2158549556670965 -0.02027785011307356 -0.08637408487722016 -0.001211662152162151 
-0.05291125930157004 -0.0849726732746772 -0.02948682454391795 0.2158549556670965 -0.02027785011307356 -0.08637408487722016 -0.001211662152162151 
-0.05291125930157004 -0.0849726732746772 -0.02948682454391795 0.2158549556670965 -0.02027785011307356 -0.08637408487722016 -0.001211662152162151 
-0.05291125930157004 -0.0849726732746772 -0.02948682454391795 0.2158549556670965 -0.02027785011307356 -0.08637408487722016 -0.001211662152162151 
0 0 0 0 0 0 -0.03506325179725409 
-0.01881585021197813 0.06129182529595881 -0.03453885463815771 0 -0.01162935967396811 0 0 
-0.01881585021197813 0.06129182529595881 -0.03453885463815771 0 -0.01162935967396811 0 0 
-0.01881585021197813 0.06129182529595881 -0.03453885463815771 0 -0.01162935967396811 0 0 
-0.01881585021197813 0.06129182529595881 -0.03453885463815771 0 -0.01162935967396811 0 0 
0 0.2287883215588459 -0.004503472689483727 0 -0.1524054653579621 0 0 
0 0.2287883215588459 -0.004503472689483727 0 -0.1524054653579621 0 0 
0 0.2287883215588459 -0.004503472689483727 0 -0.1524054653579621 0 0 
0 0.2287883215588459 -0.004503472689483727 0 -0.1524054653579621 0 0 
0.07523925401309277 -0.05313785613395071 0 0 -0.03455802307852615 0 0 
0 0 0 -0.1168175061609672 -0.1620330736905671 0.2432392212913312 0 
0 0 0 -0.1168175061609672 -0.1620330736905671 0.2432392212913312 0 
0 0 0 -0.1168175061609672 -0.1620330736905671 0.2432392212913312 0 
0 0 0.01409940073171001 0 0 0 -0.01485062147204241 
0.3728337493119316 -0.04505599563837567 0 -0.2698253859926599 0 -0.008868153067571553 0 
0.05059644424316301 -0.06801827914196186 0 0.1599595040975468 0 -0.008868153067571551 -8.673617379884035e-19 
0.3728337493119316 -0.04505599563837567 0 -0.2698253859926599 0 -0.008868153067571553 0 
0.05059644424316301 -0.06801827914196186 0 0.1599595040975468 0 -0.008868153067571551 -8.673617379884035e-19 
0.05059644424316301 -0.06801827914196186 0 0.1599595040975468 0 -0.008868153067571551 -8.673617379884035e-19 
0.05059644424316301 -0.06801827914196186 0 0.1599595040975468 0 -0.008868153067571551 -8.673617379884035e-19 
-0.3222373050687686 -0.02296228350358616 0 0.4297848900902067 0 0 0 
-0.3222373050687686 -0.02296228350358616 0 0.4297848900902067 0 0 0 
