solver_type L2R_L2LOSS_SVC_DUAL
nr_class 4
label 1 2 3 4
nr_feature 914
bias -1
w
0.1307655560353934 -0.09198792027788705 -0.03300769631558287 -0.06543400031273761 
0.3622327831434555 -0.2332875452006048 -0.05580294006023839 -0.1918751722005905 
0.1020613616957939 -0.1170208936386359 -0.2985736365555387 -0.3728211939820002 
0.002220149229386848 -0.01045209892995785 -0.007756326135235604 0 
0.1067937744869962 -0.09924296957042403 -0.0357230539542252 -0.03333088783134348 
0.002220149229386848 -0.01045209892995785 -0.007756326135235604 0 
0.223786337095207 -0.2332875452006049 -0.05562553894841785 -0.04466397422033493 
0.002220149229386848 -0.01045209892995785 -0.007756326135235604 0 
0.002220149229386848 -0.01045209892995785 -0.007756326135235604 0 
-0.07302047621254251 0.009447652821618455 -0.03989817419442195 -0.02559437950363648 
0.1020613616957939 -0.1170208936386359 -0.2985736365555387 -0.3728211939820002 
0.03595100458897633 -0.06917230774188174 -0.1448388391559274 -0.141048467840034 
-0.06607438685168522 0.05649670697329841 -0.0121044821292875 0 
-0.06607438685168522 0.05649670697329841 -0.0121044821292875 0 
-0.659443092929183 0.6734549821520877 -0.02408880119726681 -0.05627278380781887 
0.08701977055662875 -0.01211147997780723 -0.01385216093057858 -0.04425536167644068 
-0.06607438685168522 0.05649670697329841 -0.0121044821292875 0 
-0.06607438685168522 0.05649670697329841 -0.0121044821292875 0 
-0.2948131416532622 0.3266453690385466 -0.01685934133108757 -0.05346095231197046 
-0.06607438685168522 0.05649670697329841 -0.0121044821292875 0 
-0.0118503355386247 0.009877367458234344 -0.1325327506587614 -0.01108554065682994 
0.08461384129055585 -0.1798948206397488 0.1274894774817331 -0.04793852577209795 
-0.221516640768485 -0.08580960396938032 0.2914357796101078 0 
-0.221516640768485 -0.08580960396938032 0.2914357796101078 0 
-0.221516640768485 -0.08580960396938032 0.2914357796101078 0 
-0.221516640768485 -0.08580960396938032 0.2914357796101078 0 
-0.221516640768485 -0.08580960396938032 0.2914357796101078 0 
-0.03817905201471705 -0.05459506019411747 0.05149802112410087 -0.0474114766686568 
0 0 0 0 
0.06646830858455705 -0.08342273765253268 -0.006534812203262594 -0.00975369057618449 
0.4145378054787655 -0.3347460433425414 -0.1016264752304332 -0.1816920443426865 
-0.1751950176055143 0.1621375244174558 -0.02440412591281615 0 
0 0 0 0 
-0.01725853588189219 0.03249843946077233 -0.003909051926102386 -0.00975369057618449 
0.3042900296731732 -0.2726514434307516 -0.04002027312341166 -0.03050189620533403 
0 0 0 0 
-0.03464053705791256 0.02582649844341774 -0.01559504108443452 -0.01524288907432652 
0.004144140624423451 0.01477367428488573 -0.07392025439377245 -0.05377666022048886 
0.2894353809115848 -0.2214992714065748 -0.05752125273438278 -0.07001529818465457 
0.08760771756408284 -0.0667142837773963 -0.02198227330628087 -0.04793852577209794 
0 0 0 0 
0 0 0 -0.00975369057618449 
0.05291881793596759 -0.04753858850130454 -0.009021648406036867 -0.00975369057618449 
0 0 0 -0.00975369057618449 
0 0 -4.765432524603278e-06 -0.00975369057618449 
-0.2069872060576786 -0.1011677313361465 -0.03594895476578072 0.3535156412562798 
0 0 0 0 
0 0 0 0 
0 0 0 0 
0 0 0 0 
-0.02386237977891436 0.0591646810015856 -0.06555315293778081 -0.04988461702743804 
0.03246828291078808 -0.028346397248041 0 0 
0.03246828291078808 -0.028346397248041 0 0 
0 0 -4.765432524603712e-06 0 
0 0 -4.765432524603712e-06 0 
0 0 0 0 
0.05221231796432001 -0.05291089668157224 -0.001234839981537571 0 
0 0 0 0 
0 0 0 0 
0.007666551827643458 -0.02295588270538585 -0.003904286493577784 0 
0.007666551827643458 -0.02295588270538585 -0.003904286493577784 0 
0.1528590273577034 -0.1225389907261355 -0.04367955085253227 -0.03960477327683356 
0.2416089987988674 -0.2173305526601379 -0.03031796937702032 -5.204170427930421e-18 
0.1518743461376764 -0.1155167642886187 -0.04555328159720472 -0.002301329465492022 
0.004883822608828718 0 0 0 
0.004883822608828718 0 0 0 
0.08196029441826735 -0.06641146043856197 -0.0273607243600062 -1.734723475976807e-18 
0.1190716101627862 -0.07307078459828213 -0.04421966860278857 -0.002301329465492022 
0.004883822608828718 0 0 0 
-0.05242185445654816 0.04149445709812678 -0.02819638264667052 -0.006743989730514184 
0.04651728962912856 -0.06439621129608662 0 0 
-0.1996228263026323 0.1861144970500642 0 0 
0.101976569374463 -0.1045805754502496 0 0 
0.03542717218624723 -0.02582259814492477 0 0 
0.03542717218624723 -0.02582259814492477 0 0 
0 0 0 0 
-0.07965389908730805 0.09932786977019679 -0.007787212661620893 0 
0 0 0 0 
0 0 0 0 
0.1484480391679438 -0.1244144346873519 -0.03347556431888009 -0.0001332307867237099 
0 0 0 0 
0 0 0 0 
0 0 0 0 
0 0 0 0 
0 0 0 0 
0.05809070705948246 -0.04739019556464739 -0.002625760277160207 0 
0.05809070705948246 -0.04739019556464739 -0.002625760277160207 0 
0.05809070705948246 -0.04739019556464739 -0.002625760277160207 0 
0.05927579406088799 -0.05202698178227532 -0.002625760277160207 0 
0.05809070705948246 -0.04739019556464739 -0.002625760277160207 0 
0.05809070705948246 -0.04739019556464739 -0.002625760277160207 0 
-0.1338225007353192 0.1764949762478872 -0.006422477886365982 -0.05454468075922459 
0 -0.005658811028543073 0 0 
0 0 0 0 
0 0 0 0 
0 0 0 0 
0 0 0 0 
-0.1157485399407104 0.1304929392059547 -0.007787212661620893 0 
-0.2460841680339716 0.2708412950620995 -0.007787212661620893 0 
-0.1157485399407104 0.1304929392059547 -0.007787212661620893 0 
-0.1157485399407104 0.1304929392059547 -0.007787212661620893 0 
-0.2460841680339716 0.2708412950620995 -0.007787212661620893 0 
-0.1157485399407104 0.1304929392059547 -0.007787212661620893 0 
-0.1157485399407104 0.1304929392059547 -0.007787212661620893 0 
0.1836783902502829 -0.1354406604648951 -0.02796672781898961 -0.04726314527136171 
0.1635863318882824 -0.1516063759289341 -0.03145120577198417 -0.006484786813522212 
0 0 0 0 
0.009465451018293594 -0.01439354498791543 1.084202172485504e-19 0 
0.08670483198295907 -0.09300098365727691 -0.002465364402659836 -0.00409425718379073 
0 0 0 0 
-0.0657569229197966 0.07769203800684893 -0.02049003490891069 -0.02002927991622867 
0.05298421645036372 -0.05339252857622193 -0.009016882973512264 0 
0.1748596021122291 -0.1714089047580131 -0.02093115630429348 -0.0154722635917792 
0.0973534488478759 -0.04814043061480958 -0.006819808562038703 -0.01547226359177919 
0.003984286405464639 -0.007500853781021013 0 -0.00439891371171141 
6.539851439612315e-05 -0.005853940074917399 0 0 
0.1101195615423131 -0.1215489182884559 -0.01875774456039252 -0.0110733498800678 
0.003984286405464639 -0.007500853781021016 0 -0.00439891371171141 
0.003984286405464639 -0.007500853781021013 0 -0.00439891371171141 
0.1458682451596075 -0.1313182453108829 -0.03541311674068569 -0.02701706943751098 
0.05298421645036373 -0.05646366304254398 -0.01798033490348736 0 
-0.1782064040276451 0.1682083784519176 -8.673617379884035e-19 -0.007877030721182107 
0.02329211420283662 0.03507107677429731 -0.02447078546136258 -0.07085623977564554 
0.2070666148722629 -0.2454667423812783 -0.03591722243038829 -0.06452191001256728 
0.006527560324123719 -0.03587338045504444 -0.07009075975514859 0.1145087199716886 
0.2019898055197944 -0.1843590640654757 -0.002957245017014124 -0.003841710373719216 
0.1944081068450453 -0.1843590640654757 0 -0.003841710373719216 
0.1944081068450452 -0.1843590640654757 -0.001391054801257789 -0.005582171724700795 
-0.2739477511769308 0.3777591842184553 -0.02262003560844789 -0.04095037865831556 
0.1944081068450453 -0.1843590640654757 0 -0.003841710373719216 
-0.1205162992151016 0.1137720938533737 -0.02373739267450801 0.04885527792546099 
-0.1266377111240796 0.1821537872764303 -0.006422477886365982 -0.04845877830105859 
-0.1266377111240796 0.1821537872764303 -0.006422477886365982 -0.04845877830105859 
-0.1266377111240796 0.1821537872764303 -0.006422477886365982 -0.04845877830105859 
-0.1266377111240796 0.1821537872764303 -0.006422477886365982 -0.04845877830105859 
-0.1266377111240796 0.1821537872764303 -0.006422477886365982 -0.04845877830105859 
-0.1266377111240796 0.1821537872764303 -0.006422477886365982 -0.04845877830105859 
0 0 0 0 
-0.001583297731096477 -0.06987131958248953 -0.003382580390557282 0.07345577196210007 
0 0 0 0 
0 0 0 0 
0.07318300149607668 0 0 -0.05088813697278978 
0 0 0 0 
-0.02371158807240686 0.04760737890521357 -0.02224448007446641 -0.05484076157956765 
-0.02833054863015881 0.04772122507762139 -0.01725546653700787 0 
-0.3007246995882288 0.3254553335947047 -0.02486883903528271 -0.008865317105530235 
-0.1543908068980359 0.1505644380022459 -0.006396452879195735 0 
-0.1543908068980359 0.1505644380022459 -0.006396452879195735 0 
-0.1543908068980359 0.1505644380022459 -0.006396452879195735 0 
-0.2376501442118196 0.2697984953383376 -0.01495578911335473 0 
-0.1543908068980359 0.1505644380022459 -0.006396452879195735 0 
0.4573964421574083 -0.3313513485209317 -0.02863806763237706 -0.1097795798211527 
0.1653294611258548 -0.1211085944215229 -0.05651897720256629 -0.02415358499459679 
0 0 0 0 
0 0 0 0 
0.08372797258968906 -0.03865022889979248 -0.01111251476091717 -0.02067695618545489 
0 0 0 0 
0.1892584270098806 -0.09102126208842719 -0.03201582080000999 -0.09261321970795031 
0.2136142776889848 -0.1694025690081647 -0.06341649157147379 -0.09284642060015848 
0.07811440295448849 -0.09169721782634724 -0.02888368769054541 0 
0.06777215773762668 -0.08665759160811755 -0.02023415040270829 -0.001379809267597189 
0.1197712418344821 -0.08451060962749132 -0.0127676624584629 -0.03730523177651115 
0.1525739778093724 -0.1269565893178279 -0.03809207701496833 -0.04683674094005526 
0.003310835123407582 -0.02186368518727181 -0.009140982409237686 0 
0.003310835123407582 -0.02186368518727181 -0.009140982409237686 0 
0.2707516157939285 -0.2511474272963163 -0.08159433595442651 -0.04223040047830292 
-0.05419038851537712 0.05606250529669269 -0.01746385008028249 0 
0.0044164941675961 -0.02577180014790145 -0.00546423905790958 -0.004094257183790731 
0.1035603012777286 -0.1198271783864798 0 0 
0.3293814125922418 -0.2798474095686311 -0.01298474932415679 -0.07840006397479532 
-0.06389036197785566 0.06923089812136994 -0.01397586639774637 0 
0.1035603012777286 -0.1198271783864798 0 0 
0.04810198831195001 0.01374154017168474 -0.04761809774358958 -0.002811831495848406 
0.176695219841996 -0.09937484294944665 -0.08883630790822092 0 
0.08687888808907096 -0.03262993986364281 -0.04761809774358958 0 
0.08687888808907096 -0.03262993986364281 -0.04761809774358958 0 
0.176695219841996 -0.09937484294944665 -0.08883630790822092 0 
0.08687888808907096 -0.03262993986364281 -0.04761809774358958 0 
0.06926479196681423 0 -0.02785879155360231 -0.006786060505886862 
-0.2478966353745115 -0.09169513467079074 0.1219783351200341 0.3220552174015537 
0.06926479196681423 0 -0.02785879155360231 -0.006786060505886862 
0.06926479196681423 0 -0.02785879155360231 -0.006786060505886862 
-0.04840732432911387 -0.05721946451715858 0.1694350240056993 -0.04531193280825459 
0.06926479196681423 0 -0.02785879155360231 -0.006786060505886862 
0 -0.01689797687311159 -0.02131428102764524 0 
0.1602081847273322 -0.1354940899146201 -0.02208903869991874 -0.06858128297795327 
0.02823756390472246 -0.01689797687311159 -0.02131428102764524 -0.0364781704965591 
0 -0.01689797687311159 -0.02131428102764524 0 
0.06803801393038576 -0.01689797687311159 -0.02208903869991875 -0.06858128297795327 
0 -0.01689797687311159 -0.02131428102764524 0 
-0.0314669585238018 0.02355557396582759 -0.01082666067871754 -0.003763366225316294 
0.05221231796432001 -0.05291089668157224 -0.001234839981537571 0 
0.05221231796432001 -0.05291089668157224 -0.001234839981537571 0 
0.05221231796432001 -0.05291089668157224 -0.001234839981537571 0 
0.05221231796432001 -0.05291089668157224 -0.001234839981537571 0 
-0.01485781565156666 0.01540933758922304 -0.01411124700598514 -0.03459056511874452 
0.2708596361981673 -0.2035892633306223 -0.03964077215860282 -0.0629376163705031 
0.2708596361981673 -0.2035892633306223 -0.03964077215860282 -0.0629376163705031 
0 -3.469446951953614e-18 0 -0.0004535087725747892 
-0.009809422505008793 -0.1012403711368741 0.1414924561130838 -8.673617379884035e-19 
0 0 0 0 
0 0 0 0 
0 0 0 0 
0.03948564191826346 -0.03680356905566708 -0.02875030021785466 0 
-0.03442050910329633 0.01075713536763612 -0.01799573740760916 0 
0.001289778837067809 -0.02358263110382166 -0.01076627754142992 0 
0.001289778837067809 -0.02358263110382166 -0.01076627754142992 0 
0.001289778837067809 -0.02358263110382166 -0.01076627754142992 0 
-0.04278191210170977 0.08789249193115678 -0.02512852401642312 -0.03730523177651115 
0.1164604067110746 -0.06264692444021951 -0.003626680049225212 -0.03730523177651115 
0.1164604067110746 -0.06264692444021951 -0.003626680049225212 -0.03730523177651115 
0.1164604067110746 -0.06264692444021951 -0.003626680049225212 -0.03730523177651115 
0 0 -0.006228569896859328 0 
0.03280273597489009 -0.04244597969033663 -0.02532441455650544 -0.009531509163544097 
0 0 -0.006228569896859328 0 
0.07970925758671349 -0.0574328800679228 -0.001534225817881744 -0.01875297467867044 
0.01349905336202612 -0.003130846800403994 -0.0213690080569018 -0.002390529629731481 
-0.06397482824916893 0.1066609592450952 -0.03774348867769933 -0.00886531710553023 
-0.07200575242219619 0.09293659086088833 -0.02202896127877272 0 
-0.4237592524017484 0.4490291005405825 -0.05166162777657897 -0.01788371426274771 
-0.07200575242219619 0.09293659086088833 -0.02202896127877272 0 
-0.07200575242219619 0.09293659086088833 -0.02202896127877272 0 
-0.07200575242219619 0.09293659086088833 -0.02202896127877272 0 
-0.2515823012735504 0.2788450157037112 -0.04866275312132923 -0.01788371426274771 
-0.07200575242219619 0.09293659086088833 -0.02202896127877272 0 
0.0663354077821144 -0.002134358521996696 -0.003284586327267596 -0.05574841576755313 
0.05860861296921787 -0.03329942795775463 -0.003284586327267596 -0.03082719889342822 
0.02251397211581548 -0.002134358521996694 -0.003284586327267596 -0.03082719889342822 
0.0663354077821144 -0.002134358521996696 -0.003284586327267596 -0.05574841576755313 
0.2804753115010542 -0.4136325646735002 -0.04747072414670069 0.1554590986300042 
0.02251397211581548 -0.002134358521996694 -0.003284586327267596 -0.03082719889342822 
0.02251397211581548 -0.002134358521996694 -0.003284586327267596 -0.03082719889342822 
0.04509083398190911 -0.02727273692466328 0 -0.0249212168741249 
0.2096240435700458 -0.1770719855903435 -0.0123191520288788 -0.0249212168741249 
0.04382143566629895 -0.01389135116327648 0 -0.0249212168741249 
0.04382143566629895 0 0 -0.0249212168741249 
0 0 0 -0.00439891371171141 
-0.1176721162959281 -0.05721946451715858 0.1972938155593016 -0.03852587230236774 
-0.2409166236014881 -0.1062819001775658 0.3761490886675082 -0.03852587230236774 
-0.09128206017440624 -0.06728708264667306 0.1560756053946703 -0.03852587230236774 
-0.1176721162959281 -0.05721946451715858 0.1972938155593016 -0.03852587230236774 
-0.2409166236014881 -0.1062819001775658 0.3761490886675082 -0.03852587230236774 
-0.1176721162959281 -0.05721946451715858 0.1972938155593016 -0.03852587230236774 
0.0626778117245798 -0.04736866745337143 -0.003242180345389586 0 
0.1960070904644571 -0.1729323188935591 -0.02861189136961714 -0.008621207560528961 
0.0626778117245798 -0.04736866745337143 -0.003242180345389586 0 
0.08031170969909782 -0.0588757344179088 -0.0346401849002192 -0.00347662880914189 
0.126060258267877 -0.1028432129246245 -0.01085901365781214 0 
0.0626778117245798 -0.04736866745337143 -0.003242180345389586 0 
0.0003273428898264114 0 0 -0.001927313773568081 
0.2460089156628397 -0.1618205316255477 -2.168404344971009e-19 -0.1063629883130769 
-0.04814388358056387 -0.3002143980649465 -0.0009729211290175737 0.2450669599725165 
0.0003273428898264114 0 0 -0.001927313773568081 
0.07056346461818011 -0.07556993268862074 0 -0.006005436440585526 
0.0003273428898264114 0 0 -0.001927313773568081 
-0.2755947194716197 0.2810013039277927 -0.009060228881171924 -0.002811831495848406 
-0.07424856186650826 0.1747665612713636 -0.03664124091908465 -0.0776427420195312 
-0.02721965153580794 0.02145143483987921 0 0 
-0.1781015702402534 0.1677337408438271 0 0 
-0.1105341495793403 0.1343697545935745 -0.01832062045954233 -0.018241372679921 
-0.1781015702402534 0.1677337408438271 0 0 
0.03630989780528528 -0.03388895961554162 0 0 
0.03630989780528528 -0.03388895961554162 0 0 
0.03630989780528528 -0.03388895961554162 0 0 
-0.06189449096719069 0.02964527301375197 -0.02236304955796291 -0.0001332307867237099 
0.03630989780528528 -0.03388895961554162 0 0 
0.03630989780528528 -0.03388895961554162 0 0 
-0.05666046728252363 0.0653768619899629 -0.0126898245403695 -0.003560176537114844 
-0.2073047578220023 0.2302196315107741 -0.0357223857099607 -0.006743989730514181 
-0.05666046728252363 0.0653768619899629 -0.0126898245403695 -0.003560176537114844 
-0.05666046728252363 0.0653768619899629 -0.0126898245403695 -0.003560176537114844 
-0.1485885083677572 0.1633235484621362 -0.02666215682878878 -0.006743989730514181 
-0.1485885083677572 0.1633235484621362 -0.02666215682878878 -0.006743989730514181 
-0.05666046728252363 0.0653768619899629 -0.0126898245403695 -0.003560176537114844 
-0.3589435024717001 0.4048032963735196 -0.0357223857099607 -0.04634876300734771 
0.06342627563140314 -0.05667728495628936 4.336808689942018e-19 -0.002596649762137079 
0.1440346543941708 -0.08550262189937215 -0.004164914827625003 -0.02257364720679379 
0.06342627563140313 -0.05667728495628935 0 0 
0.06342627563140314 -0.05667728495628936 4.336808689942018e-19 -0.002596649762137079 
0.06342627563140314 -0.05667728495628936 4.336808689942018e-19 -0.002596649762137079 
0.06342627563140313 -0.05667728495628935 0 0 
-0.02993682930698327 0.02748971743820309 0 0 
-0.02993682930698327 0.02748971743820309 0 0 
-0.02993682930698327 0.02748971743820309 0 0 
-0.02993682930698327 0.02748971743820309 0 0 
-0.06307455537640919 0.055656838256367 -0.009913049921927968 -0.008865317105530231 
0 0 0 0 
-0.05556596196370526 0.0819078444352926 -0.01155821088940874 1.084202172485504e-19 
0 0 -0.005750072942414382 0.0217939710479481 
-0.5201978218538618 -0.05782554359104036 -0.02030936823398097 0.5863207916103854 
0 0 -0.005750072942414382 0.0217939710479481 
-0.5201978218538618 -0.05782554359104036 -0.02030936823398097 0.5863207916103854 
-0.2077951362956636 -1.029992063861229e-17 -0.01348955967194228 0.2491390807724927 
0.1178591811492067 -0.1048760966159173 -0.009016882973512264 0 
0 0 1.192622389734055e-18 0 
0.1096903892176655 -0.1028027408322121 -0.01042583658623131 0 
0.05291881793596759 -0.04753858850130454 -0.009016882973512264 0 
0.05291881793596759 -0.04753858850130454 -0.009016882973512264 0 
0.05291881793596759 -0.04753858850130454 -0.009016882973512264 0 
0.001269398315610147 -0.01338138576138682 0 0 
0 0 0 0 
0 0 0 0 
0 0 0 0 
0 0 0 0 
0 0 0 0 
0.184452169390895 -0.1163699671141865 0 -0.04343273346915003 
0.2076212852630245 -0.008203844175861898 -4.644817755480228e-05 -0.1623397243631318 
0.09971508127600062 0 0 -0.0903403368618044 
-0.1559335008406526 0.1706517289141879 -0.03471229595705826 -0.002621471756076343 
-0.1559335008406526 0.1706517289141878 -0.03471229595705825 -0.002621471756076343 
-0.3233841640962369 0.3597098054220377 -0.04868816235480462 -0.002621471756076342 
-0.1559335008406526 0.1706517289141879 -0.03471229595705826 -0.002621471756076343 
-0.1559335008406526 0.1706517289141879 -0.03471229595705826 -0.002621471756076343 
-0.1559335008406526 0.1706517289141879 -0.03471229595705826 -0.002621471756076343 
0.02282009314791411 -0.02684461918399197 0 0 
0.02282009314791411 -0.02684461918399197 0 0 
0.03280273597489011 -0.04244597969033663 -0.001333612994416155 0 
0.122565857430804 -0.01771961738826938 0 -0.08445867709485211 
0.05849049202005241 -0.08007129418329764 0 0.05248230355999467 
0.003858359551939944 0 0 -0.004078122667017445 
-0.07496312765181228 0.05085821201589774 -0.05550186912447909 -0.00347662880914189 
-0.2204432592020487 0.1813425672633171 0 0 
-0.2204432592020487 0.2072577644925807 0 0 
-0.02103397851535406 0.01742726775035052 0 0 
-0.02103397851535406 0.01742726775035052 0 0 
-0.02103397851535406 0.01742726775035052 0 0 
-0.02103397851535406 0.01742726775035052 0 0 
-0.7606817036235396 0.7618778997200268 -0.0002569860504849713 -0.007176187244596626 
-0.03571028794036413 0.03433976647145778 -0.007229459866179242 0 
-0.03571028794036413 0.03433976647145778 -0.007229459866179242 0 
-0.2319740687427934 0.2597985562444253 -0.007229459866179242 -0.0110733498800678 
-0.3258530514987994 0.3004381330782139 -0.007229459866179242 0 
-0.05274995109199111 0.05625324900567205 0 -0.001090284786430616 
-0.05274995109199111 0.05625324900567205 0 -0.001090284786430616 
-0.3164067885321904 0 -0.008125349183701693 0.3404552516362385 
-0.3169166088457854 0 -0.01494515774574039 0.3404552516362385 
-0.3164067885321904 0 -0.008125349183701693 0.3404552516362385 
0 0 -0.01776223166522995 0 
0 0 -0.01776223166522995 0 
0.1132937073826507 -0.06860818695110564 -0.0009729211290175739 -0.01215224919504656 
0.1432997271792047 -0.10246799955504 -0.005206004835792966 -0.01215224919504656 
0.1132937073826507 -0.06860818695110564 -0.0009729211290175739 -0.01215224919504656 
0.1132937073826507 -0.06860818695110564 -0.0009729211290175739 -0.01215224919504656 
0.1378756330058329 -0.06860818695110563 -0.0009729211290175739 -0.1628888885598241 
0.1132937073826507 -0.06860818695110564 -0.0009729211290175739 -0.01215224919504656 
0.05934657668394942 -0.02971624087596047 -0.02161342544920434 -0.01159417870457589 
-0.03820723910010735 -0.02163152444760461 -0.04610447328444302 0.0854917349417231 
0.2985749822511222 -0.2489352822981788 -0.06166324371292189 -0.01507080751371778 
0.05934657668394942 -0.02971624087596047 -0.02161342544920434 -0.01159417870457589 
0.158042923952256 -0.05598806685373073 -0.03977283166204203 -0.06597780896406927 
0.2985749822511222 -0.2489352822981788 -0.06166324371292189 -0.01507080751371778 
0.06367096489762893 -0.06987131958248953 0 0 
0 0 0 0 
0.009465451018293594 -0.01439354498791543 0 0 
0.1147771597031025 -0.1013250854089324 0 -0.01940558885318058 
0.009465451018293594 -0.01439354498791543 0 0 
0.08722591606218014 -0.04557183542313854 -0.02625030223420567 0 
0.08722591606218014 -0.04557183542313854 -0.02625030223420567 0 
0.08722591606218014 -0.04557183542313854 -0.02625030223420567 0 
0.08722591606218014 -0.04557183542313854 -0.02625030223420567 0 
0.08722591606218014 -0.04557183542313854 -0.02625030223420567 0 
-0.20579553529726 0.2294427682851595 -0.03020560338981479 -0.01940558885318058 
0.071787237993533 -0.08889242420456041 0 0 
0.071787237993533 -0.08889242420456041 0 0 
0.071787237993533 -0.08889242420456041 0 0 
0.071787237993533 -0.08889242420456041 0 0 
0.071787237993533 -0.08889242420456041 0 0 
0.1122327823024351 -0.06448459526516329 -0.0131358070300996 -0.09826495543590705 
0.09465870848331384 -0.06448459526516326 -0.0131358070300996 -0.05685247359801708 
0.1122327823024351 -0.06448459526516326 -0.0131358070300996 -0.09154916895367504 
0.09465870848331384 -0.06448459526516326 -0.0131358070300996 -0.05685247359801708 
0.01890480156472025 0 0 -0.003763366225316294 
0.1470345923676439 -0.1170991191723686 -0.08159433595442654 -0.007533705122644954 
0.01890480156472025 0 -0.000816117077590084 -0.005503827576297874 
0.1620704603449915 -0.1135160610489199 -0.03468791912931592 -0.05305635565617275 
0.04245603291642826 -0.04985998646955728 0 0 
0.06474004056991595 -0.04985998646955728 -0.002173411743900938 0 
0.06732268889935092 -0.06408111620702532 -0.01160617139592769 0 
0.04245603291642826 -0.04985998646955728 0 0 
0.0938789827560061 -0.04063957683378859 0 -0.0110733498800678 
0.0938789827560061 -0.04063957683378859 0 -0.0110733498800678 
0.0938789827560061 -0.04063957683378859 0 -0.0110733498800678 
0.0117775215299632 0 -0.029856734964338 0 
0.0117775215299632 0 -0.029856734964338 0 
0.07602831509393185 -0.008406708442586728 -0.03452616762913052 -0.07636489367094884 
0.0117775215299632 0 -0.029856734964338 0 
0.05752552197274952 -0.06423331723633947 0 0 
0.04385383400785585 -0.04736104017735561 0 0 
0.04385383400785585 -0.04736104017735561 0 0 
0.04385383400785585 -0.04736104017735561 0 0 
0.04385383400785585 -0.04736104017735561 0 0 
0 8.565197162635485e-18 -0.009432759652026744 0 
0.0973992614169582 -0.08506442028965244 -0.01951711377989311 0 
0 8.565197162635485e-18 -0.009432759652026744 0 
0 0 0 0 
0.1125816873135007 -0.08506442028965244 -0.02289969417045039 0 
0 0 -0.001105693035695492 0 
0 0 -0.001105693035695492 0 
0 0 -0.00144190654533296 0 
0 0 -0.00144190654533296 0 
0 0 -0.00144190654533296 0 
0.06130462056355579 -0.0538993508538945 -0.01951711377989311 0 
0.06130462056355579 -0.0538993508538945 -0.01951711377989311 0 
0.06130462056355579 -0.0538993508538945 -0.01951711377989311 0 
0.06130462056355579 -0.0538993508538945 -0.01951711377989311 0 
0.0973992614169582 -0.08506442028965244 -0.01951711377989311 0 
0.06130462056355579 -0.0538993508538945 -0.01951711377989311 0 
0.2140385547518798 -0.1203038548127317 -0.01475281344010163 -0.08435299392391687 
-0.1218755639351196 0.1569692023504985 -0.02691893973956429 -0.03641446815181892 
0.1652339410583709 -0.1203038548127317 0 -0.03641446815181892 
0.1652339410583709 -0.1203038548127317 0 -0.03641446815181892 
0.02167918856162568 0.01833267376888345 -0.01345946986978215 -0.03641446815181892 
0.1652339410583709 -0.1203038548127317 0 -0.03641446815181892 
0.01518242589654248 0 -0.003382580390557282 0 
0.01518242589654248 0 -0.003382580390557282 0 
0.01518242589654248 0 -0.003382580390557282 0 
0 0 -0.001615926752667616 0 
0 0 -0.001615926752667616 0 
-0.0201275856897771 0.07046812218807863 -0.02150184396719791 -0.07244839675584479 
0.1391147331230073 -0.08007129418329764 0 -0.07244839675584479 
0.1391147331230073 -0.08007129418329764 0 -0.07244839675584479 
0.1391147331230073 -0.08007129418329764 0 -0.07244839675584479 
-0.1536196900213446 0 0 0.1243439089348898 
-0.1536196900213446 0 0 0.1243439089348898 
0.07451339181093808 -0.1010540502488541 0 0 
0.07451339181093808 -0.1010540502488541 0 0 
0.07451339181093808 -0.1010540502488541 0 0 
0.03980045002566327 0 -0.000774757672273506 -0.06543400031273758 
0.1187074978788641 -0.01771961738826938 0 -0.08038055442783465 
0.1187074978788641 -0.01771961738826938 0 -0.08038055442783465 
0 0 -0.0001774011118205131 -0.0191324168896599 
0.03445163672382899 0 -0.0001774011118205131 -0.04852940527943454 
0 0 -0.0001774011118205131 -0.0191324168896599 
0 0 -0.0001774011118205131 -0.0191324168896599 
0.05875043320117325 0.01233813566503879 -0.01841639226332266 -0.05438363025949337 
0.0986963472683066 -0.02627182597777023 -0.01815940621283769 -0.05438363025949337 
0.0986963472683066 -0.02627182597777023 -0.01815940621283769 -0.05438363025949337 
-0.05256002396814274 0.09009052483152559 -0.01522178994197627 0 
-0.1674506632555842 0.1890580765078498 -0.01397586639774637 0 
-0.1674506632555842 0.1890580765078498 -0.01397586639774637 0 
-0.1674506632555842 0.1890580765078498 -0.01397586639774637 0 
-0.1674506632555842 0.1890580765078498 -0.01397586639774637 0 
0.08958752246751155 -0.1043749833040404 0 0 
0.08958752246751155 -0.1043749833040404 -0.0005749377236677046 -0.002596649762137079 
-0.1106492238006578 0.1004336557921476 0 -0.01396214512326267 
0 0 0 -0.01396214512326267 
0 0 0 -0.01396214512326267 
0 0 0 -0.01396214512326267 
-0.01332058782500042 0.01922758975270111 -0.001110422125800527 -0.01396214512326267 
0.06029613472181176 -0.04943494484189467 -0.02290434662156772 -0.00452695037673823 
0.07221315191815636 -0.07024526326057254 -0.02290434662156772 -0.00452695037673823 
0.06029613472181176 -0.04943494484189467 -0.02290434662156772 -0.00452695037673823 
0.1333292787398772 -0.1255636514401877 -0.02536971102422756 -0.008621207560528961 
0.06029613472181176 -0.04943494484189467 -0.02290434662156772 -0.00452695037673823 
0.06029613472181176 -0.04943494484189467 -0.02290434662156772 -0.00452695037673823 
-0.1855518351188264 -6.938893903907228e-18 0 0.04501241654602428 
-0.07174920544693822 0.06850123033556525 0 0 
-0.02290360176513362 0.02099282062410374 0 0 
-0.02290360176513362 0.02099282062410374 0 0 
-0.02290360176513362 0.02099282062410374 0 0 
-0.1792653182219318 0.168809027420403 0 0 
-0.1792653182219318 0.168809027420403 0 0 
0 0 0 0 
0 0 0 0 
0 0 0 0 
0 0 0 0 
0 0 0 -0.0004535087725747892 
0 0 0 -0.0004535087725747892 
0 0 0 0 
0 0 0 0 
0 0 0 0 
0 0 0 0 
0 0 0 0 
0.1721616241368638 -0.1626384124498185 -0.007324309821741476 0 
0 0 0 0 
0 0 0 0 
0 0 0 0 
0 0 0 0 
0.01452628954592919 -0.0105708061145866 -0.005621937530292923 0 
0 0 0 0 
0.06920232527873359 -0.0530664585704328 0 0 
0.06920232527873359 -0.0530664585704328 0 0 
-0.05225211919609273 0.07559964301366501 -0.001110422125800527 0 
0.06920232527873359 -0.0530664585704328 0 0 
0.1024201613604495 -0.1215974401190904 -0.004702318716456247 0 
0.06920232527873359 -0.0530664585704328 0 0 
0.06920232527873359 -0.0530664585704328 0 0 
0.02563613740696681 -0.06853098154865761 0 0 
0.1327950510302181 -0.1116991122018579 0 -0.01596863587046019 
0.02563613740696681 -0.06853098154865761 0 0 
0.007581698674749129 0 -0.002957245017014124 0 
0.007581698674749129 0 -0.002957245017014124 0 
0.007581698674749129 0 -0.002957245017014124 0 
0.007581698674749129 0 -0.002957245017014124 0 
0.07480356783108093 -0.06983353263907541 -0.01974270528130772 0 
0.1808553856084759 -0.1334292032035239 -0.04300837286583684 -0.02694187169666531 
0.07480356783108093 -0.06983353263907541 -0.01974270528130772 0 
0.07480356783108093 -0.06983353263907541 -0.01974270528130772 0 
0.104863461135714 -0.07357935655708729 -0.01974270528130772 -0.02546876116090248 
0.07480356783108093 -0.06983353263907541 -0.01974270528130772 0 
0.009982642826976005 -0.01560136050634467 -0.001333612994416155 0 
0.009982642826976005 -0.01560136050634467 -0.001333612994416155 0 
0.03873136477224774 0 0 -0.02149114858301512 
-0.3015993956770954 0.2906950725003138 0 0 
-0.3015993956770954 0.2906950725003138 0 0 
-0.3015993956770954 0.2906950725003138 0 0 
-0.2265311324312747 0.3044730966129702 -0.04595241805756885 -0.07199938750132741 
-0.1751950176055143 0.1621375244174558 -0.02440412591281614 0 
-0.1751950176055143 0.1621375244174558 -0.02440412591281614 0 
-0.1751950176055143 0.1621375244174558 -0.02440412591281614 0 
-0.1751950176055143 0.1621375244174558 -0.02440412591281614 0 
0.02927375348013173 -0.01420114354182259 0 -0.01895586197901366 
0.1911714058724148 -0.161427621762697 -0.004586750789756389 -0.01895586197901366 
-0.005705835233008966 0.05602251758842233 0 -0.01895586197901366 
0.1246297928602522 -0.08432583826772234 0 -0.01895586197901366 
0.1045736252576094 -0.08879087064046617 -0.02796672781898961 -4.336808689942018e-19 
0.1045736252576094 -0.08879087064046617 -0.02796672781898961 -4.336808689942018e-19 
0.03819586308119566 -0.01322093795184542 -0.01798402267642474 0 
0.03321624246731999 -0.0554745454712531 -0.01097750160701006 0.01834216955265541 
-0.03016620407597729 0 -0.003360668294587509 0.01834216955265541 
-0.007184789611239677 0 0 -0.006085902458166002 
-0.007184789611239677 0 0 -0.006085902458166002 
-0.007184789611239677 0 0 -0.006085902458166002 
0.06654161301216262 -0.07710178349497461 -0.004586750789756389 0 
0.06654161301216262 -0.0771017834949746 -0.004586750789756389 0 
0.06654161301216262 -0.07710178349497461 -0.004586750789756389 0 
0.06654161301216262 -0.07710178349497461 -0.004586750789756389 0 
0 0 -0.0005749377236677046 0 
0 0 0 0 
-0.05871624945424518 0.06689608304863791 -0.009060228881171924 0 
0 0 0 0 
0 0 0 0 
0 0 0 0 
-0.09749314923136611 0.1132675630839655 -0.009060228881171924 -0.002811831495848406 
-0.03877689977712095 0.04637148003532755 0 -0.002811831495848406 
0.03497958871314071 -0.07022366113024493 0 0 
0.3485290533691942 -0.301829872244086 0 -0.018241372679921 
0.03497958871314071 -0.07022366113024493 0 0 
0.03497958871314071 -0.07022366113024493 0 0 
-0.08630482088137101 0.1513720745791973 -0.002998874655249745 -0.02758726116294191 
0.08587213024682692 -0.02255783417568608 0 -0.02758726116294191 
0.08587213024682691 -0.01881201025767419 0 -0.02758726116294191 
0.08587213024682691 -0.01881201025767419 0 -0.02758726116294191 
0.08587213024682691 -0.01881201025767419 0 -0.02758726116294191 
0 0 -0.001745073699442122 0 
0 0 -0.001745073699442122 0 
0 0 -0.001745073699442122 0 
0 0 -0.001745073699442122 0 
0.02458192562318226 0 0 -0.1507366393647775 
-0.1735004622945998 0.1965570693012069 -0.005756703898733291 -0.01573760239546807 
-0.1735004622945998 0.1965570693012069 -0.005756703898733291 -0.01573760239546807 
-0.1735004622945998 0.1965570693012069 -0.005756703898733291 -0.01573760239546807 
-0.1735004622945998 0.1965570693012069 -0.005756703898733291 -0.01573760239546807 
-0.1735004622945998 0.1965570693012069 -0.005756703898733291 -0.01573760239546807 
-0.1735004622945998 0.1965570693012069 -0.005756703898733291 -0.01573760239546807 
-0.01336227821257618 0.008707481425363286 0 0 
-0.01336227821257618 0.008707481425363286 0 0 
-0.01336227821257618 0.008707481425363286 0 0 
-0.01336227821257618 0.008707481425363286 0 0 
-0.04884560368180463 0.04750840971146161 0 0 
0.1499606510273978 -0.1161114076375685 0 -0.03960477327683355 
0.1499606510273978 -0.1161114076375685 0 -0.03960477327683355 
0.1499606510273978 -0.1161114076375685 0 -0.03960477327683355 
0.1499606510273978 -0.1161114076375685 0 -0.03960477327683355 
0.1499606510273978 -0.1161114076375685 0 -0.03960477327683355 
-0.1652434314536593 0.1932692220237238 -0.005801477476998646 0 
-0.1652434314536593 0.1932692220237238 -0.005801477476998646 0 
-0.1652434314536593 0.1932692220237238 -0.005801477476998646 0 
0.008030924173027233 0.01372436838420686 -0.01571452739892661 -0.008865317105530231 
-0.1652434314536593 0.1932692220237238 -0.005801477476998646 0 
-0.1652434314536593 0.1932692220237238 -0.005801477476998646 0 
0 0 0 0 
0 0 0 0 
0.01781542799826063 0 0 0 
0 0 0 0 
0 4.336808689942018e-18 0 0 
-0.00829549559952817 0.06289089757266744 -0.004754859201800066 -0.05346095231197046 
0 4.336808689942018e-18 0 0 
0 0 0 0 
0 0 0 0 
0 0 0 0 
0 0 0 0 
0 0 0 0 
0 0 0 0 
0 0 0 0 
0 0 0 0 
0 0 2.168404344971009e-19 0 
0 0 0 0 
0 0 0 0 
0 0 -0.002969978341834728 -0.0008282189297291871 
0 0 0 0 
0 0 0 0 
0 0 0 0 
0 0 0 0 
0.03160122932655313 -0.008406708442586716 -0.004669432664792524 -0.01997699744465671 
0 0 0 0 
0.03000601979655407 -0.03385981260393435 -0.004233083706775392 0 
0 0 0 0 
0.03000601979655407 -0.03385981260393435 -0.004233083706775392 0 
0.03000601979655407 -0.03385981260393435 -0.004233083706775392 0 
0.03000601979655407 -0.03385981260393435 -0.004233083706775392 0 
0.03000601979655407 -0.03385981260393435 -0.004233083706775392 0 
0 1.084202172485504e-19 0 0 
0 0 0 0 
0 0 0 0 
0 0 0 0 
0.2064120816961125 -0.2077119744576809 0 0 
-0.00829549559952817 0.06289089757266744 -0.004754859201800066 -0.05346095231197046 
-0.00829549559952817 0.06289089757266744 -0.004754859201800066 -0.05346095231197046 
-0.00829549559952817 0.06289089757266744 -0.004754859201800066 -0.05346095231197046 
-0.00829549559952817 0.06289089757266744 -0.004754859201800066 -0.05346095231197046 
-0.1303356280932612 0.1403483558561447 0 0 
-0.2738903805900064 0.2789848844377597 -0.01345946986978215 0 
-0.1303356280932612 0.1403483558561447 0 0 
-0.1303356280932612 0.1403483558561447 0 0 
0.07599192447276185 -0.05984984664643666 -0.02326566758452911 -0.001473110535762835 
0.07599192447276185 -0.05984984664643666 -0.02326566758452911 -0.001473110535762835 
0.07599192447276185 -0.05984984664643666 -0.02326566758452911 -0.001473110535762835 
0.07599192447276185 -0.05984984664643666 -0.02326566758452911 -0.001473110535762835 
0.07599192447276185 -0.05984984664643666 -0.02326566758452911 -0.001473110535762835 
-0.12324450730556 -0.04906243566040725 0.1788552731082066 0 
-0.12324450730556 -0.04906243566040725 0.1788552731082066 0 
-0.12324450730556 -0.04906243566040725 0.1788552731082066 0 
-0.12324450730556 -0.04906243566040725 0.1788552731082066 0 
-0.12324450730556 -0.04906243566040725 0.1788552731082066 0 
0.03609464085340239 -0.03116506943575794 0 0 
0.03609464085340239 -0.03116506943575794 0 0 
0 -0.01389135116327648 0 0 
0 -0.01389135116327648 0 0 
0.09732863597565733 -0.08120606603944654 -0.001110422125800527 0 
0.09732863597565733 -0.08120606603944654 -0.001110422125800527 0 
0.09732863597565733 -0.08120606603944654 -0.001110422125800527 0 
0.09732863597565733 -0.08120606603944654 -0.001110422125800527 0 
0.09732863597565733 -0.08120606603944654 -0.001110422125800527 0 
0.02620916873837109 -0.006606100053328342 -0.01111251476091717 0 
0.02620916873837109 -0.006606100053328342 -0.01111251476091717 0 
0.02620916873837109 -0.006606100053328342 -0.01111251476091717 0 
0.02620916873837109 -0.006606100053328342 -0.01111251476091717 0 
-0.0451505143695807 0.04962009892988354 -0.01111251476091717 0 
-0.0005098203135948639 0 -0.006819808562038704 0 
0.06617410904422889 -0.04861286507103221 -0.01397233228841928 -0.006864660045572265 
-0.09192804108523354 0.09794668647217331 -0.01397233228841928 -0.003183813193399341 
-0.09192804108523354 0.09794668647217331 -0.01397233228841928 -0.003183813193399341 
-0.09192804108523354 0.09794668647217331 -0.01397233228841928 -0.003183813193399341 
0 0 0 0 
0 0 0 0 
0 0 0 0 
0 0 0 0 
0 0 0 0 
0 0 0 0 
0 0 0 0 
0 0 0 0 
0 0 0 0 
0 0 0 0 
0 0 0 0 
0 0 -0.002969978341834728 -0.0008282189297291871 
0 0 0 0 
0 0 0 0 
0.09448533173316552 -0.0604556406603363 -0.0376744546547832 -0.001562310700002294 
0.02232765262254562 -0.0222828015020749 -0.01927542493971613 0 
0.09448533173316552 -0.06045564066033631 -0.0376744546547832 -0.001562310700002294 
0 0 0 0 
0 0 0 0 
0.0586586257485938 -0.0350419923578574 0 0 
0.0586586257485938 -0.0350419923578574 0 0 
0 0 0 0 
0 0 0 0 
0 0 0 0 
0 0 0 0 
0 0 0 0 
0 0 0 0 
0 0 0 0 
0 0 0 0 
0 0 0 0 
0 0 0 0 
0 0 0 0 
0 0 0 0 
0.06963931397437975 -0.03225624483651368 0 -0.0472631452713617 
0.06963931397437975 -0.03225624483651368 0 -0.0472631452713617 
0.06963931397437975 -0.03225624483651368 0 -0.0472631452713617 
0.06963931397437975 -0.03225624483651368 0 -0.0472631452713617 
0.06963931397437975 -0.03225624483651368 0 -0.0472631452713617 
-0.2809616327082811 0.2684658859938334 -0.01832062045954233 0 
-0.2809616327082811 0.2684658859938334 -0.01832062045954233 0 
-0.2809616327082811 0.2684658859938334 -0.01832062045954233 0 
0 -0.0008207222082423963 0 0 
0 -0.0008207222082423963 0 0 
0 -0.0008207222082423963 0 0 
0.06446132261421912 -0.06479390642084575 -0.0110931679934706 -0.001379809267597189 
0.06446132261421912 -0.06479390642084575 -0.0110931679934706 -0.001379809267597189 
0.06446132261421912 -0.06479390642084575 -0.0110931679934706 -0.001379809267597189 
0.06446132261421912 -0.06479390642084575 -0.0110931679934706 -0.001379809267597189 
0.01452628954592919 -0.0105708061145866 -0.005621937530292923 0 
0.01452628954592919 -0.0105708061145866 -0.005621937530292923 0 
0.01452628954592919 -0.0105708061145866 -0.005621937530292923 0 
0.01452628954592919 -0.0105708061145866 -0.005621937530292923 0 
0.01452628954592919 -0.0105708061145866 -0.005621937530292923 0 
0.04950656300393907 -0.02882533694308281 -0.004164914827625003 0 
0.04950656300393907 -0.02882533694308281 -0.004164914827625003 0 
0.04950656300393907 -0.02882533694308281 -0.004164914827625003 0 
0.04950656300393907 -0.02882533694308281 -0.004164914827625003 0 
0 0 0 0 
-0.1238584520074644 0.1623810489064095 -0.008559336234158993 0 
-0.04059911469368073 0.04314699157031768 0 0 
-0.1238584520074644 0.1623810489064095 -0.008559336234158993 0 
-0.04059911469368073 0.04314699157031768 0 0 
-0.08325933731378365 0.1192340573360918 -0.008559336234158993 0 
-0.08325933731378365 0.1192340573360918 -0.008559336234158993 0 
-0.1721769511281979 0.1701840848368715 -0.002998874655249745 0 
-0.1721769511281979 0.1701840848368715 -0.002998874655249745 0 
-0.1721769511281979 0.1701840848368715 -0.002998874655249745 0 
0.2803410205590352 -0.2643678861772291 -0.02236304955796291 -0.003814077638896641 
0.1581021501294624 -0.1465595515432055 0 -0.003680846852172926 
0.1581021501294624 -0.1465595515432055 0 -0.003680846852172926 
0.1581021501294624 -0.1465595515432055 0 -0.003680846852172926 
0.1581021501294624 -0.1465595515432055 0 -0.003680846852172926 
0 0 0 0 
0.1222388704295727 -0.1178083346340235 -0.02236304955796291 -0.0001332307867237099 
0 0 0 0 
0 0 0 0 
-0.1592423188127844 0.1505394163713763 -0.02150184396719791 0 
-0.1592423188127844 0.1505394163713763 -0.02150184396719791 0 
-0.1592423188127844 0.1505394163713763 -0.02150184396719791 0 
-0.1592423188127844 0.1505394163713763 -0.02150184396719791 0 
-0.1592423188127844 0.1505394163713763 -0.02150184396719791 0 
0 0 -0.005218259181394069 0 
0 0 -0.005218259181394069 0 
0.02823756390472246 0 0 -0.0364781704965591 
0.02823756390472246 0 0 -0.0364781704965591 
0.0488046136935089 0 -0.01475281344010163 -0.04793852577209794 
0.0488046136935089 0 -0.01475281344010163 -0.04793852577209794 
0.0488046136935089 0 -0.01475281344010163 -0.04793852577209794 
-0.3462766341109322 0 0 0.3037806260509399 
-0.3462766341109322 0 0 0.3037806260509399 
-0.3462766341109322 0 0 0.3037806260509399 
-0.05186293126347795 0.0594202800614869 -0.0002569860504849713 0 
-0.05186293126347795 0.0594202800614869 -0.0002569860504849713 0 
-0.05186293126347795 0.0594202800614869 -0.0002569860504849713 0 
-0.2187830804504836 0.2098721676235444 0 0 
0.06338244654329726 -0.0554745454712531 -0.00761683331242255 0 
0.06338244654329726 -0.0554745454712531 -0.00761683331242255 0 
0.06338244654329728 -0.0554745454712531 -0.00761683331242255 0 
0.06868858847804252 -0.07607447074958545 -0.001408953612719051 0 
0 0 0 0 
0 -0.003745823918011891 0 0 
0 -0.003745823918011891 0 0 
0 -0.003745823918011891 0 0 
0.1508819187044455 -0.1462823060039479 0 0 
0.1508819187044455 -0.1462823060039479 0 0 
0.1508819187044455 -0.1462823060039479 0 0 
0.07303314401806546 -0.07612870659829307 -0.002465364402659837 -0.00409425718379073 
0.07303314401806546 -0.07612870659829307 -0.002465364402659837 -0.00409425718379073 
-0.03877689977712095 0.04637148003532755 0 -0.002811831495848406 
-0.03877689977712095 0.04637148003532755 0 -0.002811831495848406 
-0.03877689977712095 0.04637148003532755 0 -0.002811831495848406 
0.02486665598292262 -0.01422112973746802 -0.002173411743900939 0 
0 0 0 0 
0 0 0 0 
0.03445163672382898 0 0 -0.02939698838977464 
0.002582648329434938 -0.01422112973746803 0 0 
0.02486665598292262 -0.01422112973746802 -0.002173411743900939 0 
0.002582648329434938 -0.01422112973746803 0 0 
0 0 0 0 
0.02228400765348769 0 -0.002173411743900938 0 
0.05751880385131799 -0.03204412884646411 0 -0.02067695618545489 
0.05751880385131799 -0.03204412884646411 0 -0.02067695618545489 
0.03980045002566328 0 -0.0007747576722735054 -0.03210311248139413 
-0.03956567734439467 -0.07554516097930974 0 0.1324572474751682 
0.1285623272523352 -0.1158398287353081 -0.001245923544229898 0 
0.1148906392874415 -0.09896755167632419 -0.001245923544229899 0 
0.01394138894926229 -0.01170228870885379 -0.004733907226766022 0 
0.1148906392874415 -0.09896755167632419 -0.001245923544229899 0 
0.1148906392874415 -0.09896755167632419 -0.001245923544229899 0 
0.01191701719634461 -0.02081031841867787 0 0 
0.06868858847804252 -0.07607447074958545 -0.001408953612719051 0 
0.01191701719634461 -0.02081031841867786 0 0 
-0.05871624945424518 0.06689608304863791 -0.009060228881171924 0 
-0.05871624945424518 0.06689608304863791 -0.009060228881171924 0 
0 0 0 -0.03333088783134348 
0.01757407381912121 0 0 -0.03469669535565795 
0.01757407381912121 0 0 -0.03469669535565795 
0.01757407381912121 0 0 -0.03469669535565795 
0.1210223648456666 -0.06367086077349428 -0.006078386277511575 -0.04303400583960534 
0.05727098484942236 -0.06367086077349428 -0.006078386277511575 0 
0.05727098484942236 -0.06367086077349428 -0.006078386277511575 0 
0.05677157128169792 -0.05526415233090758 -0.00140895361271905 0 
0.06375137999624425 0 0 -0.04303400583960534 
0.01781542799826063 0 0 0 
-0.01150962564920987 0.009384414652121371 0 0 
-0.01150962564920987 0.009384414652121371 0 0 
-0.01150962564920987 0.009384414652121371 0 0 
-0.01150962564920987 0.009384414652121371 0 0 
0.1707618797554047 -0.04527539812732154 -4.644817755480217e-05 -0.09140497635450796 
0.107906203987024 -0.008203844175861898 -4.644817755480217e-05 -0.07199938750132741 
0 0 -0.000816117077590084 -0.00174046135098158 
0 0 -0.000816117077590084 -0.00174046135098158 
0.02639005612152189 -0.01006761812951452 -0.04121821016463133 0 
0.02639005612152189 -0.01006761812951452 -0.04121821016463133 0 
0.02639005612152189 -0.01006761812951452 -0.04121821016463133 0 
0.02639005612152189 -0.01006761812951452 -0.04121821016463133 0 
0.06637776217641374 -0.07556993268862072 0 0 
-0.07135968310795179 0.0562261989832119 0 0 
-0.07135968310795179 0.0562261989832119 0 0 
-0.07135968310795179 0.0562261989832119 0 0 
-0.07135968310795179 0.0562261989832119 0 0 
0.03110181575882868 0 0 -0.01997699744465671 
0.03110181575882868 0 0 -0.01997699744465671 
0.03110181575882868 0 0 -0.01997699744465671 
0 0 0 0 
0.04593595199798362 0 0 -0.04303400583960534 
0 -0.003071134466322062 -0.008963451929975105 0 
0 -0.003071134466322062 -0.008963451929975105 0 
0 -0.003071134466322062 -0.008963451929975105 0 
0 -0.003071134466322062 -0.008963451929975105 0 
0 -0.003071134466322062 -0.008963451929975105 0 
0 -0.003071134466322062 -0.008963451929975105 0 
0.0004994135677244187 -0.008406708442586716 -0.004669432664792524 0 
0.01763389797451806 -0.01150706696453739 -0.03139800455482961 -0.00347662880914189 
0 0 0 0 
0 0 0 0 
0 0 0 0 
0 0 0 0 
0.0350355484515694 -0.00651065246093582 -0.01301958844468778 -0.02591099954166449 
0.0350355484515694 -0.00651065246093582 -0.01301958844468778 -0.02591099954166449 
0.0350355484515694 -0.00651065246093582 -0.01301958844468778 -0.02591099954166449 
0.0350355484515694 -0.00651065246093582 -0.01301958844468778 -0.02591099954166449 
0.0350355484515694 -0.00651065246093582 -0.01301958844468778 -0.02591099954166449 
0.06584437620335794 -0.07451310819017318 0 0 
0 0 0 0 
0.06584437620335794 -0.07451310819017318 0 0 
0.06584437620335794 -0.07451310819017318 0 0 
0.06584437620335794 -0.07451310819017318 0 0 
0.06584437620335794 -0.07451310819017318 0 0 
0.06584437620335794 -0.07451310819017318 0 0 
0.03005989330463305 0 0 -0.01875297467867044 
0.03005989330463305 0 0 -0.01875297467867044 
0 0 0 0 
0 0 0 0 
0 0 0 0 
0 0 0 0 
0.04964936428208045 -0.05743288006792276 -0.001534225817881744 0 
0.04964936428208045 -0.05743288006792276 -0.001534225817881744 0 
0.04964936428208045 -0.05743288006792276 -0.001534225817881744 0 
-0.0001365138074595418 0 -0.004378818434940385 0.02314164359101527 
-0.0001365138074595418 0 -0.004378818434940385 0.02314164359101527 
0 0 0 0 
0 0 0 0 
0 0 0 0 
0 0 0 0 
0 0 0 0 
0.00969997346247854 -0.01316839282467724 -0.003487983682536123 0 
0.00969997346247854 -0.01316839282467724 -0.003487983682536123 0 
0.00969997346247854 -0.01316839282467724 -0.003487983682536123 0 
0 0 0 0 
0 0 0 0 
0 -8.673617379884035e-19 0 0 
0.003918887891068518 -0.0008261914978612171 0 0 
0.003918887891068518 -0.0008261914978612171 0 0 
0.01367168796489366 -0.01687227705898387 0 0 
0.01367168796489366 -0.01687227705898387 0 0 
0.01367168796489366 -0.01687227705898387 0 0 
0.01367168796489366 -0.01687227705898387 0 0 
0.001185087001405536 -0.004636786217627924 0 0 
0.001185087001405536 -0.004636786217627924 0 0 
0.001185087001405536 -0.004636786217627924 0 0 
0.001185087001405536 -0.004636786217627924 0 0 
0.001185087001405536 -0.004636786217627924 0 0 
0 0 -0.004764445961170797 0 
0 0 -0.004764445961170797 0 
0 0 0 -0.006715786482232043 
0 0 0 -0.006715786482232043 
0 0 0 0 
0 0 0 0 
-0.1234630693732719 0.1284807050111471 0 -0.007877030721182107 
-0.1234630693732719 0.1284807050111471 0 -0.007877030721182107 
-0.1234630693732719 0.1284807050111471 0 -0.007877030721182107 
-0.1234630693732719 0.1284807050111471 0 -0.007877030721182107 
-0.1234630693732719 0.1284807050111471 0 -0.007877030721182107 
-0.1234630693732719 0.1284807050111471 0 -0.007877030721182107 
0.06285567576838068 -0.03707155395145964 0 -0.01940558885318058 
0.3135494646560535 -0.231606211113841 0 -0.018241372679921 
0.1222388704295727 -0.1178083346340235 -0.02236304955796291 -0.0001332307867237133 
-0.07590287878126444 0.08710459501613801 -0.01672074192062855 -0.009018397157217476 
-0.07590287878126444 0.08710459501613801 -0.01672074192062855 -0.009018397157217476 
-0.07590287878126444 0.08710459501613801 -0.01672074192062855 -0.009018397157217476 
-0.07590287878126444 0.08710459501613801 -0.01672074192062855 -0.009018397157217476 
-0.07590287878126444 0.08710459501613801 -0.01672074192062855 -0.009018397157217476 
-0.07590287878126444 0.08710459501613801 -0.01672074192062855 -0.009018397157217476 
-0.03313772606942595 0.02816712081816397 -0.009913049921927965 -0.008865317105530231 
-0.03313772606942595 0.02816712081816397 -0.009913049921927965 -0.008865317105530231 
0 0 0 0 
0 0 0 -0.009531509163544097 
0 0 0 -0.009531509163544097 
0 0 0 -0.009531509163544097 
-0.1435547524967452 0.1386365285816152 -0.01345946986978215 0 
-0.1435547524967452 0.1386365285816152 -0.01345946986978215 0 
-0.1435547524967452 0.1386365285816152 -0.01345946986978215 0 
-0.1435547524967452 0.1386365285816152 -0.01345946986978215 0 
-0.1106492238006578 0.1004336557921476 0 0 
-0.1582731752232588 -0.05782554359104035 0 0.2128378019030029 
0.1071589136232513 -0.04316813065320026 0 -0.01596863587046019 
0.1071589136232513 -0.04316813065320026 0 -0.01596863587046019 
0.1071589136232513 -0.04316813065320026 0 -0.01596863587046019 
0.1071589136232513 -0.04316813065320026 0 -0.01596863587046019 
0 0 0 0 
0 0 0 0 
0.04974475762430561 -0.04704538790533754 0 0 
0.04974475762430561 -0.04704538790533754 0 0 
0.04974475762430561 -0.04704538790533754 0 0 
0.04974475762430561 -0.04704538790533754 0 0 
0.04974475762430561 -0.04704538790533754 0 0 
0 0 0 0 
0 0 0 0 
0 0 0 0 
