solver_type L2R_L2LOSS_SVC_DUAL
nr_class 4
label 1 2 3 4
nr_feature 1780
bias -1
w
0.1423535055831017 -0.04980606654329492 -0.07685712674960875 -0.041625873555017 
-0.04026157350649821 -0.09525007347531569 0.1175426140341148 -0.01147522870696488 
0.04748124422028695 -0.2269977667152522 -0.1836018508285766 -0.320508555719365 
0.1122199616252382 -0.04811672932485681 -0.06264765661324928 -0.006885401396111558 
0.1122199616252382 -0.04811672932485681 -0.06264765661324928 -0.006885401396111558 
0.1122199616252382 -0.04811672932485681 -0.06264765661324928 -0.006885401396111558 
0.1122199616252382 -0.04811672932485681 -0.06264765661324928 -0.006885401396111558 
0.1122199616252382 -0.04811672932485681 -0.06264765661324928 -0.006885401396111558 
0.1122199616252382 -0.04811672932485681 -0.06264765661324928 -0.006885401396111558 
0.04748124422028695 -0.2269977667152522 -0.1836018508285766 -0.320508555719365 
-0.04829081898515283 0.05345622684433787 -0.01048447828124842 -0.1146735864893399 
0.06959808834317943 -0.05967200712678532 -0.1292628224293899 -0.03592682218143627 
0.04726244355450631 -0.07788208303870046 -0.1205908234427928 -0.1108516407742296 
-0.03218489599621174 0.001434832764530165 0.005034356172998872 -0.03457463968583187 
-0.6179212477241987 0.7650158237739222 -0.1942735634575007 -0.09188623894604633 
0.08164390149578281 -0.02313521538351647 -0.06602639274715519 -0.05432698957452996 
-0.006049628940517891 0.02136510509291535 -0.06097733582880091 -0.009974809567820715 
-0.1084048874749094 0.1042436604477085 -0.02729861306797853 -0.006905014410963738 
-0.6179212477241987 0.7650158237739222 -0.1942735634575007 -0.09188623894604633 
-0.01674659334485145 0.006700717713989137 -0.01929385887776827 -0.0360873989969262 
-0.09200644820925764 0.02620268457605884 0 0 
0.2195059125109376 -0.07705955813099136 -0.3072269544280589 -0.04327416258600525 
0.004028867850414633 -0.0121011776113754 0 0 
0.3453586470242863 -0.1986965089964275 -0.1609875470151309 -0.0120792641532385 
0.02665988945708905 -0.00428289812375613 -0.01606174477806952 -0.01227334132133489 
0.05352731074176335 -0.0347073250335448 -0.02004765708067249 -0.00110574536572663 
0.004028867850414633 -0.0121011776113754 0 0 
0.2634807426651756 -0.1500292818701155 -0.1352434500781116 -0.0120792641532385 
0.004039754468488684 0.01087964535469008 -0.005692391714012565 -0.01050226817036929 
0.02904844601910629 -0.01948287525137466 -0.005692391714012565 0 
0.04608052285908253 -0.02436684686868589 -0.05755819224699219 -0.01843984510191147 
0.003349723820718805 0.01359392065446786 -0.02018869044839047 -0.1762049296617122 
0.003347011342429795 0.02904188026263077 -0.05075833566686482 -0.05789139129767586 
0 0 0 0 
0 0 0 0 
0.2643179311364822 -0.1387485384283988 -0.108465325570994 -0.04162738612098686 
0.0357171214434579 -0.04650850385645638 -0.02266982279399583 -0.01099725782681949 
0 0 0 0 
0 0 0 0 
0.2643179311364822 -0.1387485384283988 -0.108465325570994 -0.04162738612098686 
0 0 0 0 
-0.1127437187926254 0.06731103269837302 0.08429531496880398 -0.02933926716708105 
0.07283964356469899 -0.04773701568995136 -0.04429837342271684 -0.03611267235807225 
0.148343563339169 -0.1525880523461259 0.0359266846673359 -0.04170365755669919 
0.03393863100521018 -0.0120260673115408 -0.02007070190321813 -0.00387620534001499 
0 0 0 0 
0.02789648271201218 -0.01493778849587311 -0.01830867192512538 0 
0.3946220313867158 -0.2035169279338136 -0.2041435342161991 -0.1157387651263279 
0.047929118620536 -0.0467403873564243 -0.0178946085134244 -0.005820592827384076 
0 0 0 0 
0 0 0 0 
0.3998778937861599 -0.246128341006685 -0.198948963405639 -0.1141716794298843 
-6.938893903907228e-18 -0.005413853748391697 0 -0.005820592827384072 
0 0 0 0 
-0.02555028297739204 0.004970541531971425 0 0 
-0.1387359576327712 0.1354257318020141 0 0 
-0.02555028297739204 0.004970541531971425 0 0 
-0.02555028297739204 0.004970541531971425 0 0 
-0.02555028297739204 0.004970541531971425 0 0 
-0.02555028297739204 0.004970541531971425 0 0 
0.4047381902113356 -0.1842904283972284 -0.2239822785928641 -0.1103100267991778 
0.03395081203136832 0.009255561279939307 -0.04396537402678474 -0.02984632503696515 
0.005774801263258154 -0.01083278349723124 0 0 
0 0 0 0 
0.3884424408132754 -0.1536434872444591 -0.2152753552270231 -0.1103100267991778 
0.005663470102540798 0.01705556296877116 -0.02200289108776829 -0.02199532364954346 
0 0 0 0 
0.03279280855345858 0.01646244341313063 -0.1619386066564248 -0.05064091302366117 
0.04689649082803032 -0.02859405433982906 -0.02004794421637402 -0.007724835907476446 
-0.08046987150939454 0.02009782440307571 -0.01839696618712363 0.07044106636517411 
0.002660935607222876 0 0 -0.007724835907476446 
0.002660935607222876 0 0 -0.007724835907476446 
0.02149264690668031 0.01539586306125522 1.084202172485504e-19 -0.02142873978829044 
0.002660935607222876 0 0 -0.007724835907476446 
0.0416444174715121 -0.02302956557590367 3.469446951953614e-18 -0.009724954641254009 
0.07768551567964609 -0.04712350458603753 -0.003709495884485827 -0.02495761948736158 
0 -0.002573614654673409 0 -0.001567085696443667 
0 -0.002573614654673409 3.469446951953614e-18 -0.005701625966622174 
0.07768551567964609 -0.04712350458603753 -0.003709495884485827 -0.02495761948736158 
-0.003129603494808812 -0.07248797842738509 -0.05460398871166396 0.06702418905315703 
0.2724301375241945 -0.1066132623517592 -0.1318583214199893 -0.04755107198456075 
0.02174599143842921 -0.01467856831420554 -0.001280053129560562 -0.03082163492366609 
0.02174599143842921 -0.003305493312787769 -0.001280053129560563 -0.03082163492366609 
0.278085489556697 -0.1494879423407668 -0.1055110055627555 -0.04736619238347078 
0.02174599143842921 -0.003305493312787769 -0.001280053129560563 -0.03082163492366609 
0.02174599143842921 -0.003305493312787769 -0.001280053129560563 -0.03082163492366609 
0.1560219887440896 -0.03079088599470622 -0.1762493106591108 -0.01164118565476814 
0.0013662144518259 -0.04643809024294548 -1.734723475976807e-18 0 
0 0 0 0 
0 0 0 0 
0 0 0 0 
0 0 0 0 
-0.06503870655434797 -0.03024256823008544 -0.03998745736755475 0.09232690900649319 
0 -0.01239223835030822 0 -0.00382085125956702 
-0.1096682951440537 0.09779666631948505 -0.006793282898146107 -0.008824871071215268 
0 -0.01239223835030822 0 0 
-0.01709306542030924 -0.01865585205173084 0 0 
-0.008580327917942426 -0.02674073150793165 0 0 
-0.1011646146233945 0.08758191621584718 -0.01870930685286384 -0.01489359432531513 
0.005268720966319104 -0.01168680818698165 -0.02023024901655935 -0.005853012707715374 
0.05509357614306317 -0.003867125562909326 -0.03722431731545627 -0.001370481654007823 
0.2606144660968086 -0.1159171203450708 -0.1360622573529955 -0.01802678619109047 
0.06388118498930397 -0.02850534268184673 -0.03722431731545627 -0.001370481654007823 
0.06388118498930397 -0.02850534268184673 -0.03722431731545627 -0.001370481654007823 
0.0576262397432485 -0.1028088276831784 0.06616822636843178 -0.02766962527486812 
0.2704821131665958 -0.1370508760239713 -0.1360622573529955 -0.01802678619109047 
0.06388118498930397 -0.02850534268184673 -0.03722431731545627 -0.001370481654007823 
0.07367160966494876 -0.01799443981201464 -0.04133684383611869 -0.01584340386516785 
-0.03839488117551754 -8.673617379884035e-19 0.04512217683609536 -0.01259425461612115 
0.01025614053049718 0 -0.01159692036422801 0 
0 0 0 0 
0 0 0 0 
-0.2146187946966462 -0.008264922323832039 0.2528630698249942 -0.0364857467513077 
-0.03727477379276067 -0.09071158897999236 0.1270299782409352 -0.0227742327407933 
-0.3962437506995587 -0.1505391856600569 0.4994667417232167 -0.02708114364842219 
-0.1524815351317363 -0.0471333441504589 0.194735645352414 -0.00458982731085333 
-0.1931384274839648 -0.04713334415045893 0.2524882022569871 -0.008114267031917453 
-0.3962437506995587 -0.1699336021953535 0.551347539974067 -0.02708114364842219 
0.3542166968253931 -0.2151478259774478 -0.1536082334447342 -0.05294329105541262 
-0.02552350527692003 -0.07020377152499201 0.07006503902254824 -0.02548190669813107 
0.02966668530184974 -0.005086693930637568 -0.07935477606968644 -0.05003169390944202 
0.01311797711018619 -0.02216131717475307 0 0 
0.01311797711018619 -0.02216131717475307 0 0 
0.006483162091712271 3.469446951953614e-18 -0.0005719915226606667 0 
0.006483162091712271 3.469446951953614e-18 -0.0005719915226606667 0 
0.0346892156159593 -0.01185290442759511 -0.04912231725267555 0 
0.1741246254949235 -0.1218029100233689 0.03778371611910186 -0.0362253616685649 
0.05158015976428555 -0.02859479987668867 -0.01345406399854195 0 
0.05158015976428555 -0.02859479987668867 -0.01345406399854195 0 
0.05158015976428555 -0.02859479987668867 -0.01345406399854195 0 
0.2885587167287547 -0.1001756397388848 -0.1345848792073285 -0.03437597940611796 
0.05158015976428555 -0.02859479987668867 -0.01345406399854195 0 
0.05158015976428555 -0.02859479987668867 -0.01345406399854195 0 
0.0285461161777187 -0.02380056160190184 0 -0.01436334384408718 
0.05300585857710746 -0.04633331471496985 0 0 
0.02854611617771869 -0.01681111956919968 0 0 
0.02854611617771869 -0.01681111956919968 0 0 
0.015714927436375 0.01012128562136766 0 -0.007204403167375661 
-0.03482884896933897 0.02833380738661263 0 -0.00360220158368783 
0 0.005969890052680402 0 -0.00360220158368783 
0 0.005969890052680405 0 -0.00360220158368783 
0 0.005969890052680402 0 -0.00360220158368783 
-0.02955105112463947 0.09735416123058172 -0.04234099827609239 -0.00388402463632842 
0.0834065552854486 -0.03373333459810879 -0.03918141595715562 -0.007760229976343411 
0.07168361650852853 -0.05479989757880595 0 -0.00388402463632842 
0.07168361650852853 -0.05479989757880595 0 -0.00388402463632842 
0.07168361650852853 -0.05479989757880595 0 -0.00388402463632842 
0.08607267123865227 -0.06487118048112216 0 -0.00388402463632842 
0.07168361650852853 -0.05479989757880595 0 -0.00388402463632842 
0.07168361650852853 -0.05479989757880595 0 -0.00388402463632842 
0.0213426282370425 -0.01891044656344048 0 -0.00388402463632842 
-0.03442762282390756 -0.03705204781092362 -0.01481755554290497 0.08408292554094519 
0 0 0 0 
0 0 0 0 
-0.008163749414956586 0.01760444132669474 4.336808689942018e-19 -0.0131647755110845 
0 0 0 0 
-0.03475675723738903 0.02115248230414397 0 -0.001993306849206474 
0.1094296679595886 -0.07985375705200687 -0.04710309261023921 -0.01638591536700509 
-0.1495921992802309 -0.05016415895360653 0.1966721674856169 0 
0.3542104252266178 -0.1826992875357514 -0.1809278605161492 -0.09825955851949433 
0.03687528257764095 0 -0.02915949030239122 0 
0.03687528257764095 0 -0.02915949030239122 0 
0.03687528257764095 0 -0.02915949030239122 0 
0.3542104252266178 -0.1826992875357514 -0.1809278605161492 -0.09825955851949433 
0.03687528257764095 0 -0.02915949030239122 0 
0 0 0 0 
0.06266706655154998 -0.07177806481138434 -0.09205515407531671 0.0239309883738083 
0 0 0 0 
0 0 0 0 
0.09557067673635819 -0.06642459778325058 -0.01614718082190062 -0.046845630887578 
0 0 0 0 
-0.04369129390545801 -0.03480086500388247 0.06582139469593731 -0.01634418137645874 
0 0 -0.01614718082190062 -0.01634418137645874 
0.1030977888781921 -0.0537173123101307 -0.02207515156999854 -0.05837376982856297 
-0.0317484811003633 0.03477461402173829 -0.01208451658242895 0 
-0.6334809411157579 0.7551021330401289 -0.1380621134748504 -0.04361367045194815 
-0.1027654472454907 0.004284306871725476 0.09606075532154382 0 
0 0 -0.01208451658242895 0 
-0.0317484811003633 0.03477461402173829 -0.01208451658242895 0 
-0.6334809411157579 0.7551021330401289 -0.1380621134748504 -0.04361367045194815 
0 0 -0.01208451658242895 0 
0 0 -0.01208451658242895 0 
0 0.005630722960381455 -0.0138514518573328 0 
0 0 -0.01385145185733281 0 
0 0 -0.01385145185733281 0 
0 0.005630722960381455 -0.0138514518573328 0 
0 0 -0.01385145185733281 0 
0 0 -0.01385145185733281 0 
-0.03910197443181345 -0.05232014332153184 0.1151182352525222 -0.02853215077132398 
0.120900420109769 -0.0356809940793901 -0.07435995284347763 -0.01659277831492508 
0.1376885615033635 -0.1367967144065751 0.03870036569716368 -0.05219589819098833 
0.1107069396761125 -0.01998050799299999 -0.06097733582880091 -0.009974809567820715 
-0.03910197443181346 -0.05232014332153184 0.1181297881895132 -0.02853215077132398 
0.1107069396761125 -0.01998050799299999 -0.06097733582880091 -0.009974809567820715 
0.1107069396761125 -0.01998050799299999 -0.06097733582880091 -0.009974809567820715 
-0.01031614287793781 0.01004494669912738 0 0 
-0.02563865286005234 0.02051126042563337 0 0 
-0.01031614287793781 0.01004494669912738 0 0 
-0.01031614287793781 0.01004494669912738 -0.003011552936990887 0 
-0.01031614287793781 0.01004494669912738 0 0 
-0.01334607855213317 -0.01476231041187129 0.04863227663702882 -0.009906121420430524 
0.03751435675844032 0.01561472274440327 -0.007217147998171218 -0.008047584079343341 
0 0.01561472274440327 -0.007217147998171219 -0.002507893320000782 
0 0.01561472274440327 -0.007217147998171219 -0.002507893320000782 
0 0.01561472274440327 -0.007217147998171219 -0.002507893320000782 
0 0.01561472274440327 -0.007217147998171219 -0.002507893320000782 
0.04252187910845434 -0.03894142000874124 0 0 
0.03882145304423097 -0.03894142000874123 0 0 
-0.1895716255418597 0.2426721938223709 -0.08031868980396156 -0.003438654358074189 
0.03882145304423097 -0.03894142000874123 0 0 
0.03882145304423097 -0.03894142000874123 0 0 
0.03882145304423097 -0.03894142000874123 0 0 
0.08384906360532669 -0.07583050055378157 0.01643813233277559 -0.01180502072358813 
0.1126656136162114 -0.05913040780034092 -0.04634200092813589 -0.02077408448610368 
0.08828827349822746 -0.0422072474645394 -0.04634200092813589 0 
0.1167476502645299 -0.03100263277304759 -0.0850287955508879 -0.002451624772117236 
0.08828827349822746 -0.0422072474645394 -0.04634200092813589 0 
0.08828827349822746 -0.0422072474645394 -0.04634200092813589 0 
0.08828827349822746 -0.0422072474645394 -0.04634200092813589 0 
0.08828827349822746 -0.0422072474645394 -0.04634200092813589 0 
0 0 0 0 
0 0 0 0 
-0.1283283215270412 -0.002648317271277934 0.159375995049657 -0.01554349186292589 
-0.4426049413458391 -0.1371638754277263 0.6078734394863478 -0.03725096862941083 
-0.006472546660210363 0 0.04397523516099132 -0.01259425461612115 
-0.03839488117551756 -8.673617379884035e-19 0.04512217683609536 -0.01259425461612115 
-0.03839488117551756 -8.673617379884035e-19 0.04512217683609536 -0.01259425461612115 
-0.4426049413458391 -0.1371638754277263 0.6078734394863478 -0.03725096862941083 
-0.006472546660210363 0 0.04397523516099132 -0.01259425461612115 
-0.1226481127258275 -0.05233374049125346 0.1172206785390119 0.06169295598445169 
0.0486381077912522 -0.01467002094018457 -0.02528872977061628 0 
0.04863810779125221 -0.01467002094018457 -0.02528872977061628 0 
0.1979158140835913 -0.1149853926633524 -0.04505670172280806 -0.023287429151326 
-0.1044617979068768 -0.03178740505620321 0.1764611632135392 0 
0.04863810779125221 -0.01467002094018457 -0.02528872977061628 0 
0.04863810779125221 -0.01467002094018457 -0.02528872977061628 0 
0.1979158140835913 -0.1149853926633524 -0.04505670172280806 -0.023287429151326 
0.04863810779125221 -0.01467002094018457 -0.02528872977061628 0 
0.07147509243222287 -0.02325535424637492 -0.01481755554290498 -0.03153051550840955 
0.07147509243222287 -0.02325535424637492 -0.01481755554290498 -0.03153051550840955 
0.07147509243222287 -0.02325535424637492 -0.01481755554290498 -0.03153051550840955 
0.07147509243222287 -0.02325535424637492 -0.01481755554290498 -0.03153051550840955 
0.07147509243222287 -0.02325535424637492 -0.01481755554290498 -0.03153051550840955 
0.07147509243222287 -0.02325535424637492 -0.01481755554290498 -0.03153051550840955 
0.1710060303748147 -0.0949131929914737 -0.06434190232732347 -0.05049103847978943 
0.07139412082705993 -0.04179158366887401 -0.01793478134062348 -0.02655014029739482 
0.07139412082705991 -0.04179158366887401 0 -0.01972963069934516 
0.07139412082705991 -0.04179158366887401 0 -0.01972963069934516 
0.07139412082705993 -0.04179158366887401 -0.01793478134062348 -0.02655014029739482 
0.07139412082705991 -0.04179158366887401 0 -0.01972963069934516 
0.03422723686868798 -0.0111136532361212 -0.001637712835928055 -0.009991322396640965 
-0.02512688827021128 0.012373774510847 -0.05329391368792834 0.08426198042662933 
0.03422723686868798 -0.0111136532361212 -0.001637712835928055 -0.009991322396640965 
0.03422723686868798 -0.0111136532361212 -0.001637712835928055 -0.009991322396640965 
-0.001616512625738416 0.0342732756521202 0 0 
0.02445785399554375 0 0 0 
0.02445785399554375 0 0 0 
0.02445785399554375 0 0 0 
0.02499516792311595 -0.02741544370471564 -0.01098375193678641 -0.002032161448148355 
0.0416462034426909 0.0172273151659735 -0.0147402797719542 -0.02162055147633815 
-1.734723475976807e-18 -0.0009379741300662942 0 0 
0.005268720966319104 0 -0.01098375193678641 -0.002032161448148355 
0.06199957571672642 -0.0171945870030322 -0.06587186260127427 -0.001105745365726629 
-1.734723475976807e-18 -0.0009379741300662942 0 0 
0 0 0 0 
-0.08936854495274717 -0.01388468941103731 0.1224478968198001 -0.01191786769738198 
0 0 0 0 
0 0 0 0 
0 0 0 0 
0.06607002071034383 -0.05018017026114047 -0.03749859054841072 -0.01245913447881677 
0 0 -0.002020057655943549 0 
0 0 -0.004128137479074516 0 
-0.1734369606389081 -0.002732733078480071 0.1921289395581441 0 
0 0 -0.002020057655943549 0 
0.07265536731527232 -0.03200789613556203 -0.02262559997302577 -0.01602250728545369 
0.1317058420510243 -0.07194296990893671 -0.05260536940298832 -0.003060305650462764 
0 0 0 0 
0 0 0 0 
0 0 0 0 
-0.03017228490001255 0.03446332466144203 -0.06043324106871112 0 
0 0.004284306871725478 0 0 
0.01170208878593769 0.02857509530681207 -0.07821079302436508 -0.04239651328272787 
-0.02127697533209539 0.01970178479366225 -0.03197641211778178 0 
-0.01802919986001423 0.03222098063311511 -0.007223354037507845 0 
0 -0.0009379741300662942 0 0 
0.06360058895249514 -0.03373383321196619 -0.007223354037507845 0 
0 0 0 0 
0.1164113672708828 -0.04504389609828591 -0.04483891731789408 -0.02912179633747172 
-1.734723475976807e-18 0 0 0 
0.02501957816869164 -0.00417934515175954 -0.005692391714012567 0 
0.02501957816869164 -0.007381697639999255 -0.005692391714012568 0 
0 -0.002144894269330448 0 -0.002451624772117236 
0.06020785786666567 -0.02356999933024645 -0.03868679462275201 -0.002451624772117236 
0 -0.002144894269330448 0 -0.002451624772117236 
-0.02702365546855959 -0.05346595404551457 -0.02818928727664601 0.1001807652484795 
0 0.03166546974682765 0 -0.03608739899692619 
-0.02229426612092371 -0.03832493310479274 0.109694873287765 -0.06283824058439726 
0.03023028031514167 0 -0.03933965220112025 0 
0.03023028031514167 0 -0.03933965220112025 0 
0 0 0 0 
0 0 0 0 
-0.04785884051331309 0.03500066130291976 0 0 
0 0 -0.02210404225741841 -0.005157684032249146 
0 0 -0.02210404225741841 -0.005157684032249146 
0 0 -0.02210404225741841 -0.005157684032249146 
0 0 -0.02210404225741841 -0.005157684032249146 
0.01581191109321685 -0.07514248247048468 0.06363657754041857 -0.02970271027128507 
0.06866891130898159 -0.02497064711077479 -0.03034029825690902 -0.02811597919844688 
0.03158306751489279 0 -0.009296746125517265 -0.01711872137162739 
0.1200508785799888 -0.02494438951968486 -0.09286771737580257 -0.01711872137162739 
0.04024891264567128 -0.0005426277386182647 -0.02569854398181975 -0.01711872137162739 
0.07353442541526777 -0.02637872254722507 -0.0210394501816113 -0.02866732488338648 
0 0 0 0 
-8.673617379884035e-19 0 0 0 
0 0 0 0 
0 0 0 0 
0 0 0 0 
0 0 0 0 
0 0 0 0 
0 0 0 0 
0 0 0 0 
0.09284435049769595 -0.03362325308924214 -0.04225702180379683 -0.00870490738686747 
-0.00188529401332772 0.001601666739360042 0 0 
-0.00188529401332772 0.001601666739360042 0 0 
-0.006722947060254961 0.01655208114030586 0 -0.001849382262446918 
0 0 0 0 
0 0 0 0 
0 0 0 0 
0 0 0 0 
0 0 0 0 
0.01634213332392837 -0.02028436926462209 -0.004027701598392986 -0.009573987445164033 
0 0 0 0 
0 -0.001032163090795739 0 0 
0 0 0 0 
0 -0.001032163090795739 0 0 
0.001425388114466656 0.06830464814985046 -0.04189407789151325 -0.008520778295964194 
-0.06879745066168817 -0.03661896270365344 0 0.1361052245749582 
-0.1747844169644303 0.1144419123883697 0.08372405118623119 -0.002276026994936961 
0.04961906686479729 -0.03661896270365344 0 -0.001832606936287632 
0.04961906686479729 -0.03661896270365344 0 -0.001832606936287632 
0.04961906686479729 -0.03661896270365344 0 -0.001832606936287632 
0.1065621226913129 -0.0316629220768337 -0.06465034321824711 -0.007346656961037867 
0.2123269704811409 -0.06845917041414022 -0.1368938727229613 -0.02848436496061105 
0.04104057465123281 -0.03508047019764152 0 -0.006688171359676562 
0.04104057465123281 -0.03508047019764152 0 -0.006688171359676562 
0.04104057465123281 -0.03508047019764152 -0.003211987956326565 -0.006688171359676562 
0.2291301780159231 -0.1346758326742816 -0.08473832340310694 -0.02100892470204097 
0.04104057465123281 -0.03508047019764152 0 -0.006688171359676562 
-0.04290482038725048 0.01372127730790811 0 0 
-0.05277246745703765 0.06768589053694385 -4.336808689942018e-19 -0.05176378781109622 
-0.04290482038725048 0.01372127730790811 0 0 
0 0.02484823632365799 -0.01426076812643487 0 
0.06200462988878326 -0.01953959484232769 -0.03430871234280889 -0.008038528001356779 
0 0.02484823632365799 -0.01426076812643487 0 
-0.04034883935473987 0.05797797166255034 -0.01426076812643487 0 
0 0.02484823632365799 -0.01426076812643487 0 
0.05266762204138925 -0.03062372541520119 -0.009804102142721741 -3.469446951953614e-18 
0 4.300242843701551e-05 0 0 
0.004136640500724009 -0.0009183419449627832 0 0 
0 4.300242843701551e-05 0 0 
0.05550900711024908 -0.01599694095386092 -0.03505647325516867 -0.01637257984145918 
0.05011459296570044 -0.0292467500578996 -0.005556692380914929 -0.02097424445828801 
0.004584685341788453 0.008693929226203384 -0.005556692380914929 -0.01637257984145918 
0.004584685341788453 0 -0.005556692380914931 -0.01637257984145918 
0.004584685341788453 0 -0.005556692380914931 -0.01637257984145918 
0.004584685341788453 0 -0.005556692380914931 -0.01637257984145918 
-0.03266264731910288 0.02263718826527621 0 -0.001579570705710167 
0 0 0 -0.0002459764704918837 
0 0 0 -0.0002459764704918837 
0 0 0 -0.0002459764704918837 
-0.0157205898294023 -0.02535073636263168 0.05746999720643147 -0.002115885993784586 
0.08206171280479668 -0.0234320335931291 -0.06282685505685576 0 
0.007848613412422999 0 -0.003190474635585672 0 
-0.02429956880689876 0.03555005939020098 -0.0279420888396976 0 
0 0 0 0 
-0.0007263170126209136 0.01509226575806203 8.673617379884035e-19 -0.007689534005829416 
0.0197285336170864 -0.01682591992384437 0 0 
0.01784142743735879 -0.01682591992384437 0 0 
0.0197285336170864 -0.01682591992384437 0 0 
-0.001255601887863961 0.0004631384645495625 0 0 
-0.001255601887863961 0.0004631384645495625 0 0 
0.04846943082725892 -0.02737434909351481 -0.02657225189222345 0 
0.04846943082725892 -0.02737434909351481 -0.02657225189222345 0 
0.04846943082725892 -0.02737434909351481 -0.02657225189222345 0 
0.04846943082725892 -0.02737434909351481 -0.02657225189222345 0 
0.02262013498860035 -0.01516254347844621 -0.01036935306405695 0 
0.08372636570233501 -0.07933891662709971 0 0 
-0.08786977265020436 0.137751869694917 -0.05362830152867015 -0.02459038619018496 
0.1598279647198355 -0.1015242985277446 -0.02734639724071741 -0.03106093786281183 
0.08372636570233501 -0.07933891662709971 0 0 
0.08372636570233501 -0.07933891662709971 0 0 
-0.04087084261143524 0.08161452648947121 -0.05179812551353449 -0.01975113085494198 
0.1598279647198355 -0.1015242985277446 -0.02734639724071741 -0.03106093786281183 
0.08372636570233501 -0.07933891662709971 0 0 
0 0 0 0 
0 0 0 0 
0 0 0 0 
0 0 0 0 
-0.05130334499885054 0.01296220824430922 0.02368974074724788 -0.004438942110056509 
0.1009164442020784 -0.04168073764326764 -0.04450714226740182 -0.0006786405693254857 
0 0 0 -0.001562379081254118 
0 0 0 -0.001562379081254118 
-0.01003769496898075 0.02463821711893742 -4.336808689942018e-19 0 
-0.07995057436933956 0.04577197279783777 0.06994784376712808 0 
-0.01003769496898075 0.02463821711893742 -4.336808689942018e-19 0 
-0.01865525591602796 0.04577197279783777 0 0 
-0.008787608846240804 0.02463821711893742 0 0 
0 0 0 0 
-0.1004375528862997 0.002509514322707806 0.0931211311099906 -0.003100113336720666 
0.008503680520659211 -0.01021475010363788 -0.01191602395471771 -0.006068723254099858 
0 0 0 0 
0 0.002509514322707811 -0.01191602395471771 0 
0 0.002509514322707811 -0.01191602395471771 0 
0 0 0 0 
0 0 0 0 
0 0 0 0 
0.009776568261351823 0 -0.007778267888872437 0 
0.009776568261351823 0 -0.007778267888872437 -0.01050226817036928 
-0.06802641570808654 -0.01316383085147712 0.08719189541198574 -0.01195436423925842 
0.009776568261351823 0 -0.007778267888872437 0 
0.009776568261351823 0 -0.007778267888872437 0 
0.009776568261351823 0 -0.007778267888872437 0 
0 -0.006989442032702149 0 0 
0 -0.006989442032702149 0 0 
0 -0.006989442032702149 0 0 
0 -0.006989442032702149 0 0 
-0.04234096817853222 0.06884017735570261 -0.06079419327711356 -0.008250800757475108 
-1.734723475976807e-18 0 -0.002087136039673853 0 
0 0 -0.002087136039673853 0 
-1.734723475976807e-18 0 -0.002087136039673853 0 
0 0 0 -0.004535793239660161 
0.01731118879343524 -0.01959838584526719 -0.01603201204589412 -0.004535793239660161 
0 0 0 -0.004535793239660161 
0 0 0 -0.004535793239660161 
0.02067755168531158 -0.03140113489124351 0 0 
0.03393863100521018 -0.0120260673115408 -0.02007070190321813 -0.00387620534001499 
0.03393863100521019 -0.0120260673115408 -0.02965939379001054 -0.00387620534001499 
0.03393863100521018 -0.0120260673115408 -0.02007070190321813 -0.00387620534001499 
0.03393863100521018 -0.0120260673115408 -0.02007070190321813 -0.00387620534001499 
0.1560219887440896 0 -0.1762493106591107 0 
0.1560219887440896 -0.01996317849792284 -0.1762493106591107 0 
0.1560219887440896 0 -0.1762493106591107 0 
0.0826635029317236 -0.02638874511215951 -0.009240502647822569 -0.04239651328272787 
-0.3007813812746027 -0.08464772554025901 -0.07061465275148132 0.433178753853318 
0.06263086702319975 0 0 -0.04239651328272787 
0.06263086702319975 0 0 -0.04239651328272787 
0 0 0 0 
0 0 0 0 
0.05597027398162729 -0.0511396309069035 0 -0.002627973006086048 
-0.1992198536057614 0.2383738945671588 -0.02293097305729404 -0.00778287038469653 
-0.3430259423076627 0.4462236640206158 -0.09835050126648019 -0.01448884945616319 
-0.1024979214435084 0.1323240850797854 -0.02293097305729404 -0.007117013581122628 
-0.3430259423076627 0.4462236640206158 -0.09835050126648019 -0.01448884945616319 
0 0 -0.01852074289951143 0 
0 0 -0.01852074289951143 0 
-0.1655147383802129 -0.0003339709290901133 0.1727509081974784 -0.008894058588795654 
0 0 -0.01852074289951143 0 
-0.02275905654321079 0.002350946403156838 0 -0.001771073150965608 
-0.01362684528881934 0.01527875489511003 0 0 
-0.02528381657876937 0.01527875489511003 0 0 
-0.0383769656961921 0.01830726955020225 0 0 
-0.01362684528881934 0.01527875489511003 0 0 
0.002239319332155576 0.005630722960381452 -0.008589659002094607 0 
0 0 0 0 
0.002239319332155574 -4.336808689942018e-19 -0.008589659002094605 0 
0 0 0 0 
-0.294878849995491 -0.08548887426545919 0.3633831097330213 -0.0004434200586493284 
-0.2249047702604303 -0.09854243566084439 0.3490319765292347 -0.03056237328241351 
-0.1036396914777215 -0.05947766256010762 0.159546080709192 -0.0004434200586493284 
-0.1036396914777215 -0.05947766256010762 0.159546080709192 -0.0004434200586493284 
-0.1036396914777215 -0.05947766256010762 0.159546080709192 -0.0004434200586493284 
-0.05522834645139894 -0.08094694076937144 0.1260650494623236 -0.0004434200586493279 
-0.1036396914777215 -0.05947766256010762 0.159546080709192 -0.0004434200586493284 
-0.1578097291884281 0.06562381699300972 0.1245406053272422 -0.003792957700183147 
-0.05763742089079579 0.0314339256647195 0.03336722594488615 -0.02278001677001773 
-0.2855231109727178 0.3921018396466222 -0.1035475683196563 -0.005437673965074255 
-0.01970929834289378 0.1234246845000361 -0.1035475683196563 -0.02660972772575837 
-0.09616404898770185 0.1911334871479466 -0.1035475683196563 -0.003792957700183147 
-0.1119651072203699 0.05270098725359215 0.04528034543639525 -0.02218427711697475 
-0.2855231109727178 0.3921018396466222 -0.1035475683196563 -0.005437673965074255 
-0.09616404898770185 0.1911334871479466 -0.1035475683196563 -0.003792957700183147 
-0.01857180287240996 0.02319873072536156 -0.03417588285013583 -0.01494832191020339 
0.002224418665851432 0.01246110457762715 -0.02358890053736952 -0.003067913365153784 
-0.00737883074033351 0.01106043026077872 0 -0.001333594235218283 
0 0.001379307672646171 0 0 
0.04247559294705765 -0.02094138775013469 -0.02911097326817425 -0.0002619213649299977 
0.1267124905323104 -0.08835862605460588 -0.04450714226740182 -0.0006786405693254888 
0.1203135340102898 -0.10809013015827 0.002739106586221225 -0.01147066003246878 
0.006969591879980161 -0.01285471799721041 0 0 
0.04247559294705765 -0.02094138775013469 -0.02911097326817425 -0.0002619213649299977 
0.1267124905323104 -0.08835862605460588 -0.04450714226740182 -0.0006786405693254888 
0.2230789812557805 -0.10809013015827 -0.1054061653177516 -0.01147066003246878 
0.006969591879980161 -0.01285471799721041 0 0 
0.01542053174302169 -0.02094138775013469 0 0 
0.0708183599322041 -0.00830988993623147 -0.04450714226740182 -0.0006786405693254888 
0.0708183599322041 -0.00830988993623147 -0.04450714226740182 -0.0006786405693254888 
0.008665845130778478 -0.0005426277386182645 -0.006813105969510079 0 
0.008665845130778478 -0.0005426277386182645 -0.006813105969510079 0 
0.008665845130778478 -0.0005426277386182645 -0.006813105969510079 0 
0.02841999866331027 -0.02442801937215653 -0.004641754275089275 0 
0 0 0 0 
0 0 0 0 
0 0 0 0 
-0.05331442580210147 0.06034415977264383 2.168404344971009e-19 0 
-0.03459284325542739 0.01850187417486289 0 0 
-0.02372882413596286 0.02639546796216385 0 0 
-0.03459284325542739 0.01850187417486289 0 0 
0.02217798708280086 0.00502671150149072 -0.02115054139382495 0 
0.03322273341255488 -0.0190637873150097 -0.02115054139382495 0 
0.03322273341255488 -0.0190637873150097 -0.02115054139382495 0 
0.03322273341255488 -0.0190637873150097 -0.02115054139382495 0 
0.03322273341255488 -0.0190637873150097 -0.02115054139382495 0 
0.01324800326492434 0 -0.01633786080596207 -0.00065848560136132 
0.01324800326492434 0 -0.01633786080596207 -0.00065848560136132 
0.01324800326492434 0 -0.01633786080596207 -0.00065848560136132 
0.01324800326492434 0 -0.01633786080596207 -0.00065848560136132 
-0.1140905095866257 0.09624358789465629 0.01089572887536082 -1.414771910180994e-05 
-0.04197161181581403 0.09130640495474604 -0.02828902820227776 -0.01444035321143309 
-0.3767032173510882 0.5107578895352237 -0.1230115950874073 -0.0491997273903616 
-0.05978833048506782 0.08526672807377372 -0.02215676172087856 0 
-0.09440802513857834 0.1194547639814638 -0.02828902820227776 -1.414771910180994e-05 
-0.09440802513857834 0.1194547639814638 -0.02828902820227776 -1.414771910180994e-05 
-0.3137708029710926 0.4488535143672667 -0.1230115950874073 -0.03401447032437034 
-0.05978833048506782 0.08526672807377372 -0.02215676172087856 0 
0.02309998476458701 0.02293454868518561 -0.0145207376536149 -0.0005165739061367826 
0.1593812997016321 -0.07513134802817087 -0.02669332709342331 -0.03913401941240836 
0 -0.01178645877512831 0 0 
0.1164113672708828 -0.05210297553488541 -0.04483891731789408 -0.02394767569367099 
0.1593812997016321 -0.07513134802817087 -0.02669332709342331 -0.03913401941240836 
0 0 -0.003011552936990887 0 
0 0 -0.003011552936990887 0 
0 0 -0.003011552936990887 0 
0.02342380351725451 -0.09667887281214381 0.0660451796501367 -0.003340899988391575 
0.05092432176846062 -0.01599694095386092 -0.02949978087425375 0 
0.05092432176846062 -0.01599694095386092 -0.02949978087425375 0 
0.04258006597227109 0.005845023984496153 -0.04510049445595849 0 
0.07196907000835356 -0.02541543419732799 -0.04510049445595849 0 
0.01354401996402377 -0.007512655388371433 0 0 
0.01354401996402377 -0.007512655388371433 0 0 
0.01354401996402377 -0.007512655388371433 0 0 
0.01354401996402377 -0.007512655388371433 0 0 
-0.01101676774742463 0.01210172629311574 0 -0.01885577697481912 
-0.0177231122332514 0.01210172629311574 0 0 
-0.0177231122332514 0.01210172629311574 0 0 
-0.0177231122332514 0.01210172629311574 0 0 
0 0.01598371222291076 0 0 
0 0.01598371222291076 0 0 
0 0 0 0 
0 0 0 0 
0 0 0 0 
0 0 0 0 
0 0 0 0 
0.02003263590852384 -0.02638874511215951 -0.009240502647822569 0 
0.02003263590852384 -0.02638874511215951 -0.009240502647822569 0 
0.02003263590852384 -0.02638874511215951 -0.009240502647822569 0 
0.05342442257557938 0 -0.0452617591039907 -0.003340899988391575 
0.05342442257557938 0 -0.0452617591039907 -0.003340899988391575 
0.07129139852759808 -0.0009328692654507305 -0.0521555493198544 -0.003340899988391575 
0.05342442257557938 0 -0.0452617591039907 -0.003340899988391575 
0.05342442257557938 0 -0.0452617591039907 -0.003340899988391575 
0.01467437658250781 -0.02737467681786122 -0.0478086106577009 0.08035645882981515 
-8.673617379884035e-19 0 0 0 
0.01604585669635709 0.0253401614361007 -0.01192574411010864 -0.007689534005829415 
-0.05637837939265936 -0.01732961230113737 0.1065874295756201 -0.009767049127395299 
0 0.03472100746031392 -0.01192574411010864 0 
0 0.03472100746031392 -0.01192574411010864 0 
0 0.03472100746031392 -0.01192574411010864 0 
-0.1730816622116479 0.2552014033039758 -0.1137772679900097 -0.02971690066780695 
-0.07044739952264584 0.1082605407605135 -0.004949863847742227 0 
-0.03885051535138603 0.03185499882637298 -0.02879737870729156 0 
-0.1429875029342947 0.1687423612028453 -0.03679096245180751 -0.01596494666932071 
0 0 0 0 
0 0 0 0 
0 0 -0.0107448530963104 -0.001669681906789864 
0 0 0 0 
-8.673617379884035e-19 0.01158387151614896 0 -0.01031456880675759 
0 0 0 0 
4.336808689942018e-19 0 0 0 
0 0.01647220221650017 -0.01390329891010233 -0.01361472767498511 
0 0 0 0 
2.168404344971009e-19 0.01300256903618672 0 -0.007689534005829416 
0 0 0 0 
0.02734716164459212 0.008447026284399289 -0.05060281857746972 -0.002627973006086048 
0.02734716164459212 0 -0.03868679462275202 0 
0.02734716164459212 0 -0.03868679462275202 0 
0 0 0 0 
0 0 0 0 
0 0 0 0 
0 0 0 0 
0 0 0 0 
-0.01532250998211454 0.01447028173718541 0 0 
0.00504213492774579 -0.01575466725066303 0 0 
0.00504213492774579 -0.01575466725066303 0 0 
-0.02500869155061759 0.01437880838315397 0 0 
0 -0.01996317849792284 2.602085213965211e-18 0 
0 0 0 0 
0 0 0 0 
0 0 0 0 
0 0 0 0 
0 0 0 0 
0 -0.01441416302014571 0 0 
0.005268720966319104 0.0007054301633265704 -0.02023024901655935 -0.002032161448148355 
0.005268720966319104 -0.01126753053822841 -0.01098375193678641 -0.002032161448148355 
0.005268720966319104 0.0007054301633265704 -0.02023024901655935 -0.002032161448148355 
0.005268720966319104 0 -0.01098375193678641 -0.002032161448148355 
0 0 0 0 
0.02729138207088016 -0.02422806593580625 1.951563910473908e-18 -0.0011317280571434 
0.01106037652003515 -0.003585863484212228 0 -0.001131728057143399 
-0.05039941270739218 -0.0164718387897882 0.06412607003416881 -0.002949237246804735 
0 0 0 0 
-0.08809460606238033 0.06714953152559214 0 0 
-0.0177946263627134 0.03480425837082727 0 -0.01807562076257968 
-0.0177946263627134 0.03480425837082727 0 -0.01807562076257968 
-0.0177946263627134 0.03480425837082727 0 -0.01807562076257968 
-0.08478939913274042 0.004558203091323754 -0.05579275538944867 0.115984490422374 
-0.0177946263627134 0.03480425837082727 0 -0.01807562076257968 
-0.0928998806888388 -0.01546517280446665 0 0.1087351736919422 
-0.1686504501740868 -0.01546517280446665 0 0.1763898830317666 
-0.1686504501740868 -0.01546517280446665 0 0.1763898830317666 
-0.3634122482978024 -0.08464772554025898 -0.07061465275148132 0.475575267136046 
-0.0928998806888388 -0.01546517280446665 0 0.1197324315187617 
-0.1686504501740868 -0.01546517280446665 0 0.1763898830317666 
-0.08355836191345854 -0.03893649745628882 -0.02632744268058888 0.1284336804373021 
-0.08355836191345854 -0.03893649745628882 -0.02632744268058888 0.1284336804373021 
-0.08355836191345854 -0.03893649745628882 -0.02632744268058888 0.1284336804373021 
-0.08355836191345854 -0.03893649745628882 -0.02632744268058888 0.1284336804373021 
-0.08355836191345854 -0.03893649745628882 -0.02632744268058888 0.1284336804373021 
0 -0.004003968010679422 0 0 
0 -0.004003968010679422 0 0 
0 -0.004003968010679422 0 0 
0 -0.004003968010679422 0 0 
0 -0.004003968010679422 0 0 
-0.1226370945301883 -0.03739274537753504 -0.01839696618712362 0.1852156366301086 
-0.3017569770970522 -0.06150458444407527 -0.0662055768448245 0.4452140746284914 
-0.1226370945301883 -0.03739274537753504 -0.01839696618712362 0.1852156366301086 
-0.1226370945301883 -0.03739274537753504 -0.01839696618712362 0.1852156366301086 
-0.3017569770970522 -0.06150458444407527 -0.0662055768448245 0.4452140746284914 
-0.1226370945301883 -0.03739274537753504 -0.01839696618712362 0.1852156366301086 
-0.213814643502464 -0.05016415895360653 0.2645184524107601 0 
-0.213814643502464 -0.05016415895360653 0.2645184524107601 0 
-0.213814643502464 -0.05016415895360653 0.2645184524107601 0 
-0.213814643502464 -0.05016415895360653 0.2645184524107601 0 
0 0 0 -0.0001849512974604708 
0 0 0 -0.0001849512974604708 
0 0 0 -0.01050226817036928 
0.002328176749146954 -0.0002333733071110427 0 0 
0.002328176749146954 -0.0002333733071110427 0 0 
0.002328176749146954 -0.0002333733071110427 0 0 
0.06137393741001621 -0.04543906213801363 -0.009792321089522387 -0.01332773681501808 
0.0914694634663866 -0.05006883580076826 -0.009792321089522387 -0.01332773681501808 
0.06137393741001621 -0.04543906213801363 -0.009792321089522387 -0.01332773681501808 
-0.1820174835399315 0.2293104364134835 -0.04030654810345021 -0.01445371194279047 
-0.03732287197825061 0.03865816340225973 3.469446951953614e-18 -0.01101505758471628 
0 0 0 0 
0.2367499753711672 -0.1769895678488337 -0.07884669346648976 -0.04960239106702106 
0 0 0 0 
-0.03526975167940478 0.06910851749493434 -0.02733196589506056 -0.006588092396524504 
0.07310915177279835 -0.03694129199243901 -0.02733196589506056 -0.005922235592950601 
0.07310915177279835 -0.03694129199243901 -0.02733196589506056 -0.005922235592950601 
0.07310915177279835 -0.03694129199243901 -0.02733196589506056 -0.005922235592950601 
-0.02361278038945475 0.06910851749493434 -0.02733196589506056 -0.006588092396524504 
0.07310915177279835 -0.03694129199243901 -0.02733196589506056 -0.005922235592950601 
0.07310915177279835 -0.03694129199243901 -0.02733196589506056 -0.005922235592950601 
0.07310915177279835 -0.03694129199243901 -0.02733196589506056 -0.005922235592950601 
-0.04065689235222839 0 0.05775255690457309 -0.003524439721064124 
-0.04065689235222839 0 0.05775255690457309 -0.003524439721064124 
-0.04065689235222839 0 0.05775255690457309 -0.003524439721064124 
0 0 0 0 
0 0 0 0 
0.05432768632957409 -0.03545318966562379 -0.01012343395857205 0 
0.05432768632957409 -0.03545318966562379 -0.01012343395857205 0 
0.05432768632957409 -0.03545318966562379 -0.01012343395857205 0 
0.01903562705838572 -0.01327473186308358 -0.0181454302474082 -0.003190757960700643 
0.01903562705838572 -0.01327473186308358 -0.0181454302474082 -0.003190757960700643 
0.01903562705838572 -0.01327473186308358 -0.0181454302474082 -0.003190757960700643 
0.01903562705838572 -0.01327473186308358 -0.0181454302474082 -0.003190757960700643 
0.01903562705838572 -0.01327473186308358 -0.0181454302474082 -0.003190757960700643 
0.06293298935988734 -0.03396423184131988 -0.04981707887272132 -0.01718417599827515 
0 0 0 0 
0 0 0 0 
0 0 0 0 
-0.1131856746553792 0.1304551902700426 0 0 
-0.1131856746553792 0.1304551902700426 0 0 
-0.1131856746553792 0.1304551902700426 0 0 
-0.1131856746553792 0.1304551902700426 0 0 
0.04067706636265665 0 -0.03124878401210484 -0.01213176122502371 
0.1457309783609465 -0.1178708501344472 -0.04089870232002756 -0.01246301161934736 
0 0 0 0 
0 0 0 0 
0 0 0 0 
0.04067706636265665 0 -0.03124878401210484 -0.01213176122502371 
0.04067706636265665 0 -0.03124878401210484 -0.01213176122502371 
0.04067706636265665 0 -0.03124878401210484 -0.01213176122502371 
0.04067706636265665 0 -0.03124878401210484 -0.01213176122502371 
0.01872886308594652 -0.01858132714384568 -0.01046178464335273 -0.001740927290753154 
0.02096818241810209 -0.01858132714384568 -0.01905144364544733 -0.001740927290753154 
0.01872886308594652 -0.01858132714384568 -0.01046178464335273 -0.001740927290753154 
0.07353442541526777 -0.02637872254722507 -0.02103945018161132 -0.02866732488338649 
0.01872886308594652 -0.01858132714384568 -0.01046178464335273 -0.001740927290753154 
0.01872886308594652 -0.01858132714384568 -0.01046178464335273 -0.001740927290753154 
-0.07603522484694171 0.07175764645320003 0.04802117020951087 -0.003546938670027873 
-0.1636870892170996 0.05527098487445919 0.1043477120299554 -0.01475000326760394 
-0.0235692032418253 -0.02535073636263168 0.06066047184201714 -0.002115885993784586 
-0.0235692032418253 -0.02535073636263168 0.06066047184201714 -0.002115885993784586 
-0.07114040282419198 -0.08161891392283982 0.1542454832909934 -0.002115885993784586 
-0.1412736531050048 0.1535628734939185 -0.006686446464081524 -0.01961786835870215 
-0.1412736531050048 0.1535628734939185 0 -0.01518525706599125 
3.469446951953614e-18 0.00869392922620338 0 0 
-0.1412736531050048 0.1535628734939185 0 -0.01518525706599125 
-0.1412736531050048 0.1535628734939185 0 -0.01518525706599125 
0 0 -0.01608075495705538 0 
0 0 0 0 
0 0.04743142587512646 -0.01603201204589412 0 
0 0.04743142587512646 -0.01603201204589412 0 
-4.336808689942018e-19 0 -0.006852772249273096 0 
-4.336808689942018e-19 0 -0.006852772249273096 0 
0 0 -0.0009596039615162851 0 
-4.336808689942018e-19 0 -0.006852772249273096 0 
-4.336808689942018e-19 0 -0.006852772249273096 0 
0 0 -0.0009596039615162851 0 
0 0 -0.005893168287756811 0 
0 0 0 0 
-0.01145630329381275 -0.02739307354021598 0.04732224379410228 -0.008337827799909672 
0 0 0 0 
0 0 0 0 
0.1136949835052425 -0.03841761886178358 -0.0356682532541336 -0.005872710937078753 
0.0416444174715121 -0.02045595092123026 0 -0.004023328674631834 
0.0416444174715121 -0.02045595092123026 0 -0.004023328674631834 
0.1275470132337659 -0.1121144492471915 0 -0.004023328674631834 
0.0416444174715121 -0.02045595092123026 0 -0.004023328674631834 
0.0416444174715121 -0.02045595092123026 0 -0.004023328674631834 
0.06677836124036934 -0.02803332911323141 -0.01771996293628593 -0.00059573965304298 
0 0 0 0 
3.469446951953614e-18 0 0 0 
0 0 0 0 
0 0 0 0 
-0.04034883935473988 0.03349299511795992 0 0 
-0.04034883935473988 0.03349299511795992 0 0 
-0.04034883935473988 0.03349299511795992 0 0 
-0.02938900403608246 0.03126045818182416 0 0 
-0.02938900403608246 0.03126045818182416 0 0 
0.07889565518725718 -0.04409031810421116 -0.02993554660899249 -0.003060305650462764 
0.07889565518725716 -0.04409031810421116 -0.02993554660899249 -0.003060305650462764 
0.07889565518725718 -0.04409031810421116 -0.02993554660899249 -0.003060305650462764 
0.07889565518725718 -0.04409031810421116 -0.02993554660899249 -0.003060305650462764 
0.1317058420510243 -0.07194296990893671 -0.05260536940298832 -0.003060305650462764 
0.07889565518725718 -0.04409031810421116 -0.02993554660899249 -0.003060305650462764 
0.04113589345305814 -0.01796166794055331 -0.002108079823130968 -0.001849382262446918 
0.04113589345305814 -0.01796166794055331 -0.002108079823130968 -0.001849382262446918 
0.04113589345305814 -0.01796166794055331 0 -0.001849382262446918 
0.04113589345305814 -0.01796166794055331 0 -0.001849382262446918 
0.04113589345305814 -0.01796166794055331 0 -0.001849382262446918 
-0.05038907982061918 0.04136166594843697 0 0 
-0.05038907982061918 0.04136166594843697 0 0 
-0.05038907982061918 0.04136166594843697 0 0 
-0.03076560649409129 0.04190314141796922 0 1.084202172485504e-19 
-0.02697260112128114 0.01003723087611597 0 0 
-0.02697260112128114 0.01003723087611597 0 0 
-0.02697260112128114 0.01003723087611597 0 0 
0.02841999866331027 -0.02442801937215653 -0.004641754275089275 0 
0.02841999866331027 -0.02442801937215653 -0.004641754275089275 0 
0.02841999866331027 -0.02442801937215653 -0.004641754275089275 0 
0.02841999866331027 -0.02442801937215653 -0.004641754275089275 0 
0.004143975595242105 0.005313987084919917 0 -0.01372053294821564 
0 0.005313987084919917 0 0 
0 0.005313987084919917 0 0 
-0.02936491445889085 0.0114458355020659 0 0 
-0.02936491445889085 0.0114458355020659 0 0 
-0.02936491445889085 0.0114458355020659 0 0 
-0.02936491445889085 0.0114458355020659 0 0 
-0.02936491445889085 0.0114458355020659 0 0 
1.301042606982605e-18 -0.01006068531173167 0 0 
0.02129603668817926 -0.02444867180899711 -0.01676873170245884 1.734723475976807e-18 
0 -0.01006068531173167 0 0 
0 -0.01006068531173167 0 0 
0 -0.01006068531173167 0 0 
-0.05280335196587861 -0.1138336166159006 0.1488279137560516 -0.01378965479996277 
0.008527613890701459 -0.00464786677944566 0 0 
0.02584929583865857 -0.01221180561506862 -0.01620289882816649 0 
0.02584929583865857 -0.01221180561506862 -0.01620289882816649 0 
0.07768551567964609 -0.04454988993136411 -0.003709495884485826 -0.02339053379091791 
0.113233755932694 -0.06399588233644728 -0.03449831845371643 -0.03738395182849242 
0.07768551567964609 -0.04454988993136411 -0.003709495884485826 -0.02339053379091791 
0.09898155236782534 -0.05893787642862956 -0.02047822758694466 -0.02339053379091791 
0 0.004438416283806455 -0.00812953559139626 0 
0 0.004438416283806455 -0.00812953559139626 0 
0 0.004438416283806455 -0.00812953559139626 0 
0 0.004438416283806455 -0.00812953559139626 0 
0 0.004438416283806455 -0.00812953559139626 0 
0 0.004438416283806455 -0.00812953559139626 0 
-0.008565293369268303 0.009822046379284419 0 0 
-0.01156382132587757 0.02859786872636577 0 -0.001492332968625358 
0 0 0 0 
-0.01156382132587757 0.02859786872636577 0 -0.001492332968625358 
0 0 0 -0.002074286196399003 
0 0 0 -0.002074286196399003 
0 0 0 -0.002074286196399003 
0.004143975595242105 0 0 -0.01372053294821564 
0.004143975595242105 0 0 -0.01754138420778266 
0.004143975595242105 0 0 -0.01372053294821564 
0.004143975595242105 0 0 -0.01372053294821564 
0 -0.01441416302014571 0 0 
0 -0.01441416302014571 0 0 
0 -0.01441416302014571 0 0 
0 -0.01441416302014571 0 0 
0 0 0 -0.009159614950806631 
0 0 0 0 
-0.03475675723738902 0.02115248230414397 0 0 
0 0 0 0 
0 0 0 0 
-0.03432802717307971 0.02572801301091657 0 0 
-0.03679209203473804 0.03963396904538803 0 0 
-0.03432802717307971 0.02572801301091657 0 0 
0 0.005630722960381455 0 0 
0 0.005630722960381455 0 0 
0 0.005630722960381455 0 0 
0.007561357037244761 0 0 0 
0.007561357037244761 0 0 0 
0.007561357037244761 0 0 0 
0 0 0 0 
0 0 0 0 
0 0 0 0 
0 0 0 0 
0 0 0 0 
0 0 0 0 
0.0627536213148273 -0.003485680074197899 -0.01929385887776826 0 
0.0627536213148273 -0.003485680074197899 -0.01929385887776826 0 
0.0627536213148273 -0.003485680074197899 -0.01929385887776826 0 
0 0 0 0 
0.01765483011381178 -0.006088331160495896 0 0 
0 0 0 0 
0 0 0 0 
0 0 0 0 
0 0 0 0 
0 0 0 0 
0 0 0 0 
0 0 0 0 
0 0 0 0 
0.0191159260915501 -0.009983325673568412 0 -0.007684679485544015 
0.0191159260915501 -0.009983325673568412 0 -0.007684679485544015 
0.0191159260915501 -0.009983325673568412 0 -0.007684679485544015 
0 0 0 0 
0 0 0 0 
0 0 0 0 
-0.03455262495413519 0.03942554889953546 -0.02845682895092934 0 
0 0.008537235399323448 -0.02845682895092934 0 
-0.008895309567917169 0.01476153986777979 -0.02845682895092934 0 
0 0.008537235399323448 -0.02845682895092934 0 
-0.03005082647836338 0.030133475633817 0 0 
-0.03005082647836338 0.030133475633817 0 0 
0 0 0 0 
0 -0.003565612267307311 0 0 
-0.1524815351317364 -0.04713334415045892 0.1947356453524139 -0.004589827310853327 
-0.1524815351317364 -0.04713334415045892 0.1947356453524139 -0.004589827310853327 
-0.1524815351317364 -0.04713334415045892 0.1947356453524139 -0.004589827310853327 
0.04841134502632254 -0.02146927820926383 -0.03348103124686844 0 
0.04841134502632254 -0.02146927820926383 -0.03348103124686844 0 
0.04841134502632254 -0.02146927820926383 -0.03348103124686844 0 
0.04841134502632254 -0.02146927820926383 -0.03348103124686844 0 
0 0 0 0 
0 0 0 0 
0 0 0 0 
0.01393497001732209 0 -0.001416875841969419 -0.005792889767999766 
0.01393497001732209 0 -0.001416875841969419 -0.005792889767999766 
0.01393497001732209 0 -0.001416875841969419 -0.005792889767999766 
0.01393497001732209 0 -0.001416875841969419 -0.005792889767999766 
0.01393497001732209 0 -0.001416875841969419 -0.005792889767999766 
0 0 0 0 
0 0 0 0 
0 0 0 0 
-0.1436717550808191 0.1756770287343203 -0.006793282898146107 -0.006196898065129223 
0 0.008447026284399289 -0.0119160239547177 -0.002627973006086048 
-0.1436717550808191 0.1756770287343203 -0.006793282898146107 -0.006196898065129223 
-0.1436717550808191 0.1756770287343203 -0.006793282898146107 -0.006196898065129223 
0.03467434749913458 -0.009568061624048201 -0.02027258394003349 0 
0.03467434749913458 -0.009568061624048201 -0.02027258394003349 0 
0.03467434749913458 -0.009568061624048201 -0.02027258394003349 0 
0.03467434749913458 -0.009568061624048201 -0.02027258394003349 0 
0 0 0 0 
0 0 0 0 
0.09961190954775491 -0.05312160932259966 -0.06434190232732347 -0.03076140778044429 
0.02513334943312451 -0.005477312470865525 -0.02196248293901646 -0.00785100138742172 
-0.1167154643485448 0.1767777728435682 -0.06241322170179853 -0.03911731606881264 
0.06886947076169991 -0.0426036590740095 0 -0.01952065654650241 
0.06886947076169991 -0.0426036590740095 0 -0.01952065654650241 
-0.001328940511151817 0.01795995450738177 0 0 
-0.001328940511151817 0.01795995450738177 0 0 
0 0 0 0 
0 0 0 0 
0 0 0 0 
0 0 0 0 
0 0 0 0 
0 0 0 0 
0.02902127558795563 -0.03190763180100307 0 0 
0.02902127558795563 -0.03190763180100307 0 0 
0.02902127558795563 -0.03190763180100307 0 0 
0.009693478802884686 -0.002427475863688315 0 0 
0.02755850341205463 -0.02369099000914503 0 0 
-0.128701538520744 0.1729004674931549 -0.04234099827609239 0 
0.02755850341205463 -0.02369099000914503 0 0 
0.04047359885708465 -0.05910734836823973 0 0 
0 -0.005413853748391697 0 -0.005820592827384072 
0 -0.005413853748391697 0 -0.005820592827384072 
0 0 0 0 
0 0 0 0 
0 0 0 0 
0 0 0 0 
-0.06133096585658004 -0.1091857498364549 0.1488279137560516 -0.01378965479996277 
0 -0.003565612267307311 0 0 
0 0 0 0 
0 0 0 0 
0 0 0 0 
0 0 0 0 
0 0 0 0 
0 0 0 0 
-0.03009415927735323 0.08645904210113048 -0.06090555058114683 -0.01375195399848622 
-0.03009415927735323 0.08645904210113048 -0.06090555058114683 -0.01375195399848622 
-0.03009415927735323 0.08645904210113048 -0.06090555058114683 -0.01375195399848622 
-0.03009415927735323 0.08645904210113048 -0.06090555058114683 -0.01375195399848622 
0.04037768286355595 0 -0.05222936332764722 0 
0 0 0 0 
-0.02747139433789084 -0.002648317271277932 0.04380234615751623 -0.002949237246804735 
-0.02747139433789084 -0.002648317271277932 0.04380234615751623 -0.002949237246804735 
-0.05039941270739213 -0.0164718387897882 0.0802068249912242 -0.002949237246804735 
-0.08993344035152359 -0.002648317271277932 0.1142538182135616 -0.002949237246804731 
0.006483162091712271 0 -0.0005719915226606676 0 
-0.03461969465351049 0.03418803590769005 -0.006132266481399205 -0.006962542248490865 
0 0 0 0 
0 0 0 0 
0 0 0 0 
-0.007378830740333507 0.007358433370166175 0 -0.009372122236575062 
-0.007378830740333507 0.007358433370166175 0 -0.001333594235218283 
1.081247804199261e-06 0 -0.004290257912169875 -0.01251760950896086 
1.081247804199261e-06 0 -0.004290257912169875 -0.01251760950896086 
1.081247804199261e-06 0 -0.004290257912169875 -0.01251760950896086 
0.09961190954775491 -0.05544429854056603 -0.06434190232732348 -0.03076140778044428 
0 0 0 0 
0 0 0 0 
0 0 -0.003211987956326565 0 
0.02789648271201218 -0.01493778849587311 -0.00865410586560183 0 
0.04037768286355595 0 -0.05222936332764722 0 
0.04037768286355595 0 -0.05222936332764722 0 
0.04037768286355595 0 -0.05222936332764722 0 
0.01786697595201872 -0.0009328692654507305 -0.006893790215863694 0 
0.01932779678507094 -0.02948015593731475 0 0 
0 -0.01996317849792284 0 0 
0 0 0 -0.01436334384408718 
0 0 0 -0.01436334384408718 
0 0 0 -0.01436334384408718 
0 0 0 -0.01436334384408718 
-0.01281721943668894 0.04518502772754516 -0.00519457081056012 0 
-0.01281721943668894 0.04518502772754516 -0.00519457081056012 0 
-0.01281721943668894 0.04518502772754516 -0.00519457081056012 0 
0.1385484688210925 -0.07899460318862814 -0.08611857181493167 -0.01465996570887585 
0.01291509544503003 -0.03541635835909471 0 0 
0.008568004940952542 0 0 0 
0.008450939863041528 -0.008086669752924271 0 0 
0.008568004940952542 0 0 0 
0.008450939863041528 -0.008086669752924271 0 0 
0.03519529378721557 -0.008309889936231468 -0.01539616899922758 -0.0004167192043954908 
0.03519529378721557 -0.008309889936231468 -0.01539616899922758 -0.0004167192043954908 
0.04983901515949882 -0.02739307354021598 -0.02262559997302578 -0.008337827799909672 
0.04983901515949882 -0.02739307354021598 -0.02262559997302578 -0.008337827799909672 
0.04983901515949882 -0.02739307354021598 -0.02262559997302578 -0.008337827799909672 
0 0 0 0 
0 0 -0.0006773614219854245 -0.003918837235239367 
0.01827731540661569 -0.01493339391434586 0 0 
0.01827731540661569 -0.01493339391434586 0 0 
0.01827731540661569 -0.01493339391434586 0 0 
0.01827731540661569 -0.01493339391434586 0 0 
0.01827731540661569 -0.01493339391434586 0 0 
0.02129603668817926 -0.01438798649726544 -0.01676873170245884 0 
0.02129603668817926 -0.01438798649726544 -0.01676873170245884 0 
0.02129603668817926 -0.01438798649726544 -0.01676873170245884 0 
0.002150849936516226 0 0 0 
0.002150849936516226 0 0 0 
0.002150849936516226 0 0 0 
0.002150849936516226 0 0 0 
0.002150849936516226 0 0 0 
0.006706344485826771 0 0 -0.01885577697481912 
0.06044859906270157 -0.02836899583786743 0 -0.0396298614609228 
0.006706344485826771 0 0 -0.01885577697481912 
0 0 0 0 
0 0 0 0 
0 0 0 0 
0 0 0 0 
-0.008565293369268303 0.009822046379284419 0 0 
-0.008565293369268303 0.009822046379284419 0 0 
-0.008565293369268303 0.009822046379284419 0 0 
-0.01104474632975402 0.02409049881650042 -4.336808689942018e-19 0 
-0.01104474632975402 0.02409049881650042 0 0 
-0.01104474632975402 0.02409049881650042 0 0 
0 0 0 -0.00854349565579198 
0 0 0 -0.00854349565579198 
0 0 0 -0.00854349565579198 
0 0 0 0 
0 0 0 0 
-0.05130334499885054 -0.006432208290987338 0.07557053899809808 -0.004438942110056509 
0 0.009524022974954739 0 0 
-0.005438907852831454 -0.02050822837866189 0.0212890324435021 0 
-0.005438907852831454 -0.02050822837866189 0.0212890324435021 0 
-0.005438907852831454 -0.02050822837866189 0.0212890324435021 0 
-0.005438907852831454 -0.02050822837866189 0.0212890324435021 0 
-0.005438907852831454 -0.02050822837866189 0.0212890324435021 0 
-0.005438907852831454 -0.02050822837866189 0.0212890324435021 0 
0 0 -0.01286655401585013 0 
0 0 -0.01286655401585013 0 
0.02789648271201218 -0.01493778849587311 -0.01830867192512538 0 
0 0 -0.01286655401585013 0 
-0.002464064861658336 0.01390595603447147 0 0 
-0.002464064861658336 0.01390595603447147 0 0 
-0.002464064861658336 0.01390595603447147 0 0 
0.09961190954775491 -0.05312160932259964 -0.06434190232732348 -0.03076140778044428 
0.09961190954775491 -0.05312160932259964 -0.06434190232732348 -0.03076140778044428 
0.09961190954775491 -0.05312160932259964 -0.06434190232732348 -0.03076140778044428 
0.1312253322496888 -0.07330027059944286 -0.08793080286469301 -0.03382932114559807 
0.02789648271201218 -0.01493778849587311 -0.005442117909275265 0 
-0.09105272689179396 -0.04248255813740309 0.1387857576257622 -0.009767049127395299 
-0.09105272689179396 -0.04248255813740309 0.1387857576257622 -0.009767049127395299 
0 0.002330157385961091 0 -0.003715007517814949 
0 0.002330157385961091 0 -0.003715007517814949 
0 0.002330157385961091 0 -0.003715007517814949 
0 0 0 0 
0 0 0 0 
0 0 0 0 
0 0 0 0 
0 0 0 0 
0 0 0 0 
0 0.005368503078222344 0 0 
-0.1377235005918119 -0.03818579888986639 0.1781209121863044 -0.0110106078769281 
-0.1377235005918119 -0.03818579888986639 0.1781209121863044 -0.0110106078769281 
-0.1377235005918119 -0.03818579888986639 0.1781209121863044 -0.0110106078769281 
-0.1377235005918119 -0.03818579888986639 0.1781209121863044 -0.0110106078769281 
-0.1377235005918119 -0.03818579888986639 0.1781209121863044 -0.0110106078769281 
-0.1377235005918119 -0.03818579888986639 0.1781209121863044 -0.0110106078769281 
-0.1377235005918119 -0.03818579888986639 0.1781209121863044 -0.0110106078769281 
-0.1377235005918119 -0.03818579888986639 0.1781209121863044 -0.0110106078769281 
0 0 0 0 
0 0 0 0 
0 0 0 0 
0 0.0007054301633265704 -0.009246497079772943 0 
0 0.0007054301633265704 -0.009246497079772943 0 
0 0.0007054301633265704 -0.009246497079772943 0 
0 0.0007054301633265704 -0.009246497079772943 0 
0 0 0 0 
0 0 0 0 
0 0 0 0 
-0.04484795167302398 0.05910634199351542 -0.01121476299321979 0 
-0.04484795167302398 0.05910634199351542 -0.01121476299321979 0 
-0.1895425632347048 0.2497586150047391 -0.05152131109666997 -0.003438654358074189 
0 0 0 0 
-9.012622452998352e-05 0.02970534322361811 -0.02054895523903214 -0.001669681906789866 
-9.012622452998396e-05 0.0297053432236181 -0.009804102142721739 0 
0 0 -0.009804102142721739 0 
0.08347307578637608 -0.02828262974466022 -0.04387940353151784 -0.01197839027849589 
0.08347307578637608 -0.02828262974466022 -0.04387940353151784 -0.01197839027849589 
0.001401047434805754 0 -0.0197679719521918 -0.008861223658994714 
0 0.00705907943659953 0 -0.00517412064380074 
0 0.00705907943659953 0 -0.00517412064380074 
0 0.00705907943659953 0 -0.00517412064380074 
0.002239319332155575 0 -0.008589659002094603 0 
0.002239319332155575 0 -0.008589659002094603 0 
0.00734317584692803 -0.01132853367752183 0 0 
0.00734317584692803 -0.01132853367752183 0 0 
0 0 -0.01793478134062348 -0.006820509598049665 
0 0 -0.01793478134062348 -0.006820509598049665 
-0.01968248444804744 -0.02321117608680748 0.03918475707763859 0 
0 0 0 0 
0 0 0 0 
0 0 0 0 
0 0 0 0 
0 0 0 0 
0 0 0 0 
0 0 0 0 
0 0 0 0 
0.01438905473012375 -0.01007128290231618 0 0 
0.01438905473012375 -0.01007128290231618 0 0 
0.01438905473012375 -0.01007128290231618 0 0 
0 0 0 0 
0 0 0 0 
0 0 0 0 
-0.02464901642655492 0.04745816974074279 0 0 
-0.02455889020202493 0.01775282651712468 0 0 
-0.03345419976994211 0.02397713098558102 0 0 
-0.02455889020202493 0.01775282651712468 0 0 
-0.02455889020202493 0.01775282651712468 0 0 
-0.02455889020202493 0.01775282651712468 0 0 
0.05562041886093857 0 -0.06111467203800245 -0.00368993031086203 
-0.008053638845756932 -0.01372923688085897 0.01150103295526034 -0.02018140774684171 
0.05562041886093857 0 -0.06111467203800245 -0.00368993031086203 
-0.008053638845756932 -0.01372923688085897 0.01150103295526034 -0.02018140774684171 
0.05562041886093857 0 -0.06111467203800245 -0.00368993031086203 
-0.005655352032502494 0.04986412202170966 -0.02634731585723379 0 
-0.005655352032502494 0.04986412202170966 -0.02634731585723379 0 
-0.005655352032502494 0.04986412202170966 -0.02634731585723379 0 
0 0 0 0 
0 0 0 0 
0 0 0 0 
0 -0.01854686697242222 0 0 
0 -0.01854686697242222 0 0 
0 0.0004869122220605932 0 0 
0 0.0004869122220605932 0 0 
0 0 0 0 
0 0 0 0 
0 0 0 0 
-0.004457098897764813 0.0262585398374574 0 0 
-0.03455262495413519 0.03088831350021202 0 0 
-0.004457098897764813 0.0262585398374574 0 0 
0 0 0 0 
0 0 0 0 
0 0 0 0 
0 0 0 0 
-0.01828638826933982 0.01041215044019084 -0.01338261701467675 -0.006617968747104364 
-0.02847986870299629 0.02611263652658094 0 0 
0 0 0 0 
0 -0.0121144138547643 0 0 
0 -0.0121144138547643 0 0 
0 -0.0121144138547643 0 0 
0 -0.0121144138547643 0 0 
-0.02847986870299629 0.02611263652658094 0 0 
0 0 0 0 
0 0 0 0 
0 0 0 0 
0.1000925100390417 -0.05187543328150396 -0.03005345311951847 -0.01163250160388692 
0.02749430880011676 -0.02006991035422506 -0.009522022167145086 0 
0 0 0 0 
0 0 0 0 
0.00232415021749137 -0.003179481917908727 0 0 
0.02981845901760813 -0.02324939227213379 -0.009522022167145089 0 
0.00232415021749137 -0.003179481917908727 0 0 
0.02749430880011676 -0.02006991035422506 -0.009522022167145089 0 
0.02749430880011676 -0.02006991035422506 -0.009522022167145089 0 
0.02749430880011676 -0.02006991035422506 -0.009522022167145089 0 
0 0.01647220221650017 -0.01390329891010233 -0.01361472767498511 
-0.04586731963121102 0.02170636208863102 -0.01390329891010233 -0.01361472767498511 
0 0.01647220221650017 -0.01390329891010233 -0.01361472767498511 
0 0.01647220221650017 -0.01390329891010233 -0.01361472767498511 
-0.07044739952264584 0.1082605407605135 -0.004949863847742227 0 
-0.1313728833644575 0.1849708216816087 -0.0323636666119011 0 
-0.09254668639290768 0.136889898797299 -0.03381701630398271 -0.01263411727381936 
-0.003545745269668172 0.01214975485792915 -0.01794360230784798 -0.01803063163189619 
-0.03732287197825059 0.03865816340225972 0 -0.001644716264891107 
0.06794046974466066 -0.07985375705200688 0 0 
0.07255438538194758 -0.07985375705200688 -0.01794360230784799 -0.01638591536700509 
0.003177772287874218 -0.008485623978016357 -0.008706923365841057 0 
0.06677836124036934 -0.04221945718998255 -0.01593027740334891 0 
-0.01816166115412831 -0.008930099174241698 -0.05486487560915103 0.07655647226686289 
0.05480556232932125 -0.00779739540337939 -0.01057766553825858 -0.02692639759263333 
0.05480556232932125 -0.00779739540337939 -0.01057766553825858 -0.02692639759263333 
0 0.002096329565652317 0 0 
-0.1436717550808191 0.1756770287343203 -0.006793282898146107 -0.006196898065129223 
0 0 0 0 
0.06441656236774591 -0.04006308542155051 -0.01263930163250626 -0.0007651958726693847 
0.02016065181060924 -0.01784060139197714 0 0 
0.02016065181060924 -0.01272426442634569 0 -0.006068723254099858 
0.09284435049769595 -0.03362325308924214 -0.04225702180379683 -0.00870490738686747 
0.09284435049769595 -0.03362325308924214 -0.04225702180379683 -0.00870490738686747 
0.09284435049769595 -0.03362325308924214 -0.04225702180379683 -0.00870490738686747 
0.08447460088606032 -0.03591911013445857 -0.03005345311951848 -0.01163250160388692 
0.08447460088606032 -0.03591911013445857 -0.03005345311951848 -0.01163250160388692 
0.08447460088606032 -0.03591911013445857 -0.03005345311951848 -0.01163250160388692 
0.08447460088606032 -0.03591911013445857 -0.03005345311951848 -0.01163250160388692 
0.08447460088606032 -0.03591911013445857 -0.03005345311951848 -0.01163250160388692 
0.08447460088606032 -0.03591911013445857 -0.03005345311951848 -0.01163250160388692 
0.08447460088606032 -0.03591911013445857 -0.03005345311951848 -0.01163250160388692 
0.0466776716067222 -0.01883247200187465 -0.008328465763433959 -0.003664317512080122 
0 0 0 0 
0.08271151054291631 -0.04432665965620475 -0.01142556147119353 0 
0.08271151054291631 -0.04432665965620475 -0.01142556147119353 0 
0.08271151054291631 -0.04432665965620475 -0.01142556147119353 0 
0.08271151054291631 -0.04432665965620475 -0.01142556147119353 0 
0 0 0 -0.01099725782681949 
0 0 0 -0.01099725782681949 
0 0 0 -0.01099725782681949 
0.05243641332276427 -0.02814835902671773 0 -0.01442620549233128 
0.05243641332276427 -0.02814835902671773 0 -0.01442620549233128 
0.05243641332276427 -0.02814835902671773 0 -0.01442620549233128 
0.05243641332276427 -0.02814835902671773 0 -0.01442620549233128 
0 0 0 0 
0 0 0 0 
0.01313216260498713 -0.004599185137071645 0 0 
0.01501926878471473 -0.004599185137071642 0 0 
0.01313216260498713 -0.004599185137071645 0 0 
0 0.008693929226203384 0 0 
0 0.008693929226203384 0 0 
0 0.008693929226203384 0 0 
0 0 0 0 
0 0 0 0 
0.03879011723764476 -0.0194433562277342 -0.01454537470504984 0 
0.03879011723764476 -0.0194433562277342 0 0 
0.03879011723764476 -0.0194433562277342 0 0 
0.03879011723764476 -0.0194433562277342 0 0 
0.06360058895249514 -0.03373383321196619 -0.007223354037507845 0 
0.06360058895249514 -0.03373383321196619 -0.007223354037507845 0 
0 0 0 0 
0 0 0 0 
0 0 0 0 
0 0 0 0 
0.04059152591454793 -0.01171362057401717 -0.02545631731245247 0 
0 0 0 0 
0 0 0 0 
0 0.002684277281227566 0 0 
0 0.002684277281227566 0 0 
0 0.002684277281227566 0 0 
0 0.002684277281227566 0 0 
0 0.002684277281227566 0 0 
0.04059152591454793 -0.01171362057401717 -0.02545631731245247 0 
0.04059152591454793 -0.01171362057401717 -0.02545631731245247 0 
0.04059152591454793 -0.01171362057401717 -0.02545631731245247 0 
-0.02607436662128217 0.03292031034872799 0 0 
-0.02607436662128217 0.03292031034872799 0 0 
-0.02607436662128217 0.03292031034872799 0 0 
-0.02607436662128217 0.03292031034872799 0 0 
0.04962039605611979 -0.03048950275661426 -0.01420253400461426 0 
0.04962039605611979 -0.03048950275661426 -0.01420253400461426 0 
0.04962039605611979 -0.03048950275661426 -0.01420253400461426 0 
0.04962039605611979 -0.03048950275661426 -0.01420253400461426 0 
0.04962039605611979 -0.03048950275661426 -0.01420253400461426 0 
0.04962039605611979 -0.03048950275661426 -0.01420253400461426 0 
0 0 0 -0.000184879601089965 
0 0 0 -0.000184879601089965 
0 0 0 -0.000184879601089965 
0.03921044001976959 -0.01268814120704944 -0.02716748137648043 0 
0.03921044001976959 -0.01268814120704944 -0.02716748137648043 0 
0.03921044001976959 -0.01268814120704944 -0.02716748137648043 0 
0.03921044001976959 -0.01268814120704944 -0.02716748137648043 0 
0 0 0 0 
0 0 0 0 
0 0 0 0 
0 0 0 0 
-0.3003849613495727 -0.06317661216727702 0.1416772851623418 0.2298794847746186 
-0.1212650787827087 -0.0390647731007368 0.1894858958200427 -0.03011895322376419 
-0.1212650787827087 -0.0390647731007368 0.1894858958200427 -0.03011895322376419 
-0.1212650787827087 -0.0390647731007368 0.1894858958200427 -0.03011895322376419 
-0.1212650787827087 -0.0390647731007368 0.1894858958200427 -0.03011895322376419 
-0.1212650787827087 -0.0390647731007368 0.1894858958200427 -0.03011895322376419 
0 0.003202352488239715 0 0 
0.02389447010878009 -0.01344929971487028 -0.003190474635585674 0 
0 0 0 0 
0.007848613412423003 0 -0.003190474635585672 0 
0 0 0 0 
-0.08809460606238033 0.06714953152559214 0 0 
0.02356701677318688 -0.006693263670514953 -0.002581895514097259 -0.01524276830680352 
0.03751435675844033 0 0 -0.005539690759342559 
0.03751435675844033 0 0 -0.005539690759342559 
0.03751435675844033 0 0 -0.005539690759342559 
0.007848613412423001 0 -0.003190474635585672 0 
0.007848613412423001 0 -0.003190474635585672 0 
0.01731118879343523 -0.06702981172039366 0 0 
0 -0.00103216309079574 0 0 
0 -0.00103216309079574 0 0 
-0.02299417043982815 0.03336788775164327 0 0 
0 0 0 0 
0 0 0 0 
0.001926425558882253 -0.007981800969771627 0 0 
0.001926425558882253 -0.007981800969771627 0 0 
0.001926425558882253 -0.007981800969771627 0 0 
0.001926425558882253 -0.007981800969771627 0 0 
0.006182426992773073 -0.01990278831634422 0 0 
0.006182426992773073 -0.01990278831634422 0 0 
0.04423555522080746 -0.02859405433982906 -0.02004794421637402 0 
0.04423555522080746 -0.02859405433982906 -0.02004794421637402 0 
0.04423555522080746 -0.02859405433982906 -0.02004794421637402 0 
0.04423555522080746 -0.02859405433982906 -0.02004794421637402 0 
0.0466776716067222 -0.01883247200187465 -0.008328465763433959 -0.003664317512080122 
0.0466776716067222 -0.01883247200187465 -0.008328465763433959 -0.003664317512080122 
0.0466776716067222 -0.01883247200187465 -0.008328465763433959 -0.003664317512080122 
0.0466776716067222 -0.01883247200187465 -0.008328465763433959 -0.003664317512080122 
0.0466776716067222 -0.01883247200187465 -0.008328465763433959 -0.003664317512080122 
0.0466776716067222 -0.01883247200187465 -0.008328465763433959 -0.003664317512080122 
0 0 -0.0006773614219854245 -0.003918837235239367 
0 0 -0.0006773614219854245 -0.003918837235239367 
0 0 -0.0006773614219854245 -0.003918837235239367 
0.1095640080799521 -0.05377133290375891 -0.05737807943165766 -0.001377914732332827 
0 0 0 0 
0 0 0 0 
0 0 0 0 
0 0 0 -0.02626066810050778 
0 0 0 -0.02626066810050778 
0 0 0 -0.02626066810050778 
0 0 0 -0.02626066810050778 
0.0622337933488383 -0.03209603126206632 -0.0294426483078829 0 
0.0622337933488383 -0.03209603126206632 -0.0294426483078829 0 
0.0622337933488383 -0.03209603126206632 -0.0294426483078829 0 
0.0622337933488383 -0.03209603126206632 -0.0294426483078829 0 
0 0 0 0 
0 0 0 0 
0 0 0 0 
0 0 0 0 
0 0.01016017298021915 0 -0.007635180626714142 
0 0.01016017298021915 0 -0.007635180626714142 
-0.1446946115616807 0.1906522730112238 -0.04030654810345018 -0.003438654358074189 
-0.1446946115616808 0.1906522730112237 -0.04030654810345019 -0.003438654358074189 
-0.1446946115616808 0.1906522730112237 -0.04030654810345019 -0.003438654358074189 
-0.1446946115616808 0.1906522730112237 -0.04030654810345019 -0.003438654358074189 
0.2083448839189788 -0.08790490448573818 -0.09754413328612521 -0.01465996570887585 
0.2083448839189788 -0.08790490448573818 -0.09754413328612521 -0.01465996570887585 
0 0 0 0 
0.00461391563728693 0 -0.01794360230784799 -0.01638591536700509 
0.00461391563728693 0 -0.01794360230784799 -0.01638591536700509 
0.00461391563728693 0 -0.01794360230784799 -0.01638591536700509 
0.01561790915298134 -0.0159563231470454 0 0 
0.01561790915298134 -0.0159563231470454 0 0 
0.01561790915298134 -0.0159563231470454 0 0 
-0.02299417043982815 0.02081500678143982 0 0 
-0.02299417043982815 0.02081500678143982 0 0 
-0.02299417043982815 0.02081500678143982 0 0 
0.03823621272680764 0 0 -0.05111776075366236 
0.03823621272680764 0 0 -0.05111776075366236 
0.03823621272680764 0 0 -0.05111776075366236 
-0.1598593863477105 -0.05019809295079977 0.2176189669542236 -0.008894058588795654 
-0.1598593863477105 -0.05019809295079977 0.2176189669542236 -0.008894058588795654 
-0.1598593863477105 -0.05019809295079977 0.2176189669542236 -0.008894058588795654 
-0.1598593863477105 -0.05019809295079977 0.2176189669542236 -0.008894058588795654 
-0.1598593863477105 -0.05019809295079977 0.2176189669542236 -0.008894058588795654 
0 0 0 -0.00382085125956702 
0 0 0 0 
0.01311735437493839 -0.0130591088294603 0 0 
0 0 0 0 
-0.1184165175264855 0 0 0.1379378315112459 
-0.179119882566864 -0.02411183906654025 -0.0478086106577009 0.2599984379983828 
-0.1184165175264855 0 0 0.1379378315112459 
-0.03482884896933897 0.02236391733393223 0 0 
-0.03482884896933897 0.02236391733393223 0 0 
-0.03482884896933897 0.02236391733393223 0 0 
-0.03482884896933897 0.02236391733393223 0 0 
-0.03482884896933897 0.02236391733393223 0 0 
0 0 0 0 
0 0 0 0 
0 0 0 0 
0 0 0 0 
0.04420866344023026 0 -0.01150554531855621 -0.01043092438151576 
0.04420866344023026 0 -0.01150554531855621 -0.01043092438151576 
0.04420866344023026 0 -0.01150554531855621 -0.01043092438151576 
0.04420866344023026 0 -0.01150554531855621 -0.01043092438151576 
0 -0.01137307500141777 0 0 
0 -0.01137307500141777 0 0 
0 -0.01137307500141777 0 0 
0 -0.01137307500141777 0 0 
0 -0.01137307500141777 0 0 
-0.04586731963121103 0.002031807383891139 0 0 
-0.04586731963121103 0.002031807383891139 0 0 
0 0 0 0 
0 0 0 0 
-0.008895309567917169 0.006224304468456341 0 0 
0 0 0 0 
0 0 0 0 
0 0 0 0 
0 0 0 0 
0 0 0 0 
0 0 0 -0.004438942110056509 
0 0 0 -0.004438942110056509 
0 0 0 -0.004438942110056509 
0.1095640080799521 -0.04524521363298153 -0.05737807943165765 -0.001377914732332827 
0.08828703274785672 -0.03406954811009667 -0.05737807943165766 -0.001377914732332826 
0.1095640080799521 -0.04524521363298153 -0.05737807943165765 -0.001377914732332827 
0.1095640080799521 -0.05377133290375891 -0.05737807943165766 -0.001377914732332827 
0.1095640080799521 -0.04524521363298153 -0.05737807943165765 -0.001377914732332827 
0.1095640080799521 -0.04524521363298153 -0.05737807943165765 -0.001377914732332827 
0.0442559105571367 -0.02222248402957335 -0.01263930163250626 -0.0007651958726693847 
0.0442559105571367 -0.02222248402957335 -0.01263930163250626 -0.0007651958726693847 
0.0442559105571367 -0.02222248402957335 -0.01263930163250626 -0.0007651958726693847 
0.0442559105571367 -0.02222248402957335 -0.01263930163250626 -0.0007651958726693847 
-0.1427394637347291 0.1644869676785528 -0.007993583744515939 -0.01873585808989195 
-0.1412736531050047 0.1535628734939185 0 -0.01518525706599125 
-0.1412736531050047 0.1535628734939185 0 -0.01518525706599125 
0 0 -0.01608075495705538 0 
0 0 -0.01608075495705538 0 
0.04041380272744437 -0.01154456115439992 -0.04085926466607431 -0.0006337972516289574 
0.04041380272744437 -0.01154456115439992 -0.04085926466607431 -0.0006337972516289574 
0.04041380272744437 -0.01154456115439992 -0.04085926466607431 -0.0006337972516289574 
0.04041380272744437 -0.01154456115439992 -0.04085926466607431 -0.0006337972516289574 
-0.03160014333391872 0.02656439088553376 0 0 
-0.04471749770885711 0.03962349971499406 0 0 
-0.04471749770885711 0.03962349971499406 0 0 
-0.04471749770885711 0.03962349971499406 0 0 
0.005774801263258154 -0.01083278349723124 0 0 
0 0 0 0 
0 0 0 0 
-0.009867647069787164 0.02113375567890036 0 0 
0 0 0 0 
0 0 0 0 
0.01859375173544925 0 -0.02794208883969761 0 
0.01859375173544925 0 -0.02794208883969761 0 
-0.1456525771733637 -0.03233963532853185 0.1791071240183141 -0.01855734120350326 
-0.149808914107926 -0.03233963532853185 0.1791071240183141 -0.01855734120350326 
-0.1988737620114705 -0.01826529422149549 0.1933271196628074 0 
0 0 0 -0.004134540270178508 
0 0 0 -0.004134540270178508 
0 0 0 -0.01615107305381857 
0 0 0 -0.01615107305381857 
0 0 0 -0.01615107305381857 
0.0152153779832108 -0.007336856439856923 -0.01173271259581152 -0.01615107305381857 
0 0.01939441653529655 -0.05188079825085021 0 
0 0.01939441653529655 -0.05188079825085021 0 
0 0.01939441653529655 -0.05188079825085021 0 
0 0.01939441653529655 -0.05188079825085021 0 
0 0.01939441653529655 -0.05188079825085021 0 
-0.1112034362102572 -0.03024605527950351 -0.04428721007089245 0.1707517036669771 
-0.1112034362102572 -0.03024605527950351 -0.04428721007089245 0.1707517036669771 
-0.1112034362102572 -0.03024605527950351 -0.04428721007089245 0.1707517036669771 
0.06703305686968337 -0.02166722987468008 -0.04605517244740148 -0.01432075334236441 
0.06703305686968337 -0.02166722987468008 -0.04605517244740148 -0.01432075334236441 
0.06703305686968337 -0.02166722987468008 -0.04605517244740148 -0.01432075334236441 
-0.02200761679734281 0.02451258677923406 0 0 
0.009740864303020486 -0.01026202724250422 0 0 
0.009740864303020486 -0.01026202724250422 0 0 
0.009740864303020486 -0.01026202724250422 0 0 
0.009740864303020486 -0.01026202724250422 0 0 
0 0 0 0 
-0.008895309567917169 0.006224304468456339 0 0 
-0.008895309567917169 0.006224304468456339 0 0 
0.1256333733760625 -0.04357824482953344 -0.08611857181493167 -0.01465996570887585 
0.1256333733760625 -0.04357824482953344 -0.08611857181493167 -0.01465996570887585 
0.06160973348608105 0.00142097820047983 -0.0608990230503497 -0.01423895636963393 
0 0 0 -0.003446936906490638 
0 0 0 -0.003446936906490638 
0 0 0 -0.003446936906490638 
0 0 0 -0.003446936906490638 
0 0 0 -0.003446936906490638 
0.01311735437493839 -0.0130591088294603 0 0 
0.01311735437493839 -0.0130591088294603 0 0 
0 0 0 0 
-0.02958560166613862 0.03126441452925244 0 0 
0 0 0 0 
0 0.01328105735803166 0 0 
0 0.01328105735803166 0 0 
0 0.01328105735803166 0 0 
0 0.01328105735803166 0 0 
0 0.01328105735803166 0 0 
0 0.001352965303392217 0 0 
0 0 0 0 
0 0 0 0 
0 0 0 0 
0 -0.002322689217966386 0 0 
0 -0.002322689217966386 0 0 
0.02996406647889461 -0.002574813679600622 -0.008382505268155906 -0.01020102113234997 
0.02996406647889461 -0.002574813679600622 -0.008382505268155906 -0.01020102113234997 
0.02996406647889461 -0.002574813679600622 -0.008382505268155906 -0.01020102113234997 
0.02996406647889461 -0.002574813679600622 -0.008382505268155906 -0.01020102113234997 
-0.025796046330232 0.04667788841133826 0 0 
-0.025796046330232 0.04667788841133826 0 0 
-0.025796046330232 0.04667788841133826 0 0 
0.01425220356486868 -0.005058005907817712 -0.01402009086677177 -0.01399341803757451 
0.01425220356486868 -0.005058005907817712 -0.01402009086677177 -0.01399341803757451 
0.01425220356486868 -0.005058005907817712 -0.01402009086677177 -0.01399341803757451 
0.01425220356486868 -0.005058005907817712 -0.01402009086677177 -0.01399341803757451 
0.01425220356486868 -0.005058005907817712 -0.01402009086677177 -0.01399341803757451 
0 0 0 0 
0 0 0 0 
0.05281018686376712 -0.02785265180472554 -0.02266982279399583 0 
0.05281018686376712 -0.02785265180472554 -0.02266982279399583 0 
0.05281018686376712 -0.02785265180472554 -0.02266982279399583 0 
0.05281018686376712 -0.02785265180472554 -0.02266982279399583 0 
0.05281018686376712 -0.02785265180472554 -0.02266982279399583 0 
-0.02292801836950132 -0.01382352151851027 0.03640447883370797 0 
-0.02292801836950132 -0.01382352151851027 0.03640447883370797 0 
0.01765483011381178 -0.006088331160495896 0 0 
0.01765483011381178 -0.006088331160495896 0 0 
0.01765483011381178 -0.006088331160495896 0 0 
0 0 0 0 
0 0 0 0 
0 0 -0.006686446464081524 -0.004432611292710898 
0 0 -0.006686446464081524 -0.004432611292710898 
0 0 -0.006686446464081524 -0.004432611292710898 
0 0 -0.006686446464081524 -0.004432611292710898 
0 0 -0.006686446464081524 -0.004432611292710898 
-0.01981518556588896 0.04209185576876665 -0.007993583744515939 -0.003550601023900697 
-0.2402762321228242 -0.07644457552883754 0.3047797659249369 -0.03670130664547143 
-0.1454795105204403 -0.03233963532853185 0.1664529319934414 -0.01855734120350326 
-0.2402762321228242 -0.07644457552883754 0.3047797659249369 -0.03670130664547143 
-0.1454795105204403 -0.03233963532853185 0.1664529319934414 -0.01855734120350326 
0 0 0 -0.006068723254099858 
0 0 0 -0.006068723254099858 
-0.1642034824155168 -0.03916740735274958 0.1858500815179687 0 
-0.02209928687026185 0.0286293580367855 -0.02886715245624046 -0.01263411727381936 
0.02447886472265704 -0.01522444978217016 -0.01435526536665992 -0.001105745365726629 
0.02447886472265704 -0.01522444978217016 -0.01435526536665992 -0.001105745365726629 
0.02447886472265704 -0.01522444978217016 -0.01435526536665992 -0.001105745365726629 
0.02447886472265704 -0.01522444978217016 -0.01618544138179556 -0.001105745365726629 
-0.1027654472454907 0 0.1081452719039728 0 
-0.1027654472454907 0 0.1081452719039728 0 
-0.1027654472454907 0 0.1081452719039728 0 
-0.01165697128995003 0 0 0 
-0.01165697128995003 0 0 0 
0 0 0 0 
0 0 0 0 
-0.05130334499885054 -0.01595623126594208 0.07557053899809808 0 
-0.03475675723738902 0.02115248230414397 0 0 
-0.03475675723738902 0.02115248230414397 0 0 
-0.09487266779429941 -0.04574271580901568 0.1429380059734797 -0.01079201946314329 
-0.1912391585177695 -0.02601121170535153 0.2038370290238294 0 
-0.1912391585177695 -0.02601121170535153 0.2038370290238294 0 
-0.1912391585177695 -0.02601121170535153 0.2038370290238294 0 
-0.1912391585177695 -0.02601121170535153 0.2038370290238294 0 
0 0 0 0 
0 0 0 0 
0 0 0 0 
0 0 0 0 
0.07645475064480807 -0.05644127210968213 0 -0.02281677002557522 
0.07645475064480807 -0.05644127210968213 0 -0.02281677002557522 
0.07645475064480807 -0.05644127210968213 0 -0.02281677002557522 
0.07645475064480807 -0.05644127210968213 0 -0.02281677002557522 
0.07645475064480807 -0.05644127210968213 0 -0.02281677002557522 
0.0152153779832108 -0.007336856439856921 -0.01173271259581152 0 
0.0152153779832108 -0.007336856439856921 -0.01173271259581152 0 
0.0152153779832108 -0.007336856439856921 -0.01173271259581152 0 
0.0152153779832108 -0.007336856439856921 -0.01173271259581152 0 
-0.01968248444804744 -0.02321117608680748 0.03918475707763859 0 
-0.01968248444804744 -0.02321117608680748 0.03918475707763859 0 
0 0 -0.03197641211778179 0 
0 0 -0.03197641211778179 0 
-0.008512737502366811 0.008084879456200825 0 0 
-0.008512737502366811 0.008084879456200825 0 0 
-0.008512737502366811 0.008084879456200825 0 0 
-0.008512737502366811 0.008084879456200825 0 0 
-0.008512737502366811 0.008084879456200825 0 0 
-0.02475012040737279 0.0151429285098565 0 0 
-0.02475012040737279 0.0151429285098565 0 0 
-0.02475012040737279 0.0151429285098565 0 0 
0 0 0 0 
0 0 0 0 
0.003700426064223377 0 0 0 
0.003700426064223377 0 0 0 
0.003700426064223377 0 0 0 
0 0 0 0 
0.0316134227019339 -0.02017866127684318 -0.02358890053736954 -0.003067913365153784 
0.0316134227019339 -0.02017866127684318 -0.02358890053736954 -0.003067913365153784 
0.0316134227019339 -0.02017866127684318 -0.02358890053736954 -0.003067913365153784 
0.01834937493616463 -0.03116776158413246 0 0 
0.01834937493616463 -0.03116776158413246 0 0 
0.01834937493616463 -0.03116776158413246 0 0 
0 0 -0.0107448530963104 -0.001669681906789864 
0 0 -0.0107448530963104 -0.001669681906789864 
0 0 -0.0107448530963104 -0.001669681906789864 
0.00413664050072401 -0.0009613443733997992 0 0 
0.00413664050072401 -0.0009613443733997992 0 0 
0.00413664050072401 -0.0009613443733997992 0 0 
0.06393529914987246 -0.03778406082200536 0 0 
0 0 0 0 
0 0 0 0 
0 0 0 0 
0 0 0 0 
-0.02075601363983179 0.008135266974444517 0 0 
-0.02075601363983179 0.008135266974444517 0 0 
-0.04699893003876912 0.05613734320544587 0 -0.001399288060703744 
-0.0967219321622531 0.1060498094873733 0 -0.0006658568035739036 
-0.0967219321622531 0.1060498094873733 0 -0.0006658568035739036 
0.05907415334003271 -0.03480086500388247 -0.02617669638613481 0 
0.05907415334003271 -0.03480086500388247 -0.02617669638613481 0 
0.05907415334003271 -0.03480086500388247 -0.02617669638613481 0 
0.05907415334003271 -0.03480086500388247 -0.02617669638613481 0 
0.05907415334003271 -0.03480086500388247 -0.02617669638613481 0 
0 0 0 0 
0.003153992495703044 0 0 0 
0.003153992495703044 0 0 0 
0.003153992495703044 0 0 0 
0.007290430678927678 0 -0.01217694503349411 0 
0.007290430678927678 0 -0.01217694503349411 0 
0 0.009487541950496649 0 0 
0 0 0 0 
0 0 0 0 
0 0 0 0 
-0.02352800536927146 0.01738471708918756 0 0 
-0.02352800536927146 0.01738471708918756 0 0 
-0.1288659535864723 0.1565640379731021 -0.02741380276415888 0 
-0.0478588405133131 0.03451374908085917 0 0 
0 0 0 0 
0 0 0 0 
-0.06070336504037849 -0.02411183906654025 -0.04780861065770091 0.1220606064871369 
-0.06070336504037849 -0.02411183906654025 -0.04780861065770091 0.1220606064871369 
-0.06070336504037849 -0.02411183906654025 -0.04780861065770091 0.1220606064871369 
0 0 0 0 
0 0 0 0 
0 0 0 0 
0 0 0 0 
0 0 0 0 
0 0 0 0 
0 0 0 0 
0 0 0 0 
-0.02847986870299629 0.02611263652658094 0 0 
-0.02847986870299629 0.02611263652658094 0 0 
-0.02847986870299629 0.02611263652658094 0 0 
0 0.01255288097020346 0 0 
-0.01338648612691936 0 0 0 
-0.01338648612691936 0 0 0 
-0.01338648612691936 0 0 0 
-0.01338648612691936 0 0 0 
0.03091467258067225 0 -0.0356682532541336 0 
0.03091467258067225 0 -0.0356682532541336 0 
0.03091467258067225 0 -0.0356682532541336 0 
-0.03441913060207912 0.03528876242151576 0 0 
0 0 0 0 
-9.012622452998352e-05 0.02970534322361811 0 0 
-9.012622452998352e-05 0.02970534322361811 0 0 
0.004156336934562217 0 0 0 
0.004156336934562217 0 0 0 
0.004156336934562217 0 0 0 
0.004156336934562217 0 0 0 
0.004156336934562217 0 0 0 
0 0 0 -0.003439967274539233 
0 0 0 -0.003439967274539233 
0 0 0 -0.003439967274539233 
0 0 0 -0.003439967274539233 
0 0 0 -0.003439967274539233 
-0.0004403239277711767 0.002203784267243267 0 0 
-0.0004403239277711767 0.002203784267243267 0 0 
0 0 0 0 
0 0 0 0 
0 0 0 0 
0 0 0 0 
0 0 0 0 
0 0 -0.01454537470504984 0 
0 0 0 0 
-0.1436717550808191 0.1756770287343203 -0.006793282898146107 -0.006196898065129223 
-0.1436717550808191 0.1756770287343203 -0.006793282898146107 -0.006196898065129223 
-0.1436717550808191 0.1756770287343203 -0.006793282898146107 -0.006196898065129223 
-0.008081153497331132 0.006350208738832375 0 0 
0.05374225457687478 -0.02836899583786743 0 -0.02077408448610368 
0.00136621445182591 -0.03202392722279977 0 0 
0.1521689633017378 -0.08661304173955878 -0.03643027876386155 0 
0 -0.01126753053822841 0 0 
0 -0.01126753053822841 0 0 
0 -0.01126753053822841 0 0 
0.01025614053049718 0 -0.01159692036422801 0 
0.01025614053049718 0 -0.01159692036422801 0 
0.01025614053049718 0 -0.01159692036422801 0 
0.01025614053049718 0 -0.01159692036422801 0 
0 -0.003354887953036835 0 0 
0 -0.003354887953036835 0 0 
0 -0.003354887953036835 0 0 
0 -0.003354887953036835 0 0 
0 0 -0.01454537470504984 0 
0.01623100555084499 -0.02064220245159403 0 0 
0.01623100555084499 -0.02064220245159403 0 0 
0.01623100555084499 -0.02064220245159403 0 0 
-0.02958560166613862 0.03126441452925244 0 0 
-0.02958560166613862 0.03126441452925244 0 0 
-0.02958560166613862 0.03126441452925244 0 0 
-0.02958560166613862 0.03126441452925244 0 0 
0 0 0 -0.008038528001356779 
0 0 0 -0.008038528001356779 
-0.1691751373778287 0.2320078158613946 -0.04234099827609239 0 
-0.1691751373778287 0.2320078158613946 -0.04234099827609239 0 
-0.1691751373778287 0.2320078158613946 -0.04234099827609239 0 
-0.1691751373778287 0.2320078158613946 -0.04234099827609239 0 
-0.1691751373778287 0.2320078158613946 -0.04234099827609239 0 
-0.02127697533209539 0.01970178479366225 0 0 
0 0.005116336965631455 0 0 
0 0.005116336965631455 0 0 
0.09636649072347007 -0.01973150410366414 -0.0608990230503497 -0.01079201946314329 
0.09636649072347007 -0.01973150410366414 -0.0608990230503497 -0.01079201946314329 
0.09636649072347007 -0.01973150410366414 -0.0608990230503497 -0.01079201946314329 
0.09636649072347007 -0.01973150410366414 -0.0608990230503497 -0.01079201946314329 
0 0.0291133515086412 0 0 
8.673617379884035e-19 0.0291133515086412 -0.009530411279612168 0 
0 0.0291133515086412 0 0 
0 0.0291133515086412 0 0 
0 0.0291133515086412 0 0 
-0.0636740577066955 -0.01372923688085897 0.07261570499326279 -0.01649147743597968 
-0.0636740577066955 -0.01372923688085897 0.07261570499326279 -0.01649147743597968 
-0.0636740577066955 -0.01372923688085897 0.07261570499326279 -0.01649147743597968 
0.02309998476458701 0 -0.002594993543506264 -0.0005165739061367826 
0.02309998476458701 0 -0.002594993543506264 -0.0005165739061367826 
0.02309998476458701 0 -0.002594993543506264 -0.0005165739061367826 
0.02309998476458701 0 -0.002594993543506264 -0.0005165739061367826 
0.02309998476458701 0 -0.002594993543506264 -0.0005165739061367826 
-0.0317484811003633 0.03477461402173828 0 0 
-0.0317484811003633 0.03477461402173828 0 0 
0.05521487228520285 -0.04965133302584937 0.00770001056022317 -0.01246301161934736 
-0.06246204601363276 0 0.07045147205604536 0 
-0.06246204601363276 0 0.07045147205604536 0 
-0.06246204601363276 0 0.07045147205604536 0 
0.04552990762391198 -0.0292467500578996 0 -0.004601664616828841 
0.04552990762391198 -0.0292467500578996 0 -0.004601664616828841 
0.04552990762391198 -0.0292467500578996 0 -0.004601664616828841 
0.01604585669635709 -0.01344929971487029 0 0 
0.01604585669635709 -0.01344929971487029 0 0 
0.01604585669635709 -0.01344929971487029 0 0 
0.01150195128728865 0 -0.006430394377859547 0 
0.01150195128728865 0 -0.006430394377859547 0 
0.01150195128728865 0 -0.006430394377859547 0 
0.01150195128728865 0 -0.006430394377859547 0 
0.01150195128728865 0 -0.006430394377859547 0 
-0.01156382132587757 0.02859786872636577 0 -0.001492332968625358 
0 0 0 0 
-0.02075601363983179 0.008135266974444519 -0.001830176015135634 0 
-0.02075601363983179 0.008135266974444517 0 0 
-0.02075601363983179 0.008135266974444519 -0.001830176015135634 0 
-0.02075601363983179 0.008135266974444517 0 0 
0 0 0 0 
0 0 0 0 
0 0 -0.001830176015135634 0 
0 0 -0.001830176015135634 0 
0 0 -0.001830176015135634 0 
-0.01920427336003392 -0.02193642766303602 0.03589150017176617 0 
-0.01920427336003392 -0.02193642766303602 0.03589150017176617 0 
-0.01920427336003392 -0.02193642766303602 0.03589150017176617 0 
-0.01920427336003392 -0.02193642766303602 0.03589150017176617 0 
0.1521689633017378 -0.07534551120133037 -0.03643027876386155 0 
0.1521689633017378 -0.07534551120133037 -0.03643027876386155 0 
0.1521689633017378 -0.07534551120133037 -0.03643027876386155 0 
0.1521689633017378 -0.07534551120133037 -0.03643027876386155 0 
0.01019348043365647 -0.0157004860863901 -0.01338261701467675 -0.006617968747104364 
0.01019348043365647 -0.0157004860863901 -0.01338261701467675 -0.006617968747104364 
0.01019348043365647 -0.0157004860863901 -0.01338261701467675 -0.006617968747104364 
0.01019348043365647 -0.0157004860863901 -0.01338261701467675 -0.006617968747104364 
0.06009930895700989 -0.02621235180848598 -0.02872175728653345 -0.01246301161934736 
0.06009930895700989 -0.02621235180848598 -0.02872175728653345 -0.01246301161934736 
0.06009930895700989 -0.02621235180848598 -0.02872175728653345 -0.01246301161934736 
0.06009930895700989 -0.02621235180848598 -0.02872175728653345 -0.01246301161934736 
0.1176769182988356 -0.04965133302584937 -0.0627514614958222 -0.01246301161934736 
0.06009930895700989 -0.02621235180848598 -0.02872175728653345 -0.01246301161934736 
0.06009930895700989 -0.02621235180848598 -0.02872175728653345 -0.01246301161934736 
0.05757760934182572 -0.02343898121736338 -0.03402970420928874 0 
0.05757760934182572 -0.02343898121736338 -0.03402970420928874 0 
0.05757760934182573 -0.03196510048814075 -0.03402970420928874 0 
0.05757760934182572 -0.02343898121736338 -0.03402970420928874 0 
0.05757760934182572 -0.02343898121736338 -0.03402970420928874 0 
0.05757760934182572 -0.02343898121736338 -0.03402970420928874 0 
0.05757760934182572 -0.02343898121736338 -0.03402970420928874 0 
0 -0.008526119270777387 0 0 
0 -0.008526119270777387 0 0 
0 0 0 0 
0 0 0 0 
-0.09479672160238388 -0.0441049402003057 0.1383268339314954 -0.01814396544196816 
-0.09479672160238388 -0.0441049402003057 0.1383268339314954 -0.01814396544196816 
-0.09479672160238388 -0.0441049402003057 0.1383268339314954 -0.01814396544196816 
-0.09479672160238388 -0.0441049402003057 0.1383268339314954 -0.01814396544196816 
-0.09479672160238388 -0.0441049402003057 0.1383268339314954 -0.01814396544196816 
0 0 0 0 
0 0 0 0 
-0.01086401911946452 0.006998932265876121 0 0 
-0.01086401911946452 0.006998932265876121 0 0 
0.02379608093370614 -0.008168703222825523 0 0 
0.02379608093370614 -0.008168703222825523 0 0 
0.02379608093370614 -0.008168703222825523 0 0 
0.02379608093370614 -0.008168703222825523 0 0 
0 0.007634065957964377 0 -0.007689534005829416 
0 0.007634065957964377 0 -0.007689534005829416 
0 0.01418612807675115 -0.001789685532937036 -0.00059573965304298 
0 0.01418612807675115 -0.001789685532937036 -0.00059573965304298 
0 0.01418612807675115 -0.001789685532937036 -0.00059573965304298 
0 0.01418612807675115 -0.001789685532937036 -0.00059573965304298 
0 0 0 0 
0 0 0 0 
0 0 0 0 
0 0 -0.009530411279612168 0 
0 0 -0.009530411279612168 0 
0 0 -0.009530411279612168 0 
0 0 -0.009530411279612168 0 
0 0 0 0 
0 0 0 0 
0 0 0 0 
0 0 0 0 
0 0 0 0 
0.078341238725009 -0.09165849832596124 0 0 
0.078341238725009 -0.09165849832596124 0 0 
-0.06129531845331157 0 0.06994784376712808 0 
-0.06129531845331157 0 0.06994784376712808 0 
-0.1004375528862997 0 0.1050371550647083 -0.003100113336720666 
-0.1004375528862997 0 0.1050371550647083 -0.003100113336720666 
-0.1004375528862997 0 0.1050371550647083 -0.003100113336720666 
0 0 0 -0.001771073150965608 
0 0 0 -0.001771073150965608 
0 0 0 -0.001771073150965608 
0 0 0 0 
0 0 0 0 
0.02513334943312451 -0.005477312470865522 -0.004027701598392986 -0.001030491789372054 
0.02513334943312451 -0.005477312470865522 -0.004027701598392986 -0.001030491789372054 
0.02513334943312451 -0.005477312470865522 -0.004027701598392986 -0.001030491789372054 
0.02513334943312451 -0.005477312470865522 -0.004027701598392986 -0.001030491789372054 
0 0 0 0 
0.01106037652003515 -0.003585863484212228 0 -0.001131728057143399 
0.01106037652003515 -0.003585863484212228 0 -0.001131728057143399 
0 0 0 0 
0 0 0 0 
0 0 0 0 
0 0 0 0 
0 0 0 0 
