solver_type L2R_L2LOSS_SVC_DUAL
nr_class 3
label 1 2 3
nr_feature 734
bias -1
w
-0.09293126494795702 0.09834191298171727 -0.007018881357126728 
0.2935289157837981 -0.2794638327033812 -0.03975727168145452 
0.2274735756721268 -0.2486163007953145 -0.2499927085303133 
0.05308062102222128 -0.05242743143816028 0 
0.05308062102222128 -0.05242743143816028 0 
0.08176938410458236 -0.08239451640492662 0 
0.2104005803017117 -0.2013626346267061 -0.03076677818916825 
0.05308062102222128 -0.05242743143816028 0 
0.05308062102222128 -0.05242743143816028 0 
0.2274735756721268 -0.2486163007953145 -0.2499927085303133 
-0.2086058875229931 0.2394247265975717 -0.05953438086558619 
-0.01324749695811003 -0.007449209184209686 -0.129078824730565 
0.03990434550741342 -0.02657246371011695 -0.2500345316760808 
0.0303996021274765 -0.05897458153618161 0 
0.2502804241425891 -0.2566591527432732 -0.04108872339344052 
0.06606482847047668 -0.08894166650294791 0 
-0.1443010469250629 0.1217618478504623 -0.007018881357126729 
0.0303996021274765 -0.05897458153618161 0 
0.2450359014617291 -0.2553658765522684 -0.03740764365079241 
0.03737606538811559 -0.05897458153618161 0 
0.0303996021274765 -0.05897458153618161 0 
-0.01102141310189298 0.157787164970907 -0.2250317379976439 
-0.03534479659570004 0.1253258944490169 -0.2250317379976439 
0.1771241513477785 -0.1658761887390734 -0.03813701435291798 
0.1124666874011167 -0.1174141608206426 0 
-0.113242955943089 0.1197340552373508 0 
0 0 0 
0.02141976303651363 -0.0164878575490776 0 
0.05982130358263434 -0.05659890865683951 0 
-0.1186587958019283 0.1199653918936499 0 
0.2538955273704123 -0.2518877057336198 -0.02880233584277016 
0.1050560092296757 -0.1032519169980909 -0.006010956336572566 
0 0 0 
0 0 0 
0.2538955273704124 -0.2518877057336198 -0.02880233584277016 
0.07984187041752575 -0.0767184629956127 -0.006010956336572566 
0 0 0 
-0.09456971868858385 0.08980126060665143 0 
-0.09456971868858385 0.08980126060665143 0 
-0.2715195470958471 0.2726876730227762 -0.004721781959406471 
-0.09456971868858385 0.08980126060665143 0 
-0.09456971868858385 0.08980126060665143 0 
-0.09456971868858385 0.08980126060665143 0 
-0.2715195470958471 0.2726876730227762 -0.004721781959406471 
-0.09456971868858385 0.08980126060665143 0 
0.004387686410558661 -0.02376755928597481 -0.002958844465944035 
0.007651813818080298 -0.02407599416117294 0 
-0.09456971868858385 0.08980126060665143 0 
0.05141574673382746 -0.04719961298111558 0 
0.03534510896979316 -0.03271092821587868 0 
0.09545215427409165 -0.08744663140132566 -0.01390801742992253 
0.07845165960139508 -0.06648554145066554 -0.01401342210370888 
0.03534510896979316 -0.03271092821587868 0 
0.03534510896979316 -0.03271092821587868 0 
0.09545215427409165 -0.08744663140132566 -0.01390801742992253 
0.03534510896979316 -0.03271092821587868 0 
0.1267415955049586 -0.1145744251995141 -0.02319805260591749 
0.01274945163381021 -0.01198812909984244 -0.008970118947258819 
0.1104412395152423 -0.09658430958967153 -0.01061231746710567 
0.01274945163381021 -0.01198812909984244 -0.008970118947258819 
0.01274945163381021 -0.01198812909984244 -0.008970118947258819 
0.01274945163381021 -0.01198812909984244 -0.008970118947258819 
0.1104412395152423 -0.09658430958967153 -0.01061231746710567 
0.01274945163381021 -0.01198812909984244 -0.008970118947258819 
0.09446243700932444 -0.0935761400670803 -0.02445747425448475 
0.01434360012338868 -0.01781665258950098 -0.0007468862620015344 
0.01656350921501335 -0.01328645528964046 0 
0.1199555932825189 -0.1124226637657063 -0.02644589577978727 
0 0 0 
0.01656350921501335 -0.01328645528964046 0 
0 0 0 
0.008405707960271066 -0.006942054088137854 -0.0104814573763802 
0.008405707960271062 -0.006942054088137851 -0.005101496787003995 
-0.03866130120836048 0.05108122403970658 -0.009574012970111486 
0.008405707960271066 -0.006942054088137854 -0.0104814573763802 
0.008405707960271062 -0.006942054088137851 -0.005101496787003995 
0.008405707960271062 -0.006942054088137851 -0.005101496787003995 
-0.009957860673724058 0.01545698366429539 -0.01000750305418681 
0.003929020213427871 -0.003657926643372985 -0.003579248857412422 
0 0 0 
0 0 0 
0.003929020213427871 -0.003657926643372985 -0.003579248857412422 
0 0 0 
0.2326481804897465 -0.2249626945636327 -0.06165646632720378 
0.03258320840985141 -0.02593355673992086 -0.009946053502509371 
0.04347854118922846 -0.03640636290733657 0 
0.04347854118922846 -0.03640636290733657 0 
0.04347854118922846 -0.03640636290733657 0 
0.04347854118922846 -0.03640636290733657 0 
0.04347854118922846 -0.03640636290733657 0 
-0.05147062119599299 0.0223663142917635 -0.001452053273489299 
0.07009255230194711 -0.06290455075254314 0 
0.03371997728112251 -0.02582129260208435 0 
0.03584795565187056 -0.03059542718838318 -0.0008410049656245643 
0.03584795565187056 -0.03059542718838318 -0.0008410049656245643 
0.06200041930543651 -0.05215418850785273 -0.02837024953284972 
0.03584795565187056 -0.03059542718838318 -0.0008410049656245643 
0.03584795565187056 -0.03059542718838318 -0.0008410049656245643 
0.06200041930543651 -0.05215418850785273 -0.02837024953284972 
0.06063979926210792 -0.05482315187141943 -0.01321685271539455 
0.06063979926210792 -0.05482315187141943 -0.01321685271539455 
0.06063979926210792 -0.05482315187141943 -0.01321685271539455 
0.06063979926210793 -0.05482315187141943 -0.01754605245242895 
0.06063979926210792 -0.05482315187141943 -0.01321685271539455 
0.06063979926210792 -0.05482315187141943 -0.01321685271539455 
0.06063979926210792 -0.05482315187141943 -0.01321685271539455 
0.06063979926210792 -0.05482315187141943 -0.01321685271539455 
0.06869774691556239 -0.06715348867558354 0 
-0.03723919057274359 0.02637156234057567 -0.01222384415115223 
0 0 0 
0.02521413881214995 -0.02653345400247818 0 
0.02521413881214995 -0.02653345400247818 0 
0.04488260937535981 -0.04376233647017397 0 
0.1856609866784085 -0.1967206321215561 -0.01066679857686853 
0.04488260937535981 -0.04376233647017397 0 
0.04488260937535981 -0.04376233647017397 0 
0.0649674942269253 -0.06634615371288163 0 
0.1856609866784085 -0.1967206321215561 -0.01066679857686853 
0.04488260937535981 -0.04376233647017397 0 
-0.1108655566027262 0.1102716956661855 -0.01186718728077172 
-0.157250901871063 0.1601019677754364 -0.006562054377648773 
-0.1539053115215674 0.1522877297395639 -0.006562054377648773 
-0.157250901871063 0.1601019677754364 -0.006562054377648773 
-0.157250901871063 0.1601019677754364 -0.006562054377648773 
-0.157250901871063 0.1601019677754364 -0.006562054377648773 
-0.1539053115215674 0.1522877297395639 -0.006562054377648773 
-0.157250901871063 0.1601019677754364 -0.006562054377648773 
0.05530459944201958 -0.05001759574399051 0 
0.02868876308236108 -0.02996708496676633 0 
0.02868876308236108 -0.02996708496676633 0 
0 0 -0.003135462006266717 
0 0 -0.003135462006266717 
0 0 -0.003135462006266717 
0 0 0 
0 0 0 
0 0 -0.01659868668015639 
0 0 0 
0 0 0 
0 0 0 
0.04638534526833674 -0.04983027210925087 -0.02190381958327934 
0.08928568276954384 -0.08766459471051698 -0.02486266404922337 
0.1619082018792186 -0.1556555156010913 -0.001018681096694812 
0.07233074194949055 -0.06851586609565197 0 
0.07233074194949055 -0.06851586609565197 0 
0.09241562680105601 -0.09109968333835963 -0.005579757339371657 
0.07233074194949055 -0.06851586609565197 0 
0.07233074194949055 -0.06851586609565197 0 
0.07233074194949055 -0.06851586609565197 0 
0.07233074194949055 -0.06851586609565197 0 
0.003991261764230891 0 -0.005614979560843685 
0.1114705731379566 -0.1062297772015503 0 
0.0147567594284767 -0.01186428544418969 -0.004472516183107492 
0 0 0 
0 0 0 
0 0 0 
0.01130093923710613 -0.009707658732639714 -0.000303067369885383 
0.07741112858108284 -0.07671846299561269 0 
0 0 0 
0.01130093923710613 -0.009707658732639714 -0.000303067369885383 
0 0 0 
0.009840261262141537 1.734723475976807e-18 -0.005180195443626355 
0 0 0 
0.07494880959688609 -0.0795810816282316 4.336808689942018e-19 
0.03763544965636151 -0.03469834834919498 0 
0 0 0 
0.01118628917550232 0 -0.005904248093148106 
0.01118628917550232 0 -0.005904248093148106 
0.01118628917550232 0 -0.005904248093148106 
0.01118628917550232 0 -0.005904248093148106 
0.01118628917550232 0 -0.005904248093148106 
0.01118628917550232 0 -0.005904248093148106 
-0.3634171194130046 0.3800263241791603 -0.0280343504627155 
0.04121397198829035 -0.03916258161675244 0 
0.09213414587330868 -0.08190376906643144 -0.002137530965192272 
0.04121397198829035 -0.03916258161675244 0 
-0.1242278644930165 0.1310842585983266 0 
-0.1402802275900965 0.1374224951101071 0 
-0.1929256114085789 0.1982377472739102 0 
-0.1929256114085789 0.1982377472739102 0 
-0.1929256114085789 0.1982377472739102 0 
-0.1929256114085789 0.1982377472739102 0 
-0.1929256114085789 0.1982377472739102 0 
-0.1929256114085789 0.1982377472739102 0 
0.07790327630260897 -0.07231991870353689 -0.0253524792459216 
0.2258485478150103 -0.214935088326411 -0.04719043572682916 
0.07790327630260897 -0.07231991870353689 -0.0253524792459216 
0.2258485478150103 -0.214935088326411 -0.04719043572682916 
0.03073835294597538 -0.01899356077533066 0 
0.02727272290977806 -0.03429617313959275 0 
0.04965643011042881 -0.07476859771987607 -0.005379960589376201 
0.02727272290977806 -0.03429617313959275 0 
0.0831283354820862 -0.07810119807667493 -0.008990493492286289 
0.04697914136954734 -0.04465349787354641 0 
0 0 0 
0.019407064563264 -0.009303849093774696 -0.007239778282710402 
0.005244522680859722 -0.001293276191004981 0 
0 0 0 
0.002107845259928696 -0.0007453852394260143 -0.005579757339371657 
0 0 0 
-0.4418097623077969 0.438514853329304 -0.02381552553052443 
-0.07754728560129504 0.06635295004013576 0 
-0.07754728560129504 0.06635295004013576 0 
-0.4418097623077969 0.438514853329304 -0.02381552553052443 
-0.07754728560129504 0.06635295004013576 0 
0.05573082519268484 -0.06081525216380311 0 
0.05264538381848232 -0.06081525216380312 0 
0.05264538381848232 -0.06081525216380312 0 
0.05264538381848232 -0.06081525216380312 0 
0.1603101001069037 -0.156536664913498 -0.01774250890924369 
-0.08579388966525407 0.09893616582721754 -0.01661929804135604 
0.1560202658832222 -0.1465171884952098 -0.01091314337080824 
0.05168786543526103 -0.04869860356437015 -0.01535342412739531 
0.1230226151433588 -0.1230786421074982 -0.01535342412739531 
-0.08579388966525407 0.09893616582721754 -0.007423344314570413 
0.05168786543526103 -0.04869860356437015 -0.006157470400609686 
0 0 0 
0.01748053475311658 -0.01636984018780632 -0.01659868668015639 
0 0 0 
0 0 0 
0.01748053475311658 -0.01636984018780632 -0.01659868668015639 
0 0 0 
0.0217084101717645 -0.02770394034797127 0 
0.06000412439049585 -0.04538050053455973 -0.01547481939624851 
0 0 0 
0.115025265761708 -0.125072408679947 -0.03366449816981049 
0 0 0 
0.0582903981418957 -0.07039826766389204 -4.182314576820751e-05 
0.05534780786075526 -0.04770677064621959 -4.182314576820751e-05 
0.05534780786075526 -0.0477067706462196 -0.005755925143845217 
0.09374934840687597 -0.08781782175398151 -4.182314576820751e-05 
0.05534780786075526 -0.04770677064621959 -4.182314576820751e-05 
0.05534780786075526 -0.04770677064621959 -4.182314576820751e-05 
0.05534780786075526 -0.04770677064621959 -4.182314576820751e-05 
0.05534780786075526 -0.04770677064621959 -4.182314576820751e-05 
0.04310655063160191 -0.0337746132347869 -0.01401342210370888 
0.1703055359723306 -0.151607955252826 -0.02799189702282433 
0.04310655063160191 -0.0337746132347869 -0.01401342210370888 
0.04310655063160191 -0.0337746132347869 -0.01401342210370888 
0.1703055359723306 -0.151607955252826 -0.02799189702282433 
0 0 0 
0 0 0 
0 0 0 
0 0 -0.0007506147304749042 
0.1349505224732595 -0.1285543812748051 -0.009946568457260527 
0 0 -0.0007506147304749042 
0 0 -0.0007506147304749042 
0.1188798847092252 -0.1140656965095683 -0.009946568457260527 
0 0 -0.0007506147304749042 
0.04269467356526652 -0.0429032941902845 0 
0.02521413881214995 -0.02653345400247818 0 
-0.1415593528404054 0.124250407947187 0 
0.02851577364473275 -0.02786156340951769 0 
0.02851577364473275 -0.02786156340951769 -0.007285972443128137 
0.06038606381873293 -0.07204024062902856 -0.02891414682826776 
0.02851577364473275 -0.02786156340951769 0 
0.02851577364473275 -0.02786156340951769 -0.007285972443128137 
0.02851577364473275 -0.02786156340951769 0 
3.469446951953614e-18 0 -0.002389084781848381 
0 0 0 
0.01970641845976928 -0.01035732473395367 0 
-0.06584461951177573 0.07187502140255894 0 
0.01970641845976928 -0.01035732473395367 0 
0.01970641845976928 -0.01035732473395367 0 
0.01660377321161857 -0.009945933839606062 0 
0.01660377321161857 -0.009945933839606062 0 
0.05222093266785854 -0.07301230329419608 0 
0.01660377321161857 -0.009945933839606062 0 
-0.05719989385153756 0.06918605382259579 -0.004472516183107492 
0.03724041788976391 -0.03124547108192385 0 
0.03724041788976391 -0.03124547108192385 0 
-0.1059713541227984 -0.3064966036154931 0.3762992350619423 
-0.194347234350864 0.05241595175360192 0.1512674970642984 
-0.194347234350864 0.05241595175360192 0.1512674970642984 
-0.194347234350864 0.05241595175360192 0.1512674970642984 
-0.1059713541227984 -0.3064966036154931 0.3762992350619423 
-0.194347234350864 0.05241595175360192 0.1512674970642984 
-0.194347234350864 0.05241595175360192 0.1512674970642984 
-0.194347234350864 0.05241595175360192 0.1512674970642984 
0.09009348150099798 -0.08225815638290961 -0.002137530965192272 
0.07738407326841588 -0.06509858239140344 -0.002137530965192274 
0.05092017388501834 -0.04274118744967899 -0.002137530965192272 
0.05092017388501834 -0.04274118744967899 -0.002137530965192272 
-0.04218093700420605 0.05455944734405579 -0.008990493492286289 
0.0624496545293101 -0.06069415506967172 -0.01886444936685575 
0.01606430926097335 -0.01086388296042087 -0.008990493492286289 
0.01606430926097335 -0.01086388296042087 -0.008990493492286289 
0.0624496545293101 -0.06069415506967172 -0.01429562639540923 
0.01606430926097335 -0.01086388296042087 -0.008990493492286289 
0 0 0 
0 0 0 
0 0 -0.01659868668015639 
-0.02739276259647987 0.01117932273945819 0 
-0.02739276259647987 0.01117932273945819 0 
-0.02739276259647987 0.01117932273945819 0 
0 0 0 
0.07589327121003944 -0.08454106185120913 -0.02576912568728865 
0 0 0 
0.07589327121003944 -0.08454106185120913 -0.02576912568728865 
0 0 0 
0 0 0 
0 0 0 
0.01607063776403428 -0.01448868476523691 0 
0.01607063776403428 -0.01448868476523691 0 
0.01607063776403428 -0.01448868476523691 0 
0.01607063776403428 -0.01448868476523691 0 
0.002677288740881451 -0.03011509984632963 0 
0.002677288740881451 -0.03011509984632963 0 
0.002677288740881451 -0.03011509984632963 0 
0.002677288740881451 -0.03011509984632963 0 
0.002677288740881451 -0.03011509984632963 0 
0.003085441374202531 0 0 
0.003085441374202531 0 0 
0.003085441374202531 0 0 
0.02337443937636785 -0.0121549650238876 0 
0.02337443937636785 -0.0121549650238876 0 
0.02337443937636785 -0.0121549650238876 0 
0.02337443937636785 -0.0121549650238876 0 
0.02337443937636785 -0.0121549650238876 0 
-0.347380555279135 0.3513180296509258 0 
-0.09811544992883724 0.09675188226595878 -0.001642198519846847 
-0.1730642595257233 0.1763329638941904 0 
-0.347380555279135 0.3513180296509258 0 
-0.1730642595257233 0.1763329638941904 0 
-0.07670837075624312 0.07618960489128068 -0.007018881357126727 
0.0607047933327514 -0.07108880168936348 0 
0.0836728302318816 -0.08328829491525064 -0.005305132903122944 
0.04638534526833674 -0.04983027210925085 -0.005305132903122944 
0.04638534526833674 -0.04983027210925085 -0.005305132903122944 
0.0836728302318816 -0.08328829491525064 -0.005305132903122944 
0.04638534526833674 -0.04983027210925085 -0.005305132903122944 
0.03561715945623999 -0.06306636945459003 0 
0.06223299581589847 -0.08311688023181422 0 
0.03561715945623999 -0.06306636945459003 0 
0.03561715945623999 -0.06306636945459003 0 
0.08149599836608898 -0.08135998126718408 0 
0.01433814300570148 -0.01282740648076656 0 
0 0 0 
0 0 0 
0 0 0 
0 0 0 
0.005475798886924499 0 -0.0121860737337292 
0.001484537122693611 0 -0.006571094172885524 
0.001484537122693611 0 -0.006571094172885524 
0.001484537122693611 0 -0.006571094172885524 
0.001484537122693611 0 -0.006571094172885524 
0.001484537122693611 0 -0.006571094172885524 
0.0123002142446089 -0.009333435053006761 0 
0.02646389938339758 -0.02235739494172445 0 
0.0123002142446089 -0.009333435053006761 0 
0.115639732103669 -0.116041369990902 0 
0.03728748496354485 -0.03345802280599974 0 
0.03728748496354485 -0.03345802280599974 0 
0.03728748496354485 -0.03345802280599974 0 
0.006009151474707146 -0.006082538278720428 0 
0.006009151474707146 -0.006082538278720428 0 
0.006009151474707146 -0.006082538278720428 -0.004755672970198558 
0.0206735659610387 -0.01422324945084108 -0.01180821478615059 
0 0 -0.005379960589376201 
0 0 -0.005379960589376201 
0 0 -0.00287549433030585 
0 0 -0.00287549433030585 
0 0 -0.00287549433030585 
0.07827652069262185 -0.07743199077279957 -0.008001586169937566 
0.01729921930333531 -0.008558463854348684 -0.008945993386466879 
0 0 -0.007285972443128137 
0 0 -0.007285972443128137 
0 0 0 
0 0 0 
0 0 0 
-0.08837588022806557 0.358912555369095 -0.2250317379976439 
-0.08837588022806557 0.358912555369095 -0.2250317379976439 
0.008660416801574644 -0.04531141291771376 0 
0.002942590281140439 -0.02269149701767246 0 
0.008660416801574644 -0.04531141291771376 0 
0.002942590281140439 -0.02269149701767246 0 
0.002942590281140439 -0.02269149701767246 0 
0.07741112858108284 -0.0767184629956127 0 
0.07741112858108284 -0.0767184629956127 0 
0.07741112858108284 -0.0767184629956127 0 
0.07741112858108284 -0.0767184629956127 0 
0.07741112858108284 -0.0767184629956127 0 
0 0 0 
0 0 0 
0 0 0 
0 0 0 
0 0 0 
0.002430741836442901 0 0 
0.03652507365477679 -0.04313456746120423 0 
0.002430741836442901 0 0 
0.002430741836442901 0 0 
0.07494880959688609 -0.07958108162823162 0 
0.07494880959688609 -0.07958108162823162 0 
0.07494880959688609 -0.07958108162823162 0 
0.07494880959688609 -0.07958108162823162 0 
0.07494880959688609 -0.07958108162823162 0 
0.06208112846502613 -0.05957191984242767 0 
-0.07325605626337259 0.07779968927947739 -0.01109247165239195 
0.03917330761597965 -0.03951696893323063 0 
0.03917330761597965 -0.03951696893323063 0 
0.03917330761597965 -0.03951696893323063 0 
0.07835224714012418 -0.08258334718490226 0 
0.07835224714012418 -0.08258334718490226 0 
0.07835224714012418 -0.08258334718490226 0 
0.07835224714012418 -0.08258334718490226 0 
0.07835224714012418 -0.08258334718490226 0 
0.03409433181833388 -0.04313456746120423 0 
0.03409433181833388 -0.04313456746120423 0 
0.03409433181833388 -0.04313456746120423 0 
0.02615246365356595 -0.02155876131946955 -0.02922257320836583 
0.009481839215582278 0 -0.01074422481108225 
0 0 -0.001693328641140664 
0 0 -0.001693328641140664 
0 0 -0.001693328641140664 
0 0 0 
0.02220888988203591 -0.02405929826174111 0 
0 0 0 
0 0 0 
0.02220888988203591 -0.02405929826174111 0 
0 0 0 
0.03840154054612072 -0.04011105110776192 0 
0.03840154054612072 -0.04011105110776192 0 
0.003991261764230891 0 -0.005614979560843685 
0 0 0 
0 0 0 
0 0 0 
0.04892246464810682 -0.04040135124523943 -0.01326286119230601 
0.04892246464810682 -0.04040135124523943 -0.01326286119230601 
0.04892246464810682 -0.04040135124523943 -0.01326286119230601 
0 0 0 
0 0 0 
0 0 0 
0 0 0 
0 0 0 
0 0 0 
0.08920628365575964 -0.07652661246456065 -0.01600261449071175 
0.06000457520374974 -0.05388407061926664 -0.01473674057675103 
0.06000457520374974 -0.05388407061926664 -0.01473674057675103 
0.06000457520374974 -0.05388407061926664 -0.01473674057675103 
0.06000457520374974 -0.05388407061926664 -0.01473674057675103 
0.06000457520374974 -0.05388407061926664 -0.01473674057675103 
0 0 -0.0007468862620015344 
0 0 -0.0007468862620015344 
0 0 -0.0007468862620015344 
0 0 -0.0007468862620015344 
0 -0.003657926643372985 0 
0 -0.003657926643372985 0 
0 -0.003657926643372985 0 
0 -0.003657926643372985 0 
0.02661583635965849 -0.02005051077722419 0 
0.02661583635965849 -0.02005051077722419 0 
0.02661583635965849 -0.02005051077722419 0 
0.02661583635965849 -0.02005051077722419 0 
0.02661583635965849 -0.02005051077722419 0 
0.01518847787728802 -0.01345226016184563 -0.001146270138552698 
0.01518847787728802 -0.01345226016184563 -0.001146270138552698 
0 0 0 
0 0 0 
0 0 0 
-0.05101455398051735 0.05605638830353449 -0.04566987081618624 
-0.05101455398051735 0.05605638830353449 -0.04566987081618624 
0.01748053475311657 -0.01636984018780632 0 
0.01748053475311657 -0.01636984018780632 0 
0.01748053475311657 -0.01636984018780632 0 
0.01748053475311657 -0.01636984018780632 0 
0 0 -0.009195953726785625 
0.009840261262141537 0 -0.005180195443626355 
0.009840261262141537 -8.673617379884035e-19 -0.005180195443626355 
0.009840261262141537 0 -0.005180195443626355 
0.009840261262141537 0 -0.005180195443626355 
0.009840261262141537 -8.673617379884035e-19 -0.005180195443626355 
0.009840261262141537 0 -0.005180195443626355 
0 0 -0.001642198519846846 
0.003929020213427874 0 -0.003579248857412422 
0.05491961133678225 -0.05255211302137613 -0.003579248857412422 
0.003929020213427874 0 -0.003579248857412422 
0 0 0 
0.03283218489741375 -0.03132736923387039 0 
0 0 0 
0 0 0 
-0.09444031174130149 0.1004315249045197 -0.004472516183107492 
0.01117823709654785 -0.007400052176632223 -0.004472516183107492 
0 0 -0.003681079742648143 
0 0 -0.003681079742648143 
0 0 -0.003681079742648143 
0 0 -0.003681079742648143 
0 0 -0.003681079742648143 
0 0 -0.01659868668015639 
0 0 -0.01659868668015639 
0.06318687173947785 -0.04989703784496457 -0.0022119582039425 
0.01108165974238904 -0.004979149289320304 -0.0022119582039425 
0.01108165974238904 -0.004979149289320304 -0.0022119582039425 
0.01108165974238904 -0.004979149289320304 -0.0022119582039425 
0.01108165974238904 -0.004979149289320304 -0.0022119582039425 
0.01108165974238904 -0.004979149289320304 -0.0022119582039425 
0.01108165974238904 -0.004979149289320304 -0.0022119582039425 
-0.0537364221629873 0.06031042111919144 -0.002052260843828985 
-0.0537364221629873 0.06031042111919144 -0.002052260843828985 
-0.0537364221629873 0.06031042111919144 -0.002052260843828985 
-0.0537364221629873 0.06031042111919144 -0.002052260843828985 
-0.0537364221629873 0.06031042111919144 -0.002052260843828985 
-0.0537364221629873 0.06031042111919144 -0.002052260843828985 
0.002107845259928696 -0.0007453852394260147 -0.02462285554873596 
0 0 -0.02462285554873596 
0.01433814300570148 -0.01282740648076656 0 
0.01433814300570148 -0.01282740648076656 0 
0.01433814300570148 -0.01282740648076656 0 
0.01433814300570148 -0.01282740648076656 0 
0.02620257322692955 -0.02920006647945123 0 
0.02620257322692955 -0.02920006647945123 0 
0.02620257322692955 -0.02920006647945123 0 
0.02620257322692955 -0.02920006647945123 0 
0.02620257322692955 -0.02920006647945123 0 
0 0 -0.004329199737034406 
0 0 0 
-0.1587852182109108 0.1712731883115337 -0.01222384415115223 
0.07383512348159511 -0.07153142885235532 0 
0.07383512348159511 -0.07153142885235532 0 
0.07383512348159511 -0.07153142885235532 0 
0.07383512348159511 -0.07153142885235532 0 
0.003991261764230891 0 -0.005614979560843685 
0.003991261764230891 0 -0.005614979560843685 
0.003991261764230891 0 -0.005614979560843685 
-0.2316292947948987 0.2393005305780026 -0.01298612128280392 
-0.08709260538717727 0.08985150551909199 -0.008951193386964528 
-0.08709260538717727 0.08985150551909199 -0.008951193386964528 
-0.08709260538717727 0.08985150551909199 -0.008951193386964528 
-0.2316292947948987 0.2393005305780026 -0.01298612128280392 
-0.08709260538717727 0.08985150551909199 -0.008951193386964528 
-0.08709260538717727 0.08985150551909199 -0.008951193386964528 
-0.08709260538717727 0.08985150551909199 -0.008951193386964528 
-0.08709260538717727 0.08985150551909199 -0.008951193386964528 
-0.1445366894077214 0.1494490250589107 -0.004034927895839393 
-0.1445366894077214 0.1494490250589107 -0.004034927895839393 
-0.1445366894077214 0.1494490250589107 -0.004034927895839393 
-0.1445366894077214 0.1494490250589107 -0.004034927895839393 
-0.1445366894077214 0.1494490250589107 -0.004034927895839393 
-0.1179460796397539 0.116887297526639 0 
-0.1179460796397539 0.116887297526639 0 
-0.2326203416925059 0.242804617163889 -0.01222384415115223 
-0.2326203416925059 0.242804617163889 -0.01222384415115223 
-0.1179460796397539 0.116887297526639 0 
-0.1179460796397539 0.116887297526639 0 
-0.2183483582240058 0.2102882695986758 0 
-0.2183483582240058 0.2102882695986758 0 
-0.1499607814488432 0.1515121055741994 0 
-0.2183483582240058 0.2102882695986758 0 
-0.2183483582240058 0.2102882695986758 0 
-0.2183483582240058 0.2102882695986758 0 
-0.09817947733715095 0.1093827462317407 -0.02031739157026466 
-0.09817947733715095 0.1093827462317407 -0.02031739157026466 
-0.08555103797154501 0.0822323461365126 0 
-0.08555103797154501 0.0822323461365126 0 
-0.06487747201050631 0.06800909668567151 -0.006428254196774389 
-0.08555103797154501 0.0822323461365126 0 
0.07827652069262185 -0.07743199077279957 -0.000715613726809429 
0.07827652069262185 -0.07743199077279957 -0.000715613726809429 
0.01434360012338868 -0.01781665258950098 0 
0.02006142664382288 -0.04043656848954226 0 
0.01434360012338868 -0.01781665258950098 0 
0.01434360012338868 -0.01781665258950098 0 
0.01434360012338868 -0.01781665258950098 0 
0.005717826520434205 -0.0226199159000413 0 
0.005717826520434205 -0.0226199159000413 0 
0.02008488485156548 -0.02258381724270765 0 
0.02008488485156548 -0.02258381724270765 0 
0 0 -0.005579757339371657 
0 0 -0.005579757339371657 
0 0 -0.005579757339371657 
0 0 0 
0 0 0 
0 0 0 
0 0 0 
0.02067356596103871 -0.01422324945084108 -0.006428254196774389 
0.02067356596103871 -0.01422324945084108 -0.006428254196774389 
0.02067356596103871 -0.01422324945084108 -0.006428254196774389 
0 0 0 
0 0 0 
0 0 0 
0.01130093923710613 -0.00970765873263971 -0.000303067369885383 
0.01130093923710613 -0.00970765873263971 -0.000303067369885383 
0.01130093923710613 -0.00970765873263971 -0.000303067369885383 
0 0 -0.001384902261042605 
0 0 -0.001384902261042605 
0 0 -0.001384902261042605 
0 0 -0.001384902261042605 
-0.05824524626517941 0.06542333030447665 0 
-0.05824524626517941 0.06542333030447665 0 
-0.05824524626517941 0.06542333030447665 0 
-0.05824524626517941 0.06542333030447665 0 
0 0 0 
0 0 0 
0 0 0 
-0.1186587958019283 0.1199653918936498 0 
-0.1186587958019283 0.1199653918936498 0 
-0.1186587958019283 0.1199653918936498 0 
-0.1186587958019283 0.1199653918936498 0 
-0.1186587958019283 0.1199653918936498 0 
0.006380795973198319 -0.006055652657308648 0 
0.006380795973198319 -0.006055652657308648 0 
0.006380795973198319 -0.006055652657308648 0 
0 0 -0.004755672970198558 
0 0 -0.004755672970198558 
-0.1747006490525394 0.1807364293866439 -0.007018881357126729 
-0.1747006490525394 0.1807364293866439 -0.007018881357126729 
-0.1747006490525394 0.1807364293866439 -0.007018881357126729 
-0.1747006490525394 0.1807364293866439 -0.007018881357126729 
-0.1747006490525394 0.1807364293866439 -0.007018881357126729 
0.05882620710813505 -0.05256391683614771 -0.005911125606669974 
0.05882620710813505 -0.05256391683614771 -0.005911125606669974 
0.05882620710813505 -0.05256391683614771 -0.005911125606669974 
0.05882620710813505 -0.05256391683614771 -0.005911125606669974 
0.05882620710813505 -0.05256391683614771 -0.005911125606669974 
0.006976463260639102 0 0 
0.006976463260639102 0 0 
0.006976463260639102 0 0 
0.05210521199708879 -0.04491788855564426 0 
0.05210521199708879 -0.04491788855564426 0 
0.05210521199708879 -0.04491788855564426 0 
0.05210521199708879 -0.04491788855564426 0 
0.05210521199708879 -0.04491788855564426 0 
0.05210521199708879 -0.04491788855564426 0 
0.06188693187405954 -0.05766840754402745 -0.01109247165239195 
0.06188693187405954 -0.05766840754402745 -0.01109247165239195 
0.06188693187405954 -0.05766840754402745 -0.01109247165239195 
0.06188693187405954 -0.05766840754402745 -0.01109247165239195 
0.06188693187405954 -0.05766840754402745 -0.01109247165239195 
0.006629611670484197 -0.002127302754419155 0 
0.006629611670484197 -0.002127302754419155 0 
0.006629611670484197 -0.002127302754419155 0 
0 0 0 
0 0 0 
0 0 0 
0 0 0 
0 0 0 
0 0 0 
0 0 0 
0.06141111351452348 -0.05877616402447641 0 
0 0 0 
0.009481839215582278 0 -0.009050896169941586 
0.009481839215582278 0 -0.009050896169941586 
0.009481839215582278 0 -0.009050896169941586 
0.009481839215582278 0 -0.009050896169941586 
0.009481839215582278 0 -0.009050896169941586 
0.03130955371193858 -0.02338792708472004 -0.001265873913960728 
0.002107845259928696 -0.0007453852394260143 0 
0.002107845259928696 -0.0007453852394260143 0 
0.01729921930333531 -0.008558463854348681 -0.001660020943338744 
0.01729921930333531 -0.008558463854348681 -0.001660020943338744 
0.01729921930333531 -0.008558463854348681 -0.001660020943338744 
0.01729921930333531 -0.008558463854348681 -0.001660020943338744 
0.06869774691556239 -0.06715348867558356 0 
0.06869774691556239 -0.06715348867558356 0 
0.03637257502082457 -0.03708325815045881 0 
0.03637257502082457 -0.03708325815045881 0 
0.02220888988203591 -0.02405929826174111 0 
0.02615246365356595 -0.02155876131946955 -0.02752924456722516 
0.02615246365356595 -0.02155876131946955 -0.02752924456722516 
0.05099059112335437 -0.05255211302137613 0 
0.05099059112335437 -0.05255211302137613 0 
0.05099059112335437 -0.05255211302137613 0 
0.05099059112335437 -0.05255211302137613 0 
0.0217084101717645 -0.02770394034797127 0 
0.0217084101717645 -0.02770394034797127 0 
0.0217084101717645 -0.02770394034797127 0 
0.0217084101717645 -0.02770394034797127 0 
0.0217084101717645 -0.02770394034797127 0 
0.0217084101717645 -0.02770394034797127 0 
0 0 0 
0 0 0 
-0.04115753037315971 0.04363373675778864 -0.001445873116430785 
-0.04115753037315971 0.04363373675778864 -0.001445873116430785 
-0.04115753037315971 0.04363373675778864 -0.001445873116430785 
-0.04115753037315971 0.04363373675778864 -0.001445873116430785 
-0.04115753037315971 0.04363373675778864 -0.001445873116430785 
-0.04115753037315971 0.04363373675778864 -0.001445873116430785 
-0.04115753037315971 0.04363373675778864 -0.001445873116430785 
-0.04115753037315971 0.04363373675778864 -0.001445873116430785 
-0.04115753037315971 0.04363373675778864 -0.001445873116430785 
0.005244522680859722 -0.001293276191004981 0 
0.005244522680859722 -0.001293276191004981 0 
0.005244522680859722 -0.001293276191004981 0 
0.005244522680859722 -0.001293276191004981 0 
0.005244522680859722 -0.001293276191004981 0 
-0.1146742620527521 0.1259173196372499 -0.01222384415115223 
-0.1146742620527521 0.1259173196372499 -0.01222384415115223 
-0.1146742620527521 0.1259173196372499 -0.01222384415115223 
0.002832324644919014 0 -0.009601447736046874 
0.002832324644919014 0 -0.009601447736046874 
0.002832324644919014 0 -0.009601447736046874 
0.002832324644919014 0 -0.009601447736046874 
0.002832324644919014 0 -0.009601447736046874 
0.002832324644919014 0 -0.009601447736046874 
0 0 0 
0 0 -0.004329199737034406 
0 0 -0.004329199737034406 
0 0 -0.004329199737034406 
-0.1743162957534117 0.1749850657567355 0 
-0.1743162957534117 0.1749850657567355 0 
-0.1743162957534117 0.1749850657567355 0 
0.06141111351452348 -0.05877616402447641 0 
0.06141111351452348 -0.05877616402447641 0 
0.06141111351452348 -0.05877616402447641 0 
0 0 0 
0 0 0 
0 0 0 
0 0 0 
0 0 0 
-0.05829103260533502 0.06292102052247493 -0.004721781959406471 
-0.05829103260533502 0.06292102052247493 -0.004721781959406471 
-0.05829103260533502 0.06292102052247493 -0.004721781959406471 
-0.05829103260533502 0.06292102052247493 -0.004721781959406471 
-0.05829103260533502 0.06292102052247493 -0.004721781959406471 
0 0 0 
0 0 0 
0 0 0 
0 0 0 
0.02920170845200988 -0.02264254184529403 -0.001265873913960728 
0.02920170845200988 -0.02264254184529403 -0.001265873913960728 
0.01656350921501335 -0.01328645528964046 0 
0.01656350921501335 -0.01328645528964046 0 
0.01656350921501335 -0.01328645528964046 0 
0.01656350921501335 -0.01328645528964046 0 
0.01416368513878867 -0.01302395988871769 0 
0.05857468474313871 -0.04826394818222251 -0.01390801742992253 
0.05857468474313871 -0.04826394818222251 -0.01390801742992253 
0.05857468474313871 -0.04826394818222251 -0.01390801742992253 
0.05857468474313871 -0.04826394818222251 -0.01390801742992253 
0.05857468474313871 -0.04826394818222251 -0.01390801742992253 
0.05857468474313871 -0.04826394818222251 -0.01390801742992253 
0.02290782084904648 -0.02005495090919706 0 
0.02290782084904648 -0.02005495090919706 0 
0.02290782084904648 -0.02005495090919706 0 
0.02290782084904648 -0.02005495090919706 0 
0.02290782084904648 -0.02005495090919706 0 
