solver_type L2R_L2LOSS_SVC_DUAL
nr_class 1
label 1
nr_feature 53
bias -1
w
0.03412964241963388 
0.04605833697929526 
0.146879420227739 
0.03412964241963388 
0.03412964241963388 
0.03412964241963388 
0.03412964241963388 
0.03412964241963388 
0.03412964241963388 
0.05790681427476363 
0.08576690605963802 
0.146879420227739 
0.03412964241963388 
0.03412964241963388 
0.03412964241963388 
0.03412964241963388 
0.1557027287711193 
0.05163726364000411 
0.1127497778081051 
0.03622434777803302 
0.05163726364000411 
0.1127497778081051 
0.03622434777803302 
0.07648360705840067 
0.008823308543380388 
0.06111251416810097 
0.008823308543380388 
0.008823308543380388 
0.06111251416810097 
0.008823308543380388 
0.02851203376959085 
0.02851203376959085 
0.02851203376959085 
0.02851203376959085 
0.03626617074970441 
0.02851203376959085 
0.007754136980113558 
0.007754136980113558 
0.01192869455966138 
0 
0 
0.01184847729546836 
0.01184847729546836 
0.01184847729546836 
0.01184847729546836 
0.004174557579547822 
0.004174557579547822 
0.0154129158619711 
0.0154129158619711 
0.0154129158619711 
0.0154129158619711 
0 
0 
