solver_type L2R_L2LOSS_SVC_DUAL
nr_class 5
label 1 2 3 4 5
nr_feature 1157
bias -1
w
0 0 -0.08417195338698237 -3.469446951953614e-18 -0.001603858770910876 
0.01649742379326592 -0.02297965851086529 -0.08417195338698237 -0.00852915789407927 -0.004931906456967313 
0.05088897098995865 -0.09113281172371995 -0.3593384325331043 -0.258068549456883 -0.2851298633257084 
0.4229477810168982 -0.2859390463787508 -0.1502965790654958 -0.09959390730935097 -0.06196103192983802 
0.09626366643111911 -0.1607766449981713 5.204170427930421e-18 -0.01353955135919709 -0.003166053137999023 
0 0 -0.08417195338698237 -3.469446951953614e-18 -0.001603858770910876 
0 0 -0.08417195338698237 -3.469446951953614e-18 -0.001603858770910876 
0.4370602377465159 -0.4002899756830452 -0.1456972077414225 -0.08994836174125355 -0.06196103192983802 
0 -8.673617379884035e-19 0 -0.0115608322824546 0 
-0.03620515727540517 0.05491205229355817 -0.1901889403248547 -0.04465200773533107 -0.1178473264464334 
0.02424309426901903 -0.1309876697626398 -0.3497374994781456 -0.258068549456883 -0.2851298633257084 
0.08852155463859221 -0.1808729053652133 0.1032479475444824 -0.03958008139931894 -0.01234777937141842 
0.002809341967750565 -0.1266859366711927 0.1271913092174451 -0.06274627643529533 -0.02325469104969382 
0.02757582590062125 -0.03770941847958718 -0.1025326510710148 0.01978855382324749 -0.07091310307525417 
0.06046602643902567 -0.1903302544007715 0.07864105245208851 -0.08810196066958237 -0.03234324545889776 
0.004618279688682897 -0.1365692489512888 0.02151751035534021 -0.1761531366442685 -0.1519503172216618 
0.03489438007798554 6.938893903907228e-18 0 0 0 
0 0 0 0 0 
0.08071389658852271 -0.01128764723067634 -0.01360338055461603 -0.09211637585848881 -0.05947821616613247 
0.2696045701302742 -0.08487467924977009 -0.3491112593789388 -0.05017223022162066 -0.00850979772647544 
0 0 0 0 0 
0 0 0 0 0 
0.5536878209261301 -0.7652352783269466 0.2233216293036169 -0.06256727100101259 -0.0436038889258553 
0.07101917302467969 0.1009450503391051 -0.07947773492546574 -0.01804986065441715 -0.008509797726475438 
0.01051495424071777 0.03341176821186702 -0.1413427931391578 0.01532034375389961 -0.04405191296002786 
-0.01787827121684886 0.06925918279389806 -0.04825279472431378 1.029992063861229e-18 -0.005242330618995758 
0.075119131200793 -0.1118719925622575 -0.04181484367980611 -0.003983238139666995 -0.005242330618995758 
-0.00121710138219969 0.07030192567562446 1.734723475976807e-18 -0.01780937496926605 -0.004371664315009343 
-0.06019014913010641 0.07679799749287348 -0.00809316517428066 0 -0.005242330618995758 
-0.06019014913010641 0.07679799749287348 -0.00809316517428066 0 -0.005242330618995758 
0.05073991941421427 -0.03584070375005621 0 0 0 
-0.01096306831732715 0.2168704657787261 -0.240461381939654 -0.01817856868450773 -0.005242330618995758 
0.1723118207621357 -0.1247708977676693 -0.07610439248677485 -0.01367344337602358 -0.01277494477369164 
0.01449074166707133 0 -0.07610439248677493 -0.004912709618670364 -2.168404344971009e-19 
0.1723118207621357 -0.1247708977676693 -0.07610439248677485 -0.01367344337602358 -0.01277494477369164 
0.01449074166707133 0 -0.07610439248677493 -0.004912709618670364 -2.168404344971009e-19 
-0.1028024829647165 -0.3500662049392432 0.4131280238579852 -0.02469944081567848 -0.02432907179746445 
0.4890513140068529 -0.2521408922454382 -0.3684856116849862 -0.1138890278894558 -0.06963050025208564 
0.0257591435409064 -0.0976178988566913 0.09793042990115139 -0.05340002964549805 -0.02256569903115459 
0.2686121427642982 -0.1806451105451129 -0.1838315724073142 -0.05205064991947642 -0.04243878609808443 
0.04601735867336169 6.938893903907228e-18 -0.08664650506478785 -0.01750660263843183 -0.03466638901554611 
0.001680933449192776 0 -0.01536450764465914 -0.00392669538520378 0 
0.2706901910728284 -0.08957516327179636 -0.2979248580875899 -0.03747158397977046 -0.02239562785386885 
0.2065238822314243 -0.5135473563368287 0.1679855094971956 -0.05999919871418158 -0.07363585905320535 
0 0 0 -0.00392669538520378 0 
0.2151882929412016 0.07488844871303517 -0.2979248580875898 -0.01860568120569469 -0.01601082744899617 
0.4010869039550653 -0.2046838820124925 -0.3283824834375897 -0.05999919871418158 -0.07363585905320535 
0.04905605324242002 -0.02056970886597572 -0.05718262128339412 -0.03454404728104456 -2.602085213965211e-18 
-0.07209457079505115 0.1230876163590951 -0.02798914623280779 -0.008536428458523239 0 
-0.1865424656657106 0.3306185416965753 -0.06347993423363368 -0.01666994230428615 0 
-0.3463465031001631 0.1799211029086167 0.119224683573851 -0.0207880700962564 -0.009401526485375072 
-0.07209457079505115 0.1065471564099664 0 -0.008536428458523239 0 
-0.07209457079505115 0.1065471564099664 0 -0.008536428458523239 0 
-0.1865424656657106 0.3306185416965753 -0.06347993423363368 -0.01666994230428615 0 
-0.07209457079505115 0.1065471564099664 0 -0.008536428458523239 0 
0.1036575253933029 -0.2135736167782465 0.1566624599588252 -0.01845211226244342 -0.01535581972332726 
-0.543251381301556 0.5212689848592523 -0.04420012887163381 -0.09764952403540449 -0.04713519268277507 
-0.005091856582675622 0.05504354070799811 -0.04619458408818674 0 0 
0.06942266434741119 0.03669361549748183 -0.06028979146096458 -0.002624013970269319 -0.009974759043773863 
-0.005091856582675622 0.05504354070799813 0 0 0 
-0.568820420434837 0.5783459679521034 -0.04420012887163381 -0.09764952403540449 -0.04713519268277507 
-0.005091856582675622 0.05504354070799811 0 0 0 
-0.005091856582675622 0.05504354070799811 0 0 0 
-0.07421239375008329 0.2644980584591521 -0.2040254384586935 -0.0673653299652326 -0.03688279346702628 
0 -0.000154160111046645 0 -0.01106198657157011 -0.004164956183908015 
0.2691957250550914 -0.192799070581793 -0.08298553663677109 -0.04368239357027415 -0.03014460593382412 
0.1056942562256773 -0.04739350330373481 -0.04328901748044373 -0.04657576728448627 -0.02276531189954083 
0 -0.000154160111046645 0 -0.01106198657157011 -0.004164956183908015 
0 -0.000154160111046645 0 -0.01106198657157011 -0.004164956183908015 
0.2691957250550914 -0.1742707747498952 -0.08298553663677109 -0.04368239357027415 -0.03014460593382412 
0 -0.000154160111046645 0 -0.01106198657157011 -0.004164956183908015 
0.2691957250550914 -0.192799070581793 -0.08298553663677109 -0.04368239357027415 -0.03014460593382412 
-0.0146643895865515 0.1148152580319432 -0.1208400935658523 0 0 
-0.4516517159209977 0.4284164797421194 -0.03658356008907283 -0.01702653363971043 -0.006027925906526289 
8.673617379884035e-19 -0.05266936497082189 0.02891217541150742 1.734723475976807e-18 -0.0005399402959842317 
0 0 0 0 0 
0 0 0 0 0 
0 -0.02056970886597572 0 -0.01207218377868324 0 
0.009155825257762793 0.1946161331901446 -0.1851525640855609 -0.03953049590787563 -0.04491608887596767 
0 -0.02056970886597572 0 -0.01207218377868324 0 
0.009155825257762807 0.1946161331901447 -0.1851525640855609 -0.03953049590787565 -0.04491608887596767 
0.07418286311301528 -0.02810852356495097 -0.0319979201217065 -0.01207218377868324 0 
0 0 0 0 0 
0 0 0 0 0 
0 0 0 0 0 
0 0 0 0 0 
0 0 0 0 0 
0 0 0 0 0 
-0.01157136219037702 -0.1246922158577678 0.1954188907450177 -0.00153834293507743 -0.0006602443142362262 
0 0.08753501844720425 -0.05362559851486441 0 0 
4.336808689942018e-19 0.1744664478319226 -0.107603075696904 0 -0.0005399402959842317 
0 0.08753501844720425 -0.05362559851486441 0 0 
0.07874878950752474 -0.232757006758 0.184216963363809 -0.08040949347493417 -0.02104331715414656 
0.1842155183764251 -0.2839055179910631 0 -0.02312357588388832 -0.0010196950869203 
0.07946279150270827 0.04011040539063219 -0.1097792090883607 -0.02526907232595304 -0.004913711922532065 
0.1590079797016929 -0.2288424973154484 0 0 0 
0.1842155183764251 -0.2288424973154484 0 -0.02312357588388833 -0.0010196950869203 
0.1590079797016929 -0.2288424973154484 0 0 0 
0.009554623924684754 0.1614544649813217 -0.1603872189454489 -0.07424872492869201 -0.06261794840897796 
0.03945795959204283 -0.1755194319511053 0.2146640522882985 -0.01276206978721888 0 
0.02187442520286236 -0.07456279136281067 0 0 0 
0.03945795959204285 0.3535691762524731 -0.3761230741505946 -0.01276206978721888 0 
0.1685640946822211 0.03233052736929969 -0.2206496650992555 -0.05195768637747315 -0.01391132865895161 
0.218745263933329 -0.2276361733911553 -0.001380832570487444 -0.01276206978721888 0 
0.02128717484584576 -0.03166678116339933 0 0 0 
0.02128717484584576 -0.03166678116339933 0 0 0 
-0.01558220439859644 0.06192594973719698 -0.02197564693242907 -0.03037694927401065 -0.01423912277970708 
-0.006617368236287358 0.02130407639550106 0 -0.009333883175257941 0 
0.01539146226464338 -0.03924237756750722 0 -0.002608783605540611 0 
0.01539146226464338 -0.04881686466893026 0 -0.002608783605540611 0 
0.01539146226464338 -0.03924237756750722 0 -0.002608783605540611 0 
0.01539146226464338 -0.03924237756750722 0 -0.002608783605540611 0 
0.01539146226464338 -0.03924237756750722 0 -0.002608783605540611 0 
0 0 0 0 0 
0.01670616796516928 0 -0.01632339103053448 0 0 
-0.02980568984056007 -0.1739000160704962 0.3068145206880192 -0.03527868199960776 -0.02394716103087747 
-0.1753437432740372 0.169017480959164 -1.040834085586084e-17 -0.01750379484455798 -0.00589616208290741 
0.01670616796516928 0 -0.01632339103053448 0 0 
0.01670616796516928 0 -0.01632339103053448 0 0 
0 -0.009574487101423066 -1.734723475976807e-18 0 0 
0.001989803662759841 0 0 0 0 
-0.04575661439956496 0.1295984173868987 3.469446951953614e-18 0 -0.0004861075981268123 
0.001989803662759841 0 0 0 0 
0.001989803662759841 0 0 0 0 
0.03095728026480222 -0.009293355989759139 0 0 -0.0004861075981268123 
0.001989803662759841 0 0 0 0 
0.05718469021990621 0.2965554581194881 -0.2939350730680465 -0.01959232125635895 -0.01414823527038344 
-0.1020780784612117 -0.2053768056138854 0.2354006093150883 0.08561582164627876 -0.01923177648358846 
0.218511036528743 -0.3154350713160709 0.2284268814394968 -0.04275318729012911 -0.008034351411784772 
-0.03055366449183869 0.2782238150156122 -0.1893511599616477 -8.673617379884035e-19 0 
-0.03055366449183869 -0.2917127829298863 0.4182521449866347 -0.03463877425793536 0 
-0.03055366449183869 0.2782238150156122 -0.1893511599616477 0 0 
-0.03846530843178764 0.4469788977441026 -0.3913067604297555 -0.001628164693439624 -0.008011183372074234 
-0.02845166956848341 -0.3009593075506183 0.2851815788977431 -0.001628164693439624 -0.008011183372074236 
-0.548049445162921 0.3611662505694532 0.2520931833148381 -0.03638397481578719 -0.03437592202779327 
-0.02845166956848341 0.3671764247535713 -0.3556730168875115 -0.001628164693439624 -0.008011183372074234 
-0.02845166956848341 0.03310855860147649 -0.03524571899488417 -0.001628164693439624 -0.008011183372074236 
-0.5818649109383792 0.3520648334088267 0.2208854610494209 -0.03638397481578719 -0.03437592202779327 
-0.02845166956848341 0.3671764247535713 -0.3556730168875115 -0.001628164693439624 -0.008011183372074234 
0.02389560605409071 5.204170427930421e-18 -0.05133204510984137 -0.02155478508350998 -0.008128915533175927 
0.01656171132551464 0 -0.002563286421024478 0 -0.001650044343014726 
0.1984914650776765 -0.2798750617526036 -0.02335107595598785 -0.04322146881035976 -0.02478861681269501 
0.009480742727464376 0 0 0 -0.001650044343014726 
0.01656171132551464 0 -0.002563286421024478 0 -0.001650044343014726 
0.1984914650776765 -0.2798750617526036 -0.02335107595598785 -0.04322146881035976 -0.02478861681269501 
0.04967473484841704 1.734723475976807e-18 -4.336808689942018e-19 -0.01750379484455798 -0.005636042141141611 
0.2358074874884671 -0.1688229549387486 -0.02526952423895844 -0.005410096673930311 -0.001792142037130939 
0.03638499132515887 0 0 0 0 
0.02971364628643362 -0.03511685769154364 4.282598581317743e-18 0 -0.008090401396456597 
0 0.05474665147024019 -0.0566819674364051 -0.01214808652503605 0 
-6.505213034913027e-19 0 -1.328147661294743e-18 0 -0.004045200698228299 
-6.505213034913027e-19 0 -1.328147661294743e-18 0 -0.004045200698228299 
0 0 0 0 0 
-0.04189226837351451 0.1264233876789937 -0.03979509747463628 -0.01893879855437809 -0.0130982623940042 
0 0.01512595983053373 -0.003211537385563467 -0.001912264914667652 -0.007070336487477911 
-0.07506151797103443 0.008352545647432931 0.01557673106698212 -0.04881355164447165 -0.01756203080682735 
0 0.01512595983053373 -0.003211537385563467 -0.001912264914667652 -0.007070336487477911 
0 0.01512595983053373 -0.003211537385563467 -0.001912264914667652 -0.007070336487477911 
0 0.01512595983053373 -0.003211537385563467 -0.001912264914667652 -0.007070336487477911 
0.03941292626283774 -6.938893903907228e-18 -0.007835213004816195 -0.002970477787186489 -0.01392541535755305 
0.004518546184852208 0 -0.007835213004816198 -0.002970477787186489 -0.01392541535755305 
0.004518546184852208 0 -0.007835213004816198 -0.002970477787186489 -0.01392541535755305 
0.004518546184852208 0 -0.007835213004816198 -0.002970477787186489 -0.01392541535755305 
0.02481746572227961 -0.04628487930956122 3.469446951953614e-18 -0.03179052797602499 -0.006344653978356032 
1.734723475976807e-18 -0.009959529784694193 0 -0.02458750535887235 -0.003328047686056433 
-0.07001422443847931 0.2817392934944314 -0.1549700108607547 0 -0.003130295232805226 
-0.09319853906154064 -0.4988777174316218 0.4757091429759588 -0.01622915504522483 -2.602085213965211e-18 
-0.1007840065903352 0.3077626290775261 -0.1479423259353014 0 0 
-0.1007840065903352 0.3077626290775261 -0.1479423259353014 0 0 
0.04476761956669516 0.3396739138938696 -0.2614306884611344 -0.008095641199461909 -2.602085213965211e-18 
-0.1007840065903352 0.3077626290775261 -0.1479423259353014 0 0 
0.08812339786720967 1.040834085586084e-17 -0.03510251107601289 -0.001297958185300204 0 
0.2803668546014256 -0.2316588453191304 -0.09720292545207745 -0.05520039148038318 -0.03756837438142722 
0 0 -0.03372167850552545 -0.001297958185300204 0 
0.08812339786720967 1.040834085586084e-17 -0.03510251107601289 -0.001297958185300204 0 
0 0 -0.09720292545207743 -0.001297958185300201 0 
0.0260610638190609 -0.03204187842355202 0 0 0 
0.0260610638190609 -0.03204187842355202 0 0 0 
0.002628993401259785 -0.09661158149122981 -0.06001528036616099 -0.01846835876239356 0.1575146894492984 
0 0 0 0 -0.003328047686056433 
0.135673213032829 -0.04095905826630616 -0.03421832023319738 0 -0.02105380615065149 
-0.07535250571534859 0.165565835042042 8.673617379884035e-18 -0.002685279954366792 0 
0.1491927701584299 -0.1141071986923203 -4.336808689942018e-18 -0.002685279954366792 0 
0.1134348551280371 -0.1141071986923203 0 -0.002685279954366792 0 
0.2055033637393124 -0.1492240563838639 8.673617379884035e-18 -0.002685279954366792 0 
0.1491927701584299 -0.1141071986923203 -4.336808689942018e-18 -0.002685279954366792 0 
0.2103412682772169 -0.2133229675733698 -0.02593735856186146 -0.01286109215231546 -0.006954693159173088 
0.07283065586489521 -0.1347029704621983 -3.469446951953614e-18 0 0 
0.2103412682772169 -0.2133229675733698 -0.02593735856186146 -0.01286109215231546 -0.006954693159173088 
0.03671516550648435 0 -0.04015962955003315 0 0 
0.06479901612447289 3.469446951953614e-18 -0.04504742700570474 0 0 
0.03671516550648435 0 -0.04015962955003315 0 0 
0.03671516550648435 0 -0.04015962955003315 0 0 
0.03671516550648435 0 -0.04015962955003315 0 0 
0 0 -0.002947170271209453 0 0 
0 0 0 0 0 
0 0 -0.002947170271209453 0 0 
0.04768464742314669 -0.09576555762400178 -0.2682526918829858 -0.01936029977998462 -1.734723475976807e-18 
0.01199017528276901 -0.004933246344875903 0 0 -0.001290075208226854 
0.01199017528276901 -0.004933246344875903 0 0 -0.001290075208226854 
0.01199017528276901 -0.004933246344875903 0 0 -0.001290075208226854 
0.03173086207803077 0 -3.469446951953614e-18 -0.009296108845921101 -2.168404344971009e-19 
0.009349470801163141 0.05618069619358095 -0.05032511057172742 -0.02807505312189938 -0.02746604148070142 
0 0 0 -0.006598732936248383 0 
0.05550189813162673 -0.1465566905233381 6.938893903907228e-18 -0.02302191007303184 -0.002219844220964676 
-0.1280493941011278 0.2309065928365074 -0.2063895891838585 0 -0.002035666858254581 
0.1308850115718564 -0.1070058586037906 -0.01933574252664353 -0.01732181723639523 -0.01738413211030138 
0 -0.01380534454851647 0 0 0 
0 -0.01380534454851647 0 0 0 
0.1308850115718564 -0.1070058586037906 -0.01933574252664353 -0.01732181723639523 -0.01738413211030138 
0 -0.01380534454851647 0 0 0 
0.1390043487501439 -0.09122807609812061 -0.006676641859600214 -0.03853656308515886 -0.004342218962051263 
0.1390043487501439 -0.09122807609812061 -0.006676641859600214 -0.03853656308515886 -0.004342218962051263 
0.1390043487501439 -0.09122807609812061 -0.006676641859600214 -0.03853656308515886 -0.004342218962051263 
0.1390043487501439 -0.09122807609812061 -0.006676641859600214 -0.03853656308515886 -0.004342218962051263 
0.1390043487501439 -0.09122807609812061 -0.006676641859600214 -0.03853656308515886 -0.004342218962051263 
0.1390043487501439 -0.09122807609812061 -0.006676641859600214 -0.03853656308515886 -0.004342218962051263 
0.1390043487501439 -0.09122807609812061 -0.006676641859600214 -0.03853656308515886 -0.004342218962051263 
-0.002231908517231139 0.2063373903592169 -0.1382753010400096 -0.03000923916163335 -0.003371676461975376 
-0.1230141504058687 0.07019455393652962 -0.1142439334980428 0.2095685138724167 0 
0 0.158860657335232 -0.1142439334980428 -0.01475376012564752 0 
0 0.158860657335232 -0.1142439334980428 -0.01475376012564752 0 
-0.1495409538737246 -0.2175740683253306 0.2912442049094306 -0.004832748063397473 0 
0 0.02674394781592415 -0.0467119400669529 0 0 
1.387778780781446e-17 -0.08448463725538272 -0.01286252936986756 -0.003724337950034534 0 
1.734723475976807e-18 -0.5250442401690777 0.5340728443792675 -0.004832748063397473 0 
0.05819337809280656 -0.03065943451756664 0 -0.002074715635647895 -0.007156421614976935 
0.1967196594748498 -0.25176699388684 0 -0.0118263308778452 -0.007156421614976935 
0.05819337809280656 -0.03065943451756664 0 -0.002074715635647895 -0.007156421614976935 
0.05819337809280656 -0.03065943451756664 0 -0.002074715635647895 -0.007156421614976935 
0.1967196594748498 -0.25176699388684 1.734723475976807e-18 -0.006283330489281776 -0.007156421614976935 
-0.05507609341420085 0.3734053970698909 -0.3665293848650306 -0.01271002606978319 -0.03510442929127407 
-0.03459443270560604 -0.6774099809289693 0.7807170229489088 0 0 
-4.336808689942018e-19 -0.06233455210535777 0.05148942788438382 0 0 
1.387778780781446e-17 -0.07551168526318527 0.02755090079684203 -0.02183375823418554 -0.01837688908076652 
-0.2428678130730826 0.1167652461873281 0.07454825756769069 -0.06828141365689884 -0.07340027439274779 
1.387778780781446e-17 -0.07551168526318527 0.02755090079684203 -0.02183375823418554 -0.01837688908076652 
1.387778780781446e-17 -0.07551168526318527 0.02755090079684203 -0.02183375823418554 -0.01837688908076652 
-0.004162770361959472 -0.02696289470985554 0.02367606590821722 0 0 
0.1375106124123216 -0.0786199971111715 -0.02593735856186147 -0.01286109215231546 -0.006954693159173088 
0.1375106124123216 -0.0786199971111715 -0.02593735856186147 -0.01286109215231546 -0.006954693159173088 
0.005596712406773239 0 0 0 0 
0.005596712406773239 0 0 0 0 
0.005596712406773239 0 0 0 0 
0.005596712406773239 0 0 0 0 
0.005596712406773239 0 0 0 0 
0 0 0 -0.005617271387664626 -0.002652545108846172 
0 0 0 0 0 
0 0 0 0 0 
0 0 0 0 0 
0.005953329918120072 0 0 0 0 
0.005953329918120072 0 -1.734723475976807e-18 0 0 
-0.07772478280068339 0.1995233431057193 -0.06347993423363366 -0.008133513845762913 0 
0.005953329918120072 0 0 0 0 
0.005953329918120072 0 -1.734723475976807e-18 0 0 
0.005953329918120072 0 0 0 0 
0.03367515028402606 -0.009293355989759139 -4.336808689942018e-19 0 -0.004879187416382829 
0 0 0 0 0 
0.004707673681983685 0 0 0 -0.004393079818256017 
0.004707673681983685 0 0 0 -0.004393079818256017 
0 0 0 0 0 
0.03575791503039286 -0.001475293402204596 -0.007027684925453375 0 -0.003130295232805226 
0.00496848656657695 -3.469446951953614e-18 2.168404344971009e-18 -0.002109433469361668 -0.003130295232805226 
0 -0.00147529340220458 -0.007027684925453382 0 -0.003130295232805226 
0 -0.00147529340220458 -0.007027684925453382 0 -0.003130295232805226 
0 0 0 0 -0.003130295232805226 
0 0 0 -0.008619260934277784 0 
0 0 0 -0.008619260934277784 0 
-0.1172932246317878 -0.3500662049392433 0.4892324163447597 -0.01978673119700811 -0.02432907179746445 
0 -0.4299125702281741 0.3945741615054277 0 0 
-0.122838808610643 0.03005213384602255 0.1245981148050071 -0.01668801270516064 -0.003952594121607825 
-0.01001363886330424 0.05798619599628925 -0.01084939988491033 0 0 
0.01377289310379737 -0.1126369451858185 0 0 0 
0.1735387308485165 -0.1600754016791373 -0.04000244605913201 0 -0.007772397082538298 
0.01377289310379737 -0.1126369451858185 0 0 0 
0 -0.4856499028563263 0.5017577437994849 -0.003008952508692776 0 
-0.09032498584429807 -0.2274871271479497 0.4055936091835009 -0.003008952508692776 0 
0 -0.4856499028563263 0.5017577437994849 -0.003008952508692776 0 
0 -0.4856499028563263 0.4236600046183854 -0.003008952508692776 0 
-3.469446951953614e-18 0.7031421230616224 -0.7724180989310231 -0.003792946516025482 0 
-0.1606919941083492 0.2357686375778598 -0.05535361924103197 -0.02353233528631071 -0.02389122503705935 
0.0398178790393167 0 -0.05535361924103197 -0.01453612485124534 -0.02074097365799306 
0.0398178790393167 0 -0.05535361924103197 -0.01453612485124534 -0.02074097365799306 
0.0398178790393167 0 -0.05535361924103197 -0.01453612485124534 -0.02074097365799306 
0.07888207015836107 -0.07127829613590043 0 -0.006759793466777676 -0.003952594121607825 
0.07888207015836107 -0.07127829613590043 0 -0.006759793466777676 -0.003952594121607825 
0.07888207015836107 -0.07127829613590043 0 -0.006759793466777676 -0.003952594121607825 
0.07888207015836107 -0.07127829613590043 0 -0.006759793466777676 -0.003952594121607825 
0.07888207015836107 -0.07127829613590043 0 -0.006759793466777676 -0.003952594121607825 
0.07888207015836107 -0.07127829613590043 0 -0.006759793466777676 -0.003952594121607825 
0.007409773069021067 0 0 -0.007525636281074742 0 
0.04917322616725824 -0.03632534952486702 0 -0.01716613315177165 -0.0004886109308267923 
0 0 0 -0.002612926662404377 0 
0.007409773069021067 0 0 -0.007525636281074742 0 
0.02435576044497866 0 0 -0.01716613315177165 -0.0004886109308267923 
0 0 0 -0.002612926662404377 0 
-0.04780599647912452 0.1636212546749695 -0.3178041490279349 0.1123635318671143 -0.01633369745784449 
0 0 0 0 0 
-0.01753560989994052 -0.6802010707306626 0.668609273922485 -0.004606111745216458 0 
-0.02339006110694287 0.6057963599445683 -0.6174239692308444 0 0 
0 -0.6421055653828885 0.6292413394197154 0 0 
-0.03183001391951301 0.1078808790725005 -0.05032511057172744 -0.005053143048867534 -0.00286610234376639 
0 0.1078808790725005 -0.05032511057172745 0 0 
-0.03183001391951301 0.1078808790725005 -0.05032511057172744 -0.005053143048867534 -0.00286610234376639 
-2.168404344971009e-19 0.1078808790725005 -0.05032511057172744 -0.005053143048867534 -0.00286610234376639 
0.004826709847105501 1.734723475976807e-18 0 -0.008760733757353216 -0.0001293716666241475 
0.004826709847105501 1.734723475976807e-18 0 -0.008760733757353216 -0.0001293716666241475 
0.004826709847105501 1.734723475976807e-18 0 -0.008760733757353216 -0.0001293716666241475 
0.004826709847105501 1.734723475976807e-18 0 -0.008760733757353216 -0.0001293716666241475 
0 0 0 0 0 
0 0 0 0 0 
0.02556903913328069 -0.05707698309285061 -0.07809773918109945 -0.001190287148422882 0 
0 0 0 0 0 
0 0 0 0 0 
0.02556903913328069 -0.05707698309285061 0 -0.001190287148422882 0 
0 -0.5788578303333445 0.5214852207205458 0 0 
0 -0.5788578303333445 0.5214852207205458 0 0 
-0.01157136219037704 0.2813042949936477 -0.2217387650834017 0 0 
-0.1495409538737246 0.2041972614674686 0 0 0 
-0.1495409538737246 0.2041972614674686 0 0 0 
-0.1495409538737246 0.2041972614674686 0 0 0 
-0.3108171966517026 -0.05383756351058147 0.3774040744634555 -0.03780595069478009 -0.02299357272545814 
-0.3486566899731736 0.464979954271312 -0.1993543185986255 -0.03780595069478009 -0.02299357272545814 
-0.006119095616648642 -0.2709872380637756 0.2990338155657102 -0.0189744907031103 -2.981555974335137e-19 
-0.3711423971741798 0.374615342654868 0.08228175809530401 -0.08786269227691899 -0.08138582555162238 
-0.1514152886867025 0.2634493390537953 -0.1536505658591069 -0.03756903890516709 -0.006850132047898289 
0 -0.1902126809249985 0.1389016809031622 -0.002290356905559324 -0.0006287294816158706 
-0.1514152886867025 -0.3477016809100785 0.4962579128549137 -0.03756903890516709 -0.006850132047898289 
0 -0.5804629586833384 0.5247607315253237 -0.00153834293507743 -0.0001203040182519926 
4.336808689942018e-19 0.07405141002110048 -0.07270479623809231 0 -0.002438473972825155 
0 0 0 0 -0.002438473972825155 
-4.336808689942018e-19 0 0 0 -0.002438473972825155 
0.07451452093008681 -0.01834992521051628 -0.0602897914609646 -0.002624013970269319 -0.009974759043773863 
0 0 0 0 -0.002438473972825155 
-0.0243534570489778 -0.2859370456635767 0.2916551816264148 0 -0.004427099663512029 
-0.0243534570489778 -0.2859370456635767 0.2916551816264148 0 -0.004427099663512029 
-0.0243534570489778 -0.2859370456635767 0.2916551816264148 0 -0.004427099663512029 
-0.0243534570489778 -0.2859370456635767 0.2916551816264148 0 -0.004427099663512029 
-0.0243534570489778 -0.2859370456635767 0.2916551816264148 0 -0.004427099663512029 
0 0.002810806945774659 -0.006367761580953542 -0.008527303687698624 -0.009401526485375072 
0 0.002810806945774659 -0.006367761580953544 -0.008527303687698624 -0.01148731785728025 
0 0.002810806945774659 -0.1215091969602609 -0.008527303687698624 -0.009401526485375072 
0 0.002810806945774659 -0.006367761580953542 -0.008527303687698624 -0.009401526485375072 
0 0.002810806945774659 -0.006367761580953542 -0.008527303687698624 -0.009401526485375072 
-0.07302360356467705 -0.008154512829424754 0.2031906896142262 -0.01128138630299348 0 
0 0.186044860332307 -0.1216485270307975 0 0 
-0.02982551533604985 0.3336561433171347 -0.3112938278251135 -0.01652236241536253 0 
-0.0626498319533169 -0.1911682170015048 0.3037704764959773 0 0 
0.007080968598050264 0 -0.002563286421024476 0 0 
0.007080968598050264 0 -0.002563286421024476 0 0 
0.09462100802824516 -0.08856051412695516 0 -0.0170854380979603 -0.01157647447366564 
0.07261217752731443 -0.02801406016394688 0 -0.02381053766767764 -0.01157647447366564 
0.07261217752731443 -0.02801406016394688 0 -0.02381053766767764 -0.01157647447366564 
0.09462100802824516 -0.08856051412695516 0 -0.0170854380979603 -0.01157647447366564 
0.09462100802824516 -0.08856051412695516 0 -0.0170854380979603 -0.01157647447366564 
0.09462100802824516 -0.08856051412695516 0 -0.0170854380979603 -0.01157647447366564 
0.09462100802824516 -0.08856051412695516 0 -0.0170854380979603 -0.01157647447366564 
-0.02200883050093074 0.06054645396300828 0 -0.006725099569717334 0 
-0.02200883050093074 0.06054645396300828 0 -0.006725099569717334 0 
-0.02200883050093074 0.06054645396300828 0 -0.006725099569717334 0 
0 0 -0.1151414353793074 0 0 
0 0 -0.1151414353793074 0 0 
0.03290658959662539 -0.01278313166304983 0 0 0 
0.05811412827135758 -0.01278313166304983 -3.469446951953614e-18 -0.02312357588388833 -0.0010196950869203 
0.03290658959662539 -0.01278313166304983 0 0 0 
0.03290658959662539 -0.01278313166304983 0 0 0 
0.03290658959662539 -0.01278313166304983 0 0 0 
0.03076978215185587 -0.02454804218088998 0 0 0 
0.03076978215185587 -0.02454804218088998 0 0 0 
-0.09671678454298349 -0.03637415910677682 -0.01542694852048602 -0.009935889631509194 0.1998713460701166 
0.02433380060410409 0.05168608880907397 0 0 -0.03119769596586866 
-0.4787292277295562 0.5621552057947514 -0.05231518322324143 -0.03559235852784649 -0.02457521060022751 
0.02433380060410409 0.05168608880907397 0 0 -0.03119769596586866 
0.02433380060410409 0.05168608880907397 0 0 -0.03119769596586866 
-0.4787292277295562 0.5621552057947514 -0.05231518322324143 -0.03559235852784649 -0.02457521060022751 
-0.0461524273304636 0.09485650764441866 0 0 -0.02238009491597036 
0.008474497921264441 -0.003423348146442491 0 0 -0.0008048997824839871 
0.008474497921264441 -0.003423348146442491 0 0 -0.0008048997824839871 
0.0190130866215967 -0.007158395286516814 0 0 -0.003128962520270583 
0.06251498064641138 -0.0413070507273279 0 -0.0005518512645889732 -0.03203860271181593 
-0.04189226837351451 -0.1389807618497048 0.2515143448199484 -0.01702653363971043 -0.006027925906526289 
-0.04189226837351451 0.1112974278484599 -0.03658356008907283 -0.01702653363971043 -0.006027925906526289 
-0.04189226837351451 0.1112974278484599 -0.03658356008907283 -0.01702653363971043 -0.006027925906526289 
-0.04189226837351451 0.1112974278484599 -0.03658356008907283 -0.01702653363971043 -0.006027925906526289 
-0.04189226837351451 0.1112974278484599 -0.03658356008907283 -0.01702653363971043 -0.006027925906526289 
-4.336808689942018e-19 0.08277747839877198 -0.07270479623809231 0 0 
0 0.07405141002110047 -0.07270479623809231 0 0 
0 0.07405141002110047 -0.07270479623809231 0 0 
0 0 0 0 0 
0 0 0 0 0 
0 0 0 0 0 
0 0 0 0 0 
0 0 0 0 0 
0 0 0 -0.01361675459462609 0 
-0.08345488181567216 0.1689819173141996 -0.0454523128108468 -0.04920911312247258 0 
0.09216957035727509 0.06893357426394034 -0.1378075678662213 -0.01866989764349362 -0.01634545421188347 
0 0 0 -0.01361675459462609 0 
-0.01347378255271906 0.004192196274805099 0 -0.01361675459462609 0 
-0.01347378255271906 0.004192196274805099 0 -0.01361675459462609 0 
0 0 0 0 0 
0 0 0 0 0 
0 0 0 0 0 
0 0 0 0 0 
-0.06404152594740817 0.3703212086825349 -0.3318531421401275 -0.0170098741179946 -0.004371664315009345 
-0.06404152594740817 0.003297302632716635 0 0 0 
-0.06404152594740817 0.003297302632716635 0 0 0 
-0.06404152594740817 0.07040759924954902 -0.05400201274965413 -0.007736927607251793 0 
-0.06404152594740817 0.003297302632716635 0 0 0 
-0.06404152594740817 0.003297302632716635 0 0 0 
0.06561260573364974 -0.04291643781177721 0 0 -0.003371676461975376 
0.05839470190683287 -0.1678895801995618 0.02624533767005545 -0.01461301766608851 0.1763822560824448 
0.06561260573364974 -0.04291643781177721 0 0 -0.003371676461975376 
-0.002231908517231138 0.1279560693953026 -0.0240313675419668 -0.01525547903598584 -0.003371676461975376 
0.08219442995561274 -0.0429164378117772 0 0 -0.04159725634138941 
-0.2808558694546611 0.2457094005772314 0 0 0 
-0.2808558694546611 0.3147898914259059 0 0 0 
0.02664587672093929 0.03985485803892069 -0.009600933054957747 0 0 
-0.2808558694546611 0.3147898914259059 0 0 0 
0 0.06908049084867449 0 0 0 
-0.262680570114735 -0.3243618207662278 0.5863593261170391 0 0 
-0.262680570114735 -0.3243618207662278 0.5863593261170391 0 0 
0 0 0 -0.005543000388563422 0 
0.09152936126434763 -0.04675224948218341 -5.204170427930421e-18 -0.04469035880599153 -0.03924527496633435 
0 0 0 -0.005543000388563422 0 
0.09152936126434763 -0.04675224948218341 -5.204170427930421e-18 -0.04469035880599153 -0.03924527496633435 
0 0 0 -0.005543000388563422 0 
0.07048622793456769 -0.05312994862003885 0 -0.008529157894079266 -0.008817601049898299 
0 -0.009959529784694185 0 0 0 
0 -0.009959529784694185 0 -0.008529157894079266 0 
0.06251498064641138 -0.0413070507273279 0 -0.0005518512645889722 -0.03203860271181594 
0.07992087213465088 -0.2521422512473547 0.226810801985496 -0.05603871071175322 -0.02688367122549989 
-0.0683903474113413 0.3201431256421633 -0.2111870832081994 0 0 
-0.0683903474113413 0.2279076335225272 -0.1378075678662214 0 0 
0.15630209371788 0.01865289313102572 -0.1471585666556205 -0.05603871071175322 -0.02688367122549989 
-0.0683903474113413 0.2279076335225272 -0.1378075678662214 0 0 
0.03173086207803077 0 0 -0.002697375909672717 0 
0.03173086207803077 0 0 -0.002697375909672717 0 
0 0 0 -0.001656206269145206 0 
0 0 0 -0.001656206269145206 0 
0 0 0 -0.001656206269145206 0 
0 0 0 -0.001656206269145206 0 
0 0 0 -0.003483962009961768 0 
0 0 0 -0.003483962009961768 0 
0.0322354544015637 -0.02858202735972773 0 0 0 
0.009296912756034939 0.1020174377717595 -0.02112845178262687 0 0 
0.0322354544015637 -0.02858202735972773 0 0 0 
0.0322354544015637 -0.02858202735972773 0 0 0 
-0.001061771276949208 0.02217471582231775 -0.01575341578364744 0 0 
0.0322354544015637 -0.02858202735972773 0 0 0 
0.03842494808262239 0 -0.0319979201217065 0 0 
0.01276049882800789 0.03236205928572541 -0.03847188239511285 0 -0.001934995742491345 
0.03842494808262239 0 -0.0319979201217065 0 0 
0.03842494808262239 0 -0.0319979201217065 0 0 
0.03842494808262239 0 -0.0319979201217065 0 0 
0.03842494808262239 0 -0.0319979201217065 0 0 
-0.05101645576874057 -0.03096602006792763 0.08303274935375343 -0.01286109215231546 -0.006954693159173088 
-0.02339006110694285 0.03518907556661929 -0.03177263693188662 0 0 
0 0 -0.007027684925453382 0 0 
0 0 -0.007027684925453382 0 0 
0.01145794223003188 -0.003038607911980538 -0.007027684925453382 0 -0.001258921675994039 
-0.1281889865383866 0.2592283130563997 -0.1856058851333092 0 -0.002035666858254581 
0 0 0 0 0 
-0.06278942439057573 0.2592283130563997 -0.1856058851333092 0 0 
0 0 0 0 0 
0 0 0 0 0 
0 0 0 0 0 
0 0 0 0 0 
-0.1686416732148348 -0.03268670580313484 0.2146767530745106 -0.005532664068843005 -2.316803971053945e-05 
0 0 -0.002947170271209453 0 0 
0 0 -0.002947170271209453 0 0 
0 0 -0.002947170271209453 0 0 
0.02013754999863721 -0.01868931464689143 0 -0.005392372554296754 -0.01025214361510642 
0.02013754999863721 -0.0004045269842855769 0 0 0 
-0.0002993041097341685 0 0 0 -0.0007478175246909101 
-0.0002993041097341685 0 0 -0.008645875759053406 -0.006228253593945597 
-0.0002993041097341685 0 0 0 -0.0007478175246909101 
-0.0002993041097341685 0 0 0 -0.0007478175246909101 
-0.001810811195217594 0.1411169478372789 -0.06028979146096457 -0.001835582041949706 0 
-0.001810811195217594 0.1411169478372789 -0.06028979146096457 -0.0006452948935268275 0 
-0.001810811195217594 0.1411169478372789 -0.06028979146096457 -0.0006452948935268275 0 
-0.001810811195217594 0.1411169478372789 -0.06028979146096457 -0.004729856997430263 0 
-0.09844785103684421 -0.2587843783400338 0.3468223138939667 0 0 
-0.09844785103684421 -0.2587843783400338 0.3468223138939667 0 0 
0 0 0 0 0 
8.673617379884035e-19 0 0 0 0 
0 0 0 0 0 
8.673617379884035e-19 0 0 0 0 
0.009707189644642657 -0.08047933637131779 -0.05133204510984138 -0.005706992876025148 0 
0 0 0 -0.00182731260774253 0 
0.009707189644642657 1.734723475976807e-18 -0.05133204510984138 -0.005706992876025148 0 
0.009707189644642657 -0.08047933637131779 -0.05133204510984138 -0.005706992876025148 0 
0 0 0 -0.00182731260774253 0 
0.1095952357589627 -0.1856346870195237 0 -0.01262191610937523 -0.003150251379066285 
-0.07144451511463154 0.06062810068445994 -0.00565225590189457 -0.02524192119096728 -0.009338065833310222 
0.06414361952995308 -0.1066134331714774 0 -0.003625705674309853 0 
-0.06938945252518147 0.1263194883930919 -0.04650865939078854 -0.003625705674309853 0 
0.06414361952995308 -0.1066134331714774 0 -0.003625705674309853 0 
-0.02016401223183267 0.0251288413955555 -0.0003889081389882968 -0.01532295704317624 -0.008338700567656969 
0.01476183923994673 0.03048332342798023 -0.0003889081389882911 -0.009645545568097446 0 
-0.03497815912770568 0.05075674318204548 -0.0003889081389882968 0 0 
-0.03497815912770568 0.05075674318204548 -0.0003889081389882968 0 0 
0 0 -2.602085213965211e-18 0 0 
0.0248174657222796 -0.03632534952486703 0 0 0 
0 0 -2.602085213965211e-18 0 0 
0 0 0 0 0 
0.1253324707941014 0.4010855624003398 -0.4562164257398632 -0.01413683409201684 0 
0.1385262813820433 -0.2211075593692732 0 -0.004208614853633882 0 
0 0 0 0 0 
0 0 0 0 0 
0 0 0 0 0 
0.2458281465438774 -0.152461257506911 -0.0644410379173654 0 0 
0 0 0 0 0 
0 0 0 0 0 
-0.09032498584429807 0.1695957776138402 -0.01806639543488453 0 0 
-0.05199617829185767 0.07984272194944173 -0.00537503599897942 0 0 
-0.09032498584429804 0.2581627757083766 -0.01806639543488452 0 0 
-0.09032498584429807 0.1695957776138402 -0.01806639543488453 0 0 
0 0 0 0 0 
0 0 0 0 0 
0 0 0 0 0 
0 0 0 0 0 
0.1926443352802817 -0.1903517945918027 1.734723475976807e-18 -0.0302270061466057 -0.004510076582690991 
0 0 0 0 0 
0.008863652137804642 0.08975305566439844 -0.01269135943590512 -0.02458750535887235 -0.002507967020902012 
0 0 0 0 0 
-0.038820995285342 0.08975305566439844 -0.01269135943590512 0 -0.002507967020902012 
-0.1808503219329324 0.1600384174096066 1.040834085586084e-17 -0.02690646086460345 -0.001668346186988599 
0 0 0 0 0 
0 0 0 -0.0115608322824546 0 
0 0 0 -0.0115608322824546 0 
0 0 0 -0.0115608322824546 0 
0 0 0 -0.0115608322824546 0 
0.02556903913328069 -0.05707698309285061 0 0 0 
0.02556903913328069 -0.05707698309285061 0 0 0 
0.02556903913328069 -0.05707698309285061 0 0 0 
0 -0.6571218012980137 0.6449143834214272 0 0 
0 -0.6571218012980137 0.6449143834214272 0 0 
-0.01160850370552096 -0.4446917670357382 0.4989695370540223 0 0 
-0.01160850370552096 -0.4446917670357382 0.4989695370540223 0 0 
0.08598620438142643 -0.1607766449981713 -6.938893903907228e-18 -0.0106245948357959 -0.008177994896751559 
0.08598620438142644 -0.1607766449981713 0 -0.00197871907674249 -0.002697558827496873 
0.08598620438142643 -0.1607766449981713 -6.938893903907228e-18 -0.0106245948357959 -0.008177994896751559 
0.03575791503039286 0 0 0 0 
0.03575791503039286 0 0 0 0 
0.03575791503039286 0 0 0 0 
0 0 0 0 0 
0 0 0 0 0 
-2.168404344971009e-19 -0.1316106615952116 0.1944475858569184 -0.003643201366627523 0 
0 -0.2502781896981645 0.2880979049090214 0 0 
0 -0.2502781896981645 0.2880979049090214 0 0 
-0.01401334486784616 0.3055405312469121 -0.3207927978432092 -0.01214808652503605 0 
-0.02459811037529783 0.1129361117179815 -0.08971143012246305 -0.0005501860327849827 0 
0 0.2120178366950904 -0.2641108304068038 0 0 
0 0.2120178366950904 -0.2641108304068038 0 0 
-1.734723475976807e-18 -0.4021061244055427 0.3447426674213956 -0.0005501860327849827 0 
0 0 0 0 0 
0.006981682739394562 0 0 0 0 
0 0 0 0 0 
0.006981682739394562 0 0 0 0 
0.006981682739394562 0 0 0 0 
0.01145794223003188 -0.003038607911980538 0 0 -0.001258921675994039 
0.01145794223003188 -0.003038607911980538 0 0 -0.001258921675994039 
0.07693461463136518 -0.04952427496025265 0 0 0 
0.07693461463136518 -0.04952427496025265 0 0 0 
0.07693461463136518 -0.04952427496025265 0 0 0 
0.07693461463136518 -0.04952427496025265 0 0 0 
0 0 0 0 -0.001287818379153949 
0 0 0 0 -0.001287818379153949 
0.03489438007798553 0 0 0 0 
0.03489438007798553 0 0 0 0 
0.03489438007798553 0 0 0 0 
0.1049034308809731 -0.03416377743586285 -0.03421832023319738 0 -0.01772575846459506 
0 -0.01775276135044666 0 0 0 
0 -0.01775276135044666 0 0 0 
-0.3249944691481698 0.5100551400946305 -0.1704841949533423 -0.05005674158213894 -0.03289409727903083 
-0.1764085483768525 -0.2267858966811931 0.3872620372280446 -0.03869611168365372 -0.03251969873965126 
-0.01319381058794193 0.6221931217696125 -0.4562164257398632 -0.009928219238382965 0 
-0.01319381058794193 0.03121961646343035 -1.214306433183765e-17 0 0 
-0.1144478948706593 0.263357436729177 -0.06347993423363366 -0.008133513845762913 -0.01302666344396434 
-3.252606517456513e-18 0.07770498971806594 3.469446951953614e-18 -0.005053143048867534 -0.01589276578773072 
0 0.03928605144256779 0 0 -0.01302666344396434 
0 0.03928605144256779 0 0 -0.01302666344396434 
-0.0580767238515182 0.1560653730351878 -0.1185164470762329 0 0 
-0.0580767238515182 0.1560653730351878 -0.1185164470762329 0 0 
-0.0580767238515182 0.1560653730351878 -0.1185164470762329 0 0 
-0.06385245509727035 -0.01418299280289917 0.1134307785353967 0 0 
-0.06385245509727035 0.1433504174360318 -0.00459937132407316 0 0 
-0.06385245509727035 0.1433504174360318 -0.004599371324073162 0 0 
-0.06385245509727035 0.1433504174360318 -0.00459937132407316 0 0 
-0.06385245509727035 0.1433504174360318 -0.00459937132407316 0 0 
0.03895197562318257 5.204170427930421e-18 -0.04258967870745137 -0.01579949985099606 0 
0.03845978789028098 0 -0.01732015446849292 -0.01249883664642742 -0.002507967020902013 
0.03895197562318257 0 -0.01732015446849292 -0.01249883664642742 0 
0.03895197562318257 5.204170427930421e-18 -0.04258967870745137 -0.01579949985099606 0 
0.03895197562318257 0 -0.01732015446849292 -0.01249883664642742 0 
0 0 0 -0.01584779220748483 0 
0 0 0 -0.01584779220748483 0 
0 0 0 -0.01584779220748483 0 
0 0 0 0 0 
-0.0256644492546145 0.06205492918355212 -0.006473962273406355 0 -0.001934995742491345 
-0.0256644492546145 0.0236359909080539 -0.006473962273406355 0 -0.001934995742491345 
-0.0256644492546145 0.0236359909080539 -0.006473962273406355 0 -0.001934995742491345 
-0.0256644492546145 0.0236359909080539 -0.006473962273406355 0 -0.001934995742491345 
-0.0256644492546145 0.0236359909080539 -0.006473962273406355 0 -0.001934995742491345 
0.03061114023842335 0 0 0 0 
0.03061114023842335 0 0 0 0 
0.0280838506179886 -0.1158588192658614 0.1522308621738279 1.301042606982605e-18 0 
0 0.09223549211963641 -0.07337951534197813 0 0 
0 -0.4491256741472978 0.4735500836363116 1.301042606982605e-18 0 
0 0.09223549211963641 -0.07337951534197813 0 0 
0 0.09223549211963641 -0.07337951534197813 0 0 
-0.07944242917312219 0.1557688485146112 -0.09760324704467013 -0.04090060244297777 -0.00891896139377929 
-0.01401334486784616 0.09352269455182166 -0.05668196743640509 -0.01214808652503605 0 
-0.01401334486784616 0.03877604308158149 0 0 0 
-0.01401334486784616 0.03877604308158149 0 0 0 
0 0.05474665147024021 -0.0566819674364051 -0.01214808652503605 0 
-0.01157136219037703 0.267391760879396 -0.06865208580625559 0 0 
0.01658182422196304 0 0 0 -0.03822557987941404 
-0.01044349597379533 -0.1195596868496845 -0.04545231281084681 0.1249497246905666 -0.008668154955254777 
0 0 0 -0.02458750535887235 0 
0.09315684336143408 -0.07952456132671606 0 -0.05481451150547806 0 
-0.01044349597379533 -0.1029043377239078 -0.04545231281084681 0.1000750418913467 -0.01562157836518492 
-0.1423666809355332 0.1002489961327692 -0.2047632834551762 0.2250156321726147 -0.008668154955254777 
0 0.197350827731413 -0.2047632834551763 -0.003103032338495324 0 
0 0.197350827731413 -0.2047632834551763 -0.003103032338495324 0 
-0.01962616282898613 0.06192438528424105 0 0 0 
0 0 0 0 0 
0.001680933449192776 0 -0.01536450764465914 0 0 
-0.1514152886867025 -0.15748899998508 0.3573562319517513 -0.03527868199960776 -0.006221402566282414 
-0.1514152886867025 -0.15748899998508 0.3573562319517513 -0.03527868199960776 -0.006221402566282414 
-0.1514152886867025 -0.15748899998508 0.3573562319517513 -0.03527868199960776 -0.006221402566282414 
0 0.4908002651203672 -0.4344615738662821 0 0 
0.1049034308809731 -0.0164110160854162 -0.03421832023319738 0 -0.01772575846459506 
0.1049034308809731 -0.0164110160854162 -0.03421832023319738 0 -0.01772575846459506 
0 0 0 0 0 
0 0 0 0 0 
0.01027746204969269 0 0 0 0 
0.01027746204969269 0 0 0 0 
0.01027746204969269 0 0 0 0 
0.01027746204969269 0 0 0 0 
0.01027746204969269 0 0 0 0 
0 0.05200466631505432 -0.008826082508459241 0 0 
0 0.05200466631505432 -0.008826082508459241 0 0 
0 0.05200466631505432 -0.008826082508459241 0 0 
0 0.05200466631505432 -0.008826082508459241 0 0 
0 0.05200466631505432 -0.008826082508459241 0 0 
0 0.05200466631505432 -0.008826082508459241 0 0 
-0.01673722884754733 -0.1605100746121228 0.1900546316561504 0 0 
-0.01673722884754733 -0.1605100746121228 0.1900546316561504 0 0 
-0.01673722884754733 -0.1605100746121228 0.1900546316561504 0 0 
-0.01673722884754733 -0.1605100746121228 0.1900546316561504 0 0 
-0.01673722884754733 -0.1605100746121228 0.1900546316561504 0 0 
-0.004162770361959472 0.4265037678093941 -0.348898899191285 0 0 
0 0 0 -0.005617271387664626 -0.002652545108846172 
0 0 0 -0.005617271387664626 -0.002652545108846172 
0 0 0 -0.005617271387664626 -0.002652545108846172 
0 2.602085213965211e-18 0 -0.005617271387664626 -0.002652545108846172 
0.02306200980299579 0.2129286662247155 -0.2204441599398053 -0.02716318617646552 -0.007778967703842629 
0 0 0 0 0 
-0.03183001391951301 0.2232226683455002 -0.1737044026975849 0 0 
0 0.01665534912577664 0 -0.02487468279921991 -0.006953423409930138 
0 0 0 0 0 
-0.1066206580425423 0.1579481778661782 -0.00565225590189457 -0.02161621551665743 -0.009824173431437037 
0.02896747660204237 -0.009293355989759139 0 0 -0.0004861075981268123 
0.02896747660204237 -0.009293355989759139 0 0 -0.0004861075981268123 
0 0 0 0 -0.001582941697858909 
0 0 0 0 0 
0 0 0 0 0 
0 0.486427876213799 -0.4837860599354054 0 0 
-0.06953154933568045 0.06610890886334782 0.02435991666783664 -0.02526907232595304 -0.004913711922532065 
0 0 0 0 -0.0004684943105021501 
0.1107474615732191 -0.07451119940838277 -0.01933574252664353 -0.01192944468209848 -0.007131988495194951 
0.1107474615732191 -0.07451119940838277 -0.01933574252664353 -0.01192944468209848 -0.007131988495194951 
0 -0.5573538467887236 0.586900332109787 0 0 
0 -0.5573538467887236 0.586900332109787 0 0 
0.0539073444592552 -0.071559833773325 0 0 0 
0.0539073444592552 -0.004449537156492628 -0.05400201274965413 -0.007736927607251793 0 
0.0539073444592552 -0.005791361480777593 -0.08724163838621531 -0.0004407862868378009 -0.00235693928815778 
0.0539073444592552 -0.071559833773325 0 0 0 
0.0539073444592552 -0.071559833773325 0 0 0 
0.0539073444592552 -0.071559833773325 0 0 0 
0.0539073444592552 -0.071559833773325 0 0 0 
0.0539073444592552 -0.071559833773325 0 0 0 
4.336808689942018e-19 0.06576847229254741 -0.08724163838621531 -0.0004407862868378 -0.00235693928815778 
0 0 0 0 0 
0 0 0 0 0 
-0.03183001391951301 0.08856699809453621 0 0 0 
0 0.08856699809453619 0 0 0 
0 0.06576847229254741 -0.08724163838621531 -0.0004407862868378 -0.00235693928815778 
0 0.06576847229254741 -0.08724163838621531 -0.0004407862868378 -0.00235693928815778 
0 0.06576847229254741 -0.08724163838621531 -0.0004407862868378 -0.00235693928815778 
0.01670616796516928 0 -0.01632339103053448 0 0 
0.01670616796516928 0 -0.01632339103053448 0 0 
0.02520753867473218 0 0 -0.02312357588388833 -0.0010196950869203 
0.02520753867473218 0 0 -0.02312357588388833 -0.0010196950869203 
0.1154847971457205 -0.08165474645538019 -0.0123755793647719 0 0 
0.06249363666943426 0.04031706042966293 -0.02596886301195085 0 0 
0.1154847971457205 -0.08165474645538019 -0.0123755793647719 0 0 
0.1063597429375213 -0.1294923657702777 0 0 -0.0004526884241527387 
0.1063597429375213 -0.1294923657702777 0 0 -0.0004526884241527387 
0.1063597429375213 -0.1294923657702777 0 0 -0.0004526884241527387 
0.1063597429375213 -0.1294923657702777 0 0 -0.0004526884241527387 
0 -0.0700675401485107 0.08167473224967349 -0.005228979299168296 -0.02432907179746445 
0 -0.0700675401485107 0.08167473224967349 -0.005228979299168296 -0.02432907179746445 
0 -0.0700675401485107 0.08167473224967349 -0.005228979299168296 -0.02432907179746445 
0 -0.0700675401485107 0.08167473224967349 -0.005228979299168296 -0.02432907179746445 
-0.03223524053277142 0.04148998350290149 -0.2286410157826902 -0.01026958189016932 -0.01009273942433435 
0 0 -0.2286410157826902 0 -0.001582941697858909 
0 0 0 -0.001190287148422878 0 
0 0 0 -0.001190287148422878 0 
0 0 0 -0.001190287148422878 0 
-0.03720372709934838 0.04148998350290148 0 -0.008160148420807662 -0.008509797726475438 
-0.03720372709934838 0.04148998350290148 0 -0.008160148420807662 -0.008509797726475438 
-0.03223524053277142 0.04148998350290149 1.951563910473908e-18 -0.01026958189016932 -0.008509797726475438 
-0.4097594475474831 0.3171190518936597 0 0 0 
-5.149960319306146e-19 0.1762614636204924 -0.1806291277334459 0 0 
0 0.1448577978464434 -0.1232897258712872 0 0 
0 0 0 0 0 
0 0 0 0 0 
0 0 0 0 0 
0 0 0 0 0 
0.03393952193996676 -0.1072714230246694 8.673617379884035e-19 -0.009084320395473335 -0.03510442929127407 
0 0 0 0 0 
0 0 0 0 -0.002085791371905181 
0 0 0 0 -0.002085791371905181 
0 0 0 0 -0.002085791371905181 
0 0 0 0 -0.002085791371905181 
0.03708066212602278 -0.1092428292819477 3.469446951953614e-18 -0.03606988084163359 -0.009605953455116095 
-0.009162444356240444 0.5842963720243778 -0.5644042202746626 -0.00152148235206281 0 
0.01854033106301139 -0.05462141464097384 1.734723475976807e-18 -0.01658780294307652 -0.004802976727558047 
0.01854033106301139 -0.05462141464097384 1.734723475976807e-18 -0.01658780294307652 -0.004802976727558047 
0 -0.05462141464097384 0 -0.00152148235206281 0 
0 0 0 -0.002894274955480557 0 
0 0 0 -0.002894274955480557 0 
0 0 0 -0.002894274955480557 0 
0 -0.09576555762400173 0 0 0 
0 -0.09576555762400173 0 0 0 
0 0 0 -0.007203022617152635 -0.0030166062922996 
0 0 -0.05285039962532 0 0 
0 0 -0.05285039962532 0 0 
0 0 -0.05285039962532 0 0 
0 0 -0.05285039962532 0 0 
-0.01501487309150078 0.2347823506118433 -0.2265904544186094 0 0 
-0.01501487309150078 0.2347823506118433 -0.2265904544186094 0 0 
0 0 0 0 0 
0.07048622793456769 -0.04317041883534469 0 0 -0.008817601049898299 
0 0.435258450416281 -0.4549594789964212 -0.003643201366627523 0 
0 0.03329050578079807 -0.01344636779245665 -0.01525547903598584 0 
0 0.03329050578079807 -0.01344636779245665 -0.01525547903598584 0 
0 0.03329050578079807 -0.01344636779245665 -0.01525547903598584 0 
0 0.03329050578079807 -0.01344636779245665 -0.01525547903598584 0 
0 0 0 -0.008645875759053404 -0.005480436069254684 
6.938893903907228e-18 0 0 0 0 
0 0 0 0 0 
0 -0.9909133231939323 0.5965774575878708 0 0 
0 0.6578698353835076 -0.557746232181387 0 0 
0 -0.4279560268300429 0.419335289220182 0 0 
0 -0.1134051394368912 0.1275943097581077 0 0 
0 -0.1134051394368912 0.1275943097581077 0 0 
0 -0.1134051394368912 0.1275943097581077 0 0 
-0.06539956214781091 0.4358801543865287 -0.5101600656798357 0 -0.002035666858254581 
0 0 0 0 -0.001582941697858909 
-0.01001363886330424 0.07980247299053135 -0.03563374354224409 0 0 
-0.01001363886330424 0.07980247299053135 -0.03563374354224409 0 0 
0.08773835471174493 -0.1092885135041937 0 -0.01959232125635895 -0.01414823527038344 
0.08773835471174493 -0.1092885135041937 0 -0.01959232125635895 -0.01414823527038344 
0.08773835471174493 -0.1092885135041937 0 -0.01959232125635895 -0.01414823527038344 
0.08773835471174493 -0.1092885135041937 0 -0.01959232125635895 -0.01414823527038344 
0.08773835471174493 -0.1092885135041937 0 -0.01959232125635895 -0.01414823527038344 
0.1858280445075194 -0.1562751004158708 -0.01751318183780962 -0.0236087272531295 -0.01414823527038344 
-0.0146643895865515 0.1148152580319432 -0.1208400935658523 0 0 
-0.0146643895865515 0.1148152580319432 -0.1208400935658523 0 0 
-0.02543198834936558 -0.4061575767947522 0.3081288574826344 -8.113658340701011e-05 0 
0 0.4216539435323888 -0.4431984524843202 -0.0007520139704818942 -0.0005084254633638778 
0 0.3902502777583399 -0.3858590506221614 -0.0007520139704818942 -0.0005084254633638778 
-0.157544854708287 -0.1274995496644515 0 0.2463688352148059 -0.01091273813283551 
-0.157544854708287 -0.1274995496644515 0 0.2463688352148059 -0.01091273813283551 
-0.157544854708287 -0.1274995496644515 0 0.2463688352148059 -0.01091273813283551 
-0.157544854708287 -0.1274995496644515 0 0.2463688352148059 -0.01091273813283551 
-0.157544854708287 -0.1274995496644515 0 0.2463688352148059 -0.01091273813283551 
-0.157544854708287 -0.1274995496644515 0 0.2463688352148059 -0.01091273813283551 
0 0 0 0 0 
0 0 0 0 0 
0 0 0 0 0 
0 0 0 0 0 
0.0454516162290096 -0.07902125384804609 0 -0.00899621043506537 -0.003150251379066285 
0.0454516162290096 -0.07902125384804609 0 -0.00899621043506537 -0.003150251379066285 
0.02306200980299579 -0.07902125384804609 0 -0.002288503377245621 -0.0008255442939124919 
-0.06784451425088088 0.1375820014262817 0 0 0 
-0.06784451425088088 0.1375820014262817 0 0 0 
0 0 0 0 0 
0 0 0 0 0 
0 0 0 0 0 
0 0 0 0 0 
0.00496848656657695 0 0 -0.002109433469361668 0 
0.1439205980316814 -0.05932966703243255 -0.02526952423895844 -0.005410096673930311 0 
-0.0004921877329016019 0 0 0 -0.002507967020902013 
-0.009162444356240444 0.6574460824972492 -0.5644042202746626 0 0 
0 0 0 0 0 
0 0.008726068377671514 0 0 0 
0 0.008726068377671514 0 0 0 
0 0.008726068377671514 0 0 0 
0 0 0 0 0 
0 0 0 0 0 
0 0 0 0 0 
0 0 0 0 0 
-0.0529911604762863 0.1219718068850431 -0.01359328364717898 0 0 
-0.0529911604762863 0.1219718068850431 -0.01359328364717898 0 0 
-0.0529911604762863 0.1219718068850431 -0.01359328364717898 0 0 
0 0 0 0 0 
0 0 0 0 0 
0 0 0 0 0 
0 0 0 -0.009272946510742806 -0.004371664315009343 
0 0 0 -0.009272946510742806 -0.004371664315009343 
0 0.2752945709469849 -0.2204441599398053 0 0 
0.1597658377447191 -0.04743845649331874 -0.04000244605913201 0 -0.007772397082538298 
0.1597658377447191 -0.04743845649331874 -0.04000244605913201 0 -0.007772397082538298 
0.1597658377447191 -0.04743845649331874 -0.04000244605913201 0 -0.007772397082538298 
0.1597658377447191 -0.04743845649331874 -0.04000244605913201 0 -0.007772397082538298 
0 0.3662023217094843 -0.3715101533586259 0 0 
-0.2839040888069373 0.398803730640632 -0.05831090261437598 -0.003318355922005699 -0.01360076205136202 
-0.06953154933568044 0.2166505199256279 -0.1329662604073782 -0.01599612581521024 -0.0005420476075227214 
-0.06953154933568044 0.2166505199256279 -0.1329662604073782 -0.01599612581521024 -0.0005420476075227214 
0.108747440863257 -0.1077230149637191 0 -0.01276206978721888 0 
-0.01347378255271906 0.004192196274805096 0 0 -0.004285577681645884 
0 0 0 0 -0.004285577681645884 
0 0 0 0 -0.004285577681645884 
0 0 0 0 -0.004285577681645884 
0 0 0 0 -0.004285577681645884 
0 0 0 0 -0.004285577681645884 
0.300520063436206 -0.2127404846782733 -0.009600933054957754 -0.005392372554296753 -0.01025214361510642 
0.300520063436206 -0.2127404846782733 -0.009600933054957754 -0.005392372554296753 -0.01025214361510642 
0 0 0 0 0 
0.01649742379326592 -0.02297965851086529 0 0 0 
-0.06278942439057573 0.2592283130563997 -0.1856058851333092 0 0 
0.0280838506179886 0 -0.004887797455671613 0 0 
0.0280838506179886 0 -0.004887797455671613 0 0 
0.06444781914202931 -0.02721199169703344 -0.004887797455671613 -0.01729744995552783 -0.008823348132360841 
0.009707189644642657 0 -0.05133204510984138 -0.003879680268282617 0 
-0.1172932246317878 0.2633190448743323 -0.1146107871684493 -0.01455775189783982 0 
-0.1172932246317878 0.2633190448743323 -0.1146107871684493 -0.01455775189783982 0 
-0.1172932246317878 0.2633190448743323 -0.1146107871684493 -0.01455775189783982 0 
-0.1172932246317878 0.2633190448743323 -0.1146107871684493 -0.01455775189783982 0 
-0.1172932246317878 0.2633190448743323 -0.1146107871684493 -0.01455775189783982 0 
-0.1172932246317878 0.2633190448743323 -0.1146107871684493 -0.01455775189783982 0 
-0.1172932246317878 0.2633190448743323 -0.1146107871684493 -0.01455775189783982 0 
0 -0.1575334102389309 0.1180301498594698 0 0 
0 -0.1575334102389309 0.1180301498594698 0 0 
0 0 0 0 0 
0 0 0 0 0 
0 0 0 0 0 
0 0 0 0 0 
0 0 0 0 0 
0 0 0 0 0 
-0.15541422334465 -0.1941993731617318 0.3849860590434077 0 0 
-0.15541422334465 -0.1941993731617318 0.3849860590434077 0 0 
-0.07302360356467706 -0.1941993731617318 0.3248392166450238 -0.01128138630299348 0 
-0.2889472953997846 0.03873354840283758 0.338477399652619 0 0 
0.02238960642601377 0 0 -0.006707707057819749 -0.002324707085153794 
0.02238960642601377 0 0 -0.006707707057819749 -0.002324707085153794 
0.04973999836765242 -0.02899948813173679 0 -0.009645545568097446 0 
0 0 0 0 0 
0.04973999836765242 -0.02899948813173679 0 -0.009645545568097446 0 
0 0 0 0 0 
0 0.1558550684584344 -0.1413991732406228 0 0 
0.08812339786720967 0 -0.001380832570487444 0 0 
0.07283065586489522 -0.1264160060145953 0 0 0 
0.07283065586489522 -0.1264160060145953 0 0 0 
0.2350437762132509 -0.1469528137989848 -0.02686418062720868 -0.04046279545216481 -0.01273543595511646 
0.1369540864174764 -0.09996622688730779 -0.009350998789399087 -0.03644638945539427 -0.01273543595511646 
0.1369540864174764 -0.09996622688730779 -0.009350998789399087 -0.03644638945539427 -0.01273543595511646 
0.1369540864174764 -0.09996622688730779 -0.009350998789399087 -0.03644638945539427 -0.01273543595511646 
0 -0.0550630206756143 0 0 0 
0 -0.0550630206756143 0 0 0 
0 -0.0550630206756143 0 -1.084202172485504e-18 0 
0 -0.009574487101423066 0 0 0 
0 -0.009574487101423066 0 0 0 
0 -0.009574487101423066 0 0 0 
0.1375106124123216 -0.0786199971111715 -0.02593735856186147 -0.01286109215231546 -0.006954693159173088 
0.1107474615732191 -0.07451119940838277 -0.01933574252664353 -0.01192944468209847 -0.007131988495194951 
0.1107474615732191 -0.07451119940838277 -0.01933574252664353 -0.01192944468209847 -0.007131988495194951 
0.1107474615732191 -0.07451119940838277 -0.01933574252664353 -0.01192944468209847 -0.007131988495194951 
0.02215733716676434 -0.03231356854202973 0 0 0 
0.02215733716676434 -0.03231356854202973 0 0 0 
0 0 0 0 0 
0 -0.007538814698975242 0 0 0 
0 -0.007538814698975242 0 0 0 
0 -0.007538814698975242 0 0 0 
-0.1423666809355332 -0.09710183159864383 0 0.22811866451111 -0.008668154955254777 
-0.1423666809355332 -0.09710183159864383 0 0.22811866451111 -0.008668154955254777 
-0.1423666809355332 -0.09710183159864383 0 0.22811866451111 -0.008668154955254777 
-0.1423666809355332 -0.09710183159864383 0 0.22811866451111 -0.008668154955254777 
-0.1423666809355332 -0.09710183159864383 0 0.22811866451111 -0.008668154955254777 
0 0 0 0 0 
-0.1625844359583505 0.3172444516974308 -0.07947773492546575 0 0 
-0.1625844359583505 0.3172444516974308 -0.07947773492546575 0 0 
0 0 0 0 0 
0 0 0 0 0 
0 0 0 0 0 
0 0 0 0 0 
0 0 0 0 0 
0 0 0 0 0 
-0.183565565793499 -0.04675319718852288 -0.01542694852048602 -0.009384038366920221 0.2631076447478012 
-0.183565565793499 -0.04675319718852288 -0.01542694852048602 -0.009384038366920221 0.2631076447478012 
-0.183565565793499 -0.04675319718852288 -0.01542694852048602 -0.009384038366920221 0.2631076447478012 
-0.183565565793499 -0.04675319718852288 -0.01542694852048602 -0.009384038366920221 0.2631076447478012 
-0.183565565793499 -0.04675319718852288 -0.01542694852048602 -0.009384038366920221 0.2631076447478012 
0 0 0 0 0 
0 0 0 -0.008645875759053406 -0.005480436069254684 
0 0 0 -0.008645875759053406 -0.005480436069254684 
0 -0.001475293402204587 0 0 0 
0.01694598737595759 0 0 -0.009640496870696912 -0.0004886109308267923 
0.01694598737595759 0 0 -0.009640496870696912 -0.0004886109308267923 
-0.03183001391951301 0 0 0 0 
0 0 0 0 0 
-0.01962616282898613 0.06192438528424105 0 0 0 
0 0 0 0 0 
0 -0.6369694872760794 0.6411122370106209 0 0 
0 0 0 -0.009889712233609491 0 
0.01732519116438928 0 -0.05718262128339412 -0.009889712233609491 0 
0 0 0 -0.009889712233609491 0 
0 0 0 -0.009889712233609491 0 
0 0 0 -0.009889712233609491 0 
0 0 0 0 0 
0 0 0 0 0 
0 0 0 0 0 
0 0 0 0 0 
0 0 0 0 0 
0 0 0 0 0 
0 0 0 0 0 
0 0 -0.02526952423895843 -0.003300663204568645 0 
0.08598620438142644 -0.1607766449981713 0 -0.00197871907674249 -0.002697558827496873 
0.04440704142566195 -0.05142094511230128 1.734723475976807e-18 -8.673617379884035e-19 -0.004510076582690991 
0.05327642183914824 -0.05273071706267739 1.734723475976807e-18 -8.673617379884035e-19 -0.004510076582690991 
0.05327642183914824 -0.05273071706267739 1.734723475976807e-18 -8.673617379884035e-19 -0.004510076582690991 
0.05327642183914824 -0.05273071706267739 1.734723475976807e-18 -8.673617379884035e-19 -0.004510076582690991 
0 0 0 0 0 
-0.01962616282898613 0.06192438528424105 0 0 0 
-0.01962616282898613 0.06192438528424105 0 0 0 
-0.3019530927538193 0.2281162430208398 0 0 -0.000260119941765801 
-0.007870924054494421 0.09791140186952778 -0.1076130608538067 0 0 
-0.007870924054494426 0.1005710188304982 -0.1076130608538067 0 0 
-0.007870924054494426 0.09791140186952778 -0.1076130608538067 0 0 
-0.007870924054494426 0.09791140186952778 -0.1076130608538067 0 0 
0 0 -0.04619458408818674 0 0 
0 0 -0.04619458408818674 0 0 
0.09315684336143408 -0.07952456132671606 0 -0.0302270061466057 0 
0.09315684336143408 -0.07952456132671606 0 -0.0302270061466057 0 
0 0 -0.05041735512247938 0 0 
0 0 -0.05041735512247938 0 0 
0 0 0 0 0 
0 0 0 0 0 
0 0 0 0 0 
0.0980896897957745 -0.04698658691167698 -0.01751318183780962 -0.004016405996770547 0 
0.0980896897957745 -0.04698658691167698 -0.01751318183780962 -0.004016405996770547 0 
0.0980896897957745 -0.04698658691167698 -0.01751318183780962 -0.004016405996770547 0 
0.0980896897957745 -0.04698658691167698 -0.01751318183780962 -0.004016405996770547 0 
0.0980896897957745 -0.04698658691167698 -0.01751318183780962 -0.004016405996770547 0 
0.01732519116438928 0 -0.05718262128339412 0 0 
0 0 0 0 0 
0 0 0 0 0 
-0.1808503219329324 0.1573788004486362 0 -0.02690646086460345 -0.001668346186988599 
-0.1808503219329324 0.1573788004486363 0 -0.02690646086460345 -0.001668346186988599 
-0.1808503219329324 0.1573788004486362 0 -0.02690646086460345 -0.001668346186988599 
-0.1808503219329324 0.1573788004486362 0 -0.02690646086460345 -0.001668346186988599 
-0.06539956214781091 0 0 0 -0.002035666858254581 
0 0.1247231437500744 -0.1199278346904285 0 0 
-0.148585920771317 0.07897120139231657 0 -0.01136062989848521 -0.0003743985393795599 
-0.148585920771317 0.07897120139231657 0 -0.01136062989848521 -0.0003743985393795599 
-0.148585920771317 0.07897120139231657 0 -0.01136062989848521 -0.0003743985393795599 
-0.148585920771317 0.07897120139231657 0 -0.01136062989848521 -0.0003743985393795599 
-0.148585920771317 0.07897120139231657 0 -0.01136062989848521 -0.0003743985393795599 
-0.1686416732148348 -0.03268670580313484 0.2176239233457201 -0.005532664068843005 -2.316803971053945e-05 
-0.1686416732148348 -0.03268670580313484 0.2176239233457201 -0.005532664068843005 -2.316803971053945e-05 
-0.1686416732148348 -0.03268670580313484 0.2176239233457201 -0.005532664068843005 -2.316803971053945e-05 
-0.1686416732148348 -0.03268670580313484 0.2176239233457201 -0.005532664068843005 -2.316803971053945e-05 
-0.1686416732148348 -0.03268670580313484 0.2176239233457201 -0.005532664068843005 -2.316803971053945e-05 
-0.1686416732148348 -0.03268670580313484 0.2176239233457201 -0.005532664068843005 -2.316803971053945e-05 
0 0 0 0 -0.002288888008572199 
0 0 0 0 -0.002288888008572199 
0 0 0 0 0 
0 0 0 0 0 
0 0 0 0 0 
0 0 0 0 0 
0 0 0 0 0 
0 0 0 -0.005095471174985493 0 
0 0 0 -0.005095471174985493 0 
0 0 0 0 0 
0 0 0 0 0 
0 0 -0.01058499974951021 0 0 
-0.00611909561664865 0.2433768406088299 -0.1896453007943159 -0.01652236241536253 0 
-0.00611909561664865 0.2433768406088299 -0.1896453007943159 -0.01652236241536253 0 
0 0.1186675281029529 -0.09365031905210319 -0.003643201366627523 0 
0 0 0 -0.008529157894079266 0 
0 0 0 -0.008529157894079266 0 
0 0 0 -0.008529157894079266 0 
0 0 0 0 0 
0 0 0 0 0 
0 0 0 -0.007803916202505674 -0.0004277021838337356 
0.05550189813162673 -0.1465566905233381 0 -0.007803916202505674 -0.002219844220964674 
0 0 0 -0.007803916202505674 -0.0004277021838337356 
0.01053858870033226 -0.003735047140074325 0 0 -0.001036244358632647 
0.01053858870033226 -0.003735047140074325 0 0 -0.001036244358632647 
0 -0.4061575767947522 0.3081288574826345 -8.113658340701011e-05 0 
0 -0.3340678661520948 0.3204272978926273 0 0 
0 -0.3340678661520948 0.3204272978926273 0 0 
0.2458281465438774 -0.152461257506911 -0.0644410379173654 0 0 
0.2458281465438774 -0.152461257506911 -0.0644410379173654 0 0 
0.7108763337538464 -0.5576412990134908 -0.1709618696669586 0 0 
0 0 0 0 0 
0 0 0 0 0 
0 0 0 0 0 
0 0.06711029661683238 -0.05400201274965413 -0.007736927607251793 0 
0 0 0 0 0 
0 0 0 0 0 
0 0 0 0 0 
0 -0.08047933637131779 0 0 0 
0 0.01665534912577665 0 -0.0248746827992199 -0.006953423409930138 
0 0.01665534912577665 0 -0.0248746827992199 -0.006953423409930138 
0 0.01665534912577665 0 -0.0248746827992199 -0.006953423409930138 
0 0.01665534912577665 0 -0.0248746827992199 -0.006953423409930138 
0 0.08693142938471859 -0.05397747718203957 0 -0.000539940295984232 
0 0.08693142938471859 -0.05397747718203957 0 -0.000539940295984232 
-0.02459811037529784 0.5150422361235242 -0.4344540975438589 0 0 
0.04768464742314667 0 0 0 0 
0 0.1276201566080697 -0.1045839131063986 0 0 
0 0.1276201566080697 -0.1045839131063986 0 0 
0 0.1276201566080697 -0.1045839131063986 0 0 
-0.1230141504058687 -0.08866610339870237 0 0.2243222739980642 0 
-0.1230141504058687 -0.08866610339870237 0 0.2243222739980642 0 
-0.1230141504058687 -0.08866610339870237 0 0.2243222739980642 0 
-0.1230141504058687 -0.08866610339870237 0 0.2243222739980642 0 
-0.1230141504058687 -0.08866610339870237 0 0.2243222739980642 0 
-0.1230141504058687 -0.08866610339870237 0 0.2243222739980642 0 
-0.1230141504058687 -0.08866610339870237 0 0.2243222739980642 0 
0.06767395738381424 -0.1113788794811801 0 0 0 
0.3005200634362059 -0.1944556970156674 -0.009600933054957747 0 0 
-0.06264983195331689 -0.3772130773338118 0.4254190035267748 0 0 
-0.06264983195331689 -0.3772130773338118 0.4254190035267748 0 0 
-0.01347378255271906 0.004192196274805099 0 0 0 
0.01481414689587302 -0.02562790178648998 0 -0.01532295704317624 -0.008338700567656969 
0.01481414689587302 -0.02562790178648998 0 -0.01532295704317624 -0.008338700567656969 
0.01481414689587302 -0.02562790178648998 0 -0.01532295704317624 -0.008338700567656969 
0.01481414689587302 -0.02562790178648998 0 -0.01532295704317624 -0.008338700567656969 
0 -0.007538814698975242 0 0 0 
0 -0.007538814698975242 0 0 0 
0.03636396852404069 -0.02721199169703344 0 -0.01729744995552783 -0.008823348132360841 
0.03636396852404069 -0.02721199169703344 0 -0.01729744995552783 -0.008823348132360841 
0.03636396852404069 -0.02721199169703344 0 -0.01729744995552783 -0.008823348132360841 
0.03636396852404069 -0.02721199169703344 0 -0.01729744995552783 -0.008823348132360841 
-0.008869380413486306 0.00130977195037613 0 0 0 
-0.008869380413486306 0.00130977195037613 0 0 0 
0.05550189813162673 -0.1094932879063158 0 0 -0.001792142037130939 
0.02971364628643362 -0.03511685769154365 0 0 0 
0 0 0 0 0 
0 0 0 0 0 
0 0 0 0 0 
0 0 0 -0.000658343899496689 0 
0 0 0 -0.000658343899496689 0 
0 0 0 -0.000658343899496689 0 
0 0 0 -0.000658343899496689 0 
0 0 0 -0.000658343899496689 0 
0 0.002659616960970403 0 0 0 
0 0.002659616960970403 0 0 0 
-0.06998109926295314 0.1647897210393945 -0.0454523128108468 -0.03559235852784649 0 
-0.06998109926295314 0.1647897210393945 -0.0454523128108468 -0.03559235852784649 0 
-0.06998109926295314 0.1647897210393945 -0.0454523128108468 -0.03559235852784649 0 
-0.1144478948706593 0.2240713852866092 -0.06347993423363366 -0.008133513845762913 0 
-0.1144478948706593 0.2240713852866092 -0.06347993423363366 -0.008133513845762913 0 
-0.1144478948706593 0.2240713852866092 -0.06347993423363366 -0.008133513845762913 0 
0 0 0 0 0 
0 0 0 0 0 
0 0 0 0 0 
0 0.01654045994912871 -0.02798914623280776 0 0 
0 0.01654045994912871 -0.02798914623280776 0 0 
0 0.09418667765291154 -0.05307143325668225 -0.0007839940073327049 0 
0 0.09418667765291154 -0.05307143325668225 -0.0007839940073327049 0 
0 0 0 0 0 
0.04973999836765242 -0.02899948813173679 0 -0.009645545568097446 0 
0.04973999836765242 -0.02899948813173679 0 -0.009645545568097446 0 
0 -0.01852829583189785 0 0 0 
0 -0.01852829583189785 0 0 0 
0 -0.01852829583189785 0 0 0 
0 -0.01852829583189785 0 0 0 
0 0.2833731494838576 -0.2498619831576655 0 0 
0 0.03140366577404908 -0.05733940186215886 0 0 
0 0.1032729103762789 -0.2428286394698371 0 0 
0 0.1032729103762789 -0.2428286394698371 0 0 
0.01206011267984783 -0.004325064105555871 0 0 -0.0005920696518924309 
0.01206011267984783 -0.004325064105555871 0 0 -0.0005920696518924309 
0.01206011267984783 -0.004325064105555871 0 0 -0.002195928422803308 
0 0.134655670250964 -0.1737044026975848 0 0 
0 0.134655670250964 -0.1737044026975848 0 0 
0 0.04330907631265452 -0.01037001161247764 0 -0.01120913997716313 
0 0.04330907631265452 -0.01037001161247764 0 -0.01120913997716313 
0.0248174657222796 -0.03632534952486703 0 0 0 
0.0248174657222796 -0.03632534952486703 0 0 0 
0.0248174657222796 -0.03632534952486703 0 0 0 
0 0.03841893827549808 0 0 0 
0 0.03841893827549808 0 0 0 
0 0.03841893827549808 0 0 0 
0 0 0 0 0 
0 0 0 0 0 
0 0 0 0 0 
0 0 0 0 0 
0 0 -0.07809773918109945 0 0 
0 0 -0.07809773918109945 0 0 
0 0 -0.07809773918109945 0 0 
-0.1335330720551345 0.2329329215645694 -0.04650865939078854 0 0 
-0.1335330720551345 0.2329329215645694 -0.04650865939078854 0 0 
0 0 0 0 0 
0 0 0 0 0 
0 0 0 0 0 
-0.02370641971940119 0 0 0 0 
-0.02370641971940119 0 0 0 0 
0 0 0 0 0 
0 0 0 0 0 
0 0 0 0 0 
0 0 0 0 -0.001603858770910877 
0 0 0 0 -0.001603858770910877 
0 0 0 0 0 
0 0 0 0 -0.002682063386214373 
0 0 0 0 -0.002682063386214373 
0 0.2258642875182703 -0.1932901861139439 -0.0005501860327849827 0 
0 0.2258642875182703 -0.1932901861139439 -0.0005501860327849827 0 
0 0.2258642875182703 -0.1932901861139439 -0.0005501860327849827 0 
0 0.2258642875182703 -0.1932901861139439 -0.0005501860327849827 0 
0.03393952193996676 -0.0522084023490553 0 -0.009084320395473335 -0.03510442929127407 
0.03393952193996676 -0.0522084023490553 0 -0.009084320395473335 -0.03510442929127407 
0.03393952193996676 -0.0522084023490553 0 -0.009084320395473335 -0.03510442929127407 
0.06235486232484181 0 0 0 0 
0.06235486232484181 0 0 0 0 
0.06235486232484181 0 0 0 0 
0 0 0 0 0 
0 0 0 0 0 
0 0 0 0 0 
0.004826709847105501 0 0 -0.008760733757353216 -0.0001293716666241475 
0.004826709847105501 0 0 -0.008760733757353216 -0.0001293716666241475 
-0.1945630217236411 -0.3088634743243363 0.496367992934785 0 0 
-0.1945630217236411 -0.3088634743243363 0.496367992934785 0 0 
-0.1355881346445846 0.1672415338559373 -0.00565225590189457 -0.02161621551665743 -0.009338065833310224 
-0.1355881346445846 0.1672415338559373 -0.00565225590189457 -0.02161621551665743 -0.009338065833310224 
-0.1355881346445846 0.1672415338559373 -0.00565225590189457 -0.02161621551665743 -0.009338065833310224 
-0.1355881346445846 0.1672415338559373 -0.00565225590189457 -0.02161621551665743 -0.009338065833310224 
-0.1355881346445846 0.1672415338559373 -0.00565225590189457 -0.02161621551665743 -0.009338065833310224 
-0.1355881346445846 0.1672415338559373 -0.00565225590189457 -0.02161621551665743 -0.009338065833310224 
0 0.2269451236097 -0.1571390864090591 0 0 
0 0.2269451236097 -0.1571390864090591 0 0 
0 0.2269451236097 -0.1571390864090591 0 0 
0.06089693903747391 -0.004125126983410506 0 0 0 
0.06089693903747391 -0.004125126983410506 0 0 0 
0.06089693903747391 -0.004125126983410506 0 0 0 
0.06089693903747391 -0.004125126983410506 0 0 0 
0.08239061977997293 0 -0.06014684239838394 -0.01128138630299348 0 
0.08239061977997293 0 -0.06014684239838394 -0.01128138630299348 0 
0.08239061977997296 0 -0.06014684239838394 -0.01128138630299348 0 
0 0 0 0 0 
