solver_type L2R_L2LOSS_SVC_DUAL
nr_class 2
label 1 2
nr_feature 52
bias -1
w
0.1044936402984633 
0.19680069734818 
-0.01945051214657297 
0.1044936402984633 
0.1044936402984633 
0.1044936402984633 
0.19680069734818 
0.1044936402984633 
0.1044936402984633 
-0.01945051214657297 
-0.01945051214657297 
-0.01945051214657297 
-0.1459144788127006 
-0.1459144788127006 
-0.06155273384780101 
-0.06155273384780101 
-0.1459144788127006 
-0.1459144788127006 
-0.06155273384780101 
-0.06155273384780101 
-0.06155273384780101 
-0.0703367306820524 
-0.0703367306820524 
-0.0703367306820524 
-0.0703367306820524 
-0.0703367306820524 
-0.0703367306820524 
-0.0703367306820524 
-0.0703367306820524 
-0.0703367306820524 
-0.1164406719047716 
-0.0703367306820524 
-0.0703367306820524 
0.09230705704971677 
0.09230705704971677 
0.09230705704971677 
0.09230705704971677 
0.09230705704971677 
0.09230705704971677 
0.09230705704971677 
-0.04610394122271926 
-0.04610394122271926 
-0.04610394122271926 
-0.04610394122271926 
-0.03825780374218034 
-0.03825780374218034 
-0.03825780374218034 
-0.03825780374218034 
-0.03825780374218034 
-0.03825780374218034 
-0.03825780374218034 
-0.03825780374218034 
