solver_type L2R_L2LOSS_SVC_DUAL
nr_class 3
label 1 2 3
nr_feature 28
bias -1
w
0.1399339916176287 -0.0944117998729298 -0.09321429212384461 
0.1399339916176287 -0.0944117998729298 -0.09321429212384461 
-0.04920815701552535 -0.04869674023723813 -0.0519196292368302 
0.1399339916176287 -0.0944117998729298 -0.09321429212384461 
0.1399339916176287 -0.0944117998729298 -0.09321429212384461 
0.1399339916176287 -0.0944117998729298 -0.09321429212384461 
0.1399339916176287 -0.0944117998729298 -0.09321429212384461 
0.1399339916176287 -0.0944117998729298 -0.09321429212384461 
0.1399339916176287 -0.0944117998729298 -0.09321429212384461 
-0.04920815701552535 -0.04869674023723813 -0.0519196292368302 
-0.04920815701552535 -0.04869674023723813 -0.0519196292368302 
-0.04920815701552535 -0.04869674023723813 -0.0519196292368302 
-0.09449027905151748 0.1404460054064031 -0.09681134253506561 
-0.09449027905151748 0.1404460054064031 -0.09681134253506561 
-0.09449027905151748 0.1404460054064031 -0.09681134253506561 
-0.09449027905151748 0.1404460054064031 -0.09681134253506561 
-0.09449027905151748 0.1404460054064031 -0.09681134253506561 
-0.09449027905151748 0.1404460054064031 -0.09681134253506561 
-0.09449027905151748 0.1404460054064031 -0.09681134253506561 
-0.09449027905151748 0.1404460054064031 -0.09681134253506561 
-0.0946518695816366 -0.09473094577071145 0.13810600542208 
-0.0946518695816366 -0.09473094577071145 0.13810600542208 
-0.0946518695816366 -0.09473094577071145 0.13810600542208 
-0.0946518695816366 -0.09473094577071145 0.13810600542208 
-0.0946518695816366 -0.09473094577071145 0.13810600542208 
-0.0946518695816366 -0.09473094577071145 0.13810600542208 
-0.0946518695816366 -0.09473094577071145 0.13810600542208 
-0.0946518695816366 -0.09473094577071145 0.13810600542208 
