solver_type L2R_L2LOSS_SVC_DUAL
nr_class 3
label 1 2 3
nr_feature 1367
bias -1
w
0.05753145098535948 -0.08980724316441249 -0.001007183745130417 
0.0438799560846936 -0.04094274749692112 -0.3376407895212709 
0.1978841932289571 -0.1496275385669434 -0.1089321253062499 
0 0 0 
0.05753145098535948 -0.08980724316441252 -0.001007183745130417 
0.1453191822967172 -0.1327715633231579 -0.06689088870897926 
0 0 0 
0.2071298881912506 -0.2193552755988242 -0.3376407895212709 
0.1669379383201504 -0.04184217367245263 -0.1744416459985265 
0.06124486178028541 -0.02227516112617043 -0.09440457154347927 
0.05133518113196841 -0.0858450239753499 -0.04880882370661369 
0.2649667936962773 -0.2125882321745445 -0.1061480603417534 
-0.03272041808229965 -0.1157187908689894 0.01222555545700797 
0.0666311920637912 -0.05759274315410186 -0.01063100538779323 
0.3336171263497132 -0.2523210757865689 -0.1442993450559371 
0.1161685635326654 -0.06154971725310589 -0.08338779745170063 
0 0 0 
0.2326627565907551 -0.2008173981092138 -0.08693740869447164 
0 3.469446951953614e-18 0 
-0.1820790212345563 0.1797891386801388 -0.04811836555571809 
-0.01606146617674795 0.03280935540798282 -0.01696231945214638 
0 0 0 
0.3587418182787376 -0.2863648657943723 -0.1384738960708349 
0 0 0 
0 0 0 
0 0 0 
0.3587418182787376 -0.2863648657943723 -0.1384738960708349 
0 0 0 
0.12001361426787 -0.09263282768494308 -0.0445944367923139 
-0.1813906439575463 0.2197696128327739 -0.05155987695621816 
0.1618777892703268 -0.1010726294212622 -0.08290153589834269 
0 0 0 
0 0 0 
0.1146011552418621 -0.09766775728046917 -0.04192303902182162 
0.4651513389220933 -0.3680200510275804 -0.1635532146197861 
0.07136622561959005 0.001597992604200539 -0.04906771604468802 
0.1146011552418621 -0.09766775728046914 -0.03561943796788629 
0.1602996988086636 -0.1156792412503059 -0.0710710897641573 
0 0 0 
0.007553238760535019 0.01780823202892707 -0.04192303902182162 
-0.1271464284040739 0.1236642071416491 -4.336808689942018e-19 
-0.3026536926708641 0.3301320176009697 -0.04845686887906316 
-0.04591849795032044 0.07076342469585893 -0.0408257575751759 
-0.1380797128220522 0.1321916871879262 0 
-0.1380797128220522 0.1321916871879262 0 
-0.3026536926708641 0.3301320176009697 -0.04845686887906316 
-0.1380797128220522 0.1321916871879262 0 
0.04658305004679899 -0.08289541281577992 0.02652952827081766 
0.07769716630137313 -0.0622279906239815 -0.04246562115302219 
0.003927904688119825 0 -0.01357246069441382 
0.05231726351483782 -0.03464770243356988 -0.02889316045860838 
0.003927904688119825 0 -0.01357246069441382 
0.003927904688119825 0 -0.01357246069441382 
-0.1070479164813271 0.1154759893093962 0 
-0.1632499321065572 0.1784125281019028 0 
-0.1632499321065572 0.1784125281019028 0 
-0.1070479164813271 0.1154759893093962 0 
-0.1632499321065572 0.1784125281019028 0 
-0.1632499321065572 0.1784125281019028 0 
-0.1632499321065572 0.1784125281019028 0 
-0.1632499321065572 0.1784125281019028 0 
-0.1231768040276519 0.1160861060026452 0 
-0.08096728655038643 0.01066642557582492 0.06323301713154413 
-0.09918807588678007 0.1322670544640984 -0.05016345986964522 
-0.05620201562523006 0.06293653879250664 0 
-0.05620201562523006 0.06293653879250664 0 
0 -0.002026760500616812 0 
0.08351806423501403 -0.1052207807796303 0.02044399641917684 
0.1556936928839502 -0.1061310831402114 -0.0456657871214592 
-1.040834085586084e-17 -0.002026760500616815 -0.005182363424401404 
0 -0.002026760500616812 0 
0.2700182627110768 -0.1734270587791476 -0.1105585755001524 
0.1556936928839502 -0.1061310831402114 -0.0456657871214592 
0 -0.002026760500616812 0 
0.003156186652118777 -0.006827178198166756 0 
0.05110095572567509 -0.05431484013150327 0 
0.2397758591126739 -0.1495193476683921 -0.1290004466700426 
0.08054125490456157 -0.05431484013150327 -0.03484587695190791 
0.05110095572567509 -0.05431484013150327 0 
0.05110095572567509 -0.05431484013150327 0 
0.1037729321593012 -0.07850647178091102 -0.03484587695190791 
0.0805412549045616 -0.05431484013150327 -0.03484587695190791 
0.05110095572567509 -0.05431484013150327 0 
0.1712808840530556 -0.1373893732084234 -0.0968898861289209 
0.004331537717342383 0 -0.001548085245270469 
0.1408332656693933 -0.08864643437184871 -0.04150515592818585 
0.004331537717342383 0 -0.00154808524527047 
0.2342925433615184 -0.194748066623173 -0.06827865877342165 
0.004331537717342383 0 -0.001548085245270469 
0.004331537717342383 0 -0.001548085245270469 
0.02028509652469375 -0.008381379307047554 0 
0.09338500000797526 -0.0519506883115868 -0.04533553787566866 
0.06341729733637816 -0.03705647593906429 -0.01671694418194997 
0.02028509652469375 -0.008381379307047554 0 
0.02028509652469375 -0.008381379307047554 -0.005182363424401404 
0.06341729733637816 -0.03705647593906429 -0.01671694418194997 
0.02028509652469375 -0.008381379307047554 0 
0.02028509652469375 -0.008381379307047554 0 
-0.04701094570183793 0 0.05669907823608859 
-0.182769080843213 -0.004648186560310725 0.1982688763444916 
-0.2376350780831121 -0.05114408677438548 0.2514621511070267 
-0.2181044227204282 -0.1474982018531253 0.3892938330732079 
-0.04701094570183793 0 0.05669907823608859 
-0.182769080843213 -0.004648186560310725 0.1982688763444916 
-0.2935115793666915 -0.05114408677438548 0.3727477033063604 
-0.07307841794973106 -0.001125937130246888 0.0873129101679786 
0.05886098554065344 -0.202001754311363 0.1095836197487185 
-0.09660684854329002 -0.07332066081802126 0.170697208208362 
0 0 0 
0.01152957185459327 0 0 
0 0 -0.006303601053935346 
0 0 -0.007057354900642606 
0 0 -0.006303601053935346 
0 0 -0.006303601053935346 
0 0 -0.006303601053935346 
0.03827388381702374 -0.02719297997864373 -0.02057128766266501 
0 0 0 
0.10348550796671 -0.001127454908316873 -0.07021188336268848 
0 0 0 
0.2061880669951676 -0.1612267885162788 -0.06274851616305278 
0.08175553782010933 -0.07686317576096205 -0.004053682347126794 
0.1730795405608941 -0.09068951254253596 -0.1223300204794675 
0.2378877313115207 -0.1956756271435955 -0.07227541217451258 
0.1730795405608941 -0.09068951254253596 -0.1223300204794675 
0.2159837870445154 -0.1944031517889666 -0.04659132104774655 
0 0 -0.0007537538467072592 
0 0 0 
0.1291468871722228 -0.08574633099148181 -0.05640438793025514 
0 0 0 
0.003787142359050628 -0.02007581667806272 0 
-0.1580891013791531 0.1199410337558179 0.03486994268474158 
-0.02891903525049395 -0.02820112979920862 0.04844491646566211 
0.0653517462518502 -0.01995152265101036 -0.03377160036590578 
0.01124667066445677 0 -0.009683470251546535 
0.0653517462518502 -0.01995152265101036 -0.03377160036590578 
0.01124667066445677 0 -0.009683470251546535 
0.05784462016210921 -0.04000649817762879 -0.02747461081028155 
0.01093328441797833 -0.008527480046277036 -0.00179051968351549 
-0.1381245181796086 0.1313615127015663 -0.02469276773783679 
-0.027699442310561 0.06061594063248531 -0.03912882103057633 
0.04109530012661464 -0.0239298814449743 0 
-0.04195652989673059 0.0696718188383437 -0.01733007148554262 
0.005398427527354379 -0.001290813310437305 0 
0.005398427527354379 -0.001290813310437305 0 
0.005398427527354379 -0.001290813310437305 0 
0.005398427527354379 -0.001290813310437305 0 
0.005398427527354379 -0.001290813310437305 0 
0 0 0 
0.1667882889796977 -0.1316512194899366 -0.06046486140933537 
-0.02287384185821416 -0.04689953916387937 0.043706841389344 
0 0 0 
0.1667882889796977 -0.1316512194899366 -0.06046486140933537 
0 0 -0.04187031772628417 
0.06395227274767964 -0.06565968312217159 -0.002684641462296646 
0.05998354532638262 -0.02028739986499822 -0.03481600214341299 
0 -0.008036469061221454 0 
0 -0.008036469061221454 0 
0.01654682777856007 -0.008036469061221454 -0.01786189272756564 
0 -0.008036469061221454 0 
0 0 0 
0.1253597448131722 -0.06567051431341908 -0.05640438793025512 
0 0 0 
0 0 0 
2.168404344971009e-19 0 0 
0.1409737528255919 -0.1275148782275955 -0.02851781699201079 
0 0 0 
0 0 0 
0 0 0 
0 0 0 
0.151320720331451 -0.1256475273911413 -0.03825070303915151 
0.1371596754636849 -0.1256475273911413 -0.02611149810863541 
0.151320720331451 -0.1256475273911413 -0.03825070303915151 
0.05256501093224002 -0.01685597524378532 -0.0420412365972706 
0.05256501093224002 -0.01685597524378532 -0.0420412365972706 
0 0 0 
0 0 0 
0.005840670534072614 0 0 
0 0 0 
0 0 0 
0.1236185028451852 -0.08227794475026806 -0.05382691798962842 
-0.01734519551412811 0.07538420668940207 -0.08923561521635447 
0 0 0 
0 0 0 
0.01970056138019229 0 -0.01974671548466514 
0 0 8.673617379884035e-19 
0 0 0 
0 0 8.673617379884035e-19 
0.04326009865339506 -0.03720354022683157 -0.01284123060938069 
0.04326009865339506 -0.03720354022683157 -0.01284123060938069 
0 0 -0.001485495371530511 
0 0 -0.001485495371530511 
0.07067897715640363 -0.05596549177345462 -0.03100645164069415 
0 0 -0.001485495371530511 
0 0 -0.001485495371530511 
0 0 -0.001485495371530511 
0.01333686369095169 -0.03423717869158109 -0.004027898627737088 
0 0 0 
0.001057783534700029 -0.02512745378017085 0 
-0.08273418520756352 0.1018513331917852 -0.01736373051348149 
-0.06384404566885496 0.08355391549361289 -0.01736373051348149 
-0.3761329516403351 0.4699988359472138 -0.08630731715835988 
-0.01205520805115988 0.04588584141833058 -0.04688468678264514 
-0.08273418520756352 0.1018513331917852 -0.01736373051348149 
-0.08273418520756352 0.1018513331917852 -0.01736373051348149 
-0.4107173498284999 0.5229321302632014 -0.08630731715835988 
-0.08273418520756352 0.1018513331917852 -0.01736373051348149 
-0.1400399807754714 0.166125162049963 -0.02915343519729428 
-0.19865317647682 0.2218366253847685 -0.0261241269602225 
0.05842490286113577 -0.0571490431243362 -0.02914671147603846 
-0.05403527037257999 0.05623956769118414 -0.002819324518597958 
-0.05403527037257999 0.05623956769118414 -0.002819324518597958 
-0.05403527037257999 0.05623956769118414 -0.002819324518597958 
-0.1102346887223424 0.1331879336040107 -0.05155987695621817 
-0.1813906439575463 0.2197696128327739 -0.05155987695621816 
-0.1813906439575463 0.2197696128327739 -0.05155987695621816 
-0.1813906439575463 0.2197696128327739 -0.05155987695621816 
-0.1813906439575463 0.2197696128327739 -0.05155987695621816 
0.07086078882923016 -0.04418791253012622 -0.01661560774633842 
0.06228329843200772 -0.04418791253012622 -0.0071869561259186 
0.06228329843200772 -0.04418791253012622 -0.0071869561259186 
0.06228329843200772 -0.04418791253012622 -0.0071869561259186 
0.08518954364967343 -0.06044534597455991 -0.0071869561259186 
0.06228329843200772 -0.04418791253012622 -0.0071869561259186 
0.0351968025812547 -0.03136434787851224 -0.004338362602176114 
0.07436364013292943 -0.06221921783993356 -0.005326051327067775 
-0.03291363686535406 0.1087677115580848 -0.0791240460454497 
0.0351968025812547 -0.03136434787851224 -0.004338362602176114 
0.0351968025812547 -0.03136434787851224 -0.004338362602176114 
0.0351968025812547 -0.03136434787851224 -0.004338362602176114 
0.03582686440687682 0.01559313791187426 -0.06426240042116101 
0 0 0 
0 0 0 
0 0 0 
0.03253316247176839 -0.01233810859632896 -0.02167670758947058 
0 0 0 
0 0 0 
0 0 0 
0.003755766353343184 0 0 
0.110290734958219 -0.09566518781584241 -0.03240706595810079 
0.003755766353343184 0 0 
0.003755766353343184 0 0 
0.003755766353343184 0 0 
0 0 0 
0 0 0 
0 0 0 
0 0 0 
0 0 0 
0.06864354815270787 -0.0687976199493292 0 
0 0 0 
0 0 0 
0 0 0 
0 0 0 
0 0 0 
0 0 0 
0.0121434838843604 0 -0.01489825115111481 
0 0 0 
0.0121434838843604 0 -0.01489825115111481 
0 0 0 
0 0 0 
-8.673617379884035e-19 8.673617379884035e-19 0 
0 0 0 
0.03523474130939361 -0.008856652687306532 -0.02616895221848027 
-0.08305183002334524 0.09360170028331802 -0.01733007148554262 
0 0 0 
0.006075839505330071 0 -0.001828807028523817 
0 0 1.734723475976807e-18 
0 0 0 
0 0 0 
0 0 1.734723475976807e-18 
0.008577490397222427 0 -0.03882991232543083 
0 0 -0.02761074102149551 
0 0 -0.02761074102149551 
-0.07882398149192853 0.08702481206503589 0 
0 0 0 
0 0 0 
0 0 0 
0 0 0 
0 0 4.404571325722362e-19 
0 0 0 
0 0 0 
0.003156186652118777 -0.004800417697549945 0 
0.06766133385583389 -0.05625541491800173 -0.02279148224367456 
0.003156186652118777 -0.004800417697549945 0 
0.003156186652118777 -0.004800417697549945 0 
0.06766133385583389 -0.05625541491800173 -0.02279148224367456 
0.003156186652118777 -0.004800417697549945 0 
-0.06258495033499585 0.1314564217671892 -0.03688699193789181 
-0.4196577426101089 0.5049492862820771 -0.06982446765280312 
0.006020354891065432 0.02900041358666325 -0.03502824235764961 
-0.1000626059096388 0.131500443053754 -0.01446548740541099 
-0.4196577426101089 0.5049492862820771 -0.06982446765280312 
0.006020354891065432 0.02900041358666325 -0.03502824235764961 
0.1016420854738681 -0.07519444446878092 -0.01425013038328112 
0.1286415345266831 -0.08366184234399876 -0.01425013038328111 
0.1016420854738681 -0.07519444446878092 -0.01425013038328112 
0.1016420854738681 -0.07519444446878092 -0.01425013038328112 
0.1016420854738681 -0.07519444446878092 -0.01425013038328112 
-0.04798788540800605 0.1040370282340623 -0.05261387423036056 
-0.1884513255452042 0.02837161634302647 0.1498717660160437 
-0.04798788540800605 0.08801502618018424 -0.05261387423036056 
-0.04798788540800605 0.1040370282340623 -0.05261387423036056 
-0.04798788540800605 0.1040370282340623 -0.05261387423036056 
-0.04798788540800605 0.1040370282340623 -0.05261387423036056 
0 0 0 
0.003311490351339406 0 -0.03426007470177064 
0 0 0 
-0.07675916346720291 0.06835849680231955 -0.008843479468177965 
0 -0.01779297349491675 0 
0.05285888697425874 -0.04764869357745869 -0.01674965680100463 
0.01969421101481955 -0.0177560359413048 0 
0.003778608651082029 -0.0177560359413048 0 
0.003778608651082029 -0.0177560359413048 0 
0.003778608651082029 -0.0177560359413048 0 
0.01996192862757363 -0.01930834089036524 0 
0.01996192862757363 -0.01930834089036524 0 
0.01996192862757363 -0.01930834089036524 0 
0.01996192862757363 -0.01930834089036524 0 
0.01996192862757363 -0.01930834089036524 0 
0.01996192862757363 -0.01930834089036524 0 
0.08545236530820773 -0.005474978881586164 -0.03955210361674587 
0 0 0 
0.06609147752189569 -0.03615895799073998 -0.009035075023506816 
0 0 0 
0.04838935882671799 -0.03464770243356988 -0.01532069976419455 
0.04838935882671799 -0.03464770243356988 -0.01532069976419455 
0.04838935882671799 -0.03464770243356988 -0.01532069976419455 
0.04838935882671799 -0.03464770243356988 -0.01532069976419455 
0.04838935882671799 -0.03464770243356988 -0.01532069976419455 
0.006075839505330071 0 -0.001828807028523819 
0 0 0 
0 0 0 
0 0 0 
0 0 0 
0.1232165527351297 -0.08207516814293005 -0.04072872352824956 
0 0 -0.004027898627737089 
0 0 -0.004027898627737089 
0 0 0 
0 0 0 
0 0 0 
0.01394762837387493 -0.01999714871384101 8.470329472543003e-19 
0.00491429842784209 -0.0237024149178097 0 
0 0 0 
0 -0.01217198062865721 0 
0 0 0 
0 0 0 
0 0 0 
0 0 0 
0.008922892560775985 -0.02325769910232675 0 
0 0 0 
0 0 0 
0 0 0 
0 0 0 
0 0 0 
0 0 0 
0.1398822124962144 -0.1159431838735024 -0.02301519773728768 
0.07433078746360822 -0.0560741982480925 0 
0.1398822124962144 -0.1159431838735024 -0.02301519773728768 
0.07433078746360819 -0.0560741982480925 0 
0.07433078746360822 -0.0560741982480925 0 
-0.06589296673443848 0.07052601410854006 -0.008843479468177965 
-0.07675916346720291 0.08615147029723629 -0.008843479468177965 
-0.07675916346720291 0.08615147029723629 -0.008843479468177965 
-0.07675916346720291 0.08615147029723629 -0.008843479468177965 
0 0 0 
0.00952427278834312 -0.02132391512920609 0 
0.03253316247176841 -0.01233810859632896 -0.02167670758947058 
0 0 0 
0 0 0 
0 0 0 
0.00112731415117216 -0.008186473548688939 0 
0.00112731415117216 -0.008186473548688939 0 
0.00112731415117216 -0.008186473548688939 0 
0.00112731415117216 -0.008186473548688939 0 
0.01369979618447758 -0.01616464177370595 0 
-0.1093278290505966 -0.07332066081802126 0.1766633090346238 
0.0219039442670052 0 -0.02568409112676606 
0.03987728057296248 -0.02615312168296712 -0.02568409112676606 
0.02190394426700521 -0.001272475354628881 -0.02568409112676606 
-0.08731463782934991 0.107765254971318 -0.02079463845692493 
-0.08731463782934991 0.107765254971318 -0.02079463845692493 
-0.002215274820395699 0.02951726733758332 -0.03506232506565458 
-0.08731463782934991 0.107765254971318 -0.02079463845692493 
-0.08731463782934991 0.107765254971318 -0.02079463845692493 
-0.08731463782934991 0.107765254971318 -0.02079463845692493 
0 -0.005378664256577573 0 
0 0 0 
0 0 0 
0 0 0 
0 0 0 
0 0 0 
0.0006073881382726097 -0.002693714359609129 -0.001790519683515493 
0 0 0 
0 0 -0.004913775903296964 
0 0 0 
0.07067897715640364 -0.05596549177345462 -0.02952095626916364 
0.07067897715640364 -0.05596549177345462 -0.02952095626916364 
0.07067897715640364 -0.05596549177345462 -0.02952095626916364 
0.07067897715640364 -0.05596549177345462 -0.02952095626916364 
0.004814547520069271 0 -0.002224875318602974 
-3.469446951953614e-18 0 -0.002224875318602974 
0 0 -0.002224875318602974 
0 0 -0.002224875318602974 
-0.1281445783829182 0.1354768301631334 -0.02469276773783679 
0 0 0 
0 0 0 
0 0 0 
0 0 0 
0 0 0 
0 0 0 
0.005571687871559153 -0.007315886772533034 0 
0.0006073881382726097 -0.002693714359609129 0 
0 0 0 
0.1614267418041621 -0.0817779396285571 -0.08819758347155476 
0 0 -0.01737349987879709 
0.003311490351339406 0 -0.05163357458056772 
-1.301042606982605e-18 0 0 
-1.301042606982605e-18 0 0 
0.0121434838843604 0 -0.01489825115111481 
0.0121434838843604 0 -0.01489825115111481 
0.08664430602318982 -0.06261841800887352 -0.01155222445623042 
0 0 0 
0 0 0 
0.1371351680668591 -0.122523835736245 -0.04979399877550389 
0 0 -0.005107089076638717 
0 0 0 
0 0 0 
0 0 0 
0 0 -0.003681752193262451 
0 0 -0.003681752193262451 
0 0 -0.003681752193262451 
0 0 -0.003681752193262451 
0 0 -0.003681752193262451 
0 0 -0.003681752193262451 
0.05647366745065947 -0.06467978938424167 0 
0 0 0 
0.003787142359050628 -0.02007581667806272 0 
0.003787142359050628 -0.02007581667806272 0 
0.003787142359050628 -0.02007581667806272 0 
0.003787142359050628 -0.02007581667806272 0 
0 0 0 
0 0 0 
0 0 0 
0 0 0 
0.06007927380711479 -0.06816513999987447 0 
0.0589451656375073 0.03006830800260881 -0.1304295652488118 
0.2162548041557344 -0.1777603348424209 -0.08919602879478609 
0.06007927380711479 -0.06816513999987447 0 
0.08508927906048834 -0.05924937168503207 -0.08919602879478609 
0.2162548041557344 -0.1777603348424209 -0.08919602879478609 
0.06007927380711478 -0.0698242373391533 0 
0 0 0 
0 0 0 
0.004654663126517251 -0.006072790468026329 0 
0.004654663126517251 -0.006072790468026329 0 
0.004654663126517251 -0.006072790468026329 0 
-0.05702475515355475 -0.005532458234676331 0.06261305157377466 
0 0 0 
0 0 0 
0.05621098625611059 -0.02691199933177753 -0.02123404595743004 
0.04343671754782254 -0.01225093080377676 -0.01695410941584734 
0.04343671754782254 -0.01225093080377676 -0.01695410941584734 
0.05621098625611059 -0.02691199933177753 -0.01695410941584734 
0.04343671754782254 -0.01225093080377676 -0.01695410941584734 
0 0 0 
0 0 0 
0.008577490397222429 0 -0.01121917130393531 
0 0 -0.001790519683515493 
0.02818824477639264 -0.01839645914157735 0 
0.005840670534072614 0 0 
0.005840670534072614 0 0 
0.005840670534072614 0 0 
0 0 -0.003796330603768716 
0 0 0 
0.03916683755167469 -0.03212734531605022 -0.0009876887248916604 
0.03916683755167469 -0.03085486996142133 -0.0009876887248916604 
0.03916683755167469 -0.03085486996142133 -0.0009876887248916604 
0.03916683755167469 -0.03085486996142133 -0.0009876887248916604 
0.03916683755167469 -0.03085486996142133 -0.0009876887248916604 
0 0 0 
0 0 0 
0 0 0 
0 0 0 
0 0 0 
0 0 0 
0 0 0 
0 0 0 
0 0 0 
0 0 0 
0 0 0 
0 0 0 
0 0 0 
0 0 0 
0.01152957185459327 0 0 
0.01152957185459327 0 0 
0 0 0 
0 0 0 
0.1406836035225879 -0.09042541095704039 -0.06807037243810024 
0.01093328441797833 -0.008527480046277035 0 
0 0 0 
0 0 0 
0.05964416720601461 -0.01933891949118491 -0.03627391890064609 
0.0596441672060146 -0.02099801683046372 -0.03627391890064609 
0.05964416720601461 -0.01933891949118491 -0.03627391890064609 
0.05964416720601461 -0.01933891949118491 -0.03627391890064609 
0.1445107554288686 -0.04685551787731458 -0.09724152189432701 
0.3081257190795702 -0.1646380163279344 -0.1822742137845736 
-0.4367531734093955 0.02545866449600901 0.4316946150497742 
0.09073197186792686 0 -0.097241521894327 
0.09073197186792686 0 -0.097241521894327 
0.1674421155569824 -0.07421260537089409 -0.1142038413464734 
-0.1163598854672383 -0.1039307579574981 0.2141715020915819 
0.09073197186792686 0 -0.097241521894327 
0.0001079700956947383 0 -0.000162721229512975 
0.0001079700956947383 0 -0.000162721229512975 
0.06516975365647862 -0.03640120614038991 -0.02300296126706805 
0.06516975365647862 -0.03640120614038991 -0.02300296126706805 
0.06516975365647862 -0.03640120614038991 -0.02300296126706805 
0.06516975365647862 -0.03640120614038991 -0.02300296126706805 
0.03827388381702374 -0.02719297997864373 -0.01426768660872967 
0.03827388381702374 -0.02719297997864373 -0.01426768660872967 
0.03827388381702374 -0.02719297997864373 -0.01426768660872967 
0.03827388381702374 -0.02719297997864373 -0.01426768660872967 
0.03827388381702374 -0.02719297997864373 -0.01426768660872967 
0.03827388381702374 -0.02719297997864373 -0.01426768660872967 
0.03827388381702374 -0.02719297997864373 -0.01426768660872967 
0.04288579432520957 -0.01547032014675655 -0.005893099749496658 
0.04288579432520957 -0.01547032014675655 -0.005893099749496658 
0.04288579432520957 -0.01547032014675655 -0.005893099749496658 
0.04288579432520957 -0.01547032014675655 -0.005893099749496658 
0.04288579432520957 -0.01547032014675655 -0.005893099749496658 
0 -0.001272475354628881 0 
0 -0.001272475354628881 0 
0 -0.001272475354628881 0 
0 0 0 
0 0 0 
0 0 0 
0 0 0 
0 0 0 
0.001303675963342579 0 -0.002349420143668069 
0.001303675963342579 0 -0.002349420143668069 
0.001303675963342579 0 -0.002349420143668069 
0.001303675963342579 0 -0.002349420143668069 
0 0 0 
0 0 0 
0 0 0 
0 0 0 
-0.1665309123850913 -0.07679134902128268 0.2330994721782943 
-0.1404634401371981 -0.07566541189103579 0.2024856402464042 
-0.1404634401371981 -0.07566541189103579 0.2024856402464042 
-0.1404634401371981 -0.07566541189103579 0.2024856402464042 
-0.1404634401371981 -0.07566541189103579 0.2024856402464042 
-0.1404634401371981 -0.07566541189103579 0.2024856402464042 
-0.1404634401371981 -0.07566541189103579 0.2024856402464042 
0 0 0 
0.1347235322502042 -0.06714810399306108 -0.08919602879478609 
0.03747765557464294 -4.402128656476809e-05 -0.02242150453248082 
0.03747765557464294 -4.402128656476636e-05 -0.02242150453248082 
-0.1312317733176018 -0.07332066081802126 0.2023474001613899 
-0.1312317733176018 -0.07332066081802126 0.2023474001613899 
-0.1312317733176018 -0.07332066081802126 0.2023474001613899 
-0.1312317733176018 -0.07332066081802126 0.2023474001613899 
-0.1312317733176018 -0.07332066081802126 0.2023474001613899 
0 0 0 
-0.1302888209279834 0.02975281701905635 0.08327689807779362 
-0.3472050495457731 0.399649735955366 -0.07805699599888712 
-0.05085618150209254 0.08338278013953267 -0.05172288532019079 
-0.129680162994021 0.1704075922045686 -0.0517228853201908 
-0.3472050495457731 0.399649735955366 -0.07805699599888712 
0.1093116183537622 -0.09433042683622651 -0.02205538348803471 
0.1093116183537622 -0.09494739303974163 -0.02205538348803471 
0.1093116183537622 -0.09433042683622651 -0.02205538348803471 
0.1093116183537622 -0.09433042683622651 -0.02205538348803471 
0.1310393037827717 -0.1142053762653538 -0.02205538348803471 
0.1093116183537622 -0.09433042683622651 -0.02205538348803471 
0.1093116183537622 -0.09433042683622651 -0.02205538348803471 
0.0294402991788865 0 -0.0348458769519079 
-0.1057211608441195 -0.0707412953036762 0.178166339816962 
0.0294402991788865 0 -0.0348458769519079 
0.0294402991788865 0 -0.0348458769519079 
0.02662646879426579 -0.02419163164940775 -0.003595641299042962 
0.003394791539526209 0 -0.003595641299042962 
0.003394791539526209 0 -0.003595641299042962 
0.04543994012433243 -0.0456912388638434 -0.003595641299042962 
-0.07897768889215687 -0.04427993525533094 0.1227238602333385 
-0.10504516114005 -0.04540587238557782 0.1533376921652285 
-0.1950769863215535 -0.09790989837580724 0.3014482654451003 
-0.07897768889215687 -0.04427993525533094 0.1227238602333385 
-0.10504516114005 -0.04540587238557782 0.1533376921652285 
-0.07897768889215687 -0.04427993525533094 0.1227238602333385 
-0.0260674722478931 -0.001125937130246888 0.03061383193189 
-0.04043384694414095 0.03596764760585851 0.004493716711641484 
-0.08600471040289137 0.1098855943587789 -0.02633411067869633 
-0.08600471040289137 0.1098855943587789 -0.02633411067869633 
0 0 -0.004913775903296964 
0.0541050755873934 -0.01995152265101036 -0.01898104103772053 
0 0 0 
0.0541050755873934 -0.01995152265101036 -0.01898104103772053 
0.0541050755873934 -0.01995152265101036 -0.01898104103772053 
0.0541050755873934 -0.01995152265101036 -0.01898104103772053 
0.06442411088143395 -0.05168251207672102 -0.02301519773728768 
0.02701639227324554 -0.02257441529724382 -0.01076677226643404 
0 0 -0.001216448192253952 
0.05818831973793633 -0.05563317253473075 -0.008938164981634212 
0.05818831973793633 -0.05563317253473075 -0.008938164981634212 
0.05818831973793633 -0.05563317253473075 -0.008938164981634212 
0.05818831973793633 -0.05563317253473075 -0.008938164981634212 
0.05818831973793633 -0.05563317253473075 -0.008938164981634212 
0.05818831973793633 -0.05563317253473075 -0.008938164981634212 
0.05818831973793633 -0.05563317253473076 -0.008938164981634212 
0.06241183774925349 -0.04741684406940713 -0.008768057728035232 
0.01277426870828806 -0.01466106852800077 0 
0.01277426870828806 -0.01466106852800077 0 
0.01277426870828806 -0.01466106852800077 0 
-0.007962138566826996 0.03998460214587296 -0.04945196975621832 
0 0 0 
0.04362468929946034 -0.02800197449417118 -0.01087136690353301 
0 0 0 
0 0 0 
-0.1921644754439345 0.210817683424326 -0.02262969300276466 
-0.1167604132782805 0.1082945862343208 -0.009853440323960594 
-0.1167604132782805 0.1082945862343208 -0.009853440323960594 
-0.1167604132782805 0.1082945862343208 -0.009853440323960594 
-0.1021688729709549 0.0963497122179313 -0.004272003469405789 
-0.1021688729709549 0.0963497122179313 -0.004272003469405789 
-0.1021688729709549 0.0963497122179313 -0.004272003469405789 
-0.1021688729709549 0.0963497122179313 -0.004272003469405789 
-0.1021688729709549 0.0963497122179313 -0.004272003469405789 
0 -0.01217198062865721 0 
0 -0.01217198062865721 0 
0 -0.01217198062865721 0 
0 0 0 
0 0 0 
0 0 0 
0 0 0 
0.01591560236373753 0 0 
0.01591560236373753 0 0 
0.01591560236373753 0 0 
0 0 0 
0.05016702329526433 -0.04262663387086262 0 
0.05016702329526433 -0.04262663387086262 0 
-0.08467502627558542 -0.04536996308382786 0.1438649950299787 
-0.08467502627558542 -0.04536996308382786 0.1438649950299787 
-0.08467502627558542 -0.04536996308382786 0.1438649950299787 
-0.08467502627558542 -0.04536996308382786 0.1438649950299787 
-0.08467502627558542 -0.04536996308382786 0.1438649950299787 
-0.08467502627558542 -0.04536996308382786 0.1438649950299787 
0 0 0 
0 0 0 
0 0 0 
0.07746362299029319 0 -0.06807037243810024 
0.1406836035225879 -0.09042541095704036 -0.06807037243810024 
0.1406836035225879 -0.09042541095704036 -0.06807037243810024 
-0.03666665800350567 -8.673617379884035e-19 0.04372462181377748 
0.07746362299029319 0 -0.06807037243810024 
0.008577490397222429 0 -0.009428651620419819 
0.008577490397222429 0 -0.009428651620419819 
0 0 0 
0 0 0 
0.1863142913182858 -0.1668887266835269 -0.0423904222102864 
0 0 0 
0 0 0 
0 0 0 
0 0 0 
0 0 0 
0 0 0 
0 0 0 
0 0 0 
0.02323167725473958 -0.02419163164940775 0 
0.02323167725473958 -0.02419163164940775 0 
0.02323167725473958 -0.02419163164940775 0 
0.02323167725473958 -0.02419163164940775 0 
0.02323167725473958 -0.02419163164940775 0 
-0.361889453402215 0.406828269922801 -0.0503011262837174 
-0.1346549307519864 0.1264763132186684 0 
-0.1346549307519864 0.1264763132186684 0 
-0.361889453402215 0.406828269922801 -0.0503011262837174 
-0.1346549307519864 0.1264763132186684 0 
-0.3270301682490838 -0.1468698436147376 0.4802703335337645 
-0.00765929613082194 -0.04022918191778641 0.05147159816022883 
-0.3270301682490838 -0.1468698436147376 0.4802703335337645 
-0.00765929613082194 -0.04022918191778641 0.05147159816022883 
0.09288750131150605 -0.07146706494537854 -0.04091268459905144 
0 0 0 
0 0 0 
0 0 0 
0 0 0 
0.1192609199486077 -0.0832804915269369 -0.02656806775292239 
0 0 0 
0 0 0 
0.01797333630595727 -0.02615312168296712 0 
0.01797333630595727 -0.02615312168296712 0 
0 0 0 
0 0 0 
0 0 0 
0.01086619673276442 -0.01562545618869622 0 
0 0 0 
0 0 0 
0.009524272788343117 -0.02132391512920608 0 
0.009524272788343117 -0.02132391512920608 0 
0.009524272788343117 -0.02132391512920608 0 
0 0 0 
0 0 0 
0.02314685245338933 -0.02809898885778269 0 
0 0 0 
0.02314685245338933 -0.02809898885778269 0 
0 0 0 
0 0 0 
0 0 0 
0 0 -0.01325278784309355 
0 0 0 
0 0 0 
0 0 0 
0 0 0 
0 0 0 
0 0 0 
0 0 0 
0 0 0 
0 0 0 
0 0 0 
0 0 0 
0.0006073881382726097 -0.002693714359609129 0 
0.07257261180475748 -0.07520638814791283 0 
0.0006073881382726097 -0.002693714359609129 0 
0 0 0 
0 0 0 
0 0 0 
0 0 0 
-0.06123038377993685 0.07554052279591789 -0.03283873299842824 
0.01056946428057401 -0.02186365102748009 0 
0.01056946428057401 -0.02186365102748009 0 
0.07720065634436521 -0.07945639418158199 -0.01063100538779323 
0.01056946428057401 -0.02186365102748009 0 
0 0 0 
0 0 0 
0 -0.005378664256577573 0 
0.09715196885150039 -0.1033801821853323 0 
0 -0.005378664256577573 0 
0.09715196885150039 -0.1033801821853323 0 
0 -0.005378664256577573 0 
0 -0.0132077053197948 0 
0 -0.0132077053197948 0 
0 -0.0132077053197948 0 
0 -0.04099498231009397 0 
0 -0.04099498231009397 0 
0 -0.01685597524378533 0 
0 0 0 
-0.02694454719599277 -0.02923447752757694 0.05077746912627162 
0 0 -0.003796330603768715 
-0.2103441576407892 0.2063813614570544 0 
-0.2103441576407892 0.2063813614570544 0 
0.02815185477792791 -0.006378410677091559 0 
0.02815185477792791 -0.006378410677091559 0 
0.02815185477792791 -0.006378410677091559 0 
0.02815185477792791 -0.006378410677091559 0 
0.02815185477792791 -0.006378410677091559 0 
0 0 0 
0 0 0 
0 0 0 
0 0 0 
0 0 0 
0 0 0 
0.04682547919193046 -0.03784730233529617 0 
0.04682547919193046 -0.03784730233529617 0 
0.04682547919193046 -0.03784730233529617 0 
0.04682547919193046 -0.03784730233529617 0 
0.02699944905281502 -0.008467397875217844 0 
0.02699944905281502 -0.008467397875217844 0 
0.02699944905281502 -0.008467397875217844 0 
0 0 -0.005107089076638717 
0 0 0 
0 0 0 
0 0 0 
0 0 0 
0 0 0 
0 0 0 
0 0 0 
0 0 0 
0 0 0 
0 0 0 
-0.06109005550727496 0.10570894028427 -0.03044608081150729 
-0.08305183002334524 0.093601700283318 -0.01733007148554262 
-0.08305183002334524 0.093601700283318 -0.01733007148554262 
-0.08305183002334524 0.093601700283318 -0.01733007148554262 
0 0 0 
0 0 0 
0.01933704977997419 -0.01257620399918143 0 
0.01933704977997419 -0.01257620399918143 0 
0.01933704977997419 -0.01257620399918143 0 
0.01933704977997419 -0.01257620399918143 0 
0 0 0 
0 0 0 
0 0 0 
-0.01668660223153616 -0.02923447752757694 0.04560108154364054 
0.01025794496445661 0 -0.008972718186399786 
0.01025794496445661 0 -0.008972718186399786 
-0.06514611720119745 0.1025230971900053 -0.02174897086520385 
0.01025794496445661 0 -0.008972718186399786 
0 0 0 
0.03758702661938924 -0.002832256190320045 -0.03476720585839996 
0 0 -0.001007183745130417 
-0.1446179061042399 0.1655970576935844 -0.02330480244162454 
-0.1267021411938571 0.1370335465324743 -0.02330480244162454 
-0.1446179061042399 0.1655970576935844 -0.02330480244162454 
-0.1446179061042399 0.1655970576935844 -0.02330480244162454 
-0.1446179061042399 0.1655970576935844 -0.02330480244162454 
-0.1446179061042399 0.1655970576935844 -0.02330480244162454 
0 0 0 
0 0 0 
0.01889013953870855 -0.0182974176981723 0 
0.01889013953870855 -0.0182974176981723 0 
0.01889013953870855 -0.0182974176981723 0 
0 0 0 
0 0 0 
0 0 0 
0.0119483535990105 -0.005325896448384651 0 
0.007034055171168408 -0.005325896448384648 0 
0.0119483535990105 -0.005325896448384651 0 
0.007034055171168408 -0.005325896448384648 0 
0 0 0 
0 0 0 
0 0 0 
0 0 0 
0 0 0 
0 0 0 
0 0 0 
0 0 0 
0 0 0 
0 0 0 
0 0 0 
0 0 0 
0 0 0 
2.168404344971009e-19 0 -0.005913648089214713 
0 0 -0.002684641462296646 
0 0 -0.002684641462296646 
0 0 -0.002684641462296646 
0 0 -0.002684641462296646 
0.01257248203330542 -0.007978168225017013 0 
0.01257248203330542 -0.007978168225017013 0 
0.01257248203330542 -0.007978168225017013 0 
0.01257248203330542 -0.007978168225017013 0 
0.01257248203330542 -0.007978168225017013 0 
-0.135758135141375 -0.004648186560310725 0.1415697981084031 
-0.07943263942589093 -0.05362996312047631 0.1349997833979844 
-0.07943263942589093 -0.05362996312047631 0.1349997833979844 
-0.135161460023006 -0.0707412953036762 0.2130122167688699 
-0.07943263942589093 -0.05362996312047631 0.1349997833979844 
0 0 0 
0.03523474130939362 -0.008856652687306534 -0.02616895221848027 
-0.03030772686840677 -0.06361904643880449 0.09563550422847708 
0.1045319447620288 -0.05904712598315899 -0.04795869155256036 
0.03523474130939362 -0.008856652687306534 -0.02616895221848027 
0.03523474130939362 -0.008856652687306534 -0.02616895221848027 
0.03523474130939362 -0.008856652687306534 -0.02616895221848027 
0 0 0 
0.04465056524017292 -0.02820112979920859 -0.002330521840927927 
0.04465056524017292 -0.02820112979920859 -0.002330521840927927 
0.04465056524017292 -0.02820112979920859 -0.002330521840927927 
-0.02694454719599277 -0.02923447752757694 0.05457379973004033 
-0.02694454719599277 -0.02923447752757694 0.05457379973004033 
-0.02694454719599277 -0.02923447752757694 0.05457379973004033 
0.02234757424232002 -0.01839645914157735 0 
0.02234757424232002 -0.01839645914157735 0 
0.02234757424232002 -0.01839645914157735 0 
0.02234757424232002 -0.01839645914157735 0 
0 0 0 
0 0 0 
0 0 0 
0.007034055171168408 -0.005325896448384648 0 
0 0 0 
0 0 0 
0 0 0 
0 -0.01602200205387802 0 
0 -0.01602200205387802 0 
0 -0.01602200205387802 0 
0.03107671466298074 -0.02314749792405052 -0.005548743156396791 
0.03107671466298074 -0.02314749792405052 -0.005548743156396791 
0.03107671466298074 -0.02314749792405052 -0.005548743156396791 
0.03107671466298074 -0.02314749792405052 -0.005548743156396791 
0.1005464067316749 -0.04880477539003729 -0.04425601583983529 
0.03107671466298074 -0.02314749792405052 -0.005548743156396791 
0.02832208973553218 0 -0.0242784098610322 
0.01416104486776609 0 -0.0121392049305161 
0.01374087147157908 -0.04276860964918665 0.03930516068744703 
0.01416104486776609 0 -0.0121392049305161 
0.01416104486776609 0 -0.0121392049305161 
0.06946969206869413 -0.02565727746598677 -0.03870727268343851 
0.01416104486776609 0 -0.0121392049305161 
0.1060829608007042 -0.1025000294670908 -0.02056275495223862 
0.1060829608007042 -0.1025000294670908 -0.02056275495223862 
0.1060829608007042 -0.1025000294670908 -0.02056275495223862 
0.05530864720092806 -0.02565727746598677 -0.02656806775292239 
0.05530864720092806 -0.02565727746598677 -0.02656806775292239 
0 0 0 
0 0 0 
0 0 0 
0 0 0 
0.007379739033504112 -0.01192191766198229 0 
0.007379739033504112 -0.01192191766198229 0 
0 0 0 
0 0 0 
0 0 0 
0.00595712465744757 -0.01014328040094159 0 
0.00595712465744757 -0.01014328040094159 0 
0.00595712465744757 -0.01014328040094159 0 
0 0 0 
0.1235281903263027 -0.0944476792631051 -0.005753313073670496 
0 0 0 
0.1235281903263027 -0.0944476792631051 -0.005753313073670496 
0.05256501093224003 0 -0.0420412365972706 
0 0 0 
0 0 0 
0 0 0 
0.01791576491038281 -0.02856351116111 0 
0.01791576491038281 -0.02856351116111 0 
0.01791576491038281 -0.02856351116111 0 
0.01791576491038281 -0.02856351116111 0 
0.006075839505330071 0 -0.001828807028523819 
0.006075839505330071 0 -0.001828807028523819 
0.03458439818816466 -0.05293329431598775 0 
0.03458439818816466 -0.05293329431598775 0 
0.03458439818816466 -0.05293329431598775 0 
0.03745619459692465 -0.03790988527109506 -0.009391868220813105 
0.03745619459692465 -0.03790988527109506 -0.009391868220813105 
0.03745619459692465 -0.03790988527109506 -0.009391868220813105 
0 0 0 
-0.07725934201946215 0.09017507544172541 -0.02766223042213823 
-0.07725934201946215 0.09017507544172541 -0.02766223042213823 
-0.07725934201946215 0.09017507544172541 -0.02766223042213823 
-0.07725934201946215 0.09017507544172541 -0.02766223042213823 
-0.07725934201946215 0.09017507544172541 -0.02766223042213823 
0.06934308434073487 -0.0237024149178097 -0.08338779745170065 
0 -0.0237024149178097 0 
0.06587110903826049 -0.04889264964813472 -0.03136236052487137 
0.01425708758616961 -0.009055878205858379 -0.02179874954503373 
0 0 0 
0 0 -0.004279936541582697 
0 0 0 
0 0 0 
0 0 0 
0.01975497868910646 -0.01511535611634071 0 
0.01975497868910646 -0.01511535611634071 0 
0.01975497868910646 -0.01511535611634071 0 
0.01975497868910646 -0.01511535611634071 0 
0.004814547520069275 0 0 
0.05204841274505353 -0.04080540783187443 -0.009052260823567039 
0.05204841274505353 -0.04080540783187443 -0.009052260823567039 
0.05204841274505353 -0.04080540783187443 -0.009052260823567039 
0.05204841274505353 -0.04080540783187443 -0.009052260823567039 
0.05204841274505353 -0.04080540783187443 -0.009052260823567039 
0.005787138972665903 0 -0.006222857973019344 
0.005787138972665903 0 -0.006222857973019344 
0.005787138972665903 0 -0.006222857973019344 
0.005787138972665903 0 -0.006222857973019344 
0.005787138972665903 0 -0.006222857973019344 
0.005787138972665903 0 -0.006222857973019344 
0 0 0 
0 0 0 
0 0 0 
0 0 0 
0.01093328441797833 -0.008527480046277035 0 
0.01093328441797833 -0.008527480046277035 0 
0.06929720345263515 -0.05019047329585245 -0.0217897393340801 
0.06929720345263515 -0.05019047329585245 -0.0217897393340801 
0.004914298427842091 0 0 
0.004914298427842091 0 0 
0.004914298427842091 0 0 
0.06566113003511495 -0.02109990882443695 -0.03777142283957467 
0.06566113003511495 -0.02109990882443695 -0.03777142283957467 
0.06566113003511495 -0.02109990882443695 -0.03777142283957467 
0.06566113003511495 -0.02109990882443695 -0.03777142283957467 
0.06566113003511495 -0.02109990882443695 -0.03777142283957467 
0.06566113003511495 -0.02109990882443695 -0.03777142283957467 
0.06566113003511495 -0.02109990882443695 -0.03777142283957467 
0.04450139464221465 -0.02961706403717454 -0.01850139903297683 
0.04450139464221465 -0.02961706403717454 -0.01850139903297683 
0.04450139464221465 -0.02961706403717454 -0.01850139903297683 
0.04450139464221465 -0.02961706403717454 -0.01850139903297683 
0.04450139464221465 -0.02961706403717454 -0.01850139903297683 
0.04450139464221465 -0.02961706403717454 -0.01850139903297683 
0.04450139464221465 -0.02961706403717454 -0.01850139903297683 
0.04450139464221465 -0.02961706403717454 -0.01850139903297683 
0.04450139464221465 -0.02961706403717454 -0.01850139903297683 
0.04450139464221465 -0.02961706403717454 -0.01850139903297683 
0.03105220726615492 -0.02002380626915418 -0.01087136690353301 
0.03105220726615492 -0.02002380626915418 -0.01087136690353301 
0.03105220726615492 -0.02002380626915418 -0.01087136690353301 
0.03105220726615492 -0.02002380626915418 -0.01087136690353301 
0 0 0 
0.06395227274767964 -0.05762321406095015 0 
0.06395227274767964 -0.05762321406095015 0 
0.06395227274767964 -0.05762321406095015 0 
0 0 0 
0 0 0 
0 0 0 
0 0 0 
0 0 0 
0 0 0 
0 0 0 
0 0 0 
0 0 0 
0 0 0 
0.1908568263104688 -0.1017017605483186 -0.09494002190793109 
0.06934308434073487 0 -0.08338779745170065 
0.1908568263104688 -0.1017017605483186 -0.09494002190793109 
0.06934308434073487 0 -0.08338779745170065 
0 0 0 
0 0 0 
0 0 0 
0.02290624521766572 -0.01625743344443369 0 
0.02290624521766572 -0.01625743344443369 0 
0.02290624521766572 -0.01625743344443369 0 
0.02290624521766572 -0.01625743344443369 0 
0.02290624521766572 -0.01625743344443369 0 
0.02290624521766572 -0.01625743344443369 0 
0.04204514858480621 -0.0456912388638434 -0.003229006626918065 
0.04204514858480621 -0.0456912388638434 0 
0.04204514858480621 -0.0456912388638434 0 
0.04204514858480621 -0.0456912388638434 0 
0.01449458043233514 -0.03057358587485978 0 
0.005571687871559153 -0.007315886772533034 0 
0.005571687871559153 -0.007315886772533034 0 
0.005571687871559153 -0.007315886772533034 0 
0 0 0 
0 0 0 
0 0 0 
0 0 0 
-0.1275122208985293 0.1404469383248989 -0.02133300766383163 
0 0 0 
0 0 0 
0 0 0 
0 0 0 
0 0 0 
0 0 -0.003229006626918065 
0 0 -0.003229006626918065 
0 0 -0.003229006626918065 
0 0 -0.003229006626918065 
0.001909835133127568 0 -0.0008837472013111716 
0.001909835133127568 0 -0.0008837472013111716 
0.001909835133127568 0 -0.0008837472013111716 
0.001909835133127568 0 -0.0008837472013111716 
0 0 0 
0 0 0 
0 0 0 
0 -0.02200841518961998 0 
-0.138431040124302 0.1329885017878799 -0.02220772761063501 
0 -0.02200841518961998 0 
0 -0.02200841518961998 0 
0 0 0 
0 0 0 
0 0 0 
0 0 0 
0 0 0 
0 0 0 
0 0 0 
0.0261004987422051 0 -0.04299582927212316 
0.02145199809841548 -0.02758028819041161 0 
0.02145199809841548 -0.02758028819041161 0 
0.02145199809841548 -0.02758028819041161 0 
0 0 -0.004279936541582697 
0 0 -0.004279936541582697 
0 0 -0.004279936541582697 
0 0 0 
0 0 0 
0 0 0 
0 0 0 
0 0 0 
0 0 0 
0 0 0 
0 0 0 
-0.06877863046122931 0.08422715923080942 -0.02019480211937072 
-0.06877863046122931 0.08422715923080942 -0.02019480211937072 
-0.06877863046122931 0.08422715923080942 -0.02019480211937072 
-0.06877863046122931 0.08422715923080942 -0.02019480211937072 
-0.06877863046122931 0.08422715923080942 -0.02019480211937072 
-0.06877863046122931 0.08422715923080942 -0.02019480211937072 
0.001023002517431852 0 0 
0.001023002517431852 0 0 
0.001023002517431852 0 0 
0.001023002517431852 0 0 
0 0 0 
0 0 0 
0 0 0 
0 0 0 
0 0 0 
0 0 0 
0 0 0 
0 0 0 
0 0 0 
0 0 0 
0 0 0 
0.07196522366648489 -0.0725126737883037 0 
0.07196522366648489 -0.0725126737883037 0 
0.03486943594654406 -0.0420993644682471 0 
0.03486943594654406 -0.03908334253944509 0 
0.03486943594654406 -0.0420993644682471 0 
0.03486943594654406 -0.03908334253944509 0 
0.04299283591393636 -0.05524417309998949 0 
0.04299283591393636 -0.05524417309998949 0 
0 0 0 
0 0 0 
0 0 0 
0.05377878356094176 -0.04685551787731458 0 
0.05377878356094176 -0.04685551787731458 0 
0 0 0 
0.08664430602318982 -0.06261841800887352 -0.01155222445623042 
0.08664430602318982 -0.06261841800887352 -0.01155222445623042 
0.08664430602318982 -0.06261841800887352 -0.01155222445623042 
0.08664430602318982 -0.06261841800887352 -0.01155222445623042 
0.08664430602318982 -0.06261841800887352 -0.01155222445623042 
-0.1275122208985293 0.1404469383248989 -0.02133300766383163 
-0.1275122208985293 0.1404469383248989 -0.02133300766383163 
-0.1275122208985293 0.1404469383248989 -0.02133300766383163 
-0.1275122208985293 0.1404469383248989 -0.02133300766383163 
-0.1275122208985293 0.1404469383248989 -0.02133300766383163 
-0.1275122208985293 0.1404469383248989 -0.02133300766383163 
-0.1275122208985293 0.1404469383248989 -0.02133300766383163 
-0.1275122208985293 0.1404469383248989 -0.02133300766383163 
0 0 0 
0 0 0 
0 0 0 
0 0 0 
0.1235281903263027 -0.0944476792631051 -0.005753313073670496 
0 0 0 
0.01394762837387493 -0.01999714871384101 8.470329472543003e-19 
0 0 0 
0 0 0 
0 0 0 
0 0 0 
0 0 0 
0.07863041372533637 -0.06241118673952015 -0.01911393505401772 
0 0 0 
0 0 0 
0 0 0 
0 0 0 
0 0 0 
0 0 0 
0 0 0 
0.04923727908444003 -0.03766678305636342 -0.0002228612845047608 
0 0 0 
0 0 0 
0 0 0 
0 0 0 
0 0 0 
0 0 0 
0 0 0 
0 0 0 
0 0 0 
0.006424139484171397 0 -0.000952053424691005 
0.006424139484171397 0 -0.000952053424691005 
-0.1204548723121864 -0.01942164078438077 0.1372175655923416 
-0.1204548723121864 -0.01942164078438077 0.1372175655923416 
-0.1204548723121864 -0.01942164078438077 0.1372175655923416 
-0.1204548723121864 -0.01942164078438077 0.1372175655923416 
0.02850842069879253 -0.02920389797942554 0 
0.02850842069879253 -0.02920389797942554 0 
0.02850842069879253 -0.02920389797942554 0 
0.0400731280789053 -0.06232642209925769 0 
0.0400731280789053 -0.06232642209925769 0 
0.0400731280789053 -0.06232642209925769 0 
0.0400731280789053 -0.06232642209925769 0 
0.06276251531518058 -0.05421545665705307 -0.01696231945214638 
0.06276251531518058 -0.05421545665705307 -0.01696231945214638 
0.005737760161625839 -0.05974791489172939 0.04565073212162828 
0.06276251531518058 -0.05421545665705307 -0.01696231945214638 
0 0 0 
0 0 0 
0 0 0 
0 0 0 
0.06864354815270787 -0.0687976199493292 0 
0.06864354815270787 -0.0687976199493292 0 
0.06864354815270787 -0.0687976199493292 0 
0 0 0 
0 0 0 
0 0 0 
0 0 0 
0 0 0 
0 0 0 
0 0 0 
0 0 0 
0 0 0 
0.03869554453490236 -0.02354548443419236 -0.0112151191494712 
0.03869554453490236 -0.02354548443419236 -0.0112151191494712 
0.03869554453490236 -0.02354548443419236 -0.0112151191494712 
0.03869554453490236 -0.02354548443419236 -0.0112151191494712 
0.03869554453490236 -0.02354548443419236 -0.0112151191494712 
-0.05572882059711507 -0.01711133218319988 0.07801243337088552 
-0.05572882059711507 -0.01711133218319988 0.07801243337088552 
-0.05572882059711507 -0.01711133218319988 0.07801243337088552 
0 -0.0006169662035151078 0 
0 0 0 
0.0666311920637912 -0.05759274315410187 -0.01063100538779323 
0.0666311920637912 -0.05759274315410187 -0.01063100538779323 
0.0666311920637912 -0.05759274315410187 -0.01063100538779323 
0 0 0 
0 0 0 
0.01654682777856007 0 -0.01786189272756564 
0.01654682777856007 0 -0.01786189272756564 
0.01654682777856007 0 -0.01786189272756564 
0.01654682777856007 0 -0.01786189272756564 
0.02172768542900953 -0.01987494942912728 0 
0.02172768542900953 -0.01987494942912728 0 
0.02172768542900953 -0.01987494942912728 0 
0.02172768542900953 -0.01987494942912728 0 
0.02172768542900953 -0.01987494942912728 0 
0.02701639227324553 -0.02257441529724382 -0.009550324074180079 
0 0 0 
0 0 0 
0.03000525957666938 -0.02231301214948909 0 
0.03000525957666938 -0.02231301214948909 0 
0.03000525957666938 -0.02231301214948909 0 
0.03000525957666938 -0.02231301214948909 0 
0.03000525957666938 -0.02231301214948909 0 
0.03000525957666938 -0.02231301214948909 0 
0 0 0 
0 0 0 
0 0 0 
0 0 0 
0 0 0 
0 0 0 
0 0 0 
0 0 0 
0.1196830992544947 -0.109295983529425 -0.03175941682249318 
0.1196830992544947 -0.109295983529425 -0.03175941682249318 
0.1196830992544947 -0.109295983529425 -0.03175941682249318 
0.1196830992544947 -0.109295983529425 -0.03175941682249318 
0.1196830992544947 -0.109295983529425 -0.03175941682249318 
0 0 0 
0 0 0 
0 0 0 
0 0 0 
0 0 0 
0 0 0 
0 0 0 
0 0 0 
0 0 0 
0 0 0 
0 0 0 
0 0 0 
0 0 0 
0 0 -0.01325278784309355 
0 0 -0.01325278784309355 
0 0 -0.01325278784309355 
0 0 -0.01325278784309355 
-0.1141302809937989 0 0.1117949942518777 
-0.1141302809937989 0 0.1117949942518777 
0 0 0 
0 0 0 
-0.05702475515355475 -0.005532458234676331 0.06261305157377466 
-0.05702475515355475 -0.005532458234676331 0.06261305157377466 
0 0 0 
0.01970056138019229 0 -0.01974671548466514 
0.01970056138019229 0 -0.01974671548466514 
0.01970056138019229 0 -0.01974671548466514 
0.01086619673276442 -0.01562545618869622 0 
0.01086619673276442 -0.01562545618869622 0 
0.01086619673276442 -0.01562545618869622 0 
0.01086619673276442 -0.01562545618869622 0 
0.01086619673276442 -0.01562545618869622 0 
0 0 0 
0 0 0 
0 0 0 
0 0 0 
-0.255381241889535 0.178298279155674 0.07828428399753667 
-0.06554246817780039 -0.05476239375149797 0.1218044564469574 
-0.06554246817780039 -0.05476239375149797 0.1218044564469574 
-0.06554246817780039 -0.05476239375149797 0.1218044564469574 
-0.06554246817780039 -0.05476239375149797 0.1218044564469574 
0 0 0 
0 0 0 
0.04313220081168437 -0.02867509663201672 -0.01671694418194997 
0.04313220081168437 -0.02867509663201672 -0.01671694418194997 
0.04313220081168437 -0.02867509663201672 -0.01671694418194997 
0.04313220081168437 -0.02867509663201672 -0.01671694418194997 
0 0 0 
0 0 0 
0 0 0 
0 -0.0006169662035151078 0 
0 -0.0006169662035151078 0 
0 -0.0006169662035151078 0 
0.008922892560775985 -0.02325769910232675 0 
-0.1898387737117345 0.233060672907172 -0.04352017244942068 
-0.1898387737117345 0.233060672907172 -0.04352017244942068 
-0.1898387737117345 0.233060672907172 -0.04352017244942068 
-0.1898387737117345 0.233060672907172 -0.04352017244942068 
-0.1898387737117345 0.233060672907172 -0.04352017244942068 
0 0 0 
0 -0.001659097339278813 0 
0.03253316247176839 -0.01233810859632896 -0.02167670758947058 
0.03253316247176839 -0.01233810859632896 -0.02167670758947058 
0.03253316247176839 -0.01233810859632896 -0.02167670758947058 
0.03253316247176839 -0.01233810859632896 -0.02167670758947058 
0.03253316247176839 -0.01233810859632896 -0.02167670758947058 
-0.07540406216565405 0.1025230971900053 -0.01277625267880406 
-0.07540406216565405 0.1025230971900053 -0.01277625267880406 
-0.07540406216565405 0.1025230971900053 -0.01277625267880406 
0 0 -0.005182363424401404 
0 0 -0.005182363424401404 
0 0 0 
0.04908027832317671 -0.02989265763615389 -0.01674965680100463 
0.04908027832317671 -0.02989265763615389 -0.01674965680100463 
0.04908027832317671 -0.02989265763615389 -0.01674965680100463 
0 0 0 
0.1167501959442469 0 -0.08919602879478609 
0.04963756904096543 -0.03275577554140635 -0.008768057728035229 
0.04963756904096543 -0.03275577554140635 -0.008768057728035229 
0.04963756904096543 -0.03275577554140635 -0.008768057728035229 
0.04963756904096543 -0.03275577554140635 -0.008768057728035229 
0 0 0 
0 0 0 
0 0 0 
0 0 0 
0 0 0 
0 0 0 
0 0 0 
0 0 -0.009035075023506816 
0 0 -0.009035075023506816 
0 0 0 
0 0 0 
0 0 0 
0 0 0 
0 0 0 
0 0 0 
0 0 0 
0 0 0 
0.03758702661938924 -0.002832256190320045 -0.03376002211326955 
0 0 0 
0 0 0 
0 0 0 
0 0 0 
0 0 0 
0 0 0 
0 0 0 
0.01394762837387493 -0.01999714871384101 0 
0.01394762837387493 -0.01999714871384101 0 
-0.138431040124302 0.1549969169774998 -0.02220772761063501 
-0.138431040124302 0.1549969169774998 -0.02220772761063501 
-0.138431040124302 0.1549969169774998 -0.02220772761063501 
-0.138431040124302 0.1549969169774998 -0.02220772761063501 
-0.138431040124302 0.1549969169774998 -0.02220772761063501 
-0.138431040124302 0.1549969169774998 -0.02220772761063501 
-0.07882398149192853 0.08702481206503589 0 
-0.07882398149192853 0.08702481206503589 0 
-0.07037686388121875 0.08762791878389788 -0.004666908427741862 
-0.07037686388121875 0.08762791878389788 -0.004666908427741862 
-0.07037686388121875 0.08762791878389788 -0.004666908427741862 
-0.07037686388121875 0.08762791878389788 -0.004666908427741862 
-0.1846182458335776 0.200156619547375 -0.02469276773783679 
-0.1846182458335776 0.200156619547375 -0.02469276773783679 
-0.1846182458335776 0.200156619547375 -0.02469276773783679 
-0.1846182458335776 0.200156619547375 -0.02469276773783679 
0 -0.003016021928802 0 
0 -0.003016021928802 0 
0 0 0 
0 0 0 
0 0 0 
0 0 0 
-0.1006658504512347 0.1688045447760711 -0.04123353645402573 
-0.1006658504512347 0.1688045447760711 -0.04123353645402573 
-0.1006658504512347 0.1688045447760711 -0.04123353645402573 
-0.1006658504512347 0.1688045447760711 -0.04123353645402573 
0.05161402145209086 -0.03983677144227634 -0.009563610979837638 
0.05161402145209086 -0.03983677144227634 -0.009563610979837638 
0.05161402145209086 -0.03983677144227634 -0.009563610979837638 
0.05161402145209086 -0.03983677144227634 -0.009563610979837638 
0.07863041372533637 -0.06241118673952015 -0.01911393505401772 
0.02701639227324553 -0.02257441529724382 -0.009550324074180079 
0.02701639227324553 -0.02257441529724382 -0.009550324074180079 
