solver_type L2R_L2LOSS_SVC_DUAL
nr_class 3
label 1 2 3
nr_feature 1295
bias -1
w
0.01403159678613298 -0.007121040975156384 0 
0.2510932333295299 -0.2136919653504944 -0.1097048924589615 
0.1894275092182648 -0.2362656929768069 -0.2110109314073411 
0.07023340190233907 -0.06146193736736213 -0.02656938842610542 
0 0 0 
0 0 0 
0.2510932333295299 -0.2136919653504944 -0.1097048924589615 
0.04754145284054592 -0.03856973536424431 -0.0138535752500397 
0 0 0 
0.1894275092182648 -0.2362656929768069 -0.2110109314073411 
0.02633086211381658 -0.0138202910636086 -0.02434827743764752 
0.1497570198999021 -0.1086678132816642 -0.2525985600102807 
0.05181295659130407 -0.05173628505532495 -0.168888820037932 
-0.06941130735341672 0.09414282736629598 -0.03710871526685383 
0.1342241374323687 -0.05826424041720418 -0.06608028684622921 
0.04652601801934181 -0.03916710038708222 -0.01567709490707492 
0.00536841618144199 -0.00022648488272019 -0.008849172594718142 
0.08956361108756872 -0.0523921679051611 -0.02195003669014166 
0.1342241374323687 -0.05826424041720418 -0.06608028684622921 
0.04652601801934181 -0.03916710038708222 -0.01567709490707492 
0.00536841618144199 -0.00022648488272019 -0.008849172594718142 
0.03113271297236604 -0.2221492986331028 0.08890544437420159 
0.02976546733561343 -0.02584173567089751 -0.03880402255886668 
0.07570540278415036 -0.06291473175129329 -0.04918075348460385 
0.07895041856443841 -0.05183975680758244 -0.04173265012919199 
0.02976546733561343 -0.02584173567089751 -0.03880402255886668 
0.0615257845549568 -0.04176811129451971 -0.04918075348460385 
0.02976546733561344 -0.02584173567089751 -0.03880402255886667 
0.1495098884977551 -0.09228805489050053 -0.0827414888656972 
0.1051519104421791 -0.1349849874180209 -0.05566882176680383 
0.09558635714583365 -0.08829187580844758 -0.002646107877884891 
-0.05108277642580524 -0.01969047203790805 0.03440735170885113 
0 0 0 
0.02568877009826425 -0.02981814369497697 0 
-0.04495884563726064 -0.00025357508347558 0.03680091888508694 
0 0 0 
0.06580772066714502 -0.03641794275424305 -0.04770297055130943 
0.002588371280582869 -0.004055898478836945 0 
0 0 0 
-2.168404344971009e-19 6.505213034913027e-19 0 
0 0 0 
0 0 0 
-0.1179527988027961 0.07494024410413061 0.06183845685612969 
0.04676963447594968 0.01316491693100134 -0.08425761969757317 
0.1839570958195197 -0.1490655581914467 -0.07278615677762848 
0.04978203628014284 -0.04053523495380672 -0.01507306050375261 
0 0 0 
0.01267727910374559 -0.002027205973511042 0 
0.1839570958195197 -0.1490655581914467 -0.07278615677762848 
0.04978203628014284 -0.04053523495380672 -0.01507306050375261 
0 0 0 
0 0 0 
0.0215717651236256 0 0 
0 0 0 
0 0 0 
0 0 0 
0 0 0 
0.03661723957150862 -0.03706621884460873 -0.02164309713541692 
0.004574991324359808 0 -0.01460444051940347 
0 0 0 
0 0 0 
0.03156622233360357 0 -0.03029314180877487 
0.2056854567890444 -0.1703505877984782 -0.09546048600464571 
0.00883852030657987 -0.009554354586005299 -0.01015038930490318 
0 0 0 
0 0 0 
0.2056854567890444 -0.1703505877984782 -0.08986214028207384 
0.008183507726648663 -0.005016798722452346 -0.007267088570134 
0.008802713324411422 -0.01014256280761214 -0.001904976072662861 
0.008802713324411425 -0.01014256280761214 -0.001904976072662861 
0.008802713324411425 -0.01014256280761214 -0.001904976072662861 
0.008802713324411425 -0.01014256280761214 -0.001904976072662861 
0.008802713324411425 -0.01014256280761214 -0.001904976072662861 
0.008802713324411425 -0.01014256280761214 -0.001904976072662861 
0.002622026740243299 -0.01396029454807369 0 
-0.1545123141079411 0.1615642360585872 -0.01652644408878518 
0.007717447889992009 0.02753102008560648 -0.05532499182707836 
0.002622026740243299 -0.01396029454807369 0 
0.01102384474394968 -0.02422918857652388 0 
0.002597406274374945 -0.01396029454807369 0 
0.03668007332643571 -0.03392377385773831 0 
0.08219233457801858 -0.06828936708258454 -0.03298524308629237 
0.03668007332643571 -0.03392377385773831 0 
0.1723526691180862 -0.1300715603070688 -0.05532499182707836 
0.004574991324359807 0 0 
0.004574991324359807 0 0 
0 1.301042606982605e-18 0 
0.01079936962308473 -0.0114464118804215 -0.003204614501505062 
0 0 0 
0 1.301042606982605e-18 0 
0.01079936962308473 -0.0114464118804215 -0.003204614501505062 
0 0 0 
0.03500533299963143 -0.004851400679911317 -0.01656751643051377 
0.03500533299963143 -0.004851400679911317 -0.002928627570325326 
0.03500533299963143 -0.004851400679911317 -0.002928627570325326 
0.03500533299963143 -0.004851400679911317 -0.002928627570325326 
0.03500533299963143 -0.004851400679911317 -0.002928627570325326 
0.03500533299963143 -0.004851400679911317 -0.002928627570325326 
0.03500533299963143 -0.004851400679911317 -0.002928627570325326 
0.04455028557242376 -0.03569812254642734 -0.01046599822651487 
-4.336808689942018e-19 -8.673617379884035e-19 0 
0 0 0 
0.006910886927005719 -0.01133523366012628 -0.0004200137078324181 
-4.336808689942018e-19 -8.673617379884035e-19 0 
0 0 0 
-0.04201607458478044 0.01923577408116789 -0.008859838797885244 
0 0 0 
0 0 0 
0 0 0 
0 0 0 
0 0 0 
0 0 0 
0 0 0 
0.0007170750495942299 0 -0.003703109031333632 
0 0 0 
0 0 0 
0 0 0 
-0.03641550546808118 -0.01028054642168454 0.03331126049358338 
0.05223249711135547 -0.01860403353387871 -0.04308274802912221 
0.006047755487724781 0 -0.00136448744588944 
-0.04871975879087774 -0.009159095501934184 0.0435244321355844 
0 0 0 
0 0 0 
0 0 0 
0 0 0 
0 0 0 
0 0 0 
0 0 0 
0.0179121624039581 -0.01605734168842269 -0.01631248607930311 
0 0 0 
0 0 0 
0.04149340030968189 -0.0131755060415396 -0.0276453112984283 
0 0 0 
0 0 0 
0 0 0 
0.007684720179228766 -0.006997884331446395 -0.002709294460984249 
0 0 0 
0 0 0 
0 0 0 
0 0 0 
0.09484388261505469 -0.09266171071019799 -0.01507306050375261 
0.01872820467849021 -0.02327459344029105 0 
0.04773546068765738 -0.02361399354842015 -0.02043243677376036 
0.03002738146633709 -0.03798329813229034 0 
0.09484388261505469 -0.09266171071019799 -0.01507306050375261 
0.01872820467849021 -0.02327459344029105 0 
0.01872820467849021 -0.02327459344029105 0 
0.04157642194448699 -0.00447478070639524 -0.02191253319707779 
0.01950035310076031 0 -0.02191253319707779 
0.01950035310076031 0 -0.02191253319707779 
0.01950035310076031 0 -0.02191253319707779 
0.006970455198963486 -0.0094758347445474 -0.002338621585444193 
0.0419908171857467 -0.03504709622534554 -0.02537882236919454 
-1.084202172485504e-19 0 0 
0.0007170750495942295 0 -0.002338621585444193 
0.007456290403096152 -4.336808689942018e-19 -0.02537882236919454 
-1.084202172485504e-19 0 0 
0.03531944180407703 -0.03074005334380471 0 
0 0 0 
0 0 0 
0 0 0 
-0.09800944458474735 0.1360958104000541 -0.0289326278704948 
0 0 0 
0 0 0 
-0.2497767823744762 0.2278357112771631 0.05542498697878215 
0.003231268273357434 0 0 
0.003231268273357434 0 0 
0.01055511782629558 -0.01263155526347587 0 
0.003231268273357434 0 0 
0.003231268273357434 0 0 
0.01838464128897957 -0.02193050270041895 0 
-0.08858773666407477 0.09682641014348398 -0.001388848335793075 
0.01838464128897957 -0.02193050270041895 0 
0.01838464128897957 -0.02193050270041895 0 
0.01838464128897957 -0.02193050270041895 0 
0.01838464128897957 -0.02193050270041895 0 
0 -0.0002439474758040054 0 
0.02675947093615746 -0.02482356369474584 -0.008857041698903887 
0 -0.0002439474758040054 0 
0 -0.0002439474758040054 0 
0.04346774603918593 -0.0387673615002344 -0.01759984360215835 
0.01847599490229803 -0.01364816377512369 0 
0.02408052273464523 -0.005202194902271828 -0.02307237977235241 
0.04346774603918593 -0.0387673615002344 -0.01759984360215835 
0 0 0 
0.03727106805923996 -0.03915664380519019 -0.002920692722500776 
0.04653919694815952 -0.01840837598899148 -0.0276453112984283 
0.03727106805923996 -0.03915664380519019 -0.002920692722500776 
0.005045796638477624 -0.005232869947451882 0 
0 0 0 
0 0 0 
0 0 0 
0 0 0 
0 0 0 
0 0 0 
0.04769386624076617 -0.02663959083909756 -0.03658842198785983 
0 0 0 
0 0 0 
0 0 0 
0 0 0 
0.003104593945759677 -0.001869531049519756 0 
0.003104593945759677 -0.001869531049519756 0 
0.003104593945759677 -0.001869531049519756 0 
0.003104593945759677 -0.001869531049519756 0 
0.003104593945759677 -0.001869531049519756 8.673617379884035e-19 
-5.421010862427522e-20 0 0 
0 0 0 
0.004754589848550058 -0.009121941790499761 -0.004490695901873709 
-5.421010862427522e-20 0 0 
0 0 0 
0.0628628997796544 -0.06732666137226986 0 
0.002513383552648644 -0.00549454065870116 0 
0.0243093107448509 -0.02578987438518912 0 
0 0 0 
0.005762133854993668 0 -0.02933313823090125 
-0.1067327384269427 0 0.06143276096995325 
0.005762133854993668 0 -0.02933313823090125 
0.005762133854993668 0 -0.02933313823090125 
0 0 0 
0 0 0 
0.00259027957477653 -0.003655855664037468 0 
0 0 0 
0 0 0 
0 0 0 
0 4.336808689942018e-19 -0.01460444051940347 
0 0 0 
0 0 0 
0 0 0 
0.02166263243716291 -0.02085261680810703 0 
0 0 0 
0 0 0 
0 0 0 
-0.01392843289281572 -0.01855090942066705 0.0244603573248835 
0.01884302719303039 -0.005202194902271828 -0.0005791523927971123 
-4.336808689942018e-19 0 -0.00270929446098425 
0 0 -0.0005791523927971123 
0.01884302719303039 -0.005202194902271828 -0.0005791523927971123 
0 0 -0.0005791523927971123 
0 0 0 
0.03453452678265055 -0.03504709622534553 0 
0 0 0 
0 0 0 
0 0 0 
0 0 -0.002130142068187138 
0 0 -0.002130142068187138 
0 0 -0.002130142068187138 
0 0 -0.002130142068187138 
0 0 -0.002130142068187138 
0.01745810792038906 -0.00811933525119676 -0.002130142068187138 
0.007684720179228765 -0.006997884331446395 0 
0.007684720179228765 -0.006997884331446395 0 
0.007684720179228765 -0.008527567745677846 0 
0.007684720179228765 -0.006997884331446395 0 
0.007684720179228765 -0.006997884331446395 0 
0.007684720179228765 -0.006997884331446395 0 
0.007684720179228765 -0.006997884331446395 0 
0.02150023272497316 -0.01541996572493598 -0.009288916109435453 
0.05704013326604408 -0.05963993900903596 -0.003706883056650883 
0 -0.0004202200659100429 0 
0 -0.0004202200659100429 0 
0 -0.001362894691862709 0 
0 -0.001362894691862709 0 
0.03777761191309715 -0.03100495564683359 -0.001388848335793075 
0 -0.001362894691862709 0 
0 -0.001362894691862709 0 
0 0 -0.01071414035673129 
-0.07060691619867757 0 0.08084321454503886 
0 0 -0.01071414035673129 
-0.07060691619867757 0 0.08084321454503886 
0.02290602624238564 -0.02540486869761629 -0.01507982502575675 
0.04315479584120503 -0.04629912251547708 -0.01507982502575675 
0.01029085650156005 -0.02346244118273151 0 
0.02290602624238564 -0.02540486869761629 -0.01507982502575675 
0.02290602624238564 -0.02540486869761629 -0.01507982502575675 
0.006253380149369259 -0.0094758347445474 0 
0.01991323762618199 -0.0175336594581341 -0.008372836034206192 
0.04352865613077358 -0.03105940020925932 -0.01507306050375261 
0.01991323762618199 -0.0175336594581341 -0.008372836034206192 
0.04352865613077358 -0.03105940020925932 -0.01507306050375261 
0.0124018580791246 -0.00648694601638614 0 
0.1373811005801671 -0.1296103633584153 -0.031196663447549 
0.03265062767794399 -0.0273811998342469 -5.421010862427522e-20 
0.0124018580791246 -0.00648694601638614 0 
0.0124018580791246 -0.00648694601638614 0 
0.133149374689435 -0.1188669053891224 -0.031196663447549 
0.0124018580791246 -0.00648694601638614 0 
0.0124018580791246 -0.00648694601638614 0 
0 0 0 
0 0 0 
0 0 0 
0 0 0 
0 0 0 
0 0 0 
0 0 0 
0 0 0 
-2.168404344971009e-19 0 -0.006844275683656147 
0 0 -0.006844275683656147 
-8.673617379884035e-19 0 -0.01004889018516121 
0 0 -0.006844275683656147 
0 0 -0.006844275683656147 
0 0 -0.006844275683656147 
0.01102158294632941 -0.004691856628067074 -0.01237673075974478 
-0.158318290218288 0.162200023490331 0 
0.01884302719303039 -0.005202194902271828 0 
0 0 0 
0.04212531596979432 -0.05132865812961156 0 
0 0 -0.007267088570134 
0 0 0 
0 0 0 
0 0 0 
0 0 -0.003019269948288658 
0 0 -0.003019269948288658 
0 0 -0.003019269948288658 
0 0 -0.003019269948288658 
0 0 -0.003019269948288658 
0 0 -0.003019269948288658 
0 0 0 
0.09095016676042723 -0.04947930716792481 -0.04261497162639663 
0 0 0 
0.06887409791670057 -0.04500452646152957 -0.0289326278704948 
0 0 0 
-0.3313203836514496 0.3470449391668141 -0.01652644408878518 
-0.1521669207435785 0.1681104926790659 -0.01652644408878518 
-0.1655361588518908 0.1857934246351111 -0.01652644408878518 
-0.1655361588518908 0.1857934246351111 -0.01652644408878518 
-0.1655361588518908 0.1257177429434333 0.06462822573231204 
-0.1655361588518908 0.1857934246351111 -0.01652644408878518 
0.07711151570740336 -0.06398911599753342 -0.02409319493502724 
0.0245263298864669 -0.01533128803529635 -0.01715240123354321 
0.02910620533714777 -0.0244532298257961 -0.01715240123354321 
0.0245263298864669 -0.01533128803529635 -0.01715240123354321 
0.07711151570740336 -0.06398911599753342 -0.02409319493502724 
0.0245263298864669 -0.01533128803529635 -0.01715240123354321 
0.0245263298864669 -0.01533128803529635 -0.01715240123354321 
0.07711151570740336 -0.06398911599753342 -0.02409319493502724 
0.07711151570740336 -0.06398911599753342 -0.02409319493502724 
0.07711151570740336 -0.06398911599753342 -0.02409319493502724 
0.03855358903480347 -0.04153678698708071 0 
-0.1516492203786214 0.1497618684907365 0 
0.03855358903480347 -0.04153678698708071 0 
0 0 -6.596671091434322e-05 
0 0 -6.596671091434322e-05 
0 0 -6.596671091434322e-05 
0 0 -6.596671091434322e-05 
0.01403159678613298 -0.007121040975156384 0 
0.01403159678613298 -0.007121040975156384 0 
0.01403159678613298 -0.007121040975156384 0 
0.01403159678613298 -0.007121040975156384 0 
0 0 -0.006874826990569684 
0 0 -0.006874826990569684 
0.02046268353263142 -0.03047604132150453 -0.012552806312532 
0 0 -0.006874826990569684 
-0.01264385544034905 -0.03954518927393355 0.02549991563691892 
0.002270681086838187 0 -0.01397778738951684 
0.01102158294632941 -0.004691856628067074 -0.00507981150504473 
0 0 0 
0 0 0 
0.002947009443193252 -8.673617379884035e-19 -0.0008724506554148513 
0.007397643720826112 -0.01188165142122406 0 
0 0 0 
0.002947009443193252 -8.673617379884035e-19 -0.0008724506554148513 
0 0 0 
0 0 0 
0 0 0 
0 0 0 
0 0 0 
0 0 0 
0 0 0 
0 0 0 
0 0 0 
0 0 0 
0 0 0 
0 0 -0.002343472746316726 
0 0 -0.002343472746316726 
0 0 -0.002343472746316726 
0 0 -0.002343472746316726 
0 0 0 
0.004238516698526572 0 -0.004157972979937535 
0 0 0 
0.0007170750495942299 0 -0.002338621585444193 
0.0007170750495942299 0 -0.002338621585444193 
0.004238516698526572 0 -0.004157972979937535 
0 0 0 
0.002513383552648644 -0.00549454065870116 0 
0 0 0 
0.006910886927005721 -0.009848673962540152 0 
0.006910886927005721 -0.009848673962540152 0 
0 0 0 
0 0 0 
0 0 0 
0 0 0 
0.01336923810831222 -0.01768293195604521 0 
0.01336923810831222 -0.01768293195604521 0 
0.01336923810831222 -0.01768293195604521 0 
0.01336923810831222 -0.01768293195604521 0 
0.006068921271243858 -0.001384141990564338 -0.0004541976139552091 
0.006068921271243858 -0.001384141990564338 -0.0004541976139552091 
0.03453452678265055 -0.03504709622534553 0 
0 0 0 
0 0 0 
0 0 0 
0 0 0 
0.02882773531488618 -0.02735103781880591 -0.005296282294692621 
0.06529116360845244 -0.06285667261237109 -0.01759984360215835 
0 0 0 
0 0 0 
0 0 0 
0 0 0 
0 0 0 
0 0 0 
0 0 0 
0 0 0 
0 0 0 
0 0 0 
0 0 0 
0 0 0 
0 0 0 
-0.02283728050446005 -0.02436288888630108 0.02719592158548841 
0 0 0 
0 0 0 
0 0 0 
0.007462628666800208 -0.006666699512591217 0 
0.007462628666800208 -0.006666699512591217 0 
0.0201399077705458 -0.006920274596066795 -0.005677979321962314 
0.007462628666800208 -0.006666699512591217 0 
0.007462628666800208 -0.006666699512591217 0 
0.007462628666800208 -0.006666699512591217 0 
0.03460847502359954 -0.0255181399193472 -0.009368478293172933 
0 0 0 
0 0 0 
0 0 0 
0 0 0 
0.04095436248653728 -0.03327282084153325 -0.01759984360215835 
0 0 0 
0.02516017324403971 -0.00587207251204305 -0.01653973763704748 
0 0 0 
0 0 0 
0 0 0 
0 0 0 
0 0 0 
0 0 0 
0 0 0 
0.03460847502359954 -0.02551813991934719 -0.009368478293172933 
0 0 0 
0 0 0 
0 0 0 
0 0 0 
0.02326863588858111 -0.0164174615842775 -0.002724133169686331 
0 0 0 
0 0 0 
0.0202487695988194 -0.02089425381786076 0 
0 0 0 
0.07031748258759317 -0.0408068069640414 -0.03693422740786376 
0.02150023272497317 -0.01457303323937331 -0.009288916109435453 
0.02150023272497316 -0.01499974565902595 -0.009288916109435453 
0.02882408227791131 -0.02720458850284918 -0.009288916109435453 
0.02150023272497317 -0.01457303323937331 -0.009288916109435453 
0 0 0 
0.0215717651236256 0 0 
0 0 0 
0 0 -0.01079904302113265 
0 0 -0.01079904302113265 
-0.02283728050446006 -0.02436288888630107 0.02719592158548841 
0 0 -0.01079904302113265 
0.0117541561223604 -0.03726288983472797 0 
0.0117541561223604 -0.03726288983472797 0 
0.09690634311826797 -0.05035723225469208 -0.05532499182707836 
0.0117541561223604 -0.03726288983472797 0 
0.0117541561223604 -0.03726288983472797 0 
0 0 0 
0 0 0 
0 0 0 
0.02516017324403971 -0.009430141834793078 -0.01653973763704749 
0 -0.003558069322750029 0 
0.006899230512469963 -0.005931948505937121 0 
0.02516017324403971 -0.009430141834793078 -0.01653973763704749 
0 -0.003558069322750029 0 
0 -0.06007568169167781 0.07829863137305601 
0.007091193597153857 -0.001795734818616178 -0.00303045575183813 
0 0 -0.002823408584829737 
0 0 -0.002856038448041236 
0.007091193597153856 -0.001795734818616178 -0.00303045575183813 
0 0 -0.002823408584829737 
0.0001201894186864424 0 -0.002920692722500776 
0.0001201894186864424 0 -0.002920692722500776 
0 0 -0.007316288848986246 
0 0 -0.007316288848986246 
0 0 -0.007316288848986246 
0 0 -0.007316288848986246 
0 0 0 
0 0 0 
0.006068921271243859 -0.001384141990564338 -0.0004541976139552091 
0 0 0 
0.00331200347600633 0 -0.02721994369468692 
0 0 -0.01363888886018844 
0.03749212800326011 -0.03485333264586647 -0.01363888886018844 
0 0 -0.01294246847353126 
0.02728381056510839 -0.02958385177083785 -0.0008724506554148513 
0 0 0 
0 0 0 
0.002947009443193254 0 -0.0008724506554148513 
0 0 0 
0 0 0 
0.02361541850459158 -0.01352574075112522 -0.006700224469546416 
0.02128784501794404 -0.02361901236864832 0 
0.02128784501794404 -0.02361901236864832 0 
0.02128784501794404 -0.02361901236864832 0 
0.02128784501794404 -0.02361901236864832 0 
-0.01397872668443859 -0.001121450919750364 0.01971775134827991 
0.009773387741160298 -0.001121450919750364 0 
-0.1478413936707973 0.1626578232704664 -0.006557130875645007 
0.009773387741160298 -0.001121450919750364 0 
0.009773387741160298 -0.001121450919750364 0 
0.009773387741160298 -0.001121450919750364 0 
0 0 0 
0 0 0 
0 0 0 
0.00457987545068087 -0.009121941790499757 0 
0.00457987545068087 -0.009121941790499757 0 
0.00457987545068087 -0.009121941790499757 0 
-0.1283187570099097 0.1446630836818434 -0.01687390683103923 
0 0 0 
0 0 0 
0.03749212800326011 -0.03485333264586647 0 
0 0 0 
0 0 0 
0 0 0 
0 0 0 
0 0 -3.262986321149861e-05 
0 0 -3.262986321149861e-05 
0 0 -3.262986321149861e-05 
0 0 -3.262986321149861e-05 
0.01341425239321307 -0.005456567000702944 -0.01040139765609552 
0.1039509827470766 -0.07131371027033953 -0.03933402552659033 
0.01341425239321307 -0.005456567000702944 -0.01040139765609552 
0.01341425239321307 -0.005456567000702944 -0.01040139765609552 
0.1039509827470766 -0.07131371027033953 -0.03933402552659033 
0.01341425239321307 -0.005456567000702944 -0.01040139765609552 
0.01341425239321307 -0.005456567000702944 -0.01040139765609552 
0 0 -0.01125521923835637 
0 0 -0.003762664985341922 
0 0 -0.003762664985341922 
0 0 -0.003762664985341922 
0.0321050820020759 -0.03392377385773831 0 
0.0321050820020759 -0.03392377385773831 0 
0.0006550125799312046 -0.004537555863552953 0 
0.0006550125799312046 -0.004537555863552953 0 
0.0006550125799312046 -0.004537555863552953 0 
0.0006550125799312046 -0.004537555863552953 -0.00288330073476918 
0.0006550125799312046 -0.004537555863552953 0 
0.002947009443193254 0 -0.0008724506554148513 
0.002947009443193254 0 -0.0008724506554148513 
0 0 0 
0 0 0 
0 0 0 
0 0 -0.001060303247005336 
0 0 -0.001060303247005336 
0 0 0 
0 0 -0.004664004925140303 
0 0 -0.004664004925140303 
-1.734723475976807e-18 0 -0.004664004925140303 
0 0 -0.004664004925140303 
0 0 -0.004664004925140303 
0 0 -0.004664004925140303 
0.007323849552938148 -0.01263155526347587 0 
0.007323849552938148 -0.01263155526347587 0 
0.005117306122928393 0 -0.003706883056650883 
0.005117306122928393 0 -0.003706883056650883 
0.005117306122928393 0 -0.003706883056650883 
0 0 0 
0 0 0 
0 0 0 
0 0 0 
0 0 0 
0 0 0 
0 0 0 
0 0 0 
0 0 0 
0.006068921271243858 -0.001384141990564338 -0.0004541976139552091 
0.006068921271243858 -0.001384141990564338 -0.0004541976139552091 
0.006068921271243858 -0.001384141990564338 -0.0004541976139552091 
0 0 0 
0 0 0 
0 0 0 
0 0 0 
0 0 0 
0 0 0 
0 0 0 
0 0 0 
0.0150052187596207 -0.01404562363282822 -0.001342084021911072 
0 0 0 
0 0 0 
0 0 0 
0.03855238874597907 -0.03400218227943379 0 
0.03855238874597907 -0.03400218227943379 0 
0 0 0 
0.02529556923675971 -0.01998968560801989 -0.003242926841960158 
0.04587789982010847 -0.02218088013649102 -0.03029314180877487 
0 0 0 
0.04587789982010847 -0.02218088013649102 -0.03029314180877487 
0 0 0 
0.000174714397869192 0 0 
0 0 0 
0.03156622233360358 0 -0.03029314180877487 
0.03156622233360358 0 -0.03029314180877487 
0.03156622233360358 0 -0.03029314180877487 
0.01791216240395811 -0.01605734168842269 0 
0.01791216240395811 -0.01605734168842269 0 
-0.1683444297571552 0.1723290657754996 -0.01515867857671217 
0.01791216240395811 -0.01605734168842269 0 
0.01791216240395811 -0.01605734168842269 0 
0.01791216240395811 -0.01605734168842269 0 
0.08515218699590757 -0.01309434241996411 -0.05532499182707836 
-0.0273426852860288 -0.01309434241996411 0.03544090737377614 
0.08515218699590757 -0.01309434241996411 -0.05532499182707836 
0.03777761191309715 -0.02964206095497088 -0.001388848335793075 
0.03777761191309715 -0.02964206095497088 -0.001388848335793075 
0 0 0 
0 0 0 
0 0 -0.005677979321962314 
0 0 -0.005677979321962314 
0.01505611054592938 -0.0005243774473430256 -0.008125418728254775 
0.01505611054592938 -0.0005243774473430256 -0.008125418728254775 
0.01505611054592938 -0.0005243774473430256 -0.008125418728254775 
0.01505611054592938 -0.0005243774473430256 -0.008125418728254775 
0.01505611054592938 -0.0005243774473430256 -0.008125418728254775 
0.01505611054592938 -0.0005243774473430256 -0.008125418728254775 
0 0 0 
0 0 0 
0.04149340030968189 -0.01470518945577106 -0.0276453112984283 
0 -0.001529683414231454 0 
0 -0.001529683414231454 0 
0 0 0 
0 0 0 
0 0 0 
0.0126772791037456 -0.00025357508347558 0 
0.02529556923675971 -0.01998968560801989 -0.003242926841960158 
0.02529556923675971 -0.01998968560801989 -0.003242926841960158 
0.02529556923675971 -0.01998968560801989 -0.003242926841960158 
0.02529556923675971 -0.01998968560801989 -0.003242926841960158 
0.02539433279321695 -0.02591224285803103 0 
0 0 0 
0 0 0 
0 0 0 
0 0 0 
0 0 0 
0 0 -0.0006964203866571819 
0 0 -0.005598345722571815 
0 0 -0.005598345722571815 
0 0 -0.005598345722571815 
0 0 0 
0 0 0 
0 0 -0.003204614501505062 
0 0 -0.003204614501505062 
0 0 -0.003204614501505062 
0 0 -0.009128515144214514 
0.01054830943543875 -0.009938058104417793 -0.009128515144214514 
0 0 -0.009128515144214514 
0 0 -0.009128515144214514 
0 0 -0.0005721856825354703 
0 0 -0.0005721856825354703 
0 0 0 
0.003521441648932341 0 -0.001819351394493342 
0.003521441648932341 0 -0.001819351394493342 
0.003521441648932341 0 -0.001819351394493342 
0 0 0 
0 0 0 
0 0 0 
0 0 0 
0 0 0 
0 0 0 
0 0 0 
0 0 0 
0 0 0 
0 0 0 
0 1.084202172485504e-19 0 
0.00259027957477653 -0.003655855664037468 0 
0 0 0 
0 0 0 
0 0 0 
0 0 0 
0 0 0 
0 0 0 
0.03247287977770984 -0.0353562243784906 0 
0.03247287977770984 -0.0353562243784906 0 
0.003133382519125812 0 -0.002965500322818929 
0 0 0 
0.03606547231067221 -0.01982184581454124 0 
0 0 0 
0.03606547231067221 -0.01982184581454124 0 
0 0 0 
0.02046268353263142 -0.03047604132150453 0 
0.04946993954179858 -0.03081544142963363 -0.02043243677376036 
0.02046268353263142 -0.03047604132150453 0 
0 0 0 
0 0 0 
0 0 0 
0 0 0 
0 0 0 
0 0 0 
0 0 0 
0 0 0 
0 0 -0.0001521719747030518 
0 0 -0.0001521719747030518 
0.04754145284054592 -0.03856973536424431 -0.01378760853912536 
0.0884958153270832 -0.07184255620577756 -0.0313874521412837 
0.04754145284054592 -0.03856973536424431 -0.01378760853912536 
0.04754145284054592 -0.03856973536424431 -0.01378760853912536 
0.04754145284054592 -0.03856973536424431 -0.01378760853912536 
0.04754145284054592 -0.03856973536424431 -0.01378760853912536 
0 0 0 
0 0 0 
0 0 0 
0 0 0 
0.001047378738050244 -0.004006804124349112 0 
0.001047378738050244 -0.004006804124349112 0 
0.001047378738050244 -0.004006804124349112 0 
0.001047378738050244 -0.004006804124349112 0 
0.001047378738050244 -0.004006804124349112 0 
0.001047378738050244 -0.004006804124349112 0 
0 0 0 
0 0 0 
0.01239810997160604 0 -0.02138277711482859 
0.03028306689028618 -0.0164174615842775 -0.02410691028451492 
0.01239810997160604 0 -0.02138277711482859 
0.01239810997160604 0 -0.02138277711482859 
0.02876751534771718 -0.0164174615842775 -0.02410691028451492 
0.01239810997160604 0 -0.02138277711482859 
0 0 0 
0 0 0 
0 0 0 
0.006899230512469962 0 0 
0.006899230512469962 0 0 
0 0 -0.00136448744588944 
0 0 -0.00136448744588944 
0 0 -0.00136448744588944 
0 0 -0.00136448744588944 
0 0 0 
0 0 0 
0 0 0 
0.08161348769768516 -0.06330350439066312 -0.01687390683103924 
0.03763939864541803 -0.02436288888630108 -0.01004598451868246 
0.03763939864541803 -0.02436288888630108 -0.01004598451868246 
0 0 0 
0 0 -0.00288330073476918 
0 0 -0.00288330073476918 
0.02207606884372667 -0.004474780706395239 -0.00288330073476918 
0 0 0 
0 0 0 
0 0 0 
0 0 0 
0 0 0 
0 0 0 
0 0 0 
0 0 0 
0 0 0 
0 0 0 
0 0 0 
0 0 0 
0 0 0 
0 0 0 
0 0 0 
0 0 0 
0 0 0 
0 0 0 
0.04095436248653728 -0.03327282084153325 -0.01759984360215835 
0.04095436248653728 -0.03327282084153325 -0.01759984360215835 
0.04095436248653728 -0.03327282084153325 -0.01759984360215835 
0.06887409791670057 -0.04500452646152957 -0.0289326278704948 
0.06887409791670057 -0.04500452646152957 -0.0289326278704948 
0 0 0 
0 0 0 
0 0 0 
0 0 0 
0 0 0 
0.02433680112191514 -0.02958385177083785 0 
0.02433680112191514 -0.02958385177083785 0 
0.02433680112191514 -0.02958385177083785 0 
-0.1011331952612062 -0.02286942010675179 0.1317303123569389 
0 0 0 
-0.0571610970270463 -0.01423470205216064 0.07484499515295864 
0 0 0 
0 0 0 
0 0 0 
0 0 0 
0 0 0 
0 0 0 
0 0 0 
0 0 0 
0 0 0 
0 0 0 
0 0 0 
0 0 0 
0 0 0 
0 0 0 
0 0 0 
0 0 0 
0 0 0 
0.02516017324403971 -0.00587207251204305 -0.01653973763704748 
0.02516017324403971 -0.00587207251204305 -0.01653973763704748 
0.02516017324403971 -0.00587207251204305 -0.01653973763704748 
0 0 0 
0 0 0 
0 0 0 
-0.1124948722819364 0 0.0907658992008545 
-0.4571429785643544 -0.08294510179842961 0.510151053079215 
-0.1124948722819364 0 0.0907658992008545 
-0.4571429785643544 -0.08294510179842961 0.510151053079215 
-0.1124948722819364 0 0.0907658992008545 
-0.1124948722819364 0 0.0907658992008545 
-0.2402029075452054 -0.0600756816916778 0.2733773663002663 
-0.2435149110212118 -0.0600756816916778 0.2876548415214217 
-0.06429094890906438 0 0.04718411632497103 
-0.02375211442559889 0 0.01971775134827991 
-0.02375211442559889 0 0.01971775134827991 
-0.02375211442559889 0 0.01971775134827991 
0.0698975870475694 -0.05847373211347064 -0.002646107877884891 
0 0 0 
0 0 0 
0 0 0 
0 0 0 
0.03442838782801295 -0.04204087427463435 0 
0.0202487695988194 -0.02089425381786076 0 
0 0 0 
0.04515678445903829 -0.035456198023765 -0.009368478293172935 
0 0 0 
0.03460847502359954 -0.0255181399193472 -0.009368478293172933 
0.01417961822919356 -0.02114662045677358 0 
0.01417961822919356 -0.02114662045677358 0 
0 0 0 
0 0 0 
0 0 0 
-4.336808689942018e-19 0 0 
-4.336808689942018e-19 0 0 
0.04115760183789983 -0.03894061550436204 -0.006827922312356779 
0.04115760183789983 -0.03894061550436204 -0.006827922312356779 
0.04115760183789983 -0.03894061550436204 -0.006827922312356779 
0.0110461244785988 -0.01445629641982913 0 
0.0110461244785988 -0.01445629641982913 0 
0.0110461244785988 -0.01445629641982913 0 
0.0110461244785988 -0.01445629641982913 0 
0.0110461244785988 -0.01445629641982913 0 
0.0126151697408256 -0.00194242751488478 -0.01507982502575675 
0.0126151697408256 -0.00194242751488478 -0.01507982502575675 
0.002270681086838188 0 -0.02124487595965084 
0.002270681086838187 0 -0.01397778738951684 
0.002270681086838187 0 -0.01397778738951684 
0.002270681086838187 0 -0.01397778738951684 
0.002270681086838187 0 -0.01397778738951684 
0.01847599490229803 -0.01364816377512369 0 
0 0 0 
0 0 0 
0 0 0 
0 0 0 
0 0 0 
0 0 0 
0 0 0 
0 0 0 
0 0 0 
0.007091193597153856 -0.001795734818616178 -0.0002070471670083929 
0.007091193597153856 -0.001795734818616178 -0.0002070471670083929 
0.007091193597153856 -0.001795734818616178 -0.0002070471670083929 
0.007091193597153856 -0.001795734818616178 -0.0002070471670083929 
0.02539433279321695 -0.02591224285803103 0 
0.02539433279321695 -0.02591224285803103 0 
0.09529191984078635 -0.0843859749715017 -0.002646107877884891 
0.02539433279321695 -0.02591224285803103 0 
0 0 0 
0 0 0 
0.02207606884372667 -0.004474780706395239 0 
-0.1693969260540966 0.1865948775202848 0 
0 0 0 
0 0 0 
0 0 0 
0 0 0 
0 0 0 
0 0 0 
0.0150052187596207 -0.01404562363282822 -0.001342084021911072 
0.0150052187596207 -0.01404562363282822 -0.001342084021911072 
0.0150052187596207 -0.01404562363282822 -0.001342084021911072 
0.0150052187596207 -0.01404562363282822 -0.001342084021911072 
0.0150052187596207 -0.01404562363282822 -0.001342084021911072 
-0.1914729948978232 0.19106965822668 0 
-0.1914729948978232 0.19106965822668 0 
-0.1914729948978232 0.19106965822668 0 
-0.1914729948978232 0.19106965822668 0 
0 0 0 
0 0 0 
0 0 0 
0 0 -0.007492554253014447 
0 0 -0.007492554253014447 
0 0 -0.007492554253014447 
0 0 -0.007492554253014447 
0 0 -0.007492554253014447 
0 0 0 
0 0 0 
0 0 0 
0 0 0 
0 0 0 
0 0 -0.0004200137078324181 
0 0 0 
0 0 0 
0 0 0 
0 0 0 
0 0 0 
-0.2145121201582758 0.2170885298630063 0 
-0.2145121201582758 0.2170885298630063 0 
-0.2145121201582758 0.2170885298630063 0 
-0.2145121201582758 0.2170885298630063 0 
-0.2145121201582758 0.2170885298630063 0 
0 0 0 
0 0 0 
0.01847599490229803 -0.01364816377512369 0 
0.01847599490229803 -0.01364816377512369 0 
0.01847599490229803 -0.01364816377512369 0 
0.01847599490229803 -0.01364816377512369 0 
0 0 0 
0 0 0 
0.03460847502359954 -0.0255181399193472 -0.009368478293172933 
0.03460847502359954 -0.0255181399193472 -0.009368478293172933 
0.03460847502359954 -0.0255181399193472 -0.009368478293172933 
0.02269194906179313 -0.02289220200311782 -0.01271581317606572 
0.09258953610936255 -0.08136593411658848 -0.01536192105395061 
0.02269194906179313 -0.02289220200311782 -0.01271581317606572 
0.02269194906179313 -0.02289220200311782 -0.01271581317606572 
0.09258953610936255 -0.08136593411658848 -0.01536192105395061 
0.02269194906179313 -0.02289220200311782 -0.01271581317606572 
0.0243093107448509 -0.02578987438518913 0 
0.0243093107448509 -0.02578987438518913 0 
-0.06329316636424542 0 0.04804094912530353 
-0.06329316636424542 0 0.04804094912530353 
0 0 0 
0 0 0 
0 0 0 
0 0 0 
0 0 0 
0 0 0 
0 0 0 
0 0 0 
0 0 0 
0 0 0 
0 0 0 
0 0 0 
0 0 0 
0 0 0 
0.006568337136469343 -0.00226408090433691 0 
0.006568337136469343 -0.00226408090433691 -0.01460444051940347 
0.006568337136469343 -0.00226408090433691 0 
0.006568337136469343 -0.00226408090433691 0 
0.006568337136469343 -0.00226408090433691 -0.01460444051940347 
0.006568337136469343 -0.00226408090433691 0 
0 0 -0.01460444051940347 
0 0 -0.01460444051940347 
0 0 0 
0 0 0 
0 0 0 
0.02568877009826426 -0.02981814369497697 0 
0.02568877009826426 -0.02981814369497697 0 
0.02568877009826426 -0.02981814369497697 0 
0 0 0 
0 0 0 
0.001490931076700657 0 0 
0.001490931076700657 0 0 
0.001515551542569011 0 0 
0 -0.0007309739676155151 0 
0.0323192594851735 -0.001070374075744614 -0.03470991199491601 
0.00259027957477653 -0.004386829631652983 0 
0 -0.0007309739676155151 0 
0.003312003476006327 -0.0007309739676155151 -0.01427747522115565 
0 -0.0007309739676155151 0 
0 0 0 
0 0 0 
0 0 0 
0 0 0 
0 0 0 
0 0 0 
0 0 0 
0 0 0 
0 0 0 
0 -0.001486559697586121 0 
0 -0.001486559697586121 0 
0 -0.001486559697586121 0 
0 -0.002373879183187092 0 
0 -0.002373879183187092 0 
0 -0.002373879183187092 0 
0 -0.002373879183187092 0 
0.01171567380477514 -0.01237815093323836 -0.002053355452732461 
0.008183507726648664 -0.005016798722452344 0 
0.008183507726648664 -0.005016798722452344 0 
0.008183507726648664 -0.005016798722452344 0 
0 0 0 
0 0 0 
0 0 0 
0.01431167748650488 -0.02218088013649102 0 
0.01431167748650488 -0.02218088013649102 0 
0.01431167748650488 -0.02218088013649102 0 
0 0 0 
0 0 0 
0 0 0 
0 0 0 
0 0 0 
0 0 0 
0 0 0 
0 0 0 
0 0 0 
0 0 -0.0004200137078324181 
0 0 0 
0 0 0 
0 0 0 
0 0 0 
0 0 0 
0 0 0 
0 0 0 
0 0 0 
0.007456290403096154 0 -0.02537882236919454 
0.007456290403096154 0 -0.02537882236919454 
0.007456290403096154 0 -0.02537882236919454 
0 0 -0.001060303247005336 
0 0 -0.001060303247005336 
-0.2121223992265554 0.2182978590078395 0 
-0.2121223992265554 0.2182978590078395 0 
-0.2121223992265554 0.2182978590078395 0 
-0.2121223992265554 0.2182978590078395 0 
-0.2121223992265554 0.2182978590078395 0 
-0.2121223992265554 0.2182978590078395 0 
-0.2121223992265554 0.2182978590078395 0 
-0.1345488765337892 0.1491147443094598 -0.01515867857671217 
-0.2105933932830284 0.2179702592347601 -0.01515867857671217 
-0.2105933932830284 0.2179702592347601 -0.01515867857671217 
-0.2105933932830284 0.2179702592347601 -0.01515867857671217 
-0.2105933932830284 0.2179702592347601 -0.01515867857671217 
-0.2105933932830284 0.2179702592347601 -0.01515867857671217 
0 0 0 
0 0 0 
-0.1900876611896674 0.1991354985687074 -0.006557130875645007 
-0.1900876611896674 0.1991354985687074 -0.006557130875645007 
-0.1900876611896674 0.1991354985687074 -0.006557130875645007 
-0.1900876611896674 0.1991354985687074 -0.006557130875645007 
-0.1900876611896674 0.1991354985687074 -0.006557130875645007 
-0.1900876611896674 0.1991354985687074 -0.006557130875645007 
0.01079936962308473 -0.0114464118804215 0 
0.01079936962308473 -0.0114464118804215 0 
0.01079936962308473 -0.0114464118804215 0 
0.01079936962308473 -0.0114464118804215 0 
0 0 0 
0 0 0 
0 0 0 
0 0 0 
0 0 0 
0 0 0 
0 0 0 
0 0 0 
0 0 0 
0 0 0 
0 0 0 
0 -0.0004267124196526336 0 
0 0 0 
0 -0.0004267124196526336 0 
0 0 0 
0.0001747143978691922 0 0 
0.0001747143978691922 0 0 
0.000174714397869192 0 0 
0.03855238874597907 -0.03400218227943379 0 
0 0 0 
0 0 0 
0 0 0 
0 0 0 
0 0 0 
0 -0.0004267124196526353 0 
0 0 -0.0009347479338485937 
0 0 -0.0009347479338485937 
0 0 -0.0009347479338485937 
0 0 -0.0009347479338485937 
0.003312003476006327 0 -0.01427747522115565 
0.003312003476006327 0 -0.01427747522115565 
0.03606547231067221 -0.01982184581454124 0 
0.03606547231067221 -0.01982184581454124 0 
0 0 0 
0 0 -0.007267088570134 
0 0 -0.007267088570134 
0 0 0 
0 0 0 
0 0 0 
0 0 0 
0 0 0 
0 0 0 
0 0 0 
0 0 0 
0 0 0 
0 0 0 
0 0 0 
0 0 0 
0 0 0 
0.0698975870475694 -0.05847373211347064 -0.002646107877884891 
0.0698975870475694 -0.05847373211347064 -0.002646107877884891 
0.01102158294632941 -0.004691856628067074 -0.00507981150504473 
0.01102158294632941 -0.004691856628067074 -0.00507981150504473 
0.01102158294632941 -0.004691856628067074 -0.00507981150504473 
0.01102158294632941 -0.004691856628067074 -0.00507981150504473 
0.007397643720826112 -0.01188165142122406 0 
0 0 0 
0 0 0 
0 0 0 
0 0 0 
0 0 0 
0 0 0 
0 0 0 
0 0 0 
0 0 0 
0 0 0 
0 0 0 
0.03855238874597907 -0.03400218227943379 0 
0.03855238874597907 -0.03400218227943379 0 
0.03855238874597907 -0.03400218227943379 0 
0.03855238874597907 -0.03400218227943379 0 
0 0 0 
0 0 0 
0 0 0 
0 0 0 
0 0 0 
0 0 0 
0 0 0 
0 0 0 
0.00509683849899456 -0.003726999410834803 0 
0.00509683849899456 -0.003726999410834803 0 
0.00509683849899456 -0.003726999410834803 0 
0.00509683849899456 -0.003726999410834803 0 
0.00509683849899456 -0.003726999410834803 0 
0 0 0 
0 0 0 
0 0 0 
0 0 0 
0 0 0 
0 0 0 
0 0 0 
0 0 0 
0 0 0 
0 0 0 
0 0 0 
0 0 0 
0 0 0 
0 0 0 
0.0216626324371629 -0.02085261680810703 0 
0 0 0 
0 0 0 
0 0 0 
0 0 0 
0 0 0 
0 0 0 
0 0 0 
0 0 0 
0 0 0 
0 0 0 
0 0 0 
0.03749212800326011 -0.03485333264586647 0 
0 0 0 
0.003133382519125812 0 -0.002965500322818929 
0 0 0 
0 0 0 
0 0 0 
0.02166263243716291 -0.02085261680810703 0 
0.02166263243716291 -0.02085261680810703 0 
0.002513383552648644 -0.00549454065870116 0 
0 0 0 
0 0 0 
0 0 0 
0 0 0 
0 0 0 
0 0 0 
0 0 0 
0 0 0 
0 0 0 
0 0 0 
0.002588371280582868 -0.004055898478836944 0 
0.002588371280582868 -0.004055898478836944 0 
0.002588371280582868 -0.004055898478836944 0 
0.002588371280582868 -0.004055898478836944 0 
0.002588371280582868 -0.004055898478836944 0 
0.03247287977770985 -0.0353562243784906 0 
0 0 0 
0 0 0 
0.007397643720826112 -0.01188165142122406 0 
0.007397643720826112 -0.01188165142122406 0 
0.007397643720826112 -0.01188165142122406 0 
0.00259027957477653 -0.003655855664037468 0 
0.00259027957477653 -0.003655855664037468 0 
0.00259027957477653 -0.003655855664037468 0 
0 0 0 
0 0 0 
0 0 0 
0 0 0 
0 0 0 
0.03453452678265055 -0.03504709622534553 0 
0.03453452678265055 -0.03504709622534553 0 
0.03453452678265055 -0.03504709622534553 0 
0 0 0 
0 0 0 
0 0 0 
0 0 0 
0 0 0 
0 0 0 
0 0 0 
0 0 0 
0 0 0 
0 0 0 
0 0 0 
0 0 0 
0 0 0 
0 0 0 
0 0 0 
0 0 0 
0 0 0 
0 0 0 
0 0 0 
0 0 0 
-0.1011331952612062 -0.02286942010675179 0.1317303123569389 
-0.0571610970270463 -0.01423470205216064 0.07484499515295864 
-0.0571610970270463 -0.01423470205216064 0.07484499515295864 
-0.04397209823415986 -0.008634718054591154 0.05688531720398025 
-0.04397209823415986 -0.008634718054591154 0.05688531720398025 
-0.04397209823415986 -0.008634718054591154 0.05688531720398025 
-0.04397209823415986 -0.008634718054591154 0.05688531720398025 
0 -0.0600756816916778 0.08115466982109722 
0.03176031721934337 -0.01592637562362219 -0.01037673092573719 
0.03176031721934337 -0.01592637562362219 -0.01037673092573719 
0.004231725890731997 -0.01074345796929289 0 
0.004231725890731997 -0.01074345796929289 0 
0.004231725890731997 -0.01074345796929289 0 
0.004231725890731997 -0.01074345796929289 0 
0.01054830943543875 -0.009938058104417793 0 
0.01054830943543875 -0.009938058104417793 0 
0.01054830943543875 -0.009938058104417793 0 
0.01054830943543875 -0.009938058104417793 0 
0 0 0 
0 0 0 
0 0 0 
0 0 0 
0 0 0 
0 0 0 
0 0 0 
0 0 0 
0 0 0 
0 0 0 
0 0 0 
0 0 0 
0.04149340030968189 -0.0131755060415396 -0.0276453112984283 
0.04149340030968189 -0.0131755060415396 -0.0276453112984283 
0.04149340030968189 -0.0131755060415396 -0.0276453112984283 
0.04149340030968189 -0.0131755060415396 -0.0276453112984283 
0 0 0 
0 0 0 
0 0 0 
0 0 0 
0.02900725600916717 -0.0003394001081290987 -0.02043243677376036 
0.02900725600916717 -0.0003394001081290987 -0.02043243677376036 
0.02900725600916717 -0.0003394001081290987 -0.02043243677376036 
0.02900725600916717 -0.0003394001081290987 -0.02043243677376036 
0 0 0 
0 0 0 
0.01636940537611114 -0.0164174615842775 -0.00272413316968633 
0 0 0 
0 0 0 
0 0 0 
0 0 0 
0 0 0 
0 0 0 
0 0 0 
0 0 0 
0 0 0 
0 0 0 
0 0 0 
0.003532166078126476 -0.007361352210786022 -0.002053355452732461 
0.003532166078126476 -0.007361352210786022 -0.002053355452732461 
0.003532166078126476 -0.007361352210786022 -0.002053355452732461 
0.003532166078126476 -0.007361352210786022 -0.002053355452732461 
0 0 0 
0 0 0 
0 0 0 
0.002816487214367345 0 0 
0.002816487214367345 0 0 
0.002816487214367345 0 0 
0 0 0 
0 0 0 
0 0 0 
0 0 0 
0 0 0 
0 0 0 
0 0 0 
0 0 0 
0 0 0 
0 0 0 
0 0 0 
0 0 0 
0 0 0 
0.003133382519125812 0 -0.002965500322818929 
