solver_type L2R_L2LOSS_SVC_DUAL
nr_class 5
label 1 2 3 4 5
nr_feature 401
bias -1
w
0.002630388942252101 0 -0.0123406900405985 -0.001232524257428792 -0.003502271049066548 
0.03247215933404797 -0.01980616635791256 -0.02093281661840314 -0.0235403914300565 -0.02771232112131725 
0.11188378126354 -0.2597033585457008 -0.2482192783902149 -0.1589967106439862 -0.2123719090073628 
0.3165232107635327 -0.07306163189408632 -0.1728533470408004 -0.1617280713074162 -0.04914214599422315 
0 0 0 0 0 
0 0 0 0 0 
0 -0.003926804221621906 0 -0.008719516201992777 -0.0002310271857045849 
0.2757017712456671 -0.07306163189408632 -0.1704846157697115 -0.1360247521126436 -0.04914214599422315 
0 0 0 0 0 
0.11188378126354 -0.2597033585457008 -0.2482192783902149 -0.1589967106439862 -0.2123719090073628 
0.09370651491593339 -0.1284089103518162 -0.148456835849869 -0.2234368261332886 -0.22661301398536 
-0.003760279166301371 -0.132351417621262 -0.06431742429804309 -0.02104652182075952 -0.1927919695007713 
0 0 0 0 0 
0.04082143951786561 0 -0.002368731271088922 -0.02570331919477261 0 
0.09860322622828666 -0.01636523481459643 -0.03120143630552386 -0.05711912625782942 -0.02846961769767024 
0.04082143951786561 0 -0.002368731271088922 -0.02570331919477261 0 
0.04082143951786561 0 -0.002368731271088922 -0.02570331919477261 0 
0.04082143951786561 0 -0.002368731271088922 -0.02570331919477261 0 
0.04082143951786561 0 -0.002368731271088922 -0.02570331919477261 0 
0.04082143951786561 0 -0.002368731271088922 -0.02570331919477261 0 
-0.1403037858556755 -0.06946082931975096 0.007723743892063526 0.1257927739572434 -0.0641611833031607 
0.1367214644202126 -0.1316655255073562 -0.08400485158015177 -0.1765520122649328 -0.03147473221368229 
0 0 0 0 0 
0.04041241636587506 -0.01883301181897 -0.02944659619482381 -0.005600893376219102 -0.0196080695553783 
0.03686234630603445 -0.02078142862673796 -0.0007361370306577038 8.673617379884035e-19 0 
0 0 0 0 0 
0 0 0 0 0 
0.03686234630603445 -0.02078142862673796 -0.0007361370306577038 8.673617379884035e-19 0 
0.04041241636587506 -0.02121306964440591 -0.03729006743206001 -0.01828909255013188 -0.0309681784735727 
0.1434240204582373 -0.04234150415029513 -0.08902804684797481 -0.0447445648297346 -0.0199357194006932 
0.05690632017218462 -0.09331579038154635 0.06529184519998611 -0.07803320981653065 -0.04185757117900586 
0.03798647786453608 -0.02121306964440591 -0.03663146289163277 -0.014859194399191 -0.03096817847357271 
0 -0.007894693306272557 0 -0.0159728546129483 -0.006742448832411673 
0 -0.007894693306272557 0 -0.0159728546129483 -0.006742448832411673 
0.06041624416056727 -0.01182149752789446 -0.02870757418254937 -0.03274076330496498 -0.01013881711553995 
0 -0.007894693306272557 0 -0.0159728546129483 -0.006742448832411673 
0 -0.007894693306272557 0 -0.0159728546129483 -0.006742448832411673 
0.03637152128873204 -0.01182149752789446 -0.02263163461010107 -0.02469237081494108 -0.00739782548632193 
0 -0.007894693306272557 0 -0.0159728546129483 -0.006742448832411673 
0.03637152128873205 0 -0.02263163461010107 0 0 
-0.1041549131279414 -0.009864008787893135 0.1564790219075378 -0.0159708346481816 0 
0.03637152128873205 0 -0.02263163461010107 0 0 
-0.1041549131279414 -0.009864008787893135 0.1564790219075378 -0.0159708346481816 0 
0 -0.002380057825435912 -0.007843471237236201 -0.01268819917391277 -0.01136010891819441 
0.1126334521038095 -0.04234150415029513 -0.04648880997388699 -0.04474456482973461 -0.0199357194006932 
0.1606548869331467 -0.05280460016547533 -0.06899848004773405 -0.09058227349436357 -0.06832526582284508 
0.002630388942252101 -0.002380057825435912 -0.02018416127783471 -0.01392072343134157 -0.01486237996726095 
0 -0.002380057825435912 -0.007843471237236201 -0.01268819917391277 -0.01136010891819441 
0.03132607716173198 -0.02101547515588931 -0.02166988932309322 -0.02612795042263947 -0.01643344835162665 
0.1606548869331467 -0.05280460016547533 -0.06899848004773405 -0.09058227349436357 -0.06832526582284508 
0 -0.002380057825435912 -0.007843471237236201 -0.01268819917391277 -0.01136010891819441 
0.03609742209742416 0 -0.001018275280002961 -0.004008751444149797 0 
0.03609742209742416 0 -0.001018275280002961 -0.004008751444149797 0 
0.06194825449536469 -0.0194491021947366 -0.001018275280002968 -0.01827514030145249 -0.006588944672672885 
0.03609742209742416 0 -0.001018275280002961 -0.004008751444149797 0 
0.03609742209742416 0 -0.001018275280002961 -0.004008751444149797 0 
0.03609742209742416 0 -0.001018275280002961 -0.004008751444149797 0 
0.05794733280023221 0 -0.02435602926185638 -0.02455042384071702 0 
0.06359906971742553 -0.01133518704781914 -0.03422921397528098 -0.02949442308996586 -0.007946322935650677 
0.02738853066758808 0 -0.02435602926185638 0 0 
0.02738853066758808 -0.01133518704781914 -0.02435602926185638 -0.02418366342167477 -0.007946322935650677 
0.03247215933404796 -0.01587936213629066 -0.02093281661840314 -0.01482087522806371 -0.02748129393561267 
0.1855578187363519 -0.0382821140137066 -0.09340890260782025 -0.06823704634760863 -0.03370357713579909 
0.03247215933404796 -0.01587936213629066 -0.02093281661840314 -0.01482087522806371 -0.02748129393561267 
0.03247215933404796 -0.01587936213629066 -0.02093281661840314 -0.01482087522806371 -0.02748129393561267 
0 0 0 -0.004357226853953102 0 
-0.1336837337724493 0.175239945762566 -0.02433566018783404 -0.01520401791573226 0 
-0.1426216895744798 0.196021374389304 -0.02433566018783404 -0.01520401791573226 0 
-0.1426216895744798 0.196021374389304 -0.02433566018783404 -0.01520401791573226 0 
-0.1426216895744798 0.196021374389304 -0.02433566018783404 -0.01520401791573226 0 
-0.1426216895744798 0.196021374389304 -0.02433566018783404 -0.01520401791573226 0 
-0.1426216895744798 0.196021374389304 -0.02433566018783404 -0.01520401791573226 0 
-0.1426216895744798 0.196021374389304 -0.02433566018783404 -0.01520401791573226 0 
-0.1426216895744798 0.196021374389304 -0.02433566018783404 -0.01520401791573226 0 
-0.1838767632350481 0.1237210591636469 0.1181646057903587 -0.04506276475158742 -0.02192185177831267 
-0.02692749573251805 0.1366108258697082 -0.05064030888388635 -0.04291015802176165 -0.01166228410610512 
0.1063255305626612 -0.03142346065957564 -0.06558765593268326 -0.06172790055137194 -0.03958515170840753 
0.08914812022147077 -0.01979262309096598 -0.04649636987080768 -0.04848780539446138 -0.01163529608797263 
0.08914812022147077 -0.01979262309096598 -0.04649636987080768 -0.04848780539446138 -0.01163529608797263 
0.08914812022147077 -0.01979262309096598 -0.04649636987080768 -0.04848780539446138 -0.01163529608797263 
0.08914812022147077 -0.01979262309096598 -0.04649636987080768 -0.04848780539446138 -0.01163529608797263 
0.08914812022147077 -0.01979262309096598 -0.04649636987080768 -0.04848780539446138 -0.01163529608797263 
0.08102884404040428 -0.07496230669578614 0.02978688010661447 -0.1129234382593571 -0.05699799188243791 
-0.1789039825385031 -0.02048240966862539 0.2029076699618341 -0.02188470363373996 -0.002313782222934364 
-0.02775270352555609 -0.02140393439342062 0.07786496727487843 -0.04134681705315665 -0.01396826091345806 
-0.1789039825385031 -0.02048240966862539 0.2029076699618341 -0.02188470363373996 -0.002313782222934364 
-0.1789039825385031 -0.02048240966862539 0.2029076699618341 -0.02188470363373996 -0.002313782222934364 
-0.1789039825385031 -0.02048240966862539 0.2029076699618341 -0.02188470363373996 -0.002313782222934364 
-0.07832944302238597 -0.02140393439342062 0.09928803681378713 -0.02188470363373997 -0.006461698005710175 
-0.1789039825385031 -0.02048240966862539 0.2029076699618341 -0.02188470363373996 -0.002313782222934364 
-0.1789039825385031 -0.02048240966862539 0.2029076699618341 -0.02188470363373996 -0.002313782222934364 
0.03798647786453608 -0.01883301181897 -0.02878799165439659 -0.002170995225278224 -0.0196080695553783 
0 0 0 0 0 
0.03798647786453608 -0.01883301181897 -0.02878799165439659 -0.002170995225278224 -0.0196080695553783 
0.03798647786453608 -0.01883301181897 -0.02878799165439659 -0.002170995225278224 -0.0196080695553783 
0 0 0 0 0 
0.05057673949682987 -0.01133518704781915 -0.02142306953890871 -0.03573664449131352 -0.01545288584339855 
0.05057673949682986 0 -0.02142306953890872 -0.01946211341941671 -0.007506562907747882 
0.05057673949682986 0 -0.02142306953890872 -0.01946211341941671 -0.007506562907747882 
0.1549990166037078 -0.03828211401370661 -0.09340890260782028 -0.03932939565293848 -0.03370357713579909 
0.02118936713178892 0 -0.006075939572448311 -0.008048392490023901 -0.002740991629218018 
0.04724573106451808 -0.005492034053573851 -0.01797699788002263 -0.03471552302350141 0 
0.002425938501338978 0 -0.0006586045404272213 -0.003429898150940879 0 
0.002425938501338978 0 -0.0006586045404272213 -0.003429898150940879 0 
0.002425938501338978 0 -0.0006586045404272213 -0.003429898150940879 0 
0.002425938501338978 0 -0.0006586045404272213 -0.003429898150940879 0 
0.06702865046320396 -0.01879416714962812 -0.0361142311368016 -0.04411927344499983 -0.01121253803255653 
0.06702865046320396 -0.01486736292800622 -0.0361142311368016 -0.03539975724300706 -0.01098151084685195 
0.06702865046320396 -0.01486736292800622 -0.0361142311368016 -0.03539975724300706 -0.01098151084685195 
0.09465666406949459 -0.0230564363675851 -0.05227318753333857 -0.05651458282390939 -0.01405664746780977 
0.06702865046320396 -0.01486736292800622 -0.0361142311368016 -0.03539975724300706 -0.01098151084685195 
0.06702865046320396 -0.01486736292800622 -0.0361142311368016 -0.03539975724300706 -0.01098151084685195 
0.06702865046320396 -0.01486736292800622 -0.0361142311368016 -0.03539975724300706 -0.01098151084685195 
0.06702865046320396 -0.01486736292800622 -0.0361142311368016 -0.03539975724300706 -0.01098151084685195 
0.007368459988634442 0 0 0 0 
0.007368459988634442 0 0 0 0 
0.0648374229270513 -0.01679134476676857 -0.02067209897503568 -0.03658404669566116 -0.02760961182690332 
0.007368459988634442 0 0 0 0 
0.007368459988634442 0 0 0 0 
0.007368459988634442 0 0 0 0 
0 0 0 0 0 
0.03461847621413144 -0.0009847942542680925 0 -0.04096991414006763 0 
0 0 0 0 0 
0 0 0 0 0 
0 0 0 0 0 
0 0 0 0 0 
0.0171774103411904 -0.01163083756860967 -0.01597559803010602 -0.007909132349777945 -0.02794985562043491 
0.03796885645345914 -0.02078142862673796 -0.01479011307402311 -0.007896965327943666 -0.0006011095472709208 
0 0 0 0 0 
0.008937955802030485 -0.02078142862673796 0 8.673617379884035e-19 -0.00031825864348621 
-0.1313869329225651 0 0.1795093379741186 -0.04186391836474201 -0.006446896452550021 
-0.1313869329225651 0 0.1795093379741186 -0.04186391836474201 -0.006446896452550021 
-0.1679367901362817 -0.01078553351268836 0.2368171537314792 -0.0578347530129236 -0.01059481223532583 
-0.1313869329225651 0 0.1795093379741186 -0.04186391836474201 -0.006446896452550021 
-0.1313869329225651 0 0.1795093379741186 -0.04186391836474201 -0.006446896452550021 
-0.1313869329225651 0 0.1795093379741186 -0.04186391836474201 -0.006446896452550021 
-0.2993018980068267 -0.009864008787893137 0.3829760237536138 -0.0578347530129236 -0.006446896452550021 
-0.1313869329225651 0 0.1795093379741186 -0.04186391836474201 -0.006446896452550021 
0.03988635725306407 -0.01165886474365583 -0.01914118171904944 -0.005803047976836968 0 
0.03988635725306407 -0.01721292498344863 -0.01914118171904944 -0.02255682660939625 -0.007233948344986464 
-0.01175727994538028 -0.02837236146190237 -0.03136831031059237 0.03945951277170748 -0.01137679964802948 
0.03988635725306407 -0.01165886474365583 -0.01914118171904944 -0.005803047976836968 0 
0.03988635725306407 -0.01721292498344863 -0.01914118171904944 -0.02255682660939625 -0.007233948344986464 
0.03988635725306408 -0.01165886474365583 -0.01914118171904944 -0.005803047976836968 -0.003116835689341394 
0 0 0 0 0 
0 0 0 0 0 
0.03079056835442785 0 -0.04253923687408777 4.336808689942018e-19 0 
0 0 0 0 0 
0 0 0 0 0 
0 0 0 0 0 
0.0171774103411904 -0.01163083756860967 -0.01597559803010602 -0.007909132349777949 -0.02794985562043491 
0.0171774103411904 -0.01163083756860967 -0.01909128606187559 -0.01324009515691054 -0.02794985562043491 
0.05778178671042103 -0.01636523481459643 -0.02883270503443493 -0.03141580706305681 -0.04052136598366232 
0 -0.01000427472912284 0 -0.01926475027261066 -0.006929290825668626 
0 0 0 0 0 
0 0 0 0 0 
0 0 0 0 0 
0 0 0 0 -0.003116835689341392 
0 0 0 0 -0.003541185157547066 
0 0 0 0 -0.003116835689341392 
0 0 0 0 -0.003541185157547066 
0.04768856512682332 -0.02132602899440584 -0.01559391864196483 -0.005330962807132592 0 
0 0 0 0 0 
0 0 0 0 0 
0 0 0 0 0 
0.03247215933404796 -0.01587936213629066 -0.02093281661840314 -0.01482087522806371 -0.02748129393561267 
0 0 0 0 0 
0.03247215933404796 -0.01587936213629066 -0.02093281661840314 -0.01482087522806371 -0.02748129393561267 
-0.07126246668844415 -0.01259259286825632 -0.01222712859154293 0.0752221176102696 -0.008259963958688088 
-0.3627477215344542 -0.04553820894029614 -0.0720646046858513 0.4322490525758167 -0.042450758899143 
-0.2643916733977641 -0.03551956341763834 -0.06212337633176106 0.3110901306675251 -0.0231294211115162 
-0.07126246668844415 -0.01259259286825632 -0.01222712859154293 0.0752221176102696 -0.008259963958688088 
-0.07126246668844415 -0.01259259286825632 -0.01222712859154293 0.0752221176102696 -0.008259963958688088 
-0.3627477215344542 -0.04553820894029614 -0.0720646046858513 0.4322490525758167 -0.042450758899143 
-0.07126246668844415 -0.01259259286825632 -0.01222712859154293 0.0752221176102696 -0.008259963958688088 
0.1300826076293047 -0.01981991100818855 -0.07366381316597746 -0.04763640830240971 -0.03206740272467896 
0.0171774103411904 -0.01163083756860967 -0.01597559803010602 0 -0.02826811426392113 
0.1300826076293047 -0.01981991100818855 -0.07366381316597746 -0.04763640830240971 -0.03206740272467896 
0.0171774103411904 -0.01163083756860967 -0.01597559803010602 0 -0.02794985562043492 
-0.08403264171383744 -0.01863866538353588 -0.0177416561846757 0.09206847304859145 -0.01167706862056651 
-0.1103591934489094 -0.01863866538353588 -0.03458803186630855 0.1325537093628524 -0.01167706862056651 
-0.08403264171383744 -0.01863866538353588 -0.0177416561846757 0.09206847304859145 -0.01167706862056651 
-0.08403264171383744 -0.01863866538353588 -0.0177416561846757 0.09206847304859145 -0.01167706862056651 
-0.1103591934489094 -0.01863866538353588 -0.03458803186630855 0.1325537093628524 -0.01167706862056651 
-0.08403264171383744 -0.01863866538353588 -0.0177416561846757 0.09206847304859145 -0.01167706862056651 
-0.02632655173507199 0 -0.01684637568163285 0.04048523631426092 0 
-0.128403139897686 -0.0069083273828706 -0.03479861219924924 0.1601744078725294 0 
-0.02632655173507199 0 -0.01684637568163285 0.04048523631426092 0 
-0.128403139897686 -0.0069083273828706 -0.03479861219924924 0.1601744078725294 0 
0.01583688187049258 0 -0.0007361370306577038 0 0 
-0.1520780832137689 -0.009864008787893137 0.2027305487488376 -0.0159708346481816 0 
0.01583688187049258 0 -0.0007361370306577038 0 0 
0.01583688187049258 0 -0.0007361370306577038 0 0 
-0.07904947323448668 -0.007398623305633329 -0.00729720771038341 0.1047840540444264 -0.02251372631988841 
-0.07904947323448668 -0.007398623305633329 -0.00729720771038341 0.1047840540444264 -0.02251372631988841 
-0.1077634149651369 -0.01430695068850393 -0.02504857420224064 0.1328117609536662 -0.02251372631988841 
-0.07904947323448668 -0.007398623305633329 -0.00729720771038341 0.1047840540444264 -0.02251372631988841 
-0.07904947323448668 -0.007398623305633329 -0.00729720771038341 0.1047840540444264 -0.02251372631988841 
-0.07904947323448668 -0.007398623305633329 -0.00729720771038341 0.1047840540444264 -0.02251372631988841 
-0.05585136052739125 -0.0670813317359225 -0.08020118172405173 -0.01483090220081225 0.07641914990686455 
0.007961112084689855 -0.004120903849990223 0 -0.01432301532145214 0 
0.1881221783452555 -0.04503182349907746 -0.07283140395469043 -0.1344827668925435 -0.01944855143354455 
0.007961112084689855 -0.004120903849990223 0 -0.01432301532145214 0 
0.1567961011835234 -0.02639640616862408 -0.05588929783706383 -0.1157120528366842 -0.01437521200011232 
0.007961112084689855 -0.004120903849990223 0 -0.01432301532145214 0 
0 0 0 0 0 
0 0 0 0 0 
0 0 0 0 0 
0 0 0 0 0 
0 0 0 0 0 
0.02533496843169169 0 -0.009873184713424601 -0.005310759668291096 -0.01205174828599207 
0.02533496843169169 0 -0.009873184713424599 -0.005310759668291093 0 
0.02533496843169169 0 -0.009873184713424599 -0.005310759668291093 0 
0.02533496843169169 0 -0.009873184713424599 -0.005310759668291093 0 
0.02533496843169169 0 -0.009873184713424599 -0.005310759668291093 0 
-0.09546990765173932 -0.01164366859617826 -0.02493102622657661 0.118471358071924 -0.007670552657293947 
-0.1931292067093202 -0.02292697054938202 -0.04989624774021812 0.2358680130572555 -0.01486945715282811 
-0.09546990765173932 -0.01164366859617826 -0.02493102622657661 0.118471358071924 -0.007670552657293947 
-0.09546990765173932 -0.01164366859617826 -0.02493102622657661 0.118471358071924 -0.007670552657293947 
-0.09546990765173932 -0.01164366859617826 -0.02493102622657661 0.118471358071924 -0.007670552657293947 
-0.1931292067093202 -0.02292697054938202 -0.04989624774021812 0.2358680130572555 -0.01486945715282811 
-0.09546990765173932 -0.01164366859617826 -0.02493102622657661 0.118471358071924 -0.007670552657293947 
0 0 0 0 -0.00031825864348621 
0 0 0 0 -0.00031825864348621 
0 0 0 0 -0.00031825864348621 
0.08130737494207745 -0.02132602899440584 -0.02481892065079377 -0.01861661440709511 -0.003502271049066548 
0.01082871915546594 0 0 0 0 
0.01082871915546594 0 0 0 0 
0.08130737494207745 -0.02132602899440584 -0.02481892065079377 -0.01861661440709511 -0.003502271049066548 
0.08130737494207745 -0.02132602899440584 -0.02481892065079377 -0.01861661440709511 -0.003502271049066548 
0.01082871915546594 0 0 0 0 
0.01082871915546594 0 0 0 0 
0.002630388942252101 0 -0.0123406900405985 -0.001232524257428792 -0.003502271049066548 
0.002630388942252101 0 -0.0123406900405985 -0.001232524257428792 -0.003502271049066548 
0.009251117169622793 0 0 -0.009515130013249004 0 
0.01165771740530994 0 0 -0.015636541540273 0 
0.009251117169622793 0 0 -0.009515130013249004 0 
0.04768856512682332 -0.02132602899440584 -0.01247823061019526 0 0 
0.04768856512682332 -0.02132602899440584 -0.01247823061019526 0 0 
0.04768856512682332 -0.02132602899440584 -0.01247823061019526 0 0 
0.005646628572179801 0 0 -0.001747548609393316 0 
0.005646628572179801 0 0 -0.001747548609393316 0 
0.005646628572179801 0 0 -0.001747548609393316 0 
0.005646628572179801 0 0 -0.001747548609393316 0 
0.05608816240249868 -0.01275545978638282 -0.005807586217903391 -0.01063989707414348 -0.01073883392893072 
0.07396647559935694 -0.02182200502656884 -0.03469077433359303 -0.05382263505274333 -0.004949387763092531 
0 0 0 0 0 
1.734723475976807e-18 0 0 0 0 
0.00240660023568714 0 0 -0.006121411527023999 0 
0.00240660023568714 0 0 -0.006121411527023999 0 
0 0 0 0 0 
0.002855355740046296 0 0 0 0 
0.002855355740046296 0 0 0 0 
0.002855355740046296 0 0 0 0 
0.02691016080577273 -0.01679134476676857 -0.02067209897503569 -0.01203362285494415 -0.02760961182690332 
0.02691016080577273 -0.01679134476676857 -0.02067209897503569 -0.01203362285494415 -0.02760961182690332 
0.02691016080577273 -0.01679134476676857 -0.02067209897503569 -0.01203362285494415 -0.02760961182690332 
0.02691016080577273 -0.01679134476676857 -0.02067209897503569 -0.01203362285494415 -0.02760961182690332 
0.02691016080577273 -0.01679134476676857 -0.02067209897503569 -0.01203362285494415 -0.02760961182690332 
-0.165515078216525 -0.01781034461429679 -0.02248282924120708 -0.03183130967869659 0.1890028531745639 
-0.165515078216525 -0.01781034461429679 -0.02248282924120708 -0.03183130967869659 0.1890028531745639 
-0.165515078216525 -0.01781034461429679 -0.02248282924120708 -0.03183130967869659 0.1890028531745639 
-0.165515078216525 -0.01781034461429679 -0.02248282924120708 -0.03183130967869659 0.1890028531745639 
-0.165515078216525 -0.01781034461429679 -0.02248282924120708 -0.03183130967869659 0.1890028531745639 
-0.165515078216525 -0.01781034461429679 -0.02248282924120708 -0.03183130967869659 0.1890028531745639 
-0.165515078216525 -0.01781034461429679 -0.02248282924120708 -0.03183130967869659 0.1890028531745639 
-0.165515078216525 -0.01781034461429679 -0.02248282924120708 -0.03183130967869659 0.1890028531745639 
0.1331603814062443 -0.02185726886817028 -0.04615109837403035 -0.08725185577633437 -0.02846961769767024 
0.0448197925631791 -0.005492034053573851 -0.01731839333959541 -0.03128562487256053 0 
0.0448197925631791 -0.005492034053573851 -0.01731839333959541 -0.03128562487256053 0 
0.1331603814062443 -0.02185726886817028 -0.04615109837403035 -0.08725185577633437 -0.02846961769767024 
0.0448197925631791 -0.005492034053573851 -0.01731839333959541 -0.03128562487256053 0 
0.02903090065142866 0 -0.01479011307402311 -0.007896965327943664 -0.0007072003719903841 
0 0 0 0 -0.0004243494682056734 
0 0 0 0 -0.01205174828599207 
0 0 0 0 -0.01205174828599207 
0 0 0 0 -0.01205174828599207 
0 0 1.734723475976807e-18 0 -0.01205174828599207 
0.02762801360629061 -0.008189073439578878 -0.01615895639653698 -0.02111482558090233 -0.003075136620957823 
0.02762801360629061 -0.008189073439578878 -0.01615895639653698 -0.02111482558090233 -0.003075136620957823 
0.07396647559935694 -0.02182200502656884 -0.03469077433359303 -0.05382263505274333 -0.004949387763092531 
0.02762801360629061 -0.008189073439578878 -0.01615895639653698 -0.02111482558090233 -0.003075136620957823 
0 0 0 0 0 
0 0 0 0 0 
0.03798647786453608 -0.01883301181897 -0.02878799165439659 -0.002170995225278224 -0.0196080695553783 
0.03798647786453608 -0.01883301181897 -0.02878799165439659 -0.002170995225278224 -0.0196080695553783 
-0.09765929905758086 -0.01128330195320376 -0.0249652215136415 0.1173966549853315 -0.007198904495534164 
-0.09765929905758086 -0.01128330195320376 -0.0249652215136415 0.1173966549853315 -0.007198904495534164 
-0.09765929905758086 -0.01128330195320376 -0.0249652215136415 0.1173966549853315 -0.007198904495534164 
-0.09765929905758086 -0.01128330195320376 -0.0249652215136415 0.1173966549853315 -0.007198904495534164 
-0.09765929905758086 -0.01128330195320376 -0.0249652215136415 0.1173966549853315 -0.007198904495534164 
0 0 0 -0.004357226853953102 0 
0 0 0 -0.004357226853953102 0 
0 0 0 -0.004357226853953102 0 
0 0 0 -0.004357226853953102 0 
0.07965708053542807 -0.01421061643652198 -0.02438749151170753 -0.05602679122469635 -0.0154162645839238 
0.07965708053542807 -0.01421061643652198 -0.02438749151170753 -0.05602679122469635 -0.0154162645839238 
0.1858578351835741 -0.04187236381599238 -0.05042114477246125 -0.08778364656654203 -0.07801822866181882 
0.07965708053542807 -0.01421061643652198 -0.02438749151170753 -0.05602679122469635 -0.0154162645839238 
0.07965708053542807 -0.01421061643652198 -0.02438749151170753 -0.05602679122469635 -0.0154162645839238 
0.1858578351835741 -0.04187236381599238 -0.05042114477246125 -0.08778364656654203 -0.07801822866181882 
-0.1679149650842615 -0.009864008787893137 0.2034666857794953 -0.0159708346481816 0 
-0.1679149650842615 -0.009864008787893137 0.2034666857794953 -0.0159708346481816 0 
-0.1679149650842615 -0.009864008787893137 0.2034666857794953 -0.0159708346481816 0 
0 0 0 0 0 
0 0 0 0 0 
0 0 0 0 0 
0.03055880213264415 0 0 -0.02455042384071702 0 
0.03055880213264415 0 0 -0.02455042384071702 0 
0.03055880213264415 0 0 -0.02455042384071702 0 
0.008937955802030485 -0.02078142862673796 0 0 0 
0.02938737236504095 0 -0.0153471299664604 -0.0114137209293928 -0.004765571278529863 
0.02938737236504095 0 -0.0153471299664604 -0.0114137209293928 -0.004765571278529863 
0.04633846199306631 -0.01363293158698996 -0.01853181793705606 -0.03270780947184099 -0.001874251142134708 
0.04633846199306631 -0.01363293158698996 -0.01853181793705606 -0.03270780947184099 -0.001874251142134708 
0.04633846199306631 -0.01363293158698996 -0.01853181793705606 -0.03270780947184099 -0.001874251142134708 
0.04633846199306631 -0.01363293158698996 -0.01853181793705606 -0.03270780947184099 -0.001874251142134708 
0.01087557061814578 0 0 0 0 
0.01087557061814578 0 0 0 0 
0.01087557061814578 0 0 0 0 
0.01087557061814578 0 0 0 0 
0.01087557061814578 0 0 0 0 
0.05778178671042103 -0.01636523481459643 -0.02883270503443493 -0.03141580706305681 -0.02846961769767024 
0.05778178671042103 -0.01636523481459643 -0.02883270503443493 -0.03141580706305681 -0.02846961769767024 
0.05778178671042103 -0.01636523481459643 -0.02883270503443493 -0.03141580706305681 -0.02846961769767024 
0.05778178671042103 -0.01636523481459643 -0.02883270503443493 -0.03141580706305681 -0.02846961769767024 
0.05608816240249868 -0.01275545978638282 -0.005807586217903391 -0.01063989707414349 -0.01073883392893072 
0.05608816240249868 -0.01275545978638282 -0.005807586217903391 -0.01063989707414349 -0.01073883392893072 
0.05608816240249868 -0.01275545978638282 -0.005807586217903391 -0.01063989707414349 -0.01073883392893072 
0 0 -0.003115688031769566 -0.005330962807132592 0 
0 0 -0.003115688031769566 -0.005330962807132592 0 
0 0 0 0 0 
0 0 0 0 0 
0 0 0 0 0 
0.02903090065142866 0 -0.01479011307402311 -0.007896965327943664 -0.0002828509037847108 
0.02903090065142866 0 -0.01479011307402311 -0.007896965327943664 -0.0002828509037847108 
0.02903090065142866 0 -0.01479011307402311 -0.007896965327943664 -0.0002828509037847108 
0.02903090065142866 0 -0.01479011307402311 -0.007896965327943664 -0.0002828509037847108 
-0.0733626464319638 0 -0.0002008700257591592 0.09166146464902866 0 
-0.0733626464319638 0 -0.0002008700257591592 0.09166146464902866 0 
-0.0733626464319638 0 -0.0002008700257591592 0.09166146464902866 0 
-0.0733626464319638 0 -0.0002008700257591592 0.09166146464902866 0 
0.03091131459870331 0 -0.01375027292011721 -0.007982894918140009 -0.0007595595795015292 
0.03091131459870331 0 -0.01375027292011721 -0.007982894918140009 -0.0007595595795015292 
0.03091131459870331 0 -0.01375027292011721 -0.007982894918140009 -0.0007595595795015292 
0.03091131459870331 0 -0.01375027292011721 -0.007982894918140009 -0.0007595595795015292 
0.03091131459870331 0 -0.01375027292011721 -0.007982894918140009 -0.0007595595795015292 
0.03091131459870331 0 -0.01375027292011721 -0.007982894918140009 -0.0007595595795015292 
0 -0.003926804221621906 0 -0.008719516201992777 -0.0002310271857045849 
0 0 0 0 0 
0 0 0 0 0 
0.1005745395161171 -0.01647985969371085 -0.1036196331480469 -0.03601852890516993 -0.0183111549534309 
0 -0.01000427472912284 0 -0.01926475027261066 -0.006929290825668626 
0 -0.01000427472912284 0 -0.01926475027261066 -0.006929290825668626 
0 -0.01000427472912284 0 -0.01926475027261066 -0.006929290825668626 
0 -0.01000427472912284 0 -0.01926475027261066 -0.006929290825668626 
0.1005745395161172 -0.000921524724795226 -0.1036196331480469 0 -0.004147915782775811 
0.1005745395161172 -0.000921524724795226 -0.1036196331480469 0 -0.004147915782775811 
0.03461847621413144 -0.0009847942542680925 0 -0.04096991414006763 0 
0.03461847621413144 -0.0009847942542680925 0 -0.04096991414006763 0 
0.03461847621413144 -0.0009847942542680925 0 -0.04096991414006763 0 
0.03461847621413144 -0.0009847942542680925 0 -0.04096991414006763 0 
0.03461847621413144 -0.0009847942542680925 0 -0.04096991414006763 0 
0 -0.01133518704781915 0 -0.01627453107189682 -0.007946322935650677 
0 -0.01133518704781915 0 -0.01627453107189682 -0.007946322935650677 
0 -0.01133518704781915 0 -0.01627453107189682 -0.007946322935650677 
0.1040151965356544 -0.01678346826506 -0.03857090449746842 -0.07010341264267157 -0.01437521200011232 
0.1040151965356544 -0.01678346826506 -0.03857090449746842 -0.07010341264267157 -0.01437521200011232 
0.1040151965356544 -0.01678346826506 -0.03857090449746842 -0.07010341264267157 -0.01437521200011232 
0.1040151965356544 -0.01678346826506 -0.03857090449746842 -0.07010341264267157 -0.01437521200011232 
0.03079056835442785 0 -0.04253923687408777 0 0 
0.03079056835442785 0 -0.04253923687408777 0 0 
0.03079056835442785 0 -0.04253923687408777 0 0 
0.03079056835442785 0 -0.04253923687408777 0 0 
0.05011259224564734 -0.0149062875930876 -0.02022606704285033 -0.02111695826770222 -0.05186313014896433 
0.05011259224564734 -0.0149062875930876 -0.02022606704285033 -0.02111695826770222 -0.05186313014896433 
0.05011259224564734 -0.0149062875930876 -0.02022606704285033 -0.02111695826770222 -0.05186313014896433 
0.05011259224564734 -0.0149062875930876 -0.02022606704285033 -0.02111695826770222 -0.05186313014896433 
0 -0.005554060239792791 0 -0.01675377863255927 -0.007233948344986463 
0 -0.005554060239792791 0 -0.01675377863255927 -0.007233948344986463 
0 -0.005554060239792791 0 -0.01675377863255927 -0.007233948344986463 
0.01208750863351137 0 0 0 0 
0.01208750863351137 0 0 0 0 
0 0 0 0 0 
0 0 0 0 0 
-0.02871394173065019 -0.0069083273828706 -0.01775136649185724 0.02802770690923976 0 
-0.02871394173065019 -0.0069083273828706 -0.01775136649185724 0.02802770690923976 0 
-0.02871394173065019 -0.0069083273828706 -0.01775136649185724 0.02802770690923976 0 
0.02585083239794054 -0.0194491021947366 0 -0.01426638885730269 -0.006588944672672885 
0.02585083239794054 -0.0194491021947366 0 -0.01426638885730269 -0.006588944672672885 
0.02585083239794054 -0.0194491021947366 0 -0.01426638885730269 -0.006588944672672885 
0.02585083239794054 -0.0194491021947366 0 -0.01426638885730269 -0.006588944672672885 
0.02585083239794054 -0.0194491021947366 0 -0.01426638885730269 -0.006588944672672885 
0.02585083239794054 -0.0194491021947366 0 -0.01426638885730269 -0.006588944672672885 
0 0 0 0 0 
0 0 0 0 0 
0.03132607716173198 -0.0186354173304534 -0.01382641808585702 -0.01343975124872669 -0.005073339433432243 
0.03132607716173198 -0.0186354173304534 -0.01382641808585702 -0.01343975124872669 -0.005073339433432243 
0.03132607716173198 -0.0186354173304534 -0.01382641808585702 -0.01343975124872669 -0.005073339433432243 
0.03132607716173198 -0.0186354173304534 -0.01382641808585702 -0.01343975124872669 -0.005073339433432243 
0.03132607716173198 -0.0186354173304534 -0.01382641808585702 -0.01343975124872669 -0.005073339433432243 
