solver_type L2R_L2LOSS_SVC_DUAL
nr_class 2
label 1 2
nr_feature 111
bias -1
w
0.1319876353305132 
0.04395440923963055 
0.03157760991277708 
0.1331589053902288 
0.1331589053902288 
0.04395440923963055 
0.04395440923963055 
0.1331589053902288 
0.1331589053902288 
0.03157760991277708 
0.19721228228367 
-0.05798876148636112 
-0.1436244443881775 
-0.1436244443881775 
-0.009550889438650623 
-0.05441994823757927 
-0.1436244443881775 
-0.1436244443881775 
-0.009550889438650623 
-0.1436244443881775 
-0.1436244443881775 
-0.04255931091917373 
-0.3340300609185052 
0.02349215063055798 
-0.04255931091917373 
-0.04255931091917373 
-0.3340300609185052 
-0.04255931091917373 
-0.04255931091917373 
-0.167079101906745 
-0.04255931091917373 
-0.04255931091917373 
-0.02201022798271541 
-0.06002384969786737 
-0.02201022798271541 
-0.02201022798271541 
-0.06002384969786737 
-0.02201022798271541 
-0.06002384969786737 
0.1205242033741507 
0.1867647299773059 
0.05447274182441893 
0.05447274182441893 
0.1205242033741507 
0.1867647299773059 
0.05447274182441893 
0.05447274182441893 
-0.03971168186512197 
-0.03971168186512197 
-0.08114058936571741 
-0.03971168186512197 
-0.03971168186512197 
-0.03971168186512197 
0.01701237683132356 
0.1239394861452165 
0.01701237683132356 
0.1239394861452165 
0.1239394861452165 
0.1239394861452165 
0.1239394861452165 
0.1239394861452165 
-0.0794425292157474 
-0.03801362171515194 
-0.0794425292157474 
-0.03801362171515194 
0.08920449615059826 
0.08920449615059826 
0.08920449615059826 
0.1340735549495269 
0.1340735549495269 
-0.02266423238417381 
0.1340735549495269 
0.1340735549495269 
0.1340735549495269 
0.09264464744893146 
0.08803322609088264 
0.08803322609088264 
0.08803322609088264 
0.08803322609088264 
0.08803322609088264 
0.08803322609088264 
0.08803322609088264 
-0.106927109313893 
-0.106927109313893 
-0.106927109313893 
-0.106927109313893 
-0.04337920162185391 
-0.04337920162185391 
-0.04337920162185391 
-0.04337920162185391 
-0.04337920162185391 
-0.04337920162185391 
0.06605146154973171 
0.06605146154973171 
0.06605146154973171 
0.06624052660315519 
0.06624052660315519 
0.06624052660315519 
0.06624052660315519 
0.06624052660315519 
0.06624052660315519 
-0.1567377873337007 
-0.1567377873337007 
-0.1567377873337007 
-0.1567377873337007 
-0.1567377873337007 
-0.1567377873337007 
-0.1567377873337007 
-0.04142890750059545 
-0.04142890750059545 
-0.04142890750059545 
