solver_type L2R_L2LOSS_SVC_DUAL
nr_class 5
label 1 2 3 4 5
nr_feature 1871
bias -1
w
0.01901499265122368 -0.005124575448937329 4.336808689942018e-18 0 0 
-0.2564023812934786 0.1660124002418017 0.1745634566320405 0 -0.007192540303305963 
0.386910212836279 -0.3527746374392546 -0.4193593676564961 -0.3014758777546653 -0.2814055798163708 
0.01999815617328063 -0.0885933070226641 -0.1752382959372965 0.0902794428595094 -0.03093611479495513 
0.02486701915918827 0.1064786029809323 -0.1153417904974533 -0.01486007982562937 -0.01875681435294058 
0.01901499265122366 -0.001719214195978369 1.734723475976807e-18 0 0 
0.01901499265122366 -0.001719214195978369 1.734723475976807e-18 0 0 
0.2715029973067934 -0.08530097183546435 -0.1714752613575689 -0.05114272778194355 -0.02968998793999552 
0.005520694584035308 -0.00171921419597837 0 0 0 
0.3770053882219368 -0.3479559247853089 -0.4193593676564961 -0.3014758777546653 -0.2814055798163708 
0.06341755282822918 -0.1687627775508846 -0.02316528163149514 -0.3096117097672048 -0.281405579816371 
-0.01467694457979793 -0.04722086449003868 -0.1021647043655348 -0.1181005907606597 -0.1080781421054965 
-0.1840450822347801 0.278163178709237 -0.1344880751123102 -0.005962229730522991 -0.005459796757454001 
0.009479095535084974 0.0129743768212855 -0.004032154315034995 -0.08107264480178879 -0.01814019547181823 
-0.610456625775292 0.679811273281592 -0.03771013480916405 -0.03543672383759326 -0.01520501645939667 
-0.04905745188922497 0.01926122528384396 -0.0002226604526657886 0 -0.00045359177426878 
-0.0842341165612258 0.0534804791595023 0 0 -0.00045359177426878 
-0.0842341165612258 0.0534804791595023 0 0 -0.00045359177426878 
-0.6837645718233594 0.7368840295642245 -0.02993779903232676 -0.03543672383759326 -0.01520501645939667 
-0.0842341165612258 0.0534804791595023 0 0 -0.00045359177426878 
0.08321756888321874 -2.602085213965211e-18 -0.05770675244850829 -0.002278925612475225 0 
0.1336903910462623 -0.06444056786575707 -0.09980335172895312 -0.001075944871919712 -0.005337964963359078 
0 0 0 0 0 
-4.336808689942018e-19 0 0 0 0 
0.1305809431497991 -0.0431152220695757 -0.09980335172895309 0 -0.005337964963359078 
0 0 0 0 0 
0.0997178905825431 -0.2712107737414405 0.01643235830560895 -0.09409819363764682 -0.0840670932554352 
-0.2198406290797435 0.05549057200460961 0.1884281433636279 -0.00760808870396391 -0.02187033927144253 
0.09684591769792078 -0.02629609459924853 -0.05925693849659421 0 -0.005709896419609227 
0.02792566123693065 -0.01025264738047362 -0.01066401835623829 0 -0.003067123135186967 
0.1273264400767208 -0.05789458490157749 -0.08954953928493707 0 -0.003067123135186967 
0.05780512757090821 -0.01025264738047363 -0.03014184161740079 0 -0.005498144812347815 
0.02792566123693065 -0.01025264738047362 -0.01066401835623828 0 -0.003067123135186967 
0.02792566123693065 -0.01025264738047362 -0.01066401835623829 0 -0.003067123135186967 
0.02792566123693065 -0.01025264738047362 -0.01066401835623829 0 -0.003067123135186967 
0.002381789136532031 -0.01946522275461853 -2.602085213965211e-18 0 -0.01460398115017107 
0.1321885234221117 -0.07523802523229557 -0.08724297459404963 -0.001303486006210851 0 
0.1213831716860667 -0.0341065776159246 -0.1932614741382456 -0.06551072919050341 -0.0264290847935521 
0.1582649857054662 -0.05596907343071306 -0.02689052849749005 -0.0528375822682028 -0.009074783011054124 
0 0 0 0 0 
0 0 0 -0.001303486006210851 0 
0.1213831716860667 -0.0341065776159246 -0.1467832181174737 -0.0592313895658431 -0.0264290847935521 
0.0703242465108795 0 -8.673617379884035e-19 -0.05227976047292877 0 
-1.734723475976807e-18 -0.01439177418154619 -0.03076523857793687 0 0 
-0.0559372139461794 -0.06212311174770394 0.1083393916272309 -8.673617379884035e-19 0 
-1.734723475976807e-18 0 -0.01538261928896843 0 0 
0 0 -0.01538261928896843 0 0 
0 0 -0.01538261928896843 0 0 
0.09748649615063845 -0.006080736973684457 -0.1122250847447546 0 0 
-1.734723475976807e-18 0 -0.01538261928896843 0 0 
0.09408179725766493 -0.04418487309641052 -0.06644307195096658 0 -0.004101178212532249 
0.04675833460354433 -0.006080736973684457 -0.03468664747165547 0 0 
0.04675833460354433 -0.006080736973684457 -0.03468664747165547 0 0 
0.04675833460354433 -0.006080736973684457 -0.03468664747165547 0 0 
0.006584562463624592 -0.006080736973684457 0 0 0 
0.006584562463624592 -0.006080736973684457 0 0 0 
-0.1689895713401992 0.2250453028806454 -0.02011233265957037 -0.07347357462650826 -0.05318267371327327 
-0.2129568130294222 0 0.2083783426056665 0 0 
0.04017377213991973 0 -0.03468664747165548 0 0 
0.04524216336976038 -0.003292335187199762 0 -0.1042873488586501 -0.002292108135890854 
0.04524216336976038 -0.003292335187199759 0 -0.1042873488586501 -0.002292108135890854 
0.1414255808751371 -0.1486785289565192 -0.04859643568768829 -0.006891414745543998 -0.0203863225425707 
0 0 0 0 -0.004721333849004085 
0.04524216336976038 -0.003292335187199759 0 -0.1042873488586501 -0.002292108135890854 
0.04524216336976038 -0.003292335187199759 0 -0.1042873488586501 -0.002292108135890854 
0.1247335643521954 -0.1127075993797954 -0.04859643568768829 -0.006891414745543998 -0.0203863225425707 
0 0 0 0 -0.004721333849004085 
-0.1093694086383973 -0.06869912029848975 0.09025591238604411 -0.06426939075728551 0.06862236475343285 
0.1878253326547307 0.008233996730993251 -0.1018026273377693 -0.0500665340206441 -0.04110150538239012 
0.06373393121322259 0 -0.07918758146187646 -0.008767806746989537 -0.006849569210579035 
0.02222587801473942 -0.01512155854260551 -8.673617379884035e-19 -0.01692520123413817 -0.003467829459016225 
0 0 0 0 0 
0 0 0 0 0 
-1.734723475976807e-18 -0.005339249657921286 0 -0.01692520123413817 0 
0 0 0 0 0 
-0.1324597550549574 0.05159530674272167 0.1137551845497916 -0.02440921714153408 -0.03150815043966106 
-0.02786422543402824 -0.05855336259691146 0.113382908577177 -0.006351863536162053 -0.00423174927422681 
0.1145834817842169 -0.02496570286593616 -0.07896559910805247 -0.01315517211473555 -0.003675352568072833 
0 0 0 0 0 
0 0 0 0 0 
0.1037519614270365 -0.02496570286593617 -0.07896559910805251 -0.008135832012539559 -0.002857691357023391 
0 0 0 0 0 
0 0 0 0 0 
0.09855877115179519 -0.08226686214105328 -0.005805233144697825 -0.01695624986574929 0 
0 0 0 0 0 
0.09855877115179519 -0.08226686214105328 -0.005805233144697825 -0.01695624986574929 0 
0 0 0 0 0 
0.03614072249622205 0 -0.06521179479687027 0 -0.01377583958168395 
0 0 0 0 -0.003395000022987513 
0.09160142874149496 0.03008478126173806 -0.1528199999063205 -0.03238181806897014 -0.03216861501881645 
0.08424122421724217 -0.0747222183808386 -0.04895145566355159 -0.03486094119592412 -0.03523312717103034 
0 0 0 0 -0.003395000022987513 
0 0 0 0 -0.003395000022987513 
0.07936630653778426 -0.09680267279102162 -0.01352492960836008 -0.01542556820322084 -0.01561217541855296 
0.0006998452396280349 0 0 0 -0.0009832575734270684 
0.07661718258577345 -0.05811491366186287 -0.0295172243149452 -0.04461752661459236 -0.02481677399037398 
-0.1146297361273407 -0.2713625600561477 0.0975603027411084 0.1080887625996479 0.05469478030319453 
0.1405375109890682 -0.01434318120396405 -0.08752930424638888 -0.08792764568469427 -0.05504534537928338 
0.04676224378814002 0 -0.03280656931551318 0 -0.004716151582765726 
-0.04051987857799367 0.05023819196672849 0.01269227445743455 0 0 
0.02719543037843469 0 -0.02325136477956116 0 0 
0.03124771414985726 3.469446951953614e-18 -0.06834655186270297 0 0 
0.02719543037843469 0 -0.02325136477956116 0 0 
-0.1367218330586176 -0.01665078066629692 0.1552730849730883 0 0 
0.02719543037843469 0 -0.02325136477956116 0 0 
0.02719543037843469 0 -0.02325136477956116 0 0 
0.04836572312572206 0 -0.1314585661233134 0 0 
0.03844009673636121 -0.01609624222896845 -0.005237979840214783 0 -0.003457840855567583 
0.07207671112182024 -0.07184244011757987 -0.01634770028010092 -0.03149561671325014 -0.005212685919333688 
0 0 0 0 0 
-6.938893903907228e-18 -0.01609624222896845 0 0 -0.003457840855567583 
0.07207671112182024 -0.07184244011757987 -0.01634770028010091 -0.02398432229354777 -0.005212685919333688 
0 0 0 0 0 
0.0553490425721616 0 -0.04040380933383882 0 0 
-0.08422821188314936 0.1641718410474343 -0.1043705798032968 -0.01049220813917674 -0.002305392947141569 
-0.1166293145974325 -0.03119457981310887 0.1477279010324765 0 0 
0.06022482927439467 0 -0.04040380933383882 0 0 
0.0553490425721616 0 -0.04040380933383882 0 0 
0.1143766559639713 -0.07069020069406942 -0.0404038093338388 -0.01049220813917674 -0.002305392947141569 
-0.2600620626211728 0 0.2556116879984726 0 0 
0.0553490425721616 0 -0.04040380933383882 0 0 
0.1790258407905662 -0.06590128820890205 -0.1335088976810332 -0.01327059536653808 -0.03788016174622835 
0 0 0 0 0 
0 -8.673617379884035e-19 0 0 0 
0 0 0 0 0 
0 0 0 0 0 
0 -8.673617379884035e-19 0 0 0 
0.04806147460994258 -8.673617379884035e-19 -0.04869477056470594 0 0 
0.07164352519725622 -0.02435493414695476 -0.1113696607946396 -0.009995526909282917 -0.02125411503469856 
0.09190337173651217 -0.05904034562555542 -0.01066905452174754 -3.469446951953614e-18 -0.01264796198663968 
0.0548811976370775 -0.01166410821237739 -0.02716955795717863 -0.00244185951632773 -0.02066150096987576 
0 0 0 0 0 
0.05895862294955206 -0.02073227336790994 -0.009076784754720124 -3.469446951953614e-18 -0.0002117516072614127 
0.01611769590201542 -0.003385695677078933 -0.009076784754720131 0 -0.0002117516072614127 
0.01611769590201542 -0.003385695677078926 -0.009076784754720131 0 0 
0.07572417132416337 -0.07113459236267511 -0.009076784754720124 0 -0.001691159076986101 
0 0 0 0 -0.0002117516072614123 
0 0 0 0 -0.0002117516072614123 
0.1302311230748228 0.03548494041026226 -0.1771938490527809 -0.02059726406244791 -0.01252932879799672 
0.1277243445978153 -0.1549934736513787 -0.04798028270885654 -0.02059726406244791 -0.01252932879799673 
0 0 0 -0.00244185951632773 -0.00867223009997063 
-0.05430904800217564 0.08634162803162826 -0.06162058878955683 0 0 
-0.140469207119113 0.03181187335931888 0.1737884498600885 -0.03118462067754175 -0.0130120177173705 
-0.05430904800217564 0.08634162803162826 -0.06162058878955683 0 0 
-0.05430904800217564 0.08634162803162826 -0.06162058878955683 0 0 
-0.140469207119113 0.03181187335931888 0.1737884498600885 -0.03118462067754175 -0.0130120177173705 
-0.1330720002301365 0.1876702609005297 -0.05471531920558642 -0.02428861875078645 -0.04185169312240878 
0.03971820387812006 -0.0384942682343094 -0.00652098989954106 8.673617379884035e-19 -0.01112623510065073 
0.1128166287652384 -0.02741963299574172 -0.06826890692215158 -0.02433140877951254 -0.0119073600528063 
0.0302850951571637 8.673617379884035e-19 -0.01685522819127099 0 -0.01183942954127132 
0 0 -0.0004016788703118702 0 -0.004599785277352364 
0 0 -0.0004016788703118702 0 -0.004599785277352364 
0.09508987456491502 -0.02741963299574172 -0.04894137296906743 -0.02433140877951254 -0.0119073600528063 
0.0302850951571637 8.673617379884035e-19 -0.01663256773860521 0 -0.0114493544879314 
0 0 -0.0004016788703118702 0 -0.004599785277352364 
-0.02788556397191438 0.05572160350622007 -0.01607002541249302 -0.00927144326224749 -0.004707087816320277 
0.0004182200296330619 -0.003797723445968265 0 0 -0.003889426605270837 
0.0004182200296330611 -0.003797723445968263 8.673617379884035e-19 0 -0.003889426605270837 
0.03152331439693253 -0.03849426823430938 -1.127570259384925e-17 -8.673617379884035e-19 -0.006526449823298365 
0.04988086489292756 -0.003797723445968265 -0.01607002541249302 -0.005019340102195988 -0.004707087816320279 
0.0004182200296330619 -0.003797723445968265 0 0 -0.003889426605270837 
0.0004182200296330619 -0.003797723445968265 0 0 -0.003889426605270837 
0.1023801036573198 0 -0.1001220438832874 -0.0299826361620397 -0.006021959583760178 
0.2980845419799807 3.469446951953614e-18 -0.1760857201427852 -0.03405382480504511 -0.05163505461461324 
0 0 0 0 0 
0 3.469446951953614e-18 -1.734723475976807e-18 0 0 
0 0 0 0 0 
0.007800048471416686 0 -0.06503047073747058 0 -0.007700642622537555 
-0.2114682505412343 -3.469446951953614e-18 0.2387656064319518 0 0 
0.0222202678557637 0 -0.01452770479684615 0 0 
0 0 -8.673617379884035e-19 0 0 
0.003743879961403528 0 -1.734723475976807e-18 0 0 
0 0 0 0 0 
-2.602085213965211e-18 -0.003405361252958962 1.734723475976807e-18 0 0 
0 -0.003405361252958962 0 0 0 
0 0 0 0 0 
0.06099401046010294 -8.673617379884035e-19 -0.04388390217335589 -0.008135832012539559 0 
0.121381451918431 -0.01424775373656578 -0.1928831708978571 0.07489708375819468 -0.05762747427740868 
0 0 0 -0.008135832012539559 0 
0.121381451918431 -0.01424775373656578 -0.1928831708978571 0.07489708375819468 -0.05762747427740868 
-0.2917188484131207 -0.00329233518719976 0 0.153332925489193 -0.0004284656439101597 
0.02576862308355062 0.005435643217296338 -0.07630007179797905 -0.005697535601105655 -0.009869232985716759 
-0.04346054575174667 0.05975490828231142 -0.02371541921318068 0 0 
-0.01343002850596727 0.05975490828231142 -0.07321488556498326 -0.0046727034804391 0 
0 0 0 0 0 
0 0 0 0 0 
0 0 0 0 0 
0.1023718913808195 -0.01428504986912155 -0.0998033517289531 0 -0.008805794422375304 
0.1023718913808195 0 -0.09980335172895312 0 0 
-0.1884980566031275 -0.05604237477401949 0.2598276512648947 0 0 
0.1023718913808195 -0.01428504986912156 -0.09980335172895312 0 -0.005337964963359079 
-0.05047294169156938 0.1507379691816134 -0.05539858548799883 0 0 
0.03150426198648662 -0.02953906935074447 0 0 0 
7.589415207398531e-19 -5.204170427930421e-18 0 -0.005962229730522987 0 
0.03110509436729946 -0.01995411616696767 -0.005953860390112568 0 -0.002637023218027527 
0.06646423298290514 -0.03502434544880934 -0.05084727322640849 -0.000200637551293725 -0.00475468035445879 
0.03110509436729946 -0.01995411616696767 0 0 -0.002637023218027527 
8.673617379884035e-19 0 0 0 -0.00475468035445879 
-0.2610230949623341 0.2575769544866429 -0.01851363006086729 -0.002178819288362016 -0.0156901067438977 
-0.2610230949623341 0.2575769544866429 -0.01851363006086729 -0.002178819288362016 -0.0156901067438977 
-0.224890388538152 0.2222818217158221 -0.01851363006086729 -0.002178819288362016 -0.0156901067438977 
-0.2610230949623341 0.2575769544866429 -0.01851363006086729 -0.002178819288362016 -0.0156901067438977 
-0.2610230949623341 0.2575769544866429 -0.01851363006086729 -0.002178819288362016 -0.0156901067438977 
-0.2610230949623341 0.2575769544866429 -0.01851363006086729 -0.002178819288362016 -0.0156901067438977 
-0.2511193925385882 0.1099824575186483 0.2103467636961732 -0.008076154221145722 -0.01535043836844139 
-0.2684367514676985 -0.06650564068570247 0.3499566494329462 0 -0.005056330138889795 
-0.4286434841559089 -0.1195453193926043 0.5449429726272803 0 -0.0006006687627913825 
-0.3268046100007101 -1.734723475976807e-18 0.2688891221944786 0 -0.0001555967894114564 
-0.3009607023870072 -0.06155535390342348 0.3877026447804774 -0.001724290684983666 -0.003597621649611608 
-0.2684367514676985 -0.06650564068570247 0.3773319482539441 0 -0.005056330138889795 
-0.2850068793605682 0 0.2488595319753138 0 -0.0001555967894114564 
-0.2407371599427167 -0.05803530803239895 0.1352287179728046 0.2032933659324543 -0.002646635897688884 
0.04119977454299541 -3.469446951953614e-18 -0.04772056988554009 -0.03491923033591555 -0.002188630332813989 
0 0 0 0 0 
0.04119977454299541 0 -0.0199066931246772 -0.03491923033591555 -0.002188630332813987 
0.04119977454299541 0 -0.04772056988554009 -0.03491923033591555 -0.002188630332813987 
0 0 0 0 0 
0.008804688778830404 0.1197062074579286 -0.1515276149838536 -0.009471108389650785 -0.02273815096952794 
0.02454270338925509 -0.02071490185738228 0.009680362741446456 0 0 
0.05108747557209296 -0.01439177418154619 -0.002786834168220529 0 0 
-0.05173866316977862 -0.01469342755532024 -0.02746252580002529 0 0.09695367821656711 
0.05108747557209296 0 -0.002786834168220529 0 0 
-0.08701149534815034 -0.002647556971906345 0.1657045071439291 0 0 
0.05108747557209296 0 -0.002786834168220529 0 0 
0.05108747557209296 0 -0.002786834168220529 0 0 
0 0 0 -0.001827781580416746 0 
0 0.05362611118437351 -0.09463589960949113 -0.001827781580416746 -0.0007085361272849148 
0.1016501179829831 -0.02464781868929067 -0.0972115073200386 -0.001827781580416747 1.084202172485504e-19 
0 0 0 -0.001827781580416746 0 
0 0 0 -0.001827781580416746 0 
0 0 0 -0.001827781580416746 0 
0.04344111566326245 -0.001550733292009773 -0.0369979838422267 0 -0.001533923272092585 
0.05313510806155292 -0.03273952530765614 -0.02562636350617445 0 -0.001557832576475729 
0.02877369200417609 0 -0.02203871985882166 0 -0.01492148436538323 
-0.1793905740773377 0.1342519562672974 0.127609515517402 8.673617379884035e-19 -0.0004450719733799258 
0.02877369200417609 0 -0.02203871985882166 0 0 
0.03920204423819206 -0.03273952530765613 -0.02336729698529282 0 0 
0.02877369200417609 0 -0.02203871985882166 0 0 
0.02877369200417609 0 -0.02203871985882166 0 0 
0.1131375593739073 -0.06685506516731665 -0.06346830836131319 0 0 
0.1389710493353972 -0.04773200108348942 -0.07629813876312212 -0.01127706630790221 0 
0.08636460389937987 -0.05130202437386481 -0.01766229517952043 0 -0.004660133412807468 
0 0 0 0 0 
0.03497541934095347 -0.009782308884684225 -0.03208203671673569 0 0 
0.1389710493353972 -0.04773200108348942 -0.07629813876312212 -0.01127706630790221 0 
0 0 0 0 0 
0.02222587801473944 -0.009782308884684225 0 0 0 
0.02222587801473944 -0.009782308884684225 0 0 0 
0.02222587801473944 -0.009782308884684225 2.602085213965211e-18 0 0 
0.02222587801473944 -0.009782308884684225 0 0 0 
0.02222587801473944 -0.009782308884684225 0 0 0 
0 0 -0.001592269767027408 0 -0.004660133412807468 
0.0127700092654407 -0.01913016098095778 -0.001592269767027408 -0.00561899173855668 -0.004660133412807468 
0 0 -0.001592269767027408 0 -0.004660133412807468 
1.734723475976807e-18 0 -0.001592269767027408 -0.00561899173855668 -0.004660133412807468 
3.469446951953614e-18 0 -0.001592269767027406 0 -0.004660133412807468 
0 0 -0.001592269767027408 0 -0.004660133412807468 
0.0107269684050598 0 -0.05256913275536509 -0.007551762631647639 0 
0.0107269684050598 0 -0.006090876734593421 0 0 
0.0107269684050598 0 -0.006090876734593421 0 0 
0.0107269684050598 0 -0.006090876734593421 0 0 
0 -2.602085213965211e-18 0 0 0 
0 0 0 0 0 
0 0 0 0 0 
0 0 0 0 -0.007449389963201001 
1.734723475976807e-18 0 -8.673617379884035e-19 0 -0.007449389963200998 
0 0 0 0 -0.007449389963201001 
0 0 0 0 -0.007449389963201001 
0 0 0 0 -0.007449389963201001 
0.01814079184311998 -0.1766827783446112 0.141430864245446 -0.03690257679306533 -0.02879002501256993 
0.05975210791039351 -0.03931121626060968 -0.03281481755631104 -0.001702410594422052 -0.01213983833257346 
0.1135748168839411 -0.03931121626060967 -0.06843611791147519 -0.001702410594422052 -0.01213983833257346 
0.08000135004453145 -0.03931121626060968 -0.07172925778823502 -0.001702410594422052 -0.01213983833257346 
-0.2214318244183666 -0.06449580403369913 0.275204290548373 -0.001702410594422052 -0.01259494510843529 
0.0597521079103935 -0.03931121626060968 -0.03259215710364526 -0.001702410594422052 -0.01213983833257346 
0.0597521079103935 -0.03931121626060968 -0.03259215710364526 -0.001702410594422052 -0.01213983833257346 
0.08000135004453145 -0.03931121626060968 -0.07172925778823502 -0.001702410594422052 -0.01213983833257346 
0.08000135004453145 -0.03931121626060968 -0.07172925778823502 -0.001702410594422052 -0.01213983833257346 
0.02024924213413796 0 -0.03913710068458976 0 0 
0.02024924213413797 0 -0.03913710068458975 -0.001504719510594561 0 
0.02024924213413797 0 -0.03913710068458976 0 0 
0.02024924213413797 0 -0.03913710068458975 -0.001504719510594561 0 
0.1125843283236572 -0.01285672702100749 -0.09224121131625054 0 -0.00668173831974163 
0.1125843283236572 -0.01285672702100749 -0.09224121131625054 0 -0.00668173831974163 
0.1125843283236572 -0.01285672702100749 -0.09224121131625054 0 -0.00668173831974163 
0.1125843283236572 -0.01285672702100749 -0.09224121131625054 0 -0.00668173831974163 
-0.1540980977184331 -0.006203231738445629 0.2557622799189513 0 -0.05727298732093701 
0.1125843283236572 -0.01285672702100749 -0.09224121131625054 0 -0.00668173831974163 
0.02987054985400922 -0.1030140990423993 0.02777969470921273 -0.02321108229644368 -0.03569575511834183 
0.08162514597667508 -0.04095329233446426 -0.06473301830883908 -0.01216371220469097 0 
0 0 -0.02781387676086287 0 0 
0.08162514597667508 -0.04095329233446426 -0.06473301830883908 -0.01216371220469097 0 
0 0 -0.02781387676086287 0 0 
0 0 0 0 -0.01319237182821543 
0 0 0 0 -0.01319237182821543 
0.03103770672335291 -0.01644531444582027 0 0 -0.01319237182821543 
0 0 0 0 -0.01319237182821543 
0 0 0 0 -0.01319237182821543 
0.03103770672335291 -0.01644531444582027 0 0 -0.01319237182821543 
0.01668735225408059 0 -0.05156816864890442 0 0 
0 0 0 0 0 
0.1598772239098411 -0.1431272415662987 -0.01317424646810412 0 0 
0 0 0 0 0 
0 0 0 0 0 
0 0 0 0 0 
0.0195668134097053 -0.01762191153913466 -0.009555204535952044 0 -0.01761590111717359 
0 -0.01439177418154619 0 0 0 
0 -0.01439177418154619 0 0 0 
0 -0.01439177418154619 0 0 0 
0 0 0 0 0 
0 0 0 0 0 
0.08095432731450532 -0.07264784958320938 -0.01552393760778629 -0.001024832120666555 -0.009195872210426037 
0.05316479476524564 -0.03805766962659166 -0.01243875137479054 0 0 
0.05316479476524564 -0.03805766962659166 -0.01243875137479054 0 0 
0.05316479476524564 -0.03805766962659166 -0.01243875137479054 0 0 
0.05316479476524564 -0.03805766962659166 -0.01243875137479054 0 0 
0.05316479476524564 -0.03805766962659166 -0.01243875137479054 0 0 
0.1086404348774518 -0.1697127050483005 0.02331992518500684 -0.007841382887607653 -0.01798090730474724 
0.04836572312572206 0 -0.1314585661233134 0 0 
-0.100294958284766 -0.2547113900058243 0.316094681955979 -0.00760808870396391 -0.01621659766968326 
0.0458409585353584 5.204170427930421e-18 -0.07601581304742293 -0.01056525740063293 -0.03379476282174143 
0.04836572312572206 0 -0.1314585661233134 0 0 
0.01565381504078476 0 -0.01684396451634372 0 0 
0.04944210486065221 0 -0.01817254164281487 0 0 
0.08088009388632676 -0.05199817755918257 -0.01371856716796304 -0.006467828411061373 0 
0.01565381504078476 0 -0.01684396451634371 0 0 
0.01565381504078476 -8.131516293641283e-20 -0.01684396451634371 0 0 
0 0 0 0 0 
0.03614072249622205 0 -0.06521179479687025 0 0 
0.03614072249622205 0 -0.06521179479687025 0 0 
0.03614072249622205 0 -0.06521179479687025 0 0 
-0.004155619852125939 0.04076873429760106 0.02724717429583295 -0.006351863536162053 -0.004362542271803241 
0.2127687793060751 -0.01015344407203783 -0.1838555198005337 -0.006351863536162053 0 
0.03534261235219177 -0.04300414207596549 0 0 0 
0.04805296331383811 -0.05849460053337609 -0.02420074296142063 -0.02086364673932509 -0.01175868059210663 
0.01277000926544069 -0.01913016098095778 0 0 0 
0.02543778773784945 -0.03818542942201986 0 0 0 
0.04572171251119608 -0.05849460053337609 -0.0135249296083601 -0.01542556820322084 -0.003395000022987512 
-0.5284943565457026 0.2043210916954992 0.3585025317500347 -0.005694893096730354 -0.008426787971275003 
0.06286036057995957 -0.02255613393875905 -0.05124232457001697 -0.005694893096730354 -0.008426787971275005 
0.0824271739896649 -0.02255613393875905 -0.06079752910596903 -0.005694893096730354 -0.01314293955404073 
0.06286036057995957 -0.02255613393875905 -0.05124232457001697 -0.005694893096730354 -0.008426787971275005 
0.06286036057995957 -0.02255613393875905 -0.05124232457001697 -0.005694893096730354 -0.008426787971275005 
0.06286036057995957 -0.02255613393875905 -0.05124232457001697 -0.005694893096730354 -0.008426787971275005 
0.06286036057995957 -0.02255613393875905 -0.05124232457001697 -0.005694893096730354 -0.008426787971275005 
0.06286036057995957 -0.02255613393875905 -0.05124232457001697 -0.005694893096730354 -0.008426787971275005 
0.1612714377607297 -0.01389458142674319 -0.1316332134911587 -0.004849338443538489 -0.01463521061966711 
0 0 0 0 0 
0.03876350173506204 -0.01389458142674319 -0.04546807202345629 -0.004849338443538489 -0.01177751926264372 
0.0632107336949435 -0.09650510040143639 0 0 0 
0 0 0 0 0 
0 0 0 0 0 
0.04530256544978569 -0.04926106197314625 -0.01615687445851974 -0.009471108389650785 -0.01733947854466511 
0 0 0 0 0 
0 0 0 0 0 
0 0 0 0 0 
0.01215954350318941 -0.02030917111135624 0 0 0 
0.01215954350318941 -0.02030917111135624 0 0 0 
0.01215954350318941 -0.02030917111135624 0 0 0 
0.01215954350318941 -0.02030917111135624 0 0 0 
0.02550313047062562 0 -0.009809095970403466 0 -0.003261097795559798 
0.01275156523531281 0 -0.004904547985201737 0 -0.001630548897779899 
0.01275156523531281 0 -0.004904547985201733 0 -0.001630548897779899 
0.01275156523531281 0 -0.004904547985201733 0 -0.001630548897779899 
0.01275156523531281 0 -0.004904547985201737 0 -0.001630548897779899 
0 0 0 0 0 
0 0 0 0 0 
0 0 0 0 0 
0 0 0 0 0 
0.2685678950433113 -0.0128426428831698 -0.2654225741284273 -0.005440477969606266 -0.02901559199676164 
-0.1239493134480858 0 0.1366319816579593 0 -0.004789874155360082 
0.1568538145414056 0 -0.1424214413742968 0 -0.0005458919195801419 
0.1568538145414056 0 -0.1424214413742968 0 -0.004789874155360082 
0.1568538145414056 0 -0.1424214413742968 0 -0.004789874155360082 
0.03827809612059367 -0.04334515427014299 -0.03230755924122548 -0.007038213242195418 -0.02658888470959391 
0 0 0 0 0 
-0.3809222656617939 0.146587906370104 0.07228807818291209 0 -0.006315022859349761 
-0.2226042351860967 -0.0665056406857025 0.3243285591348254 0 -0.004900733349478336 
-0.2992372116981528 0.2546572236718701 -0.002618727393517567 0 -0.0004450719733799262 
0.01657012789286974 -0.0665056406857025 0.1284724162786304 0 -0.004900733349478338 
0.1879361649658712 -0.09713472201278697 -0.1150690138350599 0 -0.02089593379496314 
0.05548683349187816 -0.05408182723811912 -0.0007149556027573267 0 -0.004195211003411472 
0 -0.01857458103137343 0 0 -0.004195211003411472 
0.02130152983488566 -0.01857458103137343 -0.01241527574971816 0 -0.004195211003411472 
0.05548683349187816 -0.05408182723811912 -0.0007149556027573267 0 -0.004195211003411472 
0 0 0 0 -0.005858410608841584 
0.008978200933531827 0 0 0 -0.005858410608841584 
0.1459115805655617 -0.06782769790533882 -0.4299929787526085 0 -0.01897969483035111 
0 0 0 0 -0.005858410608841584 
0 0 0 0 -0.005858410608841584 
0.04645654985321623 1.734723475976807e-18 -0.4299929787526086 0 -0.01897969483035111 
-0.2808031279894914 0 0.2790534230322561 0 0 
-0.0228434341495459 0 -0.05400789958701363 0 -0.002004600408858327 
-0.2808031279894914 0 0.2790534230322561 0 0 
-0.2808031279894914 0 0.2790534230322561 0 0 
-0.2808031279894914 0 0.2790534230322561 0 0 
-0.2808031279894914 0 0.2790534230322561 0 0 
0 0 0 0 0 
0 0 0 0 0 
0.0469583912162496 -0.008278412535298469 -0.0242120842316877 -0.003476237922943229 -0.01177751926264372 
0 0 0 0 0 
0 0 0 0 0 
0 0 0 -0.003476237922943229 0 
0.08810543568299416 0 -0.07100896907837519 -0.008818567986299992 -0.008672230099970627 
0 0 0 -0.007841382887607653 0 
0.009178887950485581 0 -0.003486885615427346 -0.007841382887607653 0 
0 0 0 -0.007841382887607653 0 
0 0 0 -0.007841382887607653 0 
0.1971909138185582 -0.04015431303518696 -0.149736982352276 -0.007841382887607653 -0.01315980147008519 
0.009178887950485581 0 -0.003486885615427346 -0.007841382887607653 0 
0 0 0 -0.007841382887607653 0 
-0.142308789718057 -0.1117899611219021 0.07656800359128531 0.1730176143747213 -0.01109001337126828 
-0.001210918776205161 0.05172253527654797 -0.06671312884682926 0 -0.01884774961182969 
-0.03398356361496322 0.1039763411292174 -0.06671312884682924 0 -0.004423389101428008 
-0.001210918776205161 0.05172253527654797 -0.06671312884682926 0 -0.01884774961182969 
2.602085213965211e-18 -0.0009333934421084524 0 0 -0.001691159076986103 
2.602085213965211e-18 -0.0009333934421084524 0 0 -0.001691159076986103 
-0.1117357609557361 -8.673617379884035e-19 0.11925350210931 0 0 
0 0 0 0 0 
0 0 0 0 0 
0.009928912122443975 0 -0.003763034579727667 0 0 
0 0 0 0 0 
0 0 -0.007772335776837303 0 0 
0.07330794604806787 -0.05707275628263241 -0.007772335776837306 0 0 
-0.06023557595915186 0.1436258041454781 -0.1123618440638875 0 -0.0007085361272849152 
0 0 0 0 -0.002857691357023391 
0.04099124294537061 -0.03221499547428291 -0.01694987128146398 0 -0.004489091605075173 
0.01380670364486509 -0.01634520628704736 -1.301042606982605e-18 0 0 
0.1508955484798327 -0.1128503066884837 -0.09944772401218582 0 0 
0.01380670364486509 -0.01634520628704736 0 0 0 
0.01380670364486509 -0.01634520628704736 0 0 0 
0.1508955484798327 -0.1128503066884837 -0.09944772401218582 0 0 
0.01380670364486509 -0.01634520628704736 0 0 0 
0.06815072745477274 -0.03626214671888064 -0.0421460629732832 0 -0.004362542271803244 
0.06815072745477274 -0.03626214671888064 -0.0421460629732832 0 -0.004362542271803244 
0.06815072745477273 -0.04021025202614743 -0.0421460629732832 0 -0.004362542271803244 
0.06815072745477274 -0.03626214671888064 -0.0421460629732832 0 -0.004362542271803244 
0.06815072745477274 -0.03626214671888064 -0.0421460629732832 0 -0.004362542271803244 
0.06815072745477274 -0.03626214671888064 -0.0421460629732832 0 -0.004362542271803244 
-0.147765383164415 -0.1766827783446112 0.3357738396350641 0 0 
-0.07890827457924966 -0.1766827783446112 0.2079075322230375 0 0 
-0.2617078288754691 0.1905958011282789 0.1467914745918621 0 0 
-0.2759491855643347 0.3701468049284103 -0.1175200698872067 0 0 
-0.147765383164415 -0.1766827783446112 0.3357738396350641 0 0 
-0.1310780309103343 -0.1766827783446112 0.2842056709861597 0 0 
-0.4325988837546484 0.1932433581001853 0.3075573330951151 0 0 
-0.2759491855643347 0.3701468049284103 -0.1175200698872067 0 0 
0.03613270642418207 -0.03716338364571471 -0.01000846879501595 0 -0.0007886458268376082 
0.08288256119951826 -0.04144277912045882 -0.0358439608078299 -0.009868678545734477 -0.0008176612110494412 
0 0 2.168404344971009e-19 0 0 
0 0 2.168404344971009e-19 0 0 
0 0 0 0 0 
0.08288256119951826 -0.03582661022901409 -0.03584396080782991 -0.005019340102195988 -0.0008176612110494412 
0 0 2.168404344971009e-19 0 0 
0 0 2.168404344971009e-19 0 0 
-0.2206728069829482 -0.09394167224221131 0.3646954403808356 -0.02632366453289906 -0.01390155013279672 
0.02485055520005653 0 0 0 0 
0.06526737048430215 0 -0.08146553418809695 0 0 
0.1063793683843908 0 -0.1075063220337505 0 0 
0.06526737048430215 0 -0.08146553418809695 0 0 
0.1063793683843908 0 -0.1075063220337505 0 0 
-0.04461832592980301 0.1397527692098851 -0.1204260080908944 0 -0.001030870840472478 
0.05728731541304017 -0.01015344407203783 -0.0290616032623664 0 0 
0.05728731541304017 -0.01015344407203783 -0.0290616032623664 0 0 
0.05728731541304017 -0.01015344407203783 -0.0290616032623664 0 0 
0 0 0 0 0 
0 0 0 0 0 
0 0 0 0 0 
0 0 0 0 0 
0.08055621031377956 -0.001911904516057022 -0.0822803725150526 0 0 
0.06492333440583141 0 -0.05928249032874477 0 0 
0.06492333440583141 0 -0.05928249032874477 0 0 
0.03851856949230781 0 -0.03179460836236459 0 0 
0.03851856949230781 0 -0.03179460836236459 0 0 
0.03851856949230781 0 -0.03179460836236459 0 0 
0.03851856949230781 0 -0.03179460836236459 0 0 
0.04284092704753663 -0.01734657769083102 0 0 0 
0.04284092704753662 -0.01734657769083102 -0.0131742464681041 0 0 
0.04284092704753663 -0.01734657769083102 0 0 0 
0.09912317918906779 -0.09170039034847395 0 -0.005962229730522991 -0.005006204983185221 
0.04284092704753663 -0.01734657769083102 0 0 0 
0.09766802688662009 0 -0.0859392314356684 -0.007608088703963913 -0.01577152569630333 
0.09766802688662009 0 -0.0859392314356684 -0.007608088703963913 -0.01577152569630333 
0.09766802688662009 0 -0.0859392314356684 -0.007608088703963913 -0.01577152569630333 
0.09766802688662009 0 -0.0859392314356684 -0.007608088703963913 -0.01577152569630333 
-0.1566496981903137 -0.01963268902640789 0.1712054365099748 0 0 
-0.068708958995727 -0.2328725202589379 0.3981868744848318 0 -0.00314971665941409 
-0.1566496981903137 -0.01963268902640789 0.1712054365099748 0 0 
-0.1566496981903137 -0.01963268902640789 0.1712054365099748 0 0 
-0.1566496981903138 -0.1769034468282249 0.4250774029823219 0 0 
-0.3263029293371739 0.3492276108675851 0 0 0 
-0.2676525309197081 0.2915155799180012 1.734723475976807e-18 0 0 
-0.3263029293371739 0.3492276108675851 0 0 0 
-0.3263029293371739 0.3492276108675851 0 0 0 
-0.2251534432752031 0.3032333823570642 0 0 0 
-0.2645430830232448 0.2701902341218199 1.734723475976807e-18 -0.001075944871919711 0 
0.008140833953014679 -0.0179014520995061 0 0 0 
-4.336808689942018e-19 0 0 0 0 
0.008140833953014679 -0.0179014520995061 0 0 0 
0.008140833953014679 -0.0179014520995061 0 0 0 
0.02262017102336444 -6.938893903907228e-18 -0.03156769179680611 0 -0.01315980147008519 
-3.469446951953614e-18 -0.001868250874893865 0 0 0 
0 0 0 0 0 
0 0 0 0 0 
-4.336808689942018e-19 0 3.469446951953614e-18 0 -0.0007435043281833914 
0 0 0 0 -0.0007435043281833914 
0 0 0 0 -0.0007435043281833914 
0 0 0 0 -0.0007435043281833914 
0 0 0 0 -0.0007435043281833914 
0 0 0 0 -0.0007435043281833914 
0.08177555735423948 -0.03634328682114391 0 -0.07622330635825031 0 
0.03125738694551524 -0.03634328682114392 1.734723475976807e-18 0 2.168404344971009e-19 
0.05665177900966134 -0.03789402011315368 -0.01734527548842891 0 -0.001533923272092585 
0.03125738694551524 -0.03634328682114391 0 0 0 
0.03125738694551524 -0.03634328682114391 0 0 0 
0.03125738694551524 -0.03634328682114391 0 0 0 
0.04592481060460157 -0.03789402011315368 -0.01125439875383547 0 -0.001533923272092585 
0.03125738694551524 -0.03634328682114391 0 0 0 
-0.2617971477644637 0.05086426516278761 0.246562697714214 0 0 
0.003885229169068735 0.06981036907479454 -0.04682309607222787 0 0 
0.003885229169068735 0.06981036907479454 -0.04682309607222787 0 0 
0.2348766070483711 0.07452226280158712 -0.2906929891050945 0 -0.01486528052327738 
0.08412752641218618 -0.01711017941036562 -0.05913984650901016 -0.006467828411061373 0 
0 0 0 0 0 
0.03241682149947842 -0.01711017941036562 0 -0.006467828411061373 0 
0 0 0 0 0 
0 0 0 0 0 
0.03117550335151628 0 -0.04309936463804116 0 0 
0 0 0 0 0 
0 0 0 0 0 
0 0 0 0 0 
1.734723475976807e-18 0 0 0 0 
0 0 0 0 0 
0 0 0 0 0 
0 0 0 0 0 
0 0 0 0 0 
0.06329145801015895 0 -0.05498376893021207 0 0 
0 0 0 -0.002278925612475223 -0.003457840855567584 
0 0 0 -0.002278925612475224 0 
0 0 0 -0.002278925612475224 0 
0 0 0 -0.002278925612475224 0 
0 0 0 -0.002278925612475224 0 
0.1011494860619707 -0.04599422851052092 -0.01459834363088616 -0.002472558554748865 -0.0001990523120289484 
0.1011494860619707 -0.04599422851052092 0 0 0 
0.1011494860619707 -0.04599422851052092 -0.01459834363088616 -0.002472558554748865 -0.0001990523120289484 
0.1208031449055355 0 -0.1150690138350599 0 -0.007232354428862201 
0.1208031449055355 0 -0.1150690138350599 0 0 
0.1208031449055355 0 -0.1150690138350599 0 0 
0.01228833584694887 -0.02132534579618131 -0.003486885615427349 -0.001075944871919711 0 
0.04974921112446608 -0.077024379091439 -0.005293939860621159 -0.003450011096898496 -0.01846941588244692 
0 0 0 0 0 
0 0 0 0 0 
0.1059066256301373 -0.0128426428831698 -0.101819423770263 -0.005440477969606266 -0.0284697000771815 
0.01780118994714321 -0.009612505525581346 -0.0308104546918878 -0.003716187284622599 -0.008337596113911435 
-0.2787306241454511 -0.02518458777308945 0.3437334564112759 0 -0.0004551067758618254 
0.07099807743579339 -0.0009333934421084524 -0.07320707594477124 0 0 
0.02613962079077626 -0.02794876248178506 -0.003200091925332013 0 -0.0001877358107103058 
0.02293660282585082 0 -0.003200091925332013 0 0 
0.02293660282585082 0 -0.003200091925332013 0 0 
0.02293660282585082 0 -0.003200091925332013 0 0 
-0.2106475381440567 0.006828516874472057 0.2457805242845282 -0.02390652747136503 -0.008588628615942494 
-0.2802202187758938 0.296599721179477 -0.004684280140713247 0 0 
-0.2802202187758938 0.296599721179477 -0.004684280140713247 0 0 
-0.2586694252659522 0.2862157924413717 -0.004684280140713247 0 0 
-0.1227741958103886 0.2111845105627622 -0.06325440252074466 0 0 
-0.2802202187758938 0.296599721179477 -0.004684280140713247 0 0 
0.1120947290963215 -0.02384727557152115 -0.1163537027894471 0 0 
0 -0.02384727557152116 0 0 0 
0 -0.02384727557152116 0 0 0 
0.0141219030633521 -0.02384727557152115 0 -0.009241088087072694 -0.001070210655391124 
0.02352176069322104 -0.03515426195861993 0 0 0 
0.02352176069322104 -0.03515426195861993 0 0 0 
0.02352176069322104 -0.03515426195861993 0 0 0 
0.02352176069322104 -0.03515426195861993 0 0 0 
0.02352176069322104 -0.03515426195861993 0 0 0 
0.02352176069322104 -0.03515426195861993 0 0 0 
0.1012268254923751 -0.08541521061671482 0 0 0 
0.1012268254923751 -0.08541521061671482 0 0 0 
-0.08284229847682723 0.1975043897915628 -0.1107726558991296 0 0 
0.1012268254923751 -0.08541521061671482 0 0 0 
0 0 -0.002625275429993996 0 0 
0 0 0 0 0 
0 0 -0.002625275429993996 0 0 
0.001921938526988839 0 -2.602085213965211e-18 0 0 
0.001921938526988841 -0.01428504986912156 0 5.421010862427522e-19 -0.005337964963359079 
0.04944245977574858 0 -0.04881581000304201 0 0 
0.001921938526988839 0 0 0 0 
0.001921938526988839 0 0 0 0 
0.001921938526988839 0 0 0 0 
-0.0963998076654323 -0.01187075369813353 0.07490680557642986 0 -0.002896132940620009 
0.01349429806718836 0 0 0 0 
0.04485318853872816 -0.06786841285362161 -0.004566560753908089 0 0 
0.06409226471774189 0 -0.05802542941401147 0 0 
0 0 0 0 0 
0 0 0 0 0 
0.03117550335151628 0 -0.04309936463804116 0 0 
0.03117550335151628 0 -0.04309936463804116 0 0 
0.03117550335151628 0 -0.04309936463804116 0 0 
0.09376583783663395 -0.08414906012196319 -0.02987544162648278 -0.009471108389650785 -0.01733947854466511 
0 3.469446951953614e-18 -1.387778780781446e-17 -0.000200637551293725 2.168404344971009e-19 
0 0 0 0 0 
0.0453025654497857 -0.04926106197314625 -0.01615687445851973 -0.009471108389650785 -0.01733947854466511 
0 0 0 0 0 
0 0 0 0 0 
0.1665616015133974 -0.000607333447522012 -0.1325776284901127 -0.01660916337978452 0 
0.1022970550731977 -0.0006073334475220124 -0.09123393106804872 0 0 
0.1022970550731977 -0.0006073334475220124 -0.09123393106804872 0 0 
0.1022970550731977 -0.0006073334475220124 -0.09123393106804872 0 0 
0.03133495404143277 0 -0.03659856149579413 0 0 
-0.214997169995234 -0.0813895702129185 0.2872290854366 0 -0.002703448698230789 
0.1020153310666698 -0.04881153914506621 -0.03659856149579412 -0.01056525740063293 -0.001691159076986103 
0.03133495404143277 0 -0.03659856149579413 0 0 
0.03870135199716408 -0.0008998056015247221 -0.03659856149579413 0 0 
0.05841282552107612 0 -0.03659856149579413 -0.01056525740063293 0 
0.05052170588925668 1.734723475976807e-18 -0.05022549886344366 0 0 
0 8.673617379884035e-19 0 0 0 
-0.06023557595915187 0.08999969296110462 -0.009953608677558986 0 0 
0.02784916593180617 -0.01163761725123836 -0.006119311029229199 -0.003679631864688138 0 
0 0 0 0 0 
0.003977932469807392 0 4.336808689942018e-19 -0.001170372303775466 0 
0 0 0 -0.005962229730522987 0 
0 0 0 -0.005962229730522987 0 
0 -0.01609624222896845 0 0 0 
0.03423739076588472 -0.01609624222896845 1.734723475976807e-18 -0.001303486006210851 0 
0 -0.01609624222896845 0 0 0 
0 -0.01609624222896845 0 0 0 
0.1120947290963215 0 -0.1163537027894471 0 0 
0.1120947290963215 0 -0.1163537027894471 0 0 
0.1120947290963215 0 -0.1163537027894471 0 0 
0.05548683349187817 -0.0580021149119949 -0.00689147644553569 -0.00244185951632773 -0.00867223009997063 
0 0 0 0 0 
0 0 0 0 0 
0 0 0 0 0 
0.1319903265804398 -0.08645473601518923 -0.0560056253766835 2.168404344971009e-19 -0.0007960833735887983 
0.06652558328343795 -0.03688423851014314 -0.05742853575443283 0 -0.006003579565386878 
0.1319903265804398 -0.08645473601518923 -0.0560056253766835 2.168404344971009e-19 -0.0007960833735887983 
0 0 0 0 0 
0 0 0 0 0 
0.009428334440540816 0 0 -0.01660916337978452 0 
0.0107269684050598 0 -0.006090876734593421 0 0 
0.0107269684050598 0 -0.006090876734593421 0 0 
0.0107269684050598 0 -0.006090876734593421 0 0 
0 0 0 0 0 
0 0 0 0 0 
-0.09811950885098207 0 0.01998721976243448 0 0 
0.02892036786954344 -0.01444221536570129 -0.0048861941318681 0 -0.0007960833735887983 
0 0 0 0 0 
0 0 0 0 0 
0 0 0 0 0 
0.005468797668774637 0 -0.05435465738440996 0 0 
0.005468797668774637 0 -0.05435465738440996 0 0 
0.112521472012693 -0.01806734488547594 -0.1133560602532643 -0.004652417784988597 0 
0 0 0 0 0 
0 0 0 0 0 
0 0 0 0 0 
0 0 0 0 0 
0 0 0 0 0 
0 0 0 0 0 
0 0 0 0 0 
0 0 0 0 0 
0 0 0 0 0 
0.01668735225408059 0 -0.05156816864890442 0 0 
0.01668735225408059 0 -0.05156816864890442 0 0 
0.02130152983488566 0 -0.01241527574971816 0 0 
0.02130152983488566 0 -0.01241527574971816 0 0 
0.02130152983488566 0 -0.01241527574971816 0 0 
0.01589915515814654 -0.02741963299574171 8.673617379884035e-18 -0.001389457377326411 -0.009074783011054124 
0.003100782099028736 0 0 -0.0008316355820523814 0 
0 0 0 -0.0008316355820523814 0 
0.003100782099028736 0 0 -0.0008316355820523814 0 
0.003100782099028736 0 0 -0.0008316355820523814 0 
0 0 0 -0.0008316355820523814 0 
0.007758916977992116 0 0 0 0 
0.007758916977992116 0 0 0 0 
0.007758916977992116 0 0 0 0 
0.0001347025389481191 -0.0241311416390753 1.951563910473908e-18 0 0 
0 0 0 0 0 
0 0 0 0 0 
0.1825675102701011 -0.07847559360171719 -0.1629136382757338 0 0 
0.009639536553573629 -0.04049392457471838 2.602085213965211e-18 0 0 
0 -0.01474242862137343 0 0 0 
0 -0.01474242862137343 0 0 0 
0 -0.01474242862137343 0 0 0 
0.03396012395092509 0 0 -0.01695624986574929 0 
0.03396012395092509 0 0 -0.01695624986574929 0 
0.03396012395092509 0 0 -0.01695624986574929 0 
0 0 0 0 0 
0 0 0 0 0 
0 0 0 0 0 
0 0 0 0 0 
0.07665682260214274 -0.02520025014445119 -0.07244848281022809 -0.01701052554460972 0 
0.05173656811366732 0 -0.08724297459404963 0 0 
0 0 0 0 0 
0.07665682260214274 -0.02520025014445119 -0.07244848281022809 -0.01701052554460972 0 
0 0 0 0 0 
-0.3754586528969328 0.05362611118437351 0.2606620880515651 0 -0.0007085361272849152 
0.004875786702233071 0 0 0 0 
0.004875786702233071 0.05362611118437351 -0.09463589960949113 0 -0.0007085361272849152 
0 0 0 0 0 
0 0 0 0 0 
0 0 0 0 0 
0 0 0 0 0 
0.008978200933531827 0 0 0 0 
0 0 0 0 0 
-0.1347925484299874 0.1816495539931042 -0.03747698921454385 -0.009917839507959872 -0.004833701198882859 
0.03690195903608544 -0.05130202437386482 0 0 0 
0.03690195903608543 -0.05130202437386482 0 0 0 
0.04654149558965904 -0.07705352032720982 0 0 0 
0.03664725974324037 0 -0.01264809507039855 -0.0209514539138385 -0.003550588679698029 
0.01832362987162018 0 -0.006324047535199277 -0.01047572695691925 -0.001775294339849015 
0.01832362987162018 0 -0.006324047535199277 -0.01047572695691925 -0.001775294339849015 
0.01832362987162018 0 -0.006324047535199277 -0.01047572695691925 -0.001775294339849015 
0.01832362987162018 0 -0.006324047535199277 -0.01047572695691925 -0.001775294339849015 
0.01832362987162018 0 -0.006324047535199277 -0.01047572695691925 -0.001775294339849015 
0.01832362987162018 0 -0.006324047535199277 -0.01047572695691925 -0.001775294339849015 
0.02432033344039775 -0.0132023688615399 0 -0.01049220813917674 0 
0 0 0 0 0 
0.01869070024398458 -0.01806734488547594 2.168404344971009e-18 0 0 
0 0 0 0 0 
0.01266777847240877 -0.01905526844106205 0 0 0 
0.01266777847240877 -0.01905526844106205 0 0 0 
0.003109447896463295 -0.02132534579618131 0 -0.001075944871919711 0 
0.003109447896463295 -0.02132534579618131 0 -0.001075944871919711 0 
0.003109447896463295 -0.02132534579618131 0 -0.001075944871919711 0 
0.003109447896463295 -0.02132534579618131 0 -0.001075944871919711 0 
0.007366397955731315 -0.0008998056015247221 0 0 0 
0.007366397955731315 -0.0008998056015247221 0 0 0 
0 0 0 0 0 
0 0 0 -0.005019340102195988 -0.0008176612110494412 
0 0 0 0 0 
0 0 0 0 0 
0 0 0 0 0 
0 0 0 -0.005019340102195988 -0.0008176612110494412 
0 0 0 0 0 
0 0 0 0 0 
0 0 0 0 0 
0 0 0 0 0 
0 0 0 0 0 
0 0 0 0 0 
0 0 0 0 0 
-0.297448199009507 -0.07993206456999373 0.4747570755181786 0 0 
0.02820086192378744 0 -0.03175642447931108 0 0 
0.08569275140323925 3.469446951953614e-18 -0.04855387523438301 -0.02260747724827646 -0.005563954018885281 
0.02820086192378744 0 -0.03175642447931108 0 0 
0.009639536553573618 -0.02575149595334494 0 0 0 
0 0 0 0 0 
0 0 0 0 0 
0 0 0 0 0 
0 0 0 0 0 
0 0 0 0 0 
0.03552553915820413 -0.03336687285625181 -0.04260270900247107 0 0 
0.008266477952216782 -0.001012098914532302 -0.01025270205281859 0 0 
0.008266477952216782 -0.001012098914532302 -0.01025270205281859 0 0 
0 0 0 0 0 
0.01869070024398458 -0.01806734488547594 1.301042606982605e-18 0 0 
0 0 -0.01459834363088616 -0.002472558554748865 -0.0001990523120289484 
0.04198789882066098 -0.03686111618028803 -0.01508345376561577 -0.002472558554748865 -0.0001990523120289484 
0 0 -0.01459834363088616 -0.002472558554748865 -0.0001990523120289484 
0 0 -0.01459834363088616 -0.003030380350022895 -0.009273835323083072 
0 0 -0.01459834363088616 -0.002472558554748865 -0.0001990523120289484 
0.02829898917332115 -0.03746957414749982 0 0 0 
0.04109736223243897 -0.06488920714324149 -4.336808689942018e-18 0 0 
0.02829898917332115 -0.03746957414749982 0 0 0 
0.02829898917332115 -0.03746957414749982 0 0 0 
0 0 0 0 0 
0 0 0 0 0 
0 0 0 0 0 
0 0 0 0 0 
0.02113304385677984 0 -0.0315676917968061 0 -0.01315980147008519 
0.02113304385677984 0 -0.0315676917968061 0 -0.01315980147008519 
0.02113304385677984 0 -0.0315676917968061 0 -0.01315980147008519 
-0.2132860112934738 0.2272910731410794 -0.01676357886909392 0 0 
0.08045195530844448 -0.07523802523229557 0 0 0 
-0.2132860112934738 0.2272910731410794 -0.01676357886909392 0 0 
0.08045195530844448 -0.07523802523229557 0 0 0 
0 3.469446951953614e-18 0 0 0 
0 0 -0.01274518013348929 0 0 
0 0 -0.01274518013348929 0 0 
0.01697656628570799 -0.02477057323876955 -0.005293939860621156 -0.004545321919784835 -0.01126817586569305 
0 0 0 0 0 
0.01697656628570799 -0.02477057323876955 -0.00529393986062116 -0.003450011096898496 -0.00404505537204525 
0 0 0 0 0 
-0.1436366047953408 -0.1195453193926043 0.2960834406519663 0 -0.0004450719733799262 
-0.09811950885098207 0 0.01998721976243448 0 0 
-0.1745589960743574 -0.08932452228970669 0.2686495193988253 0 0 
-0.3285753585875917 -0.08432916671662995 0.4123033458277953 0 0 
-0.3285753585875917 -0.08432916671662995 0.4123033458277953 0 0 
0.1037519614270365 -0.02496570286593617 -0.07896559910805251 0 0 
-0.2042574246504162 -0.1056558963292463 0.312848568211929 0 0 
0 0 0 0 0 
0.0586503984174659 -0.05771203094958396 -3.035766082959412e-18 0 0 
0.06409226471774189 0 -0.03118137253749051 0 0 
0.003743879961403528 0 0 0 0 
0 0 0 0 0 
0 0 0 0 0 
0 0 0 0 0 
0 0 0 0 0 
0.04198789882066097 -0.03686111618028803 -0.0004851101347296101 0 0 
0.04198789882066097 -0.03686111618028803 -0.0004851101347296106 0 0 
0.04198789882066097 -0.03686111618028803 -0.0004851101347296106 0 0 
0.04198789882066097 -0.03686111618028803 -0.0004851101347296106 0 0 
0.04198789882066097 -0.03686111618028803 -0.0004851101347296106 0 0 
0.04198789882066097 -0.03686111618028803 -0.0004851101347296106 0 0 
0.04198789882066097 -0.03686111618028803 -0.0004851101347296106 0 0 
-0.2286851011497283 0 0.2489019024320443 0 0 
-0.1306428740117118 -8.673617379884035e-19 0.1498605935655585 0 0 
-0.2286851011497283 0 0.2489019024320443 0 0 
-0.3874791821916053 0 0 0.3419794127186329 0 
-0.3874791821916053 0 0 0.3419794127186329 0 
-0.3171549356807259 0 8.673617379884035e-19 0.2896996522457042 0 
0 -0.005339249657921286 0 -0.01692520123413817 0 
0.00500879725884057 -0.01978146502362257 0 -0.01692520123413816 -0.0007960833735887983 
0 -0.005339249657921286 0 -0.01692520123413817 0 
0 -0.005339249657921286 0 -0.01692520123413816 0 
0.001487127166584592 0 -0.002894048242834909 0 0 
0.001487127166584588 0 0 0 0 
0.001487127166584588 0 0 0 0 
0.01393306382336086 0 -0.01543331298898575 0 -0.001557832576475729 
0 0 -0.0131742464681041 0 0 
0 0 -0.0131742464681041 0 0 
0.01393306382336086 0 -0.01543331298898575 0 -0.001557832576475729 
0 0 -0.0131742464681041 0 0 
0 0 -0.0131742464681041 0 0 
0 0 0 0 0 
0 0 0 0 0 
0 0 0 0 0 
0 0 0 0 0 
0 0 -0.003704865229569579 0 0 
0.02360558173352878 -0.002948372906071357 -0.01884493241766979 0 0 
0 0 -0.003704865229569579 0 0 
0 0 -0.003704865229569579 0 0 
0.02360558173352878 -0.002948372906071357 -0.01884493241766979 0 0 
0 0 0 0 -0.002617819936352224 
0 0 0 0 -0.002617819936352224 
0 0 -0.01623088886829335 0 -0.006849569210579035 
0 0 -0.01623088886829335 0 -0.00423174927422681 
0 0 0 0 -0.01492148436538323 
0 0 0 0 -0.01492148436538323 
0.03204465129331722 -0.03488993344677208 8.673617379884035e-19 0 -0.03260808806293268 
0 0 0 0 -0.01492148436538323 
-0.301667226971302 -0.02518458777308945 0.346933548336608 0 -0.0004551067758618254 
-0.301667226971302 -0.02518458777308945 0.346933548336608 0 -0.0004551067758618254 
-0.301667226971302 -0.02518458777308945 0.346933548336608 0 -0.0004551067758618254 
0.09945503071234554 -0.06782769790533885 0 0 0 
-0.2626319677440089 0.2075783467722898 -0.02689052849749005 0 -0.00539867242486282 
0 0 0 0 0 
-0.06023557595915187 0.08999969296110462 -0.009953608677558986 0 0 
0 0 0 0 0 
0.02905985222597067 -0.03582661022901409 -0.02131221345473331 -0.001095310822886341 -0.01068096134921539 
0 0 0 0 0 
0 0 0 0 0 
0 0 0 0 0 
0 0 0 0 0 
0.04806147460994258 0 -0.04869477056470594 0 0 
0.04806147460994258 0 -0.04869477056470594 0 0 
0.04806147460994258 0 -0.04869477056470594 0 0 
0.04806147460994258 0 -0.04869477056470594 0 0 
0.04806147460994258 0 -0.04869477056470594 0 0 
0.04806147460994258 0 -0.04869477056470594 0 0 
0 0 -0.02737529882099779 0 0 
0 0 -0.02737529882099779 0 0 
0 0 -0.02737529882099779 0 0 
0.008124381270157226 0 0 -0.01542556820322084 0 
0.008124381270157226 0 0 -0.01542556820322084 0 
0.008124381270157226 0 0 -0.01542556820322084 0 
0.008124381270157226 0 0 -0.01542556820322084 0 
0 0 0 0 0 
0 0 0 0 0 
0 0 0 0 0 
0 0 0 0 0 
0.305122020092807 -0.1141695801461068 -0.3330613226192697 0 -0.01544454637095312 
0.05171070491270773 0 -0.05913984650901015 0 -0.0006733607752907205 
0 0 0 0 -0.0006733607752907205 
0.2579596938399455 -0.08241136990737581 -0.3330613226192697 0 -0.008801495788912964 
0.05171070491270773 0 -0.05913984650901015 0 -0.0006733607752907205 
0 0 0 0 -0.0006733607752907205 
0 -0.0824113699073758 0 0 -0.002973817945349825 
0.1774179407870256 -0.1166155349999105 -0.09324801004458608 0 -0.007956921064091398 
0 0 0 0 0 
0 0 0 0 0 
0 0 0 0 0 
0.03023241589965437 0 0 0 0 
0.03023241589965437 0 0 0 0 
0.05171070491270773 0 -0.05913984650901015 0 0 
0.05171070491270773 0 -0.05913984650901015 0 0 
0.05171070491270773 0 -0.05913984650901015 0 0 
0 0 0 0 0 
0.02023255952479675 -0.01442541003671557 -0.01618567434649195 0 0 
0.07881554884306445 -0.03876746211440759 -0.08394803916768134 0 0 
0.07881554884306445 -0.03876746211440759 -0.08394803916768134 0 0 
0.07881554884306445 -0.03876746211440759 -0.08394803916768134 0 0 
-0.228566000871858 -0.09335942579274942 0.3707216528088139 0 0 
-0.1087303574721509 -0.376279026201027 0.5327719929309485 0 0 
0 0 0 0 0 
0.01471475370179114 -0.01378719369625685 0 0 0 
0.01471475370179114 -0.01378719369625685 0 0 0 
0.02360558173352878 -0.002948372906071357 -0.01514006718810022 0 0 
0.07500778502511585 -0.03723755319448312 -0.01425395913801102 0 0 
0 0 0 0 0 
0 0 0 0 0 
0 0 0 0 0 
0 0 0 0 0 
0 0 0 0 0 
0.05052170588925668 -1.734723475976807e-18 -0.05022549886344366 0 0 
0 0 0 0 0 
0 0 0 0 0 
0 0 0 0 0 
0.0002340525084038643 0 0 0 0 
0.0002340525084038643 0 0 0 0 
0.05557906509851936 -0.06918035991323541 -0.006170372465991485 -0.002049664241333111 -0.01839174442085207 
0.02778953254925968 -0.03459017995661771 -0.003085186232995743 -0.001024832120666555 -0.009195872210426037 
0.02778953254925968 -0.03459017995661771 -0.003085186232995743 -0.001024832120666555 -0.009195872210426037 
0.02778953254925968 -0.03459017995661771 -0.003085186232995743 -0.001024832120666555 -0.009195872210426037 
0.02778953254925968 -0.03459017995661771 -0.003085186232995743 -0.001024832120666555 -0.009195872210426037 
0.0703242465108795 0 0 -0.05227976047292877 0 
0.0703242465108795 0 0 -0.05227976047292877 0 
1.734723475976807e-18 -0.3948344077499312 0.3539210756130293 -0.03018586709602535 -0.008588628615942494 
0 0 -0.04647825602077168 -0.006279339624660317 0 
0 0 -0.04647825602077168 -0.006279339624660317 0 
0 0 -0.04647825602077168 -0.006279339624660317 0 
0 0 -0.04647825602077168 -0.006279339624660317 0 
0.004854193984886023 0 -0.02849222340174262 0 0 
0.004854193984886023 0 -0.02849222340174262 0 0 
0.07448967111393806 -0.00240569001435269 -0.06238491629523786 0 0 
0.004854193984886023 0 -0.02849222340174262 0 0 
0 0 0 0 -0.002123850096053409 
0 0 0 0 -0.002123850096053409 
0 0 0 0 -0.002123850096053409 
0 0 0 0 -0.002123850096053409 
0 0 0 0 -0.002123850096053409 
0 -0.01163761725123836 0 0 0 
0.1290061372504307 -0.1485109320649646 4.336808689942018e-19 0 -0.0001877358107103058 
0 0 0 0 0 
0 0 0 0 0 
0.1290061372504307 -0.1485109320649646 4.336808689942018e-19 0 -0.0001877358107103058 
0.02443601936128447 0 0 0 0 
0.02443601936128447 0 0 0 0 
0.02443601936128447 0 0 0 0 
0.02443601936128447 0 0 0 0 
0.02443601936128447 0 0 0 0 
0.05190872292872865 -0.00240569001435269 -0.0309128592205119 0 0 
0.05190872292872865 -0.00240569001435269 -0.0309128592205119 0 0 
0.05190872292872865 -0.00240569001435269 -0.0309128592205119 0 0 
-0.1840691239692024 0.2829196004082776 -0.1107726558991296 0 0 
-0.1840691239692024 0.2829196004082776 -0.1107726558991296 0 0 
-0.1840691239692024 0.2829196004082776 -0.1107726558991296 0 0 
0.200214069763248 -0.07805010655791393 -0.0972115073200386 0 0 
0.09856395178026478 -0.0534022878686233 0 0 0 
0 0 0 0 -0.008256989462643027 
0 0 0 0 -0.008256989462643027 
0 0 0 0 -0.008256989462643027 
0.0156763439808112 0 0 -0.002509259560912673 0 
0.0156763439808112 -8.673617379884035e-19 0 -0.002509259560912673 0 
0.0156763439808112 0 0 -0.002509259560912673 0 
0.0156763439808112 0 0 -0.002509259560912673 0 
0.0156763439808112 0 0 -0.002509259560912673 0 
0 0 0 0 -0.003853907182440019 
0 0 0 0 -0.003853907182440019 
0 0 0 0 -0.003853907182440019 
0 0 0 0 -0.003853907182440019 
0.001676915529442195 0 -0.01985732795554198 0 0 
0.001676915529442195 0 -0.01985732795554198 0 0 
0.02036761577342678 -0.01806734488547594 -0.01985732795554198 0 0 
0.001676915529442195 0 -0.01985732795554198 0 0 
0.001676915529442195 0 -0.01985732795554198 0 0 
0.03904079012701251 -0.01604344721877492 -0.02911509687919344 0 0 
0.03904079012701251 -0.01604344721877492 -0.02911509687919344 0 0 
0 0 0 0 0 
0 0 0 0 0 
0 0 0 0 0 
0.05762633043899253 -0.02520025014445119 -0.002894048242834913 -0.01701052554460972 0 
0 0 0 0 0 
0.05762633043899253 -0.02520025014445119 -0.002894048242834913 -0.01701052554460972 0 
-0.1000907009576023 0.09938586627596174 0 0 -0.005337964963359079 
0 -0.01428504986912156 0 0 -0.005337964963359079 
0 -0.01428504986912156 0 0 -0.005337964963359079 
-0.124307924454501 0.1623395971406472 0 -0.004252103160051499 0 
-0.01077463792945654 0.1623395971406472 -0.06840041275742952 -0.01060396669621355 0 
-0.124307924454501 0.1623395971406472 0 -0.004252103160051499 0 
-0.01077463792945654 0.1623395971406472 -0.06840041275742952 -0.01060396669621355 0 
-0.124307924454501 0.1623395971406472 0 -0.004252103160051499 0 
0.05841567130792586 0 -0.05498376893021207 0 0 
0 0 0 0 0 
0.05051817040872421 0 0 -0.07622330635825031 0 
0.05051817040872421 0 0 -0.07622330635825031 0 
0 0 0 0 0 
0.009928912122443975 0 -0.005091611706198846 0 0 
0 0 -0.001328577126471177 0 0 
0 0 -0.001328577126471177 0 0 
0 0 0 0 0 
0 0 0 0 0 
0 0 0 0 0 
0.01780118994714321 -0.00961250552558135 -0.0308104546918878 -0.003716187284622599 -0.008337596113911435 
0.01780118994714321 -0.00961250552558135 -0.0308104546918878 -0.003716187284622599 -0.008337596113911435 
0.01780118994714321 -0.00961250552558135 -0.0308104546918878 -0.003716187284622599 -0.008337596113911435 
0 0 0 0 0 
0 0 0 0 0 
0 0 8.673617379884035e-19 0 0 
0 0 8.673617379884035e-19 0 0 
0 0 0 0 0 
0 0 0 0 0 
0 0 0 0 0 
0 0 0 0 0 
0 0 0 0 0 
0 0 0 0 0 
0 0 0 0 0 
1.734723475976807e-18 0 -0.02131221345473331 -0.001095310822886338 -0.007223120493647804 
1.734723475976807e-18 0 -0.02131221345473331 -0.001095310822886338 -0.007223120493647804 
1.734723475976807e-18 0 -0.02131221345473331 -0.001095310822886338 -0.007223120493647804 
1.734723475976807e-18 0 -0.02131221345473331 -0.001095310822886338 -0.007223120493647804 
0.02905985222597067 -0.03582661022901409 -0.02131221345473331 -0.001095310822886338 -0.007223120493647804 
0 0 0 -0.001095310822886338 -0.007223120493647802 
0.09215385623926621 0 -0.09349873229772233 0 0 
0.09215385623926621 0 -0.09349873229772233 0 0 
0.07633124226910337 -0.03529513277082086 3.469446951953614e-18 0 0 
0.03613270642418208 -0.03529513277082086 0 0 0 
0.03613270642418208 -0.03529513277082086 -0.01000846879501595 0 -0.0007886458268376082 
0.03613270642418208 -0.03529513277082086 0 0 0 
0.009904824614342299 -0.00481871265394569 0 0 0 
0 0 0 0 0 
0 0 0 0 0 
0 0 0 0 0 
0 0 0 0 0 
0.03423739076588472 0 1.734723475976807e-18 0 0 
0 0 0 0 0 
0 0 0 0 0 
0 0 0 0 0 
0 0 0 0 0 
0 0 0 0 0 
0 0 0 0 0 
0 -0.003230137357588447 0 0 -0.01289974953440787 
0 -0.003230137357588447 0 0 -0.01289974953440787 
3.469446951953614e-18 -0.003230137357588447 8.673617379884035e-19 0 -0.02013210396327008 
0 0 0 0 0 
0.08794073919458673 -0.05596907343071306 -0.02689052849749005 0 0 
0.08794073919458673 -0.05596907343071306 -0.02689052849749005 0 0 
0.1028680576037302 -0.04309031942792146 -0.04863409817390672 0 0 
-0.179820361350824 -0.1196319787320484 0.2913166796424576 0 -0.002703448698230789 
0.1028680576037302 -0.03914221412065466 -0.04863409817390672 0 0 
0.1028680576037302 -0.03914221412065466 -0.04863409817390672 0 0 
0.03507434650630946 -1.734723475976807e-18 -0.03935799307767456 0 0 
0 0 0 0 0 
0 0 0 0 0 
0 0 0 0 0 
0 0 0 0 0 
0 0 0 0 0 
0 0 0 0 0 
0 0 0 0 0 
0 0 0 0 0 
0.03507434650630946 0 -0.03926317489290913 0 0 
0.03507434650630946 0 -0.03926317489290913 0 0 
0.03507434650630946 0 -0.03935799307767456 0 0 
0.03507434650630946 0 -0.03926317489290913 0 0 
0 0 -9.481818476542528e-05 0 0 
0 0 -9.481818476542528e-05 0 0 
0 0 -9.481818476542528e-05 0 0 
0 0 0 -0.001303486006210851 0 
0 0 4.336808689942018e-19 0 0 
0 0 0 0 0 
0 0 0 0 0 
0.07252140542892239 -0.08204914633227199 -8.673617379884035e-19 0 0 
0.07252140542892239 -0.082049146332272 0 0 0 
0.07252140542892239 -0.08204914633227199 0 0 0 
0.07252140542892239 -0.08204914633227199 0 0 0 
0.07252140542892239 -0.082049146332272 0 0 0 
0 0 0 0 0 
0 0 0 0 0 
0 0 0 0 0 
1.734723475976807e-18 0 -0.00861272575139083 0 -0.0009973745822016572 
0 0 0 0 0 
0 0 0 0 0 
0 0 0 0 0 
0 -0.02576674986124914 0 0 0 
0 -0.02576674986124914 0 0 0 
0.02360558173352878 -0.002948372906071357 -0.01514006718810022 0 0 
0.02360558173352878 -0.002948372906071357 -0.01514006718810022 0 0 
0 0 0 0 -0.00486429475886649 
0.05749188947945181 0 -0.01679745075507193 -0.02260747724827646 -0.01042824877775177 
0 0 0 0 -0.00486429475886649 
0 0 0 0 -0.00486429475886649 
0.02205041079134132 0 0 -0.02985846949248688 -0.000726090415476767 
0.02205041079134132 0 -0.0135249296083601 -0.03333470741543011 -0.000726090415476767 
0.02205041079134132 0 0 -0.02985846949248688 -0.000726090415476767 
0.02205041079134132 0 0 -0.02985846949248688 -0.000726090415476767 
0.02205041079134132 0 -0.0135249296083601 -0.03333470741543011 -0.000726090415476767 
0.02205041079134132 0 0 -0.02985846949248688 -0.000726090415476767 
0.02987946633397758 0 -0.0194778232611625 0 -0.002431021677160846 
0.02987946633397758 0 -0.0194778232611625 0 -0.002431021677160846 
0.02987946633397758 0 -0.0194778232611625 0 -0.002431021677160846 
0.02987946633397758 0 -0.0194778232611625 0 -0.002431021677160846 
0.02987946633397758 0 -0.0194778232611625 0 -0.002431021677160846 
0.02987946633397758 0 -0.0194778232611625 0 -0.002431021677160846 
0.02987946633397758 0 -0.0194778232611625 0 -0.002431021677160846 
-0.2937379666019182 0.302529098373375 -0.01676357886909392 0 0 
-0.2937379666019182 0.302529098373375 -0.01676357886909392 0 0 
-0.2937379666019182 0.302529098373375 -0.01676357886909392 0 0 
0.03294474878696014 -0.0383080722576455 0 0 -0.007776076966570795 
0.03294474878696014 -0.0383080722576455 0 0 -0.007776076966570795 
0.03294474878696014 -0.0383080722576455 0 0 -0.007776076966570795 
0.03294474878696014 -0.0383080722576455 0 0 -0.007776076966570795 
0 0 0 0 0 
-0.3772319642981147 0 0.2631089373588562 -0.03405382480504511 0.1568576520400426 
-0.1990032161149333 0 0.3344123386884864 -0.03405382480504511 -0.08379926853857478 
0.2980845419799807 0 -0.1760857201427852 -0.03405382480504511 -0.05163505461461324 
-0.497087758094914 0 0.5104980588312716 0 -0.03216421392396154 
-0.497087758094914 0 0.5104980588312716 0 -0.03216421392396154 
-0.1782287481831816 0 -0.07130340132963006 0 0.2406569205786174 
-0.1782287481831816 0 -0.07130340132963006 0 0.2406569205786174 
-0.1782287481831816 0 -0.07130340132963006 0 0.2406569205786174 
-0.1782287481831816 0 -0.07130340132963006 0 0.2406569205786174 
-0.1782287481831816 0 -0.07130340132963006 0 0.2406569205786174 
-0.1782287481831816 0 -0.07130340132963006 0 0.2406569205786174 
-0.5945004569724437 0.5442089032794768 0.08922051522724744 0 0 
-0.3256490609332944 -0.07993206456999372 0.5065134999974898 0 0 
-0.3256490609332944 -0.07993206456999372 0.5065134999974898 0 0 
0.01869070024398458 -0.01806734488547594 0 0 0 
0.002331250802642052 0 -0.01067581335306055 0 -0.007700642622537555 
0.002331250802642052 0 -0.01067581335306055 0 -0.007700642622537555 
0.002331250802642052 0 -0.01067581335306055 0 -0.007700642622537555 
0.002331250802642052 0 -0.01067581335306055 0 -0.007700642622537555 
0.002331250802642052 0 -0.01067581335306055 0 -0.007700642622537555 
0.002331250802642052 0 -0.01067581335306055 0 -0.007700642622537555 
0.06423348056949525 0 -0.05127768422300498 0 0 
0.06423348056949525 0 -0.05127768422300498 0 0 
0.06423348056949525 0 -0.05127768422300498 0 0 
0.06423348056949525 0 -0.05127768422300498 0 0 
0.06423348056949525 0 -0.05127768422300498 0 0 
0 0 0 0 0 
2.168404344971009e-19 0 -0.0135249296083601 -0.003476237922943229 0 
2.168404344971009e-19 0 -0.0135249296083601 -0.003476237922943229 0 
0.1016501179829831 -0.02464781868929066 -0.0972115073200386 0 0 
0.1016501179829831 -0.02464781868929066 -0.0972115073200386 0 0 
0.03757648113910247 0 -0.0508472732264085 4.336808689942018e-19 0 
0.006051318406667628 -0.009366576853284661 0 0 0 
0 0 0 0 0 
0 0 0 0 0 
-0.06023557595915187 0.08999969296110462 -0.009953608677558986 0 0 
-0.06023557595915187 0.08999969296110462 -0.009953608677558986 0 0 
-0.08655370443809757 0.0414769455525539 0 0 -0.001030870840472478 
-0.08655370443809757 0.0414769455525539 0 0 -0.001030870840472478 
-0.08655370443809757 0.0414769455525539 0 0 -0.001030870840472478 
-0.1744270467717656 0.2319553596141948 -0.09136440482852802 0 -0.001030870840472478 
0.01934148059271599 0 -0.01618567434649195 0 0 
0.05384233525011303 0 -0.03408095008198014 0 -0.00546712895758613 
0.05384233525011303 0 -0.03408095008198014 0 -0.00546712895758613 
0.05384233525011303 0 -0.03408095008198014 0 -0.00546712895758613 
0.05384233525011303 0 -0.03408095008198014 0 -0.00546712895758613 
0.05384233525011303 0 -0.03408095008198014 0 -0.00546712895758613 
0.02898989696215617 0 -0.0161231308839703 0 0 
0.02898989696215617 0 -0.0161231308839703 0 0 
0.02898989696215617 0 -0.0161231308839703 0 0 
0 0 0 0 0 
0.04752052124875974 0 -0.048815810003042 0 0 
0.04752052124875974 0 -0.048815810003042 0 0 
0.04752052124875974 0 -0.048815810003042 0 0 
0.04752052124875974 0 -0.048815810003042 0 0 
0.01274954132621401 0 -0.00523797984021478 0 0 
0.01274954132621401 0 -0.00523797984021478 0 0 
0.01274954132621401 0 -0.00523797984021478 0 0 
0.01274954132621401 0 -0.00523797984021478 0 0 
0.01274954132621401 0 -0.00523797984021478 0 0 
0.04319504168758656 -0.03488993344677206 -0.004032154315034995 0 -0.01768660369754945 
0 0 0 0 0 
0.04319504168758656 -0.03488993344677206 -0.004032154315034995 0 -0.01768660369754945 
0.04319504168758656 -0.03488993344677206 -0.004032154315034995 0 -0.01768660369754945 
0.0320446512933172 -0.03488993344677208 0 0 -0.01768660369754945 
0.01115039039426936 0 -0.004032154315034995 0 0 
0.01115039039426936 0 -0.004032154315034995 0 0 
0.01115039039426936 0 -0.004032154315034995 0 0 
0.01115039039426936 0 -0.004032154315034995 0 0 
0 -0.003405361252958962 0 0 0 
0.1224578802443154 -0.06923901245186262 -0.05245620158852032 0 -0.005006204983185221 
0.08024604077507251 0 -0.05245620158852032 0 0 
0.08024604077507251 0 -0.05245620158852032 0 0 
0.08024604077507251 0 -0.05245620158852032 0 0 
0.06029416522047491 0 -0.01607002541249302 0 0 
0.06099401046010294 0 -0.01607002541249302 0 0 
0.01083152035718042 0 0 0 0 
0.01083152035718042 0 0 0 0 
-0.3803344395991658 0 0.3552979876610561 0 0 
-0.3803344395991658 0 0.3552979876610561 0 0 
0.03918709604904756 -0.006193626953204691 -0.005815706942535685 0 0 
0 0 0 0 0 
0 0 0 0 0 
0 0 0 0 0 
0 0 0 0 0 
0.03918709604904756 -0.006193626953204691 -0.005815706942535685 0 0 
0.03918709604904756 -0.006193626953204691 -0.005815706942535685 0 0 
0.03918709604904756 -0.006193626953204691 -0.005815706942535685 0 0 
0.03918709604904756 -0.006193626953204691 -0.005815706942535685 0 0 
0.03918709604904756 -0.006193626953204691 -0.005815706942535685 0 0 
-0.5901172869949709 0.5569730228394925 -0.03543530415576807 0 -0.00539867242486282 
-0.715462961827529 0.6269350647670089 0 0 -0.00539867242486282 
0 0 0 0 0 
0 0 0 0 0 
0.08810543568299416 0 -0.0710089690783752 -0.001724290684983666 0 
-0.04551709594435872 -0.1195453193926043 0.2760962208895318 0 -0.0004450719733799262 
0 0 0 0 -0.0003900750533399207 
0 0 0 0 -0.0003900750533399207 
0 0 0 0 -0.0003900750533399207 
0 0 0 0 0 
0 0 0 0 0 
0.05762633043899253 -0.02520025014445119 -0.002894048242834913 -0.01701052554460972 0 
0 0 0 0 0 
0.008194889481187557 0 -0.006119311029229203 0 0 
0.008194889481187557 0 -0.006119311029229203 0 0 
0.008194889481187557 0 -0.006119311029229203 0 0 
0.008194889481187557 0 -0.006119311029229203 0 0 
0.008194889481187557 0 -0.006119311029229203 0 0 
0.1135332865250444 0 -0.06840041275742952 -0.006351863536162053 0 
0.1135332865250444 0 -0.06840041275742952 -0.006351863536162053 0 
0 0 0 -0.005438078536104259 -0.000663037946581561 
0.0733079460480679 -0.05707275628263241 -0.0199066931246772 -0.009674806312105669 -0.000455381730841303 
0 0 0 0 0 
0 0 0 0 0 
0 0 0 0 0 
0.01565381504078476 0 -0.01684396451634371 0 0 
0.01565381504078476 0 -0.01684396451634371 0 0 
0 0 0 0 0 
0 0 0 0 0 
0 0 0 0 0 
0 0 0 0 0 
0 0 0 0 0 
0.05173656811366732 0 -0.08724297459404963 0 0 
0.05173656811366732 0 -0.08724297459404963 0 0 
0.001364736985778439 0 0 0 0 
0.001364736985778439 0 0 0 0 
0.001364736985778439 0 0 0 0 
0.0300305172457794 0 -0.04949946635180259 -0.0046727034804391 0 
-0.01820489226000223 -0.415557630781866 0.432223298774059 -0.0046727034804391 0 
0.0300305172457794 0 -0.04949946635180259 -0.0046727034804391 0 
0.0300305172457794 0 -0.04949946635180259 -0.0046727034804391 0 
0.009904824614342299 -0.00481871265394569 0 0 0 
0.009904824614342299 -0.00481871265394569 0 0 0 
0.009904824614342299 -0.00481871265394569 0 0 0 
0.009904824614342299 -0.00481871265394569 0 0 0 
0.04164105615302321 -0.03603839388408605 0 0 -0.01670072279155166 
0.04164105615302321 -0.03603839388408605 0 0 -0.01670072279155166 
0.04164105615302321 -0.03603839388408605 0 0 -0.01670072279155166 
0.04164105615302321 -0.03603839388408605 0 0 -0.01670072279155166 
0.02905985222597067 -0.03582661022901409 0 0 0 
0.02905985222597067 -0.03582661022901409 0 0 0 
0.02905985222597067 -0.03582661022901409 0 0 0 
0.02905985222597067 -0.03582661022901409 0 0 0 
0.009178887950485581 0 -0.003486885615427345 -0.001170372303775466 0 
0.009178887950485581 0 -0.003486885615427346 0 0 
0.009178887950485581 0 -0.003486885615427346 -0.001170372303775466 0 
0.009178887950485581 0 -0.003486885615427346 0 0 
0 0 0 0 0 
0 0 0 0 0 
0.1258031192855053 -0.1205621695831795 -0.0199066931246772 -0.009674806312105669 -0.003605098390255392 
0.1258031192855053 -0.1205621695831795 0 0 0 
0 0 0 0 0 
0.005008797258840575 -0.01444221536570129 0 0 -0.0007960833735887983 
0.005008797258840575 -0.01444221536570129 0 0 -0.0007960833735887983 
0.005008797258840575 -0.01444221536570129 0 0 -0.0007960833735887983 
0.005008797258840575 -0.01444221536570129 0 0 -0.0007960833735887983 
0 0 0 0 0 
0 0 0 0 0 
0 0 0 0 0 
0 0 0 0 0 
0.08763656674306365 0 -0.07359218618211788 0 0 
0.08763656674306365 0 -0.07359218618211788 0 0 
0.08763656674306365 0 -0.07359218618211788 0 0 
0.08763656674306365 0 -0.07359218618211788 0 0 
0.08763656674306365 0 -0.07359218618211788 0 0 
0.08763656674306365 0 -0.07359218618211788 0 0 
0 0 0 -0.001303486006210851 0 
0 0 0 -0.001303486006210851 0 
0.05621919747312989 0 -0.05857012238003144 0 0 
0.05621919747312989 0 -0.05857012238003144 0 0 
0.05621919747312989 0 -0.05857012238003144 0 0 
0.05621919747312989 0 -0.05857012238003144 0 0 
0.05621919747312989 0 -0.05857012238003144 0 0 
0.02391157061070286 0 -0.0048861941318681 0 0 
0.04711834804526755 -0.03235477394171951 -0.004886194131868103 0 0 
0.02391157061070286 0 -0.0048861941318681 0 0 
0.02391157061070286 0 -0.0048861941318681 0 0 
0.02391157061070286 0 -0.0048861941318681 0 0 
0.04711834804526755 -0.03235477394171951 -0.004886194131868103 0 0 
0.02391157061070286 0 -0.0048861941318681 0 0 
0.05752386887211931 0 0 0 0 
0.05752386887211931 0 0 0 0 
0 0 0 0 0 
0 0 0 0 0 
0 0 0 0 0 
0.01669201652294165 -0.03597092957672389 0 0 0 
0.01669201652294165 -0.03597092957672389 0 0 0 
0.03088151233226411 0 0 -0.008767806746989537 0 
0.03088151233226411 0 0 -0.008767806746989537 0 
0.03088151233226411 0 0 -0.008767806746989537 0 
0.03088151233226411 0 0 -0.008767806746989537 0 
0.03088151233226411 0 0 -0.008767806746989537 0 
0.0453025654497857 -0.04926106197314625 -0.01615687445851973 -0.009471108389650785 -0.01733947854466511 
0.04530256544978569 -0.04926106197314625 -0.01615687445851974 -0.009471108389650785 -0.01733947854466511 
0.02888775184380256 -0.03502434544880934 0 0 -0.001691159076986103 
0.02888775184380256 -0.03502434544880934 0 0 -0.001691159076986103 
0.02888775184380256 -0.03502434544880934 0 0 -0.001691159076986103 
0 0 0 0 0 
8.673617379884035e-19 0 -2.168404344971009e-19 0 0 
0 0 0 0 0 
0 0 0 0 0 
0 0 0 0 0 
0 0 0 0 0 
0 0 0 0 0 
0.009928912122443975 0 -0.003763034579727667 -0.006891414745543998 0 
0.01870438070070007 -0.03430641267675785 0 0 0 
0.01870438070070007 -0.03430641267675786 0 0 0 
0 0 0 0 0 
0.01870438070070007 -0.03430641267675785 0 0 0 
0.03680493294911616 -0.007967682248873422 -0.005411001689812827 0 0 
0 0 0 0 0 
0.01697656628570799 -0.02477057323876955 -0.00529393986062116 -0.003450011096898496 -0.00404505537204525 
0.09760743977456082 -0.06957752000640582 -0.02071341034544993 -0.009917839507959872 -0.004833701198882859 
0.01697656628570799 -0.02477057323876955 -0.00529393986062116 -0.003450011096898496 -0.00404505537204525 
0 0 0 0 0 
-4.336808689942018e-19 0 -0.00861272575139083 0 -0.0009973745822016568 
-4.336808689942018e-19 0 -0.00861272575139083 0 -0.0009973745822016568 
0 0 0 0 0 
0 0 -0.002625275429993996 0 0 
0 0 -0.002625275429993996 0 0 
0 0 -0.002625275429993996 0 0 
0 0 -0.002625275429993996 0 0 
0 0 0 0 0 
0 0 0 0 0 
0 0 0 0 0 
0 -0.001868250874893865 0 0 0 
0 -0.001868250874893865 0 0 0 
0 -0.001868250874893865 0 0 0 
0 -0.001868250874893865 0 0 0 
0.09940077883979036 -0.008883562752758433 -0.07888552092869879 0 0 
0.09940077883979036 -0.008883562752758433 -0.07888552092869879 0 0 
0.09940077883979036 -0.008883562752758433 -0.07888552092869879 0 0 
0.09940077883979036 -0.008883562752758433 -0.07888552092869879 0 0 
0.09940077883979036 -0.008883562752758433 -0.07888552092869879 0 0 
0.01956681340970532 0 -0.009555204535952044 0 -0.004716151582765726 
0.01956681340970532 1.734723475976807e-18 -0.009555204535952044 0 -0.004716151582765726 
0.01956681340970532 0 -0.009555204535952044 0 -0.004716151582765726 
-0.2575961042541492 0 0.270878866838185 0 0 
-0.2575961042541492 0 0.270878866838185 0 0 
-0.2575961042541492 0 0.270878866838185 0 0 
0 0 -0.02131221345473331 0 0 
0 0 0 0 0 
0 0 0 0 0 
0 0 0 0 0 
0.05749188947945181 0 -0.01679745075507193 -0.02260747724827646 -0.005563954018885281 
0.05749188947945181 0 -0.01679745075507193 -0.02260747724827646 -0.005563954018885281 
0.1540163625132343 -0.004995355573076737 -0.1436538264289698 0 0 
0.1540163625132343 -0.004995355573076737 -0.1436538264289698 0 0 
0.1540163625132343 -0.004995355573076737 -0.1436538264289698 0 0 
0.1540163625132343 -0.004995355573076737 -0.1436538264289698 0 0 
0.1540163625132343 -0.004995355573076737 -0.1436538264289698 0 0 
0 0 0 0 0 
0 0 0 0 0 
0.009428334440540816 0 0 -0.01660916337978452 0 
0.009428334440540823 0 0 -0.02398432229354777 -0.0004580055648748963 
-0.008716049750227415 0.1378150288977475 -0.07456174492414533 -0.007278093206176719 0 
-0.008716049750227415 0.1378150288977475 -0.07456174492414533 -0.007278093206176719 0 
-0.008716049750227415 0.1378150288977475 -0.07456174492414533 -0.007278093206176719 0 
-0.008716049750227415 0.1378150288977475 -0.07456174492414533 -0.007278093206176719 0 
-0.09711917284945602 0.1136709161450833 0 0 0 
-0.1000907009576023 0.1136709161450833 0 0 0 
-0.09711917284945602 0.1136709161450833 0 0 0 
-0.1000907009576023 0.1136709161450833 0 0 0 
0 0 0 0 0 
0 0 0 0 0 
0 0 0 0 0 
0.2579596938399454 0 -0.3330613226192697 0 -0.002004600408858327 
0 0 -0.0002226604526657856 0 0 
0.05548683349187815 -0.0580021149119949 -0.00689147644553569 -0.00244185951632773 -0.00867223009997063 
0 0 -0.0002226604526657856 0 0 
0 0 -0.0002226604526657856 0 0 
0 0 0 0 0 
0 0 0 0 0 
0.01042835223401596 -0.006972775446407003 -0.0297381051193558 0 0 
0 0 -0.002894048242834911 0 0 
0.01042835223401596 -0.006972775446407003 -0.0297381051193558 0 0 
0 0 -0.002894048242834911 0 0 
0 0 0 0 0 
0 0 0 0 0 
0.05483621199965891 0 -0.04134369742206392 0 0 
0.05483621199965891 0 -0.04134369742206392 0 0 
0.05483621199965891 0 -0.04134369742206392 0 0 
0.05483621199965891 0 -0.04134369742206392 0 0 
0.05483621199965891 0 -0.04134369742206392 0 0 
0 0 0 0 0 
0.005807454871768303 0 -0.02118170898386753 0 0 
0.005807454871768303 0 -0.02118170898386753 0 0 
0.005807454871768303 0 -0.02118170898386753 0 0 
0 0 0 0 0 
0 0 0 0 0 
0 0 0 0 0 
0 0 0 0 0 
0 0 0 0 0 
0 0 0 0 0 
0.01900506203467821 -0.03688423851014313 0 0 -0.005006204983185221 
0 0 0 0 0 
0.01900506203467821 -0.03688423851014313 0 0 -0.005006204983185221 
0.01900506203467821 -0.03688423851014313 0 0 -0.005006204983185221 
0.01900506203467821 -0.03688423851014313 0 0 -0.005006204983185221 
0.01772675420032342 0 -0.002979833672983281 0 0 
0.01772675420032342 0 -0.002979833672983281 0 0 
0.01772675420032342 0 -0.002979833672983281 0 0 
0.01772675420032342 0 -0.002979833672983281 0 0 
0.01772675420032342 0 -0.002979833672983281 0 0 
0 0 -0.01000846879501595 0 -0.0007886458268376082 
0 0 0 0 0 
0 0 0 0 0 
0 0 0 0 0 
0.06409226471774189 0 -0.03118137253749051 0 0 
0 0 0 0 0 
0 0 0 0 0 
0.0302850951571637 0 0 0 0 
0.0302850951571637 0 0 0 0 
0.0302850951571637 0 0 0 0 
0.0302850951571637 0 0 0 0 
0.001648177336039796 0 0 0 0 
0.001648177336039796 0 0 0 0 
0.001648177336039796 0 0 0 0 
0.001648177336039796 0 0 0 0 
0.001648177336039796 0 0 0 0 
0.001648177336039796 0 0 0 0 
0 0 0 0 0 
0 0 0 0 0 
0 -0.003948105307266784 0 0 0 
0.2797760849554849 -0.1671125433955022 -0.04074287440369291 4.336808689942018e-19 -0.001786020409039265 
0 0 -0.00861272575139083 0 -0.0009973745822016572 
0 0 -0.00861272575139083 0 -0.0009973745822016572 
0 0 -0.00861272575139083 0 -0.0009973745822016572 
0 0 -0.00595386039011257 0 0 
0 0 -0.00595386039011257 0 0 
0 0 -0.00595386039011257 0 0 
0 0 0 0 0 
0 0 0 -0.007511294419702373 0 
0 0 0 0 0 
0 0 0 0 0 
4.490084631604053e-05 -0.008043713879691765 0 0 0 
4.490084631604053e-05 -0.008043713879691765 0 0 0 
4.490084631604053e-05 -0.008043713879691765 0 0 0 
0.03423739076588472 0 0 0 0 
0.03423739076588472 0 0 0 0 
0.03423739076588472 0 0 0 0 
0 0 -0.0163477002801009 -0.007511294419702373 0 
0 0 -0.0163477002801009 0 0 
0 0 -0.0163477002801009 -0.007511294419702373 0 
0 0 0 -0.007511294419702373 0 
0 0 0 -0.007511294419702373 0 
0.02549196390731235 -0.04252174709732747 0 0 0 
0.02549196390731235 -0.04252174709732747 0 0 0 
0.02038519712961558 -0.01861877659724155 -0.007126979569005509 0 0 
0.02038519712961558 -0.01861877659724155 -0.007126979569005509 0 0 
0.02038519712961558 -0.01861877659724155 -0.007126979569005509 0 0 
0.02038519712961558 -0.01861877659724155 -0.007126979569005509 0 0 
0.008978200933531827 0 0 0 0 
0 0 0 -0.0005578217952740286 -0.009074783011054124 
0 0 0 -0.0005578217952740286 -0.009074783011054124 
0 0 0 -0.0005578217952740286 -0.009074783011054124 
0 0 0 0 0 
0 0 0 0 0 
0 0 0 0 0 
0 0 0 0 0 
0 0 0 0 0 
0 0 0 0 0 
0 0 0 -0.000200637551293725 0 
0 0 0 -0.000200637551293725 0 
-0.2814598974152659 0.1594161222312598 0.1672621955106603 0 -0.002703448698230789 
0.05602206869531087 -0.03056936359635894 -0.004569134598323771 0 0 
0.05602206869531087 -0.03056936359635894 -0.004569134598323771 0 0 
-0.2814598974152659 0.1594161222312598 0.1672621955106603 0 -0.002703448698230789 
0.05602206869531087 -0.03056936359635894 -0.004569134598323771 0 0 
0.03277264483875806 -0.05225380585266948 0 0 -0.01442436051040168 
0.03277264483875806 -0.05225380585266948 0 0 -0.01442436051040168 
0.03277264483875806 -0.05225380585266948 0 0 -0.01442436051040168 
0.03277264483875806 -0.05225380585266948 0 0 -0.01442436051040168 
0.03277264483875806 -0.05225380585266948 0 0 -0.01442436051040168 
0 0 0 0 0 
0 0 0 0 0 
0 0 0 0 0 
0 0 0 0 0 
0 0 0 0 0 
0.02888775184380256 -0.03502434544880934 0 0 0 
0.02888775184380256 -0.03502434544880934 0 0 0 
0.02888775184380256 -0.03502434544880934 0 0 0 
0.09048258237754875 -0.02520025014445119 -0.03784916151539637 -0.01701052554460972 0 
0.03285625193855623 0 -0.03784916151539636 0 0 
0.03285625193855623 0 -0.03784916151539636 0 0 
0.03285625193855623 0 -0.03784916151539636 0 0 
0.03285625193855623 0 -0.03784916151539636 0 0 
0 0 0 0 0 
0 0 0 0 0 
0 0 0 0 0 
0.05052170588925668 0 -0.05022549886344366 0 0 
0.05052170588925668 0 -0.05022549886344366 0 0 
0.05052170588925668 0 -0.05022549886344366 0 0 
0.05052170588925668 0 -0.05022549886344366 0 0 
0.003743879961403528 0 0 0 0 
0.01393306382336086 1.734723475976807e-18 -0.002259066520881646 0 -0.001557832576475729 
0.01393306382336086 0 -0.002259066520881646 0 -0.001557832576475729 
0.01393306382336086 0 -0.002259066520881646 0 -0.001557832576475729 
0.01393306382336086 1.734723475976807e-18 -0.002259066520881646 0 -0.001557832576475729 
0.01393306382336086 0 -0.002259066520881646 0 -0.001557832576475729 
0 0 0 0 0 
0 0 0 0 0 
0 0 0 0 0 
0 0 0 0 0 
-0.2826884189545542 -0.08048976461139375 0.3399507778163645 0 -0.002703448698230789 
-0.2826884189545542 -0.08048976461139375 0.3399507778163645 0 -0.002703448698230789 
0.003100782099028736 0 0 0 0 
0 0 0 0 0 
0 0 0 0 0 
0.04111199790008867 0 -0.02604078784565352 0 0 
0 0 0 0 0 
0 0 0 0 0 
0 0 0 0 0 
0 0 0 0 0 
-0.2688513960391494 0.6241409678494705 -0.4172929847702424 0 0 
0 0 0 -0.001272423006987321 0 
0 0 0 -0.001272423006987321 0 
0 0 0 -0.001272423006987321 0 
0 0 0 0 0 
0 0 0 0 0 
0 0 0 0 0 
0 0 0 0 0 
0 -0.003948105307266784 0 0 0 
0 -0.003948105307266784 0 0 0 
0 -0.003948105307266784 0 0 0 
0.05548683349187815 -0.03550724620674572 -0.0007149556027573249 0 0 
0.05548683349187815 -0.03550724620674572 -0.0007149556027573249 0 0 
0.07330794604806787 -0.05707275628263241 0 0 0 
0.0733079460480679 -0.05707275628263241 -0.0199066931246772 -0.009674806312105669 -0.000455381730841303 
0.07330794604806787 -0.05707275628263241 0 0 0 
0.03378828981986751 0 0 0 0 
0.003203017964925417 -0.02794876248178506 0 0 -0.0001877358107103059 
0 0 0 -0.00561899173855668 0 
0 0 0 0 0 
0 0 0 0 0 
0 0 0 0 0 
0 0 0 0 0 
0 0 0 0 0 
0 -0.3948344077499312 0.4003993316338008 -0.02390652747136503 -0.008588628615942494 
-0.087873342333668 -0.2043559936882902 0.3090349268052727 -0.02390652747136503 -0.008588628615942494 
0 0 0 0 0 
0 0 0 0 0 
0 0 0 0 0 
0 0 0 0 0 
0 0 0 -0.001170372303775466 0 
0 0 0 -0.001170372303775466 0 
0 0 0 0 0 
0 0 0 0 0 
-0.3231605130712495 0.4178587087261174 -0.1459977678500942 0 0 
-0.05479354715602275 0.2704752504390125 -0.1681194477073804 0 0 
-0.3231605130712495 0.4178587087261174 -0.1459977678500942 0 0 
0.03757648113910248 -0.02249486870524919 -0.05084727322640849 0 0 
0.03757648113910248 0 -0.05084727322640849 0 0 
0.03757648113910248 0 -0.05084727322640849 0 0 
0.03757648113910248 0 -0.05084727322640849 0 0 
0.03757648113910248 0 -0.05084727322640849 0 0 
0.12440225586059 -0.03119457981310887 -0.03543530415576807 0 0 
0.12440225586059 -0.03119457981310887 -0.03543530415576807 0 0 
0.12440225586059 -0.03119457981310887 -0.03543530415576807 0 0 
0.12440225586059 -0.03119457981310887 -0.03543530415576807 0 0 
0.12440225586059 -0.03119457981310887 -0.03543530415576807 0 0 
0.02136996102713572 -0.01787404758861099 0 0 0 
0.02136996102713572 -0.01787404758861099 0 0 0 
0.02136996102713572 -0.01787404758861099 0 0 0 
0.02136996102713572 -0.01787404758861099 0 0 0 
0.002971528108146228 -0.02249486870524919 0 0 0 
0 -0.02249486870524919 0 0 0 
0 -0.02249486870524919 0 0 0 
-0.2656823769335326 -0.01894610391200694 0.2933857937864419 0 0 
-0.2656823769335326 -0.01894610391200694 0.2933857937864419 0 0 
-0.2656823769335326 -0.01894610391200694 0.2933857937864419 0 0 
0 0 0 0 0 
0 0 0 0 0 
0 0 0 0 0 
0.01042835223401597 -0.006972775446407003 0 0 0 
0.01042835223401597 -0.006972775446407003 0 0 0 
0.01042835223401597 -0.006972775446407003 0 0 0 
0 0 0 0 0 
0 0 0 0 0 
0 0 0 0 0 
0 0 0 0 0 
-0.4547907314083199 0 0.4076488419036064 0 0 
-0.4547907314083199 0 0.4076488419036064 0 0 
-0.4547907314083199 0 0.4076488419036064 0 0 
0.02432033344039774 -0.0132023688615399 -0.01274518013348929 -0.01049220813917674 -0.0009832575734270666 
0 0 0 0 -0.0009832575734270666 
0 0 0 0 -0.0009832575734270666 
0 0 0 0 -0.0009832575734270666 
0.04946264486329448 0 -0.01607002541249302 0 0 
0 0 0 0 0 
0 0 -0.0268440568765209 0 0 
0 0 -0.0268440568765209 0 0 
0.06398947224962168 -0.02383747143610898 -0.02236087297127681 0 -0.004489091605075173 
0.02718453930050554 -0.01586978918723555 -0.01694987128146397 0 -0.004489091605075173 
0.06398947224962168 -0.02383747143610898 -0.02236087297127681 0 -0.004489091605075173 
0.02718453930050553 -0.01586978918723555 -0.01694987128146396 0 -0.007956921064091398 
0.02718453930050554 -0.01586978918723555 -0.01694987128146397 0 -0.004489091605075173 
0 0 0 0 -0.003457840855567583 
0 0 0 0 -0.003457840855567583 
0 -0.0009333934421084524 0 0 0 
0 0 0 0 0 
0 0 0 0 0 
0 0 0 0 0 
0 0 0 0 0 
0 0 0 0 0 
0 0 0 0 0 
0 0 0 0 0 
0 0 0 0 0 
0 0 0 0 0 
0 0 0 0 0 
0 0 0 0 0 
0 0 0 0 0 
0 0 0 0 0 
0 0 0 0 0 
0 0 0 0 0 
0.006051318406667628 -0.009366576853284661 0 0 0 
0 0 0 0 0 
0 0 0 0 0 
0 0 0 0 0 
0 0 0 0 0 
0 0 0 0 0 
0 0 0 0 0 
0 0 0 0 0 
0 0 0 0 0 
0 0 0 0 0 
0 0 0 0 0 
0 0 0 0 0 
0 0 0 0 0 
0.009639536553573618 -0.02575149595334494 0 0 0 
0.009639536553573618 -0.02575149595334494 0 0 0 
0 0 -0.01274518013348929 0 0 
0 0 -0.01274518013348929 0 0 
0 0 -0.01274518013348929 0 0 
0 0 0 0 0 
0 0 0 0 0 
0 0 0 0 0 
0 0 0 0 0 
0.01140911904025821 -0.01972908510839736 0 0 0 
0.01140911904025821 -0.01972908510839736 0 0 0 
0.01140911904025821 -0.01972908510839736 0 0 0 
0.01140911904025821 -0.01972908510839735 -0.01000846879501595 4.336808689942018e-19 -0.0007886458268376082 
0.02320677743456473 -0.03235477394171951 0 0 0 
0.02320677743456473 -0.03235477394171951 0 0 0 
0.02320677743456473 -0.03235477394171951 0 0 0 
0.02320677743456473 -0.03235477394171951 0 0 0 
0 0 0 0 0 
0 0 0 0 0 
0 0 0 0 0 
0 0 0 0 0 
0.002971528108146228 0 0 0 0 
0.002971528108146228 0 0 0 0 
0.002971528108146228 0 0 0 0 
0.002971528108146228 0 0 0 0 
0 0 0 0 0 
0 0 0 0 0 
0 0 0 0 0 
0.009928912122443975 0 -0.003763034579727667 0 0 
0 0 0 0 0 
0 0 0 0 0 
0 0 0 0 0 
0 0 0 0 0 
0 0 0 0 0 
0 0 0 0 0 
0 0 0 0 0 
0 0 0 0 0 
0 0 0 0 0 
0.0009434189719680678 -0.03876746211440759 0 0 0 
0 0 0 0 0 
0 0 0 0 0 
0 0 0 0 0 
0 0 0 0 0 
0.08810543568299416 0 -0.07100896907837519 -0.008818567986299992 -0.008672230099970629 
0.08810543568299416 0 -0.0710089690783752 -0.001724290684983666 0 
0.05762633043899253 -0.02520025014445119 0 -0.01701052554460972 0 
0.05762633043899253 -0.02520025014445119 0 -0.01701052554460972 0 
0 0 0 -0.004652417784988598 0 
0 0 0 -0.004652417784988598 0 
0 0 0 -0.004652417784988598 0 
0 0 0 -0.004652417784988598 0 
0.02432033344039775 -0.0132023688615399 0 -0.01049220813917674 0 
0.02432033344039775 -0.0132023688615399 0 -0.01049220813917674 0 
0.02432033344039775 -0.0132023688615399 0 -0.01049220813917674 0 
0 0 0 -0.00244185951632773 -0.00867223009997063 
0 0 0 0 -0.002117657136431262 
0.03680493294911616 -0.007967682248873422 -0.005411001689812827 0 0 
0.03680493294911616 -0.007967682248873422 -0.005411001689812827 0 0 
0.03680493294911616 -0.007967682248873422 -0.005411001689812827 0 0 
0.02461110334176532 -0.02261378370800137 -0.00123867239078974 0 0 
0.02461110334176532 -0.02261378370800137 -0.00123867239078974 0 0 
0.02461110334176532 -0.02261378370800137 -0.00123867239078974 0 0 
0.02461110334176532 -0.02261378370800137 -0.00123867239078974 0 0 
0.02461110334176532 -0.02261378370800137 -0.00123867239078974 0 0 
0.02461110334176532 -0.02261378370800137 -0.00123867239078974 0 0 
0 0 0 0 0 
0 0 0 0 0 
0 0 0 0 0 
0.03103770672335291 -0.01644531444582027 0 0 0 
0.03103770672335291 -0.01644531444582027 0 0 0 
0.03103770672335291 -0.01644531444582027 0 0 0 
0 0 0 0 0 
0 0 0 0 0 
0 0 0 0 0 
0 0 0 0 0 
0 0 0 0 0 
0 0 0 0 0 
0 0 0 0 0 
-0.4875316339315323 -0.05604237477401949 0.5729737138077015 0 0 
0.03241682149947842 -0.01711017941036561 0 -0.006467828411061373 0 
0.03241682149947842 -0.01711017941036561 0 -0.006467828411061373 0 
0.03241682149947842 -0.01711017941036561 0 -0.006467828411061373 0 
0.004052283771422589 0 -0.03235000694965249 0 0 
0.004052283771422589 0 -0.03235000694965249 0 0 
0.004052283771422589 0 -0.03235000694965249 0 0 
0.2295414532966453 -0.06035958792149033 -0.1607658585032531 0 0 
0.1708910548791795 -0.002647556971906348 -0.1607658585032531 0 0 
0.1708910548791795 -0.002647556971906348 -0.1607658585032531 0 0 
0 0 0 0 0 
0 0 0 0 0 
0 0 0 0 0 
0 0 0 0 0 
0 0 0 0 0 
0 0 0 0 0 
-0.08948616952469557 -0.415557630781866 0.5686989527329357 0 0 
0 0 0 0 -0.007232354428862201 
0 0 0 0 -0.007232354428862201 
0 0 0 0 -0.007232354428862201 
0 0 0 0 0 
0 0 0 0 0 
0 0 0 0 0 
0.05216975633108462 0 -0.07629813876312212 0 0 
0.05216975633108462 0 -0.07629813876312212 0 0 
0 0 0 0 0 
0 0 -0.0199066931246772 -0.009674806312105669 -0.000455381730841303 
0 0 0 0 0 
0 0 0 0 0 
0 0 0 0 0 
0 0 0 0 0 
0 0 0 0 0 
0.05865039841746591 -0.05771203094958398 0 0 0 
0.05865039841746591 -0.05771203094958398 0 0 0 
0.05865039841746591 -0.05771203094958398 0 0 0 
0 0 0 -0.007375158913763254 -0.0004580055648748961 
0 0 0 0 0 
0 0 0 0 0 
0.2683669659152267 -0.1473834582871049 -0.02212167985728613 0 0 
0 -0.005616168891444727 0 -0.004849338443538492 0 
0 -0.005616168891444727 0 -0.004849338443538492 0 
0.04716232625286167 -0.03175821023873097 0 0 -0.006643050582040159 
0.04716232625286167 -0.03175821023873097 0 0 -0.006643050582040159 
0.04716232625286167 -0.03175821023873097 0 0 -0.006643050582040159 
0 0 0 0 0 
0.02155079350994159 -0.01038392873810532 0 0 0 
0.02155079350994159 -0.01038392873810532 0 0 0 
0.02155079350994159 -0.01038392873810532 0 0 0 
0 0 0 0 0 
0 0 0 0 0 
0 0 0 0 0 
0.04716232625286168 -0.03175821023873097 0 0 -0.0001502604289754215 
0.04716232625286168 -0.03175821023873097 0 0 -0.0001502604289754215 
0 0 0 0 -0.00314971665941409 
0 0 0 0 -0.00314971665941409 
0 0 0 0 -0.00314971665941409 
0 0 0 0 -0.00314971665941409 
0 0 0 0 0 
0 0 0 0 0 
0.0006998452396280384 0 0 0 0 
0.0006998452396280384 0 0 0 0 
0.0632107336949435 -0.09650510040143639 0 0 0 
0.0632107336949435 -0.09650510040143639 0 0 0 
0 0 0 0 0 
0 0 0 0 0 
0 0 0 0 0 
0 0 0 0 0 
-0.087873342333668 0.190478414061641 -0.09136440482852802 0 0 
0.0127983730591178 -0.02741963299574172 0 0 0 
0.0127983730591178 -0.02741963299574172 0 0 0 
0.0127983730591178 -0.02741963299574172 0 0 0 
0.0127983730591178 -0.02741963299574172 0 0 0 
0 0 0 0 0 
0 0 0 0 0 
0 0 0 0 0 
0 0 0 0 0 
0.04019853584492131 0 0 0 0 
0.04019853584492131 0 0 0 0 
0.04019853584492131 0 0 0 0 
0.04019853584492131 0 0 0 0 
0 0 0 0 0 
0 0 0 0 0 
0 0 0 0 0 
0 0 0 0 0 
0 0 0 0 0 
0 0 0 0 0 
0 0 0 0 0 
0 0 0 0 0 
0 0 0 0 0 
0 -0.03875837476834543 0 0 0 
0.03876350173506206 -0.008278412535298466 -0.0180927732024585 0 -0.01177751926264372 
0.03876350173506206 -0.008278412535298466 -0.0180927732024585 0 -0.01177751926264372 
0 0 0 0 -0.003467829459016225 
0 0 0 0 -0.003467829459016225 
0 0 0 0 -0.003467829459016225 
0 0 0 0 -0.003467829459016225 
0 0 0 0 0 
0 0 0 0 0 
0 0 0 0 0 
0 0 0 0 0 
0 0 0 0 0 
0.03110509436729946 -0.01995411616696767 0 0 0 
0.03110509436729946 -0.01995411616696767 0 0 0 
0.05382270897354761 0 -0.03584396080782991 0 0 
0.05382270897354761 0 -0.03584396080782991 0 0 
0.05382270897354761 0 -0.03584396080782991 0 0 
0.006051318406667628 -0.009366576853284661 0 0 0 
0.006051318406667628 -0.009366576853284661 0 0 0 
0.006051318406667628 -0.009366576853284661 0 0 0 
0.006053707747985905 0 -0.01612952516049162 0 0 
0.006053707747985905 0 -0.01612952516049162 0 0 
0.006053707747985905 0 -0.01612952516049162 0 0 
0.006053707747985905 0 -0.01612952516049162 0 0 
0.006053707747985905 0 -0.01612952516049162 0 0 
0.0193612246314158 -0.02534666575629414 -0.004566560753908089 0 0 
0.0193612246314158 -0.02534666575629414 -0.004566560753908089 0 0 
0.0193612246314158 -0.02534666575629414 -0.004566560753908089 0 0 
0.0193612246314158 -0.02534666575629414 -0.004566560753908089 0 0 
0 0 0 0 0 
0 0 0 0 0 
0 0 0 0 0 
0 0 0 0 0 
0 0 0 0 0 
0 0 0 0 0 
0 0 0 0 0 
0 0 0 0 0 
0 0 0 -0.001304081959300836 0 
0 0 0 0 0 
0 0 0 0 0 
0.1572518653112137 -0.03073849629328302 -0.1056933778596231 0 0 
0.1572518653112137 -0.03073849629328302 -0.1056933778596231 0 0 
0.1572518653112137 -0.03073849629328302 -0.1056933778596231 0 0 
0.1572518653112137 -0.03073849629328302 -0.1056933778596231 0 0 
0 0 0 0 0 
0 0 0 0 0 
0 0 0 0 0 
0 0 0 0 0 
0 0 0 0 0 
0 0 0 0 0 
0 0 0 0 0 
0 0 0 0 0 
0 0.05362611118437351 -0.09463589960949113 0 -0.0007085361272849152 
0.0222202678557637 0 -0.01452770479684615 0 0 
0.04125076001891395 0 -0.08697618760707425 0 0 
0.04125076001891395 0 -0.08697618760707425 0 0 
0.0222202678557637 0 -0.01452770479684615 0 0 
0.0222202678557637 0 -0.01452770479684615 0 0 
0.01903049216315023 0 -0.07244848281022809 0 0 
0 0 -0.01000846879501595 0 -0.0007886458268376082 
0 0 0 -0.001304081959300836 0 
0 0 0 -0.001304081959300836 0 
0 0 0 -0.001304081959300836 0 
0.04846327238684826 -0.03488799814881696 -0.01371856716796305 0 0 
0.04846327238684826 -0.03488799814881696 -0.01371856716796305 0 0 
0.04846327238684826 -0.03488799814881696 -0.01371856716796305 0 0 
0.04846327238684826 -0.03488799814881696 -0.01371856716796305 0 0 
0.04846327238684826 -0.03488799814881696 -0.01371856716796305 0 0 
0.04846327238684826 -0.03488799814881696 -0.01371856716796305 0 0 
0.01466742365908636 -0.001550733292009772 -0.01125439875383547 0 -0.001533923272092585 
0.01466742365908636 -0.001550733292009772 -0.01125439875383547 0 -0.001533923272092585 
0.01466742365908636 -0.001550733292009772 -0.01125439875383547 0 -0.001533923272092585 
0.01466742365908636 -0.001550733292009772 -0.01125439875383547 0 -0.001533923272092585 
0.01466742365908636 -0.001550733292009772 -0.01125439875383547 0 -0.001533923272092585 
0.01466742365908636 -0.001550733292009772 -0.01125439875383547 0 -0.001533923272092585 
