solver_type L2R_L2LOSS_SVC_DUAL
nr_class 7
label 1 2 3 4 5 6 7
nr_feature 2456
bias -1
w
0.008575241809019585 -0.007413478215362474 -0.0008195752767831175 -0.006497612529314558 0.01525893608777517 -0.008824580366676219 -0.01379467828020597 
0.01058599421955388 0 0 0 0 0 0 
0.2938589374899438 -0.3543632279918288 -0.3070480662850349 -0.2986919913367576 -0.3605290488821969 -0.2859124255512991 -0.2816689942221597 
0.1024345745094469 -0.1004809858444544 0 -0.01003191267523887 -0.04259222746482719 -0.03000352795837963 -0.01042767504441336 
0.003758873111775373 -0.0221021399779824 0 0 -0.02522848575567451 0 -0.005745963164775179 
0 0 0 0 0 0 0 
0.01058599421955388 0 0 0 0 0 0 
0.1024345745094469 -0.1004809858444544 0 -0.01003191267523887 -0.04259222746482719 -0.03000352795837963 -0.006669078811160316 
0 0 0 0 0 0 0 
0.1333164646496981 -0.1611439382052698 -0.3759055027923957 -0.3292494483797409 -0.1396964639345031 -0.3005884206208178 -0.2820713733308736 
0.2225120158579587 -0.3330252830885257 -0.3070480662850348 -0.2986919913367577 -0.3234073111260993 -0.2856694349080799 -0.2816689942221597 
0.008575241809019581 -0.007413478215362474 -0.0008195752767831175 -0.006497612529314558 0.01525893608777518 -0.008824580366676219 -0.01379467828020597 
0.06335016755297679 -0.04725164855685576 -0.1061901416882531 -0.1204752554862192 -0.03810388609182285 -0.07078216462835893 0.02321848077643467 
0.03189319351198202 0.07258497807373286 -0.121843253993656 -0.02055718730838902 -0.1328936922970178 -0.050039571470982 -0.04547895603711116 
0.07029568649268333 -0.0786837020652644 -0.1182689729498922 0 0.01878423021539209 -0.0003306997121350025 -0.03429158014149417 
0.03829038146393204 -0.0002473015125395419 0 0 -0.006149795960008805 -0.02335023509635569 -0.007218679154928642 
0.01433790859994785 -0.0002473015125395393 0 0 -0.006149795960008803 0 -0.007218679154928641 
0.01433790859994785 -0.0002473015125395393 0 0 -0.006149795960008803 0 -0.007218679154928641 
0.01433790859994785 -0.0002473015125395402 0 0 -0.006149795960008805 0 -0.007218679154928642 
0.01433790859994785 -0.0002473015125395393 0 0 -0.006149795960008803 0 -0.007218679154928641 
0.1016081810901522 -0.02170637210545151 -0.02454021924537927 -0.0769250622610671 -0.1187703620977517 -0.04269600409729511 -0.09392415662750546 
0.01433790859994785 -0.0002473015125395393 0 0 -0.006149795960008803 0 -0.007218679154928641 
0.009833323650230997 -0.01345724589750296 -0.001670099552527548 -0.00555863291003058 0.03320166741228785 -0.01846949717051409 -0.0296785089298113 
0.003603358979664483 -0.007413478215362476 -0.0008195752767831173 -0.01929277633154299 0.009726292437902819 -0.0584728368917974 -0.02549765346119413 
0.07988060394562198 -0.05844549328067618 -0.00616825537574395 -0.006375754348269608 -0.03130542582899389 -0.0158731532059083 -0.02002101093348457 
0.02307132703492407 -0.005611572503936272 0 0 -0.006470030590414582 -0.00324279625259525 0 
0 0 0 -1.084202172485504e-19 -0.008785114344414072 -0.0005121752208349939 1.084202172485504e-19 
0.04161641951491025 -0.003927336994258853 -0.0004464925245000016 -0.010286405916451 -0.04765494180484628 -0.01229926833591409 -0.01809278305865615 
0.07988060394562198 -0.05649033060709335 -0.00616825537574395 -0.006375754348269609 -0.03130542582899389 -0.01503842333206439 -0.02002101093348457 
0.02307132703492407 -0.005611572503936272 0 0 -0.006470030590414582 -0.00324279625259525 0 
0.1777417653492423 -0.2364590883721014 -0.16624567069323 -0.02938579106077741 -0.09210288058829398 -0.005666020290594885 -0.1661277106026898 
0.02130185460758634 -0.003542790299412299 0 0 -0.00858801579021805 -0.006920024377396838 -0.001732809968670686 
0.1055811660322553 -0.08180454261580912 -0.006744164592512635 -4.336808689942018e-19 -0.0298906723293893 -0.009387758023263257 -0.02916625882851512 
0.1686870919856403 -0.1311366082172061 -0.006744164592512649 6.505213034913027e-18 -0.03536632847907345 -0.02281069799286157 -0.08036415401721511 
0 0 0 0 0 0 0 
0 0 0 0 0 0 0 
0.07134692163198463 -0.02133794490330349 -3.469446951953614e-18 0 -0.03712173775609774 -0.0002429906432189794 0 
0.1669143004796329 -0.1311366082172061 -0.006744164592512642 6.938893903907228e-18 -0.03536632847907345 -0.02281069799286158 -0.03538589718320385 
0 0 0 0 0 0 0 
0 0 0 0 0 0 0 
0 0 0 0 -4.336808689942018e-19 0 0 
-0.0458666986169159 -0.0001468508230311564 0 -0.002857398999151867 0.02645055771863454 -0.01026939129093745 -0.011731299987947 
0.278094217611184 -0.2438882295065881 -0.2161911055959628 -0.08585254800644204 -0.09960590940448995 -0.07430952416329702 -0.04798089363866055 
0.02128143479582659 0 0 0 0 0 0 
0 0 0 0 -5.963111948670274e-19 0 0 
0.03016981724176751 -0.0001468508230311581 0 -0.002857398999151867 -0.04189618082688591 -0.01026939129093745 -0.011731299987947 
0.1285091410646668 -0.1072024934397169 -0.2161911055959629 -0.08585254800644204 -0.08932299662943044 -0.07430952416329702 -0.04638491989823866 
0 0 0 0 0 0 0 
0.04754964098477166 -0.02867650606492808 4.336808689942018e-19 -0.02003022831562503 -0.01919340746741542 -0.02245101314133395 -0.004004481701393611 
0.1101337443290342 -0.0983264620026446 -4.336808689942018e-18 -0.006642319675071937 -0.04903605461274912 -0.03796013040091477 -0.01828213192671379 
0.03506045735038352 -0.04431426871641259 0 -0.001786767324843184 -0.001940309556971785 -0.004579944914172974 0 
-0.04396646664247349 0 0 0 0.06856875394739478 0 0 
0 0 0 0 -0.001316319811505407 0 0 
0.1101337443290343 -0.0983264620026446 -8.673617379884035e-19 -0.006526784998790769 -0.03922464060828241 -0.03148757048822645 -0.01711473854224614 
0 0 0 0 -0.001316319811505407 0 0 
0 0 0 0 -0.001316319811505405 0 0 
0.01368100369973794 -0.002023627528664027 0 -0.003483213040149443 2.818925648462312e-18 -0.009345264694654612 -0.002413077245154139 
0.05009827633832686 -0.02525944749383924 -8.673617379884035e-19 1.734723475976807e-18 -0.002129491862752554 -0.05386210805858803 -0.002413077245154137 
0.0409455252714668 -0.006887284540346838 6.505213034913027e-19 -0.02225318194723026 -0.01862400791886416 -0.03156959848379458 -0.001724059707573564 
0.01368100369973794 -0.002023627528664027 0 1.734723475976807e-18 2.818925648462312e-18 -0.009345264694654612 -0.002413077245154139 
0.01368100369973794 -0.002023627528664023 -8.673617379884035e-19 1.517883041479706e-18 2.818925648462312e-18 -0.009345264694654612 -0.002413077245154139 
0.0409455252714668 -0.006887284540346838 6.505213034913027e-19 -0.02225318194723026 -0.01862400791886416 -0.03156959848379458 -0.001724059707573564 
0.1973132593839473 -0.1027033175413365 -0.2080267525339116 -0.01617192463471928 -0.09550988695161856 -0.03631956528113305 -0.03856864576707512 
-0.03023717288694162 0.1625757907883142 -0.121843253993656 0 -0.08646655260382123 0 -0.007709301817834965 
0 0 0 0 0 0 0 
0 0 0 0 0 0 0 
0.02579169616434471 0 0 -0.001359843131344693 0 0 0 
0 0 0 0 0 0 0 
0 0 0 0 0 0 0 
0.03896266287524155 -0.001955162673582886 0 0 -0.02062492649664806 -0.005287318187277468 -0.01866645652946229 
0.1555949080645284 -0.1124969407384867 -0.03637529207511768 -0.02489342558086722 -0.06178317946264079 -0.03725175381361234 -0.05416415076989102 
0 -0.003801779127811351 0 0 0 0 0 
0 0 0 0 0 0 0 
0.03896266287524155 -0.001955162673582886 0 0 -0.02062492649664806 -0.005287318187277468 -0.01866645652946229 
0.1555949080645284 -0.1124969407384867 -0.03637529207511768 -0.02489342558086722 -0.06178317946264079 -0.03725175381361234 -0.05416415076989102 
0 -0.003801779127811351 0 0 0 0 0 
-0.02271399891674951 0.1533155675826827 0 0 -0.08695552097883147 0 -0.0004467769967551227 
-0.1048637624355957 -0.05661729596189977 -0.1419931885378631 0 0.2518131091462413 0 -0.0004467769967551227 
-0.2149564005171842 0.3017680264822816 0.02499125122989566 -0.04167936096032968 0.04580735290084163 -0.04289616047700252 -0.04660705238129965 
-0.3392296274620618 0.2946018506015677 0 0 -0.00553935097249034 0 -0.0004467769967551227 
-0.02271399891674951 0.1533155675826827 0 0 -0.08695552097883147 0 -0.0004467769967551227 
-0.02271399891674951 0.1533155675826827 0 0 -0.08695552097883147 0 -0.0004467769967551227 
-0.7020069459382466 0.6131673169051917 0.2330180037638075 -0.0111219039173463 0.08675667520495485 -0.008858657612040305 -0.01494082810651251 
-0.3392296274620618 0.2946018506015677 0 0 -0.00553935097249034 0 -0.0004467769967551227 
0.04059385692765113 -0.02174129452723111 -0.0003208555072733543 0.05796342378207926 -0.1039012820455809 -0.04225958713489052 -0.0005524412207184664 
0.01850732907246677 -0.06484078128963307 -0.02303234462538547 -0.04402365581361668 0.01723947307158097 -0.01107667805590778 -0.03545238364357885 
0.1188406892893849 -0.1464690263960616 -0.1326640249540146 -0.0572383563783266 0.02921646927006057 -0.06102210619315158 -0.04842473926064648 
0.05454775919534181 0.05176659318876355 0.1186399884052043 -0.06801655014036632 -0.2020037344708522 -0.004661206790696988 -0.02774401029296678 
0 0 0 0 0 0 0 
0.1593384187152901 -0.169195849280443 0 -0.01048368266703547 -0.09524426347942007 -0.02838807344272958 -0.01828333116661068 
0.03189413845092502 -0.0432723618054166 -0.001670099552527543 -0.02940016452103283 0.01733104373562322 -0.03337325026218836 -0.02619552305853909 
0.07060228956178544 0.04357994132709437 -0.06213427729313177 -0.05335181397678749 -0.04256009128773646 -0.04923665865040991 0 
0.02101688957170642 -0.03649430295049719 0 0 -0.002496256113169668 -0.00127333389918616 0 
8.673617379884035e-19 6.505213034913027e-19 0 -0.0007311674862749971 -0.002659855633889283 -0.02050236215043193 -0.001599018490473892 
8.673617379884035e-19 6.505213034913027e-19 0 -0.0007311674862749971 -0.002659855633889283 -0.02050236215043193 -0.001599018490473892 
0.1234363209283223 -0.03635274055471965 -0.06213427729313177 -0.05335181397678749 -0.03591538626413172 -0.04923665865040991 0 
0 0 0 0 0 0 0 
4.336808689942018e-19 -1.734723475976807e-18 0 0 -0.005477454697643766 -0.0005827272281452394 -0.002886555298259215 
0 -0.0001468508230311659 0 0 0 -0.003563097290702936 -0.01430067820063035 
0 0 0 0 0 0 0 
0.1672350977900352 -0.06463770076786544 -0.2080267525339116 -0.009752515180760474 -0.09258440784553078 -0.01864981618596281 -0.02835173054163238 
0 -0.0001468508230311659 0 0 0 -0.003563097290702936 -0.01430067820063035 
-0.08200720071813281 0.1079948824199215 -0.01656632583138852 -0.02093272058854687 -0.03077694379040078 -0.0005827272281452373 -0.004713718380958061 
0 0 0 0 0 0 0 
0 0 0 0 0 0 0 
0.108434458007626 -0.1065771764386696 0 0 -0.05404927003504745 0 -0.0004023791087138292 
0.0131261828328247 0 0 0 -3.252606517456513e-19 -0.003474660522355308 -0.001855788562289095 
0 0 0 0 0 0 0 
0 0 0 0 0 0 0 
0.1495699888820537 -0.1065771764386696 0 0 -0.02920410994059018 0 -0.0004023791087138292 
0 0 0 0 0 0 0 
0 0 0 0 0 -0.001518184936861026 0 
0.1523790812151687 -0.138758682018987 2.38524477946811e-18 -0.01052527463315014 -0.003834912228369344 -0.02003604351260237 -0.02734197917486285 
0 0 0 0 0 -0.000759092468430513 0 
0 0 0 0 0 -0.000759092468430513 0 
0.1523790812151687 -0.138758682018987 2.38524477946811e-18 -0.01052527463315014 -0.003834912228369344 -0.02003604351260237 -0.02734197917486285 
0.0309422016103924 -0.100074401982123 3.469446951953614e-18 0.02867792482794494 -0.06859031024171656 -0.02248394642491437 -0.02721151910342559 
0.03825718126098757 -0.01410606884277011 -0.0006595451967580132 -0.01555001736234657 -0.02046658185070249 -0.01600536245955147 -0.01466174432175511 
0 0 0 0 0 0 0 
0.0309422016103924 -0.100074401982123 3.469446951953614e-18 0.0363148463508424 -0.06859031024171656 -0.02248394642491437 -0.02721151910342559 
0 0 0 0 0 0 0 
0.1370551806850882 -0.1058193856894303 8.673617379884035e-19 -0.002351889088955282 -0.002520735965101072 -0.01094262802773299 -0.007048680646487921 
0.1321097450527031 -0.1058193856894303 0 0 0 -0.002730621031760256 0 
0.1321097450527031 -0.1058193856894303 0 0 0 -0.002730621031760256 0 
0.0130722176640154 -0.03806561677347106 0 0 1.734723475976807e-18 -0.01766974909517025 -0.007692086599689376 
0.07221945894162601 -0.0419281539644057 0 -0.01314448558121536 1.734723475976807e-18 -0.0004150960994761213 -0.03490527917690459 
0.03862135394978627 1.084202172485504e-19 -1.084202172485504e-19 -0.008465916497285897 -0.009526644712846376 -0.04280424571330829 -0.001456901304837821 
0 0 0 0 0 0 0 
0 0 0 0 0 0 0 
0 0 0 0 0 0 0 
0 0 0 0 0 0 0 
0 0 0 0 0 0 0 
0.02543853048008228 -0.001680317370811944 0 0 0 0 0 
0.04166908506810156 -0.02906406720431326 5.421010862427522e-19 -0.007236846808136408 -0.0153163580279132 -0.003957372361007743 -0.01623790751024166 
0 0 0 0 0 0 0 
1.084202172485504e-19 0 0 -0.001573814698593376 0 0 0 
-0.1095889050429756 0.1131551738235488 -0.01656632583138852 0 -0.01453189907126751 0 0 
-0.04422370167532143 0.06241217909229475 -0.01656632583138852 0 -0.01453189907126751 0 0 
-0.1095889050429756 0.1131551738235488 -0.01656632583138852 0 -0.01453189907126751 0 0 
-0.1095889050429756 0.1131551738235488 -0.01656632583138852 0 -0.01453189907126751 0 0 
0.1259875488106448 -0.04369653851566466 0 -0.07597537628671217 -0.02708960702398222 -0.0004650160213513354 -0.01446531882136177 
-8.673617379884035e-19 4.811147140404426e-19 0 -0.001682281351529363 0 -0.005913333811123447 -0.003083752582426893 
0 0 0 0 0 0 0 
-8.673617379884035e-19 4.336808689942018e-19 0 0 0 -0.0004650160213513359 1.084202172485504e-19 
-8.673617379884035e-19 4.336808689942018e-19 0 0 0 -0.005913333811123447 1.084202172485504e-19 
0 0 0 0 0 0 0 
3.469446951953614e-18 0 0 0 0 -0.0001249194904068086 1.301042606982605e-18 
0.008144425551873098 0 0 0 0 -0.0001249194904068086 -4.336808689942018e-19 
0.04219061628124023 0 0 -0.01502404205058318 0 -0.03188248972171417 8.673617379884035e-19 
8.673617379884035e-19 0 0 -0.010900807913308 0 -0.001042226654392043 0 
3.469446951953614e-18 0 0 0 0 -0.0001249194904068086 -4.336808689942018e-19 
3.469446951953614e-18 0 0 0 0 -0.0001249194904068086 -4.336808689942018e-19 
0.04219061628124023 0 0 -0.01502404205058318 0 -0.03188248972171417 8.673617379884035e-19 
-8.673617379884035e-19 0 0 -0.01090080791330799 0 0 0 
0.1037772050525011 -0.07362793598950412 1.843143693225358e-18 -0.03014968664960416 -0.02248030592980813 -0.006240551725166359 -0.01036956883251672 
0.01441072924351534 0.05530428718987158 -0.1093108248213558 0.09801050951885791 -0.1008318679245254 -0.05345712325909435 -0.04860741203644845 
0 0 -0.006723159214229109 0 0 0 0 
0 0 0 0 0 0 0 
8.673617379884035e-19 0 0 -8.673617379884035e-19 0 0 0 
0 0 0 0 0 0 0 
0 0 0 0 0 0 0 
0 0 0 0 0 0 0 
0 0 0 0 0 0 0 
0 0 0 0 0 0 0 
0.1784049034424129 -0.09085534414642123 0 -0.0248311155377913 0 -0.01890935203853483 0 
0.1784049034424128 -0.09085534414642123 0 -0.0006845264317773373 -0.007289634590486213 -0.003698088564719319 -0.00881084120347417 
0.1784049034424129 -0.09085534414642123 0 -0.0248311155377913 0 0 0 
0.1784049034424129 -0.09085534414642123 0 0 0 0 0 
-0.06469773053661085 -0.0004905456548454998 0 0 0.07793103493326363 -0.003622012109251011 -0.001034416729153975 
0 0 0 0 0 0 0 
0 0 0 0 -0.005461906473777279 -0.002980370062557698 0 
0 0 0 0 0 0 0 
-0.2628114146133851 0.2998347722891002 -0.02965383349468643 0 -0.04334285468760943 0 -0.004013824048808217 
0 0 0 0 0 0 0 
0 0 0 0 0 0 0 
-0.1049395789034078 0.1943461915056183 -0.0299746890019598 -0.04386295499301956 -0.02023731549936773 -0.01971590782685519 -0.05169425725044623 
0 0 0 0 0 0 -0.00881084120347417 
0.0131261828328247 0 0 0 0 0 0 
0.0131261828328247 0 0 0 0 0 0 
0.0131261828328247 0 0 0 0 0 0 
0.0131261828328247 0 0 0 0 0 0 
0.0131261828328247 0 0 0 0 0 0 
0.0131261828328247 0 0 0 0 0 0 
0.0131261828328247 0 0 0 0 0 0 
-0.07623045589267778 0.1908872170472086 -0.121843253993656 -0.02323626580171939 -0.08646655260382122 -0.008308096847148947 -0.01406909014724962 
0.02164958850562058 -0.007525089386713987 2.168404344971009e-19 -8.673617379884035e-19 -0.007832675358553474 -0.008104877603608182 -0.003843136778067449 
-0.03483819635427744 -0.003542790299412298 4.336808689942018e-19 0 0.06625200693762531 -0.007466893526432771 -0.005879291571167425 
0.01083451312583168 -8.673617379884035e-19 0 0 -0.007832675358553474 -0.0005468691490359334 -0.003112064873342763 
0.00855767957474707 0 0 0 -0.007832675358553474 -0.0005468691490359334 -0.003112064873342763 
0.00855767957474707 0 0 0 -0.007832675358553474 -0.0005468691490359334 -0.003112064873342763 
0.00855767957474707 0 0 0 -0.007832675358553474 -0.0005468691490359334 -0.003112064873342763 
-0.05503900344472187 -0.1706090996943743 0.2134488374482996 -0.001359843131344693 -0.02663552391349509 0 0 
-0.03783526773325935 0.04179867414879504 0 -0.007082986605441059 -0.008646492039671019 -0.01614560059023606 -0.01230808861977099 
0.03172763053104698 -0.01003316826730248 0 -0.01330996142318117 -0.005657321181120676 -0.004081358464380731 -0.01027718519892112 
0.03559162152312814 0 0 -0.001359843131344693 0 0 0 
-0.04454270158218255 0.04734170639680641 3.469446951953614e-18 -0.007022875240887728 -0.008646492039671015 -0.01614560059023606 -0.01230808861977099 
0.009799925358783445 0 0 0 0 0 0 
-0.1007109001442158 -0.07424001832214842 0.04097191728123761 0.1494534847314119 -0.07506450822481299 -0.007103113774208044 -0.01157789435645067 
6.734322759572513e-05 -8.673617379884035e-19 0 0 0 -2.710505431213761e-20 0 
0.06669909452218163 0 0 -0.04590531106086307 -0.0004509250609076867 -0.00975791273049777 -0.003463967339212564 
0 -0.001496530046988594 0 0 0 0 0 
0 0 0 0 0 0 0 
0.06669909452218163 0 0 -0.04590531106086307 -0.0004509250609076867 -0.00975791273049777 -0.003463967339212564 
0 0 0 0 0 0 0 
0 -2.602085213965211e-18 0 0 0 -0.009806709144315667 0 
0 -2.602085213965211e-18 0 0 0 -0.009806709144315667 0 
0 0 0 0 0 0 0 
0 0 0 0 0 0 0 
0 0 0 0 0 0 0 
-0.02870692171260313 -0.1706090996943743 0.1770735453731817 -9.978038911630723e-05 -0.0981245161205055 -0.001147524013141135 -0.02689880489102693 
0 0 0 0 0 0 0 
0.01072576790153469 -0.005000130064832928 0 0 0 -0.00133479259941071 0 
0 0 0 0 0 0 0 
0 0 0 0 0 0 0 
0 0 0 0 0 0 0 
0 0 0 -0.0001155346762811722 0 0 0 
0 0 0 0 0 0 0 
0 0 0 0 0 0 0 
0 0 0 0 0 0 0 
0 0 0 0 0 0 0 
0 0 0 0 0 0 0 
0 0 0 0 0 -0.0005297930025529678 0 
0 0 0 0 0 0 0 
0 0 -6.505213034913027e-19 0 0 -0.003791318778017218 0 
0.02906660915152183 -0.0111713987929986 -8.673617379884035e-19 -1.694065894508601e-20 -6.505213034913027e-19 -0.009559214264523108 -0.001691748340465262 
0.04523272297959673 0 0 0 -0.06267902883557357 0 0 
0 0 0 0 0 0 0 
0.02906660915152183 -0.0111713987929986 -8.673617379884035e-19 -1.694065894508601e-20 -6.505213034913027e-19 -0.009559214264523108 -0.001691748340465262 
0 0 0 0 0 0 0 
0.01660961870931193 0 -0.00095614704911976 -0.006470438475898654 -0.002674883049574201 -0.01362535866422197 -0.01293184378328525 
0.04397439697039254 -0.01578799384161265 1.843143693225358e-18 -0.02744035285420076 -0.03083064870336581 -0.01970143209772933 -0.01415111229664048 
0.0144396315201752 0 0 -0.0009722004973347861 -0.00788692973969728 -0.005442908383798072 -0.01953367725526932 
0 0 0 0 0 -0.003791318778017218 0 
0 0 0 0 0 -0.003791318778017218 0 
0.04135134403492412 -0.01578799384161265 -1.626303258728257e-18 -0.02744035285420076 -0.02429340664323722 -0.01960124246495783 -0.01252872107198415 
0 0 0 0 -0.00788692973969728 -0.005442908383798072 0 
0.06348098694731084 -0.04738917727139689 0 -0.008474544732363505 -0.008377410875241393 -0.0248747661734806 -0.02052131495330266 
0.0366512498918411 -0.03649430295049719 0 -0.0009722004973347861 -0.008377410875241397 -0.01220707214651274 -0.01953367725526932 
0.0144396315201752 0 0 -0.0009722004973347861 0 0 -0.01953367725526932 
0.06536520336765435 -0.05074299473125406 0 -0.01577021143304252 -0.05048530838165414 -2.168404344971009e-19 0 
0.1174040341649852 -0.06825462454900626 -0.02653741947608895 -0.08837323107617723 -0.03650408394807201 -0.04154540191307602 -0.02015965632887057 
0 0 0 0 -0.05048530838165412 0 0 
0.06536520336765435 -0.05074299473125406 0 -0.01577021143304252 -0.05048530838165414 -2.168404344971009e-19 0 
0 0 0 0 -0.002143960153621293 0 0 
0 0 0 0 0 0 0 
0 0 0 0 0 0 0 
0.01837730686795444 0 0 0 0 0 0 
-0.1713217740425514 0.110349306023739 -0.02087812295245969 0 -0.01857523006319706 0.080392836746579 -0.002770925243114198 
0.01837730686795444 0 0 0 0 0 0 
-0.09769379502288081 -0.03087363912095321 0 0 0 0.1507742572829324 0 
0 0 0 0 -0.0005640454395604878 0 0 
0.1144074280486361 -0.06221901277468941 8.673617379884035e-19 -0.0310941479250463 -0.01931228199659117 -0.0372774965842298 -0.0149821336317461 
0 0 0 0 -0.0005640454395604878 0 0 
0.1686103105620499 -0.1205743588329293 -1.734723475976807e-18 -0.03055745704298339 -0.02919204669381684 0 -0.01195786143875156 
0.1144074280486361 -0.06221901277468941 8.673617379884035e-19 -0.0310941479250463 -0.01931228199659117 -0.0372774965842298 -0.0149821336317461 
0 0 0 0 -0.0005640454395604878 0 0 
-0.2801305980147122 -0.006680842614059643 0.3137412855501742 -0.0111219039173463 0.1431096848258853 -0.001254784338239245 -0.01302392803784803 
-0.03994414342270535 -0.1706090996943742 0.2134488374482996 0 -0.0981245161205055 0 0 
-0.03994414342270535 -0.1706090996943742 0.2134488374482996 0 -0.0981245161205055 0 0 
-0.335536945409744 -0.006680842614059643 0.326653705518431 -0.0111219039173463 0.1873252534444625 0 -0.007709301817834964 
8.673617379884035e-19 0 0 -0.010900807913308 0 0 0 
0 0 0 0 0 0 0 
0 0 0 0 0 0 0 
0 0 0 0 0 0 0 
0 -1.355252715606881e-19 0 0 0 -0.007813548578150691 -0.003758596233253054 
0.08369113223196484 -0.02610087330602787 0 -0.007905039468060534 0 -0.03336143668493984 -0.001456901304837821 
0.01250029203189152 0 0 -0.02246328555544723 0 -0.005307614575712033 0 
0 -8.673617379884035e-19 0 0 0 0 0 
0 -8.673617379884035e-19 0 0 0 0 0 
0 0 0 0 0 0 0 
0.01314647592104293 0 0 0 0.02261640279950646 -0.0149189857127377 0 
0.01381270058577791 0 0 0 0 -0.004430266947083972 0 
0.01381270058577791 0 0 0 0 0 0 
0.01381270058577791 0 0 0 -0.007507740772474684 0 0 
0.01381270058577791 0 0 0 0 0 0 
0.01381270058577791 0 0 0 0 -0.003913887044786887 0 
0.01381270058577791 0 0 0 0 0 0 
0.01381270058577791 0 0 0 0 0 0 
0 0 0 -0.007636921522897458 0 0 0 
0 0 0 0 0 0 0 
0.05053484688498559 -0.141286283018885 0 -0.03055745704298339 0.1322766000405115 0 0 
0 0 0 0 0 0 0 
-0.1084377187839563 0.1529778094323758 0 0 -0.01143998379393442 -0.00182861237651517 -8.673617379884035e-19 
0 0 0 0 0 0 -0.002377460379676313 
0.01335844843065187 -0.01881874497288546 0 0 0 -0.001712597650625123 0 
0.01335844843065187 -0.01881874497288546 0 0 0 -0.001712597650625123 0 
0 0 0 0 0 0 0 
0.0001791852708576674 0 0 0 0 0 -0.004445757470637529 
0.004010367621595249 0 0 0 -0.003771712415222103 -0.0064725599126883 -0.004445757470637529 
-0.2507226332111513 -0.00225682089004557 0 0 -0.009239222301273737 -0.000528418918252845 0.2418797352046788 
0.0001791852708576674 0 0 0 0 0 -0.004445757470637529 
0.004010367621595249 0 0 0 -0.003771712415222103 -0.0064725599126883 -0.004445757470637529 
0.0001791852708576674 0 0 0 0 0 -0.004445757470637529 
0 -0.003801779127811351 0 0 0 0 0 
0 0 0 0 0 0 0 
0.002736605678003712 0 0 -1.084202172485504e-19 -0.003280499089271971 0 0 
0 0 0 0 -0.003280499089271971 0 0 
0 0 0 -1.084202172485504e-19 -0.003280499089271971 0 0 
0 0 0 0 -0.003280499089271971 0 0 
0 0 0 0 0 0 0 
0 0 0 0 0 0 0 
0 0 0 0 0 0 0 
-1.734723475976807e-18 0 0 0 0 0 0 
0.1820968936316177 -0.1312603581201044 -0.02653741947608896 0 -0.001651625646279203 0 0 
0.02559835724956402 -0.005000130064832929 0 -0.01304963233975122 -0.02795192338977 -0.02229871805680609 -0.01502608775792904 
0.0255510495757184 -0.03889857136272235 0 0 0 0 0 
0 0 0 0 0 0 0 
0.02559835724956402 -0.005000130064832929 0 -0.01304963233975122 -0.02795192338977 -0.02229871805680609 -0.01502608775792904 
0 0 0 0 0 0 0 
0.1820968936316177 -0.1312603581201044 -0.02653741947608896 -0.009590154094520128 -0.001651625646279203 0 0 
0.1820968936316177 -0.1312603581201044 -0.02653741947608896 0 -0.001651625646279203 0 0 
0.1820968936316177 -0.1312603581201044 -0.02653741947608896 0 -0.001651625646279203 0 0 
0.1820968936316177 -0.1312603581201044 -0.02653741947608896 0 -0.001651625646279203 0 0 
0.04842489357803187 -0.0301965534414837 0 -0.01415514681251406 -0.005276535662967644 -0.004035980828047417 -0.002647275617870553 
0 0 0 0 0 0 0 
0 0 0 0 0 -0.03080800918842894 -0.004229234075556643 
0 0 0 0 0 -0.03080800918842894 0 
0.07722747192655444 -0.05154330722009204 -8.673617379884035e-19 -0.07717300705340403 -0.03157188627575456 -0.03148407536845135 -0.02015965632887057 
0.01859271876008491 0 0 0 0 0 0 
0.01859271876008491 0 0 0 0 0 0 
0.0307032300958726 -0.04090101661527742 0 0 0 -0.006014401164943925 0 
0.01734478166522074 -0.04090101661527742 0 0 0 0 0 
0.01734478166522074 -0.04090101661527742 0 0 0 -0.006014401164943925 0 
0.02722867366258704 -0.06337646359101265 0 -0.009752515180760474 -0.09258440784553081 -0.005155090260537398 -0.01245507860058014 
0.003831182350737579 0 0 0 0 0 0 
0.003831182350737579 0 0 0 0 0 0 
0.003831182350737579 0 0 0 0 0 0 
0 0 0 0 0 0 -0.0149821336317461 
0.03825718126098757 -0.01410606884277011 -0.0006595451967580132 -0.01555001736234657 -0.02046658185070249 -0.01600536245955147 -0.01466174432175511 
0 0 0 0 0 0 0 
0 0 0 0 0 0 0 
0 0 0 0 0 0 0 
0 0 0 0 -0.001197352445637657 0 -0.01519374360827725 
0.1614763710952453 -0.1157215144834479 4.336808689942018e-19 -0.01112484092048914 -0.02164305536043439 -0.02807922380299952 -0.00490967319939436 
0 0 0 0 0 0 0 
0.02936662604254225 -0.009902128794017716 0 -0.01112484092048914 -0.02164305536043439 -0.02807922380299952 -0.00490967319939436 
-0.02280584009231434 0.0372515522500535 -0.01464487734145961 0 -0.03730704690567376 0 -0.01209471445536032 
-0.02781813361748544 0.0372515522500535 -0.01464487734145962 -0.00282051823917742 -0.03730704690567376 0 -0.01169233534664649 
0.03624617283868543 -0.01289316798321813 0 0 0 0 -0.00767851129783827 
-0.03172692835662897 0.0372515522500535 -0.01464487734145961 0 -0.03730704690567376 0 -0.01169233534664649 
-0.03172692835662894 0.0372515522500535 -0.01464487734145961 0 -0.03730704690567376 0 -0.01169233534664649 
0.03624617283868543 -0.01289316798321813 0 0 0 0 -0.00767851129783827 
0 0 0 0 0 0 0 
0 0 0 0 0 0 0 
0 0 0 0 0 0 0 
0 0 0 0 0 0 0 
0 0 0 0 0 0 0 
0.03825718126098757 -0.01410606884277011 -0.0006595451967580132 -0.01555001736234657 -0.02046658185070249 -0.01600536245955147 -0.01466174432175511 
0.03825718126098757 -0.01410606884277011 -0.0006595451967580132 -0.01555001736234657 -0.02046658185070249 -0.01600536245955147 -0.01466174432175511 
-0.1679408144179338 -0.04413266942189324 -0.0003208555072733591 0.09829647105665129 -3.469446951953614e-18 0 -1.328059036774455e-05 
-0.2516976674586112 0 0 0.2880683809415008 -0.005937065325283102 0 0 
-0.3942125054385289 0 0 0.3186258379844842 0 0 0 
-0.3009235226322956 0 0 0.1654774546443681 4.336808689942018e-19 0 0 
-0.2516976674586112 0 0 0.2880683809415008 -0.005937065325283102 0 0 
-0.3942125054385289 0 0 0.3186258379844842 0 0 0 
0 0 0 0 0 0 -0.0139997354890459 
0 0 0 0 0 0 -0.0139997354890459 
0 0 0 0 0 0 -0.0139997354890459 
0.1055811660322553 -0.08180454261580912 -0.006744164592512635 0 -0.02932662688982882 -0.001574209445112567 -0.02540766259526206 
0.06491611223094054 -0.07988255535715051 -0.0008195752767831036 -0.007058489558539918 0.007788651847488998 -0.01271445362450148 -0.03386486749014098 
-8.673617379884035e-19 -0.0001468508230311651 0 0 0 0 0 
0.01489812693454447 0 0 -0.002228952711250867 0 0 0 
0.07001993609223148 -0.04296245506378031 0 -0.009865874234148328 -0.06267902883557357 0 0 
0 0 0 -0.002228952711250867 0 0 0 
0 0 0 -0.002228952711250867 0 0 0 
0 0 -0.006450456981509421 0 -0.01630732024318062 -0.0012733235394963 0 
0 0 -0.006450456981509421 0 -0.01630732024318062 0 0 
0 0 -0.006450456981509421 0 -0.01630732024318062 0 0 
0.0365905020576759 -0.001139460288677879 0 -0.005663032109543035 -0.002637559782731696 -0.003957372361007744 -0.004633075279369338 
0.02404904247801129 -2.168404344971009e-19 -0.06213427729313177 0 0.00582017641903388 0 0 
0.002276833551084605 0 0 0 0 0 0 
0.02969885269409839 -2.168404344971009e-19 0 0 -0.008121708671545625 0 0 
0.01123304456378884 0 0 0 0 0 0 
0.002276833551084605 0 0 0 0 0 0 
0.02192770517226352 -0.01003316826730248 0 -0.01330996142318117 -0.0001954147073433915 -0.004081358464380731 -0.01027718519892112 
0 0 0 0 0 0 0 
0 0 0 0 0 0 0 
0 0 0 0 0 0 0 
0.06422023408471547 -2.818925648462312e-18 0 -0.02792892605310595 -0.00302682944501459 -0.03188248972171418 0 
0.01489812693454447 0 0 0 -2.168404344971009e-19 0 0 
0.01489812693454447 0 0 0 0 0 0 
0.01489812693454447 0 0 0 -2.168404344971009e-19 0 0 
0.01489812693454447 0 0 0 0 0 0 
0.05907062097533698 -0.06532561455971225 -0.0009561470491197548 -0.007560654369430254 -0.022375592602844 -0.02494505951549422 -0.02256682908385976 
0 0 0 0 0 0 0 
0.05907062097533698 -0.06532561455971225 -0.0009561470491197548 -0.007560654369430254 -0.022375592602844 -0.02494505951549422 -0.02256682908385976 
-0.001913512142263899 0.02726052652732912 -0.0009561470491197582 -0.004187609168293198 -0.05411990440009801 -0.0194020093294515 -0.02782857470121293 
0 0 0 0 0 0 0 
-1.734723475976807e-18 0 0 0 0 0 0 
0.07847660001837889 -0.0461308834622835 -0.0009561470491197617 -0.004187609168293199 -0.04727466621385697 -0.01007703052942373 -0.02312980428415916 
0 -0.0006152958644784149 0 0 0 0 0 
0.02629675757322835 -0.01003316826730248 0 -0.01330996142318117 -0.02490358516873176 -0.00982887561030734 -0.01027718519892112 
0.03772305195425205 -0.03461814920484991 -8.673617379884035e-19 -0.02746510823569522 -0.00764845455423359 -0.02003215263832141 -0.01348583499467946 
0.02192770517226352 -0.01003316826730248 0 -0.01330996142318117 -0.006839024149928207 -0.00982887561030734 -0.01027718519892112 
0.03772305195425205 -0.03461814920484991 -8.673617379884035e-19 -0.02746510823569522 -0.00764845455423359 -0.02003215263832141 -0.01348583499467946 
0 0 -0.006723159214229109 0 0 0 0 
0 0 0 0 0 0 0 
0 0 0 0 0 0 0 
0 0 0 0 0 0 0 
0 0 0 0 0 0 0 
0 0 0 0 0 0 0 
0 0 0 0 0 0 0 
0.05276205415401285 -0.01678564889572495 6.505213034913027e-19 -0.005224627572443326 -0.0136036092495446 -0.03287538786359369 -0.01739297069071586 
0.02835620403995204 -0.006887284540346836 0 0 0 -0.0001160147258900453 0 
0.0226306825215664 -1.734723475976807e-18 0 0 -0.003730835167580837 -0.02515569969967542 -0.00964657558947796 
0.01506568581622321 -0.008392824447862478 0 0 0 -0.001918403890215644 -0.003873197550618949 
0.0406521721071337 -0.03896179288206795 1.301042606982605e-18 -0.02856662212766972 -0.02777885870521132 -0.008287617568179315 -0.006751055384251566 
0.01506568581622321 -0.008392824447862478 0 0 0 -0.001918403890215644 -0.003873197550618949 
0.03387964339675934 -0.0133929545126954 -4.336808689942018e-19 -0.01171488669040739 -0.02777885870521132 -0.003253196489626356 -0.003873197550618949 
0.01506568581622321 -0.008392824447862478 0 0 0 -0.001918403890215644 -0.003873197550618949 
0.01506568581622321 -0.008392824447862478 0 -0.001786767324843184 -0.0001730646845586903 -0.003859844081959141 -0.003873197550618949 
0 0 0 0 0 0 0 
0 0 0 0 0 0 0 
0.001772791506007333 0 0 0 0 0 -0.001505400944328316 
0 0 0 0 0 0 0 
0 0 0 0 0 0 0 
0 0 0 0 0 0 0 
0 0 0 0 0 0 0 
0 0 0 -0.00750234423502872 0 0 0 
0 0 0 -0.00750234423502872 0 0 0 
0 0 0 -0.00750234423502872 0 0 0 
0 0 0 -0.00750234423502872 0 0 0 
0 0 0 -0.00750234423502872 0 0 0 
0 0 0 0 0 0 0 
0.01660961870931193 0 -0.00095614704911976 -0.006470438475898654 -0.002674883049574201 -0.009834039886204755 -0.01293184378328525 
0.02211942753119605 -0.01575335515081782 0 -0.005938917313114995 -0.04259222746482719 -0.001116966606393585 -0.0149821336317461 
0.006707433848923216 -0.005543032248011356 0 0 0 0 0 
0.006707433848923216 -0.005543032248011356 0 0 0 0 0 
0.006707433848923216 -0.005543032248011356 0 0 0 0 0 
0.006707433848923216 -0.00554303224801136 0 0 0 0 0 
0 0 0 0 0 0 0 
0.01700594392989675 0 0 -0.006419409453958819 -0.002925479106087806 0 0 
0 0 0 0 0 0 0 
0 0 0 0 0 0 0 
0 0 0 0 0 -0.003975133353474831 0 
0.08391474685637844 -0.05382893248734545 -0.006168255375743946 -0.006375754348269606 -0.03945291307133118 -0.02174580257643756 -0.02285380510370297 
0 0 0 0 0 -0.003975133353474831 0 
0.04131103764120572 -0.04674335188852087 -0.006168255375743948 -0.006375754348269606 -0.02227688149089506 -0.007905753821643878 -0.0193881851663616 
0 0 0 0 0 0 0 
0 0 0 0 0 0 0 
0.03896266287524156 0 0 0 -0.02062492649664806 -0.004052293436935292 -0.01866645652946229 
0 0 0 0 0 0 0 
0 0 0 0 0 0 0 
0 0 0 0 0 0 0 
0 0 0 0 0 0 0 
0 0 0 0 0 0 0 
0 0 0 0 -0.007507740772474684 0 0 
0 0 0 0 0 0 0 
0 0 0 0 0 0 -0.003463967339212564 
0.004591780755402901 -8.673617379884035e-19 0 0 0 0 0 
0 0 0 0 0 0 0 
0 0 0 0 0 0 0 
0.01123722171010223 8.673617379884035e-19 -0.01507642786600074 0 -0.00342351665347391 -0.001147524013141135 -0.02689880489102693 
0.01123722171010222 -4.336808689942018e-19 -0.01507642786600074 0 0 -0.001147524013141135 -0.02689880489102693 
0.01123722171010222 -4.336808689942018e-19 -0.01507642786600074 0 0 -0.001147524013141135 -0.02689880489102693 
1.734723475976807e-18 0 0 0 0 0 0 
0 0 0 0 0 0 0 
0 0 0 0 -0.001409248542108595 0 0 
0 0 0 0 -0.001409248542108595 0 0 
0 0 0 0 -0.001409248542108595 0 0 
0 0 0 0 -0.001409248542108595 0 0 
0 0 0 0 -0.001409248542108595 0 0 
0 0 0 0 -0.00230695358132391 0 0 
-0.2628114146133851 0.2998347722891002 -0.02965383349468643 0 -0.04334285468760943 0 -0.004013824048808217 
0 0 0 0 0 0 -0.005314626220013064 
0 0 0 0 0 0 -0.005314626220013064 
0.02614698898665696 0 0 0 -0.00899162972268158 0 -0.005314626220013064 
0 0 0 0 0 0 0 
0 0 0 0 0 0 0 
0 0 0 0 -0.005461906473777279 0 0 
0 0 0 0 -0.005461906473777279 0 0 
0 0 0 0 0 0 0 
0 0 0 0 0 0 0 
0 0 0 0 0 0 0 
0 0 0 0 0 0 0 
0 0 0 0 0 0 0 
0 0 0 0 0 0 0 
1.734723475976807e-18 0 0 0 0 0 -0.004698770417053761 
0 0 0 0 0 0 0 
0 0 0 0 0 0 -0.00881084120347417 
-0.2435819758522055 -0.00225682089004557 0 0 -0.009239222301273737 -0.0005284189182528439 0.251514386960888 
0 0 0 0 0 0 -0.00881084120347417 
0 0 0 0 0 0 -0.00881084120347417 
0.01831405396160143 -0.04418497485445128 -1.192622389734055e-18 -0.01459812564384047 -0.07637668321154223 -0.04881023719211082 0.08026282966502929 
0 0 0 0 0 0 0 
0 0 0 0 0 0 0 
0 0 0 0 0 0 0 
0 0 0 0 0 0 0 
0 0 0 0 0 0 0 
0 -8.673617379884035e-19 0 0 -2.168404344971009e-18 0 0 
0 0 0 0 0 -8.673617379884035e-19 -0.0009876376980333429 
0 0 0 0 0 0 -0.0009876376980333429 
0 0 0 0 0 0 -0.0009876376980333429 
0.02243855391814292 0 4.336808689942018e-19 -0.01409131100251003 -0.002217705760933069 -0.005232869833203159 -0.002543821127384681 
0.04493785190012374 -0.01403753500865391 0 0 -0.01993727280460432 -0.000206639212138492 -0.002543821127384682 
0.01014456708520675 0 0 0 0 -0.004642668720797849 -0.002543821127384681 
0.01014456708520675 0 0 0 0 0 -0.002543821127384681 
0.01014456708520675 0 0 0 0 0 -0.002543821127384681 
0.04493785190012375 -0.01403753500865391 0 0 -0.0126476382141181 -0.000206639212138492 -0.002543821127384681 
0.01014456708520675 0 0 0 0 0 -0.002543821127384681 
0.01014456708520675 0 0 0 0 0 -0.002543821127384681 
0.05153698497563387 -0.03292081295491982 0 0 0 0 -0.0002927641812213818 
0 0 0 0 0 0 0 
0 0 0 0 0 0 0 
0.0293146592288099 -0.02450677954658963 0 0 -0.007388897470712422 -0.006653292862023935 0 
0.002484922173340164 -0.01361190522568993 0 0 0 0 0 
0.002484922173340164 -0.01361190522568993 0 0 -0.002035477378508892 0 0 
0.002484922173340164 -0.01361190522568993 0 0 0 0 0 
0.002484922173340164 -0.01361190522568993 0 0 0 0 0 
0.002484922173340164 -0.01361190522568993 0 0 0 0 0 
0 0 0 0 0 0 0 
0 0 0 0 0 0 0 
0.01166400416351588 0 0 -0.007905039468060534 0 1.951563910473908e-18 -0.001456901304837821 
0.02658988828405162 0 0 -0.03007006522584911 0 0 0 
0 0 0 0 0 0 0 
0 0 0 0 0 0 0 
0 0 0 0 0 0 0 
0.1495850765465173 -0.1366857360668711 -0.003662096292919616 -0.003275309816897718 -0.0102829127750595 0 0 
0 0 0 0 0 0 0 
0 -2.168404344971009e-18 0 0 0 0 0 
0 0 0 0 0 0 0 
0 0 0 0 -0.0007202433206439652 0 0 
0 0 0 0 0 0 0 
0 0 0 0 0 0 0 
0 0 0 0 0 0 0 
-0.060328678135646 0 0 0 0.06532838038823734 0 -0.001034416729153975 
0 0 0 0 0 0 0 
0 0 0 0 0 0 0 
0.03213967007778647 4.336808689942018e-19 0 -0.01067147048923414 -0.00302682944501459 0 0 
0 0 0 0 -0.00302682944501459 0 0 
0 0 0 0 -0.00342351665347391 0 0 
0.03213967007778647 4.336808689942018e-19 0 -0.01067147048923414 -0.00302682944501459 0 0 
0 0 0 0 -0.00302682944501459 0 0 
-0.04197986427063052 -0.01345724589750296 -0.001670099552527546 -0.007772231257651776 0.07975991460429641 -0.01580063315278713 -0.01497839905354364 
0.02754676430629911 0 0 -0.002695037912911522 -0.03535893876675732 -0.005114301030400048 -0.002436395958497122 
0.02754676430629911 0 0 -0.002695037912911522 -0.03535893876675732 -0.005114301030400048 -0.002436395958497122 
0.02754676430629911 0 0 -0.002695037912911522 -0.03535893876675732 -0.005114301030400048 -0.002436395958497122 
-0.2396645967719068 -0.00225682089004557 -8.673617379884035e-19 0 -0.009239222301273737 -0.0007741490237535236 0.2032777663021199 
0.01123722171010222 0 0 0 0 0 -0.02689880489102693 
0.001267247468102683 0 0 0 0 -0.005307614575712033 0 
0.001267247468102683 0 0 -0.002133314662560903 0 -0.005307614575712033 0 
0.001267247468102683 0 0 0 0 -0.005307614575712033 0 
0.001267247468102683 0 0 0 0 -0.005307614575712033 0 
0.001267247468102683 0 0 0 0 -0.005307614575712033 0 
0 0 0 0 0 0 0 
0 0 0 0 0 0 0 
0.02879081437468329 0 6.505213034913027e-19 -0.02856662212766972 -0.01342216205325973 -0.03292064713497157 -0.0311226692292147 
0.006772528710374327 0 0 -0.01685173543726234 0 -0.003145395400770143 0 
0.02879081437468329 0 6.505213034913027e-19 -0.02856662212766972 -0.01342216205325973 -0.03292064713497157 -0.0311226692292147 
0 0 -0.003662096292919616 -0.003275309816897718 0 0 0 
0 0 0 0 0 0 -0.002524828625753363 
0 0 0 0 0 0 -0.002524828625753363 
0 0 0 0 0 0 -0.002524828625753363 
0 0 0 0 0 0 -0.002524828625753363 
0 0 0 0 0 0 0 
0.03760838675600585 -0.01759356944615386 -0.09119897343184154 -0.02323626580171939 -1.734723475976807e-18 -0.01890935203853484 0 
0 0 0 0 0 0 0 
0.02202961780347524 0 0 -0.02323626580171939 0 0 0 
0 0 0 0 0 0 0 
0 0 0 0 0 0 0 
0 0 0 0 0 0 0 
0.02543853048008228 -0.001680317370811944 0 0 0 0 0 
0 0 0 0 0 0 0 
0.01047775621011219 -0.02133794490330348 0 0 0 0 0 
0 0 0 0 0 0 0 
0 0 0 0 0 0 0 
0.01047775621011219 -0.02133794490330348 0 0 0 0 0 
0 0 0 0 0 0 0 
0 0 0 0 0 0 0 
0 0 -2.168404344971009e-19 -0.0001155346762811722 0 0 0 
0 0 0 -0.0001155346762811722 0 0 0 
0 0 0 -0.0001155346762811722 0 0 0 
0 0 0 -0.0001155346762811722 0 0 0 
0.004618769673463034 0 0 0 -0.009650449638037621 0 0 
0.004618769673463034 0 0 0 -0.009650449638037621 0 0 
0.0169127565063992 0 0 -0.01409131100251003 -0.01186815539897069 -0.005874511879896471 -0.002281995825562611 
0 0 0 0 0 0 0 
0 0 0 0 0 0 0 
0 0 0 0 0 0 0 
0.02478721311263474 -0.04296245506378032 0 0 0 0 0 
0.1756224914887324 -0.1812322831827129 0 0 -0.00359357358246515 0 0 
-0.05224025206278653 0.09133427240591638 -0.0003208555072733556 -0.02004699892257003 -0.0001620969237303778 -0.006826979933254855 -0.0003060447715891262 
0.02478721311263474 -0.04296245506378032 0 0 0 0 0 
0.02478721311263474 -0.04296245506378032 0 0 0 0 0 
0.01274623702221904 0.03810641968881982 -0.0003208555072733556 -0.02004699892257003 -0.001379788849522189 -0.004356434340411149 -0.0003060447715891264 
0.02478721311263474 -0.04296245506378032 0 0 0 0 0 
6.734322759572513e-05 -8.673617379884035e-19 0 0 0 -2.710505431213761e-20 0 
6.734322759572513e-05 -8.673617379884035e-19 0 0 0 -2.710505431213761e-20 0 
6.734322759572513e-05 -8.673617379884035e-19 0 0 0 -2.710505431213761e-20 0 
0 0 0 0 0 -0.00127333389918616 0 
0 0 0 0 0 -0.00127333389918616 0 
0 0 0 0 0 -0.00127333389918616 0 
0 0 0 0 0 0 0 
-0.148691347205128 0.1590072219702225 0 0 0 0 0 
0 0 0 0 0 0 0 
0 0 0 0 0 0 0 
0 0 0 0 0 0 0 
0 -0.002675911319968777 0 0 0 0 0 
0 -0.002675911319968777 0 0 0 0 0 
0 -0.002675911319968777 0 0 0 0 0 
0 -0.002675911319968777 0 0 0 0 0 
0 -0.002675911319968777 0 0 0 0 0 
-1.734723475976807e-18 -0.02277391326427601 0 0 0 -0.005849179358157118 0 
0 -0.02277391326427601 0 0 0 0 0 
0 -0.02277391326427601 0 0 0 -0.005849179358157118 0 
0 -0.02277391326427601 0 0 0 0 0 
0.02543853048008228 -0.001680317370811944 0 0 0 0 0 
0.02543853048008228 -0.001680317370811944 0 0 0 0 0 
0.02543853048008228 -0.001680317370811944 0 0 0 0 0 
0.02543853048008228 -0.001680317370811944 0 0 0 0 0 
0.02543853048008228 -0.001680317370811944 0 0 0 0 0 
0 0 0 0 0 -0.006432412937101626 0 
0 0 0 0 0 0 0 
0 0 0 0 0 0 0 
0 0 0 0 0 0 0 
0 0 0 0 0 0 0 
0.04708638752675594 -0.02809304678855709 0 -0.01114522566562459 -0.01918170140225544 -0.009806709144315669 0 
0.009076853620906296 -0.01021032290280647 0 -0.005938917313114996 -2.168404344971009e-19 -0.001116966606393585 0 
0 0 0 0 0 0 0 
0.04708638752675594 -0.02809304678855709 0 -0.01114522566562459 -0.01918170140225544 -0.009806709144315669 0 
0 0 0 0 0 0 0 
0 0 0 0 0 0 0 
0 0 0 -0.002579413216001656 0 0 0 
0 0 0 0 0 0 0 
0 0 0 0 0 0 0 
0 0 0 0 0 0 0 
0 0 0 0 0 0 0 
0 0 0 0 0 0 0 
0 0 0 0 -0.002035477378508893 0 0 
0 0 0 0 0 0 0 
0 0 0 0 -0.002035477378508893 0 0 
0 0 0 0 0 0 0 
0 0 0 0 0 0 0 
0 0 0 0 0 0 0 
0 0 0 0 0 0 0 
0 0 0 0 0 0 0 
0 0 0 -0.002900841506780192 0 0 0 
0 0 0 0 0 0 0 
0 0 0 0 0 0 0 
0 0 0 0 0 0 0 
0 0 0 0 0 0 0 
-0.2096754675432448 0.2182025100007467 0 0 -0.003051131441139569 0 0 
-0.2096754675432448 0.2182025100007467 0 0 -0.003051131441139569 0 0 
-0.2096754675432448 0.2182025100007467 0 0 -0.003051131441139569 0 0 
-0.2036693097426347 0.2182025100007467 0 0 -0.003051131441139569 0 0 
-0.2096754675432448 0.2182025100007467 0 0 -0.003051131441139569 0 0 
0.1495850765465173 -0.1366857360668711 0 0 -0.01028291277505951 0 0 
0.1495850765465173 -0.1366857360668711 0 0 -0.01028291277505951 0 0 
0.1495850765465173 -0.1366857360668711 0 0 -0.01028291277505951 0 0 
0.1495850765465173 -0.1366857360668711 0 0 -0.01028291277505951 0 0 
0.04383074848795267 -0.009219057835701689 0 0 0 0 0 
0 0 0 0 0 0 0 
0.01335844843065187 0 0 0 0 0 0 
0 0 0 0 0 0 0 
0 0 0 0 0 0 0 
0 0 0 0 0 0 0 
0 0 0 0 0 0 0 
0 0 0 0 0 0 0 
0 0 0 0 0 0 0 
0 0 0 0 0 0 0 
0 0 0 0 0 0 0 
6.734322759572469e-05 0 0 0 0 -0.0005265011638220375 0 
0 0 0 0 0 0 0 
6.734322759572469e-05 0 0 0 0 -0.0005265011638220375 0 
6.734322759572426e-05 0 0 0 0 0 0 
0 0 0 0 0 0 0 
0 0 0 0 0 0 0 
0 0 0 0 0 0 0 
0 0 0 0 0 0 0 
0 0 0 0 -0.002035477378508892 0 0 
-0.02728849587162354 -0.05815527975294101 0 0 0.08588554763170182 0 0 
-0.7818398263072766 -0.01694338711860658 -0.00204318230481066 -0.007664154305873408 0.7693008558898027 -0.01403445188342475 -0.01959980351367897 
-0.112267275885084 0 0 0 0.09917880913148498 0 0 
-0.7818398263072766 -0.01694338711860658 -0.00204318230481066 -0.007664154305873408 0.7693008558898027 -0.01403445188342475 -0.01959980351367897 
-0.09314328212491722 -0.141286283018885 0 0 0.1626671672050186 0 0 
-0.03061324765428002 0 0 0 0 0 0 
0 0 0 0 0 0 0 
0 0 0 0 0 0 0 
0 0 0 0 0 0 0 
0 0 0 0 0 0 0 
0 0 0 0 0 0 0 
0 0 0 0 0 0 0 
0 0 0 0 0 0 0 
0 0 0 0 0 0 0 
0 0 0 0 0 0 0 
0 0 0 0 0 0 0 
0 0 0 0 0 0 0 
0 0 0 0 0 0 0 
0 0 0 0 0 0 0 
0.0155787689525306 -0.01759356944615386 -0.09119897343184154 0 0 2.38524477946811e-18 0 
0 0 0 0 0 0 0 
0.04729288709508699 1.084202172485504e-18 0 0 -0.001197352445637657 0 -0.01519374360827725 
0.0130057261496302 0 0 0 0 0 0 
0.0342871609454568 4.336808689942018e-19 0 0 -0.001197352445637657 0 -0.01519374360827725 
0.0130057261496302 0 0 0 0 0 0 
0.0130057261496302 0 0 0 0 0 0 
0 0 0 0 0 -0.01511101962928946 0 
0.003511979662500616 -0.0221021399779824 0 0 0 0 0 
0.003511979662500616 -0.0221021399779824 0 0 0 0 0 
0.003511979662500616 -0.0221021399779824 0 0 0 0 0 
0.003511979662500616 -0.0221021399779824 0 0 0 0 0 
0.003511979662500616 -0.0221021399779824 0 0 0 0 0 
0.01453460912351916 0 0 -0.002351044884873399 -0.0024879661287033 -0.006748029388925676 -0.001724059707573564 
0 0 0 0 0 0 0 
0 0 0 0 0 0 0 
0 0 0 0 0 -0.006432412937101626 0 
0 0 0 0 0 -0.006432412937101626 0 
0 0 0 -0.0005608770292253595 -0.009526644712846376 0 0 
0 0 0 0 0 0 0 
1.734723475976807e-18 0 0 0 0 0 0 
0.01229398683293617 0 0 -0.01409131100251003 -0.002217705760933069 -0.005232869833203159 0 
0.01229398683293617 0 0 -0.01409131100251003 -0.002217705760933069 -0.005232869833203159 0 
0.01229398683293617 0 0 -0.01409131100251003 -0.002217705760933069 -0.005232869833203159 0 
0.01229398683293617 0 0 -0.01409131100251003 -0.002217705760933069 -0.005232869833203159 0 
0.01229398683293617 0 0 -0.01409131100251003 -0.002217705760933069 -0.005232869833203159 0 
0 0 0 0 0 -0.001147524013141135 -0.001855788562289095 
0 0 0 0 0 0 0 
0 0 0 0 0 0 0 
0 0 0 0 0 0 0 
0 0 0 0 0 0 0 
0 0 0 0 0 0 0 
0 0 0 0 0 0 0 
0 0 0 0 0 0 0 
0 0 -0.1182689729498922 0 0 0 0 
0.01081507537978891 -0.007525089386713985 0 0 0 -0.00755800845457225 -0.0007310719047246868 
0 0 0 -0.01114522566562459 -0.004392273246173823 -0.004776615746146253 0 
0.01081507537978891 -0.007525089386713985 0 0 0 -0.00755800845457225 -0.0007310719047246868 
0.01081507537978891 -0.007525089386713985 0 0 0 -0.00755800845457225 -0.0007310719047246868 
0 0 0 -0.01114522566562459 -0.004392273246173823 -0.004776615746146253 0 
0.03236745477539889 1.301042606982605e-18 0 -4.269046054161674e-19 -0.0106424446366467 -0.008212006995972739 -0.007048680646487921 
0.02742201914301378 0 0 0 -0.008121708671545625 0 0 
0.02742201914301378 0 0 0 -0.008121708671545625 0 0 
0.02742201914301378 0 0 0 -0.008121708671545625 0 0 
0.02742201914301378 0 0 0 -0.008121708671545625 0 0 
0 0 0 0 0 0 0 
0.007319842629803549 0 0 0 0 0 0 
0.007319842629803549 0 0 0 0 0 0 
0.007319842629803549 0 0 0 0 0 0 
0.007319842629803549 0 0 0 0 0 0 
0 0 0 -0.0005608770292253595 -0.009526644712846376 0 0 
0 0 0 -0.0005608770292253595 -0.009526644712846376 0 0 
0 0 0 -0.001651092922756959 -0.009526644712846376 -4.336808689942018e-19 0 
0 0 0 0 0 0 0 
0.0326295467960433 -0.005611572503936272 0 0 -0.005276535662967644 -0.004035980828047417 -0.0008201125351717093 
0 0 0 0 0 0 0 
0 0 0 0 0 0 0 
0 0 0 -0.00867954095303802 0 0 0 
0 0 0 0 0 0 -0.00311863182853797 
0 0 0 0 0 0 0 
0.03386312450886243 -0.0133155962777958 0 0 -0.01329326149978315 0 0 
0 0 0 0 0 0 0 
0 0 0 0 0 0 0 
0 0 0 0 0 0 0 
0 0 0 0 0 0 0 
0 0 0 0 0 0 0 
0 0 0 0 0 0 0 
0 0 0 0 0 0 0 
0 0 0 0 0 -0.003889873257825262 0 
0.01549823926949213 -0.004135406214636196 0 0 -0.002558513747684213 -0.003889873257825262 0 
0 0 0 0 0 -0.003889873257825262 0 
0.01549823926949213 -0.004135406214636196 0 0 -0.002558513747684213 -0.003889873257825262 0 
0 0 0 0 0 0 0 
0 0 0 0 0 -0.01890935203853483 0 
0 0 0 0 0 -0.01890935203853483 0 
0 0 0 0 0 0 0 
0 0 0 0 0 0 0 
0 0 0 0 0 0 -0.002377460379676313 
0 0 0 0 0 0 -0.002377460379676313 
0 0 0 0 0 0 0 
0 0 0 0 0 0 0 
0 0 0 0 0 0 0 
0 0 0 0 0 0 0 
0 0 0 0 0 0 0 
0 0 0 0 0 0 0 
0 0 0 0 0 0 0 
0 0 0 0 0 0 0 
0 0 0 0 0 0 0 
0.03386312450886243 -0.0133155962777958 0 0 -0.01329326149978315 0 0 
0.03386312450886243 -0.0133155962777958 0 0 -0.01329326149978315 0 0 
0.03386312450886243 -0.0133155962777958 0 0 -0.01329326149978315 0 0 
0.03386312450886243 -0.0133155962777958 0 0 -0.01329326149978315 0 0 
0.03386312450886243 -0.0133155962777958 0 0 -0.01329326149978315 0 0 
0.03386312450886243 -0.0133155962777958 0 0 -0.01329326149978315 0 0 
0.03386312450886243 -0.0133155962777958 0 0 -0.01329326149978315 0 0 
0 0 0 -0.004724277684854328 0 0 0 
0 0 0 -0.004724277684854328 0 0 0 
0 0 0 0 0 0 0 
0 0 0 0 0 0 0 
0 0 0 0 0 0 0 
0 0 0 0 0 0 0 
0 0 0 0 0 0 0 
0 0 0 0 0 0 0 
0.003908794739143542 0 0 -0.02765163377696872 0 -0.001042226654392043 0 
0 0 0 -0.0248311155377913 0 0 0 
0.003908794739143542 0 0 -0.02765163377696872 0 -0.001042226654392043 0 
0 0 0 -0.0248311155377913 0 0 0 
0 0 0 -0.0248311155377913 0 0 0 
-0.03338792411328884 -0.003486141221103619 -0.000373082752283117 -0.002586960961133155 0.04369941523053653 -0.003348119761037664 -0.006010076782792462 
-0.03338792411328884 -0.003486141221103619 -0.000373082752283117 -0.002586960961133155 0.04369941523053653 -0.003348119761037664 -0.006010076782792462 
-0.06007556748101436 -0.003486141221103619 -0.0003730827522831153 -0.009006370415091978 0.08431964074620241 -0.003348119761037664 -0.006023383689478483 
-0.03338792411328884 -0.003486141221103619 -0.000373082752283117 -0.002586960961133155 0.04369941523053653 -0.003348119761037664 -0.006010076782792462 
0 0 0 0 0 0 0 
0 0 0 0 0 0 0 
0 0 0 -0.000684526431777339 0 -0.002359845706972956 0 
-4.336808689942018e-19 0 0 0 0 -0.002141503249215413 0 
0 0 0 0 0 -0.002141503249215413 0 
0 0 0 0 0 -0.002141503249215413 0 
0 0 0 0 0 -0.002141503249215413 0 
0 0 0 0 0 -0.002141503249215413 0 
0 0 0 0 0 -0.002141503249215413 0 
0 0 0 0 0 0 0 
0 0 0 0 0 0 0 
0.009076853620906296 -0.01021032290280647 -6.505213034913027e-19 -0.005938917313114995 0 -0.001116966606393585 0 
0.009076853620906296 -0.01021032290280647 0 -0.005938917313114995 0 -0.001116966606393585 0 
0.01181345929891001 -0.01021032290280647 0 -0.005938917313114995 0 -0.001116966606393585 0 
0.009076853620906296 -0.01021032290280647 0 -0.005938917313114995 0 -0.001116966606393585 0 
0.009076853620906296 -0.01021032290280647 0 -0.005938917313114995 0 -0.001116966606393585 0 
0 0 0 0 0 0 0 
0.02130185460758634 -0.003542790299412299 0 0 -0.00858801579021805 -0.006920024377396838 -0.001732809968670686 
0 0 0 -0.002900841506780194 0 -0.001391171897292039 -0.001595973740421902 
0 0 0 0 0 0 0 
0 0 0 0 0 0 -0.001595973740421902 
0 0 0 0 0 0 0 
0.04383074848795267 -0.009219057835701689 0 0 0 0 0 
0 0 0 0 0 0 0 
0 0 0 0 0 0 0 
0.04383074848795267 -0.009219057835701689 0 0 0 0 0 
0.04383074848795267 -0.009219057835701689 0 0 0 0 0 
0 0 0 0 0 0 0 
0 0 0 0 0 0 0 
0 0 0 0 0 0 0 
0 0 0 0 0 0 0 
0 0 0 0 0 0 0 
0.003598534383362831 0 0 0 -0.04259222746482719 0 0 
0 0 0 0 0 0 0 
0 0 0 0 0 0 0 
0 0 0 0 0 0 0 
0 0 0 0 0 0 0 
0 0 0 0 0 0 0 
0 0 0 0 0 0 0 
0 0 0 0 0 0 0 
0 0 0 0 0 0 0 
0 0 0 0 0 -0.0005163799022970842 0 
0 0 0 0 0 0 0 
0 0 0 0 0 -0.0005163799022970842 0 
0 0 0 0 0 -0.0006249683603929689 0 
0 0 0 0 0 -0.0006249683603929689 0 
0 0 0 0 0 -0.0006249683603929689 0 
0 0 0 0 0 -0.0006249683603929689 0 
0 0 0 0 0 -0.0006249683603929689 0 
0 -0.001496530046988594 0 0 0 0 0 
0 0 0 0 0 0 0 
0 0 0 -0.002351044884873399 0 -0.00674802938892568 0 
0 0 0 0 0 0 0 
0 0 0 0 0 0 0 
0.01130715864980767 -0.01065846170042085 0 -0.002351044884873399 -4.336808689942018e-19 -0.006748029388925678 0 
0 0 0 -0.002351044884873399 0 -0.006748029388925677 0 
0 0 0 0 0 0 -0.0226359859700498 
0 0 0 -0.003275309816897718 0 0 0 
0 0 0 0 -0.007289634590486212 0 0 
-1.734723475976807e-18 0 0 0 0 0 0 
0 0 0 0 0 0 0 
0 0 0 0 0 0 0 
0 0 0 0 0 0 0 
0 0 0 0 0 0 0 
0 0 0 0 0 0 0 
0 0 0 0 0 0 0 
0 0 0 0 0 0 0 
0 0 0 0 0 0 0 
0 0 0 -0.002351889088955281 0 0 0 
0 0 -0.02129886420911695 -9.978038911630745e-05 -0.0003966872084593208 0 0 
0 0 0 0 -0.0003966872084593208 0 0 
0 0 0 0 0 0 0 
0 0 0 0 0 0 0 
0.02202961780347524 0 0 -0.02323626580171939 0 0 0 
0 0 0 0 0 0 0 
0 0 0 0 0 0 0 
0.02202961780347524 0 0 -0.02323626580171939 0 0 0 
0 0 0 0 0 0 0 
0 0 0 0 -4.336808689942018e-19 0 -0.001622391224656335 
0.01734478166522073 -0.04090101661527742 0 0 0 0 0 
0 0 0 0 0 0 0 
0 0 0 0 0 0 0 
0 0 0 0 0 0 0 
0 0 0 0 0 0 0 
0.01130715864980767 -0.01065846170042085 0 0 0 -0.02450727396506541 0 
0 0 0 0 0 -0.002418818680335787 0 
0 0 0 0 0 -0.001889025677782818 0 
0 0 0 0 0 -0.001889025677782818 0 
0 0 0 0 0 0 0 
4.336808689942018e-19 0 0 0 0 0 0 
0 0 0 0 0 0 0 
0 0 0 0 0 0 0 
0 0 0 0 0 0 0 
0 0 0 0 0 0 0 
0 0 0 0 0 0 0 
0 0 0 0 0 0 0 
0 0 0 0 0 0 0 
0 0 0 0 0 0 0 
0 0 0 0 0 0 0 
0 0 0 0 0 0 0 
0 0 0 -0.002881305695679903 0 0 0 
0 -4.336808689942018e-19 0 -0.002881305695679903 0 0 -0.003083752582426893 
0 0 0 -0.002881305695679903 0 0 0 
0 0 0 -0.002881305695679903 0 0 0 
0.01579534678198853 -0.02458498093754742 0 -0.01415514681251406 0 0 -0.001827163082698844 
0 0 0 0 0 0 0 
0 0 0 0 0 0 0 
0 0 0 0 0 0 0 
0 0 0 0 0 0 0 
0.03336073537695899 -0.01711013248909163 0 0 -0.008338848811789803 -0.01181895179220815 -0.007893213340749146 
0 0 0 0 0 0 0 
0 0 0 0 0 0 0 
0 0 0 0 0 0 0 
0 0 0 -0.000684526431777339 0 -0.002359845706972956 0 
0 0 0 -0.000684526431777339 0 -0.002359845706972956 0 
0 0 0 0 0 -0.005448317789772111 0 
0 0 0 0 0 -0.005448317789772111 0 
0.05745430038538117 -0.02981511590791365 0 0 -0.025242880242641 -0.00218455598936934 -0.01205450147301868 
0.05745430038538117 -0.02981511590791365 0 0 -0.025242880242641 -0.00218455598936934 -0.01205450147301868 
0.05745430038538117 -0.02981511590791365 0 0 -0.025242880242641 -0.00218455598936934 -0.01205450147301868 
0 0 0 0 0 0 0 
0 0 0 0 0 0 0 
0 0 0 0 0 0 -0.004229234075556643 
0 0 0 0 0 0 -0.004229234075556643 
-1.734723475976807e-18 0 0 0 -8.673617379884035e-19 -0.01526111133174366 0 
0 0 0 0 0 0 0 
0 0 0 0 0 0 0 
0 0 0 0 0 0 0 
0 0 0 -0.002133314662560903 0 0 0 
0.06133313444737765 -0.04933206560139698 0 0 0 0 2.168404344971009e-19 
0 0 0 0 0 0 0 
0 0 0 -0.002133314662560903 0 0 0 
0 0 0 0 0 0 0 
0.01863761270986219 -0.01651102048853874 0 -0.02241554303347061 0 -0.01395833456450062 -0.01457114891775836 
0 0 0 0 0 0 0 
0 0 0 0 0 0 0 
0.06133313444737765 -0.04933206560139698 0 0 0 0 2.168404344971009e-19 
0 0 0 0 0 0 0 
0.008144425551873094 0 0 0 0 0 0 
0 0 0 0 0 0 0 
0 0 0 0 0 0 0 
0 0 0 0 0 0 0 
0 0 0 0 0 0 0 
0 0 0 0 0 0 0 
-0.05719912350906588 0.07993419436985713 -0.01500895615322683 0 0 0 0 
-0.05719912350906588 0.09451197838638206 -0.01500895615322683 0 0 0 0 
-0.05719912350906588 0.09451197838638206 -0.01500895615322683 0 0 0 0 
-0.05719912350906588 0.09451197838638206 -0.01500895615322683 0 0 0 0 
0 -0.01457778401652492 0 0 0 0 0 
0 -0.01457778401652492 0 0 0 0 0 
0 -0.01457778401652492 0 0 0 0 0 
0 -2.032879073410321e-19 0 0 0 0 0 
0 0 0 0 0 0 0 
0 0 0 0 0 0 0 
0 0 0 0 0 0 0 
0 0 0 0 0 0 0 
0 0 0 0 0 -0.0001249194904068086 0 
0 0 0 0 0 -0.0001249194904068086 0 
0.03479328481491702 -0.01403753500865391 0 0 -0.01264763821411811 0 0 
0 0 0 0 0 0 0 
0 0 0 0 0 0 0 
0 4.743384504624082e-20 0 0 0 0 -0.003083752582426893 
0.03506045735038352 -0.0215403554521366 0 -0.001395328503360946 0 -0.0006075908075007558 0 
0 0 0 0 0 0 0 
0.02395247286398418 0 0 0 0 -0.02335023509635569 0 
0.02395247286398418 0 0 0 0 -0.02335023509635569 0 
0.02395247286398418 0 0 0 0 -0.02335023509635569 0 
0 0 0 0 0 -0.0005163799022970842 0 
0 0 0 0 0 -0.0005163799022970842 0 
0 0 0 0 0 -0.0005163799022970842 0 
0 0 0 0 0 0 -0.003758596233253054 
0 0 0 0 0 0 -0.003758596233253054 
0 0 0 0 0 0 0 
0 0 0 0 0 0 0 
-0.0401555310610009 0 0 -4.743384504624082e-20 0.01682605669843142 0 -1.330690668602157e-05 
-0.0331075930780684 0 0 0 0.04354570462175368 0 -1.330690668602157e-05 
-0.0401555310610009 0 0 0 0.02007305455388297 0 -1.330690668602157e-05 
-0.04369358729762227 0 0 0 0.04354570462175368 0 -1.330690668602157e-05 
-0.0401555310610009 0 0 -4.743384504624082e-20 0.01682605669843142 0 -1.330690668602157e-05 
0 0 0 0 0 -8.142145654512602e-05 -0.004698770417053761 
0 0 0 0 0 -8.142145654512602e-05 0 
0 0 0 0 0 -8.142145654512602e-05 0 
0 0 0 0 0 -8.142145654512602e-05 0 
0 0 0 0 -0.002986484889376956 0 -8.239470732848577e-05 
0 0 0 0 -0.002986484889376956 0 -8.239470732848577e-05 
0 0 0 0 -0.002986484889376956 0 -8.239470732848577e-05 
0 0 0 0 -0.002986484889376956 0 -8.239470732848577e-05 
0 0 0 0 0 0 0 
0 0 0 0 0 0 0 
0 -4.336808689942018e-19 0 0 0 0 0 
0 0 0 0 0 0 0 
0 -4.336808689942018e-19 0 0 0 0 0 
0 0 0 0 0 0 0 
0 0 0 0 0 0 0 
0 0 0 0 0 0 0 
0 0 0 0 0 0 0 
4.336808689942018e-19 0 0 0 -0.02920410994059018 0 0 
0 0 0 0 0 0 0 
0 0 0 0 0 0 0 
0 0 0 0 0 0 0 
0.02682973705546973 -0.0108948743208997 0 0 0 -0.006653292862023934 0 
0 0 0 0 0 0 0 
0 0 0 0 0 0 0 
0 0 0 0 0 0 0 
0 0 0 0 0 0 0 
0 0 0 0 0 0 0 
0 0 0 -0.02359180369001758 0 0 0 
0 0 0 0 0 0 0 
0 0 0 0 0 0 0 
0.0007104051115697926 -0.004284114252651765 0 0 0 -0.004194742645661936 -0.001691748340465261 
0 0 0 0 0 0 0 
0 0 0 0 0 0 0 
0.06507817856343058 -4.336808689942018e-19 0 -0.01642429097326158 -0.008991629722681584 -0.0149189857127377 0 
0 0 0 -0.009598316059314126 0 0 0 
0.06507817856343058 -4.336808689942018e-19 0 -0.01642429097326158 -0.008991629722681584 -0.0149189857127377 0 
0 0 0 -0.009598316059314126 0 0 0 
0.04283998431591721 0 0 -0.01455214896105245 0 -0.0149189857127377 0 
-0.02204195337706675 -0.2099328635445825 -0.1419931885378631 4.336808689942018e-19 0.1528418914803058 -0.005404492208792929 -0.01866645652946229 
0 0 0 0 0 0 0 
0 0 0 0 0 0 0 
0 0 0 0 0 0 0 
0.09546205134896224 -0.04413266942189324 -0.001277002556393116 -0.02423460809086324 -0.03115920865980708 -0.01024888863945784 -0.012945124373653 
0.01660961870931193 0 -0.0009561470491197617 -0.004187609168293199 -0.02568175396216332 -0.009834039886204755 -0.01293184378328525 
0.005078583010425681 -0.0279246069156354 0 0 -0.01012842529564469 0 -0.009080003605118949 
0 0 0 0 0 0 0 
0.004369052400964834 0 0 0 -0.01806456101880355 0 0 
0.004369052400964834 0 0 0 -0.01806456101880355 0 0 
0.004400114103639489 0 0 0 -0.06534331238626499 0 0 
0.02247718717895775 0 0 0 -0.0238241778154872 -0.006415471265210792 -0.006601400811468489 
0.02247718717895775 0 0 0 -0.0238241778154872 -0.006415471265210792 -0.006601400811468491 
0.02247718717895775 0 0 0 -0.0238241778154872 -0.006415471265210792 -0.006601400811468489 
0.02247718717895775 0 0 0 -0.0238241778154872 -0.006415471265210792 -0.006601400811468489 
0.02247718717895775 0 0 0 -0.0238241778154872 -0.006415471265210792 -0.006601400811468489 
0.02247718717895775 0 0 0 -0.0238241778154872 -0.006415471265210792 -0.006601400811468491 
0.02247718717895775 0 0 0 -0.0238241778154872 -0.006415471265210792 -0.006601400811468489 
0.02247718717895775 0 0 0 -0.0238241778154872 -0.006415471265210792 -0.006601400811468489 
0.02247718717895775 0 0 0 -0.0238241778154872 -0.006415471265210792 -0.006601400811468491 
0 0 0 0 0 -0.009806709144315669 0 
0.05111565550459798 -0.04483968347514521 0 0 0 0 0 
0.05111565550459798 -0.04483968347514521 0 0 0 0 0 
0.05111565550459798 -0.04483968347514521 0 0 0 0 0 
0 0 0 0 -0.004392273246173823 0 0 
0 0 0 0 0 0 0 
0 0 0 0 0 0 0 
0 0 0 0 0 0 0 
0 0 0 0 0 0 0 
-2.168404344971009e-19 0 0 0 0 -0.005401634028439137 0 
0 0 0 0 0 0 0 
0.1414008270280751 -0.141286283018885 0 0 0.001714687602655113 0 0 
0 0 8.673617379884035e-19 0 0 0 0 
0 0 8.673617379884035e-19 0 0 0 0 
0 0 8.673617379884035e-19 0 0 0 0 
0 0 0 0 0 0 0 
0 0 0 0 -2.168404344971009e-19 0 0 
0 0 0 0 0 0 0 
0 0 0 0 0 0 0 
0 0 0 0 0 0 0 
0 0 0 0 0 0 0 
0 0 0 0 0 0 0 
0 0 0 -0.01123164277772362 0 0 0 
0 0 0 -0.01123164277772362 0 0 0 
0 0 0 0 0 0 0 
0.00119472879995948 0 0 0 -0.005071724357766341 -0.002882093346484967 0 
0.00119472879995948 0 0 0 -0.005071724357766341 -0.002882093346484967 0 
0.00119472879995948 0 0 0 -0.005071724357766341 -0.002882093346484967 0 
0.00119472879995948 0 0 0 -0.005071724357766341 -0.002882093346484967 0 
0.00119472879995948 0 0 0 -0.005071724357766341 -0.002882093346484967 0 
0.00119472879995948 0 0 0 -0.005071724357766341 -0.002882093346484967 0 
0.1109530904108867 -0.04413266942189323 -0.0003208555072733591 -0.03395320579921262 0 0 -1.328059036774455e-05 
0.1109530904108867 -0.04413266942189323 -0.0003208555072733591 -0.03395320579921262 0 0 -1.328059036774455e-05 
0.1109530904108867 -0.04413266942189323 -0.0003208555072733591 -0.03395320579921262 0 0 -1.328059036774455e-05 
0 0 0 0 0 0 0 
0.1812451998042802 -0.1520927640364747 0 0 -0.02159291225169366 0 -0.01019796050087391 
0 0 0 0 0 0 0 
0 0 0 0 0 0 0 
0 0 0 -0.02359180369001759 0 0 0 
0.0002468934492747513 0 0 0 -0.0252284857556745 0 0 
0 0 0 0 0 0 0 
0 0 0 0 0 0 0 
0 0 0 0 0 0 0 
0 0 0 0 0 -0.005454402187427988 0 
-8.673617379884035e-19 -3.469446951953614e-18 0 0 0 -0.005454402187427988 0 
0 0 0 0 0 -0.005454402187427988 0 
0 0 0 0 0 -0.005454402187427988 0 
0 0 0 0 0 -0.005454402187427988 0 
0 0 0 0 0 0 0 
0.04932864371934845 -0.0693066332443706 0 0 -0.0006396161955536444 -0.001884978217247339 0 
0.04932864371934845 -0.0693066332443706 0 0 -0.0006396161955536444 -0.006527646938045188 0 
0.04932864371934845 -0.0693066332443706 0 0 -0.0006396161955536444 -0.001884978217247339 0 
0.04932864371934845 -0.0693066332443706 0 0 -0.0006396161955536444 -0.006527646938045188 0 
0.04932864371934845 -0.0693066332443706 0 0 -0.0006396161955536444 -0.0008427515628552954 0 
0.01166400416351588 0 0 -0.007905039468060536 0 0 -0.001456901304837821 
0.01166400416351588 0 0 -0.007905039468060536 0 0 -0.001456901304837821 
0.01166400416351588 0 0 -0.007905039468060536 0 0 -0.001456901304837821 
0.01166400416351588 0 0 -0.007905039468060536 0 0 -0.001456901304837821 
0.003598534383362831 0 0 0 -0.04259222746482719 0 0 
-0.06125150970158307 -0.2099328635445825 -0.1419931885378631 0 0.2357863434129159 0 0 
0.003598534383362831 0 0 0 -0.04259222746482719 0 0 
0 0 0 0 0 0 0 
0 0 0 0 0 0 0 
0 0 0 0 0 0 0 
0 0 0 0 0 0 0 
0.02005207295528656 -0.01778403585271075 0 0 0 0 0 
0 0 0 0 0 0 0 
0 0 0 0 0 0 0 
0 0 0 0 0 0 0 
0 0 0 0 0 0 0 
0 0 0 0 0 0 0 
0 0 0 0 0 0 0 
0 0 0 0 0 0 0 
0.05039622454532466 -0.04551558759780509 0 0 -0.02159291225169366 0 -0.01019796050087391 
0.05039622454532466 -0.04551558759780509 0 0 -0.02841046154969547 0 -0.01019796050087391 
0.05039622454532466 -0.04551558759780509 0 0 -0.02159291225169366 0 -0.01019796050087391 
0.08531295498509245 -3.469446951953614e-18 0 -0.001453640062625113 -0.07760276608099916 -0.02036315381976523 -0.05097086129066443 
0.04983311710486237 0 0 -0.001453640062625113 0 -0.007270989827292009 -0.05097086129066443 
-0.1181553626651987 -0.04418497485445128 -8.673617379884035e-19 -0.01459812564384047 -0.009239222301273737 -0.008214504845020971 0.1290684517540681 
-0.1756833871428376 0.178683838945608 0 0 0 0 0 
-0.1756833871428376 0.178683838945608 0 0 0 0 0 
-0.5608048756391762 0.5260727799703091 0 0 0 0 0 
-0.1756833871428376 0.178683838945608 0 0 0 0 0 
-0.1756833871428376 0.178683838945608 0 0 0 0 0 
-0.1756833871428376 0.178683838945608 0 0 0 0 0 
-0.1756833871428376 0.178683838945608 0 0 0 0 0 
0 0 -0.01141433157308113 0 0 0 0 
0 0 -0.01141433157308113 0 0 0 0 
0 0 0 0 0 0 0 
0.008956211012704237 0 0 0 -0.006039701589244637 0 -0.001167393384467646 
-1.734723475976807e-18 0 0 0 -0.006039701589244637 0 -0.001167393384467646 
0 0 0 0 -0.006039701589244637 0 -0.001167393384467646 
0 0 0 0 -0.006039701589244637 0 -0.001167393384467646 
0 0 0 0 -0.006039701589244637 0 -0.001167393384467646 
0 0 0 0 -0.005477454697643766 -0.0005827272281452385 -0.0006045594726966056 
0.001163291029985317 0 0 0 -0.02423539565723562 0 0 
0 0 0 0 -0.007289634590486212 0 0 
0 0 0 0 -0.007289634590486212 0 0 
0 0 0 0 -0.007289634590486212 0 0 
0 0 0 0 -0.007289634590486212 0 0 
0 0 0 0 0 0 0 
0 0 0 0 0 0 0 
0 0 0 0 0 0 0 
0 0 0 0 -0.0008977050392153146 0 0 
0 0 0 0 -0.0008977050392153146 0 0 
0 0 0 0 -0.0008977050392153146 0 0 
0 0 0 0 -0.0008977050392153146 0 0 
0 0 0 0 0 -0.002980370062557698 0 
0 0 0 0 0 -0.002980370062557698 0 
0 0 0 0 0 -0.002980370062557698 0 
0 0 0 0 0 -0.002980370062557698 0 
0 0 0 0 0 0 0 
0 0 0 0 0 0 0 
0 0 0 0 0 0 0 
0 0 0 0 0 0 0 
0 0 0 0 0 0 0 
0 0 0 0 0 0 0 
0 0 0 0 0 0 0 
0 0 0 0 0 0 0 
0.05337802473464974 -0.03438660839199835 0 0 -0.0255698109822921 -0.01851868897317454 -0.007463288426613549 
0.004945435632385103 0 0 0 -0.002520735965101072 -0.008212006995972739 -0.007048680646487921 
0.004945435632385103 0 0 0 -0.002520735965101072 -0.008212006995972739 -0.007048680646487921 
0.004945435632385103 0 0 0 -0.01040766570479835 -0.009564205767830377 -0.007048680646487921 
0.004945435632385103 0 0 0 -0.002520735965101072 -0.008212006995972739 -0.007048680646487921 
0.004945435632385103 0 0 0 -0.002520735965101072 -0.008212006995972739 -0.007048680646487921 
0 0 0 0 0 -0.002327136509214172 0 
0 0 0 0 0 -0.002327136509214172 0 
0 0 0 0 0 -0.002327136509214172 0 
0 0 0 0 0 -0.002327136509214172 0 
0 0 0 0 0 -0.002327136509214172 0 
0 0 0 0 0 0 0 
0 0 0 0 0 0 0 
0.02130185460758634 -0.003542790299412299 0 0 -0.00858801579021805 -0.006920024377396838 -0.001732809968670686 
0.02130185460758634 -0.003542790299412299 0 0 -0.00858801579021805 -0.006920024377396838 -0.001732809968670686 
0.02130185460758634 -0.003542790299412299 0 0 -0.00858801579021805 -0.006920024377396838 -0.001732809968670686 
0.04783843055915392 -0.00477276581492533 0 0 0 -0.0006760661800224073 0 
0 0 0 0 0 0 0 
0.0673418892969164 -0.02706434853464992 -0.0004464925244999981 -0.003910651568181403 -0.04814118869603116 -0.005476460605638557 -0.01081077242570512 
0.04246100226602505 -0.06532561455971225 0 0 -0.0197007095532698 0 -0.004784334074326191 
0.03269856600441148 -0.02313701154039107 0 0 -0.02708960702398221 0 -0.003026170928291617 
0.03269856600441149 -0.02313701154039107 0 0 -0.0197007095532698 0 -0.003026170928291617 
0 0 0 0 0 0 0 
0 0 0 -0.002579413216001656 0 0 0 
0 0 0 0 0 0 0 
0 0 0 0 0 0 0 
0.1400064241274481 -0.001114386353821654 -0.2080267525339116 0 0 0 0 
0.02579169616434471 0 0 -0.001359843131344693 0 0 0 
0 0 0 0 0 -0.0005297930025529678 0 
0 0 0 0 0 -0.0005297930025529678 0 
0 0 0 0 0 0 0 
0 0 0 0 0 0 0 
0 0 0 0 0 0 0 
0 0 0 0 0 0 0 
0 0 0 0 0 0 0 
0 0 0 -0.002579413216001656 0 0 0 
0 0 0 0 0 0 0 
0 0 0 0 0 0 0 
0 0 0 0 0 0 0 
0 0 0 0 0 0 0 
0 0 0 0 0 0 0 
0 0 0 0 0 0 0 
0.003908794739143542 0 0 -0.00282051823917742 0 0 0 
0.003908794739143542 0 0 -0.00282051823917742 0 0 0 
0.003908794739143542 0 0 -0.00282051823917742 0 0 0 
0 -1.084202172485504e-19 0 0 0 0 -0.001595973740421902 
0 0 0 0 0 -0.000206639212138492 0 
0 0 0 0 0 -0.000206639212138492 0 
0 0 0 0 0 0 0 
0 0 0 0 0 0 0 
0 0 0 0 0 0 0 
0 0 0 0 0 0 0 
0 0 0 0 0 0 0 
0 0 0 0 0 0 0 
0 0 0 0 0 0 0 
0 0 0 0 0 0 0 
0 0 0 0 0 0 0 
-0.02556016193445616 -0.01345724589750296 -0.001670099552527546 -0.005077193344740254 0.0452337796121535 -0.01068633212238708 -0.01254200309504652 
-0.02556016193445616 -0.01345724589750296 -0.001670099552527546 -0.005077193344740254 0.0452337796121535 -0.01068633212238708 -0.01254200309504652 
-0.02556016193445616 -0.01345724589750296 -0.001670099552527546 -0.005077193344740254 0.0452337796121535 -0.01068633212238708 -0.01254200309504652 
0 0 0 0 0 0 0 
0 0 0 0 0 0 0 
0 0 0 0 0 0 0 
0 0 0 0 0 0 0 
0 0 0 0 0 0 0 
0 0 0 0 0 0 0 
0 0 0 0 0 0 0 
0.03896266287524156 0 0 0 -0.02062492649664806 -0.004052293436935292 -0.01866645652946229 
0 0 0 0 0 0 0 
-0.2063873161130807 0.1945141357359815 0 0 -0.0004969956768633051 -0.002470545592843704 0 
-0.3508122571848785 0.3752527178772306 0 -0.002591325421884699 -0.0004969956768633051 -0.003078136400344459 0 
-0.2063873161130807 0.1945141357359815 0 0 -0.0004969956768633051 -0.002470545592843704 0 
-0.2063873161130807 0.1945141357359815 0 0 -0.0004969956768633051 -0.002470545592843704 0 
-0.4294685127036117 0.3967930733293674 0 0 -0.0004969956768633051 -0.002470545592843704 0 
-0.2063873161130807 0.1945141357359815 0 0 -0.0004969956768633051 -0.002470545592843704 0 
0 0 0 0 0 0 0 
0 0 0 0 0 0 0 
0 0 0 0 0 0 0 
0 0 0 0 0 0 0 
0 0 0 0 0 0 0 
0 0 0 0 0 0 0 
0.03896266287524156 0 0 0 -0.02062492649664806 -0.004052293436935292 -0.01866645652946229 
-0.1522294034417493 0.1590072219702225 0 0 0.01608375259715831 0 0 
0 0 0 0 -0.007388897470712422 0 0 
0 0 0 0 -0.007388897470712422 0 0 
0.02682973705546973 -0.0108948743208997 0 0 -0.007388897470712422 -0.006653292862023934 0 
0 0 0 0 -0.007388897470712422 0 0 
0 0 0 0 -0.0004509250609076876 -0.002030913914928721 0 
-8.673617379884035e-19 0 0 -0.00867954095303802 0 0 0 
0 0 0 -0.00867954095303802 0 0 0 
0 0 0 -0.00867954095303802 0 0 0 
0 0 0 0 -0.0007202433206439652 0 0 
0 0 0 0 -0.0007202433206439652 0 0 
0 0 0 0 -0.0007202433206439652 0 0 
0 0 0 -3.135970884949826e-05 -0.002208930572981591 -0.009673078070787379 0 
0 0 0 -3.135970884949826e-05 -0.002208930572981591 -0.009673078070787379 0 
0 0 0 0 0 0 0 
0 0 0 0 0 0 0 
0 0 0 0 0 0 0 
0 0 0 0 0 0 0 
0 0 0 0 0 0 0 
0.02128143479582659 0 0 0 -0.04651253441362041 0 0 
0 0 0 0 -0.04651253441362041 0 0 
0 0 0 0 -0.04651253441362041 0 0 
0 0 0 -0.009590154094520128 0 0 0 
0 0 0 -0.009590154094520128 0 0 0 
0 0 0 -0.009590154094520128 0 0 0 
-0.06469773053661083 0 0 0 0.08339294140704089 0 -0.001034416729153975 
-0.06469773053661083 0 0 0 0.08339294140704089 0 -0.001034416729153975 
0 0 0 0 -0.02920410994059018 0 0 
0 0 0 0 -0.02920410994059018 0 0 
0 0 0 0 -0.02920410994059018 0 0 
0 0 0 0 0 0 0 
0.03398829390219392 0 0 0 -0.07760276608099916 0 0 
0.03398829390219392 0 0 0 -0.07760276608099916 0 0 
0 0 0 0 0 0 0 
0 0 0 0 0 0 0 
0 0 0 0 0 0 0 
0 0 0 0 0 0 0 
0 -0.001114386353821654 0 0 0 0 0 
0 -0.001114386353821654 0 0 0 0 0 
0 -0.001114386353821654 0 0 0 0 0 
0 -0.001114386353821654 0 0 0 0 0 
0.05111565550459798 -0.04483968347514521 0 0 0 0 0 
0.05111565550459798 -0.04483968347514521 0 0 0 0 0 
0 0 0 0 -4.336808689942018e-19 -0.0004148487532530844 0 
0 0 0 0 0 0 0 
0 0 0 0 0 0 0 
0 0 0 0 0 0 0 
0 0 0 0 0 0 0 
0 0 0 0 0 0 0 
0 0 0 0 0 0 0 
0 0 0 0 0 0 0 
0 0 0 0 0 0 0 
0 0 0 0 0 0 0 
0 0 0 0 0 0 0 
0 0 0 -0.02359180369001759 0 0 0 
0 0 0 -0.02359180369001759 0 0 0 
0 0 0 0 0 0 0 
0 0 0 0 0 0 0 
0 0 0 0 0 0 0 
0 0 0 0 0 0 0 
0 0 0 0 0 0 0 
-0.1218575497818775 0.1627762811660128 -0.02087812295245969 0 -0.05234665617370753 -0.008858657612040305 -0.002770925243114197 
0 0 0 0 0 0 0 
0.004591780755402901 0 0 0 0 0 0 
0 0 0 0 0 0 0 
0 0 0 0 0 0 0 
-0.148691347205128 0.1590072219702225 0 0 0 0 0 
-0.148691347205128 0.1590072219702225 0 0 0 0 0 
0 0 0 0 0 0 0 
0 0 0 0 0 0 0 
0 0 0 0 0 0 0 
0 0 0 0 0 0 0 
0 0 0 0 0 0 0 
0 0 0 0 0 0 0 
0 0 0 0 0 0 0 
0 0 0 0 0 0 0 
0 0 0 0 0 0 0 
0 0 0 0 0 0 0 
0 0 0 0 0 0 0 
0 0 0 0 0 0 0 
0.004400114103639489 0 0 0 -0.03377142611051045 0 0 
0 0 0 0 0 0 0 
0 0 0 0 0 0 0 
0 0 0 0 0 0 0 
0 0 0 0 0 0 0 
0 0 0 0 0 0 0 
0 0 0 0 0 0 0 
0.02169983353753977 0 0 0 -0.01143998379393442 -1.301042606982605e-18 0 
0.02169983353753977 0 0 0 -0.01143998379393442 0 0 
0.02169983353753977 0 0 0 -0.01143998379393442 0 0 
0 0 0 0 0 0 0 
-0.03879932735016327 0.2112853298365829 -0.1093108248213558 -0.0111219039173463 -0.08268092872420274 0 0 
-0.03879932735016327 0.2112853298365829 -0.1093108248213558 -0.0111219039173463 -0.08268092872420274 0 0 
-0.03879932735016327 0.2112853298365829 -0.1093108248213558 -0.0111219039173463 -0.08268092872420274 0 0 
-0.03879932735016327 0.2112853298365829 -0.1093108248213558 -0.0111219039173463 -0.08268092872420274 0 0 
-0.03879932735016327 0.2112853298365829 -0.1093108248213558 -0.0111219039173463 -0.08268092872420274 0 0 
0 0 0 0 0 -0.00127333389918616 0 
0 0 0 0 0 -0.00127333389918616 0 
0 0 0 0 0 0 0 
0 0 0 0 0 0 0 
0 0 0 0 0 0 0 
0 0 0 0 0 0 0 
0 0 0 0 0 0 0 
0 0 0 0 0 0 0 
0 0 0 0 0 0 0 
0 0 0 0 0 0 0 
0 0 0 0 0 0 0 
0 0 0 0 -0.09258440784553081 0 0 
0 0 0 0 -0.09258440784553081 0 0 
0 -0.02055952697527358 0 0 0 0 -0.001758163146034575 
0 0 0 -0.01114522566562459 0 0 0 
0 0 0 -0.01114522566562459 0 0 0 
0 0 0 0 0 0 0 
0 0 0 0 0 0 0 
0.01700594392989675 0 0 -0.006419409453958819 -0.002925479106087806 -0.0004148487532530841 0 
0 0 0 0 0 -0.0004148487532530844 0 
0 0 0 0 0 -0.0004148487532530844 0 
0 0 0 0 0 -0.0004148487532530844 0 
0 0 0 0 0 0 0 
0 0 0 0 0 0 0 
0 0 0 0 0 0 0 
0 0 0 0 0 0 -2.337273418244354e-05 
0 0 0 0 0 0 -2.337273418244354e-05 
0 0 0 0 0 0 0 
0 0 0 0 0 0 0 
0 0 0 0 0 0 0 
0 0 0 0 0 0 0 
0.002623052935468396 0 0 0 -0.006537242060128574 0 0 
0.002869767285556843 0 0 0 0 0 0 
0.0229218402408434 -0.01778403585271075 0 0 0 0 0 
0.03826325287024401 0 0 -0.0004814395652903267 0 -0.007270989827292009 -0.01713650583476478 
0.002869767285556843 0 0 0 0 0 0 
0.002869767285556843 0 0 0 0 0 0 
0.002869767285556843 0 0 0 0 0 0 
0.002869767285556843 0 0 0 0 0 0 
0.002869767285556843 0 0 0 0 0 0 
0 0 0 0 0 0 0 
0 0 0 0 0 0 0 
0 0 0 0 0 0 0 
0 0 0 0 0 0 0 
0 0 0 0 0 0 0 
0.04359579816834945 0 0 -0.002591325421884699 0 0 0 
0.04359579816834945 0 0 -0.002591325421884699 0 0 0 
0.04359579816834945 0 0 -0.002591325421884699 0 0 0 
0 0 0 -0.003275309816897718 0 0 0 
0 0 0 -0.003275309816897718 0 0 0 
0 0 0 -0.003275309816897718 0 0 0 
0 0 0 0 0 0 0 
0 0 0 0 0 0 0 
0 0 0 0 0 0 0 
0 0 0 0 0 0 0 
0 0 0 0 0 0 0 
0 0 0 0 0 0 0 
0 0 0 0 0 0 0 
0 0 0 0 0 0 0 
0.0143532465074229 0 0 0 0 0 0 
0 0 0 0 0 0 0 
0 0 0 0 -0.003246997855451546 0 0 
0 0 0 0 0 0 0 
0 0 0 0 0 0 0 
0 0 0 0 0 0 0 
0 0 0 0 0 0 0 
-0.03023717288694162 0.1625757907883142 -0.121843253993656 0 -0.08646655260382123 0 -0.007709301817834965 
-0.03023717288694162 0.1625757907883142 -0.121843253993656 0 -0.08646655260382123 0 -0.007709301817834965 
-0.03023717288694162 0.1625757907883142 -0.121843253993656 0 -0.08646655260382123 0 -0.007709301817834965 
0 0 0 0 0 0 0 
0 0 0 0 0 0 0 
0 0 0 0 0 0 0 
0 0 0 0 0 -0.0006416420466933119 0 
0.06236823360663059 -0.05032713411852696 -1.626303258728257e-18 -0.01629512718857617 -0.01451045977053578 -0.008546988461169603 -0.01252872107198415 
0.04135134403492412 -0.01383283116802977 -7.589415207398531e-19 -0.01629512718857617 -0.01201420365736611 -0.008546988461169603 -0.01252872107198415 
0 0 0 0 0 0 0 
0 0 0 0 0 0 0 
0 0 0 0 0 0 0 
0 0 0 0 0 0 0 
0 0 0 0 0 0 0 
0.0002468934492747513 0 0 0 -0.0252284857556745 0 0 
0 0 0 -0.001786767324843184 -0.0001730646845586919 -0.001941440191743497 0 
0 0 0 -0.001786767324843184 -0.0001730646845586919 -0.001941440191743497 0 
0 0 0 0 0 0 0 
0 0 0 0 0 0 0 
-0.2133832985217693 0.2473233976035835 -0.01656632583138852 0 -0.01453189907126751 0 0 
-0.2133832985217693 0.2473233976035835 -0.01656632583138852 0 -0.01453189907126751 0 0 
0 0 0 0 0 0 0 
0 0 0 0 0 0 0 
0 0 0 0 0 0 0 
0 0 0 0 0 0 0 
0 0 0 0 0 0 0 
0 0 0 0 0 0 0 
0 0 0 0 0 0 0 
0 0 0 0 0 0 0 
0 0 0 0 0 0 0 
0 0 0 0 0 0 0 
0.08361057391978832 1.734723475976807e-18 0 -0.03055745704298339 0.04842611585723007 0 0 
0 0 0 0 0 0 0 
0 0 0 0 0 0 0 
0 0 0 0 0 0 0 
0 0 0 0 0 0 0 
0 0 0 0 0 0 0 
0 0 0 0 0 -0.001338242857746362 0 
0 0 0 0 0 -0.001338242857746362 0 
0 0 0 0 0 -0.001338242857746362 0 
0 0 0 0 0 -0.001338242857746362 0 
0 0 0 0 0 -0.001338242857746362 0 
0 0 0 0 0 0 0 
0.03336073537695898 -0.01711013248909163 0 0 -0.008338848811789803 -0.01181895179220815 -0.007893213340749146 
0 0 0 0 0 0 0 
0 0 0 0 0 0 0 
0 0 0 0 0 0 0 
0 0 0 0 0 0 -0.005417341513921317 
0 0 0 0 0 0 0 
0 0 0 0 0 0 0 
0 0 0 0 0 0 0 
0 0 0 0 0 0 0 
0 0 0 0 0 0 0 
0 0 0 -0.002351044884873399 0 -0.006748029388925677 0 
0.06669909452218163 0 0 -0.04590531106086307 0 0 0 
0 0 0 0 0 0 0 
0 0 0 0 0 0 0 
0 0 0 0 0 0 0 
0.03213967007778647 0 0 -0.01067147048923414 0 0 0 
0.03213967007778647 0 0 -0.01067147048923414 0 0 0 
0.03213967007778647 0 0 -0.01067147048923414 0 0 0 
0.03213967007778647 0 0 -0.01067147048923414 0 0 0 
0.03213967007778646 0 0 -0.01479470462650933 0 -1.084202172485504e-19 0 
0 0 0 0 0 0 0 
0 0 0 0 0 0 0 
0.1508352783760977 -0.1382698281189327 0 0 -0.00359357358246515 -0.0004650160213513359 0 
0.1508352783760977 -0.1382698281189327 0 0 -0.00359357358246515 0 0 
0.1508352783760977 -0.1382698281189327 0 0 -0.00359357358246515 0 0 
0.1508352783760977 -0.1382698281189327 0 0 -0.00359357358246515 0 0 
0.04271733512579111 -0.0287083426530355 0 0 -0.001117140383451882 0 0 
0 0 0 0 0 0 0 
0 0 0 0 0 0 0 
0 0 0 0 0 0 0 
0 0 0 0 0 0 0 
0 0 0 0 0 0 0 
0 0 0 0 0 0 0 
0 0 0 0 0 0 0 
0 0 0 0 0 0 -0.004698770417053761 
0 0 0 0 0 0 -0.004698770417053761 
0 0 0 0 0 0 0 
0 0 0 0 0 0 0 
0 0 0 0 0 0 0 
0 0 0 0 0 0 0 
0 0 0 0 0 0 0 
0 0 0 0 0 0 0 
0 0 0 0 0 0 0 
0 0 0 0 0 0 0 
0.002736605678003711 0 0 0 0 0 0 
0 0 0 0 0 0 0 
0 0 0 -6.011136455333243e-05 0 0 0 
0 0 0 0 0 0 0 
0 0 0 0 0 0 -0.005417341513921317 
0.01148845036034879 -0.01651102048853874 0 0 -2.168404344971009e-19 -0.002645135605846312 -0.007139827389752317 
0.02925935840837465 0 -0.006461962986747167 0 -0.01891661865271502 -0.001254784338239245 0 
0.02925935840837465 0 -0.006461962986747167 0 -0.01891661865271502 -0.001254784338239245 0 
0.02925935840837465 0 -0.006461962986747167 0 -0.01891661865271502 -0.001254784338239245 0 
0 0 0 0 0 0 0 
0 0 0 0 0 0 0 
0 0 0 0 0 0 0 
0 0 0 0 0 0 0 
0 0 0 0 0 0 0 
0.04626331635221693 -0.04811717348735974 0 0 -0.0007401726539685433 -0.003513682777555854 0 
0.04626331635221693 -0.04811717348735974 0 0 -0.0007401726539685433 -0.003513682777555854 0 
0.04626331635221693 -0.04811717348735974 0 0 -0.0007401726539685433 -0.003513682777555854 0 
0.04626331635221693 -0.04811717348735974 0 0 -0.0007401726539685433 -0.003513682777555854 0 
0.04626331635221693 -0.04811717348735974 0 0 -0.0007401726539685433 -0.003513682777555854 0 
0.04626331635221693 -0.04811717348735974 0 0 -0.0007401726539685433 -0.003513682777555854 0 
-1.734723475976807e-18 0 0 0 0 -0.0002457301055006796 -0.01140792710621616 
0 0 0 0 0 0 0 
-1.734723475976807e-18 0 0 0 0 -0.0002457301055006796 -0.01140792710621616 
-1.734723475976807e-18 0 0 0 0 -0.0002457301055006796 -0.01140792710621616 
0 0 0 0 0 0 0 
0 0 0 0 0 0 0 
0.01276253276381182 -0.04006884854159936 0 0 0 0 -9.238363359559935e-05 
0 0 0 -0.00884917913789977 0 0 0 
0 0 0 0 0 0 0 
0.02005207295528656 -0.01778403585271075 0 0 0 0 0 
0.02005207295528656 -0.01778403585271075 0 0 0 0 0 
0 0 0 0 0 0 0 
0 0 0 0 0 0 0 
0 0 0 0 0 0 0 
0 0 0 0 0 0 0 
0 0 0 0 0 0 0 
0 0 0 0 0 0 0 
0 0 0 0 0 0 0 
0 0 0 0 0 0 -0.002281995825562611 
0 0 0 0 0 0 -0.002281995825562611 
0 0 0 0 0 0 0 
0 0 0 0 0 0 0 
0 0 0 0 0 0 0 
0 0 0 0 0 0 0 
0 0 0 0 0 0 0 
0 0 0 0 0 0 0 
0 0 0 0 0 0 0 
0 0 0 0 0 0 0 
0 0 0 0 0 0 0 
0 0 0 0 0 0 0 
0.0226306825215664 0 0 0 0 -0.04282544879484566 0 
0 0 0 0 0 0 -0.001863582501443842 
0 0 0 0 0 0 -0.001863582501443842 
0 0 0 0 0 0 -0.004982214329981811 
0 0 0 0 0 0 0 
0 0 0 0 0 0 0 
0.03464332329250488 -0.003927336994258853 -0.0004464925244999994 -0.003910651568181403 -0.02844047914276135 -0.005476460605638557 -0.007784601497413507 
0.03464332329250488 -0.003927336994258853 -0.0004464925244999994 -0.003910651568181403 -0.02844047914276135 -0.005476460605638557 -0.007784601497413507 
0.03464332329250488 -0.003927336994258853 -0.0004464925244999994 -0.003910651568181403 -0.02844047914276135 -0.005476460605638557 -0.007784601497413507 
0.03464332329250488 -0.003927336994258853 -0.0004464925244999994 -0.003910651568181403 -0.02844047914276135 -0.005476460605638557 -0.007784601497413507 
0 0 0 0 0 -0.006892699392930228 0 
0 0 0 0 0 -0.0008782982279863034 0 
0 0 0 0 0 0 0 
0 0 0 0 0 0 0 
0 0 0 0 0 0 0 
0 0 0 0 0 0 0 
0 0 0 0 0 0 0 
0 0 0 0 0 0 0 
0.002736605678003711 0 0 0 0 0 0 
0.002736605678003711 0 0 0 0 0 0 
0.002736605678003711 0 0 0 0 0 0 
0.002736605678003711 0 0 0 0 0 0 
0 0 0 -0.003483213040149444 0 0 0 
0 0 0 0 0 0 0 
0 0 0 0 0 0 0 
0 0 0 0 0 0 0 
0 0 0 0 0 0 0 
0 0 0 0 0 0 0 
0 0 0 0 0 0 0 
0 0 0 0 0 0 0 
0 0 0 0 0 0 0 
-0.3389015423402195 0 0 0 0 0.3607155456315634 0 
0.03893118957677368 0 0 0 0 -0.0149189857127377 0 
0.03893118957677368 0 0 0 0 -0.0149189857127377 0 
0.03893118957677368 0 0 0 0 -0.0149189857127377 0 
0.03893118957677368 0 0 0 0 -0.0149189857127377 0 
0 0 0 0 0 0 0 
0 0 0 0 0 0 0 
0 0 0 0 0 0 0 
0 0 0 0 0 0 0 
0 0 0 0 0 0 0 
0 0 0 0 0 -0.004642668720797849 0 
0 0 0 -0.001395328503360946 0 0 0 
0 0 0 -0.001395328503360946 0 0 0 
0 0 0 -0.001395328503360946 0 0 0 
0 0 0 0 -0.003246997855451546 0 0 
0 0 0 0 0 0 0 
-0.3778327319169932 0 0 0 0 0.3756345313443011 0 
-0.3778327319169932 0 0 0 0 0.3756345313443011 0 
-0.3778327319169932 0 0 0 0 0.3756345313443011 0 
0 0 0 0 0 0 0 
0 0 0 0 0 0 0 
0.02192770517226352 -0.01003316826730248 0 -0.01330996142318117 -0.0001954147073433915 -0.004081358464380731 -0.01027718519892112 
0.02192770517226352 -0.01003316826730248 0 -0.01330996142318117 -0.0001954147073433915 -0.004081358464380731 -0.01027718519892112 
0 0 0 0 0 0 0 
0 0 0 0 0 0 0 
0 0 0 0 0 0 0 
0 0 0 0 0 0 0 
0 0 0 0 0 0 0 
0 0 0 0 0 0 0 
0 0 0 0 0 0 -0.00311863182853797 
0 0 0 0 0 0 0 
0 0 0 0 0 0 0 
0 0 0 0 0 0 0 
0 0 0 0 0 0 0 
0 0 0 0 0 0 0 
0 0 0 0 0 0 0 
0 0 0 0 0 0 0 
0 0 0 0 0 0 0 
0 0 0 0 0 0 0 
0.008144425551873094 0 0 0 0 0 0 
0.008144425551873094 0 0 0 0 0 0 
0.008144425551873094 0 0 0 0 0 0 
0 0 0 0 0 0 0 
0 0 0 0 0 0 0 
0 0 0 0 0 0 0 
0 0 0 0 0 0 0 
0 0 0 0 0 0 0 
0 0 0 0 0 0 0 
0 0 0 0 0 0 0 
0 0 0 0 0 0 0 
0 0 0 -6.011136455333243e-05 0 0 0 
0 0 0 0 0 0 0 
0 0 0 0 0 0 0 
0 0 0 0 0 0 0 
0.02001843132758021 -0.08512960312325238 0 0 0.05153734579962764 -0.00895448320534417 -0.0004146077801256252 
0.06536520336765435 -0.05074299473125406 0 0 0 0 0 
0.113797792469919 -0.08512960312325238 0 0 -0.01516214527749376 -0.00895448320534417 -0.0004146077801256252 
-0.00353805623662137 0 0 0 0.02347265006787073 0 0 
0.03874695180788006 0 0 -0.01629512718857617 -0.01201420365736611 -0.001870243941004885 -0.008728028457476857 
0.02982586354356542 0 0 -0.01629512718857617 -0.01201420365736611 -0.001870243941004885 -0.008325649348763028 
0.02982586354356542 0 0 -0.01629512718857617 -0.01201420365736611 -0.001870243941004885 -0.008325649348763028 
0.02982586354356542 0 0 -0.01629512718857617 -0.01201420365736611 -0.001870243941004885 -0.008325649348763028 
0.04271733512579111 -0.0287083426530355 0 0 -0.001117140383451882 0 0 
0 0 0 0 0 0 0 
0 0 0 0 0 0 0 
0 0 0 0 0 0 0 
0 0 0 0 0 0 0 
0 0 0 0 0 0 0 
0 0 0 0 0 0 0 
0.002623052935468396 0 2.168404344971009e-19 0 -0.006537242060128574 -0.0001001896327715024 0 
0 0 0 0 0 -0.0001001896327715024 0 
0 0 0 0 0 -0.0001001896327715024 0 
0 0 0 0 0 -0.0001001896327715024 0 
0 0 0 0 0 -0.0001001896327715024 0 
0 0 0 0 0 0 0 
0 -1.734723475976807e-18 0 0 4.336808689942018e-19 -0.001712597650625124 0 
0 0 0 0 0 -0.001712597650625124 0 
0.03506045735038352 -0.0215403554521366 0 0 0 -0.0006075908075007558 0 
0.03506045735038352 -0.0215403554521366 0 0 0 -0.0006075908075007558 0 
0.03506045735038352 -0.0215403554521366 0 0 0 -0.0006075908075007558 0 
-1.734723475976807e-18 0 0 0 -0.004392273246173823 0 0 
-1.734723475976807e-18 0 0 0 -0.004392273246173823 0 0 
0 0 0 0 0 0 0 
0 0 0 0 0 0 0 
0 0 0 0 0 0 0 
0 0 0 0 0 0 0 
0.03825718126098756 -0.01410606884277011 -0.0006595451967580132 -0.001259041051645896 -0.02046658185070249 -0.01125857192550535 -0.01466174432175511 
0.03825718126098756 -0.01410606884277011 -0.0006595451967580132 -0.001259041051645896 -0.02046658185070249 -0.01125857192550535 -0.01466174432175511 
0.03825718126098756 -0.01410606884277011 -0.0006595451967580132 -0.001259041051645896 -0.02046658185070249 -0.01125857192550535 -0.01466174432175511 
0.03825718126098756 -0.01410606884277011 -0.0006595451967580132 -0.001259041051645896 -0.02046658185070249 -0.01125857192550535 -0.01466174432175511 
-0.01299005503525662 -0.01410606884277011 -0.0006595451967580132 -0.001259041051645896 0.01191548471955165 -0.01125857192550535 -0.01466174432175511 
0.03825718126098756 -0.01410606884277011 -0.0006595451967580132 -0.001259041051645896 -0.02046658185070249 -0.01125857192550535 -0.01466174432175511 
0 0 0 -0.002133314662560903 0 0 0 
0 0 0 -0.002133314662560903 0 0 0 
0 0 0 -0.002133314662560903 0 0 0 
0 0 0 0 0 0 0 
0 0 0 0 0 0 0 
0 0 0 0 0 0 0 
0 0 0 0 0 0 0 
0 0 0 0 0 0 -0.0149821336317461 
0 0 0 0 0 0 -0.0149821336317461 
0 0 0 0 0 0 -0.0149821336317461 
0 0 0 0 0 0 0 
0 0 0 0 0 0 0 
0 0 0 0 0 0 0 
0 0 0 0 0 0 0 
0.001163291029985317 0 0 0 -0.0169457610667494 0 0 
0.001163291029985317 0 0 0 -0.0169457610667494 0 0 
0.001163291029985317 0 0 0 -0.0169457610667494 0 0 
0.001163291029985317 0 0 0 -0.0169457610667494 0 0 
0 0 0 0 0 0 0 
0 0 0 0 0 0 0 
0 0 0 0 0 0 0 
0 0 0 0 0 0 0 
0 0 0 0 0 0 -0.000632825767122971 
0 0 0 0 0 0 -0.000632825767122971 
0.03336073537695898 -0.01711013248909163 2.710505431213761e-19 0 -0.008338848811789801 -0.01181895179220815 -0.008526039107872118 
0.001772791506007323 0 0 0 0 0 -0.04497825683401125 
0 0 0 0 0 0 0 
0 0 0 0 0 0 0 
0 0 0 0 0 0 0 
0 0 0 0 0 0 0 
0 0 0 0 0 0 0 
0 0 0 0 0 0 0 
0.008921088264314642 0 0 0 0 0 -0.000402379108713829 
0.008921088264314642 0 0 0 0 0 -0.000402379108713829 
0.1308489752589555 -0.1065771764386696 0 0 0 0 0 
0 0 0 -0.007090670480004498 0 0 0 
0 0 0 0 0 0 0 
0 0 0 0 0 0 0 
0 0 0 0 0 0 0 
0 0 0 0 0 0 0 
0 0 0 0 0 0 0 
0 0 0 0 0 0 0 
0.001491543978036075 0 0 0 0 -0.01269186911597495 0 
0.001491543978036075 0 0 0 0 -0.01269186911597495 0 
0.001491543978036075 0 0 0 0 -0.01269186911597495 0 
0 0 0 0 0 0 0 
0 0 0 0 0 0 0 
0 0 0 0 -0.002558513747684212 0 0 
0 0 0 0 0 0 0 
0 0 0 0 0 0 0 
0 0 0 0 0 0 0 
0 0 0 0 0 0 0 
0 0 0 0 0 0 0 
0 0 0 0 0 0 0 
0 0 0 0 0 0 0 
0 0 0 0 0 0 0 
0 0 0 0 0 0 0 
0 0 0 0 0 0 0 
0 0 0 0 0 0 0 
0 0 0 0 0 0 0 
0 0 0 0 0 0 0 
0 0 0 0 0 0 0 
0 0 0 0 0 0 0 
0 0 0 0 0 0 0 
0 0 0 0 0 0 0 
0 0 0 0 0 0 0 
0 0 0 0 0 0 0 
0 0 0 0 0 0 0 
0 0 0 0 0 0 0 
0 0 0 0 0 0 0 
0 -0.0004905456548454998 0 0 0 0 0 
0.008956211012704237 0 0 0 0 0 0 
0.008956211012704237 0 0 0 0 0 0 
0 0 0 -0.002579413216001656 0 0 0 
0 0 0 0 0 0 0 
0 0 0 0 0 0 0 
0 0 0 0 0 0 0 
0 0 0 0 0 0 0 
0.02128143479582659 0 0 0 0 0 0 
0 0 0 0 0 0 0 
0 0 0 0 0 0 0 
0 0 0 0 0 0 0 
0 0 0 0 0 0 0 
-0.04396646664247349 0 0 0 0.0698850737589002 0 0 
-0.04396646664247349 0 0 0 0.0698850737589002 0 0 
-0.04396646664247349 0 0 0 0.0698850737589002 0 0 
0 0 0 0 0 0 0 
0 0 0 0 0 0 0 
0.007149162349513395 0 0 -0.02225318194723026 0 -0.006158108698116913 0 
0 0 0 0 0 0 0 
0 0 0 0 0 0 0 
0 0 0 0 0 0 0 
0 0 0 0 0 0 0 
0 0 0 0 0 0 0 
0 0 0 0 0 0 0 
0 0 0 0 -0.007886929739697278 -0.001352198771857636 0 
0 0 0 0 0 0 0 
0 0 0 0 0 0 0 
-0.2075024276380003 0.184685368147232 0 0 0 0 0 
0.0155787689525306 -0.01759356944615386 0 0 0 0 0 
0.0155787689525306 -0.01759356944615386 0 0 0 0 0 
0 0 0 0 0 0 0 
0 0 0 0 0 0 0 
0 0 0 0 0 0 0 
0 0 0 0 0 -0.006014401164943925 0 
0 0 0 0 0 -0.006014401164943925 0 
0 0 0 0 0 0 0 
0 0 0 0 0 0 0 
0 0 0 0 0 0 0 
0 0 0 0 0 0 0 
0 0 0 0 0 0 0 
0 0 0 0 0 0 0 
0 0 0 0 0 0 0 
-0.1344020894373901 0.1627762811660128 -0.02087812295245969 0 -0.01857523006319707 -0.008858657612040305 -0.002770925243114197 
-0.1344020894373901 0.1627762811660128 -0.02087812295245969 0 -0.01857523006319707 -0.008858657612040305 -0.002770925243114197 
-0.1344020894373901 0.1627762811660128 -0.02087812295245969 0 -0.01857523006319707 -0.008858657612040305 -0.002770925243114197 
-0.1344020894373901 0.1627762811660128 -0.02087812295245969 0 -0.01857523006319707 -0.008858657612040305 -0.002770925243114197 
0 0 0 0 0 0 0 
0.01700594392989675 0 0 -0.006419409453958819 -0.002925479106087806 0 0 
0 0 0 0 0 0 0 
0 0 0 -0.002900841506780192 0 0 0 
-0.2230811965905309 0.2022789375933859 0 0 0 0 0 
-0.2230811965905309 0.2022789375933859 0 0 0 0 0 
0 0 0 0 0 0 0 
0 0 0 0 0 0 0 
0 0 0 0 0 0 0 
0 0 0 0 0 0 0 
0 0 0 0 0 0 0 
0 0 0 0 0 0 0 
0 0 0 0 0 0 0 
0 0 0 0 0 0 0 
0 0 0 0 0 0 0 
0.006006157800610176 0 0 0 0 -0.00831847529204296 0 
0 0 0 0 0 0 0 
0.006006157800610176 0 0 0 0 0 0 
0.006006157800610176 0 0 0 0 0 0 
0.006006157800610176 0 0 0 0 0 0 
0 0 0 0 0 -0.0004475453297179807 0 
0 0 0 0 0 -0.0004475453297179807 0 
0 0 0 0 0 -0.0004475453297179807 0 
0 0 0 0 0 -0.0004475453297179807 0 
0 0 0 0 0 0 0 
0 0 0 0 0 0 0 
0 0 0 0 0 0 0 
0 0 0 0 0 0 0 
0 0 0 0 0 0 0 
0.0321006577712364 0 0 0 0 0 0 
0.0321006577712364 0 0 0 0 0 0 
0 0 0 0 0 0 0 
0 0 0 0 0 0 0 
0 0 0 0 0 0 0 
0 0 0 0 -0.003771712415222103 -0.0064725599126883 0 
0 0 0 0 0 0 0 
0 0 0 0 0 0 0 
0 0 0 0 0 0 0 
0 0 0 0 0 0 0 
0 0 0 0 0 0 0 
0 0 0 0 0 0 0 
0 0 0 0 0 0 0 
0 0 0 0 0 0 0 
0 0 0 0 0 0 0 
0 0 0 0 0 0 0 
0 0 0 0 0 0 0 
0 0 0 0 0 0 0 
0 0 0 0 0 0 0 
0 0 0 0 0 0 0 
0 0 0 0 0 0 0 
0.01047775621011219 -0.02133794490330348 0 0 0 0 0 
0.01047775621011219 -0.02133794490330348 0 0 0 0 0 
0.01047775621011219 -0.02133794490330348 0 0 0 0 0 
0.01047775621011219 -0.02133794490330348 0 0 0 0 0 
0 0 0 0 0 0 0 
0 0 0 0 0 0 0 
0 0 0 0 0 0 0 
-0.250901818482009 -0.00225682089004557 0 0 -0.009239222301273737 -0.0005284189182528439 0.2603252281643622 
-0.250901818482009 -0.00225682089004557 0 0 -0.009239222301273737 -0.0005284189182528439 0.2603252281643622 
-0.250901818482009 -0.00225682089004557 0 0 -0.009239222301273737 -0.0005284189182528439 0.2603252281643622 
0 0 0 0 -0.0008094304043053856 -0.009324978800027774 0 
0 0 0 0 -0.0008094304043053856 -0.009324978800027774 0 
0 0 0 0 -0.0008094304043053856 -0.009324978800027774 0 
0 0 0 0 0 0 0 
0 0 0 0 0 0 0 
0 0 0 0 0 0 0 
0 0 0 0 0 0 0 
0 0 0 0 0 0 0 
0 0 0 0 0 0 0 
0 0 0 0 0 0 0 
0 0 0 0 0 0 0 
0.03539348558468716 0 0 -0.0004814395652903267 0 -0.007270989827292009 -0.01713650583476478 
0.03539348558468716 0 0 -0.0004814395652903267 0 -0.007270989827292009 -0.01713650583476478 
0 0 0 0 0 0 0 
0 0 0 0 0 -0.0004650160213513359 0 
0 0 0 0 0 -0.0004650160213513359 0 
0 0 0 0 0 -0.0004650160213513359 0 
0 0 0 0 0 0 0 
0 0 0 0 0 0 0 
0 0 0 -0.001682281351529363 0 0 0 
0 0 0 0 0 0 0 
0 0 0 0 0 0 0 
0 0 0 0 0 0 0 
0 0 0 0 0 0 0 
0 0 0 0 0 0 0 
0 0 0 0 0 0 0 
0 0 0 0 0 0 0 
0 0 0 0 0 0 0 
0 0 0 0 0 0 0 
0 0 0 0 0 0 0 
0 0 0 0 0 -0.0003306997121350054 0 
0 0 0 0 0 -0.0003306997121350054 0 
0 0 0 0 0 -0.0003306997121350054 0 
0 0 0 0 0 0 0 
0 0 0 0 0 0 0 
0 0 -0.06213427729313177 0 0 0 0 
0 0 0 0 0 0 0 
0 0 0 0 0 0 0 
0 0 0 0 0 0 0 
0 0 0 0 0 0 0 
0 0 0 0 0 0 0 
0 0 0 0 0 0 0 
0.02202961780347524 0 0 -0.02323626580171939 0 0 0 
0.02202961780347524 0 0 -0.02323626580171939 0 0 0 
0.02202961780347524 0 0 -0.02323626580171939 0 0 0 
0 0 0 0 0 0 0 
0 0 0 0 0 0 0 
0 0 0 0 0 0 0 
0 0 0 0 0 -0.0012733235394963 0 
0.02128143479582659 0 0 0 0 0 0 
0.02128143479582659 0 0 0 0 0 0 
0 0 0 0 -0.005477454697643766 0 0 
0 0 0 0 0 0 0 
0 0 0 0 0 0 0 
0 0 0 0 -0.002035477378508892 0 0 
0 0 0 0 -0.002035477378508892 0 0 
0 0 0 0 0 -0.002978761760177104 0 
0 0 0 0 0 -0.001587589862885065 0 
0 0 0 0 0 -0.001587589862885065 0 
0 0 0 0 0 -0.001587589862885065 0 
0 0 0 0 0 -0.001587589862885065 0 
0 0 0 0 0 -0.001587589862885065 0 
0 0 0 0 0 0 0 
0 0 0 0 0 0 0 
0 0 0 0 0 0 0 
0 0 0 0 0 0 0 
0 0 0 0 0 0 0 
0 0 0 0 0 0 0 
0 0 0 0 0 0 0 
0 0 0 0 0 -0.001391171897292039 0 
0 0 0 0 0 -0.001391171897292039 0 
0 0 0 0 0 -0.001391171897292039 0 
0 0 0 0 0 -0.001391171897292039 0 
0 0 0 0 0 -0.0005265011638220376 0 
0 0 0 0 0 -0.0005265011638220376 0 
0.02101688957170643 -0.03649430295049719 0 0 -0.002496256113169668 0 0 
0.02101688957170643 -0.03649430295049719 0 0 -0.002496256113169668 0 0 
0 0 0 0 0 0 0 
0 0 0 0 0 0 0 
0 0 0 0 0 0 0 
0 0 0 0 0 0 0 
0 0 0 0 0 0 -0.001595973740421902 
0 0 0 0 0 0 0 
0 0 0 0 0 0 0 
0 0 0 0 0 0 0 
0 0 0 0 0 0 0 
0 0 0 0 0 0 0 
0 0 0 0 0 0 0 
0.007841296229726692 0 0 -0.01171488669040739 0 0 0 
0.007841296229726692 0 0 -0.01171488669040739 0 0 0 
0 0 0 0 0 0 0 
0 0 0 0 0 0 0 
0 0 0 0 0 0 0 
0 0 0 0 0 0 0 
0 0 0 0 0 0 0 
0 0 0 0 0 0 0 
0 0 0 0 0 0 0 
0 0 0 0 0 0 0 
0.02614698898665696 0 0 0 -0.008991629722681584 0 0 
0 0 0 0 0 0 0 
0 0 0 0 0 0 0 
0 0 0 0 0 0 0 
0 0 0 0 0 0 0 
0 0 0 0 0 0 0 
0 0 0 0 0 0 0 
0 0 0 0 0 0 0 
0 0 0 0 0 0 0 
0 0 0 0 0 0 0 
0 0 0 0 0 0 0 
0 0 0 0 0 0 0 
0 0 0 0 0 0 0 
0 0 0 0 0 0 0 
0 0 0 0 0 0 0 
0 0 0 0 0 0 0 
0 0 0 0 0 0 0 
0 0 0 0 0 0 0 
0 0 0 0 0 0 0 
0 0 0 0 0 0 0 
0 0 0 0 0 0 0 
0 0 0 0 0 0 0 
0 0 0 0 0 0 0 
0 0 0 0 0 0 0 
0 0 0 0 0 0 0 
0 0 0 0 0 0 0 
0 0 0 0 0 0 0 
0 0 0 0 0 0 0 
0 0 0 0 0 0 0 
0 0 0 0 0 0 0 
0 0 0 0 0 0 0 
0 0 0 0 0 0 0 
0 0 0 0 0 0 0 
0 0 0 0 0 0 0 
0 0 0 0 0 0 0 
0 0 0 0 0 0 0 
0 0 0 0 0 0 0 
0 0 0 0 0 0 0 
0 0 0 0 0 0 0 
0.0007104051115697926 -0.004284114252651765 0 0 0 -0.004194742645661936 -0.001691748340465261 
0 0 0 0 0 0 0 
0 0 0 0 0 0 0 
-0.08654987762248566 -0.2099328635445825 -0.1419931885378631 0 0.4545972508929921 0 0 
0 0 0 0 0 0 -0.001855788562289095 
0 0 0 -0.007636921522897458 0 0 0 
0 0 0 0 0 0 0 
0 0 0 0 0 0 0 
0 0 0 0 0 0 0 
0 0 0 0 0 0 0 
0 0 0 0 0 0 0 
0 0 0 0 0 0 0 
0 0 0 0 0 0 0 
0 0 0 0 0 0 0 
0 0 0 0 0 0 0 
0 0 0 0 0 0 0 
0 0 0 0 0 0 0 
0 0 0 0 0 0 0 
0 0 0 0 0 0 0 
0 0 0 0 0 0 0 
0 0 0 0 0 0 0 
0 0 0 -0.004724277684854328 0 0 0 
0 0 0 -0.004724277684854328 0 0 0 
0.04523272297959673 0 0 0 -0.06267902883557357 0 0 
0.04523272297959673 0 0 0 -0.06267902883557357 0 0 
0 0 0 0 -0.002558513747684212 0 0 
0.02307132703492407 -0.005611572503936272 0 0 -0.005276535662967643 0 0 
0 0 0 0 0 0 0 
0.04219061628124021 0 0 0 0 -0.03188248972171417 0 
0.05366137304498251 0 0 0 0 -0.03188248972171417 0 
0.04219061628124021 0 0 0 0 -0.03188248972171417 0 
0.07202712806844898 -0.02610087330602787 0 0 0 -0.03336143668493981 0 
0.07202712806844898 -0.02610087330602787 0 0 0 -0.03336143668493981 0 
0 0 0 0 0 0 0 
0 0 0 0 0 0 0 
0 0 0 0 0 0 0 
0 0 0 0 0 -0.00831847529204296 0 
0 0 0 0 0 0 0 
0 0 0 0 0 0 0 
0 0 0 0 0 0 0 
0.02305882420793707 0 0 0 0 -0.04280424571330829 0 
0.02305882420793707 0 0 0 0 -0.04280424571330829 0 
0.1425148379799178 0 0 -0.03055745704298339 -0.005937065325283102 0 0 
0.1425148379799178 0 0 -0.03055745704298339 -0.005937065325283102 0 0 
0 0 0 -0.0006998077774254989 -0.04461051306045201 -0.008798370164715836 0 
0 0 0 -0.0006998077774254989 -0.04461051306045201 -0.008798370164715836 0 
0 0 0 0 0 0 0 
0 0 0 0 0 0 0 
0 0 0 0 0 0 0 
0 -0.01159175158860955 0 0 0 0 0 
0 -0.01159175158860955 0 0 0 0 0 
0 -0.01159175158860955 0 0 0 0 0 
0 -0.01159175158860955 0 0 0 0 0 
-0.07603651585868342 0 0 0 0.06834673854552044 0 0 
0 0 -0.02129886420911695 -9.978038911630745e-05 0 0 0 
0 0 -0.02129886420911695 -9.978038911630745e-05 0 0 0 
0 0 -0.02129886420911695 -9.978038911630745e-05 0 0 0 
0 0 -0.02129886420911695 -9.978038911630745e-05 0 0 0 
0 0 0 0 0 0 0 
0 0 0 0 0 0 0 
0 0 0 0 0 0 0 
0 0 0 0 0 0 0 
0 0 0 0 0 0 0 
0 0 0 0 0 0 0 
0 0 0 0 0 0 0 
0 0 0 0 0 0 0 
0 0 0 0 0 0 0 
0 0 0 0 0 0 0 
0 0 0 0 0 0 0 
0 0 0 0 0 0 0 
0 0 0 0 0 0 0 
0 0 0 0 0 0 0 
0 0 0 0 0 0 0 
0 0 0 0 0 0 0 
0 0 0 0 0 0 0 
0 0 0 0 0 0 0 
0.01130715864980767 -0.01065846170042085 0 0 0 0 0 
0.01130715864980767 -0.01065846170042085 0 0 0 0 0 
0 0 0 0 0 0 0 
0 0 0 0 0 0 0 
0 0 0 0 0 0 0 
0 0 0 0 0 0 0 
0 0 0 0 0 0 0 
0 0 0 0 0 0 0 
0 0 0 0 0 0 0 
0 0 0 0 0 0 0 
0 0 0 0 0 0 0 
0 0 0 0 0 0 0 
0 0 0 0 0 0 0 
0 0 0 0 0 0 0 
0 0 0 0 0 0 0 
0 0 0 0 -0.007591619416967137 0 0 
0 0 0 0 0 0 0 
0 0 0 0 0 0 0 
0 0 0 0 0 0 0 
0 0 0 0 0 0 0 
0 0 0 0 0 0 0 
0 0 0 0 0 0 0 
0 0 0 -0.000162361086240344 0 -0.005155090260537399 -0.007431321528006038 
0 0 0 0 0 0 0 
0 0 0 0 0 0 0 
0 0 0 0 0 0 0 
0 0 0 0 -0.002550372949536813 0 0 
0 0 0 0 -0.002550372949536813 0 0 
0 0 0 0 -0.002550372949536813 0 0 
0 0 0 0 0 0 0 
0 0 0 0 0 0 0 
0.03896266287524156 0 0 0 -0.02062492649664806 -0.004052293436935292 -0.01866645652946229 
0 0 0 0 0 0 0 
0 0 0 0 0 0 0 
0 0 0 0 0 0 0 
0 0 0 0 0 0 0 
0.01276253276381182 -0.04006884854159936 0 0 0 0 -9.238363359559935e-05 
0.01276253276381182 -0.04006884854159936 0 0 0 0 -9.238363359559935e-05 
0.01276253276381182 -0.04006884854159936 0 0 0 0 -9.238363359559935e-05 
0.01276253276381182 -0.04006884854159936 0 0 0 0 -9.238363359559935e-05 
0 0 0 0 0 0 0 
0 0 0 0 0 0 0 
0 0 0 0 0 -0.003913887044786887 0 
0 0 0 0 0 -0.003913887044786887 0 
0.07885243263965032 -0.04413266942189324 -0.0003208555072733573 -0.02004699892257003 0 0 -1.328059036774455e-05 
0 0 0 0 0 0 -0.01317029919563995 
0 0 0 0 0 -0.007813548578150691 0 
0 0 0 0 0 -0.007813548578150691 0 
0 0 0 0 0 -0.007813548578150691 0 
0 0 0 0 0 -0.007813548578150691 0 
0 0 0 0 0 0 0 
0 0 0 0 0 0 0 
0 0 0 0 0 0 0 
-0.1330665795607477 0 0 0 0.09238688514447498 0 0 
-0.1330665795607477 0 0 0 0.09238688514447498 0 0 
0 0 0 0 0 0 0 
0 0 0 0 0 0 0 
0 0 0 0 0 0 0 
0 0 0 -0.004692660251386555 0 0 0 
0 0 0 -0.004692660251386555 0 0 0 
0 0 0 0 0 0 0 
0 0 0 0 0 0 0 
0 0 0 0 0 0 0 
0.02722867366258703 -0.06337646359101264 0 0 0 0 -0.003037710886818 
0 0 0 0 0 0 0 
0 0 0 0 0 0 0 
0 0 0 0 0 0 0 
0 0 0 0 0 0 0 
0 0 0 0 0 0 0 
0 0 0 0 0 0 0 
0 0 0 0 0 0 0 
-0.08165402823080394 0 0 0 0.09917880913148498 0 0 
-0.08165402823080394 0 0 0 0.09917880913148498 0 0 
-0.08165402823080394 0 0 0 0.09917880913148498 0 0 
-0.08165402823080394 0 0 0 0.09917880913148498 0 0 
0 0 0 0 0 0 0 
0 0 0 0 0 0 0 
0 0 0 0 0 0 0 
0 0 0 0 0 0 0 
0 0 0 0 0 0 0 
-0.05124723629624418 0 0 0 0.03238206657025414 0 0 
-0.05124723629624418 0 0 0 0.03238206657025414 0 0 
-0.05124723629624418 0 0 0 0.03238206657025414 0 0 
-0.05124723629624418 0 0 0 0.03238206657025414 0 0 
0 0 0 0 0 0 0 
0 0 0 0 0 0 0 
0 0 0 0 0 0 0 
0 0 0 0 0 0 0 
0 0 0 0 0 0 0 
0 0 0 0 0 0 0 
0 0 0 -0.0010902158935316 0 0 0 
0 0 0 -0.0010902158935316 0 0 0 
0 0 0 0 0 0 0 
0 0 0 0 0 0 0 
0 0 0 0 0 0 0 
0 0 0 0 0 0 0 
0 0 0 0 0 0 0 
0 0 0 0 0 0 0 
0 0 0 0 0 0 0 
0 0 0 0 0 0 0 
0 0 0 0 0 0 0 
0 0 0 0 0 0 0 
0 0 0 0 0 0 0 
0 0 0 0 0 0 0 
0 0 0 0 0 0 0 
0 0 0 0 0 0 0 
0 0 0 0 0 0 0 
0 0 0 0 0 0 0 
0 0 0 0 0 0 0 
0 0 0 0 0 0 0 
0 0 0 0 0 0 0 
0 0 0 0 0 0 0 
0 0 0 0 0 0 0 
0 0 0 0 0 0 0 
0 0 0 0 0 0 0 
0 0 0 0 0 0 0 
0 0 0 0 0 0 0 
0 0 0 0 0 0 0 
0.02682973705546973 -0.0108948743208997 0 0 0 -0.006653292862023934 0 
0 0 0 0 0 0 0 
0 0 0 0 0 0 0 
0 0 0 0 0 0 0 
0 0 0 0 0 0 0 
0 0 0 0 0 0 0 
0 0 0 0 0 0 -0.001381486713059497 
0 0 0 0 0 0 0 
0 0 0 0 0 0 0 
0 0 0 0 0 0 0 
0 0 0 0 0 0 0 
0 0 0 0 0 0 0 
0 0 0 0 0 0 0 
0 0 0 0 0 0 0 
0 0 0 0 0 0 0 
0 0 0 0 0 0 0 
0 0 0 0 0 0 0 
0 0 0 0 0 0 0 
0 0 0 0 0 0 0 
0 0 0 0 0 0 0 
0 0 0 0 0 0 -0.003083752582426893 
0 0 0 0 0 0 -0.003083752582426893 
0 0 0 0 0 0 -0.003083752582426893 
0.01058599421955388 0 0 0 0 0 0 
0.01058599421955388 0 0 0 0 0 0 
0.01058599421955388 0 0 0 0 0 0 
0.01058599421955388 0 0 0 0 0 0 
0.1321097450527031 -0.1058193856894303 0 0 0 0 0 
0 0 0 0 0 0 0 
-0.05068648154514465 0 0 0 0.07148899220701041 0 0 
0 0 0 0 0 0 0 
0 0 0 0 0 0 0 
0 0 0 0 0 0 0 
0 0 0 0 0 0 0 
0 0 0 0 0 0 0 
0 0 0 0 0 0 0 
0 0 0 0 0 0 0 
-0.3851214884963388 0.3473889410247012 0 0 0 0 0 
0 0 0 0 0 0 0 
0 0 0 0 0 0 0 
0 0 0 0 0 0 0 
0 0 0 0 0 0 0 
0 0 0 0 0 0 0 
0 0 0 0 0 0 0 
0.0045917807554029 0 0 0 0 0 0 
0 0 0 0 0 0 0 
0.0045917807554029 0 0 0 0 0 0 
0.0045917807554029 0 0 0 0 0 0 
0.0045917807554029 0 0 0 0 0 0 
0 0 0 -0.01123164277772362 0 0 0 
0 0 0 -0.01123164277772362 0 0 0 
0 0 0 0 0 0 0 
0 0 0 0 0 0 0 
0 0 0 0 0 0 0 
0 0 0 0 0 0 0 
0 0 0 0 0 0 0 
