solver_type L2R_L2LOSS_SVC_DUAL
nr_class 2
label 1 2
nr_feature 302
bias -1
w
0.03696896020426899 
0.04409088552593168 
0.168930097233318 
0.02116907304695822 
0.02116907304695822 
0.02116907304695822 
0.04409088552593168 
0.02116907304695822 
0.02116907304695822 
0.02124699373032068 
0.2818769455077082 
0.009712677182119742 
0.009712677182119742 
0.009712677182119742 
0.009712677182119742 
0.009712677182119742 
0.009712677182119742 
0.009712677182119742 
0.07376899832217323 
-0.05992711423993333 
0.06569592614104755 
0.1120823315126624 
0 
0.06779452019528641 
0.00388093404057543 
0.01134653511488613 
0 
0.02532988787253177 
0.00388093404057543 
0 
0.1446671216896988 
0.004565864197797186 
0.004565864197797186 
0.004565864197797186 
0.004565864197797186 
0.004565864197797186 
0.004565864197797186 
0.004565864197797186 
0.004565864197797186 
0.01215828864907293 
0.01374081952251194 
0.02057014936299176 
0.01215828864907293 
0.01215828864907293 
0.01215828864907293 
0.02057014936299176 
0.01215828864907293 
0.03762287030482102 
0.008605792932160079 
0.008605792932160079 
0.03005474676411643 
0.008605792932160079 
0.008605792932160079 
0.008605792932160079 
0.008605792932160079 
0.008605792932160079 
0.006829329840479821 
0.006829329840479821 
0.006829329840479821 
0.006829329840479821 
0.006829329840479821 
0.006829329840479821 
0.006829329840479821 
0.02298044448790617 
0.009911260233281288 
0.008499023908832498 
0.008499023908832498 
0.009327199837297174 
0.008499023908832498 
0.008499023908832498 
0 
0 
0 
0 
0 
0 
-0.07661445583765612 
0.0005840603959841156 
0.0005840603959841156 
0.0005840603959841156 
0.0005840603959841156 
0.0005840603959841156 
-0.1654286647217239 
-0.1564794081149254 
-0.19894404043768 
-0.19894404043768 
-0.19894404043768 
-0.19894404043768 
-0.19894404043768 
-0.19894404043768 
0.0142330726080675 
0.03502117880601335 
0 
0 
0.0142330726080675 
0.03502117880601335 
0 
0 
0.01510088214073954 
0.007550441070369768 
0.007550441070369768 
0 
0 
0 
0 
0 
0 
0.04970987274157626 
0.00668263153769774 
0.00668263153769774 
0.00668263153769774 
0.00668263153769774 
0.00668263153769774 
0 
0 
0 
0 
0.006087209975191038 
0 
0 
0.03509790658939508 
0.001582530873439006 
0.001582530873439006 
0.001582530873439006 
0 
0 
0 
0 
0 
0.02078810619794584 
0.01062143501515923 
0 
0 
0 
0 
0 
0 
0 
0 
0 
0.02078810619794584 
0.02078810619794584 
0.02078810619794584 
0.02078810619794584 
0.02078810619794584 
0.08061965468621121 
0 
0 
0 
0 
0 
0.02486607128823513 
0.01211112941676739 
0.01062143501515923 
0.01062143501515923 
0.01877886131304409 
0.01062143501515923 
0.01062143501515923 
0 
0.003364306378246204 
0 
0 
0 
0 
0.04246463232275462 
0.04246463232275462 
0.04246463232275462 
0.04246463232275462 
0.04246463232275462 
0.04246463232275462 
0.0008281759284646761 
0.004676475457802235 
0.0008281759284646761 
0.0008281759284646761 
0.02144895383195635 
0.02144895383195635 
0.02144895383195634 
0.02144895383195635 
0.02144895383195635 
0 
0 
0 
0 
0.01134653511488613 
0 
0 
0.01383872817415685 
0.00985684071327796 
0.02498466424647438 
0.006008541183940401 
0.00985684071327796 
0.02498466424647438 
0.006008541183940401 
0.006008541183940401 
0.009654546153294334 
0.01748642866092582 
0.009654546153294334 
0.009654546153294334 
0.01748642866092582 
0.009654546153294334 
0.009654546153294334 
0 
0 
0.03500507011756424 
0.001489694401608168 
5.421010862427522e-20 
0.003364306378246204 
0.003364306378246204 
0.003364306378246204 
0.004467576129385289 
0.004467576129385289 
0.004467576129385289 
0.004467576129385289 
0.004467576129385289 
0.008157426297884865 
0 
4.336808689942018e-19 
0 
0 
4.336808689942018e-19 
0 
0 
0 
0 
0.001489694401608168 
0 
0 
0 
0 
0 
0.03351537571595607 
0.03351537571595607 
0.03351537571595607 
0.03351537571595607 
0.03351537571595607 
0.0009007544778307453 
0.0147394826519876 
0.0009007544778307453 
0.0009007544778307453 
0.0009007544778307453 
0.0009007544778307453 
0.0009007544778307453 
0.0009007544778307453 
0.0009007544778307453 
0.00388093404057543 
0.00388093404057543 
0.00388093404057543 
0.00388093404057543 
0.01383872817415685 
0.01383872817415685 
0.01383872817415685 
0.01383872817415685 
0.01383872817415685 
0.01383872817415685 
0.003848299529337558 
0.003848299529337558 
0.003848299529337558 
0.008157426297884865 
0.008157426297884865 
0.008157426297884865 
0.008157426297884865 
0.008157426297884865 
0.01289888970563467 
0.01289888970563467 
0.01289888970563467 
0.01289888970563467 
0.01289888970563467 
0.01289888970563467 
0.01289888970563467 
0.006087209975191038 
0.006087209975191038 
0.006087209975191038 
0.006087209975191038 
0.006087209975191038 
0 
0 
0 
0 
0 
0 
0 
0 
0 
0 
0 
0 
0 
0.01968758961783676 
0.01968758961783676 
0.01968758961783676 
0.01968758961783676 
0.01968758961783676 
0.01968758961783676 
0.01968758961783676 
0.01968758961783676 
0.05598324895892781 
0.05598324895892781 
0.05598324895892781 
0.05598324895892781 
0.05598324895892781 
0.05598324895892781 
0.05598324895892781 
