solver_type L2R_L2LOSS_SVC_DUAL
nr_class 3
label 1 2 3
nr_feature 108
bias -1
w
0.2353901527664601 -0.1051762584452557 -0.2041684735765261 
0.1902814196039516 -0.08264114355381294 -0.1127712852557833 
-0.01206242275302882 -0.04732607992606547 -0.1398622621979056 
0.1308156877332912 -0.02717564818406708 -0.1393246981972982 
0.1028073706506649 -0.05560007829727501 -0.05510561137577399 
0.1028073706506649 -0.05560007829727501 -0.05510561137577399 
0.1028073706506649 -0.05560007829727501 -0.05510561137577399 
0.2152817781665367 -0.1151281747035977 -0.116561541135825 
0.1028073706506649 -0.05560007829727501 -0.05510561137577399 
-0.09687724782818213 -0.163005690953915 0.04550527505853559 
-0.01206242275302882 -0.04732607992606547 -0.1398622621979056 
-0.03537901811553137 0.03268910203053749 -0.03475866564036573 
-0.3172438717620865 0.4756935178947903 -0.2337392017837604 
-0.0008348855331417845 0.04929765679558152 -0.03044856541786042 
-0.0894707476231396 0.146338864263551 -0.09648622908175346 
-0.02131386547318984 0.1207901653611845 -0.0813625502928338 
-0.3172438717620865 0.4756935178947903 -0.2337392017837604 
-0.0008348855331417845 0.04929765679558152 -0.03044856541786042 
-0.0008348855331417845 0.04929765679558152 -0.03044856541786042 
-0.1156784609500532 -0.07604622927912637 0.1746659935943591 
-0.1156784609500532 -0.07604622927912637 0.1746659935943591 
-0.1156784609500532 -0.07604622927912637 0.1746659935943591 
-0.1156784609500532 -0.07604622927912637 0.1746659935943591 
-0.1156784609500532 -0.07604622927912637 0.1746659935943591 
-0.1156784609500532 -0.07604622927912637 0.1746659935943591 
-0.03021066266223273 -0.08031540036444934 0.05247862086696543 
-0.0868880798459612 0.07453291164122593 -0.01717720199044395 
-0.0868880798459612 0.07453291164122593 -0.01717720199044395 
-0.0868880798459612 0.07453291164122593 -0.01717720199044395 
-0.0868880798459612 0.07453291164122593 -0.01717720199044395 
-0.0868880798459612 0.07453291164122593 -0.01717720199044395 
-0.02164971910788012 0.04826713739795001 -0.04768978923756026 
-0.02164971910788012 0.04826713739795001 -0.04768978923756026 
-0.02164971910788012 0.04826713739795001 -0.04768978923756026 
-0.02164971910788012 0.04826713739795001 -0.04768978923756026 
0.2061025118030305 -0.1010968759173228 -0.131990136678455 
0.08747404895328664 -0.02704106525653791 -0.05766567388000927 
0.08747404895328664 -0.02704106525653791 -0.05766567388000927 
0.08747404895328664 -0.02704106525653791 -0.05766567388000927 
0.08747404895328664 -0.02704106525653791 -0.05766567388000927 
0.08747404895328664 -0.02704106525653791 -0.05766567388000927 
0.08747404895328664 -0.02704106525653791 -0.05766567388000927 
0.08517206743963648 -0.1485159604137215 -0.03338929870926879 
0.151471129151907 -0.06080346873223032 -0.1367084302494095 
0.1186284628497439 -0.07405581066078486 -0.07432446279844573 
0.1186284628497439 -0.07405581066078486 -0.07432446279844573 
0.1186284628497439 -0.07405581066078486 -0.07432446279844573 
0.1186284628497439 -0.07405581066078486 -0.07432446279844573 
0.1186284628497439 -0.07405581066078486 -0.07432446279844573 
0.1186284628497439 -0.07405581066078486 -0.07432446279844573 
0.09476275706470633 -0.04405564559834592 -0.08812716434521167 
-0.02047897994004805 0.07149250856560303 -0.05091398487497339 
-0.02047897994004805 0.07149250856560303 -0.05091398487497339 
-0.02047897994004805 0.07149250856560303 -0.05091398487497339 
-0.02047897994004805 0.07149250856560303 -0.05091398487497339 
-0.03593997391969208 0.09537670690487984 -0.04639862877511641 
-0.03593997391969208 0.09537670690487984 -0.04639862877511641 
-0.03593997391969208 0.09537670690487984 -0.04639862877511641 
-0.03593997391969208 0.09537670690487984 -0.04639862877511641 
-0.03593997391969208 0.09537670690487984 -0.04639862877511641 
-0.03593997391969208 0.09537670690487984 -0.04639862877511641 
0.1124744075158718 -0.05952809640632262 -0.06145592976005096 
0.1124744075158718 -0.05952809640632262 -0.06145592976005096 
0.1124744075158718 -0.05952809640632262 -0.06145592976005096 
0.1124744075158718 -0.05952809640632262 -0.06145592976005096 
0.1124744075158718 -0.05952809640632262 -0.06145592976005096 
-0.06698614298211769 0.04877407007001948 -0.01834787442633277 
-0.02386570578503755 0.03000016506243894 -0.01380270154676595 
-0.06698614298211769 0.04877407007001948 -0.01834787442633277 
-0.06698614298211769 0.04877407007001948 -0.01834787442633277 
-0.02386570578503755 0.03000016506243894 -0.01380270154676595 
-0.1110438963842053 -0.06231239006781223 0.1686181366884741 
-0.1110438963842053 -0.06231239006781223 0.1686181366884741 
-0.1110438963842053 -0.06231239006781223 0.1686181366884741 
-0.1110438963842053 -0.06231239006781223 0.1686181366884741 
-0.1110438963842053 -0.06231239006781223 0.1686181366884741 
-0.1110438963842053 -0.06231239006781223 0.1686181366884741 
-0.1110438963842053 -0.06231239006781223 0.1686181366884741 
-0.04312043719708016 0.01877390500758053 -0.004545172879566824 
-0.04312043719708016 0.01877390500758053 -0.004545172879566824 
-0.08446609043324543 0.08795252651953055 -0.02276315706147322 
-0.08446609043324543 0.08795252651953055 -0.02276315706147322 
-0.08446609043324543 0.08795252651953055 -0.02276315706147322 
-0.08446609043324543 0.08795252651953055 -0.02276315706147322 
-0.08446609043324543 0.08795252651953055 -0.02276315706147322 
-0.1035944554678363 -0.05131862398683985 0.1440718010573924 
-0.1035944554678363 -0.05131862398683985 0.1440718010573924 
-0.1035944554678363 -0.05131862398683985 0.1440718010573924 
-0.1035944554678363 -0.05131862398683985 0.1440718010573924 
-0.1035944554678363 -0.05131862398683985 0.1440718010573924 
-0.1035944554678363 -0.05131862398683985 0.1440718010573924 
-0.1035944554678363 -0.05131862398683985 0.1440718010573924 
-0.1035944554678363 -0.05131862398683985 0.1440718010573924 
0.1071175173957006 -0.05253630848327297 -0.07449758348983337 
0.1071175173957006 -0.05253630848327297 -0.07449758348983337 
0.1071175173957006 -0.05253630848327297 -0.07449758348983337 
0.1071175173957006 -0.05253630848327297 -0.07449758348983337 
0.1071175173957006 -0.05253630848327297 -0.07449758348983337 
0.1071175173957006 -0.05253630848327297 -0.07449758348983337 
0.1071175173957006 -0.05253630848327297 -0.07449758348983337 
0.1071175173957006 -0.05253630848327297 -0.07449758348983337 
0.1069964544458845 -0.06458099538288402 -0.07042973045025724 
0.1069964544458845 -0.06458099538288402 -0.07042973045025724 
0.1069964544458845 -0.06458099538288402 -0.07042973045025724 
0.1069964544458845 -0.06458099538288402 -0.07042973045025724 
0.1069964544458845 -0.06458099538288402 -0.07042973045025724 
0.1069964544458845 -0.06458099538288402 -0.07042973045025724 
0.1069964544458845 -0.06458099538288402 -0.07042973045025724 
