solver_type L2R_L2LOSS_SVC_DUAL
nr_class 1
label 1
nr_feature 1409
bias -1
w
0 
0.00296375082301914 
0.2739879100995113 
0.02353803892816341 
0.003793682491508109 
0 
0 
0.02353803892816341 
0 
0.09258847685065952 
0.2074086927395571 
0.2739879100995113 
0.1225528653693275 
0.0003120150010006274 
0 
0 
0 
0 
0 
0 
0 
0.01408655941646756 
0.02740844550214022 
0 
0.01408655941646756 
0.02740844550214022 
0 
0 
0 
0 
0 
0 
0 
0 
0.03107893299970585 
0 
0 
0.01461889618824631 
0 
0 
0 
0.02420792337209126 
0 
0.06957695011328538 
0.00320992611134351 
0.00320992611134351 
0.007104650349728605 
0.004865324196540339 
0.00320992611134351 
0.00320992611134351 
0.007104650349728605 
0.00320992611134351 
0 
0 
0.0127549555697249 
0.01305612478683951 
0 
0 
0.003549891713926876 
0.003549891713926876 
0.04571206946987318 
0.07846654222174004 
0.06436709671166702 
0.02392254855813758 
0.02392254855813758 
0.02392254855813758 
0.02392254855813758 
0.02392254855813758 
0.02392254855813758 
0.02392254855813758 
0.0334287816310502 
0.02392254855813758 
0.07130571365336021 
0 
0 
0 
0 
0 
0 
0 
0 
0 
0 
0 
0 
0.03798585942815331 
0.006974492732480798 
0.002342025899678491 
0.0006866278144816618 
0.0006866278144816618 
0.0006866278144816618 
0.0006866278144816618 
0.0006866278144816618 
0.0006866278144816618 
0.01810084610588266 
0 
0.009470018163153826 
0 
0.002739892119931124 
0.000682136172073859 
0.000682136172073859 
0.000682136172073859 
0.000682136172073859 
0.000682136172073859 
0.000682136172073859 
0 
0 
0 
0 
0 
0 
0 
0.04409540971642306 
0.002733696517952473 
0.02268137637943337 
0.04409540971642306 
0.002733696517952473 
0.004936904309874945 
0.004936904309874945 
0.004936904309874945 
0.002875939754596857 
0.008923660284826967 
0.002875939754596858 
0.002875939754596857 
0.002875939754596857 
0.002875939754596857 
0.01369070034690951 
0 
-3.469446951953614e-18 
0 
0 
0 
0 
0 
0 
0 
0 
0 
0 
0.01129906500201727 
0 
0 
0.01129906500201727 
0 
0 
0 
0 
0 
0 
0 
0.01582363512859212 
0 
0 
0 
0.01582363512859212 
0.01566044891865713 
0.006287864917999136 
0.006287864917999136 
0.006718600653266097 
0.006287864917999136 
0.00296375082301914 
0 
0.002635983451597766 
0 
0 
0.002635983451597766 
0 
0 
0 
0 
0 
0 
0 
0 
0 
0 
0 
0 
0.004494552134101439 
0 
0 
0 
0.008058662764768595 
0 
0 
0 
0.009308469446408734 
0.005125676935279666 
0 
0.003969214736249805 
0.003969214736249805 
0.003969214736249805 
0 
0.008941848265391033 
0.01189552054407766 
0 
0 
0.008941848265391033 
0.009205063855798019 
0 
0 
0 
0 
0 
0 
0 
0 
0 
0 
0 
0.009506233072912627 
0 
0 
0 
0 
0 
0 
0 
0 
0.009205063855798019 
0.01553396367684522 
0 
0 
0.009205063855798019 
0.01400741668418733 
0 
0 
0.003793682491508109 
0 
0 
0.0106852656829864 
0.002690456688279641 
0.001156462199029862 
0 
-3.469446951953614e-18 
0 
0 
0 
0 
0 
0 
0.03315043572890405 
0.005267521316343726 
0 
0 
0.03315043572890405 
0.005267521316343726 
0 
0 
0.002635983451597767 
0 
0 
0.002635983451597767 
0.006032922458508105 
0.002739892119931124 
0.002739892119931124 
0.002739892119931124 
0.002739892119931124 
0 
0 
0 
0 
0 
0 
0 
0 
0 
0 
0 
0 
0 
0 
0 
0 
0 
0 
0 
0 
0 
0 
0 
0 
0 
0 
0 
0 
0 
0 
0 
0 
0 
0 
0 
0 
0 
0 
0 
0 
0 
0 
0.003036024118482956 
0 
0 
0 
0 
0 
0.02926236890940217 
0.02926236890940217 
0 
0 
0 
0 
0 
0.009506233072912627 
0.009506233072912627 
0.009506233072912627 
0.009506233072912627 
0.009506233072912627 
0.009506233072912627 
0.009506233072912627 
0.009506233072912627 
0.009506233072912627 
0 
0 
0 
0.002678589067724905 
0 
0 
0 
0 
0 
0 
0 
0 
0 
0 
0.004729884199677617 
0 
0 
0 
0.001526546992657887 
0 
0 
0 
0 
0 
0 
0 
0 
0.01332188608567266 
0 
0 
0 
0.003036024118482956 
0 
0 
0.001533994489249779 
0 
0 
0 
0 
0 
0 
0 
0 
0 
0 
0 
0 
0.003888066819501866 
0 
0 
0 
0 
0 
0.000430735735266962 
0.003793682491508109 
0 
0 
0 
0 
0 
0.01129906500201727 
0.02098105688038863 
0.01129906500201727 
0.02098105688038863 
0 
0 
0 
0 
0 
0 
0.0148714518093109 
0 
0 
0 
0 
0 
0 
0 
0 
0 
0 
0 
0 
0 
0 
0 
0 
0 
0 
0 
0 
0 
0 
0 
0.003036024118482956 
0.002635983451597767 
0.002635983451597767 
0.002635983451597767 
0 
0 
0 
0 
0 
0 
0 
0 
0 
0 
0.002349618673906869 
0.002349618673906869 
0.002349618673906869 
0.002349618673906869 
0.002349618673906869 
0.002349618673906869 
0 
0 
0.003564110630667157 
0 
0 
0 
0 
0 
0 
0 
0.005929603543919867 
0 
0 
0 
0 
0 
0 
0.00397737797824737 
0.00397737797824737 
0.00952880348395654 
0.00397737797824737 
0.00397737797824737 
0 
0 
0.003324114094979996 
0 
0 
0 
0 
0 
0 
0 
0 
0 
0 
0 
0.003396939006910338 
0 
0 
0.001597018290541372 
0.001597018290541372 
0 
0 
0 
0 
0 
0 
0 
0 
0 
0 
0 
0 
0 
0 
0 
0.02788291441256031 
0.02788291441256031 
0 
0 
0 
0 
0 
0 
0 
0 
0 
0 
0 
0 
0 
0 
0 
0 
0 
0.001526546992657887 
0 
0 
0 
0 
0 
0.006174066601549994 
0 
0 
0 
0 
0 
0 
0 
0 
0 
0.004610897054088544 
0.004610897054088544 
0 
0 
0 
0 
0 
0 
0 
0 
0 
0 
0 
0 
0 
0 
0 
0.001526546992657887 
0 
0 
0 
0 
0 
0 
0.004729884199677617 
0 
0 
0 
0.001526546992657887 
0.001526546992657887 
0.001526546992657887 
0 
0 
0 
0 
0.002678589067724905 
0 
0.002678589067724905 
0 
0.003396939006910338 
0.003396939006910338 
0.003396939006910338 
0.003396939006910338 
0.003396939006910338 
0.003396939006910338 
0.003396939006910338 
0 
0 
0 
0 
0 
0 
0 
0.003888066819501866 
0 
0.004729884199677617 
0 
0 
0 
0 
0 
0 
0 
0 
0 
0 
0 
0 
0 
0 
0 
0 
0 
0 
0 
0 
0 
0 
0 
0 
0 
0 
0 
0 
0.01408655941646756 
0 
0.01408655941646756 
0 
0 
0 
0 
0 
0 
0 
0 
0 
0 
0.008941848265391033 
0 
0.008941848265391033 
0 
0 
0 
0 
0 
0 
0 
0 
0 
0 
0 
0 
0 
0 
0 
0 
0 
0 
0 
0 
0 
0 
0 
0 
0 
0 
0 
0 
0 
0 
0 
0 
0 
0 
0 
0 
0 
0 
0 
0 
0 
0 
0 
0 
0 
0 
0 
0 
0 
0 
0 
0 
0 
0 
0 
0 
0 
0 
0 
0 
0 
0 
0 
0 
0 
0 
0 
0 
0 
0 
0 
0 
0 
0 
0 
0 
0 
0 
0 
0 
0.004494552134101439 
0 
0 
0 
0 
0 
0 
0 
0 
0 
0 
0 
0 
0 
0 
0 
0 
0 
0.0005138675954439196 
0 
0 
0 
0 
0 
0 
0 
0 
0 
0 
0 
0 
0.004729884199677617 
0.004729884199677617 
0.004729884199677617 
0 
0 
0 
0 
0 
0 
0 
0 
0 
0 
0 
0 
0.00449455213410144 
0 
0 
0 
0 
0 
0 
0 
0 
0 
0 
0 
0 
0.001504203443404162 
0 
0 
0 
0 
0 
0 
0 
0 
0 
0 
0 
0 
0 
0 
0 
0 
0 
0 
0 
0 
0.008074868472381529 
0.008074868472381529 
0.008074868472381529 
0.008074868472381529 
0.008074868472381529 
0.008074868472381529 
0.008074868472381529 
0.008074868472381529 
0 
0 
0 
0 
0 
0 
0.004494552134101439 
0 
0.003694101924739747 
0 
0.002078505793980306 
0 
0 
0.006938302733172572 
0.006938302733172572 
0 
0 
0 
0 
0 
0 
0 
0 
0 
0 
0 
0.0005138675954439196 
0.0005138675954439196 
0.0005138675954439196 
0.003793682491508109 
0 
0 
0 
0 
0 
0 
0 
0 
0 
0 
0 
0 
0 
0 
0 
0.005883925741130875 
0 
0 
0 
0 
0 
0 
0 
0 
0 
0 
0 
0 
0 
0 
0 
0.003793682491508109 
0 
0.003055400668056517 
0.003055400668056517 
0.008985004211976386 
0.003055400668056517 
0.003055400668056517 
0.008985004211976386 
0.005883925741130875 
0.005883925741130875 
0.005883925741130875 
0.005883925741130875 
0.005883925741130875 
0.005883925741130875 
0 
0 
0 
0 
0 
0 
0.003564110630667157 
0 
0.003564110630667157 
0.01400741668418733 
0.01400741668418733 
0.01400741668418733 
0.01400741668418733 
0.001864557473803465 
0.001864557473803465 
0 
0 
0 
0 
0 
0 
0 
0 
0.0003120150010006274 
0.0003120150010006274 
0.0003120150010006274 
0.0003120150010006274 
0 
0 
0 
0 
0 
0 
0 
0 
0 
0 
0 
0 
0 
0 
0 
0 
0 
0 
0 
0 
0 
0 
0 
0 
0 
0 
0 
0 
0 
0 
0 
0 
0.003694101924739747 
0.003694101924739747 
0.003694101924739747 
0.003694101924739747 
0.003694101924739747 
0 
0 
0 
0 
0 
0 
0 
0 
0 
0 
0 
0 
0 
0 
0 
0 
0.009205063855798019 
0.009205063855798019 
0.009205063855798019 
0 
0 
0 
0 
0 
0 
0.003564110630667157 
0.003564110630667157 
0.003564110630667157 
0 
0 
0 
0.001655398085196829 
0 
0 
0 
0 
0 
0 
0 
0 
0 
0 
0 
0 
0 
0 
0 
0 
0 
0 
0 
0 
0 
0 
0 
0 
0 
0 
0 
0 
0 
0.006174066601549993 
0.006174066601549993 
0.006174066601549993 
0.006174066601549993 
0.006174066601549993 
0 
0 
0 
0 
0 
0 
0 
0 
0 
0 
0 
0 
0 
0 
0 
0 
0 
0 
0 
0 
0 
0 
0 
0 
0 
0 
0 
0 
0 
0 
0 
0 
0 
0 
0 
0 
0 
0 
0 
0 
0 
0 
0 
0 
0 
0 
0 
0 
0 
0 
0 
0.01332188608567266 
0 
0 
0 
0 
0 
0 
0 
0 
0 
0 
0 
0 
0 
0 
0 
0 
0 
0 
0 
0 
0 
0 
0 
0 
0 
0 
0 
0 
0 
0 
0 
0 
0 
0 
0 
0 
0 
0 
0 
0 
0 
0 
0 
0 
0 
0 
0 
0 
0 
0 
0 
0 
0 
0 
0 
0 
0 
0 
0.005551425505709169 
0.005551425505709169 
0.005551425505709169 
0.005551425505709169 
0.01332188608567266 
0.01332188608567266 
0.01332188608567266 
0.01332188608567266 
0.01332188608567266 
0 
0 
0 
0 
0 
0 
0 
0 
0 
0 
0 
0 
0.002678589067724905 
0.002678589067724905 
0.002678589067724905 
0.002678589067724905 
0 
0 
0 
0 
0.003793682491508109 
0.003793682491508109 
0.003793682491508109 
0.004494552134101439 
0.004494552134101439 
0.004494552134101439 
0.004494552134101439 
0.004494552134101439 
0 
0 
0 
0 
0 
0 
0 
0 
0 
0 
0 
0 
0 
0 
0 
0 
0 
0 
0 
0 
0 
0 
0 
0 
0 
0.001655398085196829 
0 
0 
0 
0 
0 
0 
0 
0 
0 
0 
0 
0 
0 
0 
0 
0 
0 
0 
0 
0 
0 
0 
0 
0 
0 
0 
0 
0 
0 
0 
0 
0 
0 
0 
0 
0 
0 
0 
0 
0 
0.009681991878371364 
0.009681991878371364 
0.009681991878371364 
0.002078505793980306 
0 
0 
0 
0 
0 
0 
0 
0 
0 
0 
0 
0 
0 
0 
0 
0 
0 
0 
0 
0 
0 
0 
0 
0 
0.005929603543919867 
0.005929603543919867 
0 
0 
0 
0 
0 
0 
0 
0 
0 
0 
0 
0 
0 
0 
0 
0 
0 
0 
0 
0 
0 
0 
0 
0 
0 
0.003888066819501866 
0.003888066819501866 
0.003888066819501866 
0 
0 
0 
0 
0 
0 
0 
0 
0 
0 
0 
0 
0.001504203443404162 
0.001504203443404162 
0 
0 
0 
0 
0 
0 
0 
0 
0 
0 
0 
0 
0 
0 
0 
0 
0 
0 
0 
0 
0 
0 
0 
0 
0 
0 
0 
0 
0.001655398085196829 
0.001655398085196829 
0.001655398085196829 
0.001655398085196829 
0 
0 
0 
0 
0 
0 
0 
0 
0 
0 
0 
0 
0 
0 
0 
0 
0 
0 
0 
0 
0 
0 
0 
0 
0 
0 
0 
0 
0 
0 
0 
0 
0 
0 
0 
0 
0 
0 
0 
0 
0 
0 
0.003324114094979996 
0 
0 
0 
0 
0 
0.002078505793980306 
0.002078505793980306 
0.002078505793980306 
0 
0 
0 
0 
0 
0 
0 
0 
0 
0 
0.001533994489249779 
0.001533994489249779 
0.001533994489249779 
0 
0 
0 
0.000430735735266962 
0.000430735735266962 
0.000430735735266962 
0.000430735735266962 
0.000430735735266962 
0 
0 
0 
0 
0 
0 
0 
0 
0 
0 
0.008941848265391033 
0.008941848265391033 
0 
0 
0 
0 
0 
0 
0 
0 
