solver_type L2R_L2LOSS_SVC_DUAL
nr_class 5
label 1 2 3 4 5
nr_feature 1259
bias -1
w
0 -0.004341881549612471 0 0 0 
0.2051620601171204 -0.1805594319804475 -0.05895680342408714 -0.0335968061899168 -0.02033507730215573 
0.04317828870153321 -0.2173950392136617 -0.2349409562649892 -0.2860328966158041 -0.09790396641390486 
0 -0.01072492718912978 0 0 0 
0 -0.004341881549612471 0 0 0 
0.2426756053068152 -0.226014511786961 -0.02947840171204357 -0.02438379214685767 -0.009955032656020572 
0.03488331888010045 -0.02428771685874155 -0.02947840171204357 -0.006216296615549762 -0.009955032656020572 
0 -0.01072492718912978 0 0 0 
0.07942600909815781 -0.1802780177837976 -0.2035781143913926 -0.2860328966158041 -0.2351855135799726 
0.06169698885718061 -0.04275338209125595 -0.02884090377010847 -0.01532338152563601 -0.02427845569041458 
0.03031014845248513 0.1197462602357523 -0.1779841030011794 -0.1220927759469955 -0.3284435612347196 
-0.1036865370296227 0.1643369666166671 -0.1204763851090473 -0.07298631284086801 -0.1209839985246134 
0.08986774484006937 -0.06054826025244985 -0.06870563349878753 -0.02824595502415678 -0.03604142524535416 
0.1418655024992277 -0.1349653117517213 -0.1975280897580606 -0.1906161757946253 -0.2878343590193257 
0.3334664169176554 -0.1860231435805679 -0.1421873853872895 -0.09202854889899356 -0.04423881706701801 
0.1387453435702858 -0.2299610607782017 0.08204942078329935 -0.05613688425264212 -0.03021618250189775 
0.09444850244954762 -0.05985113048977729 -0.08817746985402049 -0.01219767112634042 -0.00355536163220655 
0.02256011461294594 -0.04600291050113899 -0.01928731891173084 -0.0232974861184955 -0.02144328000628118 
0 -8.673617379884035e-19 0 0 0 
0.4392116788519954 -0.2299610607782017 -0.2278046522386321 -0.0541380763147511 -0.02435501164187093 
0.1840123638042692 -0.131567997354488 -0.08817746985402047 -0.00427838949978688 -5.204170427930421e-18 
0.02256011461294593 -0.04600291050113899 0 -0.004278389499786875 0 
-0.0564460844562199 -0.04192679017885413 0.03352158760743006 0.03364889846507674 -0.08361707696066549 
0.03658233864148368 -0.03721436644365989 -0.03638307766856736 0 0 
-0.006992698199889617 -0.1590096576005746 0.2058817228792496 -0.001998807937891027 -0.005861170860026804 
0.0413692916764744 -0.02373596599906654 -0.05942453039975459 -0.01628225220540528 -0.0327046254822365 
0 0 -0.03638307766856736 0 0 
0.03173425793544809 0 -0.08189010669544969 0 0 
0 0 -0.03638307766856736 0 0 
0.03990012990322086 -0.02600674345295902 0.009190793108862279 -0.04965090793150439 -0.05576415385999749 
0 0 0 0 0 
0.04558144076797919 -0.03321325591254223 -0.008344854444637614 -0.00812421451670259 -0.01312815498829047 
0.1216920393074251 -0.1079460808435013 -0.01079484569954229 4.336808689942018e-19 -1.998997755520149e-19 
0.2389019733942583 -0.2350845073385182 -0.0295370237881226 -0.02315524138374639 -0.003694882987192823 
0 0 0 0 0 
0.04558144076797919 -0.03321325591254223 -0.008344854444637614 -0.00812421451670259 -0.01312815498829047 
0.09851385283837177 -0.08350903031334495 -0.01079484569954229 4.336808689942018e-19 -1.998997755520149e-19 
0.022917748958388 -0.06687053673246278 4.336808689942018e-19 4.336808689942018e-19 0 
0.1366923944445945 -0.1222599474851283 -0.04177295295941785 -0.02205783401637608 -0.03974873993194121 
0.1602297440757024 -0.1275841975366343 -0.03429589685340424 -0.03070316845478136 -0.04752491493069383 
0.04655496097900579 -0.04535785467583638 -0.01423789635670402 1.734723475976807e-18 -0.0001840588787877588 
0.002537087084406499 -0.04535785467583639 0 0 0 
0.04655496097900579 -0.04535785467583638 -0.01423789635670402 0 0 
0.142837664439156 -0.122553442080979 -0.03250399897212074 -0.004278389499786875 0 
0.002537087084406499 -0.04535785467583639 0 0 0 
-0.0521417716655472 0.03390027642526423 0 0 0 
-0.1808717736602717 0.1161684909807611 0.1188139032895865 -0.009570586414139104 -0.01916633735639839 
-0.3620815506270295 0.4066996854725449 -0.05370361017821515 -0.02463282001007777 -0.01326748717238824 
-0.1901630652212893 0.2935903510159609 -0.0878409868295937 -1.734723475976807e-18 -0.01326748717238824 
-0.0521417716655472 0.03390027642526423 0 0 0 
-0.0521417716655472 0.03390027642526423 0 0 0 
-0.3620815506270295 0.4066996854725449 -0.05370361017821515 -0.02463282001007777 -0.01326748717238824 
-0.1585086699243648 0.2065371337510628 -0.03248946026985125 -1.734723475976807e-18 -0.01326748717238824 
0 0 0 0 0 
0.2633985385504384 -0.2351576479634591 -0.07324422943221398 -0.03759652207324406 -0.06344498557648814 
0.1491150957350968 -0.1146522145237012 -0.02486465842319199 -0.02318485244501884 -0.0076008808522853 
0.07445726933453263 -0.06839173284174821 1.734723475976807e-18 -8.673617379884035e-19 0 
0 0 0 0 0 
0.2464039955769523 -0.2253820040102264 -0.06421535909063507 -0.02636813758635388 -0.05137117654914868 
0.1491150957350968 -0.1146522145237012 -0.02486465842319199 -0.02318485244501884 -0.005482201288896827 
0 0 0 0 0 
0.2730679268632832 -0.2487447937081709 -0.07324422943221395 -0.04093867154251924 -0.06344498557648814 
0.1284897199287566 -0.04159751867528337 -0.0415384587243953 -4.336808689942018e-19 0 
-0.220653281956244 0.06897049258538512 0.1473957391068542 -0.0146705695472843 -0.006122298904322775 
-0.1893230451314022 0.2933884945104785 -0.07855050530018963 -0.01152842910089346 0 
-0.1747853687567349 0.2425549914717689 -0.0415384587243953 0 0 
-0.2988098021003858 0.123277563987122 0.1899468688332998 -0.01362233162818708 -0.006122298904322775 
-0.1747853687567349 0.2425549914717689 -0.0415384587243953 0 0 
-0.1747853687567349 0.2425549914717689 -0.0415384587243953 0 0 
0 0 0 0 0 
-0.4730607437560887 0.5066326267899617 -0.05956692033166248 -0.03154504916813519 -0.01456846029790239 
-0.4799972748656454 0.5106853314494781 -0.06271844619006023 -0.0389313000451078 -0.02020051115288831 
-0.177204373765971 0.1714156396574351 -0.001480378002024472 -0.002534043668512554 0 
0 0 0 0 0 
-0.347635895310171 0.3911966754543911 -0.05808654232963802 -0.02601428807211324 -0.01414344830778783 
-0.05628121818482801 0.07417049776100904 -0.03955132801955934 -0.02143688654475659 -0.009653704941998053 
0 0 0 0 0 
0.1221884260466983 -0.05380107009111332 -0.1043003700033793 -0.0468020043338063 -0.0710330604142034 
-0.1232022762694576 0.1237507021924922 0 0 0 
-0.1232022762694576 0.1237507021924922 0 0 0 
-0.1232022762694576 0.1237507021924922 0 0 0 
-0.1232022762694576 0.1237507021924922 0 0 0 
-0.1232022762694576 0.1237507021924922 0 0 0 
-0.1232022762694576 0.1237507021924922 0 0 0 
0.1752638111080661 -0.147199124740133 -0.03492183787850971 -0.03958133071450784 -0.04269765816027576 
0.07478423552440129 -0.04161029475845709 -0.07351977139633854 -0.03459227038355663 -0.05650922627523369 
0.2127400324730622 -0.1676432894805027 -0.02712832684919936 -0.01557317376484799 -0.03062384913293631 
0.06459468522891672 -0.04161029475845709 -0.02503262191883997 -0.01557317376484799 -0.03062384913293631 
0.06466823318102612 -0.04161029475845709 -0.04431994083057082 -0.03459227038355662 -0.0520671291392175 
0.2127400324730622 -0.1676432894805027 -0.02712832684919936 -0.01557317376484799 -0.03062384913293631 
0.06794795659433263 -0.06304667291281128 -0.02751364268946467 -0.01902227202485165 -0.01567860238643534 
0 0 0 0 0 
0 0 0 0 0 
2.602085213965211e-18 0 0 0 0 
0 0 0 0 0 
0 0 0 0 0 
0.004260751373897338 5.421010862427522e-20 -0.01106736413916131 -0.000743465564224704 0 
0.06815086732574076 -0.06938394172319876 -0.01687835839211759 -0.007381488483324073 -0.00619512199065481 
0.04694394465155923 -0.02362903879201743 -0.05373714747483427 -0.03083378194673084 -0.03419642594232335 
3.469446951953614e-18 -1.734723475976807e-18 0 -0.003713764843678933 0 
0.04558144076797919 -0.03321325591254223 -0.008344854444637612 -0.0106060994178156 -0.01312815498829048 
0.03434355136924355 -0.04358626258802572 -0.01629792043890113 -0.0004364734435970274 -0.005047920251814478 
0 0 0 0 0 
0.04558144076797919 -0.03321325591254223 -0.008344854444637614 -0.00812421451670259 -0.01312815498829047 
0 0 0 0 0 
0.04675217754879386 -0.05260198522868202 -0.007320042079480935 -0.003713764843678933 8.673617379884035e-19 
0.02928287108339715 -0.0278097381300628 -0.003735314196164326 -0.002514692048082303 0 
0 0 0 0 0 
0.06986776607353352 -0.04159336173901161 -0.04999625502119293 -0.02318022761707302 -0.01017097146547769 
0.172362132566976 -0.1271640885124641 -0.06592930882324005 -0.03503990112006736 -0.008952286050282459 
0 0 0 0 0 
0 0 0 0 0 
0.2229983375638826 -0.1917827561850454 -0.04287671409469051 -0.02318022761707302 -0.01017097146547769 
0.1139459177860853 -0.1006642009246633 -0.0133396903065679 -0.01735422533478739 -0.006476088478284863 
0.3022897378238052 -0.2343445802002279 -0.08444965427158398 -0.0390667616066251 -0.03530513619799575 
-0.362569297575639 0.3895645711266408 -0.02208224344723228 -0.01130531225105772 -0.003980373622321127 
-0.1033352063174271 0.09527419958352236 0 -0.0009173092379285574 0 
0 0 0 0 0 
-0.362569297575639 0.3895645711266408 -0.02208224344723228 -0.01130531225105772 -0.003980373622321127 
-0.09544426058633464 0.1016399463484014 -8.673617379884035e-19 -0.002996717427509381 -0.0004250119901145824 
-0.0390342917049125 0.02751293368589728 0 0 0 
-0.001899690928850554 0.03369863739769296 -0.02048194787775467 -0.00990166944935459 -0.01485761538871115 
0 0 0 0 0 
0 0 0 0 0 
0 0 0 0 0 
0 0 0 0 0 
0.06656964768550525 -0.03937213968857564 -0.02953702378812261 -0.005826002282285629 -0.003694882987192819 
0 0 0 0 0 
0 0 0 0 0 
0 0 0 0 0 
0 0 0 0 0 
-0.08553882370175522 -0.05508856571929428 0.1800979408611416 -0.009570586414139099 0 
-0.02559660458015206 -0.0648710107328344 0.1028353060783851 -0.0095705864141391 -0.01105023345969395 
0.1399048195133789 -0.01076299961666592 -0.08817746985402047 0 0 
0.1399048195133788 -0.005097936250856288 -0.08817746985402047 0 0 
-0.08553882370175522 -0.05508856571929428 0.1800979408611416 -0.009570586414139099 0 
0.1399048195133788 -0.005097936250856288 -0.08817746985402047 0 0 
0 0 0 -0.008715221838332335 0 
-0.04978325051569283 -0.01504083129735645 -0.00472642333850223 0.1316521019381833 0 
0.1055843776887489 -0.1146141518843462 -0.002095704930359396 -0.008715221838332335 -0.00211867956338848 
0 0 0 -0.008715221838332335 0 
-0.04715134092785949 -0.09517933971411943 -0.002574179251124547 0.1415092842807088 0 
0 0 0 -0.008715221838332335 0 
0.045305057106885 -0.01279452316255407 -0.01384580034308106 -0.004162542375795406 -1.734723475976807e-18 
0.1684943033951084 -0.1671200099490833 -0.03553770269593784 -0.01742743116559831 -0.00165762256703206 
0.02714514001361188 -0.007527135793434727 -0.01783746449252123 -0.005041935500650839 -0.0005921008740844644 
0 0 0 -0.004162542375795406 0 
0.1413491633814966 -0.1595928741556487 -0.0192096888780202 -0.01654803804074288 -0.001657622567032062 
0.03127107476727867 -0.01897275179436608 -0.0362616046987546 -0.01680628266042453 -0.002476197571997607 
-8.673617379884035e-19 0 -0.001509450674603586 -0.004162542375795407 -0.000592100874084464 
0.02714514001361189 -0.00752713579343473 -0.02595865811532482 -0.008622319429615289 -0.001007209472992466 
0.04699391991640935 0 -0.02350730930120584 -0.001691804914237546 -0.009955032656020572 
0.02957913119840315 0 -0.02350730930120584 -0.001691804914237546 -0.009955032656020572 
0.02957913119840315 0 -0.02350730930120584 -0.001691804914237546 -0.009955032656020572 
0.02957913119840315 0 -0.02350730930120584 -0.001691804914237546 -0.009955032656020572 
-0.1270459842895157 -0.04696132853534188 0.1029528287416554 -0.01374218003987117 0.055732956572957 
-0.07315824726521483 0.04860928844307576 -4.187546265918736e-05 -0.005559175272669294 2.276824562219559e-18 
0.009663552098316645 -0.006945405165896497 0 0 0 
0.009663552098316645 -0.006945405165896497 0 0 0 
0.01138132738219506 -0.009916514095543952 0 0 0 
0.009663552098316645 -0.006945405165896497 0 0 0 
0.009663552098316645 -0.006945405165896497 0 0 0 
-0.0805417975407804 0.07046132175255884 0 0 -0.00916517576506681 
0 0 0 0 0 
0 0 0 0 0 
0.1704082613719766 -0.1357976399659003 -0.02124401712877223 -0.0339271344126418 -0.006698303061392407 
0 0 0 0 0 
-0.1170434502916433 -0.004198912866691337 0.112312585534324 -0.01411745373315604 -0.01110081098535965 
0 8.673617379884035e-19 -0.008121193622803596 -0.00358038392896445 0 
-8.673617379884035e-18 8.673617379884035e-19 -0.0192096888780202 0 0 
0 8.673617379884035e-19 -0.008121193622803596 -0.00358038392896445 0 
0.1811603890425094 -0.137589635977737 -0.02695695763346201 0 0 
0.0167155662029327 -0.01843398789047248 0 0 0 
0.0167155662029327 -0.01843398789047248 0 0 0 
0.1445780504010258 -0.1003752695340771 -0.02695695763346201 0 0 
0.08250290934574493 -0.06442040025243609 -0.01069805327909406 -0.007757257232785608 0 
0.0167155662029327 -0.01843398789047248 0 0 0 
0.1726202381487753 -0.1632115354352099 -0.02663096040134739 -0.01087707033903513 -0.001593301242766784 
0.05299226982081765 -0.0601183292244704 0 0 0 
0.1413491633814966 -0.1519158288982463 0 -0.001813713983370458 -0.0001243131437616452 
0.05299226982081765 -0.0601183292244704 0 0 0 
0.1111537972444747 -0.06743447233291809 -0.03667234351954485 -0.0137739336345398 -0.01054680621089027 
-0.07415321151978067 -0.06693980481721958 0.1512030047136031 -0.02118534897637648 0 
0.0599822454818967 -0.0333262448858133 -0.01214704425482921 0 0 
0.0406456919684817 -0.01367874187785009 -0.01214704425482921 0 0 
0.0406456919684817 -0.01367874187785009 -0.01214704425482921 0 0 
0.0406456919684817 -0.01367874187785009 -0.01214704425482921 0 0 
0.008884898040001438 0 0 0 0 
0.07026511569781356 -0.05151425552203125 -0.03524171995424514 -0.005345319588198255 0 
0 0 0 0 0 
0 0 0 0 0 
0 0 0 -0.004584797249351555 0 
0 0 0 -0.004584797249351555 0 
0.03127107476727866 -0.01129570653696365 -0.02663096040134738 -0.009063356355664673 -0.001468988099005137 
0.001717775283878416 -0.00297110892964745 -0.0144350043735185 -0.01127432223884998 -0.002374614529101797 
0.001717775283878422 -0.00297110892964745 -0.006206603960033315 0 0 
0 0 0 0 0 
0.03695551853122345 -0.02757997819185611 -0.03267231193898365 -0.0218112676793406 -0.03523492522967036 
0.08336481000874338 -0.02910817645311508 -0.06244934539918649 -0.0218112676793406 -0.03523492522967036 
0 0 -0.02015029783901521 0 0 
0.03173425793544808 0 -0.04550702902688233 0 0 
0.01801080818044222 0 0 0 0 
0.01801080818044222 0 -8.673617379884035e-19 -0.002048305268666424 0 
0.07052022414254272 -0.0532312541091914 -0.0003489622201779439 0 0 
0.01801080818044222 0 0 0 0 
0.01801080818044222 0 0 0 0 
0.01801080818044222 0 0 0 0 
0.07777938425983169 -0.05430707140173687 -0.02438930640251457 -0.001048237919097217 0 
0.1878710617005445 -0.1508925721266949 -0.04802351688384961 -0.02514637074850065 -0.03832843493196687 
0.07777938425983169 -0.05430707140173687 -0.02438930640251457 -0.001048237919097217 0 
0.07777938425983169 -0.05430707140173687 -0.02438930640251457 -0.001048237919097217 0 
0.07777938425983169 -0.05430707140173687 -0.02438930640251457 -0.001048237919097217 0 
0.1878710617005445 -0.1508925721266949 -0.04802351688384961 -0.02514637074850065 -0.03832843493196687 
0.07777938425983169 -0.05430707140173687 -0.02438930640251457 -0.001048237919097217 0 
-0.04297983194841146 0.06683808192933208 -0.01551685233840817 0 -0.005861559174221412 
-0.04297983194841146 0.06683808192933208 -0.01551685233840817 0 -0.005861559174221412 
-0.04297983194841146 0.06683808192933208 -0.01551685233840817 0 -0.005861559174221412 
0 0 0 0 -0.0001840588787877588 
0.04829321367693511 -0.0519535959491981 0 0 0 
0.01901034259353797 -0.02414385781913528 0 0 0 
0.01901034259353797 -0.02414385781913528 0 0 0 
0.01901034259353797 -0.02414385781913528 0 0 0 
0.01901034259353797 -0.02414385781913528 0 0 0 
0.06115506798494393 -0.03219289771511436 -0.008818583023724562 -0.003285119632569411 0 
0 0 0 0 0 
0.06115506798494393 -0.03219289771511436 -0.008818583023724562 -0.003285119632569411 0 
0 0 0 0 0 
0 0 0 0 0 
0 0 0 0 0 
0 0 0 0 0 
-0.0633870663104061 0.1057987753964666 -0.01697260793144307 0 -0.007405927998166831 
-0.0633870663104061 0.1057987753964666 -0.01697260793144307 0 -0.007405927998166831 
-0.0633870663104061 0.1057987753964666 -0.01697260793144307 0 -0.007405927998166831 
0.09946159880358559 -0.04519908044281264 0 -0.02289383949045759 0 
0 0 0 0 0 
0 0 0 0 0 
0.045305057106885 -0.01279452316255407 -0.01384580034308106 0 0 
0.045305057106885 -0.01279452316255407 -0.01384580034308106 0 0 
0.1426513891627716 -0.03119267690400365 -0.08036640107309008 0 -0.01330477818217699 
0.045305057106885 -0.01279452316255407 -0.01384580034308106 0 0 
0.1268748069031297 -0.09172115828586749 -0.06188596195737013 -0.02043392511351918 -0.03448406687143396 
0.04215301099402441 -0.03202903083748563 -0.006694405118538362 -0.00898436021142603 -0.01485761538871115 
1.734723475976807e-18 0 -0.001864719013834686 -0.002953115049711057 -0.003707314686587036 
0.1019638804821617 -0.08546239477182908 -0.0140235598564008 -0.02043392511351918 -0.02117928868925697 
0.1019638804821617 -0.08546239477182908 -0.0140235598564008 -0.02043392511351918 -0.02117928868925697 
0.04215301099402441 -0.03202903083748563 -0.006694405118538362 -0.00898436021142603 -0.01485761538871115 
0 0 -0.001864719013834686 -0.002953115049711057 -0.003707314686587036 
0.04215301099402442 -0.03828779435152408 0 0 0 
0.04215301099402442 -0.03202903083748564 0 0 0 
0.04215301099402442 -0.03202903083748564 0 0 0 
0.08340137641994749 -0.05314414137167047 0 0 0 
0.04215301099402442 -0.03202903083748564 0 0 0 
0.0577892313297215 -0.05314795385254557 -0.01162198850591256 -0.007385527774092054 0 
0.09349931219811419 -0.07778391601887059 -0.008685962831029789 -0.01083083131578564 0 
0.01730552243033412 -0.01435545166119458 -0.005810994252956278 -0.003692763887046027 0 
0.01730552243033412 -0.01435545166119458 -0.005810994252956278 -0.003692763887046027 0 
0.01730552243033412 -0.01435545166119458 -0.005810994252956278 -0.003692763887046027 0 
0.09899061717356587 -0.07778391601887059 -0.008685962831029789 -0.01066657766016203 0 
0.01730552243033412 -0.01435545166119458 -0.005810994252956278 -0.003692763887046027 0 
-0.1495780617868076 0.1484725934365362 0 -0.001844786616527845 0 
-0.1495780617868076 0.1484725934365362 0 -0.001844786616527845 0 
-0.1495780617868076 0.1484725934365362 0 -0.001844786616527845 0 
-0.1406200179943977 0.203650090001467 -0.02208224344723228 0 0 
0 0.06903450376782654 -0.02208224344723228 0 0 
0 0.06903450376782654 -0.02208224344723228 0 0 
0.003930276378440281 0 0 -0.01244202381015726 0 
0.02325173442116268 -0.02443705053015641 0 0 0 
0.02317818646905329 -0.02443705053015641 0 0 0 
0.05550363284257341 -0.03523737606228886 -0.03973095122747921 -0.01590556794039379 -0.02349380941484337 
0 0 0 0 0 
0.322662055258252 -0.2560577800616021 -0.08151108916715638 -0.04896042681500128 -0.03351708903362063 
0.144535435070979 -0.1059358327612529 -0.02920234659627582 -0.01485260824489553 -0.003374125703371474 
0 0 0 0 0 
0 0 0 0 0 
0.322662055258252 -0.2560577800616021 -0.08151108916715638 -0.04896042681500128 -0.03351708903362063 
0 0 0 0 0 
-0.1167523982923692 0.1076285841034832 0 -0.000743465564224704 0 
0 0 0 -0.000743465564224704 0 
0 5.421010862427522e-20 0 0 0 
0 5.421010862427522e-20 0 -0.000743465564224704 0 
0 0 0 -0.000743465564224704 0 
0.06486601162636313 -0.04735148812181286 -0.01435459481405502 -0.008731041234124307 -0.003256815390660368 
0 0 0 0 0 
0 0 0 0 0 
0.02340640705245607 -0.03059143953184775 0 0 0 
0 0 0 0 0 
0.09738901560810148 -0.05804156092807371 -0.03323540038834252 0 -0.00916517576506681 
0 0 0 0 0 
0 0 0 0 0 
0 0 0 0 0 
-0.0925871740395057 -0.1192774274846469 0.2084308159494653 -0.01362233162818708 -0.006122298904322775 
-0.0457847091535743 0.0567814123687688 -0.009241443772882621 0 0 
0.0264678428406908 0 -0.009357167570069651 -0.004961990027329314 0 
0.0264678428406908 0 -0.009241443772882621 0 0 
0.0264678428406908 0 -0.009241443772882621 0 0 
0.0264678428406908 0 -0.009241443772882621 0 0 
0 0 0 0 -0.003093509702296527 
-0.02071011340702989 -0.0371170214298638 -0.03136284187359675 0 0.1230765627498858 
0 0 0 0 -0.003093509702296527 
0.1308600050894748 -0.07583821682025428 -0.02124401712877223 -0.0339271344126418 -0.006698303061392407 
0 0 0 0 -0.003093509702296527 
0.05841629906319105 -0.04912438519887013 -0.01108461013260226 -0.0137739336345398 0 
0.05841629906319105 -0.04912438519887013 -0.01108461013260226 -0.0137739336345398 0 
0.05841629906319105 -0.04912438519887013 -0.01108461013260226 -0.0137739336345398 0 
0.1445354350709791 -0.1059358327612529 -0.02920234659627583 -0.01485260824489553 -0.003374125703371474 
0.05149776268245509 -0.0152403869739115 -0.02452529926471564 -0.0137739336345398 -0.01054680621089027 
0.05841629906319105 -0.04912438519887013 -0.01108461013260226 -0.0137739336345398 0 
0.05518976988336463 -0.04124462328418837 -0.01344564303727199 -0.009551306081226495 -0.0195391445536922 
-0.0805417975407804 0.07046132175255884 0 0 0 
0 0 0 0 0 
0 0 0 0 0 
-0.02674671732678324 0.03530169557626569 -0.02722494469243704 -0.01880298495123879 -0.009193887482588259 
0 0 0 0 0 
0 0 0 0 0 
-0.1836284127608759 0.1561511580338906 0 0 0 
0 0 0 0 0 
0 0 0 0 0 
0 0 0 0 0 
0 0 0 0 0 
0 0 0 0 0 
0 0 0 0 0 
0 0 0 0 0 
0.1491150957350968 -0.1146522145237012 -0.02486465842319199 -0.02318485244501884 -0.005482201288896827 
0.03434355136924355 -0.04358626258802571 -0.01629792043890113 -0.0004364734435970274 -0.005047920251814478 
0.05332608573533427 -0.04793537546971693 -0.01963301353336591 -0.006611001307654888 -0.005047920251814478 
0.1491150957350968 -0.1146522145237012 -0.02486465842319199 -0.02318485244501884 -0.005482201288896827 
0 0 0 0 0 
0.03223863261672073 -0.01573466628369906 -0.01110322532531602 -0.003469454266558407 -0.01314368856295738 
0.01741478871800621 0 0 0 0 
0.01741478871800621 0 0 0 0 
0.03223863261672073 -0.01573466628369906 -0.01110322532531602 -0.003469454266558407 -0.01314368856295738 
0.01741478871800621 0 0 0 0 
0.02740457937184047 -4.336808689942018e-19 -0.01110322532531602 -0.003469454266558412 -0.01314368856295739 
0.001198471432747307 0 0 0 0 
0.001198471432747308 0 0 0 0 
0.001198471432747308 0 0 0 0 
0.001198471432747308 0 0 0 0 
0.001198471432747308 0 0 0 0 
0.03127107476727867 -0.01129570653696365 -0.01705191582073436 -0.002071958603052105 -0.0009428881487271872 
0.03127107476727867 -0.007100795972833353 -0.01705191582073436 0 0 
0.03127107476727867 -0.01129570653696365 -0.01705191582073436 -0.002071958603052105 -0.0009428881487271872 
0 0 0 0 0 
0 0 0 0 0 
0 0 0 0 0 
0 0 0 0 0 
0.1829586268112285 -0.1903414484015389 0 0 0 
0 0 0 0 0 
0 0 0 0 0 
0 0 0 0 0 
0.000154895597559756 3.469446951953614e-18 -0.002519918645674775 -0.004524491701312213 0 
4.432165150195035e-05 0 0 0 0 
4.432165150195056e-05 0 0 0 0 
4.432165150195035e-05 0 0 0 0 
0.003635581812132979 -0.01573466628369906 0 0 0 
0 0 0 0 0 
0 0 0 0 0 
0 0 0 0 0 
-0.045059016517074 0.09025291848340097 0 -0.02138086713240605 0 
0 0 0 0 0 
-0.045059016517074 0.09025291848340097 0 -0.02138086713240605 0 
0 0 0 0 0 
0 0 0 0 0 
0 0 0 0 0 
-0.09352637925481593 0.1000270615271383 -0.007591931159071129 -0.00738155223270407 -0.003596642096897547 
-0.09352637925481593 0.1000270615271383 -0.007591931159071129 -0.00738155223270407 -0.003596642096897547 
-0.09352637925481593 0.1000270615271383 -0.007591931159071129 -0.00738155223270407 -0.003596642096897547 
-0.02915001594832995 0.02653455556155195 -0.007591931159071128 -0.009195266216074527 -0.003720955240659192 
-0.09352637925481593 0.1000270615271383 -0.007591931159071129 -0.00738155223270407 -0.003596642096897547 
0.03376014822400384 -0.03803599147353068 0 -0.00403924835465826 -0.00619512199065481 
0.05162842719034291 -0.0143714856620212 -0.01378754275921631 0 0 
0 -0.0143714856620212 0 0 0 
0.007955137543106684 -0.0143714856620212 0 -0.003688724596278049 -0.00619512199065481 
0.007955137543106684 -0.0143714856620212 0 0 0 
0.04582376419096927 -0.01786410680198731 -0.03116421324318834 -0.01453805607137803 -0.02305952837776102 
0.04502895306222207 -0.02734721242041616 -0.0504515321549192 -0.03355715269008664 -0.04450280838404222 
0.04582376419096927 -0.01786410680198731 -0.03116421324318834 -0.01453805607137803 -0.02305952837776102 
0.04582376419096927 -0.01786410680198731 -0.03116421324318834 -0.01453805607137803 -0.02305952837776102 
0.07628754578937116 -0.04333793579561118 -0.03116421324318834 -0.01453805607137803 -0.02305952837776102 
0.07628754578937116 -0.04333793579561118 -0.03116421324318834 -0.01453805607137803 -0.02305952837776102 
0.07454422507749789 -0.08869550567159896 -0.03548246236725516 0 0 
0.004969416463454174 0 -0.01381306783534715 0 0 
0.004969416463454174 0 -0.01381306783534715 0 0 
0.004969416463454174 0 -0.01381306783534715 0 0 
0 0 0 0 0 
0 0 0 0 0 
0 0 0 0 0 
0 0 0 0 0 
0 0 0 0 0 
0.009679868651604164 -0.01737326926030155 -0.008566737984290859 -0.001367511869015766 -0.000434281037082347 
0.009679868651604164 -0.01737326926030155 -0.008566737984290859 -0.001367511869015766 -0.000434281037082347 
0.009679868651604164 -0.01737326926030155 -0.008566737984290859 -0.001367511869015766 -0.000434281037082347 
0.009679868651604164 -0.01737326926030155 -0.008566737984290859 -0.001367511869015766 -0.000434281037082347 
0.009679868651604164 -0.01737326926030155 -0.008566737984290859 -0.001367511869015766 -0.000434281037082347 
-0.1360067725002564 0.139478262096161 0 -0.0009173092379285574 -0.0002198714199058008 
0 0 0 0 -0.0002198714199058008 
0.1628065861565642 -0.1574119028770635 -0.01984680039299467 -0.03142617275106197 0 
0 0 0 0 0 
0.08573330882721178 -0.07933582231234512 -0.01458126611346016 -0.001613932248253863 0 
0 0 0 0 0 
0.001276479896298111 -0.007096201732287252 0 0 0 
0.01696092712477021 -0.007096201732287252 -0.01357507484931198 -0.006888155407022687 0 
0.001276479896298109 -0.007096201732287252 0 0 0 
0.001276479896298111 -0.007096201732287252 0 0 0 
0.001276479896298111 -0.007096201732287252 0 0 0 
0.001276479896298111 -0.007096201732287252 0 0 0 
0.02277066216059796 -0.03055771390117782 1.084202172485504e-19 -0.0014937128585641 0 
0.002978120763741658 0 0 0 0 
0.002978120763741658 0 0 0 0 
0.002978120763741658 0 0 0 0 
0.002978120763741658 0 0 0 0 
0.002978120763741658 0 0 0 0 
0 0 0 0 0 
0.01838195594003021 -0.01379133030790014 -0.006153901763505405 -0.009051441091420281 -0.01207380902733946 
0 0 0 0 0 
0 0 0 0 0 
0 0 0 0 0 
0 0 0 0 0 
0.1128300593939647 -0.06870623015578674 -0.03524171995424514 -0.009398724401619634 0 
0.05780889593706335 -0.02864055549605509 -0.03524171995424514 -0.004601854023973552 0 
0.1128300593939647 -0.06870623015578674 -0.03524171995424514 -0.009398724401619634 0 
0.05780889593706335 -0.02864055549605509 -0.03524171995424514 -0.004601854023973552 0 
0.05780889593706335 -0.02864055549605509 -0.03524171995424514 -0.004601854023973552 0 
0 0 0 0 0 
0 0 0 0 0 
0 0 0 0 0 
0 0 0 0 0 
0 0 0 0 0 
0.007654077204209219 -0.01517504568632259 0 0 0 
0 0 0 0 0 
-0.1166462564162022 0.187560470885683 -0.04502028140370633 -0.003285119632569412 -0.004233521794575946 
0 0 0 0 0 
0.02317818646905329 -0.02443705053015641 0 0 0 
0 0 0 0 0 
-0.1049518217717058 0.1146342272886663 -0.001480378002024472 -0.002534043668512555 0 
-0.1049518217717058 0.1146342272886663 -0.001480378002024472 -0.002534043668512555 0 
-0.1049518217717058 0.1146342272886663 -0.001480378002024472 -0.002534043668512555 0 
-0.177204373765971 0.1714156396574351 -0.001480378002024472 -0.002534043668512556 0 
0 0 0 -0.01127432223884998 0 
0 0 0 -0.0269259138036507 0 
0.000334259701620889 0 0 0 0 
0.000334259701620889 0 0 0 0 
0.000334259701620889 0 0 0 0 
0.000334259701620889 0 0 0 0 
0.002251509840047148 0.04023613195429979 -0.03141833782992454 -0.009166603241800228 -0.006172399468297556 
-0.1240244333436507 -0.1192774274846469 0.231485327557695 -0.01362233162818708 -0.006122298904322775 
0.03214379889405392 -0.00978244501354008 -0.008228400413485198 0 -0.003330871549166426 
0 0 0 0 0 
-0.3005398832338196 0 0.3098540730219315 -0.001998807937891027 -0.005861170860026804 
-0.3005398832338196 0 0.3098540730219315 -0.001998807937891027 -0.005861170860026804 
-0.3005398832338196 0 0.3098540730219315 -0.001998807937891027 -0.005861170860026804 
-0.3005398832338196 0 0.3098540730219315 -0.001998807937891027 -0.005861170860026804 
0 0 0 0 0 
0 0 0 0 0 
0 0 0 0 0 
0 0 0 0 0 
0.02348678181681275 -0.02736637718171705 -0.003004096708210233 -0.00320371566697868 -0.00435740891489639 
7.354795210939459e-05 0 0 0 0 
7.354795210939459e-05 0 0 -0.01732923910146077 0 
0 0 0 0 0 
0.05324272997473585 -0.04489551493244866 -0.01069805327909406 -0.007757257232785608 0 
0 0 0 0 0 
0.05324272997473585 -0.04489551493244866 -0.01069805327909406 -0.007757257232785608 0 
0 0 0 0 0 
0 0 0 0 0 
0 0 0 0 0 
0 0 0 0 0 
0 0 0 0 0 
0 0 0 0 0 
0.01798518863147431 -5.204170427930421e-18 -0.003827733842615876 -0.004524491701312212 1.734723475976807e-18 
0 0 0 0 0 
0.0001105739460578064 -3.469446951953614e-18 -0.002519918645674774 -0.004524491701312212 0 
0 0 0 0 0 
0 0 0 0 0 
0 0 0 0 0 
0 0 0 0 0 
0 0 0 0 0 
0.08835689356067894 -0.09179749967377585 0 0 0 
0 0 0 0 0 
0 0 0 0 0 
0 0 0 0 0 
0.01979254139685629 -0.03055771390117782 0 -0.003307426841934556 -0.0001243131437616452 
0.01979254139685629 -0.03055771390117782 0 -0.0014937128585641 0 
0.01979254139685629 -0.03055771390117782 0 -0.0014937128585641 0 
0.02317818646905329 -0.02443705053015641 0 0 0 
0 0 0 -0.001813713983370458 -0.0001243131437616452 
0.007654077204209219 -0.01517504568632258 -0.003735314196164324 -0.002514692048082303 0 
0 0 -0.003735314196164324 -0.002514692048082303 0 
0 0 -0.003735314196164324 -0.002514692048082303 0 
0 0 -0.003735314196164324 -0.002514692048082303 0 
0 0 2.656295322589486e-18 0 -0.002118679563388472 
0 0 0 0 0 
0 0 0 0 0 
0.09216477175031904 -0.08207812869813109 -0.02201835675208596 4.336808689942018e-19 0 
0 0 0 0 0 
0.05502116345690138 -0.04006567465973164 0 -0.004796870377646084 0 
0.05502116345690138 -0.04006567465973164 0 -0.004796870377646084 0 
0.05502116345690138 -0.04006567465973164 0 -0.004796870377646084 0 
0.2077922864267146 -0.2017267949282194 0 0 0 
0.2077922864267146 -0.2017267949282194 0 0 0 
0.2077922864267146 -0.2017267949282194 0 0 0 
0 0 0 0 0 
0.03512043092804539 -0.01304028118082438 1.734723475976807e-18 0 0 
0 0 0 0 0 
0 0 0 0 0 
0 0 0 0 0 
0.03954825628250196 -0.05995942314564593 0 0 0 
0 0 0 0 0 
0 0 0 -0.01565159156480073 0 
0 0 0 -0.01565159156480073 0 
-0.1016587383752143 0.08856777686741682 -4.187546265918736e-05 -0.006176829359916416 1.084202172485504e-19 
0.003257000459010138 -0.01573466628369906 0 0 0 
0.003257000459010138 -0.01573466628369906 0 0 0 
0.003257000459010138 -0.01573466628369906 0 0 0 
-0.07225255199426509 0.0567814123687688 0 0 0 
0 -0.006258763514038441 0 0 0 
0.024910926420968 -0.006258763514038442 -0.04786240210096933 0 -0.01330477818217699 
0 -0.006258763514038441 0 0 0 
0 -0.006258763514038441 0 0 0 
0.02928287108339715 -0.02780973813006281 0 0 0 
0.02928287108339715 -0.02780973813006281 0 0 0 
0.02928287108339715 -0.02780973813006281 0 0 0 
0 0 0 0 0 
0 0 0 0 0 
0 0 0 0 0 
0 0 0 0 0 
0 0 0 0 0 
0.01553760698959524 0 0 0 -0.001946298948818587 
0.01553760698959524 0 0 0 -0.001946298948818587 
-0.1102319799781679 0.08136705446951517 0 0 0 
-0.1102319799781679 0.08136705446951517 0 0 0 
-0.1102319799781679 0.08136705446951517 0 0 0 
-0.1102319799781679 0.09158896453894433 -0.009684553575728352 -0.01131758414043482 0 
0.04960380219492256 -0.07065928586043163 0 0 0 
0.02340640705245607 -0.03059143953184775 0 0 0 
0.3715984953352233 -0.09825762524802367 0 0 -0.2578716532507594 
-0.1133947204833546 0.1064948306093673 -0.01054193702231873 -0.0075561780620131 0 
0.005503589598400724 -0.06687053673246275 0 0 0 
-0.1730250418493079 0.1414012714514523 -0.01054193702231873 -0.007556178062013101 0 
0 0 0 0 0 
0 0 0 0 0 
0 0 0 0 0 
0.06794795659433263 -0.0630466729128113 -0.02124401712877223 -0.005008840906102046 -0.003604793359095879 
0 0 0 0 0 
0 0 0 0 0 
0.05994221912160318 -0.00978244501354008 -0.0555932402508485 0 -0.01105023345969395 
0 0 -0.008228400413485198 0 -0.002374614529101798 
-0.1759447377360749 -0.07545401048202394 0.2369116306954128 -0.005055065851509462 0 
0 0 0 0 0 
0 0 0 0 0 
0.01983839631248913 -0.00787377236462198 -0.02135974092595927 -0.01185385698899026 -0.003604793359095879 
0.06794795659433263 -0.0630466729128113 -0.02124401712877223 -0.005008840906102046 -0.003604793359095879 
0.07814117846426967 -0.08149000702620687 -0.02124401712877223 -0.005008840906102046 -0.003604793359095879 
0.06794795659433263 -0.0630466729128113 -0.02124401712877223 -0.005008840906102046 -0.003604793359095879 
0 0 -0.004871517521224869 0 0 
0 0 -0.004871517521224869 0 0 
0 0 -0.004871517521224869 0 0 
0 0 -0.004871517521224869 0 0 
0 0 -0.004871517521224869 0 0 
0 0 0 -0.000743465564224704 0 
0 0 0 0 0 
0 0 0 0 0 
0 0 0 0 0 
0 0 0 0 0 
0 0 0 0 0 
0 0 0 0 0 
-1.734723475976807e-18 0 0 -0.0008173980888382353 0 
-1.734723475976807e-18 0 0 -0.0008173980888382353 0 
0 0 0 0 0 
0 0 0 0 0 
0 0 0 0 0 
0 0 0 0 0 
0 0 0 0 0 
0 0 0 0 0 
0 0 0 0 0 
0 -0.01096543810752122 0 0 0 
0 -0.01096543810752122 0 0 0 
0 -0.01096543810752122 0 0 0 
-0.0805417975407804 0.07046132175255884 0 0 0 
0 0 4.336808689942018e-19 0 0 
0 0 0 0 0 
0 0 0 0 0 
0 -0.004907167805573425 -0.007320042079480938 0 0 
0 -0.004907167805573425 0 0 0 
0 0 0 0 0 
-0.1012187863534944 0.1299742293666512 -0.02835176714844801 -0.01980097496315581 -0.006215653622502607 
0 0 0 0 0 
0.1680890338478775 -0.147626161635323 -0.01811773646367357 -0.001078674610355727 -0.003374125703371474 
0 0 0 0 0 
-0.01240984135618764 0.04048920104630491 -0.01348256459477257 -0.005259520121987859 -0.01054680621089027 
0 0 0 0 0 
0 0 0 0 0 
0 0 0 -0.01732923910146077 0 
0 0 0 -0.01732923910146077 0 
-0.2552078765947068 0.2503293706970492 -0.01054193702231873 -0.007556178062013103 0 
-0.04542065241984933 0.02562034327280642 0 0 0 
-0.04542065241984933 0.02606683913793904 0 0 0 
-0.3199955146660277 0.3148640042276333 0 0 0 
-0.07038322363111896 0.1066963937571364 0 -0.02289383949045759 0 
-0.1698448224347046 0.1709184030688584 0 0 0 
-0.1698448224347046 0.1709184030688584 0 0 0 
-0.1698448224347046 0.1709184030688584 0 0 0 
-0.1698448224347046 0.1709184030688584 0 0 0 
-0.1698448224347046 0.1709184030688584 0 0 0 
-0.0985138155612076 0.1019695660170847 -0.005989458336345538 -0.008457219938112753 -0.002841527919131134 
0.01699454297348599 -0.009775643953232669 -0.006326142343236472 -0.00217694339546992 0 
0.01699454297348599 -0.009775643953232669 -0.00287496857807351 -0.00217694339546992 0 
0.01699454297348599 -0.009775643953232669 -0.00287496857807351 -0.00217694339546992 0 
0.01699454297348599 -0.009775643953232669 -0.00287496857807351 -0.00217694339546992 0 
0.08573330882721178 -0.07933582231234515 -0.01458126611346016 -0.001613932248253863 0 
0 0 0 0 0 
0 0 0 0 0 
0 0 0 0 0 
0.01011600234337521 0 -0.02919983056576772 0 -0.00444209713601621 
0.03999616888911344 -0.003598212400057818 -0.0107948456995423 0 0 
0 0 0 0 0 
0.03999616888911344 -0.003598212400057818 -0.0107948456995423 0 0 
0.02853774376850873 -0.01304028118082438 0 0 0 
0.02147407695600747 -0.01304028118082438 0 0 0 
0.02853774376850873 -0.01304028118082438 0 0 0 
0 0 0 0 0 
0 0 0 0 0 
0.007955137543106684 0 0 0 0 
0.007955137543106684 0 0 0 0 
0.05518976988336463 -0.04124462328418837 -0.01344564303727199 -0.009551306081226495 -0.0195391445536922 
0.1009108683260746 -0.06838955777675372 -0.02077479777513442 -0.02100087098331964 -0.02586081785423802 
0.05518976988336463 -0.04124462328418837 -0.01344564303727199 -0.009551306081226495 -0.0195391445536922 
0.05518976988336463 -0.04124462328418837 -0.01344564303727199 -0.009551306081226495 -0.0195391445536922 
0.1004313642632496 -0.06838955777675372 -0.02077479777513442 -0.02100087098331964 -0.02586081785423802 
0.06387213897394717 -0.01991574601486588 -0.04311209863743459 -0.008182994756791144 -0.00369488298719282 
0.06387213897394717 -0.01991574601486588 -0.04311209863743459 -0.008182994756791144 -0.00369488298719282 
0.06387213897394717 -0.01991574601486588 -0.04311209863743459 -0.008182994756791144 -0.00369488298719282 
0.04752622906063552 -0.04273479521741906 -0.005265534279534506 -0.002886326699157397 0 
0.04752622906063552 -0.04273479521741906 -0.005265534279534506 -0.002886326699157397 0 
0.005193613735639526 -0.01356278966961178 0 0 0 
0 0 0 0 0 
0 0 0 0 0 
0 0 0 0 0 
0.005193613735639526 -0.01356278966961178 0 0 0 
0 0 0 0 0 
0 0 0 0 0 
0 0 0 0 0 
0 0 0 0 0 
0.0156844472284721 0 -0.01357507484931198 -0.006888155407022687 0 
0.06378595291477798 -0.05831746027926373 1.734723475976807e-18 0 0 
0.007063666812501261 0 0 0 0 
0.006582687159536658 8.673617379884035e-19 0 0 0 
0 0 0 0 0 
0.006582687159536658 8.673617379884035e-19 0 0 0 
0.08573330882721178 -0.07933582231234512 -0.002656546037921191 -0.001613932248253863 0 
0.08573330882721178 -0.07933582231234512 -0.002656546037921191 -0.001613932248253863 0 
0.08573330882721178 -0.07933582231234512 -0.002656546037921191 -0.001613932248253863 0 
0.08573330882721178 -0.07933582231234512 -0.002656546037921191 -0.001613932248253863 0 
0.08573330882721178 -0.07933582231234512 -0.01458126611346016 -0.001613932248253863 0 
0.000924776538953205 -4.897391163152377e-05 -0.006206603960033315 0 0 
0.000924776538953205 -4.897391163152377e-05 -0.006206603960033315 0 0 
0 0 0 0 0 
0 0 0 0 0 
0 0 0 0 0 
0 0 0 -0.003713764843678933 0 
0.004599166554769434 -0.01566578658562301 0 0 0 
0 0 0 0 0 
0.0317927732741653 -0.04252120303393936 0 -4.336808689942018e-19 0 
0 3.469446951953614e-18 0 0 0 
-0.1650674628462048 0.1649584060070592 0 0 0 
-0.1420200663296652 0.1380904109468016 0 0 0 
-0.1650674628462048 0.1649584060070592 0 0 0 
-0.1650674628462048 0.1649584060070592 0 0 0 
-0.1420200663296652 0.1380904109468016 0 0 0 
-0.1420200663296652 0.1380904109468016 0 0 0 
-0.1410544494646822 0.1733483244481651 -0.002152244087377682 -0.005060311964879294 0 
-0.1410544494646822 0.1733483244481651 -0.002152244087377682 -0.005060311964879294 0 
-0.2987841875098008 0.339203505479822 -0.009271785013880101 -0.005060311964879294 0 
-0.1410544494646822 0.1733483244481651 -0.002152244087377682 -0.005060311964879294 0 
-0.1410544494646822 0.1733483244481651 -0.002152244087377682 -0.005060311964879294 0 
-0.2987841875098008 0.339203505479822 -0.009271785013880101 -0.005060311964879294 0 
-0.1410544494646822 0.1733483244481651 -0.002152244087377682 -0.005060311964879294 0 
-0.07390735095195793 0.04805980620961608 0 0 0 
0 -0.01902292886890933 0 0 0 
0.09946159880358559 -0.06422200931172198 0 -0.02289383949045759 0 
0 0 -0.004829686104703678 -0.006031245161714974 -0.01115030070212411 
0 0 -0.004829686104703678 -0.006031245161714974 -0.01115030070212411 
0 0 0 0 0 
0 0 0 0 0 
0 0 0 0 0 
0.1527581144346548 -0.1090121798714032 -0.03323540038834252 -0.003528594763372548 0 
0.05536909882655335 -0.06743275454429834 0 0 0 
0.05536909882655335 -0.06743275454429834 0 0 0 
0.1527581144346548 -0.1090121798714032 -0.03323540038834252 -0.003528594763372548 0 
0.006582687159536655 0 0 0 0 
0.006582687159536655 0 0 0 0 
0.03046378159840189 -0.02547382899362387 0 0 0 
0.03046378159840189 -0.02547382899362387 0 0 0 
0.03046378159840189 -0.02547382899362388 0 0 0 
0.03339829393895394 -0.03631701705529166 0 0 0 
0.03339829393895394 -0.03631701705529166 0 0 0 
0.03339829393895394 -0.03631701705529166 0 0 0 
0.03339829393895394 -0.03631701705529166 0 0 0 
0.03339829393895394 -0.03631701705529166 0 0 0 
0 0 0 0 0 
0 0 0 0 0 
0.0004795040628249453 0 0 0 0 
0 0 -0.00345117376516296 0 0 
0 0 -0.00345117376516296 0 0 
0 0 -0.00345117376516296 0 0 
0.1157954233527765 -0.1318918501338085 0 0 0 
0 0 0 0 0 
0 0 0 0 0 
0 0 0 0 0 
0 0 0 0 0 
0 0 0 0 0 
0 0 0 0 0 
0.02619739514246649 -0.0400678463285839 0 0 0 
0.02619739514246649 -0.0400678463285839 0 0 0 
0.1157954233527765 -0.1318918501338085 0 0 0 
0.1157954233527765 -0.1318918501338085 0 0 0 
0.1157954233527765 -0.1318918501338085 0 0 0 
0.02381836518554982 -0.002732367155826572 -0.004420302272335671 0 0 
0.02381836518554982 -0.002732367155826572 -0.004420302272335671 0 0 
0.02381836518554982 -0.002732367155826572 -0.004420302272335671 0 0 
0.05738280644306654 -0.02766231670594549 -0.01322331269923239 0 0 
0 0 0 0 0 
0.01304401743123291 0 -0.02280180821416468 0 -0.006170113712308573 
0.01304401743123291 0 -0.02280180821416468 0 -0.006170113712308573 
0 0 -0.007320042079480938 -0.001293844200608748 0 
0 0 -0.007320042079480938 0 0 
0 0 -0.007320042079480938 0 0 
0.009669388312844392 -0.01358714574471172 2.38524477946811e-18 -0.003342149469275172 0 
0.05312205506916921 -0.02766231670594549 -0.002155948560071082 0 0 
0 0 0 0 0 
0 0 0 0 0 
0 0 0 0 0 
0 0 0 0 0 
0 0 0 0 0 
0 0 0 0 0 
0 0 0 0 0 
0 0 0 0 0 
0.009989790653834261 0.0004464958651326162 -0.01110322532531602 -0.0009875693654453959 -0.01314368856295738 
0 0.0004464958651326162 0 0 0 
0 0 0 -0.002659602326884215 0 
0.03109103366603197 -0.03721436644365989 0 -0.002823855982507826 1.843143693225358e-18 
0 0 0 -0.002659602326884215 0 
-0.02304739651653961 0.02686799506025771 0 0 0 
0 0 0 0 0 
0 0 0 0 0 
0 0 0 0 0 
0 0 0 0 0 
-0.1817703535678978 -0.04999062946843801 0.2544878679559458 -0.009570586414139099 0 
0.04367328964723621 0 -0.01378754275921631 0 0 
0.04367328964723621 0 -0.01378754275921631 0 0 
0.04367328964723621 0 -0.01378754275921631 0 0 
0.04367328964723621 0 -0.01378754275921631 0 0 
-0.1382077603410266 0.1300843188959515 0 0 0 
-0.1382077603410266 0.1300843188959515 0 -0.006425568767989442 -0.003555361632206544 
-0.1382077603410266 0.1300843188959515 0 0 0 
0 0 0 0 0 
0 0 0 0 0 
0 0 0 0 0 
0 0 0 0 0 
0 0 0 0 0 
0 0 0 0 0 
0 0 0 0 0 
0 0 0 0 0 
0.0440178738945993 0 -0.01423789635670402 0 0 
0.0440178738945993 0 -0.01423789635670402 0 0 
0 0 0 -0.004278389499786875 0 
0 0 0 -0.004278389499786875 0 
0 0 0 -0.005986984432225466 0 
0 0 0 -0.005986984432225466 0 
0 0 0 0 0 
0 0 0 0 0 
0 0 0 0 0 
0 0 0 0 0 
0.04039942045545754 -0.01745554429911948 -0.01033559359835766 -0.01080836019853353 0 
0.04039942045545754 -0.01745554429911948 -0.01033559359835766 -0.01080836019853353 0 
0.04039942045545754 -0.01745554429911948 -0.01033559359835766 -0.01080836019853353 0 
0.04039942045545754 -0.01745554429911948 -0.01033559359835766 -0.01080836019853353 0 
0 0 0 0 0 
0 0 0 0 0 
0 0 -0.01928731891173084 -0.01901909661870863 -0.02144328000628118 
0 0 -0.01928731891173084 -0.01901909661870863 -0.02144328000628118 
0 0 0 0 0 
0.04982621677822795 -0.00978244501354008 -0.01084496719211465 0 -0.004233521794575946 
0 0 0 0 0 
0 0 0 0 0 
0 0 0 0 0 
0 0 0 0 0 
0 0 0 0 0 
0 0 0 0 0 
0 0 0 0 0 
0 0 0 0 0 
0 0 0 0 0 
0 0 0 0 0 
0 0 0 0 0 
0.01898253436609074 -0.004349112881691214 -0.003335093094464778 -0.006174527864057861 0 
0 0 0 0 0 
-4.336808689942018e-19 0 0 0 0 
0 0 0 0 0 
0 0 0 0 0 
0 0 0 0 0 
0 0 0 0 0 
0 0 0 0 0 
0 0 0 0 0 
0 0 0 0 0 
0 0 -0.02166939453190801 0 0 
0.04256096955539646 -0.0114188428376995 -0.02201835675208596 4.336808689942018e-19 0 
0 0 -0.02166939453190801 0 0 
0 0 0 0 0 
0 -0.0001366330198771711 0 0 0 
0 -0.0001366330198771711 0 0 0 
0 -0.0001366330198771711 0 0 0 
0 -0.0001366330198771711 0 0 0 
0 0 0 0 0 
-0.1501506922313231 0.1439456011587749 0 0 0 
-0.1501506922313231 0.1439456011587749 0 0 0 
-0.1126951631491709 0.08305446107563542 0 0 0 
-0.1126951631491709 0.08305446107563542 0 0 0 
-0.1126951631491709 0.08305446107563542 0 0 0 
-0.1819605665052639 0.1818882404923038 -0.01435459481405502 -0.008731041234124307 -0.003256815390660368 
-0.0390342917049125 0.02751293368589728 0 0 0 
-0.0390342917049125 0.02751293368589728 0 0 0 
-0.1429262748003515 0.1543753068064066 -0.01435459481405502 -0.008731041234124307 -0.003256815390660368 
-0.1429262748003515 0.1543753068064066 -0.01435459481405502 -0.008731041234124307 -0.003256815390660368 
-0.1429262748003515 0.1543753068064066 -0.01435459481405502 -0.008731041234124307 -0.003256815390660368 
-0.1429262748003515 0.1543753068064066 -0.01435459481405502 -0.008731041234124307 -0.003256815390660368 
-0.1155083585346936 0.1117452099703174 -0.003114489758272028 -0.00628027654264283 -0.002841527919131134 
-0.2732380965798121 0.2776003910019742 -0.01023403068477445 -0.00628027654264283 -0.002841527919131134 
-0.1155083585346936 0.1117452099703174 -0.003114489758272028 -0.00628027654264283 -0.002841527919131134 
0.02714514001361188 -0.007527135793434728 -0.01632801381791765 -0.0008793931248554329 0 
0.02714514001361188 -0.007527135793434728 -0.01632801381791765 -0.0008793931248554329 0 
0.02714514001361188 -0.007527135793434728 -0.01632801381791765 -0.0008793931248554329 0 
0.02714514001361188 -0.007527135793434728 -0.01632801381791765 -0.0008793931248554329 0 
0 0 0 0 0 
0 0 0 0 0 
0 0 0 0 0 
0 0 0 0 -0.0004151085989080026 
0 0 0 0 0 
0 0 0 0 -0.0004151085989080026 
-0.07528542801781934 0.07361623466158491 0 -0.001883026055558898 0 
-0.1491927789697772 0.1427375172387252 0 -0.001883026055558898 0 
-0.07528542801781934 0.07361623466158491 0 -0.001883026055558898 0 
-0.07528542801781934 0.07361623466158491 0 -0.001883026055558898 0 
-0.07528542801781934 0.07361623466158491 0 -0.001883026055558898 0 
-0.03125859272714911 0.01599072337519502 0 0 0 
-0.2097872241748577 0.2242625315591101 -0.01054193702231873 -0.007556178062013103 0 
0.05312205506916921 -0.02766231670594549 -0.002155948560071082 0 0 
0.05312205506916921 -0.02766231670594549 -0.002155948560071082 0 0 
0.05312205506916921 -0.02766231670594549 -0.002155948560071082 0 0 
0.03999616888911344 -0.003598212400057816 -0.0107948456995423 0 0 
0.03999616888911344 -0.003598212400057816 -0.0107948456995423 0 0 
0.01553760698959524 0 0 0 -0.001946298948818587 
-0.02071011340702992 -0.0371170214298638 -0.03136284187359675 0 0.1261700724521824 
0.01553760698959524 0 0 0 -0.001946298948818587 
0 0 0 0 0 
0 0 0 0 0 
0.009669388312844409 -0.01358714574471172 0 0 0 
0.009669388312844406 -0.01358714574471172 6.505213034913027e-19 -0.003342149469275172 0 
0 0 0 0 -0.0005372782504923933 
0 0 0 0 -0.0005372782504923933 
0 0 0 -0.002249870246711137 0 
0 0 0 -0.002249870246711137 0 
0.01186690898973508 0 -0.02506059388680465 0 -0.007134664469868416 
0.01186690898973508 0 -0.02506059388680465 0 -0.007134664469868416 
0.008884898040001438 0 0 0 0 
0.008884898040001438 0 0 0 0 
0.008884898040001438 0 0 0 0 
0 0 0 0 0 
0 0 0 0 0 
0 0 0 0 0 
0 0 0 0 0 
0 0 0 0 0 
0.04558144076797919 -0.03321325591254223 -0.008344854444637614 -0.00812421451670259 -0.01312815498829047 
0 0 0 0 0 
0 0 0 0 0 
0 0 0 0 0 
0 0 0 0 0 
0 0 0 0 0 
0 0 0 0 0 
0 0 0 0 0 
0 0 0 0 0 
0 0 -0.0003489622201779437 0 0 
0.04256096955539646 -0.0114188428376995 -0.0003489622201779437 0 0 
0 0 -0.0003489622201779437 0 0 
-0.2134552646050274 -0.03718871536386382 -0.002574179251124547 0.2733727165992426 0 
-0.1083635888907783 -0.09088139803923778 -0.002574179251124547 0.2519918494668366 0 
-0.2134552646050274 -0.03718871536386382 -0.002574179251124547 0.2733727165992426 0 
-0.2134552646050274 -0.03718871536386382 -0.002574179251124547 0.2733727165992426 0 
-0.2134552646050274 -0.03718871536386382 -0.002574179251124547 0.2733727165992426 0 
-0.2134552646050274 -0.03718871536386382 -0.002574179251124547 0.2733727165992426 0 
0 0 0 0 0 
0 0.005029154622888619 0 0 0 
0 0.005029154622888619 0 0 0 
0 0.005029154622888619 0 0 0 
-0.1577297380451186 0.1658551810316568 -0.007119540926502421 0 0 
-0.1577297380451186 0.1658551810316568 -0.007119540926502421 0 0 
0 0 0 0 0 
0 0 0 0 0 
0 0 0 0 0 
0 -0.006605202821346272 0 0 0 
0 -0.006605202821346272 0 0 0 
0 -0.006605202821346272 0 0 0 
0 -0.006605202821346272 0 0 0 
0 -0.006605202821346272 0 0 0 
0 0 0 0 0 
0 0 0 0 0 
0 0 0 0 0 
-0.1078785770991644 0.1594070902212474 -0.04854164290842988 -0.02484366497053639 0 
0.01224347696425183 -0.006040564701808346 -0.01362530126299495 -0.01331523586964293 0 
-0.09334090072449712 0.1085735871825378 -0.01152959633263556 -0.01331523586964293 0 
-0.09334090072449712 0.1085735871825378 -0.01152959633263556 -0.01331523586964293 0 
-0.09334090072449712 0.1085735871825378 -0.01152959633263556 -0.01331523586964293 0 
-0.09334090072449712 0.1085735871825378 -0.01152959633263556 -0.01331523586964293 0 
0.105584377688749 -0.1146141518843462 -0.002095704930359387 0 0 
0.105584377688749 -0.1146141518843462 -0.002095704930359387 4.336808689942018e-19 -0.002118679563388472 
0.05683626492439093 -0.02900170943231997 -0.01811773646367357 -0.001078674610355727 -0.003374125703371474 
0 0 0 0 0 
0 0.01022191006942916 -0.009684553575728352 -0.01131758414043482 0 
0 0.01022191006942916 -0.009684553575728352 -0.01131758414043482 0 
0 0.01022191006942916 -0.009684553575728352 -0.01131758414043482 0 
0 0.01022191006942916 -0.009684553575728352 -0.01131758414043482 0 
-0.1240244333436507 -0.1192774274846469 0.231485327557695 -0.01362233162818708 -0.006122298904322775 
-0.1240244333436507 -0.1192774274846469 0.231485327557695 -0.01362233162818708 -0.006122298904322775 
-0.1240244333436507 -0.1192774274846469 0.231485327557695 -0.01362233162818708 -0.006122298904322775 
-0.1240244333436507 -0.1192774274846469 0.231485327557695 -0.01362233162818708 -0.006122298904322775 
0 0 0 0 0 
0 0 0 0 0 
0 0 0 -0.001293844200608748 0 
0.04558144076797919 -0.03321325591254223 -0.008344854444637614 -0.00812421451670259 -0.01312815498829047 
0.04558144076797919 -0.03321325591254223 -0.008344854444637614 -0.00812421451670259 -0.01312815498829047 
0.04558144076797919 -0.03321325591254223 -0.008344854444637614 -0.00812421451670259 -0.01312815498829047 
0.09946159880358559 -0.04519908044281264 0 -0.02289383949045759 0 
0.09946159880358559 -0.04519908044281264 0 -0.03753274025839295 0 
0.03971339058104252 -0.02177829458459561 -0.01111219638136656 -0.0007931522914987388 0 
0.07942678116208504 -0.04355658916919122 -0.02222439276273312 -0.001586304582997478 0 
0.03971339058104252 -0.02177829458459561 -0.01111219638136656 -0.0007931522914987388 0 
0.03971339058104252 -0.02177829458459561 -0.01111219638136656 -0.0007931522914987388 0 
0.03971339058104252 -0.02177829458459561 -0.01111219638136656 -0.0007931522914987388 0 
0.01768241788417403 0 -0.01084496719211465 0 -0.003277264774511319 
0.01768241788417403 0 -0.01084496719211465 0 -0.003277264774511319 
-0.1759447377360749 -0.07545401048202394 0.2369116306954128 -0.005055065851509462 0 
-0.1759447377360749 -0.07545401048202394 0.2369116306954128 -0.005055065851509462 0 
-0.1759447377360749 -0.07545401048202394 0.2369116306954128 -0.005055065851509462 0 
-0.1759447377360749 -0.07545401048202394 0.2369116306954128 -0.005055065851509462 0 
-0.1759447377360749 -0.07545401048202394 0.2369116306954128 -0.005055065851509462 0 
0 0 0 -0.002481884901113015 0 
0 0 0 -0.002481884901113015 0 
0 0 0 -0.002481884901113015 0 
0 0 0 0 0 
0 0 0 0 0 
0 0 0 0 0 
0 0 0 0 0 
0 -0.0041949105641303 0 -0.002071958603052105 -0.0009428881487271876 
0 -0.0041949105641303 0 -0.002071958603052105 -0.0009428881487271876 
0 0 0 -0.0003505237583802109 0 
0 0 0 -0.0003505237583802109 0 
0 0 0 -0.0003505237583802109 0 
0 0 0 -0.0003505237583802109 0 
0.02580501068089715 -0.02366450581150948 0 -0.0003505237583802109 0 
0 0 0 0 0 
0 0 0 0 0 
0 0 0 0 0 
0 0 0 0 0 
0.05324272997473586 -0.04489551493244866 -0.01069805327909406 -0.007757257232785609 0 
0.05324272997473586 -0.04489551493244866 -0.01069805327909406 -0.007757257232785609 0 
0.05324272997473586 -0.04489551493244866 -0.01069805327909406 -0.007757257232785609 0 
0.05324272997473586 -0.04489551493244866 -0.01069805327909406 -0.007757257232785609 0 
0.01936102790290786 -0.03055771390117782 0 -0.0014937128585641 0 
0.06115506798494393 -0.03219289771511435 -0.008818583023724562 -0.003285119632569411 0 
0.06115506798494393 -0.03219289771511435 -0.008818583023724562 -0.01792402040050477 0 
0.06115506798494393 -0.03219289771511435 -0.008818583023724562 -0.003285119632569411 0 
0.06115506798494393 -0.03219289771511435 -0.008818583023724562 -0.003285119632569411 0 
0.06115506798494393 -0.03219289771511435 -0.008818583023724562 -0.003285119632569411 0 
0 0 0 0 0 
0 -0.0001366330198771711 0 0 0 
0 -0.0001366330198771711 0 0 0 
-0.4023426261334478 -0.005729932914302892 -0.03136284187359675 0 0.3951532004168272 
-0.03624772039662516 -0.0371170214298638 -0.03136284187359675 0 0.1372815471660678 
-0.4023426261334478 -0.005729932914302892 -0.03136284187359675 0 0.3951532004168272 
-0.03624772039662516 -0.0371170214298638 -0.03136284187359675 0 0.1372815471660678 
-0.03624772039662516 -0.0371170214298638 -0.03136284187359675 0 0.1372815471660678 
0.3660949057368226 -0.03138708851556091 0 0 -0.2578716532507594 
0.010193221869937 -0.01844333411339558 0 0 0 
0.010193221869937 -0.01844333411339558 0 0 0 
0 -0.005665063365809624 0 0 0 
0 -0.005665063365809624 0 0 0 
0.06291204849514205 -0.012791543907443 0 -0.02891829350653976 0 
0 0 0 0 0 
0 0 0 0 0 
0 0 0 0 0 
0 0 0 0 0 
0 0 0 0 0 
0 0 0 0 0 
0.04124836542592304 -0.02111511053418485 0 0 0 
0.1373693178296748 -0.08118327674919121 1.734723475976807e-18 -0.02891829350653976 0 
0.06291204849514205 -0.01279154390744299 0 -0.02891829350653976 0 
0.06291204849514205 -0.01279154390744299 0 -0.02891829350653976 0 
0.09738901560810148 -0.04157942532710487 -0.03323540038834252 0 0 
0.09738901560810148 -0.05804156092807371 -0.03323540038834252 0 0 
0 0 0 0 0 
0 0 0 0 0 
0 0 0 0 0 
0 0 0 0 0 
0 0 0 0 0 
0 0 0 0 0 
0 0 0 0 0 
-0.1785286314477086 0.2082718081839151 -0.01054193702231873 -0.007556178062013101 0 
0 0 0 0 0 
0 0 0 0 0 
0 0 0 0 0 
0 0 0 0 0 
0 0 0 0 0 
0 0 0 0 0 
0 -0.006383045639517309 0 0 0 
0 -0.006383045639517309 0 0 0 
0.01245621976075027 -0.02287370002597616 0 0 0 
0.01245621976075027 -0.02287370002597616 0 0 0 
0.01245621976075027 -0.02287370002597616 0 0 0 
0 0 0 0 0 
0 0 0 0 0 
0 0 0 0 0 
0 0 0 0 0 
0.01898253436609073 -0.004349112881691211 -0.003335093094464778 -0.006174527864057861 0 
0.01898253436609073 -0.004349112881691211 -0.003335093094464778 -0.006174527864057861 0 
0.01898253436609073 -0.004349112881691211 -0.003335093094464778 -0.006174527864057861 0 
0.05570880543785977 -0.02692431296895138 -0.02733192747860124 -0.02181126767934059 -0.03523492522967036 
0.03808984042005133 -0.01899183778505845 -0.01480991337863279 0 0 
0.03808984042005133 -0.01899183778505845 -0.01480991337863279 0 0 
0.03808984042005133 -0.01899183778505845 -0.01480991337863279 0 0 
0.03808984042005133 -0.01899183778505845 -0.01480991337863279 0 0 
0.005193613735639526 -0.01356278966961178 0 0 0 
0.005193613735639526 -0.01356278966961178 0 0 0 
0.005193613735639526 -0.01356278966961178 0 0 0 
0 0 0 0 0 
0.07170585788774186 -0.07171699619853586 0 0 0 
0.07170585788774186 -0.07171699619853586 0 0 0 
0.07170585788774186 -0.07171699619853586 0 0 0 
0.04704672499781057 -0.04273479521741906 -0.005265534279534506 -0.002886326699157397 0 
0.04704672499781057 -0.04273479521741906 -0.005265534279534506 -0.002886326699157397 0 
0.04704672499781057 -0.04273479521741906 -0.005265534279534506 -0.002886326699157397 0 
0.1050916757142491 -0.05369268267537395 0 -0.02138086713240605 0 
0 0 0 -0.002048305268666424 0 
0 0 -0.0001157237971870301 -0.004961990027329314 0 
0 0 -0.0001157237971870301 -0.004961990027329314 0 
0 0 -0.0001157237971870301 -0.004961990027329314 0 
0.003930276378440281 0 0 -0.01244202381015726 0 
0.1140055256170346 -0.1283511559873942 0 0 0 
0.03954825628250196 -0.05995942314564593 0 0 0 
0.07445726933453263 -0.06839173284174822 0 0 0 
0.07445726933453263 -0.06839173284174822 0 0 0 
0 0 0 0 0 
0 0 0 0 0 
0 0 0 0 0 
0 0 0 0 0 
0 0 0 0 0 
0 0 0 0 0 
0 0 0 0 0 
0.01011600234337521 0 -0.02919983056576772 0 -0.00444209713601621 
0.01011600234337521 0 -0.02919983056576772 0 -0.00444209713601621 
0.0003771358843099275 0 -0.01329030580270604 0 0 
0.0003771358843099275 0 -0.01329030580270604 0 0 
0.0003771358843099275 0 -0.01329030580270604 0 0 
0.0003771358843099275 0 -0.01329030580270604 0 0 
0 0.002038547498614826 -4.187546265918692e-05 -0.002435664139480035 0 
0 0.002038547498614826 -4.187546265918692e-05 -0.002435664139480035 0 
0.0413692916764744 -0.02373596599906654 -0.02304145273118723 -0.01628225220540528 -0.0327046254822365 
0.0413692916764744 -0.02373596599906654 -0.02304145273118723 -0.01628225220540528 -0.0327046254822365 
0.0413692916764744 -0.02373596599906654 -0.02304145273118723 -0.01628225220540528 -0.0327046254822365 
0.0413692916764744 -0.02373596599906654 -0.02304145273118723 -0.01628225220540528 -0.0327046254822365 
0.0413692916764744 -0.02373596599906654 -0.02304145273118723 -0.01628225220540528 -0.0327046254822365 
-0.07239686406979502 0.06974279666525504 0 -0.002996717427509381 -0.0004250119901145824 
-0.07239686406979502 0.06974279666525504 0 -0.002996717427509381 -0.0004250119901145824 
0.02256011461294593 -0.04600291050113899 0 0 0 
0.02256011461294593 -0.04600291050113899 0 0 0 
0 0 0 0 0 
0 0 0 0 0 
0 0 0 0 0 
0 0 0 0 0 
0 0 0 0 0 
-0.1360067725002564 0.139478262096161 0 -0.0009173092379285574 0 
-0.1360067725002564 0.139478262096161 0 -0.0009173092379285574 0 
-0.1360067725002564 0.139478262096161 0 -0.0009173092379285574 0 
-0.1360067725002564 0.139478262096161 0 -0.0009173092379285574 0 
0 0 0 -0.006425568767989442 -0.003555361632206544 
0 0 0 -0.006425568767989442 -0.003555361632206544 
0 -0.01646213560096884 0 0 0 
0 -0.01646213560096884 0 0 0 
0 0 0 0 0 
0 0 0 0 0 
0 0 0 0 0 
0 0 0 0 0 
0 0 0 0 0 
0 0 0 0 0 
0 0 0 0 0 
0.03002655233154174 -0.02873608252595301 0 0 0 
0.02341323386470335 -0.02170131381590742 -0.003004096708210233 -0.00320371566697868 -0.00435740891489639 
0.02341323386470335 -0.02170131381590742 -0.003004096708210233 -0.00320371566697868 -0.00435740891489639 
0.02341323386470335 -0.02170131381590742 -0.003004096708210233 -0.00320371566697868 -0.00435740891489639 
0.02341323386470335 -0.02170131381590742 -0.003004096708210233 -0.00320371566697868 -0.00435740891489639 
0 0 0 0 0 
0 0 0 0 0 
0 0 0 0 0 
0 0 0 0 0 
0 0 0 0 0 
-0.005491304975451702 0 0 -0.0001642536556236108 0 
0 0 0 0 0 
0 0 0 0 0 
0 0 0 0 0 
0 0 0 0 0 
0.009989790653834263 0 -0.01110322532531602 -0.0009875693654453959 -0.01314368856295738 
0.009989790653834263 0 -0.01110322532531602 -0.0009875693654453959 -0.01314368856295738 
0.009989790653834263 0 -0.01110322532531602 -0.0009875693654453959 -0.01314368856295738 
0 0 0 0 -0.00916517576506681 
0 0 0 0 -0.00916517576506681 
0 0 0 0 0 
0 -8.673617379884035e-19 0 0 0 
0 0 0 0 0 
0 0 0 0 0 
0.05672228610227675 -0.05831746027926373 0 0 0 
0 0 0 0 0 
0 0 0 0 0 
0 0 0 0 0 
0 0 0 0 0 
0 0 0 0 0 
0 0 0 0 0 
0 -0.007677045257402421 0 0 0 
0 -0.007677045257402421 0 0 0 
0 -0.007677045257402421 0 0 0 
0 -0.007677045257402421 0 0 0 
0 -0.007677045257402421 0 0 0 
0 0 0 0 0 
0 0 0 0 0 
0 0 0 0 0 
0 0 0 0 0 
0.01933655351341501 -0.01964750300796319 0 0 0 
0.01933655351341501 -0.01964750300796319 0 0 0 
0.01933655351341501 -0.01964750300796319 0 0 0 
0.01254461316807639 -0.001090897429514934 0 0 0 
0 0 0 0 0 
0.01254461316807639 -0.001090897429514934 0 0 0 
0.01254461316807639 -0.001090897429514934 0 0 0 
0.03173425793544808 0 -0.02535673118786712 0 0 
0.004599166554769434 -0.01566578658562301 0 0 0 
0.004599166554769434 -0.01566578658562301 0 0 0 
0 0 0 0 0 
0 0 0 0 0 
0.02580501068089715 -0.02366450581150948 0 0 0 
0.02580501068089715 -0.02366450581150948 0 0 0 
0.02580501068089715 -0.02366450581150948 0 0 0 
0.02580501068089715 -0.02366450581150948 0 0 0 
0 0 0 0 0 
0.0178746146854165 0 -0.001307815196941102 0 0 
0 0 0 0 0 
0 0 0 0 0 
0.2618129270984819 -0.2280441613684012 0 0 0 
0.2618129270984819 -0.2280441613684012 0 0 0 
0 0 -0.006153901763505405 -0.009051441091420283 -0.01207380902733946 
0 0 -0.006153901763505405 -0.009051441091420283 -0.01207380902733946 
0 0 0 0 0 
0 0 0 0 0 
0 0 0 0 0 
0 0 0 0 0 
0 0 0 0 0 
0.0001105739460578064 0 -0.002519918645674774 -0.004524491701312213 0 
0 0 0 0 0 
0 0 0 -0.001278724516661412 0 
0.03002655233154174 -0.02873608252595301 0 0 0 
0.03002655233154174 -0.02873608252595301 0 0 0 
0.03002655233154174 -0.02873608252595301 0 0 0 
0.01698264586603884 0 0 0 0 
0 0 0 0 0 
0 0 0 0 0 
-0.0805417975407804 0.07046132175255884 0 0 0 
-0.0805417975407804 0.07046132175255884 0 0 0 
-0.0805417975407804 0.07046132175255884 0 0 0 
0.07170585788774186 -0.07171699619853586 0 0 0 
0.07170585788774186 -0.07171699619853586 0 0 0 
0.004260751373897338 0 -0.01106736413916131 0 0 
0.004260751373897338 0 -0.01106736413916131 0 0 
0.004260751373897338 0 -0.01106736413916131 0 0 
0.004260751373897338 0 -0.01106736413916131 0 0 
0 0 0 0 0 
0 0 0 0 0 
0 0 0 0 0 
0 0 0 0 0 
0 0 0 0 0 
0 0 0 0 0 
0 0 0 0 0 
0 0 -0.01192472007553897 0 0 
0 0 0 0 0 
0 0 0 0 0 
0 0 0 0 0 
0.01761896501780844 -0.007932475183892928 -0.01252201409996846 -0.0218112676793406 -0.03523492522967036 
0.01761896501780844 -0.007932475183892928 -0.01252201409996846 -0.0218112676793406 -0.03523492522967036 
0.01761896501780844 -0.007932475183892928 -0.01252201409996846 -0.0218112676793406 -0.03523492522967036 
0.02809986088164493 0 -0.02119501313626697 -0.007192170920442735 -0.02092089128165105 
0.02809986088164493 0 -0.02119501313626697 -0.007192170920442735 -0.02092089128165105 
0.02809986088164493 0 -0.02119501313626697 -0.007192170920442735 -0.02092089128165105 
0.02809986088164493 0 -0.02119501313626697 -0.007192170920442735 -0.02092089128165105 
0.02809986088164493 0 -0.02119501313626697 -0.007192170920442735 -0.02092089128165105 
0.02809986088164493 0 -0.02119501313626697 -0.007192170920442735 -0.02092089128165105 
0.05683626492439093 -0.02900170943231997 -0.01811773646367357 -0.001078674610355727 -0.003374125703371474 
0.05683626492439093 -0.02900170943231997 -0.01811773646367357 -0.001078674610355727 -0.003374125703371474 
0.05683626492439093 -0.02900170943231997 -0.01811773646367357 -0.001078674610355727 -0.003374125703371474 
0.000792998744925225 -0.002922135018015928 0 0 0 
0.000792998744925225 -0.002922135018015928 0 0 0 
0.01698264586603884 0 0 0 0 
0.01698264586603884 0 0 0 0 
0 0 0 0 0 
0 0 0 0 0 
-0.1785286314477086 0.2082718081839151 -0.01054193702231873 -0.007556178062013101 0 
0 0 0 0 0 
0 0 0 0 0 
0 0 0 0 0 
0 0 0 0 0 
-0.00691853638073594 0.04048920104630491 -0.01344068913211338 0 -0.01054680621089027 
-0.00691853638073594 0.04048920104630491 -0.01344068913211338 0 -0.01054680621089027 
-0.07390735095195793 0.06708273507852543 0 0 0 
-0.07390735095195791 0.06912128257714023 0 0 0 
-0.07390735095195793 0.06708273507852543 0 0 0 
-0.07390735095195793 0.06708273507852543 0 0 0 
0 0 0 0 0 
0 0 0 0 0 
0 0 0 0 0 
-0.225443643215134 -0.049990629468438 0.2682754107151621 -0.009570586414139099 0 
-0.225443643215134 -0.049990629468438 0.2682754107151621 -0.009570586414139099 0 
-0.225443643215134 -0.049990629468438 0.2682754107151621 -0.009570586414139099 0 
0 0 0 0 0 
0 0 0 -0.01463890076793536 0 
0.0178746146854165 0 -0.001307815196941102 0 0 
0.0178746146854165 0 -0.001307815196941102 0 0 
0.0178746146854165 0 -0.001307815196941102 0 0 
0 0 0 0 0 
0 0 0 0 0 
0 0 0 0 0 
0 0 0 -0.003688724596278049 -0.00619512199065481 
0 0 0 -0.003688724596278049 -0.00619512199065481 
0 0 0 0 0 
0 0 0 0 0 
0 0 0 0 0 
0 0 0 0 0 
0.1112527689234866 -0.118624452203003 0 0 0 
0.1112527689234866 -0.118624452203003 0 0 0 
0.1112527689234866 -0.118624452203003 0 0 0 
0.1112527689234866 -0.118624452203003 0 0 0 
0 0 0 0 0 
0 0 0 0 0 
0.03658233864148368 -0.03721436644365989 0 0 0 
0.03658233864148368 -0.03721436644365989 0 0 0 
0 0 0 0 0 
0 0 0 0 0 
0 0 0 -0.003688724596278049 -0.00619512199065481 
0 0 0 -0.003688724596278049 -0.00619512199065481 
0.007654077204209219 -0.01517504568632259 0 0 0 
0.007654077204209219 -0.01517504568632259 0 0 0 
0.007654077204209219 -0.01517504568632259 0 0 0 
0.01838195594003021 -0.01379133030790014 0 0 0 
0.009669388312844409 -0.01358714574471172 0 0 0 
-0.0145376763746673 0.05083350303870954 -0.03701204657579431 -0.01152842910089346 0 
-0.0145376763746673 0.05083350303870954 -0.03701204657579431 -0.01152842910089346 0 
-0.0145376763746673 0.05083350303870954 -0.03701204657579431 -0.01152842910089346 0 
