solver_type L2R_L2LOSS_SVC_DUAL
nr_class 3
label 1 2 3
nr_feature 6211
bias -1
w
0.1620039025609021 -0.1559662067958119 -0.02747174288455385 
0.1819052258716024 -0.1860683257666089 -0.02261515635412944 
0.2608382265280618 -0.2568145231792649 -0.3745838076004003 
0.07976648300381066 -0.0723924813214854 -0.02221176351978857 
0.08007927079767399 -0.07240125614973866 -0.02134452324375222 
0 0 0 
0.306831558257344 -0.3039952906254267 -0.02261515635412944 
0.07063089051707826 -0.04691308039611579 -0.01929751666803462 
0 0 0 
-0.01131508815751344 0.01278938537252117 -0.08692181872614616 
0.2608382265280618 -0.2568145231792649 -0.3745838076004003 
0.008544555230709391 -0.01292865763805135 -0.1832456342580206 
0.2351448376203694 -0.2409303211718538 -0.01390609973717136 
0.1027746597248721 -0.08460143994082933 -0.02745078100608333 
0.1800304442710756 -0.1760838054219244 -0.002212948318296215 
0.0213276010165189 -0.02647365185866925 0 
0.1308936870977744 -0.1041306789371212 -0.0004088812478998647 
0.2681330898344068 -0.2656161012680432 -0.002212948318296215 
-0.1296298201710691 0.1339836958355833 -0.03791241332878365 
-0.06772683372212317 0.06796919528396225 0 
0.1506816077837383 -0.1518429598476365 -0.02260168125407574 
0.1212397949767661 -0.1137862512426966 -0.003056144084813567 
0.04857337941188009 -0.04391322404280134 -5.421010862427522e-20 
0.01489633171638415 -0.01638896942777718 0 
0.2352380235083061 -0.2329756614672181 -0.02260168125407574 
-0.10128569953082 0.09993356071225781 -0.003056144084813567 
0.01489633171638415 -0.01638896942777718 0 
0.04859844760438557 -0.05713432025427993 -0.06505189417677085 
-0.01010571338364092 0.03135776556568617 -0.04705736429765058 
-0.120781028280539 -0.03718562065874455 0.1871371289641501 
-0.3007454354982697 0.2996962575214665 -0.02752152576511905 
0.1510239702517474 -0.1517441604777202 -0.02807886433364434 
0.1835502122807232 -0.1465563177351327 -0.04705736429765059 
0.1835502122807232 -0.1465563177351327 -0.04333150981441965 
0.1529734080951672 -0.1285907019922894 -0.02549097708249573 
0.1529734080951672 -0.1285907019922894 -0.02549097708249573 
0.1538680569573329 -0.1568767702289235 -0.002149566034717575 
-0.1690032167134155 0.170842761166174 0 
-0.6965737708823709 0.6981041950515965 0 
-0.1659695382820509 0.1845099343717418 -0.04521348739262356 
-0.0376190631182409 0.03743236705702604 0 
0.09240345494471525 -0.09121225501828026 0 
-0.6965737708823709 0.6981041950515965 0 
-0.0376190631182409 0.03743236705702604 0 
-0.01054357790285486 0.009661483639876995 -5.421010862427522e-20 
0.00669508159348796 -0.003183732777710719 -5.421010862427522e-20 
-0.03671792451361682 0.03587622305126755 0 
0.02382315072470469 -0.02311941360849543 0 
-0.01054357790285486 0.009661483639876995 -5.421010862427522e-20 
-0.01054357790285486 0.009661483639876995 -5.421010862427522e-20 
0.02382315072470469 -0.02311941360849543 0 
0.02382315072470469 -0.02311941360849543 0 
0.1334611178390135 -0.1309173769013152 -0.03358506903997765 
0.04627118678566314 -0.04738343330767249 -0.01025362158993754 
0.05594619865022568 -0.05222633127833085 -0.04815788458372896 
0.1650580605082354 -0.1655652154495696 -0.04248209288138997 
0 0 0 
0.1695946666054157 -0.1679020154054107 0 
0 0 0 
0 0 0 
0.2254917424567016 -0.2231430895345415 -0.02449021749909044 
-0.5730907271959711 0.5786453596007757 -0.002204324030608079 
0.1440928818768923 -0.1458987216378017 -0.02260168125407574 
0.08062978571927829 -0.07474247458027498 -0.02108584764599048 
0.09303277855070526 -0.0922228399478987 0 
0.1440928818768923 -0.1458987216378017 -0.02260168125407574 
0.09303277855070526 -0.0922228399478987 0 
0.1550170456394487 -0.1463785546131725 -0.01986667099375975 
-0.06439815591185614 0.06323077970067056 -0.00675928119894982 
-0.003451843349983416 0.006406974193911862 0 
0 0 0 
0.1543145089260743 -0.155893125228734 -0.00675928119894982 
0.2558936657725007 -0.2490144640196644 -0.02134452324375222 
0 0 0 
0.03725716945943163 -0.03646279012224325 -0.005431924788843912 
0.0163169375588806 -0.0182939230851931 -0.005431924788843912 
0.4119108175970738 -0.4109346839333745 -0.05616135403473928 
0.04380040066593564 -0.03872479085561736 -0.005431924788843912 
0.00806838166881221 -0.009181190341955336 -0.005431924788843912 
0.3736287639663992 -0.37430368752767 0 
0 0 0 
0.05088369288891798 -0.04882694845226954 0 
0.1334374661725387 -0.1326534768058953 0 
0.2491480750966696 -0.2501559042424451 -0.01327485969628677 
0.05088369288891798 -0.04882694845226954 0 
0.05088369288891795 -0.04882694845226954 0 
0 0 0 
0.148906970242506 -0.1516865778305503 -0.0698899551344724 
-0.1105861707568392 0.1097324144634972 -0.0002789727704333124 
0.2518820803297222 -0.2563952976878127 -3.252606517456513e-19 
-0.1610579640406795 0.1621636070858899 -0.02450939277918112 
0.1676323469397679 -0.1606039142774525 -0.002826375060890686 
0.06344977012053432 -0.06158580910359661 0 
0.2518820803297221 -0.2563952976878131 0 
-0.03511173213091391 0.03499940455031582 -0.01191302131161978 
0.06344977012053432 -0.06158580910359661 0 
-0.05341051652858846 0.04695478079712656 -0.009646500091319083 
0 0 0 
0.3922724175979294 -0.3916522002151319 -0.04481036843620181 
0.0280261659069099 -0.08339388070192152 0.2160869035733882 
0 0 0 
0 0 0 
0.466912428218532 -0.4667364420116434 -0.04451933952928338 
0 0 0 
0 0 0 
0 0 0 
0.5523894455657551 -0.5537790336266274 1.084202172485504e-19 
-0.009305344915111129 0.009505476037590742 -0.004255954973363574 
0 0 0 
0 0 0 
0.6966305747219214 -0.6973741349272297 1.084202172485504e-19 
0.3545111261741572 -0.3546104552947521 0 
0.07320441719867919 -0.06984518906962139 -0.02194097552777157 
0.05697679378403876 -0.05798254829583586 0 
0.05762583937606858 -0.05239422295504166 -0.001372571352207156 
0.2204765451101308 -0.2172645858766973 -0.00846050363004296 
0 0 0 
-8.673617379884035e-19 -5.204170427930421e-18 0 
0.2319335665203834 -0.2352990872422749 -0.0006199313412180719 
0 0 0 
0.2002312951858851 -0.1999063079409625 -0.0165401771777941 
0.2006861206327082 -0.1979028904546852 -0.004374112424942076 
0 0 0 
0 0 -0.004374112424942076 
6.938893903907228e-18 0 0 
0.01396132176523847 -0.01879749329332777 0 
0 0 0 
0.0577515673448136 -0.0569792327780341 0 
0 0 0 
-0.02757030905096505 0.02765623962126261 -0.05634407619823221 
-0.009322928749436831 0.01981283886105873 -0.01730646424132458 
0.1136025062198648 -0.1118363712078068 -0.01173632559532267 
-0.2156525765803377 0.2260179339815589 -0.01017421702847393 
0.04890193618855164 -0.05333418953076868 0 
0 0 0 
0.4702637163532823 -0.464846498754414 -0.01173632559532267 
-0.03307321951427573 0.02751793073706349 -8.673617379884035e-19 
0 0 0 
0.1319865368260197 -0.1457496545203757 -0.006752696669199808 
0.07486366963623352 -0.06940982974994936 0 
0 0 0 
-0.02601296104197826 0.0252748476483089 0 
0.4287718618066669 -0.4326366501146446 -0.01259637146756135 
-0.1564438889695919 0.1543784761733727 0 
0 0 0 
0.3351734453495455 -0.3421423334923858 -0.01259637146756135 
-0.1655097848937717 0.163717548567955 0 
0 0 0 
0.009071968978481382 -0.01028059332219042 -0.05420414067890065 
-0.8417025984586384 0.8382735491845275 -0.002149566034717575 
0.05665843935302088 -0.056644061123024 0 
-0.01817943686171816 0.01726369822452265 0 
-1.108520564348882 1.10603629844231 -0.002149566034717575 
-0.01817943686171816 0.01726369822452265 0 
0 0 0 
-0.1273840180753441 0.1231961370655296 -0.01369372515407331 
0.02873122057944535 -0.02915517675599142 2.168404344971009e-19 
0 0 0 
0.09940422873360905 -0.09713222743662035 0 
0 0 0 
0.1032547530342692 -0.1031470017724092 2.168404344971009e-19 
0 0 0 
0.04462710717740212 -0.04264015537381963 0 
0 0 0 
0.07138554886682125 -0.06939720122207718 0 
0.06216737827412788 -0.0428178770072332 -0.01606884485201585 
0 0 0 
-0.03877297035858517 0.03916066063207257 0 
0 0 0 
0.03048676761947521 -0.03570408664179724 -0.004824193683365027 
0.1741542973632945 -0.1712648337538867 0 
0.04442756735189452 -0.04593398710312385 -0.0006199313412180719 
0 0 0 
0.1741542973632945 -0.1712648337538867 0 
0 0 0 
-0.01955687469467424 0.01564118684616339 0 
0 0 0 
0.3182303335625322 -0.3197709608049384 -0.002587887251148616 
0.0003863547203870628 -0.002622699263981455 0 
0.1525839828915469 -0.1510288251795222 0 
0 0 0 
0.1525839828915469 -0.1510288251795222 0 
0.05201157697290204 -0.055463689266789 0 
0.09715224125323033 -0.1013871449521957 -0.002149566034717575 
-1.387778780781446e-17 -6.938893903907228e-18 0 
0.1535301911438765 -0.1543032371056301 -0.007197189996730448 
0.0182387761460516 -0.01734378581826391 0 
0 0 -0.005483655605050952 
0.09595713863250128 -0.09583208346839076 0 
0 0 0 
0 0 0 
3.469446951953614e-18 0 -0.0008987892731154893 
0.118775351041834 -0.1196209560896447 -0.001854265824770369 
0 0 -0.0008987892731154893 
0.07733518615716968 -0.07712195525029915 -0.001854265824770369 
0 0 -0.0008987892731154876 
0 0 0 
0.006116106582271141 -0.00053864568721213 -0.01785650461460167 
0 0 0 
0.2000430853698127 -0.1925161856726608 -0.007942098009848591 
0.137114721077201 -0.1383274389341146 -0.000150091061190139 
0.2412629929187559 -0.2409445582061084 -0.02158234433571811 
0 0 0 
0 5.204170427930421e-18 -0.0001500910611901395 
0 0 0 
0.04935334823592979 -0.04547869038898904 0 
0 2.168404344971009e-19 0 
0 0 0 
0.1149674236123049 -0.1140814997899971 0 
0.2599456985346591 -0.2524002329767498 -0.05240332548717297 
0.004599928953423499 0.003633566950520346 0 
0.03963888547475874 -0.03844758539309065 0 
0.2516822784148424 -0.2525809940863745 -0.02139702183810875 
0.01642638650628042 -0.01655856814980692 0 
0 0 0 
0.1362299142395313 -0.1352480453244158 -0.02416207728648094 
0.2170948218281042 -0.1759558489640941 -0.04329915413096911 
-0.1572691758089202 0.1545088790278574 0 
-0.1711608256808108 0.1786787219173728 -0.01191856662329526 
0 0 0 
0.04130555227641235 -0.04610755128197923 -0.002132334509596184 
0 0 0 
0 0 0 
0.1620120423964386 -0.1600599918207301 -0.008503708603381479 
0 0 0 
0.1317237897768327 -0.1362008120960741 -0.01104460376549996 
1.734723475976807e-18 0 0 
0.0565624645098758 -0.05109692429873219 0 
0.1568646437885241 -0.1533513556419652 -0.008944244880674039 
0.112070996997658 -0.1157075139924261 -0.007196244004774615 
0 0 0 
0.0915005259637551 -0.08882671873618156 -0.002085315164840707 
0.1614213385406778 -0.1717026233000752 0 
-0.2621738841364032 0.2635436342934241 0 
0.02443969456669687 -0.02502071821464123 -0.00205677047398347 
0.1665777014133447 -0.1641763618316173 0 
0 0 0 
0.04711130358479484 -0.04296097672558512 0 
0 0 0 
0.1660959504940348 -0.1647414671744787 -0.007929803729353806 
0.127670765864831 -0.1322732244851003 0 
0.06419906243760423 -0.06343545372578453 0 
0 0 0 
0 0 0 
0.2957977287759142 -0.2931237226355485 -0.01046106508523566 
0.02381107523979481 -0.02506368831124599 0 
0.004464269045955778 -0.006089279256583591 0 
0.06282733442353766 -0.06251933939343098 0 
0.3116216761325622 -0.3146738883242728 -0.01032266126403215 
0 0 0 
0 0 0 
0.1178375507671732 -0.118651118161803 -0.004156342783382927 
0.1046628536611032 -0.1001367536014563 0 
0 0 0 
0 0 0 
0.003211905555073274 -0.001584611154391597 0 
-0.07224068501968918 0.06985283493167396 0 
0 0 0 
0.02883546129730995 -0.02901005403177992 0 
0 0 0 
0.1383523771226394 -0.1336055665628224 0 
-0.04041431460890037 0.03801221523552255 0 
0.05187658946229949 -0.04996039397412442 0 
0.05187658946229949 -0.04996039397412442 0 
0.05187658946229949 -0.04996039397412442 0 
0.05187658946229949 -0.04996039397412442 0 
0.05187658946229949 -0.04996039397412442 0 
0.09834184454530479 -0.09138363138735132 -0.03395160161222646 
0.02247491743218227 -0.02654492410374692 0 
0.03038365301104156 -0.03793702430074494 0 
0.2386889737123229 -0.22101925955168 -0.02753485788200235 
0.02247491743218227 -0.02654492410374692 0 
0.02247491743218227 -0.02654492410374692 0 
-0.08725526321082902 0.08907762554219559 -0.02858745972929876 
0.123619012190344 -0.1213579125631926 -0.01146601302998651 
0 0 0 
0.05813540467849733 -0.05606666642699154 0 
0.123619012190344 -0.1213579125631926 -0.01146601302998651 
0.1275918749786888 -0.1258127801669592 -0.01327485969628677 
0.03597498052476108 -0.03648790427478801 0 
0.02131299748168587 -0.02047896465276771 0 
0.1575537252091951 -0.1572836780504906 0 
0.02131299748168587 -0.02047896465276771 0 
0.01897398152761386 -0.1934113284825212 0.1666199148909213 
0.008913904112700471 0 0 
0.05567862343477009 -0.05104487335736295 0 
0.04573965702379602 -0.02002155730988654 -0.009644528432471645 
0.2795173350028244 -0.1952829296075268 -0.06843051256937188 
0.008913904112700471 0 0 
0.008913904112700471 0 0 
0.07922966036340037 -0.0786571467075742 -0.01701793098213717 
0 0 0 
0 0 0 
0.1103393935165837 -0.1068361148608838 0 
-0.08059007678958195 0.07720601773699055 0 
0.06276034586126614 -0.06339647562972789 0 
0.04337837533992104 -0.04090759519174641 0 
0.002559857949246071 -0.002435995266180704 0 
-0.02216128801703925 0.02924860215266789 -0.01487402415135521 
0.1636882930362227 -0.1649266028869662 0 
0.002559857949246071 -0.002435995266180694 0 
-0.04966304778522429 0.05556941460667581 -0.0148740241513552 
0.1202189961606996 -0.1189772809961411 0 
0.01331823296093377 -0.006891753776992051 0 
1.734723475976807e-18 0 0 
0 0 0 
-0.228869557985985 0.2291968796774892 -0.01395178916699065 
-0.1395304122704082 0.1378086432680835 0 
0.1225510761056088 -0.1216172581991769 0 
0.09980272058263487 -0.09781845347156515 -0.002085315164840707 
0.1225510761056088 -0.1216172581991769 0 
0.1225510761056088 -0.1216172581991769 0 
-0.3140253991574126 0.3131961069933059 -0.003117219447458991 
0 0 0 
0.02544031328234593 -0.0268276978701825 0 
0.05126017431760154 -0.03650397410958227 -0.01358751539160487 
0 0 0 
0.01712692601388564 -0.01690920671151628 0 
0.1002875652136338 -0.1033631628084364 0 
-0.07689467538854156 0.08202607795597723 0 
0 0 0 
0 0 0 
0 0 0 
0 0 0 
0.07506614177314337 -0.07216111554168675 -0.001019371850906277 
-0.1610345712338995 0.1619187423177476 -0.01174032346951047 
-0.2794960779707307 0.2774301729317708 0 
-0.2866054461855931 0.2826762321081803 0 
-0.5844580524849385 0.5851680207641579 0 
-0.2794960779707307 0.2774301729317708 0 
0.04237392953169818 -0.04844240701653873 0 
0 0 0 
0.09085343153055368 -0.09274000314658321 0 
0 0 0 
-0.07297846348704909 0.08856334456354084 -0.06696264823689671 
0.08594735852480137 -0.08669440703335775 0 
0.1319174823830709 -0.1326044391754322 0 
-0.03260542833301984 0.03523934695656441 0 
0.08594735852480137 -0.08669440703335775 0 
0.1203520340261881 -0.1203895651137074 0 
0 0 0 
0 0 0 
0 0 0 
0 0 0 
0.4614538757439084 -0.468536967360888 -0.01512206533174645 
0.04011234246727013 -0.03973842197183885 -0.001961955063622406 
0.05518727568423276 -0.05769927924920526 0 
0.01083172818815374 -0.01149831638221623 0 
-0.1377756698888003 0.1394762953870225 -0.005223387961060852 
0.05518727568423276 -0.05769927924920526 0 
0.00362850821767893 -0.003875742578617441 0 
0.003628508217678928 -0.003875742578617442 0 
0.008169032434186886 -0.01057441351336313 0 
0.126711574328721 -0.1212715606951456 0 
0.003628508217678928 -0.003875742578617442 0 
0.1597096850561943 -0.1577604175862071 0 
0 0 0 
0.08732540259774227 -0.08087378992498481 0 
0 0 0 
0.1587558752141225 -0.1592627403988354 -0.001888536245014705 
-0.559796884658226 0.5615909092917356 -0.004017730068775003 
-0.0542476018987819 0.05229401617850889 -0.005878136602495545 
-0.1069168778708661 0.1072814340918744 0 
-0.885210889461908 0.887112790447687 -0.004017730068775003 
-0.07036324599466869 0.06938446070561849 0 
0.09480450861274939 -0.09045580145727758 -0.0002666349098659322 
0 0 0 
0 0 0 
0.08963043556960082 -0.08915534491719369 0 
0 4.225694697045962e-05 0 
-0.06497912385534886 0.06764914878768756 0 
0 4.225694697045962e-05 0 
-0.08250979668090482 0.08187908302673334 -0.001647667598508812 
0 0 0 
0.008616481832817883 -0.008786674331349172 0 
0 0 0 
0 0 0 
-0.05643548362496476 0.05486532235671615 0 
0 0 0 
0.2656727530849889 -0.2665441744907096 -0.001888536245014705 
0 0 0 
0.05518727568423277 -0.05769927924920526 0 
0.1593760479809402 -0.1614158114872185 -0.001203754098711295 
0.01712590953843788 -0.019837813226798 0 
0 0 0 
0 0 0 
0 0 0 
0 0 -0.004156342783382927 
-0.2866647114891499 0.2940770547690277 -0.0007851106225226817 
0 0 0 
0 0 0 
0 0 0 
0.1444118038338723 -0.1410179272848726 -0.002569597403825975 
0 0 0 
0 0 0 
0 0 0 
0.2138172366038507 -0.2144566693131846 -0.01301510786537424 
0 0 0 
0 0 0 
-0.2288835736513716 0.224149173971414 -0.008593517021823066 
0 0 0 
0.2253006863113343 -0.2256799220229173 -0.001797917917047594 
8.673617379884035e-19 -0.007184933803769662 0 
0 0 -0.01345863172072277 
0.2105040680264617 -0.1752613722976403 -0.01896788172064428 
0 0 -0.01345863172072277 
0.001459317892281765 -0.002027397426013912 -0.02647373958609701 
-0.05789179660078525 0.05944418526796203 -0.0007526400109890837 
0 2.168404344971009e-19 0 
0.1314434846622895 -0.1094838887046796 -0.00187575854588236 
0.07651601267963513 -0.0772065125964624 -0.0007526400109890837 
0.02703241920526665 -0.02055763077577063 -0.0007526400109890837 
0 0 0 
0 0 0 
0.06853575764810674 -0.03507712128115061 -0.02653871256450827 
0.03005084030430906 -0.04372813195587109 0 
0 0 0 
0.1016422097721593 -0.1027377276527158 0 
0.01280563505975281 -0.014874381650048 0 
0 0 0 
0 0 0 
-0.05423412397956928 0.04909864720997863 0 
0 0 0 
0.0318229229058788 -0.03721423014120743 0 
-4.336808689942018e-19 0 0 
0 0 0 
-0.307498495382884 0.3052092513803631 -0.002248906571271489 
0 0 0 
0 0 0 
0 0 0 
0.1024984805606647 -0.05625935130291743 -0.0004088812478998647 
0 0 0 
-0.3222510264045623 0.3144230734143503 -0.01395178916699065 
-0.2879182513255149 0.29335368539669 -0.01583384608651915 
-0.5171960285319754 0.5167531165802898 -0.01395178916699065 
0.04254225276258917 -0.04000656520141535 0 
-0.1082902669096556 0.1101103496429604 -0.005223387961060855 
0 0 0 
0 0 0 
0.000367354925310036 -0.00173242229129064 0 
0.06669304878451354 -0.0628860795489655 -0.001044143205884387 
0.06835304292711218 -0.06342487008012564 -0.001044143205884387 
0.06669304878451354 -0.0628860795489655 -0.001044143205884387 
0.06669304878451354 -0.0628860795489655 -0.001044143205884387 
-0.05107596863193709 0.0904221546610398 -0.03071900930191242 
0.06669304878451354 -0.0628860795489655 -0.001044143205884387 
0.06669304878451354 -0.0628860795489655 -0.001044143205884387 
0.08137144634893934 -0.08285321642336405 -1.084202172485504e-19 
0 0 0 
0.2218598238729329 -0.2197207777636295 -0.01637399404901185 
-0.05697707985555645 0.0629956283227444 -0.001934158613790877 
0 0 0 
0.2218598238729329 -0.2197207777636295 -0.01637399404901185 
0 0 0 
-0.02848733718133239 0.02803619160792256 -0.004492447550207087 
0.01237077692841852 -0.01374748458983517 0 
0 0 0 
0 0 0 
0.176410007205219 -0.1820746514104111 0 
0 0 0 
0.176410007205219 -0.1820746514104111 0 
0 0 0 
-0.01422961905613725 0.0131423215949358 -0.003708997878903579 
0 0 0 
0 0 0 
0 0 0 
0.02643168003987811 -0.03258407711708299 0 
-0.09862341374447194 0.1082356425920541 -0.002204324030608079 
0.02643168003987812 -0.03258407711708299 0 
8.673617379884035e-19 2.168404344971009e-18 0 
0 0 0 
0 -4.336808689942018e-19 0 
0.05176147455799763 -0.05229047357072687 -0.005747702019432524 
0.05176147455799763 -0.05229047357072687 -0.005747702019432524 
0.1454577963859818 -0.1241232561672974 -0.03540363403139977 
0.05176147455799763 -0.05229047357072687 -0.005747702019432524 
0.05176147455799763 -0.05229047357072687 -0.005747702019432524 
0.05176147455799763 -0.05229047357072687 -0.005747702019432524 
0.05176147455799762 -0.05229047357072687 -0.005747702019432524 
0.1249540829520265 -0.1209525487925378 -0.01346589707549132 
-0.2145952073860944 0.2145025471156943 0 
0.3124723210015571 -0.3128245054053357 -0.05616135403473927 
0 0 0 
0.1954596920514549 -0.1944395373563338 -0.05616135403473927 
0 0 0 
0.2832130599719288 -0.2827497013396481 -0.003117219447458987 
0.001659994142598608 -0.000538790531160177 0 
0.004709701089576201 0.0005256001306646113 0 
0.001659994142598608 -0.000538790531160177 0 
0.1028936046202395 -0.1011509204226674 -0.003117219447458987 
0.001659994142598608 -0.000538790531160177 0 
0.001659994142598608 -0.000538790531160177 0 
0 0 0 
0 0 0 
0.2673754759010317 -0.260071498091762 -0.02091933403955962 
0.09012246390127218 -0.09270271805390851 0 
0.1330866360030458 -0.1316909996472901 0 
0.2267604051428166 -0.2153286805649589 -0.02091933403955963 
0.1491921776813659 -0.1622488397855245 0 
1.301042606982605e-17 6.938893903907228e-18 -0.005483655605050952 
-3.469446951953614e-18 2.168404344971009e-19 -0.005483655605050952 
0 0 -0.005483655605050952 
0 0 -0.005483655605050952 
-0.07464507534086275 0.07468562738500976 0 
0.117499164144013 -0.118685020822852 0 
-0.07464507534086269 0.07468562738500982 0 
0.1571025567884347 -0.1632164064322702 -0.01057708952234603 
0.2208369145468241 -0.2153510982684507 -0.01358751539160487 
0.04379303437234551 -0.0440435941912052 0 
0.06904829103253142 -0.07251786789962099 -0.01057708952234603 
0.07225409198450661 -0.05498152636246895 -0.01358751539160487 
0 0 0 
0.02637427116595274 -0.02942374584094661 -0.02231540768760294 
0.101161642594409 -0.1061786088776809 -0.005017881831523005 
-0.03860389944237106 0.03843454594678296 0 
0 0 0 
0.1590506451928488 -0.1551811079381524 -0.006752696669199808 
0 0 0 
0.1119440925788278 -0.1157045036637595 0 
0.1312982537001686 -0.1278506419987474 0 
0 0 0 
0.1119440925788278 -0.1157045036637595 0 
0.03711914875914943 -0.0326905256756901 -0.002225187520709324 
0 0 0 
0 0 0 
0.05112235881450364 -0.05011248278084409 0 
0 0 0 
0.05112235881450364 -0.05011248278084409 0 
0 0 0 
0.3957108019522833 -0.3924125903691475 -0.007009496553953735 
0 0 0 
0.05391700735032388 -0.05282684092732189 -0.0007851106225226817 
0.01886717744506644 -0.01860058541421563 0 
0 0 0 
0 0 0 
0 0 0 
0.04280719872735164 -0.03965958474672115 -0.0002666349098659326 
0.01886717744506644 -0.01860058541421563 0 
0.01886717744506644 -0.01860058541421563 0 
0.09206143855800401 -0.09302035641363851 -0.004156342783382927 
0.03795208451085227 -0.0354124975024541 0 
0 0 0 
0 0 0 
-0.0004925222448442948 0.001064390661824779 0 
-0.5921953842200262 0.5932901022995005 -0.0004159641180848793 
-0.009227959324206374 0.01013916071123349 0 
-0.0004925222448442948 0.001064390661824779 0 
-0.0004925222448442948 0.001064390661824779 0 
-1.042827874505201 1.043936141710402 -0.0004159641180848793 
-0.0004925222448442948 0.001064390661824779 0 
0.04638354468578537 -0.04637208606678639 0 
0.07628092951773231 -0.07714234740173681 0 
0 0 0 
0.09686640853346301 -0.09012787307588591 -0.001934158613790877 
0 0 0 
-0.07778621859477418 0.1037131612476117 0 
0.04671318980399423 -0.01199963724435647 -0.01146601302998651 
0.04671318980399423 -0.01199963724435647 0 
0.04671318980399423 -0.01199963724435647 0 
0 0 0 
0 0 0 
0.1760119889092962 -0.1214843173134208 -0.04329915413096911 
-0.01141169813862728 0.01095006568414646 -0.004492447550207087 
0 0 0 
-0.2247001307292227 0.2267441512797516 0 
0 3.469446951953614e-18 0 
0.0978508594634688 -0.09722530544782808 0 
0 0 0 
-0.03227980980163832 0.0327437151012455 0 
0.1913075142002791 -0.1859642637603689 -0.001934158613790877 
0 0 0 
0 0 0 
0.02180741567260937 -0.01883220487530252 0 
-0.3747753465946904 0.3925367892771289 -0.002224878313546789 
0 0 0 
0.009384861400827784 -0.007730739746360953 0 
-8.673617379884035e-19 -2.168404344971009e-19 0 
-0.1626685492111749 0.1703465922006458 -0.006924110360674239 
0 0 0 
0 0 0 
0.2081064382974507 -0.2069385938981206 -0.003908942913394831 
0 0 0 
0 0 0 
0.03038125813133843 -0.02912070326574954 0 
0 0 0 
0.0429831962321798 -0.04273157020010183 0 
0 0 0 
0 0 0 
0.03038125813133843 -0.02912070326574954 0 
0 0 0 
0 0 0 
0.06614947661624317 -0.05497045884110809 -0.01358751539160487 
0.1487149194067156 -0.1497664442454313 -0.005776592727800406 
0.06394623605106788 -0.06827995716990885 0 
0.06394623605106788 -0.06827995716990885 0 
-0.02288875464542649 0.02330027152539333 -0.005776592727800407 
0.06394623605106788 -0.06827995716990885 0 
0.03587957229309316 -0.03569954886290598 0 
0.001929979243915461 -0.002403117181653334 0 
0.01043925901074727 -0.008871850992723491 0 
0 0 0 
0 0 0 
0.0809715800441842 -0.08156203668459674 0 
0 0 0 
0.1813026095049746 -0.1863582733550997 -0.000138403821203514 
0 0 0 
0 0 0 
0.1106159012441988 -0.1102560522762203 -0.0002666349098659326 
0 0 0 
-6.938893903907228e-18 0 0 
-3.469446951953614e-18 0 0 
0.00378210446239149 0.0008832093419353937 -0.008744615421485247 
0.062492892707815 -0.04306603409705916 0 
-0.1119426727035199 0.09911950657912749 0 
-0.008186147735095975 0.01022389317891383 0 
0.05867403852919074 -0.05658298606666414 -0.01690457428790166 
0.1108829417471241 -0.1097647401668713 0 
0 0 0 
0.0897554458881871 -0.0929429083517907 0 
0 0 0 
0.03555120567950443 -0.03823460683122732 0 
0.04467459742352874 -0.0513615450164245 0 
0 0 0 
0.03555120567950443 -0.03823460683122732 0 
0.1169550491098445 -0.1160925347888806 0 
0.03555120567950445 -0.03823460683122731 0 
0.04121541239417768 -0.0445227991061962 0 
0 0 0 
0.01550770752329363 -0.01686682386715705 0 
-0.09411814254975384 0.09011548790092097 0 
0.03300165821510754 -0.03365901422356917 0 
0.03300165821510754 -0.03365901422356917 0 
0.03300165821510754 -0.03365901422356917 0 
0.03300165821510754 -0.03365901422356917 0 
0.03300165821510754 -0.03365901422356917 0 
0.06197566259853329 -0.06064095197272119 -0.01578221561756726 
0.1050030714462221 -0.1042431488178997 0 
0.09529850191283114 -0.09517335352219861 -0.01578221561756726 
-0.4072878634739653 0.4086828588233744 0 
-0.1974531776666112 0.2005386867233851 0 
-0.3034603348386504 0.2981832667452784 0 
-0.3034603348386504 0.2981832667452784 0 
-0.07134149230419236 0.06694216802644685 0 
0 0 0 
0.02141639629897363 -0.02486282348040267 0 
0.08921453123167158 -0.09435335076992077 0 
0.02607518915790781 -0.02582097692448981 0 
0.02141639629897363 -0.02486282348040267 0 
0.02141639629897363 -0.02486282348040267 0 
0.009266891540688349 -0.01035318067932636 0 
0 0 0 
0.003558329063374234 1.734723475976807e-18 -0.0002789727704333124 
0 0 0 
-0.006142348653952454 0.005817377533178829 0 
0 0 0 
0 0 0 
-0.2486362799755406 0.2497112047021143 -0.000415964118084878 
0.05290647732544246 -0.05204673122916824 0 
0.05290647732544245 -0.05204673122916822 0 
0.0539595309823624 -0.05204673122916822 0 
-0.03848852348219999 0.03971080791499533 -0.000415964118084878 
0.05290647732544246 -0.05204673122916823 0 
0.05290647732544246 -0.05204673122916823 0 
0.1903285938841724 -0.1944273314597792 0 
0 0 0 
0 0 0 
0.2089882264417604 -0.2072421580293863 0 
0.03277102718857152 -0.03500102984795602 0 
-0.04634607042560658 0.04997941057416842 -0.0004159641180848793 
0 0 0 
0 0 0 
0 0 0 
0.0711899669808736 -0.06859897913667613 0 
0.07118996698087361 -0.06859897913667616 0 
0.0711899669808736 -0.06859897913667613 0 
0.1584684665353283 -0.1572776502828331 -0.006752696669199805 
0.1797804557471047 -0.1907593563773654 0 
0 0 0 
0.01939097414628228 -0.01887246789143301 0 
0 0 0 
-0.08145803850801075 0.07910712397340135 0 
0.07671630887000019 -0.07641041051246794 0 
0.05867403852919074 -0.05658298606666414 -0.01690457428790166 
0.05867403852919074 -0.05658298606666413 0 
0 0 0 
0 0 0 
0.06836817544157255 -0.06944532759706094 0 
0 0 0 
0 0 0 
0 0 0 
0.03024862633916135 -0.02680692480817801 -0.004531892354525057 
0 0 0 
0 0 0 
0.1443221657696732 -0.1436968777834285 0 
-0.2420777275997633 0.2432785708509169 0 
0.2660756352579542 -0.2217790066003417 -0.02827126013630676 
0 0 0 
0.04889609991240132 -0.04586899843509842 -0.002149566034717575 
0 0 0 
0 0 0 
0.007853140554893306 -0.009474003559751988 0 
0.007853140554893306 -0.009474003559751988 0 
0 0 0 
0 0 0 
-0.03474600596048927 0.03282587508625964 -0.001785091246409649 
0.05090931082725329 -0.0554694160421443 -0.002376869677854236 
0 0 -0.001785091246409649 
0.08789178706353853 -0.09246411156422135 -0.001785091246409649 
0.01804227034080944 -0.01982742444580381 -0.001785091246409649 
0.1251825686749714 -0.1210847037915844 -0.001785091246409649 
0 0 0 
0.1653199344516533 -0.1413045993814931 -9.332772308683019e-05 
0 0 0 
0.1302097277410703 -0.1141907989264151 -0.01346589707549132 
0.1330457883894908 -0.09555802026309043 -9.332772308683019e-05 
0.08600828415986848 -0.08031254446272902 -9.332772308683019e-05 
0.00994842026338582 -0.006941281145757039 -5.421010862427522e-20 
0 0 0 
0 0 0 
-0.1076393637953248 0.1045138275791775 0 
-0.03569866807589438 0.031978198629749 0 
-0.03569866807589438 0.031978198629749 0 
-0.7365406350324646 0.7411622464233825 -0.002204324030608079 
-0.03569866807589438 0.031978198629749 0 
-0.04920214920272994 0.04875437242856989 0 
-0.04920214920272994 0.04875437242856989 0 
-0.04920214920272994 0.04875437242856989 0 
-0.04920214920272994 0.04875437242856989 0 
-0.04920214920272994 0.04875437242856989 0 
0 0 0 
0 0 0 
0 0 0 
0 0 0 
0 0 0 
0.09507015684018619 -0.09849246281087298 0 
0 1.734723475976807e-18 0 
0 0 0 
0 0 0 
0 0 0 
0.2068931599151026 -0.2072266415862636 0 
0 0 0 
-0.2476147300928002 0.2365199418583983 0 
0 0 0 
0 0 0 
0 0 0 
1.127570259384925e-17 3.469446951953614e-18 -0.01259637146756134 
0 0 0 
0 0 0 
0 0 0 
-6.857578740970816e-18 8.673617379884035e-19 0 
0 0 0 
0.1308576112714716 -0.1265399999386116 -0.05838623234828606 
-0.2561889912177279 0.2582609528019431 0 
0.09180918438229341 -0.08813540528744464 0 
0.1846142511155952 -0.1870158806145412 -0.01327485969628677 
0.09180918438229339 -0.08813540528744464 0 
0 0 0 
0.131206915055629 -0.1312911253017482 0 
0 0 0 
0 0 0 
0.01684051043998063 -0.01499491056115878 0 
0.0184996219084552 -0.01564413628724809 0 
0 0 0 
0 0 0 
0 0 0 
2.168404344971009e-19 0 0 
-0.01339545203985998 0.009216466265493641 0 
0 0 0 
0 0 0 
0 0 0 
0 0 0 
0.04711130358479484 -0.04296097672558511 0 
0 0 0 
0 0 0 
0 0 0 
0 0 0 
0 0 0 
0.04584089050150293 -0.04718868486480504 0 
0 0 0 
-0.03167329016248326 0.05628501764250296 0 
0.1957077588716014 -0.1961676096383226 0 
0 0 0 
0.06850226353001851 -0.06847134894983664 0 
-0.04411056080474136 0.04173936847062437 0 
0.01761857064110041 -0.0196444004975671 0 
0.01761857064110041 -0.0196444004975671 0 
0.02228092859901269 -0.02733366782687508 0 
0.01761857064110041 -0.0196444004975671 0 
0.01761857064110041 -0.0196444004975671 0 
0.07088124773842494 -0.06746646058564557 0 
0 0 0 
0.01971651710358913 -0.01966652438861029 0 
0.02208762205178186 -0.02215866400765491 0 
0 0 0 
0 0 0 
0.07235772829344735 -0.07473936312023505 0 
0 0 0 
3.469446951953614e-18 0 0 
-0.1173349661832856 0.1192606070998549 -0.009306683489407191 
0 0 0 
0 0 0 
-0.07282781869277656 0.08018816996028455 0 
0 0 0 
0 0 0 
0 0 0 
0 0 0 
0.05842934022402908 -0.05726659863984565 0 
0.05842934022402908 -0.05726659863984565 0 
0 0 0 
0.172964445310212 -0.1719016068229124 2.168404344971009e-19 
0.03506439250406003 -0.03058680329455087 0 
0.009456080871134772 -0.006559929429760912 0 
0 0 0 
0 0 0 
-0.07953251577528532 0.07957993080268609 0 
0 0 0 
0 0 0 
0 0 0 
0.02606848288799245 -0.02573293431952857 0 
0 1.734723475976807e-18 0 
0.1111926890409246 -0.122194095875041 -4.336808689942018e-19 
0 0 0 
0.1468101347600692 -0.1449254449365548 0 
0.09390388775012308 -0.09812424094547251 -0.0002910289069184465 
0.1468101347600692 -0.1449254449365548 0 
0.2783126048209419 -0.2734870233912514 -0.002592200590516911 
0.1468101347600692 -0.1449254449365548 0 
0.1488272968341969 -0.1494191868585545 0 
0.1488272968341969 -0.1494191868585545 0 
0.1488272968341969 -0.1494191868585545 0 
0.1488272968341969 -0.1494191868585545 0 
-0.2727919501393299 0.2724403456066048 -0.01894558808783698 
-0.03098781257187176 0.02236041629075877 0 
0.1136851994542291 -0.115370141223752 0 
-0.2280748029269581 0.2410441028851895 -0.04329915413096911 
-0.2481669033887851 0.244051704423301 0 
-0.2481669033887851 0.244051704423301 0 
-0.4275393406262155 0.4368498384716996 -0.007942098009848591 
-0.2481669033887851 0.244051704423301 0 
-0.3057142733674914 0.304958737390905 0 
-0.2802739600851455 0.2781310395207227 0 
-0.3057142733674914 0.304958737390905 0 
0 0 -0.003746781732002375 
0.1013365153870232 -0.1061617633907998 0 
0 0 0 
0 0 0 
0 0 0 
-0.145296569968668 0.1447143227187915 0 
0.1284980724862995 -0.07063126068766894 -0.04329915413096911 
0 0 0 
0.03795208451085227 -0.0354124975024541 -0.006637622736077242 
0.03795208451085227 -0.0354124975024541 0 
0.03795208451085227 -0.0354124975024541 0 
0.03795208451085227 -0.0354124975024541 0 
0.1070274534986028 -0.1091455560593894 0 
0 0 0 
0.06778713618203311 -0.06829080304930149 0 
0.03090906916582055 -0.0310282543593008 0 
0.1246239611381052 -0.1276151253931355 0 
0.04113149172594458 -0.04348840565943123 0 
0.1379000528061521 -0.1413148035283618 2.168404344971009e-19 
0.04113149172594458 -0.04348840565943123 0 
0.04113149172594458 -0.04348840565943123 0 
0.004372950569262962 0.002616227028984699 0 
0.00994043969852983 -0.01764195240222565 0 
0.03216348662007375 -0.03567708113250911 0 
0.1289314915006154 -0.1186008536682858 0 
0.00994043969852983 -0.01764195240222565 0 
0 0 0 
0 0 0 
0 0 0 
0 0 0 
0.1151896481593476 -0.115715438525502 0 
0 2.168404344971009e-19 0 
0 0 0 
0 0 0 
0 0 0 
0 0 -0.00625874323692675 
0.09625984966363405 -0.09480635732376028 -0.00625874323692675 
0 0 -0.00625874323692675 
0.04656120662600294 -0.04658491776743465 -0.00625874323692675 
0 0 0 
0 0 0 
0.09368100056961827 -0.07601339090389451 0 
0 0 0 
-0.1688448642115031 0.1698679571052435 0 
0.09137126141022389 -0.09030601385838742 0 
0.09137126141022389 -0.09030601385838742 0 
0.06735939811113423 -0.06866494302365936 0 
0 0 0 
0 0 0 
0.02979840541249152 -0.03095444602499073 0 
0 0 0 
-0.1223572447803434 0.1264144355008935 0 
-0.1223572447803434 0.1264144355008935 0 
-0.1223572447803434 0.1264144355008935 0 
0.0989295957903502 -0.09716705989609574 -0.002132334509596184 
0 0 0 
0 0 0 
0.02985677304900872 -0.03540033880472356 0 
0.1108829417471241 -0.1097647401668713 0 
0 0 0 
0.01420138343495764 -0.02763598359839016 0 
8.673617379884035e-18 -0.00344865521406689 -4.336808689942018e-19 
0 0 0 
0.2471330928264792 -0.2385636765811124 -0.004501440130051576 
0 0 0 
-0.1228711932830841 0.1327026845774836 0 
-0.0354590734145943 -0.09108366316596501 0.1669667550243951 
0.009536853298228449 0 0 
0.009536853298228449 0 0 
0 0 0 
-2.168404344971009e-19 -2.168404344971009e-19 -0.003908942913394831 
0.1087957862772672 -0.1091235520137208 0 
0 0 0 
0.1087957862772672 -0.1091235520137208 0 
0.005719755643694452 -0.005437769192994415 0 
0.060638232120956 -0.05973869101023978 0 
0 0 0 
0.1038021707693857 -0.1021847927857582 0 
-3.469446951953614e-18 0 0 
0.1038021707693857 -0.1021847927857582 0 
-0.1628458828918598 0.1537210281198792 0 
0.3339960695824168 -0.3359636597566593 -0.002030548682623317 
0 0 0 
0.3339960695824168 -0.3359636597566593 -0.002030548682623317 
0 6.938893903907228e-18 0 
0.04681898702992335 -0.05076465542994595 0 
0 0 0 
0.0169633071634531 -0.02055448896381022 0 
0.0169633071634531 -0.02055448896381022 0 
0.0169633071634531 -0.02055448896381022 0 
0.178923661764294 -0.1808157620939973 0 
-0.0218569602246172 0.0218300374983611 0 
0 0 0 
-0.06648406740201931 0.06447019287218073 0 
0 0 0 
0 0 0 
-0.1442892954482453 0.1428848440090533 -0.01690457428790166 
0.1304860491601112 -0.1287247214462609 0 
0.01148066465690798 -0.01869883449334462 -0.01690457428790166 
0 0 0 
-0.0007190087481995365 0.0002194037472353797 0 
-0.0007190087481995365 0.0002194037472353797 0 
0.07684922264405795 -0.079684095913594 0 
0.07684922264405795 -0.079684095913594 0 
0 0 0 
-0.7824414808439603 0.7815724892385596 -0.01191302131161978 
-0.3133838486943976 0.3107905301962215 0 
0 0 0 
-0.7824414808439603 0.7815724892385596 -0.01191302131161978 
0 0 0 
0.03762675956011088 -0.02546741656488946 0 
0.03762675956011088 -0.02546741656488945 0 
0.03762675956011088 -0.02546741656488945 0 
0 0 0 
0 0 0 
0 0 0 
-0.1289152480844134 0.1272665707757347 0 
0 0 0 
0 0 0 
0.08821581930192889 -0.09004769108782217 0 
0.1021354660938401 -0.1018825340119796 -1.301042606982605e-18 
0.08821581930192887 -0.09004769108782217 0 
0.08821581930192887 -0.09004769108782217 0 
0.02811711328653538 -0.02661349523137352 0 
1.301042606982605e-18 0 0 
0.04683110185818035 -0.05051583783790524 0 
0.04681898702992337 -0.0506871688548318 0 
0.04681898702992335 -0.05076465542994595 0 
-0.01470938290962545 0.01109785753113658 -0.006479349621648095 
0.01420138343495764 -0.02418732838432328 0 
0.04734885564159623 -0.05610700682225792 -0.006479349621648095 
0.06355473167088749 -0.0696660187733123 0 
0 0 0 
0 0 0 
0.0493320625331457 -0.04894686709106005 0 
0 0 0 
0 0 0 
0 0 0 
0.09431394567807805 -0.0939113809551063 0 
0 0 0 
0 0 0 
0 0 -0.006752696669199808 
0 0 -0.006752696669199808 
0.1038021707693857 -0.1021847927857582 0 
0.07646875134792963 -0.08117653668875104 -0.004156342783382927 
-0.307976471043377 0.3064267143290804 -0.007557584214865142 
0.08647578766033982 -0.08364517258869798 0 
-0.2356259998777659 0.2372784347101834 0 
0.08647578766033982 -0.083645172588698 0 
0 0 0 
0 0 0 
0 0 0 
-0.2136781730161484 0.2141840026523485 0 
0 0 0 
0.07768874482005426 -0.05401583213345697 -0.004501440130051577 
0.04625563635575928 -0.03855683064039845 -0.004501440130051577 
0.1351926222095681 -0.1330125024247399 -0.004501440130051577 
0.08864301735577591 -0.07860005292287142 -0.004501440130051577 
0.07529682572279189 -0.06355361939616672 -0.004501440130051577 
0 0 0 
0.02962778245868885 -0.02751397426468655 0 
0 0 0 
0 0 0 
0 0 0 
0 0 0 
0 0 0 
0 0 0 
-0.05847754547884113 0.06019431950284475 0 
-0.03396681317498795 0.03337712446630284 0 
-0.03396681317498795 0.03337712446630284 0 
-0.03396681317498795 0.03337712446630284 0 
-0.03396681317498795 0.03337712446630284 0 
0 0 0 
-0.02865589044376302 0.02999653370091556 -0.0006877381356899901 
0 0 0 
0 0 0 
0 0 0 
-0.004044939019832513 0.003267407564191359 0 
0.069882483714777 -0.06927898078369565 -0.01343584505550993 
0.05521804665925338 -0.05426342170180433 0 
0.05521804665925338 -0.05426342170180433 0 
0.1114815060974133 -0.1124489825153667 -0.006717922527754964 
-0.004930340112497758 0.004315667096822472 -0.006717922527754962 
0.05521804665925338 -0.05426342170180433 0 
0 0 0 
0 0 0 
0.09921457071357931 -0.1028171425169146 0 
0 0 0 
0 0 0 
0 0 0 
0 0 0 
0 0 0 
-0.1140465765156601 0.1291058660374506 0 
0.01862571270389116 -0.01961368640378949 0 
0.1682723378553754 -0.1736685988769235 0 
0 0 0 
0.08028313412731851 -0.08361630599475572 0 
0.1107920213148831 -0.1070725493571071 0 
0.09021713210809776 -0.08780160399091928 0 
0.1149098193931468 -0.1133524815751707 0 
0.1007753350342281 -0.09904397957411447 0 
0.09021713210809776 -0.08780160399091928 0 
0 0 0 
-0.05237388741240112 0.04947785011786782 0 
0 0 0 
-0.07347199798719634 0.07358566989893518 0 
0 0 0 
0 0 0 
0 0 0 
0.3625612904316834 -0.3431258775340261 -0.02281086700149834 
0 0 0 
0 0 0 
0.1855509222616816 -0.1979566351248954 0 
0 0 0 
0.1867253455786568 -0.1859605374077773 0 
0.05862878876719751 -0.05643152773943992 0 
0.05862878876719751 -0.05643152773943991 0 
-0.2980616265365327 0.3113472743949188 -0.01586245968492963 
0 0 0 
0 0 0 
0.09117233899985758 -0.09034238502948458 0 
0 0 0 
0 0 0 
0 0 0 
0 0 0 
0 0 0 
0 0 0 
0.037568302248626 -0.03357808836409647 0 
0.01862571270389116 -0.01651702624632675 0 
0.01862571270389116 -0.01651702624632675 0 
0.03619567190577034 -0.03443143189038347 0 
0.0513525541377696 -0.0522327665812279 -0.006101436015450611 
0.01516687721308875 -0.0166340969691325 0 
0.01516687721308875 -0.0166340969691325 0 
0.0305382219354173 -0.03199937892547002 0 
0.01516687721308875 -0.0166340969691325 0 
0 0 0 
0.1194168863282167 -0.1183373294440204 -0.01327485969628677 
0.06518316318224734 -0.06442818029150735 -0.01327485969628677 
0 0 0 
0 0 0 
0.1583098214727025 -0.1638723071560336 -0.003117219447458991 
0 0 0 
0.04568776579777984 -0.04676589042835812 -0.001976889428875471 
0.09605794088915844 -0.09914339829015043 -0.008074168235430085 
0.0480929661853017 -0.04839523842357078 -0.001976889428875471 
-0.01720356162229629 0.01568788165405781 -0.001976889428875471 
0.04568776579777984 -0.04676589042835812 -0.001976889428875471 
0.09605794088915844 -0.09914339829015043 -0.008074168235430085 
0.04568776579777984 -0.04676589042835812 -0.001976889428875471 
0.04568776579777984 -0.04676589042835812 -0.001976889428875471 
-0.2321192334925467 0.2349207417410863 -0.003624557027384286 
0.1865695455651826 -0.1797376813910295 -0.0007851106225226817 
0 0 0 
0 0 0 
0 0 0 
0 0 0 
0.02055675005094731 -0.02749221652659138 0 
0.02055675005094731 -0.02749221652659138 0 
0.02055675005094731 -0.02749221652659138 0 
0.02055675005094731 -0.02749221652659138 0 
0.02055675005094731 -0.02749221652659138 0 
0 0 0 
-0.04634225574639403 0.04756143125252803 0 
0.01712692601388564 -0.01690920671151628 0 
0.1991843306724787 -0.2087281835227882 0 
0.02703241920526666 -0.0174609706183079 -0.0007526400109890842 
0.34889565630532 -0.3497765870348907 -0.007650273070746933 
0.34889565630532 -0.3497765870348907 -0.007650273070746933 
0 0 0 
0 0 -0.00095547655165488 
0 0 -8.742516400493322e-05 
0 0 0 
0.05048934963900233 -0.05225269974338562 0 
-0.1027692459295139 0.09886913952758948 0 
0.02914378206248435 -0.03069050224273224 0 
0.1138955406115107 -0.1143617445868798 0 
0.09333102378416606 -0.0972096572247709 0 
0.1996443919630387 -0.199102393450649 -0.01196239612942837 
-8.673617379884035e-19 0 0 
0 0 0 
0 0 0 
0 0 0 
0 0 0 
0 0 0 
0 0 0 
0 0 0 
0 0 0 
0 0 0 
0 0 0 
0.4234234812510392 -0.4232492784464102 -0.01174032346951047 
0 0 0 
0.004690860976898248 -0.005563507970850164 0 
0 0 0 
0 0 0 
0 0 0 
0 0 0 
0.05731898304646892 -0.05952286114313123 0 
-6.857578740970816e-18 8.673617379884035e-19 0 
-6.857578740970816e-18 8.673617379884035e-19 0 
0 0 0 
0 0 0 
0 0 0 
0 0 0 
0 0 0 
0 0 0 
0.1012423587590221 -0.01724043261865326 -0.02653871256450827 
0 0 0 
0 0 0 
0 0 0 
0 0 0 
0 0 0 
0 0 0 
0 0 0 
0 0 0 
0 0 0 
0 0 0 
0.0984641865794651 -0.1004369724344784 0 
0.1292463474554271 -0.1356858040514189 0 
0.0984641865794651 -0.1004369724344784 0 
0.0984641865794651 -0.1004369724344784 0 
0 0 0 
0.0388709432015852 -0.03699693040089488 0 
0 0 0 
0 0 0 
0.04404819168254862 -0.04254267696612999 0 
0.04404819168254862 -0.04254267696612999 0 
0.04404819168254862 -0.04254267696612999 0 
0.04404819168254862 -0.04254267696612999 0 
0 0 0 
0.06951695164779213 -0.06836655360115482 0 
-0.1267866968262447 0.1278976054026294 0 
-0.02310627983769815 0.02306030357533264 0 
0 0 0 
-0.2551676537115974 0.2544040498266061 0 
0 0 0 
0 0 0 
0 0 0 
0 0 0 
0.03203919400766805 -0.03183243031376833 -0.0004159641180848793 
0.03203919400766805 -0.03183243031376833 0 
0.03203919400766805 -0.03183243031376833 0 
0 0 0 
0 0 0 
0 0 0 
0 0 0 
0 0 0 
0 0 0 
-0.08790901442283562 0.0868948245540993 -0.004234660683113766 
0.1570197288609695 -0.1551252812375919 0 
-0.2659115454559127 0.2666900033645472 0 
0 0 0 
0 0 0 
0 0.002853052523013005 0 
0 0 0 
0.07826805338455971 -0.08026329949688489 0 
0 0 0 
0 0 0 
0 0 -0.00499015983907948 
0.09940422873360905 -0.09713222743662035 -0.00499015983907948 
0 0 -0.00499015983907948 
0 0 -0.00499015983907948 
0 0 0 
-0.0859383725211772 0.09217513381770673 0 
0 0 0 
0.2559622592508364 -0.2566882321453327 0 
0.2868713284166568 -0.2877164865046337 0 
0.2559622592508364 -0.2566882321453327 0 
0.001952522317655634 -0.00130896697245137 0 
0.14898298931245 -0.1566621511864193 -0.001797917917047593 
0.1466346154444047 -0.1551106966452198 -0.001885343081052528 
0 0 0 
-0.014000195221721 0.01454691262717701 0 
0 0 0 
0 0 0 
0 0 -0.002132334509596184 
0 0 0 
0.08137885512091984 -0.08333851059804119 0 
0.01493787026522945 -0.01569156700836622 0 
0.08137885512091984 -0.08333851059804119 0 
0 0 0 
0 0 0 
0 0 0 
0 0 0 
0 0 0 
0.07991739281326897 -0.0632794962521558 -0.01606884485201585 
0.08137885512091983 -0.08333851059804119 0 
0.08137885512091983 -0.08333851059804119 0 
0.05383856128037456 -0.06026145142948836 0 
0 0 0 
0 0 0 
0.01878146658514215 -0.01908822683355601 0 
0.01878146658514215 -0.01908822683355601 0 
0 0 0 
0 0 0 
-0.0004657142427070462 0.002374223790632634 0 
-0.003812967910110486 0.00480196693121927 0 
-0.1665238353995702 0.1677897853361712 0 
-0.003812967910110486 0.00480196693121927 0 
-0.003812967910110486 0.00480196693121927 0 
-0.3250139108702734 0.3277534089944121 0 
-0.003812967910110486 0.00480196693121927 0 
-0.3710868820105599 0.3693613385040881 0 
-0.1841423815693632 0.1876761924890758 0 
-8.673617379884035e-19 1.734723475976807e-18 0 
-0.1673782648867796 0.1687076611593073 0 
0.0149516096904085 -0.01525324151250087 0 
0.0149516096904085 -0.01525324151250087 0 
-0.1930869032656433 0.1940010037155911 0 
0.0149516096904085 -0.01525324151250087 0 
0.03597863123220502 -0.03706132280123517 0 
0.03597863123220502 -0.03706132280123517 0 
0.1547412165981482 -0.1559116557029669 0 
0.008664104006744359 -0.008268513834075838 0 
0.1547412165981482 -0.1559116557029669 0 
0.008664104006744363 -0.008268513834075838 0 
0 0 0 
0 0 0 
0.1590506451928488 -0.1551811079381524 0 
0.0305768041855561 -0.01796561574284318 -0.01196239612942837 
0 0 0 
0 0 0 
0 0 0 
0 0 0 
0 0 0 
0.02394845344490419 -0.02535992458252289 0 
-0.1845305494795692 0.1898637718989916 0 
0.02394845344490419 -0.02535992458252289 0 
0.02394845344490419 -0.02535992458252289 0 
0.02394845344490419 -0.02535992458252289 0 
0 0 0 
-0.3515198066488668 0.3473750105855882 0 
0 0 0 
0.01523811402652165 -0.01693533400853552 0 
0 0 0 
0 0 0 
0 0 0 
0 0 0 
0 0 0 
0.02972680180323331 -0.02804203731662295 0 
0.02606848288799245 -0.02573293431952857 0 
0 0 0 
0 0 0 
0.02739987900748608 -0.04138305490169492 0 
0 0 0 
-8.673617379884035e-18 3.686287386450715e-18 0 
0 0 0 
0 0 0 
0.01242255427178156 -0.01110146512894155 0 
0.2121322272798503 -0.2042731545407871 0 
0 0 0 
0 0 0 
-0.3476148207577162 0.3459066540461226 0 
-0.3476148207577162 0.3459066540461226 0 
-0.3476148207577162 0.3459066540461226 0 
0 0 0 
0 0 0 
0 0 0 
-0.1226549974328418 0.1222114620218432 -5.421010862427522e-20 
0 0 0 
0.07923730365465684 -0.07966128678638972 0 
0 0 0 
0 0 0 
0 0 0 
0 -3.469446951953614e-18 0 
0.1780794460735198 -0.1780939942754581 0 
0.1780794460735198 -0.1780939942754581 0 
-0.1713639458897441 0.1668567358947887 0 
0 0 0 
-0.1865841031994306 0.1907887454602711 0 
-0.2276705222517061 0.2238837999592781 -0.01043447379899911 
0.05827224613114589 -0.06245583325304489 0 
0.2159011999515746 -0.2227269113548848 -0.006416743730224109 
0 0 0 
0 0 0 
0.1463353118866113 -0.144771115563878 -0.002547402290457373 
0 0 0 
-3.469446951953614e-18 0 0 
0 0 0 
0 -3.469446951953614e-18 0 
0 0 0 
0 0 0 
-0.003800049923185387 0.00819115896789226 -0.007009496553953735 
-0.3831073804781892 0.3857258078845964 0 
0.09676856108020733 -0.09782639786893045 0 
0.09676856108020733 -0.09782639786893045 2.168404344971009e-19 
0.09676856108020733 -0.09782639786893045 0 
0 0 0 
-0.0301115662218011 0.0320287272642933 -0.004492447550207087 
0.1071070214491687 -0.1082623644889979 -0.004492447550207087 
0 0 0 
-0.2116385746247033 0.2085766662392321 0 
0.004928794423642397 -0.004896435364505271 0 
0 0 0 
-8.673617379884035e-19 0 0 
0 0 0 
-0.5633650155838585 0.563943780675068 -0.004017730068775002 
0.1312982537001686 -0.1278506419987474 0 
0.02969852532569791 -0.03121174671436062 0 
0 0 0 
0 0 0 
0.02417702903023992 -0.02873901703388746 0 
-0.06008034093979964 0.05570300782536189 -0.003056144084813567 
0.02417702903023992 -0.02873901703388746 0 
0.02417702903023992 -0.02873901703388746 -0.004156342783382927 
0.02417702903023992 -0.02873901703388746 0 
0 0 0 
0 0 0 
0 0 0 
0 0 0 
0 0 0 
0.1065534709680167 -0.1058184062827454 -0.006479349621648095 
0 0 0 
0 0 0 
0 0 0 
0 0 0 
0 0 0 
0 0 0 
0 0 0 
0 0 0 
0 0 0 
0 0 0 
0.03571625982960261 -0.03318625278036235 -0.004017730068775002 
0.2285703226459168 -0.2255818149030121 -0.004017730068775002 
0.2285703226459168 -0.2255818149030121 0 
-0.008801214341276842 0.01041491972488092 0 
0.2285703226459168 -0.2255818149030121 0 
0.09616051335237753 -0.09552262923172539 0 
0.0008237623883996134 -0.001768108414565661 0 
0.01334345829999774 -0.01291056486396706 0 
0.0008237623883996134 -0.001768108414565666 0 
0 0 0 
0 0 0 
0 0 0 
0 0 0 
0.1220645242944555 -0.1218776873622463 0 
0.04114999485880266 -0.04475007563398009 0 
0.03407528232012435 -0.03411659087736916 -0.0006199313412180719 
-0.05457616603531443 0.06025540680557204 0 
-0.07686706020741126 0.1074592106525844 -0.004017730068775002 
0 -1.734723475976807e-18 0 
0 0 0 
0.2144546331289521 -0.2039028193100924 1.084202172485504e-19 
0 0 0 
0 0 0 
0 0 0 
0 0 0 
0 0 0 
-0.1749960517233391 0.1816285225245304 0 
0 0 0 
0 0 0 
0 0 0 
-0.09722608003118899 0.09607844347336569 0 
-0.8286320482375947 0.8264251677386323 0 
-0.09722608003118893 0.09607844347336572 0 
-0.04323107421339345 0.03830919046347826 -0.006054045183471441 
0.01723987620187498 -0.01531168050769342 0 
0 -0.003004878352244521 0 
0 0 0 
0.1301204153773019 -0.1300530618058665 0 
0.1301204153773019 -0.1300530618058665 0 
-0.1131290670110335 0.1153864939830965 0 
0.1894219036012284 -0.1947218726574093 0 
-0.1143553495178976 0.1124513718888849 0 
0.008314759606228102 -0.01132193795532745 0 
0 0 0 
0 0 0 
0 0 0 
0 0 0 
6.938893903907228e-18 0 0 
0.09822047634095529 -0.09950631550929634 0 
0 0 0 
0.1170126289501024 -0.1183849680490012 0 
-0.1250316973374661 0.12040540944782 0 
0 0 0 
0 0 0 
0 0 0 
0 0 0 
0.01874197089665393 -0.01833105924744069 0 
0.01874197089665393 -0.01833105924744069 0 
0.01874197089665393 -0.01833105924744069 0 
0 0 0 
0.09322923587756916 -0.09311638887162617 0 
0 0 0 
0 0 0 
0 0 0 
0 0 0 
0 0 0 
0 0 0 
0 0 0 
0 0 0 
0 0 0 
0 0 0 
0 0 0 
0 0 0 
0 0 0 
0 0 0 
0.005249690855466794 -0.006427162364165218 0 
0 0 0 
0 0 0 
-0.005996731873000137 0.01273604463605134 -0.001934158613790877 
0 0 0 
0 0 0 
0.0100560919704001 -0.01685520323462741 0 
0.06786887499324909 -0.06732374563997783 0 
0.03242321883948112 -0.03121834656176703 0 
0.03242321883948112 -0.03121834656176703 0 
0.03242321883948112 -0.03121834656176703 0 
0.03242321883948112 -0.03121834656176703 0 
0.03242321883948112 -0.03121834656176703 0 
0.05264726025426759 -0.05084380031759365 0 
0 0 0 
-0.006142348653952454 0.005817377533178829 0 
0.02396656520725258 -0.02784677248400193 0 
0.02396656520725259 -0.02784677248400193 0 
0.02396656520725258 -0.02784677248400193 0 
0.02396656520725259 -0.02784677248400193 0 
0 0 0 
0 0 0 
0 0 0 
0.1534127913683262 -0.1526118857862583 0 
0.02776763608862925 -0.02878268907157529 0 
0.02776763608862925 -0.02878268907157529 0 
0.02776763608862925 -0.02878268907157529 0 
0 -0.003171080832565278 0 
0 -0.003171080832565278 0 
3.469446951953614e-18 -0.003171080832565278 0 
0 -0.003171080832565278 0 
-0.04078908956847015 0.04238352974488096 0 
0.001053053656919912 0 0 
0.001053053656919912 0 0 
0.01621193034020277 -0.0134690233407106 -0.005295900776348102 
0 0 0 
0 0 0 
0.1284980724862995 -0.049328301262377 -0.04329915413096911 
-0.1468846420103036 -0.06656873388103034 0.1988647091886421 
0.1284980724862995 -0.07063126068766891 -0.04329915413096911 
0.1543822182465074 -0.1536987454615306 0 
0.1543822182465074 -0.1536987454615306 0 
0 0 0 
0 0 0 
0.1304860491601112 -0.1287247214462609 0 
0.1304860491601112 -0.1287247214462609 0 
-0.1749036770880073 0.1756604498985719 0 
0 0 0 
0 0 0 
-0.270409207734012 0.2693567291769617 0 
0 0 0 
-0.292697407290692 0.289562512914384 0 
-0.2253950071338032 0.2235179045998061 0 
0 0 0 
0.03038051845867112 -0.02829257350047143 0 
0.03038051845867112 -0.02829257350047143 0 
0.03645160537085847 -0.04072543293533638 0 
0 0 0 
0.1304860491601112 -0.1287247214462609 0 
-0.2531068875781299 0.2493377442508524 -0.005223387961060853 
0.1304860491601112 -0.1287247214462609 0 
-0.33615277170686 0.3364074409496267 -0.005223387961060853 
0 0 0 
0.03655363187619738 -0.03789697338625585 0 
0 0 0 
0 0 0 
0 0 0 
0 0 0 
0 0 0 
0 0 0 
0 0 0 
0 0 0 
0 0 0 
-0.006198981426917206 0.01564212439628249 0 
0 0 0 
0 0 0 
0 0 0 
0 0 0 
0 0 0 
0 0 0 
0.07889212565055512 -0.07803853206059262 0 
0.07889212565055512 -0.07803853206059262 0 
0.07889212565055513 -0.07803853206059262 0 
0.07889212565055512 -0.07803853206059262 0 
0.1430958144913161 -0.1415350744045132 0 
0.1045393633391532 -0.1027413819762588 0 
0 0 0 
0 0 0 
0 0 0 
0 0 0 
0.1327474875853686 -0.134722836332051 0 
0.05473920982838158 -0.05735047005328128 0 
0.1317431314937152 -0.1319211353779242 0 
0.05473920982838158 -0.05735047005328128 0 
0.1317431314937152 -0.1319211353779242 0 
0.05473920982838158 -0.05735047005328128 0 
0 0 0 
0 0 0 
0 0 0 
-0.1815752870801413 0.1820441868118813 0 
0 0 0 
6.938893903907228e-18 -0.001658403653930904 0 
0 0 0 
0 0 0 
0.023342436907675 -0.02251002463245721 0 
0 0 0 
0 0 0 
0.01235011313519363 -0.009610649951986037 0 
0 0 0 
0.000367354925310036 -0.00173242229129064 0 
0 0 0 
0 0 0 
0 0 0 
0 0 0 
0 0 0 
0 0 0 
0 0 0 
-0.1858376060967248 0.1926987149792506 0 
-1.006589076852117 1.002803206143219 0 
-0.1462247333421209 0.1511223565665661 0 
0.06110693814314849 -0.05073512662638037 -0.01197213494552152 
0 0 0 
0 0 0 
0.0741958586169231 -0.07347196073168406 0 
0.0741958586169231 -0.07347196073168408 0 
0.1251825686749714 -0.1210847037915844 0 
0 0 0 
0 0 0 
0 0 0 
0 0 0 
0 0 0 
0 0 0 
0 0 0 
0 0 0 
0.01866903905539394 -0.01543599772165646 0 
-0.1289152480844134 0.1272665707757347 0 
0 0 -0.005487968632336341 
0 0 -0.005487968632336341 
0 0 -0.005487968632336341 
0 0 -0.005487968632336341 
0 0 -0.005487968632336341 
0 0 0 
0 0 0 
0 0 0 
0 0 0 
0.02962778245868885 -0.02751397426468655 0 
0.02962778245868885 -0.02751397426468655 0 
0.02962778245868885 -0.02751397426468655 0 
0.06920448187288855 -0.06991807088301248 0 
-0.1096272853853019 0.1123595964668036 -5.421010862427522e-20 
0.06920448187288855 -0.06991807088301248 0 
0.04226848904833575 -0.03284967893936891 0 
0 0 0 
0.3156422335899169 -0.3175800856114214 0 
0 0 0 
0 0 0 
0 0 0 
0 0 0 
0.03645160537085847 -0.04072543293533638 0 
0 0 0 
0 0 0 
0 0 0 
-0.001373582232141169 -0.004316752802709734 -0.009603991085726486 
0.1467083990696809 -0.1485113900505755 0 
0 0 0 
0.02979840541249154 -0.03095444602499073 0 
-0.1347089649953999 0.1203976347375731 0 
-0.1623423681872543 0.1634725695067292 0 
0.06027060965053836 -0.05909727943731827 -0.006416743730224109 
0.04462710717740211 -0.04264015537381963 0 
0.04462710717740211 -0.04264015537381963 0 
0 0 0 
0 0 0 
0 0 0 
0 0 0 
0 3.469446951953614e-18 -0.008194246158681836 
0 0 0 
0 0 0 
0 0 0 
0 0 0 
0.005020432652722021 -0.004463040691899283 0 
0.00905014828593387 -0.01216269381195015 0 
0 0 0 
0 0 0 
0.04677566461817072 -0.04625001235398854 0 
0.01797921871417854 -0.01868564263495329 0 
0 0 0 
-0.05474754351960135 0.05613700117291168 0 
0.04989837823984766 -0.05042611769787225 0 
0 0 0 
0 0 0 
0 0 0 
0 0 0 
0 0 0 
0 0 0 
0 0 0 
0 0 0 
0 0 0 
0 0 0 
0 0 0 
-0.1073229864053131 0.1050712555375326 0 
0 0 0 
0 0 0 
0 0 0 
0 0 0 
0 0 0 
0 0 0 
-1.734723475976807e-18 4.336808689942018e-19 0 
-0.0477658197880358 0.04304379984711966 0 
0 0 0 
8.673617379884035e-19 0 0 
0 0 0 
0 0 0 
0 0 0 
0 0 0 
0.01169987185397103 -0.01130665649336105 0 
0.01169987185397103 -0.01130665649336105 0 
0.01169987185397103 -0.01130665649336105 0 
0 0 0 
-0.1218947524015838 0.1208719893884796 0 
0 0 0 
0.03020501782591571 -0.02215191240208853 0 
0 0 0 
0.03691976724628233 -0.009762152509791677 -0.01606884485201585 
0 0 0 
0 0 0 
0.1060197189942286 -0.1045815752274719 0 
0.1060197189942286 -0.1045815752274719 0 
0.02405968761743044 -0.02245013699457942 0 
0.02228819955667992 -0.02020578373742209 0 
0.02405968761743044 -0.02245013699457942 0 
0 0 0 
0 0 0 
0 0 0 
0 0 0 
0 0 0 
0.005524570132822077 -0.001817698247575493 0 
0 0 0 
0.08773124415419011 -0.08587089248841433 0 
0.08773124415419009 -0.08587089248841433 0 
0.01230265561909762 -0.01317203753898776 -0.001019371850906277 
0 0 0 
0 0 0 
0.01230265561909762 -0.01317203753898776 0 
0 0 0 
0 0 0 
0 0 0 
0.02630812616548461 -0.03093374452790063 0 
0.140279398020787 -0.1237661502585688 0 
0.02630812616548461 -0.03093374452790063 0 
0 0 0 
0.04411856123423823 -0.04502020895084072 -0.004234660683113766 
0 0 0 
0.1597026629490287 -0.1552651696711063 0 
0 0 0 
0 0 0 
0 0 0 
0 0 0 
0 0 0 
0 0 0 
0 0 0 
0 0 0 
0 0 0 
0 0 -0.006054045183471441 
0 0 0 
0 0 0 
0 0 0 
0 0 0 
-0.1405315198006998 0.1349443777576526 0 
-0.01537460328609969 0.003717374256706579 0 
-0.1966671323594477 0.1883064391419739 0 
-0.3747753465946908 0.3925367892771292 -0.002224878313546789 
-0.1405315198006998 0.1349443777576526 0 
-0.1405315198006998 0.1349443777576526 0 
0 -4.336808689942018e-18 0 
0 0 0 
0 0 0 
0 0 0 
0.1253636606598959 -0.1255120997235568 0 
0.1814992732186438 -0.178874161107878 0 
0.0564246141740349 -0.05515514069614546 0 
0.0564246141740349 -0.05515514069614546 0 
0.0564246141740349 -0.05515514069614546 0 
0 0 0 
0.1421100229118843 -0.142994742207441 -0.0004181358463913607 
0.1159590327542179 -0.1160678011982886 -0.0004181358463913611 
0 0 0 
0 0 0 
0 0 0 
0 0 -0.05616135403473927 
0 0 -0.05616135403473927 
-0.4374226002622422 0.4374359147178881 0 
-0.5541461260707495 0.5539497372529785 0 
-0.2595104892182691 0.2528950467759352 0 
-0.5712368490732815 0.5672060918534734 -0.003015167447279409 
-0.1425109189377843 0.142653978085787 0 
-0.1181024219390663 0.1177956832909946 0 
-0.5712368490732815 0.5672060918534734 -0.003015167447279409 
-0.1425109189377843 0.142653978085787 0 
0 0 0 
0 0 0 
0 0 0 
0 0 0 
0 0 0 
0.1602908314108164 -0.1581016494890288 -0.007942098009848589 
0.1453038755414312 -0.1351657156193795 -0.007942098009848589 
0.1276707658648309 -0.1322732244851003 0 
0 0 0 
0 0 0 
0 0 0 
0 0 0 
0 0 0 
0 0 0 
0.01242255427178156 -0.01110146512894156 0 
0 0 0 
0 0 0 
0 0 0 
0 0 0 
0 0 0 
0.05255187615288468 -0.05483933141118925 0 
0 0 0 
-0.01779265802445879 0.01875237914949385 0 
0 0 0 
-0.02435446538962451 0.02563036133612036 -0.01191302131161978 
0 0 -0.01191302131161978 
-0.02435446538962451 0.02563036133612036 -0.01191302131161978 
-0.02435446538962451 0.02563036133612035 0 
0 1.734723475976807e-18 0 
0 0 0 
0 1.734723475976807e-18 0 
0.03343413449672877 -0.03356368772746855 0 
0.02961127262339512 -0.02950187610292957 0 
0 0 0 
0 0 0 
0 0 0 
0.04231460688581818 -0.04405828016151147 0 
0 0 0 
0 0 0 
0.04231460688581816 -0.04405828016151148 0 
0 0 0 
0 -3.469446951953614e-18 0 
0 0 0 
0 -3.469446951953614e-18 0 
0 0 0 
-0.175266268883095 0.1691503042409469 0 
0 0 0 
0 0 0 
0 0 0 
0 0 0 
0 0 0 
0.06052855680641458 -0.06248609956956307 0 
0 0 0 
0 0 0 
0 0 0 
0 0 0 
0 0 0 
0.06407989172895219 -0.06420187335656037 0 
0 0 0 
0 0 0 
0 0 0 
0 0 0 
0.04546422688710397 -0.0368382109420342 -0.002085315164840707 
0 0 0 
0 0 0 
0 0 0 
0.01235011313519363 -0.009610649951986037 0 
0 0 0 
0 0 0 
0 0 0 
0 0 0 
0.115765823399742 -0.116834419787366 0 
0.0837620341953655 -0.07513071018122081 0 
0.115765823399742 -0.116834419787366 0 
0 0 0 
0.01769359830308083 -0.01580026159242954 0 
0 0 0 
0 0 0 
0.06280033608376488 -0.06532558557892489 0 
0 0 0 
0 0 -0.02260168125407574 
0 0 -0.02260168125407574 
0 0 -0.02260168125407574 
0 0 0 
0 0 0 
-0.03047255903680341 0.03477805138217138 0 
0 0 0 
0 0 0 
0 0 0 
0.146035662780463 -0.1020736748411087 -0.02653871256450827 
0.1507495380388252 -0.1723032277008248 0 
0.133289792582968 -0.1529366380250675 0 
0 0 0 
0 0 0 
0.03713270492424718 -0.03846793881440948 0 
0 0 0 
0 0 0 
0 0 0 
0.06249289270781501 -0.04306603409705916 0 
0.05436855625282712 -0.05944924289189504 0 
0.05436855625282712 -0.05944924289189504 0 
0 0 0 
0 0 0 
0 0 0 
0 0 0 
0.03185815539732333 -0.03232527877149205 0 
0.03687806701621257 -0.03726254869000066 0 
0.03687806701621257 -0.03726254869000066 0 
0.03687806701621257 -0.03726254869000066 0 
0.03975836016518983 -0.04347415004576004 -9.332772308683019e-05 
0.08612320286613623 -0.08734863378703428 0 
0.0178544272618654 -0.01778366918935488 0 
0.03638639840607241 -0.03691012639548734 0 
0.0178544272618654 -0.01778366918935488 0 
0.05800143781226079 -0.05899574563584144 0 
0.002229898887093476 -0.0036502384584922 0 
0.002229898887093476 -0.0036502384584922 0 
0.06537774645518787 -0.06510731945045435 0 
0 0 0 
0 -3.469446951953614e-18 0 
0 0 0 
0 0 0 
0 0 0 
0.00344698717647518 -0.001658403653930904 -0.0238100596442896 
0 0 0 
0 0 0 
0 0 0 
0.07320987347919559 -0.07268761046713428 0 
0 0 0 
0 0 0 
0 0 0 
0.07320987347919559 -0.07268761046713428 0 
0 0 0 
0 0 0 
0 0 0 
0 0 0 
0 0 0 
0.00290194923215618 0 -0.007197189996730444 
0 0 0 
0 0 0 
0 0 0 
0 0 0 
0 0 0 
0.01391964679191127 -0.01183484292415742 -1.301042606982605e-18 
-0.08279887157498587 0.08687434052388635 0 
-0.08279887157498587 0.08687434052388635 0 
0 0 0 
0 0 0 
0 0 0 
0 0 0 
0.009266891540688353 -0.01035318067932636 0 
0.059177675077204 -0.06139805403668929 0 
0 0 0 
0.1457238268060187 -0.1515381018796523 -2.168404344971009e-19 
0 0 0 
0 0 0 
0 0 0 
0 0 0 
0 0 0 
-0.3780671121493361 0.3773867777490502 0 
-0.4807725834133748 0.4823831012649358 0 
-0.09849120609998069 0.0989568427077876 0 
-0.2795759060493553 0.2784299350412624 0 
0 0 0 
0 0 0 
0.06217222571307276 -0.06258044670604433 0 
0.06217222571307276 -0.06258044670604433 0 
0.06217222571307276 -0.06258044670604433 0 
0 0 0 
0 0 0 
0 0 0 
0 0 0 
0 0 0 
0 0 0 
0 0 0 
0.2011141691934083 -0.1996260078650428 0 
-0.000445871911310616 0.001753048410538964 0 
-0.2080385129560519 0.2092542452280919 0 
-0.2080385129560519 0.2092542452280919 0 
0 0 0 
0 0 0 
0 0 0 
0 0 0 
-4.336808689942018e-19 0 0 
-0.2504298612233333 0.2525568585156194 1.084202172485504e-19 
-0.3677871456478903 0.3646321508571425 0 
-0.1549893726968068 0.1532962872671519 0 
-0.3677871456478903 0.3646321508571425 0 
-0.1549893726968068 0.1494968549288396 0 
0 0 0 
0 0 0 
0 0 0 
0 0 0 
0.127670765864831 -0.1322732244851003 0 
0 0 0 
0 0 0 
0.1279377899712546 -0.1247730762285073 0 
0 0 0 
-0.1692253993625152 0.1640237299134781 0 
0.002827719125489862 -0.005551187152633674 0 
0.05391700735032388 -0.05282684092732189 -0.0007851106225226817 
0.05391700735032388 -0.05282684092732189 -0.0007851106225226817 
0 0 0 
0 0 0 
0 0 0 
0 0 0 
0 0 0 
0 0 0 
0 0 0 
0.09394636747840771 -0.09319640411871864 0 
0 0 0 
0 0 0 
0 0 0 
0 0 0 
0.0100560919704001 -0.01685520323462742 0 
0.0100560919704001 -0.01685520323462742 0 
0.0100560919704001 -0.01685520323462742 0 
0.0100560919704001 -0.01685520323462742 0 
0.06537774645518787 -0.06510731945045435 0 
0.06537774645518787 -0.06510731945045435 0 
0.08805426575590329 -0.09069853853264906 0 
0.0880542657559033 -0.09069853853264906 0 
0.08805426575590329 -0.09069853853264906 0 
0 0 0 
0 0 0 
0.06052855680641459 -0.06248609956956307 0 
0.06052855680641459 -0.06248609956956307 0 
0.06052855680641459 -0.06248609956956307 0 
0 0 0 
0 0 0 
0 0 0 
0 0 0 
-0.03092962573660992 0.03202373933028997 0 
0 0 0 
0.02606848288799244 -0.02602224568323939 0 
0 0 0 
0 0 0 
0 0 0 
0 0 0 
0 0 0 
0 0 0 
0 0 0 
0 0 0 
0 0 0 
0 0 -0.02027789005645681 
0 0 0 
0 0 0 
-0.009596469306114496 0.01106335404457512 0 
-0.1221831758374574 0.1246068214391219 0 
-0.009596469306114496 0.01106335404457512 0 
0.00824855589006836 -0.009112732743237772 0 
-0.009596469306114496 0.01106335404457512 0 
-0.08473198673054806 0.08433361878467793 0 
0 0 0 
0 0 0 
0 0 0 
0 0 0 
0 0 0 
0.02276368957389926 -0.02135131481471656 0 
0.1425545881191737 -0.1404639961621345 0 
0.02276368957389926 -0.02135131481471656 0 
0.04783750382332765 -0.04869505505045341 -0.00675928119894982 
0.1443525336993899 -0.1430508394929683 0 
0.05758341887076635 -0.0583803552362845 0 
0.05758341887076637 -0.0583803552362845 0 
0.05758341887076638 -0.0583803552362845 0 
0.05758341887076635 -0.0583803552362845 0 
0.05758341887076637 -0.0583803552362845 0 
0.05758341887076637 -0.0583803552362845 0 
0 0 0 
0 0 0 
0 0 0 
0.066637386034167 -0.06913038719719984 0 
0 0 0 
0 0 0 
0 0 0 
0 0 0 
0 0 0 
-1.387778780781446e-17 0 0 
0 0 0 
0 0 0 
0 0 0 
0 0 0 
0 0 0 
0 0.001532772068078026 0 
-0.04754095896908499 0.05015475665619112 0 
0 0.001532772068078026 0 
-0.04754095896908499 0.05015475665619112 0 
0.06062864011808384 -0.06248258363403061 0 
0.04129089919131624 -0.04622062202662063 0 
-0.1833294373771671 0.1839755963914341 0 
0.0694093923237601 -0.06816549965842111 0 
0.09731708042814571 -0.09472740459782199 0 
0.0694093923237601 -0.06816549965842111 0 
0.001254343480135686 -0.005202241335680147 -0.000150091061190139 
0 0 0 
0 0 0 
0 0 0 
-0.0329750343496006 0.03617213418639054 0 
-0.22476790804182 0.2266327835538629 0 
0 0 0 
0 0 0 
0.1515457025699318 -0.1499850401699164 0 
0.1515457025699318 -0.1499850401699164 0 
0.001957758514676288 -0.00336966332979314 0 
-0.005741738181894068 0.009214894258945162 0 
0 0 0 
0.06307865051550544 -0.05166036698146346 0 
0.06328400139862225 -0.05268780629690947 0 
0.06037039478180287 -0.04585204614834335 0 
0 0 0 
0 0 0 
0 0 0 
0 0 0 
0 0 0 
0 0 0 
0.03262413063619787 -0.03038485898461124 0 
0 0 0 
0 0 0 
0 0 0 
0 0 0 
0 0 0 
0 0 0 
0 0 0 
0 0 0 
0 0 0 
-8.673617379884035e-19 0 0 
0 0 0 
0 0 0 
0 0 0 
-0.04108205936414244 0.04224188306547818 0 
0.0272721402096388 -0.02968405208210423 0 
0.07407159504614673 -0.05556683090739834 0 
0.0272721402096388 -0.02968405208210423 0 
0.0272721402096388 -0.02968405208210423 0 
0.0272721402096388 -0.02968405208210423 0 
0.03209751246444648 -0.02747596316876354 0 
0.03209751246444648 -0.02747596316876354 0 
0.03209751246444648 -0.02747596316876354 0 
0 0 0 
-0.119677171007889 0.1183061184685884 0 
0 0 0 
0 0 0 
0 0 0 
0 0 0 
0.0609682125428436 -0.05934919561533585 0 
0 0 0 
0 0 0 
-0.04108205936414243 0.04224188306547818 0 
-0.04108205936414243 0.04224188306547819 0 
-0.04108205936414243 0.04224188306547819 0 
-0.04108205936414243 0.04224188306547819 0 
0.02228819955667992 -0.02020578373742208 0 
0 0 0 
0 0 0 
0.01550336275766333 -0.009680572570538953 0 
0.02095745448672948 -0.02124472681790561 0 
0.02095745448672948 -0.02124472681790561 0 
0 0 0 
0 0 0 
0 0 0 
0.05423372314596941 -0.05390914915251295 0 
0.009456080871134772 -0.006559929429760912 0 
0.009456080871134772 -0.006559929429760912 0 
0 0 0 
0 0 0 
0 0 0 
0 0 0 
0.1324631838694555 -0.1347592670136326 -0.009310123118271871 
0.07177478052150026 -0.07494452696783625 0 
0.07177478052150026 -0.07494452696783625 0 
0.06412954483316036 -0.06203955683559898 0 
0 0 0 
0 0 0 
0 0 0 
0.2384021855747015 -0.2367953182051466 0 
0 0 0 
-0.05610657425614171 0.0588385747862739 0 
-0.05610657425614171 0.0588385747862739 0 
-0.05610657425614171 0.0588385747862739 0 
0 0 0 
0 0 0 
0 0 0 
0 0 0 
0.05946190940642446 -0.04846265730872565 -0.02747174288455386 
0 0 0 
0 0 0 
0 0 0 
0 0 0 
0.03655363187619738 -0.03789697338625585 0 
0.03655363187619738 -0.03789697338625585 0 
0.03655363187619738 -0.03789697338625585 0 
0.0138110042610723 -0.006307008181715257 -0.01191856662329526 
0.1253419871955893 -0.1163045150212505 -0.01191856662329526 
0.1257899150999863 -0.1163045150212505 -0.01242175381697046 
0.0138110042610723 -0.006307008181715257 -0.01191856662329526 
0.1253419871955893 -0.1163045150212505 -0.01191856662329526 
0 0 0 
0 0 0 
0 0 0 
0 0 0 
0.07931030036405494 -0.07789029689058267 0 
0.07931030036405494 -0.07789029689058267 0 
0 0 0 
0 0 0 
0 0 0 
0 0 0 
0 0 0 
0.0005142959060218807 -0.0008304398147684744 0 
0 0 0 
0.06663738603416698 -0.06913038719719984 0 
0.05383856128037456 -0.06026145142948834 0 
0 0 0 
0 0 0 
0 0 0 
0 0 0 
0 0 0 
-0.06930763546544272 0.06825826177965254 0 
0 0 0 
0 -8.673617379884035e-19 0 
0 0 0 
0 0 0 
0 0 0 
0.2068931599151026 -0.2072266415862635 0 
0.2068931599151026 -0.2072266415862635 0 
0 0 0 
0 0 0 
0 0 0 
0 0 0 
0 0 0 
0 0 0 
0.01974870334736518 -0.01810802448317721 0 
0 0 0 
0 0 0 
0 0 0 
0 0 0 
0 0 0 
-3.469446951953614e-18 0 0 
0 0 0 
0.0008237623883996134 -0.001768108414565666 0 
0 1.734723475976807e-18 -0.001288727447415849 
0 0 0 
0 0 0 
0.01286806872114765 -0.008370943206248179 0 
0.01286806872114765 -0.008370943206248179 0 
0.01286806872114765 -0.008370943206248179 0 
0 0 0 
0.04394200958544708 -0.0464327348364633 -0.01174032346951047 
0 0 0 
0.04394200958544708 -0.0464327348364633 -0.01174032346951047 
0 0 0 
0 0 0 
0 0 0 
0 0 0 
0.05752912012911799 -0.06125057292041924 0 
0 0 0 
0.001347954308341265 -7.589415207398531e-18 0 
0 0 0 
0 0 0 
0 0 0 
0 0 0 
0 0 0 
0 -4.336808689942018e-19 0 
0 0 0 
0 0 0 
0 0 0 
0 0 0 
0 0 0 
0 0 0 
0 0 0 
0 0 0 
0 0 0 
0 0 0 
0.01438913711897876 -0.01267981164163733 0 
0 0 0 
0.09117233899985758 -0.09034238502948458 0 
0 0 0 
-0.1190690894822201 0.1199886333457851 0 
-1.059807623604581e-17 0 0 
0 0 0 
0.06054755846459871 -0.0611247576987439 0 
0 0 0 
0.003347253667403438 -0.002427743140586632 0 
0.003347253667403438 -0.002427743140586633 0 
0 0 0 
0 0 0 
0 0 0 
0 0 0 
0 0 0 
0 0 0 
0 0 0 
-0.02273854651670038 0.0237812565208588 0 
0 0 0 
0 0 0 
0.01448546320259488 -0.01553073944077267 0 
0.0447912500848037 -0.04241632143385543 0 
0 0 0 
0 0 0 
0 0 0 
0 0 0 
0 0 0 
0 0 0 
0 0 0 
0 0 0 
0 0 0 
-0.02699194876823941 0.02690794422923506 0 
0 0 0 
0 0 0 
-0.2615277128538845 0.2609634482529287 0 
0.003223444532821081 -0.002570857162875439 0 
0.03840850787984808 -0.0346544055956994 -0.002826375060890686 
0 0 0 
0 0 0 
0 0 0 
0 0 0 
0 0 0 
0.0214347788008336 -0.02001139863711388 0 
0.06224023270095592 -0.06699528859838656 0 
0.0214347788008336 -0.02001139863711388 0 
-0.0393679551402892 0.03955835671675761 0 
-0.04011157294923003 0.03973495078983021 0 
-0.04011157294923003 0.03973495078983021 0 
0.02970341454827554 -0.02909322536246336 0 
0 0 0 
0 0 0 
0.06981776925867414 -0.07336528174222205 0 
0.1117807800540446 -0.1135752501797053 0 
0.06981776925867414 -0.07336528174222205 0 
0 0 0 
0 0 0 
0.01024845993088024 -0.01048625416773564 0 
0 0 0 
0 0 0 
0 0 0 
0 0 0 
0 0 0 
0 0 0 
0 0 0 
-0.07395956463807203 0.07090648715463284 0 
-0.07395956463807203 0.07090648715463284 0 
-0.07395956463807203 0.07090648715463284 0 
-0.2580687356098708 0.258240992323971 0 
-0.05290102967688234 0.05375319925291407 0 
-0.005741738181894068 0.009214894258945162 0 
0 0 0 
0 0 0 
0 0 0 
-0.05564127227809416 0.05281026745392248 0 
-0.06251676628038859 0.06394548040358829 0 
0.03965417800531452 -0.04007769983146309 0 
0 0 0 
0.03965417800531452 -0.04007769983146309 0 
-0.09901794019753374 0.09771785891219101 -4.336808689942018e-19 
0 0 0 
0 -1.734723475976807e-18 0 
0 0 0 
-3.469446951953614e-18 -1.734723475976807e-18 0 
0 0 0 
0 0 0 
0 0 0 
0 0 0 
0 0 0 
0 0 0 
0 0 0 
0 0 0 
0.2384021855747015 -0.2367953182051466 0 
0 0 0 
0 0 0 
0 0 0 
0 0 0 
0 0 0 
0.05430024824062466 -0.04774753574052908 0 
0 0 0 
0 0 0 
0 0 0 
0 0 0 
0 -0.001658403653930904 0 
0 0 0 
0 0 0 
0 0 0 
0 0 0 
0.06077531781066042 -0.05584048298504978 0 
0 0 0 
0 0 0 
0 0 0 
0 0 0 
0 0 0 
0.0525518761528847 -0.05483933141118925 0 
0 0 0 
0 0 0 
0 0 0 
0 0 0 
0 -3.469446951953614e-18 0 
0 0 0 
0 0 0 
0 0 0 
0 0 0 
0 0 0 
0 0 0 
0.04012451024568255 -0.01001035029682602 -0.01346589707549132 
0.04012451024568255 -0.01001035029682602 -0.01346589707549132 
0.02979840541249153 -0.0298737298104699 0 
0 0 0 
0 0 0 
0 0 0 
1.734723475976807e-18 0 0 
0 0 0 
0 0 0 
0 0 0 
0 0 0 
0 0 0 
0 0 0 
0 0 0 
0 0 0 
0 0 0 
0 0 0 
0 0 0 
0 0 0 
0 0 0 
0 0 0 
0 0 0 
0 0 0 
0 0 0 
0 0 0 
0 0 0 
0 2.168404344971009e-19 0 
0 0 0 
0 0 0 
0 0 0 
0 0 0 
0 0 0 
0.04890193618855163 -0.05333418953076868 0 
0.04890193618855163 -0.05333418953076868 0 
0.04890193618855163 -0.05333418953076868 0 
0.04890193618855163 -0.05333418953076868 0 
0 0 0 
-0.05325702420994479 0.0567899446285136 0 
0.006486191954061897 -0.005320603903478767 0 
0.006486191954061897 -0.005320603903478767 0 
0.006486191954061897 -0.005320603903478767 0 
-0.126384811855065 0.1246078910414724 0 
-0.126384811855065 0.1246078910414724 0 
-0.126384811855065 0.1246078910414724 0 
0.05177236422567381 -0.04784347946278125 0 
-0.005756755903444195 0.01340709345763803 0 
0.01396132176523847 -0.01879749329332777 0 
0 0 0 
0 -3.469446951953614e-18 0 
0 0 0 
-0.1609838828839901 0.1550791443205292 0 
0 0 0 
0 0 -0.001116328934706361 
0 0 0 
0 0 0 
0 0 0 
0 0 0 
0 0 0 
0 0 0 
0.003287271626835708 -0.001992200234730225 0 
0 0 0 
0 0 0 
0 0 0 
0 0 0 
0 0 0 
-0.04525155377487548 0.04676878661743619 0 
0 0 0 
0 0 0 
-0.02213783177047032 0.02397374249536012 0 
0 0 0 
0 0 0 
0.01080472690401073 -0.0106676686931494 0 
0.09004203055866761 -0.09032895547953915 0 
0 0 0 
8.673617379884035e-19 0 0 
0 0 0 
0.1170126289501024 -0.1183849680490012 0 
0.1170126289501024 -0.1183849680490012 0 
0 0 0 
0 0 0 
0 1.734723475976807e-18 0 
0.0007436178089408062 -0.0001765940730725956 0 
0 0 0 
0 0 0 
0 0 0 
0 0 0 
0 0 0 
0.04952839604078956 -0.04769658705987568 0 
0.07132097464894127 -0.06536044049922685 -0.003746781732002375 
0.005524570132822077 -0.001817698247575493 0 
0.005524570132822077 -0.001817698247575493 0 
0.08653329554771513 -0.08311621568017734 -0.005431924788843912 
0.04273289488177945 -0.04439142482455991 0 
0.08653329554771513 -0.08311621568017734 -0.005431924788843912 
0 0 0 
0 0 0 
0 0 0 
0 0 0 
0 0 0 
0 0 0 
0 0 0 
0.1053330416920126 -0.1042579217122064 0 
0.06195466635209164 -0.06335032652045998 0 
0.02013537777261438 -0.02289457562090735 0 
0.02013537777261438 -0.02289457562090735 0 
0.02013537777261438 -0.02289457562090735 0 
0.02013537777261438 -0.02289457562090735 0 
0 0 0 
0 0 0 
0 0 0 
-0.09017078446650509 0.08996882713933035 0 
0 0 0 
0.08541745742754808 -0.08674353015851882 0 
0.1078666280216191 -0.1145313161929869 0 
0.1289340825116188 -0.133324229228229 0 
0.1078666280216191 -0.1145313161929869 0 
0 0 0 
0 0 0 
0 0 0 
0 0 0 
0 0 0 
0 0 0 
0 0 0 
0 0 0 
0 0 0 
0 0 0 
0.06419906243760423 -0.06343545372578452 0 
0.06419906243760423 -0.06343545372578452 0 
0.06419906243760423 -0.06343545372578452 0 
0.007067605520591037 -0.02139767577553456 0 
0.1457238268060187 -0.1515381018796523 0 
0 0 0 
-0.3780697961591341 0.3812733108908709 0 
0 0 0 
0 0 0 
0.02671443828399632 -0.02585088195420936 0 
0.02671443828399632 -0.02585088195420936 0 
0.02671443828399632 -0.02585088195420936 0 
0 0 0 
0 0 0 
0 0 0 
0 0 0 
0 0 0 
0 0 0 
0 0 0 
-8.673617379884035e-18 2.168404344971009e-19 0 
0 0 0 
0 0 0 
0 0 0 
0 0 0 
0 0 0 
0 0 0 
0 0 0 
0 0 0 
-3.469446951953614e-18 4.336808689942018e-19 0 
0.02228819955667992 -0.02020578373742208 0 
0.02228819955667992 -0.02020578373742208 0 
-0.2373780139840189 0.2364818642592885 0 
0 0 0 
0 0 0 
0.06049418730486628 -0.02442703389536674 0 
-0.6107949533507331 0.61746748522155 0 
-0.1674053715706 0.18206686111092 0 
-0.6484382843665514 0.6534541550385616 0 
-0.1479830797248386 0.156504468730013 0 
-0.1429676945818857 0.1523325027501034 0 
0 0 0 
0 0 0 
0 0 0 
0 0 0 
-1.040834085586084e-17 0 0 
0 0 0 
0.2994802786676006 -0.2978191951738817 0 
0.2994802786676006 -0.2978191951738817 0 
0.08432850203278443 -0.09032229650600498 0 
-0.3663249493059675 0.3660668807522931 -0.005223387961060853 
-0.1880284676606837 0.1858942634093629 -0.005223387961060853 
0 0 0 
0.01231635211513622 -0.01111437636266757 0 
0.07611838433278223 -0.07811730170008861 0 
0 0 0 
0 0 0 
0 0 0 
0.03618567692468084 -0.03559866961209541 -0.002587887251148615 
0.05972071116998237 -0.0609985191559466 -0.002587887251148615 
0.03618567692468084 -0.03559866961209541 -0.002587887251148615 
0.03618567692468084 -0.03559866961209541 -0.002587887251148615 
0.03618567692468084 -0.03559866961209541 -0.002587887251148615 
-0.03649739689176267 0.03742947849583515 0 
1.084202172485504e-19 0 0 
-6.505213034913027e-19 -5.204170427930421e-18 0 
0 0 0 
0 0 0 
0 0 0 
0 0 0 
0 0 0 
-0.08071389653605271 0.07827395576459846 0 
-0.1245585409313525 0.1212170806972705 0 
-0.1245585409313525 0.1212170806972705 0 
0.03936059064951604 -0.03858399550763151 0 
-0.135108996109887 0.1324151573324649 0 
0 0 0 
0 0 0 
-0.2218171051234741 0.2221892767370963 0 
-0.4229312743168824 0.421815284602139 0 
0 0 0 
-0.09733182401364493 0.09663520153631783 0 
0.01621193034020277 -0.0134690233407106 -0.005295900776348102 
-0.09733182401364493 0.09663520153631783 0 
0 0 -0.01578221561756726 
0 0 -0.01578221561756726 
0 0 -0.01578221561756726 
0 0 0 
0 0 0 
0 0 0 
0 0 0 
0 0 0 
0 0 0 
0 0 0 
0 0 0 
0.02607185295597398 -0.04741979740319197 0 
-0.05098763264812933 0.05262824868561334 0 
0 0 0 
0 0 0 
0 0 0 
0 0 0 
0 0 0 
0.05106010332618711 -0.05367588168990303 0 
-0.08708832655759746 0.08597422853637096 0 
0 0 0 
0.07493878905663252 -0.05105378406580154 -0.01487402415135521 
0 0 0 
0 0 0 
0.004464269045955778 -0.006089279256583591 0 
0 0 0 
0 0 -0.004255954973363575 
0 0 -0.004255954973363575 
0 0 0 
0.1067025661745869 -0.1076639480896779 -0.01174032346951047 
0 0 -0.01174032346951047 
0 0 0 
0 0 0 
0 0 0 
0 0 0 
0.05731898304646892 -0.05952286114313123 0 
0 0 0 
0 0 0 
-0.03505543701500651 0.03200833282214538 0 
0.002203240565175332 0.01330949832880076 -0.01358751539160487 
-0.03505543701500651 0.03200833282214538 0 
0 0 0 
0.02997277744487883 -0.0287190102240993 0 
0 0 0 
0.02970341454827553 -0.02909322536246336 0 
0.02970341454827553 -0.02909322536246336 0 
0.02970341454827553 -0.02909322536246336 0 
0 0 0 
0.05194740313857513 -0.05460662643873668 0 
0 0 0 
0.04605517457048405 -0.04816424563832485 0 
0 0 0 
0 0 0 
0 0 0 
0 0 0 
0 0 0 
0 0 0 
0 0 0 
0 0 0 
0 0 0 
0 0 0 
0 0 0 
-0.03161027620864575 0.03442216753280215 0 
-0.03161027620864575 0.03442216753280215 0 
-0.03161027620864575 0.03442216753280215 0 
-0.03161027620864574 0.03442216753280215 0 
0.02544031328234593 -0.0268276978701825 0 
0 0 0 
0.08045169322960537 -0.07825255322362573 0 
0.03038125813133843 -0.02912070326574954 0 
-0.03078135731273445 0.02566971825908291 0 
0 -3.469446951953614e-18 0 
-0.1827148798801639 0.1809100640313655 0 
0.09163193905078097 -0.09252578648153803 0 
0.09163193905078097 -0.09252578648153803 0 
0 0 0 
0 0 0 
0 0 0 
0 0 0 
8.673617379884035e-19 0 0 
0 0 0 
0 0 0 
0 0 0 
-0.05077612390769756 0.04858648486501168 0 
0 0 0 
-0.05077612390769756 0.04858648486501167 0 
0 0 0 
0 0 0 
0 0 0 
0 0 0 
0 0 0 
0 0 0 
0 0 0 
0 0 0 
0.0139175162640353 -0.01936658967575732 0 
0.01391751626403531 -0.01936658967575732 0 
0.01391751626403531 -0.01936658967575732 0 
0.01391751626403531 -0.01936658967575732 0 
0.03278396383261865 -0.03665130164923848 0 
0.01370271320455185 -0.01781312788370259 0 
0 0 0 
0 -0.005956735321723657 0 
0 0 0 
0 0 0 
0 0 0 
0 0 0 
0.02946178595474081 -0.02738317444069181 0 
0 0 0 
0 0 0 
0.06315702252706462 -0.06673258538884588 0 
0.06340619097250813 -0.06210904484349417 0 
0.04571887117681223 -0.04228370924832119 0 
0.04571887117681223 -0.04228370924832119 0 
0.1390774923890458 -0.1384051823913999 0 
0.1390774923890458 -0.1384051823913999 0 
0 0 0 
0 0 0 
-0.03523855211221936 0.02461983960266796 0 
0.02208762205178186 -0.02215866400765491 0 
0 0 0 
0 0 0 
0 0 0 
-0.2460932024516998 0.2460386820573686 0 
-0.2460932024516998 0.2460386820573686 0 
2.168404344971009e-18 0 0 
0.04546422688710397 -0.0368382109420342 -0.002085315164840707 
0 0 0 
0 0 0 
0 0 0 
0 0 0 
0.03949503558963409 -0.04211326772255409 0 
-0.04676646763357159 0.0470162958916666 0 
-0.04676646763357159 0.0470162958916666 0 
-0.04676646763357159 0.0470162958916666 0 
0.1146410063186441 -0.1116305720778495 0 
0.1146410063186441 -0.1116305720778495 0 
0 0 0 
0.09230983133359016 -0.09010533874182106 0 
-0.3192480849525145 0.3237306258603929 0 
-0.4583255773415601 0.4621358082517929 0 
-0.4583255773415601 0.4621358082517929 0 
0.004464269045955778 -0.006089279256583592 0 
0.07358673808092539 -0.07226001352711706 0 
0.004464269045955778 -0.006089279256583592 0 
-0.143628950375596 0.1442736534626438 0 
-0.1113130975931088 0.1115212325575244 0 
0.004464269045955778 -0.006089279256583592 0 
0.01334345829999774 -0.01291056486396707 0 
0.01529598061765337 -0.01421953183641843 0 
0 0 0 
0.01334345829999774 -0.01291056486396707 0 
0.00711583287030519 -0.00497182514874233 0 
0.00711583287030519 -0.00497182514874233 0 
0.00711583287030519 -0.00497182514874233 0 
0.01236552372577196 -0.01139898751290755 0 
-0.1784301291301942 0.1806163185882977 0 
-0.6413704024414956 0.6373254317866722 -0.003056144084813567 
-0.1784301291301942 0.1806163185882977 0 
-0.1784301291301942 0.1806163185882977 0 
0 0 0 
0 0 0 
0 0 0 
0.06511135410292912 -0.07040234338175695 -0.003117219447458991 
0.06399039450713297 -0.06901752257006009 -0.003117219447458991 
0 0 0 
0 0 0 
0 0 0 
0.1013365153870232 -0.1061617633907998 0 
0 0 0 
0 0 0 
0.1466002262786825 -0.1441824703205 0 
0.1466002262786825 -0.1441824703205 0 
0.0914561296577024 -0.09204167675299603 0 
0 0 0 
0 0 0 
0.008758662474213533 -0.01474117423772304 0 
0.008758662474213533 -0.01474117423772304 0 
-0.02052046990645431 0.02634941046648274 0 
-0.1865841031994306 0.1907887454602711 0 
-0.07470035720784213 0.07529356937242494 0 
-0.07470035720784213 0.07529356937242494 0 
-0.07470035720784213 0.07529356937242494 0 
0.003280991934359532 -0.003087610412941973 -0.005295900776348102 
0.003280991934359532 -0.003087610412941973 -0.005295900776348102 
0.003280991934359532 -0.003087610412941973 -0.005295900776348102 
0 0 0 
0.02383572358459945 -0.02276767904054804 -0.0007804462665063354 
0 0 0 
0 0 0 
-0.04390339510904856 0.04582870205887773 0 
0 0 -0.001116328934706361 
0 0 0 
0 0 0 
0 0 0 
0 0 0 
0 0 0 
0.03645160537085847 -0.04072543293533638 0 
0 0 0 
0 0 0 
0 0 0 
0 0 0 
0 0 0 
0 0 0 
0.07041712928578824 -0.0702940468747079 0 
-0.0516816989929096 0.05093916251567551 0 
0 0 0 
0 0 0 
0 0 0 
0 0 0 
0 0 0 
0 0 0 
0 0 0 
0 0 0 
0 0 0 
0 0 0 
0 0 0 
0 0 -0.01301510786537424 
0 0 -0.01301510786537424 
0 0 -0.01301510786537424 
-0.2386106729618036 0.2372281912540525 0 
-0.2386106729618036 0.2372281912540525 0 
-0.2386106729618036 0.2372281912540525 0 
-0.2386106729618036 0.2372281912540525 0 
-0.2386106729618036 0.2372281912540525 0 
-0.03867260485499305 0.02768900772427599 0 
-0.03867260485499305 0.02768900772427599 0 
-0.5291376557301775 0.5323898553177249 0 
-0.2090322386909891 0.2043464387856245 0 
-0.3045173191616957 0.3021936368996699 0 
0 0 0 
-0.08859878502002028 0.08666781354803017 0 
-0.384862133399372 0.3843200829286091 0 
-0.384862133399372 0.3843200829286091 0 
0.09333102378416609 -0.0972096572247709 0 
0 0 0 
0 0 0 
0 0 0 
0.2104223863649362 -0.2128971698960999 0 
0 0 0 
-0.02545631182276472 0.02459898372884448 0 
-0.02545631182276473 0.02459898372884448 0 
-0.02545631182276472 0.02459898372884448 0 
0 0 0 
0 0 0 
-0.2371938069969268 0.2351327333962159 0 
-0.2371938069969268 0.2351327333962159 0 
-0.3267953553942271 0.3201496494699906 0 
-0.2371938069969268 0.2351327333962159 0 
-0.2371938069969268 0.2351327333962159 0 
0 0 0 
0 0 0 
0 0 0 
0 0 0 
0 0 0 
0 0 0 
0 0 0 
0 0 0 
0 0 0 
0 0 0 
0 0 0 
0 0 0 
0.001723611674996958 -0.0003340140287910791 0 
0 0 0 
0 0 0 
0 0 0 
0 0 0 
0 0 0 
0 0 0 
0 0 0 
0.01148066465690798 -0.01869883449334462 0 
0.01148066465690798 -0.01869883449334462 0 
0 0 0 
-0.07336136027435097 0.06627093533651147 0 
0 0 0 
0 0 0 
0 0 0 
0.0622472216910984 -0.06339503419262058 0 
0 0 0 
0 0 0 
0 0 0 
0.02021836898309709 -0.01855367756482202 0 
0.02021836898309709 -0.01855367756482202 0 
0.02021836898309709 -0.01855367756482202 0 
0.02021836898309709 -0.01855367756482202 0 
0 0 0 
0 0 0 
0 0 0 
0 0 0 
0 0 0 
0 0 0 
0 -8.673617379884035e-19 0 
0 0 0 
0 0 0 
0 0 0 
0 -7.748657511413163e-05 0 
0.1977058519701854 -0.1927995650432772 0 
0 0 0 
0 0 0 
0 0 0 
0 0 0 
0 0 0 
0 0 0 
0 0 0 
0.00716676138415746 -0.007034975327661147 0 
0.00716676138415746 -0.007034975327661147 0 
0.06224722169109843 -0.06339503419262058 0 
0.06224722169109843 -0.06339503419262058 0 
0 0 0 
0.03061691568591939 -0.03224488519876888 0 
0.07628092951773231 -0.07714234740173681 0 
0.07628092951773231 -0.07714234740173681 0 
0.07628092951773231 -0.07714234740173681 0 
0.07628092951773231 -0.07714234740173681 0 
0 0 0 
0 0 0 
0 0 0 
-0.2603265520573521 0.2609323409220389 0 
-0.2603265520573521 0.2609323409220389 0 
-0.2603265520573521 0.2609323409220389 0 
-0.2603265520573521 0.2609323409220389 0 
0 0 0 
0 0 0 
-0.182793988201568 0.1804733023079957 0 
-0.09214624762270417 0.09100332669607478 0 
0 0 0 
0.01599036424297718 -0.01732600956389537 0 
0.01599036424297718 -0.01732600956389537 0 
0.01599036424297718 -0.01732600956389537 0 
0 0 0 
0 0 0 
0 0 0 
0 0 0 
0 0 0 
0 0 0 
0 0 0 
0 0 0 
0 0 0 
0 0 0 
0.04129489423851674 -0.0410717558658328 0 
0.04129489423851674 -0.0410717558658328 0 
0.04129489423851674 -0.0410717558658328 0 
0.04129489423851674 -0.0410717558658328 0 
0.04129489423851674 -0.0410717558658328 0 
0.04129489423851674 -0.0410717558658328 0 
0.04129489423851674 -0.0410717558658328 0 
-0.05215452357143884 0.04759424825975046 0 
-0.05215452357143884 0.04759424825975046 0 
0.001254343480135686 -0.005202241335680147 -0.000150091061190139 
-0.05215452357143884 0.04759424825975046 0 
0.1337086419195007 -0.1324523438075397 -0.002030548682623317 
0.1337086419195007 -0.1324523438075397 -0.002030548682623317 
0.1337086419195007 -0.1324523438075397 -0.002030548682623317 
0.1337086419195007 -0.1324523438075397 -0.002030548682623317 
0 0 0 
-0.009436738841193401 0.008746477094340758 0 
-0.009436738841193401 0.008746477094340758 0 
-0.009436738841193401 0.008746477094340758 0 
-0.009436738841193401 0.008746477094340758 0 
0 0 0 
0 0 0 
0.09333102378416608 -0.0972096572247709 0 
0 0 0 
0 0 0 
1.734723475976807e-18 -6.938893903907228e-18 0 
0 0 0 
0 0 0 
0.003558329063374234 0 0 
0.003558329063374234 0 0 
0 0 0 
0 0 0 
0 0 0 
0 0 0 
0 0 0 
0 0 0 
0 0 0 
0 0 0 
0 0 0 
0 0 0 
-0.1748118686849186 0.1705938556591735 0 
-0.1055042332194756 0.1023355938795211 0 
-0.1055042332194756 0.1023355938795211 0 
0.01391964679191127 -0.01183484292415742 0 
-0.05677274897872949 0.04722339263693504 0 
0.0889729471921316 -0.08854751612794987 0 
0 0 0 
0 0 0 
0 -0.0052596138134152 0 
0 -0.0052596138134152 0 
0 0 0 
0 0 0 
0 0 0 
0 0 0 
0 0 0 
0 0 0 
0 0 0 
0 0 0 
0.001907991002098455 0 -0.004736768519360094 
0.05626345943815995 -0.05818556081356253 -0.006717922527754962 
0 0 0 
0 0 0 
0.03910420300572876 -0.03899061729906048 0 
0 0 0 
0 0 0 
0 0 0 
0 0 0 
-0.1073229864053131 0.1050712555375326 0 
-0.1073229864053131 0.1050712555375326 0 
0 0 0 
0 0 0 
0 0 0 
0.02443767698871439 -0.02973435836081656 0 
-0.2963311328501098 0.3023366348545911 0 
-0.2963311328501098 0.3023366348545911 0 
0 0 0 
0 -4.336808689942018e-19 0 
0.04254225276258917 -0.04000656520141535 0 
0 0 0 
0 0 0 
0 0 0 
0 0 0 
0 0 0 
0.03828205363067429 -0.03663099640570406 0 
0 0 0 
3.469446951953614e-18 0 0 
0 0 0 
0 0 0 
0.1109821522764405 -0.1120461267538457 0 
0.02748968286427986 -0.02791940702014153 0 
0.1109821522764405 -0.1120461267538457 0 
0.02748968286427986 -0.02791940702014153 0 
0 0 0 
0 0 0 
0 0 0 
0 0 0 
0 0 0 
0 0 0 
0 0 0 
0 0 0 
0.01334619163298407 -0.01504643352670475 0 
0.01334619163298407 -0.01504643352670475 0 
0 0 0 
0 0 0 
0 0 0 
0 0 0 
0.04676471932206963 -0.05104487335736295 0 
0.04676471932206963 -0.05104487335736295 0 
0.04676471932206963 -0.05104487335736295 0 
0.07258917388157433 -0.07170034863625628 0 
0 0 0 
0 0 0 
0 0 0 
0 0 0 
0 0 0 
0 0 0 
0 0 0 
0.01933774092676756 -0.01626196160740997 0 
-0.08810264556333117 0.08953229584611873 0 
0 0 0 
0 0 0 
0 0 0 
0 0 0 
0 -1.734723475976807e-18 0 
0.03454594009668638 -0.0332128250948526 0 
0.03454594009668638 -0.0332128250948526 0 
0.07392862320655388 -0.07724713224621525 0 
0.04753891004914646 -0.00967072916410663 -0.01487402415135521 
-0.6429318060216295 0.6363954452020659 0 
-0.6429318060216295 0.6363954452020659 0 
0 0 0 
0 0 0 
0 0 0 
0 0 0 
0.07234458060807512 -0.07027954496466284 0 
0.05604250835096163 -0.05480332621702259 0 
0 0 0 
0 0 0 
0.07419585861692309 -0.07347196073168406 0 
0 0 0 
0 0 0 
0 0 0 
0.1390898886223379 -0.139212168714255 0 
0.1390898886223379 -0.139212168714255 0 
0.0906426291886966 -0.09169433763628951 0 
0.0906426291886966 -0.09169433763628951 0 
0 0 0 
0 0 0 
0 0 0 
0 0 0 
0 0 0 
0 0 0 
0 0 0 
0 0 0 
0 0 0 
0 0 0 
0 0 0 
0 0 -0.003513548764301997 
0 0 0 
-0.1882307127695798 0.1864937003326731 0 
-0.0371832215246627 0.03743753564585189 0 
-0.07006494637465084 0.07108434494481693 0 
0.01960825751783035 -0.01756909658522952 0 
0.01960825751783035 -0.01756909658522952 0 
0.01960825751783035 -0.01756909658522952 0 
0 0 0 
0 0 0 
0.01756995920187916 -0.01791440564405675 0 
0.01756995920187916 -0.01791440564405675 0 
0.01756995920187916 -0.01791440564405675 0 
0 0 0 
0.0647859693054081 -0.06601503776506513 0 
0 0 -0.004285303245287007 
0 0 0 
0 0 0 
0 0 0 
0 0 0 
0 0 0 
0 0 0 
0 0 0 
0 0 0 
0 0 0 
0 0 0 
0 0 0 
0 0 0 
0.0376433310158177 -0.03598666981701122 0 
0.02673540317512357 -0.0269305368351122 0 
-0.06930763546544273 0.06825826177965254 0 
-0.06930763546544273 0.06825826177965254 0 
-0.06930763546544273 0.06825826177965254 0 
-0.01615951650079591 0.0174087529883596 0 
-0.01615951650079591 0.0174087529883596 0 
0 0 0 
0 0 0 
0 0 0 
0 0 0 
0 0 0 
0 0 0 
0 0 0 
0 0 0 
0 0 0 
-0.1059562340173841 0.08746998547836941 0 
0 0 0 
-0.06054107523832156 0.05899563665976298 0 
-0.06054107523832156 0.05899563665976298 0 
0 0 0 
0 0 0 
-0.5416896252195195 0.5477905636631889 0 
-0.6346677159796273 0.6234746172809399 0 
0.1991843306724787 -0.2087281835227882 0 
0 0 0 
0 0 0 
0 0 0 
0 0 0 
0 0 0 
0 0 0 
0.02244005982632051 -0.03049645269548058 0 
0.02244005982632051 -0.03049645269548058 0 
0.02244005982632051 -0.03049645269548058 0 
0 0 0 
0 0 0 
0 0 -0.001961955063622406 
-0.3225509901926912 0.3239694567275797 0 
-0.3225509901926912 0.3239694567275797 0 
-0.03734443607412713 0.03005333076364108 0 
-0.1022496045480248 0.1139273615424071 0 
0 0 -0.003746781732002375 
0.1047050906101579 -0.109136629683872 0 
0.1047050906101579 -0.109136629683872 0 
0.1047050906101579 -0.109136629683872 0 
0 0 0 
0.03005084030430906 -0.04372813195587109 0 
0.06066314174350638 -0.05778086690146896 0 
0.06066314174350638 -0.05778086690146896 0 
0.06066314174350638 -0.05778086690146896 0 
0.06066314174350638 -0.05778086690146896 0 
-1.734723475976807e-18 1.734723475976807e-18 0 
0 0 0 
0 0 0 
0 0 0 
0 0 0 
0 0 0 
0 0 0 
0 0 0 
0.09195694223982454 -0.09076106108408247 0 
0.002901949232156183 0 0 
0.002901949232156183 0 0 
0.002901949232156183 0 0 
0.002901949232156183 0 0 
0.004662357957912271 -0.007689267329307965 0 
0 0 0 
-0.1377567848908297 0.1373474803825771 0 
0 0 0 
0.2016370330226972 -0.2011932980657181 0 
0 0 0 
0 0 0 
0 0 0 
0 0 0 
0 0 0 
0 -4.336808689942018e-19 0 
0 0 0 
0 -4.336808689942018e-19 0 
0.00687549400229442 -0.01113521294966581 0 
0.00687549400229442 -0.01113521294966581 0 
-0.111530982934517 0.1099975068395353 0 
-0.111530982934517 0.1099975068395353 0 
0.09153433640832181 -0.08972862178160029 0 
0.09153433640832181 -0.08972862178160029 0 
0.05264726025426759 -0.05084380031759363 0 
0 0 0 
0.02721405700072366 -0.02595333556624403 0 
0.02721405700072366 -0.02595333556624403 0 
0.1300225180629561 -0.1286446220753063 0 
0.1300225180629561 -0.1286446220753063 0 
0 0 0 
0 0 0 
-0.08882929437119827 0.07331124069656569 0 
-0.08882929437119827 0.07331124069656569 0 
0 0 0 
0 0 0 
0 0 0 
0 0 0 
0.01466198304307518 -0.01600893962202029 0 
0 0 0 
0 0 0 
0 0 0 
0 0 0 
0 0 0 
0 0 0 
-0.1131310977770713 0.109428833510817 0 
0 0 0 
0 0 0 
0.0008237623883996134 -0.001768108414565666 0 
0.09477012986680736 -0.09496451253328426 0 
0 0 0 
0 0 0 
0 0 0 
0.02170030118597483 -0.02084490012406145 0 
0 0 0 
0.02170030118597483 -0.02084490012406145 0 
0 0 0 
0 0 0 
0 0 0 
0 0 0 
0 0 0 
-0.119677171007889 0.1183061184685884 0 
0.009620842412783659 -0.005178717613306274 0 
0.01986930234366389 -0.01566497178104191 0 
0.009620842412783659 -0.005178717613306274 0 
0 0 -0.004156342783382927 
0 0 0 
0.02469268728504902 -0.02555087758425137 0 
0 0 0 
0 0 0 
0 0 0 
0 0 0 
0 0 0 
0 0 0 
0 0 0 
0.01024845993088024 -0.01048625416773564 0 
0.06176420505179827 -0.01450457898810873 -0.01586245968492963 
0 0 0 
0 4.336808689942018e-18 0 
0 4.336808689942018e-19 0 
0 0 0 
0 0 0 
0 0 0 
0 0 -0.004285303245287007 
0 0 -0.004285303245287007 
0 0 0 
0 0 0 
0 0 0 
0.0210366941690982 -0.01998756190068962 0 
0.0210366941690982 -0.01998756190068962 0 
0 0 0 
0 0 0 
0 0 0 
0 0 0 
-0.0617291314458418 0.0613837689681915 0 
-0.0617291314458418 0.0613837689681915 0 
-0.0617291314458418 0.0613837689681915 0 
-0.2420777275997633 0.2432785708509169 0 
-0.03649803921937975 0.04113238265379933 0 
-0.03649803921937975 0.04113238265379933 0 
0 -0.007184933803769662 0 
0 0 0 
0 0 0 
0 0 0 
0.03393725147112218 -0.02881901075756831 0 
-0.02342676070021166 0.02400355620604732 0 
-0.02342676070021166 0.02400355620604732 0 
0.07897591398858034 -0.07676089145423909 0 
0.07041712928578824 -0.0702940468747079 -0.005409121064807064 
0 0 0 
0 0 0 
6.938893903907228e-18 0 0 
0 0 0 
-0.008010212387228738 0.01343807375432931 -0.003015167447279409 
-0.008010212387228738 0.01343807375432931 -0.003015167447279409 
-0.008010212387228738 0.01343807375432931 -0.003015167447279409 
0 0 0 
0 0 0 
0 0 0 
0 0 0 
0 0 0 
0 0 0 
0 0 0 
0.1390774923890458 -0.1384051823913999 0 
0.1390774923890458 -0.1384051823913999 0 
0 0 0 
0.003542229191821868 0 0 
0.1228438742848181 -0.1194496948070642 0 
0.003542229191821868 0 0 
0 0 0 
0.05340886705157453 -0.0527964895954306 -0.000150091061190139 
0.05340886705157453 -0.0527964895954306 -0.000150091061190139 
0 0 0 
0 0 0 
0 0 0 
0 0 0 
0 0 0 
0.009127282974985591 -0.007751233362315547 0 
0 0 0 
0 0 0 
0 0 -0.0005917784314445877 
0 0 -0.0005917784314445877 
0 0 -0.0005917784314445877 
0 0 0 
0 0 0 
0 0 0 
0.005020432652722021 -0.00446304069189929 0 
0 0 0 
0 0 0 
0 0 0 
0.001957758514676288 -0.003369663329793137 0 
0.001957758514676288 -0.003369663329793137 0 
0.001957758514676288 -0.003369663329793137 0 
0 0 0 
0 0 0 
0 0 0 
0.002570927531804429 -0.001338898845515864 0 
0 0 0 
0 0 0 
0.05298685405894407 -0.05132551880962582 0 
0.05298685405894407 -0.05132551880962582 0 
0 0 0 
0 0 0 
-0.01406183676709302 0.01735656373783864 0 
0.0693018133316613 -0.06965308563140925 -0.002132334509596184 
0 0 0 
0 0 0 
0 0 0 
0 0 0 
0 0 0 
0 0 0 
0.001952522317655634 -0.00130896697245137 0 
0.001952522317655634 -0.00130896697245137 0 
0.001952522317655634 -0.00130896697245137 0 
0.001952522317655634 -0.00130896697245137 0 
0.001952522317655634 -0.00130896697245137 0 
0.001952522317655634 -0.00130896697245137 0 
0.03691976724628233 -0.009762152509791677 -0.01606884485201585 
0.03691976724628233 -0.009762152509791677 -0.01606884485201585 
5.204170427930421e-18 -3.469446951953614e-18 0 
0 0 0 
0 0 0 
0 0 0 
-0.1822698993515663 0.1828727280884549 0 
-0.1822698993515663 0.1828727280884549 0 
-0.1822698993515663 0.1828727280884549 0 
0 0 0 
0 0 0 
0 0 0 
0 0 0 
0 0 0 
0 0 0 
0 0 0 
0 0 0 
0.05752912012911799 -0.06125057292041924 0 
0.05752912012911799 -0.06125057292041924 0 
0.05752912012911799 -0.06125057292041924 0 
0 0 0 
0.01334345829999774 -0.01291056486396707 0 
0 0 0 
0.09428134507401696 -0.09504575569969606 0 
0.09428134507401696 -0.09504575569969606 0 
0.0130277120475399 -0.009851865555039682 0 
0 0 0 
0 0 0 
0 0 0 
0 0 0 
0 0 0 
0 0 0 
0 0 0 
0.01564062461268629 -0.01279034680684714 0 
0.01564062461268629 -0.01279034680684714 0 
0.01564062461268629 -0.01279034680684714 -0.003354740574035799 
0 0 0 
0 0 0 
-0.09229090407119986 0.08797260920964697 0 
-0.09229090407119986 0.08797260920964697 0 
0 0 0 
-0.06648406740201931 0.06447019287218073 0 
0 0 0 
0 0 0 
0.0457997033574806 -0.04622420997720107 0 
0.0457997033574806 -0.04622420997720107 0 
0.07975258294370999 -0.08160141724302354 0 
0.0457997033574806 -0.04622420997720107 0 
0.09117233899985758 -0.09034238502948458 0 
0.09117233899985758 -0.09034238502948458 0 
0 0 0 
0.04935334823592979 -0.04547869038898904 -0.0001384038212035144 
0.04546422688710397 -0.0368382109420342 -0.003040791716495586 
0.04546422688710397 -0.0368382109420342 -0.002085315164840707 
0 0 0 
0 0 0 
-0.03505023717109542 0.03824519475669556 0 
0.0284189445891843 -0.02622544320734875 0 
0.0284189445891843 -0.02622544320734875 0 
0 0 0 
0 0 0 
0 0 0 
0 0 0 
0 0 0 
0 0 0 
-0.4227407453466502 0.4219983040082285 0 
-0.4227407453466502 0.4219983040082285 0 
-0.4227407453466502 0.4219983040082285 0 
0 0 0 
0 0 0 
0 0 0 
0.005249690855466794 -0.006427162364165218 0 
0.07023912565883708 -0.06984582713100418 0 
0.005249690855466794 -0.006427162364165218 0 
0.005249690855466794 -0.006427162364165218 0 
-0.05850558310000911 0.06105993599551209 0 
0.1197908985452745 -0.1191126813474179 0 
0 0 0 
0 0 0 
0 0 0 
0 0 0 
0 0 0 
0 0 0 
0 0 0 
0 0 0 
-0.1164118462099111 0.1167646496121893 0 
-0.1164118462099111 0.1167646496121893 0 
0.04322344185621611 -0.02002155730988654 0 
0.03682575291109555 -0.02002155730988654 0 
0 0 0 
0.01334345829999774 -0.01291056486396706 0 
