solver_type L2R_L2LOSS_SVC_DUAL
nr_class 3
label 1 2 3
nr_feature 2265
bias -1
w
-0.0684453454639858 0.08480323052090678 -0.04447678968370294 
0.1315918713883568 -0.1451057424244893 -0.001487374552130698 
0.3008690468585086 -0.3108404412580464 -0.299599191148733 
0.1049987541138819 -0.07450702269349162 -0.0622381131974199 
0 0 0 
0.01725125270736011 -0.02105724595710025 0 
0.01725125270736011 -0.02105724595710025 0 
0.1049987541138819 -0.07450702269349162 -0.0622381131974199 
0 0 0 
0.3008690468585086 -0.3108404412580464 -0.299599191148733 
0.1575304233646409 -0.1861994285397743 -0.1816207454714075 
0.06932298315785099 -0.03917128721377665 -0.1712702015917935 
0 0 0 
0.01160042397718884 0.02600406047619483 -0.1471666394475662 
-0.258825070161843 -0.001313160551044689 0.2715166949680943 
0.01062566561773385 -1.734723475976807e-18 -0.0208153770214369 
0.03769237430875651 -0.013125337496719 -0.05166986125558072 
0.01062566561773385 0 -0.0208153770214369 
0.01062566561773385 0 -0.0208153770214369 
0.01062566561773385 -0.0113309422779064 -0.0208153770214369 
0.0467023533065907 -0.0438542699988024 -0.02857418696411314 
0.02534260736698068 -0.01967225266405164 0 
-0.05754620265108333 0.07132893878188905 8.673617379884035e-19 
0.01333629100333742 -0.01066199729307715 -0.005131237800011542 
0 0 0 
0.04064821419926579 -0.03419128373629185 0 
0 0 0 
0.04808451738824645 -0.04751195175619406 0 
0 5.421010862427522e-20 0 
0 0 0 
0 5.421010862427522e-20 0 
0.01557220561752573 -0.02684654584475207 -0.001559457529220307 
0.1082484334576929 -0.100015578706317 -0.06861162004474153 
0.05058116472420773 -0.04979613395075301 -0.001765603742236388 
0.01321977716031493 -0.001205567786433818 -0.01065043987583728 
0.05058116472420773 -0.04979613395075301 0 
0.05058116472420773 -0.04979613395075301 0 
0.01020806566971405 0 0 
0.07234367462255126 -0.07664064627542048 -0.003524660420770647 
0.1745889165710763 -0.1733573889997211 -0.02740020592849807 
0.02196633516593752 -0.02855490069826577 0 
-0.1058364751105789 0.1068862553994174 -0.00263593610355461 
0.007915322590087837 -0.008340469747927612 0 
0.1172986810335477 -0.1164904258798538 -0.02740020592849807 
0.01834271480389638 -0.02568141329959425 0 
0.01834271480389638 -0.02568141329959425 0 
0 0 0 
0.1318095129451233 -0.03087629345836145 -0.09254442971285724 
0.03581616912595433 -0.02968090198959009 -0.0181125626128708 
0 0 0 
0.1318095129451233 -0.03087629345836145 -0.09254442971285724 
0.03470960913245102 -0.02968090198959009 0 
0 0 0 
0.08925273922296648 -0.0188506923808219 -0.0441978889291559 
-0.04764154724866826 0.009914675117033457 0.02746600832194759 
-1.734723475976807e-18 -2.168404344971009e-19 -0.00278660153941815 
0 0 0 
0.03528663089979961 -0.04177539426696461 0 
-0.04104253610992519 0.02835309818401233 -0.002757592823705534 
0.03528663089979961 -0.04177539426696461 0 
0.03528663089979961 -0.04177539426696461 0 
0 0 0 
0 0 0 
0.05993294846118279 -0.0480077721094421 0 
0 0 0 
0.02706670869102263 -0.001794395218812595 -0.03085448423414381 
0 0 0 
-0.2637919568364213 -0.001313160551044684 0.2801456020463959 
0.08897078579855712 -0.08285418690691683 -0.02723349998190256 
0.007203099114175475 0 -0.02723349998190256 
0 0 -0.02723349998190256 
0.04537628248636191 -0.03523456857033569 -0.02306797819758825 
0.02976841060828667 -0.03390513991959634 -0.001087152031652094 
0 -0.003899870045862818 0 
0 -0.003899870045862815 0 
0.04537628248636191 -0.03523456857033569 -0.02306797819758825 
0 -0.003899870045862818 0 
0 -0.003899870045862818 0 
0.03016346660287699 -0.03740300367862966 0 
0.02834277264413046 -0.02746064199518412 -0.006621986820441472 
0.01757310060025313 -0.03256825438566295 0 
0.01757310060025313 -0.03256825438566295 0 
0 0 0 
0 0 0 
0 0 0 
0.07778666209061828 -0.07429861159644734 -0.01732179566249551 
0.1233177984761587 -0.1068665649941484 -0.05762576349942856 
0 0 0 
0 0 0 
0.07778666209061828 -0.07429861159644734 -0.01732179566249551 
0 0 0 
0.002991707226591376 0.003267763358402118 -0.06256965469111317 
0.07650682849941587 -0.04540689246472115 -0.06900684414578565 
-0.004645931823631309 0.0179583096017904 -0.0363213543259808 
0 0 0 
0.02124869266721784 -0.02661467211727403 0 
0 0 0 
0 0 0 
0 0 0 
0 0 0 
0.05893535517632387 -0.06395951384706088 -0.01429642622499445 
0 0 0 
0.0265221599331423 -0.01909919673258546 -0.002716647668699619 
-0.09610158087193926 0.1064554411450263 -0.03444695697079783 
0.05466819332726471 -0.05945573651935847 0 
0 0 0 
0 0 0 
-0.04131296378980649 0.04667555544336757 -0.0008695839687603037 
0 0 0 
0.0437002698106305 -0.04035262366721458 -0.0008695839687603037 
0.04378363068001678 -0.03098763335578133 -0.00362098425224125 
0 0 0 
0.04378363068001678 -0.03098763335578133 -0.00362098425224125 
0 0 0 
0 0 0 
0 0 0 
0 0 0 
0 0 0 
0 0 0 
0 0 0 
0 0 0 
0 0 0 
0.1030501312089649 -0.0594571605396791 -0.07326944109639731 
0.07317823021532059 -0.06442574699012477 -0.01497548902243702 
0.007558893496318882 -0.006715536879225222 -0.001436410711935517 
0 0 0 
0.0731536507154974 -0.06442574699012474 -0.01149130447820644 
0 0 0 
0 0 0 
0.03912906811684508 -0.03107609520896483 -0.0162960956022369 
-8.673617379884035e-19 0 0 
0 0 0 
0.01157544169392019 -0.008418696913036034 -0.001448756911803956 
0 0 0 
0.08825506709357087 -0.08283585533312318 -0.0001400786713232152 
0.01901724187768037 -0.01648203262887532 -0.004201595796058112 
0 0 0 
0 0 0 
-8.673617379884035e-19 0 0 
0.001474900093965586 -0.007239129868751075 -0.0001361079400167531 
0 0 0 
0.0003480440781731696 0 0 
0 0 0 
0.1145212425104991 -0.09898839227527172 -0.05762576349942856 
0 0 0 
0 0 0 
0.09498619635444376 -0.09966505195515121 -0.01235093551812628 
0.05619927187539345 -0.06489159303761621 4.167402100491158e-18 
-2.49366499671666e-18 -0.002956982432528791 4.167402100491158e-18 
0 0 0 
0.01730363662094524 -0.01329994569130593 0 
0 0 0 
0.01730363662094524 -0.01329994569130593 0 
-0.197362758554456 0.1832005976310444 0 
0.08891224949035438 -0.09049582673159477 -0.004647069512618707 
0.004437821785482418 -0.006276003385600146 0 
0.03432367598400941 -0.03993605421782168 0 
0.004437821785482418 -0.006276003385600146 0 
0.004161946414640808 -0.01190888308904318 0 
0 0 0 
0 0 0 
0 0 0 
0.0006547055784244858 0 -7.911653875775749e-05 
0 0 -7.911653875775749e-05 
0.00134527508912303 0 -7.911653875775743e-05 
0 0 -7.911653875775749e-05 
0 0 0 
0 0 0 
0 0 0 
0 0 0 
0 0 0 
0 0 0 
0 0 0 
0.03100184869058661 -0.02312414137666666 -0.00278660153941815 
0.05140780793925676 -0.04695851498481439 -0.004016167797632355 
0.04164086892606868 -0.03405098720533067 -0.00278660153941815 
0 0 0 
0.03100184869058661 -0.02312414137666666 -0.00278660153941815 
0.01007785188773065 -0.007280629688142299 0 
0.01007785188773065 -0.007280629688142299 0 
0.01007785188773065 -0.007280629688142299 0 
0.01007785188773065 -0.007280629688142299 0 
-0.1834398786475049 0.192130914749411 -0.006570931537625746 
0.004942203277660926 -0.01078308187418697 0 
0.1231751792482357 -0.1166500910364981 -0.03210196985117453 
0.01395894540292083 -0.01293867912023615 0 
0.00494220327766093 -0.01078308187418697 0 
0.08902486088543293 -0.09296364621422044 -0.01677136532068613 
0.01767060257768871 -0.01485303455943268 -0.003905339151741855 
0 0 0 
0.03182499613502061 -0.02376200617515838 -0.01450815049972747 
0.00223193489040715 -0.000576916398048732 -0.004148376995904062 
0 0 0 
0 0 0 
0 0 0 
0.03502305398112405 -0.03922792582269347 -0.001226632647208631 
0.02876698457345231 -0.02589730816493463 -0.003687295767018111 
0 0 0 
0 0 0 
0.01543069357011489 -0.01523531087185746 0 
0 0 0 
0 0 0 
0 0 0 
0 0 0 
0 0 0 
0 0 0 
0.004990984662662283 -0.004540867919535872 0 
0 0 0 
0 0 0 
2.168404344971009e-19 0 0 
0 0 0 
0 0 0 
0.009891714457136158 -0.01456976385953437 0 
0 0 0 
0 0 0 
0 0 0 
-1.938011383317839e-18 -8.673617379884035e-19 -0.001559457529220307 
0 0 0 
0 0 0 
0 0 0 
0 0 0 
-0.2390005187094108 0.2386561603672955 0 
-0.2219062851562386 0.2147498477781856 0 
-0.2344176702907989 0.2077798669089341 0 
-0.2390005187094108 0.2386561603672955 0 
-0.2390005187094108 0.2386561603672955 0 
-0.2390005187094108 0.2386561603672955 0 
-0.2390005187094108 0.2386561603672955 0 
0.009048312770699438 1.084202172485504e-19 -0.00936934063633465 
0.009048312770699438 1.084202172485504e-19 -0.00936934063633465 
0.009048312770699438 -0.002774695550034813 -0.00936934063633465 
0.009048312770699438 1.084202172485504e-19 -0.00936934063633465 
0.009048312770699438 1.084202172485504e-19 -0.00936934063633465 
0.009048312770699438 1.084202172485504e-19 -0.00936934063633465 
0.05619927187539344 -0.06193461060508741 -0.01282168326430283 
0.0120554306802877 -0.01623499186335037 0 
0.05619927187539344 -0.06193461060508741 -0.01282168326430283 
0 0 0 
0 0 0 
0 0 0 
0 0 0 
0 0 0 
0 0 0 
0 0 0 
0.008455369963552043 -0.0002257275539817835 -0.001831831009739162 
0.0128752140129377 -0.008686591799086403 -0.001831831009739162 
0.03711372183203204 -0.04450239423898893 -0.002701414978499466 
0.008455369963552043 -0.0002257275539817835 -0.001831831009739162 
0.0128752140129377 -0.008686591799086403 -0.001831831009739162 
0.03711372183203204 -0.04450239423898893 -0.002701414978499466 
0 0 0 
0.04419917555976709 -0.04553143109740984 -0.01220116583143414 
0.01395894540292083 -0.02213609111045569 -0.001489130843691882 
0.03793067598051725 -0.03841794383967938 0 
0 0 0 
0.02255894402682127 -0.01523531087185746 -0.007098875807776069 
0 0 0 
0 0 0 
0.03559739420588354 -0.03006649429136933 -0.01673704511174678 
0.03559739420588354 -0.03006649429136933 -0.01673704511174678 
0.03559739420588354 -0.03006649429136933 -0.01673704511174678 
0.03559739420588354 -0.03006649429136933 -0.01673704511174678 
0.03559739420588354 -0.03006649429136933 -0.01673704511174678 
0.03559739420588354 -0.03006649429136933 -0.01673704511174678 
0.0421812981124165 -0.03498150224649473 -0.01041385321874783 
0 0 0 
0.02534260736698068 -0.01967225266405164 0 
0 0 0 
0 0 0 
0.001909943848629646 0 0 
0.06733484626884066 -0.05060985286403057 -0.01013102164449087 
0 0 0 
0 0 0 
0 0 0 
0.003642679155020641 -0.008988554163393687 0 
0.02181569069708234 -0.02019523400197656 -0.02219347717658478 
0.003642679155020641 -0.008988554163393687 0 
0.003642679155020641 -0.008988554163393687 0 
0.02181569069708234 -0.02019523400197656 -0.02219347717658478 
0.003642679155020641 -0.008988554163393687 0 
0.003642679155020641 -0.008988554163393687 0 
0.007266299517061794 -0.01186204156206518 0 
0.07427182945652316 0 -0.04149193582663578 
0.07427182945652315 -0.007106013212920375 -0.04226658588701251 
0.07427182945652316 0 -0.04149193582663578 
-0.2899601945672372 -0.001313160551044689 0.3154454267192224 
0.07427182945652316 0 -0.04149193582663578 
0.07427182945652316 0 -0.04149193582663578 
0 0 0 
0 0 0 
0 0 0 
0 0 0 
0 0 0 
0 0 0 
0 0 0 
0.01662202826941476 -0.006205708123655931 0 
0 0 0 
0 0 0 
0 0 0 
0 0 0 
0.0102921979219703 -0.001410102462381503 0 
0.04071503078330978 -0.03963142375184135 -0.003484184544230587 
0.0102921979219703 -0.001410102462381503 0 
0.0102921979219703 -0.001410102462381503 0 
0.04071503078330978 -0.03963142375184135 -0.003484184544230587 
0.0102921979219703 -0.001410102462381503 0 
0.0102921979219703 -0.001410102462381503 0 
-0.0346108696922891 0.0393736415656591 0 
0.03870231638112321 -0.03488786973316926 0 
0.03870231638112321 -0.03488786973316926 0 
0.03870231638112321 -0.03488786973316926 0 
0.03870231638112321 -0.03488786973316926 0 
0.03870231638112321 -0.03488786973316926 0 
0.03870231638112321 -0.03488786973316926 0 
0.03870231638112321 -0.03488786973316926 0 
0 0 0 
0.03734340899922973 -0.03463781789435821 0 
0 0 0 
0 0 0 
0.0161001790931848 -0.004874317464886151 -0.002878593185434016 
0 0 -0.001636605903190065 
0 0 -0.002878593185434014 
0 0 -0.001636605903190065 
0 -0.0009801599304131131 0 
0 0 0 
0 0 0 
0.0303815890882176 -0.02263155286180692 -0.02092175571661196 
0 0 0 
0 0 0 
0.1272266645265113 -0.01993898271705608 -0.09254442971285723 
0 0 0 
3.469446951953614e-18 -0.0004081074564489508 0 
0 0 0 
0 0 0 
0 0 0 
0 0 0 
-0.1163545900442277 0.1249515267830917 -0.02794685352082305 
0.01552118474106124 -0.01223220094498133 -0.0008959139650802539 
0.0245734034534038 -0.02610213426195501 0 
0.01412955978883467 -0.01223220094498132 0 
0.01552118474106124 -0.01223220094498133 0 
0.01412955978883467 -0.01223220094498132 0 
0.06501786021414208 -0.05901524784486824 -0.004606226969217027 
0 0 -0.001414994256639962 
0 0 0 
0.02133277861998732 -0.02265739829592878 -0.001865005605232697 
0.06501786021414208 -0.05901524784486824 -0.004606226969217027 
0 0 0 
0 0 0 
0 0 0 
0.01725125270736011 -0.02105724595710025 0 
0.01725125270736011 -0.02105724595710025 0 
0.01810743131861909 -0.02401422838962904 6.505213034913027e-19 
0.009204156513489884 -0.002911105566372443 0 
0.02466697784731456 -0.02506792923189532 -0.02111033669553678 
0 0 0 
0 0 0 
0.007522866133841867 -0.002467364084403895 -0.02111033669553678 
0 0 0 
-2.168404344971009e-19 0 -0.00140825801337294 
0.01527734828668166 -0.01018665958044846 -0.0153306045304884 
-2.168404344971009e-19 0 0 
6.505213034913027e-19 -1.517883041479706e-18 0 
0 0 -0.01013102164449087 
0.004258259024219395 -0.008229000292160329 -0.01013102164449087 
0 0 -0.01013102164449087 
0 0 0 
0 0 0 
0 0 0 
0 -1.734723475976807e-18 0 
-1.301042606982605e-18 -0.009197411990219536 -0.001489130843691882 
0.0454132017440874 -0.03488521580101718 -0.002984853857067174 
0 0 0 
0 0 0 
0 0 0 
0 0 0 
0.03726782356822662 -0.04965787030778934 -0.006252118782941513 
0.1309135621902052 -0.1287404792850816 -0.02794685352082306 
-0.154762483520459 0.1631160917067075 -0.01549212346846272 
0.07568564359005867 -0.07210771742648478 0 
0.1308725994794863 -0.1287404792850816 -0.02794685352082306 
0.1308725994794863 -0.1287404792850816 -0.02794685352082306 
-0.1638200223079102 0.1594070720308641 0 
0.03216713974191881 -0.03052835036895925 0 
0 0 0 
0.08897078579855715 -0.08285418690691683 0 
0.03216713974191881 -0.03052835036895925 0 
-0.05704391659573141 0.05124004202572494 -0.003781232622459227 
0.02821358291679333 -0.03413880085534918 -0.003484184544230586 
0 0 0 
0.02818900341697013 -0.03136410530531435 0 
0 0 0 
0.02818900341697014 -0.03136410530531435 0 
0.0326088474663558 -0.03982496955041896 0 
0.02818900341697014 -0.03136410530531435 0 
0.0326088474663558 -0.03982496955041896 0 
0.02818900341697014 -0.03136410530531435 0 
3.469446951953614e-18 0 -0.003203530410029325 
0.03032721876427665 -0.01797183026704339 -0.03172023223268745 
0.003919314580526724 0 -0.002570295327623719 
0 0 -0.003203530410029325 
0.002550479673825698 0 -0.002570295327623719 
0 0 -0.002570295327623719 
0 0 0 
0 0 0 
0 0 0 
0.05191325025285291 -0.05663276185859684 0 
0 0 0 
0.004812169659268792 -0.01118556963349346 0 
0 0 0 
0 0 0 
0 0 0 
0 0 0 
0 0 0 
0 0 0 
0.04056971346332845 -0.04383446445538281 0 
0 0 0 
0 0 0 
0.04056971346332845 -0.04383446445538281 0 
0 0 0 
0 0 -0.01153133854907718 
0.02126691766235814 -0.01902652540686012 -0.003905339151741856 
0 0 0 
0 0 0 
0 0 0 
0 0 0 
0 0 0 
0 0 0 
0 0 0 
0 0 0 
0 0 0 
0 0 0 
-0.02521273288830057 0.0260636546420899 -0.0005370468710156396 
0 0 0 
0 0 0 
0 0 0 
0 0 -2.168404344971009e-19 
0 0 -2.168404344971009e-19 
0 0 -2.168404344971009e-19 
0 0 -2.168404344971009e-19 
0.009376395410866526 -0.02821261990927908 0 
-8.673617379884035e-19 0 -0.01298233308520025 
0 0 0 
0 0 0 
0 0 0 
0.04971738983806259 -0.03451457120916226 -0.01418923619408041 
0 0 0 
0.029194135666416 -0.01633415230630507 -0.01418923619408041 
0.01898540605497047 -0.02182728070605507 -0.004149895135513557 
0.05347042402387463 -0.04524907643727559 -0.001414994256639961 
0 0 0 
0 0 0 
0.05347042402387463 -0.04524907643727559 -0.001414994256639961 
0 0 0 
0 0 0 
0 0 0 
0.0001681989939751815 0 -0.001436410711935517 
0.003300356869161061 0 -0.00140825801337294 
0 -2.168404344971009e-19 -0.01298233308520025 
0 0 0 
0.01455672945794747 -0.01633415230630507 0 
-0.1639824653345308 0.1636635150571692 0 
0.01455672945794747 -0.01633415230630507 0 
-0.2019228285289618 0.202881647818578 0 
-0.2375405293007145 0.2235899819211738 -0.000682740910671625 
0.004633108208493325 -0.01653921435017223 0 
0 -7.332743059588153e-05 0 
0 0 0 
0 0 0 
0 0 0 
-0.01630012134541282 0.02274512688075277 -0.001865005605232697 
0.00134527508912303 -4.743384504624082e-19 0 
0.00134527508912303 0 0 
0 0 0 
0 0 0 
0.02268451095210266 -0.0173740188149805 -0.0219394630596191 
0 0 0 
0 0 0 
0 0 0 
0 0 0 
0.003919314580526724 0 0 
0.03866689315118538 -0.04174383110727859 -0.002001282707585367 
0.004582848418611943 -0.03087629345836145 0 
0 0 0 
0.03055470977319505 -0.03958562659502149 0 
0 0 0 
0.1162373881518213 -0.1130271396016649 -0.01040137368116768 
0.05410938911622815 -0.03961751300076476 -0.03632135432598081 
0 0 0 
0.05410938911622814 -0.03961751300076476 -0.03632135432598081 
0.03423400799216275 -0.03864049828560268 0 
0 0 0 
0 -0.009197411990219536 -0.001489130843691882 
0 -0.009197411990219536 -0.001489130843691882 
0 -0.009197411990219536 -0.001489130843691882 
0 -0.009197411990219536 -0.001489130843691882 
0 -0.009197411990219536 -0.001489130843691882 
0 -0.009197411990219536 -0.001489130843691882 
0 0 0 
8.673617379884035e-19 0 0 
0 -0.002956982432528787 0 
0 -0.002956982432528787 0 
0 -0.002956982432528787 0 
0 -0.002956982432528787 0 
0 0 0 
0 0 0 
0 0 0 
0 0 0 
0 0 0 
0 0 0 
0 0 0 
0 0 0 
0.002734070485798649 -6.938893903907228e-18 0 
0.002718441474856452 -0.000576916398048732 -0.0002046849479457293 
0.0006547055784244858 0 0 
0 0 0 
0 0 0 
0 0 0 
0.04105997838506169 -0.03450798686761283 0 
8.673617379884035e-19 2.602085213965211e-18 0 
0.04105997838506169 -0.03450798686761283 0 
0 0 -0.00140825801337294 
0 0 0 
0.01236288267272932 -0.01529271489688724 0 
0 0 0 
0 0 0 
0.02124869266721784 -0.0287158494528185 -0.001443942032993433 
0.002938736846649822 -0.002467364084403895 0 
0 0 0 
0.02124869266721784 -0.02661467211727403 -0.001443942032993433 
0 0 0 
-0.2046198172455441 0.2103521265953793 0 
0 -0.0009801599304131131 0 
0 -0.0009801599304131131 0 
0.08536401802454485 -0.08620961063524761 -0.002940773864374073 
0.03278591648373806 -0.02649994923150616 -0.02306797819758825 
0 0 0 
0 0 0 
0 0 0 
0 0 0 
0.03734340899922973 -0.04174383110727858 -0.0007746500603767331 
0.0328365539134546 -0.05142559894999214 -0.000854700161773198 
0 0 0 
0.002660269625978898 -0.02010772231658655 0 
0.002660269625978898 -0.02010772231658655 0 
0.08386957390429092 -0.0669172680467745 -0.0228762180872564 
0.01611522811510108 -0.009597661622646731 0 
0.01219591353457436 -0.009597661622646731 0 
0.01219591353457436 -0.009597661622646731 0 
0.01219591353457436 -0.009597661622646731 0 
0 0 0 
0 0 0 
0.001642847904110288 -0.002875376232755381 0 
0.01110087534176921 -0.01542145329982078 0 
0 0 0 
0 0 0 
0 0 0 
0.0181730115420617 -0.01831269305150324 -0.0229681272369615 
-1.084202172485504e-18 0 0 
0 0 0 
0 0 0 
0 0 0 
0 0 0 
0 0 0 
0 0 0 
0.0334106657502735 -0.03510698827795278 0 
0.0190566473713132 -0.02243007717166318 -0.003333426886960731 
0.004990984662662283 -0.004540867919535872 0 
0.01419514117615217 -0.007670948088419984 0 
0.0190566473713132 -0.02243007717166318 -0.003333426886960731 
0.004990984662662283 -0.004540867919535872 0 
0 0 0 
0 0 0 
0.04742570505106186 -0.0305661203584169 -0.01505599896984783 
0 0 0 
0.02841968108761122 -0.0305661203584169 0 
0.05451185794294792 -0.06317613104111497 -0.002896383753637372 
0.009858051629186701 -0.01128014172623624 0 
0.02909867336829984 -0.03008483838340747 0 
0.02909867336829984 -0.03008483838340747 0 
0 0 0 
0.0002513157232411146 0 0 
0.01219541691933498 -0.01092684582866399 0 
0.0002513157232411146 0 0 
0.0002513157232411146 0 0 
0.0002513157232411146 0 0 
0.0002513157232411146 0 0 
0.02796972138965026 -0.002802211949229527 -0.00445666075698263 
0.01709423355317224 -0.01355553024161664 0 
0 0 0 
0 0 0 
0 -0.00242725776228305 0 
0 0 0 
0 -0.00242725776228305 0 
0 0 0 
0 0 0 
0 0 0 
0 0 0 
0.02616694822645738 -0.02503900501774903 0 
0 0 0 
0 0 0 
0.01365953983834665 -0.01788920925212731 0 
0 0 0 
0 0 0 
0 -0.0002189746025116703 0 
0 0 0 
0 0 0 
0 0 0 
0 0 0 
0.07073197832827974 -0.05620898798520908 -0.04619651554850179 
0 0 0 
0.004028459090578639 -0.004099778409550172 0 
0 0 -0.002774800470304636 
0 0 0 
0 0 0 
0 0 0 
0.002938736846649822 -0.002467364084403895 0 
0.002938736846649822 -0.002467364084403895 0 
0.002938736846649822 -0.002467364084403895 0 
0.002938736846649822 -0.002467364084403895 0 
0.002938736846649822 -0.002467364084403895 0 
0 0 0 
0.01900602396345063 0 -0.01505599896984783 
0.01463740620846853 0 -0.01418923619408041 
0 0 0 
0.02757236009431705 -0.01320238012510707 -0.00362098425224125 
0.008564929128728879 -0.01828618900235687 0 
0.008564929128728879 -0.01320238012510707 0 
0.008564929128728879 -0.01320238012510707 0 
0.008564929128728879 -0.01320238012510707 0 
0.0461066614591607 -0.04705062633451473 0 
0.04312273070163725 -0.04705062633451473 0 
0.03216713974191882 -0.03052835036895925 0 
0 0 0 
0 0 0 
0 0 0 
0 0 0 
0 0 0 
0.006356426979603718 -0.006059451326112342 -0.003302497873391616 
0 0 0 
0.03353939587503923 -0.02689069534705201 -0.01041385321874783 
0.0008197556174360239 -0.00193573237856716 0 
0 0 0 
0.03352468703357488 -0.02393187663953618 -0.01041385321874783 
0.03885763426526931 -0.02893552465891802 -0.0242570524888827 
0 0 0 
0 0 0 
0.01389290765546788 -0.01072813790663837 -0.001366711318531849 
0.03649090168564635 -0.04237853262677089 -0.0001400786713232152 
0.01256942350351221 -0.01072813790663837 -0.0001400786713232152 
0.01256942350351221 -0.01072813790663837 -0.0001400786713232152 
0.03649090168564635 -0.04237853262677089 -0.0001400786713232152 
0.01256942350351221 -0.01072813790663837 -0.0001400786713232152 
0.01256942350351221 -0.01072813790663837 -0.0001400786713232152 
0.01157544169392019 -0.01051987424858051 -0.001448756911803955 
0.01316418224705515 -0.01558672464404875 0 
0 -0.002101177335544471 0 
0 0 0 
0 0 0 
0 0 0 
0 0 0 
0.004419844049385655 -0.008460864245104619 0 
0.004419844049385655 -0.008460864245104619 0 
0.004419844049385655 -0.008460864245104619 0 
0.01500020975534505 -0.01096369439187464 0 
0 -0.005083808877249805 0 
0 -0.005083808877249805 0 
0 -0.005083808877249805 0 
0.01881494907427698 -0.007653100876650314 -0.007347942002445663 
0.01881494907427698 -0.01008035863893336 -0.007347942002445663 
0.01881494907427698 -0.007653100876650314 -0.007347942002445663 
0 0 0 
0 0 0 
0 0 0 
0.009149560694298443 -0.01160664917218582 0 
0.009149560694298443 -0.01160664917218582 0 
0.009149560694298443 -0.01160664917218582 0 
0.009149560694298443 -0.01160664917218582 0 
0.009149560694298443 -0.01160664917218582 0 
0.04161418250340812 -0.03643126254063669 -0.003905339151741855 
0 0 0 
0.01767060257768872 -0.01485303455943267 -0.003905339151741855 
0 0 0 
0.03793067598051725 -0.03841794383967938 0 
0.03793067598051725 -0.03841794383967938 0 
0.03793067598051725 -0.03841794383967938 0 
0 0 0 
0 0 0 
0 0 0 
0.001391624952226573 0 0 
0.001391624952226573 0 0 
0 0 0 
0 0 0 
0 0 0 
0 0 0 
0 0 0 
0 0 0 
0 0 0 
0 0 0 
0 0 0 
0 0 0 
0 0 0 
-0.06982230993776901 0.07205460588538452 0 
-0.7136014111005954 0.7218218800299319 -0.007373798654791435 
-0.06982230993776901 0.07205460588538452 0 
-0.06982230993776901 0.07205460588538452 0 
-0.06982230993776901 0.07205460588538452 0 
-0.7136014111005954 0.7218218800299319 -0.007373798654791435 
-0.06982230993776901 0.07205460588538452 0 
-0.06982230993776901 0.07205460588538452 0 
0.0120554306802877 -0.01623499186335037 0 
0.0120554306802877 -0.01623499186335037 0 
0.0120554306802877 -0.01623499186335037 0 
0 0 0 
0 0 0 
0 0 0 
0 0 0 
0 0 0 
0 0 0 
0 0 0 
0 0 0 
0 0 0 
0.04528065883405319 -0.03808844668021082 -0.009523422939733156 
0.03237093628556562 -0.0287349872111678 -0.00248243394790343 
0 0 0 
0 0 0 
0 0 0 
0 0 0 
0 0 0 
0 0 0 
0.01259036600262385 -0.004834749292966721 0 
0.001342445533572081 0 0 
0 0 0 
0.01259036600262385 -0.004834749292966721 0 
0.001342445533572081 0 0 
0 0 0 
0 0 0 
0 0 0 
0 0 0 
0 0 0 
0 0 0 
0 0 0 
0 0 0 
0 0 0 
0 0 0 
0 0 0 
0 0 0 
0 0 0 
0 0 0 
0 0 0 
0 0 0 
0 0 0 
0 0 0 
0 0 0 
0 0 0 
0 0 0 
0 0 0 
0 0 0 
0 0 0 
0 0 0 
0 0 0 
0 0 0 
0 0 0 
0 0 0 
0 0 0 
0 0 0 
0.006511302556537744 -0.01105538306057123 -0.0008959139650802537 
0.01479172519772438 -0.01431205586245156 -0.002716647668699619 
0.006511302556537744 -0.01105538306057123 0 
0.006511302556537744 -0.01105538306057123 0 
0.01479172519772438 -0.01431205586245156 -0.002716647668699619 
0.006511302556537742 -0.01105538306057123 0 
4.336808689942018e-19 0 0 
-1.734723475976807e-18 -0.0004081074564489508 0 
4.336808689942018e-19 0 0 
0 0 0 
0 0 0 
0 0 0 
0 0 0 
0.01831647291719562 -0.02029577076470692 -0.001226632647208634 
0 0 0 
0.001591413709559354 -0.01035078234749329 -0.002757592823705533 
0 0 0 
0 0 0 
0 0 0 
0 0 0 
0 0 0 
0 0 0 
0.07541591670652276 -0.07841516210226768 0 
0 0 0 
0 0 0 
0 0 0 
0.03433230656926907 -0.02900533028639234 -0.002984853857067174 
0 0 0 
0 0 0 
0 0 0 
0 0 0 
0 0 0 
0 0 0 
0.06156324295769156 -0.05985034299343275 -0.001436410711935514 
0.06156324295769156 -0.05985034299343275 -0.001436410711935514 
0.01240058122256631 -0.02412820183897348 -0.002757592823705533 
0.01240058122256631 -0.02412820183897347 -0.002757592823705533 
0 0 0 
0 0 0 
0.009109999465496184 -0.01181327545774904 0 
0 0 0 
0 0 0 
0 0 0 
0 0 0 
0 0 0 
0 0 0 
0 0 0 
0 0 0 
0 0 0 
0.01900602396345063 0 -0.003524660420770651 
0 0 0 
0 0 0 
0.003919314580526724 0 0 
0.003919314580526724 0 0 
0.003919314580526724 0 0 
0.05495568915057772 -0.04994206703936793 -0.001765603742236388 
0.03123763625236612 -0.02054930549163068 -0.002620303904009586 
0 0 -0.001765603742236388 
0 0 -0.001765603742236388 
0 0 0 
0 0 0 
0 0 0 
0 0 0 
0 0 0 
0.01020806566971405 0 0 
0 0 0 
0.03029041022582465 -0.03853652574659906 -0.0157347831469361 
0.001323484151955668 0 -0.001226632647208634 
0.03029041022582465 -0.03853652574659906 -0.0157347831469361 
0.001323484151955668 0 -0.001226632647208634 
0 0 0 
0 0 0 
0.01498090976644331 -0.0149508223349591 -0.002705953102520126 
0 0 0 
0.04780445167526107 -0.03659735706855994 -0.008201698202030004 
0 0 0 
0 0 0 
0 0 0 
0 0 -0.001559457529220306 
0 0 -0.001559457529220306 
0 0 -0.001559457529220306 
0 0 -0.001559457529220306 
0 0 -0.001559457529220306 
0 0 -0.01298233308520025 
0 0 -0.01298233308520025 
-0.07331318607341231 0.07426151129882835 0 
-0.07331318607341231 0.07426151129882835 0 
-0.05064559613201026 0.05694616945350737 0 
-0.07331318607341231 0.07426151129882835 0 
0 0 0 
0 0 0 
0 0 0 
0.008280422641186638 -0.003256672801880316 -0.002716647668699619 
0 0 0 
0 0 0 
0 0 0 
0 0 0 
0.003225925887952996 -0.00438558138449793 0 
0.003225925887952996 -0.00438558138449793 0 
0.003225925887952996 -0.00438558138449793 0 
0.003225925887952996 -0.00438558138449793 0 
0.003225925887952996 -0.00438558138449793 -0.001414994256639962 
0 0 0 
0 0 0 
0 0 0 
0 0 0 
0 0 0 
0 0 0 
0 0 0 
0 0 0 
0.0155742967601473 -0.004834749292966722 0 
0 0 0 
0 0 0 
0 0 0 
0 0 0 
0 0 0 
0 0 0 
0.004582848418611943 -0.03087629345836145 0 
0 0 0 
0 0 0 
0 0 0 
0 0 -0.003333426886960731 
0.0413299560515261 -0.03967788529667209 -0.004016167797632355 
0 0 -0.003333426886960731 
0.01859188831707868 -0.01639097807063532 -0.001706295648244635 
0.01855092560635974 -0.01639097807063532 0 
0.01855092560635974 -0.01639097807063532 0 
0.01855092560635974 -0.01639097807063532 0 
0.01855092560635974 -0.01639097807063532 0 
0 0 0 
0.006220847802937586 0 0 
0 0 -0.01004688279399819 
0 0 0 
0 0 -0.01004688279399819 
0 0 0 
0 0 0 
0 0 0 
0 0 0 
0.03056063480075994 -0.03047155441490262 -0.0008959139650802537 
0 0 -0.0008959139650802537 
0 0 -0.0008959139650802537 
0 0 -0.0008959139650802537 
0 0 0 
0 0 0 
0 0 0 
0 0 0 
0 0 0 
0 0 0 
0 0 -0.00278660153941815 
0 0 -0.00278660153941815 
0 0 -0.00278660153941815 
0 0 0 
0 0 0 
0 0 0 
0 0 0 
0 0 0 
0 0 0 
0 0 0 
0.01887297007612109 -0.01349978524182927 0 
-0.22801287713374 0.2438016852024935 -0.008424553370347726 
0.01887297007612109 -0.01349978524182927 0 
0 0 0 
0 0 0 
0 0 0 
0.01020806566971405 0 0 
0 0 0 
0 0 0 
0 -0.00544743092294245 0 
0 -0.00544743092294245 0 
0 0 0 
0 0 0 
0.008029774973494327 -0.01327169258623699 0 
0.008029774973494327 -0.01327169258623699 0 
0.008029774973494327 -0.01327169258623699 0 
0.008029774973494327 -0.01327169258623699 0 
0 0 0 
0 0 0 
0 0 0 
0 0 0 
0 0 0 
0.0004061228703042695 0 0 
0.0004061228703042695 0 0 
0.01509792729715365 -0.01648203262887532 -0.001414994256639962 
0.0004061228703042695 0 0 
0 0 0 
0 0 0 
0 0 0 
0 0 0 
0 0 0 
0 0 0 
0 0 0 
0 0 0 
0 0 0 
0.07541591670652276 -0.07841516210226769 0 
0 0 0 
0 0 0 
0 0 0 
0 0 0 
0 0 0 
0 0 0 
0 0 0 
0 0 0 
0 0 0 
0 0 0 
0.01730363662094524 -0.01329994569130593 0 
0.03813083582870162 -0.02571486184883316 -0.01325407837219156 
0.01730363662094524 -0.01329994569130593 0 
0.02771723622482343 -0.01950740377006954 -0.006627039186095782 
0.02771723622482343 -0.01950740377006954 -0.006627039186095782 
0.01041359960387818 -0.006207458078763613 -0.006627039186095782 
0.02797702221310793 -0.0247885009889049 -0.009523422939733156 
0.01041359960387818 -0.006207458078763613 -0.006627039186095782 
0 0 0 
0 0 0 
0 0 0 
0 0 0 
0 0 0 
0 0 0 
0 0 0 
0 0 0 
0 0 0 
0 0 0 
0.009858051629186701 -0.01128014172623624 0 
0 0 0 
0 0 0 
0 0 0 
0 0 0 
0 0 0 
0 0 0 
0 0 0 
0 0 0 
0 0 0 
0.05410938911622814 -0.03961751300076476 -0.03632135432598081 
0 0 0 
0 0 0 
0 -0.00242725776228305 0 
0 -0.00242725776228305 0 
0 0 0 
0 0 0 
0.01096461162269003 -0.01128014172623624 -0.0187457976952764 
0.009858051629186701 -0.01128014172623624 0 
0.009858051629186701 -0.01128014172623624 0 
0.009858051629186701 -0.01128014172623624 0 
0.01096461162269003 -0.01128014172623624 -0.0187457976952764 
0.009858051629186701 -0.01128014172623624 0 
0.009858051629186701 -0.01128014172623624 0 
0 0 0 
0.02415719346300474 -4.336808689942018e-19 -0.01669204110139013 
0 0 0 
0.02415719346300474 -4.336808689942018e-19 -0.01669204110139013 
0 0 0 
0.02415719346300474 0 -0.01669204110139013 
0.02415719346300474 0 -0.01669204110139013 
0.03213778180080466 -0.003805026284537905 -0.02061552715993552 
0.02415719346300474 0 -0.01669204110139013 
0.01092991630064339 -0.009935441718538296 0 
0.0006547055784244858 0 0 
0.0006547055784244858 0 0 
0.0006547055784244858 0 0 
0.0006547055784244858 0 0 
0.004258259024219395 -0.008229000292160329 0 
0.004258259024219395 -0.008229000292160329 0 
0.004258259024219395 -0.008229000292160329 0 
-0.03899969106353627 0.05126754175822789 0 
0.002550479673825698 -0.0002986780779927 0 
0.002550479673825698 0 0 
0 0 0 
0 0 0 
0.02124869266721784 -0.02661467211727403 0 
0.02124869266721784 -0.02661467211727403 0 
0 0 0 
0 0 0 
0 -0.0004081074564489508 0 
0 -0.0004081074564489508 0 
0 -0.0004081074564489508 0 
0 0 0 
0 0 0 
0.001106559993503324 0 -0.0181125626128708 
0.001106559993503324 0 -0.0181125626128708 
0.001106559993503324 0 -0.0181125626128708 
0 0 0 
0.006220847802937586 0 0 
0.006220847802937586 0 0 
0.006220847802937586 0 0 
0 0 0 
0 0 0 
0 0 0 
0.004942203277660932 -0.01078308187418697 0 
0.004942203277660932 -0.01078308187418697 0 
0.004942203277660932 -0.01078308187418697 0 
0.004942203277660932 -0.01078308187418697 0 
0 0 0 
0.004161946414640812 -0.01190888308904318 0 
0 0 0 
0.04056971346332845 -0.04383446445538281 0 
0 0 0 
0 0 0 
0 0 0 
0 0 0 
0 0 0 
0 0 0 
0 0 0 
0 0 0 
0 0 0 
0 0 0 
0 0 -0.003478953119500187 
0.008796555965659581 -0.007878172718876598 0 
0 0 0 
0.0008895903196728768 -0.00169110921126032 0 
0 0 0 
0 0 0 
0 0 0 
0 0 0 
0.01667321180015551 -0.01760214656239093 0 
0 0 0 
0.007759175100879034 -0.007959998089433791 0 
0 0 0 
0 0 0 
0 0 0 
0.01900743096558818 0 -0.00362098425224125 
0.01900743096558818 0 -0.00362098425224125 
0 0 0 
0 0 0 
0 0 0 
0.01670658106392842 -0.01893215505798655 0 
0.01670658106392842 -0.01893215505798655 0 
0.01670658106392842 -0.01893215505798655 0 
0.01670658106392842 -0.01893215505798655 0 
0.01670658106392842 -0.01893215505798655 0 
0.01670658106392842 -0.01893215505798655 0 
0.01670658106392842 -0.01893215505798655 0 
0 0 0 
0 0 0 
0 0 0 
0 -0.007106013212920375 -0.0007746500603767331 
0 -0.007106013212920375 -0.0007746500603767331 
0 -0.007106013212920375 -0.0007746500603767331 
0 -0.007106013212920375 -0.0007746500603767331 
-0.06221405497791413 0.04789115349597078 -0.0007746500603767343 
0 0 0 
-0.09281826382848168 0.09158359444209595 -0.0003062285566764434 
1.470884146433704e-05 -0.002958818707515836 0 
1.470884146433704e-05 -0.002958818707515836 0 
1.470884146433704e-05 -0.002958818707515836 0 
1.470884146433704e-05 -0.002958818707515836 0 
0 0 0 
0 0 0 
0 0 0 
0 0 0 
-0.1084866147723194 0.1069303249805624 0 
-0.1573602320423735 0.1612027186592941 0 
-0.1084866147723194 0.1069303249805624 0 
0 0 0 
0 0 0 
0.01662202826941476 -0.006205708123655932 0 
0 0 0 
0.005892113423470745 -0.01716606285674221 0 
0 -0.01229174539185606 0 
0 -0.01229174539185606 0 
0 -0.01229174539185606 0 
0.04605158656511667 -0.03157717243495781 -0.02270984870175747 
0.01786605073209978 -0.01082332705492224 -0.01450815049972747 
0.01786605073209978 -0.01082332705492224 -0.01450815049972747 
0.01786605073209978 -0.01082332705492224 -0.01450815049972747 
0.01786605073209978 -0.01082332705492224 -0.01450815049972747 
0.01786605073209978 -0.01082332705492224 -0.01450815049972747 
4.336808689942018e-19 0 0 
4.336808689942018e-19 0 0 
0 0 0 
0 0 0 
0 0 0 
0 0 0 
0 0 0 
0 0 0 
0 0 0 
0 0 0 
0.003623620362041149 -0.002873487398671502 0 
0.003623620362041149 -0.002873487398671502 0 
0.003623620362041149 -0.002873487398671502 0 
0.003623620362041149 -0.002873487398671502 0 
0.003623620362041149 -0.002873487398671502 0 
0.003623620362041149 -0.002873487398671502 0 
0.003623620362041149 -0.002873487398671502 0 
0.004028459090578639 -0.004099778409550172 0 
0.004028459090578639 -0.004099778409550172 0 
0.004028459090578639 -0.004099778409550172 0 
0 0 0 
0 0 0 
0 0 0 
0.01879404247328945 -0.01946098640632202 -0.002705953102520126 
0.01498090976644331 -0.0149508223349591 -0.002705953102520126 
0.01498090976644331 -0.0149508223349591 -0.002705953102520126 
0.01498090976644331 -0.0149508223349591 -0.002705953102520126 
0.01879404247328945 -0.01946098640632202 -0.002705953102520126 
0.01498090976644331 -0.0149508223349591 -0.002705953102520126 
0.01365953983834665 -0.01788920925212731 0 
0 0 0 
0.01141047547456528 -0.01061928136113151 0 
0 0 0 
0 0 0 
0 0 0 
0 0 0 
0.003300356869161061 0 0 
0 0 0 
0 0 0 
0.003300356869161061 0 0 
0 0 0 
0.02050945878766046 0 0 
0.02050945878766046 0 0 
0 0 0 
0 0 0 
0 0 0 
0 0 0 
0 0 0 
0.03433230656926907 -0.02900533028639234 -0.002984853857067174 
0.03433230656926907 -0.02900533028639234 -0.002984853857067174 
0.03433230656926907 -0.02900533028639234 -0.002984853857067174 
0.007673238781640671 -0.004768189043801476 -0.001865005605232697 
0.007673238781640671 -0.004768189043801476 -0.001865005605232697 
0.007673238781640671 -0.004768189043801476 -0.001865005605232697 
0.007673238781640671 -0.004768189043801476 -0.001865005605232697 
0 0 0 
0 0 0 
0.04056971346332845 -0.04383446445538281 0 
0.04056971346332845 -0.04383446445538281 0 
0.04056971346332845 -0.04383446445538281 0 
0.04056971346332845 -0.04383446445538281 0 
0.04056971346332845 -0.04383446445538281 0 
0 0 0 
0 0 0 
0 0 0 
0 0 0 
0 0 0 
0 0 0 
0 0 0 
0 0 0 
0 0 0 
0 0 0 
0 0 0 
0 0 0 
0 0 0 
0 0 0 
0.04553714763069963 -0.03266733946738543 0 
0 0 0 
0.0008561786112589759 0 0 
0.0008561786112589759 0 0 
0.0008561786112589759 0 0 
0 0 0 
0 0 0 
0 0 0 
0 0 0 
0 0 0 
0 0 0 
0 0 0 
0 0 0 
0.01365953983834665 -0.01788920925212731 0 
0.01365953983834665 -0.01788920925212731 0 
0 0 0 
0 0 0 
0 0 0 
0 0 0 
0 0 0 
-0.237005359497249 -0.001313160551044689 0.264392932833001 
0.1272266645265114 0 -0.09254442971285724 
-0.237005359497249 -0.001313160551044689 0.264392932833001 
0 0 0 
0 0 0 
0 0 0 
0.008087055912952109 -0.005595684924615568 -0.002896383753637372 
0 0 0 
0 0 0 
0.01259036600262385 -0.004834749292966721 0 
0 0 0 
0 0 0 
0 -7.332743059588218e-05 0 
0 0 0 
0 0 0 
4.096271071893278e-05 0 0 
0 0 0 
0.01492026414445137 -0.009161160108041149 0 
0.01108089517481833 -0.005879885514624836 0 
0.01108089517481833 -0.005879885514624836 0 
0.01108089517481833 -0.005879885514624836 0 
0 0 0 
0 0 0 
0 0 0 
0 0 0 
0 0 0 
-0.01741705596342325 0.0161272510473441 -0.0003062285566764434 
0 0 0 
0 0 0 
0 0 0 
0 0 0 
0.008280422641186638 -0.003256672801880316 -0.002716647668699619 
0.008280422641186638 -0.003256672801880316 -0.002716647668699619 
0 0 0 
0.05410938911622814 -0.03961751300076476 -0.03632135432598081 
0 0 0 
0 0 0 
0 0 0 
0 0 0 
0 0 0 
0.01849766502366661 -0.01646166339483757 -0.003687295767018111 
0.01333629100333742 -0.01066199729307715 -0.003687295767018111 
0.01849766502366661 -0.01646166339483757 -0.003687295767018111 
0.01333629100333742 -0.01066199729307715 -0.003687295767018111 
0.01333629100333742 -0.01066199729307715 -0.003687295767018111 
-1.734723475976807e-18 -8.673617379884035e-19 0 
0.02096046081100035 -0.01811570585003629 -0.00248243394790343 
0 0 0 
0.007460262601989806 -0.002802211949229527 -0.004456660756982629 
0 0 0 
0 0 0 
0 0 0 
-0.02521273288830057 0.0260636546420899 -0.0005370468710156396 
-0.1135764878757193 0.1099404245685954 -0.007067570098114993 
-0.02521273288830057 0.0260636546420899 -0.0005370468710156396 
-0.02521273288830057 0.0260636546420899 -0.0005370468710156396 
-0.02521273288830057 0.0260636546420899 -0.0005370468710156396 
0 0 0 
0 0 0 
0 0 0 
0 0 0 
0 0 0 
0 0 0 
0 0 0 
0.05410938911622814 -0.03961751300076476 -0.03632135432598081 
0 0 0 
0 0 0 
0 0 0 
-0.1235171470880458 0.1232149464673477 -0.0003062285566764434 
-0.092832972669946 0.09454241314961179 -0.0003062285566764434 
-0.03068417441809982 0.02867253331773594 0 
-0.03068417441809982 0.02867253331773594 0 
-0.03068417441809982 0.02867253331773594 0 
-0.03068417441809982 0.02867253331773594 0 
0 0 0 
0 0 0 
0 0 0 
0 0 0 
0 0 0 
0.02268451095210266 -0.0173740188149805 -0.0219394630596191 
0.02268451095210266 -0.0173740188149805 -0.0219394630596191 
0.02268451095210266 -0.0173740188149805 -0.0219394630596191 
0 0 0 
0 0 0 
0 0 0 
0 0 0 
0 0 0 
0 0 0 
0 0 0 
0 0 0 
0.002391747425255105 -0.009350934633871133 0 
0.02291500159690172 -0.02753135353672831 0 
0.002391747425255105 -0.009350934633871133 0 
0.002391747425255105 -0.009350934633871133 0 
0.02291500159690172 -0.02753135353672831 0 
0 0 0 
0 0 0 
0 0 0 
0 0 0 
0 0 0 
0 0 0 
0 0 0 
0 0 0 
0 0 0 
0 0 0 
0 0 0 
0 0 0 
0 0 0 
0 0 0 
0.004004496288527143 -0.006876458371095966 0 
0.004004496288527146 -0.006876458371095967 0 
0 0 0 
0 0 0 
0 0 0 
0 0 0 
0 0 -0.003478953119500187 
0 0 -0.003478953119500187 
0 0 -0.003478953119500187 
0 0 -0.003478953119500187 
0.02976841060828667 -0.03000526987373352 -0.007073386487175095 
0 0 0 
0 0 0 
0 0 0 
0 0 0 
0 0 0 
0 0 0 
0 0 0 
0 0 0 
0 0 0 
0 0 0 
0 0 0 
0 0 0 
0.01463740620846853 -0.0007408317788560081 -0.01418923619408041 
0 -0.0007408317788560081 0 
0 0 0 
0 0 0 
0 0 0 
0 0 0 
0 0 0 
-0.2080757127180901 0.1863631956116814 0 
0 0 0 
-0.2242387330877883 0.2271757982143168 0 
-0.2242387330877883 0.2271757982143168 0 
-0.2242387330877883 0.2271757982143168 0 
-0.2242387330877883 0.2271757982143168 0 
-0.2242387330877883 0.2271757982143168 0 
0 0 0 
0 0 0 
0 0 0 
0 0 0 
0 0 0 
0 0 0 
0 0 0 
0 0 0 
0 0 0 
0 0 0 
0.004584129287192043 -4.336808689942018e-19 -0.01833553622523214 
0.004584129287192043 -4.336808689942018e-19 -0.01833553622523214 
0.03278591648373806 -0.02649994923150616 -0.02306797819758825 
0.03278591648373806 -0.02649994923150616 -0.02306797819758825 
0.03278591648373806 -0.02649994923150616 -0.02306797819758825 
0 0 0 
0 0 0 
0 0 0 
0 0 0 
0 0 0 
0.01527734828668166 -0.01018665958044846 -0.0153306045304884 
0.01527734828668166 -0.01018665958044846 -0.0153306045304884 
0.01527734828668166 -0.01018665958044846 -0.0153306045304884 
0.01527734828668166 -0.01018665958044846 -0.0153306045304884 
0.01527734828668166 -0.01018665958044846 -0.0153306045304884 
0.01527734828668166 -0.01018665958044846 -0.0153306045304884 
0 0 0 
0 0 0 
0 0 0 
0 0 0 
0 0 0 
0 0 -0.00140825801337294 
0 0 -0.00140825801337294 
0 0 0 
0 0 0 
0 0 0 
0 0 0 
0 0 0 
0 -0.001794395218812595 0 
0 -0.001794395218812595 0 
0 -0.001794395218812595 0 
0 -0.001794395218812595 0 
0 -0.001794395218812595 0 
0 0 0 
0 0 0 
0 0 0 
0 0 0 
0 0 0 
0 0 0 
0 0 0 
0 0 0 
0 0 0 
0 0 0 
0 0 0 
0 0 0 
0.001342445533572081 0 0 
0 0 0 
0 0 0 
0 0 0 
0 0 0 
0 0 0 
0 0 0 
0 0 0 
0 0 0 
0 0 0 
0 0 0 
0 0 0 
0.01817301154206169 -0.01120667983858287 -0.02219347717658478 
0.01817301154206169 -0.01120667983858287 -0.02219347717658478 
0.01817301154206169 -0.01120667983858287 -0.02219347717658478 
0.01817301154206169 -0.01120667983858287 -0.02219347717658478 
0.01817301154206169 -0.01120667983858287 -0.02219347717658478 
0.009476366696277647 -0.01298535798552572 0 
0 0 0 
0 0 -0.01153133854907718 
0.01900602396345063 0 -0.01505599896984783 
0 0 0 
0 0 0 
0 0 0 
0.00349132489145987 -0.003281274593416314 0 
0.00349132489145987 -0.003281274593416315 0 
0 0 0 
0 0 0 
0 0 0 
0 0 0 
0.02923773872470051 -0.02357200237516033 0 
0.01141047547456528 -0.01061928136113151 0 
0 0 0 
0 0 0 
0 0 0 
0 0 0 
0 0 0 
0 0 0 
0 0 0 
0 0 0 
0 0 0 
0 0 0 
0.02340311131228485 -0.02164219003246554 0 
0.03293354171880505 -0.03232455655958047 0 
0.0008197556174360239 -0.00193573237856716 0 
0.02340311131228485 -0.02164219003246554 0 
0.01824173729195567 -0.01584252393070514 0 
0.01824173729195567 -0.01584252393070514 0 
0 0 0 
0 0 0 
0 0 0 
0 0 0 
0 0 0 
0 0 0 
0 0 0 
0 0 0 
0 0 0 
0 0 0 
0 0 0 
0 0 0 
-0.1215731305432169 0.1226138547346567 0 
0 0 0 
0 0 0 
0 0 0 
0 0 0 
0 0 0 
0 0 0 
0 0 0 
0 0 0 
0 0 0 
0 0 0 
0.02876850661098102 -0.03144997872583451 0 
0.02876850661098102 -0.03144997872583451 0 
0.03035992032054037 -0.03144997872583451 -0.002757592823705532 
0.02876850661098102 -0.03144997872583451 0 
0 0 0 
0 0 0 
0 0 0 
0 0 0 
0 0 0 
0 0 0 
0 0 0 
0 0 0 
0 0 0 
0.01463740620846853 0 -0.01418923619408041 
0 0 0 
0 0 0 
0 0 0 
0 0 0 
0 0 0 
0 0 0 
0 0 0 
0 0 0 
0 0 0 
0 0 0 
0 0 0 
0 0 0 
0 0 0 
0 0 0 
0 0 0 
0.02266758994140205 -0.01731534184532098 0 
0.02266758994140205 -0.01731534184532098 0 
0.02266758994140205 -0.01731534184532098 0 
-0.1033125348101127 0.1128062120945569 -0.006530523227099352 
-0.04291436596614299 0.0523550132592464 0 
-0.1033125348101127 0.1128062120945569 -0.006530523227099352 
-0.04291436596614299 0.0523550132592464 0 
0.01350774256147911 -0.01106652731742633 -0.003905339151741855 
0.01350774256147911 -0.01106652731742633 -0.003905339151741855 
0.01350774256147911 -0.01106652731742633 -0.003905339151741855 
0.01110087534176921 -0.01542145329982078 0 
0.01110087534176921 -0.01542145329982078 0 
0 0 0 
0 0 0 
0 0 0 
0 0 0 
0 0 0 
0 0 0 
0.002983930757523447 0 0 
0 0 0 
0 0 0 
0 0 0 
0 0 0 
0.004812169659268792 -0.01118556963349346 0 
0.02841968108761122 -0.03056612035841691 0 
0.004812169659268792 -0.01118556963349346 0 
0.004812169659268792 -0.01118556963349346 0 
0.02205867029349955 -0.01787617461765141 -0.003520675664970658 
0 0 0 
0.02205867029349955 -0.01787617461765141 -0.003520675664970658 
0 0 0 
0.02360751142834243 -0.01938055072492344 0 
0.02360751142834243 -0.01938055072492344 0 
0.01027521072221891 -0.009935441718538298 0 
0.01333230070612352 -0.009445109006385139 0 
0.01333230070612352 -0.009445109006385139 0 
0 0 0 
0 0 0 
0.01928195645761348 -0.008824916906976978 -0.0008695839687603037 
0.01928195645761348 -0.008824916906976978 -0.0008695839687603037 
0 0 0 
0 0 0 
0 0 0 
0.003300356869161061 0 0 
0 0 0 
0 0 0 
0.01217069277612877 -0.006435041288872833 0 
0 0 0 
0.02923773872470051 -0.02357200237516033 0 
0.02923773872470051 -0.02357200237516033 0 
0 0 0 
0 0 0 
0 0 0 
0 0 0 
0 0 0 
0.01469180442684938 -0.01648203262887532 0 
0.01469180442684938 -0.01648203262887532 0 
0 0 0 
0 0 0 
0 0 0 
0 0 0 
0 0 0 
0 0 0 
0 0 0 
0 0 0 
0 0 0 
0 0 0 
0 0 0 
0 0 0 
0 0 0 
0 0 0 
0 0 0 
0 0 0 
0 0 0 
0 0 0 
0 0 0 
0 0 0 
0 0 0 
0 0 0 
0 0 0 
0.005690672210517979 -0.005614470641804075 0 
0.005690672210517979 -0.005614470641804075 0 
0.00896437784709268 -0.005614470641804077 -0.02794685352082306 
0.005690672210517979 -0.005614470641804075 0 
0.005690672210517979 -0.005614470641804075 0 
0.005690672210517979 -0.005614470641804075 0 
0.009101398130997054 -0.01386993331697368 0 
0.009101398130997054 -0.01386993331697368 0 
0.009101398130997054 -0.01386993331697368 0 
0 0 0 
0 0 0 
0.01001664361429807 -0.009917865621854188 0 
0.01001664361429807 -0.009917865621854188 0 
0.01001664361429807 -0.009917865621854188 0 
0.01001664361429807 -0.009917865621854188 0 
0.01001664361429807 -0.009917865621854188 0 
0.007980588337799924 -0.003805026284537906 -0.003923486058545399 
0.007980588337799924 -0.003805026284537906 -0.003923486058545399 
0.007980588337799924 -0.003805026284537906 -0.003923486058545399 
0.007980588337799924 -0.003805026284537906 -0.003923486058545399 
0 0 0 
0 0 0 
0 0 0 
0 0 0 
0 0 0 
0 0 0 
0 0 0 
0 0 0 
0 0 0 
0 0 0 
0 0 0 
0 0 0 
0 0 0 
0 0 0 
0 0 0 
0.002063735896431967 -0.000576916398048732 -0.002711966283968545 
0.0005888358024663807 -0.000576916398048732 -6.857700792897603e-05 
0.0005888358024663807 -0.000576916398048732 -6.857700792897603e-05 
0.002063735896431967 -0.000576916398048732 -0.0002046849479457293 
0 0 0 
0.0281855358330169 -0.02075384538003557 -0.008201698202030004 
0 0 0 
0 0 0 
0 0 0 
0.003813132706846147 -0.004510164071362907 0 
0.003813132706846147 -0.004510164071362907 0 
0 0 0 
0 0 0 
0 0 0 
0 0 0 
0 0 0 
0 0 0 
0 0 0 
0 0 0 
0 0 0 
0 0 0 
0 0 0 
0.003491324891459871 -0.003281274593416315 0 
0 -0.0002986780779927 0 
0 0 0 
0 0 0 
0.04553714763069963 -0.03266733946738543 0 
0.04553714763069963 -0.03266733946738543 0 
0.04553714763069963 -0.03266733946738543 0 
0.04808451738824645 -0.04751195175619406 0 
0.04808451738824645 -0.04751195175619406 0 
0.1027527107155112 -0.1069676882755525 0 
0.04808451738824645 -0.04751195175619406 0 
0.05466819332726472 -0.05945573651935847 0 
0.05466819332726472 -0.05945573651935847 0 
4.096271071893278e-05 0 0 
4.096271071893278e-05 0 0 
4.096271071893278e-05 0 0 
0 0 0 
0 0 0 
0 0 0 
0 0 0 
0 0 0 
0 0 0 
0 0 0 
0 0 0 
0 0 0 
0 0 0 
0 0 0 
0 0 0 
0.01709423355317224 -0.01355553024161664 0 
0.01757310060025313 -0.03091430592518543 0 
0.0032737056365747 0 -0.02794685352082306 
0.0032737056365747 0 -0.02794685352082306 
0.0032737056365747 0 -0.02794685352082306 
0.02268451095210266 -0.0173740188149805 -0.0219394630596191 
0.02268451095210266 -0.0173740188149805 -0.0219394630596191 
0.02268451095210266 -0.0173740188149805 -0.0219394630596191 
0.01095559095971843 -0.0165222759655555 0 
0.01095559095971843 -0.0165222759655555 0 
0.01344013856885841 -0.01601763617913522 0 
0 0 0 
0.0281855358330169 -0.02075384538003557 -0.008201698202030004 
0.0281855358330169 -0.02075384538003557 -0.008201698202030004 
0.0281855358330169 -0.02075384538003557 -0.008201698202030004 
0.01237158045488585 -0.01704762382269503 0 
0.01237158045488585 -0.01704762382269503 0 
0.01237158045488585 -0.01704762382269503 0 
0 0 0 
0 0 0 
0 0 0 
0 0 0 
0.007915322590087837 -0.008340469747927615 0 
0.007915322590087837 -0.008340469747927615 0 
0.007915322590087837 -0.008340469747927615 0 
0 0 0 
0 0 0 
0 0 0 
0 0 0 
0 0 0 
0 0 0 
0 0 0 
0 0 0 
0 0 0 
0 0 0 
0 0 0 
0 0 0 
0 0 0 
0.00105376523737067 0 0 
0.00105376523737067 0 0 
0.00105376523737067 0 0 
0.00105376523737067 0 0 
0.02096046081100035 -0.0181157058500363 -0.00248243394790343 
0.02096046081100035 -0.0181157058500363 -0.00248243394790343 
0.02096046081100035 -0.0181157058500363 -0.00248243394790343 
0 0 0 
0 0 0 
0 0 0 
0 0 0 
0 0 0 
0 0 0 
0 0 0 
0 0 0 
0 0 0 
0 0 0 
0 0 0 
0 0 0 
0 -0.01035078234749329 0 
0 -0.01035078234749329 0 
0 0 0 
0 0 0 
0 0 0 
0 0 0 
0 -7.332743059588218e-05 0 
0 -7.332743059588218e-05 0 
0 -7.332743059588218e-05 0 
0 -7.332743059588218e-05 0 
0 -7.332743059588218e-05 0 
0 0 0 
0.02825370549484267 -0.02054930549163068 -0.000854700161773198 
0.02825370549484267 -0.02054930549163068 -0.000854700161773198 
0 0 0 
0 0 0 
0 0 0 
0 0 0 
0 -0.00277469555003481 0 
0 -0.00277469555003481 0 
0 0 0 
0.01344013856885841 -0.01601763617913522 0 
0.01344013856885841 -0.01601763617913522 0 
0 0 0 
0 0 0 
-0.188441463017661 0.1876472264781103 0 
0.07541591670652276 -0.07841516210226769 0 
0.07541591670652276 -0.07841516210226769 0 
-0.1967990230869436 0.1895721036956202 0 
0.07541591670652276 -0.07841516210226769 0 
0.009204156513489884 -0.002911105566372443 0 
0.009204156513489884 -0.002911105566372443 0 
0 0 0 
0 0 0 
0 0 0 
0 0 0 
0 0 0 
0 0 0 
0 0 0 
0 0 0 
0 0 0 
0.01157544169392019 -0.008418696913036034 -0.001448756911803955 
0.01157544169392019 -0.008418696913036034 -0.001448756911803955 
0.01157544169392019 -0.008418696913036034 -0.001448756911803955 
0.01157544169392019 -0.008418696913036034 -0.001448756911803955 
0 0 0 
0 0 0 
0 0 0 
0 0 0 
0 0 0 
0 0 0 
0 0 0 
0 0 0 
0 0 0 
0 0 0 
0 0 0 
2.457949982319185e-05 0 -0.003484184544230586 
2.457949982319185e-05 0 -0.003484184544230586 
2.457949982319185e-05 0 -0.003484184544230586 
2.457949982319185e-05 0 -0.003484184544230586 
0 0 0 
-0.1794346611444624 0.185130597498433 -0.005483779505973652 
-0.188231217110122 0.1930087702173096 -0.005483779505973652 
-0.188231217110122 0.1930087702173096 -0.005483779505973652 
-0.188231217110122 0.1930087702173096 -0.005483779505973652 
-0.188231217110122 0.1930087702173096 -0.005483779505973652 
-0.188231217110122 0.1930087702173096 -0.005483779505973652 
0 0 0 
0.009109999465496184 -0.01181327545774904 0 
0.009109999465496184 -0.01181327545774904 0 
0.009109999465496184 -0.01181327545774904 0 
0 0 0 
0 0 0 
0 0 0 
0.007128250456706383 0 -0.007098875807776069 
0.007128250456706383 0 -0.007098875807776069 
0.007128250456706383 0 -0.007098875807776069 
0.007128250456706383 0 -0.007098875807776069 
0.007128250456706383 0 -0.007098875807776069 
0 0 0 
0 0 0 
0 0 0 
0 0 0 
0 0 0 
0.01961891584224417 -0.01584351168852436 0 
0.01961891584224417 -0.01584351168852436 0 
0.01961891584224417 -0.01584351168852436 0 
0 0 0 
0 0 0 
0.01316418224705515 -0.01558672464404875 0 
0 0 0 
0 0 0 
0 0 0 
0 0 0 
0 0 0 
0 0 0 
0 0 0 
0 0 0 
0 0 0 
0 0 0 
0 0 0 
0.0008197556174360239 -0.00193573237856716 0 
0.0008197556174360239 -0.00193573237856716 0 
0.003300356869161061 0 0 
0.003300356869161061 0 0 
0 0 0 
0 0 0 
0 0 0 
0 0 0 
0.08447442770487196 -0.08421982334599461 -0.002940773864374073 
0.08447442770487196 -0.08421982334599461 -0.002940773864374073 
0.08447442770487196 -0.08421982334599461 -0.002940773864374073 
0.08447442770487196 -0.08421982334599461 -0.002940773864374073 
0.01568244517791748 -0.004832859204151696 0 
0.01568244517791748 -0.004832859204151696 0 
0 0 0 
0 0 0 
0 0 0 
0 0 0 
0 0 0 
0.01080916751300696 -0.02412820183897347 0 
0 0 0 
0 0 0 
0 0 0 
0 0 0 
0 0 0 
0.004161946414640812 -0.01190888308904318 0 
0.004161946414640812 -0.01190888308904318 0 
0 0 0 
0 0 0 
0 0 0 
0 0 0 
0 0 0 
0 0 0 
0 0 0 
0 0 0 
0.02976841060828667 -0.03000526987373352 -0.001087152031652094 
0.02976841060828667 -0.03000526987373352 -0.001087152031652094 
0.02976841060828667 -0.03000526987373352 -0.001087152031652094 
0 0 0 
0 0 0 
0.001364195228781011 -0.00108747150101851 0 
0.001364195228781011 -0.00108747150101851 0 
0.001364195228781011 -0.00108747150101851 0 
0.001364195228781011 -0.00108747150101851 0 
-0.2722149397934664 0.2679872657978879 0 
-0.2722149397934664 0.2679872657978879 0 
-0.2722149397934664 0.2679872657978879 0 
-0.2722149397934664 0.2679872657978879 0 
0.02616694822645738 -0.02503900501774903 0 
0.02616694822645738 -0.02503900501774903 0 
0.02616694822645738 -0.02503900501774903 0 
0.02616694822645738 -0.02503900501774903 0 
0.02616694822645738 -0.02503900501774903 0 
0.02616694822645738 -0.02503900501774903 0 
0.03270493141613887 -0.02199614426096902 -0.01041385321874783 
0.03270493141613887 -0.02199614426096902 -0.01041385321874783 
0.03270493141613887 -0.02199614426096902 -0.01041385321874783 
0 0 -0.001241987282243953 
0 0 -0.001241987282243953 
0 0 0 
0 0 0 
0 0 0 
0 0 0 
0 0 0 
0 0 0 
0 0 0 
0 0 0 
0 0 0 
0 0 0 
0.008099724890578726 -0.004937495497415273 -0.003520675664970658 
0.008099724890578726 -0.004937495497415273 -0.003520675664970658 
0.008099724890578726 -0.004937495497415273 -0.003520675664970658 
0.008099724890578726 -0.004937495497415273 -0.003520675664970658 
0 0 -0.001443942032993433 
0 0 -0.001443942032993433 
0 0 0 
0 0 0 
0 0 0 
0 0 0 
0 0 0 
-0.05423843321193527 0.04363997523647618 0 
-0.05423843321193527 0.04363997523647618 0 
-0.05423843321193527 0.04363997523647618 0 
-0.05423843321193527 0.04363997523647618 0 
-0.03412532177548343 0.04023679469002929 0 
-0.03412532177548343 0.04023679469002929 0 
0.005471870407750501 -0.006108899614429753 0 
0 0 0 
0 0 0 
0 0 0 
0.005161374020329186 -0.005799666101760408 0 
0.005161374020329187 -0.005799666101760408 0 
0.005161374020329187 -0.005799666101760408 0 
0 0 0 
0 0 0 
0 0 0 
0.01316418224705515 -0.01558672464404875 0 
0.01316418224705515 -0.01558672464404875 0 
0.01316418224705515 -0.01558672464404875 0 
0.01316418224705515 -0.01558672464404875 0 
0.01316418224705515 -0.01558672464404875 0 
0.01662202826941476 -0.006205708123655932 0 
0.01662202826941476 -0.006205708123655932 0 
0.01662202826941476 -0.006205708123655932 0 
0 0 0 
0 0 -0.001414994256639962 
0.0001681989939751815 0 -0.001436410711935517 
0 0 0 
0 0 0 
0 0 0 
0 0 0 
0 0 0 
0 0 0 
0 0 0 
0 0 0 
0 0 0 
0 0 0 
0 0 0 
0 0 0 
0 0 0 
0 0 0 
0 0 0 
0 0 0 
0 0 0 
0 -0.0002986780779927 0 
0 -0.0002986780779927 0 
0.001474900093965586 0 -0.0001361079400167531 
0.02777673909045096 -0.01797183026704339 -0.0242570524888827 
0.02777673909045096 -0.01797183026704339 -0.0242570524888827 
0.02777673909045096 -0.01797183026704339 -0.0242570524888827 
0.02777673909045096 -0.01797183026704339 -0.0242570524888827 
0.02777673909045096 -0.01797183026704339 -0.0242570524888827 
-0.2914189161508218 0.2881475513159458 0 
-0.2914189161508218 0.2881475513159458 0 
0 0 0 
0 0 0 
0 0 0 
0.006356426979603718 -0.006059451326112342 -0.003302497873391616 
0.006356426979603718 -0.006059451326112342 -0.003302497873391616 
0.006356426979603718 -0.006059451326112342 -0.003302497873391616 
0.006356426979603718 -0.006059451326112342 -0.003302497873391616 
0.006356426979603718 -0.006059451326112342 -0.003302497873391616 
0 0 0 
0 0 0 
0 0 0 
0 0 0 
0 0 0 
0 0 0 
0 0 0 
0 0 0 
0 0 0 
0 0 0 
0 0 0 
0 0 0 
0.01236288267272932 -0.01529271489688724 0 
0.01236288267272932 -0.01529271489688724 0 
0.01236288267272932 -0.01529271489688724 0 
0 0 0 
0 0 0 
0 0 0 
0.0413299560515261 -0.03967788529667209 -0.000682740910671625 
0.0413299560515261 -0.03967788529667209 -0.000682740910671625 
0 0 -0.002507281336022816 
0 0 -0.002507281336022816 
0.01543069357011489 -0.01523531087185746 0 
0.01543069357011489 -0.01523531087185746 0 
0.01543069357011489 -0.01523531087185746 0 
0 0 0 
0 0 0 
-0.3642320240237604 -0.001313160551044689 0.3569373625458582 
0.008796555965659581 -0.007878172718876598 0 
0.008796555965659581 -0.007878172718876598 0 
0.008796555965659581 -0.007878172718876598 0 
0.03734340899922973 -0.03463781789435821 0 
0.03734340899922973 -0.03463781789435821 0 
0.03734340899922973 -0.03463781789435821 0 
0.03734340899922973 -0.03463781789435821 0 
0 0 0 
0 0 0 
0 0 0 
0 0 0 
0 0 0 
0 0 0 
0.05058116472420773 -0.04979613395075301 0 
0.05058116472420773 -0.04979613395075301 0 
0 0 0 
0 0 0 
0 0 0 
0.007759175100879034 -0.007959998089433791 0 
0 0 0 
0 0 0 
0 0 0 
0 0 0 
0 0 0 
0 0 0 
0 0 0 
0 0 0 
0.004582848418611943 -0.03087629345836145 0 
0 0 0 
0 0 0 
0 0 0 
0 0 0 
-0.2226861211902276 0.2226870714814613 -0.0001535021556511793 
-0.2226861211902276 0.2226870714814613 -0.0001535021556511793 
-0.2226861211902276 0.2226870714814613 -0.0001535021556511793 
-0.2226861211902276 0.2226870714814613 -0.0001535021556511793 
-0.2226861211902276 0.2226870714814613 -0.0001535021556511793 
-0.2226861211902276 0.2226870714814613 -0.0001535021556511793 
-0.2226861211902276 0.2226870714814613 -0.0001535021556511793 
0.00793995519998281 -0.01968945958111898 0 
0.00793995519998281 -0.01968945958111898 0 
0 0 -0.006530523227099353 
0 0 -0.006530523227099353 
0.005892113423470745 -0.004874317464886148 0 
0.005892113423470745 -0.004874317464886148 0 
0 0 0 
0 0 0 
0 0 0 
0 0 0 
0 0 0 
0 0 0 
0 0 0 
0 0 0 
0 0 0 
0.0003480440781731696 0 0 
0.0003480440781731696 0 0 
0.0003480440781731696 0 0 
0.0003480440781731696 0 0 
0.0003480440781731696 0 0 
0.0003480440781731696 0 0 
0 0 0 
0 0 0 
0 0 0 
0 0 0 
0 0 0 
0 0 0 
0.008357560069282628 -0.001924877217509923 0 
0.008357560069282628 -0.001924877217509923 0 
0.03056063480075994 -0.03047155441490262 0 
0.03056063480075994 -0.03047155441490262 0 
0.03056063480075994 -0.03047155441490262 0 
0.03056063480075994 -0.03047155441490262 0 
0.03056063480075994 -0.03047155441490262 0 
0.03056063480075994 -0.03047155441490262 0 
0 0 0 
0 0 0 
0.001591413709559353 0 -0.002757592823705533 
0 0 0 
0 0 0 
0 0 0 
0 0 0 
0 0 0 
0 0 0 
0 0 0 
0 0 0 
0 0 0 
0 0 0 
-0.1215731305432169 0.1226138547346567 0 
-0.06661744139263921 0.07267178769528876 0 
0 0 0 
0 0 0 
0 0 0 
0 0 0 
0 0 0 
0 0 0 
0 0 0 
0 0 0 
0 0 0 
0 0 0 
0.05495568915057772 -0.04994206703936793 0 
0 0 0 
0 0 0 
0 0 0 
0 0 0 
0 0 0 
0 0 0 
0 0 0 
0 0 0 
0 0 0 
0 0 0 
0 0 0 
0 0 0 
0 0 0 
0.001642847904110288 -0.002875376232755381 0 
0.001642847904110288 -0.002875376232755381 0 
0.004162860016209607 -0.003786507242006347 0 
0.004162860016209607 -0.003786507242006347 0 
0.004162860016209607 -0.003786507242006347 0 
0.004162860016209607 -0.003786507242006347 0 
0 0 0 
0 0 0 
0 0 0 
0 0 0 
0 0 0 
0 0 0 
0 0 0 
0 0 0 
0 0 0 
0 0 0 
0 0 0 
0 0 0 
0 0 0 
0 0 0 
0 0 0 
0 0 0 
0 0 0 
0 0 -0.000633235082405606 
0 0 -0.000633235082405606 
0 0 0 
0 0 0 
0 0 0 
0 0 -0.002774800470304636 
0 0 0 
0 0 0 
0 0 0 
0.008087055912952109 -0.005595684924615568 -0.002896383753637372 
0.008087055912952109 -0.005595684924615568 -0.002896383753637372 
0.008087055912952109 -0.005595684924615568 -0.002896383753637372 
0.008087055912952109 -0.005595684924615568 -0.002896383753637372 
0.00831565173087288 -0.01567726934488101 0 
0.00831565173087288 -0.01567726934488101 0 
0.00831565173087288 -0.01567726934488101 0 
0.0008895903196728768 -0.00169110921126032 0 
0.0008895903196728768 -0.00169110921126032 0 
0.0008895903196728768 -0.00169110921126032 0 
0.0008895903196728768 -0.00169110921126032 0 
0 0 0 
0 0 0 
0 0 0 
0 0 0 
0 0 0 
0 0 0 
0 0 0 
0.007460262601989806 -0.002802211949229527 -0.004456660756982629 
0.007460262601989806 -0.002802211949229527 -0.004456660756982629 
0.007460262601989806 -0.002802211949229527 -0.004456660756982629 
0.007460262601989806 -0.002802211949229527 -0.004456660756982629 
0 0 0 
0 0 0 
0 0 0 
0 0 -0.001706295648244636 
0 0 -0.001706295648244636 
0 0 -0.001706295648244636 
0 0 -0.001706295648244636 
0 0 0 
0 0 0 
0 0 0 
0 0 0 
0 0 0 
0 0 0 
0.04105997838506169 -0.03450798686761283 0 
0 0 0 
0 -0.0002189746025116703 0 
0 -0.0002189746025116703 0 
0 -0.0002189746025116703 0 
0 0 0 
0 0 0 
0 0 0 
0 0 0 
0 0 0 
0 0 0 
0 0 0 
0 0 0 
0 -0.002101177335544471 0 
0 -0.002101177335544471 0 
0 -0.002101177335544471 0 
0.007203099114175475 0 0 
0 0 0 
0 0 0 
0 0 0 
0 0 0 
0.01194410119609387 -0.01092684582866399 0 
0.01194410119609387 -0.01092684582866399 0 
0.01194410119609387 -0.01092684582866399 0 
0.01194410119609387 -0.01092684582866399 0 
0 0 0 
0.01395894540292083 -0.01293867912023615 0 
0.01395894540292083 -0.01293867912023615 0 
0.01395894540292083 -0.01293867912023615 0 
0.01395894540292083 -0.01293867912023615 0 
-0.06039816884396974 0.06045119883531053 0 
-0.06039816884396974 0.06045119883531053 0 
0.02052325417164662 -0.01818041890285718 0 
0.02052325417164662 -0.01818041890285718 0 
0.02052325417164662 -0.01818041890285718 0 
0 0 0 
0 0 0 
0 0 0 
0 0 0 
0.01080916751300696 -0.02412820183897347 0 
0 0 0 
0 0 0 
0 0 0 
0 0 0 
0 0 0 
0 0 -0.01004688279399819 
0 0 -0.01004688279399819 
0 0 0 
0 0 0 
0 0 0 
0 0 0 
0 0 0 
0 0 0 
0 0 0 
0.004584129287192043 0 -0.01833553622523214 
0.004584129287192043 0 -0.01833553622523214 
0 0 0 
0 0 0 
0 0 0 
0 0 0 
0 0 0 
0 -0.007239129868751084 0 
0 -0.007239129868751084 0 
