solver_type L2R_L2LOSS_SVC_DUAL
nr_class 2
label 1 2
nr_feature 698
bias -1
w
0.01943486649892733 
0.2229494892707699 
0.10252678868138 
-0.06569492974988683 
0.02446165205225551 
0.02279181672692761 
0.2229494892707699 
0.0220713048536753 
0.01216655955969592 
0.10252678868138 
0.121182572076066 
0.03108142771109525 
0.07566148914983756 
0.08261116339885946 
-0.04787113125035851 
0.2817889947659099 
0.1770398135896755 
0.03023643127076909 
0.03023643127076909 
0.1261837523280408 
-0.1259511642741012 
-0.1259511642741012 
-0.2548214674094972 
-0.24734110576305 
-0.1259511642741012 
-0.1259511642741012 
-0.1259511642741012 
-0.1259511642741012 
-0.203925856431214 
0.09920874709680189 
-0.1955536944785078 
-0.1955536944785078 
-0.2522800925998521 
-0.02108550179856514 
-0.1955536944785078 
0.03245955921344543 
0.0468867775270411 
0.123200212028355 
0.01658121794754315 
0.01658121794754315 
0.0468867775270411 
0.123200212028355 
0.01658121794754315 
0.255339331067506 
0.1278034825515084 
0.06409604702103748 
0.004008310843883122 
0.0210514543018325 
-0.07611754699393448 
0.01528434364800287 
0.1252344837556138 
0.1383900174752532 
0.03030555957949796 
0.03030555957949796 
0.1396845160413638 
0.03030555957949796 
0.07924666499231148 
0 
0.04365278828996386 
0 
-0.07194001272672877 
-0.1914610980592849 
-0.476611831206736 
-0.07194001272672877 
-0.07194001272672877 
-0.1966437386338388 
-0.07194001272672877 
0.09171503657157701 
0.06978715965834392 
0.06978715965834392 
0.06978715965834392 
0.06978715965834392 
0.0900830167571009 
0.0675210679549947 
0.06085984552128722 
0.1392083891177298 
0.06085984552128722 
0.06085984552128722 
0.08055704305577102 
0.06085984552128722 
0.1313307954252498 
0.1082335123715104 
0.008742337567738704 
0.05430839161221362 
0.008742337567738704 
0.1082335123715104 
0.008742337567738704 
0.008742337567738704 
0.04272077802338491 
0.1549426530488482 
0.1480117644842867 
0.1548342387417215 
0.04272077802338491 
0.1549426530488482 
0.1480117644842867 
0.0001565812520268738 
0.05029838661780235 
0.05029838661780231 
0.05029838661780235 
0.05029838661780231 
0.0455660540444749 
-0.1719643476861646 
-0.08605125012672808 
-0.2730688802123128 
0.0007352290467406344 
-0.1719643476861646 
-0.1719643476861646 
-0.4078860803571208 
-0.1719643476861646 
0.01108760737598027 
0.09626219875773641 
0.09082833180513852 
0.01861164313952771 
0.06456554414385537 
0.06456554414385537 
0.06456554414385537 
0.06456554414385537 
0.06456554414385537 
0.06456554414385537 
0.01501241164154855 
0.03198189143216155 
0.04204060885288788 
0.01501241164154855 
0.01501241164154855 
0.1827276201586987 
0.04204060885288788 
0.01501241164154855 
-0.03572036935764261 
0.1773263363654121 
0.1773263363654121 
0.1773263363654121 
0.1773263363654121 
0.1773263363654121 
-0.0861665262366656 
0.1773263363654121 
-0.0601817974802992 
0.0455660540444749 
0.0455660540444749 
0.0455660540444749 
0.07154660009952654 
0.04442258839754615 
0.03137888471092173 
0.05042684198269688 
0.1660844328229784 
0.04442258839754615 
0.03137888471092173 
0.03137888471092173 
-0.002433468106476978 
0.01304370368662442 
0.01304370368662442 
0.0001565812520268738 
0.1536792262563121 
0.0001565812520268738 
0.0842507527888607 
0.09824175894159062 
0.1245823239373293 
0.02374984559865632 
0.02374984559865632 
0.09958306247649185 
0.02374984559865632 
0.01822647112575166 
0.1618211488731333 
0.02813121641973104 
0.01822647112575166 
0.1506699608217492 
0.06468734762580031 
0.01822647112575166 
0 
0 
0 
0.02206000679785832 
0.04045662291489798 
0.08873297012894989 
0.02816153042233837 
0.04785872795682218 
0.02816153042233837 
0.04331611983589651 
0.1525568488495738 
0 
0 
-0.2047146740747773 
-0.1173555483999556 
-0.2047146740747773 
-0.0369464357350224 
-0.2047146740747773 
-0.2047146740747773 
-0.2047146740747773 
-0.2047146740747773 
0.07449191334293429 
-0.012877240160648 
0.07449191334293429 
0.07719591867302117 
0.05085606126163468 
0.05085606126163468 
0.05085606126163468 
0.05085606126163468 
0.05085606126163468 
0.1031346992797982 
0.05427380392837124 
0.05427380392837124 
0.05427380392837124 
0.05427380392837124 
0.05427380392837124 
0.05427380392837124 
0.05427380392837124 
0.09905633784709929 
0 
0.03788237658809725 
0.1659361185108733 
0.07097176554190313 
0.04207108534687273 
0.1888749275078523 
0.04207108534687273 
0.07097176554190313 
0.04207108534687273 
0.04207108534687273 
0.06178256214900986 
0.04968981763230729 
0 
0.02499926146083739 
0 
0.1769141155352123 
0.07710357104642745 
0.02890068019503037 
0.07528750808390179 
0.02890068019503037 
0.07619710649853645 
0.0007205118732522978 
0.01528137908120677 
0 
0 
-0.006233908633311362 
0 
-0.2835415441863645 
-0.2835415441863645 
-0.07835738677509757 
-0.05764739569335437 
-0.2835415441863645 
-0.2835415441863645 
-0.05764739569335437 
-0.05764739569335437 
-0.05764739569335437 
-0.09140189064193738 
-0.09140189064193738 
-0.1137822667693295 
-0.0506627996251497 
-0.1137822667693295 
0 
0.1775295400187175 
0.06178256214900987 
0.1775295400187175 
0.06178256214900987 
0.06178256214900987 
0.08023047906458594 
-0.1217610477475941 
0.08023047906458594 
0.08023047906458594 
0.08023047906458594 
0.08023047906458594 
-0.1574034619206534 
-0.1574034619206534 
-0.1574034619206534 
-0.1574034619206534 
-0.1574034619206534 
0.03635621411480822 
0.1363744370220196 
-4.77048955893622e-18 
0.1363744370220196 
0 
0 
0 
0 
0.03635621411480822 
0.03635621411480822 
0.03635621411480822 
0.134817200144808 
-0.03542670001049998 
0.134817200144808 
0.134817200144808 
0.134817200144808 
0.134817200144808 
0.134817200144808 
0.01351451579958868 
0.01351451579958868 
0.01351451579958868 
0.01351451579958868 
0.01351451579958868 
0.01351451579958868 
0.01351451579958868 
0.002920753673650427 
0.002920753673650427 
0.02484863058688348 
0 
0 
0 
0 
0.0610005914614473 
0.0610005914614473 
0.1055547866415857 
0.0610005914614473 
0.0610005914614473 
0.0610005914614473 
0.0610005914614473 
0.0610005914614473 
0.04712175797163589 
-0.4517594170637578 
-0.0937468017830133 
-0.2226171049184093 
-0.0937468017830133 
-0.2734432065649667 
-0.0937468017830133 
-0.0937468017830133 
-0.4089893792483006 
0.01913599069036458 
-0.07439600946649363 
-0.1289636237827623 
-0.02366322846730247 
0.0800968380996443 
0.1408685597546492 
0.0800968380996443 
0.1039876766095594 
0.006661222433707484 
0.006661222433707484 
0.05121541761384588 
0.1039876766095594 
0.006661222433707484 
0.07416375298955903 
0.07416375298955903 
0.07416375298955903 
0.1169629721472261 
0.07416375298955903 
0.07416375298955903 
0.04365278828996386 
0.04365278828996386 
0.04365278828996386 
0.04365278828996386 
0.02825464645420054 
0 
0.02825464645420054 
0 
0.03526796855182891 
0.03526796855182891 
0.03526796855182891 
0.03526796855182891 
0 
0.02188426454006226 
0.09730621197256849 
0 
0.03950668779518773 
0.003278351612682999 
0 
0 
0 
0 
0.09439352015619581 
0.04458748374164608 
1.734723475976807e-18 
0 
-0.06770023449599673 
0 
0 
-0.1428182247821253 
0.09896965144870448 
0.09896965144870448 
0.09468980083517636 
-0.1428182247821253 
0.09896965144870448 
0.09896965144870448 
0.03039669960775821 
0.03039669960775821 
0.03039669960775821 
0.03039669960775821 
0.05176524897247401 
0.05176524897247401 
0.05176524897247401 
-0.08531496378320673 
-0.08531496378320673 
-0.1703522175679245 
-0.08531496378320673 
-0.08531496378320673 
-0.08531496378320673 
-0.2091722728888533 
-0.1275837607034004 
-0.2091722728888533 
-0.2091722728888533 
-0.2091722728888533 
-0.1811424283342954 
-0.02070999108174321 
0.01792066375297915 
0.01792066375297915 
0.01792066375297915 
0.01792066375297915 
0.01792066375297915 
0 
0.03622833618250473 
0.03622833618250473 
0 
0.04458748374164607 
0.04458748374164607 
0.04458748374164607 
-0.07947188379548581 
0.004279850613528174 
-0.07947188379548581 
-0.05672639812134446 
-0.05672639812134446 
-0.05672639812134446 
-0.05672639812134446 
0.01528137908120677 
0.01528137908120676 
0.01528137908120677 
0.01528137908120677 
0.03559387670234765 
0.03559387670234765 
0.03559387670234765 
0.1265363022518565 
0.1265363022518565 
0.1265363022518565 
-0.05177990824693459 
0.1265363022518565 
0.005210272434692892 
0.005210272434692892 
0 
0.1606439845165567 
0.1606439845165567 
0.02528224588494246 
0.02528224588494246 
0.02528224588494246 
0.001254161002006584 
0.001254161002006584 
0.001254161002006584 
0.001254161002006584 
0.05029838661780232 
0.05029838661780232 
0.06475025435538234 
0.06475025435538234 
0.06475025435538234 
0.03406907865482868 
0.03406907865482868 
0.03406907865482868 
0.03406907865482868 
-0.01451659292683548 
0.0445541951801384 
0.08216831543910252 
0.0445541951801384 
0.0445541951801384 
0.0445541951801384 
0.08158851218545285 
0.08158851218545285 
0.08158851218545285 
0.08158851218545285 
0.08158851218545285 
-0.1791953345496119 
-0.1791953345496119 
-0.1791953345496119 
-0.1791953345496119 
0 
0 
0 
-0.02822480695071033 
0.2331845517192924 
0.07707558836474951 
0.07707558836474951 
0.2331845517192924 
0.07707558836474951 
0.07707558836474951 
0.009904745293979377 
0.1561089633545429 
0.1561089633545429 
-0.1783162104987911 
-0.1783162104987911 
-0.1783162104987911 
-0.1783162104987911 
-0.1783162104987911 
-0.05073278099919117 
-0.05073278099919117 
-0.05073278099919117 
-0.05073278099919117 
-0.1381268241282305 
-0.1381268241282305 
-0.1381268241282305 
-0.2438746756530046 
-0.1381268241282305 
-0.1381268241282305 
-0.2156704078876994 
-0.1057478515247741 
-0.1057478515247741 
-0.1057478515247741 
0.09544360014059793 
-0.1104604716937285 
-0.1104604716937285 
-0.1104604716937285 
-0.1104604716937285 
-0.1104604716937285 
-0.1104604716937285 
0.1069050730184749 
0.02111975811682964 
0.04738254577811275 
0.04638682788887141 
0.04638682788887141 
0.04638682788887141 
0.04638682788887141 
0.04638682788887141 
0.02473035994100022 
0.02473035994100022 
0.02473035994100022 
0.02473035994100022 
0.006004253585150742 
0.0495453170554995 
0.0495453170554995 
0.092861436891396 
0 
0 
0.09713380124733284 
0.06744256318290261 
0.06744256318290261 
0.06744256318290261 
0.06744256318290261 
0 
0.120294248895367 
0.120294248895367 
0 
0 
0.07583321687783551 
0.01271374973365575 
0.07583321687783551 
0.01271374973365575 
0.01271374973365575 
0.01199380683671552 
0.01199380683671552 
0.01199380683671552 
0.01199380683671552 
-0.2375080256173017 
-0.2375080256173017 
-0.2375080256173017 
0.04795184398868436 
0 
0 
0.02499926146083739 
0.02499926146083739 
0.02499926146083739 
0.05671472373379569 
0.05671472373379569 
0.05671472373379569 
0.05671472373379569 
0.03551649880512166 
0.03551649880512166 
0.03551649880512166 
0.03551649880512166 
0.03551649880512166 
0.01229509249255959 
0.01229509249255959 
-0.2251081250179056 
-0.2251081250179056 
-0.2251081250179056 
-0.2251081250179056 
-0.2251081250179056 
-0.2251081250179056 
0.03761412025896414 
0 
0 
0 
0 
0 
0.04272077802338491 
0.04272077802338491 
0.04272077802338491 
0 
0 
0.01367729176311546 
0.01367729176311546 
0.01367729176311546 
0.03188537266157063 
0.03188537266157063 
0.03188537266157063 
0.03188537266157063 
0.03188537266157063 
0.03188537266157063 
0.03188537266157063 
0.001294054309812064 
0.03087158827005239 
0.03087158827005239 
0.03087158827005239 
0.03087158827005239 
-0.128870303135396 
-0.128870303135396 
-0.128870303135396 
-0.128870303135396 
-0.128870303135396 
-0.128870303135396 
0.04331611983589651 
-0.170243900155308 
-0.170243900155308 
-0.170243900155308 
-0.170243900155308 
-0.170243900155308 
-0.170243900155308 
-0.170243900155308 
0.06311946714417975 
0.06311946714417975 
0 
0 
0 
0.02413053541042671 
0.02413053541042671 
0.02192787691323305 
-0.117975321799696 
0.07908234136188605 
0.07908234136188605 
0.07908234136188605 
-0.177365119545828 
-0.177365119545828 
-0.177365119545828 
-0.177365119545828 
-0.177365119545828 
-0.177365119545828 
0.03917643089790931 
0.001294054309812064 
0.001294054309812064 
0.001294054309812064 
0 
0 
0 
0.0005568382191367393 
0.0005568382191367393 
0.02206000679785832 
0.02206000679785832 
0.02206000679785832 
0.02206000679785832 
0.02206000679785832 
0 
0 
0 
0 
-0.197057663161582 
-0.197057663161582 
-0.197057663161582 
-0.197057663161582 
-0.197057663161582 
-0.197057663161582 
-0.08503725378471776 
-0.08503725378471776 
-0.08503725378471776 
-0.08503725378471776 
-0.08503725378471776 
0.04279921915766705 
0.04279921915766705 
-0.09071869412880235 
-0.09071869412880235 
-0.09071869412880235 
-0.09071869412880235 
-0.09071869412880235 
-0.09071869412880235 
-0.1053003953154598 
-0.1053003953154598 
-0.1053003953154598 
0.01969719753448382 
0.04795184398868438 
0.02825464645420054 
0.02825464645420054 
0.02825464645420054 
0.09713380124733284 
0.09713380124733284 
0.02626278766128312 
0.02626278766128312 
0.02626278766128312 
0.02626278766128312 
0.03788237658809725 
0.03788237658809725 
0.03761412025896414 
0.03761412025896414 
0.03761412025896414 
0.03761412025896414 
0.0007205118732523121 
0.026846648762501 
0.026846648762501 
0.026846648762501 
0.026846648762501 
0.026846648762501 
0.04968981763230729 
0.04968981763230729 
0.04968981763230729 
0.04968981763230729 
0.04968981763230729 
0.04968981763230729 
0.0595225272403621 
0.0595225272403621 
0 
0 
0.04463859549890178 
0.04463859549890178 
0.04463859549890178 
0.04463859549890178 
0.04463859549890178 
0.01587834126590228 
0.01587834126590228 
0.01587834126590228 
0.01587834126590228 
0.01587834126590228 
