solver_type L2R_L2LOSS_SVC_DUAL
nr_class 2
label 1 2
nr_feature 925
bias -1
w
0 
0.01565910519595168 
0.2406704855972397 
0.006416968607047137 
0 
0 
0.006416968607047137 
0 
0.2406704855972397 
0.05769854729204175 
0.250721629415544 
0.03363590793730888 
0.001350531120132442 
0.003513471893604938 
0.01138311144875637 
0 
0 
0.003513471893604938 
0.01138311144875637 
0 
0.1164551111336873 
0.02061096680637882 
0.03506349802338993 
0.02950496745903707 
0.007906908834370995 
0.06451986829177755 
0.04387394585435832 
0 
0.007906908834370995 
0.06451986829177755 
0.007906908834370995 
0.02428367777637188 
0.02428367777637188 
0.04543943681895912 
0.02428367777637188 
0.02428367777637188 
0.04391063066343789 
0.02428367777637188 
-0.1063004750401452 
-0.01211939524154537 
0.001971514834307363 
0.01953735151428079 
0.001971514834307363 
0.001971514834307363 
0.01953735151428079 
0.001971514834307363 
0.09231775859829142 
0.02298263788582021 
0.004778955883145529 
0.04867663978332062 
0.004778955883145529 
0.004778955883145529 
0.004778955883145529 
0.04867663978332062 
0.004778955883145529 
0 
0.01006284118307028 
0.005625229576989852 
0 
0.01006284118307028 
0 
0.009158347994844414 
0.04403893069627916 
0.03451743481918801 
0 
0 
0.04403893069627916 
0.03229330711273292 
0 
0.005609763630340411 
0.04454228386810093 
0.005609763630340411 
0.005609763630340411 
0.005609763630340411 
0.04104088332421343 
0.005609763630340411 
0 
0 
0 
0.0648234982359376 
0.009813347066599067 
0.009813347066599068 
0.009813347066599067 
0.009813347066599067 
0.009813347066599065 
0.009813347066599067 
0.01915001285277594 
0 
0.0102928206368734 
0 
0 
0 
0.01006284118307028 
0 
0 
0.01455183584018072 
0 
0.01455183584018072 
0 
0 
0 
0.004959089142838117 
0 
0 
0 
0.05777872369236395 
0 
0.02705532027753391 
0 
0.02705532027753391 
0.006416968607047139 
0.006416968607047139 
0 
0.006416968607047139 
0.006416968607047139 
0 
0 
0 
0 
0.001974145071050171 
0.001974145071050171 
0.009044673106300366 
0.001974145071050171 
0.001974145071050171 
0.009044673106300366 
0 
0.02165286583251073 
0 
0 
0 
0 
0 
0 
0 
0 
0 
0.001754132144029851 
0.02236789802325746 
0.005873430010530308 
0 
0.001754132144029851 
0.01326736951052207 
0.005873430010530308 
0 
0 
0 
0 
0 
0.0002778988284072801 
0.02972772888261481 
0.0002778988284072801 
0.0002778988284072801 
0.003779299372294792 
0.0002778988284072801 
0.02030361779584142 
0 
0 
0.008700612698172055 
0 
0 
0 
0.02037248057514978 
0.01068454944116267 
0 
0 
0 
0 
0 
0 
0 
0 
0 
0 
0 
0 
0.00600854795687249 
0 
0 
0 
0 
0 
0 
0.04833334758210873 
0.01033759862106778 
0.01033759862106778 
0.01033759862106778 
0.01033759862106778 
0.01033759862106778 
0.01033759862106778 
0.00209772742496036 
0 
0 
0 
0 
0.01145477307893477 
0.001754132144029851 
0.007142039997809636 
0.001754132144029851 
-0.1250870763119918 
0 
0 
0 
0 
0 
0 
0.0436331671472207 
0.01709749491277388 
0 
0 
0 
0 
0 
0.02202242055448802 
0.007906908834370995 
0.01565910519595168 
0.01565910519595168 
0.01565910519595168 
0 
0 
0 
0 
0.02402762768879504 
0.007819456551490189 
0.005625229576989852 
0.005625229576989852 
0.005625229576989852 
0.002986714875856221 
0.002986714875856221 
0.03076258953709526 
0.003513471893604938 
0 
0 
0 
0 
0 
0 
0 
0 
0 
0 
0 
0 
0 
0 
0 
0 
0 
0 
0 
0 
0 
0.0130144902580254 
0.01797357940086353 
0.01301449025802541 
0.0130144902580254 
0.01840239811180519 
0.01797357940086353 
0.01301449025802541 
0 
0.009591012361953158 
0 
0 
0.009591012361953158 
0 
0 
0 
0 
0 
0 
0.0002299794538031246 
0 
0 
0.01852771322584469 
0.01852771322584469 
0.01852771322584469 
0.01852771322584469 
0.01852771322584469 
0.01852771322584469 
0.01852771322584469 
0.008700612698172053 
0.0149742552625483 
0.008700612698172053 
0.008700612698172055 
0.0149742552625483 
0 
0 
0 
0 
0 
0 
0 
0 
0 
0 
0 
0 
0 
0.02661014875568369 
0 
0 
0 
0 
0 
0 
0 
0 
0 
0 
0 
0 
0 
0 
0 
0 
0 
0.003800577806609346 
0.003800577806609346 
0.003800577806609346 
0.003800577806609346 
0.002194226974500338 
0.02921166390215909 
0.002194226974500338 
0.02921166390215909 
0.002194226974500338 
0.007228238058905636 
0 
0 
0 
0 
0 
0 
0 
0 
0 
0 
0 
0 
0 
0 
0.003501400543887512 
0.003501400543887512 
0.003501400543887512 
0 
0 
0.01409883801077354 
0.01409883801077353 
0.01409883801077354 
0.01409883801077353 
0.01409883801077354 
0.007420716284475323 
0.007420716284475325 
0.007420716284475323 
0.007420716284475323 
0.007420716284475323 
0 
0 
0 
0 
0 
0.000882119781668259 
0 
0 
0 
0.02661014875568369 
0.02661014875568369 
0.02661014875568369 
0.01034204754528439 
0.003513471893604938 
0.003513471893604938 
0 
0 
0 
0 
0 
0 
0 
0 
0.008514127012339326 
0 
0 
0 
0.005387907853779785 
0.005387907853779785 
0.005387907853779785 
0.005387907853779785 
0.005387907853779785 
0 
0 
0 
0 
0 
0 
0 
0.007451086747467096 
0.007451086747467096 
0.007451086747467096 
0.007451086747467096 
0.007451086747467096 
0 
0 
0 
0 
0 
0.008476522103971108 
0 
0 
0 
0 
0 
0 
0 
0.001528806155521225 
0.001528806155521225 
0.001528806155521225 
0.001528806155521225 
0.009077066756931608 
0 
0 
0 
0.01650454759535426 
0.01151323736649222 
0 
0 
0 
0 
0.01139621508158223 
0 
0 
0 
0 
0 
0 
0 
0.02249277811440774 
0 
0 
0.00209772742496036 
0 
0 
0 
0.01997179106662829 
0.01997179106662829 
0.01997179106662829 
0.01997179106662829 
0.01997179106662829 
0.01997179106662829 
0 
0 
0 
0.009158347994844414 
0.02793974597744635 
0.009158347994844414 
0.009158347994844414 
0.009158347994844414 
0.009158347994844414 
0.009158347994844414 
0.009158347994844414 
0 
0 
0.006828575651679457 
0 
0 
0.006828575651679457 
0 
0 
0 
0 
0 
0 
0 
0.02360744817978655 
0.02360744817978655 
0.02360744817978655 
0.02360744817978655 
0.02360744817978655 
0.02360744817978655 
0.02360744817978655 
0.02472589940232216 
0.02472589940232215 
0.009357045653974411 
0.02472589940232216 
0.02472589940232216 
0.009357045653974411 
0.01371875895860515 
0.006273642564376248 
0.006273642564376248 
0 
0 
0 
0.007445116394228899 
0.007445116394228899 
0.007445116394228899 
0.007445116394228899 
0.007445116394228899 
0 
0 
0 
0 
0.01411551172011702 
0 
0 
0 
0 
0 
0 
0 
0.01455183584018072 
0 
0 
0.01063111758482396 
0 
0 
0 
0 
0 
0 
0 
0 
0 
0 
0 
0 
0 
0.01068454944116267 
0.01878139798260195 
0.01878139798260195 
0.01878139798260195 
0.01878139798260195 
0.01878139798260195 
0.01878139798260195 
0.01878139798260195 
0.01742878194059546 
0 
0 
0 
0 
0 
0 
0 
0 
0.007582533642147023 
0.007582533642147023 
0.007582533642147023 
0.007582533642147023 
0.007582533642147023 
0.007582533642147023 
0.006828575651679457 
0.006828575651679457 
0.006828575651679457 
0 
0 
0 
0 
0 
0 
0 
0 
0 
0 
0.007070528035250195 
0.02384609179716386 
0.007070528035250195 
0.007070528035250195 
0 
0 
0 
0 
0.01536885374834775 
0.01536885374834775 
0 
0 
0 
0 
0.01139621508158223 
0 
0.004959089142838117 
0 
0 
0 
0 
0 
0 
0.009077066756931608 
0 
0 
0 
0 
0 
0 
0 
0.01006284118307028 
0 
0 
0 
0 
0.01329691710616454 
0.01329691710616454 
0.01825600624900266 
0.01329691710616454 
0.01329691710616454 
0.01329691710616454 
0.01329691710616454 
0.002291537525336593 
0.002291537525336593 
0.002291537525336593 
0.002291537525336593 
0.002291537525336593 
0 
0 
0 
0 
0 
0 
0 
0 
0 
0 
0 
0 
0 
0 
0 
0 
0 
0 
0 
0 
0 
0 
0 
0 
0 
0 
0 
0 
0 
0 
0 
0 
0.001350531120132442 
0 
0 
0.001350531120132442 
0 
0 
0 
0 
0 
0 
0 
0 
0 
0.00209772742496036 
0.00209772742496036 
0.00209772742496036 
0 
0 
0 
0 
0 
0 
0 
0.0231277347664498 
0 
0 
0.01244318532528713 
0 
-0.1668206193738244 
-0.3387240816010696 
-0.3387240816010696 
-0.1668206193738244 
-0.1668206193738244 
-0.3387240816010696 
-0.1668206193738244 
0 
0 
0 
0 
0.001350531120132442 
0.001350531120132442 
0 
0 
0 
0 
0 
0 
0 
0 
0 
0 
0 
0 
0 
0 
0 
0 
0.009077066756931608 
0.009077066756931608 
0.009077066756931608 
0.009077066756931608 
0.009077066756931608 
0.009077066756931608 
0.009077066756931608 
0 
0 
0 
-0.1719034622272453 
-0.1719034622272453 
-0.1719034622272453 
0.01455183584018072 
0.01455183584018072 
0.01455183584018072 
0.01455183584018072 
0.002224127706455096 
0.002224127706455096 
0.002224127706455096 
0.002224127706455096 
0.002224127706455096 
0 
0 
0 
0.01006284118307028 
0.01006284118307028 
0.01006284118307028 
0 
0 
0 
0 
0.007994216239243157 
0.004991310228862051 
0.004991310228862051 
0.004991310228862051 
0 
0 
0 
0.01068454944116267 
0.01068454944116267 
0.01068454944116267 
0.01068454944116267 
0.01068454944116267 
0.01068454944116267 
0.003989479143998317 
0 
0.003989479143998317 
0 
0 
0 
0 
0 
0 
0 
0 
0 
0 
0 
0 
0 
0.01742878194059546 
0.01742878194059546 
0.01742878194059546 
0.01742878194059546 
0 
0 
0 
0 
0.003002906010381107 
0 
0 
0.01677556376191367 
0.01677556376191367 
0.01677556376191367 
0.01677556376191367 
0 
0 
0 
0 
0 
0 
0 
0 
0 
0 
0 
0 
0 
0 
0 
0 
0 
0 
0 
0 
0.007228238058905636 
0.007228238058905636 
0.007228238058905636 
0.007228238058905636 
0.007228238058905636 
0.01063111758482396 
0 
0.000882119781668259 
0 
0.003989479143998317 
0.003989479143998317 
0.008476522103971105 
0 
0 
0 
0 
0 
0 
0.004257063506169663 
0.004257063506169663 
0.0002299794538031246 
0 
0 
0 
0 
0 
0 
0 
0 
0 
0.003430253731190916 
0.003430253731190916 
0.004959089142838117 
0.004959089142838117 
0 
0 
0 
0 
0 
0 
0.00600854795687249 
0.00600854795687249 
0.00600854795687249 
0.00600854795687249 
0 
0 
0 
0 
0.01139621508158223 
0.01139621508158223 
0 
0 
0 
0 
0 
0 
0 
0 
0 
0 
0 
0 
0 
0 
0 
0 
0 
0.01244318532528713 
0.01244318532528713 
0.01244318532528713 
0.01244318532528713 
0.01244318532528713 
0.01244318532528713 
0.01244318532528713 
0 
0.01411551172011702 
0 
0 
0 
0 
0 
0 
0 
0 
0.01973000972784689 
0.01973000972784689 
0.01973000972784689 
0.01973000972784689 
0.01973000972784689 
0.01973000972784689 
0 
0 
0 
0 
0 
0 
0 
0 
0 
0 
0.01411551172011702 
0.01411551172011702 
0.01411551172011702 
0.01411551172011702 
0.009591012361953158 
0.009591012361953158 
0.009591012361953158 
0 
0 
0 
0 
0 
0.003002906010381109 
0.003002906010381109 
0.003002906010381109 
0.003002906010381109 
0.003002906010381109 
0 
0 
0 
0.02249277811440774 
0.02249277811440774 
0.02249277811440774 
0.02249277811440774 
0.02249277811440774 
0.02249277811440774 
0.02249277811440774 
0.02249277811440774 
0 
0 
0 
0 
0 
