solver_type L2R_L2LOSS_SVC_DUAL
nr_class 12
label 1 2 3 4 5 6 7 8 9 10 11 12
nr_feature 10560
bias -1
w
-0.1864040409903943 0.07221023567830349 0.1295953198551765 0.1182085057701643 0.08014271442837467 -0.009207042701072832 -0.04091412023964267 -0.0135424497541544 -0.03385078453631551 -0.03524065576673623 -0.01986887710876753 -0.03457485025106291 
0.5016852601017125 -0.483102142206698 -0.04896749261012842 -0.07567425740339724 0.002053341065873599 0 0.1489996965673648 0 0 -0.002589029182373679 0 0 
-1.057150822511795 0.9242576142123625 -0.4378945057771728 -0.520147074937268 -0.3885858318347728 -0.3804200486135418 -0.1359683247856328 -0.3276455899644365 -0.3842454570684481 -0.3667995865289954 -0.4144974881070964 -0.3274503151482959 
0.7632516060079091 -0.6402177626697391 -0.1189072595468784 -0.2263451882553818 -0.1758417570785359 -0.005614172264783987 -0.1596189453309016 -0.004380229417060391 -0.01112795878474115 -0.04205067530991547 0 -0.0142392128069997 
0.3781265134208588 -0.05123123422509963 -0.3989616668125016 -0.216591417177238 -0.01514388723875939 -0.002104470791357802 -0.039005953606071 -0.01449089658753745 0 -0.03996837784185189 -0.000168218293419727 4.336808689942018e-19 
0 0 0 0 0 0 0 0 0 0 0 0 
0.5841353384186034 -0.3994150452839654 -0.07970440394888 -0.1989654483175581 -0.1050329493195812 0 -0.03683531442676289 0 0 0 0 0 
0.7632516060079091 -0.6402177626697391 -0.1189072595468784 -0.2263451882553818 -0.1758417570785359 -0.005614172264783987 -0.1596189453309016 -0.004380229417060391 -0.01112795878474115 -0.04205067530991547 0 -0.0142392128069997 
1.214306433183765e-17 -0.05384274070130185 0 -3.469446951953614e-18 -0.01131271502806304 -0.002104470791357802 0 0 0 -0.03996837784185189 0 0 
0.2323525719755573 -0.5892158301849556 -0.4378945057771733 -0.2577717262922962 -0.4338366121078444 -0.3804200486135418 -0.6765814873609843 -0.3123383357448337 -0.3842454570684481 -0.3667995865289952 -0.4144974881070964 -0.3274503151482958 
0.1267183711911086 -0.0769930380231619 -0.1270424309692615 -0.04831312409227116 -0.1480006231196574 -0.1993113317079146 -0.1014360271234779 -0.3811078882226549 -0.1686267654056036 -0.3085943891048996 -0.1636072012444526 -0.327450315148296 
0.002891195839832318 0.03922332088380962 -0.06197965391556503 -0.08110288887652055 -0.00724515499009741 -0.06605493884375091 -0.05427325947530248 -0.04710574303892149 -0.0302748670560158 -0.0009252269331928853 -0.09679817571933139 -0.01777190331715693 
0.3846624997814465 -0.2425755027913318 0.0525238153068399 -0.1406184691590906 -0.3386026163920171 -0.01217287921493456 -0.1307138174660627 0 0 0 -0.005678782402882485 0 
0.01218731378380526 0.07390238117866711 -0.03028047856463786 0.04483884489992136 -0.2769102999340943 -0.00089882768049261 -0.02652442009648885 0 0 0 0 -0.001439434808864631 
0.3662521694115372 -0.3746145826895654 -0.04040408997056767 -0.05547470306324025 -0.02962292382093943 -0.04618214976552226 0.0906372991137871 -0.03297033072511855 -0.02145559016891633 -0.005996952828187915 -0.01398188064596969 -0.02711318373007766 
0.1072268749247599 -0.08673771138712037 0.1150491187387289 0.04201683440155438 -0.01117652022083696 -0.0008988276804926102 0.03227519760605428 -0.001906299033407134 -0.02436468523950744 -0.00496357765163821 -0.00296737272582763 -0.002851297506403634 
0 0 0 0 0 0 0 0 0 0 0 0 
0 0 0 0 0 0 0 0 0 0 0 0 
0.6654560674287812 -0.6794145060697629 0.0294127314468799 -0.2202965954709366 0.1825673342878967 -0.01599774172420696 0.03580334574183235 -0.005165247879679622 -0.01746853855793452 -0.005996952828187915 0 0 
0.186310072631237 -0.05556576111984299 0 -0.1203150723132321 -0.01030882951390438 0 0 0 -0.01746853855793452 0 0 0 
0.04016754819231214 0.0541563158142546 -0.09156545093360277 -0.105006248070427 -0.02248130670273505 -0.07023907064342094 -0.2542681997134477 -0.08277137057953252 -0.09263219170059396 -0.1158827797631411 -0.02969673074812789 -0.0800480348134003 
-0.07645275951143947 0.05359917657237866 0.05000960282885868 -0.01000767811797256 -0.06440372772717178 -0.01682066989580674 -0.06994898440161375 -0.01737151466282822 -0.015384516826592 -0.01944320766477884 -0.03106191071466727 -0.007022400803658184 
0.2032000968543701 -0.1678626222504371 0.07033064250923171 -0.009014179056440539 -0.1317253079410014 -0.004723789928911737 -0.06806461205507873 -0.01046536763553815 -0.001862168078263085 -0.002649848581165886 -0.1492120430698031 -0.0408600684777024 
0.3031328815126001 -0.1464155988960074 0 -0.05636117213052607 0 0 -0.006800754403399474 0 0 0 0 0 
-0.09880235620075316 0.164835601996182 0 -0.05636117213052606 0 0 0 0 0 0 0 0 
0.5459145897638147 -0.4610117646775828 -0.167368692136506 0.04808458290714849 -0.04545450869287919 -0.0006886773196176384 0 0 -0.0006441128391080737 -0.002649848581165886 0 -0.009193876657100059 
0.04598102794643529 -0.1741382057329308 0.1000970292480866 0.03525108890491992 -0.004331842889325689 0 0 0 -0.001218055239155011 0 -0.1175599605753138 -0.03166619182060235 
0.1240658956239314 -0.06745343192779277 0 -0.05636117213052606 0 0 0 0 0 0 0 0 
0.343362893877901 -0.3093593195127402 -0.1439335968238257 0.07085762634462496 -0.1328635964813955 -0.0137373599090504 -0.04178678652271064 0.08935073766074575 -0.03747082974109937 -0.002587992080038736 -0.01039840145107759 -0.03145739777655934 
-0.0009873263268212712 0.005550653614453374 0 0 0 0 0 0 0 0 0 0 
0.0624186263973604 -0.01697090731195966 -0.07662798576277013 -0.1028446393202321 -0.1298586198159411 -0.04946908331187881 -0.1099933137244249 -0.01541277097560455 -0.03288012566300264 0.1015230102022099 -0.01365937794546551 -1.301042606982605e-18 
0.0495905443348966 -0.05602687689634326 -0.0142582892933062 -0.04908445696152807 0.1029870919143679 0 -0.01826605409043927 0 -0.001095898982113448 -0.0008090012820463685 0 0 
-0.0009873263268212712 0.005550653614453374 0 0 0 0 0 0 0 0 0 0 
-0.6431117792044885 0.9145851403008218 -0.3265276061858627 -0.3401337376420547 -0.4586199085131831 -0.04946908331187881 -0.06516722182635711 -0.01225967762815809 -0.03288012566300264 0.1015230102022099 -0.01365937794546551 -1.301042606982605e-18 
0.002150969760109883 -0.02925777224645715 0 0.1161093280595805 0.134198271742908 0 -0.004585062873544614 0 0 0 0 0 
-0.0009873263268212712 0.005550653614453372 0 0 0 0 0 0 0 0 0 0 
0.03270529897510972 -0.003331640262955705 0.0413082719559628 -0.04445800682908446 -0.02245318734607938 -0.02250737833294201 -0.1189237234017396 -0.01895130342705836 -0.009250774411244386 -0.02904778779257328 7.806255641895632e-18 -1.301042606982605e-18 
-0.02752136840150473 -0.03665953211232532 0.08652316280092795 0.073579838449082 -0.07761505531289699 -0.02744138523020091 -0.1409382938829256 -0.03261314167488994 -0.0579303466896674 0.08871103236255132 -0.1006957106137576 -0.08615845613621513 
-0.1553538690130586 0.1136416485306503 0.02526924844705588 -0.005840395292810195 -0.01830473990715165 -0.001264560602503774 -0.02200924817962681 0 0 0 0 0 
0.04694884608895721 0.1464439978035418 -0.1101188958567023 -0.2153407471319012 -0.1776756780363191 -0.01910649885066167 -0.02261127164272445 -0.03234130098598068 -0.007628535950939616 -0.007703278834762364 -0.0008776834135826425 -0.007774005115553232 
-0.3282588267229064 0.2368391491025955 0 0 0 0 0 0 0 0 0 0 
-1.070551877430697 0.8833621670661823 0 0 0 0 0 0 0 0 0 0 
-0.02202676491238414 -0.2989967879832298 -0.03548809907611796 0.137434496472005 0.1026537458314497 -0.00862442499688652 -0.07975670907018007 -0.03550540644200596 -0.01765636802654691 0.2136878934982368 -0.01558578830931421 -0.01801431820677695 
0.09265270727337928 -0.01485476866826448 -0.02350856934131379 0.1937690301248085 -0.132436551368096 -0.00428599487695892 -0.01430852054646898 0 -0.0040422598365014 -0.003458849863212253 -0.06276681070557355 -4.336808689942018e-19 
0 0.1263801879353618 -0.04002483270809234 -0.02047281094217154 -0.01510746890262214 0 0 0 0 -0.001362613708980993 0 0 
-0.1283978704747195 0.4184299910193674 0.03886385088427 -0.2608736313300873 -0.2114518040340785 -0.0003542113314823639 -0.029441222535038 -0.01231598464750257 -0.01518151730665628 -0.01537704464202741 -0.00954527737464452 -0.01624468571404951 
-0.08314896109282036 0.1689181704506908 0 -0.04766079409004349 0 0 0 0 0 -0.0008090012820463685 0 0 
-0.08314896109282036 0.1689181704506908 0 -0.04766079409004349 0 0 0 0 0 -0.0008090012820463685 0 0 
0.1193806076231808 -0.1478087511238549 0.0635300130174113 -0.02408761066100329 0.183346839675308 -0.002131487436089639 -0.1306633251437024 0 -0.0222183674173875 1.084202172485504e-19 0 0 
-0.7573412572482593 0.4085017280756378 -0.05863272628561671 0.01418502342908899 -0.1549304785113723 -0.03827037537544712 -0.1404548151258559 -0.1042622050803299 -0.03226037631863762 -0.060213234631483 -0.05457306514958341 -0.0281095442196431 
-0.294055203213609 0.1970670878069212 0.2854298371834904 -0.07283882480427852 -0.07797834519114349 3.930232875259954e-19 -0.0106570831822651 1.084202172485504e-19 0 -0.01443761601059968 0 -0.008487854405940737 
0.0182903791795239 0.03324755334955587 0.03359870536293631 -0.1826984118177853 0.0196588783867766 -0.02059140239196616 -0.04614725016245433 -0.01069709981746008 -0.01797641473988312 0 4.336808689942018e-19 0 
0 0.05057211233747833 0 0 0 0 0 0 0 0 0 0 
-0.6359122465129863 0.9308713638809052 -0.2973441893323401 -0.3192324001115148 -0.1549304785113723 -0.03827037537544713 -0.1404548151258559 -0.1042622050803299 -0.03081466171436667 -0.0576242054491093 -0.02585789782023214 -0.0281095442196431 
-0.141017201156944 0.3149399907472446 -0.1209710839537104 -0.04997269728881111 -0.04605656965941157 3.930232875259954e-19 -0.0106570831822651 1.084202172485504e-19 0 -0.01443761601059968 0 -0.008487854405940737 
0 0 0 0 0 0 0 0 0 0 0 0 
-0.02737964648477516 -0.08063678120559609 -0.06230668393958805 0.1380681139664496 0.06028096871339026 -0.006958082396404582 -0.01741958418639844 0 0.2447425692742588 0 0 0 
-0.07166766378150469 0.09652996188296666 -0.1134083701293135 0.04157828486349741 0.1126263638716266 -0.01290563493700378 -0.009366768898339213 -0.006608136582198242 -0.01258695782555635 -0.006503997567262558 -0.0154685495716992 -0.0002885316961339559 
0 0 0 -0.03564890539494112 0 0 0 0 -0.02427578960148611 0 0 0 
-0.1908623967414687 -0.005822622914857987 0.1950683740265552 0.09716650437624604 -0.03984696647293047 -0.01290563493700378 0 -0.006608136582198242 -0.007660787851037874 -0.006503997567262558 -0.01130819323361971 -0.0002885316961339549 
-0.01980895914834067 0.03554779031029934 1.301042606982605e-18 -0.04144808699551639 -0.005650343165081837 -0.01290563493700378 2.168404344971009e-19 0 -0.007082590874984701 0 -0.009538088645325116 0 
0.003415621596832515 -0.02392357793507868 0.02922103795577589 0 0.03054352109292729 0 0 0 0 -0.004691661099556601 0 0 
-0.2723648826292825 0.06179040208211852 -0.0028788377613567 0.07984040156949074 0.1523208748264692 -0.01082644481844404 -0.05168565218868079 0 0 -0.02145527363323212 -0.002522446414931421 0 
-0.195571710098487 0.1726384950438363 0.1026232933533887 0.02333494387175226 -0.01644237845103128 0 -0.004208477041087138 -0.003454618767820998 0 0 0 -0.0142392128069997 
0.04329257499273915 -0.014871152380742 0 0 0 0 0 0 0 0 0 0 
0.3583891716939704 -0.1673031739012533 0 -0.02100127220380929 -0.06559483759260917 -0.004612827295249453 -0.0428577880691635 0 0 0 0 0 
0.04329257499273915 -0.014871152380742 0 0 0 0 0 0 0 0 0 0 
0.04799961726346201 0.1071643200925979 0.06076993565028083 -0.008307161059911193 -0.07006522645471866 0 -0.0938930490747374 0 -0.02018947462431511 1.517883041479706e-18 -0.005460411187661346 -0.01630940348972748 
-0.1002707958485722 0.1487194388434742 -0.01993082242336985 0.04928403532001062 -0.08011794445976808 0 -0.002799611148305653 -0.005230222586732177 -0.002703041744417398 -0.002847400865221711 1.084202172485504e-19 -0.0005488206599382699 
0.7003578973925325 -0.6346592049650751 -0.03078339945636532 -0.08012428123775645 -0.06543853125997105 0 -0.008398028180918084 0 0 -0.001752507381117483 0 0 
0 -0.008106063771324661 0 0 0 0 0 0 0 0 0 0 
0.1594666269768604 -0.1626950771195797 0 1.301042606982605e-18 3.469446951953614e-18 0 0 0 0 0 0 0 
0.7003578973925325 -0.6346592049650751 -0.03078339945636532 -0.08012428123775645 -0.06543853125997105 0 -0.008398028180918084 0 0 -0.001752507381117483 0 0 
0.06346200742877005 -0.08056576902378515 0 2.602085213965211e-18 0 0 0 0 0 0 0 0 
0.09372334516356137 0.003840167070342126 -0.05969339921584108 0.06119924666564529 -0.1158741529590997 -0.0329115921375806 -0.1065511356710363 -0.01576281645159544 -0.03188090412470713 -0.004238676378970721 -0.0158284005236063 -0.00957619214059755 
0.3416108155699988 -0.172097493719069 0 -0.003871377377450701 -0.01914231644450558 -0.001493229469330285 -0.06605724560402337 0 0 0 0 0 
-0.1703979518743513 0.2532582933340061 0.08054873696066994 -0.07539016043348686 -0.089529913987829 -0.004889948881963395 -0.0224369376700021 4.336808689942018e-19 -0.0007506373220081733 -0.005290457729474105 -0.006586005410006552 -0.01788812543700589 
0.1663980413664422 -0.1471424787165772 0 -0.003871377377450701 -0.01914231644450558 -0.001493229469330285 0 0 0 0 0 0 
0.3075473475477532 -0.390711868710806 0.005650337328122401 -0.00463562827142525 0.1565779935807448 -0.001493229469330285 0 0 0 0 0 0 
0.1663980413664422 -0.1471424787165772 0 -0.003871377377450701 -0.01914231644450558 -0.001493229469330285 0 0 0 0 0 0 
-0.1283088158404117 0.178677479647981 -0.03364289228242392 -0.01699738241071829 -0.07813522116895755 -0.00334917909625782 -0.008606907570509912 0 -0.0007506373220081733 -0.005290457729474102 0 0 
0.1663980413664422 -0.1471424787165772 0 -0.003871377377450701 -0.01914231644450558 -0.001493229469330285 0 0 0 0 0 0 
0.1663980413664422 -0.1471424787165772 0 -0.003871377377450701 -0.01914231644450558 -0.001493229469330285 0 0 0 0 0 0 
0.5610986969163856 -0.3841911066279348 -0.007199687331771496 -0.01699738241071828 -0.04631292567038069 -0.00334917909625782 -0.06605724560402337 0 -0.0007506373220081733 0 0 0 
-0.00508481464048516 -0.1358338607480027 -0.003555519469700123 0.06253864021853914 0.1509736212280097 0.05057979753629799 0.1141831608050305 -0.08445420366653937 -0.05785558946724517 -0.0387467366427019 -0.0289529748074224 -0.03917872783906058 
0.2576236795448742 -0.1920012169084404 -0.007199687331771495 -0.01312600503326758 0 -0.000992983225398688 -0.06605724560402337 0 -0.0007506373220081733 0 0 0 
0.09578344801308782 -0.009266445067381463 0 0 0 0 0 0 0 0 0 0 
0.1752127742035567 -0.02495501500249176 0 0 0 0 -0.06605724560402337 0 0 0 0 0 
0.5448875971374145 -0.8406873570463217 0 0.09203019801830342 -0.245788679442434 0 0.6776380616602795 0 0 0 0 0 
0.2576236795448742 -0.1920012169084404 -0.007199687331771495 -0.01312600503326758 0 -0.000992983225398688 -0.06605724560402337 0 -0.0007506373220081733 0 0 0 
0.1268750125331537 -0.02426450713753835 0.03716095354801194 -0.008745204736601505 -0.03431903665526247 -0.01913805337030049 -0.1427696359832973 0 -0.01765375083876876 1.734723475976807e-18 -0.001646506260803871 -0.005493498229272512 
0.3683702169582562 -0.3249368322954933 -0.007199687331771495 -0.01312600503326758 -0.02717060922587509 -0.001855949626927537 -0.06605724560402337 0 -0.0007506373220081733 0 0 0 
0.07942932619046887 -0.0156885699351103 0 0 0 0 -0.06605724560402337 0 0 0 0 0 
0.01149114983292531 -0.01186455496566573 -0.03328173156488345 0.01357133486385974 0.06561075725387386 -0.004005490849023297 -0.1082377075187413 -0.04843224020070636 -0.03644392000128027 -4.336808689942018e-19 -2.168404344971009e-18 -0.004232737666697197 
0.2889408907677873 -0.3092482623603828 -0.007199687331771495 -0.01312600503326758 -0.02717060922587509 -0.001855949626927537 0 0 -0.0007506373220081733 0 0 0 
0.08241090534131755 -0.1670462019059486 -0.007199687331771495 -0.01312600503326758 0 -0.000992983225398688 0 0 -0.0007506373220081733 0 0 0 
0.07687790867696598 0.2110958028964051 0 -0.0126052969595903 -0.261017646716031 0 0 -0.005313601588543302 0 0 0 0 
0.1809301230470909 -0.09838675378871092 0.02138087284668501 -0.09869674367176548 -0.06859845721100888 -0.003977692370795221 -0.2000629077259505 -0.02791560245097537 -0.06252403881023347 -0.05265469096614434 -0.009107018520225546 -0.03104617384048619 
0.665553022885512 -0.5977990607565122 -0.1384811646083125 -0.4622865447065962 -0.1835227171882042 -0.01681428405408126 0.2225175916242735 -0.003473427971918988 -0.006153863951685564 -0.02064444637719712 -0.01419252113454166 -0.003055032401436382 
0 -0.04368474441349431 0 0 0 0 0 0 0 0 0 0 
0.3636835850871115 -0.2656450297154039 -0.2439847129582661 -0.09589678949463599 -0.03639216991902102 -0.002300191927464725 -0.1703402867230761 -5.421010862427522e-19 -0.02344170559811947 -0.001325405661272821 -0.009107018520225546 -0.02101482827355514 
0.3640901203735099 -0.3543201086626642 0 -1.463672932855431e-18 -0.0009566196877163689 -0.0002429972009795202 -2.168404344971009e-19 0 0 -0.001325405661272824 0 0 
-0.06127308487485747 0.06065228768176265 0.08393890833968508 -0.009291518922385864 0 0 0 0 0 0 0 0 
-0.1784295246949031 0.2057101888653138 -0.002646656322003694 -0.009291518922385866 0 -0.01081329996321532 0 0 0 0 0 0 
-0.009499787497937392 0.05813288034565248 -0.01994423602079359 0 -0.006239960249283346 0 0 0 0 0 0 0 
0 0 0 0 0 0 0 0 0 0 0 0 
-0.1784295246949031 0.2057101888653138 -0.002646656322003694 -0.009291518922385866 0 -0.01081329996321532 0 0 0 0 0 0 
0 0 0 0 0 0 0 0 0 0 0 0 
-0.006189209140886198 0.06519064806267136 -0.03765195749822479 -0.1252631216347932 0.1021115136535948 -0.001266137429775791 -0.04252986553591941 -0.01179652924891187 -0.01132963963802207 -0.002819396346888479 -0.0456458575214273 -8.673617379884035e-19 
-0.08775435020389498 -0.1039058080657374 0.005097376362717337 0.2007621419303018 0.1344620472998208 -0.01980276150515518 0.02835841796272617 -0.02592516800774815 -0.01109072697141853 -0.1290151224141876 -0.03215059644224916 -0.08615845613621516 
-0.06462110807943895 -0.006000538950466207 0.09252048219963267 0 0 -0.002936427002768686 -0.0001444725481315486 -0.005774445094284645 -0.002199176453889137 0 0 0 
-0.01114891334749408 0.1361643087729187 -0.003868209069152436 -0.0437944126370336 -0.04376221848313921 -0.01081329996321532 -0.03165354279100072 0 0 0 1.355252715606881e-20 0 
0.5187304492540712 -0.5316337416464263 -0.01882852448898962 -0.04792425703774101 1.734723475976807e-18 -0.001524794533618835 -0.01232075911010257 -0.006175855079181727 -0.002216635858252638 0 0 -0.006706297632176563 
0.2710015921481497 -0.06484483251627458 -0.09610414681422946 -0.1547391661669758 -0.05614286691698316 0 -0.01013931265831066 0 -0.005991489203499468 0 5.421010862427522e-20 8.673617379884035e-19 
0.005812192921192175 0 0 0 0 0 0 0 0 0 0 0 
-0.009486392961403536 3.469446951953614e-18 -0.002646656322003694 -5.421010862427522e-19 -8.673617379884035e-19 -0.01081329996321532 0 0 0 0 1.355252715606881e-20 0 
0.597146516437279 -0.5601633076732447 -0.01882852448898962 -0.09308476260074601 0 -0.001524794533618835 -0.01232075911010257 -0.006175855079181728 -0.002216635858252638 0 0 0 
0.005812192921192175 0 0 0 0 0 0 0 0 0 0 0 
-0.1309211197919237 0.08240001866262425 0.06943679886963067 0.03808227912042404 0.04427654123443556 -0.003909979177055892 -0.004728503957726207 -0.05610077802279138 -0.005901663803703374 -8.673617379884035e-19 -0.001672489506059366 -0.01120930917363183 
-0.1180526595330006 0.1078380652431654 -0.04245126969576844 -0.1294138097017856 0.2017538189439116 -0.02406652678528164 -0.0465716656774935 -0.03676859965842216 0 -0.02252374978413113 -0.004133213278945952 0 
-0.0463257919112328 0.2593257224435072 -0.1609842284821815 -0.08074717790676313 -0.352340785078514 -0.03479723533656475 0.09342008663395562 -0.03860739941338353 0 -0.005858842355304326 -0.08315168744607424 -0.03293046223426111 
0.06231469363358028 -0.01729966472737728 0.02327019434558831 -0.1625776639838053 -0.008232924177346541 -0.001396474876706801 -0.06914609642903552 -0.007611266903933925 -0.005901663803703374 -0.007047913521518053 -3.469446951953614e-18 -0.0004345224636413804 
0 0 0 0 0 0 0 0 0 0 0 0 
-0.02453710136676008 0.1509804209053972 -0.02482965508418332 0.1436080773909022 -0.1627758013060236 -0.007467358786410547 -0.01922974756973364 0 0 0 0 0 
-0.3469184227627835 0.3914169944293373 0.0384609215592784 -0.08771619299153294 -0.261017646716031 0 -0.0009991182655911114 0 0 -0.003639096869083526 0 0 
-0.2762967914954665 0.05290018749096373 0.0950208918655131 -0.04690985937670192 0 0 0 0 0 0 0 0 
-0.01025875568473168 0.2156670233229086 -0.07334782915392779 -0.05475647299535007 -0.1772265586118562 -0.002446785383108923 -0.07172045416034202 -0.01095494520415011 -0.0002780138158921068 -0.004487549540806941 -0.004805820766380018 0 
0.04213145523565314 -0.01508799481346456 -0.01597322081800688 0.05704871359268081 -0.05226771063034776 -0.05952587404046287 3.035766082959412e-18 -0.01095494520415011 0 0 -0.007177176759807495 0 
-0.1153906960359969 0.08094353701884112 0.06973796681612714 -0.06847493902922305 0.02745680340993707 -0.01081483354227851 -0.1105606287293694 -0.01095494520415011 -0.000136941263113863 0 0.06257108330349721 0 
-0.03474646616472324 0.005039384422069454 -0.00977220640012943 -0.1116663669983131 -0.103360146103567 -0.01782378131166544 -0.01145187851763997 0.1868487815646883 -0.006153863951685565 -0.001946036789966667 -0.003339257867932566 0 
-0.06090302459466615 0.07270142118600999 0 0 0 0 0 -0.01095494520415011 0 0 -0.003339257867932566 0 
0.07675057515828734 0.0574914677484022 -0.07643943063198247 8.673617379884035e-19 2.602085213965211e-18 0 0 -0.01095494520415011 0 0 -0.003339257867932566 0 
-0.1480357508284547 0.1628587372642514 0.02073327564124856 -0.06812231269927924 0.1487698824608484 -0.01081483354227851 -0.08682464671008039 -0.01095494520415011 2.168404344971009e-19 0 -0.01388209744356586 0 
-0.06090302459466615 0.07270142118600999 0 0 0 0 0 -0.01095494520415011 0 0 -0.003339257867932566 0 
-0.003153165833057432 -0.04365349314743321 0.0691291172181628 -0.1398560079363314 -0.004358854454585856 0 0.2513629455808266 0 0 0 0 0 
-0.07394215442048603 0.1458779087369894 -0.009170690960962973 -0.06075145965511464 0.04296605612689393 -0.003712922812884713 -0.02250257539984392 0 8.673617379884035e-19 -0.001752507381117484 -0.005460411187661346 -0.004685360707256141 
-0.08131256530515588 0.03326769679627 0 0 -0.1067328572865004 0 -0.03119122064747907 0 0 0 0 0 
-0.20781180561583 0.292761934108085 0 -0.02227623615922315 -0.03106832593889391 -0.001266137429775791 -0.004558498551689713 0 0 -4.336808689942018e-19 -0.005460411187661346 0 
-0.003255232957353436 -3.903127820947816e-18 0 0 0 0 0 0 0 0 -0.005460411187661346 0 
-0.02821429573119547 0.05635038070189857 0 0 -0.01225928984609772 0 -4.336808689942018e-19 0 0 0 0 -1.355252715606881e-18 
-0.04517030298988553 0.06319767821676707 -0.02186131299751057 -0.04544371077833929 0.02864978215442665 -0.002446785383108922 -0.0200257735624748 -0.003519270607278906 8.673617379884035e-19 0 0 -0.0393412840327149 
-0.1328165254586296 -0.09127039955113245 0 -0.0182174616327313 -0.06197598372909109 0 -2.168404344971009e-19 0 0 0 0 0.23189258906819 
-2.49366499671666e-18 -1.734723475976807e-18 0 0 0 0 -4.336808689942018e-19 0 0 0 0 -1.355252715606881e-18 
-0.2136790652644653 0.390478144812815 0 -0.03648478866774427 -0.08981104836403023 0 -1.084202172485504e-19 -0.02330986388458756 0 0 0 -0.02962577902634092 
-0.3383155732976252 0.2535954583624944 -0.01478104250106674 -0.01842271243229815 0.1397938304135326 0 -2.602085213965211e-18 1.084202172485504e-19 0 0 0 -0.0393412840327149 
1.734723475976807e-18 0.1359613606117402 0 -0.008506866787442143 -0.060658415884002 0 -2.168404344971009e-19 0 0 0 0 -0.0393412840327149 
0.1116758210120261 -0.06522563378086763 -0.0434581886042825 0.01130040579116254 -0.001712829787139923 -0.03586725003878176 -0.1601470565078411 -0.1098693089236656 -0.07184742993116451 -0.04461439484019761 -0.07122689129379108 0.02289113975068207 
0.09317971947846709 -0.08996148198445066 -0.02271797036114685 -0.01882830617578389 0 0 0 0 0 -0.005224966799826674 0 0 
0.08277777098038522 0.0875826216773482 -0.00174426683286324 -0.07850110851538122 -0.009080974801973028 -0.006958082396404582 -0.01007126099293582 0 -0.003516928908680925 -0.005224966799826674 0 -0.001615597592571753 
0.2604320367893077 -0.06599770812256586 -0.02748690745003088 -0.009956513479265211 -0.08093766438448138 -0.001862554035626036 -0.009649423349018438 0 0 -0.005224966799826674 0 0 
-0.07646307784951896 0.004837086699160254 0 0 0 0 0 0 0 -0.005224966799826674 0 0 
-0.07646307784951896 0.004837086699160254 0 0 0 0 0 0 0 -0.005224966799826674 0 0 
-0.07646307784951896 0.004837086699160254 0 0 0 0 0 0 0 -0.005224966799826674 0 0 
0.01336400136789019 -0.02748883356261745 0.01132184713172817 -0.04511681373329394 -0.05649652832208005 -0.0003542113314823642 -0.04623033841107688 8.673617379884035e-19 -0.01558513916111484 0.09297071681045245 -0.01040237465989042 4.336808689942018e-18 
8.673617379884035e-19 0.0461066305265139 0 0 0 0 0 0 0 -0.03996837784185189 0 0 
-0.02998761909595576 0.04978049509072757 -0.03485331210260028 0.01334024381271556 -0.01713285611042517 -0.008830612167944125 0.1310374367784342 0 -0.01747432261371306 0.1056144662861581 8.673617379884035e-19 0 
-0.1139251597403006 0.09626103244009422 0.0481537475195354 0.006560498395896343 -0.01188872900527669 -0.003370739456758495 -0.04938817449777691 -0.002034457891975643 0.1437989620097638 -0.002828179758927657 -0.008308093540193249 0 
2.168404344971009e-19 0.0461066305265139 0 0 0 0 0 0 0 0 0 0 
-0.3788487835178591 0.2293805456382175 -0.01840804380637648 0.07132801868774971 0.05697663323470762 -0.001455028809845824 -0.04798573802985501 0 -0.01747432261371306 0.1657695818854601 8.673617379884035e-19 0 
0 0 0 0 0 0 0 0 0 0 0 0 
0.1077880747143442 -0.008865698303666307 0.08178269742160432 -0.07591110716572104 -0.02263423517795233 -0.0173579411496493 0.01321112496283701 -0.01104067303844256 -0.01002260897150848 -0.07739978012167213 -0.06900049781787126 1.734723475976807e-18 
0.2104573290871265 -0.03912172129857569 -0.1450664320972276 -0.01129042335433028 -0.008462365536140456 -0.001431827452837899 -0.01456570093936121 0 0 0 0 0 
0.2403423646536439 -0.2213354175389252 -0.133188759066726 -0.003285869425432582 -0.05194395386870276 0 0 0 -0.003496269806526974 0 0 0 
0.2954171445482536 -0.199618755263166 -0.07728687436685017 -0.2627703513350871 -0.06951410218519413 -0.06487126925756892 -0.1564022040360384 -0.03134851415434336 -0.03823151822029573 -0.02738985756988386 -0.0222927524991965 -0.03800733529238874 
0.0380265522427387 -0.0769532161522251 0.123286245030701 0.07166910635207466 0.006435329752076239 0 0.03668550602416123 0 0 4.336808689942018e-19 0 -0.003099435014635313 
-0.03697697976197753 -0.02679331557585482 0 -3.469446951953614e-18 0 0 0 0 0 0 0 0 
-0.0779409040827253 0.05334967632225175 0 3.469446951953614e-18 0 0 0 0 0 0 0 0 
1.224991087819157 -1.391750182097973 -0.2577926154783375 -0.08196376266466326 0.01921107760440126 -0.06487126925756892 -0.1339178088191996 -0.01090936919256357 -0.03823151822029571 -0.02452641393837959 -0.02229275249919651 -0.03800733529238873 
0.2309575413175274 -0.2174795532885163 -0.02899370507523048 0 2.168404344971009e-18 0 0 0 0 0 0 0 
0.05511043120073561 0.1561557316141595 -0.172528464712898 -0.0192255410794845 -0.05928000396493693 -0.00402616063495418 -0.07436953341743818 -0.01763313644257979 -0.01228095809397985 -0.04913647674923402 1.301042606982605e-18 -3.469446951953614e-18 
0.06325720610654609 -0.02251854578081904 -0.0007392479669702553 -0.0582248669201422 0.1255528234715628 8.673617379884035e-19 -6.938893903907228e-18 0 0 0 0 0 
-0.1800400906218639 0.1892624977102076 0.1476270252256792 -0.0002628750101502744 0.1103439247450267 0 0 0 0 0 0 0 
0 0.124551701062314 0 -0.003071138488798001 0 8.673617379884035e-19 0 0 0 0 0 0 
-0.1214290107352728 0.124551701062314 0.1476270252256792 0 0 0 0 0 0 0 0 0 
-0.4411745205922336 0.2080404259875441 -0.01651834544454258 0.03157760099793774 0.2622886391664349 0.2497087618288439 0.2464425506091431 -0.004070016466982149 0 0 0 0 
-0.1765896858974502 0.2233783726747836 -0.08344166897846533 0.1400832783356961 -0.1558390172238486 -0.02433316446205508 -0.07357521503894822 -0.006998248364859476 -0.01307362282082403 0 -0.006513647695226323 1.084202172485504e-19 
0.05292548900440187 -0.3573338753161314 0.05461932718184482 0.1459776687959242 -0.004003337152219407 0 0 0 1.301042606982605e-18 0 0 -0.00394670617514606 
0 -2.710505431213761e-18 0 -0.002705113083404253 -1.084202172485504e-19 -0.003659986558277589 -0.008943842876559865 0 0 0 0 0 
-0.4063712923755362 0.6364683626810617 -0.08344166897846533 -0.1260349137266519 -0.1558390172238486 0 -0.07357521503894816 -0.0007284958458392112 -0.01307362282082403 0 -0.006513647695226323 5.421010862427522e-20 
0 0.06409148506375706 -0.06506483565611243 -0.02132108934945525 0 0 0 0 0 0 0 0 
-0.1423948897815119 0.1454811171531883 0.0529239573007995 -0.07197426715960129 0.06155277157488522 0 -0.0006750602951803097 0 0 0 -4.336808689942018e-19 0 
-0.00885352813161043 0.07409352387782812 -0.01730632666613724 -0.009161756814071751 -0.01972322056365447 -0.00242043236283378 0 0 0 0 0 0 
0 0 0 0 0 0 0 0 0 0 0 0 
-0.00885352813161043 0.07409352387782812 -0.01730632666613724 -0.009161756814071751 -0.01972322056365447 0 0 0 0 0 0 0 
-0.2325947673394023 0.2904118579151324 0.0377306901627846 0.1680395498008159 -0.09846187607002084 -0.002335975532634179 -0.04306744248043271 0 0 -0.006905173176006842 2.168404344971009e-19 0 
0.01830159059617498 0.02995229449085201 -0.02100232075169473 -0.01487061422661317 -0.02239083444769394 0 -0.01578382856849016 0 -0.04278714287547366 -0.002156102457707088 0 0 
-0.02592773963585495 0.06949554343236702 -0.006532222371387808 0.02789495993458858 0.006387666811572918 0 -1.843143693225358e-18 -4.336808689942018e-19 4.336808689942018e-19 -0.009565175369743772 -0.0488701460706574 -0.003774034815133772 
0.003240717039978538 0.04434383516316773 0.02076424964179341 0.0579210593514024 -0.06928904992902871 -0.002367032935568157 -0.08048819042126854 1.734723475976807e-18 -0.01926338777110119 0 -0.01558578830931421 -0.001119494463581331 
-0.2567990158713376 0.2327961079916885 0 -0.06224654933763504 0 0 0 0 0 0 0 0 
-0.2567990158713376 0.2327961079916885 0 -0.06224654933763504 0 0 0 0 0 0 0 0 
-0.1220618414230064 -0.0909758658395555 -4.336808689942018e-19 0.1878557927758598 0.08046240297512125 0 1.084202172485504e-19 0 0 0 0 -0.003774034815133773 
-2.168404344971009e-19 0.08986824663445214 0 -0.06744220987234315 -0.02722202464723006 0 0 0 0 0 0 0 
-0.03088366267015183 0.09982834133969198 -0.006071215352416739 -0.1885594067788792 0.03810034881392267 -0.0009355997004826328 0.04114331515861925 -0.004361991907695583 4.336808689942018e-19 -0.06011084635132659 -0.04925074447639592 -0.003774034815133772 
0.1248091813928161 -0.1913174111224479 0.1690080653575403 -0.01251520249505073 -0.05930331893831349 -0.0008359553866612816 -0.008008755846882985 -0.002227119332022512 -0.00418468809090684 -0.004599908246339194 -0.001992477122852998 0 
-0.4245464539426622 -0.1678830977234354 0.6799187803047924 -0.1398710006284714 -0.2789288243048683 -0.006191273180727296 -0.05039939462526711 -0.02284237740430938 -0.06078522975718103 -0.0007733979699958376 -0.01054126527763083 -0.009199790029764177 
-0.3589895568185225 0.3384707197158783 0.1812276920233053 -0.0350034406688632 0 0 -0.005023285120112285 -0.001501485472780831 -4.336808689942018e-19 0 0 2.168404344971009e-19 
-0.1826623276279445 -0.1844574822405977 0.05134592231502785 1.734723475976807e-18 0 0 0 0 0 0 -0.001992477122852998 0 
-0.4245464539426622 -0.8800405260532774 1.180017593208587 -0.1398710006284714 -0.2789288243048683 -0.006191273180727296 -0.05039939462526711 -0.02284237740430938 -0.06078522975718103 -0.0007733979699958376 -0.01054126527763083 -0.009199790029764177 
-0.07564852862446145 2.081668171172169e-17 0.005650337328122385 0.09283141620317516 0.01114455543835193 0 0 0 0 0 0 0 
0 0 0 0 0 0 0 0 0 0 0 0 
0.1687155148892112 -0.002093437963760394 1.734723475976807e-18 -0.1211448555023826 -0.02395839240290229 -0.001226087582186333 -0.005775197766293724 -0.008124250666725924 0 0 0 0 
0 0 0 0 0 0 0 -0.001403106749833301 0 0 0 0 
0.4461519066117375 -0.2656251227340252 -0.5558797023643917 -0.04636378235856574 -0.08880627525871387 -0.001003020224382326 0.2567141306478576 -0.01436638577324227 -0.003326288090981324 1.084202172485504e-19 0 -0.009829226598125915 
0 0 0 0 0 0 0 -0.001403106749833301 0 0 0 0 
0 0 0 0 0 0 0 -0.001403106749833301 0 0 0 0 
0 0 0 0 0 0 -0.02075059540372338 -0.001403106749833301 -0.003079556003364968 0 0 0 
-0.2877605385612242 0.3636906997479112 -0.08736177855584074 -0.157054239541287 0.007793018756147714 -0.004570369533100487 -0.0165658759456048 -0.01529753552879596 -0.02140810821455933 -0.04216980581159211 -0.01115991132936812 -0.02533527345125867 
-0.04733494967440753 -0.02399601076530789 0.08269633794808537 0.1107185547960164 0.01478806461375355 2.168404344971009e-19 -0.03673177747863891 -0.01831679100962329 4.336808689942018e-19 0 0 0 
0 0 0 0 8.673617379884035e-19 0 0 0 0 0 0 0 
-0.1531672946438434 0.2770954243144183 -0.08736177855584076 -0.1186461870652104 -0.08363928873739963 -0.002505266563952885 -0.0165658759456048 -0.01529753552879596 -0.01563591432565521 -0.03545141069485024 -0.008787376764843122 -0.01624468571404951 
-3.469446951953614e-18 0.03038385781723301 0 -0.0243223242311679 0 0 0 0 0 0 0 0 
-0.1134513701404371 0.3241159209602387 -0.02951684477174201 -0.05846889344316675 -0.337980479477878 -0.002513504300349091 -0.09087024797763477 -0.01226846335831024 -8.131516293641283e-19 0 -4.336808689942018e-19 0 
0.4358843365419813 -0.189593689034825 -0.332445829729787 -0.00684885191528373 -0.02231081676538119 0 0 0 0 0 0 0 
-0.1603891280264014 0.389961107413983 -0.2287383517876602 -0.006899158877672216 0 0 0 0 -0.006896146681572915 0 0 0 
0 0 0 0 0 0 0 0 0 0 0 0 
0.419322263895251 -0.4778550924573464 0 -0.004612223139182412 -0.01915057441934104 0 0 0 0 0 0 0 
-0.1603891280264014 0.389961107413983 -0.2287383517876602 -0.006899158877672216 0 0 0 0 -0.006896146681572915 0 0 0 
0 0 0 0 0 0 0 0 0 0 0 0 
-0.1980501638747931 0.3601836244065914 -0.0160574656274451 -0.03370726181373993 -0.2368962928116207 0 -8.673617379884035e-19 -0.003153093347446464 0 0 5.421010862427522e-20 0 
0.008316405966794361 -0.04212849083926517 0.01206049206120132 -0.02383888022215936 3.469446951953614e-18 0 -0.02294009501451686 0 -0.005822067319086112 0 -0.01005490826578929 0 
-0.1980501638747931 0.3601836244065914 -0.0160574656274451 -0.03370726181373993 -0.2368962928116207 0 -8.673617379884035e-19 -0.003153093347446464 0 0 5.421010862427522e-20 0 
0 0 0 0 0 0 0 0 0 0 0 0 
-0.1648868073939652 -0.04155356500150499 0 0.3176836212985959 -0.1092031798466845 0 0 0 0 0 0 -0.0002860314915511351 
0.40097965600446 -0.2649449746206192 -0.2366788390351452 -0.1583120419003492 -0.1434063773632486 -0.04367912684725719 -0.005007540909615943 -0.01180138030201856 -0.005972957349613704 -0.001352560067422924 1.734723475976807e-18 -0.0001800421385252706 
0 0 0 -0.001956613427234554 0 0 0 0 0 0 0 0 
0.3761570105324656 -0.5282103326561789 0 -0.001956613427234554 0 0 0 0 0 0 0 0 
0.06211878426748167 -0.06680051932922876 -0.02572286141094073 0 0 0 0 0 0 0 0 0 
0 0.00401902599739887 -0.02572286141094073 0 0 0 0 0 0 0 0 0 
-0.04600458909988195 0.07053742273327814 -0.02572286141094073 -0.00236114858181879 0 0 0 0 0 0 0 0 
0 0 0 0 0 0 0 0 0 0 0 0 
0.1407815532783578 -0.1545532299236544 0.1463177531574744 -0.1202120847701535 0.02478503677200093 -0.002960075165765783 -0.02801480812633176 0 -0.009514634948708208 -3.523657060577889e-19 -0.01582183854997869 -0.01630940348972747 
-0.0008600824152280064 -0.2610251297208311 -3.469446951953614e-18 0.3263628321527177 -0.04865040119617167 -0.003113376267478183 -2.602085213965211e-18 -0.01118178395611674 -0.01746853855793452 0 -0.008100231364654847 0 
0 0 0 0 0 0 0 0 0 0 0 0 
0.629238788915519 -0.5981004466862206 -0.05659600015790561 -0.08886721903486161 0.1374573093281086 0 -0.02801480812633177 0 -0.003496269806526974 -3.523657060577889e-19 0 0 
0.04056813932620838 0 0 -0.04456052654497034 -0.02853738503417342 0 0 0 0 0 -0.008100231364654846 0 
0.2034472029841949 -0.4060573787261502 0.01379459044949857 0.1938992509382902 -0.08092849383173624 -0.002399885730637181 0.110089483950528 0 0 0 -0.001847152830012634 -0.0108814895220337 
0.05314247845296991 0 0 0 -0.009958602159153175 0 0 -0.0583077911655829 0 0 0 0 
0 0 0 0 -0.009958602159153175 0 0 0 0 0 0 0 
0 0 0 0 -0.009958602159153175 0 0 0 0 0 0 0 
-0.4285856567815077 -0.3983129205762164 -0.1472090491264552 0.6288068719886618 -0.1339804010067294 -0.01108523889208331 -0.07769618691539738 -4.336808689942018e-19 -0.04122213678241559 -0.007970403940404512 -0.06775382243019204 0 
0.02333819369567043 0.05996742377404912 0.08828194472553692 -0.1338072581634181 0.00924529196397576 -0.001455028809845824 -0.008943842876559865 0 -0.01158600034799663 -0.0009251407836310442 -0.00954527737464452 0 
0 0 0 -0.1957107156034586 0 0 0 0 0 0 0 0 
-0.0763021681923174 0.136561881690952 -6.505213034913027e-19 -0.06662948053071781 0 -0.001455028809845824 -0.008943842876559865 0 0 -0.0009251407836310442 0 0 
0.2305926282884529 -0.272645558042067 0.06804983960655799 -0.1321688021394113 0.1615393174354128 -0.002612141944843072 -0.03333621539085369 -0.00286638221851321 -4.336808689942018e-19 0 0 -0.009406836882815694 
-0.1544785339330615 -0.09416550810823204 0.1180855020853269 -0.09072251192405936 -0.001231840165542247 -0.005941355085134402 0.322872006611581 -0.003283825686625195 0 0 -0.007583061363053162 0 
0.1224409313983293 -0.2477006676677961 0.1020344917570303 0.00733616828956039 0.08356499289073964 0 -0.07122409907845768 0 0 0 -0.002259280274411098 -0.01120930917363183 
0.1208213209476388 -0.1738684843702878 -0.006500250563054274 0 -0.04773540689436202 0 -0.02841405425608002 0 0 0 0 0 
0.3694582900936481 -0.3397971461993974 -0.05275838194294603 -0.01938399291545476 0.1175152593385009 -0.001921847806171958 0.1093307982852528 0 0 0 0 0 
0 0 -0.006500250563054274 0 -0.04773540689436202 0 -0.003159487023378915 0 0 0 0 0 
-0.1416553456297009 0.1649058077359962 -0.2208822074300711 -0.04218578863285399 0.1306837691119184 -0.002204957748431764 -0.126012731558761 0 0 0 0 0 
-0.0270841677365543 -0.003750132411637061 0.04335972550093407 -0.005737276555087752 0.07238088253983317 -0.01389483876116727 0.1151207407988111 -0.007668160541313324 -0.006896146681572915 -0.0008538161478053097 0 0 
0 0 0 0 0 0 0 0 0 0 0 0 
0 0.1186634668095696 0 -0.02546520210300213 -0.02862798053318117 0 0 0 0 0 0 0 
0 0 0 0 0 0 0 0 0 0 0 0 
-0.02564661364892985 -0.1120299230380236 0.2198710909042865 -0.03084298791393313 -0.07787490696693961 0 0.1915285882784849 -0.01839641039545253 0 -0.00736694827013863 0 -0.007422859455506664 
-0.06827053818350282 0.1502469900586557 -0.008829068900387644 -0.02697949560303333 -0.001969032595483488 -0.001873302820150783 0 0 0 -0.01182225827858819 0 0 
-0.04033822471195164 0.08882559014774923 0 -0.04134429811101689 -2.602085213965211e-18 -0.01525851687359763 -0.02960959989621862 0 -2.168404344971009e-19 -0.01182225827858819 0 0 
6.938893903907228e-18 0.04160761789485984 -0.08197242752328403 -0.002176570627645009 -1.951563910473908e-18 0 -0.04558053404997379 0 0 0 0 0 
0 0 0 0 0 0 0 0 0 -0.01182225827858819 0 0 
0 0 0 0 0 0 0 0 0 -0.01182225827858819 0 0 
-0.04882777688372426 0.2381317065909737 -0.544438200124812 0.09838566284801935 -0.1472081523090449 0 -0.06689316641937253 0 -0.005906535800556173 -4.336808689942018e-19 0 -0.001163210068664473 
-0.3859739766538406 0.4245189535299046 0 -0.03555194890897233 3.469446951953614e-18 0 -0.00501708516433128 0 0 0 0 0 
-0.1855055176650825 0.1621837882400457 0 0 0 0 0 0 0 0 0 0 
-0.1855055176650825 0.1621837882400457 0 0 0 0 0 0 0 0 0 0 
-0.1855055176650825 0.1621837882400457 0 0 0 0 0 0 0 0 0 0 
-0.01982845678567208 0.003845769455439737 0.1190339587108625 -0.02434108221095281 0.02824320555347285 0 -0.06675636047818602 -0.0006141477581507404 -0.009087480009965935 0 0 -5.421010862427522e-20 
-0.01917837445789844 -0.1640747314965798 0.08097431691052809 0.1322665045283207 0.08125355666983743 -0.003456528750232923 0.1195711311972821 -0.0001319080299426725 -0.01104324880821993 -0.002881998281580501 -0.0005436978669694478 -0.001611116340749624 
0.3908807361322981 -0.2780063405424146 4.336808689942018e-19 -0.003502423925231589 2.168404344971009e-18 0 -0.03203628811867239 0 0 0 0 0 
0.4505805376555774 -0.243796224991929 -0.001946681250647408 -0.05867364775375235 -0.0244962915380032 0 0 -0.002234615859606048 0 0 0 0 
0.2215685629415477 -0.1448916782310343 0 -0.05867364775375235 0 0 0 0 0 0 0 0 
-0.04591946186212331 -0.04522632346515797 -0.004236357863147956 0.1369108220871277 -0.03608578703594163 0 0 0 -4.336808689942018e-19 0 0 0 
0.2215685629415477 -0.1448916782310343 0 -0.05867364775375235 0 0 0 0 0 0 0 0 
0.2215685629415477 -0.1448916782310343 0 -0.05867364775375235 0 0 0 0 0 0 0 0 
-0.04821052415450024 0.2356722835098188 0.0807444720073919 -0.06716830033018371 -0.1879265632311943 -0.00233437233984913 -0.02212718246911399 -0.009193811034129348 -0.001991422473163992 -0.009565175369743774 -0.001992477122852999 0 
-0.09961386206727343 0.1457411125250138 0 -0.003568277711259704 -0.04167967187987843 0 0 0 0 0 0 0 
-0.1504180153130749 0.3342409128994288 -0.07813456530399909 -0.1123076412604314 0.04687625642758217 0 -0.02972262100287453 4.336808689942018e-19 -0.02282016722783633 -0.009565175369743772 0 0 
0 0 0 0 0 0 0 0 0 0 0 0 
0 1.040834085586084e-17 0 0 -0.05049858199797509 0 0 0 0 0 0 0 
-0.03558925465351823 0.006524456663780522 0 0 0 0 0 0 0 0 0 0 
0.03414613889787264 -0.0796367748064136 0 -0.05798343091989254 -0.0009039405068348525 0 -5.204170427930421e-18 0 0 0 0 -0.006610708171769905 
0 0 0 0 0 0 0 0 0 0 0 0 
-0.08875157560191135 0.09462856426024761 0 -0.05798343091989254 0 0 -5.204170427930421e-18 0 0 0 0 -0.006610708171769905 
0.5544927115060654 -0.01913727829267833 -0.1377297709590721 -0.3996382273819237 -0.1066950723564367 0 -0.1131672134154762 -0.003473427971918988 -0.006153863951685565 -0.01931904071592431 -0.01419252113454165 -2.168404344971009e-18 
0.1578607348015144 -0.008634225518014399 0.02837617065851866 -0.1183383043568078 -0.03135365285577371 0 -0.03247317386250876 0 0 0 -0.001232713416944183 2.168404344971009e-19 
0 0.00230375497964755 0 0 0 0 0 0 0 0 0 0 
-0.2473963070046019 0.1568020975176835 -0.1472475847713078 0.2653413100748936 -0.03362122877510892 0 1.084202172485504e-19 0 0 0 -0.02681653924056494 0 
0 0.00230375497964755 0 0 0 0 0 0 0 0 0 0 
0 0.00230375497964755 0 0 0 0 0 0 0 0 0 0 
-0.2579357052967036 0.3144318735403132 0 -0.04443457754012791 0 0 0 0 0 0 0 0 
-0.2579357052967036 0.3144318735403132 0 -0.04443457754012791 0 0 0 0 0 0 0 0 
-0.05373673777001076 0.06335840612279714 0 0 0 0 0 0 0 0 0 0 
0 0 0 0 0 0 0 0 0 0 0 0 
0 0 7.37257477290143e-18 0 0 0 0 0 0 0 0 0 
0.259681937585316 -0.2921678074035535 -0.03770357791956752 0.08665353838355674 0.04632445035283743 -0.03468686121625361 -0.09991800998124184 -0.02145962418465985 4.065758146820642e-20 0 -4.87890977618477e-19 0.184719506431244 
0 0.06530087381107043 0 -0.002895249516048254 -0.005428894886627187 -0.002208378262791359 0 0 0 0 0 -0.002770062411918287 
0 0 0 0 0 0 0 0 0 0 0 -0.02108714341598493 
0 0.06530087381107043 0 -0.002895249516048254 0 -0.002208378262791359 0 0 0 0 0 -0.002770062411918287 
-0.009562897716481184 -0.0946449425653637 -0.01325942250735176 -0.03802010104118603 0.08701977187900595 0 0 0 0 0 0 0 
-0.2460102132633843 0.1780933978738097 -0.03423183884501314 -0.1374198284072553 0.08737034384818201 -0.003172160726437285 -0.03635633726033621 0 0 0 -0.01575945754191454 0 
0 0 0 0 0 0 0 0 0 0 0 0 
0 0 0 0 0 0 0 0 0 0 0 0 
0.2090052563071448 -0.1361287943227626 0.01757243715544614 -0.05009867426741427 0.002598379488647724 -0.002335975532634179 1.734723475976807e-18 0 0 0 -5.421010862427522e-20 0 
0 0 0 0 0 0 0 0 0 0 0 0 
0 0 0 0 0 0 0 0 0 0 0 0 
-0.008159958385636918 0.4344016382006566 -0.2547883945247193 -0.0006769372130629865 0 0 0 0 -0.002022906071676704 0 0 0 
0.1193138912915249 -0.4066682418158647 0.4811556712856416 -0.1669989628595846 -0.0578201090096163 -0.003763507812274957 -0.04014656532293453 -0.0007460557880934156 0.1776767823682379 -0.007496324873145882 -8.505909960430081e-05 -0.002830111926888803 
0.2436565969500636 -0.004908921238250964 -0.2614073109898443 -0.07499656088064104 -0.04978567685784531 0 8.673617379884035e-19 -0.003885981860451093 -0.002022906071676704 0 0 -0.001352343902460818 
-0.1147182575260909 0.09186953398692577 -0.2254682582250164 0.1039028089771946 -0.0301908528771684 -0.004798113102917705 -0.07148857868735373 -0.005624782758802867 -0.01914838532206598 -0.0161914934422821 -0.01746513642186842 -0.01212796139240007 
-0.008159958385636918 0.4680642255732392 -0.2614073109898443 0 0 0 0 0 -0.002022906071676704 0 0 0 
-0.9848847730911082 -0.4538951473303134 1.328215126121662 -0.1028676249416839 -0.03971530763891418 -0.001396474876706801 -1.517883041479706e-18 -0.0007460557880934156 -0.06396741299879663 -0.007496324873145882 -8.505909960430081e-05 -0.002830111926888803 
0.374315872370959 -0.04390243834470071 -0.2614073109898443 -0.01223605465387969 -0.0398673902968458 0 0 -0.003885981860451093 -0.002022906071676704 0 0 -0.001352343902460818 
-0.008159958385636918 0.4680642255732392 -0.2614073109898443 0 0 0 0 0 -0.002022906071676704 0 0 0 
0.04418349188958169 -0.1386362802192373 0.001521477300388056 0.07223298992412322 0.1791078376982863 -0.01198891150990802 -0.06486335599105487 -0.01521049063874388 -0.01247801518417836 -0.02232901959316188 -0.03271220405128408 -0.009840198308401557 
0.1144168349715054 -0.1722976157189163 -0.01100594827146332 0.1205308244943782 -0.02875176403824524 -0.01387805169048251 0.08735549130071905 -0.01024352870702992 -0.01616133698193764 -0.02191118666480256 -0.01399154493293739 -1.387439967602544e-18 
0.1187759498417479 -0.02688834824347146 0.04045448994915656 -0.0594376248448118 -0.2326531977836922 -0.002248197528490166 -0.01183436843202386 0 -4.336808689942018e-19 0 -2.710505431213761e-20 0 
0.1582580674245722 -0.1689165142833388 0 -0.01589751893571135 0 0 0 0 0 0 0 0 
0.1582580674245723 -0.1689165142833387 0 -0.03122676055957899 0 0 0 0 0 0 0 0 
0.2513415000663919 -0.08937329650033776 -0.004623117173756353 -0.1005819901952586 -0.03701806459564494 -0.002335975532634179 0 0 0 0 0 0 
0.3158369670764524 -0.3005201568946245 -0.007800315469090837 0.02539061255635331 3.469446951953614e-18 0 0 0 0 0 0 0 
0.1582580674245722 -0.1689165142833388 0 -0.01589751893571135 0 0 0 0 0 0 0 0 
-0.1612366123733937 -0.4279236697624161 -0.0005800734237131084 -0.02692529219595383 0.5074037855215691 -0.002539639485737801 -0.0009663751931819834 0 0 0 0 -0.00349418222434899 
0 0.07958400480199924 0 -0.001720927910464289 -0.07825180346806837 0 0 0 0 0 0 0 
-0.2877837831422657 0.1044359020557144 0 -0.01719959656302043 0.2260765014226555 0 0 0 0 0 0 -0.009406836882815694 
0 0.07958400480199924 0 0 -0.07825180346806836 0 0 0 0 0 0 0 
0 0.07958400480199924 0 0 -0.07825180346806836 0 0 0 0 0 0 0 
-0.1595191426767793 -0.1916499869150852 0 -0.01345460841856972 0.2702769789390059 0 0 0 0 0 0 -0.009406836882815694 
0 0.1202045705344064 0 0 -0.2583997755199051 0 0 0 0 0 0 0 
-0.2117228027367538 0.2207352880333751 -0.008583892956297138 -0.03027695835861195 -0.1102686539622239 -0.008898135430056697 -0.05527664681729347 -0.006687074128826972 -0.003100437495734664 -0.001722114293465936 -0.001085463725663566 -0.02220027523213379 
0 0 0 0 -0.1782975894463995 0 0 0 0 0 0 0 
0.02249173161435233 0.03847250716472252 0.07738933450222957 -0.01955371736644971 -0.02654724440179065 -0.003474947577107361 0 0 0 0 0 0 
0.0234738358134197 0.01489528846403186 -0.03226092342994257 -0.01133729793008827 -0.04113822223003616 -0.0003699461875598148 0 0 -0.01416736656543587 -0.002828179758927657 8.673617379884035e-19 -0.005606528734828053 
-0.1932098146067195 0.09296367781261476 0 0 0 0 0 -0.003016390013778857 0 -0.02252374978413113 0 0 
-0.07850276691253187 0 0.06445675272065009 0 0 0 0 0 0 0 0 0 
0 0 0 0 0 0 0 0 0 0 0 0 
0.5710062575988286 -0.5476377429047605 2.168404344971009e-18 -0.05735732982662869 0 0 0 0 0 0 0 0 
0.5710062575988286 -0.5476377429047605 2.168404344971009e-18 -0.05735732982662869 0 0 0 0 0 0 0 0 
-0.03491275545207202 -0.1137975429451456 0.1330084837023958 -0.1148028714547633 0.01901668969422244 -0.004119596760445409 -0.005071985027418692 -0.01072830859799114 -0.001906203838178419 -0.01511518105040035 -0.00350174151380873 0 
0.08661770990614606 -0.04889433592953203 -0.2286215395215101 -0.04099688991348829 -0.01974912834076798 -0.004028780667126007 0.08323021380359913 0 0 8.673617379884035e-19 0 2.168404344971009e-19 
0 -0.1880107267437836 0.07568221516581122 0 -0.2717245457813516 0 -2.096521598220491e-06 0 0 0 0 0 
-0.1284325670905067 -0.1150642678256998 0.2204597859720417 -0.01159686528811674 0 0 -2.096521598220491e-06 0 0 0 0 0 
-0.1258889687268759 -0.02778899907188958 0.2268259533995657 -0.0234065753807465 0 0 -0.005023285120112285 0 -4.336808689942018e-19 0 0 2.168404344971009e-19 
0.1408682405199786 -0.1622804627622614 3.469446951953614e-18 0.05610474779940113 -8.673617379884035e-19 0 0 -0.002866382218513209 0 0 0 0 
-0.1912956674747927 0.03586008088098237 -0.01778717534272762 0.1608304341660206 -0.0104012179646137 0 -0.0284971139026982 0 0 0 0 0 
0 0 0 0 0 0 0 0 0 0 0 0 
0.06568355649823412 -0.01036446594957548 0 -0.01153716359217349 0 0 0 -0.002866382218513209 0 0 0 0 
0 0 0 0 0 0 0 0 0 0 0 0 
-0.08609145652087638 0.1722495489488746 0 -0.03832724080284956 -0.009048182114732468 0 0 0 0 0 -0.006992759176481018 0 
0.0241623159968336 -0.1007130129758368 -0.02265414918040939 0.2004693138463579 -0.04489785918290715 0 0 0 -0.0132838814203572 0 0 0 
0 0 0 -0.02049389705995291 0 0 0 0 0 0 0 0 
0 0 0 -0.02049389705995291 0 0 0 0 0 0 0 0 
0 -0.1408190772024686 -0.0002858251760690182 0.1426187814143686 -0.02244892959145358 0 0 0 0 0 0 0 
0 0 0 -0.02049389705995291 0 0 0 0 0 0 0 0 
-0.2277939085683521 0.1337380159817753 -0.02867710844136785 0.01942383648017003 0.1080481251306254 0 -0.02092197178134191 -0.01188149935469729 0 0 0.2534127332775751 0 
0.06834288606317604 -0.1531940900031547 0.07636014691314104 0.09919210400225723 -0.03130547146081921 0 2.602085213965211e-18 -0.01394489059052815 -0.02149795940683942 0 -0.0456458575214273 0 
0 0 0.1045444129856499 -0.03316190758376027 0 0 0 0 0 0 0 0 
0.2287865723693798 -0.5278902893060426 0.1484012571149211 0.1012205254691301 -0.04188665147677131 -0.01090216755892609 -0.02553672524332269 -0.003080082429745683 -0.01616133698193764 -0.02191118666480256 -0.01342593224095376 0 
-6.938893903907228e-18 0 0.02411120203370713 -0.08417204725074627 0 0 0 0 0 0 0 0 
0.1404460164530787 -0.2722121997633994 -0.005577529165454193 -0.08619873014558201 0.1922060904909075 0 0 0 0 0 0 0 
0.5833315483633393 -0.4491031976115454 -0.08900266928502076 -0.1150824340118233 -0.02525176775496305 0 -0.01630621407554478 0 -0.0002780138158921066 0 0 -0.004482570210375673 
-0.08166198896578174 0.1315076067820389 0.01822172977711206 -0.02057379016743481 -0.0211679424032639 0 0 0 0 -0.02323715329403273 0 0 
0.2438905289303506 -0.1649758505082321 0 -0.07314620801241707 -0.01674965596502233 0 0 0 0 0 0 0 
0.002946584818286867 -0.01206416312423064 0 0 -0.01674965596502234 0 0 0 0 0 0 0 
0.6440979164016142 -0.5631870103980394 -0.08900266928502076 -0.1150824340118233 -0.02525176775496305 0 -0.01630621407554478 0 -0.0002780138158921066 0 0 -0.004482570210375673 
0.002946584818286863 -0.01206416312423064 0 0 -0.01674965596502234 0 0 0 0 0 0 0 
0.03710500312431431 0 -0.08900266928502078 0 0 0 0 0 -0.0002780138158921066 0 0 0 
-0.008344160427980734 -0.1215783632486949 0.1299009777749349 -0.03354703270195332 -0.01677687589534891 0 0 0 -0.01094548336672579 0 0 0 
0.03710500312431431 0 -0.08900266928502078 0 0 0 0 0 -0.0002780138158921066 0 0 0 
0.2290902342393314 -0.2445952321171249 0.1488098965558068 -0.02564288782010764 0.02051597860192879 0 0 0 0 -0.002486588473032318 -0.04260670228706358 -0.005773014766796298 
0 0 0 0 0 0 0 0 0 0 0 0 
0.3419658773880839 -0.3094099056696184 -7.0816703782915e-05 -0.0123539777050956 -0.02053783229931041 0 0 0 0 0 0 0 
0.06341059273236679 -0.009464337654979697 0.005841668643344777 -0.1012343298676627 -0.03520254012561756 0 -0.0555136335697495 0 0 0 0 -0.003285819970045016 
0.03131909489620181 -0.08074804741842276 0 6.505213034913027e-19 0 0 0 0 0 0 0 -0.00043452246364138 
0.2052103982594349 -0.1885544627097228 -1.734723475976807e-18 -0.06776107095472664 -0.006366603396431256 0 8.673617379884035e-19 0 0 0 0 -0.003285819970045016 
0.144614352146415 -0.1972255006313901 0.01928106126778244 -0.06401974004423788 0 0 0 0 -0.001465272291496877 -0.001603037630475192 0 0 
0.04203752951487044 -0.01460903518455628 -0.006348377012964452 -0.05250238615945639 -0.02963965164442187 0 0.1602480123566061 0 0 0 0 0 
0 0 0 -0.06401974004423788 0 0 0 0 0 0 0 0 
-0.1137265067318023 0.03473188960839221 0 0 0 0 0 0 0 0 0 0 
0 0 0 0 0 0 0 0 0 0 0 0 
-0.2129055447218142 0.3276662159220224 0.07925998873691956 -0.1500053187149936 -0.08709644627447163 0 -0.02373598201928897 -0.00644240976292233 0 -0.006009045168497698 -0.002385902903205621 -0.002046232440291992 
0.2861040611536604 -0.3259522973863635 0 0 0 0 0 0 0 0 0 0 
0.0004045933408739592 0.03227083871908908 -0.03028047856463786 -0.004031631237918748 0 0 0 0 0 0 0 0 
-0.1515391113527285 0.1840559697619988 -0.03028047856463786 -0.1008381382333791 0 0 0 0 0 0 0 0 
-0.08178316422320143 0.258707238285243 -1.734723475976807e-18 -0.08344897346289849 -0.07651361464576163 0 -0.08595877608503515 0 0 0 0 0 
0 0.04657337677974886 0 -0.004534984715636728 0 0 0 0 0 0 0 0 
-0.2316107281726558 0.2901490122047985 -0.05299563611346245 -0.09471865739433295 -0.01132388543527101 -0.002223918971392879 -0.004935564401403011 -1.734723475976807e-18 -0.007406028607039664 -0.01012975465471102 0 -0.007022400803658179 
0 0 0 0 0 0 0 0 0 0 0 0 
-0.001442223743086533 0.07315043062899136 -0.05926078781402428 -0.08090667651797265 0 5.421010862427522e-20 0 0 0 0 -3.469446951953614e-18 -0.007022400803658179 
-0.2820031599510919 0.3232063076667383 0.07570365873806077 -0.05596477085474129 -0.1079347623235515 -0.002446785383108922 0 0 0 0 -0.001466562898447453 0 
0 0 0 0 0 0 0 0 0 0 0 0 
0 0 0 0 0 0 0 0 0 0 0 0 
0.2657496253795317 -0.1519778284159271 -0.006668321793100751 -0.02882843814344022 -2.602085213965211e-18 0 -0.04024102902452312 0 0 0 0 -0.006610708171769905 
-0.1539551606127643 0.2464301548085501 -0.03226092342994258 -0.003511379777569783 0 0 0 0 -0.01416736656543587 0 0 0 
-0.1292924418852189 0.15664091030897 0 -0.003511379777569787 0 0 0 0 0 0 0 0 
-0.1292924418852189 0.15664091030897 0 -0.003511379777569787 0 0 0 0 0 0 0 0 
0.07557838344851266 -0.05214715746675806 -0.0198174820046894 0 0 0 0 0 0 0 0 0 
0.7835278633536074 -0.6077184707714381 -0.04295234086190294 -0.1663167934699988 -0.08171038033031437 -0.01039067523940729 -0.0251360892776547 -0.02791560245097537 -0.01575345066281336 -0.004963577651638215 -0.009242523059275932 -0.008520720706081803 
0.02508737652733953 0.001807298128374629 -0.0198174820046894 0 0 0 0 0 0 0 0 0 
0.07557838344851266 -0.05422434552601114 -0.0198174820046894 0 0 0 0 0 0 0 0 0 
0.7835278633536071 -0.6077184707714384 -0.04295234086190294 -0.159590916861761 -0.0817103803303144 -0.005676432936515111 -0.02371421357611776 -0.02791560245097537 -0.01575345066281336 -0.004963577651638212 -0.009242523059275936 -0.008520720706081803 
-0.2804010594466657 0.2323961512566901 0.1906432545696261 -0.1058582818804184 0.0348292172256371 0 -0.0191751942370829 0 0 0 0 0 
0.07557838344851266 -0.05422434552601114 -0.0198174820046894 0 0 0 0 0 0 0 0 0 
-0.05501905216055795 -0.01992510037457758 0.0478318416486626 0.06378757389840931 -0.01107761713605979 -0.006113622024652339 -0.002862513838303848 0 0 0 4.336808689942018e-19 -0.002716609717427941 
0.0108200328799974 -0.1145784920255444 0.001584481147104459 0.180280481847033 0 0 0 0 0 0 0 -0.002716609717427941 
0.01259117217895172 0.04826837117163958 0 -0.02251741580639316 -0.02874966794245101 0 0 -0.02270824731528465 0 0 0 -0.002716609717427941 
0.01575095267094365 -0.001891608822198155 0 -0.02251741580639316 0 0 0 0 0 0 0 -0.002716609717427941 
0.01082003287999739 0.1125386705617831 0.001584481147104459 -0.02251741580639316 0 0 0 0 0 0 0 -0.002716609717427941 
0.01575095267094365 -0.001891608822198155 0 -0.02251741580639316 0 0 0 0 0 0 0 -0.002716609717427941 
0.01942007360254864 -0.1463057954716879 0.06025066682878402 0.04319400027574462 0.01539270695275053 0 0 0 -0.006018365142181236 0 -1.084202172485504e-19 -0.01623737827422675 
0.03625282961385042 -0.02592300061508376 -0.04764644583738209 0.01712486134105233 0.07580996418188875 -0.004345694975253014 -0.01724744599013262 -0.01562945896652581 -0.00400579849334022 -0.01710497556101001 -0.001344496079247329 -0.009367224441044512 
0.01798671619963768 0.1321911117379903 -0.01578333043406259 -0.08690646946831959 -0.02334540791251144 -0.005124739118321901 0.04350834166553597 -0.01549950915295766 -4.336808689942018e-19 0 1.734723475976807e-18 -0.004286982476557892 
-0.04131405617982736 0.09182686710229784 0 -0.02421245755898977 -0.003681203380289426 0 0 0 0 0 0 0 
-0.05633977760327752 0.1918308793639146 -0.02770220981658846 0.002369049670865403 -0.03108930705262004 -0.004345694975253014 0 -0.01018234519061849 -0.003150768600094614 0 0 0 
-0.364127344375012 0.4211527900680314 -0.003431658076764752 -0.05812030836330414 -0.003681203380289413 0 -0.02454039678156082 -0.01549950915295766 0 0 0 -0.004286982476557892 
-0.3585562273854772 0.4211527900680313 0 -0.05812030836330414 -0.003681203380289426 0 0 0 0 0 0 -0.002608486111424402 
0.09672420076518509 0.02049447758230813 -0.0910616367066223 -0.03783124312966637 0.08465883239648982 0 -0.04938817449777691 0 0 0 0 0 
-0.1896631108050961 0.2698282447953249 -0.1158671001312446 -0.1112883583322193 -0.1240175040830591 -0.02537164260685688 -0.06485953997196264 -0.03081002361376232 -0.009601096187783254 -0.02881667956277248 -0.001309574039080229 -0.008142521991985587 
-0.09571088891347768 2.081668171172169e-17 0 0 0 0 0 0 0 0 0 0 
0.2991783957970612 -0.2097686404451499 0 -0.0813402714587661 -0.03348993798916192 0 0 0 0 0 0 0 
-0.5579763692434411 0.5936062585770363 -0.1158671001312446 -0.07354061536290669 -0.1240175040830592 -0.01602987401618358 -0.04529840273881908 -0.02412809009630797 -0.009601096187783254 -0.01705356864612329 -0.001309574039080228 -0.004797475466042314 
1.734723475976807e-18 0.03972526812329114 0 0 0 0 0 0 0 0 0 0 
-0.133931224650517 0.009865226790851561 -0.06682111369526131 0.2471530260550647 -0.01494279054690469 0 -0.01331796948067938 -0.01046712152739863 -0.001322616661682937 -0.01693226106646617 0 -0.006706297632176563 
-0.1694092726998885 0.1574795288633686 -0.02165646772647658 -0.1186505366561184 0.03758897841814298 -0.005927074222097778 -0.0658511018860438 0.1017671227270303 -0.02037570570666137 -0.01780876332912874 -0.02210796490876474 -0.009538548665092557 
-0.2379306363555437 0.2790547863243715 0 -0.06665110467067256 -0.001905809492394626 0 0 -0.008910877068749556 0 0 0 0 
-0.003929063652512294 0.1119358055473801 0 0 -0.008268921796461715 0 0 -0.01046712152739863 0 0 0 0 
-0.3528370035856142 0.3757040611079731 -0.02165646772647658 -0.2350189820932993 -0.004670922778859088 -0.005927074222097778 -0.05341875373696671 0.1017671227270303 -0.02037570570666137 -0.01780876332912874 0 -0.009538548665092557 
-0.2379306363555437 0.2790547863243715 0 -0.06665110467067253 -0.001905809492394626 0 0 -0.008910877068749556 0 0 0 0 
0 0.08451087406761031 0 -0.02006879401980865 0 0 0 0 0 0 0 0 
0 0 0 0 0 0 0 0 0 0 0 0 
-0.2103221773995293 -0.2301099117877292 -0.06700148262335603 0.1577073884919258 -0.02267815634885751 0 0 0 0 0 -0.0456458575214273 0 
-0.4285856567815076 -0.7966729117657311 -0.1472090491264552 1.152989836450125 -0.1339804010067294 -0.01108523889208331 -0.07769618691539738 -4.336808689942018e-19 -0.04122213678241559 -0.007970403940404512 -0.06775382243019204 0 
0 0 0 0 0 0 0 0 0 0 0 0 
0 0 0 0 0 0 0 0 0 0 0 0 
0.12940542408942 -0.1026695014990042 -0.03979243585353891 -0.02197074113703054 0.08441546178444184 0 -0.07661347760924835 0 0 0 -2.168404344971009e-19 0 
0.20926638865146 -0.01039854243637599 0 0 -0.1255346583741173 0 -0.09931077877559821 0 0 0 0 0 
0.1821968575090797 -0.1026695014990042 0 0 0.08441546178444187 0 -0.07661347760924835 0 0 0 0 0 
0.1821968575090797 -0.01039854243637599 0 0 -0.07587102514405099 0 -0.07661347760924835 0 0 0 0 0 
0 0.1659647948711745 6.505213034913027e-19 -0.08421188267384055 -0.0946888558933138 -0.007641916279460109 -0.04686620477155323 0 0 0 0 0 
1.301042606982605e-18 0.1659647948711745 0 -0.06097678506285433 -0.0946888558933138 -0.007467358786410547 -0.04686620477155323 0 0 0 0 0 
0 0 0 0 0 0 -0.0276364572018196 0 0 0 0 0 
0.005978035490336225 0 0 -0.01847394140309861 -1.301042606982605e-18 0 0 0 0 0 0 0 
-0.03579486577275319 0.02465129726814201 -0.05143139756803883 0 0 -0.002223918971392878 0 0 0 0 0 -0.01624468571404951 
-0.1091513896474668 0.180607046269421 0 0 0 -0.0171351039920478 0 0 0 -7.03391098780413e-05 0 0 
0 0 0 0 0 0 0 0 0 0 0 -0.01624468571404951 
0.358152379248674 -0.01914146609308685 -0.007562949331848806 -0.379531642265963 -0.2368962928116207 -0.001239263960442269 -0.003135046827935555 0 0 0 0 0 
0.3946645491888437 -0.296146415762771 0 -0.103524139936577 -0.003739093153332355 0 -0.003135046827935555 0 0 -0.002486588473032318 0 0 
0 -0.07699974964760364 0 0 0 0 -0.003135046827935555 0 0 0 0 0 
0.1074562440983965 -0.001565727329015937 -0.006348377012964449 0 -0.02163436592205754 0 -0.003135046827935555 0 0 0 0 0 
0 0 0 0 0 0 -0.003135046827935555 0 0 0 0 0 
0 0.03023831857138801 0 0 0 0 0 0 0 0 0 0 
0 0.03023831857138801 0 0 0 0 0 0 0 0 0 0 
0 0.03023831857138801 0 0 0 0 0 0 0 0 0 0 
0 0.03023831857138801 0 0 0 0 0 0 0 0 0 0 
0.07120000385798034 -0.1724467190818348 -4.336808689942018e-19 0.226093491151329 -0.05921251541381359 -0.002612141944843072 -0.01172291553817313 -0.01826606834568159 0 0 -1.002887009549092e-18 0 
-0.1425893415400371 0.1860918242439903 -0.01993082242336985 -0.04501784502886411 -0.03311983051681593 0 0 0 -0.002755158425820102 -0.002847400865221711 0 -0.00358622368692859 
-0.05654083599253587 0.07139697771628664 0.06617283918267282 -0.03522989965207475 0 0 -0.008621633136942562 0 -0.002381036799578472 0 0 0 
0 0 0 0 0 0 0 0 0 0 0 0 
-0.06569712282879688 -1.734723475976807e-18 0 -0.0322152747382926 6.505213034913027e-19 0 0 0 -0.002755158425820102 0 0 0 
-0.0565408359925359 0.1086698384184658 0 -0.03522989965207475 0 0 -0.008621633136942562 0 -0.002381036799578472 0 0 0 
0 -2.168404344971009e-19 0 0 0 0 -0.008621633136942562 0 0 0 0 0 
-0.5861378411418698 0.8614624702013124 -0.0219457856799955 -0.1598603305940616 -0.1817852572521148 -0.000596768693113172 -0.1034903516495431 -0.01676875705390878 -2.602085213965211e-18 0 0 -0.006352417727117561 
0 0 0 0 0 0 0 0 0 0 0 0 
0 0 -0.01004560992889073 -0.008876908263670189 0 0 0 0 -0.002580643271800254 0 0 0 
0.1897894995749337 -0.1244550987935319 -0.01004560992889073 -0.0164333330066573 0 0 0 0 -0.002580643271800254 -0.01176311091664919 0 0 
0 0 -0.01004560992889073 0 0 0 0 0 -0.002580643271800254 0 0 0 
0 0 -0.01004560992889073 0 0 0 0 0 -0.002580643271800254 0 0 0 
0.2486766455681675 -0.1808263034077205 0 0 3.469446951953614e-18 0 0 0 -0.00440795125655564 0 0 -0.0001800421385252704 
0.0738503133606403 -0.06413601538846175 0.2076062594415191 -0.3054549648071729 0.06642449812201212 0 -0.002458053421979449 0 0 0 -0.006100959649991743 0 
-0.1817988777639019 0.2731012752070101 -0.009406278611930576 -0.0841509956042919 -0.03133606318953757 0 -0.03140256584341369 0 -0.001270998774184472 0 0 0 
-0.0685352044757495 0.06586310318184203 -0.009406278611930576 0 0 0 0 0 0 0 0 0 
-0.0685352044757495 0.06586310318184203 -0.009406278611930576 0 0 0 0 0 0 0 0 0 
-0.08683819896442309 0.275330386323423 -0.1432024738680003 0 -0.1128553539653648 0 -0.002458053421979445 0 0 0 0 0 
-0.1817988777639019 0.2731012752070101 -0.009406278611930576 -0.0841509956042919 -0.03133606318953757 0 -0.03140256584341369 0 -0.001270998774184472 0 0 0 
-0.0685352044757495 0.06586310318184203 -0.009406278611930576 0 0 0 0 0 0 0 0 0 
0.1462418981187995 -0.07874674484680741 0.1950266646092655 -0.1790016233307593 -0.08263623156554556 0 -0.04045624816506017 0 0 -0.002442784270069945 -0.1725567190901544 0 
0.6393992858402279 -0.7116946139316885 -0.09106615193317756 -0.05057000574132343 -0.02063807439645964 0 -0.0762875628271981 -0.001501485472780831 -0.02018947462431512 0 0 0 
0.2936291290523088 -0.3189972733083332 -0.01994423602079359 0.005671276995498692 0.03566058708638665 0 -0.01581689730616673 0 -0.000211260467485804 0 0 -0.003055032401436384 
-0.2103221773995294 0 0 0 0 0 0 0 0 0 0 0 
-0.08393520863952293 0.04417001748973556 -0.04597442525570175 -0.06322876604254248 0.05419380496329849 -0.03115697730881214 -0.07922832766438573 -0.002792380362784767 -0.0112280126764344 -0.008979133049037672 3.577867169202165e-18 -0.01119850824198246 
-0.156448815632014 0.155091317514061 -0.01656570227042707 0 -1.301042606982605e-18 0 0 0 0 -0.01055616480639144 -0.002520184354921681 0 
-0.1207239644140078 0.157220135774175 0.01670841831968338 0.08076016159094079 -0.05013663937591117 -0.01234675771919483 -0.06684249210389866 -0.002792380362784765 -0.0112280126764344 -0.008979133049037672 0 0 
-0.05998196899357119 0.2006962209885786 -4.336808689942018e-19 -0.03832863883201814 -0.01330398404597777 0 0 0 -0.005772193888904134 -0.006718395116741854 0 0 
0 0 -0.03301084052227084 -0.08417204725074627 0 0 0 0 0 0 0 0 
0.5935350230803612 -0.3801767351023558 -0.07158955249618705 -0.08223675605130278 -0.07580028510594347 -0.00511753123979264 0 -0.005836607193667923 0 0 0 0 
0 0 -0.03301084052227084 -0.08417204725074627 0 0 0 0 0 0 0 0 
0.6314584334644403 -0.2906120423987519 -0.07158955249618705 -0.2583514283850044 -0.003988243129263803 -0.00511753123979264 0 -0.005836607193667923 0 0 0 0 
-0.02769547015579095 0 0 0 -0.01575585334500692 0 0 0 0 0 0 0 
-0.120607315680323 -0.1438900546146993 -0.002195727058954279 0.1933474374770356 -0.04093952714246635 0 0 0 0 0 0 0 
-0.06896294694851296 -0.2024739390367192 -0.002195727058954272 0.229927962790412 -0.01576276275408778 5.421010862427522e-20 5.421010862427522e-20 0 -0.0007703405751575991 0 0 0 
-0.06896294694851299 -0.127162190897304 0 0.1650060652699153 -0.01575585334500692 0 0 0 -0.0007703405751575991 0 0 0 
-0.02769547015579095 0 0 0 -0.01575585334500692 0 0 0 0 0 0 0 
-0.120607315680323 -0.1438900546146993 -0.002195727058954279 0.1933474374770356 -0.04093952714246635 0 0 0 0 0 0 0 
-0.06896294694851296 -0.2024739390367192 -0.002195727058954272 0.229927962790412 -0.01576276275408778 5.421010862427522e-20 5.421010862427522e-20 0 -0.0007703405751575991 0 0 0 
-0.06896294694851299 -0.127162190897304 0 0.1650060652699153 -0.01575585334500692 0 0 0 -0.0007703405751575991 0 0 0 
0.04079870640179644 -0.0682048975295081 0.00399188882993221 0.1766759250998027 -0.04093952714246635 0 0 0 0 0 0 0 
0.1585200474873396 -0.1630296057522722 -0.06999592104126841 0.2021573637054989 -0.01576276275408778 5.421010862427522e-20 -2.710505431213761e-19 0 -0.0007703405751575991 0 -0.08155452257255809 0 
0.1553256351955672 -0.05620799958177745 -0.05518650905033836 0.07500823391152278 -0.02528541947204251 -0.002743318418413806 -0.05147473506178916 -0.01279667343707623 -0.01940882686164637 0 -2.602085213965211e-18 -0.01899803831567902 
-3.469446951953614e-18 -5.281157701989188e-05 0 0 0 0 0 0 0 0 0 0 
1.427920489832987 -1.260331432959506 -0.1519928985712879 -0.2749623253457119 -0.09309181796389282 -0.01910649885066167 -0.009917944798464102 -0.03234130098598068 -0.007628535950939609 -0.007703278834762364 -0.0008776834135826486 -0.007774005115553232 
-0.05839571989842359 0.04787023334278498 -0.1788655634439839 0.05708418175081332 0.07458983785823031 0 0 -0.01529753552879596 -0.0008958973445676369 4.336808689942018e-19 0 0 
0 0 0 0 0 0 0 0 0 0 0 0 
-0.05567160518630433 0.1194177412225197 -0.006774351623325284 -0.001815742882703572 -0.0237323405178501 0 0 0 0 0 0 0 
0 0 0 0 0 0 0 0 0 0 0 0 
0 0 0 0 0 0 0 0 0 0 0 0 
0 0 0 0 0 0 0 0 0 0 0 0 
-0.09898597822693547 -0.05890062580198666 0.06798899541523271 0.07646887554519462 0.04197828985227425 -0.004544671569861302 -0.002730691093731058 -0.009787006237818049 -0.04122213678241559 -0.02232901959316188 -0.06480159885417464 -0.001345433877528894 
0.01526576748177022 0.08604250023818422 -0.0255454430059208 -0.01242600365680651 0 -0.00350970147342619 0 0 -0.0004604892339074704 0 0 0 
-0.03090789941155224 0.1099896613615358 -0.02554544300592081 -0.02685134511727912 -0.0422835811716116 -0.002539639485737801 0 0 0 0 0 0 
-0.008120337805113417 0.08545541558869715 -0.0255454430059208 -0.005282343175995442 0 0 0 0 0 0 0 0 
-0.009061952136213624 0.03912877180827517 0.1247903076656491 -0.0281056806385587 -0.01644237845103128 0 0 0 0 0 0 -0.0142392128069997 
-0.008120337805113417 0.08545541558869715 -0.0255454430059208 -0.005282343175995442 0 0 0 0 0 0 0 0 
-0.008120337805113417 0.08545541558869715 -0.0255454430059208 -0.005282343175995442 0 0 0 0 0 0 0 0 
-0.2724044909895141 -0.3882026954723015 -0.04472037088763538 0.6720101472145151 -0.04184438377554073 -0.04367912684725719 -0.008051684433334538 -0.006994625875033282 -0.006186869713664061 2.168404344971009e-19 -0.007803415379201314 -0.002535191479951412 
-0.03449695308563623 0 0 0.06576214227440071 0.05794584118448948 0 0 0 0 0 0 0 
-0.03449695308563624 0 0 0.07811897397649578 0 0 0 0 0 0 0 0 
-0.241124347819654 -0.7153227384221549 -0.04472037088763538 0.9185378178554614 -0.04184438377554073 7.589415207398531e-19 -0.008051684433334538 -0.006994625875033282 -0.001453022738654993 -2.168404344971009e-19 -0.007803415379201315 -0.001748041941152181 
-0.03449695308563623 0 0 0.06576214227440071 0.05794584118448948 0 0 0 0 0 0 0 
-0.04100769245838881 0.1055151446041559 -0.09302046882155482 -0.1202073840304747 0.09751565230036634 -0.03703219519421022 -0.02910948266419803 -0.008098621910815229 0 -0.002996396697004569 0 -0.000837816601366191 
0 0 0 0 0 0 0 0 0 0 0 0 
0.6977777585461549 -0.5681542567388761 -0.09106615193317756 -0.05057000574132341 -0.02063807439645964 0 -0.0762875628271981 -0.001501485472780831 -0.02018947462431512 0 0 0 
0.1162139197518579 0 0 -0.003072176692936773 0 0 -0.07628756282719812 0 0 0 0 0 
-0.3203882140596117 -0.5521159590331993 0.01881827067267845 -0.06618868738178306 0.6395836214413337 -0.01296035316643343 -0.1949601140454271 0 0 0 2.168404344971009e-19 -0.01130776373335523 
0 -0.0376425587193459 0 0 0.0437541425273823 -0.006746735643238843 0 0 0 0 0 0 
-0.177275836508939 -0.1212290626939318 0 0 0.08172530693330951 -0.006746735643238843 0 0 0 0 0 0 
-0.3897681026610224 -0.6625055038052338 -0.01562992543031997 -0.06618868738178306 0.8432535426156542 -0.01296035316643343 -0.1949601140454271 0 0 0 2.168404344971009e-19 -0.01130776373335523 
0 -0.0376425587193459 0 0 0.0437541425273823 -0.006746735643238843 0 0 0 0 0 0 
0 -0.0376425587193459 0 0 0.0437541425273823 -0.006746735643238843 0 0 0 0 0 0 
0.1836738070504288 -0.02716953762988479 0 0 -0.07254440329308121 -0.008287505428944415 0 0 0 0 0 -0.01348406214278444 
-0.1632690403216911 -0.008629215253154273 0.05010264229011992 0.072549310657682 -0.009478335864793285 0 -0.02246776223042958 -0.01248154421622522 -0.001363329649045962 0 0 0 
-0.1538122422953841 0.3654833401920629 -0.06265077261809661 -0.1045330312754447 -0.09042157434662264 0 -0.02246776223042958 -0.01248154421622522 0 0 0 0 
0 0 0 0 0 0 0 0 0 0 0 0 
0.2487414740553111 -0.2322338866706923 -0.01214083249421565 -0.04767064033501925 3.252606517456513e-18 -0.002932321553578859 -0.01755486038715665 0 0 0 0 0 
-0.1835727539040624 0.3578639331133077 -0.04487661109042862 -0.03976337499399604 -0.1371294603774195 0 -0.0229922501601378 0 0 0 0 0 
0.07681183033535494 -0.1611593007675874 -2.222614453595284e-18 -0.07077719832593522 -3.469446951953614e-18 0 -0.01426704670100616 0 0 0 0 0 
0 0 0 0 0 0 0 0 0 0 0 0 
0 0 0 0 0 0 0 0 0 0 0 0 
0.07361820790032854 -0.1084441406116542 -0.001439406006949295 -0.1160614937163144 0.1136996030547617 -0.001266137429775791 0.09519985581277811 -0.02495762393691897 -0.001810641331221625 0 3.035766082959412e-18 0 
0.01790733918049204 -0.09340053498460876 0.009913922663023374 -0.005158388902604931 0.2029734210803949 -0.00307003128303587 -0.004987872185144254 -0.01017576268471363 -0.006018365142181237 -0.005063623890166123 -0.005678782402882483 0 
0 -0.1709340673249788 0.04012892523945094 0 -0.006391228856367716 0 0 0 -0.006018365142181236 0 0 0 
-0.2568436281940703 0.3307711127450796 0.02859903150351099 0.0361296947019132 -0.1287677107851949 0 -0.004987872185144255 -0.01017576268471363 -0.006018365142181236 -0.0008538161478053097 -0.005678782402882483 0 
0 -0.1709340673249788 0.04012892523945094 0 -0.006391228856367716 0 0 0 -0.006018365142181236 0 0 0 
-0.1929876523569264 0.2769643687914475 -0.0938496037166979 0.1011797663216372 -0.2574989712392119 -0.002104470791357802 1.734723475976807e-18 -0.001501485472780831 -0.0005095559315045124 -0.001994159799373004 0 0 
-0.4489960941575096 -0.1354660179529045 0.2130173177507336 -0.07600671587773866 0.446092678001121 -0.002002277331653266 1.734723475976807e-18 -0.01148493565162193 -1.463672932855431e-18 0 -0.04694497215559485 0 
0.1020011016764744 -0.04977535097243145 -0.2970718348170101 0.2491724518648311 -0.2401198755038108 -0.0009589408533816112 -1.084202172485504e-18 -0.01260353668165755 -0.002755158425820103 -0.01963773351235507 -0.004133213278945952 0 
0 0.3732140923886729 0 -0.07488150593896623 -0.2564462975270771 0 0 0 0 0 0 0 
-0.5956079450866553 -0.9116823139899012 -0.1535719658564006 0.03668381622253598 1.100786793843009 -0.002002277331653266 0 -0.004905549876534872 0 0 -0.04694497215559485 0 
-0.2154585802873511 0.3685702586313186 -4.336808689942018e-19 -0.1652209486133045 -0.2605904797509015 0 -0.05334338221990195 0 -0.002755158425820102 0 0 -0.001163210068664473 
0 0.2996222703104391 0 -0.1177109216230795 -0.2564462975270771 0 0 0 -0.002755158425820102 0 0 0 
-0.157082024817177 0.1230969832545631 0 -0.03122425483786379 -0.001461578881551464 0 -0.006587479342258747 0 0 0 0 -0.00358622368692859 
0.1429794427105781 -0.09094886800213732 0.1423187810939545 -0.1960341160995975 -0.04756506152927858 0 0 0 2.168404344971009e-19 0 -0.002217943490036874 0 
-0.09131806080176406 0.05946360546920722 0 0 0 0 0 0 0 0 0 0 
-0.09131806080176406 0.05946360546920722 0 0 0 0 0 0 0 0 0 0 
-0.0505508950663295 -0.1393869222525215 1.734723475976807e-18 0.02726454876708435 0.1437416119872655 0 -0.001663290965493844 0 0 0 0 0 
0 0 0 -0.006156274082172616 -5.421010862427522e-20 0 0 0 -0.001636080193821432 0 -1.084202172485504e-19 0 
0 0 0 0 0 0 0 0 0 0 0 0 
0 0 0 -0.006156274082172616 -5.421010862427522e-20 0 0 0 -0.001636080193821432 0 -1.084202172485504e-19 0 
0.5855794488823864 -0.4709084424220691 -0.03219636366147641 -0.1336988229700742 -0.05380090695855377 -0.0007838866813953345 -0.03762883331965813 -2.168404344971009e-19 -0.0008958973445676343 -0.002828179758927657 4.336808689942018e-19 -0.006454279988225261 
0.01512441452245218 -0.02262620711337999 -0.003017862967468162 -0.004694666843649684 0 0 0 2.168404344971009e-19 0 0 0 0 
0.204586421218671 0.006217988473414451 -0.06792615388085005 -0.08180121924368029 -0.04807703447287604 -0.001691115987410088 -0.03497274701177061 2.168404344971009e-19 -0.0008958973445676369 0 0 0 
0.9414747323068328 -0.8882324859715907 -0.02835689916392817 -0.1190627920482178 -0.05380090695855373 0 -0.02323429150218988 -2.168404344971009e-19 -0.000895897344567636 -0.002828179758927656 4.336808689942018e-19 4.336808689942018e-19 
0 0 0 0 0 0 0 0 0 0 0 0 
-0.2061661969159602 0.1870935585587887 3.469446951953614e-18 -0.02040200848699306 0.03665835606577177 0 -0.02031580137639934 0 0 -0.004275942588891268 0 0 
-0.1229580590460153 -0.06414536891931047 0 0.1852429262204867 -2.439454888092385e-19 0 0 0 0 0 0 0 
0 0 0 0 0 0 0 0 0 0 0 0 
-0.006750943203891534 0.177143106399981 -0.05829825844415071 -0.0820197417904811 0.04025765893345544 -0.002705921720193994 4.336808689942018e-19 0 -0.002252917619003877 0 -0.01419252113454165 0 
-0.05567160518630433 0.1194177412225197 0 -0.02689587860960595 -0.0237323405178501 -0.006688105425510301 -0.00509448258555196 0 0 0 0 0 
-0.05567160518630433 0.1194177412225197 0 -0.001815742882703569 -0.0237323405178501 0 0 0 0 0 0 0 
0.06365971839968543 0.09397317461221733 0 -0.06264799855621304 -0.07908691591763135 0 0 -0.03047795479260333 -0.006153863951685564 -0.001875697680088626 0 0 
-0.05567160518630433 0.1194177412225197 0 -0.001815742882703569 -0.0237323405178501 0 0 0 0 0 0 0 
-0.05567160518630433 0.1194177412225197 0 -0.001815742882703569 -0.0237323405178501 0 0 0 0 0 0 0 
0 0.08312536014487366 0 -0.06636416754948632 0 0 0 0 0 0 0 0 
0 0.06748016119776019 0 -0.06052377225667615 0 0 0 0 0 0 0 0 
0.0664492693926035 -0.03225818747821614 0.1321165470616514 -0.0805583947551258 0.03561374797869145 -0.05952587404046287 -0.03764627488525307 0 -0.002373462001093842 0 -0.02877434540269884 -0.006664200852107076 
0.3231471995260055 -0.2900973284326642 -0.2118296911359049 0 0 0 0 0 0 0 0 0 
-0.15890492437941 0.09489529792368533 0 0 0 0 0 0 0 0 0 0 
-0.06284946201741942 0.0648107747032915 0 -0.002933177380463275 -6.938893903907228e-18 0 0 0 0 0 0 0 
6.938893903907228e-18 -0.3492684421138081 -0.005805447507667125 -0.01385883711226854 0.2187752097015244 -0.006213617523194589 0 0 0 0 0 0 
-0.04164792627961846 0.244487091175759 -0.01559385267496471 -0.2843194959280522 0.1128810620574411 -0.006213617523194589 -0.008827864119517335 0 0 -0.00215809693970301 -0.002522446414931421 0 
0 0 0 0 0 0 0 0 0 0 0 0 
0.1730353552176036 -0.1815687736390293 -0.00843036129627093 -0.01443875226015911 -0.09588250576557714 -0.03468686121625361 0 1.301042606982605e-18 0 0 -4.87890977618477e-19 -0.03767648266507612 
-0.01904245148670402 -0.00701078492192372 1.734723475976807e-18 0 0.0602486461415942 0 0 0 0 0 0 0 
0.2909926043208905 -0.1829034248410193 3.469446951953614e-18 -0.07005897821995713 0.007539352135424176 0 0 0 0 0 0 0 
0.4057205740999155 -0.4305359225510783 0 -0.004259918493436553 -0.009064719416030475 0 -0.06684993507353286 0 0 0 0 0 
0.1567620833432355 -0.05864175114673693 0.04030347005841649 -0.05783563477825307 -0.01387757398763949 -0.046085211130791 -0.02285111547211226 0 -0.0132838814203572 0 -0.00854878815477784 0 
-0.06438716157185004 0.04700823719614296 0 -0.01322495350132552 -0.02468561101568674 0 0 0 0 0 0 0 
-0.09615107869591942 0.01419238960520202 0 0 0 0 0 0 0 0 0 0 
-0.4822020407721651 0.6935283108394608 -0.08971673866139221 -0.2314814847972607 -0.1913894306960899 0 -0.1124477633756234 0 0 0 -4.336808689942018e-19 0 
-0.06438716157185004 0.04700823719614296 0 -0.01322495350132552 -0.02468561101568674 0 0 0 0 0 0 0 
0 0 0 0 -0.02468561101568674 0 0 0 0 0 0 0 
-0.326197219715212 0.5793208983379824 -0.02951684477174201 -0.05846889344316672 -0.337980479477878 -0.002513504300349091 -0.09087024797763477 -0.01226846335831024 -8.131516293641283e-19 0 -4.336808689942018e-19 0 
0 0 0 0 0 0 0 0 0 0 0 0 
0 0 0 0 0 0 0 0 0 0 0 0 
0.4834993606147961 -0.4672188498335434 -0.001946681250647406 0.01941688965395878 -0.02949332644647926 0 -0.003128843075438384 0 0 0 0 6.505213034913027e-19 
0.1580124922354886 -0.1789066339720525 0 0.04608277136978434 0 0 0 0 0 0 0 0 
0.2721279009258197 -0.2546414349497849 0 -2.168404344971009e-19 -0.02949332644647926 0 0 0 0 0 0 0 
0.8175325584999307 -0.7243234261463757 -0.08041832270327449 -0.02840844186591879 -3.469446951953614e-18 -0.01217287921493456 -0.01826605409043928 0 0 0 0 0 
0.3107310608809696 -0.3132608906548602 0 -0.1138953246987554 0 0 0 0 0 0 0 0 
0.07326858803703198 -0.2264396901013031 0 0 0.2118219927136175 0 0 0 0 0 0 0 
0.539870937179755 -0.5558890270061376 -0.04141949960002691 -0.03798931428457476 -0.1005507383586261 0 0 0 0 0 -4.336808689942018e-19 0 
0.148359322951912 -0.0888911008729167 0 0 0 0 0 0 0 0 0 0 
0.08315544692686316 0 -0.03576388881170961 0 -0.1005507383586261 0 0 0 0 0 0 0 
0 0 0 0 0 0 0 0 0 0 0 0 
0 0 0 0 0 0 -0.004359698470685344 0 -0.000211260467485804 0 0 0 
0 0 0 0 0 0 0 0 0 0 0 0 
0 0 0 0 0 0 -0.004359698470685344 0 0 0 0 0 
-0.1510713548618283 0.2475182893091301 0.09415640239113851 0.04842600277714306 -0.2511793404108603 -0.003012507623624607 -0.04406057128683796 -0.001438970079943345 -0.01531757697261072 0 -0.005070632308819112 -0.009801717791037258 
-0.414898735174725 0.4360422625999768 -0.00405892506988752 0 -1.734723475976807e-18 -0.006398880308866772 -0.02466939487366112 0 0 0 0 0 
0.2773626078463293 -0.1513528947322195 -0.0175507072605344 -0.1733573760256478 -0.04784226802607734 -0.005399750343370022 0.04854945663985389 -0.01460045046547819 -0.006869867869119656 -0.002649848581165885 -0.0007658761721107777 -0.01122188581269544 
0.05747219721132356 -0.04421932794348566 -0.02975702527870314 0 -1.734723475976807e-18 -0.003012507623624609 -0.01960501478315016 0 -0.01531757697261072 0 0 0 
0.8230430301220522 -0.676966052420828 -0.06594729377430189 -0.08335294220995038 -1.734723475976807e-18 -0.003012507623624607 -0.04406057128683796 0 -0.01531757697261072 0 0 -0.005855011615891198 
-0.3782803367487743 0.3840301934273956 -0.00405892506988752 0 0 -0.006398880308866772 -0.02466939487366112 0 0 0 0 0 
-0.3782803367487743 0.3361424676018376 0 0 0 0 0 0 0 0 0 0 
0.04196461589723087 0.1883950595481833 -0.02484681062532249 -0.08399057516520016 -0.102191536880108 -0.01205256392365759 -0.2161850401394352 -0.007611266903933925 0 -0.001379951883589783 -3.252606517456513e-19 0 
0 0 0 0 0 0 0 0 0 0 0 0 
0 0 0 -0.006104362798449709 0 0 0 0 0 0 0 0 
0.05831130681495056 0.03947355988046762 -0.09734708068993976 0.1009921464672566 -0.04614011351919764 -0.003652220903393485 -0.05681466310827391 0 -0.01396530705750799 0 0 0 
-0.2778705724809282 0.5855053623355873 -0.06608751644357228 -0.1586126047817212 -0.2226309262399349 -0.05952587404046287 -0.0293749662992315 -0.001014896147605602 2.168404344971009e-19 -0.002429927750844886 -6.505213034913027e-19 0 
0 0 0 0 0 0 0 0 0 0 0 0 
0 0 0 0 0 0 0 -1.734723475976807e-18 0 0 0 0 
-0.06094033085517279 0.02068199287683364 0.06641372921152906 0 0 0 0 0 0 0 0 0 
0 -0.1544930550653358 0.06641372921152906 0 0 0 0 0 0 0 0 0 
-0.08822928580878479 0.02068199287683364 0.06641372921152906 0 0 0 0 0 0 0 0 0 
0 -0.1544930550653358 0.06641372921152906 0 0 0 0 0 0 0 0 0 
-0.06196022011744097 -0.07854078000509451 0 0.1579292386474122 -0.00647401536206748 0 0 0 0 0 0 0 
-0.06610230663697647 -0.1338909276582536 0.01615695186654117 0.204134140339413 0.003532874668032541 0 0 -0.003403654485846739 0 0 0 0 
-0.06196022011744096 -0.2577002786249193 -0.002597959330728268 0.3634359942228627 -0.01875207834935437 -0.002487978825321429 0 0 0 0 0 0 
-0.06196022011744097 -0.07854078000509451 0 0.1579292386474122 -0.0308302587072905 0 0 0 0 0 0 0 
-0.06196022011744097 -0.07854078000509451 0 0.1579292386474122 -0.00647401536206748 0 0 0 0 0 0 0 
0.1629596712860008 -0.2848829037036225 -0.001888910507055449 0.1440961844519062 -0.006474015362067483 0 0 0 0 0 0 0 
-0.06196022011744097 -0.3615655051994784 -0.002597959330728268 0.4197196969689913 -0.00647401536206748 0 0 0 0 0 0 0 
-0.06196022011744097 -0.07854078000509451 0 0.1579292386474122 -0.00647401536206748 0 0 0 0 0 0 0 
0 0 0 0 0 0 0 0 0 0 0 0 
0.1083705774502073 -0.02162998433872773 0.08200915337487404 0.01533283091857915 -0.02255884004242951 -0.002936427002768686 -0.03129783070079101 -0.02417085548973718 -0.003644891058160084 8.673617379884035e-19 -0.03492934749662127 -0.003774034815133773 
-0.2608075277317295 0.4682340023282541 -0.0004394730272057093 -0.1857129738844699 -0.2769102999340943 0 -0.00501708516433128 0 0 0 0 0 
0.8066911757381212 -0.5888361384416393 -0.03093973146074594 -0.06338730249329191 -0.0986498976423863 -0.01528818623398229 -0.04431398934415831 0 -2.168404344971009e-19 -2.168404344971009e-19 0 -2.168404344971009e-19 
0.05858638715949932 -0.1202998139800975 0 0 0 0 0 0 0 0 0 0 
0.08661522435449719 -0.1186834159860963 8.673617379884035e-19 7.047314121155779e-18 -1.734723475976807e-18 0 -0.00501708516433128 0 0 0 0 0 
0.6313617011767024 -0.5135304151710819 -0.0279785488242541 -0.03966262473412252 -0.0550273126270258 -0.01500268634995653 -0.0414496287125677 0 -2.168404344971009e-19 -2.168404344971009e-19 0 -2.168404344971009e-19 
-0.07466246978553448 0 0 0.05788505338310375 0 0 0 0 0 0 0 0 
0.08473240576748489 0.0003121562262101607 -0.2817216743880021 0.1448866446176075 0.04323644004555659 -0.002101271371306159 -0.03810526835060322 -0.03881663947423301 5.421010862427522e-20 -0.00448754954080694 -0.001731636925514146 -0.01904903623343098 
0.09229293479452146 0.06724364032792796 -0.005622887530330308 -0.01833901195607761 -0.1905556662550064 0 -0.04150684975087267 0 -0.0001369412631138639 -0.01071101926558884 0 -0.009193876657100059 
-0.07466246978553448 0 0 0.05788505338310375 0 0 0 0 0 0 0 0 
0.1257397007152728 -0.3658176921728459 0.1475595849661796 0.1366489854970714 -0.03466881833839725 -0.002101271371306159 -0.008004845828140103 0 0 0 -0.001731636925514144 -0.0108814895220337 
-0.07466246978553448 0 0 0.05788505338310375 0 0 0 0 0 0 0 0 
-0.120308654043953 -0.002130853143247957 -0.01429099432845748 0.2394164800856128 -0.03595329590478107 -0.005157816434231135 -1.734723475976807e-18 0 0 0 0 0 
-0.07390173734476385 -0.1643480268441137 0 0.2769429278226133 -0.01587643806280769 -0.003113376267478183 0 0 0 0 0 0 
-0.07390173734476385 -0.1643480268441137 0 0.2769429278226133 -0.01587643806280769 -0.003113376267478183 0 0 0 0 0 0 
0.03942038378608622 -0.3396331455182811 0 0.330960091441202 -0.01952043651190454 -0.003113376267478183 0 0 -0.01746853855793452 0 0 0 
-0.07390173734476385 -0.1643480268441137 0 0.2769429278226133 -0.01587643806280769 -0.003113376267478183 0 0 0 0 0 0 
0.06937794007850856 -0.03299745602567312 0 -0.02188593290023818 0 0 0 0 0 0 0 0 
0.6689535172729715 -0.59702393423102 -0.02031829436496672 -0.05059749078831065 -0.04259482676963158 -8.131516293641283e-20 -0.0407412138870108 -0.001857047846508912 4.336808689942018e-19 -0.0005258949650246673 -1.084202172485504e-19 0 
0.06937794007850856 -0.03299745602567312 0 -0.02188593290023818 0 0 0 0 0 0 0 0 
0.06937794007850856 -0.03299745602567312 0 -0.02188593290023818 0 0 0 0 0 0 0 0 
0.6689535172729715 -0.59702393423102 -0.02031829436496672 -0.05059749078831065 -0.04259482676963158 -8.131516293641283e-20 -0.0407412138870108 -0.001857047846508912 4.336808689942018e-19 -0.0005258949650246673 -1.084202172485504e-19 0 
0.06937794007850856 -0.03299745602567312 0 -0.02188593290023818 0 0 0 0 0 0 0 0 
-0.3759000100597447 0.2876474724564879 -0.03750043525179085 0.04239979527593515 -0.08057084934977661 -0.0001830713331572242 -6.505213034913027e-19 0 -0.004913188560071664 -0.002486168997853236 0 0 
0.1723140212274398 -0.2486853114936665 0.03835002349601241 0.05209314888215741 0.07950103067469494 0 0.1161844055743782 0 -0.0001369412631138639 0 0 0 
-0.02147077024452982 0 0 0 0 0 0 0 0 0 0 0 
-0.04289596932302268 -0.2773043121391237 1.734723475976807e-18 0.133488290807457 -0.002257809261724317 -0.0001830713331572242 -6.505213034913027e-19 0 0 0 0 0 
0.7079661432294132 -0.5188759006992867 -0.05256954852499413 -0.05849317600094077 -0.1398892251879471 0 -0.0124200195652889 0 -0.0001369412631138639 0 0 0 
-0.02147077024452982 0 0 0 0 0 0 0 0 0 0 0 
0.06504821615430234 -0.00381112861171878 0.04086875207203405 -0.03617569745952152 0.02883066752376579 0 0 0 0 -0.0192648041993027 0 0 
-0.02142519907849285 0 0 0 0 0 0 0 0 0 0 0 
-0.02142519907849285 0 0 0 0 0 0 0 0 0 0 0 
-0.2460102132633843 0.353878316246361 -0.03423183884501314 -0.02434638496180787 -0.04326902091625395 -0.00242043236283378 -0.03635633726033621 0 0 0 -0.01575945754191454 0 
-0.1896064665078027 0.2029878547337281 -0.02200207612336245 4.336808689942018e-19 -0.02993439009118469 0 0 0 0 0 -0.006214180167270025 0 
-0.02822971162399887 -0.2098212797744293 1.734723475976807e-18 -0.07084696702283341 -0.02182184543010927 0 0 0.2786016051539988 0 0 0 0 
-0.2589788627042889 -0.02209180067470921 -0.01936938707353942 0.278300753624266 0.03232652218152406 0 -0.0106570831822651 -0.001269247900951118 0 0 8.673617379884035e-19 0 
0 0 0 -0.03815471472282433 0 0 0 -0.001269247900951118 0 0 0 0 
-0.06648819232691175 0.2708852676910867 0 -0.07084696702283341 -0.01521313578262438 0 0 -0.02717208054132623 0 0 0 0 
0 1.734723475976807e-18 3.469446951953614e-18 -0.07279503531234044 0 0 0 -0.001269247900951118 0 0 0 0 
0 0 0 -0.03815471472282433 0 0 0 -0.001269247900951118 0 0 0 0 
0.03067652398658706 0.1111932086411085 -0.4573392978540518 0.09903346021312261 -0.06789654567085378 -0.002131487436089639 -0.008932290276339117 0 -0.009369684519627173 0 0 0 
-0.02173457672810871 0 0 0 0 0 0 0 0 0 0 0 
-0.1988098868070371 0.291258476106183 -0.01730632666613724 -0.009161756814071751 -0.03165553558011314 0 -0.0006750602951803105 0 0 0 0 0 
0 0 0 0 0 0 0 0 0 0 0 0 
-0.04230877949027127 0.05308855525191061 0 0 0 0 0 0 0 -0.002486588473032318 0 0 
0 0 0 0 0 0 0 0 0 0 0 0 
-0.03803949051907706 0.05788857657205716 -1.301042606982605e-18 -0.03606658345046885 -0.007635003773172017 -0.001987370022551237 1.734723475976807e-18 0 0 -0.006905173176006842 4.336808689942018e-19 0 
0.003547130875048991 0.1684880750979179 -0.07365662270158282 -0.216670406181443 0.005577233258156012 0 0 0 0 0 4.336808689942018e-19 0 
-0.01713076223738447 0.03177259325359282 0 0 -0.006459282320992022 0 0 0 0 0 0 0 
-0.01713076223738447 0.03177259325359282 0 0 -0.006459282320992022 0 0 0 0 0 0 0 
-0.212231766263153 0.3284522024522182 0 0 -0.008627315111961697 0 0 -0.01394489059052815 0 0 0 0 
-0.01713076223738447 0.03177259325359282 0 0 -0.006459282320992022 0 0 0 0 0 0 0 
-0.2610103660607657 0.1442316862729462 -4.910131580007681e-05 0.1211368421118358 -0.03923517863345875 0 0 0 0 0 0 0 
-0.06831359367856703 0.1330747567281367 0 -0.03802010104118603 -0.02129672764808331 0 0 0 0 0 0 0 
-0.06831359367856703 0.1330747567281367 0 -0.03802010104118603 -0.02129672764808331 0 0 0 0 0 0 0 
-0.1132140998583697 -0.5976195582188082 -0.05920154260591214 -0.08415626927770047 0.6546567372923646 -0.008879862575883937 -0.05168043438266499 -0.01824464922921779 -0.01203935922360119 -0.01800944932102701 -0.008308093540193254 -0.004457811442779487 
-0.2591006522005501 -0.4199404599406339 -0.08756087983195873 -0.0716152063612005 0.7130277811333928 -0.004517559336512347 -0.04035185892944624 -0.01679897249936118 -0.006333730588803673 -0.01710497556101 8.673617379884035e-19 -0.007776979792744356 
0.1170556002557434 -0.07235134141772931 0 -0.02974748839164458 -0.03648661274739071 0 0 0 0 0 0 0 
-0.4976533335727772 -0.5354321582060684 -0.05920154260591214 -0.08415626927770049 0.953833689865593 -0.005958688534769882 -0.0041587666695091 -0.01824464922921779 -0.01158947065729148 -0.01793911021114896 -0.00830809354019325 -0.004457811442779489 
-0.007654270965523461 -0.06292856688061016 -0.08756087983195875 -0.02974748839164458 0 -0.001596385295398292 0 -0.00634509288302006 -0.005883842022493962 0 -8.673617379884035e-19 -0.002633281660654314 
-0.1269006198807707 0.06156250619430667 0 0 -0.01462937469430748 0 0 0 0 0 0 0 
0 0 0 0 0 0 0 0 0 0 0 0 
0.2080522678684014 -0.194706254679508 0 -0.02551367199813303 0.0581072865526102 0 0 0 0 0 0 0 
0.2135637458896504 -0.08361659534975274 8.673617379884035e-19 -0.06326832553965461 -0.04191522023066786 -0.002072253137084389 -0.008850993271243052 -0.01460632812760133 0 0 0 -0.005131506374070981 
-0.3131171397930248 0.5052403252024065 0.07047159478896106 -0.08591338848604776 -0.009443361271051463 -0.002399885730637181 -0.01343416656106973 0 0 0 0 0 
0 0.03960707393903236 0 -0.02281635316569856 0 0 0 0 0 0 0 0 
0 0.03960707393903236 0 -0.02281635316569856 0 0 0 0 0 0 0 0 
-0.1008018189693662 0.1704334535414108 -0.0001299686352339027 -0.03748096899290704 -0.005650343165081829 0 0 0 0 0 0 0 
0 0.03960707393903236 0 -0.02281635316569856 0 0 0 0 0 0 0 0 
-0.01452389792939186 -0.03648728764849676 0.05637811142281204 -0.08495940939168405 -0.008309605815599672 -0.006348808099715822 -0.00602935167226862 -0.001513847198547182 -2.168404344971009e-19 0 4.336808689942018e-19 -9.279099331083026e-05 
-0.03063437777183287 0.05269132196710385 0 -0.04719539814447309 -0.03263215172258113 0 0 -0.01597426206992364 -0.004560776278350581 0 0 0 
0 0 0 -1.734723475976807e-18 0 -0.002208378262791359 0 0 0 0 0 0 
0.1146785515540883 -0.128505652711653 0 0 0 0 0 -0.01597426206992364 -0.0008660366454459616 0 0 0 
0 0 0 0 0 0 0 0 0 0 0 0 
0.1855781664747954 -0.05727190016874216 0 -0.01530015669161137 -0.1088618468873337 -0.007198060470007277 3.469446951953614e-18 0 0 0 0 -0.008487854405940735 
0 0 0 0 0 0 0 0 0 0 0 -0.008487854405940737 
0.1028712669812455 -0.1676748512604079 0.255166074739415 -0.01108528339903307 -0.04761986586588249 -4.065758146820642e-19 0 0 0 0 0 0 
0 6.938893903907228e-18 -0.06188316209171283 0 -0.001654645358102321 0 0 0 0 0 0 0 
0 0 0 0 0 0 0 0 0 0 0 0 
0 0 -0.02463105280573889 0 -0.0174572611871441 0 0 0 0 0 0 0 
0.07383005951962887 -0.05600351849736642 0.1229302852312431 -0.1076530117710503 0.06286561385764168 -0.002743318418413806 -0.008606907570509918 -0.009995581168700349 -0.003527748363313625 0 -1.084202172485504e-18 -0.001352343902460818 
0 0 0 0 0 0 0 0 0 0 0 0 
0.01593170351364896 0.05105822347344362 -0.01112080610111497 -0.02217260042611888 -0.02072022238816049 -0.002743318418413806 0 -0.006109599308249256 -0.001224731051943828 0 0 0 
0.01816826802788418 -0.05619930689458374 -0.1454185064683931 0.06319346009921022 0.05413676902932376 -0.002612141944843071 0.1268928742666145 0.1627033932594216 -0.009294581894959304 -0.001179180102773228 -0.001672489506059369 -0.007987504572872011 
-0.1827515504789684 -0.04613746829308541 0 -0.001977024067000488 -0.171546629011167 0 0.3342497554513839 -0.0036720475772468 0 0 0 0 
-0.2494491434695263 0.2572276324562847 -0.009364142686919466 -0.01905517939335992 0.1278276390116673 1.084202172485504e-19 -0.1238790858219153 -0.006341287345977551 0 -0.001179180102773228 0 0 
0 0.01173483654051145 0 0 0 0 -0.04614725016245433 -0.0007284958458392112 0 0 0 0 
-0.0516551010950496 0.1155200345808367 -0.03908172201522198 -0.0339905266577535 -0.02390958759515343 -0.008485272723904095 -0.05539191997030898 0 0 0 2.168404344971009e-19 0 
-0.04893753747225333 0.1105234178520232 0 -0.01399014807348133 0 0 -0.006587479342258749 0 0 0 0 0 
0.06375135686901785 -0.1284934285124463 0 -0.007843019786294305 -3.469446951953614e-18 -0.002406084283533818 -0.01497243040517479 0 0 0 0 0 
-0.02299498145320809 0.08655043226954119 -0.0347289131518187 -0.0339905266577535 -0.02313314797418447 -0.002406084283533818 -0.01497243040517479 0 0 0 0 0 
0.02397691818555843 -0.05241621578360242 0 0 0 0 0 0 0 0 0 0 
-0.1182623037095043 0.2059732964953052 0 -0.07199254650344415 0 0 0 0 0 0 0 0 
-0.06304948574211189 0.09482802923934368 0 0 0 0 0 0 0 0 0 0 
0.07772095718898712 0.1257896651059503 -0.08467762364922486 -0.1001426982923602 -0.1736120476638022 -0.002513504300349091 1.734723475976807e-18 0 -5.421010862427522e-20 0 -1.084202172485504e-19 0 
-0.06304948574211189 0.09482802923934368 0 0 0 0 0 0 0 0 0 0 
0.1051423242251275 0 -0.1530851962961926 -0.02421573078455807 0 0 0 0 -0.0006441128391080737 0 0 0 
0.3166904555611494 -0.3655696988167613 -0.01113815561859836 -0.01173955516948864 -0.02903519602475116 0 0 0 -0.002680989553051509 -0.003604335591980102 0 -0.002046232440291993 
0 0 0 0 0 0 0 0 0 0 0 0 
0.1767606715882608 -0.102878530105615 0 -2.602085213965211e-18 -0.02903519602475116 0 0 0 -0.00268098955305151 -0.003604335591980102 0 0 
-0.1327525916525021 -0.08587064836641042 0.4293089469007397 -0.2407717158823615 0.005407927866472217 -0.00499362172925389 -0.006537620655215086 -0.006083140157146056 -0.007878685564209596 -1.409462824231156e-18 -0.006299942287262651 -0.004394423817347675 
0 0 0 0 0 0 0 0 0 0 0 0 
-0.03331255605895944 0.02142208681729187 0 -0.2265150692543109 -0.01851927069478121 -0.0009589408533816112 0 0 0 0 0 0 
0.1064691537879201 -0.1894931806916513 0 0 0 0 0 0 0 0 0 0 
0.1816972229150576 -0.1463116587315899 0.1272683649441642 0.1721440483838985 -0.04149522371152629 0 0 0 0 0 0 0 
0.5607893656043135 -0.5956859740457434 0 0 0 0 0 0 0 0 0 0 
0 0.1266795598794416 0 -0.1969834923322476 0 0 0 0 0 0 0 0 
-0.4039517384526979 0.3164009100569852 -0.02207517306460575 0.04708004653429426 -0.1120332071488926 -0.002242869706172027 -0.00939068648088587 -0.01296327902340897 0 1.084202172485504e-19 -3.604972223514302e-18 -0.002179903760023018 
0.2774206549211685 -0.3629660930534863 -0.1352201508909761 0.1858283168845423 0.0110285398088225 -0.01042514509214764 -0.08985597285705782 -6.23416249179165e-19 -0.004811980674651343 -0.01176311091664919 -1.517883041479706e-18 -0.00785433717554352 
0 0.1266795598794416 0 -0.1969834923322476 0 0 0 0 0 0 0 0 
-0.5484603073915406 0.4553042609874323 -0.02207517306460575 0.0835504273287008 -0.1120332071488926 -0.002242869706172027 -0.00939068648088587 -0.01296327902340897 0 1.084202172485504e-19 -3.577867169202165e-18 -0.002179903760023018 
-0.1118981618907888 -0.3585648342119221 0 0.420829159283399 0 0 0 0 0 0 0 0 
-0.01566848114220312 0.1307900578380341 0 -0.01345460841856972 -0.08981104836403024 0 0 0 -0.004507156441056154 0 0 0 
-0.222185535746586 0.2055959351622769 0 -0.01362438991083014 0 0 -0.003136718695541885 0 0 0 0 0 
0 0 0 0 0 0 0 0 0 0 0 0 
0 0 0 0 0 0 0 0 0 0 0 0 
0 0 0 0 0 0 0 0 0 0 0 0 
-0.1257709467625476 0.2432257475000079 -0.01943725170974963 -0.1692840090418506 0.0742739533578566 -0.002720962558338598 -0.01142438329913443 0 -0.004507156441056154 -0.0394908068564097 4.336808689942018e-18 4.336808689942018e-19 
-0.07080639970658172 0.07009806481780037 -0.0002618730460886218 0.0897954955665085 -0.0101234164234363 -0.0003542113314823645 -0.006315707984578875 0 -5.421010862427522e-20 -0.02389768697398224 -0.01040237465989042 0 
0.1343118606616006 -0.1310258343510378 -0.03268917546123427 -0.2153312305474595 0.06402008996225968 -0.0001745574930495634 0.04114331515861921 -0.002943551731407588 0 -0.05054567098158284 -0.0003805984057385191 0 
0 0.04194818930870618 -0.03333486720501322 -0.0002272229922605364 0 -0.0003542113314823641 0 0 0 -0.01155451416673612 0 0 
0.1214448430104266 0.007599697981731162 -0.01271679699352907 -3.469446951953614e-18 -0.02142949677652779 0 -0.08308831723059765 0 0 -0.05054567098158284 0 0 
-0.1361791302785179 0.2474850587084647 -0.0009802505066006054 -0.0896959638526713 -0.01924065982556419 0 0 0 0 0 0 0 
0 0 0 0 0 0 0 0 0 0 0 0 
-0.1361791302785179 0.2474850587084648 -0.0009802505066006054 -0.0896959638526713 -0.01924065982556419 0 0 0 0 0 0 0 
-0.0369851830737517 0.07501534024469439 -0.0009802505066006054 -0.006158047163845531 0 0 0 0 0 0 0 0 
0 0 0.0833939106055024 0 0 0 0 0 0 0 0 -0.001119494463581331 
