solver_type L2R_L2LOSS_SVC_DUAL
nr_class 3
label 1 2 3
nr_feature 51
bias -1
w
0.06047932964560142 -0.05139067638503442 -0.04758318765075337 
0.06047932964560142 -0.05139067638503442 -0.04758318765075337 
0.03427226939030426 -0.1072442610748114 -0.09050874551811716 
0.1539524135811708 -0.1215264728488447 -0.1026774441120404 
0.06047932964560142 -0.05139067638503442 -0.04758318765075337 
0.06047932964560142 -0.05139067638503442 -0.04758318765075337 
0.06047932964560142 -0.05139067638503442 -0.04758318765075337 
0.1539524135811708 -0.1215264728488447 -0.1026774441120404 
0.06047932964560142 -0.05139067638503442 -0.04758318765075337 
0.03427226939030426 -0.1072442610748114 -0.09050874551811716 
0.1781928894063141 -0.1500746378008477 -0.1026774441120404 
0.04603894857179879 -0.06291931833551226 -0.1968856816901727 
-0.1732458997075017 0.1949974638769389 -0.04911438116796155 
-0.1732458997075017 0.1949974638769389 -0.04911438116796155 
-0.1732458997075017 0.1949974638769389 -0.04911438116796155 
-0.1732458997075017 0.1949974638769389 -0.04911438116796155 
-0.1732458997075017 0.1949974638769389 -0.04911438116796155 
-0.1732458997075017 0.1949974638769389 -0.04911438116796155 
-0.03106355495421917 0.07284364362054416 -0.09836817761552935 
-0.08861658923664735 -0.05856143184651101 0.1105368762094526 
-0.08861658923664735 -0.05856143184651101 0.1105368762094526 
-0.08861658923664735 -0.05856143184651101 0.1105368762094526 
-0.08861658923664735 -0.05856143184651101 0.1105368762094526 
-0.08861658923664735 -0.05856143184651101 0.1105368762094526 
-0.08861658923664735 -0.05856143184651101 0.1105368762094526 
-0.08861658923664735 -0.05856143184651101 0.1105368762094526 
-0.08861658923664735 -0.05856143184651101 0.1105368762094526 
-0.08861658923664735 -0.05856143184651101 0.1105368762094526 
-0.08861658923664735 -0.05856143184651101 0.1105368762094526 
-0.08861658923664735 -0.05856143184651101 0.1105368762094526 
-0.08861658923664735 -0.05856143184651101 0.1105368762094526 
0.1177135597607126 -0.09868396141581329 -0.05509425646128702 
0.1421823447532825 -0.1221538202563948 -0.04925379644756778 
0.1421823447532826 -0.1221538202563948 -0.04925379644756778 
0.02424047582514324 -0.02854816495200318 0 
0.1421823447532825 -0.1221538202563948 -0.04925379644756778 
0.1421823447532826 -0.1221538202563948 -0.04925379644756778 
0.05064284979985563 -0.04161709558256514 -0.04708549790476081 
0.05064284979985563 -0.04161709558256514 -0.04708549790476081 
0.05064284979985563 -0.04161709558256514 -0.04708549790476081 
0.05064284979985563 -0.04161709558256514 -0.04708549790476081 
0.05064284979985563 -0.04161709558256514 -0.04708549790476081 
0.1179418689281393 -0.09360565530439161 -0.04925379644756778 
0.1179418689281393 -0.09360565530439161 -0.04925379644756778 
0.04283023413571375 -0.02851870088124502 -0.008008758556526205 
0.04283023413571375 -0.02851870088124502 -0.008008758556526205 
0.04283023413571375 -0.02851870088124502 -0.008008758556526205 
0.04283023413571375 -0.02851870088124502 -0.008008758556526205 
0.04283023413571375 -0.02851870088124502 -0.008008758556526205 
0 0 0 
0 0 0 
