solver_type L2R_L2LOSS_SVC_DUAL
nr_class 3
label 1 2 3
nr_feature 265
bias -1
w
0 0 0 
0 0 0 
0.2272206582228923 -0.2361856924340309 -0.2268040129164522 
0.02141568356909566 -0.01399931355218789 -0.0200949875557622 
0 0 0 
0 0 0 
0.06815168630018384 -0.04606253799380026 -0.04232364248405157 
0 0 0 
0.1590689719227084 -0.1901231544402306 -0.1844803704324005 
0.203457331061675 -0.2606480815316883 -0.1003143931183983 
0.1330483702548841 -0.1257877863232875 -0.2299601754799694 
0 0 0 
0 0 0 
0.02094264077838684 -0.01390719110355002 -0.02219072691169676 
0.02094264077838684 -0.01390719110355002 -0.02219072691169676 
0.03566437406040714 -0.02363793009102169 -0.03747913480251966 
0.02094264077838684 -0.01390719110355002 -0.02219072691169676 
0.02094264077838684 -0.01390719110355002 -0.02219072691169676 
0.02094264077838684 -0.01390719110355002 -0.02219072691169676 
0.03566437406040714 -0.02363793009102169 -0.03747913480251966 
0.02094264077838684 -0.01390719110355002 -0.02219072691169676 
0.06726710981953145 -0.04786794897452532 -0.03747913480251966 
0 0 0 
0 0 0 
0.009289911656051798 -0.005011448168749543 -0.01157614622224265 
0 0 0 
0 0 0 
0 0 0 
0.09274111919789839 -0.06718577984759463 -0.0814882999638567 
0.02154362377375125 -0.0130280044338989 -0.02076757797552877 
0 0 0 
0.02998562014602404 -0.02038150186864605 -0.02804222615028181 
0.02998562014602404 -0.02038150186864605 -0.02804222615028181 
0.04451501569558866 -0.03005051414507653 -0.04149405957862676 
0.05302818827100884 -0.03615198017065956 -0.04953961290849617 
0.02998562014602404 -0.02038150186864605 -0.02804222615028181 
0.02998562014602404 -0.02038150186864605 -0.02804222615028181 
0.02200343742685796 -0.01564344241714395 -0.01786013424960995 
0.02200343742685796 -0.01564344241714395 -0.01786013424960995 
0.007982182719166082 -0.004738059451502101 -0.01018209190067186 
0.02878860281024061 -0.01787577522148234 -0.02904958821032306 
0.007982182719166082 -0.004738059451502101 -0.01018209190067186 
0.007982182719166082 -0.004738059451502101 -0.01018209190067186 
0.02898694218215518 -0.02121134597518366 0 
-0.1375020387729923 0.1528542942498984 -0.03394753644228814 
0.02898694218215518 -0.02121134597518366 0 
0.02898694218215518 -0.02121134597518366 0 
0.02898694218215518 -0.02121134597518366 0 
0.02898694218215518 -0.02121134597518366 0 
0.02898694218215518 -0.02121134597518366 0 
0.02898694218215518 -0.02121134597518366 0 
0.06425627068978497 -0.04737674310258836 -0.03521007155125946 
0.002274453106603916 0 -0.0002304278173494989 
0.04822682057318456 -0.04495567047821294 -0.01371591209337809 
0.002274453106603916 0 -0.0002304278173494989 
0.03387718886572821 -0.02423001888350361 -0.0002304278173494989 
0.002274453106603916 0 -0.0002304278173494989 
0.04822682057318456 -0.04495567047821294 -0.01371591209337809 
0.002274453106603916 0 -0.0002304278173494989 
0.002274453106603916 0 -0.0002304278173494989 
0.03102475084415089 -0.02050853775351561 -0.03167947865888622 
0 0 0 
0 0 0 
0 0 0 
0.1044718433391834 -0.08685867621242158 -0.05316471933376042 
0 0 0 
0.03254514290383932 -0.02203003356126619 -0.03024838430035194 
0 0 0 
0 0 0 
0 0 0 
0.03254514290383932 -0.02203003356126619 -0.03024838430035194 
0 0 0 
0.03254514290383932 -0.02203003356126619 -0.03024838430035194 
0.03254514290383932 -0.02203003356126619 -0.03024838430035194 
0.03254514290383932 -0.02203003356126619 -0.03024838430035194 
0.03254514290383932 -0.02203003356126619 -0.03024838430035194 
0.03254514290383932 -0.02203003356126619 -0.03024838430035194 
0.03254514290383932 -0.02203003356126619 -0.03024838430035194 
0 0 0 
0 0 -5.597540462526194e-05 
0 0 -0.0001119508092505239 
0 0 0 
0 0 -5.597540462526194e-05 
0 0 -5.597540462526194e-05 
0 0 -5.597540462526194e-05 
0 0 0 
0.04720772372162407 -0.04515003827549642 -0.01644168038328649 
0 0 0 
0 0 0 
0 0 0 
0.04720772372162407 -0.04515003827549642 -0.01644168038328649 
0 0 0 
0.02224506408382849 -0.01107453193536737 -0.01837834659982108 
0.03581316701971701 -0.01107453193536737 -0.02887851974904447 
0.03581316701971701 -0.01107453193536737 -0.02887851974904447 
0.02224506408382849 -0.01107453193536737 -0.01837834659982108 
0.03581316701971701 -0.01107453193536737 -0.02887851974904447 
0.03581316701971701 -0.01107453193536737 -0.02887851974904447 
0.03452382986859237 -0.02422723171372764 -0.0198417428641364 
0.03581316701971701 -0.01107453193536737 -0.02887851974904447 
-0.1318282063621407 -0.02700570197987008 0.1403941652023734 
0.03452382986859237 -0.02422723171372764 -0.0198417428641364 
0.0135681029358885 0 -0.01050017314922338 
0.0135681029358885 0 -0.01050017314922338 
0 0 0 
0.004167016031771195 -0.003653590965006322 -0.003598472813227459 
0.004167016031771195 -0.003653590965006322 -0.003598472813227459 
0 0 0 
0.004167016031771195 -0.003653590965006322 -0.003598472813227459 
0.004167016031771195 -0.003653590965006322 -0.003598472813227459 
0.02552730233888063 -0.02416794041722321 -0.008884813848370077 
0.004167016031771195 -0.003653590965006322 -0.003598472813227459 
0.02552730233888063 -0.02416794041722321 -0.008884813848370077 
0.008235458805911736 -0.0105243612405534 0 
0.008235458805911736 -0.0105243612405534 0 
0.008235458805911736 -0.0105243612405534 0 
0.008235458805911736 -0.0105243612405534 0 
0.008235458805911736 -0.0105243612405534 0 
0.008235458805911736 -0.0105243612405534 0 
0.02058099968687346 -0.0136957239777869 -0.02158385968092944 
0.03530273296889376 -0.02342646296525856 -0.03687226757175234 
0.02987091134292526 -0.01870717214653644 -0.03316000590317209 
0.02058099968687346 -0.0136957239777869 -0.02158385968092944 
0.02058099968687346 -0.0136957239777869 -0.02158385968092944 
0.03530273296889376 -0.02342646296525856 -0.03687226757175234 
0.02987091134292526 -0.01870717214653644 -0.03316000590317209 
0.02058099968687346 -0.0136957239777869 -0.02158385968092944 
0.0441452483333191 -0.03559755874032886 -0.02632555806816145 
-0.174097400868231 0.1824631549554636 -0.01197114557526089 
-0.2057001366273553 0.2066931738389672 -0.01197114557526089 
-0.2057001366273553 0.2066931738389672 -0.01197114557526089 
-0.2057001366273553 0.2066931738389672 -0.01197114557526089 
-0.2057001366273553 0.2066931738389672 -0.01197114557526089 
-0.2057001366273553 0.2066931738389672 -0.01197114557526089 
-0.2057001366273553 0.2066931738389672 -0.01197114557526089 
0.05042832452511836 -0.0357884138213445 -0.02381518319289874 
0.01121716885291052 -0.003160880207459466 -0.001838792325871495 
0.01121716885291052 -0.003160880207459466 -0.001838792325871495 
0.01121716885291052 -0.003160880207459466 -0.001838792325871495 
0.01121716885291052 -0.003160880207459466 -0.001838792325871495 
0.01121716885291052 -0.003160880207459466 -0.001838792325871495 
0.01121716885291052 -0.003160880207459466 -0.001838792325871495 
0.01121716885291052 -0.003160880207459466 -0.001838792325871495 
0.01472173328202029 -0.009730738987471668 -0.0152884078908229 
0.01472173328202029 -0.009730738987471668 -0.0152884078908229 
0.01472173328202029 -0.009730738987471668 -0.0152884078908229 
0.01472173328202029 -0.009730738987471668 -0.0152884078908229 
0.02251157826873071 -0.01440707172793259 -0.02363392532901681 
0.02251157826873071 -0.01440707172793259 -0.02363392532901681 
0.02251157826873071 -0.01440707172793259 -0.02363392532901681 
0.02251157826873071 -0.01440707172793259 -0.02363392532901681 
0.02251157826873071 -0.01440707172793259 -0.02363392532901681 
0.02251157826873071 -0.01440707172793259 -0.02363392532901681 
0.02251157826873071 -0.01440707172793259 -0.02363392532901681 
0.009289911656051798 -0.005011448168749543 -0.01157614622224265 
0.009289911656051798 -0.005011448168749543 -0.01157614622224265 
0.009289911656051798 -0.005011448168749543 -0.01157614622224265 
0.009289911656051798 -0.005011448168749543 -0.01157614622224265 
0.009289911656051798 -0.005011448168749543 -0.01157614622224265 
0.02080642009107454 -0.01313771576998024 -0.0188674963096512 
0.02080642009107454 -0.01313771576998024 -0.0188674963096512 
0.02080642009107454 -0.01313771576998024 -0.0188674963096512 
0.02080642009107454 -0.01313771576998024 -0.0188674963096512 
0.02080642009107454 -0.01313771576998024 -0.0188674963096512 
0.02080642009107454 -0.01313771576998024 -0.0188674963096512 
0.02080642009107454 -0.01313771576998024 -0.0188674963096512 
-0.1676413733818577 -0.01593117004450272 0.1692726849514179 
-0.1676413733818577 -0.01593117004450272 0.1692726849514179 
-0.1676413733818577 -0.01593117004450272 0.1692726849514179 
-0.1676413733818577 -0.01593117004450272 0.1692726849514179 
-0.1676413733818577 -0.01593117004450272 0.1692726849514179 
-0.1676413733818577 -0.01593117004450272 0.1692726849514179 
-0.1676413733818577 -0.01593117004450272 0.1692726849514179 
-0.1676413733818577 -0.01593117004450272 0.1692726849514179 
-0.1676413733818577 -0.01593117004450272 0.1692726849514179 
0.03703022503000337 -0.02809117292816408 -0.009711417910657959 
0.03367360168181679 -0.03180297069985268 -0.01202208801171327 
0.02459208115947124 -0.02444132102599606 -0.00819914324088597 
0.03367360168181679 -0.03180297069985268 -0.01202208801171327 
0 0 0 
0 0 0 
0 0 0 
0 0 0 
0.02136028630710942 -0.02051434945221689 -0.005286341035142618 
0.03921115567220784 -0.03262753361388503 -0.02197639086702724 
0.03921115567220784 -0.03262753361388503 -0.02197639086702724 
0.03921115567220784 -0.03262753361388503 -0.02197639086702724 
0.03921115567220784 -0.03262753361388503 -0.02197639086702724 
0.03921115567220784 -0.03262753361388503 -0.02197639086702724 
0.03921115567220784 -0.03262753361388503 -0.02197639086702724 
0.03897226491571235 -0.03462567703494301 -0.01644168038328649 
0.03897226491571235 -0.03462567703494301 -0.01644168038328649 
0.03897226491571235 -0.03462567703494301 -0.01644168038328649 
0.03897226491571235 -0.03462567703494301 -0.01644168038328649 
0.03897226491571235 -0.03462567703494301 -0.01644168038328649 
0.03897226491571235 -0.03462567703494301 -0.01644168038328649 
0 0 0 
0 0 0 
0 0 0 
0 0 0 
0 0 0 
0.02154362377375125 -0.0130280044338989 -0.02076757797552877 
0.02154362377375125 -0.0130280044338989 -0.02076757797552877 
0.02154362377375125 -0.0130280044338989 -0.02076757797552877 
0.02154362377375125 -0.0130280044338989 -0.02076757797552877 
0.02154362377375125 -0.0130280044338989 -0.02076757797552877 
0.02154362377375125 -0.0130280044338989 -0.02076757797552877 
0.02154362377375125 -0.0130280044338989 -0.02076757797552877 
0.03160273575912432 -0.02423001888350361 0 
0 0 0 
0 0 0 
0.03160273575912432 -0.02423001888350361 0 
0 0 0 
0.003467838582847266 -0.006746877230722568 0 
0.003467838582847266 -0.006746877230722568 0 
0.003467838582847266 -0.006746877230722568 0 
0.003467838582847266 -0.006746877230722568 0 
0.003467838582847266 -0.006746877230722568 0 
0.003467838582847266 -0.006746877230722568 0 
0 0 0 
0 0 0 
0.03102475084415089 -0.02050853775351561 -0.03167947865888622 
0.03102475084415089 -0.02050853775351561 -0.03167947865888622 
0.03102475084415089 -0.02050853775351561 -0.03167947865888622 
0.03102475084415089 -0.02050853775351561 -0.03167947865888622 
0.04330351662891477 -0.03366123753187589 -0.03314287492320154 
0.0190871564542611 -0.01633731816957983 -0.00472308002458529 
0.02022657247366378 -0.01902302126974186 -0.009772056154507644 
0.02022657247366378 -0.01902302126974186 -0.009772056154507644 
0.0190871564542611 -0.01633731816957983 -0.00472308002458529 
0.02022657247366378 -0.01902302126974186 -0.009772056154507644 
0.02022657247366378 -0.01902302126974186 -0.009772056154507644 
0.001139416019402691 -0.002685703100162032 -0.005048976129922354 
0.001139416019402691 -0.002685703100162032 -0.005048976129922354 
0.004477092192184541 -0.005564516592962138 -1.861836264671922e-05 
0.004477092192184542 -0.005564516592962138 -1.861836264671922e-05 
0.004477092192184542 -0.005564516592962138 -1.861836264671922e-05 
0.004477092192184541 -0.005564516592962138 -1.861836264671922e-05 
0.004477092192184542 -0.005564516592962138 -1.861836264671922e-05 
0.004477092192184542 -0.005564516592962138 -1.861836264671922e-05 
0 0 0 
0.01243814387053214 -0.003649851902168031 -0.001512274669771989 
0.01243814387053214 -0.003649851902168031 -0.001512274669771989 
0.01243814387053214 -0.003649851902168031 -0.001512274669771989 
0.01243814387053214 -0.003649851902168031 -0.001512274669771989 
0.01243814387053214 -0.003649851902168031 -0.001512274669771989 
0.01243814387053214 -0.003649851902168031 -0.001512274669771989 
0.01243814387053214 -0.003649851902168031 -0.001512274669771989 
0.01243814387053214 -0.003649851902168031 -0.001512274669771989 
0.0316027357591243 -0.02423001888350361 0 
0.0316027357591243 -0.02423001888350361 0 
0.0316027357591243 -0.02423001888350361 0 
0.0316027357591243 -0.02423001888350361 0 
0.01227876578476388 -0.01315269977836027 -0.001463396264315319 
0.01227876578476388 -0.01315269977836027 -0.001463396264315319 
0.01227876578476388 -0.01315269977836027 -0.001463396264315319 
0.01227876578476388 -0.01315269977836027 -0.001463396264315319 
0.01227876578476388 -0.01315269977836027 -0.001463396264315319 
0.02141568356909567 -0.01399931355218788 -0.0200949875557622 
0.02141568356909567 -0.01399931355218788 -0.0200949875557622 
0.02141568356909567 -0.01399931355218788 -0.0200949875557622 
0.02141568356909567 -0.01399931355218788 -0.0200949875557622 
0.02141568356909567 -0.01399931355218788 -0.0200949875557622 
0.02141568356909567 -0.01399931355218788 -0.0200949875557622 
0.02141568356909567 -0.01399931355218788 -0.0200949875557622 
