solver_type L2R_L2LOSS_SVC_DUAL
nr_class 1
label 1
nr_feature 61
bias -1
w
0.009643089483616904 
0.009643089483616904 
0.1829441869577389 
0.06723903296363028 
0.03219521739932985 
0.009643089483616904 
0.009643089483616904 
0.03219521739932985 
0.03219521739932985 
0.1829441869577389 
0.1925872764413558 
0.03219521739932985 
0.009643089483616904 
0.03876195416402881 
0.03876195416402881 
0.03876195416402881 
0.03876195416402881 
0.03876195416402881 
0.03876195416402881 
0.03876195416402881 
0.03876195416402881 
0.07380576972832928 
0.03876195416402881 
0.0205153905975295 
0.0205153905975295 
0.03504381556430045 
0.0205153905975295 
0.0205153905975295 
0.03504381556430045 
0.03504381556430045 
0.03504381556430045 
0.07038994896246276 
0.01452842496677095 
0.01452842496677095 
0.01452842496677095 
0.01452842496677095 
0.01452842496677095 
0.01452842496677095 
0.02255212791571293 
0.06414919434763049 
0.02255212791571293 
0.06414919434763049 
0.02255212791571293 
0.02255212791571293 
0.03534613339816228 
0.03534613339816228 
0.03534613339816228 
0.03534613339816228 
0.03534613339816228 
0.03534613339816228 
0.03534613339816228 
0.03534613339816228 
0.03534613339816228 
0.03534613339816228 
0.04159706643191756 
0.04159706643191756 
0.04159706643191756 
0.04159706643191756 
0.04159706643191756 
0.04159706643191756 
0.04159706643191756 
