solver_type L2R_L2LOSS_SVC_DUAL
nr_class 1
label 1
nr_feature 65
bias -1
w
0.0261927773405617 
0.1086414417709635 
0.1308986682662663 
0.0261927773405617 
0.0261927773405617 
0.0261927773405617 
0.1086414417709635 
0.0261927773405617 
0.0261927773405617 
0.1308986682662663 
0.1308986682662663 
0.09556106771544953 
0.154212952039664 
0.000402170474942197 
0.000402170474942197 
0.000402170474942197 
0.000402170474942197 
0.000402170474942197 
0.000402170474942197 
0.000402170474942197 
0.0005943841651903921 
0.0005943841651903921 
0.0006548868031527244 
0.0005943841651903921 
0.0005943841651903921 
0.0005943841651903921 
0.0005943841651903921 
0.01124909105566002 
0.04658669160647678 
0.01124909105566002 
0.01124909105566002 
0.04658669160647678 
0.01124909105566002 
6.050263796233211e-05 
6.050263796233211e-05 
6.050263796233211e-05 
6.050263796233211e-05 
6.050263796233211e-05 
0.02067431734948037 
0.02067431734948037 
0.03480491554583007 
0.02067431734948037 
0.02067431734948037 
0.02067431734948037 
0.03533760055081676 
0.03533760055081676 
0.03533760055081676 
0.03533760055081676 
0.02225722649530283 
0.02225722649530283 
0.02225722649530283 
0.03638782469165253 
0.02225722649530283 
0.02225722649530283 
0.02225722649530283 
0.02225722649530283 
0 
0 
0 
0 
0.0141305981963497 
0.0141305981963497 
0.0141305981963497 
0.0141305981963497 
0.0141305981963497 
