solver_type L2R_L2LOSS_SVC_DUAL
nr_class 2
label 1 2
nr_feature 78
bias -1
w
0.06082416162314266 
0.06082416162314266 
-0.04794437817956827 
0.06082416162314266 
0.112004427023533 
0.06082416162314266 
0.06082416162314266 
0.06082416162314266 
0.06082416162314266 
0.2270751468644912 
0.06082416162314266 
-0.04794437817956827 
-0.05320678584830611 
0.06082416162314266 
0.09162937493170811 
0.09162937493170811 
0.09162937493170811 
0.09162937493170811 
0.09162937493170811 
0.09162937493170811 
0.09162937493170811 
0.09162937493170811 
-0.1525170588396986 
0.05118026540039037 
0.1168677022350849 
0.05118026540039037 
0.05118026540039037 
0.1168677022350849 
0.1168677022350849 
0.06568743683469455 
0.06568743683469455 
0.06568743683469455 
0.06568743683469455 
-0.05242621570208264 
0.07566198578455771 
0.133786487740764 
0.07566198578455771 
0.07566198578455771 
0.07566198578455771 
0.133786487740764 
0.07566198578455771 
0.05812450195620637 
0.05812450195620637 
0.05812450195620637 
0.05812450195620637 
0.05812450195620637 
0.05812450195620637 
-0.1160582322847663 
-0.1160582322847663 
-0.1160582322847663 
-0.1160582322847663 
-0.1160582322847663 
-0.1160582322847663 
-0.1160582322847663 
-0.1160582322847663 
-0.09287472346741257 
-0.220962924954053 
-0.09287472346741257 
-0.09287472346741257 
-0.09287472346741257 
-0.220962924954053 
-0.09287472346741257 
-0.09287472346741257 
-0.09287472346741257 
-0.1140309474714488 
-0.1140309474714488 
-0.1140309474714488 
-0.1140309474714488 
-0.1140309474714488 
-0.1140309474714488 
-0.1140309474714488 
-0.1140309474714488 
-0.1140309474714488 
-0.1280882014866404 
-0.1280882014866404 
-0.1280882014866404 
-0.1280882014866404 
-0.1280882014866404 
